~o
<STREAMINFO> 1 39
<VECSIZE> 39<NULLD><MFCC_D_A_0><DIAGC>
~h "changge"
<BEGINHMM>
<NUMSTATES> 15
<STATE> 2
<NUMMIXES> 4
<MIXTURE> 1 2.068966e-001
<MEAN> 39
 -2.803129e+001 -6.825157e+000 -9.076427e+000 -8.753524e+000 -7.680702e+000 -5.341240e+000 1.505249e+000 5.981481e-001 3.725323e+000 -1.253599e+000 -6.757644e+000 1.868591e+000 7.244812e+001 -1.803176e-003 -3.664178e-002 -1.790182e-001 3.736274e-001 1.389322e-001 -1.045794e+000 1.947410e-001 -2.789367e-001 -4.111148e-001 6.238415e-001 3.075729e-002 -3.966391e-001 5.208463e-001 5.643824e-001 -8.903088e-001 2.482835e-001 -2.198725e-001 6.031412e-002 2.557111e-001 -3.652399e-001 -4.101341e-002 3.316568e-002 -6.990229e-001 8.956280e-002 -3.773631e-001 -3.260298e-001
<VARIANCE> 39
 1.134915e+001 3.241604e+001 2.645025e+001 2.076430e+001 2.611807e+001 4.507562e+001 1.572405e+001 2.880606e+001 2.343593e+001 5.368765e+001 2.415794e+001 1.983187e+001 3.996100e+000 1.256151e+000 4.362936e+000 1.518313e+000 7.498647e-001 1.049130e+000 2.690866e+000 1.453238e+000 1.402830e+000 1.664081e+000 2.646510e+000 1.230010e+000 1.407088e+000 6.613132e-001 7.096728e-002 2.974845e-001 2.727633e-001 1.798939e-001 2.211095e-001 5.050970e-001 2.689663e-001 1.799609e-001 3.115202e-001 2.407624e-001 2.572923e-001 1.482606e-001 4.467903e-002
<GCONST> 9.591594e+001
<MIXTURE> 2 1.140584e-001
<MEAN> 39
 -7.345285e+000 -1.344409e+001 -1.080671e+001 -2.369637e+001 -1.151166e+001 6.046288e+000 -1.085205e+000 2.129521e+000 9.021480e+000 -8.319302e+000 -6.016721e-001 -7.872985e+000 7.459299e+001 2.120058e+000 3.239492e-001 -1.615004e+000 -2.404250e+000 -8.687430e-001 7.641754e-001 1.354196e+000 2.391445e-002 6.251991e-001 1.226457e+000 1.251965e+000 -5.537938e-001 1.419708e+000 -4.412537e-001 -3.379063e-001 -1.070544e-001 2.685220e-001 1.517368e-001 -1.836891e-001 -7.970323e-002 -1.834489e-001 -1.660885e-002 -1.761439e-001 -4.769984e-002 4.586788e-001 -2.369267e-001
<VARIANCE> 39
 7.013050e+000 3.812193e+000 2.120904e+001 2.113891e+001 1.827712e+001 6.133809e+001 2.999775e+001 3.346037e+001 2.012514e+001 3.303462e+001 2.189361e+001 5.255140e+001 3.032141e+000 4.380297e-001 3.736032e-001 5.181860e-001 7.474340e-001 9.552313e-001 1.782494e+000 2.524890e+000 1.898639e+000 1.577232e+000 1.525786e+000 1.306296e+000 1.766357e+000 2.192282e-001 1.048288e-001 5.365271e-002 1.747350e-001 2.978391e-001 2.647669e-001 3.401430e-001 3.535855e-001 2.387499e-001 1.845168e-001 2.824044e-001 1.423547e-001 3.559450e-001 5.331768e-002
<GCONST> 8.731276e+001
<MIXTURE> 3 3.076923e-001
<MEAN> 39
 -2.237177e+001 -1.287352e+001 -9.957109e+000 -9.987974e+000 -1.183884e+001 1.949156e+000 -5.194267e+000 4.153738e+000 4.845508e+000 -5.722295e+000 -4.411700e+000 9.237264e-001 6.908326e+001 1.104608e-001 1.958881e-001 -4.037253e-001 5.047912e-002 6.903779e-002 -4.651286e-001 2.141851e-002 2.291465e-001 -8.016876e-002 2.339588e-001 -6.070361e-001 -3.241684e-001 6.120037e-001 1.665210e-001 -1.023286e-001 1.109340e-001 -8.302773e-002 2.381468e-001 -9.064211e-002 -7.507758e-003 -2.092251e-001 -1.568221e-002 -2.788600e-001 -7.356328e-002 -1.598249e-001 -2.147235e-003
<VARIANCE> 39
 1.118587e+001 1.006346e+001 1.399010e+001 2.072792e+001 2.108721e+001 1.814155e+001 3.758849e+001 2.015641e+001 3.296657e+001 4.512026e+001 2.003894e+001 2.750902e+001 6.229020e+000 1.032598e+000 1.775953e+000 9.732528e-001 1.427347e+000 1.912014e+000 1.292734e+000 1.377593e+000 1.564644e+000 1.992144e+000 2.740594e+000 1.384435e+000 1.645485e+000 2.614751e-001 1.426386e-001 1.771979e-001 1.807456e-001 2.359384e-001 3.277551e-001 2.796333e-001 3.232912e-001 3.099681e-001 3.991229e-001 3.015305e-001 2.968753e-001 3.168508e-001 3.734929e-002
<GCONST> 9.458963e+001
<MIXTURE> 4 3.713528e-001
<MEAN> 39
 -1.652062e+001 -1.726108e+001 -8.583709e+000 -1.483200e+001 -7.209226e+000 1.669179e+000 -5.414153e+000 2.307746e-001 6.064284e+000 -1.274143e+001 -5.656979e+000 -3.819579e+000 7.010757e+001 1.422435e+000 2.397698e-001 -2.237929e-001 -9.164179e-001 1.839223e-001 -7.080325e-002 -3.660788e-001 -8.552517e-001 1.648383e-001 -2.746715e-001 -8.480532e-002 -6.743931e-001 7.713972e-001 2.506738e-001 1.655813e-001 -1.925083e-001 -2.477758e-001 -2.811015e-001 6.620636e-003 2.743193e-003 4.104490e-002 6.203062e-002 3.665317e-001 1.203904e-001 -1.030179e-002 2.292062e-001
<VARIANCE> 39
 8.387263e+000 4.326237e+000 1.127513e+001 1.417546e+001 1.518479e+001 2.205213e+001 2.549957e+001 3.108582e+001 2.190462e+001 2.823282e+001 1.992439e+001 2.450562e+001 4.183882e+000 1.148151e+000 6.259865e-001 7.083299e-001 1.056394e+000 1.484715e+000 2.159390e+000 3.004916e+000 2.561263e+000 1.353445e+000 2.160072e+000 1.309333e+000 2.024180e+000 2.944098e-001 8.550012e-002 9.399511e-002 1.485466e-001 1.720935e-001 2.532887e-001 3.651973e-001 4.855072e-001 3.685555e-001 3.286747e-001 3.468865e-001 2.453002e-001 2.830432e-001 2.880018e-002
<GCONST> 8.931352e+001
<STATE> 3
<NUMMIXES> 4
<MIXTURE> 1 1.986971e-001
<MEAN> 39
 -8.020475e+000 -1.438889e+001 -1.276542e+001 -1.599448e+001 -1.074049e+001 -1.931876e+000 -4.467584e+000 -1.505160e+000 1.231992e+001 4.536688e-001 -1.090355e+001 -1.277492e+001 7.926607e+001 1.595269e+000 -3.384611e-001 -1.021365e+000 -9.880370e-001 -1.817845e-001 6.017137e-001 1.735936e-001 -7.504981e-001 1.434451e+000 9.830304e-001 3.003626e-001 -7.534258e-001 1.460932e+000 -4.833676e-001 -9.219663e-002 7.242028e-002 1.648003e-001 1.198506e-001 2.932098e-001 6.414320e-002 -9.607408e-003 -1.385311e-001 -2.139145e-003 2.221992e-001 5.821409e-001 -2.903652e-001
<VARIANCE> 39
 2.157683e+001 1.054668e+001 2.455300e+001 1.506944e+001 1.851548e+001 1.844869e+001 4.004597e+001 5.439569e+001 2.800339e+001 5.900412e+001 4.321654e+001 3.422998e+001 1.467206e+001 2.060339e+000 7.900995e-001 1.492743e+000 1.260030e+000 1.301409e+000 1.347938e+000 2.038156e+000 2.064044e+000 2.052681e+000 2.193416e+000 2.009796e+000 2.549894e+000 6.320240e-001 2.458028e-001 1.657841e-001 4.408390e-001 2.314854e-001 1.540544e-001 1.911604e-001 3.172486e-001 4.307095e-001 5.086918e-001 4.383013e-001 4.205508e-001 2.023693e-001 1.668773e-001
<GCONST> 1.029777e+002
<MIXTURE> 2 4.332248e-001
<MEAN> 39
 -2.223774e+001 -1.539276e+001 -7.969534e+000 -8.004447e+000 -5.332914e+000 -6.857522e+000 -3.865664e+000 -1.386944e+000 4.229176e-001 -6.839423e+000 -8.249863e+000 -4.335399e+000 7.237396e+001 1.446616e+000 -6.310501e-001 -1.832561e-001 -2.269213e-001 4.394633e-001 -5.295521e-001 -1.734074e+000 -1.383585e+000 -6.597319e-001 -1.404033e+000 -8.705813e-001 -8.821347e-001 3.024288e-001 1.557563e-001 2.969887e-001 -1.726876e-001 -2.270210e-002 -1.158851e-002 -9.517688e-003 -2.008952e-001 -1.459386e-001 1.408287e-001 -3.908708e-002 -1.034108e-001 4.538453e-002 1.200529e-001
<VARIANCE> 39
 1.861189e+001 1.350754e+001 1.908288e+001 2.672184e+001 2.937913e+001 2.374032e+001 4.329951e+001 5.667500e+001 3.987548e+001 7.300728e+001 1.876611e+001 2.336532e+001 2.686390e+000 6.945692e-001 1.536582e+000 9.836481e-001 1.184319e+000 1.563923e+000 1.867359e+000 2.995364e+000 3.013995e+000 3.365103e+000 3.236869e+000 1.886305e+000 1.573556e+000 1.817632e-001 1.134535e-001 1.887647e-001 1.213251e-001 2.111572e-001 3.503852e-001 3.419966e-001 4.591647e-001 5.740145e-001 5.953606e-001 4.892953e-001 4.306909e-001 2.010784e-001 2.790406e-002
<GCONST> 9.987815e+001
<MIXTURE> 3 2.605863e-001
<MEAN> 39
 -5.110453e+000 -1.384291e+001 -1.378317e+001 -2.853728e+001 -1.327093e+001 9.969145e+000 9.406492e-001 3.118709e+000 1.042565e+001 -8.386762e+000 2.006732e+000 -6.779900e+000 7.594629e+001 1.233020e-001 4.717000e-002 3.614572e-003 1.973372e-002 1.622559e-002 -2.602890e-001 1.105935e-002 -2.253117e-001 -1.207898e-001 -3.348643e-001 1.825078e-001 5.675276e-001 -4.236778e-002 -3.227133e-001 1.663385e-002 4.090366e-001 4.718804e-001 6.328647e-002 -3.179967e-001 -3.346413e-001 -6.264897e-002 -1.219693e-001 -2.038204e-001 -2.149039e-001 -3.261559e-002 -2.292470e-001
<VARIANCE> 39
 5.023290e+000 4.105558e+000 5.192706e+000 1.181067e+001 7.984317e+000 4.018521e+001 4.571028e+001 2.885229e+001 2.041174e+001 3.646970e+001 3.182535e+001 3.288314e+001 1.446398e+000 2.950075e-001 2.642967e-001 8.994177e-001 7.384588e-001 6.010825e-001 1.469296e+000 1.183949e+000 1.041552e+000 8.865760e-001 1.139426e+000 9.922482e-001 1.061052e+000 1.515923e-001 5.416975e-002 3.351050e-002 1.134462e-001 1.252411e-001 1.352351e-001 1.917220e-001 2.494346e-001 2.317335e-001 2.261418e-001 3.564733e-001 2.346652e-001 2.661440e-001 2.807553e-002
<GCONST> 7.507710e+001
<MIXTURE> 4 1.074919e-001
<MEAN> 39
 -8.891602e+000 -1.923469e+001 -1.561753e+001 -1.920037e+001 -4.152477e-001 6.863440e-001 -1.461534e+001 -9.454589e+000 6.657242e+000 -1.252293e+001 -4.810299e+000 -5.651941e+000 7.428709e+001 1.270781e+000 -7.137094e-001 -1.580855e+000 -1.090914e+000 1.818947e+000 1.654390e+000 2.194255e-001 6.849254e-001 8.237370e-001 1.258567e+000 -1.638969e-001 -1.396299e+000 7.973896e-001 -3.279870e-001 4.180566e-002 2.768915e-001 2.008602e-001 -1.044372e-003 2.694586e-001 4.522944e-001 4.187644e-001 -1.582409e-001 -1.818721e-002 -7.875640e-002 -4.654592e-002 -1.619482e-001
<VARIANCE> 39
 5.495987e+000 6.697868e+000 1.321618e+001 1.242316e+001 1.847806e+001 1.017197e+001 1.638622e+001 2.182195e+001 3.400136e+001 2.157022e+001 2.421979e+001 1.336485e+001 5.540907e+000 2.731903e-001 3.221255e-001 4.615793e-001 8.309563e-001 1.033606e+000 1.200986e+000 1.116142e+000 5.660209e-001 1.476477e+000 2.015089e+000 1.363876e+000 1.506761e+000 8.032081e-002 3.444665e-002 1.483182e-001 1.776884e-001 1.439744e-001 2.462350e-001 4.257090e-001 3.886258e-001 2.637956e-001 2.556950e-001 3.451069e-001 2.079484e-001 3.289917e-001 2.044452e-002
<GCONST> 7.877075e+001
<STATE> 4
<NUMMIXES> 4
<MIXTURE> 1 3.177257e-001
<MEAN> 39
 -6.253357e+000 -1.478884e+001 -1.414268e+001 -2.134334e+001 -1.221648e+001 2.132170e+000 -1.187731e+000 -3.990155e+000 1.145788e+001 -4.029970e+000 -2.742111e+000 -6.116922e+000 7.811039e+001 -1.350305e-001 3.037016e-001 6.820674e-001 2.655317e-001 -7.231275e-001 -5.321370e-001 -1.103988e+000 -2.210222e-002 -2.523369e-001 -2.430066e-001 4.464379e-001 6.805690e-002 -5.945307e-001 -1.435170e-001 1.396045e-001 2.825919e-001 1.527796e-001 -2.566977e-002 -2.350440e-001 -3.127871e-001 8.643772e-002 -2.214876e-001 -1.402695e-001 3.434611e-002 -4.558783e-002 -2.221298e-001
<VARIANCE> 39
 1.098593e+001 8.344115e+000 1.364069e+001 1.968578e+001 1.412495e+001 2.876493e+001 6.389585e+001 3.056807e+001 4.054291e+001 5.420543e+001 5.524294e+001 5.409613e+001 1.713683e+001 4.054417e-001 2.401637e-001 7.757969e-001 6.276075e-001 1.272016e+000 1.954230e+000 2.068428e+000 2.073164e+000 2.174209e+000 1.484594e+000 1.431525e+000 1.265414e+000 2.260396e-001 4.365681e-002 6.024753e-002 1.385419e-001 8.199278e-002 2.050302e-001 2.346874e-001 4.257064e-001 2.863048e-001 3.759306e-001 2.723453e-001 2.458886e-001 2.477186e-001 4.066045e-002
<GCONST> 8.967090e+001
<MIXTURE> 2 1.337793e-001
<MEAN> 39
 -1.252185e+001 -1.561660e+001 -1.664432e+001 -8.002969e+000 -6.974522e-001 -1.018658e+001 -1.844731e+001 -6.761168e+000 -2.213276e-001 -7.331210e+000 -1.038210e+001 -4.952148e+000 7.584212e+001 1.317975e+000 -6.575329e-001 -7.027947e-001 1.200234e-001 1.446923e+000 1.181929e+000 -4.068943e-001 8.491216e-001 1.650316e+000 -9.686908e-002 -2.269855e-001 -2.090515e-002 3.184986e-001 -3.162614e-001 1.008941e-001 1.644954e-001 4.985220e-002 -2.015387e-002 2.502251e-001 4.633380e-001 2.360805e-001 -2.779309e-001 -8.448980e-002 -1.714214e-001 3.972203e-002 -1.342318e-001
<VARIANCE> 39
 6.469193e+000 7.058281e+000 7.870298e+000 1.373584e+001 3.322210e+001 1.937227e+001 1.837535e+001 2.526102e+001 7.570241e+001 4.496084e+001 7.515764e+000 2.462690e+001 2.395836e+000 8.826599e-001 6.502000e-001 9.093784e-001 8.154564e-001 1.152545e+000 9.689690e-001 1.482117e+000 1.767087e+000 2.661499e+000 2.004559e+000 1.272838e+000 9.921130e-001 1.724102e-001 7.977803e-002 1.676409e-001 1.088913e-001 2.038987e-001 3.623936e-001 2.147364e-001 2.961470e-001 6.171604e-001 5.413138e-001 1.952484e-001 2.259128e-001 1.978914e-001 1.505454e-002
<GCONST> 8.545899e+001
<MIXTURE> 3 3.244147e-001
<MEAN> 39
 -1.034150e+001 -1.722800e+001 -1.094024e+001 -1.191930e+001 -4.171641e+000 -7.612232e+000 -1.466829e+001 -8.845149e+000 -1.327337e+000 -2.344445e+001 -1.466568e+001 -3.484764e+000 7.490950e+001 1.032221e+000 -1.428304e-001 -8.623439e-001 -5.489009e-001 5.786619e-001 4.680623e-001 -8.970066e-001 -7.859169e-002 3.898360e-001 -4.710060e-002 -3.621437e-001 -1.653381e-001 3.446956e-001 -2.128506e-001 -3.739130e-002 1.444303e-003 -1.116060e-001 3.323201e-002 3.139898e-001 4.730124e-001 4.887138e-001 2.734840e-001 5.427086e-001 2.352992e-001 5.498418e-003 -7.256789e-002
<VARIANCE> 39
 8.030219e+000 8.493247e+000 2.865977e+001 3.559104e+001 1.479793e+001 2.847333e+001 4.584325e+001 3.099073e+001 3.196532e+001 2.408357e+001 1.292312e+001 2.124362e+001 2.205542e+000 8.528878e-001 3.389697e-001 8.396550e-001 1.177000e+000 1.270399e+000 1.948005e+000 2.431179e+000 2.131972e+000 2.194155e+000 2.618931e+000 1.746320e+000 1.583495e+000 1.464582e-001 7.565279e-002 8.980995e-002 1.970981e-001 2.439336e-001 2.350510e-001 2.224488e-001 4.143711e-001 4.401382e-001 3.954869e-001 3.307908e-001 2.408116e-001 2.901516e-001 1.330788e-002
<GCONST> 8.963173e+001
<MIXTURE> 4 2.240803e-001
<MEAN> 39
 -6.335634e+000 -1.784028e+001 -1.742184e+001 -2.034292e+001 4.542049e+000 5.496644e+000 -1.039898e+001 -7.278986e+000 4.997585e+000 -7.853740e+000 -4.810743e+000 -7.927143e+000 7.499971e+001 -3.711202e-002 2.198106e-001 2.752532e-001 -6.095961e-002 -3.426707e-001 8.882579e-003 5.360328e-002 -1.111922e-002 -3.120496e-001 -3.474991e-001 -8.622473e-002 -2.425469e-001 -1.512703e-001 -1.740425e-001 1.270954e-001 3.000270e-001 6.479190e-002 -4.800405e-001 -3.092072e-001 3.210394e-002 2.835986e-002 -1.274337e-001 -3.343344e-001 -3.322011e-002 1.244969e-001 -1.375054e-001
<VARIANCE> 39
 1.445324e+000 7.158332e+000 5.689937e+000 1.099778e+001 4.058525e+001 1.468098e+001 9.146362e+001 1.544252e+001 2.305305e+001 3.844999e+001 1.282632e+001 2.133113e+001 1.848802e+000 1.796084e-001 3.315883e-001 6.046943e-001 8.671831e-001 2.451014e+000 2.127605e+000 1.557153e+000 2.064723e+000 1.749569e+000 1.873166e+000 1.269468e+000 7.002326e-001 1.188553e-001 2.983023e-002 7.258730e-002 1.881809e-001 1.548074e-001 1.621029e-001 3.704683e-001 2.667084e-001 3.673298e-001 2.769285e-001 3.357064e-001 2.522548e-001 1.992297e-001 1.340080e-002
<GCONST> 7.861368e+001
<STATE> 5
<NUMMIXES> 4
<MIXTURE> 1 1.070423e-001
<MEAN> 39
 -9.558921e+000 -1.858889e+001 -1.994628e+001 -1.060724e+001 9.326186e+000 -1.965606e+000 -1.212733e+001 1.247748e+000 2.009791e+001 -5.090497e+000 -8.934190e+000 -9.438507e+000 7.562496e+001 1.867453e-001 2.885345e-002 -7.851183e-002 -4.959769e-001 1.096855e-001 8.831904e-001 3.892398e-001 2.155651e-001 -2.386955e-001 9.347720e-001 4.433809e-001 -3.594323e-002 -1.531934e-001 -1.233332e-001 8.930193e-002 2.024981e-001 -1.097705e-001 -3.228571e-001 -1.151914e-001 2.151679e-003 -7.504646e-002 -4.320216e-001 -1.207048e-001 -1.305739e-003 6.870742e-002 -7.905645e-002
<VARIANCE> 39
 2.048755e+000 3.092024e+000 1.201081e+001 1.501991e+001 1.041559e+001 1.814630e+001 1.972142e+001 1.426108e+001 2.834955e+001 4.466430e+001 1.647295e+001 1.881771e+001 1.639163e+000 2.773236e-001 4.533482e-001 4.945215e-001 1.502455e+000 7.653194e-001 9.543040e-001 2.143764e+000 2.032257e+000 3.026040e+000 2.801767e+000 1.524465e+000 7.635837e-001 9.197321e-002 6.009333e-002 8.142369e-002 7.955030e-002 1.845393e-001 2.289417e-001 2.765264e-001 4.255044e-001 5.392618e-001 4.562188e-001 7.418965e-001 2.555644e-001 1.169183e-001 1.000000e-002
<GCONST> 7.869182e+001
<MIXTURE> 2 4.112676e-001
<MEAN> 39
 -8.128760e+000 -1.654350e+001 -1.251474e+001 -1.645547e+001 -2.508642e+000 8.997760e-001 -1.179480e+001 -4.176878e+000 3.380469e-001 -1.822830e+001 -1.327851e+001 -7.272603e+000 7.451799e+001 -1.606635e-001 5.690831e-001 1.019869e+000 -1.037814e-001 -7.718919e-001 -6.917591e-002 6.699767e-001 4.269785e-001 -1.423389e-001 -8.246962e-002 -4.745509e-002 -3.703818e-001 -4.310996e-001 -9.877609e-002 5.610171e-002 2.354017e-001 1.184335e-001 -2.033239e-001 -3.107988e-001 -1.189812e-001 -1.487963e-001 1.280545e-001 9.814367e-002 1.522995e-001 1.531623e-001 -6.700961e-002
<VARIANCE> 39
 3.113126e+000 8.077829e+000 1.171176e+001 3.210172e+001 1.515967e+001 4.286392e+001 7.608493e+001 2.141637e+001 3.264632e+001 3.445520e+001 2.572286e+001 1.838402e+001 3.280910e+000 3.241103e-001 4.474694e-001 9.184970e-001 1.187700e+000 1.478112e+000 1.799720e+000 1.930690e+000 1.950229e+000 2.105851e+000 2.663270e+000 1.689464e+000 1.331158e+000 8.512293e-002 3.585892e-002 8.896799e-002 1.431775e-001 1.634400e-001 2.172743e-001 2.570537e-001 3.247213e-001 3.332648e-001 4.322690e-001 4.763577e-001 2.758800e-001 3.139478e-001 1.155759e-002
<GCONST> 8.650968e+001
<MIXTURE> 3 3.014084e-001
<MEAN> 39
 -8.993176e+000 -1.293584e+001 -5.456626e+000 -2.073945e+001 -1.473659e+001 -1.911148e+000 -6.088375e+000 -1.659928e+000 7.520420e+000 -1.112192e+001 1.551138e-001 -3.801534e+000 7.258628e+001 -7.682329e-001 2.427653e-001 1.453039e+000 1.112828e+000 5.293384e-001 -6.870013e-001 -1.071305e+000 -3.008809e-001 -4.950686e-001 -5.891598e-001 -4.777696e-001 2.908720e-001 -6.185117e-001 4.351209e-002 -5.412574e-003 -1.176260e-001 2.479396e-003 1.710008e-001 2.466322e-001 2.331878e-001 9.029984e-002 6.755474e-002 1.199188e-001 -1.402305e-002 -2.641032e-003 4.516646e-002
<VARIANCE> 39
 5.462104e+000 6.035800e+000 1.280488e+001 1.998780e+001 1.186169e+001 2.802559e+001 2.765613e+001 3.892326e+001 3.524834e+001 3.112367e+001 2.334660e+001 2.281911e+001 2.727467e+000 1.459212e-001 3.399523e-001 6.939029e-001 1.517277e+000 7.138247e-001 1.349455e+000 1.176913e+000 1.661840e+000 1.948387e+000 1.279210e+000 8.971139e-001 1.273183e+000 6.816030e-002 2.303276e-002 5.269607e-002 8.127104e-002 1.978521e-001 1.440989e-001 2.522612e-001 1.554558e-001 2.536968e-001 3.294196e-001 2.428835e-001 1.806270e-001 2.106115e-001 1.000000e-002
<GCONST> 7.603729e+001
<MIXTURE> 4 1.802817e-001
<MEAN> 39
 -4.550798e+000 -1.293906e+001 -9.702405e+000 -1.743105e+001 -1.197576e+001 1.406018e+000 -9.724794e+000 -1.359621e-001 1.184418e+001 1.013558e+000 -4.202710e+000 -1.001742e+001 7.634971e+001 -4.365142e-001 8.553849e-001 1.536926e+000 3.599769e-001 -5.365635e-001 -4.317911e-001 3.200916e-001 5.195846e-001 -1.173918e-001 -4.931071e-001 1.082776e+000 1.114635e+000 -9.282384e-001 -8.352213e-002 3.643958e-002 1.811178e-001 9.781800e-002 1.163304e-001 5.187811e-004 1.412090e-001 -2.342007e-002 2.507928e-002 -1.914582e-001 -2.353185e-001 1.247669e-001 2.319124e-003
<VARIANCE> 39
 3.655238e+000 9.891644e+000 1.956150e+001 7.922665e+000 1.779909e+001 1.454586e+001 3.572877e+001 2.480872e+001 1.851991e+001 4.240393e+001 4.952314e+001 2.451635e+001 5.204791e+000 1.355585e-001 4.758524e-001 6.367024e-001 6.434966e-001 8.292242e-001 6.656144e-001 1.895301e+000 1.174731e+000 1.367236e+000 7.462540e-001 1.065738e+000 1.383780e+000 1.676670e-001 2.115675e-002 5.232136e-002 9.605540e-002 9.080411e-002 1.780968e-001 1.396317e-001 3.922728e-001 2.815579e-001 2.560862e-001 1.507415e-001 1.375193e-001 2.455265e-001 1.577130e-002
<GCONST> 7.502729e+001
<STATE> 6
<NUMMIXES> 4
<MIXTURE> 1 2.010444e-001
<MEAN> 39
 -7.256797e+000 -6.269935e+000 7.033628e-001 -1.131985e+001 -1.180451e+001 -6.123775e-001 -1.114667e+001 -8.764249e-001 9.369514e+000 -2.982528e+000 2.413242e-001 -3.156608e+000 7.146197e+001 -4.478627e-001 3.060766e-001 8.470004e-001 8.552326e-001 8.102227e-001 1.362424e-001 -1.203653e-002 1.777251e-001 -5.765907e-001 -5.116658e-001 -9.889116e-002 3.319835e-001 -3.983169e-001 -8.827317e-002 -2.446915e-001 -3.253091e-001 -1.073772e-001 1.233520e-001 2.031865e-001 1.474435e-001 1.252990e-001 3.154816e-002 1.178404e-001 -8.918297e-002 -1.351339e-001 4.334944e-002
<VARIANCE> 39
 3.489102e+000 6.736784e+000 1.419483e+001 8.621316e+000 1.659869e+001 1.729981e+001 9.958020e+000 2.678366e+001 2.204183e+001 2.436903e+001 1.165152e+001 6.580681e+000 2.219256e+000 1.662789e-001 3.921097e-001 5.081366e-001 4.941914e-001 7.087088e-001 1.026403e+000 1.288953e+000 9.184592e-001 8.281814e-001 8.226364e-001 7.920799e-001 9.139760e-001 7.222717e-002 2.671785e-002 3.579768e-002 6.573657e-002 5.873089e-002 1.538202e-001 1.982660e-001 3.201547e-001 1.573826e-001 1.759083e-001 1.171303e-001 7.342778e-002 1.514756e-001 1.000000e-002
<GCONST> 6.274083e+001
<MIXTURE> 2 3.080940e-001
<MEAN> 39
 -9.265963e+000 -1.083746e+001 -3.987561e+000 -1.567875e+001 -9.511357e+000 -6.363570e+000 -1.621836e+001 -7.506745e+000 -1.490389e+000 -1.535738e+001 -1.186747e+001 -5.213896e+000 7.150747e+001 -1.151992e-001 6.743687e-001 1.301496e+000 1.128598e-002 -1.127883e+000 -7.694427e-001 -3.275529e-001 -3.326947e-001 7.213482e-002 3.251150e-001 7.238183e-001 4.659231e-001 -3.878317e-001 -3.735021e-002 -1.071801e-001 -1.507731e-001 7.153900e-002 1.524025e-001 1.482626e-001 1.440294e-001 1.631010e-001 -4.817706e-002 -7.475082e-002 -1.590677e-002 -1.196394e-001 4.057372e-002
<VARIANCE> 39
 3.756940e+000 1.183118e+001 1.572897e+001 1.593660e+001 1.544291e+001 2.003915e+001 2.817168e+001 1.284653e+001 2.480755e+001 2.716051e+001 3.564405e+001 1.556352e+001 5.244364e+000 7.747550e-002 2.620673e-001 4.458431e-001 7.776362e-001 1.159197e+000 9.272813e-001 1.158124e+000 1.311366e+000 1.104285e+000 1.329543e+000 1.694779e+000 1.307502e+000 3.765053e-002 1.829463e-002 5.255318e-002 6.092092e-002 1.377882e-001 2.024376e-001 1.823090e-001 1.498693e-001 1.906517e-001 2.272823e-001 3.150957e-001 3.499278e-001 2.218899e-001 1.000000e-002
<GCONST> 7.216547e+001
<MIXTURE> 3 3.446475e-001
<MEAN> 39
 -1.244602e+001 -1.274001e+001 -1.789707e+000 -1.496506e+001 -9.404634e+000 -7.109424e-001 -6.513143e+000 4.007310e-001 5.948570e+000 -1.375066e+001 -4.045508e+000 -5.026042e+000 6.940195e+001 -4.244266e-001 5.680844e-003 5.497227e-001 5.169411e-001 2.215347e-001 -4.153899e-002 1.452153e-001 1.932867e-001 -2.174171e-001 -1.806318e-001 -1.037847e-001 2.445356e-001 -3.054811e-001 -4.165594e-003 -6.892483e-002 -1.680368e-001 -1.060164e-001 3.322858e-002 4.590961e-002 -1.133124e-001 -9.052799e-002 -1.738156e-002 8.316782e-003 1.895685e-002 5.288079e-002 2.851264e-002
<VARIANCE> 39
 2.464686e+000 1.083024e+001 1.275747e+001 2.195563e+001 2.332629e+001 3.221840e+001 3.110061e+001 1.806031e+001 1.535871e+001 2.120303e+001 3.269176e+001 3.988778e+001 2.323961e+000 7.754695e-002 1.787255e-001 3.295769e-001 5.302162e-001 1.132753e+000 1.010332e+000 1.294703e+000 1.191673e+000 1.436386e+000 1.949398e+000 1.528812e+000 1.213900e+000 3.581284e-002 2.089772e-002 3.192789e-002 7.385138e-002 1.148695e-001 1.941507e-001 1.670713e-001 1.813052e-001 2.195494e-001 2.495114e-001 2.328460e-001 2.768320e-001 1.811051e-001 1.000000e-002
<GCONST> 7.103796e+001
<MIXTURE> 4 1.462141e-001
<MEAN> 39
 -1.075536e+001 -1.508990e+001 -1.002636e+001 -1.970124e+001 -9.035797e+000 -3.642665e+000 -9.522384e+000 -5.384300e-004 1.165877e+001 -5.903430e+000 -4.479612e+000 -7.865873e+000 7.135945e+001 -3.962586e-001 4.837623e-001 1.406613e+000 -1.654534e-002 -2.144898e+000 -1.129472e+000 -3.841447e-001 2.994470e-001 -5.598691e-001 -7.348658e-001 -9.706350e-002 5.166403e-001 -6.894696e-001 3.239561e-002 2.346476e-002 -5.380161e-002 2.507362e-001 3.322273e-001 1.848258e-001 -1.343337e-001 -2.960306e-001 -1.731988e-001 -1.071694e-001 -1.219739e-001 -1.281625e-002 6.937934e-002
<VARIANCE> 39
 2.773898e+000 6.732549e+000 2.405054e+001 9.576745e+000 5.479848e+001 1.761926e+001 2.098407e+001 2.719174e+001 1.766134e+001 3.266460e+001 2.027244e+001 1.760358e+001 5.331103e+000 3.419200e-001 3.801066e-001 6.023716e-001 9.914485e-001 2.920092e+000 2.031492e+000 1.621512e+000 1.966832e+000 2.123121e+000 1.318582e+000 1.861774e+000 6.894344e-001 1.553954e-001 3.823625e-002 6.155180e-002 1.021215e-001 1.093735e-001 4.187762e-001 3.626919e-001 3.454493e-001 3.129002e-001 3.344846e-001 2.586536e-001 3.346660e-001 8.957184e-002 2.100025e-002
<GCONST> 8.249954e+001
<STATE> 7
<NUMMIXES> 4
<MIXTURE> 1 1.479290e-001
<MEAN> 39
 -1.238920e+001 -8.921391e+000 1.837138e+000 -6.283411e+000 -5.913133e+000 3.458291e+000 -5.744270e+000 3.856508e+000 7.255350e+000 -5.093871e+000 -5.249404e-001 -1.455244e+000 6.802021e+001 -8.469149e-001 -6.592104e-001 -9.269436e-001 1.106206e-001 3.336883e-001 4.762643e-001 -3.537567e-002 1.723139e-001 9.324551e-003 4.551337e-001 -3.707690e-001 -3.314277e-002 -3.235801e-001 7.932731e-002 -2.605204e-002 -3.597063e-001 -2.883361e-001 -2.873525e-001 -2.917403e-001 -5.290160e-001 -2.326507e-001 -1.715043e-002 8.619674e-002 -5.002601e-002 -1.829357e-001 1.225982e-001
<VARIANCE> 39
 6.500335e+000 6.860851e+000 1.344712e+001 2.103389e+001 2.632647e+001 3.344996e+001 3.185123e+001 3.391199e+001 1.703940e+001 1.273557e+001 1.145140e+001 2.519504e+001 6.680652e+000 1.517082e-001 3.521792e-001 9.844534e-001 1.543216e+000 7.862781e-001 1.048125e+000 1.432148e+000 1.344463e+000 6.962348e-001 5.769083e-001 1.159417e+000 1.743903e+000 8.336674e-002 3.368313e-002 7.791200e-002 1.109484e-001 1.738651e-001 1.491853e-001 1.618348e-001 1.034472e-001 2.309320e-001 1.825598e-001 3.463743e-001 1.569054e-001 2.289927e-001 1.747927e-002
<GCONST> 7.560408e+001
<MIXTURE> 2 1.331361e-001
<MEAN> 39
 -9.766547e+000 -8.511790e+000 -1.681477e-001 -1.838127e+001 -1.509238e+001 -8.716445e+000 -1.204553e+001 -5.645047e+000 -8.308001e-001 -1.768813e+001 -7.587685e+000 -7.250694e-001 7.143030e+001 -9.169833e-001 -1.841933e-001 1.354991e-001 2.780100e-001 1.644790e-002 5.490900e-001 2.710473e-001 2.555155e-001 3.434961e-001 -2.407177e-001 -1.178766e-001 -3.775366e-001 -3.931486e-001 -2.453143e-001 -3.664215e-001 -2.609482e-001 1.687249e-001 3.919556e-001 2.726832e-001 2.484131e-001 1.755479e-001 1.418305e-001 1.752361e-001 -1.264433e-001 -1.501367e-001 -5.567235e-002
<VARIANCE> 39
 3.376479e+000 1.054287e+001 4.852445e+000 1.229567e+001 5.482013e+000 8.841128e+000 5.034635e+001 1.717716e+001 1.296524e+001 2.024703e+001 1.051322e+001 1.150148e+001 2.422343e+000 3.415411e-001 8.014672e-001 3.866981e-001 1.109453e+000 6.593062e-001 3.144249e-001 7.977739e-001 1.369855e+000 8.397494e-001 1.773347e+000 6.636965e-001 8.881499e-001 8.600538e-002 5.186399e-002 7.601626e-002 4.531619e-002 1.525168e-001 8.375323e-002 1.601202e-001 1.377477e-001 2.717061e-001 1.617742e-001 2.703910e-001 2.341898e-001 1.267577e-001 1.000000e-002
<GCONST> 6.566212e+001
<MIXTURE> 3 4.556213e-001
<MEAN> 39
 -1.587297e+001 -1.624323e+001 -2.229557e+000 -1.569056e+001 -7.791612e+000 -9.842717e-001 -6.736499e+000 -4.552125e-001 4.382933e+000 -1.664680e+001 -5.823077e+000 -5.400408e+000 6.843597e+001 -5.487933e-001 -5.067912e-001 -4.021166e-001 5.532122e-003 2.235918e-001 2.029342e-001 -6.892958e-002 1.802289e-001 4.409341e-001 3.679962e-001 4.352340e-001 5.546883e-001 -2.508726e-001 9.936132e-002 7.061645e-002 -1.787835e-002 -8.463572e-002 -1.145638e-001 -8.789166e-002 -4.350683e-002 -2.019043e-002 1.282867e-001 2.372572e-001 1.526695e-001 9.519158e-002 5.349334e-002
<VARIANCE> 39
 2.744822e+000 6.966230e+000 6.240536e+000 1.453378e+001 1.475956e+001 1.053890e+001 1.653738e+001 1.751365e+001 1.777362e+001 2.585322e+001 2.228139e+001 1.649175e+001 3.010835e+000 2.492129e-001 4.191613e-001 5.283897e-001 8.177917e-001 1.020021e+000 8.974169e-001 9.312177e-001 1.299708e+000 1.394915e+000 1.336474e+000 1.226413e+000 1.396838e+000 6.194934e-002 2.512615e-002 5.637250e-002 7.686222e-002 1.097332e-001 1.518717e-001 1.621730e-001 1.927604e-001 1.596409e-001 2.320978e-001 2.851231e-001 1.848258e-001 1.549093e-001 1.000000e-002
<GCONST> 6.898040e+001
<MIXTURE> 4 2.633136e-001
<MEAN> 39
 -1.330699e+001 -1.090083e+001 -6.705267e-001 -1.338534e+001 -1.076971e+001 -3.633927e+000 -1.388429e+001 -6.686368e+000 2.797998e-001 -1.483005e+001 -8.486109e+000 -6.268492e+000 6.829469e+001 -8.144640e-001 -4.523129e-001 8.135635e-002 6.293823e-001 9.495496e-001 9.449586e-001 8.659999e-001 1.299112e-001 -2.669102e-001 -3.934949e-001 -1.569921e-001 -7.571424e-002 -4.260526e-001 -8.794381e-002 -2.367658e-001 -2.955743e-001 -3.681461e-002 1.333776e-001 1.676305e-001 2.001334e-001 3.025714e-001 3.677204e-001 2.002866e-001 1.120766e-001 1.716208e-001 -2.638953e-003
<VARIANCE> 39
 3.789818e+000 8.653140e+000 8.747468e+000 1.046333e+001 1.878860e+001 1.468408e+001 1.628205e+001 2.252081e+001 2.844491e+001 1.648823e+001 3.250706e+001 1.749095e+001 5.530190e+000 2.042540e-001 6.472551e-001 6.125151e-001 4.839807e-001 7.882572e-001 1.294389e+000 1.034555e+000 1.281122e+000 1.647739e+000 1.077825e+000 1.023174e+000 7.869748e-001 3.501051e-002 2.287417e-002 5.207798e-002 6.435262e-002 9.044553e-002 1.777312e-001 2.006883e-001 1.731775e-001 2.171254e-001 2.062621e-001 1.679539e-001 2.185650e-001 1.656608e-001 1.000000e-002
<GCONST> 6.970103e+001
<STATE> 8
<NUMMIXES> 4
<MIXTURE> 1 1.245675e-001
<MEAN> 39
 -1.190449e+001 -9.359379e+000 -3.906390e+000 -7.255894e+000 -5.353373e+000 1.475144e+000 -1.468081e+001 1.009876e+000 1.004885e+001 1.452897e+000 -3.939712e+000 -6.059366e+000 7.134922e+001 3.607059e-001 4.747881e-001 -8.148944e-001 1.470661e-001 -8.453059e-001 -1.108270e+000 -1.829190e+000 -9.077901e-001 -1.192109e-001 1.261021e+000 -3.969435e-001 -3.120537e-001 4.785892e-001 3.718639e-001 3.475335e-001 4.430827e-001 -3.613084e-001 -7.591422e-001 -6.082417e-001 1.063171e-002 -2.543413e-001 -2.692158e-001 -3.236572e-001 2.124937e-001 2.692677e-001 7.989341e-002
<VARIANCE> 39
 5.452585e+000 1.637830e+001 2.660126e+001 1.194900e+001 1.458506e+001 2.351561e+001 3.816298e+001 4.719707e+001 3.300104e+001 5.995277e+001 1.086701e+001 1.866269e+001 4.423775e+000 3.845131e-001 5.098004e-001 1.804255e+000 8.148122e-001 1.773406e+000 1.826997e+000 1.371802e+000 1.670237e+000 1.884938e+000 3.028998e+000 1.224314e+000 1.738408e+000 1.076105e-001 3.135378e-002 7.241006e-002 2.547158e-001 2.137971e-001 3.171047e-001 2.669103e-001 5.244623e-001 2.424771e-001 2.256222e-001 7.159750e-001 1.351223e-001 1.630488e-001 4.378295e-002
<GCONST> 8.838628e+001
<MIXTURE> 2 6.435986e-001
<MEAN> 39
 -1.724787e+001 -1.554331e+001 -3.745904e+000 -1.495042e+001 -9.136112e+000 -1.414532e+000 -8.157372e+000 -4.622823e-001 5.965773e+000 -1.239189e+001 -3.646235e+000 -1.199924e+000 6.742157e+001 4.435573e-002 2.729674e-002 -1.864186e-001 -1.520721e-002 -1.422256e-001 -2.663707e-001 -3.925642e-001 -1.347312e-001 3.430463e-001 7.455070e-001 2.887556e-001 1.417886e-001 6.702062e-002 2.640702e-001 2.307395e-001 1.397819e-001 -4.390090e-002 -1.836961e-001 -2.941951e-001 -3.595160e-001 -3.187792e-001 -2.126969e-001 -5.277391e-002 -5.333157e-002 -1.674979e-001 1.282718e-001
<VARIANCE> 39
 2.410889e+000 9.664519e+000 5.739248e+000 1.350833e+001 1.629344e+001 1.477799e+001 1.179319e+001 1.688419e+001 1.965062e+001 2.014269e+001 1.955975e+001 1.924403e+001 6.111717e+000 2.130757e-001 3.739263e-001 3.564490e-001 5.589516e-001 9.195410e-001 9.218946e-001 1.115889e+000 1.305117e+000 1.560134e+000 1.744645e+000 1.111266e+000 1.180129e+000 4.958894e-002 4.067812e-002 9.133029e-002 5.456350e-002 1.309317e-001 1.905343e-001 2.215910e-001 1.602443e-001 1.556657e-001 2.253064e-001 3.608585e-001 2.640311e-001 2.482519e-001 1.136610e-002
<GCONST> 7.090765e+001
<MIXTURE> 3 5.882353e-002
<MEAN> 39
 -1.399482e+001 -8.592867e+000 -8.735607e-001 -1.160843e+001 -1.135219e+001 -4.836525e+000 -1.715338e+001 -7.837998e+000 -2.390437e+000 -1.362006e+001 -1.186630e+001 -5.111621e+000 6.763258e+001 -6.783434e-001 -6.742828e-001 -1.337658e+000 -4.090256e-001 3.139524e-001 6.569586e-001 8.055132e-001 1.681200e+000 9.801174e-001 1.885853e+000 7.846309e-002 7.048844e-001 -4.046006e-002 5.300130e-001 4.683144e-001 -1.760010e-001 -5.399752e-001 -5.910090e-001 -4.757329e-001 -5.165145e-001 1.742995e-001 1.103667e-001 9.045688e-001 3.613542e-001 3.305803e-001 2.868114e-001
<VARIANCE> 39
 3.963918e+000 9.302377e+000 1.095984e+001 8.453249e+000 9.305748e+000 8.890068e+000 6.570394e+000 2.545626e+001 1.675175e+001 6.493558e+000 1.722792e+001 1.392536e+001 1.689068e+000 1.201111e+000 1.295069e+000 2.648717e-001 1.264438e+000 2.902655e+000 2.852125e+000 1.958098e+000 1.252217e+000 2.106426e+000 1.276451e+000 1.963175e+000 1.350459e+000 3.689289e-001 3.815112e-002 7.997444e-002 6.786159e-002 1.055069e-001 2.615145e-001 3.251433e-001 1.759244e-001 3.689450e-001 2.248158e-001 2.193558e-001 2.298685e-001 2.573457e-001 1.160030e-002
<GCONST> 7.714288e+001
<MIXTURE> 4 1.730104e-001
<MEAN> 39
 -1.734371e+001 -1.463292e+001 -5.919631e+000 -1.142169e+001 -8.608952e+000 6.365850e-001 -1.376722e+001 -1.313625e+000 6.333339e+000 -5.664941e+000 -1.856213e+000 -9.655463e-001 6.615993e+001 4.525536e-001 6.445118e-001 -1.181785e-001 2.513752e-001 -5.768964e-001 -5.895598e-001 -1.861526e+000 -9.532393e-001 -6.772098e-001 8.578757e-001 -4.424687e-001 -5.688701e-001 5.305981e-001 3.953972e-001 5.051023e-001 3.851642e-001 1.185165e-001 -1.589536e-001 -2.222130e-001 -1.535061e-001 -1.909334e-001 -4.632534e-001 -3.529603e-001 -3.196234e-001 -1.660614e-001 1.833836e-001
<VARIANCE> 39
 1.638076e+000 4.094236e+000 1.032017e+001 1.485266e+001 1.474974e+001 1.971791e+001 3.136691e+001 2.690714e+001 2.045560e+001 3.843381e+001 2.641138e+001 1.244469e+001 2.414848e+000 4.173826e-001 8.419374e-001 1.804065e+000 1.207091e+000 8.088771e-001 1.232065e+000 2.105594e+000 1.993182e+000 1.701646e+000 4.960160e+000 2.821283e+000 1.617232e+000 1.086215e-001 3.600599e-002 7.190625e-002 1.578883e-001 2.598182e-001 1.937272e-001 2.966096e-001 6.145082e-001 4.823419e-001 2.746438e-001 6.273898e-001 4.394921e-001 3.564087e-001 1.741058e-002
<GCONST> 8.607610e+001
<STATE> 9
<NUMMIXES> 4
<MIXTURE> 1 2.211221e-001
<MEAN> 39
 -9.933956e+000 -1.055941e+001 -4.241464e+000 -1.891286e+001 -1.751483e+001 -1.260349e+001 -1.589487e+001 -2.774414e+000 1.331893e+001 2.972508e+000 1.201837e+000 -2.791093e+000 7.205204e+001 1.263994e+000 7.352619e-001 -4.703796e-001 -1.272970e+000 -8.862274e-001 -5.417829e-001 2.952691e-001 5.268401e-001 1.523193e+000 2.048099e+000 6.135028e-001 -5.482718e-001 8.028113e-001 -2.480305e-001 -3.021776e-001 -1.874409e-001 1.759283e-001 6.351317e-001 7.655944e-001 5.188664e-001 1.494972e-001 -2.922193e-001 -6.241478e-001 -5.538578e-001 -3.241878e-001 -1.221462e-001
<VARIANCE> 39
 9.428456e+000 1.125837e+001 5.995395e+000 2.394231e+001 1.373275e+001 1.391784e+001 2.058144e+001 3.738787e+001 3.230885e+001 6.336823e+001 2.382666e+001 2.826684e+001 9.810143e+000 2.337414e-001 1.047994e+000 7.716483e-001 8.075300e-001 2.116745e+000 1.862053e+000 1.672145e+000 2.674733e+000 1.774278e+000 2.252331e+000 2.698781e+000 2.194659e+000 1.256350e-001 3.821529e-002 1.135328e-001 1.071158e-001 9.334790e-002 1.667863e-001 1.377999e-001 2.965418e-001 2.308535e-001 2.340207e-001 2.359639e-001 2.463667e-001 3.117008e-001 1.504266e-002
<GCONST> 8.554735e+001
<MIXTURE> 2 3.498350e-001
<MEAN> 39
 -1.494820e+001 -1.323712e+001 -2.994615e+000 -1.362889e+001 -1.056345e+001 -3.684571e+000 -1.290424e+001 -3.967691e+000 3.529977e+000 -1.060243e+001 -4.676505e+000 -3.318500e+000 6.897762e+001 1.401506e+000 1.357842e+000 7.263288e-001 -6.293515e-001 -1.611983e+000 -2.074392e+000 -1.914986e+000 -1.427736e+000 -5.139596e-001 3.292759e-001 6.533776e-001 1.738107e-001 6.953734e-001 3.205094e-001 2.758776e-001 2.470186e-002 -3.252377e-001 -4.427813e-001 -3.482791e-001 -8.152000e-002 1.021239e-001 4.290192e-001 2.707711e-001 3.367854e-001 1.275001e-001 1.505829e-001
<VARIANCE> 39
 5.760695e+000 1.197838e+001 1.198429e+001 2.442949e+001 1.674969e+001 1.980586e+001 2.253547e+001 2.086488e+001 3.354173e+001 4.983514e+001 3.389445e+001 2.554838e+001 4.680504e+000 2.702964e-001 5.525877e-001 7.611496e-001 7.647946e-001 1.422277e+000 1.248513e+000 1.578111e+000 1.759416e+000 2.622035e+000 4.877471e+000 2.336884e+000 1.832763e+000 9.017447e-002 5.449058e-002 9.289029e-002 1.246373e-001 1.344474e-001 2.296300e-001 2.301132e-001 3.043576e-001 3.812135e-001 3.655430e-001 4.437744e-001 4.827825e-001 2.666537e-001 1.357394e-002
<GCONST> 8.738938e+001
<MIXTURE> 3 2.772277e-001
<MEAN> 39
 -1.016897e+001 -8.408358e+000 -1.119650e-001 -1.553196e+001 -1.565421e+001 -9.694354e+000 -1.962546e+001 -8.669747e+000 2.083255e+000 -1.070051e+001 -2.051781e+000 -1.795787e+000 7.108880e+001 1.480928e+000 1.415029e+000 1.442771e-001 -9.612303e-001 -1.843258e+000 -1.743720e+000 -1.585195e+000 -3.973235e-001 4.071736e-001 8.399436e-001 7.969072e-001 2.413517e-001 7.619596e-001 -1.872839e-001 -2.363227e-001 -3.663327e-001 -4.094968e-002 2.918802e-001 5.991266e-001 5.313766e-001 5.157388e-001 3.907848e-001 3.574578e-001 4.127690e-002 -4.086614e-002 -4.699941e-002
<VARIANCE> 39
 3.632053e+000 1.243024e+001 8.191711e+000 2.134624e+001 1.320751e+001 2.345922e+001 1.649048e+001 8.857744e+000 3.525764e+001 3.235386e+001 2.941549e+001 3.409225e+001 5.626891e+000 2.759576e-001 4.527266e-001 7.665821e-001 9.652873e-001 9.001052e-001 1.128252e+000 1.069331e+000 1.901276e+000 2.046698e+000 2.939727e+000 1.761107e+000 1.107124e+000 1.085207e-001 4.472442e-002 6.398657e-002 1.483690e-001 1.182798e-001 1.572063e-001 2.059778e-001 1.997978e-001 2.158321e-001 2.516973e-001 2.799161e-001 3.140868e-001 2.101986e-001 1.091313e-002
<GCONST> 7.927277e+001
<MIXTURE> 4 1.518152e-001
<MEAN> 39
 -8.365332e+000 -3.055693e+000 -4.704781e+000 -1.290465e+001 -1.740319e+001 -4.446614e+000 -2.219422e+001 -3.809748e+000 2.319026e+000 2.180444e+000 -4.063697e+000 -1.835343e+000 7.190221e+001 8.968389e-001 7.468736e-001 -7.858127e-001 -8.363110e-001 -1.136028e+000 -9.402364e-002 -2.613311e-001 3.773054e-001 -5.888235e-002 8.001896e-001 -8.521360e-002 -2.123029e-001 7.080321e-001 -2.743065e-001 -3.424850e-001 -1.938194e-001 1.567589e-001 4.392957e-001 4.593463e-001 3.253159e-001 1.816774e-001 -4.630098e-002 -1.476696e-001 2.068678e-002 -9.747168e-002 -1.196944e-001
<VARIANCE> 39
 1.793049e+000 7.754283e+000 1.163507e+001 2.650864e+001 9.859767e+000 1.774442e+001 1.345285e+001 3.507075e+001 2.656573e+001 5.309316e+001 6.452843e+001 1.258792e+001 2.368586e+000 2.058270e-001 5.367971e-001 1.075652e+000 9.174211e-001 1.761010e+000 1.377673e+000 9.571915e-001 2.753115e+000 1.605059e+000 3.068496e+000 3.174779e+000 9.806072e-001 1.988802e-001 2.584343e-002 5.502358e-002 1.198812e-001 1.524625e-001 2.258198e-001 8.841258e-002 2.601860e-001 3.627518e-001 2.389064e-001 2.907720e-001 2.653906e-001 1.845131e-001 2.126271e-002
<GCONST> 8.056362e+001
<STATE> 10
<NUMMIXES> 4
<MIXTURE> 1 3.005464e-001
<MEAN> 39
 -7.675582e+000 -9.066074e+000 -5.857935e+000 -2.165587e+001 -1.427393e+001 -1.076989e+001 -1.121292e+001 5.195223e+000 1.949925e+001 4.472630e+000 -4.103915e+000 -5.818679e+000 7.354366e+001 4.856178e-001 2.054870e-002 -3.987542e-001 -3.734725e-001 4.254944e-001 5.932329e-001 5.039926e-001 5.318643e-001 5.214870e-001 4.098295e-001 -2.825436e-001 -6.035007e-001 2.986605e-001 -1.181722e-001 -1.565714e-001 -6.891808e-002 1.472844e-002 8.663637e-002 1.379038e-001 -8.672962e-002 -2.753832e-001 -2.085189e-001 -2.496675e-001 1.481034e-002 1.165541e-001 -5.643530e-002
<VARIANCE> 39
 6.038416e+000 6.791905e+000 1.196009e+001 1.030440e+001 1.048900e+001 8.878139e+000 1.147529e+001 4.609893e+001 2.788321e+001 8.078617e+001 5.091916e+001 2.790453e+001 4.133311e+000 1.281155e-001 2.987358e-001 6.523054e-001 4.163014e-001 6.394078e-001 7.038982e-001 9.872654e-001 1.068006e+000 1.149078e+000 1.266167e+000 1.165496e+000 7.911047e-001 4.667111e-002 3.082240e-002 4.030193e-002 1.134792e-001 6.903139e-002 1.151574e-001 1.279087e-001 1.436301e-001 1.725902e-001 2.224785e-001 3.002562e-001 1.703800e-001 2.013611e-001 1.000000e-002
<GCONST> 6.918622e+001
<MIXTURE> 2 3.469945e-001
<MEAN> 39
 -8.241900e+000 -6.799238e+000 -8.842099e-001 -1.682454e+001 -1.806797e+001 -1.075295e+001 -2.070480e+001 -8.497208e+000 1.904976e+000 -1.190895e+001 -4.173767e+000 -5.092587e+000 7.144511e+001 2.781167e-001 1.584942e-001 -2.676587e-001 -3.339252e-001 -1.315333e-001 1.352475e-001 -1.953938e-001 -1.172438e-001 4.382908e-001 6.481138e-001 3.867556e-001 -8.495498e-002 2.059577e-001 -9.071668e-002 -1.174199e-001 -5.809837e-002 5.323676e-002 2.044601e-001 1.995225e-001 1.847697e-001 6.640131e-002 6.007914e-002 8.641484e-002 -4.236291e-002 -2.456927e-002 -3.776081e-002
<VARIANCE> 39
 2.178404e+000 5.859584e+000 1.820471e+001 2.386099e+001 1.849518e+001 1.029703e+001 2.566473e+001 1.770685e+001 3.089440e+001 3.032793e+001 5.326554e+001 3.828614e+001 3.380481e+000 8.652749e-002 2.326654e-001 4.452640e-001 5.380815e-001 6.175103e-001 8.230678e-001 7.907436e-001 1.255191e+000 1.357752e+000 2.012422e+000 1.429306e+000 6.969824e-001 3.067197e-002 2.580482e-002 4.572465e-002 7.815289e-002 1.125107e-001 1.306619e-001 1.337349e-001 1.959954e-001 1.978894e-001 2.301416e-001 3.378690e-001 2.213902e-001 8.548873e-002 1.000000e-002
<GCONST> 6.894630e+001
<MIXTURE> 3 2.021858e-001
<MEAN> 39
 -5.549307e+000 -2.006257e+000 -7.019814e+000 -1.259076e+001 -1.972090e+001 -1.300606e+000 -2.309280e+001 -3.077524e+000 3.281028e+000 6.362786e+000 -2.081353e+000 -5.282383e+000 7.497565e+001 2.396146e-001 -2.044380e-001 -5.097825e-001 -7.885759e-001 -4.168130e-001 3.941354e-001 -6.643482e-002 2.125913e-001 4.223339e-001 1.111056e+000 7.262001e-002 -5.398443e-001 2.924281e-001 -2.139302e-002 -1.528270e-001 9.868450e-002 -7.724874e-002 1.125272e-001 -4.307679e-002 1.175527e-001 7.123765e-002 2.019264e-001 4.886872e-002 -6.988692e-002 -1.026647e-001 -3.000448e-002
<VARIANCE> 39
 3.165903e+000 2.761281e+000 1.870033e+001 1.220676e+001 1.994988e+001 3.524587e+001 1.952630e+001 3.057481e+001 2.481519e+001 7.536560e+001 3.400084e+001 3.126213e+001 4.808033e+000 2.856133e-002 2.927094e-001 4.556787e-001 4.572871e-001 5.928329e-001 5.780363e-001 7.636848e-001 1.287737e+000 7.508806e-001 9.738201e-001 9.492713e-001 1.003959e+000 1.907246e-002 1.000000e-002 3.514556e-002 6.100036e-002 7.674066e-002 1.245783e-001 1.284744e-001 1.141949e-001 2.344051e-001 8.315703e-002 1.922240e-001 1.679541e-001 9.752519e-002 1.000000e-002
<GCONST> 6.260922e+001
<MIXTURE> 4 1.502732e-001
<MEAN> 39
 -7.092326e+000 -4.810987e+000 -1.039277e+001 -1.806560e+001 -1.567748e+001 -3.923419e+000 -2.206981e+001 1.530744e+000 3.208153e+000 8.222254e+000 -1.430546e+001 -4.976728e+000 7.317195e+001 2.120108e-001 -1.938002e-001 -4.873455e-001 -1.476517e-001 2.637919e-001 6.066791e-001 5.113900e-001 6.486776e-001 -1.141012e-001 -3.060151e-001 -4.152988e-001 -1.638178e-001 8.458141e-002 -7.298827e-002 -5.145930e-002 9.418752e-002 -1.128626e-003 3.424860e-002 -5.074430e-002 1.002901e-001 -1.669851e-001 -1.348004e-001 -2.893342e-001 1.382476e-002 -1.969436e-002 -5.685705e-002
<VARIANCE> 39
 1.038264e+000 1.278583e+000 5.158020e+000 7.153655e+000 8.625631e+000 1.243761e+001 8.732535e+000 3.719662e+001 2.703577e+001 8.533756e+001 1.560916e+001 1.302506e+001 1.036982e+000 3.549978e-002 1.523771e-001 4.186093e-001 3.548856e-001 7.389282e-001 4.665256e-001 9.054772e-001 9.234276e-001 1.135754e+000 1.366270e+000 7.583627e-001 9.282618e-001 3.050940e-002 1.000000e-002 2.775833e-002 7.735084e-002 7.732760e-002 1.298199e-001 8.872263e-002 1.576969e-001 2.092719e-001 2.190319e-001 2.755819e-001 1.845989e-001 1.533949e-001 1.120824e-002
<GCONST> 5.530412e+001
<STATE> 11
<NUMMIXES> 4
<MIXTURE> 1 1.554404e-001
<MEAN> 39
 -5.281438e+000 -1.233994e+001 -8.522842e+000 -2.294366e+001 -1.648797e+001 -4.094726e+000 -1.247094e+001 -2.317918e+000 2.217694e+001 8.349157e+000 2.518585e+000 -1.135759e+001 7.751334e+001 -3.083740e-002 -1.010013e-001 -9.528264e-001 -6.354748e-001 5.177327e-001 1.110560e+000 4.597107e-001 3.302580e-001 -2.206679e-001 -5.857092e-001 -3.288517e-001 4.930432e-001 1.067780e-001 -1.498926e-001 5.598838e-002 5.099576e-002 4.089503e-002 -1.436121e-002 -1.118745e-001 6.717067e-002 1.213043e-001 -2.740884e-001 -2.129127e-001 -2.085221e-001 3.793427e-002 -9.558344e-002
<VARIANCE> 39
 3.879094e+000 1.158241e+001 1.598858e+001 8.016377e+000 3.334693e+001 3.510434e+001 2.206406e+001 8.025804e+001 1.639583e+001 6.149007e+001 5.886000e+001 2.891819e+001 7.694436e+000 1.691408e-001 3.363214e-001 6.023481e-001 3.304461e-001 9.086214e-001 7.863785e-001 1.335682e+000 1.712807e+000 1.580327e+000 9.786164e-001 9.454248e-001 1.019243e+000 1.874350e-001 1.763310e-002 3.161764e-002 1.194065e-001 5.877229e-002 8.726648e-002 1.202582e-001 2.054245e-001 1.409548e-001 1.425143e-001 2.028415e-001 1.379943e-001 1.770780e-001 1.435479e-002
<GCONST> 7.396205e+001
<MIXTURE> 2 3.963731e-001
<MEAN> 39
 -6.596370e+000 -5.275164e+000 -3.776622e+000 -2.028697e+001 -2.022716e+001 -7.813550e+000 -1.853750e+001 -9.860826e+000 6.062885e+000 -4.878177e+000 6.747811e+000 1.513666e-001 7.415747e+001 9.944163e-002 -1.183861e-001 -3.992262e-001 -3.884140e-001 -1.448018e-001 2.556411e-001 5.284964e-001 4.171195e-001 5.646786e-001 6.590726e-001 4.296198e-001 2.121553e-001 1.488007e-001 -4.328618e-002 -7.586567e-002 8.554034e-003 2.281596e-002 1.961955e-002 -2.005066e-002 8.251154e-002 1.504468e-001 -7.101744e-002 -1.294131e-001 -1.328944e-001 4.190372e-002 -4.583235e-002
<VARIANCE> 39
 1.324109e+000 1.110153e+001 2.328925e+001 1.932217e+001 1.188292e+001 3.945778e+001 1.892103e+001 3.018076e+001 5.537930e+001 2.975628e+001 2.939139e+001 3.374467e+001 1.749759e+000 7.652291e-002 2.092263e-001 3.223806e-001 4.350259e-001 5.783812e-001 9.399395e-001 1.058240e+000 8.264928e-001 9.854962e-001 1.041004e+000 8.662831e-001 6.841188e-001 5.699781e-002 1.066639e-002 2.540952e-002 4.526293e-002 6.578207e-002 8.751143e-002 1.492157e-001 1.167727e-001 1.094989e-001 1.797044e-001 1.849650e-001 1.803672e-001 1.003229e-001 1.000000e-002
<GCONST> 6.288470e+001
<MIXTURE> 3 3.212435e-001
<MEAN> 39
 -5.979081e+000 -1.282875e+001 -9.476567e+000 -2.685873e+001 -1.033549e+001 -4.141655e+000 -6.039685e+000 1.891523e+000 1.180408e+001 -6.742622e+000 -6.473342e+000 -6.849354e+000 7.470015e+001 -2.826272e-002 -3.106374e-001 -2.842309e-001 -1.636216e-001 4.064779e-001 7.631159e-001 5.666106e-001 2.641763e-001 -3.593620e-001 -9.716880e-001 -7.101080e-001 -4.206382e-001 1.214371e-002 -3.422644e-002 2.411313e-002 6.082993e-002 1.199590e-001 4.676659e-004 -6.596898e-003 -1.328183e-001 -6.336667e-002 1.431819e-003 2.748094e-002 1.171151e-001 4.840038e-002 -2.881254e-002
<VARIANCE> 39
 2.694649e+000 3.844105e+000 8.989350e+000 9.371821e+000 1.424892e+001 1.455437e+001 1.795131e+001 1.130112e+001 2.331055e+001 4.604765e+001 3.731833e+001 1.757985e+001 1.794541e+000 5.691262e-002 2.211377e-001 4.271009e-001 5.705045e-001 6.453881e-001 5.820679e-001 7.572942e-001 1.034480e+000 1.001965e+000 8.262659e-001 1.216014e+000 8.706481e-001 3.372738e-002 1.030281e-002 2.802691e-002 5.773604e-002 7.391046e-002 1.140719e-001 1.111030e-001 1.229634e-001 1.908994e-001 1.598219e-001 1.150267e-001 1.711840e-001 1.487056e-001 1.000000e-002
<GCONST> 5.861477e+001
<MIXTURE> 4 1.269430e-001
<MEAN> 39
 -3.892208e+000 -7.073881e+000 -9.214379e+000 -2.046496e+001 -1.733011e+001 -2.969955e+000 -1.992957e+001 1.386825e+000 1.049719e+001 1.199679e+001 -9.299005e+000 -1.463935e+001 7.665972e+001 -6.114699e-002 -8.309560e-001 -1.181513e-001 -8.364202e-001 6.639119e-001 2.561644e-001 1.167764e+000 3.040248e-001 4.339178e-001 -3.247131e-001 -9.728873e-001 -8.762304e-001 7.944071e-002 -9.295678e-002 4.819415e-002 1.292279e-001 1.500558e-001 1.234411e-001 -6.073930e-002 1.430966e-001 -6.354795e-002 -1.164226e-001 -3.270406e-001 3.475995e-002 2.940686e-001 -8.151733e-002
<VARIANCE> 39
 3.143516e+000 4.493901e+000 2.229098e+001 1.328219e+001 4.008092e+001 1.745560e+001 2.693427e+001 1.810218e+001 4.194592e+001 6.199745e+001 3.871928e+001 4.390616e+001 7.390920e+000 7.651613e-002 2.366752e-001 3.091771e-001 3.507732e-001 5.756602e-001 8.946951e-001 7.080095e-001 7.537323e-001 1.158749e+000 1.004546e+000 1.202819e+000 9.340875e-001 6.342604e-002 1.022304e-002 3.690293e-002 6.497060e-002 7.207223e-002 1.060690e-001 1.563520e-001 9.241014e-002 1.039957e-001 1.038776e-001 8.557624e-002 1.384972e-001 8.469488e-002 1.000000e-002
<GCONST> 6.427978e+001
<STATE> 12
<NUMMIXES> 4
<MIXTURE> 1 2.074303e-001
<MEAN> 39
 -8.322151e+000 -1.236763e+001 -1.645724e+001 -2.406213e+001 -3.023423e+000 -3.059589e+000 -8.934974e+000 7.661992e+000 1.994350e+001 1.473479e+001 -9.410546e+000 -4.558209e+000 7.369539e+001 -2.281645e-001 -2.796318e-001 2.842410e-002 8.557925e-002 -1.882941e-001 2.939126e-001 1.688506e-001 -3.281273e-001 -6.126330e-002 -5.246333e-001 1.481610e-001 -2.453991e-002 -1.858216e-001 -1.419643e-002 3.904872e-002 1.128641e-001 7.975913e-002 -2.060445e-001 -4.866907e-002 2.314798e-002 8.148000e-002 7.586568e-002 -9.431789e-002 4.677654e-002 -5.717023e-002 -5.201497e-002
<VARIANCE> 39
 5.183051e+000 7.767567e+000 4.797767e+000 6.375092e+000 9.126084e+000 1.359373e+001 8.092030e+000 2.699613e+001 2.572683e+001 4.879927e+001 5.012384e+000 1.936087e+001 2.409863e+000 6.632552e-002 3.214583e-001 3.482687e-001 5.451713e-001 7.759874e-001 4.543141e-001 6.846420e-001 6.139957e-001 5.926905e-001 7.513204e-001 4.307725e-001 3.210131e-001 5.149079e-002 1.563183e-002 5.577380e-002 4.121369e-002 7.776492e-002 1.143668e-001 7.858240e-002 1.112418e-001 1.185298e-001 6.375911e-002 1.597402e-001 7.335737e-002 6.720906e-002 1.000000e-002
<GCONST> 5.208497e+001
<MIXTURE> 2 3.405573e-001
<MEAN> 39
 -6.621895e+000 -7.604361e+000 -6.141066e+000 -2.219835e+001 -2.124609e+001 -3.597298e+000 -1.388223e+001 -4.122139e+000 7.425852e+000 -3.337206e+000 8.218467e+000 2.260097e+000 7.373575e+001 -1.988149e-001 -5.181562e-001 -6.027744e-002 -1.985948e-001 3.565577e-001 1.668049e-001 7.851378e-001 5.084234e-001 2.645775e-001 -2.928556e-001 -3.511274e-001 -3.397507e-001 -2.462638e-001 -1.243295e-001 -5.177593e-002 1.153657e-001 1.826719e-001 1.582741e-001 -3.708165e-002 -4.890390e-002 -6.480117e-002 -2.845621e-002 -1.049930e-001 -1.856628e-001 -1.319015e-001 -7.602863e-002
<VARIANCE> 39
 2.141579e+000 6.526906e+000 2.140918e+001 2.272004e+001 1.097098e+001 5.907823e+001 2.711816e+001 5.352932e+001 4.887454e+001 4.165872e+001 2.384175e+001 2.852908e+001 1.791055e+000 1.022423e-001 1.573051e-001 5.261963e-001 5.438381e-001 5.868446e-001 5.003085e-001 6.342096e-001 1.097283e+000 8.277699e-001 8.883541e-001 8.099678e-001 8.468751e-001 6.523703e-002 1.769121e-002 2.287038e-002 8.166865e-002 1.129705e-001 9.597634e-002 7.128689e-002 1.116797e-001 1.214348e-001 1.057031e-001 1.384345e-001 1.106658e-001 1.041596e-001 1.000000e-002
<GCONST> 6.352067e+001
<MIXTURE> 3 2.662539e-001
<MEAN> 39
 -7.386979e+000 -1.328440e+001 -9.804315e+000 -2.324924e+001 -8.651714e+000 1.874534e+000 -5.702281e+000 1.693915e+000 6.394831e+000 -1.349094e+001 -1.016898e+001 -7.174892e+000 7.327292e+001 -6.348985e-001 -2.797059e-001 5.415369e-001 5.841631e-001 -1.299316e-001 1.990401e-001 1.417744e-001 -7.258669e-001 -7.607835e-001 -1.210511e+000 3.679981e-002 3.100910e-001 -4.600712e-001 -1.385311e-001 6.747708e-003 1.560955e-001 5.183976e-002 -1.500223e-001 -1.854875e-001 -1.039847e-001 -1.448313e-001 -1.099300e-001 -9.331694e-002 -8.679422e-002 -1.434681e-002 -7.734783e-002
<VARIANCE> 39
 2.761232e+000 1.231287e+001 1.369689e+001 7.682000e+000 1.128187e+001 1.366579e+001 4.488050e+001 2.433804e+001 3.992374e+001 4.391437e+001 2.630313e+001 2.510154e+001 1.670647e+000 1.098344e-001 1.554806e-001 3.783637e-001 3.554501e-001 7.230703e-001 6.775236e-001 8.023148e-001 8.385295e-001 1.033489e+000 8.816999e-001 8.491889e-001 7.845675e-001 4.134573e-002 1.390523e-002 2.903734e-002 5.964815e-002 7.952473e-002 1.070797e-001 6.438862e-002 1.273741e-001 2.032650e-001 1.482985e-001 1.569975e-001 1.204677e-001 1.511635e-001 1.000000e-002
<GCONST> 6.133022e+001
<MIXTURE> 4 1.857585e-001
<MEAN> 39
 -6.178253e+000 -7.676891e+000 -1.274811e+001 -2.382914e+001 -1.568660e+001 -7.882211e-001 -1.046834e+001 1.541182e+000 6.934212e+000 4.700129e+000 -8.466526e+000 -8.340847e+000 7.492348e+001 -2.253357e-001 -3.364115e-001 -1.869365e-001 -1.439779e-002 5.999950e-001 3.856086e-001 9.450978e-001 2.657052e-003 -1.745076e-001 -1.405562e+000 -2.715963e-001 8.974994e-002 -2.321914e-001 -6.344764e-002 -1.998187e-002 1.782323e-001 2.143095e-001 -4.071406e-002 1.415098e-002 -1.931089e-001 -1.000554e-001 1.134190e-001 -3.489694e-001 1.335869e-001 1.525459e-001 -1.366101e-001
<VARIANCE> 39
 2.101997e+000 6.516039e+000 1.333570e+001 1.951591e+001 1.511384e+001 2.465884e+001 6.221729e+001 4.557518e+001 8.386965e+001 8.056795e+001 1.043965e+002 2.843785e+001 2.964203e+000 1.600929e-001 2.212280e-001 4.473466e-001 3.389356e-001 4.511898e-001 1.195511e+000 1.763922e+000 1.483649e+000 1.415020e+000 1.211638e+000 1.430598e+000 7.647381e-001 8.585950e-002 3.156010e-002 5.099326e-002 1.391277e-001 5.257633e-002 1.133284e-001 2.260152e-001 2.291107e-001 2.505334e-001 2.312922e-001 1.355155e-001 2.505359e-001 1.740697e-001 1.000000e-002
<GCONST> 7.584697e+001
<STATE> 13
<NUMMIXES> 4
<MIXTURE> 1 2.020906e-001
<MEAN> 39
 -7.555294e+000 -1.223061e+001 -1.096507e+001 -2.203069e+001 -1.315809e+001 3.359153e-001 -1.006349e+001 3.418756e+000 1.824166e+001 2.995187e+000 -6.124426e+000 -1.062806e+001 7.366883e+001 -9.096903e-001 1.071348e-001 8.696287e-001 7.546867e-001 6.844553e-002 -1.302817e-001 6.807850e-001 8.393623e-001 -3.956282e-001 -1.991006e+000 7.427106e-002 7.702380e-001 -9.692252e-001 -2.752210e-001 -3.941436e-002 2.903205e-001 2.504296e-001 5.253265e-002 -3.512587e-002 6.702531e-002 -1.104793e-001 -4.578289e-001 -1.405596e-001 1.527263e-001 1.363708e-001 -1.615534e-001
<VARIANCE> 39
 6.523664e+000 7.846894e+000 2.302472e+001 1.234080e+001 2.568642e+001 1.905790e+001 2.723858e+001 2.773429e+001 2.400108e+001 4.447119e+001 3.862371e+001 3.435300e+001 9.316129e+000 2.589749e-001 4.194480e-001 8.523177e-001 6.304592e-001 1.442868e+000 8.269342e-001 1.405055e+000 1.090529e+000 1.783221e+000 1.826224e+000 1.281929e+000 1.138115e+000 1.502536e-001 2.399069e-002 6.381874e-002 1.136097e-001 1.484929e-001 1.312803e-001 1.342849e-001 1.827217e-001 2.366146e-001 1.728678e-001 2.194350e-001 1.475222e-001 1.481085e-001 1.000000e-002
<GCONST> 7.845959e+001
<MIXTURE> 2 2.473868e-001
<MEAN> 39
 -1.193225e+001 -1.374531e+001 -5.064216e+000 -1.977827e+001 -1.096779e+001 4.627571e-001 -6.043784e+000 -1.862437e+000 1.981770e+000 -2.053317e+001 -1.183955e+001 -6.062630e+000 7.034912e+001 -1.110585e+000 -4.359186e-001 9.525320e-001 1.104994e+000 3.371723e-001 -2.752111e-001 -6.507515e-001 -1.077394e+000 -6.750438e-001 -7.156738e-001 7.306027e-002 1.453441e-001 -6.708319e-001 6.812400e-003 -1.350990e-002 -6.466782e-002 -2.927404e-002 1.927593e-001 -2.037968e-002 -9.149949e-002 1.705853e-001 3.089403e-001 4.416353e-001 2.521254e-001 1.269869e-001 9.011585e-003
<VARIANCE> 39
 3.132633e+000 7.807509e+000 4.335097e+000 1.204613e+001 1.524213e+001 2.119578e+001 3.587374e+001 1.571982e+001 3.127186e+001 2.971766e+001 2.436524e+001 1.637461e+001 2.465476e+000 1.155282e-001 2.713296e-001 4.917793e-001 6.019912e-001 8.513278e-001 1.460933e+000 1.564457e+000 1.550703e+000 1.251108e+000 1.552824e+000 1.274611e+000 1.415769e+000 6.420372e-002 1.828773e-002 3.155683e-002 3.939051e-002 1.157363e-001 1.304971e-001 1.560659e-001 3.533959e-001 2.676848e-001 2.407250e-001 2.496385e-001 1.406868e-001 2.001077e-001 1.000000e-002
<GCONST> 6.951407e+001
<MIXTURE> 3 2.717770e-001
<MEAN> 39
 -1.000423e+001 -1.067263e+001 -5.348511e+000 -2.068550e+001 -1.695816e+001 -4.395452e+000 -1.066598e+001 -3.578357e+000 8.299521e+000 -6.748462e+000 4.271423e+000 -1.138255e-001 7.129547e+001 -1.304595e+000 -8.695893e-001 7.299446e-001 1.607442e+000 1.469949e+000 5.661662e-001 3.689936e-001 4.225507e-001 -2.811988e-001 -1.170210e+000 -1.403453e+000 -5.546159e-001 -8.339834e-001 -1.869423e-001 -7.466547e-002 -1.841493e-002 2.299205e-001 2.108422e-001 2.545213e-001 1.783523e-001 6.496466e-002 -5.617281e-002 -7.588387e-002 -6.648288e-002 -1.581304e-002 -6.330124e-002
<VARIANCE> 39
 4.454332e+000 1.330841e+001 2.087725e+001 1.836933e+001 1.555079e+001 3.884276e+001 2.958255e+001 2.459590e+001 4.118091e+001 2.733181e+001 2.714438e+001 1.792230e+001 3.343907e+000 2.388788e-001 3.446677e-001 6.620403e-001 6.259448e-001 7.923866e-001 1.963610e+000 1.987805e+000 1.510738e+000 1.710488e+000 1.073436e+000 1.128897e+000 1.246825e+000 1.138304e-001 3.546359e-002 4.052044e-002 9.793104e-002 1.713737e-001 1.341869e-001 2.407902e-001 2.564181e-001 1.472998e-001 2.525992e-001 2.188275e-001 2.502875e-001 2.617183e-001 1.000000e-002
<GCONST> 7.849545e+001
<MIXTURE> 4 2.787457e-001
<MEAN> 39
 -9.841091e+000 -1.054017e+001 -5.532225e+000 -1.598277e+001 -1.160107e+001 -4.717863e+000 -1.934072e+001 -9.058143e+000 -1.401324e+000 -1.144400e+001 -1.121303e+001 -8.075532e+000 7.101167e+001 -5.218091e-001 -3.812363e-001 3.119117e-001 4.302480e-001 2.784710e-001 2.024519e-001 4.110278e-001 -3.094999e-001 -8.064944e-001 -1.458183e+000 -4.266735e-001 -2.757982e-001 -4.144808e-001 -6.872727e-002 1.314016e-002 1.185463e-001 4.630419e-002 -3.027880e-003 6.321950e-002 1.115991e-001 6.970721e-002 5.637169e-002 4.486266e-002 4.242529e-002 -1.375579e-002 -4.904833e-002
<VARIANCE> 39
 2.203950e+000 7.288009e+000 4.356123e+001 1.002451e+001 1.096008e+001 1.606396e+001 1.415812e+001 2.153536e+001 1.704737e+001 8.628899e+001 3.875319e+001 1.583064e+001 3.329436e+000 1.582205e-001 1.187823e-001 7.568246e-001 4.425940e-001 7.468187e-001 6.186253e-001 8.627726e-001 8.668563e-001 8.760041e-001 1.332229e+000 9.346490e-001 6.737882e-001 6.914400e-002 2.592753e-002 2.083488e-002 8.187971e-002 9.365933e-002 1.119758e-001 1.147673e-001 8.908398e-002 1.420848e-001 1.296833e-001 2.077813e-001 1.569523e-001 1.265919e-001 1.000000e-002
<GCONST> 6.397354e+001
<STATE> 14
<NUMMIXES> 4
<MIXTURE> 1 1.350575e-001
<MEAN> 39
 -1.253178e+001 -1.211991e+001 -6.086768e+000 -1.819905e+001 -1.327111e+001 -5.774793e-001 -7.710001e+000 6.101312e+000 1.455037e+001 -3.189926e+000 -5.231548e+000 -8.151958e+000 6.925093e+001 -1.645038e+000 -5.996369e-001 1.292863e+000 1.618721e+000 1.046002e+000 7.878877e-001 7.552556e-001 -6.308451e-001 -1.882705e+000 -2.338229e+000 -5.804950e-002 7.497404e-001 -1.226655e+000 1.315991e-002 -1.920739e-001 -1.987362e-001 8.248474e-002 3.822644e-001 3.141623e-001 -2.682142e-002 -4.165597e-001 -2.098723e-001 1.989720e-001 -1.525245e-002 1.048026e-001 7.912201e-002
<VARIANCE> 39
 1.010163e+001 8.668623e+000 1.785401e+001 1.033848e+001 1.320494e+001 1.767022e+001 1.871127e+001 2.903862e+001 2.538229e+001 2.343460e+001 2.121109e+001 1.908793e+001 9.327451e+000 1.890391e-001 4.111320e-001 1.011766e+000 9.847172e-001 2.779521e+000 1.073967e+000 1.294474e+000 1.251992e+000 1.269541e+000 1.050097e+000 8.543786e-001 8.964829e-001 2.038738e-001 6.100622e-002 8.792460e-002 1.474603e-001 1.152220e-001 2.043767e-001 2.082878e-001 3.177736e-001 2.336653e-001 3.002239e-001 2.312108e-001 1.396007e-001 2.349703e-001 1.367082e-002
<GCONST> 7.975404e+001
<MIXTURE> 2 2.471264e-001
<MEAN> 39
 -1.530201e+001 -1.361228e+001 -1.527946e+000 -1.380471e+001 -9.778537e+000 -2.496140e+000 -1.316727e+001 -7.730670e+000 -3.380422e+000 -2.070404e+001 -9.981321e+000 -7.362123e+000 6.706754e+001 -9.506345e-001 -5.899287e-001 1.128111e-001 2.458515e-001 2.536094e-001 5.053967e-001 1.248522e+000 1.095468e+000 6.085893e-001 2.650168e-001 7.261417e-001 5.802382e-001 -5.324897e-001 6.541614e-002 -7.643583e-002 -2.469637e-001 -1.564167e-001 4.477968e-002 2.278705e-001 3.629448e-001 5.118499e-001 5.495861e-001 4.984879e-001 3.162381e-001 1.635008e-001 6.342770e-002
<VARIANCE> 39
 2.505670e+000 4.932631e+000 1.025010e+001 1.245469e+001 8.410371e+000 1.530681e+001 2.213620e+001 1.768430e+001 3.005662e+001 3.386006e+001 1.714052e+001 3.150852e+001 5.081223e+000 1.927746e-001 2.601495e-001 7.626909e-001 1.028487e+000 1.155873e+000 1.223702e+000 1.890324e+000 2.229696e+000 2.207840e+000 2.303269e+000 2.060010e+000 1.453846e+000 7.696953e-002 1.857728e-002 3.365841e-002 1.056049e-001 1.729515e-001 1.583357e-001 1.926575e-001 3.405587e-001 3.999922e-001 2.585779e-001 2.802315e-001 1.718178e-001 2.343612e-001 1.000000e-002
<GCONST> 7.611442e+001
<MIXTURE> 3 2.902299e-001
<MEAN> 39
 -1.712019e+001 -1.762423e+001 -3.441726e+000 -1.835974e+001 -9.643303e+000 4.857804e-001 -3.043076e+000 -1.291410e+000 6.908925e+000 -1.517434e+001 -4.332835e+000 -3.680912e+000 6.883115e+001 -4.976084e-001 -3.269263e-001 -7.557911e-002 1.352869e-001 2.104895e-001 2.890742e-001 3.663355e-001 3.580217e-001 4.461427e-001 7.384927e-001 9.023782e-001 6.874523e-001 -2.525512e-001 1.135801e-001 1.126387e-001 6.484085e-002 1.610638e-002 2.027662e-003 -2.594693e-002 -1.307299e-001 -1.116596e-001 -1.357126e-001 -6.695164e-002 -5.218706e-002 -7.572633e-002 6.745614e-002
<VARIANCE> 39
 2.421860e+000 2.662471e+000 6.173953e+000 6.827052e+000 8.501165e+000 1.454206e+001 1.802094e+001 1.693685e+001 1.948195e+001 2.193700e+001 3.481383e+001 2.326064e+001 4.465979e-001 1.183711e-001 2.304083e-001 4.486590e-001 4.659818e-001 7.819802e-001 1.530856e+000 1.471379e+000 1.539923e+000 1.695458e+000 1.325443e+000 1.085211e+000 9.459384e-001 3.018018e-002 1.522596e-002 4.517677e-002 7.169901e-002 5.448401e-002 1.373487e-001 2.836478e-001 3.052097e-001 2.611060e-001 3.357641e-001 1.979543e-001 1.903829e-001 2.008955e-001 1.000000e-002
<GCONST> 6.375324e+001
<MIXTURE> 4 3.275862e-001
<MEAN> 39
 -1.651451e+001 -1.462213e+001 -3.018916e+000 -1.243310e+001 -8.303363e+000 2.531545e+000 -6.525901e+000 1.274464e+000 7.882798e+000 -9.417203e+000 -2.591868e+000 -2.812917e+000 6.678409e+001 -1.084443e+000 -8.688428e-001 3.189361e-002 6.861394e-001 9.975163e-001 6.844720e-001 8.129473e-001 1.908962e-001 -6.383741e-002 -2.480625e-001 1.295077e-001 4.255012e-001 -6.285602e-001 2.447612e-001 1.592018e-001 -1.578348e-001 -3.790819e-001 -4.520482e-001 -3.407626e-001 -1.971499e-001 -5.658406e-003 7.721785e-002 1.187005e-001 2.674016e-002 -4.827246e-002 1.591797e-001
<VARIANCE> 39
 6.604661e+000 6.093755e+000 6.858525e+000 9.826073e+000 1.411624e+001 1.768926e+001 1.374708e+001 2.301554e+001 2.491124e+001 2.316678e+001 2.114272e+001 1.739843e+001 7.415736e+000 2.757783e-001 4.563013e-001 6.774310e-001 1.198294e+000 1.537721e+000 1.514700e+000 1.570282e+000 2.111068e+000 2.213736e+000 2.415866e+000 1.570410e+000 1.539339e+000 1.212913e-001 2.859300e-002 5.164951e-002 9.451524e-002 1.773208e-001 1.930712e-001 2.277680e-001 2.377344e-001 2.571617e-001 3.617204e-001 4.467741e-001 3.314432e-001 2.305883e-001 1.045389e-002
<GCONST> 7.986167e+001
<TRANSP> 15
 0.000000e+000 1.000000e+000 0.000000e+000 0.000000e+000 0.000000e+000 0.000000e+000 0.000000e+000 0.000000e+000 0.000000e+000 0.000000e+000 0.000000e+000 0.000000e+000 0.000000e+000 0.000000e+000 0.000000e+000
 0.000000e+000 8.408488e-001 1.591512e-001 0.000000e+000 0.000000e+000 0.000000e+000 0.000000e+000 0.000000e+000 0.000000e+000 0.000000e+000 0.000000e+000 0.000000e+000 0.000000e+000 0.000000e+000 0.000000e+000
 0.000000e+000 0.000000e+000 8.045602e-001 1.954397e-001 0.000000e+000 0.000000e+000 0.000000e+000 0.000000e+000 0.000000e+000 0.000000e+000 0.000000e+000 0.000000e+000 0.000000e+000 0.000000e+000 0.000000e+000
 0.000000e+000 0.000000e+000 0.000000e+000 7.993311e-001 2.006689e-001 0.000000e+000 0.000000e+000 0.000000e+000 0.000000e+000 0.000000e+000 0.000000e+000 0.000000e+000 0.000000e+000 0.000000e+000 0.000000e+000
 0.000000e+000 0.000000e+000 0.000000e+000 0.000000e+000 8.309859e-001 1.690141e-001 0.000000e+000 0.000000e+000 0.000000e+000 0.000000e+000 0.000000e+000 0.000000e+000 0.000000e+000 0.000000e+000 0.000000e+000
 0.000000e+000 0.000000e+000 0.000000e+000 0.000000e+000 0.000000e+000 8.433421e-001 1.566580e-001 0.000000e+000 0.000000e+000 0.000000e+000 0.000000e+000 0.000000e+000 0.000000e+000 0.000000e+000 0.000000e+000
 0.000000e+000 0.000000e+000 0.000000e+000 0.000000e+000 0.000000e+000 0.000000e+000 8.224852e-001 1.775148e-001 0.000000e+000 0.000000e+000 0.000000e+000 0.000000e+000 0.000000e+000 0.000000e+000 0.000000e+000
 0.000000e+000 0.000000e+000 0.000000e+000 0.000000e+000 0.000000e+000 0.000000e+000 0.000000e+000 7.923875e-001 2.076125e-001 0.000000e+000 0.000000e+000 0.000000e+000 0.000000e+000 0.000000e+000 0.000000e+000
 0.000000e+000 0.000000e+000 0.000000e+000 0.000000e+000 0.000000e+000 0.000000e+000 0.000000e+000 0.000000e+000 8.019802e-001 1.980198e-001 0.000000e+000 0.000000e+000 0.000000e+000 0.000000e+000 0.000000e+000
 0.000000e+000 0.000000e+000 0.000000e+000 0.000000e+000 0.000000e+000 0.000000e+000 0.000000e+000 0.000000e+000 0.000000e+000 8.360656e-001 1.639344e-001 0.000000e+000 0.000000e+000 0.000000e+000 0.000000e+000
 0.000000e+000 0.000000e+000 0.000000e+000 0.000000e+000 0.000000e+000 0.000000e+000 0.000000e+000 0.000000e+000 0.000000e+000 0.000000e+000 8.445596e-001 1.554404e-001 0.000000e+000 0.000000e+000 0.000000e+000
 0.000000e+000 0.000000e+000 0.000000e+000 0.000000e+000 0.000000e+000 0.000000e+000 0.000000e+000 0.000000e+000 0.000000e+000 0.000000e+000 0.000000e+000 8.142415e-001 1.857585e-001 0.000000e+000 0.000000e+000
 0.000000e+000 0.000000e+000 0.000000e+000 0.000000e+000 0.000000e+000 0.000000e+000 0.000000e+000 0.000000e+000 0.000000e+000 0.000000e+000 0.000000e+000 0.000000e+000 7.909408e-001 2.090592e-001 0.000000e+000
 0.000000e+000 0.000000e+000 0.000000e+000 0.000000e+000 0.000000e+000 0.000000e+000 0.000000e+000 0.000000e+000 0.000000e+000 0.000000e+000 0.000000e+000 0.000000e+000 0.000000e+000 8.275862e-001 1.724138e-001
 0.000000e+000 0.000000e+000 0.000000e+000 0.000000e+000 0.000000e+000 0.000000e+000 0.000000e+000 0.000000e+000 0.000000e+000 0.000000e+000 0.000000e+000 0.000000e+000 0.000000e+000 0.000000e+000 0.000000e+000
<ENDHMM>
