~o
<STREAMINFO> 1 39
<VECSIZE> 39<NULLD><MFCC_D_A_0><DIAGC>
~h "jiu_neck"
<BEGINHMM>
<NUMSTATES> 9
<STATE> 2
<NUMMIXES> 4
<MIXTURE> 1 3.424658e-001
<MEAN> 39
 -1.861755e+001 -1.794345e+001 -4.522918e+000 -5.691461e+000 -7.657592e+000 -6.224977e+000 -1.352705e+001 -1.609076e+000 1.296119e+001 5.570262e-001 -1.160447e+001 -9.596199e-001 7.940343e+001 6.654394e-001 3.211111e-001 6.668207e-001 -1.883651e-001 -4.012471e-001 -5.703124e-001 -5.722272e-001 -7.041228e-001 -8.311149e-001 -6.257675e-001 -4.521540e-001 -6.035694e-001 3.173538e-001 2.334709e-001 -3.972975e-002 2.109818e-001 -1.187369e-001 -1.251387e-001 -2.792189e-001 -1.996627e-001 -1.435988e-001 1.845050e-002 -6.070616e-002 1.254320e-001 -8.310873e-002 1.843173e-002
<VARIANCE> 39
 7.487214e+000 7.844186e+000 1.297325e+001 1.128548e+001 1.421298e+001 1.089449e+001 1.711779e+001 2.294654e+001 2.864755e+001 2.270509e+001 1.560649e+001 1.417361e+001 3.971316e+000 6.993192e-001 4.904989e-001 8.544326e-001 1.088475e+000 1.113837e+000 1.174890e+000 1.766620e+000 1.265735e+000 1.666574e+000 1.418764e+000 1.420643e+000 1.801592e+000 6.093455e-002 6.666988e-002 7.862434e-002 1.078611e-001 1.222731e-001 1.883058e-001 1.865459e-001 2.753187e-001 2.234890e-001 3.518742e-001 3.585956e-001 2.212530e-001 3.224016e-001 1.022398e-002
<GCONST> 7.893173e+001
<MIXTURE> 2 1.753425e-001
<MEAN> 39
 -2.287433e+001 -1.951509e+001 -1.133927e+001 2.925481e-001 -4.213484e+000 -1.086523e+000 -5.953156e+000 7.301072e+000 2.539915e+000 -8.996400e+000 -3.322275e+000 5.091002e+000 7.884951e+001 -6.565544e-001 1.178239e+000 -5.602771e-001 2.872184e-001 -5.835813e-001 -7.226936e-002 -1.905479e-001 -4.177585e-001 -5.803455e-002 1.161115e-001 7.098801e-002 2.775303e-002 5.021079e-001 2.228485e-001 -1.427270e-001 2.179236e-001 -2.337762e-001 -1.968425e-001 -2.733059e-001 6.784879e-002 -1.576041e-001 2.425061e-003 -1.282890e-001 -7.341353e-002 -1.514141e-001 -2.974468e-002
<VARIANCE> 39
 5.057894e+000 1.305787e+001 1.002815e+001 1.027116e+001 1.526396e+001 1.417894e+001 9.755347e+000 1.095250e+001 2.457185e+001 2.329732e+001 3.028617e+001 1.947030e+001 2.769624e+000 3.949887e-001 5.642766e-001 1.113467e+000 1.030890e+000 1.797994e+000 9.923440e-001 9.019514e-001 7.519720e-001 1.578792e+000 1.280397e+000 1.644374e+000 9.515273e-001 1.765829e-001 1.956377e-001 9.941892e-002 1.866446e-001 1.528242e-001 2.547139e-001 2.751418e-001 1.980330e-001 1.790780e-001 4.161129e-001 3.284184e-001 3.425063e-001 2.107730e-001 2.932765e-002
<GCONST> 8.090202e+001
<MIXTURE> 3 2.246575e-001
<MEAN> 39
 -2.662294e+001 -1.290909e+001 -1.720422e+001 4.667036e+000 -5.144497e+000 -3.149112e+000 -1.470530e-001 6.731445e+000 9.995937e+000 -4.960922e+000 -1.328348e+001 1.337750e+000 7.943250e+001 -6.338437e-001 1.177060e+000 -4.168801e-001 1.663687e-001 7.000621e-002 -6.666450e-001 5.193402e-001 -3.404948e-001 -2.022699e-001 -5.368865e-002 -6.732703e-001 1.782690e-001 5.969556e-001 4.012501e-001 -3.600186e-001 4.513935e-001 -5.252858e-001 9.637894e-003 -3.030351e-001 -3.295330e-001 -1.492027e-001 -2.152194e-001 -7.770196e-002 1.253094e-001 -3.175757e-002 -7.412552e-002
<VARIANCE> 39
 6.466538e+000 1.444965e+001 1.326378e+001 1.575875e+001 1.326412e+001 1.168640e+001 2.899184e+001 2.356346e+001 2.455484e+001 1.437392e+001 3.220822e+001 2.316494e+001 3.891192e+000 5.742723e-001 1.038299e+000 9.217849e-001 1.423365e+000 1.307530e+000 1.119336e+000 1.268356e+000 1.430866e+000 9.887099e-001 8.082911e-001 1.418145e+000 1.264739e+000 1.117620e-001 1.265717e-001 9.246379e-002 1.569547e-001 1.413135e-001 2.773451e-001 2.712389e-001 4.701701e-001 2.348213e-001 2.113287e-001 1.912402e-001 2.387878e-001 2.268354e-001 1.138247e-002
<GCONST> 8.221983e+001
<MIXTURE> 4 2.575342e-001
<MEAN> 39
 -1.971662e+001 -2.165788e+001 -8.971354e+000 -3.133577e+000 -4.428798e+000 -3.117747e+000 -5.238650e+000 5.760298e+000 7.779761e+000 -7.264300e+000 -9.267381e+000 -3.364532e-001 7.604509e+001 -4.246728e-001 1.058798e+000 -3.391566e-001 5.854262e-001 -3.343035e-001 -3.436648e-001 -3.245915e-001 1.026013e-001 3.620187e-002 3.686905e-001 -1.638589e-001 1.338586e-001 4.464154e-001 -1.162778e-001 1.864021e-001 -1.010831e-001 5.086982e-002 -4.243015e-002 3.197271e-002 -3.414608e-002 -7.584246e-003 3.465361e-002 1.415883e-001 1.166619e-003 7.216912e-002 7.489851e-002
<VARIANCE> 39
 6.353456e+000 9.412286e+000 1.743044e+001 1.549383e+001 1.561692e+001 2.124619e+001 3.747481e+001 1.900398e+001 3.024191e+001 2.004851e+001 2.904005e+001 1.602163e+001 6.020249e+000 4.972769e-001 8.308923e-001 7.457824e-001 1.227967e+000 5.856970e-001 1.146906e+000 1.641540e+000 9.929280e-001 1.497823e+000 1.122939e+000 1.381335e+000 7.885653e-001 1.264928e-001 4.058648e-002 8.904794e-002 7.975651e-002 1.131419e-001 1.415732e-001 2.325568e-001 2.257483e-001 1.945216e-001 2.780626e-001 1.807431e-001 2.543869e-001 1.256252e-001 1.169299e-002
<GCONST> 7.798898e+001
<STATE> 3
<NUMMIXES> 4
<MIXTURE> 1 9.900990e-002
<MEAN> 39
 -1.210662e+001 -1.969556e+001 -2.215318e+000 -1.127519e+001 -1.302377e+001 -8.881793e+000 -1.249085e+001 4.449743e+000 1.750229e+001 1.589649e+000 -1.600348e+001 -6.969334e+000 8.175306e+001 3.077130e-001 -1.714806e-001 -4.535132e-001 -4.604878e-001 -1.060915e-001 9.168862e-001 1.480513e+000 1.214979e+000 5.062149e-001 -1.200061e+000 -1.176124e+000 -6.973893e-001 1.273897e-001 -8.580484e-002 -4.052405e-002 -1.120154e-001 -5.319778e-002 2.648627e-002 -6.551144e-002 -9.417646e-002 -3.146760e-001 -3.314466e-001 8.183506e-002 2.524198e-001 2.321548e-001 -3.377600e-002
<VARIANCE> 39
 1.726126e+000 4.070632e+000 9.410425e+000 1.916152e+001 1.042151e+001 1.841709e+001 3.666216e+001 3.291199e+001 1.087826e+001 2.829987e+001 2.010766e+001 6.248433e+000 4.045083e+000 1.766467e-001 2.251902e-001 2.427934e-001 2.506008e-001 3.422987e-001 1.837128e+000 2.377848e+000 3.604037e+000 1.823498e+000 5.200306e+000 2.013788e+000 1.501719e+000 7.353719e-002 2.956349e-002 2.833043e-002 4.566071e-002 9.302799e-002 5.684326e-002 2.447910e-001 4.517437e-001 7.125188e-001 3.683639e-001 9.709266e-001 2.680455e-001 3.607398e-001 1.000000e-002
<GCONST> 7.361720e+001
<MIXTURE> 2 4.183168e-001
<MEAN> 39
 -1.453273e+001 -1.538468e+001 -1.737643e+000 -5.279808e+000 -1.202394e+001 -1.238909e+001 -1.658977e+001 -3.570332e+000 5.522370e+000 -3.512873e+000 -1.069182e+001 -1.831574e+000 8.122104e+001 1.413379e+000 -3.262178e-003 1.030068e+000 -7.917793e-001 -1.557600e+000 -1.732789e+000 -1.114395e+000 -3.553561e-001 5.159272e-002 1.071039e+000 1.251921e+000 3.962659e-001 2.922116e-001 -2.985404e-001 -3.374245e-002 -4.798324e-001 -1.216900e-001 6.444122e-002 1.400013e-001 4.323725e-001 5.573614e-001 5.478086e-001 5.125444e-001 2.272934e-001 2.663674e-001 -2.072842e-002
<VARIANCE> 39
 4.756786e+000 9.462507e+000 1.762012e+001 1.217053e+001 2.600613e+001 1.831697e+001 1.782490e+001 3.354432e+001 4.930542e+001 3.142156e+001 3.341843e+001 2.553696e+001 4.582860e+000 7.305412e-001 4.011577e-001 1.263810e+000 1.209906e+000 1.630135e+000 1.430157e+000 2.285614e+000 1.897137e+000 2.707279e+000 2.344700e+000 1.802403e+000 1.946212e+000 8.120444e-002 4.631093e-002 5.217513e-002 8.317932e-002 1.206685e-001 2.286565e-001 2.003391e-001 3.291294e-001 3.030247e-001 3.213749e-001 3.003406e-001 3.805272e-001 3.049246e-001 1.000000e-002
<GCONST> 8.601938e+001
<MIXTURE> 3 2.277228e-001
<MEAN> 39
 -2.390989e+001 -1.350598e+001 -1.272651e+001 -1.086581e+000 -7.077550e+000 -7.091210e+000 -5.728004e+000 3.725685e+000 4.307270e+000 -7.086039e+000 -9.841752e+000 1.773638e+000 8.050375e+001 2.052826e+000 6.405964e-002 1.811845e+000 -1.138771e+000 -1.487681e+000 -2.205698e+000 -2.396885e+000 -1.467137e+000 -1.317749e+000 8.365882e-002 2.408690e-001 -1.751049e-001 2.775411e-001 5.906126e-001 -1.655312e-001 4.616318e-001 -2.071836e-001 -3.944654e-001 -3.479144e-001 -4.679275e-001 -1.429373e-001 -2.493616e-004 3.396843e-001 3.825409e-001 9.067217e-002 -4.472598e-002
<VARIANCE> 39
 1.031571e+001 1.590424e+001 1.705413e+001 2.059448e+001 2.026520e+001 2.127126e+001 3.343970e+001 2.929409e+001 4.789342e+001 2.421069e+001 5.921471e+001 2.074045e+001 3.246643e+000 8.630925e-001 6.205870e-001 9.573086e-001 1.614957e+000 1.405339e+000 1.448655e+000 2.269138e+000 1.818457e+000 2.185943e+000 3.410518e+000 2.746873e+000 2.141548e+000 9.634700e-002 1.785966e-001 9.143591e-002 1.604242e-001 2.021868e-001 2.576426e-001 1.680958e-001 5.230008e-001 4.450797e-001 4.789068e-001 4.387267e-001 4.907555e-001 3.886409e-001 1.481478e-002
<GCONST> 9.475021e+001
<MIXTURE> 4 2.549505e-001
<MEAN> 39
 -1.320185e+001 -1.629312e+001 -5.810941e+000 -1.179770e+001 -1.486258e+001 -1.903545e+001 -1.443461e+001 3.314979e+000 9.974406e+000 5.189649e+000 -2.206444e+000 6.036730e+000 8.142069e+001 7.097923e-001 -2.228695e-001 -1.430276e-001 -1.414850e+000 -8.284662e-001 -3.680564e-001 2.748883e-001 1.660448e+000 1.359058e+000 1.087790e+000 3.284661e-001 -2.392092e-001 1.686214e-001 -2.338051e-001 -1.304178e-001 -3.446952e-001 3.138045e-001 4.257165e-001 8.339381e-001 6.352492e-001 3.574094e-001 2.450173e-002 -7.580950e-001 -8.320509e-001 -6.070169e-001 -5.622210e-002
<VARIANCE> 39
 4.453868e+000 1.045391e+001 9.326842e+000 1.547690e+001 2.090306e+001 2.475359e+001 2.359508e+001 2.048801e+001 7.603390e+001 3.014304e+001 2.589281e+001 4.214163e+001 3.082448e+000 2.350279e-001 2.965785e-001 8.418105e-001 9.085673e-001 1.070046e+000 2.733907e+000 2.599320e+000 1.748790e+000 2.188301e+000 3.155836e+000 3.122521e+000 2.321246e+000 6.044712e-002 6.722831e-002 5.655201e-002 1.507035e-001 1.141022e-001 1.985911e-001 2.705711e-001 4.678350e-001 3.347587e-001 4.624960e-001 4.904391e-001 3.907354e-001 2.637709e-001 1.000000e-002
<GCONST> 8.676675e+001
<STATE> 4
<NUMMIXES> 4
<MIXTURE> 1 2.882206e-001
<MEAN> 39
 -1.282170e+001 -2.096793e+001 -9.502913e+000 -1.586197e+001 -1.129353e+001 -8.870194e+000 -5.735693e+000 8.051356e+000 1.442385e+001 -1.778792e+000 -1.180661e+001 -1.983059e-001 8.089426e+001 -2.864436e-001 -5.859525e-001 -2.494850e-001 2.544200e-001 7.571949e-001 1.078264e+000 7.986505e-002 -6.222048e-001 -7.052739e-001 -5.994446e-001 6.011817e-003 2.755537e-001 -1.850288e-001 -5.772702e-003 8.273166e-002 1.855865e-001 1.353917e-001 -3.508009e-002 -1.782177e-001 -2.673867e-001 -1.324527e-001 -5.175941e-002 2.140834e-001 2.801430e-001 1.047856e-001 5.182184e-004
<VARIANCE> 39
 4.919555e+000 8.431709e+000 9.433169e+000 1.656743e+001 1.944765e+001 3.507615e+001 1.898135e+001 4.549657e+001 4.096954e+001 1.139409e+001 2.055390e+001 1.937003e+001 3.029709e+000 1.917885e-001 2.632620e-001 6.800808e-001 5.760021e-001 1.526578e+000 1.290393e+000 1.288897e+000 2.307058e+000 1.886236e+000 1.182763e+000 1.910281e+000 2.162341e+000 6.318963e-002 2.566765e-002 4.758563e-002 6.622148e-002 6.708461e-002 1.967000e-001 2.132500e-001 3.025543e-001 3.856272e-001 2.867104e-001 2.390234e-001 3.570707e-001 3.438852e-001 1.000000e-002
<GCONST> 7.745850e+001
<MIXTURE> 2 5.513784e-002
<MEAN> 39
 -1.080109e+001 -1.005696e+001 -5.042325e+000 -4.082613e+000 -2.655588e+001 -1.482450e+001 -1.872772e+001 -4.902471e+000 -8.736448e+000 -4.761809e+000 -4.062970e-001 -4.885118e-001 8.567757e+001 7.761697e-001 -1.248668e-001 -1.051375e+000 -1.786521e+000 9.721391e-001 -1.283987e-001 -4.170988e-001 1.357598e-001 9.019044e-001 1.455661e+000 1.050442e+000 4.888596e-001 1.411533e-001 -1.359899e-001 -1.861157e-001 -2.714133e-001 -1.756523e-001 5.729815e-001 3.952045e-001 3.944294e-001 4.408579e-001 5.641114e-001 -2.644505e-001 -9.660430e-002 1.608046e-001 -1.246643e-001
<VARIANCE> 39
 2.657230e+000 4.959414e+000 1.878185e+001 3.753978e+001 1.388588e+001 7.346367e+000 3.011442e+001 1.233665e+001 5.037229e+001 1.456244e+001 1.324792e+001 2.622660e+001 7.945809e-001 5.505319e-002 4.842953e-001 1.391744e+000 1.386868e+000 2.162238e+000 1.429424e+000 3.044524e+000 1.401352e+000 2.158300e+000 5.197837e-001 7.882124e-001 2.709231e-001 8.217867e-002 1.878702e-002 4.666438e-002 3.890135e-001 2.876611e-001 4.530886e-001 1.602198e-001 8.934768e-001 2.901115e-001 6.517064e-002 1.487638e-001 2.508385e-001 1.195310e-001 1.000000e-002
<GCONST> 7.330889e+001
<MIXTURE> 3 3.283208e-001
<MEAN> 39
 -9.580144e+000 -1.627929e+001 -7.208368e+000 -1.527287e+001 -1.607595e+001 -1.393197e+001 -1.078676e+001 8.353407e+000 1.465780e+001 2.786913e+000 -5.601713e+000 -1.541229e+000 8.193020e+001 2.272739e-001 -6.205637e-001 -6.908234e-001 -6.597726e-001 6.794596e-001 1.092745e+000 1.643352e+000 1.127073e+000 1.095099e+000 -3.592931e-001 -9.530293e-001 -6.615751e-001 -6.414219e-002 -1.633888e-001 -2.082610e-002 1.056873e-001 3.150912e-001 1.228964e-001 6.608255e-002 -2.041963e-001 -5.754285e-001 -5.611385e-001 -2.957435e-001 2.649526e-002 2.678777e-001 -4.039596e-002
<VARIANCE> 39
 4.820769e+000 6.328308e+000 9.289960e+000 1.697493e+001 1.594886e+001 1.605934e+001 1.871786e+001 3.481665e+001 6.519656e+001 3.015092e+001 2.118038e+001 2.918977e+001 4.615391e+000 1.542281e-001 2.537189e-001 6.513444e-001 8.823558e-001 1.175252e+000 9.284532e-001 1.535431e+000 2.245424e+000 2.278084e+000 1.867241e+000 1.744139e+000 1.932203e+000 6.338360e-002 2.283523e-002 3.047618e-002 1.166714e-001 1.180820e-001 2.604329e-001 1.979102e-001 2.768200e-001 2.897345e-001 3.987912e-001 3.525949e-001 2.921611e-001 2.760389e-001 1.223854e-002
<GCONST> 7.922925e+001
<MIXTURE> 4 3.283208e-001
<MEAN> 39
 -1.114377e+001 -1.656409e+001 -6.049532e-001 -8.798208e+000 -1.411078e+001 -1.526395e+001 -1.962548e+001 -3.241455e+000 9.971509e+000 1.288166e+000 -5.823612e+000 -1.528917e-001 8.115366e+001 3.099857e-001 -3.284868e-001 -7.852245e-001 -1.117765e+000 -2.493357e-001 -5.351536e-002 3.647552e-001 9.622934e-001 1.242653e+000 1.142504e+000 5.036542e-001 2.976851e-001 9.599063e-002 -1.064034e-001 -1.037269e-001 -1.747374e-001 -8.793323e-002 2.442888e-001 3.898261e-001 4.332951e-001 1.790704e-001 4.006137e-002 -1.857610e-001 -2.897126e-001 -1.789643e-001 -4.598721e-002
<VARIANCE> 39
 1.977403e+000 8.151183e+000 8.865768e+000 1.249681e+001 3.471300e+001 1.554366e+001 2.406098e+001 6.114992e+001 4.468348e+001 3.510652e+001 1.826900e+001 1.517178e+001 6.022348e+000 1.710688e-001 2.921747e-001 5.275302e-001 4.871201e-001 8.643808e-001 1.620179e+000 1.524281e+000 1.312898e+000 1.998131e+000 2.191749e+000 1.238995e+000 1.359424e+000 5.490228e-002 2.427224e-002 4.011471e-002 6.969997e-002 9.925649e-002 1.597625e-001 2.516327e-001 2.034497e-001 2.001259e-001 4.118875e-001 3.408123e-001 1.459860e-001 2.340778e-001 1.000000e-002
<GCONST> 7.503137e+001
<STATE> 5
<NUMMIXES> 4
<MIXTURE> 1 2.685185e-001
<MEAN> 39
 -1.120100e+001 -2.121444e+001 -7.144213e+000 -1.294696e+001 -1.675826e+001 -1.076906e+001 -6.799768e+000 7.461970e+000 2.135406e+001 8.704898e+000 -1.014103e+001 -4.890458e+000 8.366487e+001 4.963733e-002 -5.231644e-002 -2.334863e-001 -2.633293e-001 3.216227e-002 4.475370e-001 3.446259e-001 -7.799005e-002 -1.809955e-001 -3.440155e-001 -4.710362e-002 5.966609e-002 3.131542e-002 9.020399e-003 5.343113e-002 5.368289e-002 4.762998e-002 -4.968728e-002 -5.949236e-002 -2.601203e-002 -1.398680e-002 -8.628465e-002 -6.533102e-002 -3.306250e-003 7.656732e-002 2.678145e-003
<VARIANCE> 39
 2.015422e+000 4.477476e+000 6.220500e+000 1.875090e+001 1.987410e+001 2.870220e+001 1.653098e+001 1.174650e+001 1.758679e+001 1.977073e+001 1.167260e+001 9.094719e+000 5.532300e-001 7.725602e-002 2.601892e-001 4.822042e-001 5.860493e-001 9.684367e-001 8.122030e-001 1.208311e+000 1.167413e+000 2.000661e+000 1.865930e+000 8.634486e-001 7.291110e-001 4.773459e-002 1.268787e-002 4.387262e-002 8.091451e-002 1.208059e-001 1.707990e-001 1.397650e-001 1.842406e-001 1.874062e-001 3.343355e-001 4.321195e-001 1.715698e-001 1.095344e-001 1.000000e-002
<GCONST> 6.318463e+001
<MIXTURE> 2 2.833333e-001
<MEAN> 39
 -9.467258e+000 -1.854854e+001 -9.402235e+000 -1.440049e+001 -1.483816e+001 -9.513744e+000 -6.142843e+000 1.104534e+001 9.670997e+000 -9.612774e-001 -3.399016e+000 9.106790e-001 8.135928e+001 -4.215617e-002 -8.344860e-002 -1.109732e-003 -1.041178e-001 -3.700112e-002 1.788090e-002 1.554054e-001 2.716623e-001 -3.101800e-001 -5.260487e-001 8.772261e-002 1.369726e-001 -1.673959e-002 -3.467061e-003 7.067434e-002 5.688677e-002 1.740273e-002 -6.611343e-002 -1.644250e-001 -2.179573e-001 -2.616338e-002 2.559079e-002 7.311651e-002 1.350468e-002 -9.415412e-002 6.808467e-003
<VARIANCE> 39
 2.826403e+000 3.188284e+000 5.224309e+000 3.949663e+000 6.551539e+000 1.510243e+001 1.228185e+001 1.144062e+001 3.407345e+001 2.201073e+001 1.796722e+001 1.964363e+001 4.986993e+000 7.941885e-002 1.909086e-001 3.340577e-001 3.329371e-001 4.840029e-001 9.924548e-001 1.515895e+000 7.701984e-001 1.164428e+000 1.225976e+000 1.140800e+000 8.176733e-001 5.323244e-002 1.062766e-002 2.960678e-002 6.950878e-002 6.802062e-002 8.530176e-002 1.464542e-001 2.466923e-001 1.412455e-001 1.883721e-001 2.659447e-001 2.198907e-001 1.541924e-001 1.000000e-002
<GCONST> 5.878452e+001
<MIXTURE> 3 1.814815e-001
<MEAN> 39
 -1.495204e+001 -2.457923e+001 -7.854677e+000 -1.000801e+001 -9.667694e+000 -1.827142e+000 -3.020678e+000 7.853947e+000 7.458745e+000 -5.970639e+000 -1.285319e+001 -1.356179e+000 8.046918e+001 1.192271e-001 7.991131e-002 -2.662277e-001 9.598327e-003 1.805766e-001 -1.385161e-001 1.926488e-001 2.610001e-001 6.290404e-002 1.172298e-001 1.933469e-001 -1.114064e-001 1.500191e-001 4.612802e-002 5.551274e-002 -3.852393e-002 -8.590372e-002 -1.153451e-001 -1.808721e-001 -2.981907e-002 6.873173e-002 1.593850e-001 1.639504e-001 4.497891e-002 2.046622e-002 3.495676e-002
<VARIANCE> 39
 5.081922e+000 4.284706e+000 7.359225e+000 1.731693e+001 2.896111e+001 1.543902e+001 1.741406e+001 2.982574e+001 2.144717e+001 1.127884e+001 3.943137e+001 4.290296e+001 4.576228e+000 1.775704e-001 2.882608e-001 3.684252e-001 9.444679e-001 1.059818e+000 1.527853e+000 1.396705e+000 1.834932e+000 1.676180e+000 2.026640e+000 1.288107e+000 1.532495e+000 5.279664e-002 2.073949e-002 5.215443e-002 5.071452e-002 1.079246e-001 2.128643e-001 3.176409e-001 2.396161e-001 3.257873e-001 3.103668e-001 4.478196e-001 2.280740e-001 2.850606e-001 1.000000e-002
<GCONST> 7.616782e+001
<MIXTURE> 4 2.666667e-001
<MEAN> 39
 -1.197508e+001 -1.964008e+001 -4.007212e+000 -1.127895e+001 -9.757529e+000 -1.272252e+001 -1.658951e+001 -1.437466e+000 1.217612e+001 9.625803e-001 -7.107468e+000 3.002051e+000 8.107436e+001 -6.042450e-002 -3.926698e-002 -6.591649e-003 1.353847e-001 -5.762138e-002 1.749233e-001 1.674325e-001 4.426058e-001 2.099103e-001 -3.620430e-002 -3.961802e-001 -1.468785e-001 3.001054e-002 3.958835e-002 2.757691e-002 3.692689e-002 5.867023e-003 -6.273066e-002 2.782104e-002 6.596244e-004 1.424013e-002 3.862417e-002 -3.396229e-002 -1.114141e-001 -1.048153e-001 2.345742e-002
<VARIANCE> 39
 3.094049e+000 4.191902e+000 6.930541e+000 1.385858e+001 1.645564e+001 1.740930e+001 1.617162e+001 3.464406e+001 2.468237e+001 2.563291e+001 1.804723e+001 1.927254e+001 2.951613e+000 1.093182e-001 2.076908e-001 4.419866e-001 5.836064e-001 7.127678e-001 1.078541e+000 1.247457e+000 1.018938e+000 1.993961e+000 1.413450e+000 1.142182e+000 9.152337e-001 4.917964e-002 2.183240e-002 3.527626e-002 8.683810e-002 1.368539e-001 1.189024e-001 1.835209e-001 2.543703e-001 1.955344e-001 4.216436e-001 2.801939e-001 2.345195e-001 1.801642e-001 1.000000e-002
<GCONST> 6.874718e+001
<STATE> 6
<NUMMIXES> 4
<MIXTURE> 1 3.175676e-001
<MEAN> 39
 -9.272018e+000 -1.941081e+001 -8.384683e+000 -1.339746e+001 -1.770033e+001 -1.005606e+001 -4.101877e+000 1.181610e+001 1.472182e+001 -7.200873e-001 -1.202691e+001 -3.488638e+000 8.224435e+001 8.155045e-002 2.763825e-002 -7.992500e-002 -1.020054e-001 -2.156893e-001 -2.406803e-001 -1.780271e-001 -4.006539e-001 -1.020683e-001 -7.588563e-002 -1.102572e-001 2.272121e-001 8.318307e-002 -4.541771e-002 -4.073239e-002 -3.433071e-002 -2.836085e-002 5.244673e-002 -4.418279e-002 -1.292733e-001 -1.153293e-001 -7.343017e-002 1.576026e-002 1.461075e-001 1.270217e-001 -1.513617e-002
<VARIANCE> 39
 1.507199e+000 4.114252e+000 5.109676e+000 6.665940e+000 9.946983e+000 2.292725e+001 2.320984e+001 1.927030e+001 1.379322e+001 2.244989e+001 1.491304e+001 1.572430e+001 7.011365e+000 5.852866e-002 1.742876e-001 4.660191e-001 3.658362e-001 7.673802e-001 9.333081e-001 7.308975e-001 7.678864e-001 8.784536e-001 1.181230e+000 9.261419e-001 1.406917e+000 2.488885e-002 1.924529e-002 2.763711e-002 8.438629e-002 5.984964e-002 1.334697e-001 1.790615e-001 1.590649e-001 1.705653e-001 1.739525e-001 2.266697e-001 1.171182e-001 2.455349e-001 1.000000e-002
<GCONST> 5.949015e+001
<MIXTURE> 2 2.702703e-001
<MEAN> 39
 -1.218923e+001 -2.153942e+001 -1.295205e+001 -1.652062e+001 -7.786120e+000 -7.645708e+000 -3.852638e+000 8.241257e+000 6.408719e+000 1.708601e-001 -4.002266e+000 2.899949e+000 8.172464e+001 1.030802e-001 8.023863e-002 5.176323e-002 9.406267e-003 -1.952889e-001 1.416466e-001 2.012221e-001 1.139138e-001 -1.928716e-001 -1.094221e-001 1.513093e-001 3.779118e-002 2.916782e-002 -1.617512e-002 1.557054e-002 8.135991e-002 8.126487e-002 -5.678152e-002 -4.248993e-002 -1.611466e-002 9.691363e-002 9.093302e-002 -1.168299e-001 -1.121208e-001 -4.790660e-002 -1.638035e-002
<VARIANCE> 39
 3.267455e+000 5.522593e+000 1.248937e+001 1.592635e+001 4.843571e+001 1.196017e+001 1.827520e+001 3.079768e+001 4.801280e+001 1.250887e+001 1.783302e+001 1.246059e+001 1.233330e+000 1.084590e-001 1.938856e-001 4.015581e-001 6.139362e-001 9.098936e-001 9.981751e-001 1.058889e+000 1.061361e+000 9.806155e-001 1.036527e+000 7.291504e-001 6.590986e-001 8.767632e-002 1.619192e-002 3.405199e-002 6.591247e-002 9.870065e-002 1.917441e-001 1.677149e-001 1.901170e-001 1.991595e-001 1.835916e-001 1.803596e-001 1.724574e-001 1.605782e-001 1.000000e-002
<GCONST> 6.532813e+001
<MIXTURE> 3 2.702703e-001
<MEAN> 39
 -1.207207e+001 -2.068586e+001 -5.701207e+000 -1.311514e+001 -8.710807e+000 -4.294860e+000 -1.298404e+001 9.008049e-001 1.779234e+001 3.899317e+000 -1.357042e+001 -3.610611e+000 8.245450e+001 -4.821517e-002 -1.474044e-002 2.209764e-001 1.273178e-001 -2.806458e-001 1.406400e-001 -3.407367e-002 1.756634e-001 -1.859351e-001 -2.711334e-001 -4.991523e-001 -4.552597e-001 6.315666e-003 -5.755775e-002 -2.760389e-002 2.733920e-003 -1.076466e-002 -5.942106e-002 -1.544235e-001 -3.298132e-002 4.663169e-003 -8.557530e-002 -3.107858e-002 7.967795e-002 1.670809e-002 -3.683497e-002
<VARIANCE> 39
 3.140883e+000 3.988983e+000 2.238124e+001 2.295257e+001 1.950958e+001 2.569319e+001 2.879680e+001 1.391040e+001 1.791067e+001 2.883643e+001 1.584236e+001 1.468287e+001 2.780512e+000 1.141764e-001 2.065725e-001 2.455572e-001 9.376745e-001 8.730447e-001 1.068248e+000 1.272236e+000 9.092850e-001 1.206598e+000 1.823205e+000 1.757019e+000 1.602071e+000 3.899284e-002 2.283239e-002 4.905237e-002 5.183905e-002 2.073106e-001 1.690885e-001 1.870336e-001 2.274884e-001 1.715223e-001 3.378329e-001 3.619513e-001 3.910247e-001 2.580382e-001 1.000000e-002
<GCONST> 7.178981e+001
<MIXTURE> 4 1.418919e-001
<MEAN> 39
 -7.284497e+000 -1.386467e+001 -7.972040e+000 -1.797321e+001 -2.015819e+001 -1.663736e+001 -1.165193e+001 8.943218e+000 6.770434e+000 -5.181935e+000 -4.756974e+000 7.122298e-001 8.294140e+001 -7.444364e-003 -1.273637e-002 3.524992e-002 -1.778875e-001 -4.654346e-001 -6.320014e-001 -6.368581e-001 5.931722e-001 6.175064e-001 5.272061e-001 -8.908311e-002 -4.598115e-001 -4.139231e-002 -5.933936e-002 -1.203561e-001 -4.943156e-002 1.567868e-001 1.834364e-001 2.414385e-001 1.670004e-001 -2.236506e-002 1.944108e-001 2.350207e-001 6.892436e-002 5.178859e-003 -4.941572e-002
<VARIANCE> 39
 2.788552e+000 1.403832e+001 8.887965e+000 8.272466e+000 1.386993e+001 2.646462e+001 1.023983e+001 2.195079e+001 3.382184e+001 1.546180e+001 5.937045e+001 1.787395e+001 9.364943e+000 1.453483e-001 5.814126e-001 3.905756e-001 5.982507e-001 1.208299e+000 8.164078e-001 8.255759e-001 9.861583e-001 1.173081e+000 1.586779e+000 1.183712e+000 7.543023e-001 6.958264e-002 1.888621e-002 7.263912e-002 8.737130e-002 1.090701e-001 2.610756e-001 1.380918e-001 1.350235e-001 2.606810e-001 2.277805e-001 3.071204e-001 2.696875e-001 1.276941e-001 1.000000e-002
<GCONST> 7.157698e+001
<STATE> 7
<NUMMIXES> 4
<MIXTURE> 1 2.460064e-001
<MEAN> 39
 -1.119952e+001 -2.041159e+001 -7.436853e+000 -1.210975e+001 -1.570243e+001 -8.903462e+000 -7.469346e+000 5.544235e+000 1.615276e+001 4.134826e+000 -1.243225e+001 -3.994831e+000 8.394713e+001 -7.161252e-001 -2.339312e-001 7.420991e-001 1.394409e+000 9.754041e-001 -3.392756e-001 -2.854861e-001 -3.929635e-001 2.280744e-001 2.917217e-001 1.656108e-001 -5.900364e-001 -4.220871e-001 -1.440460e-001 -8.157850e-002 1.912258e-001 3.072230e-001 3.692164e-001 1.816412e-001 1.757936e-001 -1.060873e-001 -1.116345e-001 -1.804963e-002 4.988600e-002 -1.334098e-001 -9.150086e-002
<VARIANCE> 39
 4.288125e+000 7.666577e+000 9.224912e+000 2.608040e+001 1.655683e+001 1.935058e+001 2.343275e+001 1.341322e+001 2.757800e+001 2.790282e+001 1.680668e+001 1.094162e+001 1.744607e+000 2.623325e-001 3.179131e-001 8.485755e-001 1.279838e+000 2.143498e+000 1.631013e+000 1.727707e+000 1.046216e+000 1.050898e+000 1.047748e+000 1.671817e+000 1.869592e+000 8.534756e-002 3.595588e-002 5.285268e-002 1.157359e-001 1.822393e-001 2.480230e-001 1.734589e-001 1.601222e-001 2.336610e-001 2.481879e-001 2.589189e-001 3.515401e-001 3.417150e-001 1.163009e-002
<GCONST> 7.693195e+001
<MIXTURE> 2 2.683706e-001
<MEAN> 39
 -1.175696e+001 -2.035184e+001 -1.123278e+001 -1.615532e+001 -1.516497e+001 -1.021838e+001 -3.267659e+000 1.503966e+001 1.103198e+001 -4.525063e+000 -2.429648e+000 2.551481e+000 8.132396e+001 -5.670260e-001 -3.833191e-001 4.893019e-002 5.128261e-001 2.012331e-001 -3.822615e-002 2.221945e-002 -4.382690e-002 -5.776567e-001 -4.305940e-001 2.110377e-001 6.356008e-002 -3.574415e-001 -1.304153e-001 -1.182929e-001 8.648707e-002 2.079951e-001 2.533313e-001 2.180640e-001 -9.488397e-002 -2.365439e-001 -1.095556e-001 6.065540e-002 -7.754724e-002 -2.773277e-002 -6.968326e-002
<VARIANCE> 39
 5.190156e+000 5.096300e+000 6.589372e+000 9.822347e+000 2.022000e+001 1.190659e+001 1.334429e+001 1.452549e+001 4.270703e+001 1.597125e+001 2.421739e+001 1.971830e+001 3.503813e+000 4.342369e-001 5.987839e-001 6.750029e-001 1.131299e+000 2.023011e+000 1.273296e+000 1.485787e+000 1.255402e+000 1.464697e+000 2.057149e+000 1.857322e+000 1.466823e+000 1.725977e-001 5.010935e-002 8.407775e-002 1.399974e-001 1.653009e-001 2.760766e-001 2.082640e-001 3.069027e-001 1.789802e-001 2.446379e-001 4.551214e-001 3.584377e-001 3.662039e-001 1.550913e-002
<GCONST> 8.073683e+001
<MIXTURE> 3 2.747604e-001
<MEAN> 39
 -1.063929e+001 -1.952592e+001 -8.022867e+000 -1.416437e+001 -1.560438e+001 -1.551795e+001 -1.139914e+001 9.060072e+000 8.649438e+000 -3.223820e+000 -5.322028e+000 9.615690e-001 8.011147e+001 -6.515146e-001 -5.630831e-001 2.266908e-001 8.476567e-001 9.319109e-001 4.180082e-001 7.222224e-003 -6.333767e-001 -2.018899e-001 9.149047e-002 1.635924e-001 6.190526e-001 -3.406914e-001 -1.610318e-001 -9.797639e-002 1.009368e-001 3.110372e-001 3.075610e-001 3.554371e-001 1.816844e-001 -6.802543e-002 -7.302635e-002 -5.038426e-002 -4.329253e-002 8.902095e-002 -7.653409e-002
<VARIANCE> 39
 3.809096e+000 7.468262e+000 4.485179e+000 9.917150e+000 1.616640e+001 2.293619e+001 9.446147e+000 2.474672e+001 1.761133e+001 1.780038e+001 3.536318e+001 1.380196e+001 1.741741e+000 1.645330e-001 2.883851e-001 4.481026e-001 4.822504e-001 5.648344e-001 1.243592e+000 1.025442e+000 1.769793e+000 5.691225e-001 9.020896e-001 8.112998e-001 7.215754e-001 9.690550e-002 1.250575e-002 2.600051e-002 6.702286e-002 4.204904e-002 5.481276e-002 1.742467e-001 2.047121e-001 3.205310e-001 1.593235e-001 1.160108e-001 1.309948e-001 1.652215e-001 1.000000e-002
<GCONST> 6.110285e+001
<MIXTURE> 4 2.108626e-001
<MEAN> 39
 -1.334285e+001 -2.034792e+001 -2.724149e+000 -1.147109e+001 -9.914123e+000 -8.240628e+000 -1.567595e+001 -1.648701e+000 1.476381e+001 8.166347e-001 -1.352432e+001 -3.503353e+000 8.106225e+001 -6.211841e-001 -3.867402e-001 3.100136e-001 8.015653e-001 6.185440e-001 2.750145e-001 1.196621e-001 2.077458e-001 4.200989e-002 8.293809e-001 2.982796e-001 2.485291e-001 -2.130502e-001 -5.129980e-002 -2.626567e-002 -3.637170e-002 1.265375e-001 2.097806e-001 1.722480e-001 1.906144e-001 2.653367e-001 8.070827e-002 6.485257e-002 8.304155e-002 1.722097e-001 -9.412555e-003
<VARIANCE> 39
 4.581948e+000 3.954114e+000 6.324154e+000 8.296348e+000 1.094305e+001 1.102899e+001 1.617827e+001 1.760330e+001 1.240164e+001 2.327963e+001 3.161192e+001 2.497929e+001 3.946995e+000 1.184742e-001 2.860968e-001 3.100944e-001 8.509887e-001 1.042968e+000 1.268282e+000 1.052443e+000 1.549504e+000 1.737480e+000 1.346696e+000 1.713942e+000 1.311463e+000 5.392917e-002 2.233653e-002 3.042390e-002 3.747782e-002 1.049801e-001 1.254549e-001 1.284961e-001 1.898094e-001 1.537153e-001 2.785579e-001 3.085191e-001 2.550756e-001 2.185995e-001 1.000000e-002
<GCONST> 6.704116e+001
<STATE> 8
<NUMMIXES> 4
<MIXTURE> 1 4.126984e-001
<MEAN> 39
 -1.604511e+001 -2.282500e+001 -2.160398e+000 -4.924065e+000 -6.702657e+000 -6.417325e+000 -1.076759e+001 2.095278e+000 1.636498e+001 5.546489e+000 -1.190693e+001 -4.714054e+000 8.079731e+001 -3.019071e-001 -2.306950e-001 2.769838e-001 5.627295e-001 4.610415e-001 2.580335e-001 -7.460404e-003 -1.853354e-001 4.341895e-002 2.850387e-001 3.645241e-001 1.441268e-001 -1.609361e-001 9.263854e-002 4.903028e-002 -8.920703e-002 -1.914110e-001 -1.665681e-001 -3.339639e-002 -5.030264e-002 -4.151164e-002 2.118989e-002 -3.165818e-002 -4.948767e-002 2.135601e-002 4.376375e-002
<VARIANCE> 39
 1.454194e+000 2.797549e+000 6.624027e+000 1.377787e+001 1.580272e+001 1.325053e+001 3.049784e+001 1.416720e+001 1.638270e+001 2.059916e+001 2.323727e+001 2.212741e+001 1.269018e+000 2.183233e-001 2.754835e-001 4.193420e-001 9.260105e-001 1.477672e+000 9.409645e-001 1.169106e+000 1.333894e+000 1.144391e+000 1.818408e+000 1.948964e+000 1.525615e+000 8.834604e-002 2.952188e-002 4.930516e-002 7.389718e-002 1.973538e-001 2.749648e-001 1.779868e-001 2.056569e-001 2.214299e-001 2.417281e-001 3.429213e-001 4.499461e-001 3.744531e-001 1.000000e-002
<GCONST> 7.197949e+001
<MIXTURE> 2 1.632653e-001
<MEAN> 39
 -1.511860e+001 -2.246186e+001 -6.175887e+000 -7.282415e+000 -8.660456e+000 -8.309849e+000 -7.831832e+000 7.342335e+000 8.824612e+000 -2.224245e+000 -5.446226e+000 2.637882e+000 7.825087e+001 -1.016031e+000 -7.586215e-001 3.618369e-001 1.625423e+000 1.933604e+000 1.853623e+000 1.229012e+000 -2.821820e-001 -4.628211e-001 -2.666768e-001 -3.011420e-001 -1.077983e-001 -5.167559e-001 5.368625e-002 -2.330603e-002 -9.456705e-002 -2.734984e-001 -1.372941e-001 -1.332800e-001 8.434704e-002 6.578561e-002 -2.204830e-001 -2.325995e-001 -2.334044e-002 -2.117755e-001 5.003644e-002
<VARIANCE> 39
 3.198235e+000 4.940711e+000 8.494461e+000 1.057227e+001 1.623385e+001 2.041005e+001 1.494512e+001 1.855672e+001 2.284682e+001 1.397777e+001 3.852187e+001 1.682006e+001 2.868619e+000 2.201642e-001 4.744962e-001 3.677662e-001 4.485410e-001 8.784388e-001 1.420538e+000 1.181955e+000 1.033275e+000 1.984071e+000 1.339008e+000 1.191816e+000 1.923499e+000 8.134200e-002 4.260322e-002 7.668664e-002 7.163051e-002 8.116534e-002 1.153013e-001 2.036930e-001 2.287015e-001 1.979318e-001 2.440519e-001 1.469519e-001 1.968933e-001 2.384637e-001 1.176345e-002
<GCONST> 7.076792e+001
<MIXTURE> 3 2.857143e-001
<MEAN> 39
 -1.778104e+001 -2.506275e+001 -6.078847e+000 -4.445229e+000 -3.771113e+000 -2.107203e+000 -3.223406e+000 9.229902e+000 4.877301e+000 -7.778826e+000 -5.002115e+000 2.990989e+000 7.696659e+001 -3.263062e-001 -2.125512e-001 1.788598e-001 4.883639e-001 7.787576e-001 6.848016e-001 2.533596e-001 -6.300134e-003 -1.302730e-001 -3.947526e-001 -1.467488e-001 -4.868262e-002 -1.822329e-001 9.335589e-002 6.646298e-002 -1.028491e-001 -2.175007e-001 -2.862091e-001 -3.367139e-001 -2.257314e-001 -4.652381e-002 1.089382e-001 1.716868e-001 1.535133e-001 8.484679e-002 5.356963e-002
<VARIANCE> 39
 2.451807e+000 4.289716e+000 9.889794e+000 1.220146e+001 1.618523e+001 1.075744e+001 1.666244e+001 1.238179e+001 1.950502e+001 2.491965e+001 2.577692e+001 1.767717e+001 4.321307e+000 1.843083e-001 4.493752e-001 7.284249e-001 6.823833e-001 1.015224e+000 1.279526e+000 1.179555e+000 9.787814e-001 1.778662e+000 1.504106e+000 1.502443e+000 1.272484e+000 6.900018e-002 4.226859e-002 8.812796e-002 1.187636e-001 1.259584e-001 1.726615e-001 2.042488e-001 2.255928e-001 1.724153e-001 3.260544e-001 2.791528e-001 2.106192e-001 2.289316e-001 1.044411e-002
<GCONST> 7.288048e+001
<MIXTURE> 4 1.383220e-001
<MEAN> 39
 -1.701039e+001 -2.480386e+001 -7.905145e+000 -9.472503e+000 -1.035770e+001 -9.090213e+000 -8.842272e+000 6.538856e+000 4.817430e+000 -7.675578e+000 -4.197483e+000 5.605340e+000 7.838219e+001 -6.449530e-001 -5.094737e-001 4.168509e-001 1.301324e+000 1.501757e+000 1.142279e+000 2.308605e-001 -7.439011e-002 -2.102958e-001 -3.123452e-001 2.739321e-003 2.675934e-001 -3.631297e-001 1.823485e-001 2.229846e-001 1.236529e-001 1.301757e-001 2.180182e-001 3.620746e-001 2.971318e-001 3.214480e-001 4.736986e-001 2.647542e-001 -1.738148e-001 -2.373655e-001 9.010580e-002
<VARIANCE> 39
 3.151321e+000 3.523875e+000 1.350128e+001 2.410251e+001 1.682855e+001 1.668498e+001 2.014104e+001 2.852648e+001 2.447986e+001 2.212486e+001 2.798154e+001 2.525860e+001 2.405323e+000 2.388555e-001 2.454419e-001 2.979936e-001 1.095930e+000 1.570305e+000 1.664563e+000 1.927894e+000 1.185854e+000 1.821936e+000 1.893804e+000 8.735647e-001 9.675801e-001 1.011284e-001 2.106735e-002 3.296351e-002 5.221702e-002 1.708149e-001 2.065182e-001 2.121121e-001 2.658902e-001 1.353659e-001 3.203096e-001 2.723225e-001 2.869785e-001 3.497316e-001 1.037690e-002
<GCONST> 7.445415e+001
<TRANSP> 9
 0.000000e+000 1.000000e+000 0.000000e+000 0.000000e+000 0.000000e+000 0.000000e+000 0.000000e+000 0.000000e+000 0.000000e+000
 0.000000e+000 8.356164e-001 1.643836e-001 0.000000e+000 0.000000e+000 0.000000e+000 0.000000e+000 0.000000e+000 0.000000e+000
 0.000000e+000 0.000000e+000 8.514851e-001 1.485149e-001 0.000000e+000 0.000000e+000 0.000000e+000 0.000000e+000 0.000000e+000
 0.000000e+000 0.000000e+000 0.000000e+000 8.496241e-001 1.503759e-001 0.000000e+000 0.000000e+000 0.000000e+000 0.000000e+000
 0.000000e+000 0.000000e+000 0.000000e+000 0.000000e+000 8.888889e-001 1.111111e-001 0.000000e+000 0.000000e+000 0.000000e+000
 0.000000e+000 0.000000e+000 0.000000e+000 0.000000e+000 0.000000e+000 8.648649e-001 1.351351e-001 0.000000e+000 0.000000e+000
 0.000000e+000 0.000000e+000 0.000000e+000 0.000000e+000 0.000000e+000 0.000000e+000 8.083067e-001 1.916933e-001 0.000000e+000
 0.000000e+000 0.000000e+000 0.000000e+000 0.000000e+000 0.000000e+000 0.000000e+000 0.000000e+000 8.639456e-001 1.360544e-001
 0.000000e+000 0.000000e+000 0.000000e+000 0.000000e+000 0.000000e+000 0.000000e+000 0.000000e+000 0.000000e+000 0.000000e+000
<ENDHMM>
