~o
<STREAMINFO> 1 39
<VECSIZE> 39<NULLD><MFCC_D_A_0><DIAGC>
~h "xiangzuozhuan"
<BEGINHMM>
<NUMSTATES> 33
<STATE> 2
<NUMMIXES> 4
<MIXTURE> 1 2.321429e-001
<MEAN> 39
 -1.926046e+001 -1.084165e+001 -6.731863e+000 -1.413307e+001 -1.291518e+001 -4.148170e+000 -4.087116e+000 2.921673e+000 8.391618e+000 -9.318276e+000 -9.854034e+000 -1.836911e+000 7.257931e+001 1.555096e+000 -2.492825e-001 5.129134e-001 -3.110736e-001 -1.525725e+000 -1.243202e+000 -1.421590e+000 -5.085695e-001 1.531464e+000 7.222555e-001 6.743641e-001 -4.820789e-001 5.256738e-001 4.758497e-001 4.664849e-002 2.536793e-001 -1.684173e-001 -4.583929e-001 -2.823416e-001 -1.937445e-001 -1.759251e-001 1.816512e-001 3.638359e-001 4.109456e-001 4.267233e-002 1.477413e-001
<VARIANCE> 39
 1.013155e+001 9.712379e+000 1.915149e+001 5.313406e+000 5.655122e+000 1.185454e+001 6.634377e+000 1.302976e+001 1.579035e+001 1.351572e+001 1.478321e+001 3.954586e+001 4.095876e+000 1.353040e+000 9.105823e-001 8.570197e-001 6.783963e-001 2.588929e+000 2.144276e+000 9.120937e-001 9.184175e-001 1.581268e+000 2.163194e+000 1.565616e+000 1.978534e+000 2.482263e-001 6.484547e-002 1.932360e-001 2.130296e-001 1.202876e-001 2.627324e-001 3.244224e-001 1.862188e-001 2.032228e-001 2.726844e-001 2.523920e-001 2.070346e-001 2.961864e-001 5.321594e-002
<GCONST> 8.268652e+001
<MIXTURE> 2 5.238096e-001
<MEAN> 39
 -2.576710e+001 -1.042140e+001 -8.962298e+000 -9.018948e+000 -8.108836e+000 3.199618e+000 -3.740403e+000 3.359479e+000 5.846339e+000 -9.582566e+000 -7.721528e+000 1.633333e+000 6.679994e+001 -8.880301e-001 2.019104e+000 -6.752306e-001 9.169469e-001 -2.380931e-001 -1.898959e-001 -4.709486e-002 4.909834e-002 -2.373929e-001 8.411968e-001 -6.600624e-001 6.582107e-001 8.801327e-001 -2.740854e-002 1.776583e-001 -6.318994e-003 8.523603e-002 1.772227e-002 -7.938118e-002 6.273416e-002 -8.852991e-002 5.452272e-002 8.060326e-002 9.068601e-002 -4.841575e-002 1.153540e-001
<VARIANCE> 39
 6.326018e+000 1.272993e+001 1.525026e+001 1.582695e+001 2.934618e+001 1.181755e+001 1.856678e+001 1.947051e+001 2.053086e+001 2.090832e+001 3.309217e+001 2.180469e+001 4.723729e+000 1.719233e-001 8.225550e-001 9.456188e-001 1.040442e+000 1.198244e+000 1.377303e+000 1.948695e+000 1.015392e+000 1.153995e+000 1.585291e+000 1.320980e+000 1.334187e+000 1.713639e-001 4.402270e-002 1.250956e-001 9.513256e-002 1.659259e-001 1.502983e-001 1.535955e-001 2.088562e-001 1.668599e-001 2.968399e-001 2.540710e-001 2.584272e-001 3.094027e-001 1.224490e-002
<GCONST> 8.011578e+001
<MIXTURE> 3 1.250000e-001
<MEAN> 39
 -1.855882e+001 -1.344554e+001 -7.143533e+000 -1.175399e+001 -1.158570e+001 -2.656064e+000 -9.445187e+000 7.614285e-001 1.276262e+000 -1.075710e+001 -5.125643e+000 2.915741e+000 7.177978e+001 1.179864e+000 3.532273e-001 3.315725e-001 -7.963170e-001 1.121403e-001 -1.375672e+000 -2.345726e-001 -1.229745e+000 -4.834396e-001 -3.384602e-001 6.110398e-001 2.230767e-001 6.257781e-001 4.719923e-001 1.782518e-001 3.788833e-001 -1.634791e-001 -4.455109e-002 -2.729966e-001 -1.377811e-001 -9.249392e-002 8.478468e-002 -1.167865e-001 5.507538e-002 -1.729873e-001 1.395726e-001
<VARIANCE> 39
 6.575121e+000 8.036972e+000 9.119240e+000 2.317152e+001 1.208250e+001 1.607290e+001 1.604494e+001 1.425428e+001 1.224822e+001 8.879193e+000 2.061278e+001 6.974382e+000 1.463686e+000 8.879175e-001 6.736914e-001 1.181529e+000 2.066588e+000 5.669605e-001 3.468570e+000 1.459314e+000 1.252036e+000 1.008003e+000 1.451440e+000 3.018049e+000 1.050345e+000 6.847085e-002 9.750842e-002 2.422882e-001 1.892304e-001 1.280021e-001 1.899989e-001 2.673098e-001 3.638188e-001 2.169426e-001 2.513551e-001 2.436485e-001 2.213322e-001 1.454966e-001 1.763849e-002
<GCONST> 7.899667e+001
<MIXTURE> 4 1.190476e-001
<MEAN> 39
 -1.312778e+001 -1.167763e+001 -6.171418e+000 -1.881407e+001 -1.814587e+001 -1.188633e+001 -1.214729e+001 -4.319050e+000 4.132204e+000 -1.268800e+001 -1.003414e+001 8.078064e-002 7.446090e+001 2.922520e+000 6.879987e-001 1.459519e+000 -1.930433e+000 -6.517952e-001 -1.358890e+000 8.899177e-001 -3.547150e-002 9.705876e-001 4.443106e-001 -6.379057e-001 -8.553178e-001 1.308821e+000 -4.809593e-002 -2.956244e-001 -4.307437e-001 1.351953e-001 3.037310e-001 9.259857e-001 1.058339e+000 1.293980e+000 3.816960e-001 1.231779e-002 1.149737e-001 -1.950848e-001 3.928087e-002
<VARIANCE> 39
 5.607807e+000 5.420979e+000 1.601972e+001 1.064276e+001 3.424681e+001 4.321650e+001 1.197894e+001 1.392833e+001 5.122221e+001 1.978776e+001 1.720030e+001 1.578434e+001 3.084293e+000 6.069833e-001 1.459308e+000 6.224944e-001 7.537627e-001 6.463373e+000 2.823674e+000 5.467608e+000 4.631533e+000 2.497805e+000 3.365187e+000 2.747323e+000 1.475775e+000 6.133394e-002 1.303976e-001 1.925180e-001 1.948952e-001 1.399437e-001 2.092551e-001 7.223942e-001 1.758440e-001 2.878203e-001 3.014012e-001 3.730925e-001 4.239055e-001 3.580883e-001 1.659399e-002
<GCONST> 9.196526e+001
<STATE> 3
<NUMMIXES> 4
<MIXTURE> 1 1.035857e-001
<MEAN> 39
 -7.440365e+000 -1.002883e+001 -3.297099e+000 -1.753529e+001 -2.432794e+001 -1.151812e+001 -9.209643e+000 1.140187e+000 1.638825e+001 -1.349846e+000 -6.040376e+000 -3.196998e+000 7.697171e+001 2.078403e+000 -1.297712e-001 -6.176720e-001 -1.307341e+000 -1.834441e+000 -9.737976e-001 5.502755e-001 2.294849e+000 2.926943e+000 1.770963e+000 6.283277e-002 -8.897148e-001 1.104988e+000 -6.746970e-001 -5.211648e-001 -7.545311e-001 -1.384430e-001 1.159020e+000 9.615237e-001 1.029075e+000 5.175272e-001 -2.399114e-001 -5.647544e-001 -6.098103e-001 -3.756319e-001 -2.489009e-001
<VARIANCE> 39
 7.961926e+000 1.307491e+001 1.427254e+001 1.304848e+001 1.630604e+001 1.291558e+001 1.250607e+001 3.021204e+001 2.381347e+001 1.567872e+001 8.409018e+000 3.685358e+001 4.400986e+000 7.359980e-001 9.621301e-001 1.383816e+000 5.897618e-001 2.238550e+000 1.794205e+000 2.366828e+000 1.524977e+000 1.993935e+000 5.717776e+000 1.892688e+000 1.326049e+000 1.508593e-001 5.020809e-002 1.573162e-001 6.975248e-002 1.482609e-001 3.468259e-001 1.835520e-001 1.311374e-001 6.272756e-001 4.557180e-001 7.660646e-001 4.133463e-001 2.866547e-001 2.425495e-002
<GCONST> 8.799356e+001
<MIXTURE> 2 7.490040e-001
<MEAN> 39
 -2.704747e+001 -3.681624e+000 -1.343096e+001 -4.480481e+000 -1.215832e+001 2.893509e+000 -4.639446e+000 3.155387e+000 5.581485e+000 -7.664126e+000 -7.166223e+000 3.578804e+000 7.025433e+001 -1.813333e-001 9.644784e-001 -4.364888e-001 4.453216e-001 -1.443693e-001 -3.365443e-001 1.816517e-001 7.054470e-002 -4.055996e-002 5.569950e-001 3.713314e-003 5.061825e-002 6.922265e-001 1.735293e-001 -2.687400e-001 1.433836e-001 -1.880267e-001 6.055738e-002 -1.245989e-001 -1.969261e-002 -8.440390e-002 -5.175158e-002 -5.543925e-002 6.951809e-002 -8.102658e-002 -1.923152e-002
<VARIANCE> 39
 7.780210e+000 1.263921e+001 1.399111e+001 2.347290e+001 4.113175e+001 2.270849e+001 3.096131e+001 1.786657e+001 3.246554e+001 2.190979e+001 2.378464e+001 1.183728e+001 4.880921e+000 3.182179e-001 9.750459e-001 7.153467e-001 6.386088e-001 9.114355e-001 9.553555e-001 1.098047e+000 1.184415e+000 1.523736e+000 1.326414e+000 1.003401e+000 1.204607e+000 1.326420e-001 3.742117e-002 6.632919e-002 8.337291e-002 1.049087e-001 1.492642e-001 2.320396e-001 2.105910e-001 2.445803e-001 2.990165e-001 1.822846e-001 1.787950e-001 2.249189e-001 1.000000e-002
<GCONST> 7.825671e+001
<MIXTURE> 3 7.569721e-002
<MEAN> 39
 -7.107640e+000 -1.273443e+001 -7.594169e+000 -2.169337e+001 -1.309607e+001 -5.799917e+000 -1.324398e+000 8.544731e+000 5.698826e+000 -1.561251e+001 -1.066870e+001 -4.277557e+000 7.723431e+001 1.162228e+000 -1.919942e+000 -1.342665e+000 -8.206593e-001 1.660077e+000 1.078027e+000 1.862944e+000 1.809290e+000 -5.144201e-001 -2.121958e+000 -1.414116e-001 1.025455e-001 6.467793e-001 -7.463024e-001 -5.391378e-001 -5.138824e-001 6.253098e-001 6.005229e-001 1.364323e-001 -1.493515e+000 -1.328904e+000 -6.692260e-001 -2.104440e-001 -5.079880e-002 3.282211e-001 -3.147628e-001
<VARIANCE> 39
 5.052663e+000 1.057360e+001 1.463823e+001 2.275951e+001 2.714810e+001 3.578300e+001 2.109734e+001 3.197020e+001 3.241116e+001 2.070107e+001 1.736901e+001 1.415414e+001 1.674376e+000 1.289996e+000 1.238442e+000 1.021155e+000 8.429949e-001 1.029425e+000 2.956731e+000 5.770193e+000 7.885024e+000 3.004125e+000 2.314914e+000 1.157340e+000 2.166372e+000 1.734645e-001 1.393100e-001 3.258957e-001 3.081095e-001 9.872415e-002 1.485026e-001 4.032437e-001 1.012735e+000 1.175573e+000 2.328227e-001 4.927418e-001 2.391015e-001 5.565383e-001 1.543131e-002
<GCONST> 9.616241e+001
<MIXTURE> 4 7.171315e-002
<MEAN> 39
 -1.599479e+001 -1.071425e+001 -6.205054e+000 -1.387989e+001 -1.172043e+001 -4.376530e+000 -7.846634e+000 1.389493e+000 6.701179e+000 -9.592459e+000 -3.940937e+000 -1.161282e+000 7.437582e+001 2.991104e+000 5.963071e-002 1.147270e+000 -4.741431e-001 -9.648405e-001 -1.047218e+000 -1.077294e+000 5.300366e-001 1.317157e+000 3.978575e-001 9.345432e-001 -8.130980e-001 9.599712e-001 3.304286e-001 1.393130e-001 -2.767334e-001 -2.125202e-001 -3.376605e-001 -9.094890e-002 4.772962e-002 8.622697e-001 4.909670e-001 -1.528173e-001 -6.188172e-001 -2.488461e-001 2.652782e-001
<VARIANCE> 39
 2.201360e+001 6.621698e+000 8.994463e+000 9.637040e+000 7.775954e+000 2.352148e+001 1.902714e+001 8.020275e+000 2.002264e+001 1.343093e+001 1.841818e+001 1.239249e+001 4.581756e+000 9.141148e-001 1.084571e+000 1.111294e+000 4.487862e-001 1.087893e+000 3.194598e+000 2.492605e+000 2.619227e+000 2.744914e+000 4.323219e-001 2.435106e+000 1.049732e+000 2.891877e-001 2.470187e-001 8.113066e-002 2.176748e-001 3.613416e-002 9.564443e-002 3.708911e-001 7.345434e-001 1.394028e-001 1.207098e-001 2.902942e-001 3.310525e-001 5.025593e-002 3.933503e-002
<GCONST> 8.113571e+001
<STATE> 4
<NUMMIXES> 4
<MIXTURE> 1 1.739130e-001
<MEAN> 39
 -6.314984e+000 -1.201766e+001 -8.124458e+000 -2.075794e+001 -2.330882e+001 -9.439364e+000 -3.739954e+000 7.861145e+000 2.269048e+001 -5.034279e-001 -1.089002e+001 -7.666511e+000 7.831514e+001 4.175339e-001 -1.412519e+000 -1.891326e+000 -1.142685e+000 1.945918e+000 2.094705e+000 2.142118e+000 1.213505e+000 5.531321e-001 -1.057436e+000 -1.873951e+000 -1.945629e+000 3.810982e-001 -5.013133e-001 -9.511740e-002 -1.399263e-001 3.157393e-001 1.114536e+000 8.968803e-001 1.762348e-001 -7.168498e-001 -1.160990e+000 -7.258201e-001 8.934561e-002 2.233020e-001 -3.316237e-001
<VARIANCE> 39
 5.592291e+000 1.260921e+001 1.762971e+001 1.328194e+001 2.080467e+001 1.683998e+001 1.702142e+001 3.083055e+001 1.351895e+001 8.886152e+001 2.127330e+001 3.187812e+001 1.754470e+000 5.198168e-001 2.234068e-001 4.001763e-001 6.973723e-001 2.771131e+000 2.131801e+000 1.072523e+000 2.829012e+000 3.575830e+000 3.800480e+000 3.260896e+000 1.001190e+000 2.291365e-001 9.349716e-002 1.198935e-001 2.426488e-001 6.505357e-002 5.059021e-001 3.952725e-001 3.668453e-001 5.136977e-001 3.054020e-001 7.687923e-001 6.009735e-001 2.865785e-001 1.970983e-002
<GCONST> 9.040672e+001
<MIXTURE> 2 4.956522e-001
<MEAN> 39
 -2.865277e+001 8.763531e-001 -1.315791e+001 -3.832370e+000 -9.912375e+000 1.398910e-001 -1.312595e+000 1.495853e+000 5.355190e+000 -4.760214e+000 -8.436504e+000 3.821059e+000 7.321742e+001 1.782431e-001 -1.475306e-001 -2.467532e-001 -3.601003e-001 -4.629282e-001 -8.507450e-001 -1.730802e-002 -2.757646e-001 -4.426306e-001 8.676271e-002 -6.179855e-002 -1.371544e-001 5.719066e-001 3.900358e-001 -3.843408e-001 1.913159e-001 -2.712812e-001 -1.653063e-001 -2.210435e-001 -2.825243e-001 -1.696447e-001 -2.405627e-001 -2.483604e-001 -2.176856e-002 -1.452050e-002 -8.400241e-002
<VARIANCE> 39
 1.182022e+001 3.177318e+001 5.053985e+001 3.132994e+001 5.633978e+001 2.217797e+001 4.724501e+001 2.242363e+001 2.544894e+001 3.718814e+001 3.178512e+001 2.771274e+001 3.951482e+000 5.049795e-001 1.117724e+000 5.228663e-001 7.763404e-001 1.318256e+000 1.827099e+000 1.017944e+000 1.318548e+000 1.370605e+000 1.576821e+000 1.480505e+000 1.411114e+000 1.663912e-001 1.839808e-001 1.883491e-001 2.463897e-001 1.977259e-001 2.836020e-001 3.386977e-001 2.521355e-001 2.675348e-001 2.167165e-001 3.920321e-001 2.361840e-001 2.984214e-001 3.910832e-002
<GCONST> 9.370782e+001
<MIXTURE> 3 1.391304e-001
<MEAN> 39
 -6.167042e+000 -1.859804e+001 -1.125471e+001 -2.020396e+001 -8.817908e+000 -4.589973e+000 -2.934949e+000 7.067533e+000 9.217317e+000 -1.885910e+001 -1.359202e+001 -4.383961e+000 7.821870e+001 3.595474e-002 -9.413779e-001 -7.526529e-001 7.425206e-001 3.281399e+000 1.947338e+000 -7.769811e-001 -2.508605e+000 -7.285290e-001 -1.386824e-001 -6.486409e-001 -4.219621e-001 -1.068304e-001 -1.293285e-001 4.723094e-001 4.689514e-001 6.844374e-003 -3.802278e-001 -3.216438e-002 -4.178344e-001 -4.686378e-001 2.969059e-001 9.326499e-001 4.902281e-001 -3.579357e-002 -1.831546e-001
<VARIANCE> 39
 1.396920e+000 5.247385e+000 8.796991e+000 1.536714e+001 5.215741e+001 2.008066e+001 2.456900e+001 2.611827e+001 6.741537e+001 2.153481e+001 1.291225e+001 1.172644e+001 1.678363e+000 1.579806e-001 5.655321e-001 6.704502e-001 7.023488e-001 9.279103e-001 2.135383e+000 8.325572e+000 3.473396e+000 8.729007e-001 1.586188e+000 8.797219e-001 1.929160e+000 4.938688e-002 2.803242e-002 9.986462e-002 1.207033e-001 2.555822e-001 4.492542e-001 3.452224e-001 4.547493e-001 9.019040e-001 2.341993e-001 1.998852e-001 2.596850e-001 4.796065e-001 1.000000e-002
<GCONST> 8.167673e+001
<MIXTURE> 4 1.913043e-001
<MEAN> 39
 -1.832137e+001 -8.126880e+000 -9.751430e+000 -9.181278e+000 -1.811950e+001 -5.947876e+000 -9.641408e+000 -1.812197e+000 -5.999331e-002 -1.073187e+001 -6.919127e+000 3.005251e+000 7.349184e+001 3.090998e+000 -6.270429e-002 1.857032e+000 -1.907298e+000 -9.013000e-001 -2.601294e+000 -4.178395e-001 -2.401955e-001 -6.821594e-001 -1.905236e-001 -2.461027e-002 -7.316495e-001 9.272592e-001 2.206160e-001 1.863102e-002 -9.887743e-002 -1.989945e-001 1.625864e-002 2.656007e-001 6.698989e-001 7.758116e-001 4.343207e-001 3.390632e-001 -3.926260e-001 -5.197139e-001 2.012747e-001
<VARIANCE> 39
 2.933374e+001 4.885416e+000 2.819531e+001 1.295124e+001 2.451001e+001 1.503654e+001 2.831432e+001 2.999099e+001 4.787620e+001 5.018278e+001 6.574619e+001 3.628242e+001 3.102661e+000 5.745055e-001 5.667197e-001 1.137765e+000 1.277398e+000 2.100940e+000 1.510162e+000 3.645746e+000 2.838415e+000 4.790067e+000 1.910559e+000 3.501147e+000 2.746589e+000 3.990707e-001 3.617792e-001 2.159312e-001 5.434649e-001 1.761672e-001 4.488620e-001 4.446999e-001 5.097971e-001 4.073074e-001 4.548247e-001 3.526515e-001 4.926129e-001 2.527697e-001 5.964198e-002
<GCONST> 1.033802e+002
<STATE> 5
<NUMMIXES> 4
<MIXTURE> 1 2.415730e-001
<MEAN> 39
 -6.855172e+000 -1.596506e+001 -1.428037e+001 -2.184861e+001 -1.099648e+001 1.841686e+000 3.190377e+000 5.587799e+000 1.792913e+001 -6.449361e+000 -1.342854e+001 -1.060125e+001 7.765690e+001 -2.976141e-001 -1.090198e-001 -5.817232e-001 -5.920538e-001 7.711936e-001 1.365032e+000 8.910965e-001 1.713592e-001 -8.509507e-001 -2.036820e-001 1.397763e+000 -1.850521e-001 -5.604111e-001 -1.158186e-001 2.837234e-001 5.077253e-001 9.542499e-002 -9.088312e-001 -8.425187e-001 -6.313726e-001 8.754875e-002 1.102956e-001 3.023250e-001 7.483183e-001 4.065464e-001 -1.837755e-001
<VARIANCE> 39
 9.070429e+000 7.583858e+000 1.967784e+001 2.254283e+001 4.077352e+001 1.216670e+001 1.770109e+001 2.376365e+001 1.528651e+001 5.148348e+001 2.270839e+001 2.230824e+001 1.088344e+000 2.142178e-001 4.843038e-001 7.959531e-001 8.424317e-001 4.805439e+000 2.433591e+000 1.558882e+000 1.401429e+000 1.241795e+000 3.261023e+000 2.311605e+000 2.378609e+000 1.270881e-001 5.468666e-002 6.405050e-002 1.925323e-001 2.094886e-001 6.771191e-001 2.761024e-001 2.335744e-001 3.609575e-001 1.856642e-001 3.405560e-001 6.219878e-001 4.055484e-001 1.000000e-002
<GCONST> 8.708908e+001
<MIXTURE> 2 1.797753e-001
<MEAN> 39
 -5.702559e+000 -1.740661e+001 -1.000431e+001 -1.662070e+001 -6.314659e-001 -3.023336e+000 -1.458164e+001 -5.019363e+000 3.558865e+000 -1.260245e+001 -4.886116e+000 -5.014262e+000 7.688673e+001 8.431219e-003 6.808911e-002 -2.949231e-002 -2.804992e-001 4.891147e-001 1.547734e+000 4.660519e-001 -1.249375e+000 3.481811e-002 2.267896e-001 8.190984e-001 -6.677737e-001 -3.784812e-001 -1.776427e-001 2.910200e-001 3.458048e-001 -2.639929e-001 -7.801993e-001 2.401759e-001 1.217860e+000 8.240864e-001 -3.877481e-001 -9.235323e-001 -2.554002e-001 4.458472e-001 -1.403732e-001
<VARIANCE> 39
 5.664651e+000 1.534331e+001 1.388772e+001 1.961372e+001 4.172797e+001 1.726268e+001 1.017184e+001 2.528109e+001 1.497696e+001 3.953131e+001 1.082991e+002 2.835250e+001 2.027631e+000 1.796909e-001 6.413460e-001 1.606607e+000 8.220322e-001 2.707273e+000 1.422732e+000 4.310004e+000 2.386317e+000 2.762739e+000 5.212731e+000 1.873368e+000 2.137895e+000 1.171324e-001 5.861562e-002 1.129341e-001 2.970878e-001 1.539118e-001 4.157043e-001 2.386713e-001 4.721265e-001 4.158782e-001 4.822083e-001 5.688372e-001 3.975034e-001 3.390774e-001 2.025250e-002
<GCONST> 9.346770e+001
<MIXTURE> 3 2.808989e-001
<MEAN> 39
 -2.873861e+001 -8.494946e-001 -1.427438e+001 -4.883021e+000 -9.939824e+000 -1.297094e+000 -1.902429e+000 2.973469e+000 3.702233e+000 -3.034557e+000 -8.537412e+000 2.792482e+000 7.463318e+001 2.366867e+000 -1.052272e+000 9.767534e-001 -1.491123e+000 -1.712814e+000 -2.347407e+000 -2.098315e+000 -1.272728e+000 -1.159724e+000 -3.210410e-001 3.379298e-001 -3.064519e-001 5.322162e-001 1.158595e+000 -3.634249e-001 4.568482e-001 -8.245838e-001 -8.985724e-001 -1.000322e+000 -5.314546e-001 8.369147e-002 -7.493310e-002 -4.413123e-002 2.044157e-001 -3.931930e-001 1.976321e-001
<VARIANCE> 39
 1.072988e+001 1.744856e+001 4.616209e+001 3.462763e+001 4.796003e+001 4.933377e+001 3.387445e+001 2.666972e+001 2.724459e+001 1.985302e+001 2.469116e+001 1.588053e+001 3.713254e+000 2.004936e+000 9.899209e-001 1.759637e+000 3.208186e+000 3.091425e+000 3.435311e+000 2.240595e+000 1.786989e+000 1.614304e+000 2.679027e+000 7.865491e-001 1.548591e+000 3.622180e-001 1.944770e-001 1.943044e-001 2.151775e-001 4.519107e-001 6.283628e-001 5.277169e-001 7.547087e-001 5.005025e-001 6.391349e-001 3.946129e-001 4.335020e-001 3.489806e-001 3.387472e-002
<GCONST> 1.049156e+002
<MIXTURE> 4 2.977528e-001
<MEAN> 39
 -1.299788e+001 -7.623314e+000 -5.845023e+000 -1.480871e+001 -2.048360e+001 -1.370312e+001 -8.577947e+000 -5.530334e-002 -4.083745e+000 -7.303369e+000 -7.458908e+000 2.810647e-001 7.680963e+001 1.956641e+000 -1.476403e+000 5.520530e-001 -2.063605e+000 1.278479e-001 -6.507035e-001 2.621556e+000 1.787783e+000 -1.010888e+000 7.410377e-001 -1.368061e+000 -2.058388e+000 1.265858e+000 -6.557972e-001 -4.986545e-001 -7.601782e-001 7.002351e-001 9.719238e-001 1.268753e+000 7.976771e-001 4.938104e-001 1.401574e-001 -1.692702e-001 -2.591209e-001 -6.681965e-002 -9.563302e-002
<VARIANCE> 39
 2.442586e+001 8.439432e+000 2.109978e+001 1.666569e+001 4.076041e+001 2.051486e+001 6.132224e+001 3.859669e+001 5.515643e+001 6.450021e+001 9.690826e+001 5.030871e+001 3.200389e+000 9.963589e-001 1.378741e+000 2.739913e+000 2.905884e+000 4.859311e+000 5.689233e+000 7.649211e+000 5.507770e+000 4.372175e+000 2.726367e+000 2.509652e+000 2.176382e+000 3.898986e-001 1.172966e-001 1.138453e-001 2.813388e-001 4.652262e-001 7.982994e-001 4.160670e-001 1.517263e+000 1.138636e+000 4.691344e-001 5.911551e-001 5.009274e-001 1.217864e+000 4.822235e-002
<GCONST> 1.161717e+002
<STATE> 6
<NUMMIXES> 4
<MIXTURE> 1 3.178808e-001
<MEAN> 39
 -6.397254e+000 -1.496630e+001 -1.042858e+001 -2.291155e+001 -1.317619e+001 1.515452e+000 1.123212e+000 7.724482e+000 1.684331e+001 -4.685655e+000 -5.154045e+000 -7.749906e+000 7.624940e+001 -4.760614e-001 3.725477e-001 1.022139e+000 3.954751e-001 -1.418647e-001 -3.508003e-002 -4.577067e-001 -5.921662e-001 -2.342329e-001 7.640147e-002 9.370828e-001 9.029953e-001 -6.927083e-001 -9.140520e-002 1.073613e-001 2.716872e-001 4.958066e-001 2.382113e-001 -9.627393e-002 -4.167907e-001 -4.310329e-001 -3.599856e-001 -4.297186e-001 -4.983272e-001 4.982712e-002 -5.383538e-002
<VARIANCE> 39
 5.035587e+000 6.927648e+000 1.749015e+001 1.526314e+001 2.036938e+001 1.370551e+001 2.284548e+001 3.289204e+001 2.773180e+001 2.230259e+001 4.043341e+001 2.202781e+001 1.807193e+000 3.165156e-001 5.664388e-001 4.883346e-001 1.339914e+000 2.743990e+000 1.287283e+000 2.490798e+000 2.071340e+000 2.967113e+000 3.459556e+000 2.785426e+000 1.403004e+000 9.990522e-002 5.258964e-002 5.386387e-002 1.053189e-001 1.208024e-001 1.797599e-001 2.807583e-001 2.875207e-001 2.578121e-001 5.032991e-001 4.321160e-001 3.431355e-001 3.430518e-001 1.739681e-002
<GCONST> 8.549334e+001
<MIXTURE> 2 2.516556e-001
<MEAN> 39
 -1.105328e+001 -1.373772e+001 -7.930568e+000 -1.868756e+001 -1.878563e+001 -1.016326e+001 4.302392e+000 6.544956e+000 -7.829401e+000 -7.759332e+000 -1.456310e+001 -5.162694e+000 7.953745e+001 4.469631e-001 -2.520409e+000 -1.183402e+000 5.641224e-001 2.478775e+000 8.608666e-001 1.131142e+000 8.994315e-001 -1.691855e+000 -1.584757e+000 -4.600600e-001 8.296048e-001 6.187366e-001 -3.027158e-001 2.655224e-002 -1.988570e-001 9.831150e-001 7.380049e-001 -2.834468e-001 -1.683727e+000 -6.575719e-001 3.593581e-001 -4.353047e-001 5.795907e-001 9.760234e-001 -3.178935e-001
<VARIANCE> 39
 7.311175e+000 8.074888e+000 2.014071e+001 2.241753e+001 3.354038e+001 1.973056e+001 3.573929e+001 2.531130e+001 6.311507e+001 4.978979e+001 4.268332e+001 4.155146e+001 5.102780e+000 1.365767e-001 5.296673e-001 3.944115e-001 2.752205e+000 3.289977e+000 2.757751e+000 3.758987e+000 3.580424e+000 2.322888e+000 8.477905e-001 2.410060e+000 4.440284e+000 2.564886e-001 1.322130e-001 1.707152e-001 1.529030e-001 2.450375e-001 1.940104e-001 2.266246e-001 7.724125e-001 7.677813e-001 8.352884e-001 5.925937e-001 4.210628e-001 6.453210e-001 6.240441e-002
<GCONST> 1.007791e+002
<MIXTURE> 3 2.185431e-001
<MEAN> 39
 -1.924969e+001 -2.677866e+000 -8.019324e+000 -8.440917e+000 -1.643740e+001 -9.381689e+000 -1.116743e+001 -2.559078e+000 2.187483e+000 -3.795161e+000 -6.563332e+000 -2.750095e-001 7.672749e+001 4.755933e+000 -1.212968e+000 6.512260e-001 -2.087072e+000 -4.238295e+000 -4.217204e+000 -2.545651e+000 8.582438e-001 8.339857e-001 3.269095e-001 1.340552e+000 -1.446617e+000 1.395474e+000 -4.327282e-002 -3.685497e-001 -4.999971e-001 -4.081938e-001 5.405216e-001 4.381335e-001 1.092302e+000 1.091803e+000 1.001659e+000 2.977841e-001 -1.562192e-001 -4.831862e-001 2.563343e-001
<VARIANCE> 39
 2.853344e+001 1.641020e+001 3.394142e+001 1.963843e+001 8.143835e+001 5.880085e+001 4.878643e+001 2.677814e+001 1.315635e+001 1.888292e+001 2.474979e+001 5.358166e+001 3.964581e+000 1.426550e+000 1.030319e+000 3.545076e+000 4.287457e+000 2.047202e+000 3.414274e+000 3.944546e+000 5.027442e+000 4.788603e+000 2.195359e+000 2.551898e+000 2.689327e+000 2.717024e-001 5.413328e-001 2.372201e-001 2.908508e-001 4.034542e-001 1.091467e+000 1.312809e+000 9.430914e-001 1.854586e-001 4.286763e-001 8.667140e-001 4.696064e-001 3.273844e-001 8.005077e-002
<GCONST> 1.141070e+002
<MIXTURE> 4 2.119205e-001
<MEAN> 39
 -8.191451e+000 -1.744225e+001 -8.925137e+000 -2.121980e+001 -3.299053e+000 2.552341e+000 -4.084573e+000 -3.117249e+000 -1.812621e+000 -2.533462e+001 -1.281188e+001 -7.392925e+000 7.402087e+001 -3.015141e-001 7.413561e-001 9.847089e-001 6.075402e-003 -1.190862e+000 -2.361361e-001 1.535092e+000 6.578412e-001 -2.495174e-001 -1.099350e+000 -3.068390e-001 -3.138982e-001 -4.893773e-001 -6.608052e-002 5.349425e-003 1.386853e-001 2.649076e-001 1.022459e-001 -4.748228e-001 -6.431688e-001 -2.006113e-001 4.094800e-001 7.581693e-001 3.237460e-001 -2.784153e-002 1.485317e-002
<VARIANCE> 39
 1.004288e+000 3.863872e+000 7.627466e+000 9.172629e+000 3.839064e+001 1.032311e+001 2.459577e+001 2.455507e+001 2.029738e+001 2.520220e+001 3.026514e+001 1.366669e+001 2.048267e+000 8.523186e-002 2.217404e-001 7.624390e-001 6.388706e-001 8.869517e-001 1.746964e+000 3.679110e+000 2.544453e+000 4.055172e+000 6.283438e+000 3.287937e+000 1.095590e+000 2.984586e-002 1.326007e-002 4.777959e-002 1.058491e-001 7.018181e-002 1.529800e-001 1.363975e-001 5.254516e-001 6.409836e-001 6.650083e-001 9.794767e-001 6.679147e-001 3.011394e-001 1.000000e-002
<GCONST> 7.777846e+001
<STATE> 7
<NUMMIXES> 4
<MIXTURE> 1 2.789116e-001
<MEAN> 39
 -9.704901e+000 -1.224925e+001 -1.340002e+001 -1.675814e+001 -1.618638e+001 -1.268508e+001 -3.634734e+000 8.478114e+000 9.235085e+000 -5.744965e+000 -7.632285e+000 -6.717257e+000 8.134558e+001 8.373297e-001 -2.508316e+000 -1.671208e+000 1.926721e-001 3.350253e+000 2.011637e+000 8.402569e-001 6.145651e-001 1.420423e+000 -3.888334e-001 -4.299112e-001 -1.431291e+000 3.884345e-001 -7.074865e-001 5.069157e-001 -1.270466e-001 6.970052e-001 1.013529e+000 9.485868e-001 -5.049214e-001 -1.367762e+000 -5.483455e-001 5.785741e-002 2.977865e-001 8.342021e-001 -4.509680e-001
<VARIANCE> 39
 3.045993e+000 1.602979e+001 1.468569e+001 3.037846e+001 9.318544e+001 6.273910e+001 9.547286e+001 3.669371e+001 5.537960e+001 7.257005e+001 4.332162e+001 3.062302e+001 5.064808e+000 6.442338e-001 1.755614e+000 1.174236e+000 3.164698e+000 2.872139e+000 1.950019e+000 5.727087e+000 5.270995e+000 5.345925e+000 5.127047e+000 3.629178e+000 3.903445e+000 3.225411e-001 2.358014e-001 2.322536e-001 2.033050e-001 1.193882e+000 1.013370e+000 1.305172e+000 1.704751e+000 3.737423e-001 3.537094e-001 5.005120e-001 4.329096e-001 7.394313e-001 3.765234e-002
<GCONST> 1.163674e+002
<MIXTURE> 2 2.585034e-001
<MEAN> 39
 -8.256909e+000 -1.321629e+001 -7.334520e+000 -1.964913e+001 -1.159719e+001 1.334064e+000 -2.000082e+000 2.485036e+000 9.866418e+000 -1.117114e+001 -3.605707e+000 -4.461520e+000 7.398968e+001 -8.334952e-001 4.103322e-001 1.564452e+000 1.213103e+000 5.744860e-001 1.268404e-001 -1.204766e+000 -9.425689e-001 -9.585849e-001 -1.168904e+000 -5.517070e-001 -1.042093e-002 -8.490784e-001 -2.429401e-002 -8.763234e-003 1.292813e-001 1.924765e-001 1.176855e-001 -2.848746e-002 -1.843453e-001 -1.334269e-001 -5.690620e-002 -9.328327e-002 -3.476009e-001 -2.886458e-001 3.515377e-002
<VARIANCE> 39
 4.760179e+000 7.100248e+000 2.420744e+001 1.265026e+001 2.610071e+001 8.225907e+000 2.062910e+001 2.612926e+001 4.228137e+001 3.960736e+001 3.271017e+001 1.606537e+001 2.051584e+000 3.860455e-001 3.486842e-001 3.990727e-001 1.155308e+000 3.709656e+000 2.222636e+000 3.337702e+000 1.984346e+000 2.662915e+000 3.762872e+000 4.132969e+000 1.466650e+000 8.644011e-002 3.110936e-002 7.167117e-002 1.112238e-001 1.470030e-001 3.976980e-001 1.345319e-001 3.632475e-001 2.389442e-001 2.474458e-001 2.830679e-001 5.126337e-001 2.217317e-001 1.126564e-002
<GCONST> 8.495540e+001
<MIXTURE> 3 1.496599e-001
<MEAN> 39
 -1.130506e+001 -4.320590e+000 -1.005665e+001 -1.584335e+001 -1.979858e+001 -1.726097e+001 -8.431609e+000 3.398116e+000 5.883004e+000 -2.638091e+000 -4.729501e+000 -6.556069e-001 7.982462e+001 3.271865e+000 -3.052657e+000 -4.943548e-001 -3.262646e+000 -9.690722e-001 -1.741974e+000 1.801018e+000 2.556838e+000 1.629610e+000 -4.168164e-001 -7.982700e-001 -2.804543e+000 1.486582e+000 -1.117381e+000 -3.943215e-001 -9.350801e-001 9.287496e-001 1.906119e+000 1.572396e+000 9.576087e-001 1.664582e-001 4.684182e-002 -4.642489e-001 -6.131945e-001 2.962600e-002 -2.188338e-001
<VARIANCE> 39
 3.237930e+000 1.622870e+001 1.547441e+001 2.474420e+001 2.358639e+001 4.541992e+001 6.274310e+001 6.466851e+001 3.217766e+001 3.589975e+001 4.900686e+001 1.919087e+001 2.953807e+000 2.265514e+000 1.010551e+000 2.387935e+000 5.412130e+000 3.584712e+000 2.691910e+000 6.180827e+000 9.188463e-001 4.124872e+000 4.065351e+000 3.929822e+000 2.579427e+000 3.834052e-001 1.668154e-001 2.877946e-001 1.422017e-001 6.264374e-001 2.289238e-001 4.771570e-001 8.406031e-001 7.751692e-001 3.326200e-001 4.233539e-001 7.164175e-001 8.873795e-001 3.086794e-002
<GCONST> 1.094328e+002
<MIXTURE> 4 3.129252e-001
<MEAN> 39
 -1.005563e+001 -1.753327e+001 -1.114158e+001 -1.137540e+001 -1.020494e+001 -1.017011e+001 -1.534139e-002 5.723639e+000 -1.073005e+001 -1.365933e+001 -1.307898e+001 1.171944e+000 8.004294e+001 3.767658e-001 -1.384541e+000 -8.068406e-001 1.749981e+000 3.229429e+000 -8.088729e-001 -3.180732e+000 7.640933e-002 9.373235e-001 -1.151117e+000 2.671098e-003 1.307891e+000 -1.642661e-002 -6.124254e-002 6.057240e-001 2.136238e-001 -4.247516e-001 -2.857587e-001 -4.855381e-001 -8.347627e-001 -2.735057e-001 1.130843e+000 6.411589e-001 -1.847093e-001 -9.297910e-001 -2.788271e-001
<VARIANCE> 39
 8.499574e+000 9.073381e+000 2.608609e+001 1.490879e+001 6.613579e+001 3.117754e+001 6.372025e+001 4.052767e+001 2.794683e+001 6.957740e+001 4.056472e+001 1.828103e+001 5.326234e+000 2.033625e-001 5.666462e-001 4.407561e-001 1.768358e+000 2.732525e+000 1.864791e+000 2.377886e+000 3.049776e+000 3.661068e+000 1.729639e+000 2.220112e+000 3.363317e+000 8.566317e-002 2.730111e-002 9.419192e-002 1.271366e-001 2.588152e-001 3.002421e-001 3.318135e-001 7.036199e-001 7.485238e-001 4.001668e-001 4.189814e-001 4.110467e-001 7.092916e-001 3.656632e-002
<GCONST> 9.727459e+001
<STATE> 8
<NUMMIXES> 4
<MIXTURE> 1 1.719745e-001
<MEAN> 39
 -7.375180e+000 -1.322073e+001 -2.075259e+001 -1.593597e+001 -6.175375e+000 -1.310499e+001 1.289430e+000 1.774900e+000 1.857082e+001 -1.967154e+000 -8.860574e-001 -6.773540e+000 8.273538e+001 4.219290e-001 2.646521e-001 -5.803732e-001 -8.546426e-001 7.176709e-001 1.613382e+000 8.964337e-001 -8.426620e-001 -2.793873e-001 2.300686e-001 4.930442e-001 -3.283137e-002 -5.073160e-001 -1.044444e-001 2.565795e-001 6.833136e-001 -4.709429e-002 -8.654363e-001 -2.591954e-001 -4.758162e-001 1.446515e-001 -5.397911e-001 -1.922061e-002 -1.269194e-001 2.004959e-001 -2.636585e-001
<VARIANCE> 39
 1.449328e+000 1.180617e+001 1.290568e+001 1.871259e+001 4.611489e+001 1.922951e+001 5.147810e+001 1.237940e+001 1.259630e+001 1.451109e+001 4.333928e+001 1.499899e+001 2.986042e+000 1.448757e-001 5.305110e-001 2.808084e+000 5.427137e-001 4.993775e+000 1.251897e+000 6.542428e-001 2.610198e+000 1.290796e+000 8.409886e-001 9.373670e-001 9.499915e-001 2.194089e-001 3.053857e-002 2.107463e-001 1.695120e-001 1.724628e-001 3.209423e-001 2.470757e-001 1.674212e-001 5.450803e-001 4.852474e-001 1.674865e-001 4.361019e-001 5.740938e-001 1.000000e-002
<GCONST> 8.269385e+001
<MIXTURE> 2 2.675159e-001
<MEAN> 39
 -9.755713e+000 -1.566168e+001 -5.412319e+000 -1.730481e+001 -5.875503e+000 -7.521998e-001 -7.709922e+000 -3.986141e-001 7.860618e+000 -1.158350e+001 -6.141114e+000 -5.160837e+000 7.290805e+001 -5.471200e-001 6.392451e-001 1.468686e+000 7.094389e-001 -2.423647e-001 -1.138420e-001 -7.393590e-001 -1.344234e+000 -9.706098e-001 -9.204877e-001 -4.138418e-001 -3.098506e-001 -5.998136e-001 1.567523e-001 1.073307e-001 -3.211912e-002 2.943072e-002 -3.025402e-001 -2.501768e-001 1.503186e-001 1.231637e-001 -2.063108e-002 -3.107617e-002 5.540957e-002 2.072442e-001 1.124259e-001
<VARIANCE> 39
 1.382418e+000 1.167034e+001 1.521394e+001 1.741636e+001 2.869128e+001 4.980598e+001 3.241817e+001 1.549387e+001 3.078464e+001 4.098242e+001 3.270686e+001 2.668947e+001 8.844426e-001 2.195739e-001 3.716071e-001 3.732316e-001 1.576890e+000 1.722597e+000 1.191306e+000 1.525739e+000 1.178551e+000 1.449229e+000 2.160436e+000 1.600005e+000 1.327867e+000 5.499337e-002 2.989904e-002 5.017380e-002 1.436594e-001 3.023942e-001 3.722157e-001 3.753851e-001 3.729842e-001 2.359217e-001 3.919286e-001 5.948977e-001 3.937594e-001 1.660527e-001 1.182408e-002
<GCONST> 8.191657e+001
<MIXTURE> 3 4.904459e-001
<MEAN> 39
 -9.731006e+000 -2.039478e+001 -1.232734e+001 -1.140127e+001 -1.195885e+000 -1.417859e+001 -1.034934e+001 7.945930e+000 6.297884e-001 -9.372218e+000 -1.081307e+001 -1.502132e-001 7.890181e+001 1.605025e-001 2.346602e-001 -3.480732e-002 -1.831935e-001 1.411978e+000 3.256739e-001 -2.347615e+000 -1.151219e+000 1.933612e+000 1.449213e+000 -1.910416e-001 -1.398130e+000 -6.487114e-001 -2.591346e-002 4.763678e-001 2.469132e-001 -3.999840e-001 -7.861678e-001 3.038177e-001 4.075079e-001 -5.169483e-001 -3.263021e-001 2.058229e-001 1.161426e-001 -2.208510e-001 -1.234070e-001
<VARIANCE> 39
 8.998462e+000 8.811341e+000 1.301262e+001 1.643009e+001 6.613606e+001 4.132556e+001 4.106938e+001 2.634417e+001 4.924953e+001 8.450204e+001 5.745169e+001 4.302341e+001 4.502220e+000 3.027030e-001 9.708893e-001 6.357852e-001 1.036761e+000 2.189806e+000 3.086922e+000 2.418807e+000 3.778242e+000 2.890124e+000 2.130499e+000 2.148782e+000 4.732252e+000 8.583022e-002 4.655482e-002 1.995000e-001 1.368945e-001 1.377427e-001 3.910897e-001 5.344234e-001 2.658282e-001 5.827862e-001 6.205882e-001 6.018909e-001 4.212502e-001 1.109581e+000 1.601187e-002
<GCONST> 1.001698e+002
<MIXTURE> 4 7.006370e-002
<MEAN> 39
 -7.993754e+000 -1.087684e+001 -1.461577e+001 -2.008270e+001 -2.139473e+001 2.303244e-002 -7.640338e+000 8.900786e+000 1.510489e+001 5.379691e+000 -8.141698e+000 -1.418542e+001 8.038332e+001 6.266160e-001 -5.671110e-001 -7.348723e-001 -1.634504e+000 1.561218e+000 2.898215e+000 1.140533e+000 -1.070874e+000 -7.575348e-001 -1.196694e+000 9.469092e-001 6.019571e-002 -4.149536e-001 -3.947804e-001 3.742684e-001 6.070977e-001 3.564479e-001 -5.059197e-001 -8.944600e-001 -6.928656e-001 -8.656257e-001 -1.145313e+000 -8.884957e-001 3.539276e-001 8.491948e-001 -3.532439e-001
<VARIANCE> 39
 2.817117e+000 4.008126e+000 9.411066e+000 3.587038e+001 3.816256e+001 2.258006e+001 1.861593e+001 1.085525e+001 1.284798e+001 2.467993e+001 5.413902e+001 9.233849e+001 8.125748e+000 1.442961e-001 3.408854e-001 1.837044e+000 1.017053e+000 2.966031e+000 6.431119e+000 3.088283e+000 8.243326e-001 2.525240e+000 2.860489e+000 2.865745e+000 4.399629e+000 1.397053e-001 3.554608e-002 7.202998e-002 1.427497e-001 3.727027e-001 6.642033e-001 7.261307e-001 2.223702e-001 2.802992e-001 3.174541e-001 5.500120e-001 3.478360e-001 1.250688e+000 5.935342e-002
<GCONST> 9.459352e+001
<STATE> 9
<NUMMIXES> 4
<MIXTURE> 1 1.608040e-001
<MEAN> 39
 -6.897282e+000 -1.180188e+001 -1.488225e+001 -2.116202e+001 -1.632279e+001 -2.964139e+000 -5.700048e+000 4.542356e+000 1.145938e+001 -1.644845e+000 -3.672294e+000 -1.055517e+001 7.859952e+001 -3.238722e-002 1.493048e-001 1.057592e+000 1.217519e-001 -7.953772e-001 2.606483e-001 -1.106079e+000 -6.902615e-001 -1.410624e+000 -5.510194e-001 -6.003144e-002 9.234903e-001 -1.054787e+000 -1.665547e-001 1.414789e-001 3.833902e-001 4.222663e-001 -2.045253e-002 -2.159674e-001 -4.222594e-001 -1.149516e-001 -7.545993e-002 1.934507e-001 -6.145195e-002 3.978111e-001 -9.441885e-002
<VARIANCE> 39
 1.454828e+000 5.161933e+000 1.595874e+001 1.972892e+001 7.148588e+001 2.444043e+001 5.443242e+001 1.248592e+001 3.325130e+001 3.473627e+001 5.246592e+001 1.361594e+001 5.579206e+000 1.162541e-001 3.713978e-001 1.673756e+000 1.184934e+000 7.157717e-001 2.212478e+000 2.694372e+000 2.110268e+000 2.269192e+000 1.581499e+000 2.083887e+000 3.316908e+000 1.009143e-001 2.569553e-002 7.009989e-002 2.074415e-001 1.552829e-001 4.625759e-001 2.908539e-001 3.687621e-001 4.044630e-001 2.725825e-001 1.450961e-001 6.174741e-001 3.246605e-001 2.285348e-002
<GCONST> 8.715344e+001
<MIXTURE> 2 4.572864e-001
<MEAN> 39
 -1.199502e+001 -1.413609e+001 -1.637399e+000 -1.553210e+001 -1.023066e+001 1.532428e-001 -5.766728e+000 5.784944e-001 7.967049e+000 -1.498831e+001 -8.471524e+000 -7.696022e+000 7.072562e+001 -5.360107e-001 1.749827e-001 7.102966e-001 5.897642e-001 -5.841802e-002 -1.209424e-001 -4.072106e-001 7.026158e-002 -5.010585e-001 -3.956266e-001 -8.739394e-002 2.509251e-001 -4.022592e-001 -1.182301e-003 -1.103380e-001 -1.914928e-001 -1.472431e-001 -1.023757e-002 -2.118435e-002 1.074903e-001 1.365844e-001 1.504652e-001 2.162951e-001 1.732188e-001 1.274565e-001 4.007446e-002
<VARIANCE> 39
 3.564278e+000 5.007381e+000 9.505232e+000 1.051774e+001 1.753199e+001 1.766080e+001 1.042147e+001 1.750957e+001 2.316070e+001 2.141877e+001 1.713695e+001 1.932864e+001 1.836561e+000 1.291244e-001 3.582921e-001 5.567693e-001 5.828633e-001 8.444631e-001 1.269699e+000 1.025270e+000 1.819219e+000 1.528517e+000 1.412895e+000 8.838785e-001 1.036230e+000 3.168762e-002 1.859054e-002 2.610000e-002 7.830051e-002 9.435133e-002 1.277602e-001 2.052528e-001 1.517160e-001 3.635487e-001 2.908271e-001 3.824686e-001 3.455076e-001 2.333758e-001 1.000000e-002
<GCONST> 6.805128e+001
<MIXTURE> 3 2.110553e-001
<MEAN> 39
 -8.787389e+000 -1.658084e+001 -1.522797e+001 -1.409532e+001 -2.090283e+000 -3.959298e+000 -1.226921e+001 -4.306218e+000 -2.710118e+000 -1.673664e+001 -1.247051e+001 -3.386413e+000 7.699306e+001 2.956670e-001 1.443596e+000 1.262266e+000 -9.624978e-001 -1.314705e+000 1.070982e-001 -7.309210e-001 -2.060815e+000 -1.149719e+000 -7.593738e-001 -1.247590e+000 -1.018563e+000 -8.248910e-001 -1.198213e-002 3.872068e-001 5.230269e-001 -1.194103e-001 -8.193902e-001 -3.342243e-001 6.181541e-001 7.281027e-001 -3.903713e-002 -3.267857e-002 -4.876541e-002 -3.097220e-003 -2.338052e-002
<VARIANCE> 39
 5.273519e+000 1.373246e+001 1.144561e+001 1.432205e+001 3.097486e+001 2.487335e+001 2.998494e+001 2.862064e+001 3.906255e+001 4.345383e+001 4.970276e+001 4.025129e+001 1.967564e+000 2.114335e-001 8.411468e-001 1.298457e+000 8.127436e-001 2.492225e+000 2.755611e+000 3.920697e+000 5.956370e+000 4.629804e+000 3.004019e+000 3.165118e+000 4.090780e+000 1.136462e-001 3.313919e-002 3.347488e-001 1.280761e-001 4.513206e-001 7.548501e-001 4.003085e-001 7.072071e-001 6.455823e-001 1.195119e+000 4.398372e-001 6.933190e-001 8.054494e-001 1.490550e-002
<GCONST> 1.018344e+002
<MIXTURE> 4 1.708543e-001
<MEAN> 39
 -1.033713e+001 -1.478004e+001 -1.208429e+001 -1.684521e+001 3.030038e+000 -1.212284e+001 -2.094951e+001 -1.632673e+000 7.589895e-001 5.473075e+000 -6.339289e+000 -6.651316e+000 7.640891e+001 3.403290e-001 1.204666e+000 2.358111e-001 -4.019733e-001 -2.320903e+000 7.133185e-002 4.076733e-001 -1.396317e+000 1.574261e-001 -8.255142e-001 3.092338e-001 8.241878e-001 -7.212337e-001 -1.034490e-001 1.931569e-003 2.038578e-001 1.487346e-001 -2.462904e-001 -2.864376e-001 3.392864e-001 1.620848e-001 -5.618545e-002 -6.495860e-001 -1.256857e-001 3.591610e-001 2.574124e-002
<VARIANCE> 39
 1.245877e+000 1.320273e+001 3.797772e+000 2.059518e+001 6.162103e+001 2.021251e+001 1.938535e+001 2.643511e+001 3.194774e+001 2.680540e+001 5.055896e+001 3.365978e+001 2.291195e+000 1.614737e-001 2.932743e-001 8.209949e-001 1.192457e+000 2.467380e+000 1.707925e+000 2.381207e+000 2.641121e+000 4.315880e+000 2.993895e+000 3.880620e+000 5.059934e+000 6.123243e-002 2.336267e-002 6.230941e-002 6.815884e-002 1.728733e-001 3.885380e-001 2.155710e-001 4.486005e-001 4.110075e-001 8.284157e-001 5.475172e-001 7.147748e-001 1.276052e+000 1.000000e-002
<GCONST> 8.954206e+001
<STATE> 10
<NUMMIXES> 4
<MIXTURE> 1 1.067416e-001
<MEAN> 39
 -6.922939e+000 -1.088033e+001 -1.404774e+001 -2.055696e+001 -9.092540e+000 -6.055175e+000 -6.236734e+000 -5.862296e-002 1.402649e+001 5.174964e+000 -3.127243e+000 -4.085649e+000 7.682558e+001 -1.909299e-001 1.211226e+000 1.295321e+000 4.212610e-001 -5.600990e-001 1.061959e+000 -1.569869e+000 4.019377e-001 -1.212353e+000 -8.853467e-002 1.217485e+000 1.694944e+000 -1.023502e+000 -7.649363e-002 1.209652e-001 4.452328e-001 5.668661e-001 1.238571e-001 1.192896e-001 5.866142e-001 3.218476e-001 -7.099267e-002 -7.264059e-001 -3.345549e-001 -1.134444e-001 1.031484e-003
<VARIANCE> 39
 9.179749e-001 6.890958e+000 7.317991e+000 5.079371e+000 1.176898e+001 2.057963e+001 3.129845e+001 4.246449e+000 5.716333e+000 8.494428e+000 4.614969e+001 1.821287e+001 5.102114e+000 5.818870e-002 3.682194e-001 1.072495e+000 9.385396e-001 3.644163e-001 3.396968e-001 1.179696e+000 9.686668e-001 8.068560e-001 2.431360e+000 3.464849e+000 1.986395e+000 5.697864e-002 2.747275e-002 6.850457e-002 1.152162e-001 1.136438e-001 1.937753e-001 1.784633e-001 1.605457e-001 2.615096e-001 1.387893e-001 2.540773e-001 5.536549e-001 7.562370e-001 1.261023e-002
<GCONST> 6.797389e+001
<MIXTURE> 2 4.831461e-001
<MEAN> 39
 -9.309751e+000 -1.131499e+001 -6.030476e+000 -1.597886e+001 -9.897054e+000 -4.531045e+000 -8.912939e+000 -2.355643e+000 8.433549e-001 -1.735127e+001 -1.184648e+001 -6.346642e+000 7.245008e+001 -2.455324e-001 5.714543e-001 1.268019e+000 1.974529e-001 -6.556444e-001 -3.839916e-001 -6.297343e-001 -2.809518e-001 3.971446e-001 5.458137e-001 6.155184e-001 2.850685e-001 -6.095207e-001 -9.540720e-002 -1.081365e-001 -1.830933e-001 1.920663e-001 1.877141e-001 1.466430e-001 -1.076405e-001 -4.893887e-002 1.025167e-001 2.213141e-001 3.943307e-001 2.930635e-001 5.959980e-002
<VARIANCE> 39
 7.629813e+000 9.926546e+000 2.403175e+001 1.079108e+001 2.544863e+001 2.230482e+001 1.773121e+001 2.031569e+001 3.173956e+001 2.939012e+001 5.573952e+001 2.333495e+001 4.649549e+000 1.533881e-001 3.265861e-001 1.049768e+000 1.120724e+000 1.549159e+000 2.053198e+000 1.502825e+000 1.840691e+000 2.036053e+000 1.667008e+000 2.458308e+000 1.505946e+000 1.003159e-001 3.355882e-002 4.992019e-002 1.023210e-001 1.248830e-001 3.031388e-001 2.736308e-001 4.457584e-001 4.616753e-001 4.360049e-001 3.255275e-001 5.421093e-001 3.147630e-001 1.000000e-002
<GCONST> 8.576321e+001
<MIXTURE> 3 2.808989e-001
<MEAN> 39
 -1.009252e+001 -9.169550e+000 -6.291325e+000 -1.284783e+001 -8.952514e+000 -1.434128e+001 -1.752023e+001 -8.449534e+000 2.637164e+000 -4.036205e+000 -1.055320e+001 -2.193635e+000 7.248779e+001 -1.557536e-001 1.118137e+000 1.228904e+000 3.835239e-001 -9.154578e-001 -3.207832e-001 -6.226019e-001 -1.055190e+000 1.418791e-001 -1.210563e+000 6.265286e-001 5.993224e-001 -7.169843e-001 -2.583171e-002 -1.798486e-001 -7.899506e-002 -8.487052e-003 1.019656e-001 1.543793e-001 1.324758e-001 3.319276e-001 -1.589979e-001 -1.530028e-001 1.395355e-002 -1.652419e-001 5.947378e-002
<VARIANCE> 39
 5.343326e-001 1.043526e+001 9.362059e+000 2.349792e+001 1.612110e+001 1.028823e+001 2.152724e+001 2.455785e+001 1.764877e+001 2.374878e+001 6.713397e+001 1.517561e+001 2.584479e+000 6.259955e-002 5.038171e-001 5.873705e-001 6.677376e-001 8.783414e-001 8.552930e-001 9.718181e-001 2.148111e+000 8.363490e-001 1.423289e+000 1.700495e+000 2.122537e+000 5.095397e-002 2.405806e-002 7.336137e-002 1.336652e-001 1.270016e-001 1.415904e-001 1.565867e-001 2.959020e-001 2.926379e-001 1.379150e-001 1.389619e-001 3.276764e-001 3.288085e-001 1.000000e-002
<GCONST> 7.116427e+001
<MIXTURE> 4 1.292135e-001
<MEAN> 39
 -7.849340e+000 -9.549190e+000 -8.473446e+000 -1.635504e+001 -2.166193e+001 1.449485e+000 -1.170532e+001 3.878782e+000 7.630892e+000 -1.440082e-001 -2.919892e+000 -3.377933e+000 7.527418e+001 -1.506988e-001 6.829739e-001 2.301324e+000 1.219659e+000 6.236557e-001 -1.544917e-001 -1.946674e-001 -9.055573e-001 -6.036851e-001 -8.531089e-001 4.783713e-002 6.746074e-001 -9.672057e-001 1.492487e-002 1.597731e-001 5.968373e-002 1.129510e-001 3.848576e-001 -1.990377e-001 1.342744e-001 -3.731293e-002 3.861165e-002 -4.247072e-001 -2.590514e-001 -4.463352e-001 9.095797e-002
<VARIANCE> 39
 4.307943e+000 2.373734e+000 2.635195e+001 1.681218e+001 2.670926e+001 1.712277e+001 2.423490e+001 1.338642e+001 2.007377e+001 3.878226e+001 1.918710e+001 5.797173e+000 4.768384e+000 2.509682e-001 2.790520e-001 8.516860e-001 6.386521e-001 8.873581e-001 1.362376e+000 2.472009e+000 1.145733e+000 1.768966e+000 1.762432e+000 2.791595e+000 1.392201e+000 8.424998e-002 4.654276e-002 1.192819e-002 1.316828e-001 1.308942e-001 3.612245e-002 1.454979e-001 4.406173e-001 2.244113e-001 3.763947e-001 2.182000e-001 4.333770e-001 2.073657e-001 1.000000e-002
<GCONST> 7.428461e+001
<STATE> 11
<NUMMIXES> 4
<MIXTURE> 1 1.871921e-001
<MEAN> 39
 -1.603671e+001 -1.617964e+001 -6.527005e-001 -1.523793e+001 -1.138843e+001 -1.863476e+000 -7.917251e+000 -1.840091e-001 8.394548e+000 -1.251090e+001 -1.544984e+000 -1.574582e+000 6.847684e+001 -3.036916e-001 -2.717327e-001 -6.874414e-001 -6.965102e-002 -2.251642e-001 1.735580e-002 2.406009e-001 -1.625748e-001 5.268483e-001 1.329739e+000 1.462781e+000 1.061831e+000 -5.424829e-002 1.324182e-001 5.558160e-002 1.105755e-002 1.291340e-001 1.132770e-001 1.679741e-001 8.422162e-002 5.071954e-002 -1.903933e-001 -2.693754e-001 -5.375406e-001 -2.736656e-001 8.313061e-002
<VARIANCE> 39
 1.981223e+000 5.482287e+000 5.375413e+000 2.433094e+000 7.093592e+000 1.091002e+001 3.787060e+000 5.051882e+000 1.663979e+001 1.604641e+001 1.150867e+001 1.980548e+001 5.095918e-001 1.717278e-001 1.953757e-001 2.015765e-001 5.222824e-001 4.193679e-001 4.473204e-001 1.059976e+000 2.544695e+000 1.213753e+000 7.238831e-001 1.584387e+000 8.946294e-001 6.150343e-002 1.000000e-002 1.601525e-002 8.634183e-002 3.937910e-002 9.642669e-002 1.054107e-001 1.403200e-001 2.154008e-001 2.372400e-001 2.614152e-001 1.944496e-001 1.932327e-001 1.000000e-002
<GCONST> 5.220137e+001
<MIXTURE> 2 2.167488e-001
<MEAN> 39
 -9.334348e+000 -6.353540e+000 -2.558578e+000 -1.295909e+001 -1.492393e+001 -4.693516e+000 -1.301071e+001 -2.043513e+000 6.275455e+000 -6.485099e+000 -3.680359e+000 -2.264699e+000 7.117268e+001 -6.724102e-001 5.493115e-001 1.196733e+000 1.337502e+000 3.730475e-001 5.748905e-001 1.264059e-001 -1.189665e-001 -9.868947e-001 -1.526332e+000 -1.752991e-001 4.620392e-001 -7.080168e-001 -3.153808e-001 -2.823903e-001 -4.996623e-001 4.837290e-002 5.347794e-001 6.548288e-001 3.701621e-001 3.613820e-001 -3.023262e-002 1.087643e-001 -2.414349e-001 3.236619e-002 2.349771e-002
<VARIANCE> 39
 3.172395e+000 4.915424e+000 1.136338e+001 1.175762e+001 1.730106e+001 4.428766e+001 3.552782e+001 2.675514e+001 2.110774e+001 2.077694e+001 1.274933e+001 1.053163e+001 4.804214e+000 2.736062e-001 5.573984e-001 1.194295e+000 1.342332e+000 1.969131e+000 1.232911e+000 1.394405e+000 1.458355e+000 9.154329e-001 2.582422e+000 1.519580e+000 2.431492e+000 1.137488e-001 4.011545e-002 8.296616e-002 8.827507e-002 1.371523e-001 2.144473e-001 2.077286e-001 1.762222e-001 3.317409e-001 1.666306e-001 2.189554e-001 2.074469e-001 3.283238e-001 1.026638e-002
<GCONST> 7.890577e+001
<MIXTURE> 3 3.546798e-001
<MEAN> 39
 -1.166445e+001 -1.205898e+001 -4.524359e-001 -1.612843e+001 -8.798226e+000 -3.249477e+000 -1.019421e+001 -4.702494e+000 3.036993e+000 -1.648557e+001 -4.037740e+000 -2.922982e+000 7.096728e+001 -5.461702e-001 -9.787849e-002 4.892638e-002 -3.187009e-002 -1.561446e-001 6.763793e-001 3.630343e-001 3.142440e-001 2.010037e-001 1.312716e-001 4.974743e-001 1.790886e-001 -2.371075e-001 -9.157124e-002 -1.838974e-001 -1.874683e-001 -2.231590e-002 4.504053e-002 9.134631e-002 1.379974e-001 1.579524e-001 1.691090e-001 2.421516e-001 2.383210e-002 4.674397e-002 -4.527162e-003
<VARIANCE> 39
 1.874844e+000 3.180242e+000 6.250278e+000 6.600685e+000 4.208197e+000 1.672133e+001 1.220243e+001 1.430209e+001 1.028835e+001 1.524384e+001 1.464016e+001 1.019530e+001 5.041608e-001 2.032545e-001 3.657980e-001 2.515865e-001 6.301801e-001 4.144353e-001 7.342346e-001 1.357814e+000 7.236372e-001 4.900695e-001 1.352815e+000 1.427394e+000 9.002552e-001 4.859214e-002 2.138294e-002 5.348077e-002 6.537724e-002 1.241283e-001 5.229567e-002 1.627932e-001 2.418608e-001 1.902019e-001 1.443814e-001 1.562095e-001 2.208851e-001 1.289662e-001 1.000000e-002
<GCONST> 5.575355e+001
<MIXTURE> 4 2.413793e-001
<MEAN> 39
 -8.402063e+000 -9.276691e+000 -2.308602e+000 -1.224160e+001 -1.064797e+001 -8.829074e+000 -1.576889e+001 -8.266875e+000 -2.509597e+000 -1.865682e+001 -1.102577e+001 -6.594347e+000 7.253398e+001 -1.938197e-001 5.658647e-001 9.925237e-001 2.909949e-001 -2.334058e-001 -1.041603e-001 -4.757522e-001 -9.460294e-001 -3.897261e-001 -3.568149e-001 6.657251e-001 4.161239e-001 -3.574025e-001 -1.334096e-001 -1.652919e-001 -1.760116e-001 -3.712812e-002 1.379004e-001 2.240549e-001 3.241022e-001 2.095128e-001 -2.521705e-001 -2.033389e-001 -3.067877e-001 -5.987098e-003 1.760658e-002
<VARIANCE> 39
 4.539179e+000 1.223925e+001 1.079833e+001 8.315073e+000 5.857561e+000 1.300259e+001 8.881894e+000 1.179417e+001 1.687923e+001 2.213372e+001 1.900065e+001 2.179196e+001 1.712731e+000 1.373213e-001 1.989873e-001 5.376294e-001 8.218827e-001 2.791278e-001 5.771721e-001 2.017492e+000 1.065326e+000 7.327369e-001 1.584224e+000 1.567256e+000 9.166408e-001 4.039356e-002 2.706253e-002 3.372679e-002 1.267859e-001 1.295354e-001 6.738770e-002 1.103643e-001 1.623428e-001 2.017987e-001 2.580931e-001 3.810650e-001 1.946690e-001 2.407779e-001 1.000000e-002
<GCONST> 6.407629e+001
<STATE> 12
<NUMMIXES> 4
<MIXTURE> 1 5.600000e-001
<MEAN> 39
 -1.640112e+001 -1.493929e+001 -2.248676e+000 -1.374132e+001 -9.884405e+000 2.623408e-002 -6.419350e+000 -1.603991e+000 5.583730e+000 -1.337300e+001 -4.315604e+000 -2.530924e+000 6.925449e+001 -2.402573e-001 4.127107e-002 -3.520835e-001 1.419319e-001 -3.294777e-001 4.164641e-002 -5.533991e-002 2.965043e-001 -6.926785e-002 1.699226e-002 -4.612134e-001 1.180263e-001 4.122167e-002 1.646238e-001 1.876199e-001 5.237429e-002 -8.028267e-002 -1.546195e-001 -1.924292e-001 -1.673047e-001 -4.459750e-002 -1.023991e-001 -1.395295e-001 -1.017842e-002 -4.511212e-002 8.393871e-002
<VARIANCE> 39
 1.919546e+000 6.636537e+000 6.007983e+000 9.552808e+000 1.081252e+001 2.075297e+001 1.693207e+001 1.319431e+001 2.571329e+001 2.725096e+001 1.749412e+001 1.509981e+001 9.818327e-001 3.368112e-001 3.916138e-001 4.771869e-001 7.319916e-001 1.114961e+000 1.140595e+000 1.197979e+000 1.460040e+000 1.672159e+000 1.908880e+000 1.013316e+000 1.103773e+000 6.686807e-002 2.819518e-002 4.941537e-002 6.939140e-002 1.300037e-001 1.618487e-001 1.954665e-001 2.274648e-001 2.290312e-001 3.385064e-001 2.703567e-001 2.421795e-001 2.271313e-001 1.000000e-002
<GCONST> 6.990491e+001
<MIXTURE> 2 2.000000e-001
<MEAN> 39
 -1.136795e+001 -5.491996e+000 -5.880055e-001 -8.895372e+000 -1.191352e+001 -8.284405e-001 -1.032646e+001 9.822944e-001 5.246634e+000 -8.196229e+000 -5.313266e+000 -9.312493e-001 7.014160e+001 -1.547682e+000 -7.671198e-002 -3.409632e-001 1.613454e+000 1.702218e+000 2.286401e+000 1.310434e+000 1.256070e+000 -1.872226e-001 -2.332141e-001 -3.079018e-001 5.709173e-001 -6.553908e-001 -3.104885e-001 -2.483320e-001 -7.214944e-001 -2.327313e-001 -1.419468e-001 2.499699e-001 1.857369e-001 2.024354e-001 1.996044e-001 3.981393e-001 3.437045e-002 9.992533e-002 5.213202e-002
<VARIANCE> 39
 5.373427e+000 7.874453e+000 1.384229e+001 1.785625e+001 3.427546e+001 4.101736e+001 3.744903e+001 3.079990e+001 1.838576e+001 1.867192e+001 1.841460e+001 1.370040e+001 3.097656e+000 5.098898e-001 6.344263e-001 1.580437e+000 1.068326e+000 7.090842e-001 1.884340e+000 1.177127e+000 1.927680e+000 1.602438e+000 1.760070e+000 2.099626e+000 2.418587e+000 6.636648e-002 7.072569e-002 1.066090e-001 1.525896e-001 2.564989e-001 3.898038e-001 3.743593e-001 2.462365e-001 3.472633e-001 2.213764e-001 3.887261e-001 4.312344e-001 3.518338e-001 1.300866e-002
<GCONST> 8.699221e+001
<MIXTURE> 3 1.960000e-001
<MEAN> 39
 -1.064481e+001 -7.024909e+000 1.466733e-001 -1.122066e+001 -1.091151e+001 -8.140577e+000 -1.631229e+001 -9.572294e+000 -4.534366e+000 -1.826563e+001 -1.142032e+001 -5.097848e+000 7.053151e+001 -1.219868e+000 -3.957424e-001 2.550142e-001 5.261113e-001 6.180987e-001 1.417652e+000 9.848776e-001 8.600477e-001 -1.083388e-001 -1.108866e-001 2.145293e-001 1.468762e-001 -5.869406e-001 -3.295888e-001 -4.203614e-001 -5.511740e-001 -2.009911e-001 2.021973e-001 5.180208e-001 7.976172e-001 9.214633e-001 6.016830e-001 3.371107e-001 1.279280e-001 1.382482e-001 -6.201471e-002
<VARIANCE> 39
 3.869779e+000 1.054957e+001 7.890797e+000 3.229038e+000 1.067756e+001 2.377812e+001 1.527780e+001 1.383406e+001 8.767038e+000 2.153922e+001 3.147335e+001 1.890939e+001 1.786450e+000 3.093847e-001 4.121521e-001 7.529940e-001 5.042433e-001 8.544802e-001 1.266318e+000 2.262085e+000 2.374695e+000 2.588847e+000 1.660190e+000 1.036127e+000 1.238275e+000 6.267613e-002 2.978785e-002 4.302033e-002 1.104115e-001 1.239875e-001 1.372554e-001 2.172349e-001 3.006455e-001 2.288486e-001 2.320224e-001 1.888271e-001 1.737784e-001 2.912716e-001 1.000000e-002
<GCONST> 7.153783e+001
<MIXTURE> 4 4.400000e-002
<MEAN> 39
 -1.116998e+001 -9.807204e+000 -3.806116e+000 -1.908815e+001 -1.860810e+001 -8.795164e+000 -6.859663e+000 -2.140161e-001 8.689550e-001 -1.737037e+001 -4.711286e+000 2.225347e-001 6.988780e+001 1.564368e+000 1.137682e+000 3.242303e-001 -1.432705e+000 -1.127583e+000 -1.691159e+000 -7.310835e-002 -4.582815e-001 -3.079536e-002 -4.322492e-001 5.734842e-001 -7.903882e-001 7.244198e-001 -7.284272e-003 -1.611284e-001 -1.618050e-002 -2.532848e-002 2.098946e-001 3.005519e-001 5.247608e-002 -7.302624e-002 9.527186e-002 -1.738028e-001 -2.880104e-001 -4.436350e-001 -4.453039e-003
<VARIANCE> 39
 4.535306e+000 5.871147e+000 7.351155e+000 9.059081e+000 3.935998e+000 1.828889e+001 2.206085e+001 1.001583e+001 1.575284e+001 6.195474e+000 1.349910e+001 4.593709e+000 1.528013e+000 8.192193e-002 3.097466e-001 6.121866e-001 3.653709e-001 5.569685e-001 5.463519e-001 2.633217e+000 1.074376e+000 1.191535e+000 8.113506e-001 1.709240e+000 1.207577e+000 1.680686e-002 1.152367e-001 6.659941e-002 9.322664e-002 2.397711e-001 1.257930e-001 1.573296e-001 1.837913e-001 3.186726e-001 7.182643e-002 6.544045e-002 2.177533e-001 1.308949e-001 1.570112e-002
<GCONST> 6.074529e+001
<STATE> 13
<NUMMIXES> 4
<MIXTURE> 1 5.468750e-002
<MEAN> 39
 -1.037516e+001 -1.246564e+001 -4.595273e+000 -1.436673e+001 -1.333981e+001 -5.099497e+000 -1.266932e+001 -6.220388e+000 7.488178e+000 -9.766488e+000 2.109148e+000 4.427592e+000 7.265897e+001 2.234801e+000 1.380979e+000 5.403551e-001 -1.683731e+000 -2.090024e+000 -2.244755e+000 -2.004351e+000 -2.085447e+000 3.038982e-001 1.779127e+000 1.830491e+000 2.047435e+000 7.921994e-001 -2.709635e-001 -1.369255e-001 1.667018e-001 -1.138691e-001 -1.319506e-003 5.519812e-001 5.477797e-001 4.390399e-001 6.082724e-001 2.907717e-001 -2.975255e-001 -3.253946e-001 -1.631861e-001
<VARIANCE> 39
 5.285503e+000 1.761433e+001 8.857730e-001 6.304642e+000 6.156925e+000 3.642263e-001 8.002587e+000 5.711945e+000 5.510575e+000 1.246121e+001 2.329705e+000 4.017770e+000 8.212942e-001 4.937641e-001 2.941127e-001 3.896392e-001 7.520557e-001 1.200405e-001 1.890530e+000 6.757167e-001 1.678233e+000 1.058211e+000 1.675479e+000 1.114314e+000 2.607055e-001 2.529270e-002 3.512267e-002 2.787211e-002 7.732137e-002 3.508164e-002 9.571522e-002 6.720535e-002 4.752607e-002 4.160444e-001 1.000000e-002 1.698891e-001 3.798594e-002 1.261292e-001 1.000000e-002
<GCONST> 4.184207e+001
<MIXTURE> 2 2.890625e-001
<MEAN> 39
 -1.511737e+001 -9.296919e+000 -2.439933e+000 -1.110228e+001 -8.499075e+000 -2.154916e+000 -1.045274e+001 -3.036986e+000 -2.533156e+000 -1.644404e+001 -9.990664e+000 -2.974259e+000 6.812191e+001 -1.822560e+000 -1.419472e+000 -1.486282e+000 -3.171124e-001 7.756540e-001 2.015182e+000 2.087690e+000 2.399939e+000 9.834271e-001 9.800777e-001 2.618689e-001 5.379133e-001 -6.756767e-001 1.051082e-001 7.128992e-002 -3.560822e-001 -3.674723e-001 -4.775295e-001 -4.428178e-001 -2.699361e-001 7.001331e-002 2.893284e-001 6.183644e-001 1.888097e-001 2.998530e-001 1.849567e-001
<VARIANCE> 39
 4.191527e+000 1.037453e+001 7.842674e+000 7.235108e+000 1.412669e+001 1.651748e+001 1.161129e+001 1.912052e+001 1.755538e+001 3.575299e+001 2.468761e+001 1.737975e+001 3.799902e+000 4.781113e-001 3.128311e-001 3.926193e-001 6.008625e-001 1.082864e+000 1.510421e+000 1.049634e+000 1.752435e+000 2.174982e+000 1.718917e+000 1.729695e+000 1.742260e+000 1.073158e-001 6.384332e-002 9.100435e-002 1.307104e-001 1.036687e-001 1.629603e-001 2.345387e-001 2.329949e-001 2.979341e-001 2.906222e-001 3.668662e-001 3.835063e-001 3.473886e-001 1.406869e-002
<GCONST> 7.822945e+001
<MIXTURE> 3 4.921875e-001
<MEAN> 39
 -1.826779e+001 -8.451546e+000 -6.649338e+000 -7.634885e+000 -1.165906e+001 3.571576e+000 -7.328348e+000 3.048887e+000 6.983254e+000 -9.158005e+000 -5.323463e+000 -5.806258e-001 6.963393e+001 -2.047839e-001 2.418834e-001 -6.948881e-001 -3.818597e-001 -3.821887e-001 -1.884871e-001 1.258779e-001 2.914622e-001 2.134370e-001 2.046195e-001 1.373612e-001 4.478020e-001 1.277772e-001 5.619996e-001 -6.183357e-003 2.316668e-001 -6.024521e-001 -3.351336e-001 -7.914271e-001 -5.745649e-001 -5.339941e-001 -1.349502e-001 1.122942e-001 1.921377e-001 1.997787e-002 1.255218e-001
<VARIANCE> 39
 1.633972e+001 4.199257e+001 4.828614e+001 3.650989e+001 3.619373e+001 1.937528e+001 2.913367e+001 1.901130e+001 2.103837e+001 2.126870e+001 1.987429e+001 1.815678e+001 1.979453e+000 3.625856e+000 1.092253e+000 2.436704e+000 2.892307e+000 1.845082e+000 4.901933e+000 3.759800e+000 2.171391e+000 2.002364e+000 1.889172e+000 1.894434e+000 1.328848e+000 3.234371e-001 2.780814e-001 1.504182e-001 3.667826e-001 3.247727e-001 5.594005e-001 3.801295e-001 7.379597e-001 1.994869e-001 3.230130e-001 3.119597e-001 4.639589e-001 2.885787e-001 1.442817e-002
<GCONST> 1.026735e+002
<MIXTURE> 4 1.640625e-001
<MEAN> 39
 -7.824833e+000 -8.972857e+000 -1.440012e+000 -2.110254e+001 -1.966492e+001 -1.236458e+001 -5.620065e+000 -6.950978e-001 4.002687e+000 -2.070969e+001 -7.666375e+000 -4.654037e+000 7.185459e+001 3.801512e-001 -1.128819e-002 -3.433651e-002 -3.732483e-001 -3.656518e-001 3.272592e-001 3.463714e-001 5.128888e-001 3.800020e-001 -8.152152e-002 -4.172212e-001 -2.807423e-001 1.861399e-001 -1.482063e-001 -1.302337e-001 -9.382664e-002 3.725830e-002 -8.724855e-003 3.014412e-001 1.094643e-001 9.103819e-002 5.502822e-002 1.532199e-001 4.443407e-002 2.172624e-001 -4.135585e-002
<VARIANCE> 39
 1.420189e+000 3.125982e+000 6.444106e+000 5.737554e+000 7.085157e+000 1.036759e+001 7.615544e+000 9.557293e+000 1.606724e+001 1.189973e+001 1.327656e+001 3.599206e+000 4.110171e-001 1.958339e-001 3.711340e-001 4.185773e-001 7.672622e-001 4.061354e-001 7.347338e-001 7.031869e-001 8.795707e-001 8.708078e-001 1.421965e+000 1.247748e+000 9.417830e-001 3.993928e-002 2.826070e-002 4.273588e-002 1.125371e-001 1.128582e-001 1.053918e-001 1.319748e-001 1.837853e-001 1.788037e-001 2.057424e-001 2.885498e-001 3.224279e-001 1.748374e-001 1.000000e-002
<GCONST> 5.621967e+001
<STATE> 14
<NUMMIXES> 4
<MIXTURE> 1 5.882353e-002
<MEAN> 39
 -7.317310e+000 -1.067516e+001 -1.843874e+000 -1.749874e+001 -1.617353e+001 -5.844639e+000 -1.263593e+001 -9.177808e+000 1.040793e+001 -6.594326e+000 5.422398e+000 8.637321e+000 7.365155e+001 6.882721e-001 5.814099e-001 3.863185e-001 -9.390740e-001 -1.087216e+000 -7.540050e-002 8.861711e-001 9.202548e-001 1.310369e+000 -3.264899e-001 -3.987150e-001 -3.714717e-001 1.941246e-001 -3.074475e-001 -4.154943e-001 -3.290154e-001 -1.531634e-001 1.254622e-001 4.074151e-001 7.416604e-001 1.179369e+000 4.235460e-002 -9.134874e-001 -8.596907e-001 -6.834920e-001 -1.322766e-001
<VARIANCE> 39
 1.276306e-001 6.572440e-002 9.158766e-001 5.172766e-001 7.902118e-001 1.123241e+000 1.096213e+000 1.132370e+000 1.825490e+000 1.348140e+000 2.537396e+000 1.744623e+000 4.189150e-002 2.140700e-002 2.099717e-001 2.453819e-001 6.021977e-002 1.851645e-002 1.168288e-001 1.021435e+000 2.568861e+000 3.384088e-002 1.915102e+000 1.098884e+000 1.125282e+000 1.170648e-002 1.000000e-002 1.000000e-002 3.682295e-002 4.087680e-002 3.249438e-002 2.106767e-002 1.126098e-001 1.005733e-001 1.054135e-001 1.603586e-002 7.949413e-002 1.155919e-001 1.000000e-002
<GCONST> 5.449114e-001
<MIXTURE> 2 7.647059e-001
<MEAN> 39
 -1.825146e+001 -1.150229e+001 -5.546209e+000 -1.175326e+001 -9.978145e+000 2.544517e+000 -6.609213e+000 3.301331e+000 3.581667e+000 -1.031669e+001 -7.237924e+000 1.507448e-001 6.820414e+001 -5.008750e-001 1.402951e-001 -7.815830e-001 -3.845398e-001 -9.569506e-001 -8.521833e-002 -5.257649e-001 2.893144e-001 -4.117712e-001 6.776721e-001 3.371390e-001 7.537486e-001 2.775251e-002 4.745499e-001 4.701525e-001 2.887664e-001 9.766968e-003 -3.018664e-001 -5.525396e-001 -6.064155e-001 -5.037428e-001 -2.975255e-001 6.061003e-002 2.113084e-001 8.378037e-002 2.148478e-001
<VARIANCE> 39
 4.068725e+000 1.010124e+001 8.390944e+000 1.577894e+001 1.755412e+001 2.678288e+001 1.095546e+001 2.496571e+001 2.177497e+001 2.076482e+001 1.704647e+001 1.858195e+001 6.185123e+000 1.253272e+000 6.174864e-001 1.565756e+000 9.979879e-001 9.485536e-001 1.173290e+000 1.897182e+000 2.069604e+000 2.334653e+000 3.000145e+000 2.537528e+000 1.905801e+000 9.889356e-002 1.265407e-001 9.156135e-002 1.850015e-001 2.472951e-001 2.212532e-001 2.840936e-001 2.419934e-001 3.068792e-001 2.463011e-001 3.058416e-001 4.508227e-001 3.288164e-001 1.484632e-002
<GCONST> 8.699698e+001
<MIXTURE> 3 1.111111e-001
<MEAN> 39
 -8.778436e+000 -1.029015e+001 -3.366205e+000 -2.384382e+001 -2.084299e+001 -7.301090e+000 -6.019255e+000 -3.360246e-001 3.060335e+000 -1.771468e+001 -4.937552e+000 -4.618804e+000 7.151088e+001 8.503386e-001 4.187980e-001 -5.442010e-001 -1.161220e+000 -1.170492e+000 -3.242785e-001 -2.284920e-001 1.070851e-001 1.114618e+000 1.180412e+000 1.384010e+000 9.459683e-001 4.790667e-001 1.453259e-001 1.016542e-001 -2.748335e-002 4.272148e-003 -7.404731e-002 -1.733806e-001 -9.901032e-002 5.332157e-002 7.646287e-001 7.461607e-001 6.040319e-001 4.043952e-001 5.334697e-002
<VARIANCE> 39
 9.568598e+000 7.722892e+000 1.222988e+001 1.377046e+001 2.042106e+001 7.254086e+000 2.380176e+001 1.459613e+001 1.165718e+001 2.390558e+001 3.835243e+001 1.788527e+001 2.898706e+000 2.061320e-001 3.185995e-001 5.323741e-001 4.121285e-001 6.977451e-001 2.025920e+000 1.293041e+000 1.625548e+000 3.320183e+000 1.696835e+000 3.353046e+000 1.169546e+000 3.491708e-002 2.097732e-002 4.153171e-002 8.181620e-002 1.381460e-001 1.018038e-001 1.328229e-001 2.313781e-001 3.693589e-001 3.503074e-001 2.587255e-001 5.847068e-001 1.910358e-001 1.000000e-002
<GCONST> 7.428009e+001
<MIXTURE> 4 6.535948e-002
<MEAN> 39
 -1.054569e+001 -1.163993e+000 -1.081492e+001 -1.679994e+001 -1.899764e+001 -1.395491e+001 -2.419518e+001 -1.056781e+000 1.402904e+001 7.133314e+000 -3.747972e+000 -2.244202e+000 7.311546e+001 2.112498e+000 -9.299111e-001 2.702247e-002 -2.761296e+000 -5.815189e-002 -1.413951e+000 -2.100952e+000 9.579445e-001 -9.641659e-002 2.787529e+000 4.470132e-001 -4.183557e-001 6.202974e-001 -8.436894e-001 -1.725727e-001 -5.988615e-001 1.026904e+000 4.683516e-001 1.490829e+000 1.145436e+000 4.491096e-001 -5.405693e-001 -8.697207e-001 2.127759e-001 3.197717e-001 -1.835766e-001
<VARIANCE> 39
 5.760028e+000 4.636889e+000 4.698859e+000 1.089492e+001 1.464452e+001 1.654818e+001 1.583359e+001 2.564071e+001 7.230834e+000 2.611508e+001 3.472416e+000 1.727848e+001 5.609553e-001 2.762151e+000 2.056500e-001 1.210536e+000 4.150832e+000 1.646601e+000 4.489270e+000 7.797030e+000 2.591842e+000 3.298714e+000 2.598696e+000 1.706939e+000 2.241693e+000 2.247748e-001 1.862671e-001 3.729291e-002 1.514920e-001 4.009374e-001 7.392456e-002 4.048966e-001 7.131923e-001 4.478424e-001 1.167440e-001 2.417845e-001 1.364246e-001 5.125872e-001 1.857952e-002
<GCONST> 8.457037e+001
<STATE> 15
<NUMMIXES> 4
<MIXTURE> 1 6.565657e-002
<MEAN> 39
 -8.124668e+000 -4.316354e+000 -1.430291e+001 -1.934931e+001 -1.259275e+001 -5.282015e+000 -2.323144e+001 3.990479e+000 6.655643e+000 9.569204e+000 -1.167368e+000 -3.478175e-002 7.407465e+001 1.635382e-001 -8.567180e-001 -2.784730e-001 -2.775879e-001 3.231103e-001 1.389590e+000 7.304912e-001 1.747910e+000 -8.841513e-001 -1.026669e-001 -8.988741e-001 3.383728e-001 9.416715e-002 -1.067315e-001 1.065587e-001 3.096738e-002 1.720807e-001 -1.546030e-001 -2.135820e-001 2.381999e-002 -1.411130e-002 2.070804e-001 -1.820378e-001 -4.740360e-001 -1.029420e-001 -2.126008e-002
<VARIANCE> 39
 1.064047e+000 5.566828e+000 2.057146e+000 6.990571e+000 7.405205e+000 1.644375e+001 5.174411e+000 9.998998e+000 2.481143e+001 2.475979e+000 6.846092e+000 1.513663e+001 3.865269e-001 3.956712e-002 2.589221e-001 1.882132e-001 7.627774e-001 8.204797e-001 1.532644e+000 7.191890e-001 4.240155e-001 1.103709e+000 3.444253e-001 9.334091e-001 1.909205e+000 3.711354e-002 8.506897e-002 4.003195e-002 3.330985e-002 1.289111e-001 1.234259e-001 1.971190e-001 3.530992e-001 8.871405e-002 2.810235e-001 1.243199e-001 7.948102e-002 1.844992e-001 1.691958e-002
<GCONST> 5.154672e+001
<MIXTURE> 2 3.333333e-001
<MEAN> 39
 -1.125556e+001 -8.251548e+000 -8.936904e-002 -1.580437e+001 -1.504175e+001 -7.157660e+000 -1.384058e+001 -4.350677e+000 2.870379e+000 -1.163055e+001 -1.923487e-001 2.191172e+000 7.174364e+001 2.020218e+000 1.246962e+000 7.718006e-001 -1.097532e+000 -1.423277e+000 -2.272185e+000 -1.463440e+000 -1.599618e+000 7.544649e-002 2.702121e-001 1.496603e+000 9.203860e-001 7.041426e-001 -1.766233e-001 -3.160781e-001 -5.263166e-001 -1.537558e-001 1.593951e-001 5.752643e-001 6.191279e-001 5.124354e-001 1.300344e-001 -3.694323e-002 -4.480530e-001 -2.382161e-001 -4.418189e-002
<VARIANCE> 39
 3.854182e+000 1.147740e+001 6.173850e+000 1.369617e+001 2.192587e+001 2.341378e+001 1.295936e+001 2.517602e+001 4.269570e+001 2.911380e+001 3.512872e+001 2.047810e+001 2.659523e+000 4.811740e-001 3.698761e-001 9.898149e-001 9.635708e-001 5.985723e-001 1.588001e+000 1.650775e+000 2.007242e+000 3.168611e+000 2.810865e+000 2.530913e+000 1.494715e+000 5.392704e-002 5.295736e-002 8.368064e-002 1.024666e-001 1.355092e-001 2.037485e-001 2.636986e-001 1.657051e-001 3.175086e-001 2.143591e-001 2.035588e-001 4.137187e-001 3.417898e-001 1.000000e-002
<GCONST> 8.132796e+001
<MIXTURE> 3 3.989899e-001
<MEAN> 39
 -1.884210e+001 -8.477642e+000 -7.480113e+000 -1.190550e+001 -1.204687e+001 1.022014e+000 -9.988221e+000 2.893541e+000 -2.280487e-001 -7.662531e+000 -7.663466e+000 2.617037e+000 6.865429e+001 1.081767e+000 1.104964e+000 4.089769e-001 -3.401665e-001 -1.256344e+000 -1.524893e+000 -1.655226e+000 -8.402056e-001 -2.845677e-001 5.941668e-001 9.353526e-001 3.948491e-001 5.481212e-001 6.790785e-001 2.053883e-001 4.579687e-001 -1.577715e-001 -5.215358e-002 -4.139863e-001 -1.993883e-001 -4.398679e-001 3.255996e-001 -8.595655e-002 4.037305e-001 -9.173477e-002 1.585165e-001
<VARIANCE> 39
 1.245032e+001 1.853310e+001 1.198595e+001 2.070714e+001 2.525780e+001 4.909230e+001 2.091971e+001 2.645459e+001 5.147599e+001 3.735401e+001 2.367330e+001 2.684536e+001 5.567992e+000 2.404186e+000 4.557147e-001 2.222274e+000 1.928736e+000 1.706711e+000 1.781135e+000 2.047625e+000 2.912846e+000 2.298530e+000 2.366356e+000 3.114028e+000 2.453410e+000 6.825013e-002 2.492817e-001 6.774198e-002 2.453721e-001 2.172615e-001 2.090898e-001 2.725425e-001 4.472708e-001 2.556748e-001 3.847190e-001 3.275154e-001 5.196569e-001 4.715376e-001 1.017672e-002
<GCONST> 9.717980e+001
<MIXTURE> 4 2.020202e-001
<MEAN> 39
 -5.985302e+000 -9.802629e+000 -5.064118e+000 -2.591131e+001 -2.242949e+001 -4.390728e+000 -7.466844e+000 4.249155e-001 1.206289e+001 -1.415025e+001 -1.689907e+000 1.697798e+000 7.305478e+001 2.297865e-001 -3.149976e-002 -3.988245e-001 -9.093021e-001 -6.700050e-001 1.211821e-001 7.563574e-001 1.284351e+000 1.325462e+000 2.917106e-001 -1.026022e-002 -3.601247e-001 1.895102e-001 -1.618679e-001 -8.139839e-002 3.730331e-002 2.133071e-001 1.023461e-001 -1.821595e-002 2.828065e-003 2.944478e-002 5.521860e-002 3.202267e-001 -2.803590e-002 -9.111729e-002 -6.033225e-002
<VARIANCE> 39
 2.425114e+000 7.131299e+000 4.740039e+000 6.413677e+000 2.866666e+000 1.926779e+001 1.417124e+001 9.086730e+000 1.325592e+001 1.128127e+001 2.089148e+001 2.231697e+001 3.054293e+000 1.701078e-001 1.597856e-001 2.408897e-001 6.073580e-001 5.679446e-001 8.966326e-001 5.454592e-001 1.238036e+000 2.246080e+000 4.182369e+000 2.078187e+000 1.059260e+000 5.371218e-002 2.626084e-002 4.217846e-002 3.619822e-002 9.155885e-002 9.738660e-002 2.715861e-001 1.063604e-001 2.502481e-001 2.797767e-001 2.413838e-001 7.801075e-002 1.600203e-001 1.000000e-002
<GCONST> 6.113331e+001
<STATE> 16
<NUMMIXES> 4
<MIXTURE> 1 2.692308e-001
<MEAN> 39
 -5.859735e+000 -8.402389e+000 -6.435069e+000 -2.623536e+001 -2.297666e+001 -7.576237e+000 -7.606353e+000 5.219396e+000 1.642784e+001 -3.184133e+000 3.274336e+000 6.143655e-001 7.349193e+001 1.826123e-001 -4.186549e-001 -7.755377e-001 -6.621874e-001 2.746782e-001 7.603360e-001 1.070666e+000 1.069202e+000 1.545009e+000 1.029098e+000 -2.211571e-001 -7.876678e-001 1.403701e-001 -3.635330e-001 -3.146618e-001 -1.665056e-001 3.303622e-001 5.604206e-001 4.517298e-001 1.480386e-001 -3.522473e-001 -7.048869e-001 -6.396877e-001 -7.193672e-001 -5.362433e-001 -1.524739e-001
<VARIANCE> 39
 4.966118e+000 9.999514e+000 1.180870e+001 1.354816e+001 1.545162e+001 1.373955e+001 3.347246e+001 2.092176e+001 2.990417e+001 4.377060e+001 2.772916e+001 1.159511e+001 1.510890e+000 4.502451e-001 3.659280e-001 4.700898e-001 6.874757e-001 1.405110e+000 1.480129e+000 5.777960e-001 1.341516e+000 2.002641e+000 2.569981e+000 3.195263e+000 1.754302e+000 1.470805e-001 4.602977e-002 1.017195e-001 1.090596e-001 5.522007e-002 1.796030e-001 2.662176e-001 2.108445e-001 3.231688e-001 2.577201e-001 3.368696e-001 5.144568e-001 1.959108e-001 1.000000e-002
<GCONST> 7.937289e+001
<MIXTURE> 2 1.666667e-001
<MEAN> 39
 -7.805079e+000 -1.105620e+000 -3.789273e+000 -1.609040e+001 -1.532919e+001 -8.665119e+000 -2.041711e+001 -7.735867e+000 2.245834e+000 -5.357831e-001 9.642165e-001 3.608373e+000 7.224193e+001 1.828581e+000 1.474331e-001 -3.091187e-001 -1.553496e+000 -9.671857e-001 -2.765493e-001 -7.381850e-001 -3.667294e-001 5.434943e-001 5.171973e-001 1.595335e+000 2.396046e-001 5.417046e-001 -7.463109e-001 -4.040396e-001 -4.699051e-001 2.209090e-001 2.836526e-001 8.243019e-001 1.045098e+000 8.895545e-001 -1.646444e-001 -4.653610e-001 -9.106767e-001 -4.095638e-002 -2.253958e-001
<VARIANCE> 39
 2.382181e+000 6.299695e+000 9.009409e+000 1.945381e+001 1.798782e+001 8.280705e+001 1.312084e+001 1.272274e+001 3.331056e+001 2.343239e+001 2.593550e+001 1.846846e+001 2.786009e+000 1.065565e+000 2.466077e-001 7.685419e-001 8.792493e-001 8.148756e-001 8.492788e-001 2.723965e+000 3.996440e+000 1.799741e+000 1.734333e+000 2.530725e+000 1.184711e+000 1.070615e-001 6.991672e-002 8.543594e-002 1.486858e-001 6.914090e-002 1.455970e-001 2.016605e-001 2.733756e-001 4.527085e-001 2.026357e-001 1.829394e-001 2.333189e-001 3.066529e-001 1.609767e-002
<GCONST> 8.074818e+001
<MIXTURE> 3 2.692308e-001
<MEAN> 39
 -8.031164e+000 -7.832150e+000 -8.059592e-001 -1.860914e+001 -1.708337e+001 -6.418107e+000 -1.193604e+001 -3.779719e+000 9.589375e-001 -1.570268e+001 -2.046737e+000 5.310506e-001 7.362589e+001 9.620457e-001 -2.683739e-001 -8.622869e-001 -1.274603e+000 -4.191620e-001 3.786429e-001 9.901498e-001 6.474696e-001 -1.822570e-001 -6.698635e-001 -4.777531e-001 -2.048581e-001 3.779202e-001 -3.498754e-001 -2.978090e-001 -2.584846e-001 3.056444e-002 2.777034e-001 6.809267e-001 4.395940e-001 5.064268e-001 2.982689e-001 1.528779e-001 -2.468301e-002 -1.212192e-001 -9.489715e-002
<VARIANCE> 39
 2.716412e+000 4.772180e+000 6.895956e+000 1.727444e+001 1.862434e+001 1.585472e+001 1.460723e+001 2.867813e+001 1.367452e+001 1.149497e+001 3.229414e+001 2.190663e+001 1.234058e+000 1.262742e-001 3.030207e-001 3.787199e-001 1.084983e+000 7.554935e-001 1.081982e+000 1.140000e+000 2.034948e+000 7.952607e-001 1.096474e+000 7.382769e-001 1.353715e+000 3.334651e-002 2.329550e-002 5.894894e-002 1.072070e-001 1.251337e-001 2.022599e-001 2.525614e-001 2.300666e-001 3.718610e-001 1.324450e-001 2.309057e-001 2.274391e-001 2.689131e-001 1.000000e-002
<GCONST> 6.830179e+001
<MIXTURE> 4 2.948718e-001
<MEAN> 39
 -2.181298e+001 -5.254575e+000 -1.227523e+001 -6.096326e+000 -1.644602e+001 6.093924e+000 -1.131828e+001 6.303811e+000 -2.919028e-001 -5.508448e+000 -7.693793e+000 6.856812e+000 6.814709e+001 1.256903e+000 9.199020e-001 2.136170e-001 -7.360041e-001 -5.413854e-001 -1.131474e+000 -2.550587e-001 -1.039581e+000 4.294656e-002 -2.709602e-001 6.689665e-001 5.397364e-001 6.133977e-001 9.286816e-001 -5.340053e-002 6.342998e-001 -7.905039e-001 -9.375708e-002 -7.707620e-001 1.938727e-003 -6.081506e-001 2.750844e-001 -5.846012e-001 2.813102e-001 -3.776009e-001 9.435306e-002
<VARIANCE> 39
 5.436296e+000 5.585262e+000 1.656489e+001 2.794394e+001 1.985353e+001 1.526549e+001 1.640865e+001 1.703186e+001 1.950725e+001 1.540587e+001 1.552051e+001 1.485048e+001 1.698886e+000 2.657920e+000 6.926483e-001 1.947899e+000 1.939171e+000 1.199952e+000 2.890407e+000 1.652848e+000 2.361284e+000 1.888490e+000 2.145070e+000 2.766118e+000 1.433418e+000 9.015130e-002 1.729913e-001 1.215769e-001 1.290307e-001 2.059064e-001 3.990732e-001 1.880468e-001 5.187793e-001 3.636686e-001 4.316971e-001 2.147518e-001 4.766129e-001 2.480065e-001 1.513754e-002
<GCONST> 8.871394e+001
<STATE> 17
<NUMMIXES> 4
<MIXTURE> 1 2.153110e-001
<MEAN> 39
 -7.056604e+000 -1.104529e+001 -7.249967e+000 -2.609344e+001 -1.919811e+001 -3.725284e+000 -5.089148e+000 4.368507e+000 1.336247e+001 -8.122664e+000 -8.882934e-001 -2.589686e+000 7.375407e+001 -3.199356e-001 -6.858498e-001 -7.655804e-001 -2.791095e-001 8.204720e-001 1.150334e+000 1.201365e+000 1.428581e-001 -8.789323e-002 -6.914201e-002 -7.697704e-001 -1.017109e+000 -4.561476e-002 -1.113318e-001 1.093580e-001 2.046870e-001 3.573747e-001 1.752504e-001 -2.624278e-001 -3.587490e-001 -4.122037e-001 -1.013138e-001 2.060789e-001 2.442563e-001 1.614777e-001 -6.105213e-002
<VARIANCE> 39
 5.699424e+000 9.711371e+000 1.479538e+001 1.407867e+001 1.986689e+001 1.512995e+001 2.397602e+001 1.829685e+001 5.886001e+001 6.290711e+001 1.466259e+001 2.909303e+001 3.598075e+000 3.070709e-001 3.241617e-001 5.048310e-001 9.207304e-001 1.711334e+000 1.727078e+000 6.563287e-001 8.778000e-001 7.797430e-001 1.582779e+000 8.896396e-001 1.226689e+000 6.630937e-002 4.310030e-002 6.064564e-002 5.421934e-002 7.671046e-002 1.581220e-001 1.990886e-001 1.792015e-001 2.426136e-001 2.837321e-001 4.845246e-001 2.432356e-001 1.832310e-001 1.368686e-002
<GCONST> 7.600602e+001
<MIXTURE> 2 1.531100e-001
<MEAN> 39
 -4.972743e+000 -1.571088e+000 -9.685107e+000 -2.125354e+001 -2.079787e+001 2.550558e-001 -1.283714e+001 3.505421e+000 2.335048e+000 -2.125027e+000 -7.559546e-001 6.392738e+000 7.482790e+001 4.150006e-001 -5.650699e-001 -6.495402e-001 -1.072280e+000 -7.090369e-001 6.431316e-001 7.992167e-001 1.425045e+000 7.360954e-001 4.587059e-001 -4.550767e-001 -3.232019e-001 2.306226e-001 -3.337132e-001 -1.318433e-001 -1.778585e-002 3.660852e-001 1.742058e-001 2.172068e-001 -2.733538e-001 -2.475407e-001 2.053581e-001 3.935164e-001 -3.579809e-002 -3.078196e-001 -6.543721e-002
<VARIANCE> 39
 2.168023e+000 5.944207e+000 1.052096e+001 2.769808e+001 1.493240e+001 4.218630e+001 2.648344e+001 1.903415e+001 9.661448e+000 4.492847e+001 1.225487e+001 8.304709e+000 4.963748e-001 1.331182e-001 1.128429e-001 3.275373e-001 5.830333e-001 7.296200e-001 1.566751e+000 1.778630e+000 1.048977e+000 1.639652e+000 1.509754e+000 1.086673e+000 6.093580e-001 6.694289e-002 9.084996e-002 3.450612e-002 6.637049e-002 1.029706e-001 1.191820e-001 2.491240e-001 2.749781e-001 3.158647e-001 1.304552e-001 2.452353e-001 3.031393e-001 1.419781e-001 3.543175e-002
<GCONST> 6.862644e+001
<MIXTURE> 3 4.306220e-001
<MEAN> 39
 -8.471706e+000 -8.711859e+000 -1.053659e+000 -1.674009e+001 -1.351890e+001 -9.216265e+000 -1.411484e+001 -8.187549e+000 4.984398e-001 -1.523287e+001 -2.793205e+000 -1.989293e+000 7.185912e+001 2.424941e-001 -2.060136e-001 -3.831096e-001 -5.409549e-001 3.178389e-001 2.886633e-001 2.971176e-001 2.406837e-001 2.682676e-001 -7.555521e-002 2.773629e-002 -4.910136e-001 6.065117e-002 -5.092465e-002 -4.779740e-002 -8.707052e-002 -3.064215e-002 5.229358e-002 6.535647e-002 3.500117e-002 1.735400e-001 1.300299e-001 2.526551e-001 2.694406e-002 -4.674442e-002 5.842025e-003
<VARIANCE> 39
 2.550513e+000 1.905121e+001 7.022409e+000 1.126909e+001 9.453963e+000 1.866802e+001 1.907699e+001 1.516620e+001 1.641859e+001 4.045874e+001 1.758834e+001 2.390208e+001 1.622509e+000 1.002384e-001 2.022704e-001 3.313099e-001 3.041478e-001 5.743584e-001 8.467718e-001 1.222489e+000 1.369682e+000 1.189389e+000 2.079888e+000 1.165536e+000 1.248298e+000 5.325607e-002 3.430905e-002 3.410719e-002 5.904585e-002 5.309559e-002 9.674222e-002 1.364757e-001 1.347620e-001 1.856498e-001 2.436995e-001 3.377743e-001 2.284058e-001 2.322368e-001 1.000000e-002
<GCONST> 6.517575e+001
<MIXTURE> 4 2.009569e-001
<MEAN> 39
 -1.054000e+001 -1.737148e+000 -6.635183e+000 -1.525870e+001 -2.072096e+001 -5.352190e+000 -1.442247e+001 -2.133404e+000 -1.633395e-001 -1.003245e+001 -3.511748e+000 5.894719e+000 7.113526e+001 2.955298e+000 6.719977e-001 5.804461e-001 -2.927289e+000 -1.560124e+000 -2.140814e+000 -1.667777e-001 -1.411166e+000 6.589328e-001 -7.942992e-001 9.635194e-001 -7.909060e-001 8.782777e-001 -4.993248e-001 -3.478650e-001 -5.971813e-001 -1.888844e-002 1.730833e-001 6.754336e-001 5.839608e-001 7.618370e-001 3.465291e-001 4.158634e-001 -3.585701e-001 -2.638614e-001 -1.111575e-001
<VARIANCE> 39
 1.163754e+001 3.758218e+000 1.594032e+001 3.332549e+001 2.200001e+001 3.032594e+001 1.497119e+001 1.689160e+001 1.399222e+001 2.808877e+001 2.527474e+001 1.796739e+001 2.267664e+000 1.182218e+000 9.497965e-001 1.343741e+000 6.693152e-001 1.488074e+000 2.136320e+000 1.903964e+000 2.575390e+000 2.277043e+000 2.539143e+000 2.744884e+000 1.071816e+000 8.150011e-002 2.195499e-001 6.557468e-002 1.117517e-001 2.911019e-001 3.319743e-001 2.583774e-001 2.292534e-001 3.004221e-001 3.120172e-001 2.252598e-001 3.563503e-001 1.263248e-001 2.028289e-002
<GCONST> 8.730878e+001
<STATE> 18
<NUMMIXES> 4
<MIXTURE> 1 1.590909e-001
<MEAN> 39
 -7.635200e+000 -1.043081e+001 -1.129649e+001 -2.056705e+001 -1.419306e+001 -4.233346e+000 -1.219689e+001 8.748117e+000 1.421497e+001 2.530467e+000 -6.601448e+000 -5.647785e+000 7.369386e+001 -4.638058e-001 -5.691730e-001 2.853444e-001 1.087538e+000 7.811840e-001 -1.554364e-001 -3.674594e-003 -5.699801e-001 -3.159469e-001 -1.070402e+000 -2.057086e-001 -4.236323e-001 -2.804813e-001 -1.354894e-001 3.542278e-002 3.203479e-001 9.839842e-002 -3.417462e-001 -5.418665e-001 -2.705082e-001 -4.652326e-001 -2.967068e-001 -5.114293e-001 3.439566e-001 3.725379e-001 -1.282203e-001
<VARIANCE> 39
 3.230273e+000 6.408672e+000 1.663156e+001 3.908934e+001 1.709692e+001 3.468750e+001 1.150238e+002 1.760200e+001 4.396191e+001 5.214748e+001 4.898978e+001 2.481557e+001 1.762083e+000 4.325310e-001 6.635919e-001 1.563283e+000 9.198833e-001 1.477742e+000 3.790742e+000 1.656128e+000 1.800076e+000 5.451270e+000 5.234423e+000 1.808242e+000 2.814549e+000 1.083139e-001 3.279968e-002 1.135856e-001 1.325555e-001 1.514659e-001 9.767325e-002 5.931460e-001 3.190836e-001 3.219866e-001 1.056823e+000 2.990262e-001 2.199906e-001 4.434603e-001 1.000000e-002
<GCONST> 9.256689e+001
<MIXTURE> 2 3.068182e-001
<MEAN> 39
 -6.034258e+000 -4.306021e+000 -5.901307e+000 -2.093962e+001 -2.297118e+001 -5.821853e+000 -1.040369e+001 1.441103e-001 2.003793e+000 -1.397948e+001 -6.888083e+000 -2.379340e+000 7.277043e+001 3.829568e-001 -2.464437e-001 -8.586901e-001 -1.325155e+000 -6.078793e-001 4.899875e-001 9.129260e-001 8.728015e-001 1.226732e+000 8.236932e-001 1.796023e-001 -3.373834e-001 3.117411e-001 -1.863690e-001 -8.381777e-002 -2.766381e-002 2.424199e-001 1.473988e-001 2.176267e-001 1.039523e-002 1.202097e-002 1.529927e-001 2.528112e-001 2.192775e-001 2.292025e-001 -2.329515e-002
<VARIANCE> 39
 1.442182e+000 2.553938e+001 1.044609e+001 1.561731e+001 6.986498e+001 2.033389e+001 2.475397e+001 3.686208e+001 9.580805e+000 1.566760e+001 2.990580e+001 2.011024e+001 1.957609e+000 1.488994e-001 2.042839e-001 3.624762e-001 9.799464e-001 8.418751e-001 9.638455e-001 8.299842e-001 1.159663e+000 1.106370e+000 8.095927e-001 1.168549e+000 1.452970e+000 2.512306e-002 3.648615e-002 6.451979e-002 9.688307e-002 7.707235e-002 1.515192e-001 1.199650e-001 9.339327e-002 2.216706e-001 2.708985e-001 2.034800e-001 1.725527e-001 1.914991e-001 1.000000e-002
<GCONST> 6.874865e+001
<MIXTURE> 3 2.897727e-001
<MEAN> 39
 -6.137528e+000 -9.710096e+000 -7.431043e+000 -2.741022e+001 -1.762812e+001 -2.489144e+000 -3.407402e+000 3.363259e+000 9.874829e+000 -1.474998e+001 -5.155517e+000 -2.390290e+000 7.439305e+001 -1.548220e-001 -2.926615e-001 -4.976236e-001 -3.790265e-001 1.641832e-001 2.908069e-001 2.986904e-001 1.098141e-001 4.530215e-001 4.334850e-001 3.088672e-001 -7.997488e-002 -1.133406e-001 -3.466534e-002 1.491185e-002 9.942694e-002 6.502802e-002 -5.760141e-002 -8.043336e-002 -1.090971e-001 -4.141190e-002 5.425290e-002 1.142974e-001 2.478920e-001 1.282916e-001 -1.762249e-002
<VARIANCE> 39
 1.692791e+000 2.432515e+000 5.393044e+000 4.173033e+000 9.927244e+000 5.355497e+000 3.017429e+000 5.832392e+000 1.603720e+001 3.903684e+000 7.780929e+000 6.490553e+000 4.765770e-001 1.341665e-001 5.776266e-002 2.578708e-001 3.058565e-001 4.733385e-001 4.460761e-001 3.391108e-001 6.482782e-001 9.066067e-001 1.094780e+000 1.742746e+000 8.800474e-001 2.372529e-002 2.028110e-002 1.393158e-002 4.220964e-002 7.785669e-002 5.767095e-002 1.280309e-001 7.979208e-002 1.247290e-001 2.026552e-001 1.638537e-001 1.813839e-001 1.091990e-001 1.000000e-002
<GCONST> 4.123410e+001
<MIXTURE> 4 2.443182e-001
<MEAN> 39
 -6.504311e+000 -5.868135e+000 -1.322084e+001 -2.628584e+001 -1.861612e+001 -2.677420e+000 -1.021028e+001 -4.784057e-001 8.247990e+000 -1.583280e+000 -8.741935e-001 2.819971e+000 7.288909e+001 -5.260195e-001 -1.027228e+000 -2.560400e-001 1.025475e-001 3.073556e-001 2.103444e-001 1.183086e-001 -3.392726e-003 3.304469e-001 -6.739594e-002 -3.640545e-001 -6.072748e-001 -4.329065e-001 -3.681951e-001 -5.714818e-002 2.722124e-001 4.254774e-001 8.720424e-002 -6.841734e-002 -2.094734e-001 -6.575066e-002 -3.021728e-001 -3.322632e-001 -5.202756e-002 -2.074915e-002 -1.623023e-001
<VARIANCE> 39
 6.474907e+000 7.486860e+000 1.125014e+001 9.188926e+000 1.836417e+001 3.119092e+001 2.466676e+001 2.640854e+001 7.507399e+000 3.349256e+001 8.962904e+000 2.217657e+001 2.988011e+000 7.179591e-001 3.093705e-001 7.858082e-001 1.264860e+000 1.107754e+000 1.437372e+000 1.991966e+000 8.996081e-001 2.126475e+000 2.910534e+000 1.294336e+000 1.321723e+000 3.251884e-001 9.502014e-002 4.160524e-002 1.000460e-001 1.039659e-001 1.260426e-001 3.192853e-001 2.279103e-001 1.970649e-001 3.263573e-001 2.823387e-001 2.290887e-001 2.204275e-001 2.322471e-002
<GCONST> 8.016689e+001
<STATE> 19
<NUMMIXES> 4
<MIXTURE> 1 1.717791e-001
<MEAN> 39
 -7.562870e+000 -1.009962e+001 -1.339859e+001 -2.352398e+001 -1.795678e+001 2.451555e+000 -9.419716e+000 2.642763e+000 1.148687e+001 2.771536e+000 6.084211e-001 -5.185754e+000 7.392950e+001 -5.145453e-001 -4.329610e-001 4.297765e-001 1.126968e+000 1.775715e-004 -1.213292e+000 -2.188439e+000 -5.969944e-001 4.330319e-001 3.833764e-001 -5.716595e-002 -6.647226e-001 -2.880185e-001 -2.435855e-002 2.397447e-001 6.411151e-001 2.556382e-001 -4.951651e-002 -5.775703e-001 -4.053124e-001 -8.260706e-002 -1.592684e-002 -4.837613e-001 -1.706250e-001 5.802317e-001 -1.698552e-001
<VARIANCE> 39
 6.364957e+000 1.868744e+001 4.772543e+000 2.472642e+001 1.704569e+001 4.760089e+001 1.296065e+002 3.086729e+001 6.163203e+001 4.831376e+001 2.120220e+001 2.216285e+001 1.171680e+001 2.953298e-001 4.660404e-001 7.140808e-001 5.839034e-001 8.040116e-001 1.932288e+000 3.209093e+000 1.391305e+000 1.783478e+000 1.622100e+000 8.258461e-001 3.541227e+000 3.356912e-001 4.447214e-002 1.383267e-001 9.898245e-002 7.864440e-002 1.264731e-001 4.609516e-001 5.333787e-001 1.721050e-001 2.988493e-001 2.113949e-001 3.324578e-001 2.701401e-001 4.167983e-002
<GCONST> 8.942809e+001
<MIXTURE> 2 1.656442e-001
<MEAN> 39
 -8.476474e+000 -1.114307e+001 -4.307019e+000 -1.858620e+001 -9.636348e+000 -1.979002e+000 -1.198249e+001 -6.190866e+000 2.649327e+000 -1.092064e+001 3.820869e+000 2.422848e+000 7.293574e+001 -9.432654e-001 -6.770931e-001 2.150891e-001 6.795264e-001 9.681545e-001 1.528619e-001 -5.718148e-001 -8.185645e-001 -2.011491e-001 1.165055e-001 8.253511e-001 -7.774936e-002 -4.722632e-001 -1.032325e-001 6.208153e-002 1.614390e-001 7.232761e-002 -2.736761e-001 -1.310259e-001 2.410841e-003 1.018600e-001 2.186248e-001 -4.852628e-003 -2.525027e-001 -1.464178e-001 -6.033051e-002
<VARIANCE> 39
 8.370805e+000 3.121289e+000 7.844059e+000 1.912384e+001 4.472739e+001 5.575468e+001 1.870061e+001 6.908776e+001 4.979565e+001 1.390195e+001 5.622433e+001 2.862933e+001 7.360683e+000 1.079303e+000 7.294231e-001 7.484989e-001 6.128066e-001 2.093527e+000 2.384619e+000 8.273358e-001 1.944047e+000 3.354041e+000 4.803697e+000 1.470368e+000 1.416726e+000 3.502406e-001 5.176928e-002 4.319136e-002 9.479118e-002 8.655357e-002 2.563624e-001 6.625712e-001 3.719387e-001 3.056654e-001 2.693536e-001 5.140658e-001 4.064350e-001 1.722834e-001 2.521016e-002
<GCONST> 9.121527e+001
<MIXTURE> 3 4.355828e-001
<MEAN> 39
 -5.306349e+000 -6.413463e+000 -9.908749e+000 -2.640193e+001 -2.658791e+001 -1.715997e+000 -3.213883e+000 4.928844e+000 7.292984e+000 -9.692251e+000 -2.001440e-001 1.426517e+000 7.480737e+001 -3.501736e-003 -3.313739e-001 -4.136265e-001 1.527776e-002 5.703761e-002 -5.950772e-002 3.787196e-002 -1.348885e-001 7.801804e-001 1.617321e+000 1.396687e+000 1.164829e-001 2.093168e-001 -2.913813e-002 8.253662e-003 1.245391e-001 2.874788e-001 2.407222e-001 -2.394834e-001 -4.850138e-001 -3.220198e-001 -1.038693e-001 7.661245e-002 -8.999410e-002 -1.631205e-001 -2.895135e-003
<VARIANCE> 39
 2.467620e+000 2.078780e+001 1.556617e+001 1.451913e+001 3.296667e+001 2.627108e+001 1.727155e+001 4.772092e+001 2.518521e+001 2.199810e+001 3.190745e+001 2.456871e+001 2.929419e+000 1.338572e-001 3.499467e-001 7.878394e-001 8.905016e-001 8.589377e-001 2.024338e+000 1.090579e+000 2.731172e+000 2.719471e+000 1.379071e+000 1.611689e+000 1.821219e+000 4.074489e-002 1.699084e-002 7.272277e-002 1.418559e-001 1.521570e-001 1.510299e-001 3.306574e-001 1.886976e-001 3.590277e-001 3.506231e-001 2.117910e-001 3.291219e-001 2.848816e-001 1.000000e-002
<GCONST> 8.020432e+001
<MIXTURE> 4 2.269939e-001
<MEAN> 39
 -5.985332e+000 -7.473425e+000 -7.328928e+000 -2.464269e+001 -1.094427e+001 -1.305843e+001 -1.072014e+001 -5.156401e+000 1.093195e+001 -2.234858e+000 6.259612e-001 -1.486812e+000 7.285309e+001 -1.192707e-002 -4.723462e-001 -6.634929e-001 -4.666397e-001 1.376635e+000 -1.974229e-004 3.718463e-001 6.418531e-001 1.817576e+000 1.596884e+000 -3.263811e-001 -1.350779e+000 4.485404e-001 -8.582743e-002 -1.598834e-002 3.985447e-002 2.121519e-001 1.278307e-001 -1.527197e-001 -3.148458e-001 -5.317091e-002 -3.421939e-002 6.912891e-002 -2.945646e-001 -6.512522e-002 -6.868668e-004
<VARIANCE> 39
 1.307054e+000 8.836761e+000 6.996834e+000 1.947938e+001 2.430406e+001 1.380394e+001 2.587838e+001 3.361224e+001 3.585341e+001 4.064766e+001 2.332114e+001 5.115510e+001 1.701524e+000 9.776568e-002 1.251240e-001 3.602920e-001 4.765139e-001 1.096925e+000 1.183614e+000 1.878147e+000 1.383975e+000 1.821323e+000 1.477366e+000 1.579002e+000 9.933739e-001 3.081519e-002 1.485155e-002 2.326851e-002 5.123701e-002 6.259297e-002 1.444119e-001 2.604989e-001 1.236624e-001 2.215188e-001 3.051341e-001 2.936738e-001 4.507629e-001 2.438202e-001 1.243585e-002
<GCONST> 6.993557e+001
<STATE> 20
<NUMMIXES> 4
<MIXTURE> 1 1.875000e-001
<MEAN> 39
 -6.026776e+000 -7.470427e+000 -1.248618e+001 -1.947840e+001 -1.690564e+001 -4.084321e+000 -1.595700e+001 -5.979801e+000 7.803071e+000 2.605594e+000 2.711236e+000 -2.762717e+000 7.588676e+001 -5.937848e-001 -6.043954e-001 1.246075e+000 1.509653e+000 1.583703e+000 -1.181377e+000 -1.569305e+000 -1.066993e+000 3.162004e-001 -2.483665e-001 -1.078338e+000 2.902351e-002 -5.353221e-001 -3.525849e-001 1.795227e-002 5.518337e-001 2.392690e-001 2.259404e-001 5.496672e-001 9.050570e-001 5.999423e-001 -4.085702e-001 -1.127468e+000 -4.601677e-001 2.800080e-001 -3.767470e-001
<VARIANCE> 39
 3.363313e+000 1.090823e+001 2.817008e+001 3.574050e+001 8.430407e+001 5.014899e+001 1.147554e+002 5.940423e+001 5.280736e+001 5.450223e+001 6.467620e+001 2.136484e+001 4.501784e+000 4.788373e-001 4.460021e-001 1.998453e+000 8.222817e-001 2.707490e+000 1.993521e+000 2.740442e+000 3.976943e+000 2.240443e+000 4.714434e+000 2.846815e+000 2.149239e+000 4.173232e-001 6.128715e-002 6.778890e-002 1.290334e-001 2.235142e-001 5.358177e-001 4.452817e-001 9.484689e-001 7.361912e-001 5.219545e-001 2.864811e-001 6.290200e-001 2.442600e-001 3.576156e-002
<GCONST> 1.044675e+002
<MIXTURE> 2 3.636364e-001
<MEAN> 39
 -1.519721e+001 -1.574159e+001 -6.110651e+000 -1.938121e+001 -1.308447e+001 -3.625531e+000 -7.482580e+000 -4.062818e-001 9.882177e+000 -1.035140e+001 -6.336659e-001 2.574865e-001 6.842853e+001 -5.544216e-001 -1.826132e-001 4.676579e-001 9.691804e-001 3.816747e-001 1.200036e-001 -4.515036e-001 -4.125391e-001 -4.969600e-001 -5.277758e-001 -4.545560e-002 2.479253e-001 -2.855758e-001 1.920244e-001 1.948651e-001 -2.556346e-002 -4.491399e-002 -1.370579e-001 -5.481822e-002 -5.828948e-002 7.367274e-002 -7.824724e-003 2.969867e-002 -2.386422e-001 -9.569042e-002 1.071201e-001
<VARIANCE> 39
 4.956404e+000 1.185252e+001 1.206339e+001 2.087948e+001 1.550929e+001 1.846853e+001 1.304847e+001 1.905301e+001 1.848262e+001 2.125539e+001 1.468076e+001 1.429230e+001 2.248922e+000 5.625235e-001 7.452893e-001 4.095291e-001 5.392380e-001 1.125542e+000 1.375876e+000 1.398508e+000 1.845739e+000 1.407425e+000 1.410149e+000 1.395100e+000 1.036335e+000 1.642274e-001 5.546404e-002 9.995265e-002 3.521431e-002 8.853891e-002 1.126907e-001 1.934184e-001 2.390629e-001 3.789238e-001 3.467156e-001 2.059940e-001 2.627641e-001 2.677465e-001 1.727139e-002
<GCONST> 7.629128e+001
<MIXTURE> 3 3.238636e-001
<MEAN> 39
 -7.215526e+000 -1.196660e+001 -7.027848e+000 -2.722072e+001 -1.779558e+001 -2.178627e+000 -4.047888e+000 5.913971e+000 1.510016e+001 -8.956928e+000 -1.049363e+000 -3.095014e+000 7.424562e+001 -2.082611e-001 1.488460e-001 5.305352e-001 3.830439e-001 -1.902608e-001 -6.932037e-001 -9.068481e-001 -3.322811e-001 1.767010e-002 3.801321e-001 -3.039199e-001 -3.157653e-001 -8.154216e-002 -1.626039e-001 2.928890e-002 1.908177e-001 2.720314e-001 3.189585e-002 -1.999249e-001 -4.070801e-001 -4.825816e-001 -5.771427e-001 -2.345669e-001 5.318928e-002 1.313454e-001 -1.049302e-001
<VARIANCE> 39
 3.966424e+000 5.595495e+000 5.582161e+000 1.211627e+001 2.738923e+001 1.263046e+001 1.274507e+001 1.197086e+001 2.478217e+001 3.209862e+001 1.791773e+001 2.391966e+001 2.277590e+000 2.369228e-001 2.986282e-001 5.344728e-001 7.191415e-001 2.947239e-001 1.036628e+000 1.483882e+000 1.375921e+000 1.791174e+000 2.349387e+000 1.643949e+000 1.823018e+000 9.828207e-002 1.987917e-002 5.633052e-002 6.586249e-002 1.021538e-001 7.301429e-002 1.843824e-001 9.222016e-002 1.093982e-001 1.488175e-001 2.788027e-001 2.585521e-001 4.295653e-001 1.000000e-002
<GCONST> 6.888024e+001
<MIXTURE> 4 1.250000e-001
<MEAN> 39
 -6.599255e+000 -7.454840e+000 -5.897577e+000 -1.637403e+001 -1.129506e+001 -1.307114e+001 -2.014423e+001 -1.784470e+000 9.147516e+000 -4.975363e+000 -9.139803e+000 -1.053762e+001 7.258290e+001 -4.146840e-001 6.752698e-002 5.313629e-001 1.002418e+000 -5.479059e-001 -2.628662e-001 -3.430860e-001 1.755740e-001 4.997107e-002 -8.365604e-001 -1.306534e+000 4.185396e-001 -1.514355e-001 -1.995201e-001 1.129596e-001 3.688566e-001 2.885143e-001 -5.492641e-002 1.084992e-001 2.070738e-001 -3.628067e-001 -8.611194e-001 -5.743626e-001 1.487346e-001 3.108982e-001 -1.883422e-001
<VARIANCE> 39
 1.392586e+000 2.715275e+000 6.011065e+000 1.063079e+001 7.951179e+000 1.095949e+001 1.588112e+001 3.675420e+001 1.462980e+001 3.194687e+001 2.626793e+001 3.376486e+001 3.296546e-001 7.816637e-002 2.712006e-001 1.055933e+000 1.046345e+000 6.466678e-001 8.612452e-001 1.529808e+000 2.326549e+000 3.129880e+000 1.734648e+000 1.700899e+000 2.833065e+000 1.178205e-001 2.037269e-002 1.393927e-002 1.364592e-001 1.197214e-001 1.810281e-001 2.694222e-001 3.762785e-001 4.322602e-001 1.462966e-001 2.067906e-001 4.292506e-001 5.202702e-001 1.000000e-002
<GCONST> 7.116247e+001
<STATE> 21
<NUMMIXES> 4
<MIXTURE> 1 2.400000e-001
<MEAN> 39
 -7.882658e+000 -1.229527e+001 -9.229077e+000 -2.543876e+001 -1.165799e+001 -1.498200e+001 -9.267262e+000 2.335993e+000 1.759777e+001 2.242228e+000 -3.519571e+000 -4.359086e+000 7.430973e+001 -2.759849e-001 2.698270e-001 6.442374e-001 1.024169e+000 -1.145938e+000 -7.016397e-001 -1.156790e+000 2.285133e-001 -1.104925e+000 -7.054390e-001 2.336555e-001 7.520883e-001 -3.012711e-001 -1.575206e-001 1.172347e-001 2.491410e-001 4.605614e-001 7.581989e-002 5.037699e-001 3.109155e-002 -1.717244e-001 -5.146570e-001 -6.724240e-001 3.870252e-002 1.342053e-001 -1.397143e-001
<VARIANCE> 39
 1.919731e+000 5.537586e+000 6.941398e+000 8.084210e+000 1.122314e+002 4.273604e+001 1.236922e+001 1.914158e+001 1.529512e+001 6.505138e+001 1.884187e+001 2.090191e+001 2.023855e+000 4.067497e-001 5.070535e-001 4.343366e-001 6.291783e-001 3.623642e+000 1.371554e+000 1.600619e+000 2.866154e+000 2.159540e+000 2.620245e+000 3.488703e+000 2.376891e+000 1.066152e-001 5.149161e-002 7.795018e-002 4.034973e-002 1.802557e-001 8.866664e-001 3.488767e-001 2.953937e-001 3.259346e-001 1.624006e-001 3.910637e-001 6.256887e-001 4.975123e-001 1.000000e-002
<GCONST> 8.497125e+001
<MIXTURE> 2 2.285714e-001
<MEAN> 39
 -1.404892e+001 -1.308420e+001 -4.726746e+000 -1.740646e+001 -1.187000e+001 -1.355798e-001 -9.770424e+000 -3.528544e+000 6.771840e+000 -1.081641e+001 -2.581767e+000 -1.315293e+000 6.936316e+001 -1.005860e+000 -1.608693e-001 5.289553e-001 1.244902e+000 7.388906e-001 8.114474e-001 6.851620e-001 3.562232e-001 -7.423519e-001 -1.392960e+000 -1.522361e+000 -4.758218e-001 -4.121013e-001 1.859760e-001 1.077510e-001 -3.778906e-001 -3.886368e-001 -2.622686e-001 -1.958612e-001 6.995843e-003 1.639406e-001 1.494346e-001 3.364854e-001 1.206423e-001 6.656655e-002 1.659226e-001
<VARIANCE> 39
 1.028046e+001 4.355839e+000 1.943505e+001 2.199855e+001 2.422123e+001 2.075368e+001 9.916147e+000 1.619958e+001 3.443232e+001 2.518209e+001 2.544857e+001 1.942138e+001 1.034346e+001 4.463812e-001 2.645956e-001 5.996009e-001 6.944109e-001 1.501271e+000 2.403944e+000 2.683989e+000 2.344563e+000 1.417329e+000 1.302464e+000 1.276492e+000 1.054490e+000 1.575843e-001 4.228806e-002 6.473318e-002 3.982846e-002 2.581665e-001 5.763146e-001 3.068647e-001 3.003511e-001 4.152598e-001 3.305439e-001 2.212582e-001 1.393231e-001 1.761444e-001 1.514502e-002
<GCONST> 8.250848e+001
<MIXTURE> 3 4.114286e-001
<MEAN> 39
 -8.734541e+000 -8.638176e+000 -4.740475e+000 -1.595589e+001 -1.585271e+001 -8.852612e+000 -1.786889e+001 -2.895566e+000 8.002267e+000 -4.839457e+000 -2.107906e+000 -2.469974e+000 7.229253e+001 -1.406584e+000 -3.489482e-001 1.161283e+000 1.966141e+000 1.423636e+000 1.058081e+000 2.546463e-001 -9.305154e-001 -1.994365e+000 -2.397146e+000 -1.104159e+000 -3.919770e-001 -9.763065e-001 -3.330712e-001 -2.818625e-001 -3.882340e-001 -1.385390e-001 3.976943e-001 8.423107e-001 9.123844e-001 4.669181e-001 -7.920905e-002 -3.042909e-001 -4.043961e-001 -3.366237e-001 -7.792463e-002
<VARIANCE> 39
 3.969964e+000 9.699337e+000 1.349563e+001 2.347696e+001 2.846859e+001 5.894027e+001 3.457513e+001 3.204415e+001 3.204167e+001 4.327756e+001 3.382282e+001 2.387094e+001 4.721601e+000 2.361762e-001 5.956011e-001 7.074149e-001 1.083438e+000 2.898637e+000 2.183718e+000 4.524494e+000 2.867364e+000 2.419671e+000 1.993187e+000 1.643550e+000 1.391350e+000 2.308400e-001 5.167750e-002 7.563636e-002 1.263226e-001 1.625821e-001 3.441814e-001 2.930261e-001 3.885354e-001 4.281561e-001 4.168071e-001 4.243935e-001 3.221769e-001 3.561907e-001 2.831480e-002
<GCONST> 9.313857e+001
<MIXTURE> 4 1.200000e-001
<MEAN> 39
 -4.495616e+000 -5.965427e+000 -6.704608e+000 -2.498302e+001 -2.706359e+001 -5.220228e+000 -1.176428e+001 5.434137e+000 1.289336e+001 -2.608448e+000 2.420916e+000 1.150481e+000 7.564051e+001 -4.616640e-001 2.489282e-001 8.376984e-001 1.913592e+000 9.248418e-001 -9.097658e-001 -1.853527e+000 -1.907214e+000 -7.509761e-001 5.936849e-001 4.611341e-002 -9.840937e-001 -2.278504e-001 -3.295805e-001 -4.117908e-001 9.176542e-002 3.776215e-001 7.698731e-001 5.247602e-001 4.977493e-001 -5.755742e-002 -5.898108e-001 -7.816729e-001 -4.825772e-001 -3.240709e-001 -2.123004e-001
<VARIANCE> 39
 2.577032e+000 8.268532e+000 9.501650e+000 1.576219e+001 2.231287e+001 2.281242e+001 2.809477e+001 2.008099e+001 1.751030e+001 1.151852e+001 1.457046e+001 1.708181e+001 3.465076e+000 2.822902e-001 2.688920e-001 1.045785e-001 6.800540e-001 1.377362e+000 7.278220e-001 1.005388e+000 5.135588e-001 7.427322e-001 1.128086e+000 1.079675e+000 1.357519e+000 1.115713e-001 2.261447e-002 6.132995e-002 2.188524e-002 6.313281e-002 7.942800e-002 1.850789e-001 3.023585e-001 2.857745e-001 2.081309e-001 1.806633e-001 1.835874e-001 2.613207e-001 1.022727e-002
<GCONST> 6.577765e+001
<STATE> 22
<NUMMIXES> 4
<MIXTURE> 1 7.488987e-002
<MEAN> 39
 -1.132680e+001 -1.262260e+001 -7.406800e-001 -2.115208e+001 -1.734871e+001 -8.136771e+000 -4.754508e+000 2.274593e+000 9.330425e+000 -1.444808e+001 -2.223541e+000 -2.315328e+000 7.142064e+001 -7.609428e-001 -7.861640e-001 -2.830378e-002 1.356283e+000 1.615985e+000 2.277190e-001 1.818908e-001 -4.388266e-001 4.459921e-001 -4.095386e-001 1.302091e-001 2.097603e-001 -3.904139e-001 -1.651465e-001 -6.047396e-002 -2.636104e-001 1.533896e-001 5.162909e-001 4.907605e-001 -8.356740e-003 3.235862e-002 -3.999432e-003 -1.521693e-001 1.908038e-002 3.649251e-001 -9.160616e-002
<VARIANCE> 39
 5.980877e+000 3.274904e+000 3.704556e+000 7.819525e+000 1.184973e+001 1.071160e+001 8.333862e-001 6.824100e+000 9.290840e+000 7.506248e+000 4.494066e+000 6.700100e+000 2.187973e-001 2.274969e-001 1.087511e-001 4.754809e-001 1.158426e+000 2.216712e+000 1.351026e+000 5.436246e-001 6.057643e-001 2.428287e-001 4.453640e-001 1.043568e+000 1.080819e+000 5.133827e-002 2.266346e-002 2.124475e-002 7.823034e-002 4.657591e-002 1.497968e-001 1.263249e-001 1.532836e-001 1.449924e-001 1.828175e-001 7.731801e-002 1.645496e-001 7.016882e-002 1.000000e-002
<GCONST> 4.699436e+001
<MIXTURE> 2 5.198238e-001
<MEAN> 39
 -1.819770e+001 -1.207935e+001 -7.297593e+000 -1.159347e+001 -1.086440e+001 -2.036480e+000 -1.040802e+001 -4.668556e-001 4.452576e+000 -1.146377e+001 -7.286813e+000 -2.481740e+000 6.779781e+001 -1.031440e+000 3.151186e-001 -1.061046e+000 2.968056e-001 -3.834748e-001 1.429256e-001 2.760552e-001 8.881108e-001 5.328146e-001 1.103023e+000 -5.683850e-002 8.310039e-001 1.816985e-001 2.699760e-001 5.107681e-001 -1.456626e-001 -5.466159e-002 -4.530893e-001 -3.968735e-001 -5.167534e-001 -1.840720e-001 -6.009784e-002 4.252334e-001 1.211327e-001 2.860815e-001 3.062410e-001
<VARIANCE> 39
 9.486715e+000 5.133435e+000 1.553433e+001 1.506879e+001 1.268846e+001 3.038303e+001 2.318954e+001 1.730698e+001 1.880682e+001 2.447083e+001 1.911540e+001 2.788972e+001 3.978058e+000 3.936127e-001 1.327373e+000 8.309684e-001 1.104902e+000 1.126259e+000 1.295500e+000 1.495395e+000 1.593217e+000 1.379192e+000 2.382163e+000 1.824666e+000 2.051914e+000 2.634677e-001 1.026147e-001 1.196773e-001 1.559877e-001 2.545550e-001 3.306402e-001 4.033303e-001 4.506872e-001 2.481291e-001 2.948356e-001 4.282033e-001 4.487637e-001 3.634420e-001 2.531052e-002
<GCONST> 8.905548e+001
<MIXTURE> 3 5.726872e-002
<MEAN> 39
 -8.541286e+000 -8.722009e+000 -5.199242e+000 -1.950335e+001 -2.405182e+001 -6.808313e+000 -1.045797e+001 8.796969e-001 7.453705e+000 -5.497013e+000 1.415414e+000 -1.428651e-001 7.261761e+001 -1.222635e+000 -5.174455e-001 8.443242e-001 2.258797e+000 2.764267e+000 1.682756e+000 -6.584362e-002 -1.443799e+000 -2.751209e+000 -2.215899e+000 -4.816559e-001 -9.349298e-001 -6.657678e-001 -1.865063e-001 -4.024793e-001 -1.647749e-001 -1.809782e-001 5.199901e-001 4.244993e-001 5.287864e-001 4.407880e-001 1.759232e-001 -5.750635e-001 -7.770188e-001 -2.010156e-001 -9.396839e-002
<VARIANCE> 39
 9.458645e+000 1.751710e+001 5.527109e+000 1.166490e+001 1.416217e+001 3.026092e+001 2.580227e+001 1.046663e+001 4.664269e+001 7.355403e+000 1.212755e+001 1.728314e+001 2.253452e+000 3.380932e-001 7.753351e-001 1.918042e-001 8.772233e-001 1.376261e+000 1.752479e+000 8.898202e-001 3.618538e-001 1.280898e+000 1.611351e+000 1.335183e+000 1.392066e+000 1.487599e-001 1.000000e-002 1.366883e-002 4.326423e-002 1.243505e-001 1.961044e-001 9.890723e-002 1.435046e-001 1.035248e-001 3.189664e-001 2.421255e-001 4.295915e-002 9.645769e-002 1.782273e-002
<GCONST> 6.632400e+001
<MIXTURE> 4 3.480176e-001
<MEAN> 39
