~o
<STREAMINFO> 1 39
<VECSIZE> 39<NULLD><MFCC_D_A_0><DIAGC>
~h "wu_neck"
<BEGINHMM>
<NUMSTATES> 6
<STATE> 2
<NUMMIXES> 4
<MIXTURE> 1 4.184397e-001
<MEAN> 39
 -1.332390e+001 -1.966853e+001 -1.229883e+000 -8.923263e+000 -1.183041e+001 -1.221980e+001 -1.710880e+001 -2.023582e+000 1.676907e+001 5.350661e+000 -9.772926e+000 -4.252180e+000 8.096868e+001 1.285293e-001 9.655016e-002 -8.362251e-002 -2.655429e-001 -3.924638e-001 -9.229341e-002 6.889634e-002 1.074338e-001 -1.087509e-001 -3.853241e-002 -1.218082e-001 -8.559085e-003 8.680859e-002 -1.436817e-002 -5.256128e-003 -1.918934e-002 2.560000e-002 2.748193e-002 -3.778841e-003 2.863260e-002 4.772396e-003 -8.151422e-002 -8.558579e-002 -9.267584e-003 2.643803e-002 -5.612127e-003
<VARIANCE> 39
 3.661285e+000 3.234209e+000 9.530422e+000 3.567204e+001 1.808703e+001 1.256852e+001 1.441647e+001 2.048551e+001 2.571115e+001 1.854826e+001 2.003331e+001 1.199161e+001 2.413420e+000 8.527357e-002 1.614786e-001 4.396773e-001 7.903212e-001 8.550866e-001 7.232516e-001 9.028895e-001 1.190336e+000 1.313561e+000 2.070477e+000 1.129463e+000 1.104198e+000 4.626749e-002 1.472263e-002 2.821619e-002 8.150562e-002 1.509445e-001 1.531638e-001 1.153254e-001 1.842319e-001 2.060746e-001 2.584181e-001 4.206448e-001 2.035778e-001 2.064918e-001 1.000000e-002
<GCONST> 6.653438e+001
<MIXTURE> 2 8.156028e-002
<MEAN> 39
 -1.605328e+001 -2.384851e+001 -6.535487e+000 -8.545220e+000 -1.214537e+001 -9.837626e+000 -1.107335e+001 7.711459e+000 1.059098e+001 -1.091990e+000 2.218816e+000 1.036275e+001 7.895480e+001 1.504437e-001 1.906243e-001 -1.107093e-001 -4.448107e-001 -5.839207e-001 -4.782436e-001 -1.340976e-002 2.674613e-001 2.836797e-001 4.630442e-001 6.824273e-001 4.135518e-001 1.299155e-001 1.341414e-002 1.972911e-002 5.912720e-002 7.819010e-002 5.648420e-002 2.068261e-002 3.869120e-003 -4.938002e-002 -1.624600e-001 -1.333286e-001 -1.138426e-001 -1.072294e-001 -5.277944e-004
<VARIANCE> 39
 1.614056e+000 3.464352e+000 8.573484e+000 1.152875e+001 8.179731e+000 1.027496e+001 9.377543e+000 1.749138e+001 2.039425e+001 1.788145e+001 2.294915e+001 1.075199e+001 1.525739e+000 1.198666e-001 2.244264e-001 8.320279e-001 8.004407e-001 1.031487e+000 9.609159e-001 1.057184e+000 1.017097e+000 2.310735e+000 1.850860e+000 1.526137e+000 1.533427e+000 3.519878e-002 2.080829e-002 4.275444e-002 1.192607e-001 9.536569e-002 1.875858e-001 2.188277e-001 2.172083e-001 1.650005e-001 3.599148e-001 2.720059e-001 1.879321e-001 3.222689e-001 1.000000e-002
<GCONST> 6.659571e+001
<MIXTURE> 3 2.553191e-001
<MEAN> 39
 -1.175744e+001 -1.811466e+001 -1.694360e+000 -7.505169e+000 -9.653618e+000 -1.389823e+001 -1.573284e+001 -1.433073e+000 7.931556e+000 -6.206273e+000 -9.414479e+000 -2.274529e+000 7.853448e+001 9.265550e-001 8.799306e-001 2.906598e-001 -3.985998e-001 -1.231459e+000 -1.164712e+000 -9.262546e-001 -1.810290e-001 3.172389e-001 5.229321e-001 -8.574883e-003 -1.510607e-001 5.095364e-001 -2.279454e-001 -2.786813e-001 -2.591636e-001 -8.834193e-002 2.014419e-001 4.834698e-001 4.875720e-001 3.396770e-001 1.990018e-001 2.548879e-002 5.325452e-003 6.935474e-002 -9.319626e-002
<VARIANCE> 39
 3.214505e+000 8.861858e+000 5.710481e+000 2.038674e+001 1.459581e+001 1.770271e+001 2.943290e+001 2.636627e+001 4.470720e+001 3.329548e+001 2.960162e+001 2.022735e+001 4.724707e+000 2.029067e-001 3.674054e-001 4.627630e-001 7.521143e-001 1.133437e+000 1.478641e+000 1.921751e+000 1.769004e+000 1.742895e+000 1.618790e+000 1.413591e+000 1.412028e+000 4.827249e-002 2.094336e-002 3.412173e-002 5.528502e-002 1.083279e-001 1.683189e-001 1.809752e-001 2.558596e-001 2.767547e-001 2.320107e-001 2.843179e-001 2.488932e-001 2.138205e-001 1.000000e-002
<GCONST> 7.527372e+001
<MIXTURE> 4 2.446809e-001
<MEAN> 39
 -1.576403e+001 -2.257750e+001 -4.359884e+000 -6.550455e+000 -5.124289e+000 -7.538719e+000 -1.014267e+001 1.514655e+000 7.973507e+000 -8.786707e+000 -9.951513e+000 -1.519470e+000 7.674199e+001 7.980344e-001 8.835903e-001 4.591482e-001 -2.834177e-001 -1.004314e+000 -1.594567e+000 -1.488859e+000 -6.888607e-001 -4.591579e-001 -4.339296e-002 6.542084e-002 8.272807e-003 4.059534e-001 1.532875e-001 1.526012e-001 1.001636e-001 -5.963587e-002 -2.442815e-001 -2.431766e-001 -1.666181e-001 7.601377e-002 1.138237e-001 1.761317e-001 8.549460e-002 1.649020e-002 8.193274e-002
<VARIANCE> 39
 3.123890e+000 9.143480e+000 5.323471e+000 2.181146e+001 1.776698e+001 1.751349e+001 3.199169e+001 3.824928e+001 2.931822e+001 2.082890e+001 1.991760e+001 2.047065e+001 3.087730e+000 3.341965e-001 5.911294e-001 5.187534e-001 7.766482e-001 1.016330e+000 1.472060e+000 2.053273e+000 2.086721e+000 1.754937e+000 1.600384e+000 1.472228e+000 1.226469e+000 8.399964e-002 3.637351e-002 5.217218e-002 6.448255e-002 1.350268e-001 1.746530e-001 2.414991e-001 3.100260e-001 3.246350e-001 4.081345e-001 2.851922e-001 2.286428e-001 2.322909e-001 1.000000e-002
<GCONST> 7.849606e+001
<STATE> 3
<NUMMIXES> 4
<MIXTURE> 1 1.884921e-001
<MEAN> 39
 -8.139961e+000 -1.455003e+001 -1.725650e+000 -1.421680e+001 -1.548633e+001 -1.410041e+001 -1.817380e+001 1.784855e+000 1.971822e+001 5.166862e+000 -1.573966e+001 -6.407932e+000 8.401925e+001 4.880388e-002 1.800518e-002 -6.180204e-002 -6.878632e-002 -2.420304e-001 -1.392825e-003 -1.960848e-002 2.356144e-001 7.269356e-003 1.369598e-001 -2.157779e-001 9.376118e-002 1.394908e-001 -2.554911e-002 -2.441377e-002 -2.096130e-002 -3.487016e-003 3.926651e-003 4.076681e-002 2.434979e-002 3.061115e-003 -5.479786e-002 -5.483140e-002 1.020423e-002 2.496229e-002 -7.704637e-003
<VARIANCE> 39
 1.829072e+000 4.316318e+000 3.487620e+000 7.223375e+000 1.068790e+001 2.310338e+001 3.301307e+001 2.261736e+001 1.469839e+001 2.532779e+001 2.488490e+001 2.830653e+001 1.029067e+000 7.210903e-002 1.636644e-001 2.181483e-001 5.625983e-001 5.709800e-001 1.071243e+000 1.386239e+000 1.765670e+000 1.633209e+000 1.110449e+000 1.705418e+000 6.955849e-001 5.190368e-002 1.201475e-002 3.111426e-002 4.165569e-002 1.174354e-001 1.114288e-001 2.326116e-001 2.097777e-001 2.551702e-001 2.717252e-001 2.010991e-001 3.058068e-001 1.098960e-001 1.000000e-002
<GCONST> 6.257706e+001
<MIXTURE> 2 2.093254e-001
<MEAN> 39
 -1.217409e+001 -1.997759e+001 -5.907492e+000 -1.021898e+001 -1.268062e+001 -1.436536e+001 -1.151326e+001 5.508834e+000 6.073047e+000 -5.256414e+000 -1.505822e+000 4.385291e+000 7.900491e+001 1.097948e-001 4.454721e-002 -9.315495e-002 -6.520800e-002 9.568101e-003 -8.818304e-002 -1.259799e-002 1.207251e-001 2.221374e-001 3.115178e-001 3.169554e-001 2.048596e-001 9.249733e-002 -1.494596e-002 1.343407e-002 2.974038e-002 6.076064e-002 4.945841e-002 1.178202e-002 -1.150311e-001 -1.398610e-001 3.255821e-002 9.332439e-002 -5.838188e-002 -3.469959e-002 -5.635349e-003
<VARIANCE> 39
 7.187331e+000 9.164891e+000 6.783193e+000 1.000251e+001 1.404459e+001 9.890750e+000 1.429871e+001 1.946680e+001 1.220948e+001 1.741546e+001 6.700548e+001 5.087103e+001 2.749920e+000 1.375059e-001 2.274333e-001 4.053446e-001 7.045129e-001 9.266857e-001 1.120116e+000 1.233694e+000 1.379983e+000 1.016372e+000 1.707693e+000 1.118558e+000 8.298202e-001 6.053890e-002 2.098091e-002 4.048887e-002 7.838131e-002 1.390365e-001 1.746067e-001 2.052218e-001 2.258398e-001 2.313738e-001 1.697350e-001 2.608707e-001 2.547993e-001 1.654468e-001 1.000000e-002
<GCONST> 6.991428e+001
<MIXTURE> 3 2.817460e-001
<MEAN> 39
 -1.081000e+001 -1.472098e+001 5.843126e-001 -1.136790e+001 -1.101574e+001 -1.324707e+001 -1.880544e+001 -6.462253e+000 1.182336e+001 -5.219841e+000 -9.690503e+000 -4.637365e+000 7.870684e+001 1.809970e-002 -2.114711e-002 -3.990096e-003 -6.773023e-002 -3.566182e-002 -1.453850e-001 -7.362756e-002 -4.111471e-002 3.602025e-002 1.831108e-001 3.538216e-002 2.247774e-001 1.189603e-001 -1.278235e-002 -3.923996e-002 -2.694942e-002 1.045452e-002 1.659001e-002 9.210087e-003 6.065385e-002 7.585129e-002 -9.303553e-003 -1.442841e-002 5.975390e-002 6.021348e-002 8.385127e-005
<VARIANCE> 39
 6.833155e+000 1.810198e+001 1.369074e+001 1.543597e+001 1.794923e+001 1.568347e+001 2.314372e+001 2.172180e+001 1.354109e+001 1.435251e+001 2.258364e+001 1.685327e+001 3.973160e+000 1.072800e-001 2.030051e-001 2.961528e-001 4.890574e-001 7.669408e-001 7.575227e-001 9.747753e-001 1.333249e+000 1.214917e+000 1.181718e+000 1.166524e+000 1.369793e+000 4.073878e-002 1.773201e-002 3.299054e-002 4.878625e-002 8.534960e-002 1.193080e-001 1.294362e-001 1.924321e-001 2.477465e-001 2.685793e-001 2.354025e-001 2.254883e-001 2.573060e-001 1.000000e-002
<GCONST> 6.753699e+001
<MIXTURE> 4 3.204365e-001
<MEAN> 39
 -1.113528e+001 -1.837453e+001 -2.086909e+000 -6.659814e+000 -1.389757e+001 -1.544299e+001 -1.784241e+001 7.623702e-001 3.056987e+000 -7.410938e+000 -7.762270e+000 4.224226e+000 8.016960e+001 1.052643e-001 8.277947e-002 -5.081282e-002 -1.911949e-001 -3.975424e-001 -1.398018e-001 -9.268161e-002 7.059175e-002 6.629516e-002 1.086135e-001 3.723992e-002 8.136722e-002 1.156587e-001 -7.421352e-003 -1.939943e-002 -3.219143e-002 -2.211296e-002 3.649500e-002 3.833715e-002 6.464353e-002 6.871077e-002 1.344326e-001 4.408885e-002 -2.588576e-002 -1.037706e-001 -1.005206e-002
<VARIANCE> 39
 2.324476e+000 4.011304e+000 4.377767e+000 7.397902e+000 2.814198e+001 1.550882e+001 1.845184e+001 1.625327e+001 1.221393e+001 1.861949e+001 2.095424e+001 1.357845e+001 2.982212e+000 6.589906e-002 1.864122e-001 3.449404e-001 3.843288e-001 6.783108e-001 8.157119e-001 1.014488e+000 1.105200e+000 1.245407e+000 8.419291e-001 8.470425e-001 9.906647e-001 3.378137e-002 1.124181e-002 2.942974e-002 5.838562e-002 6.288314e-002 1.169541e-001 1.748416e-001 2.185152e-001 1.729203e-001 1.996850e-001 1.695814e-001 1.362278e-001 1.958974e-001 1.000000e-002
<GCONST> 5.852573e+001
<STATE> 4
<NUMMIXES> 4
<MIXTURE> 1 1.790831e-001
<MEAN> 39
 -9.302986e+000 -1.715587e+001 -5.353321e+000 -1.532396e+001 -1.910560e+001 -1.355491e+001 -1.310264e+001 6.252506e+000 1.666277e+001 4.272863e+000 -1.412508e+001 -3.581781e+000 8.466824e+001 -1.072622e-001 -2.480032e-001 -3.676565e-001 -8.869729e-002 2.360456e-001 7.541842e-001 9.357845e-001 5.147961e-001 -1.427327e-001 -2.145673e-001 -1.014250e-001 -6.006772e-002 8.669538e-002 -9.181239e-002 -6.170524e-002 1.275560e-001 1.634676e-001 2.147681e-001 6.429163e-002 -1.133515e-001 -1.618087e-001 -1.537539e-001 -5.421707e-002 8.711151e-002 4.291708e-002 -7.956420e-002
<VARIANCE> 39
 4.398726e+000 1.092326e+001 1.120674e+001 1.075631e+001 1.817553e+001 2.814557e+001 2.252493e+001 2.171980e+001 3.534614e+001 3.563509e+001 3.437618e+001 1.911537e+001 3.374238e+000 1.507065e-001 2.115643e-001 5.642674e-001 4.903743e-001 1.009348e+000 1.900441e+000 1.623601e+000 1.136322e+000 1.948033e+000 2.228388e+000 1.271748e+000 1.797974e+000 7.428516e-002 3.114082e-002 4.307104e-002 1.148475e-001 1.383646e-001 2.301917e-001 2.492703e-001 2.536465e-001 2.505287e-001 2.678292e-001 4.511315e-001 2.501810e-001 3.719574e-001 1.580511e-002
<GCONST> 7.883740e+001
<MIXTURE> 2 1.762178e-001
<MEAN> 39
 -1.239231e+001 -1.909260e+001 -9.031696e-001 -8.122808e+000 -1.068019e+001 -1.308350e+001 -2.041795e+001 -4.525513e+000 1.259019e+001 2.502943e+000 -1.116348e+001 -2.064853e-001 8.183742e+001 4.583253e-002 -8.559691e-002 -2.306026e-001 -2.000207e-001 -3.351927e-001 4.998441e-002 2.198540e-001 1.043790e-001 1.220165e-001 1.319583e-001 -4.825474e-002 -8.481244e-002 8.131664e-002 -4.801166e-002 -3.734934e-002 -7.199288e-002 -1.009179e-001 -6.582983e-002 -7.478219e-003 2.141711e-001 1.906635e-001 -1.391697e-001 -1.497969e-001 -4.846868e-002 -1.564254e-002 -2.688659e-002
<VARIANCE> 39
 2.776660e+000 2.942711e+000 5.860466e+000 1.322242e+001 2.248678e+001 1.282898e+001 1.159478e+001 1.847992e+001 2.880922e+001 1.728658e+001 1.274363e+001 1.379471e+001 9.813724e-001 1.308580e-001 1.636949e-001 4.850926e-001 9.845026e-001 7.366664e-001 1.050644e+000 1.294051e+000 1.508128e+000 2.306811e+000 1.648702e+000 1.111619e+000 1.041523e+000 4.345279e-002 2.283702e-002 3.195558e-002 7.939331e-002 1.752892e-001 1.289491e-001 1.881209e-001 2.306054e-001 3.025454e-001 4.907611e-001 3.317401e-001 2.156680e-001 1.336240e-001 1.000000e-002
<GCONST> 6.685107e+001
<MIXTURE> 3 2.292264e-001
<MEAN> 39
 -9.883045e+000 -1.826989e+001 -9.348968e+000 -1.791587e+001 -1.547580e+001 -8.523624e+000 -6.146960e+000 7.559739e+000 8.213670e+000 -4.544616e+000 -5.992219e-001 4.557416e+000 8.197974e+001 -7.287189e-002 -1.660272e-001 -3.932689e-001 -1.753345e-001 4.907424e-001 4.452223e-001 5.890295e-001 2.499859e-001 -1.144120e-001 -2.011305e-001 -3.562803e-003 -2.052681e-001 6.541561e-003 -9.469756e-002 -5.072267e-002 9.619544e-002 1.530413e-001 4.815135e-002 -1.256490e-001 -1.859784e-001 -9.003383e-002 1.148763e-001 3.355679e-002 -2.265355e-001 -2.474271e-001 -6.822809e-002
<VARIANCE> 39
 3.399290e+000 5.687899e+000 1.116787e+001 1.352020e+001 2.089045e+001 4.980189e+001 2.503184e+001 6.802928e+001 1.406096e+001 6.753062e+001 5.179052e+001 1.785788e+001 9.140707e+000 2.450068e-001 2.571410e-001 4.373597e-001 5.493680e-001 7.060916e-001 9.198922e-001 1.019773e+000 9.697477e-001 1.366875e+000 1.740188e+000 1.715401e+000 1.552026e+000 5.200787e-002 3.347711e-002 4.737816e-002 7.971316e-002 8.049905e-002 1.224761e-001 1.592259e-001 1.825887e-001 1.794715e-001 2.668349e-001 3.244987e-001 2.674117e-001 2.888559e-001 1.000000e-002
<GCONST> 7.573488e+001
<MIXTURE> 4 4.154728e-001
<MEAN> 39
 -9.568913e+000 -1.738908e+001 -5.496212e+000 -1.045999e+001 -1.702575e+001 -1.680111e+001 -1.362124e+001 6.565141e+000 9.087725e+000 -4.228071e+000 -8.791257e+000 -8.126580e-002 8.070020e+001 -4.327418e-002 1.039890e-002 -1.472118e-001 -2.304070e-001 -1.784341e-001 1.612241e-001 3.239627e-001 5.422471e-001 1.214925e-001 9.667186e-002 6.452132e-003 -1.149060e-001 5.796107e-002 -4.470862e-002 -6.145654e-002 7.454469e-003 2.473959e-002 5.950339e-002 1.011939e-001 6.359847e-002 -2.467976e-002 -7.317752e-002 -5.311272e-002 3.433564e-002 9.114346e-002 -1.550122e-002
<VARIANCE> 39
 2.320115e+000 6.836060e+000 4.586133e+000 7.711840e+000 2.059131e+001 1.041137e+001 2.020374e+001 1.606692e+001 1.552973e+001 1.419553e+001 2.008487e+001 1.608113e+001 2.527597e+000 7.086104e-002 1.915644e-001 3.767359e-001 4.400386e-001 7.915787e-001 8.506384e-001 1.626303e+000 1.499680e+000 1.053292e+000 1.052181e+000 9.072176e-001 1.195049e+000 3.914251e-002 1.039247e-002 2.642367e-002 6.524892e-002 7.259559e-002 1.301866e-001 1.483091e-001 2.499011e-001 2.249437e-001 1.514531e-001 1.893590e-001 1.472484e-001 2.053380e-001 1.000000e-002
<GCONST> 6.056636e+001
<STATE> 5
<NUMMIXES> 4
<MIXTURE> 1 2.955272e-001
<MEAN> 39
 -1.629273e+001 -2.299873e+001 -1.953232e+000 -4.790577e+000 -6.700991e+000 -6.978654e+000 -1.131386e+001 1.719287e+000 1.605730e+001 4.453586e+000 -1.117687e+001 -4.872508e+000 8.024110e+001 -4.201003e-001 -3.793989e-001 7.623139e-002 4.359501e-001 4.579520e-001 4.348672e-001 1.279110e-001 -7.071680e-002 1.257649e-001 5.321346e-001 3.230537e-001 1.212190e-003 -1.586022e-001 1.194027e-001 1.023727e-001 -6.665663e-002 -2.379440e-001 -2.266231e-001 -8.676694e-002 1.050446e-002 -3.644001e-003 -9.073171e-002 -6.569072e-002 1.497707e-002 1.090020e-001 6.249319e-002
<VARIANCE> 39
 3.280856e+000 4.420943e+000 3.978563e+000 2.088128e+001 1.624856e+001 1.552356e+001 2.858485e+001 1.881704e+001 1.885073e+001 2.479677e+001 2.714168e+001 1.776549e+001 2.133271e+000 2.958047e-001 4.649686e-001 4.316461e-001 1.022225e+000 1.462242e+000 1.365659e+000 1.465115e+000 1.723634e+000 1.913959e+000 1.796016e+000 1.679569e+000 1.380344e+000 7.874225e-002 3.495689e-002 6.846379e-002 8.476035e-002 1.832911e-001 3.103012e-001 2.162146e-001 2.800943e-001 2.796758e-001 3.153749e-001 2.883737e-001 3.576243e-001 2.743967e-001 1.236236e-002
<GCONST> 7.746252e+001
<MIXTURE> 2 2.108626e-001
<MEAN> 39
 -1.324663e+001 -2.193364e+001 -8.382692e+000 -1.294731e+001 -1.311558e+001 -9.283756e+000 -5.825613e+000 1.148591e+001 1.203690e+001 -1.066782e+000 -6.672729e+000 -5.619985e-001 8.168085e+001 -8.732502e-001 -5.383853e-001 6.469465e-001 1.661489e+000 1.293916e+000 4.562927e-001 -1.060920e-001 -2.641624e-001 -1.892272e-001 -4.309803e-001 -1.003977e-001 -9.377773e-002 -5.369501e-001 -4.924378e-002 3.977847e-002 9.594027e-002 2.943631e-001 2.273539e-001 1.160570e-001 -1.324329e-001 -3.103240e-001 -2.042133e-001 -6.637809e-002 1.308452e-001 1.403946e-001 -3.184239e-002
<VARIANCE> 39
 2.765245e+000 4.371610e+000 1.295081e+001 1.922272e+001 1.663403e+001 3.489807e+001 2.289927e+001 2.113376e+001 5.211606e+001 3.512367e+001 4.484701e+001 2.508381e+001 3.831038e+000 2.177533e-001 4.691342e-001 5.090174e-001 8.257296e-001 1.595121e+000 1.692927e+000 1.296933e+000 1.819818e+000 1.825778e+000 1.481455e+000 1.772300e+000 1.452898e+000 7.712587e-002 2.911788e-002 7.034142e-002 1.169290e-001 1.710696e-001 1.275145e-001 1.864498e-001 2.564526e-001 2.905557e-001 3.008231e-001 2.948430e-001 2.223028e-001 2.380079e-001 1.170501e-002
<GCONST> 7.994820e+001
<MIXTURE> 3 2.891374e-001
<MEAN> 39
 -1.775466e+001 -2.476626e+001 -5.668277e+000 -3.832716e+000 -3.856891e+000 -4.316604e+000 -5.952713e+000 8.566105e+000 5.117600e+000 -7.911224e+000 -5.318030e+000 2.985048e+000 7.769365e+001 -6.029346e-001 -5.011916e-001 8.431031e-002 7.202743e-001 1.102580e+000 9.602644e-001 4.388427e-001 -6.032428e-002 -3.270093e-001 -7.944201e-002 1.850850e-001 1.796637e-001 -3.031501e-001 1.492630e-001 1.192380e-001 -3.167596e-002 -2.508476e-001 -3.248953e-001 -2.768992e-001 -9.890212e-002 5.574717e-002 1.046575e-001 1.640330e-001 3.909984e-002 -3.953250e-002 6.479572e-002
<VARIANCE> 39
 2.751939e+000 4.917580e+000 6.507815e+000 8.124327e+000 1.555774e+001 1.433864e+001 1.383953e+001 1.620901e+001 2.408393e+001 2.311372e+001 3.028305e+001 2.310813e+001 2.016258e+000 2.727229e-001 4.203438e-001 5.128992e-001 9.950246e-001 1.308398e+000 1.661319e+000 1.801737e+000 1.655741e+000 1.661260e+000 1.945026e+000 1.377152e+000 1.472146e+000 8.409853e-002 3.878843e-002 6.177530e-002 7.492574e-002 1.441590e-001 1.605236e-001 2.105646e-001 3.011453e-001 2.968870e-001 2.998128e-001 3.595973e-001 2.207489e-001 2.217691e-001 1.392526e-002
<GCONST> 7.519730e+001
<MIXTURE> 4 2.044728e-001
<MEAN> 39
 -1.139677e+001 -1.764943e+001 -3.493526e+000 -1.007912e+001 -1.372431e+001 -1.215387e+001 -1.423066e+001 1.267422e+000 7.892835e+000 -5.285871e+000 -1.145776e+001 -1.745839e+000 8.032185e+001 -9.687082e-001 -9.847265e-001 1.092040e-001 9.025345e-001 1.407352e+000 1.251617e+000 7.397224e-001 2.210471e-001 2.351359e-001 1.246592e-001 -4.811132e-002 4.645677e-002 -4.819123e-001 -1.642510e-001 -1.702792e-001 -5.349285e-003 2.299315e-001 3.653308e-001 3.724916e-001 2.852294e-001 2.129501e-001 2.036338e-001 1.682767e-001 1.752901e-001 7.152815e-002 -5.829444e-002
<VARIANCE> 39
 6.103067e+000 1.225168e+001 1.221461e+001 2.931931e+001 4.187011e+001 3.700455e+001 3.904965e+001 5.587143e+001 2.736239e+001 4.091847e+001 3.162004e+001 2.860386e+001 8.593877e+000 2.506377e-001 3.785153e-001 6.382636e-001 1.199679e+000 1.448931e+000 2.045906e+000 2.349838e+000 1.505463e+000 1.877975e+000 1.749966e+000 1.230856e+000 1.473718e+000 9.761436e-002 3.597099e-002 3.757080e-002 9.447185e-002 1.649247e-001 2.243726e-001 3.179153e-001 3.419442e-001 2.751766e-001 4.236008e-001 3.303089e-001 2.184198e-001 2.711826e-001 1.206678e-002
<GCONST> 8.708920e+001
<TRANSP> 6
 0.000000e+000 1.000000e+000 0.000000e+000 0.000000e+000 0.000000e+000 0.000000e+000
 0.000000e+000 8.936170e-001 1.063830e-001 0.000000e+000 0.000000e+000 0.000000e+000
 0.000000e+000 0.000000e+000 9.404762e-001 5.952381e-002 0.000000e+000 0.000000e+000
 0.000000e+000 0.000000e+000 0.000000e+000 9.140401e-001 8.595988e-002 0.000000e+000
 0.000000e+000 0.000000e+000 0.000000e+000 0.000000e+000 9.041533e-001 9.584665e-002
 0.000000e+000 0.000000e+000 0.000000e+000 0.000000e+000 0.000000e+000 0.000000e+000
<ENDHMM>
