~o
<STREAMINFO> 1 39
<VECSIZE> 39<NULLD><MFCC_D_A_0><DIAGC>
~h "yi_arm_l"
<BEGINHMM>
<NUMSTATES> 6
<STATE> 2
<NUMMIXES> 4
<MIXTURE> 1 1.495652e-001
<MEAN> 39
 -1.238784e+001 -8.463656e+000 3.053258e-001 -1.272575e+001 -1.205130e+001 2.430339e-001 -5.905103e+000 -1.666823e+000 2.336949e+000 -1.936634e+001 -1.306574e+001 -7.114815e+000 7.578048e+001 3.151575e-001 9.605295e-001 9.461876e-001 3.876126e-001 -4.102561e-001 -3.405611e-001 -2.998030e-001 -8.872331e-001 -6.323292e-001 -4.925819e-001 -6.518230e-001 -9.265624e-002 5.315105e-001 -9.310126e-002 -9.745957e-002 -7.815523e-002 -1.613057e-001 -2.049483e-001 -1.112839e-001 -4.845054e-002 -1.008118e-001 1.050532e-001 2.676151e-001 3.072726e-001 2.775981e-001 -1.532943e-002
<VARIANCE> 39
 6.591166e+000 1.153111e+001 2.360789e+001 1.650730e+001 1.418857e+001 4.311083e+001 2.666138e+001 1.956675e+001 1.498865e+001 1.577467e+001 1.271744e+001 2.693740e+001 4.021459e+000 2.223701e-001 2.385639e-001 7.063020e-001 7.729339e-001 1.160053e+000 1.283815e+000 1.132919e+000 1.132135e+000 1.543689e+000 1.414531e+000 1.476957e+000 1.068526e+000 8.864099e-002 2.858422e-002 3.650853e-002 6.642671e-002 5.866190e-002 1.216493e-001 1.706558e-001 2.254533e-001 2.251617e-001 1.905493e-001 1.648462e-001 2.469865e-001 1.766769e-001 1.000000e-002
<GCONST> 7.279431e+001
<MIXTURE> 2 3.200000e-001
<MEAN> 39
 -1.545418e+001 -3.945343e+000 -7.534099e-001 -1.686641e+001 -1.612887e+001 -8.612039e+000 -1.876107e+001 -2.453503e+000 -7.740805e+000 -9.313052e+000 -1.277931e+001 -1.052494e+000 7.488825e+001 1.999724e-001 1.344547e+000 8.406511e-001 -2.261016e-001 -3.768620e-001 -7.614992e-001 -1.135410e+000 4.232984e-002 -1.170411e+000 4.052848e-001 -8.532262e-001 -4.656671e-001 7.457143e-001 -8.677702e-002 -1.591539e-001 -3.624188e-002 1.398211e-003 4.222032e-002 1.788562e-001 2.626593e-001 1.919370e-001 2.448290e-001 5.142055e-002 1.982581e-001 -2.326653e-002 -4.594744e-002
<VARIANCE> 39
 6.238941e+000 2.928182e+001 1.532399e+001 2.679731e+001 2.092067e+001 3.774338e+001 3.123353e+001 2.530064e+001 3.334132e+001 4.619428e+001 4.014249e+001 1.949265e+001 1.039151e+001 3.919730e-001 1.120405e+000 9.556620e-001 1.042525e+000 1.519579e+000 1.995482e+000 2.498313e+000 2.247632e+000 2.122351e+000 1.894494e+000 2.831755e+000 1.461177e+000 2.285316e-001 5.153341e-002 1.601659e-001 1.229163e-001 1.283300e-001 2.337856e-001 3.051618e-001 3.842052e-001 3.724400e-001 3.166833e-001 3.391630e-001 3.113622e-001 2.819607e-001 2.965992e-002
<GCONST> 9.422059e+001
<MIXTURE> 3 3.165217e-001
<MEAN> 39
 -1.462955e+001 -1.386758e+001 -5.879759e+000 -1.798843e+001 -1.325359e+001 -2.221116e+000 -7.132514e+000 -3.286071e-002 4.984561e+000 -1.386912e+001 -6.034550e+000 -3.157609e+000 7.380573e+001 2.087042e-001 3.991025e-001 2.378106e-001 7.504900e-003 -1.332191e-001 -3.966897e-001 -5.203792e-001 -3.542918e-001 -4.386384e-001 -1.066480e-001 -4.713556e-001 -4.515112e-002 2.524663e-001 4.622293e-002 9.466118e-002 6.902042e-002 2.431420e-002 -5.302200e-002 -3.505836e-002 -5.219771e-002 -1.128078e-001 -1.822352e-001 -8.197485e-002 -1.528606e-001 -6.902418e-002 4.933016e-002
<VARIANCE> 39
 3.820809e+000 5.000420e+000 5.478578e+000 9.200604e+000 9.941545e+000 2.047585e+001 2.476632e+001 2.107195e+001 1.864697e+001 1.462122e+001 1.788451e+001 2.121216e+001 2.958344e+000 1.405883e-001 3.671902e-001 5.126776e-001 7.929518e-001 7.581474e-001 1.067310e+000 1.250010e+000 1.638260e+000 2.081255e+000 1.591688e+000 1.989855e+000 1.959478e+000 7.279777e-002 2.273017e-002 6.281628e-002 7.984345e-002 1.062480e-001 1.558070e-001 2.159975e-001 2.088901e-001 2.509484e-001 3.197679e-001 3.353426e-001 2.959815e-001 2.698517e-001 1.305208e-002
<GCONST> 7.257132e+001
<MIXTURE> 4 2.139130e-001
<MEAN> 39
 -1.612156e+001 -7.784831e+000 -4.105113e-001 -1.167811e+001 -1.886958e+001 -2.671965e+000 -8.768099e+000 -1.016487e+001 -3.899878e-001 -1.217615e+001 -5.712717e+000 -4.096846e+000 7.416913e+001 -2.082263e-001 5.435831e-001 4.138084e-001 2.832467e-001 -6.960986e-001 -1.076909e-001 2.918407e-001 -7.452771e-001 -1.048748e-001 2.902334e-001 -3.776294e-002 -8.879446e-003 3.776262e-001 -4.594970e-002 -8.000397e-002 -3.825059e-002 -1.746889e-002 1.588370e-002 5.232671e-002 1.208912e-001 1.297628e-001 1.054287e-001 7.529800e-002 -1.286912e-003 -5.127086e-002 -1.882913e-002
<VARIANCE> 39
 1.121296e+001 6.205689e+000 1.116221e+001 1.132418e+001 1.732354e+001 3.493164e+001 2.382046e+001 2.286540e+001 3.018899e+001 2.534564e+001 1.801937e+001 2.235443e+001 8.980873e+000 1.433866e-001 4.220427e-001 4.370680e-001 5.856713e-001 9.401674e-001 9.787831e-001 1.340738e+000 1.567373e+000 1.490182e+000 1.707055e+000 1.425668e+000 1.544474e+000 1.151687e-001 1.675950e-002 4.171629e-002 8.494678e-002 1.022178e-001 1.504059e-001 1.078363e-001 1.877136e-001 2.380114e-001 2.264060e-001 2.673418e-001 2.078460e-001 2.958267e-001 1.000000e-002
<GCONST> 7.491146e+001
<STATE> 3
<NUMMIXES> 4
<MIXTURE> 1 2.873275e-001
<MEAN> 39
 -1.568580e+001 -6.055093e+000 5.876218e+000 -9.130685e+000 -2.704784e+001 -5.500009e+000 -1.055145e+000 -1.432884e+001 3.286063e+000 -7.661995e+000 -7.586686e+000 -6.007648e+000 8.028079e+001 -1.372389e-002 -7.923942e-002 8.141758e-002 8.259384e-002 -4.459343e-001 -9.455635e-002 1.517614e-001 -1.560482e-001 -3.080103e-002 4.354240e-001 1.175442e-001 5.569203e-002 1.255689e-001 2.277992e-002 -2.975975e-002 -7.066962e-002 -4.473671e-002 9.125447e-002 2.265996e-002 -4.974563e-002 9.313865e-002 -5.243697e-002 -4.427879e-002 9.858588e-003 3.005031e-002 -4.150304e-002
<VARIANCE> 39
 1.645765e+001 5.694790e+000 1.789803e+001 1.393337e+001 1.634344e+001 2.967197e+001 8.816401e+001 2.462870e+001 2.713091e+001 8.333027e+001 4.261916e+001 1.702247e+001 7.545463e+000 8.161307e-002 2.545573e-001 6.451166e-001 6.249363e-001 7.188947e-001 7.605452e-001 1.210060e+000 1.286934e+000 1.157827e+000 1.387498e+000 1.248691e+000 1.122285e+000 8.370966e-002 1.656382e-002 4.433971e-002 1.111972e-001 1.189507e-001 1.198300e-001 1.269660e-001 1.931772e-001 1.973120e-001 2.115857e-001 2.257658e-001 2.405734e-001 2.178248e-001 1.000000e-002
<GCONST> 7.573291e+001
<MIXTURE> 2 4.127980e-001
<MEAN> 39
 -1.684824e+001 -4.264512e-002 1.456474e+000 -2.279907e+001 -1.468642e+001 -1.281365e+001 -2.084015e+001 6.847343e-001 -1.125595e+001 -3.689360e+000 -1.710558e+001 -2.200651e+000 7.909501e+001 4.766569e-002 -1.235452e-001 3.640234e-003 6.119628e-003 -1.767345e-001 9.368207e-002 8.928496e-002 -5.346701e-002 5.633590e-002 1.547149e-001 -6.836441e-003 -1.414560e-001 4.311433e-002 1.488073e-002 -4.827316e-002 -2.260787e-002 3.968199e-002 -3.069500e-002 3.377744e-002 6.385118e-002 -3.827821e-002 5.991540e-002 -1.652237e-002 2.977822e-002 3.225720e-003 -2.073392e-002
<VARIANCE> 39
 9.181724e+000 2.332144e+001 1.550638e+001 2.090021e+001 4.060762e+001 3.590900e+001 2.813109e+001 2.223085e+001 1.728593e+001 3.108514e+001 2.870623e+001 1.880838e+001 8.756630e+000 1.171935e-001 2.702056e-001 4.119923e-001 6.684333e-001 7.660956e-001 8.301954e-001 1.058083e+000 1.057585e+000 9.986739e-001 1.123755e+000 8.954311e-001 7.506418e-001 7.873024e-002 1.571606e-002 4.498663e-002 7.540960e-002 1.224964e-001 1.169197e-001 1.784876e-001 1.664222e-001 1.859243e-001 1.669230e-001 1.957701e-001 1.726962e-001 1.324452e-001 1.000000e-002
<GCONST> 7.230202e+001
<MIXTURE> 3 1.907152e-001
<MEAN> 39
 -1.246424e+001 -3.136916e+000 2.276197e+000 -1.002973e+001 -1.520697e+001 -7.785638e-001 -1.131223e+001 -5.955446e+000 2.807610e+000 -2.115420e+001 -9.389276e+000 -1.007837e+000 7.690762e+001 6.979971e-002 4.906964e-002 -1.984104e-002 -1.866519e-003 -1.392474e-001 -2.881038e-001 -8.122761e-002 -1.704788e-001 -1.008276e-001 1.716773e-002 1.164876e-001 6.667817e-002 2.685061e-002 -9.830091e-003 -5.615658e-002 -3.556768e-002 -2.165704e-002 4.088622e-002 2.677133e-003 4.955872e-002 3.632751e-002 6.033900e-003 3.802282e-002 -2.566259e-002 -4.500374e-002 -3.231989e-002
<VARIANCE> 39
 1.386372e+001 1.126938e+001 1.967931e+001 1.518894e+001 4.315867e+001 6.212217e+001 1.292402e+001 2.527771e+001 2.511979e+001 1.735029e+001 1.881755e+001 1.156859e+001 3.352289e+000 5.320276e-002 2.006258e-001 4.021919e-001 4.248270e-001 5.931828e-001 9.363565e-001 7.484897e-001 1.035002e+000 1.012743e+000 1.277605e+000 1.172876e+000 7.860091e-001 3.557578e-002 1.465119e-002 2.657303e-002 6.008785e-002 8.193482e-002 1.101110e-001 1.609748e-001 1.623081e-001 1.845905e-001 1.900849e-001 2.375010e-001 2.095871e-001 1.395925e-001 1.000000e-002
<GCONST> 6.653156e+001
<MIXTURE> 4 1.091594e-001
<MEAN> 39
 -1.655586e+001 -5.553824e+000 1.355735e+001 -8.861277e+000 -3.076697e+001 -3.246909e+000 -1.784616e+001 3.818236e+000 -5.696260e+000 -1.535455e+001 5.658666e+000 -1.057596e+001 7.974411e+001 -5.427773e-002 -1.026483e-001 1.054436e-001 -1.170445e-001 -3.712121e-001 -1.951503e-001 1.007470e-001 1.271822e-001 1.400867e-001 4.874697e-001 2.337904e-001 -1.894319e-001 2.075324e-001 2.632894e-002 -2.444999e-002 -9.077646e-002 -4.183386e-002 4.580648e-002 -4.109703e-002 1.752299e-003 -2.901788e-002 8.315017e-003 6.671078e-002 -9.777025e-003 6.468391e-002 -2.818725e-002
<VARIANCE> 39
 2.285992e+000 5.799637e+000 3.898408e+000 1.006389e+001 1.112685e+001 9.243437e+000 1.030887e+001 1.823463e+001 1.757336e+001 2.475365e+001 1.472149e+001 1.662822e+001 1.760141e+000 1.563213e-001 2.707362e-001 4.506518e-001 4.978334e-001 6.054592e-001 1.232944e+000 1.115170e+000 1.185549e+000 1.207569e+000 1.176611e+000 1.157592e+000 1.307154e+000 8.196118e-002 2.191618e-002 4.074747e-002 6.224908e-002 8.455976e-002 1.292896e-001 2.133561e-001 2.107346e-001 2.321397e-001 2.527087e-001 2.071421e-001 2.259261e-001 2.593583e-001 1.104270e-002
<GCONST> 6.436703e+001
<STATE> 4
<NUMMIXES> 4
<MIXTURE> 1 1.467780e-001
<MEAN> 39
 -1.507978e+001 -7.691796e+000 1.377247e+000 -1.175850e+001 -2.782621e+001 -7.351016e+000 -5.894845e+000 -7.146508e+000 2.801722e+000 -9.473530e-001 -5.231927e+000 -9.011350e-001 7.908136e+001 3.094527e-001 -2.325839e-001 -3.623415e-001 -2.772504e-001 3.364753e-001 6.404062e-002 -2.093834e-002 8.455909e-001 4.624759e-001 5.419500e-001 5.389712e-001 3.338789e-001 -2.444063e-001 8.931021e-003 -1.241402e-002 -8.863200e-003 -4.563512e-002 2.812463e-001 6.246380e-003 -1.476083e-001 8.917797e-002 1.989318e-002 -1.907666e-001 3.585033e-002 6.080504e-002 -6.494324e-002
<VARIANCE> 39
 1.514412e+001 1.078345e+001 1.858799e+001 2.875948e+001 3.494044e+001 3.844593e+001 5.153581e+001 4.418207e+001 4.056598e+001 8.148715e+001 7.397896e+001 3.743918e+001 1.107003e+001 2.799921e-001 5.243532e-001 6.789268e-001 7.287125e-001 1.364927e+000 1.686874e+000 1.827762e+000 1.891072e+000 2.184146e+000 2.527167e+000 2.186267e+000 1.548473e+000 1.358115e-001 3.987641e-002 8.768436e-002 1.116343e-001 1.080837e-001 1.536683e-001 2.195901e-001 3.241847e-001 3.133189e-001 3.331228e-001 4.247695e-001 3.040805e-001 2.504569e-001 1.000000e-002
<GCONST> 9.192032e+001
<MIXTURE> 2 6.885442e-001
<MEAN> 39
 -1.220903e+001 -8.227799e+000 -2.707715e+000 -1.734698e+001 -1.489148e+001 -7.834405e+000 -1.492405e+001 -6.293199e+000 -3.287046e+000 -1.620130e+001 -1.369406e+001 -5.712213e+000 7.492187e+001 -3.149929e-002 -1.326063e-001 -1.273046e-002 6.711671e-002 3.824500e-003 8.980660e-002 8.353637e-003 -3.095417e-002 1.468299e-001 -6.398905e-002 1.098355e-001 -5.880772e-002 -7.459539e-002 -1.628797e-002 -3.303496e-002 -9.664472e-003 1.490642e-002 1.805820e-002 2.025958e-002 1.437089e-002 3.600298e-002 4.004034e-002 2.019784e-002 4.513869e-002 1.733777e-002 -1.078289e-002
<VARIANCE> 39
 1.676220e+000 1.728342e+001 7.808558e+000 1.946512e+001 1.533389e+001 2.160623e+001 1.900944e+001 2.926238e+001 3.594536e+001 2.562501e+001 2.856832e+001 2.022153e+001 3.522760e+000 7.452024e-002 2.021357e-001 3.572874e-001 5.336077e-001 7.088644e-001 8.700766e-001 8.663868e-001 1.044289e+000 9.314967e-001 1.141033e+000 1.033807e+000 1.056428e+000 4.859857e-002 1.162500e-002 3.074462e-002 5.672304e-002 9.512496e-002 1.172245e-001 1.356651e-001 1.466723e-001 1.769294e-001 1.629481e-001 2.012992e-001 1.779518e-001 1.801396e-001 1.000000e-002
<GCONST> 6.490999e+001
<MIXTURE> 3 1.038186e-001
<MEAN> 39
 -1.375136e+001 -2.864225e+000 3.671266e+000 -1.924108e+001 -2.546686e+001 -8.098120e+000 -1.538891e+001 1.114298e+000 -6.071606e+000 8.500476e+000 -1.547937e+001 -8.830165e+000 8.093999e+001 2.984345e-001 -2.141635e-001 -8.257000e-002 6.947604e-002 -3.303543e-001 -2.158972e-001 1.246113e+000 5.721353e-001 5.170906e-001 7.674812e-001 5.941308e-001 -3.013841e-001 3.982401e-002 1.043248e-001 7.710390e-003 -1.248420e-001 4.495407e-002 6.112309e-002 5.112095e-002 5.557792e-002 8.372744e-002 1.069722e-001 -2.872128e-001 8.361859e-002 1.234839e-001 -6.635933e-002
<VARIANCE> 39
 7.944006e+000 1.110912e+001 9.577969e+000 2.101916e+001 1.622931e+001 2.766994e+001 4.019938e+001 3.448895e+001 3.356708e+001 3.561906e+001 4.407128e+001 1.794741e+001 9.768344e+000 2.576890e-001 1.511432e-001 4.292326e-001 5.892947e-001 9.393343e-001 8.601642e-001 1.711259e+000 9.581816e-001 1.691949e+000 1.938009e+000 1.424423e+000 9.112387e-001 7.964460e-002 2.732714e-002 2.805076e-002 8.795258e-002 1.051663e-001 1.688220e-001 1.364256e-001 2.644952e-001 1.775142e-001 2.627967e-001 3.622575e-001 1.990607e-001 1.212649e-001 2.078927e-002
<GCONST> 7.678680e+001
<MIXTURE> 4 6.085919e-002
<MEAN> 39
 -1.954494e+001 3.125653e+000 9.953559e+000 -1.536726e+001 -2.567949e+001 -6.354406e-001 -2.952486e+001 2.657465e+000 -1.985125e+001 2.201200e+000 -7.352210e-001 -6.810410e+000 8.122675e+001 1.070031e-001 -9.727534e-002 2.786228e-001 -2.163141e-003 -4.943845e-001 -1.805764e-001 1.347083e-001 -3.108074e-001 1.473832e-001 8.570384e-001 1.132255e-001 -1.044184e-001 2.338408e-001 9.516668e-002 -8.150344e-002 -1.209172e-001 3.577600e-002 5.677520e-002 -7.701268e-002 9.498560e-002 -2.134214e-002 1.471064e-001 -1.343963e-001 -7.460333e-002 1.110079e-001 -9.101354e-002
<VARIANCE> 39
 2.299480e+000 4.954976e+000 5.289628e+000 7.101839e+000 2.527549e+001 5.614491e+000 9.637810e+000 9.353174e+000 1.445245e+001 2.600979e+001 6.939833e+000 1.588515e+001 4.937145e+000 1.507273e-001 2.017497e-001 4.277826e-001 5.106189e-001 4.416947e-001 8.747090e-001 9.896860e-001 1.095795e+000 8.197654e-001 7.318082e-001 6.789091e-001 9.833549e-001 1.684070e-001 3.234424e-002 3.369022e-002 5.399305e-002 8.413973e-002 7.711809e-002 1.354371e-001 2.131866e-001 2.429019e-001 1.440302e-001 1.771607e-001 1.357715e-001 1.569581e-001 1.285073e-002
<GCONST> 5.923146e+001
<STATE> 5
<NUMMIXES> 4
<MIXTURE> 1 1.310345e-001
<MEAN> 39
 -1.136899e+001 -7.756982e+000 -3.067964e+000 -2.004597e+001 -2.338425e+001 -7.777363e+000 -6.027986e+000 7.891574e+000 3.428553e+000 -6.653763e-001 -7.093044e+000 -6.488608e+000 7.715537e+001 -4.129626e-001 -8.482637e-001 -8.872678e-001 4.798323e-001 1.239119e+000 8.786132e-001 -3.437460e-001 -8.188378e-001 -2.643296e-001 -2.279815e+000 -1.958341e-001 2.846211e-001 -1.037765e+000 -3.176142e-001 -1.640365e-001 2.675388e-001 2.066916e-001 2.068737e-001 1.393310e-002 -4.454173e-001 -6.243756e-001 -4.329271e-001 -1.478605e-001 8.053733e-002 8.904621e-002 -7.782138e-002
<VARIANCE> 39
 5.663721e+000 1.905167e+001 1.345334e+001 1.271085e+001 2.020847e+001 3.316647e+001 3.754613e+001 2.707138e+001 4.072007e+001 4.568871e+001 5.359365e+001 3.040834e+001 7.225716e+000 7.077124e-001 5.064058e-001 9.754022e-001 7.905428e-001 1.930672e+000 2.373581e+000 3.309530e+000 2.896584e+000 3.027656e+000 2.683805e+000 1.770875e+000 2.159408e+000 3.157450e-001 7.222935e-002 7.697383e-002 9.416418e-002 1.667303e-001 1.692173e-001 2.956281e-001 4.526621e-001 1.862763e-001 3.545232e-001 3.853045e-001 4.094810e-001 2.726297e-001 2.159186e-002
<GCONST> 9.378092e+001
<MIXTURE> 2 2.879310e-001
<MEAN> 39
 -1.463739e+001 -9.711266e+000 -1.011788e+000 -1.203252e+001 -1.449726e+001 -4.182100e+000 -1.208454e+001 -6.263407e+000 -3.171898e+000 -1.635778e+001 -9.880821e+000 -4.794016e+000 7.194231e+001 -5.700456e-001 -1.289811e+000 -7.520736e-001 -7.720979e-002 9.847366e-001 1.044755e+000 5.023388e-001 8.431846e-001 7.959944e-001 -2.011454e-001 9.326616e-001 4.086816e-001 -6.791317e-001 -7.848146e-002 -4.070522e-002 -1.478581e-001 -1.350963e-001 -2.056335e-001 3.251590e-002 3.451876e-001 3.059202e-001 3.722925e-001 5.331300e-001 1.615635e-001 1.227279e-001 4.517710e-002
<VARIANCE> 39
 6.926221e+000 1.072034e+001 9.169206e+000 1.640241e+001 1.758129e+001 2.900864e+001 3.490256e+001 1.984263e+001 2.136267e+001 2.923109e+001 2.440515e+001 2.625442e+001 9.180042e+000 3.870629e-001 5.197923e-001 8.251777e-001 1.245662e+000 1.353917e+000 1.442583e+000 3.130770e+000 2.676767e+000 2.772537e+000 3.362721e+000 1.921788e+000 1.301399e+000 1.364671e-001 4.147492e-002 7.032377e-002 9.960689e-002 1.245202e-001 2.647402e-001 2.061102e-001 2.968240e-001 3.672310e-001 3.749005e-001 3.199395e-001 2.781089e-001 2.293553e-001 1.316391e-002
<GCONST> 8.671114e+001
<MIXTURE> 3 4.534483e-001
<MEAN> 39
 -1.552386e+001 -1.532744e+001 -5.606402e+000 -1.602928e+001 -1.345464e+001 -1.528589e+000 -8.073834e+000 -9.792609e-002 5.232689e+000 -1.175264e+001 -4.822288e+000 -3.428123e+000 7.227715e+001 -2.865431e-001 -5.030154e-001 -3.151606e-001 -2.845530e-002 4.442487e-001 2.596615e-001 2.791199e-001 3.547705e-001 4.311816e-001 2.720083e-001 3.641785e-001 1.136950e-001 -3.145324e-001 9.922988e-002 1.901768e-001 1.433773e-001 3.545405e-002 -1.436941e-001 -1.474918e-001 -1.223962e-001 -1.839391e-001 -1.856472e-001 -5.102758e-002 -1.501129e-001 -6.419967e-002 8.015491e-002
<VARIANCE> 39
 6.885367e+000 4.146735e+000 7.682828e+000 1.309153e+001 1.248803e+001 1.601911e+001 1.361912e+001 1.564719e+001 1.898284e+001 3.142776e+001 1.770433e+001 1.888123e+001 9.385579e+000 1.959300e-001 4.654803e-001 5.827146e-001 7.520974e-001 1.057329e+000 1.181231e+000 1.265942e+000 2.035884e+000 2.055912e+000 2.477597e+000 2.126522e+000 1.137889e+000 1.270099e-001 3.742087e-002 6.985744e-002 7.589024e-002 1.163956e-001 1.707657e-001 2.221058e-001 2.383890e-001 2.939518e-001 3.322228e-001 4.162470e-001 3.079047e-001 1.933873e-001 1.546895e-002
<GCONST> 7.756549e+001
<MIXTURE> 4 1.275862e-001
<MEAN> 39
 -1.221650e+001 -6.486588e+000 4.738895e+000 -1.380839e+001 -2.837844e+001 -1.038294e+001 -1.359578e+001 -1.330798e+000 -4.042023e-001 2.149346e+000 5.144168e-002 -2.228735e+000 8.000299e+001 2.604276e-001 -6.713485e-001 -1.260422e+000 -2.567884e-001 1.651605e+000 9.753934e-002 4.683877e-001 5.196232e-001 8.695212e-001 -1.815411e+000 -7.175460e-001 2.374914e-002 -9.222066e-001 -2.112482e-001 -2.719045e-001 -2.202031e-001 -7.457127e-002 4.010452e-001 5.051079e-001 2.717671e-001 1.561640e-001 2.851948e-002 -3.586904e-001 -2.940608e-001 -3.291581e-001 -1.635819e-001
<VARIANCE> 39
 6.216853e+000 1.254345e+001 1.505055e+001 1.873484e+001 3.115504e+001 3.895291e+001 6.415039e+001 6.717699e+001 9.539540e+001 6.325209e+001 5.793436e+001 5.553638e+001 1.443127e+001 7.959781e-001 6.153174e-001 7.272828e-001 7.301635e-001 2.772040e+000 3.469485e+000 2.885959e+000 2.108875e+000 1.944247e+000 3.065521e+000 1.341788e+000 2.862151e+000 3.906352e-001 1.266516e-001 4.824665e-002 7.382324e-002 1.262275e-001 3.608266e-001 3.980210e-001 2.973678e-001 2.655640e-001 2.255914e-001 5.555786e-001 2.648522e-001 4.098916e-001 3.571021e-002
<GCONST> 9.962750e+001
<TRANSP> 6
 0.000000e+000 1.000000e+000 0.000000e+000 0.000000e+000 0.000000e+000 0.000000e+000
 0.000000e+000 8.956522e-001 1.043478e-001 0.000000e+000 0.000000e+000 0.000000e+000
 0.000000e+000 0.000000e+000 9.247177e-001 7.528231e-002 0.000000e+000 0.000000e+000
 0.000000e+000 0.000000e+000 0.000000e+000 9.284009e-001 7.159905e-002 0.000000e+000
 0.000000e+000 0.000000e+000 0.000000e+000 0.000000e+000 8.965517e-001 1.034483e-001
 0.000000e+000 0.000000e+000 0.000000e+000 0.000000e+000 0.000000e+000 0.000000e+000
<ENDHMM>
