~o
<STREAMINFO> 1 39
<VECSIZE> 39<NULLD><MFCC_D_A_0><DIAGC>
~h "wenjiqiwu"
<BEGINHMM>
<NUMSTATES> 24
<STATE> 2
<NUMMIXES> 4
<MIXTURE> 1 8.823530e-002
<MEAN> 39
 -5.519556e+000 -8.000452e+000 -8.341676e+000 -2.181824e+001 -2.130338e+001 -1.123905e+001 -1.311468e+001 7.212044e+000 1.751208e+001 3.662885e-001 -6.071270e+000 -4.169015e+000 7.487637e+001 7.566908e-001 2.715403e-001 -1.507515e+000 -8.332838e-001 -5.912492e-001 2.676849e-001 1.881952e+000 2.824522e+000 1.616670e+000 5.280679e-001 -2.154771e+000 -2.970482e-001 9.652669e-001 -5.866969e-001 -3.718143e-001 4.264065e-001 6.857998e-001 5.260526e-001 1.604211e-001 4.129469e-001 -3.374351e-001 -1.186895e+000 -1.128285e+000 -2.151491e-001 4.302638e-001 -3.208648e-001
<VARIANCE> 39
 2.308022e+000 4.332008e+000 1.282554e+001 8.854725e+000 1.206593e+001 2.873190e+001 9.245865e+000 2.093755e+001 6.137025e+001 1.860862e+001 2.822327e+001 1.022706e+001 3.580026e+000 5.238270e-001 3.767875e-001 7.793422e-001 7.924446e-001 1.606243e+000 2.669893e+000 2.602157e+000 1.885612e+000 4.621154e+000 1.851295e+000 2.127331e+000 1.489832e+000 1.824473e-001 3.083631e-002 4.120838e-002 1.827222e-001 5.820303e-002 2.811018e-001 4.584236e-001 4.617206e-001 4.435242e-001 2.518731e-001 2.328227e-001 4.130605e-001 3.932304e-001 1.865864e-002
<GCONST> 8.286607e+001
<MIXTURE> 2 3.750000e-001
<MEAN> 39
 -1.324079e+001 -1.347528e+001 -9.085210e-001 -1.295214e+001 -9.826307e+000 -2.979766e+000 -1.095393e+001 -2.521063e+000 3.472120e+000 -1.582419e+001 -4.808825e+000 -3.152145e+000 6.959099e+001 1.346716e+000 1.251617e+000 4.563756e-001 -1.618765e-001 -9.784768e-001 -1.226601e+000 -1.202195e+000 -4.684558e-001 -2.423892e-001 4.047228e-001 1.553244e-001 7.093938e-002 7.806242e-001 2.243361e-001 1.642259e-001 -6.408975e-002 -2.264287e-001 -2.959301e-001 -2.305431e-001 6.109700e-002 1.914453e-001 3.195398e-001 3.931204e-001 1.850037e-001 1.381778e-001 1.300712e-001
<VARIANCE> 39
 8.357101e+000 1.147328e+001 1.192866e+001 1.206912e+001 1.099114e+001 1.943072e+001 2.698566e+001 2.575886e+001 3.357627e+001 2.718806e+001 2.643925e+001 2.866816e+001 7.013231e+000 3.826904e-001 7.072244e-001 6.340852e-001 1.221425e+000 1.543879e+000 1.892288e+000 1.796486e+000 1.908440e+000 1.846712e+000 1.801609e+000 1.626902e+000 1.676003e+000 1.384317e-001 4.919507e-002 1.021487e-001 1.362538e-001 1.764822e-001 1.936970e-001 3.448214e-001 3.944342e-001 3.372912e-001 4.548440e-001 3.249467e-001 2.780060e-001 2.619908e-001 1.401188e-002
<GCONST> 8.693884e+001
<MIXTURE> 3 4.215686e-001
<MEAN> 39
 -8.723067e+000 -8.029922e+000 -2.176888e-002 -1.383889e+001 -1.506672e+001 -8.518461e+000 -1.602249e+001 -2.818159e+000 4.303185e+000 -1.009214e+001 -4.121590e+000 -2.556069e+000 7.149841e+001 1.472690e+000 9.252173e-001 -5.973498e-001 -9.335403e-001 -1.626103e+000 -1.360338e+000 -2.547027e-001 8.810373e-001 1.413155e+000 2.155278e+000 5.303119e-001 4.844583e-001 1.124927e+000 -2.079529e-001 -3.773718e-001 -4.603952e-001 -1.025941e-001 1.661226e-001 3.440287e-001 4.326660e-001 4.615006e-001 2.061965e-001 2.235838e-001 -1.180438e-001 -3.607578e-002 -4.969434e-003
<VARIANCE> 39
 4.642409e+000 6.259755e+000 1.065525e+001 1.583189e+001 1.703882e+001 2.404292e+001 1.757346e+001 2.138758e+001 4.675835e+001 4.745411e+001 2.939623e+001 2.311163e+001 4.808990e+000 4.370153e-001 6.165188e-001 1.150512e+000 1.453945e+000 1.593185e+000 1.786991e+000 1.905543e+000 1.880337e+000 2.881058e+000 2.592684e+000 1.979096e+000 1.711489e+000 1.515811e-001 5.184092e-002 7.158673e-002 1.262494e-001 1.795840e-001 1.719601e-001 3.467045e-001 3.659953e-001 3.273202e-001 4.553517e-001 5.798120e-001 6.246142e-001 3.435560e-001 1.617442e-002
<GCONST> 8.946556e+001
<MIXTURE> 4 1.151961e-001
<MEAN> 39
 -6.195046e+000 -1.093028e+001 -4.855026e+000 -2.302929e+001 -1.731087e+001 -6.537021e+000 -9.198760e+000 2.887579e+000 1.149140e+001 -1.085323e+001 7.307460e-001 -1.650104e+000 7.457623e+001 9.885996e-001 -1.327275e-001 -1.451152e+000 -1.159802e+000 -1.814962e-001 9.283749e-001 1.227770e+000 1.689682e+000 4.797768e-001 4.632372e-001 -5.299367e-001 6.772620e-002 6.576774e-001 -3.196614e-001 -3.370314e-001 2.773182e-002 3.510677e-001 3.704614e-001 1.991574e-001 1.519662e-001 -1.948069e-001 -3.654083e-001 -6.093748e-001 -3.216033e-001 1.148459e-002 -1.059653e-001
<VARIANCE> 39
 4.449662e+000 2.597462e+000 1.197751e+001 1.041828e+001 4.507696e+000 2.123504e+001 1.917057e+001 1.828253e+001 1.088010e+001 2.766811e+001 2.411188e+001 2.410814e+001 1.965452e+000 3.552469e-001 3.382474e-001 5.323444e-001 6.490671e-001 7.951850e-001 1.040322e+000 4.642326e-001 1.080207e+000 1.401817e+000 4.011941e+000 3.205005e+000 2.248125e+000 8.553858e-002 3.638781e-002 3.853504e-002 9.568255e-002 8.993731e-002 8.742815e-002 2.644113e-001 1.914311e-001 1.661640e-001 4.365349e-001 5.734155e-001 5.484825e-001 6.195198e-001 1.000000e-002
<GCONST> 7.369182e+001
<STATE> 3
<NUMMIXES> 4
<MIXTURE> 1 3.235294e-001
<MEAN> 39
 -5.017051e+000 -8.788465e+000 -4.543066e+000 -1.849394e+001 -2.102982e+001 -1.381559e+001 -1.190662e+001 9.076252e+000 1.365342e+001 -5.316218e+000 -8.532430e+000 -2.226289e+000 7.624033e+001 -1.650685e-001 -3.175753e-002 3.035987e-001 3.879295e-001 -7.307336e-001 -7.742948e-001 1.099858e+000 1.487864e+000 -8.004595e-001 -5.450612e-001 1.398958e-001 6.761326e-001 1.664132e-001 -2.590800e-001 1.034152e-002 3.638161e-001 3.176283e-001 2.152560e-001 2.997248e-001 -3.603372e-002 -6.402046e-001 -7.347970e-001 -2.360386e-001 4.971749e-001 -1.834627e-002 -2.380570e-001
<VARIANCE> 39
 2.833920e+000 7.640902e+000 3.661136e+001 1.905550e+001 2.619655e+001 3.292203e+001 2.743575e+001 2.722035e+001 9.252438e+001 4.258471e+001 4.048620e+001 1.666870e+001 3.137971e+000 1.519868e-001 2.851858e-001 6.026183e-001 1.069383e+000 8.819964e-001 1.314222e+000 2.323704e+000 2.322337e+000 3.946667e+000 2.258019e+000 2.713509e+000 1.613849e+000 1.998078e-001 2.527428e-002 5.188463e-002 1.054144e-001 1.431942e-001 2.616210e-001 3.102636e-001 3.903008e-001 3.410811e-001 5.278471e-001 3.012667e-001 4.938509e-001 2.258856e-001 1.000000e-002
<GCONST> 8.692710e+001
<MIXTURE> 2 2.679739e-001
<MEAN> 39
 -3.899458e+000 -8.414660e+000 -6.433807e+000 -1.660045e+001 -1.630237e+001 -5.601058e+000 -1.574899e+001 -3.869249e+000 5.541687e+000 -1.159073e-001 3.077083e+000 -1.159451e-001 7.607359e+001 2.817797e-001 -6.422873e-001 -1.153150e+000 3.967937e-001 3.865469e-002 -7.138979e-001 -9.244255e-001 1.807126e-001 1.182653e+000 2.681611e+000 3.250779e-002 -1.375022e+000 8.324311e-001 -3.364830e-001 -1.021092e-001 3.993227e-001 5.191168e-001 1.832693e-001 -2.833378e-001 -1.943281e-002 4.098674e-001 2.145286e-001 -6.620787e-001 -7.875323e-001 -4.222634e-001 -1.797273e-001
<VARIANCE> 39
 4.763127e+000 1.419103e+001 2.540311e+001 3.467331e+001 3.510020e+001 3.456197e+001 4.388452e+001 4.463644e+001 4.196010e+001 6.161632e+001 1.989320e+001 3.165387e+001 3.894882e+000 2.922185e-001 3.678229e-001 8.982047e-001 1.406987e+000 1.544078e+000 1.589063e+000 1.369713e+000 2.146396e+000 1.216144e+000 4.172701e+000 5.130642e+000 2.228391e+000 2.161826e-001 2.929105e-002 1.119717e-001 1.211746e-001 1.363081e-001 2.345300e-001 3.915032e-001 3.793119e-001 2.684444e-001 2.841396e-001 8.610014e-001 3.897318e-001 3.677974e-001 1.481340e-002
<GCONST> 9.346548e+001
<MIXTURE> 3 3.006536e-001
<MEAN> 39
 -7.187620e+000 -1.256837e+001 -7.129014e+000 -2.126432e+001 -1.978859e+001 -4.322583e+000 1.540331e-001 9.486038e+000 5.417826e+000 -1.807777e+001 -3.837496e+000 2.081457e+000 7.532149e+001 -3.292154e-001 1.176243e-001 6.057942e-001 4.080333e-001 -9.326306e-001 -3.135800e-001 8.012176e-002 -4.727966e-001 -1.333289e+000 -6.502136e-002 4.149496e-001 1.433950e-001 -1.610487e-001 -5.295644e-002 1.629394e-001 1.735466e-001 8.834931e-002 4.295989e-003 -3.532173e-002 -5.612130e-001 -4.442281e-001 1.949175e-001 3.998647e-001 4.368516e-002 -1.749736e-001 -1.076470e-001
<VARIANCE> 39
 2.944815e+000 5.736666e+000 1.098860e+001 1.060606e+001 2.378754e+001 7.847449e+001 2.394758e+001 2.129020e+001 5.972229e+001 6.858213e+001 1.782012e+001 3.417957e+001 1.244593e+000 1.176737e-001 2.667879e-001 3.569547e-001 7.784376e-001 1.146788e+000 1.741240e+000 2.437436e+000 1.053962e+000 2.245636e+000 3.398649e+000 2.028284e+000 1.581264e+000 4.925682e-002 2.509658e-002 4.330247e-002 7.259507e-002 1.911201e-001 2.039690e-001 3.993569e-001 3.804877e-001 3.394013e-001 4.829645e-001 3.346709e-001 4.062110e-001 3.581284e-001 1.000000e-002
<GCONST> 8.104520e+001
<MIXTURE> 4 1.078431e-001
<MEAN> 39
 -9.762681e+000 -7.252709e+000 -1.021462e+001 -1.734584e+001 -1.196698e+001 -2.154870e+001 -8.147805e+000 1.237274e+001 1.225071e+000 4.182927e+000 -1.710079e+001 9.303889e+000 7.718569e+001 -4.063144e-001 2.939709e-002 1.073957e+000 6.424243e-001 -1.507521e+000 -1.143106e+000 2.054572e+000 3.564799e-001 -1.486052e+000 -9.045593e-001 2.863343e-001 6.343608e-001 3.689221e-002 3.253328e-002 2.286105e-001 4.582608e-001 1.057895e-001 -2.891603e-001 3.986645e-001 -4.256233e-001 -1.070179e+000 1.154747e-001 8.298302e-002 8.907443e-001 -2.637741e-001 -2.909424e-001
<VARIANCE> 39
 1.777138e+000 9.182144e+000 1.482799e+001 1.158805e+001 7.833469e+001 3.791093e+001 1.422981e+002 2.577995e+001 2.617009e+001 3.055755e+001 5.247638e+001 1.004361e+002 1.193290e+000 1.272042e-001 7.463835e-001 1.053166e+000 5.342944e-001 2.169854e+000 2.593801e+000 2.492138e+000 9.130543e+000 1.489149e+000 4.529100e+000 1.018746e+001 1.647768e+000 3.420630e-001 2.716647e-002 8.768992e-002 2.427192e-001 1.785000e-001 5.512273e-001 3.762771e-001 5.321722e-001 6.441177e-001 4.864030e-001 1.302847e+000 1.317422e+000 4.931924e-001 1.617483e-002
<GCONST> 9.999606e+001
<STATE> 4
<NUMMIXES> 4
<MIXTURE> 1 1.699346e-001
<MEAN> 39
 -4.153348e+000 -1.059204e+001 -6.734513e+000 -9.668266e+000 -1.656414e+001 -1.049792e+001 -1.914279e+001 -2.210698e+000 1.110235e+001 5.599035e+000 6.418736e-001 -8.907385e+000 7.740936e+001 -6.629691e-001 2.094519e-001 1.294015e+000 1.494645e+000 -6.908402e-001 -2.439714e+000 -2.561277e-001 1.114164e+000 4.124801e-001 -1.432559e+000 -1.625186e+000 5.344223e-001 -1.166100e-001 -1.754304e-001 3.730656e-001 5.523638e-001 -2.126972e-001 -1.106862e-001 3.275941e-001 4.943622e-001 -1.487568e-001 -1.003200e+000 -1.178976e+000 3.549672e-005 9.341702e-001 -3.368322e-001
<VARIANCE> 39
 4.635760e+000 1.628369e+001 9.387186e+000 3.788360e+001 6.268261e+001 3.484708e+001 4.614469e+001 3.981797e+001 5.121587e+001 4.865496e+001 2.680450e+001 1.870357e+001 3.836102e+000 1.918946e-001 5.916826e-001 8.673051e-001 6.636314e-001 1.676011e+000 2.214416e+000 3.052198e+000 1.344544e+000 3.467598e+000 2.826582e+000 2.325710e+000 3.649801e+000 1.999312e-001 2.315997e-002 7.524540e-002 9.203303e-002 1.740987e-001 4.037747e-001 9.290639e-001 4.946661e-001 3.795123e-001 2.675661e-001 3.752521e-001 6.490537e-001 4.001299e-001 1.277689e-002
<GCONST> 9.412336e+001
<MIXTURE> 2 2.973856e-001
<MEAN> 39
 -9.155952e+000 -9.841747e+000 1.186447e+000 -1.108252e+001 -1.460182e+001 -5.596611e+000 -1.068026e+001 -8.264087e-001 3.024816e+000 -1.532091e+001 -8.127566e+000 -4.373651e+000 7.285720e+001 -4.276599e-001 9.271976e-002 4.452929e-001 2.681605e-001 7.240416e-001 1.460556e+000 2.700965e-001 -1.164987e+000 -1.424827e+000 -1.332534e+000 -9.491330e-001 -1.054223e+000 -4.700445e-001 2.126707e-001 1.532311e-001 -2.043781e-001 -1.731595e-001 -3.374945e-001 -5.976729e-001 -4.179613e-001 2.007456e-001 5.883235e-001 6.565600e-001 4.718366e-001 2.863925e-001 1.763065e-001
<VARIANCE> 39
 4.197498e+000 6.566259e+000 1.865968e+001 3.378383e+001 3.379103e+001 1.963097e+001 2.027984e+001 4.056866e+001 2.532992e+001 2.755290e+001 1.652270e+001 1.978391e+001 4.288312e+000 1.739658e-001 3.251963e-001 7.853757e-001 8.817299e-001 1.132133e+000 2.283197e+000 3.340896e+000 3.053844e+000 2.431661e+000 2.590833e+000 1.901580e+000 1.384531e+000 9.688092e-002 1.769149e-002 7.249602e-002 1.311626e-001 1.424978e-001 2.395349e-001 2.719498e-001 5.393245e-001 4.524202e-001 3.730470e-001 2.824348e-001 3.260644e-001 2.387328e-001 1.000000e-002
<GCONST> 8.476146e+001
<MIXTURE> 3 3.496732e-001
<MEAN> 39
 -8.185776e+000 -6.053092e+000 5.631092e-001 -1.281003e+001 -2.327772e+001 -1.392826e+001 -1.066954e+001 7.170926e-001 -7.797484e-001 -5.936149e+000 -5.910457e+000 -1.156893e+000 7.469879e+001 -3.225127e-001 6.928589e-001 1.077130e+000 9.328396e-001 6.933163e-001 7.703616e-001 -1.539888e+000 -1.972702e+000 -3.584786e-001 -9.145475e-001 -6.131800e-001 5.267415e-002 -6.505064e-001 3.979936e-002 -1.105638e-001 -8.784611e-002 -4.539548e-002 5.971856e-001 2.902782e-001 -3.005830e-001 -2.581963e-001 1.891084e-002 -4.354137e-001 -2.954811e-001 -2.830979e-001 -1.138954e-001
<VARIANCE> 39
 4.836374e+000 8.791212e+000 1.733883e+001 3.474204e+001 4.072307e+001 5.899549e+001 7.711691e+001 5.212949e+001 3.000243e+001 6.888570e+001 4.580432e+001 4.121707e+001 2.125910e+000 1.196904e-001 5.642762e-001 5.702211e-001 6.672799e-001 2.252495e+000 2.290335e+000 5.787056e+000 2.473601e+000 2.091799e+000 2.667181e+000 2.302725e+000 2.664019e+000 1.454247e-001 1.112724e-002 8.694934e-002 7.887301e-002 1.564098e-001 2.339697e-001 4.526205e-001 7.909433e-001 3.701339e-001 3.762531e-001 4.606915e-001 3.791785e-001 4.853334e-001 1.311617e-002
<GCONST> 9.349931e+001
<MIXTURE> 4 1.830065e-001
<MEAN> 39
 -6.678480e+000 -9.738871e+000 -2.074253e+000 -1.532209e+001 -2.039175e+001 -1.351499e+001 -1.172713e+001 8.607261e+000 1.466184e+001 -6.222867e+000 -2.473952e+000 1.341642e+000 7.548543e+001 -9.824399e-001 -2.765572e-002 9.838713e-001 9.836892e-001 1.381352e+000 1.857235e+000 1.876205e-001 -1.984341e+000 -2.892367e+000 -1.947258e+000 -9.015716e-001 -6.330478e-001 -7.551717e-001 -6.504888e-002 -3.808801e-002 -1.104147e-001 -7.783196e-002 3.356287e-001 5.403218e-001 5.585812e-002 -4.718123e-001 -5.222840e-001 -6.049075e-001 -6.936175e-001 -4.887560e-001 -8.272383e-002
<VARIANCE> 39
 4.185285e+000 8.016916e+000 1.525192e+001 1.475334e+001 4.020117e+001 1.495666e+001 1.762321e+001 4.665834e+001 2.207284e+001 2.503499e+001 2.207581e+001 2.083053e+001 4.212709e+000 1.831563e-001 5.184041e-001 1.129677e+000 8.134638e-001 1.473040e+000 1.114164e+000 2.215007e+000 3.064871e+000 2.310675e+000 4.029390e+000 4.856254e+000 1.516575e+000 6.686731e-002 3.471077e-002 2.670165e-002 1.121222e-001 1.366757e-001 2.382541e-001 2.713399e-001 3.646138e-001 5.875688e-001 4.461810e-001 3.751220e-001 6.535994e-001 1.025415e-001 1.556259e-002
<GCONST> 8.500114e+001
<STATE> 5
<NUMMIXES> 4
<MIXTURE> 1 4.846939e-002
<MEAN> 39
 -8.241483e+000 -5.636376e+000 -3.395532e+000 -9.138628e+000 -2.227945e+001 -1.148309e+001 -1.887266e+001 5.926355e+000 7.800714e+000 5.392406e+000 -2.898281e+000 -1.941654e+000 7.532124e+001 -8.622593e-001 7.204139e-001 1.383527e+000 3.105453e-001 9.985375e-001 6.593863e-001 -2.473618e-001 -1.357435e+000 -2.826193e+000 -2.635952e+000 -6.245423e-001 8.156707e-001 -1.128491e+000 6.746333e-002 -3.415532e-001 -4.090277e-002 1.933880e-002 9.610012e-001 7.029945e-001 -1.110398e-001 -6.705444e-001 1.434080e-001 -4.344312e-001 -1.614034e-001 -6.450940e-001 -1.677815e-001
<VARIANCE> 39
 2.054692e+000 1.631244e+001 6.825336e+000 2.283460e+001 2.982528e+001 4.480643e+001 4.103993e+001 1.116393e+002 2.886002e+001 2.254606e+001 1.824877e+001 1.758526e+001 6.740130e+000 1.386444e-001 5.124268e-001 7.383960e-001 7.049636e-001 2.171572e+000 8.638649e-001 2.214460e+000 3.712305e-001 1.038636e+000 3.015851e+000 1.941803e+000 1.123152e+000 1.918513e-001 2.667723e-002 7.157981e-002 7.430414e-002 1.006047e-001 3.015463e-001 4.802796e-001 2.682722e-001 1.940972e-001 4.264292e-001 3.399397e-001 5.193836e-001 1.787501e-001 3.730281e-002
<GCONST> 8.378810e+001
<MIXTURE> 2 4.642857e-001
<MEAN> 39
 -9.296994e+000 -4.760140e+000 4.560283e+000 -9.894482e+000 -1.605229e+001 -1.046875e+001 -1.789897e+001 -9.550549e+000 -2.815778e+000 -1.632740e+001 -1.029686e+001 -5.835136e+000 7.140805e+001 -1.664710e-001 2.209847e-001 3.922665e-004 7.987698e-002 -5.669078e-002 6.315617e-002 -2.425200e-001 -4.045073e-001 3.127065e-002 -7.068986e-001 -2.232978e-001 -4.790673e-001 -1.683859e-001 -5.868793e-002 1.755081e-002 -1.826321e-001 -4.933404e-002 -1.718039e-001 -7.060929e-002 1.893927e-001 3.349955e-001 7.604915e-002 2.055335e-001 7.233348e-002 5.836262e-002 5.631102e-002
<VARIANCE> 39
 2.536419e+000 8.532187e+000 9.640576e+000 1.920154e+001 2.267243e+001 1.668444e+001 1.369094e+001 2.350076e+001 2.961114e+001 3.356763e+001 2.402369e+001 1.314863e+001 3.208935e+000 1.135074e-001 2.359670e-001 5.690194e-001 7.690863e-001 9.317344e-001 9.863826e-001 9.807115e-001 1.522053e+000 1.670061e+000 1.482134e+000 1.297051e+000 1.070867e+000 4.262355e-002 2.612731e-002 3.220217e-002 9.171713e-002 1.214548e-001 1.106638e-001 1.488440e-001 2.102670e-001 2.142327e-001 2.819014e-001 2.655831e-001 2.402813e-001 1.743306e-001 1.000000e-002
<GCONST> 7.030068e+001
<MIXTURE> 3 2.500000e-001
<MEAN> 39
 -1.041077e+001 -1.017688e+001 3.292151e-001 -1.585866e+001 -1.444709e+001 -5.523621e+000 -1.069674e+001 -2.644364e+000 2.117632e+000 -1.921084e+001 -7.257750e+000 -5.982460e+000 7.172512e+001 -2.526782e-001 3.240062e-001 4.387181e-001 4.315788e-002 2.825651e-001 -1.310401e-001 -7.214124e-001 -7.758614e-001 -3.281082e-001 2.438359e-002 2.153674e-001 -2.612356e-001 -1.485722e-001 1.418255e-003 2.536663e-003 -1.854102e-002 3.443379e-002 -9.236314e-002 -9.203316e-002 -5.236699e-002 8.520890e-002 -1.626307e-003 1.192942e-001 7.258540e-002 1.810527e-001 3.768430e-002
<VARIANCE> 39
 4.919153e+000 8.493476e+000 6.189752e+000 1.330402e+001 3.325861e+001 2.988506e+001 1.023347e+001 1.173767e+001 1.525020e+001 2.702615e+001 2.106967e+001 2.108390e+001 1.370152e+000 1.332043e-001 2.746369e-001 3.065928e-001 4.559206e-001 4.980072e-001 1.044359e+000 1.447386e+000 7.932119e-001 2.046556e+000 8.777342e-001 1.366840e+000 1.784872e+000 2.415293e-002 1.136719e-002 3.881828e-002 4.986117e-002 8.614886e-002 9.062278e-002 1.228320e-001 1.113642e-001 2.653559e-001 4.778068e-001 3.243408e-001 2.080656e-001 1.628155e-001 1.000000e-002
<GCONST> 6.485574e+001
<MIXTURE> 4 2.372449e-001
<MEAN> 39
 -1.039148e+001 -4.618858e+000 4.288227e-001 -9.158317e+000 -1.735071e+001 -9.158164e+000 -1.971999e+001 -1.329214e+000 -1.425892e+000 -8.076915e+000 -8.701999e+000 -9.651871e-001 7.132101e+001 -2.119798e-001 6.678525e-002 6.916332e-001 4.820244e-001 1.298254e+000 3.552127e-001 -7.757953e-001 -1.411897e+000 -8.082765e-001 -1.983676e+000 -6.689410e-001 -7.832882e-001 -5.533761e-001 -4.343990e-002 -1.668297e-001 -1.403056e-001 -2.435522e-001 -7.350501e-002 6.051288e-002 6.974337e-001 2.298036e-001 2.383753e-001 7.023850e-003 4.750551e-003 -8.469614e-002 7.451849e-002
<VARIANCE> 39
 1.917287e+000 6.526549e+000 7.030147e+000 1.666096e+001 1.852716e+001 4.440009e+001 8.907380e+000 5.227638e+001 2.560259e+001 2.341238e+001 2.841158e+001 1.933339e+001 1.561306e+000 2.053903e-001 7.026420e-001 3.747104e-001 1.023175e+000 1.646836e+000 1.845635e+000 4.261613e+000 3.032120e+000 1.814738e+000 4.228746e+000 1.049698e+000 1.975550e+000 2.464918e-001 4.037756e-002 1.355040e-001 7.491439e-002 1.160067e-001 2.707968e-001 2.363073e-001 4.298621e-001 4.053905e-001 2.975811e-001 5.101739e-001 2.450157e-001 4.087822e-001 3.359707e-002
<GCONST> 8.508685e+001
<STATE> 6
<NUMMIXES> 4
<MIXTURE> 1 2.401130e-001
<MEAN> 39
 -1.786054e+001 -1.288771e+001 -2.007492e+000 -1.424653e+001 -9.785391e+000 5.098721e-001 -5.855289e+000 1.715566e+000 3.738905e+000 -1.504508e+001 -4.768699e+000 -1.294602e+000 6.991404e+001 -7.885233e-001 -2.150320e-001 -6.954452e-001 8.665512e-002 1.455145e-001 3.172879e-002 8.758574e-001 2.623426e-001 7.756746e-001 4.938077e-001 -8.195721e-002 3.817402e-001 -1.336842e-001 -2.131788e-002 1.563223e-001 -1.698236e-001 6.996255e-002 -1.274361e-001 -6.990611e-002 -1.340487e-001 -7.768393e-002 -1.056806e-001 1.884204e-001 -1.035368e-001 1.409397e-001 6.848296e-002
<VARIANCE> 39
 6.684882e+000 1.105700e+001 7.524471e+000 2.423125e+001 5.330372e+000 1.529846e+001 3.318316e+001 1.267228e+001 1.375286e+001 1.637774e+001 2.301102e+001 7.695552e+000 5.211426e-001 2.623467e-001 4.605940e-001 4.998854e-001 7.806206e-001 6.520230e-001 9.726768e-001 5.566863e-001 1.283395e+000 1.431425e+000 2.088273e+000 2.018102e+000 7.952737e-001 9.142561e-002 2.458003e-002 4.709138e-002 8.223572e-002 1.214643e-001 2.265358e-001 1.533404e-001 9.262304e-002 1.766826e-001 3.034703e-001 4.199470e-001 2.515890e-001 1.152025e-001 1.000000e-002
<GCONST> 6.785384e+001
<MIXTURE> 2 1.920904e-001
<MEAN> 39
 -7.770016e+000 -4.749028e+000 6.210338e+000 -8.201538e+000 -7.392135e+000 -3.373611e+000 -1.427299e+001 -8.998073e+000 -3.489328e+000 -1.836622e+001 -5.236662e+000 -3.127680e+000 7.205622e+001 -1.626398e-001 2.141531e-001 4.072312e-002 2.021240e-001 1.822020e-001 1.126710e-001 -3.090961e-002 1.272758e-002 -4.225330e-001 -7.613229e-001 -3.996801e-001 3.147781e-001 -1.433157e-001 -7.858913e-002 -1.339441e-001 -9.529439e-002 5.254037e-002 4.929017e-002 1.303840e-001 1.992579e-001 2.679467e-001 1.312782e-001 1.991529e-002 -1.174261e-001 -1.771753e-001 -1.964985e-002
<VARIANCE> 39
 2.308173e+000 2.310471e+000 6.626153e+000 6.043461e+000 2.236651e+001 1.162690e+001 1.545127e+001 1.274925e+001 3.244604e+001 1.988029e+001 1.557247e+001 1.067194e+001 5.963801e+000 1.066507e-001 2.750823e-001 3.663827e-001 4.950831e-001 7.011741e-001 7.258999e-001 1.317850e+000 1.178034e+000 1.084520e+000 1.029504e+000 1.284253e+000 9.963152e-001 2.179953e-002 2.185921e-002 4.160685e-002 5.912988e-002 8.527842e-002 1.384788e-001 1.597794e-001 1.365806e-001 1.818048e-001 2.489791e-001 1.515745e-001 1.834809e-001 1.369323e-001 1.000000e-002
<GCONST> 6.094736e+001
<MIXTURE> 3 1.977401e-001
<MEAN> 39
 -1.148546e+001 -5.786318e+000 3.049301e+000 -9.609109e+000 -1.303679e+001 -6.523474e+000 -1.753968e+001 -9.188137e+000 -6.290629e+000 -2.396897e+001 -1.369601e+001 -7.636761e+000 7.044997e+001 -9.557355e-001 -3.554588e-001 -4.852410e-001 5.571283e-001 7.796601e-001 1.404183e+000 6.998890e-001 3.411537e-001 -8.352327e-002 1.798809e-003 3.061578e-003 -4.435911e-002 -2.435146e-001 -2.657449e-001 -2.791158e-001 -2.618513e-001 -9.050053e-003 1.486549e-001 3.135812e-001 4.673251e-001 3.651624e-001 4.242157e-001 4.990349e-001 3.240768e-001 5.855090e-002 -8.342211e-002
<VARIANCE> 39
 3.189966e+000 1.362146e+001 1.290922e+001 2.638394e+001 1.523070e+001 9.498742e+000 1.811666e+001 1.455960e+001 2.301530e+001 2.164377e+001 2.894108e+001 1.717281e+001 2.276991e+000 1.747038e-001 4.044328e-001 3.053514e-001 3.645900e-001 1.098469e+000 1.497417e+000 1.686702e+000 1.223283e+000 1.300032e+000 1.600065e+000 1.543450e+000 6.059667e-001 4.822036e-002 2.220120e-002 3.907079e-002 2.853275e-002 8.424920e-002 1.291850e-001 1.396835e-001 1.925811e-001 1.819305e-001 2.032846e-001 2.217845e-001 1.688574e-001 1.651645e-001 1.000000e-002
<GCONST> 6.735096e+001
<MIXTURE> 4 3.700565e-001
<MEAN> 39
 -1.128390e+001 -4.213867e+000 1.462399e+000 -1.098881e+001 -1.993874e+001 -1.164143e+001 -1.643986e+001 -7.277494e+000 3.191727e-001 -1.612731e+001 -9.382241e+000 -6.573235e+000 7.150298e+001 -6.078756e-001 2.890247e-001 -3.323410e-001 1.674813e-001 6.770834e-001 6.353965e-001 4.860943e-001 -1.606366e-001 -4.695396e-001 -7.387660e-001 -4.534239e-001 -2.503719e-001 -1.627903e-001 -2.072020e-001 -1.026787e-001 -3.324535e-002 2.361668e-001 4.787428e-001 4.942854e-001 2.705836e-001 8.028568e-002 -6.226916e-002 -1.003423e-001 -5.145040e-002 1.410139e-001 -4.678150e-002
<VARIANCE> 39
 3.671799e+000 1.778870e+001 1.117210e+001 2.524694e+001 1.782083e+001 1.357098e+001 2.556458e+001 1.791535e+001 2.127710e+001 1.710945e+001 2.253280e+001 1.930564e+001 3.568992e+000 2.582147e-001 3.906769e-001 6.515068e-001 8.384488e-001 2.209442e+000 1.082755e+000 9.801411e-001 1.562512e+000 9.973741e-001 1.450513e+000 1.770435e+000 1.686272e+000 6.252015e-002 6.196404e-002 8.022701e-002 1.434342e-001 1.381547e-001 2.466227e-001 1.439970e-001 2.128927e-001 3.143880e-001 2.283064e-001 2.345810e-001 2.967827e-001 4.029471e-001 1.000000e-002
<GCONST> 7.852621e+001
<STATE> 7
<NUMMIXES> 4
<MIXTURE> 1 1.521739e-001
<MEAN> 39
 -2.757315e+001 2.830824e+000 -1.281157e+001 1.454277e+000 -1.195529e+001 3.974567e+000 -5.709342e+000 3.329878e+000 4.373301e+000 -5.724341e+000 -8.438767e+000 4.058176e+000 7.057587e+001 -9.046239e-001 1.388156e+000 -5.468984e-001 8.601882e-001 6.995786e-001 -1.995569e-001 1.106501e+000 4.985768e-002 4.454265e-001 1.015032e+000 3.526782e-001 2.216148e-001 5.518419e-001 5.073684e-001 -3.890843e-001 5.540247e-001 -6.467506e-001 -1.802034e-001 -7.856911e-001 -6.867270e-001 -8.565155e-001 -5.550495e-001 -8.062648e-001 -3.782279e-001 -5.475722e-001 -1.045160e-001
<VARIANCE> 39
 3.802079e+000 2.244260e+001 1.155234e+001 1.774295e+001 2.330898e+001 1.648017e+001 1.834471e+001 1.875386e+001 1.789576e+001 2.098584e+001 1.755775e+001 9.987589e+000 2.372560e+000 4.203307e-001 1.349996e+000 7.510439e-001 1.561542e+000 1.009956e+000 1.526042e+000 1.144389e+000 1.279719e+000 2.016587e+000 2.005615e+000 1.214551e+000 1.460367e+000 1.600052e-001 1.234467e-001 1.581120e-001 2.031434e-001 2.884881e-001 1.780916e-001 3.505793e-001 3.311812e-001 2.703842e-001 3.087524e-001 3.569210e-001 1.301340e-001 1.778455e-001 1.587846e-002
<GCONST> 8.366803e+001
<MIXTURE> 2 2.907609e-001
<MEAN> 39
 -1.479843e+001 -4.476961e+000 1.633572e+000 -6.958569e+000 -1.102648e+001 -4.061021e+000 -1.292066e+001 -7.147713e+000 -3.292705e+000 -1.972530e+001 -1.149560e+001 -6.811000e+000 6.968844e+001 -1.914032e+000 -7.215223e-001 -1.480958e+000 4.792390e-001 1.314048e+000 2.156102e+000 2.219459e+000 1.675055e+000 8.562163e-001 6.200283e-001 -3.569727e-002 5.280432e-001 -3.794424e-001 -3.113782e-001 2.469994e-002 -5.445949e-001 -1.401107e-001 -3.889410e-001 -7.790356e-002 1.067481e-001 4.223703e-001 4.055004e-001 6.805819e-001 2.357354e-001 4.552507e-001 9.566741e-002
<VARIANCE> 39
 7.959726e+000 1.616709e+001 1.044401e+001 1.340594e+001 2.539976e+001 2.283340e+001 2.581913e+001 1.866254e+001 2.627535e+001 2.006929e+001 1.794615e+001 1.829659e+001 5.059055e+000 4.060044e-001 7.626280e-001 9.313238e-001 1.356926e+000 1.622918e+000 1.655601e+000 1.134320e+000 1.404427e+000 2.075901e+000 2.382375e+000 1.803715e+000 2.344954e+000 9.299774e-002 6.848817e-002 1.795545e-001 9.317429e-002 1.448854e-001 2.262214e-001 3.628138e-001 2.569803e-001 3.148577e-001 2.978761e-001 3.934719e-001 2.768101e-001 3.110258e-001 2.381301e-002
<GCONST> 8.682954e+001
<MIXTURE> 3 3.750000e-001
<MEAN> 39
 -1.877421e+001 -1.058936e+001 -3.294871e+000 -9.619249e+000 -8.471199e+000 1.257425e+000 -7.419827e+000 -4.101721e-001 2.048495e+000 -1.558217e+001 -9.875023e+000 -3.890769e+000 6.861846e+001 -1.406790e+000 -1.417993e-001 -1.598032e+000 9.045194e-002 -2.508574e-001 4.387777e-001 3.347136e-001 8.943497e-001 3.645925e-001 1.619466e+000 3.166410e-001 1.032598e+000 -5.148366e-002 1.034478e-001 5.003170e-001 6.843391e-002 2.341071e-001 -2.651016e-001 -2.680005e-001 -4.924826e-001 -2.778277e-001 -3.751603e-001 6.226272e-002 -1.325023e-001 3.546892e-002 2.066081e-001
<VARIANCE> 39
 6.438078e+000 1.448807e+001 1.165800e+001 1.207887e+001 2.667745e+001 2.670631e+001 2.348535e+001 2.199000e+001 3.063582e+001 3.290956e+001 1.636811e+001 1.792381e+001 4.660177e+000 4.090746e-001 1.133520e+000 6.701347e-001 1.382298e+000 1.634815e+000 1.892537e+000 2.024174e+000 2.061039e+000 1.750823e+000 2.003569e+000 1.177529e+000 1.296646e+000 1.591090e-001 3.686456e-002 1.121028e-001 8.361833e-002 1.658727e-001 2.097590e-001 3.411914e-001 2.918787e-001 3.089094e-001 2.539904e-001 3.016043e-001 1.716027e-001 2.807966e-001 1.311245e-002
<GCONST> 8.491909e+001
<MIXTURE> 4 1.820652e-001
<MEAN> 39
 -2.377131e+001 -3.129833e+000 -8.705281e+000 -3.885411e+000 -1.321937e+001 1.314810e+000 -1.061906e+001 -5.354914e-001 -2.168413e-001 -1.213521e+001 -1.065067e+001 -3.519428e-001 6.895564e+001 -2.083195e+000 1.760687e+000 -2.087759e+000 1.538549e+000 -2.544044e-001 1.264706e+000 1.169715e+000 1.282230e+000 1.048816e+000 2.214740e+000 4.263384e-001 1.799525e+000 7.055998e-001 2.375225e-001 3.810286e-001 4.169378e-001 4.002345e-002 2.080532e-001 -4.651918e-001 9.020249e-002 -2.265648e-001 1.868336e-001 -8.891792e-002 1.684343e-001 -1.975867e-001 1.849375e-001
<VARIANCE> 39
 6.239268e+000 2.014282e+001 1.406772e+001 1.728136e+001 2.089133e+001 1.801609e+001 2.092900e+001 2.114524e+001 2.328872e+001 2.333840e+001 1.514704e+001 2.158431e+001 4.584697e+000 5.824894e-001 8.804490e-001 1.245871e+000 1.859070e+000 1.527788e+000 2.214841e+000 1.957998e+000 2.609927e+000 2.064466e+000 1.734998e+000 1.126568e+000 1.814210e+000 1.040736e-001 7.590181e-002 2.747869e-001 1.769437e-001 3.350079e-001 2.848333e-001 3.747484e-001 2.243097e-001 4.240629e-001 3.507779e-001 4.213376e-001 2.473978e-001 2.800222e-001 3.154320e-002
<GCONST> 9.106506e+001
<STATE> 8
<NUMMIXES> 4
<MIXTURE> 1 1.764706e-001
<MEAN> 39
 -2.929090e+001 -7.261202e-001 -7.648848e+000 -8.729856e+000 -4.250636e+000 -4.052468e+000 8.144776e-001 -1.494372e+000 2.653489e+000 -7.170918e+000 -8.777846e+000 2.243330e+000 7.272288e+001 -1.018916e+000 1.037347e+000 4.584993e-002 9.505263e-002 6.205230e-001 -5.325932e-001 3.993038e-001 -7.243418e-001 -4.841660e-001 2.694063e-001 1.748401e-001 3.557686e-001 6.849546e-001 7.194873e-001 -3.937595e-001 7.434239e-001 5.257592e-002 -3.809200e-001 -1.083418e-001 -6.707322e-001 -4.182797e-001 -4.554553e-001 -7.140406e-001 -1.870429e-001 -5.696718e-001 -1.088299e-001
<VARIANCE> 39
 1.380346e+001 2.598598e+001 1.767650e+001 1.233080e+001 3.221979e+001 2.911975e+001 1.379022e+001 1.664652e+001 1.974722e+001 2.382677e+001 2.549487e+001 2.946456e+001 5.078025e+000 1.442149e+000 1.653660e+000 2.089264e+000 1.386142e+000 1.431865e+000 1.629125e+000 1.667706e+000 1.296378e+000 1.699740e+000 2.254432e+000 1.476241e+000 2.376229e+000 1.249084e-001 1.181283e-001 1.488895e-001 1.217680e-001 2.305856e-001 3.277598e-001 3.991030e-001 2.486957e-001 2.334345e-001 1.792725e-001 2.686494e-001 3.221960e-001 4.305093e-001 1.608823e-002
<GCONST> 9.206136e+001
<MIXTURE> 2 3.467492e-001
<MEAN> 39
 -1.931618e+001 -6.832492e-001 -5.418567e+000 -7.684129e+000 -1.706060e+001 -7.522760e+000 -1.596356e+001 -8.942916e+000 -3.354762e+000 -1.479826e+001 -1.213860e+001 -3.660283e+000 7.259786e+001 1.521078e+000 2.696984e-001 1.710418e+000 -1.572133e+000 -9.885722e-001 -2.418571e+000 -7.740390e-001 -1.586798e+000 -6.851372e-001 -5.793116e-001 -4.733344e-001 -1.154892e+000 4.459938e-001 -1.700325e-001 -2.288547e-001 -6.636503e-002 -1.427803e-001 3.146442e-001 4.514686e-001 5.760586e-001 7.307891e-001 5.791359e-001 5.065305e-001 2.722604e-002 1.100198e-001 -4.823089e-002
<VARIANCE> 39
 1.667914e+001 4.486382e+001 2.259770e+001 2.727635e+001 2.584912e+001 1.814106e+001 2.506085e+001 3.247164e+001 2.735915e+001 3.827394e+001 1.819874e+001 2.536505e+001 1.724807e+000 6.060714e-001 9.429243e-001 6.865169e-001 1.888341e+000 1.662869e+000 1.806068e+000 2.195118e+000 3.174917e+000 2.332368e+000 2.497943e+000 1.792967e+000 2.380295e+000 9.167998e-002 1.093078e-001 8.323573e-002 1.150222e-001 2.467301e-001 2.376345e-001 2.682717e-001 2.486139e-001 3.284340e-001 2.226007e-001 4.124709e-001 2.164361e-001 2.558939e-001 1.155125e-002
<GCONST> 9.150776e+001
<MIXTURE> 3 2.662539e-001
<MEAN> 39
 -2.024083e+001 -1.078484e+001 -7.202398e+000 -8.826922e+000 -1.267042e+001 3.806641e+000 -1.141567e+001 1.057911e+000 1.766299e-001 -1.289484e+001 -9.459132e+000 -2.531811e+000 7.051967e+001 1.990132e-001 6.698245e-001 2.158655e-001 3.544345e-001 -2.777136e-001 -3.816990e-001 -5.920665e-001 -2.691394e-001 -1.964043e-001 -2.917063e-001 -3.457302e-001 -1.085701e-001 3.278483e-001 3.956133e-001 7.722703e-002 5.706499e-001 -1.915075e-001 6.767418e-002 -6.176388e-001 -8.992422e-002 -6.411496e-001 -1.523068e-001 -5.511608e-001 2.970757e-002 -1.040517e-001 4.277716e-002
<VARIANCE> 39
 2.510211e+000 6.826624e+000 1.914630e+001 1.061188e+001 3.634627e+001 1.506752e+001 2.855502e+001 1.671698e+001 1.658447e+001 1.778001e+001 1.421523e+001 1.430510e+001 1.647919e+000 8.426982e-001 2.484462e-001 1.757050e+000 1.412061e+000 9.972983e-001 2.968451e+000 1.600073e+000 2.807293e+000 1.669966e+000 2.961596e+000 9.461567e-001 9.237500e-001 4.088803e-002 3.404809e-002 6.367920e-002 9.072592e-002 2.091174e-001 2.482558e-001 3.822049e-001 3.090875e-001 2.929882e-001 2.789912e-001 4.119509e-001 2.697763e-001 1.686872e-001 1.000000e-002
<GCONST> 7.929295e+001
<MIXTURE> 4 2.105263e-001
<MEAN> 39
 -2.700607e+001 2.736798e+000 -1.188250e+001 -2.817216e-001 -1.188558e+001 1.369748e-001 -7.968426e+000 -1.063585e+000 3.410438e+000 -7.553119e+000 -1.001848e+001 1.562179e+000 7.175072e+001 8.632398e-001 5.239581e-001 9.976717e-001 -1.005324e+000 -1.055798e+000 -2.475009e+000 -1.861921e+000 -2.560203e+000 -1.681555e+000 -1.421849e+000 -6.541926e-001 -8.731536e-001 4.046703e-001 7.140967e-001 -2.611921e-001 6.106653e-001 -6.343281e-001 -5.223256e-001 -5.730128e-001 -5.517737e-001 -5.122554e-001 -6.764847e-001 -4.645162e-001 -1.438966e-001 -4.671028e-001 -1.209286e-002
<VARIANCE> 39
 8.865871e+000 2.772091e+001 1.906510e+001 1.337936e+001 3.202068e+001 2.285530e+001 2.660181e+001 3.253043e+001 2.281210e+001 3.879393e+001 2.199400e+001 2.703325e+001 3.323443e+000 7.996014e-001 5.378785e-001 9.743978e-001 1.427519e+000 1.223060e+000 2.031833e+000 1.911319e+000 2.170973e+000 1.653358e+000 2.559757e+000 1.504318e+000 2.491505e+000 7.534947e-002 7.222790e-002 1.556181e-001 1.560193e-001 1.982584e-001 2.181268e-001 3.130554e-001 3.890703e-001 4.346330e-001 3.831963e-001 5.381790e-001 3.815507e-001 4.979344e-001 1.998494e-002
<GCONST> 9.287625e+001
<STATE> 9
<NUMMIXES> 4
<MIXTURE> 1 2.461538e-001
<MEAN> 39
 -2.158186e+001 -6.224409e-001 6.735260e-001 -6.972733e+000 -1.432077e+001 -1.065380e+001 -8.718488e+000 -1.066854e+001 -4.890507e+000 -1.319313e+001 -6.848486e+000 -2.516585e+000 7.449707e+001 1.533462e+000 -6.856346e-001 1.367841e+000 -3.879879e-001 -2.125812e+000 -1.354450e+000 -1.038901e+000 -4.563237e-001 -4.480336e-001 9.602808e-002 1.535790e+000 -4.298286e-001 -1.912813e-002 -1.829963e-001 -2.201344e-002 -3.321064e-001 2.280316e-002 1.241617e-001 2.817765e-001 4.018116e-001 4.664267e-001 3.566894e-001 3.548319e-001 2.090578e-001 4.059073e-002 -3.945533e-002
<VARIANCE> 39
 7.405871e+000 1.730697e+001 2.802339e+001 1.043932e+001 4.257748e+001 1.982916e+001 3.620518e+001 1.303282e+001 4.707909e+001 2.129089e+001 2.724077e+001 3.751833e+001 4.733523e+000 7.065040e-001 4.115218e-001 9.916745e-001 1.309184e+000 2.438579e+000 1.904058e+000 2.924689e+000 2.486460e+000 3.561130e+000 2.417328e+000 1.077543e+000 1.979209e+000 8.260363e-002 8.203907e-002 6.680535e-002 1.461189e-001 2.026242e-001 3.961555e-001 3.109208e-001 4.532270e-001 2.755856e-001 4.713706e-001 3.052919e-001 4.013565e-001 3.565275e-001 1.497573e-002
<GCONST> 9.247548e+001
<MIXTURE> 2 4.676923e-001
<MEAN> 39
 -1.378992e+001 -5.968861e+000 1.444827e+000 -1.449565e+001 -1.901109e+001 -1.121567e+001 -1.724262e+001 -6.633650e+000 3.438570e-001 -1.633766e+001 -1.065946e+001 -7.421912e+000 7.306907e+001 2.685075e-001 -1.634383e-001 4.495138e-001 -4.906045e-001 6.115947e-002 -2.169790e-001 1.185291e-001 8.246071e-002 1.473066e-001 -3.939851e-002 1.220563e-001 -6.148529e-002 4.984758e-002 -1.121610e-001 -1.133828e-002 -1.495390e-001 2.454697e-001 1.517738e-001 1.951234e-001 2.977461e-002 -6.235097e-002 -1.433398e-001 -8.763750e-003 7.086453e-002 1.474815e-001 -6.420259e-002
<VARIANCE> 39
 1.060656e+001 2.696340e+001 7.825539e+000 1.341207e+001 1.697001e+001 1.711730e+001 1.289967e+001 2.889600e+001 2.256312e+001 2.961082e+001 3.025166e+001 2.195821e+001 1.747157e+000 2.070337e-001 2.018498e-001 4.655303e-001 9.901108e-001 4.127300e-001 7.690208e-001 8.303968e-001 1.209540e+000 1.020733e+000 1.302544e+000 9.040464e-001 7.472106e-001 4.412121e-002 2.722375e-002 4.597540e-002 5.933762e-002 1.927160e-001 7.900839e-002 1.222598e-001 1.508970e-001 2.120843e-001 1.438818e-001 1.762809e-001 1.869343e-001 1.532551e-001 1.000000e-002
<GCONST> 6.775084e+001
<MIXTURE> 3 1.815385e-001
<MEAN> 39
 -2.309000e+001 -2.350496e+000 -2.012070e+000 -6.366845e+000 -6.075859e+000 -5.234460e-001 -5.136595e+000 -1.326656e+000 -4.076765e+000 -1.236871e+001 -1.134225e+001 -1.710260e+000 7.218531e+001 1.151890e+000 4.767921e-001 1.544736e+000 5.876176e-001 -5.753560e-001 -5.937099e-001 -1.146478e+000 -1.610993e+000 -1.445519e+000 -1.355798e+000 -2.984192e-001 -2.974885e-001 2.932946e-001 2.594944e-001 -1.678303e-001 8.426323e-002 -1.245291e-001 -4.065271e-001 -2.703145e-001 -2.204642e-001 -7.173739e-002 2.625306e-001 5.269812e-002 3.387509e-001 6.493524e-002 -7.481701e-002
<VARIANCE> 39
 3.860515e+001 1.277159e+001 3.818282e+001 1.130219e+001 2.009323e+001 2.202276e+001 2.903158e+001 4.303127e+001 3.471062e+001 4.829309e+001 1.154887e+001 7.195498e+000 7.521081e+000 8.766782e-001 7.424577e-001 1.155507e+000 7.601473e-001 1.323271e+000 1.484250e+000 1.529549e+000 1.621717e+000 1.865125e+000 1.719431e+000 1.914900e+000 1.649805e+000 7.492205e-002 2.105469e-001 8.078422e-002 1.944109e-001 1.974288e-001 2.843920e-001 3.480865e-001 2.248007e-001 3.310399e-001 4.173068e-001 2.702160e-001 1.685040e-001 2.456807e-001 1.647637e-002
<GCONST> 9.006101e+001
<MIXTURE> 4 1.046154e-001
<MEAN> 39
 -2.046403e+001 3.429352e+000 -7.075029e+000 -1.411223e+001 -1.542315e+001 -1.612774e+001 -7.637879e+000 -1.087688e+001 -2.314396e-002 -1.006916e+001 -1.861766e+001 3.896405e-001 7.439584e+001 5.841407e-001 -8.845398e-001 1.891302e+000 -2.479139e+000 1.055084e+000 -2.181676e+000 4.197171e-001 -1.743434e+000 -4.689989e-001 4.564008e-001 -1.711990e+000 1.871715e-001 2.767398e-001 -2.186852e-001 -7.339309e-002 2.044942e-003 2.597376e-001 2.317100e-002 5.210942e-001 -1.334817e-001 6.178677e-002 -1.296491e-001 -8.746341e-003 2.466734e-001 8.406909e-002 -5.881901e-002
<VARIANCE> 39
 6.202952e+000 2.859312e+001 2.029002e+001 1.944647e+001 1.729815e+001 1.705596e+001 1.461059e+001 3.609315e+001 3.563202e+001 2.376548e+001 1.791245e+001 2.452394e+001 1.131560e+000 3.666054e-001 5.416893e-001 6.492317e-001 3.459492e-001 1.622445e+000 1.006819e+000 1.811002e+000 1.590394e+000 1.235373e+000 1.328713e+000 6.615470e-001 1.619379e+000 4.628131e-002 5.079025e-002 8.098850e-002 1.598378e-001 1.019966e-001 3.048532e-001 2.141220e-001 2.095943e-001 3.369125e-001 1.785815e-001 1.732767e-001 1.048676e-001 2.869651e-001 1.000000e-002
<GCONST> 7.709468e+001
<STATE> 10
<NUMMIXES> 4
<MIXTURE> 1 2.150000e-001
<MEAN> 39
 -1.691710e+001 -7.458534e+000 2.308041e+000 -9.325368e+000 -1.915019e+001 -1.432624e+001 -5.880043e+000 -1.122703e+001 -2.296854e-001 -1.029749e+001 -1.047702e+000 -2.164971e+000 7.316006e+001 2.329249e-001 -4.255634e-001 -2.551855e-001 -2.593935e-001 -6.549188e-001 -1.241400e-001 2.137974e-001 1.833717e-001 4.525050e-002 6.644873e-001 1.143642e-001 -2.499527e-001 -6.060701e-002 -1.824993e-001 1.558766e-001 -6.849326e-002 -2.016575e-002 2.391102e-001 2.227444e-001 -1.229983e-001 2.308241e-002 -9.336708e-002 -9.404705e-002 -3.298966e-001 8.580398e-002 1.389954e-002
<VARIANCE> 39
 4.015919e+000 1.345932e+001 1.072697e+001 1.476386e+001 1.815244e+001 1.145760e+001 3.759991e+001 1.871207e+001 3.251554e+001 1.774711e+001 2.168204e+001 3.133599e+001 4.685005e+000 1.710139e-001 3.088057e-001 2.531710e-001 5.002689e-001 3.818033e-001 7.205367e-001 9.186270e-001 1.182698e+000 1.825071e+000 7.392496e-001 1.784777e+000 8.263546e-001 2.747668e-002 2.626294e-002 4.269842e-002 5.034421e-002 1.088835e-001 7.355381e-002 1.995076e-001 1.147908e-001 1.700384e-001 3.985045e-001 1.492869e-001 2.317367e-001 1.697523e-001 1.000000e-002
<GCONST> 6.710767e+001
<MIXTURE> 2 1.800000e-001
<MEAN> 39
 -1.676781e+001 -2.197754e+000 -2.443372e-002 -1.984429e+001 -1.282034e+001 -1.929931e+001 -7.378193e+000 -1.577308e+001 -3.170190e-001 -1.156537e+001 -1.935418e+001 1.487720e+000 7.451564e+001 1.753186e-001 -1.666328e-001 3.784817e-002 2.274827e-001 1.378382e-001 8.893107e-003 1.131845e-001 1.983166e-001 1.336982e-001 -3.310947e-001 1.493100e-001 6.282318e-002 -1.018488e-001 -5.428736e-002 7.625286e-002 -3.512298e-001 4.487618e-001 -1.821079e-001 3.452798e-001 -2.274112e-001 3.329035e-001 2.042585e-002 -1.121151e-001 2.777929e-001 -1.603212e-001 -9.014098e-002
<VARIANCE> 39
 1.142002e+001 2.283802e+001 1.273629e+001 8.406910e+000 1.738015e+001 2.374087e+001 1.881388e+001 2.070025e+001 3.299440e+001 3.871207e+001 4.499535e+001 2.655424e+001 1.719216e+000 1.090622e-001 2.761460e-001 8.224862e-001 1.370721e+000 9.768914e-001 1.173709e+000 1.577534e+000 1.207171e+000 1.077070e+000 9.187565e-001 1.191624e+000 1.233546e+000 5.171825e-002 2.372935e-002 4.736071e-002 9.635732e-002 1.596279e-001 2.003982e-001 2.132583e-001 3.573006e-001 2.968854e-001 2.159532e-001 1.539001e-001 1.361286e-001 2.565614e-001 1.000000e-002
<GCONST> 7.576709e+001
<MIXTURE> 3 1.500000e-001
<MEAN> 39
 -1.353265e+001 -9.746515e+000 1.946612e+000 -1.385385e+001 -1.407063e+001 -9.161042e+000 -1.570699e+001 -1.093428e+001 -1.952591e+000 -1.953467e+001 -5.034514e+000 -2.859292e+000 7.207813e+001 -5.957515e-001 -4.981909e-001 -4.333862e-001 5.278498e-001 9.186913e-001 1.459996e+000 6.965347e-001 3.125275e-001 -1.184167e-001 -2.038202e-001 3.424108e-001 1.469062e-001 -3.818377e-001 -1.588257e-001 -1.365970e-001 -2.969374e-001 -3.816999e-002 1.544508e-001 2.537093e-001 3.933363e-001 4.277180e-001 3.391090e-001 3.050507e-001 -1.085715e-001 9.429792e-002 -3.037686e-002
<VARIANCE> 39
 1.564519e+000 6.428088e+000 9.186136e+000 5.680888e+000 1.299292e+001 1.691425e+001 9.729874e+000 1.214758e+001 1.385819e+001 8.316493e+000 9.246284e+000 1.888801e+001 2.441053e+000 2.141089e-001 2.462650e-001 4.190492e-001 4.252740e-001 1.066230e+000 2.017786e+000 1.990147e+000 1.218685e+000 1.142706e+000 7.694280e-001 1.532971e+000 1.134781e+000 3.899216e-002 2.683872e-002 2.401523e-002 3.642090e-002 9.407798e-002 1.101420e-001 1.879790e-001 1.526442e-001 1.219115e-001 1.708746e-001 8.509210e-002 1.517242e-001 1.347098e-001 1.000000e-002
<GCONST> 5.946165e+001
<MIXTURE> 4 4.550000e-001
<MEAN> 39
 -1.552644e+001 3.672552e-001 2.508586e+000 -8.328459e+000 -1.748782e+001 -7.075195e+000 -1.882572e+001 -4.564344e+000 -8.298225e+000 -1.277479e+001 -1.050081e+001 -7.323801e+000 7.300581e+001 1.258459e-001 -1.312076e-001 2.689102e-002 1.475752e-001 -2.185274e-001 1.720349e-001 -3.235337e-001 8.527384e-002 -1.246143e-002 -9.748912e-002 7.557059e-002 -5.192331e-002 -9.171251e-002 -1.121750e-001 -4.972966e-002 -1.638968e-001 9.983884e-002 8.925318e-002 9.178171e-002 1.112532e-001 -5.720034e-002 8.389550e-002 -2.173778e-001 -1.203052e-001 6.836965e-002 -4.681998e-002
<VARIANCE> 39
 1.543316e+001 1.280248e+001 1.077226e+001 2.163141e+001 2.312543e+001 1.652098e+001 3.507882e+001 3.558634e+001 2.520835e+001 4.620348e+001 4.462059e+001 2.954903e+001 5.583817e+000 1.304410e-001 2.052549e-001 5.366768e-001 6.180021e-001 7.587419e-001 6.811355e-001 7.979198e-001 8.351229e-001 1.236361e+000 1.291646e+000 8.820716e-001 8.353804e-001 6.960246e-002 2.026486e-002 3.489136e-002 6.988695e-002 9.397893e-002 1.233855e-001 1.253372e-001 1.440351e-001 1.632014e-001 2.012274e-001 2.159907e-001 1.188883e-001 1.522666e-001 1.000000e-002
<GCONST> 7.120947e+001
<STATE> 11
<NUMMIXES> 4
<MIXTURE> 1 2.209632e-001
<MEAN> 39
 -1.923918e+001 -2.971652e+000 2.025018e+000 -8.597624e+000 -2.133199e+001 -1.159352e+001 -7.784395e+000 -1.054774e+001 -1.831448e+000 -8.170717e+000 -2.582249e+000 -3.713245e+000 7.443893e+001 -1.809098e-001 8.346643e-002 -2.103252e-001 2.771314e-001 6.041692e-001 7.133930e-001 -3.834086e-001 -1.017708e-002 1.754734e-002 -5.436662e-001 -7.222593e-001 2.234448e-001 -1.596642e-001 8.980501e-003 -9.190617e-002 -1.807164e-002 6.136971e-002 3.571684e-001 2.509302e-001 -1.863121e-002 1.971303e-001 -8.158924e-002 -3.579438e-001 -3.362355e-001 5.611186e-002 -1.243999e-001
<VARIANCE> 39
 7.634098e+000 4.310753e+001 1.867789e+001 1.573597e+001 3.280172e+001 2.608530e+001 7.843124e+001 3.976507e+001 9.183802e+001 2.093311e+001 2.749928e+001 4.029251e+001 6.709893e+000 1.144281e-001 3.848696e-001 1.598979e-001 3.948351e-001 7.875688e-001 1.531060e+000 9.178043e-001 6.969528e-001 2.217340e+000 1.280476e+000 1.517085e+000 1.145418e+000 6.625714e-002 3.537865e-002 5.258490e-002 3.702470e-002 5.160502e-002 1.137054e-001 2.712293e-001 2.239400e-001 1.200247e-001 3.590644e-001 1.933646e-001 1.769623e-001 1.974300e-001 1.096004e-002
<GCONST> 7.698846e+001
<MIXTURE> 2 3.144476e-001
<MEAN> 39
 -1.287232e+001 -6.246638e+000 3.250610e+000 -7.033563e+000 -1.031701e+001 -2.319213e+000 -1.482710e+001 -6.821845e+000 -6.599503e+000 -2.333626e+001 -1.552474e+001 -5.557328e+000 7.161236e+001 -6.422352e-001 -7.486402e-001 -5.019391e-001 2.759269e-001 7.247234e-001 9.123883e-001 7.563028e-001 1.792354e-001 3.266265e-001 -3.471023e-001 -1.737055e-002 1.083668e-001 -3.671696e-001 -1.413770e-001 -8.852061e-002 -1.062106e-001 -1.209757e-001 1.207108e-001 2.828536e-002 2.836052e-001 1.898064e-001 3.108795e-001 3.740922e-001 2.910315e-001 1.211753e-001 -2.186136e-002
<VARIANCE> 39
 1.036798e+001 1.461351e+001 3.363136e+001 2.358644e+001 5.375160e+001 1.362528e+001 4.000782e+001 1.763712e+001 2.567132e+001 4.344635e+001 1.782542e+001 2.191575e+001 3.123254e+000 2.906012e-001 4.932746e-001 6.385109e-001 1.292894e+000 8.806069e-001 1.426365e+000 1.169078e+000 1.508882e+000 2.540177e+000 2.168791e+000 1.147748e+000 9.829508e-001 1.080560e-001 1.489383e-002 3.704334e-002 1.012489e-001 1.380308e-001 1.589462e-001 2.231363e-001 1.797104e-001 2.223073e-001 4.666378e-001 2.933183e-001 1.744808e-001 1.638009e-001 1.000000e-002
<GCONST> 8.043515e+001
<MIXTURE> 3 3.739377e-001
<MEAN> 39
 -1.897235e+001 -1.531816e+001 -4.855587e+000 -1.278790e+001 -9.495103e+000 9.680089e-001 -7.031676e+000 -1.450338e+000 3.943207e+000 -1.584837e+001 -6.584861e+000 -2.282210e+000 6.964482e+001 -8.853185e-001 4.456190e-002 -9.306467e-001 3.801787e-001 7.070785e-002 9.208506e-001 9.112074e-001 1.325017e+000 7.710878e-001 7.890581e-001 2.645149e-002 6.876451e-001 -2.934055e-002 8.547703e-003 3.414982e-001 2.525873e-002 1.711310e-001 -2.306021e-001 -1.224395e-001 -1.776711e-001 -1.014281e-001 -2.303275e-001 2.108950e-002 -1.544452e-001 7.682040e-002 1.124507e-001
<VARIANCE> 39
 3.207128e+000 6.408087e+000 8.187332e+000 7.913283e+000 1.209493e+001 1.271024e+001 2.067501e+001 1.902624e+001 1.780965e+001 1.622467e+001 3.020564e+001 1.891462e+001 6.350934e-001 2.228345e-001 7.655348e-001 7.381363e-001 9.033357e-001 1.198732e+000 1.426970e+000 1.502830e+000 1.383418e+000 2.147524e+000 1.602226e+000 1.524484e+000 8.054383e-001 8.885590e-002 2.817310e-002 4.510254e-002 8.536926e-002 1.526531e-001 1.970360e-001 2.928853e-001 2.591263e-001 2.424538e-001 3.025995e-001 2.003027e-001 2.905654e-001 1.545246e-001 1.000000e-002
<GCONST> 7.241658e+001
<MIXTURE> 4 9.065156e-002
<MEAN> 39
 -1.828995e+001 3.588775e-001 -4.973002e+000 -1.372959e+001 -1.390591e+001 -1.474961e+001 -8.542370e+000 -1.224615e+001 -7.940935e-001 -1.395634e+001 -1.980692e+001 -8.319516e-001 7.288425e+001 -5.289968e-001 -2.134750e-001 -1.487708e+000 1.922617e+000 -6.285056e-001 2.676106e+000 -1.083347e+000 1.525654e+000 -6.127869e-001 -1.027251e+000 1.227079e+000 -6.511306e-001 -7.544080e-001 -1.899227e-001 -2.151199e-001 1.290437e-001 7.822072e-002 1.002819e-001 3.990411e-001 -2.974154e-002 -8.019521e-004 -4.374824e-001 -1.283304e-002 9.721930e-002 5.913648e-002 -8.086987e-002
<VARIANCE> 39
 1.526823e+001 1.907332e+001 1.805414e+001 1.781380e+001 1.605086e+001 3.931114e+001 9.037194e+000 2.963819e+001 3.097451e+001 4.279085e+001 1.403527e+001 1.171667e+001 1.533521e+000 1.257761e-001 5.731341e-001 1.412071e+000 1.241689e+000 1.768504e+000 2.800543e+000 1.031740e+000 8.982860e-001 2.732274e+000 6.534320e-001 1.490832e+000 9.512915e-001 8.808911e-002 1.728390e-002 5.567101e-002 2.569185e-001 2.340433e-001 3.186842e-001 4.022342e-001 1.927814e-001 1.978696e-001 1.709138e-001 1.290142e-001 2.141522e-001 3.077922e-001 1.428282e-002
<GCONST> 7.997646e+001
<STATE> 12
<NUMMIXES> 4
<MIXTURE> 1 1.666667e-001
<MEAN> 39
 -1.912017e+001 -3.206091e+000 1.540750e+000 -7.823745e+000 -1.580336e+001 -7.170739e+000 -7.255423e+000 -9.252523e+000 -1.439259e+000 -1.234161e+001 -8.162409e+000 -3.631001e+000 7.296577e+001 -5.446036e-001 -2.718278e-001 -6.435871e-001 2.405159e-001 2.690181e+000 2.026428e+000 5.502207e-001 1.579545e+000 9.850843e-002 -6.882745e-001 -1.847139e+000 -4.522673e-001 -5.992844e-001 -2.927274e-001 -4.547019e-003 -2.330918e-001 3.186724e-002 1.658171e-001 6.840524e-002 2.641695e-001 2.705275e-001 1.754192e-001 4.106494e-001 7.061058e-002 -7.917761e-002 1.635144e-002
<VARIANCE> 39
 4.118606e+000 4.001037e+000 1.634128e+001 1.284074e+001 4.442334e+001 2.706021e+001 4.119659e+001 4.218569e+001 2.651007e+001 1.981035e+001 3.365245e+001 3.155526e+001 6.100668e+000 4.428120e-001 9.399482e-001 7.832945e-001 7.667400e-001 9.042706e-001 1.075088e+000 2.449248e+000 2.237349e+000 3.589394e+000 2.888785e+000 1.468113e+000 1.748666e+000 1.430192e-001 7.041389e-002 4.181614e-002 8.928214e-002 9.916481e-002 3.042673e-001 2.895600e-001 2.261374e-001 4.067563e-001 3.514971e-001 3.259908e-001 3.802378e-001 2.969585e-001 1.660077e-002
<GCONST> 8.722509e+001
<MIXTURE> 2 3.401361e-001
<MEAN> 39
 -2.512888e+001 -6.272216e+000 -1.041445e+001 -4.603875e+000 -1.104854e+001 4.337543e+000 -5.853590e+000 2.783355e+000 3.643411e+000 -1.087583e+001 -8.901921e+000 3.555222e+000 6.970678e+001 -1.189431e+000 1.699974e+000 -1.300619e+000 1.190268e+000 1.541890e-001 6.204475e-001 1.108360e+000 9.062097e-001 1.045394e+000 1.381363e+000 4.412903e-001 1.231469e+000 5.345935e-001 1.692722e-001 3.167217e-001 2.548037e-001 -3.503558e-002 5.998303e-002 -5.099035e-001 -1.920558e-001 -5.429531e-001 -2.756959e-001 -2.667510e-001 -3.530950e-002 -3.539481e-001 1.411670e-001
<VARIANCE> 39
 5.898905e+000 2.291603e+001 9.653952e+000 2.164552e+001 1.434760e+001 1.268765e+001 3.781223e+001 2.470826e+001 3.656549e+001 2.568301e+001 3.125599e+001 2.298771e+001 4.373591e+000 4.088139e-001 9.822313e-001 1.037728e+000 9.731758e-001 1.308782e+000 1.153046e+000 1.672382e+000 2.076647e+000 3.074302e+000 2.212126e+000 1.922403e+000 1.513062e+000 9.839071e-002 2.925812e-002 2.549108e-001 1.021943e-001 1.698618e-001 1.598746e-001 1.454488e-001 3.416713e-001 3.210426e-001 3.626864e-001 3.451082e-001 4.237128e-001 2.171361e-001 2.585857e-002
<GCONST> 8.724487e+001
<MIXTURE> 3 2.857143e-001
<MEAN> 39
 -2.164315e+001 -6.126964e+000 -3.413183e+000 -5.527485e+000 -8.343812e+000 2.817113e-001 -7.829750e+000 -2.646932e+000 -2.053872e+000 -1.645731e+001 -1.327736e+001 -2.569046e+000 6.925790e+001 -1.416362e+000 -3.299168e-001 -1.345142e+000 3.574104e-001 1.023038e+000 1.495031e+000 1.926743e+000 1.494374e+000 1.609671e+000 1.305813e+000 6.166061e-001 1.081979e+000 -2.462022e-001 -2.510440e-001 5.574317e-001 -4.132144e-001 -5.057579e-002 -5.692188e-001 -3.493563e-001 7.341645e-002 1.821789e-001 3.707651e-001 8.184972e-001 4.872284e-001 5.131343e-001 2.866486e-001
<VARIANCE> 39
 9.159791e+000 1.715810e+001 2.289035e+001 8.207685e+000 2.847840e+001 1.748818e+001 3.873305e+001 3.566813e+001 4.167956e+001 2.807580e+001 2.115844e+001 2.511948e+001 5.237360e+000 3.643335e-001 1.501391e+000 9.651120e-001 1.304451e+000 1.887164e+000 1.063831e+000 1.883600e+000 2.757917e+000 2.785132e+000 2.935538e+000 2.870857e+000 2.621506e+000 2.318071e-001 9.890492e-002 1.614671e-001 1.627009e-001 2.523808e-001 2.233831e-001 2.066063e-001 3.779095e-001 4.476498e-001 6.450600e-001 3.580972e-001 3.590214e-001 3.612165e-001 2.134157e-002
<GCONST> 9.550012e+001
<MIXTURE> 4 2.074830e-001
<MEAN> 39
 -2.136073e+001 1.806179e+000 -4.257150e+000 -4.117579e+000 -1.664321e+001 -5.127552e+000 -1.484366e+001 -4.341580e+000 -6.998235e+000 -1.408828e+001 -9.946242e+000 -1.370415e+000 7.124245e+001 -3.100324e-001 -9.530250e-001 -6.123467e-001 8.566778e-001 1.576957e+000 1.962732e+000 8.446339e-001 1.102141e+000 3.790508e-001 -6.860183e-001 -1.544446e-001 1.278210e+000 -7.780328e-001 -1.080150e-001 -2.156849e-001 8.027890e-002 -2.240692e-001 3.972451e-001 1.670264e-001 6.924343e-001 3.226192e-001 5.728402e-001 4.287826e-001 1.446556e-001 -2.379996e-002 -2.735212e-003
<VARIANCE> 39
 2.887445e+000 4.010854e+000 3.376128e+001 9.462412e+000 2.375657e+001 3.289328e+001 1.724223e+001 2.962029e+001 5.152718e+001 2.648897e+001 2.491995e+001 2.593442e+001 4.332718e+000 6.666819e-001 9.788921e-001 1.181783e+000 7.026760e-001 1.235932e+000 1.387052e+000 2.879041e+000 1.342279e+000 3.001376e+000 2.582085e+000 1.945209e+000 2.059019e+000 1.418066e-001 4.697487e-002 1.136400e-001 2.247950e-001 1.154002e-001 2.068022e-001 3.231564e-001 2.570823e-001 2.853257e-001 4.759631e-001 3.803029e-001 2.511235e-001 4.822078e-001 3.012510e-002
<GCONST> 8.918098e+001
<STATE> 13
<NUMMIXES> 4
<MIXTURE> 1 3.202614e-001
<MEAN> 39
 -2.938588e+001 2.970831e+000 -1.282416e+001 -3.805557e-001 -8.166900e+000 2.234828e+000 -9.084983e-001 2.007859e+000 5.056906e+000 -6.694088e+000 -7.563881e+000 5.035479e+000 7.200519e+001 -6.377319e-001 1.507090e+000 -6.729211e-002 3.427245e-001 6.406723e-001 -6.398804e-001 8.713386e-001 -2.100183e-001 2.574221e-001 8.221236e-001 3.936681e-001 -6.353074e-002 6.291110e-001 1.872224e-001 -4.246337e-001 3.091390e-001 -3.177502e-001 1.484770e-002 -8.354001e-002 -2.333327e-001 -2.088782e-001 -3.234138e-001 -1.863427e-001 -7.488134e-002 -3.032735e-001 -1.123053e-001
<VARIANCE> 39
 4.944663e+000 2.453539e+001 9.278189e+000 3.278467e+001 2.180284e+001 1.740824e+001 2.672041e+001 2.069293e+001 2.905296e+001 2.573276e+001 1.894664e+001 2.271467e+001 4.796299e+000 2.547355e-001 6.964636e-001 7.171221e-001 3.571232e-001 6.259616e-001 8.243562e-001 1.328951e+000 1.079955e+000 1.627977e+000 7.880996e-001 9.870551e-001 1.259463e+000 6.286983e-002 6.089051e-002 9.269597e-002 1.688107e-001 9.618766e-002 1.531601e-001 1.978886e-001 1.647789e-001 2.512399e-001 3.428119e-001 2.181384e-001 1.641532e-001 2.478724e-001 1.452960e-002
<GCONST> 7.700031e+001
<MIXTURE> 2 6.862745e-002
<MEAN> 39
 -1.755585e+001 -9.548282e+000 6.443412e-001 -4.687853e+000 -9.866024e-001 8.138062e+000 -2.722300e+000 2.885047e+000 1.207791e+000 -1.763978e+001 -1.068916e+001 -4.036549e+000 6.905733e+001 -1.158737e+000 -1.173057e+000 -1.460462e+000 -1.098544e+000 -6.976368e-001 3.155864e-001 6.658636e-001 1.565628e+000 2.018786e+000 2.040710e+000 3.147599e-001 -9.721508e-002 -3.842221e-001 -1.146021e-001 2.515887e-001 -1.477687e-001 -1.642843e-001 -6.033664e-001 -6.006901e-001 -5.544016e-001 -2.265795e-001 -3.296277e-001 2.511679e-003 3.928842e-002 2.939114e-001 9.181286e-002
<VARIANCE> 39
 1.277906e+001 1.255589e+001 5.738868e+000 1.591696e+001 1.048483e+001 8.536876e+000 2.302397e+001 2.129735e+001 3.699217e+001 2.364400e+001 1.149006e+001 5.207154e+000 6.492834e+000 1.363112e-001 3.726313e-001 6.619469e-001 6.843389e-001 2.277890e+000 1.211369e+000 1.222034e+000 1.585734e+000 2.592729e+000 1.673384e+000 1.746064e+000 5.057246e-001 5.946737e-002 1.785195e-002 6.516508e-002 3.735297e-002 1.157145e-001 1.267286e-001 1.897515e-001 1.441799e-001 3.533402e-001 5.581639e-001 3.115084e-001 1.858536e-001 9.120299e-002 1.305142e-002
<GCONST> 7.204991e+001
<MIXTURE> 3 5.000000e-001
<MEAN> 39
 -2.485991e+001 -6.838492e+000 -1.096809e+001 -6.342197e+000 -1.342142e+001 2.242794e+000 -4.406084e+000 1.767685e-001 7.752977e+000 -1.181129e+001 -7.114973e+000 2.962355e+000 7.206632e+001 -1.267942e-001 2.294334e-001 -6.036815e-002 -3.768054e-002 4.004762e-002 -5.025421e-001 4.570415e-002 -5.186548e-001 -7.559291e-002 3.773125e-002 8.805627e-002 1.124101e-001 1.145350e-001 1.366413e-001 -1.503805e-001 1.471391e-001 -1.448751e-001 6.102869e-002 -6.490385e-002 -8.472063e-003 -1.751710e-002 -7.740651e-002 -9.946811e-002 2.022204e-002 -8.093265e-002 -3.805328e-002
<VARIANCE> 39
 4.864703e+000 1.179462e+001 7.861444e+000 1.096750e+001 2.244718e+001 1.715188e+001 1.762857e+001 3.239479e+001 2.681643e+001 1.548495e+001 3.133597e+001 1.727162e+001 1.618460e+000 2.597367e-001 3.678823e-001 6.609269e-001 5.756173e-001 8.736691e-001 8.018139e-001 8.761374e-001 1.554396e+000 1.628605e+000 1.781212e+000 1.260719e+000 1.227744e+000 3.581559e-002 2.065239e-002 5.401129e-002 6.939179e-002 7.236010e-002 1.499910e-001 1.629636e-001 1.294299e-001 3.275418e-001 2.306433e-001 2.331479e-001 2.149935e-001 2.155197e-001 1.000000e-002
<GCONST> 7.053496e+001
<MIXTURE> 4 1.111111e-001
<MEAN> 39
 -2.885600e+001 -8.514369e-001 -4.012099e+000 -8.627529e+000 -3.169923e+000 -9.803256e-001 9.023158e-001 -5.827105e-001 -6.903203e-001 -5.273732e+000 -9.711455e+000 9.222779e-001 7.250694e+001 -2.175212e+000 9.182395e-001 -9.359773e-001 -7.892532e-001 8.837244e-001 3.529248e-001 1.450622e+000 1.329994e+000 9.670698e-001 1.964441e+000 1.596174e+000 1.382789e+000 6.682571e-001 1.903465e-001 -5.140095e-002 5.149242e-001 2.570519e-002 -4.073728e-001 -4.336647e-002 -1.862168e-001 -4.321047e-001 8.562147e-004 -4.346869e-001 -2.125365e-001 -5.152204e-001 1.354258e-001
<VARIANCE> 39
 1.059164e+001 1.354627e+001 1.193777e+001 1.472035e+001 2.749853e+001 1.713240e+001 1.532306e+001 2.386614e+001 1.378373e+001 2.241837e+001 3.234826e+001 2.633827e+001 6.192434e+000 6.661278e-001 1.029172e+000 1.610772e+000 5.091208e-001 1.290667e+000 1.104781e+000 1.181304e+000 1.303477e+000 1.418397e+000 1.871554e+000 1.273965e+000 2.321949e+000 3.269655e-001 1.760491e-001 2.920105e-001 1.813242e-001 1.397275e-001 1.538444e-001 2.013589e-001 3.442785e-001 2.084810e-001 2.948762e-001 2.008024e-001 5.880340e-001 3.919143e-001 8.672107e-002
<GCONST> 8.983551e+001
<STATE> 14
<NUMMIXES> 4
<MIXTURE> 1 2.879819e-001
<MEAN> 39
 -3.303972e+001 2.438282e+000 -3.724351e+000 -8.247277e+000 -4.148329e+000 7.627470e-001 3.622471e+000 -2.165966e+000 1.927627e+000 -2.102495e+000 -7.982433e+000 7.136552e-001 7.547779e+001 8.165339e-002 -4.645837e-001 5.611171e-001 -1.911734e-001 -3.886999e-001 2.537915e-001 -1.551282e-001 -3.560232e-001 -2.156643e-001 8.095907e-002 -1.395810e-001 -9.889456e-002 -6.364755e-002 2.335595e-001 -1.343344e-001 -9.339739e-002 6.177549e-002 -1.613478e-001 -4.534616e-002 -1.202078e-001 2.936020e-002 -5.540365e-002 -2.286550e-001 -4.067526e-002 9.058386e-002 -1.117410e-001
<VARIANCE> 39
 8.045589e+000 4.153836e+001 3.654498e+001 2.561143e+001 3.318230e+001 2.245572e+001 1.486429e+001 1.515548e+001 1.570981e+001 3.667948e+001 1.483541e+001 1.442706e+001 3.231569e+000 5.387831e-001 5.916560e-001 7.572644e-001 8.271140e-001 1.316858e+000 8.733569e-001 9.689700e-001 1.222299e+000 9.073921e-001 1.267830e+000 7.971920e-001 9.046604e-001 1.709164e-001 8.991200e-002 7.358775e-002 1.296334e-001 1.268343e-001 1.991786e-001 1.879436e-001 1.883419e-001 2.684786e-001 2.128889e-001 1.717940e-001 1.781229e-001 1.253884e-001 1.663424e-002
<GCONST> 7.939948e+001
<MIXTURE> 2 1.269841e-001
<MEAN> 39
 -1.479080e+001 -1.040436e+001 2.332565e+000 -1.266061e+001 -1.244213e+001 -4.688728e+000 -8.498954e+000 -7.339453e+000 1.510845e+000 -1.608171e+001 -6.228946e+000 -7.605155e-001 7.178167e+001 6.919504e-001 3.361959e-001 1.095405e+000 4.398901e-003 -6.200228e-001 -9.405295e-001 -5.647038e-001 -1.076751e+000 -4.793953e-001 -2.513371e-002 1.307583e-001 -5.397046e-001 1.845911e-001 -6.651039e-002 5.020893e-002 -1.910011e-001 1.577251e-001 8.148663e-002 5.158719e-002 -3.582012e-002 -1.002968e-002 -1.242690e-001 2.693452e-002 9.066097e-002 -3.168011e-003 2.364173e-002
<VARIANCE> 39
 4.598503e+000 2.715030e+000 9.369832e+000 2.715822e+000 1.988846e+001 1.337528e+001 2.310868e+001 1.731559e+001 1.031029e+001 9.332408e+000 1.613963e+001 3.519355e+001 5.076962e-001 6.832913e-001 1.811595e-001 3.912304e-001 6.784465e-001 1.099644e+000 2.035333e+000 2.587772e+000 4.189885e-001 8.367264e-001 7.575858e-001 1.548757e+000 3.179060e+000 6.685866e-002 8.362170e-002 4.608116e-002 7.121829e-002 1.329371e-001 2.334623e-001 4.012847e-001 4.093747e-001 1.146878e-001 1.347108e-001 2.241917e-001 2.334526e-001 4.138787e-001 1.994379e-002
<GCONST> 6.975165e+001
<MIXTURE> 3 3.219955e-001
<MEAN> 39
 -2.378992e+001 -1.005746e+001 -7.962624e+000 -8.593838e+000 -8.068051e+000 9.274437e-001 -7.144296e+000 2.767976e+000 2.018131e+000 -1.032511e+001 -7.579134e+000 1.779165e+000 7.007739e+001 3.393495e-001 -1.443049e-001 3.605176e-001 -2.994315e-001 -1.487813e-001 -4.511355e-001 -3.489879e-001 -2.376983e-001 -3.118483e-001 -1.295786e-001 3.393687e-001 9.338821e-002 1.471906e-002 2.206002e-001 7.019228e-002 2.328647e-001 7.676331e-004 -6.378322e-002 -5.921837e-002 -8.696818e-002 -1.473364e-001 -2.847914e-002 -1.408057e-001 -9.422585e-002 -8.868975e-002 3.137484e-002
<VARIANCE> 39
 1.394198e+001 1.617010e+001 8.512997e+000 1.955139e+001 1.682369e+001 1.975045e+001 2.092149e+001 1.803472e+001 3.768584e+001 1.938657e+001 1.566679e+001 2.342546e+001 3.826140e+000 7.912250e-001 3.258972e-001 1.338455e+000 7.380584e-001 9.538558e-001 1.180311e+000 1.180982e+000 9.432471e-001 1.185641e+000 1.472103e+000 1.568786e+000 1.543235e+000 4.628573e-002 3.850378e-002 5.899493e-002 9.395773e-002 1.097319e-001 1.743529e-001 2.061387e-001 2.239834e-001 2.431598e-001 2.528817e-001 2.508579e-001 3.738876e-001 3.237584e-001 1.000000e-002
<GCONST> 7.864471e+001
<MIXTURE> 4 2.630385e-001
<MEAN> 39
 -3.054671e+001 4.529877e+000 -1.354201e+001 1.586188e-002 -8.322571e+000 1.630576e-001 -5.519571e-001 1.645586e+000 6.177875e+000 -4.197474e+000 -6.334573e+000 4.650201e+000 7.209759e+001 -1.853497e-001 -1.251863e-001 5.285582e-002 -6.707628e-001 1.923151e-001 -6.919791e-001 1.607465e-001 -3.213765e-001 -2.436900e-001 1.906556e-001 9.731936e-002 -7.735997e-002 6.126425e-002 1.280300e-001 -2.153456e-001 1.166593e-001 -1.219694e-001 -8.835877e-002 6.611041e-003 -2.250529e-001 -3.912016e-002 -1.179397e-001 -1.892685e-001 -1.376149e-001 1.353944e-002 -8.080377e-002
<VARIANCE> 39
 5.731308e+000 2.031651e+001 9.527210e+000 1.168465e+001 2.923480e+001 2.290773e+001 2.069250e+001 1.478821e+001 1.875614e+001 2.254614e+001 3.556320e+001 2.966201e+001 4.215261e+000 2.579084e-001 4.577491e-001 4.743885e-001 8.266899e-001 9.339469e-001 6.793350e-001 8.961405e-001 8.851624e-001 9.071717e-001 1.312286e+000 1.062785e+000 1.002347e+000 9.762248e-002 4.983903e-002 1.272030e-001 1.222648e-001 1.431032e-001 1.607718e-001 1.262829e-001 2.162337e-001 1.560747e-001 9.738859e-002 1.937104e-001 2.209556e-001 2.340089e-001 1.807537e-002
<GCONST> 7.463778e+001
<STATE> 15
<NUMMIXES> 4
<MIXTURE> 1 3.288136e-001
<MEAN> 39
 -2.496211e+001 -4.259811e+000 -5.005294e+000 -8.368853e+000 -1.054833e+001 -4.319108e-001 -1.852987e+000 -3.267467e+000 1.795372e+000 -1.122687e+001 -9.383217e+000 2.555479e-001 7.318233e+001 2.292950e+000 5.717945e-002 1.710137e+000 -1.005512e-001 -9.468042e-001 -1.177192e+000 -2.009030e+000 -1.515572e+000 -1.619459e+000 -1.592803e+000 -5.179659e-001 -9.071366e-001 -3.099399e-002 3.903528e-001 2.674387e-001 4.393898e-001 1.139721e-001 -2.920306e-001 -3.851689e-001 -5.416275e-001 -3.729112e-001 -1.379781e-001 -4.342289e-002 2.710476e-001 -2.847367e-002 1.175218e-001
<VARIANCE> 39
 1.313817e+001 1.745938e+001 3.574560e+001 1.094507e+001 2.677144e+001 2.245389e+001 2.653223e+001 2.259666e+001 2.930173e+001 5.170073e+001 3.695621e+001 3.092371e+001 3.317259e+000 6.638817e-001 8.104988e-001 1.832696e+000 1.460029e+000 1.766563e+000 1.610732e+000 1.727302e+000 1.751438e+000 1.651449e+000 2.080125e+000 2.549445e+000 2.128285e+000 1.268591e-001 8.876309e-002 9.485392e-002 1.710777e-001 1.380941e-001 2.324877e-001 1.806485e-001 2.055301e-001 1.520815e-001 2.379128e-001 4.234224e-001 2.970210e-001 4.511706e-001 1.585224e-002
<GCONST> 9.121042e+001
<MIXTURE> 2 3.254237e-001
<MEAN> 39
 -1.821314e+001 -3.146388e-001 -3.116422e-001 -7.870903e+000 -1.649252e+001 -9.327507e+000 -1.102856e+001 -9.086139e+000 -2.652154e+000 -1.121804e+001 -8.111510e+000 -1.884466e+000 7.281004e+001 2.264820e+000 9.126239e-002 1.871830e+000 -4.808991e-001 -2.003716e+000 -1.859965e+000 -2.017727e+000 -9.701418e-001 -4.712254e-001 6.210066e-002 9.770650e-001 -2.508537e-001 2.512515e-001 -3.615997e-001 -1.368832e-001 -2.827612e-001 1.747517e-002 2.360970e-001 4.271115e-001 4.392161e-001 3.220586e-001 3.759568e-001 5.014639e-001 2.652411e-001 3.782452e-001 -1.198539e-002
<VARIANCE> 39
 1.284998e+001 3.223255e+001 2.958704e+001 2.536410e+001 3.865017e+001 2.283685e+001 2.639940e+001 2.711228e+001 3.249833e+001 3.883682e+001 3.704358e+001 2.972389e+001 3.624022e+000 7.109761e-001 9.562523e-001 1.274886e+000 2.953588e+000 1.382598e+000 1.349969e+000 3.426013e+000 1.689628e+000 2.224760e+000 3.880028e+000 2.039841e+000 1.813446e+000 1.990746e-001 1.317720e-001 1.340661e-001 1.455813e-001 1.684421e-001 2.843088e-001 2.131576e-001 5.175642e-001 3.235238e-001 3.001615e-001 4.559859e-001 3.831134e-001 2.248200e-001 1.635078e-002
<GCONST> 9.739325e+001
<MIXTURE> 3 1.898305e-001
<MEAN> 39
 -3.137829e+001 4.720573e+000 -1.076433e+001 -3.926048e+000 -5.523819e+000 -2.587691e+000 4.247969e-002 -6.169903e-001 2.834569e+000 -2.613822e+000 -6.912601e+000 5.107412e+000 7.221452e+001 1.233145e+000 -5.234609e-001 8.468545e-001 -9.059665e-001 -7.981666e-001 -1.103075e+000 -1.236413e+000 -5.013073e-001 -3.346826e-001 -9.048072e-001 -4.503147e-001 -5.256711e-001 -1.327938e-001 6.398881e-001 1.030431e-001 4.560372e-001 -2.286225e-001 -4.645002e-001 -4.101572e-001 -6.115952e-001 -3.196217e-001 -2.909998e-001 -2.126374e-001 -1.441611e-001 -3.457226e-001 2.966065e-002
<VARIANCE> 39
 1.024850e+001 1.202076e+001 2.011761e+001 1.427165e+001 3.553163e+001 2.883929e+001 1.748071e+001 2.451230e+001 2.777030e+001 2.855973e+001 4.016371e+001 1.783970e+001 2.985759e+000 1.452775e+000 7.060879e-001 1.098672e+000 1.483950e+000 2.669421e+000 1.908633e+000 2.160448e+000 1.129222e+000 1.229527e+000 2.683888e+000 2.199881e+000 1.555430e+000 8.013155e-002 1.203994e-001 1.273877e-001 1.726750e-001 2.931815e-001 3.486668e-001 2.672089e-001 2.529934e-001 1.811577e-001 2.648899e-001 4.503145e-001 3.171889e-001 2.021097e-001 1.471612e-002
<GCONST> 9.071264e+001
<MIXTURE> 4 1.559322e-001
<MEAN> 39
 -1.450663e+001 -7.680057e+000 1.372195e+000 -9.956145e+000 -1.548221e+001 -6.942492e+000 -1.757376e+001 -7.730445e+000 -3.316637e-001 -1.740062e+001 -4.182563e+000 -2.447059e+000 7.081432e+001 5.218562e-001 2.220508e-001 5.420699e-001 -3.174151e-001 1.665237e-001 -2.677058e-001 -5.134341e-001 -1.196564e+000 -3.754471e-001 2.389068e-001 4.502851e-001 -7.464941e-001 2.449427e-002 -1.500275e-001 -1.432983e-001 -6.177498e-002 -9.201983e-002 -1.995054e-003 4.783133e-002 3.568967e-001 2.997633e-001 1.503494e-001 4.361602e-001 2.292278e-001 1.484546e-001 -1.468821e-002
<VARIANCE> 39
 1.337630e+001 6.209598e+000 1.359738e+001 1.167799e+001 7.492824e+000 6.140929e+000 1.079641e+001 1.237667e+001 1.165834e+001 8.323987e+000 3.919939e+001 4.863978e+001 1.121877e+000 2.764330e-001 3.248743e-001 7.618624e-001 3.785999e-001 9.594499e-001 2.356434e-001 6.633655e-001 1.824746e+000 1.118480e+000 1.175743e+000 8.996529e-001 9.609174e-001 2.607607e-002 3.449658e-002 4.409227e-002 5.310797e-002 1.473552e-001 9.948915e-002 9.942688e-002 1.859612e-001 2.041918e-001 1.635010e-001 2.442986e-001 2.300509e-001 1.191208e-001 1.077397e-002
<GCONST> 6.309030e+001
<STATE> 16
<NUMMIXES> 4
<MIXTURE> 1 1.527378e-001
<MEAN> 39
 -2.991416e+001 -2.113623e+000 -8.539404e+000 -9.258656e+000 -2.594397e+000 -1.928221e+000 -7.219923e+000 8.562105e+000 -2.167498e+000 -3.477683e+000 -7.107489e+000 3.078812e+000 6.915234e+001 3.775716e-001 -3.284768e-001 1.928005e-001 -1.954801e-001 -3.075981e-001 -1.067801e-001 -3.757097e-001 -2.513189e-001 7.932161e-002 -6.085882e-002 -9.729797e-002 -9.315748e-002 -9.804558e-002 1.604838e-001 -1.292860e-002 1.404585e-001 1.155204e-001 -5.809710e-002 1.199225e-001 -7.899213e-002 -1.519060e-001 -4.212346e-002 -8.009429e-002 -6.010885e-002 -2.088288e-002 -1.695683e-002
<VARIANCE> 39
 1.057322e+001 1.723167e+001 8.509949e+000 8.603692e+000 1.863559e+001 1.200053e+001 2.653996e+001 3.027979e+001 1.106967e+001 1.885914e+001 2.126986e+001 1.240787e+001 3.441828e+000 2.530242e-001 3.976890e-001 3.648740e-001 5.873930e-001 1.171869e+000 1.488446e+000 7.966339e-001 1.988049e+000 1.196301e+000 9.756584e-001 7.653729e-001 8.673464e-001 6.092938e-002 5.184511e-002 5.976113e-002 8.128560e-002 1.089146e-001 1.813493e-001 2.604511e-001 1.660765e-001 3.826589e-001 1.245417e-001 2.346057e-001 1.987217e-001 1.678984e-001 1.000000e-002
<GCONST> 7.170319e+001
<MIXTURE> 2 2.737752e-001
<MEAN> 39
 -1.485085e+001 1.333753e-001 2.428613e+000 -1.476362e+001 -2.097123e+001 -1.230196e+001 -1.382002e+001 -6.586829e+000 8.916768e-001 -4.139411e+000 -8.691725e+000 1.949421e+000 7.225175e+001 7.050442e-001 -5.496899e-001 3.814319e-001 -6.967129e-001 -2.663357e-001 3.008563e-001 -2.369379e-001 5.025038e-001 1.170135e-001 6.089620e-001 1.224261e-001 1.423229e-001 -5.661545e-002 -1.668015e-001 -8.276795e-002 -3.349548e-001 1.176999e-001 1.822381e-001 3.118150e-001 1.712339e-001 1.787297e-001 6.943721e-002 -5.607561e-002 -2.913632e-002 -9.088825e-002 -4.370686e-002
<VARIANCE> 39
 5.874490e+000 4.656287e+000 1.155897e+001 4.496436e+001 3.449882e+001 2.619481e+001 2.373594e+001 3.425248e+001 2.486234e+001 3.896876e+001 4.598192e+001 3.160525e+001 2.073853e+000 2.650916e-001 3.888158e-001 8.148330e-001 1.445562e+000 7.997866e-001 1.139361e+000 1.929282e+000 1.630910e+000 1.333812e+000 2.757161e+000 1.202454e+000 1.222552e+000 8.896222e-002 1.280830e-001 8.011765e-002 1.023176e-001 3.172609e-001 2.068652e-001 2.021967e-001 4.709636e-001 2.926945e-001 1.932136e-001 2.682180e-001 2.366526e-001 2.117878e-001 1.861718e-002
<GCONST> 8.474670e+001
<MIXTURE> 3 2.680115e-001
<MEAN> 39
 -1.335392e+001 -4.212786e+000 4.846762e+000 -9.534557e+000 -1.285414e+001 -5.525700e+000 -1.352849e+001 -1.297737e+001 -4.475083e+000 -1.969569e+001 -9.334718e+000 -2.213095e+000 7.333469e+001 1.069935e+000 -3.939096e-001 6.029128e-001 -4.446968e-001 -6.194037e-001 -4.534175e-001 -1.400820e+000 -7.048398e-001 8.313134e-002 1.924874e-001 6.740596e-001 3.154648e-001 -4.042509e-002 -2.435689e-001 -9.884594e-002 -2.605848e-001 -6.537828e-002 4.513776e-002 8.490470e-003 1.853509e-001 3.667496e-001 2.945811e-001 2.266681e-001 -6.498245e-002 1.644260e-002 -3.154095e-002
<VARIANCE> 39
 7.955049e+000 2.372200e+001 7.984921e+000 9.820472e+000 1.401862e+001 2.578119e+001 1.810319e+001 2.124460e+001 2.194818e+001 2.831106e+001 2.813464e+001 1.888029e+001 1.806719e+000 3.143576e-001 4.350245e-001 8.323944e-001 6.211548e-001 7.025844e-001 9.636623e-001 7.658719e-001 1.287516e+000 1.574715e+000 1.384980e+000 1.629349e+000 1.357691e+000 4.260069e-002 4.862700e-002 8.317066e-002 9.275186e-002 9.400196e-002 1.091070e-001 1.806091e-001 1.171345e-001 2.808610e-001 2.181331e-001 1.961771e-001 2.140448e-001 3.286481e-001 1.000000e-002
<GCONST> 7.378006e+001
<MIXTURE> 4 3.054755e-001
<MEAN> 39
 -1.105961e+001 -9.251350e+000 1.235439e+000 -1.755739e+001 -1.671285e+001 -1.132724e+001 -1.417500e+001 -7.106915e+000 4.149009e+000 -1.138367e+001 1.814356e+000 2.661249e+000 7.265598e+001 2.870952e-001 -2.549567e-001 6.850009e-002 -4.137362e-001 -2.015924e-001 -1.036048e-001 1.115678e-001 5.723851e-001 6.471642e-001 6.462719e-002 9.587590e-002 -1.261295e-001 -6.372003e-002 -1.163340e-001 -2.805020e-002 -6.074400e-002 1.027303e-001 7.923587e-002 1.792675e-001 8.440831e-002 2.088251e-002 -3.780281e-002 -1.701274e-001 -1.991292e-001 -1.111117e-001 -3.815052e-002
<VARIANCE> 39
 4.873411e+000 5.560868e+000 9.087266e+000 1.090425e+001 1.135167e+001 9.885859e+000 1.338848e+001 2.087755e+001 2.170402e+001 1.161197e+001 2.566780e+001 1.973016e+001 8.953074e-001 2.216689e-001 2.963279e-001 4.596176e-001 5.808882e-001 8.541780e-001 9.018134e-001 8.550382e-001 8.450693e-001 7.410290e-001 1.565344e+000 1.965997e+000 7.985677e-001 4.285066e-002 5.215200e-002 5.298455e-002 7.938094e-002 6.795222e-002 1.584865e-001 2.062369e-001 2.171087e-001 8.568096e-002 1.096051e-001 2.569401e-001 2.356179e-001 9.473580e-002 1.000000e-002
<GCONST> 6.389651e+001
<STATE> 17
<NUMMIXES> 4
<MIXTURE> 1 3.600000e-001
<MEAN> 39
 -1.151378e+001 -4.555606e+000 6.630745e+000 -6.142608e+000 -2.036887e+001 -9.303144e+000 -1.541019e+001 -1.233007e+001 -4.654087e+000 -1.486434e+001 -2.150455e+000 -6.775790e-001 7.334227e+001 4.676826e-001 -4.750784e-001 -3.921066e-002 -6.091905e-002 -5.207494e-001 -6.355680e-001 -1.210698e-001 4.975118e-001 2.747477e-001 2.664142e-001 5.224601e-001 3.220253e-002 -1.799931e-002 -8.046184e-002 1.927038e-002 -1.988781e-001 -1.357029e-001 8.308189e-002 -1.169934e-001 8.801588e-002 2.204739e-001 2.286675e-001 1.026041e-001 -7.165236e-002 -9.941848e-002 4.115816e-003
<VARIANCE> 39
 6.310361e+000 1.382328e+001 1.013656e+001 2.561192e+001 4.982394e+001 1.072680e+001 2.536777e+001 1.658200e+001 1.131496e+001 4.072707e+001 3.278612e+001 1.331108e+001 3.119941e+000 1.258970e-001 1.672615e-001 3.221498e-001 6.634027e-001 1.123097e+000 8.065838e-001 1.121606e+000 1.473012e+000 9.486189e-001 1.938895e+000 9.650519e-001 1.119169e+000 6.749327e-002 1.969090e-002 3.560129e-002 7.003298e-002 1.606491e-001 1.961868e-001 1.140116e-001 2.106898e-001 1.893491e-001 1.775711e-001 2.212665e-001 2.171956e-001 2.274719e-001 1.000000e-002
<GCONST> 7.074612e+001
<MIXTURE> 2 3.309091e-001
<MEAN> 39
 -1.148097e+001 -1.121923e+001 1.462862e-001 -1.657682e+001 -1.681758e+001 -8.173443e+000 -1.405221e+001 -5.606036e+000 5.972616e+000 -1.649527e+001 -5.275337e+000 -4.338551e+000 7.120245e+001 -2.239366e-001 -4.019563e-001 -1.345062e-001 -1.047209e-002 2.352500e-001 -8.341458e-002 -1.120528e-001 7.247566e-002 -1.124291e-001 -2.368052e-001 1.267963e-001 5.322698e-002 -1.701579e-001 5.507219e-002 7.591134e-002 9.198402e-002 3.568497e-002 -7.396874e-002 -3.011356e-001 -9.947055e-002 -8.679467e-002 -1.378544e-001 1.426723e-001 2.972804e-001 1.952989e-001 6.050593e-002
<VARIANCE> 39
 3.047359e+000 6.327477e+000 4.424970e+000 5.342011e+000 8.532338e+000 2.018935e+001 2.435111e+001 2.165194e+001 1.747138e+001 2.601940e+001 1.384151e+001 1.399816e+001 9.819687e-001 3.497183e-001 4.781438e-001 7.222463e-001 3.249432e-001 6.307028e-001 1.899264e+000 2.214978e+000 1.964320e+000 9.104693e-001 1.119562e+000 1.520785e+000 1.697990e+000 1.163658e-001 4.348106e-002 3.586667e-002 9.991778e-002 9.222600e-002 7.705165e-002 2.972523e-001 4.352586e-001 2.951680e-001 1.049393e-001 1.450873e-001 1.556772e-001 1.653357e-001 1.372559e-002
<GCONST> 6.870171e+001
<MIXTURE> 3 1.018182e-001
<MEAN> 39
 -2.498894e+001 -5.002283e+000 -5.023924e+000 -8.988858e+000 -4.446690e+000 -1.722043e+000 -8.615914e+000 1.160521e+000 -2.080920e+000 -3.743621e+000 -7.753189e+000 3.403953e+000 6.949023e+001 2.324326e+000 3.102513e-001 1.971398e+000 1.139802e+000 -7.751270e-001 -2.579215e-001 -1.169815e+000 -1.580584e+000 -6.537758e-001 -1.340585e+000 -1.184150e-002 -4.191928e-001 1.223036e-001 4.510486e-001 4.542866e-001 5.753661e-001 3.966469e-001 -1.119239e-001 -2.073648e-001 -8.406385e-002 -1.352541e-001 -1.965044e-001 -4.105304e-001 -6.999750e-002 -3.666838e-001 1.580176e-001
<VARIANCE> 39
 2.294371e+001 2.528946e+001 8.112197e+000 8.385508e+000 8.534762e+000 1.194882e+001 3.548185e+001 2.526671e+001 1.511281e+001 4.319837e+001 1.695546e+001 1.098952e+001 2.795805e+000 7.792314e-001 1.226865e+000 9.015437e-001 8.403611e-001 9.283091e-001 1.012511e+000 2.283629e+000 1.086571e+000 1.147512e+000 9.213490e-001 2.131503e+000 9.772888e-001 1.178367e-001 8.842354e-002 7.840549e-002 9.287504e-002 1.652889e-001 9.909619e-002 2.229162e-001 3.505627e-001 2.592324e-001 2.509051e-001 1.156747e-001 3.072731e-001 1.281149e-001 1.000000e-002
<GCONST> 7.885755e+001
<MIXTURE> 4 2.072727e-001
<MEAN> 39
 -1.002275e+001 -3.194215e+000 2.998433e-001 -1.764891e+001 -2.015694e+001 -1.275626e+001 -1.709786e+001 -1.761157e+000 7.045338e+000 4.803531e+000 -2.401755e+000 6.502802e+000 7.226759e+001 6.768090e-001 -4.410835e-001 -6.744365e-001 2.475595e-002 4.747692e-001 2.988534e-001 -5.821829e-001 -1.616136e-001 -3.090799e-001 -3.032817e-001 5.089533e-001 -2.255061e-001 -1.219397e-001 -1.097771e-001 2.803632e-002 -1.054402e-001 -1.239007e-001 8.027162e-002 2.647012e-002 1.764148e-001 -1.662213e-001 -2.267195e-001 -5.222143e-001 -1.979139e-001 -1.006127e-001 -2.419281e-002
<VARIANCE> 39
 6.224771e+000 2.882928e+000 1.023257e+001 5.085566e+000 3.076408e+001 4.378900e+001 2.342923e+001 1.696454e+001 2.595329e+001 4.313904e+001 9.058441e+001 1.397203e+001 1.884806e+000 2.289824e-001 1.792699e-001 6.643194e-001 7.629713e-001 2.391434e+000 1.446376e+000 1.994272e+000 1.895036e+000 2.085106e+000 2.829754e+000 1.512232e+000 1.143068e+000 2.637430e-002 2.304096e-002 2.337409e-002 8.002543e-002 1.224069e-001 4.353068e-001 2.411998e-001 3.847531e-001 3.079396e-001 2.420972e-001 3.658427e-001 2.394697e-001 1.850315e-001 1.000000e-002
<GCONST> 7.720521e+001
<STATE> 18
<NUMMIXES> 4
<MIXTURE> 1 1.039755e-001
<MEAN> 39
 -1.510435e+001 -2.016891e+000 4.397489e+000 -4.241978e+000 -8.352069e+000 -3.879154e+000 -1.279408e+001 -4.060363e+000 -6.356630e+000 -1.198259e+001 -8.312883e+000 -1.678828e+000 7.073881e+001 1.811384e+000 3.638086e-001 2.004127e+000 8.567745e-001 -1.349444e+000 -9.290346e-001 -6.177405e-001 -7.759759e-001 -6.656273e-001 -9.909150e-001 2.972660e-001 -1.006394e+000 2.910341e-001 -4.195924e-001 -2.815249e-001 -4.736409e-001 -3.016635e-001 -1.072173e-001 -8.218650e-002 1.759714e-001 3.582021e-001 3.392178e-001 4.413950e-001 2.154163e-001 2.522049e-001 -3.819174e-002
<VARIANCE> 39
 8.148716e+000 1.549934e+001 8.514500e+000 7.951807e+000 1.449876e+001 9.501965e+000 1.774247e+001 1.692607e+001 2.451667e+001 5.595691e+001 3.056180e+001 1.353564e+001 2.674307e+000 9.135060e-001 7.852440e-001 7.753148e-001 5.952967e-001 1.060442e+000 1.187758e+000 1.687618e+000 1.195018e+000 1.979983e+000 1.559938e+000 1.954006e+000 1.139557e+000 6.258734e-002 5.666485e-002 4.497421e-002 8.293901e-002 8.183237e-002 1.399130e-001 1.257754e-001 1.884630e-001 2.192965e-001 1.804384e-001 9.116451e-002 2.761745e-001 1.303654e-001 1.000000e-002
<GCONST> 7.435008e+001
<MIXTURE> 2 3.302752e-001
<MEAN> 39
 -9.034874e+000 -8.444211e+000 -2.292046e+000 -2.066707e+001 -1.737640e+001 -7.565665e+000 -1.187815e+001 -3.457753e+000 2.893173e+000 -1.614380e+001 -8.860311e+000 -4.353929e+000 7.171953e+001 2.936929e-002 -1.093129e-002 -2.497548e-001 -3.545193e-001 1.153003e-001 7.173015e-001 1.235904e+000 6.634851e-001 -2.739916e-001 -1.556378e+000 -1.256616e+000 -7.316592e-001 -1.468240e-001 -2.926147e-002 3.800890e-003 1.493297e-001 1.858965e-001 -4.826387e-002 -1.420096e-001 -1.469043e-001 1.400479e-001 2.556219e-001 3.047352e-001 1.907799e-001 2.664232e-002 -3.783669e-003
<VARIANCE> 39
 2.476685e+000 1.085826e+001 9.858453e+000 1.774228e+001 1.297036e+001 1.640623e+001 2.027771e+001 1.519996e+001 2.441399e+001 4.079964e+001 3.796444e+001 1.823635e+001 4.344143e+000 1.150368e-001 3.478354e-001 4.510576e-001 4.899960e-001 8.503469e-001 8.331209e-001 8.667371e-001 1.086791e+000 1.406002e+000 1.254143e+000 1.911625e+000 1.131459e+000 4.740364e-002 1.402485e-002 5.518567e-002 1.163222e-001 8.740069e-002 1.344002e-001 2.229427e-001 2.592795e-001 2.161240e-001 2.209958e-001 2.593881e-001 3.425669e-001 1.628162e-001 1.000000e-002
<GCONST> 7.080151e+001
<MIXTURE> 3 1.712538e-001
<MEAN> 39
 -1.061409e+001 -3.377478e+000 5.662037e+000 -4.611278e+000 -2.555355e+001 -1.104158e+001 -1.586673e+001 -6.835948e+000 -2.940056e+000 -3.400386e+000 2.170520e+000 -2.660070e+000 7.398571e+001 7.065850e-001 -3.245544e-001 -1.156567e+000 -1.171836e+000 2.890939e-001 -4.512304e-001 -1.314588e+000 1.280173e+000 1.970603e+000 9.943020e-001 -8.153603e-003 -5.396869e-001 -2.011133e-001 -3.172256e-002 4.920939e-002 -2.283515e-001 -3.195847e-001 3.511940e-001 2.897697e-001 1.740558e-002 8.989489e-002 1.338674e-001 -3.052532e-001 -4.010395e-001 6.198181e-002 -1.062542e-001
<VARIANCE> 39
 3.901925e+000 7.631919e+000 1.263205e+001 1.813020e+001 2.718727e+001 4.134916e+001 2.150153e+001 3.326720e+001 2.892293e+001 1.213887e+002 2.535284e+001 1.747433e+001 6.341224e+000 1.315484e-001 2.461644e-001 9.009394e-001 8.898810e-001 2.575673e+000 1.432192e+000 1.078543e+000 6.442121e-001 1.171408e+000 1.491063e+000 2.507807e+000 1.447828e+000 1.034502e-001 1.481816e-002 3.495719e-002 1.794918e-001 1.810292e-001 4.300064e-001 2.257684e-001 3.575533e-001 1.935014e-001 5.733615e-001 3.706489e-001 2.863865e-001 3.947315e-001 1.000000e-002
<GCONST> 8.274597e+001
<MIXTURE> 4 3.944954e-001
<MEAN> 39
 -9.365765e+000 -8.680503e+000 1.334356e+000 -1.519436e+001 -1.812597e+001 -1.235159e+001 -1.806899e+001 -5.398391e+000 5.175878e+000 -1.009617e+001 3.645102e-001 -9.433561e-001 7.213228e+001 1.541978e-001 -1.771904e-001 -5.899586e-001 -1.153184e+000 -1.187176e-001 1.963580e-001 1.554230e-001 4.054581e-001 3.227849e-001 -2.704609e-001 -2.609114e-001 -2.656491e-001 -9.960666e-002 -4.889992e-002 6.943119e-002 1.689306e-002 5.216126e-003 3.995656e-002 3.074253e-001 3.286545e-001 -3.018812e-002 -2.657451e-001 -4.687990e-001 -4.069745e-001 -1.314638e-001 -2.084806e-002
<VARIANCE> 39
 2.600489e+000 1.066422e+001 1.027555e+001 1.443414e+001 1.314886e+001 1.209598e+001 1.890604e+001 2.299452e+001 2.289723e+001 2.830713e+001 5.349754e+001 2.814920e+001 4.438669e+000 1.118548e-001 2.174222e-001 4.450143e-001 6.955105e-001 4.600563e-001 1.277134e+000 1.268533e+000 7.700078e-001 1.578254e+000 2.520410e+000 2.226422e+000 1.268930e+000 4.903674e-002 2.462898e-002 4.926038e-002 1.074326e-001 1.394376e-001 1.125196e-001 1.343579e-001 2.441179e-001 2.051987e-001 2.163014e-001 2.288626e-001 2.828424e-001 2.566254e-001 1.000000e-002
<GCONST> 7.204924e+001
<STATE> 19
<NUMMIXES> 4
<MIXTURE> 1 1.562500e-001
<MEAN> 39
 -8.927184e+000 -9.909671e+000 5.175119e+000 -8.937276e+000 -1.110866e+001 -8.678517e+000 -1.053162e+001 -6.070682e+000 -1.742742e+000 -2.055242e+001 -2.106411e+000 -1.956312e-001 7.249577e+001 3.845686e-001 2.839573e-002 -2.822271e-001 -3.415437e-001 -1.373288e-001 -3.274867e-001 -6.072979e-001 -1.151125e-001 2.343614e-001 5.587627e-001 6.769732e-001 3.253739e-001 1.912089e-001 -4.884716e-002 5.069364e-002 -6.930904e-002 -1.755925e-001 9.981050e-002 9.336242e-002 -3.471107e-002 -2.634767e-002 -4.302083e-002 8.567739e-002 -9.256049e-002 -1.269759e-001 -1.748708e-002
<VARIANCE> 39
 2.468282e+000 4.639978e+000 1.939352e+001 2.505480e+001 9.839806e+000 1.195662e+001 1.356921e+001 5.503928e+000 1.893867e+001 1.699063e+001 1.332346e+001 1.665782e+001 5.507740e+000 6.572544e-002 1.106623e-001 3.356034e-001 5.575255e-001 5.122249e-001 1.299071e+000 3.130469e-001 5.139977e-001 7.229767e-001 1.284786e+000 9.133181e-001 3.924321e-001 1.428132e-002 1.455594e-002 3.167004e-002 7.653552e-002 7.904546e-002 4.638542e-002 2.522917e-001 1.039687e-001 1.097628e-001 1.153130e-001 2.013042e-001 1.464206e-001 6.780064e-002 1.000000e-002
<GCONST> 5.339074e+001
<MIXTURE> 2 3.906250e-001
<MEAN> 39
 -9.461433e+000 -9.789673e+000 -1.733936e+000 -2.217755e+001 -1.710358e+001 -7.196062e+000 -9.900695e+000 -2.726299e-001 6.805286e+000 -1.853472e+001 -9.491034e+000 -8.283162e+000 7.179199e+001 -5.563002e-002 -9.062932e-002 1.123947e-001 1.590169e-001 -3.248136e-002 -3.546845e-001 -4.825131e-001 1.463544e-001 7.486900e-001 5.817752e-001 4.039251e-001 4.919641e-002 -3.943347e-002 -1.449874e-003 2.554490e-002 2.289982e-002 2.019843e-002 -2.648945e-002 -5.224081e-002 -8.970706e-002 -1.505194e-001 2.070377e-002 2.473794e-001 2.885213e-001 2.371756e-001 5.057696e-003
<VARIANCE> 39
 4.697501e+000 1.078060e+001 4.125904e+000 6.959295e+000 1.966412e+001 1.299586e+001 1.095213e+001 1.659888e+001 2.413218e+001 2.000580e+001 2.250091e+001 1.316348e+001 2.360158e+000 1.184337e-001 2.221248e-001 3.801780e-001 4.848346e-001 5.098437e-001 8.074099e-001 1.292312e+000 1.460143e+000 1.405702e+000 1.309325e+000 1.625541e+000 1.689342e+000 2.399042e-002 1.264384e-002 2.882119e-002 4.710872e-002 9.125074e-002 1.183545e-001 1.387464e-001 2.775651e-001 2.849056e-001 3.305884e-001 1.881675e-001 2.496485e-001 3.014080e-001 1.000000e-002
<GCONST> 6.476086e+001
<MIXTURE> 3 3.375000e-001
<MEAN> 39
 -1.144927e+001 -9.201958e+000 -5.045825e-001 -1.517490e+001 -1.726331e+001 -9.329383e+000 -1.623994e+001 -2.807927e+000 3.490036e+000 -1.012026e+001 -2.203255e+000 1.123739e-001 6.961684e+001 1.191800e-002 -6.435525e-002 -8.107615e-002 -1.622233e-001 1.170437e-001 5.697563e-001 2.933215e-001 2.733369e-001 3.160324e-001 -7.993624e-002 -4.221951e-001 -1.678864e-001 -1.859948e-001 3.987530e-002 2.242305e-002 5.911944e-002 -1.891349e-002 -5.164161e-002 -9.052983e-003 1.624117e-003 1.535514e-002 1.516561e-001 1.849959e-002 -3.498348e-002 -2.096948e-001 2.722890e-002
<VARIANCE> 39
 4.334045e+000 1.600260e+001 6.145616e+000 1.541079e+001 1.577084e+001 2.374130e+001 1.193645e+001 2.688445e+001 1.500213e+001 6.014649e+001 1.841555e+001 2.472548e+001 3.841460e+000 1.891396e-001 2.627088e-001 4.560460e-001 6.960635e-001 7.789291e-001 1.366685e+000 9.441987e-001 1.412782e+000 9.864701e-001 3.406867e+000 1.493648e+000 2.083559e+000 2.955251e-002 2.650780e-002 3.380494e-002 8.978678e-002 9.033012e-002 1.051743e-001 2.004793e-001 1.686111e-001 1.201817e-001 2.016259e-001 5.694428e-001 2.198957e-001 2.229467e-001 1.000000e-002
<GCONST> 7.208759e+001
<MIXTURE> 4 1.156250e-001
<MEAN> 39
 -1.153950e+001 -1.255066e+000 5.765623e+000 -3.845470e+000 -1.573693e+001 -7.325806e+000 -1.494760e+001 -5.608946e+000 -1.077238e+001 -1.267884e+001 -1.069979e+001 -1.482204e+000 7.090305e+001 7.479630e-001 -3.937385e-001 -2.503210e-001 -2.778741e-001 -1.371404e+000 -8.467627e-001 -3.977479e-001 3.553928e-001 6.797231e-002 6.124521e-001 4.911909e-001 1.952449e-001 1.405378e-001 -8.768693e-002 -5.650660e-002 -3.094274e-001 -1.618505e-001 1.576113e-001 1.108650e-001 -1.213027e-001 2.530853e-001 3.169312e-001 1.526657e-001 -3.616494e-002 -2.275290e-002 -4.262235e-002
<VARIANCE> 39
 2.528376e+000 4.435106e+000 4.106349e+000 7.839891e+000 1.640929e+001 1.469137e+001 1.471106e+001 2.025983e+001 6.012428e+001 2.150529e+001 1.913884e+001 1.190969e+001 3.727920e-001 6.444285e-002 1.761057e-001 6.323215e-001 7.236165e-001 5.487781e-001 8.506916e-001 1.271015e+000 2.337127e+000 2.665564e+000 1.196972e+000 9.687188e-001 5.447413e-001 4.154033e-002 1.645233e-002 2.539941e-002 5.769489e-002 1.128597e-001 1.208222e-001 2.320546e-001 3.330218e-001 2.684704e-001 4.512648e-001 3.039140e-001 1.699442e-001 1.647920e-001 1.000000e-002
<GCONST> 6.379134e+001
<STATE> 20
<NUMMIXES> 4
<MIXTURE> 1 7.900677e-002
<MEAN> 39
 -7.755267e+000 -6.209254e+000 4.892617e+000 -9.931522e+000 -1.056719e+001 -6.335613e+000 -1.481276e+001 -9.279714e+000 -5.204282e+000 -1.806522e+001 -6.015154e-001 3.196991e+000 7.241697e+001 -1.026816e-001 1.100606e-001 -6.858582e-002 -7.541780e-001 -2.594091e-001 4.314386e-001 4.472742e-001 1.329109e-001 3.490489e-001 -1.255779e-001 -3.952065e-001 -2.378110e-001 -2.038659e-001 -5.669436e-002 1.842730e-002 1.076778e-001 5.261315e-002 -2.015091e-001 -2.601654e-001 4.506144e-002 1.339531e-001 7.633851e-002 -2.944055e-002 -1.919673e-001 -8.645792e-002 -1.610076e-002
<VARIANCE> 39
 4.576066e+000 3.551323e+000 3.372585e+000 8.343186e+000 1.241418e+001 1.697576e+001 4.260341e+001 8.067508e+000 7.934688e+000 2.336400e+001 9.271581e+000 7.968397e+000 1.223103e+001 7.232345e-002 2.529115e-001 4.287900e-001 3.851938e-001 6.986343e-001 1.491814e+000 7.000123e-001 5.610228e-001 1.419469e+000 1.282357e+000 1.211617e+000 5.842916e-001 4.213339e-002 1.447599e-002 2.258123e-002 6.639212e-002 4.422105e-002 6.759182e-002 1.674565e-001 1.697751e-001 7.426700e-002 2.447632e-001 2.950287e-001 1.809679e-001 1.237428e-001 1.000000e-002
<GCONST> 5.766942e+001
<MIXTURE> 2 2.595937e-001
<MEAN> 39
 -1.027984e+001 -1.022717e+001 -3.336983e+000 -2.242928e+001 -1.852274e+001 -7.434658e+000 -1.016191e+001 7.423682e-001 1.037796e+001 -1.160671e+001 -3.883873e+000 -2.138779e+000 7.080031e+001 -1.934500e-001 -5.425668e-002 4.997880e-002 1.186285e-001 -1.706578e-001 -3.007907e-001 8.428804e-002 -1.044663e-002 1.520413e-001 5.870321e-001 7.985582e-001 8.686795e-001 -1.207880e-001 5.864956e-003 4.602746e-002 6.202369e-002 7.557411e-002 1.002345e-002 -8.807295e-002 -5.401614e-002 -1.143985e-001 -1.327332e-001 5.698172e-003 7.038662e-003 1.090598e-001 2.764754e-003
<VARIANCE> 39
 1.189055e+001 2.451656e+001 9.273156e+000 1.089789e+001 5.014217e+001 1.114942e+001 1.199196e+001 2.732875e+001 2.181459e+001 2.695236e+001 2.099964e+001 2.523560e+001 1.376363e+000 4.546301e-002 1.912131e-001 4.148789e-001 5.572269e-001 9.266171e-001 7.990227e-001 9.546377e-001 1.462212e+000 1.165807e+000 1.620054e+000 2.017995e+000 1.861194e+000 3.966709e-002 1.550306e-002 3.530017e-002 7.667316e-002 1.205278e-001 1.305230e-001 1.370989e-001 1.884868e-001 2.499125e-001 2.123280e-001 2.748359e-001 3.164044e-001 3.081567e-001 1.000000e-002
<GCONST> 7.056285e+001
<MIXTURE> 3 4.130926e-001
<MEAN> 39
 -8.157925e+000 -7.316169e+000 3.123207e+000 -1.690233e+001 -1.832141e+001 -1.195762e+001 -1.749499e+001 -5.555486e+000 5.031577e+000 -1.416739e+001 -5.908280e+000 -6.990060e+000 7.149453e+001 1.154216e-001 6.282797e-002 1.156320e-001 -1.467520e-001 -9.856819e-002 -1.043670e-002 6.225022e-002 1.516296e-001 3.119457e-001 7.983138e-002 1.088378e-001 -1.702710e-001 -2.583320e-002 -1.806379e-002 -2.171160e-002 -5.642806e-002 8.874869e-003 -2.983783e-002 5.219463e-002 1.230472e-001 8.537106e-002 2.971107e-002 4.267311e-002 6.037606e-002 1.196917e-001 3.664585e-003
<VARIANCE> 39
 1.745914e+000 4.894121e+000 7.453077e+000 1.294258e+001 1.047759e+001 8.584614e+000 8.986451e+000 1.642917e+001 1.325705e+001 2.402155e+001 2.229510e+001 1.332617e+001 4.339005e+000 1.024936e-001 3.309557e-001 4.634418e-001 7.101265e-001 8.246126e-001 7.979562e-001 1.156017e+000 1.084370e+000 9.254752e-001 1.491029e+000 9.902705e-001 1.148850e+000 3.501540e-002 1.564852e-002 4.431931e-002 5.481710e-002 1.090744e-001 1.367340e-001 1.508210e-001 1.846797e-001 1.820990e-001 1.459821e-001 2.047832e-001 1.214092e-001 2.099870e-001 1.000000e-002
<GCONST> 6.177081e+001
<MIXTURE> 4 2.483070e-001
<MEAN> 39
 -7.468402e+000 -3.721795e+000 -9.402826e-001 -1.498563e+001 -2.327642e+001 -8.224994e+000 -1.511537e+001 3.281771e+000 2.254628e+000 -8.746058e+000 -7.436074e+000 -3.765954e+000 7.060056e+001 3.162400e-001 4.194059e-003 1.320065e-002 -9.022405e-001 9.911661e-002 1.877354e-002 4.475585e-001 9.208845e-001 1.012942e+000 -5.450884e-001 -2.658511e-001 -4.749946e-001 -1.573946e-001 -8.863968e-002 4.164826e-002 1.721047e-001 1.939193e-001 1.288397e-001 -8.135623e-002 -1.388905e-001 -3.733422e-001 -8.593573e-002 1.458151e-001 2.408106e-001 1.209933e-001 -1.170888e-002
<VARIANCE> 39
 2.450349e+000 3.713098e+000 9.770535e+000 3.101815e+001 1.171689e+001 1.730853e+001 1.318163e+001 2.552956e+001 3.264303e+001 4.543256e+001 2.475634e+001 1.017498e+001 1.437775e+000 8.114412e-002 1.761990e-001 6.724308e-001 7.731072e-001 6.795616e-001 1.192490e+000 1.436148e+000 1.246498e+000 1.156029e+000 1.752284e+000 1.392732e+000 7.173950e-001 4.287199e-002 1.477332e-002 2.637657e-002 8.083996e-002 1.312363e-001 8.901822e-002 2.544402e-001 2.480982e-001 1.763686e-001 1.798002e-001 3.261263e-001 2.308952e-001 1.484442e-001 1.000000e-002
<GCONST> 6.682195e+001
<STATE> 21
<NUMMIXES> 4
<MIXTURE> 1 2.568807e-001
<MEAN> 39
 -7.479294e+000 -4.719664e+000 3.173321e+000 -1.610952e+001 -1.609682e+001 -6.555815e+000 -1.212904e+001 -6.235193e-001 2.436053e+000 -1.395514e+001 -5.409358e+000 -2.454638e+000 7.123601e+001 -6.247433e-001 -4.923276e-001 -2.353566e-001 -2.766418e-001 3.113256e-001 8.558012e-002 1.080554e-001 -4.902975e-001 2.436827e-001 -7.970043e-002 2.909284e-001 2.719865e-001 -3.975302e-001 -1.452289e-001 -2.161542e-001 -1.860159e-001 -5.882573e-003 -7.567782e-002 1.893982e-002 -9.383348e-003 2.872318e-002 1.612875e-001 2.165387e-001 1.907690e-001 1.401522e-001 -3.500179e-002
<VARIANCE> 39
 3.135356e+000 3.754815e+000 7.942570e+000 8.110606e+000 9.498500e+000 9.946351e+000 2.142895e+001 2.973218e+001 2.672833e+001 2.754530e+001 1.467030e+001 2.179299e+001 6.361931e+000 1.717660e-001 3.466092e-001 5.687579e-001 4.604831e-001 4.990390e-001 9.653413e-001 1.153051e+000 1.453293e+000 1.916235e+000 1.221929e+000 1.699747e+000 1.378319e+000 3.777272e-002 1.604377e-002 3.049312e-002 5.189662e-002 7.548022e-002 1.077241e-001 1.502377e-001 3.023078e-001 3.797265e-001 3.078641e-001 1.983249e-001 2.913843e-001 2.294848e-001 1.000000e-002
<GCONST> 6.802435e+001
<MIXTURE> 2 1.559633e-001
<MEAN> 39
 -1.265109e+001 -1.327000e+001 -3.332946e+000 -2.255739e+001 -1.871411e+001 -8.440223e+000 -5.788736e+000 2.736956e+000 1.175191e+001 -9.626614e+000 -1.214292e-001 4.033774e+000 7.064685e+001 7.014065e-001 3.966698e-001 -3.628197e-001 -6.820113e-001 -1.106580e+000 -6.418522e-002 1.131345e-001 3.953255e-001 2.918963e-001 9.610931e-001 8.304378e-001 5.564710e-001 3.499188e-001 1.056884e-001 4.487781e-002 -3.494887e-002 -6.284582e-002 7.584389e-002 1.513863e-001 -4.820511e-002 -1.905583e-003 3.009722e-002 -1.792325e-001 -1.970222e-001 -3.976449e-001 6.366578e-002
<VARIANCE> 39
 7.902845e+000 7.001539e+000 7.345894e+000 1.141864e+001 2.324237e+001 1.182878e+001 2.293756e+001 7.527928e+000 8.651629e+000 1.840096e+001 2.486074e+001 1.597328e+001 1.738199e+000 2.080768e-001 2.017332e-001 1.580645e-001 3.068127e-001 7.182227e-001 9.308069e-001 2.752483e+000 1.320197e+000 5.352734e-001 1.580384e+000 1.576573e+000 1.301832e+000 9.648907e-002 3.923080e-002 4.030040e-002 4.016796e-002 8.418701e-002 1.762425e-001 2.056406e-001 7.329051e-001 3.289309e-001 7.616506e-002 5.164768e-001 4.985809e-001 2.053414e-001 1.621675e-002
<GCONST> 6.888350e+001
<MIXTURE> 3 3.761468e-001
<MEAN> 39
 -7.840263e+000 -5.883737e+000 3.544721e-001 -1.932807e+001 -2.216468e+001 -1.235505e+001 -1.673753e+001 1.096420e+000 1.030308e+001 -7.320829e+000 -1.090490e+000 -6.357728e-001 6.934126e+001 -5.637116e-002 -9.335164e-002 -7.993213e-002 1.552747e-002 -6.954527e-002 -2.263000e-001 -1.470592e-001 -1.137981e-001 1.686233e-001 3.540054e-001 6.979002e-001 6.279557e-001 -8.193909e-002 -1.053210e-001 -8.306457e-002 -6.416602e-002 8.698895e-003 1.209113e-001 1.775931e-001 5.813245e-002 -1.892848e-001 -3.840844e-001 -4.452904e-001 -2.510886e-001 -8.382220e-002 -1.940815e-002
<VARIANCE> 39
 2.131063e+000 1.136860e+001 7.648891e+000 1.929216e+001 1.326966e+001 1.208160e+001 2.215591e+001 3.250818e+001 1.532822e+001 2.303643e+001 2.633918e+001 2.689341e+001 3.359875e+000 8.280547e-002 2.430829e-001 5.593830e-001 9.166228e-001 1.214947e+000 1.092481e+000 1.094771e+000 3.119204e+000 1.904848e+000 1.826269e+000 1.621001e+000 2.600617e+000 4.397515e-002 1.888810e-002 5.828214e-002 8.260681e-002 1.070342e-001 1.417983e-001 1.955359e-001 2.153017e-001 6.154276e-001 3.983612e-001 3.462939e-001 2.690524e-001 4.797015e-001 1.000000e-002
<GCONST> 7.587642e+001
<MIXTURE> 4 2.110092e-001
<MEAN> 39
 -9.932596e+000 -6.642592e+000 3.067967e+000 -1.275593e+001 -1.676541e+001 -8.817909e+000 -1.955092e+001 -5.836732e+000 5.462286e+000 -1.257774e+001 -4.446974e+000 -5.464122e+000 6.803135e+001 -1.319078e-001 -2.964680e-002 3.816625e-002 -1.886880e-001 -5.252275e-002 -1.418374e-001 -3.915586e-001 -5.312542e-001 -5.112518e-001 -8.676223e-001 -1.277990e-001 3.591624e-001 -1.083157e-001 -3.167218e-002 -1.434894e-001 -1.330404e-001 -1.135739e-001 -1.754490e-002 3.571584e-002 2.261988e-001 3.254280e-001 8.529116e-002 2.433806e-001 8.463737e-002 1.796489e-001 2.226181e-003
<VARIANCE> 39
 1.738875e+000 5.967247e+000 7.174564e+000 2.262039e+001 1.175904e+001 9.018476e+000 2.471021e+001 1.809732e+001 1.151321e+001 2.640706e+001 1.635758e+001 1.888697e+001 2.298414e+000 1.286973e-001 1.351596e-001 2.940421e-001 4.783103e-001 7.489190e-001 1.800656e+000 1.911366e+000 2.257979e+000 2.274750e+000 1.456780e+000 9.023639e-001 1.957477e+000 5.376350e-002 1.607112e-002 3.591134e-002 9.528477e-002 1.090522e-001 1.614040e-001 2.599837e-001 2.334271e-001 5.167775e-001 4.070068e-001 3.700219e-001 9.932558e-002 4.239358e-001 1.000000e-002
<GCONST> 6.977150e+001
<STATE> 22
<NUMMIXES> 4
<MIXTURE> 1 1.646342e-001
<MEAN> 39
 -9.102648e+000 -1.116480e+001 -5.863084e+000 -2.607459e+001 -2.074797e+001 -2.863998e+000 -5.492994e-001 5.778292e+000 1.292747e+001 -9.289118e+000 -1.328802e+000 -1.783724e-004 7.223334e+001 -3.367027e-001 -4.643314e-001 -8.243568e-002 4.500059e-001 1.075704e+000 1.350029e+000 1.190505e+000 2.584505e-001 -3.501907e-001 -1.011175e+000 -9.983613e-001 -1.141474e+000 -1.746935e-001 -2.314958e-001 -1.306597e-001 1.100372e-001 3.758001e-001 3.376392e-001 -1.082038e-001 -2.032076e-001 -1.789629e-001 -2.638205e-001 -1.421827e-001 4.591458e-002 1.214327e-001 -1.339573e-001
<VARIANCE> 39
 2.504653e+000 7.459368e+000 9.013962e+000 9.657022e+000 6.438532e+000 2.040359e+001 2.960857e+001 1.242145e+001 1.320747e+001 1.751970e+001 6.113159e+000 1.066519e+001 2.039153e+000 4.754701e-001 3.575340e-001 1.755622e-001 8.585296e-001 9.955212e-001 1.040540e+000 2.052584e+000 6.976940e-001 1.402611e+000 8.262669e-001 2.569078e-001 5.661367e-001 1.129270e-001 2.126107e-002 2.517353e-002 3.886873e-002 8.946487e-002 6.998590e-002 1.964271e-001 3.411313e-001 1.411589e-001 3.255193e-001 1.639481e-001 1.114006e-001 1.042542e-001 1.000000e-002
<GCONST> 6.045364e+001
<MIXTURE> 2 2.865854e-001
<MEAN> 39
 -1.221183e+001 -1.200820e+001 1.387197e+000 -1.562640e+001 -1.182082e+001 -5.140393e+000 -1.027724e+001 -4.545205e+000 4.061828e+000 -1.781223e+001 -4.758295e+000 -5.374815e+000 7.013647e+001 -5.833928e-001 -7.408201e-001 -5.142482e-001 1.742712e-001 7.250654e-001 3.651047e-001 3.625109e-001 2.832457e-001 -5.890906e-003 2.201287e-001 3.158286e-001 1.567462e-001 -2.649238e-001 5.131491e-003 -5.086353e-003 -1.307817e-002 -4.554835e-002 -9.937754e-002 -1.773318e-001 -1.417390e-001 -5.418346e-002 4.898712e-002 1.671955e-001 1.673742e-001 1.665266e-001 -7.544483e-003
<VARIANCE> 39
 2.555370e+000 6.324434e+000 9.211836e+000 1.121368e+001 1.056923e+001 1.146975e+001 1.504083e+001 1.070788e+001 1.326353e+001 2.517664e+001 2.181586e+001 1.905418e+001 1.144856e+000 1.628509e-001 3.835116e-001 3.347846e-001 5.035052e-001 9.485629e-001 1.656631e+000 1.591724e+000 1.088044e+000 1.739446e+000 1.111849e+000 1.494783e+000 1.315039e+000 4.074793e-002 1.889200e-002 4.865394e-002 4.730868e-002 9.275572e-002 1.607435e-001 1.756741e-001 2.150317e-001 2.151755e-001 2.100782e-001 1.671661e-001 2.227029e-001 2.113453e-001 1.000000e-002
<GCONST> 6.546390e+001
<MIXTURE> 3 3.079268e-001
<MEAN> 39
 -1.049121e+001 -7.993703e+000 -1.372201e-001 -1.750679e+001 -1.913916e+001 -1.108911e+001 -1.861025e+001 -6.422435e+000 3.369991e+000 -1.044595e+001 -4.468596e-001 2.532309e-001 6.925922e+001 -7.210749e-001 -5.638900e-001 -3.392512e-001 1.910979e-001 6.745782e-001 7.373362e-001 5.554237e-001 -6.103060e-002 -4.111803e-001 -1.392834e-001 2.490397e-001 3.033682e-001 -2.672102e-001 -1.432355e-001 -1.753507e-001 -7.895458e-002 8.112822e-002 2.436396e-001 3.560086e-001 4.210676e-001 3.841814e-001 2.118751e-001 -3.946762e-002 -1.510487e-001 -1.272839e-001 -5.282998e-002
<VARIANCE> 39
 2.534444e+000 5.260533e+000 5.907590e+000 1.091314e+001 1.590677e+001 9.417750e+000 2.341542e+001 2.154727e+001 1.406351e+001 2.307008e+001 2.394345e+001 2.799944e+001 3.565309e+000 1.304438e-001 2.809420e-001 3.348748e-001 7.654070e-001 1.193108e+000 1.318504e+000 1.635067e+000 1.602877e+000 1.521006e+000 1.913433e+000 1.124064e+000 1.702399e+000 3.243545e-002 1.940233e-002 4.136598e-002 6.738934e-002 1.454376e-001 1.926769e-001 1.666195e-001 2.112773e-001 2.084823e-001 2.616957e-001 1.461458e-001 2.712972e-001 3.368649e-001 1.000000e-002
<GCONST> 6.968967e+001
<MIXTURE> 4 2.408537e-001
<MEAN> 39
 -9.603780e+000 -9.030127e+000 -2.122401e+000 -2.257146e+001 -2.197549e+001 -1.227077e+001 -1.234817e+001 2.788462e+000 1.160332e+001 -8.261815e+000 6.669047e-001 1.832438e+000 6.966640e+001 -8.062978e-001 -9.183502e-001 -3.669731e-001 7.143692e-002 3.930127e-001 2.437062e-001 2.749449e-001 -1.789333e-001 -1.015491e-001 -6.239980e-001 -4.676078e-002 4.692177e-001 -4.037227e-001 -1.003328e-001 -8.746002e-002 5.478687e-002 2.666185e-001 3.242057e-001 2.208400e-001 -1.854965e-001 -2.612821e-001 -3.728444e-001 -2.839420e-001 -2.313466e-001 -2.118962e-001 -5.826825e-002
