~o
<STREAMINFO> 1 39
<VECSIZE> 39<NULLD><MFCC_D_A_0><DIAGC>
~h "xiadun_arm_l"
<BEGINHMM>
<NUMSTATES> 15
<STATE> 2
<NUMMIXES> 4
<MIXTURE> 1 5.336805e-002
<MEAN> 39
 -1.052521e+001 -1.409993e+001 -8.258211e+000 -1.919136e+001 -2.263345e+001 -3.771243e+000 -2.329597e+000 -3.940373e-001 -9.679935e-001 -9.372885e+000 -9.652572e+000 -7.499536e+000 7.892876e+001 1.145952e+000 -1.196705e+000 2.747743e-001 -8.350688e-001 -3.220032e-001 3.641612e-001 2.448745e+000 -1.881907e-001 -1.118401e+000 2.606983e-001 2.892763e-001 -9.150445e-001 7.663643e-001 -4.898909e-001 -2.794743e-001 -4.754156e-001 7.899297e-001 6.513939e-001 6.643136e-001 3.524403e-003 -8.705127e-002 -4.115202e-001 -3.069814e-001 3.873477e-001 9.104289e-001 -5.973955e-002
<VARIANCE> 39
 2.151078e+000 8.623878e+000 1.877335e+001 4.060993e+000 1.051540e+001 1.608723e+001 3.437644e+001 1.569498e+001 3.807590e+001 3.889272e+001 1.761785e+001 1.202220e+001 4.992648e+000 6.388859e-001 3.997328e-001 1.079686e+000 1.479832e+000 1.396647e+000 3.272479e+000 2.311156e+000 6.154180e-001 1.535380e+000 3.436197e+000 3.008702e+000 4.191734e+000 1.179569e-001 4.480660e-002 6.150840e-002 6.085100e-002 8.571970e-002 2.891073e-001 3.505809e-001 8.795847e-001 1.228818e-001 2.865639e-001 8.068243e-001 3.644093e-001 3.117005e-001 3.249831e-002
<GCONST> 8.492289e+001
<MIXTURE> 2 3.225932e-001
<MEAN> 39
 -2.543494e+001 -4.885082e+000 -1.312896e+001 -1.139795e+001 -1.000164e+001 -2.148686e+000 -2.609669e+000 2.236572e+000 5.248749e+000 -4.541336e+000 -7.252932e+000 4.463986e+000 7.284209e+001 -2.537241e-001 5.413972e-001 -3.263656e-001 1.066329e-001 5.360726e-002 -2.209650e-001 3.004692e-001 1.915622e-001 1.439418e-001 3.940706e-001 -2.591676e-001 -4.344086e-002 5.459619e-001 2.220280e-001 -2.252099e-001 6.663632e-002 -7.963055e-002 -1.655310e-001 -2.661472e-003 -1.295640e-001 1.009569e-002 4.235997e-002 -1.621275e-001 8.481482e-003 -1.185939e-001 -2.685065e-002
<VARIANCE> 39
 5.958841e+000 1.140259e+001 2.683400e+001 2.192470e+001 1.981425e+001 3.138373e+001 1.896798e+001 1.515861e+001 3.432618e+001 2.924024e+001 2.833906e+001 1.821180e+001 5.666006e+000 5.373453e-001 8.155882e-001 8.016482e-001 7.704158e-001 1.138026e+000 1.156307e+000 1.270404e+000 1.060712e+000 2.320972e+000 1.431428e+000 8.600858e-001 1.170854e+000 1.551844e-001 5.240194e-002 8.450280e-002 1.032455e-001 1.351266e-001 1.718659e-001 1.992052e-001 2.710578e-001 2.104206e-001 4.377795e-001 3.052466e-001 1.367437e-001 1.866608e-001 2.195846e-002
<GCONST> 8.244003e+001
<MIXTURE> 3 3.821201e-001
<MEAN> 39
 -2.142784e+001 -7.283247e+000 -1.623730e+001 -8.651422e+000 -2.087333e+001 4.490436e+000 -9.988990e+000 6.583001e+000 2.768122e+000 -8.449784e+000 -5.721373e+000 5.340839e+000 7.332311e+001 -1.198348e-001 4.729519e-001 -5.598328e-001 4.245765e-001 -4.391547e-001 6.695895e-002 -2.272766e-002 -5.803216e-002 -5.088739e-001 -5.206948e-003 -3.212727e-001 -1.669345e-002 3.139630e-001 8.661968e-002 -1.711721e-001 1.357779e-001 -1.382910e-001 1.266141e-001 -1.639255e-001 5.943254e-002 -9.737468e-002 -2.237350e-002 -2.621238e-002 -8.012065e-003 -1.083868e-001 -1.528622e-002
<VARIANCE> 39
 2.661883e+000 1.002161e+001 1.072612e+001 1.766257e+001 1.380692e+001 1.971546e+001 2.583573e+001 1.287870e+001 1.796638e+001 2.799030e+001 3.374096e+001 3.117668e+001 4.997833e+000 1.930818e-001 5.959309e-001 6.760813e-001 9.299211e-001 1.014247e+000 9.536207e-001 1.174815e+000 1.241041e+000 1.833971e+000 1.227148e+000 1.366218e+000 1.440262e+000 5.451271e-002 2.933652e-002 8.243434e-002 1.033942e-001 1.316589e-001 1.670413e-001 1.814649e-001 2.229958e-001 2.363928e-001 3.691254e-001 2.369472e-001 2.599360e-001 2.638817e-001 8.761429e-003
<GCONST> 7.608882e+001
<MIXTURE> 4 2.419187e-001
<MEAN> 39
 -1.539532e+001 -1.387502e+001 -7.789232e+000 -1.654500e+001 -1.478330e+001 -1.160032e+000 -4.081766e+000 3.649852e+000 7.025502e+000 -1.178215e+001 -8.963346e+000 -2.480766e+000 7.490770e+001 9.985271e-001 4.742567e-002 3.016908e-001 -5.953386e-001 -4.110102e-001 -5.641540e-001 -4.107276e-001 2.098471e-001 3.613841e-001 1.229593e-001 1.381662e-001 -3.632102e-001 3.492657e-001 1.387217e-001 6.977538e-002 -8.043640e-003 -6.895313e-002 -1.187071e-001 -4.796753e-002 1.301888e-001 8.957225e-002 1.381714e-001 1.560187e-001 1.453825e-001 3.669783e-002 9.970067e-002
<VARIANCE> 39
 5.351861e+000 6.634069e+000 1.195220e+001 1.780249e+001 1.191237e+001 2.122501e+001 1.714795e+001 1.857819e+001 2.327543e+001 1.343102e+001 1.803302e+001 1.431319e+001 4.535706e+000 7.491630e-001 6.167640e-001 8.507754e-001 1.624983e+000 1.644626e+000 1.975064e+000 1.834571e+000 1.830277e+000 1.641748e+000 1.255376e+000 1.958153e+000 1.461045e+000 1.135452e-001 7.715493e-002 4.618101e-002 1.317272e-001 1.296879e-001 2.477880e-001 3.676852e-001 3.389109e-001 2.896165e-001 2.714941e-001 2.898970e-001 2.515152e-001 2.198920e-001 1.102126e-002
<GCONST> 8.188556e+001
<STATE> 3
<NUMMIXES> 4
<MIXTURE> 1 1.358929e-001
<MEAN> 39
 -1.062584e+001 -2.375473e+001 -8.240004e+000 -1.565501e+001 -1.157738e+001 -2.943879e+000 2.081038e+000 -4.548663e-001 -7.703922e+000 -1.220654e+001 -4.130493e+000 -3.847251e-001 8.174580e+001 7.042897e-002 -1.809773e+000 -4.417380e-001 1.375498e+000 2.120926e+000 -9.438545e-001 -2.071743e+000 -5.620901e-002 1.439116e-001 -8.386139e-001 7.286968e-001 1.005045e+000 1.359591e-001 -7.099236e-002 2.870186e-001 3.142295e-002 2.699227e-002 1.717891e-003 2.153176e-003 -3.383993e-001 -3.112427e-002 5.296776e-001 2.017958e-001 -2.064845e-001 -3.758287e-001 -1.607352e-001
<VARIANCE> 39
 5.242037e+000 2.448294e+001 8.910601e+000 1.201054e+001 5.320057e+001 4.499343e+001 2.647026e+001 7.735858e+000 2.280378e+001 3.121136e+001 8.412121e+000 1.242440e+001 1.797004e+000 2.263704e-001 1.315451e+000 4.372280e-001 4.085379e-001 8.367271e-001 2.035436e+000 1.954936e+000 1.151540e+000 4.081809e+000 1.293809e+000 1.773022e+000 1.602924e+000 1.151381e-001 4.188744e-002 1.459258e-001 9.706797e-002 1.543238e-001 3.137173e-001 8.063311e-001 5.476225e-001 1.602562e-001 4.426169e-001 3.279226e-001 1.966544e-001 2.375793e-001 1.050732e-002
<GCONST> 8.241219e+001
<MIXTURE> 2 4.033308e-001
<MEAN> 39
 -2.169987e+001 -7.142590e+000 -1.454257e+001 -1.041978e+001 -1.701116e+001 -8.504160e-001 -7.799580e+000 3.683512e+000 1.756204e+000 -6.161352e+000 -8.355737e+000 2.176313e+000 7.460045e+001 1.786930e+000 -7.493462e-001 1.390811e+000 -7.720872e-001 -7.475621e-001 -1.736284e+000 -7.571842e-001 -1.114242e+000 -2.905881e-001 -3.351826e-001 3.791257e-002 -1.082799e+000 2.840768e-001 5.304411e-001 2.306454e-002 3.529923e-001 -3.312917e-001 -2.426568e-001 -5.506592e-001 1.689261e-001 -3.270394e-004 2.256571e-001 3.792206e-002 7.484202e-002 -8.000189e-002 1.594170e-001
<VARIANCE> 39
 1.150513e+001 8.359323e+000 2.224120e+001 2.180320e+001 4.321702e+001 2.407667e+001 3.146289e+001 1.925340e+001 3.230848e+001 2.422522e+001 3.730343e+001 2.557755e+001 4.333241e+000 1.395631e+000 5.290583e-001 1.317459e+000 2.030135e+000 2.728149e+000 2.794525e+000 1.940811e+000 2.748833e+000 2.185033e+000 1.657799e+000 3.069169e+000 1.938122e+000 1.695869e-001 1.489029e-001 1.018264e-001 2.399251e-001 2.581849e-001 3.638574e-001 3.308175e-001 4.260847e-001 5.456370e-001 4.038510e-001 3.968042e-001 6.163824e-001 3.659734e-001 3.776930e-002
<GCONST> 9.931019e+001
<MIXTURE> 3 2.067288e-001
<MEAN> 39
 -1.029257e+001 -1.342496e+001 -8.396455e+000 -2.325828e+001 -1.683841e+001 -3.689386e+000 6.739742e-001 7.075482e+000 1.240423e+001 -7.088627e+000 -9.330265e+000 -4.443762e+000 7.793563e+001 6.042073e-001 -7.868184e-001 -5.575066e-001 -3.470455e-001 1.313549e+000 1.478240e+000 1.488601e+000 1.064744e+000 -3.459795e-001 -2.943499e-001 -2.879604e-001 -8.226199e-001 4.504410e-001 -2.941187e-001 -2.962482e-001 -2.470150e-001 6.529737e-001 4.475236e-001 2.065681e-001 -6.053435e-001 -5.422112e-001 -9.301671e-001 -4.656578e-001 2.863721e-001 2.634737e-001 -1.188798e-001
<VARIANCE> 39
 9.154266e+000 6.342582e+000 8.158610e+000 8.558422e+000 2.049497e+001 1.635410e+001 6.032829e+001 3.103285e+001 6.801204e+001 3.086815e+001 2.026853e+001 1.377505e+001 2.153151e+000 2.490000e-001 5.911095e-001 6.802877e-001 1.384518e+000 1.752601e+000 1.533489e+000 5.374700e+000 2.776050e+000 3.987182e+000 3.622366e+000 4.125455e+000 2.365273e+000 1.205653e-001 3.987227e-002 7.659275e-002 1.095628e-001 1.655400e-001 2.496443e-001 4.890145e-001 1.374700e+000 2.807951e-001 3.457804e-001 5.774465e-001 8.985231e-001 5.394660e-001 9.297481e-003
<GCONST> 9.206125e+001
<MIXTURE> 4 2.540475e-001
<MEAN> 39
 -1.193329e+001 -9.333997e+000 -6.379033e+000 -1.548297e+001 -1.973297e+001 -1.022947e+001 -9.134260e+000 1.229766e+000 6.240819e+000 -4.719532e+000 -3.205702e+000 2.882298e-001 7.724581e+001 2.143530e+000 -1.650253e-001 3.327125e-001 -1.379334e+000 -1.470404e+000 -2.104332e+000 6.592445e-001 1.378753e+000 2.402765e+000 1.307386e+000 5.644564e-001 -6.400195e-001 1.157374e+000 -3.994425e-001 -2.730013e-001 -7.135988e-001 -8.193579e-002 6.822749e-001 6.355782e-001 8.811497e-001 7.505897e-001 5.713879e-001 7.226397e-002 -8.357111e-001 -4.834829e-001 4.906362e-002
<VARIANCE> 39
 1.527633e+001 9.493990e+000 1.429067e+001 2.595135e+001 3.155710e+001 2.824051e+001 3.627900e+001 3.479546e+001 2.824851e+001 2.908491e+001 2.347683e+001 2.283126e+001 6.511147e+000 8.975420e-001 6.114038e-001 1.634076e+000 1.795278e+000 3.474336e+000 2.153500e+000 6.993235e+000 2.974576e+000 3.791264e+000 2.975188e+000 3.681535e+000 2.311703e+000 1.954625e-001 9.923618e-002 9.867426e-002 1.281346e-001 2.449358e-001 5.747751e-001 6.138721e-001 6.335539e-001 5.280185e-001 5.800323e-001 4.339005e-001 5.105517e-001 4.438362e-001 3.904489e-002
<GCONST> 1.034962e+002
<STATE> 4
<NUMMIXES> 4
<MIXTURE> 1 2.561515e-001
<MEAN> 39
 -1.008222e+001 -1.104113e+001 -9.869368e+000 -1.773089e+001 -2.091989e+001 -1.241608e+001 -2.427934e+000 9.568799e+000 1.450535e+001 -1.743107e+000 -7.703669e+000 -4.303051e+000 7.962086e+001 6.532665e-001 -1.535620e+000 -1.293781e+000 -4.733981e-001 1.706291e+000 6.912466e-001 2.006332e+000 1.540809e+000 2.203658e+000 5.125005e-001 -1.525633e+000 -1.750681e+000 8.156350e-001 -5.826696e-001 -1.956749e-001 -3.582503e-001 5.834606e-001 1.069988e+000 1.187192e+000 -2.019229e-001 -7.722858e-001 -9.378422e-001 -3.498465e-001 7.845577e-002 1.129377e-001 -2.669710e-001
<VARIANCE> 39
 1.041673e+001 9.131850e+000 1.155663e+001 2.126583e+001 2.612447e+001 2.447487e+001 1.091684e+002 3.980768e+001 7.972784e+001 7.846733e+001 3.405562e+001 3.755141e+001 7.257253e+000 4.532210e-001 6.516611e-001 1.390063e+000 1.867955e+000 2.410748e+000 3.316973e+000 4.324030e+000 3.188805e+000 4.768800e+000 3.212502e+000 3.010538e+000 4.684036e+000 2.381094e-001 7.207060e-002 7.220199e-002 1.467417e-001 4.574476e-001 2.597460e-001 3.884168e-001 9.952109e-001 5.886095e-001 7.955361e-001 6.652868e-001 7.148890e-001 8.798040e-001 3.093317e-002
<GCONST> 1.074650e+002
<MIXTURE> 2 2.378433e-001
<MEAN> 39
 -1.168876e+001 -7.819949e+000 -8.269621e+000 -1.450418e+001 -2.391585e+001 -8.363033e+000 -1.133499e+001 -3.092995e+000 -5.932774e+000 -1.292174e+001 -1.397094e+001 -4.148236e+000 7.654392e+001 1.284343e+000 -6.924075e-001 4.918802e-001 -8.323600e-001 1.544336e-001 -7.014662e-001 1.082738e+000 3.806649e-002 -1.931737e-001 -6.642223e-001 -8.862602e-001 -8.001375e-001 5.193366e-001 -3.845932e-001 -1.710379e-001 -4.940511e-001 5.082569e-001 4.072006e-001 8.388260e-001 1.649596e-001 3.567334e-001 7.150645e-002 1.217679e-001 3.098502e-001 4.453546e-001 -2.759992e-002
<VARIANCE> 39
 3.387715e+000 9.368546e+000 8.446736e+000 1.837265e+001 1.325025e+001 1.847692e+001 2.763887e+001 2.486395e+001 2.463331e+001 3.099339e+001 2.499418e+001 3.142524e+001 4.086043e+000 1.210661e+000 5.613864e-001 1.738827e+000 2.852525e+000 2.078044e+000 3.740257e+000 1.958899e+000 3.675721e+000 1.548074e+000 2.499189e+000 2.625349e+000 1.749629e+000 1.452058e-001 5.793180e-002 5.266856e-002 2.050904e-001 3.043967e-001 3.273425e-001 4.456219e-001 4.614328e-001 1.007733e+000 4.810826e-001 2.906492e-001 2.271576e-001 1.351307e-001 1.239255e-002
<GCONST> 9.201386e+001
<MIXTURE> 3 2.926728e-001
<MEAN> 39
 -1.151627e+001 -2.082223e+001 -1.120257e+001 -1.122320e+001 -8.912304e+000 -4.250006e+000 -8.107909e+000 -3.032623e+000 -3.549412e+000 -1.013053e+001 -3.719764e+000 -4.974834e+000 7.802618e+001 -6.459833e-002 -5.391911e-001 -1.392600e-001 8.781997e-001 1.717928e+000 9.910132e-001 -1.014835e+000 -1.177089e+000 -5.756696e-001 5.005014e-002 9.881447e-001 2.031953e-001 -1.977335e-001 2.024577e-002 3.460998e-001 7.602926e-002 -2.998402e-001 -3.595540e-001 -4.181719e-002 3.186622e-001 4.637324e-001 2.859541e-001 -1.006905e-001 -2.063670e-001 1.978904e-001 -5.710791e-002
<VARIANCE> 39
 3.430911e+000 3.247037e+001 9.923374e+000 2.489777e+001 5.961487e+001 1.858282e+001 2.783783e+001 3.419791e+001 5.930513e+001 5.178321e+001 1.377593e+001 2.721918e+001 7.746453e+000 2.244992e-001 9.598949e-001 4.090235e-001 8.643711e-001 1.146185e+000 1.530112e+000 1.514723e+000 1.976886e+000 1.707259e+000 1.912259e+000 1.148135e+000 2.408365e+000 1.051984e-001 3.856611e-002 1.064814e-001 9.973129e-002 1.377362e-001 1.830358e-001 3.935864e-001 3.688082e-001 7.191588e-001 5.815517e-001 3.527449e-001 2.263336e-001 5.120888e-001 1.677513e-002
<GCONST> 8.923745e+001
<MIXTURE> 4 2.133326e-001
<MEAN> 39
 -8.669001e+000 -1.574148e+001 -1.099948e+001 -2.340994e+001 -1.362358e+001 2.917896e+000 6.848130e-001 1.104481e+001 1.157312e+001 -1.247427e+001 -1.155975e+001 -6.121889e+000 7.795396e+001 -3.673463e-002 -1.606950e-001 -2.805498e-001 6.175025e-001 1.120147e+000 8.213739e-001 8.287740e-002 -5.092397e-001 -9.881469e-001 -9.804472e-001 5.067495e-002 -5.305611e-001 -1.626046e-002 -1.098970e-001 9.495723e-002 1.982248e-001 1.448136e-001 -7.487443e-002 -2.585352e-001 -2.268109e-001 -7.222221e-002 2.803689e-001 2.344358e-001 1.873576e-001 1.401741e-001 -9.413782e-002
<VARIANCE> 39
 1.609592e+000 3.822798e+000 4.888148e+000 9.174823e+000 1.074950e+001 2.126370e+001 1.279279e+001 1.357323e+001 1.010706e+001 1.522289e+001 1.584174e+001 9.271232e+000 9.393888e-001 1.294891e-001 5.672587e-001 7.456602e-001 6.776364e-001 5.541493e-001 6.156069e-001 1.475368e+000 5.641917e-001 1.507533e+000 2.473094e+000 1.880242e+000 7.652006e-001 4.659752e-002 1.486435e-002 7.712962e-002 1.257347e-001 1.280220e-001 7.081790e-002 1.730481e-001 4.212604e-001 2.451456e-001 2.023442e-001 4.148948e-001 3.194817e-001 1.130398e-001 4.454738e-003
<GCONST> 6.312544e+001
<STATE> 5
<NUMMIXES> 4
<MIXTURE> 1 2.282063e-001
<MEAN> 39
 -8.799467e+000 -1.418843e+001 -1.397375e+001 -1.704565e+001 -1.314595e+001 -6.560709e+000 -1.046757e+000 9.468321e+000 1.735278e+001 -1.144745e+000 -8.947245e+000 -9.757758e+000 8.109683e+001 8.895651e-002 -1.082892e+000 -1.311403e+000 -8.671712e-002 2.183489e+000 2.277067e+000 3.249736e-001 -1.114624e+000 -1.045942e+000 -2.710765e-001 5.138493e-001 -7.432931e-001 -8.517717e-002 -1.278884e-001 2.073903e-001 2.801145e-001 -3.683650e-002 -3.079800e-001 -1.212731e-001 -5.434306e-001 -5.524335e-001 -6.150798e-001 -2.121134e-002 6.205118e-001 6.641785e-001 -2.604415e-001
<VARIANCE> 39
 1.017515e+001 8.077777e+000 9.333088e+000 2.190791e+001 3.009630e+001 2.811965e+001 9.077125e+001 6.303394e+001 3.910491e+001 6.156061e+001 3.283447e+001 2.283687e+001 1.039725e+001 2.426268e-001 5.736881e-001 7.034520e-001 1.367790e+000 1.941304e+000 2.544116e+000 3.594362e+000 2.959963e+000 1.824509e+000 2.288895e+000 2.947995e+000 3.218972e+000 2.535764e-001 2.373338e-002 7.442170e-002 9.230009e-002 2.451550e-001 4.077267e-001 5.134084e-001 8.321035e-001 4.567227e-001 5.657217e-001 3.682337e-001 3.535318e-001 4.189903e-001 3.763062e-002
<GCONST> 9.838884e+001
<MIXTURE> 2 2.314473e-001
<MEAN> 39
 -1.005794e+001 -2.129101e+001 -1.167347e+001 -1.230459e+001 -5.209220e+000 -2.409595e+000 -6.358383e+000 -1.732313e+000 1.374924e+000 -1.106446e+001 -5.234354e-001 -1.567026e+000 7.797482e+001 5.824649e-002 5.865922e-001 2.416281e-001 -8.686211e-001 -7.581930e-001 -3.211287e-001 1.507887e-001 1.123684e+000 1.159702e+000 1.150138e-001 -2.926945e-001 -1.011198e-001 -2.874860e-001 -7.516691e-002 4.983184e-002 -6.411009e-004 -1.604377e-001 -3.392147e-001 -1.120287e-001 1.726150e-001 1.597414e-001 8.835841e-002 -8.373523e-002 -2.934166e-001 -1.673763e-001 -4.486129e-003
<VARIANCE> 39
 2.964718e+000 3.722890e+000 9.653192e+000 1.953238e+001 2.275995e+001 1.587969e+001 8.596085e+000 1.647971e+001 3.461342e+001 4.130696e+001 1.581576e+001 2.413671e+001 5.123502e+000 9.143070e-002 5.414445e-001 4.644414e-001 1.104966e+000 1.350656e+000 1.248076e+000 1.064864e+000 1.221383e+000 1.794554e+000 9.594395e-001 1.500803e+000 1.903979e+000 5.471129e-002 2.126367e-002 5.107215e-002 8.182999e-002 1.980259e-001 2.288205e-001 3.664929e-001 1.369696e-001 2.109567e-001 3.842001e-001 1.688368e-001 3.639382e-001 2.850137e-001 1.344953e-002
<GCONST> 7.452437e+001
<MIXTURE> 3 2.705066e-001
<MEAN> 39
 -8.360525e+000 -1.704702e+001 -1.513862e+001 -1.801981e+001 -5.044641e+000 2.211525e+000 1.932262e-002 4.885811e+000 8.816527e+000 -8.720677e+000 -7.294250e+000 -7.498617e+000 7.892214e+001 -3.518148e-001 2.386111e-001 9.493246e-002 -3.320461e-001 -5.775850e-002 5.661812e-001 2.977682e-001 -1.881621e-001 -5.548675e-002 -1.193509e-001 -3.272067e-002 3.212639e-001 -5.302365e-001 -1.560543e-002 1.463314e-001 2.390267e-001 -3.336941e-002 -4.708237e-001 -3.976741e-001 -2.006142e-001 6.961873e-002 8.121989e-002 -8.242249e-003 -1.913202e-002 1.200237e-001 -3.595255e-002
<VARIANCE> 39
 1.367013e+001 4.111131e+000 1.252366e+001 9.232003e+000 1.096147e+001 3.658675e+001 2.850999e+001 2.636209e+001 1.947731e+001 2.311672e+001 3.877362e+001 1.148144e+001 6.773578e+000 2.730498e-001 3.237790e-001 7.172250e-001 6.363843e-001 1.320276e+000 1.320639e+000 2.772553e+000 1.750338e+000 1.132893e+000 1.918295e+000 6.085194e-001 8.128639e-001 8.338949e-002 4.444570e-002 4.738999e-002 8.303796e-002 9.620577e-002 2.714281e-001 2.147540e-001 4.150330e-001 2.953390e-001 1.843607e-001 4.224672e-001 1.011828e-001 1.761260e-001 1.118456e-002
<GCONST> 7.670045e+001
<MIXTURE> 4 2.698398e-001
<MEAN> 39
 -9.314836e+000 -1.648073e+001 -1.135960e+001 -1.304275e+001 -1.292147e+001 -2.416948e+000 -6.572900e+000 4.567671e-002 -1.984602e+000 -1.977586e+001 -1.495107e+001 1.272310e+000 7.878773e+001 -2.350616e-002 -6.814768e-001 -9.068966e-002 1.650545e-001 1.318812e+000 4.845213e-001 3.046280e-001 3.097738e-001 8.353834e-001 -3.879589e-001 3.189843e-001 -2.528373e-001 -1.662551e-001 -1.321840e-001 2.230821e-001 1.210609e-001 -1.234099e-001 -2.505260e-001 -3.232932e-001 -1.498039e-001 1.105976e-001 2.347941e-001 4.069605e-001 1.118722e-001 -2.841965e-001 -1.361202e-001
<VARIANCE> 39
 2.796627e+000 9.574789e+000 1.099052e+001 3.153635e+001 2.206987e+001 2.644225e+001 8.141982e+001 4.010806e+001 3.327057e+001 1.799515e+001 3.225198e+001 5.430460e+001 1.870368e+000 2.046306e-001 9.973089e-001 6.410243e-001 1.341410e+000 1.606484e+000 1.962649e+000 3.022181e+000 2.453165e+000 2.680630e+000 2.255846e+000 2.909334e+000 1.655974e+000 8.495580e-002 3.610761e-002 8.992367e-002 9.473036e-002 2.010414e-001 1.370810e-001 3.351251e-001 7.062072e-001 4.397517e-001 3.906963e-001 4.134713e-001 6.324370e-001 2.690984e-001 1.906005e-002
<GCONST> 9.058530e+001
<STATE> 6
<NUMMIXES> 4
<MIXTURE> 1 9.179512e-002
<MEAN> 39
 -1.539554e+001 -2.575090e+001 -1.439198e+001 -7.017154e+000 -7.220229e+000 -5.362638e+000 5.229712e+000 -1.142986e+000 6.487146e+000 3.238301e+000 1.029051e+001 -1.275934e+000 7.963321e+001 3.135349e-001 -6.185589e-001 1.282801e-001 1.337166e+000 1.125769e+000 -1.994647e-001 -2.058210e+000 -3.734539e-001 3.122763e-002 -2.746044e-001 6.987081e-001 1.041976e+000 -7.879207e-002 6.738555e-002 3.581723e-001 3.786959e-002 -3.165119e-001 -2.759302e-001 -6.953769e-002 2.770125e-002 4.024146e-001 1.675393e-001 -1.973142e-001 -3.833388e-001 -1.308011e-001 -1.036650e-001
<VARIANCE> 39
 1.144827e+001 1.186099e+001 1.370858e+001 2.428059e+001 2.256653e+001 8.869062e+000 3.863023e+001 8.219214e+000 2.681411e+001 3.132997e+001 1.026877e+001 1.243011e+001 4.709667e+000 2.631822e-001 1.627586e+000 1.043583e+000 8.221769e-001 1.557061e+000 6.961564e-001 7.698284e-001 3.150805e+000 1.607404e+000 1.283255e+000 1.855629e+000 4.690746e-001 1.732197e-001 6.088284e-002 7.452709e-002 1.524344e-001 2.387340e-001 3.097253e-001 1.631572e-001 3.318253e-001 4.537825e-001 3.235554e-001 2.927997e-001 2.138920e-001 1.761015e-001 2.144868e-002
<GCONST> 8.232073e+001
<MIXTURE> 2 3.986905e-001
<MEAN> 39
 -1.136071e+001 -1.678623e+001 -9.512630e+000 -1.855522e+001 -1.258711e+001 8.555857e-001 -1.288568e+000 6.087616e+000 5.889016e+000 -1.660164e+001 -8.438169e+000 -2.189846e+000 7.632350e+001 -2.866341e-001 1.059336e-001 1.777498e-001 -7.134525e-002 -4.883933e-001 -5.956722e-001 -5.250964e-001 -3.051353e-001 3.302613e-001 4.030192e-001 8.494067e-002 1.033967e-002 -3.276049e-001 3.087737e-002 2.819341e-002 1.511912e-002 -5.305292e-002 1.850987e-002 2.769075e-002 -6.254847e-002 -1.500093e-001 1.462645e-003 1.640079e-001 7.028486e-002 6.037153e-002 2.102159e-002
<VARIANCE> 39
 2.355876e+000 3.255049e+000 5.786438e+000 9.607497e+000 7.520921e+000 1.029840e+001 1.838058e+001 1.958544e+001 3.533295e+001 2.314535e+001 2.346679e+001 3.267678e+001 1.265450e+000 1.453391e-001 1.625494e-001 4.512042e-001 6.483344e-001 9.569774e-001 1.317500e+000 1.179877e+000 9.247114e-001 1.530814e+000 1.217648e+000 2.367759e+000 2.235582e+000 3.573143e-002 1.946364e-002 3.074306e-002 8.699221e-002 1.012435e-001 1.428917e-001 1.895990e-001 1.642731e-001 1.507437e-001 3.702172e-001 2.404936e-001 3.742999e-001 3.543691e-001 5.993487e-003
<GCONST> 6.683781e+001
<MIXTURE> 3 3.903605e-001
<MEAN> 39
 -8.493773e+000 -1.510402e+001 -1.493357e+001 -2.195409e+001 -1.132203e+001 -8.350431e-002 -4.266367e+000 5.592216e+000 1.487825e+001 -1.621502e+000 -6.938204e+000 -1.013429e+001 7.735923e+001 -1.938212e-002 3.087299e-001 4.648572e-001 -2.451547e-001 -1.875791e-001 1.448068e-001 -3.891976e-001 1.437486e-001 -9.611284e-002 -7.443357e-002 2.455167e-001 2.833203e-002 -4.833657e-001 -8.366542e-002 1.719405e-001 2.346136e-001 2.271508e-001 -1.563234e-001 -2.146157e-001 -9.272791e-002 8.740118e-002 9.206690e-002 -2.789175e-002 -3.090809e-002 1.567100e-001 -4.032273e-002
<VARIANCE> 39
 4.793038e+000 5.803370e+000 1.097360e+001 1.242496e+001 1.468537e+001 5.045013e+001 2.492507e+001 5.410351e+001 2.697284e+001 4.156659e+001 3.459954e+001 2.344307e+001 8.236222e+000 1.656135e-001 6.993632e-001 6.411704e-001 1.313152e+000 1.121507e+000 1.711894e+000 1.638566e+000 1.711357e+000 1.893875e+000 1.685677e+000 1.092579e+000 1.104593e+000 8.926424e-002 2.429578e-002 6.606385e-002 6.979944e-002 2.126063e-001 1.906886e-001 2.475348e-001 2.131534e-001 3.573046e-001 2.692976e-001 2.390091e-001 2.438727e-001 2.369240e-001 1.310230e-002
<GCONST> 8.164747e+001
<MIXTURE> 4 1.191539e-001
<MEAN> 39
 -1.367382e+001 -2.062639e+001 -1.215508e+001 -1.017729e+001 -3.976506e+000 -6.413499e+000 -8.670841e+000 4.442487e+000 -1.726345e+000 -5.649278e+000 -1.070307e+000 6.633052e-001 7.632153e+001 -5.008891e-001 -2.743253e-001 -2.342716e-001 -2.513093e-001 4.108670e-001 -2.867454e-001 -2.722922e-001 2.541580e-001 1.098835e+000 7.455841e-001 1.073032e+000 1.207339e+000 -4.710644e-001 4.660773e-002 2.302523e-001 1.355651e-001 -8.576775e-002 -1.616897e-001 1.210956e-001 -5.629091e-002 -6.553751e-001 -5.881219e-001 -3.902820e-001 -1.887904e-001 -1.406301e-002 -2.930881e-002
<VARIANCE> 39
 1.173773e+000 1.993664e+001 6.111650e+000 2.540933e+001 5.337833e+001 1.555943e+001 3.907130e+001 2.755892e+001 1.739846e+001 3.849914e+001 4.357674e+001 3.833163e+001 9.626922e+000 1.763199e-001 4.745832e-001 5.318449e-001 7.350268e-001 1.035623e+000 1.500567e+000 1.240885e+000 4.093213e+000 2.381302e+000 1.819262e+000 1.312138e+000 1.440227e+000 5.463247e-002 3.559703e-002 7.347217e-002 6.774505e-002 1.231510e-001 2.090229e-001 1.717947e-001 2.694315e-001 5.288618e-001 3.812156e-001 4.136630e-001 5.984657e-001 4.265425e-001 1.147083e-002
<GCONST> 8.392446e+001
<STATE> 7
<NUMMIXES> 4
<MIXTURE> 1 1.925411e-001
<MEAN> 39
 -8.809743e+000 -1.197344e+001 -1.019818e+001 -1.816806e+001 -1.300527e+001 -3.397550e+000 -5.765269e+000 6.600150e+000 1.262488e+001 -3.508372e+000 -7.397677e+000 -5.383074e+000 7.581460e+001 -8.665451e-001 5.361099e-001 1.489861e+000 9.083235e-001 -1.148482e-001 -1.748542e-001 -6.040032e-001 -6.578560e-001 -6.392391e-001 -6.906082e-001 6.453993e-001 1.035084e+000 -9.184712e-001 -3.246630e-001 -3.510768e-001 2.230703e-002 3.774628e-001 5.348461e-001 4.285471e-001 5.490698e-002 -4.654706e-001 -6.911548e-001 -6.587904e-001 6.150081e-002 1.493782e-002 -1.306369e-001
<VARIANCE> 39
 5.319549e+000 8.101500e+000 1.305185e+001 8.609881e+000 2.093844e+001 2.760596e+001 2.667358e+001 4.281168e+001 4.288162e+001 8.947360e+001 5.456135e+001 1.737490e+001 9.808681e+000 3.706711e-001 6.728700e-001 6.262355e-001 1.469732e+000 1.311153e+000 1.863194e+000 1.544104e+000 2.574409e+000 2.565463e+000 2.667845e+000 1.291415e+000 2.133438e+000 1.786736e-001 4.079838e-002 5.593975e-002 1.383872e-001 1.794939e-001 1.556555e-001 2.645176e-001 3.950474e-001 3.358496e-001 2.529478e-001 3.053921e-001 2.360007e-001 2.796501e-001 1.646623e-002
<GCONST> 8.859594e+001
<MIXTURE> 2 2.510477e-001
<MEAN> 39
 -1.256038e+001 -1.442180e+001 -7.536324e+000 -1.417768e+001 -1.096921e+001 -1.980819e+000 -9.638861e+000 -2.854912e+000 1.483024e+000 -1.641503e+001 -1.003952e+001 -5.026189e+000 7.383517e+001 -4.142373e-001 2.433273e-001 4.166041e-001 -7.121135e-002 -2.374060e-001 2.681459e-001 4.544263e-001 8.258098e-002 -3.873133e-001 -5.273415e-001 1.637186e-001 1.426115e-001 -4.399982e-001 3.057214e-002 -3.558258e-002 -9.487134e-002 -1.102793e-001 -2.693475e-002 7.462530e-002 2.994728e-001 4.306588e-001 3.849782e-001 2.401815e-001 1.415159e-001 1.082414e-001 5.037219e-002
<VARIANCE> 39
 4.123411e+000 8.914208e+000 1.056814e+001 2.489444e+001 1.516765e+001 1.920269e+001 2.635308e+001 2.185310e+001 2.334092e+001 3.568703e+001 3.708665e+001 1.716970e+001 5.240027e+000 3.673239e-001 3.552667e-001 5.248086e-001 1.000381e+000 9.988483e-001 1.286596e+000 2.185527e+000 2.362105e+000 1.857429e+000 1.324109e+000 1.329766e+000 1.197555e+000 9.891213e-002 4.388426e-002 5.640741e-002 9.114037e-002 1.438162e-001 1.593438e-001 2.150952e-001 3.433014e-001 2.780791e-001 2.149006e-001 2.453520e-001 2.431478e-001 1.925266e-001 1.644858e-002
<GCONST> 7.981505e+001
<MIXTURE> 3 4.591828e-001
<MEAN> 39
 -1.305700e+001 -1.519490e+001 -8.096752e+000 -1.959905e+001 -1.441605e+001 -1.674269e+000 -6.085109e+000 3.390112e+000 1.022670e+001 -1.095220e+001 -5.567883e+000 -3.924500e+000 7.403018e+001 -2.943140e-001 2.048901e-001 3.876141e-001 1.997003e-001 8.113125e-002 7.020254e-002 -1.794171e-001 -2.756673e-001 -3.671537e-001 9.644751e-003 -1.456046e-002 6.812745e-002 -2.085240e-001 8.719188e-003 -6.202189e-002 -4.746818e-002 4.305761e-002 1.153906e-001 7.159601e-002 3.920405e-002 -5.993094e-002 -1.673722e-001 -7.954027e-002 -2.868273e-002 -3.905863e-002 3.050304e-002
<VARIANCE> 39
 1.667560e+000 6.706711e+000 6.679616e+000 5.377605e+000 8.069318e+000 1.463029e+001 2.050996e+001 1.154674e+001 1.069844e+001 1.341340e+001 2.317625e+001 1.617336e+001 1.725035e+000 1.856254e-001 2.662932e-001 4.505646e-001 5.267827e-001 7.524704e-001 7.759731e-001 1.243055e+000 1.055074e+000 9.895970e-001 1.947705e+000 1.354746e+000 1.073986e+000 4.996099e-002 2.386865e-002 3.432043e-002 1.065650e-001 9.118267e-002 9.594855e-002 1.647685e-001 2.976072e-001 2.130040e-001 1.723894e-001 2.795979e-001 1.941839e-001 1.757997e-001 5.704153e-003
<GCONST> 6.244895e+001
<MIXTURE> 4 9.722837e-002
<MEAN> 39
 -1.484095e+001 -2.284328e+001 -1.439562e+001 -1.256542e+001 -3.269700e+000 -8.063826e+000 -1.786881e+000 4.894496e+000 2.090195e+000 -2.379396e+000 3.297618e+000 7.359805e+000 7.746336e+001 2.365256e-001 9.972418e-001 -3.869472e-001 -1.517791e+000 -1.876299e+000 3.174284e-001 1.001746e+000 1.049265e+000 1.251619e+000 -1.559282e+000 -1.855713e+000 -2.928190e-001 -7.055162e-001 5.256414e-002 7.123951e-002 2.016675e-001 -1.115929e-001 -3.642723e-001 2.946091e-002 3.821012e-002 2.593147e-001 4.192794e-001 8.780955e-002 -8.697432e-002 -4.862543e-001 -8.857011e-002
<VARIANCE> 39
 7.399622e+000 7.351163e+000 1.024067e+001 5.096890e+001 4.799682e+001 1.300960e+001 2.414688e+001 1.429313e+001 3.979536e+001 2.368825e+001 2.708523e+001 3.238902e+001 3.598032e+000 2.489750e-001 7.044302e-001 8.136681e-001 1.068925e+000 1.409270e+000 1.425966e+000 1.723191e+000 1.353182e+000 2.317845e+000 1.181483e+000 7.160913e-001 2.800710e+000 9.060492e-002 7.639255e-002 1.239028e-001 1.897498e-001 2.368328e-001 2.875407e-001 2.894337e-001 6.719517e-001 3.142203e-001 2.615163e-001 4.259002e-001 3.115839e-001 4.024050e-001 9.889049e-003
<GCONST> 8.739256e+001
<STATE> 8
<NUMMIXES> 4
<MIXTURE> 1 5.990849e-002
<MEAN> 39
 -1.230657e+001 -1.086769e+001 -3.663597e+000 -9.759245e+000 -6.221844e+000 3.063436e+000 -4.280229e+000 6.681657e+000 1.177902e+001 -2.646576e+000 -4.631201e+000 -3.667600e+000 7.174226e+001 -1.050076e+000 -2.624669e-001 2.435660e-001 6.334335e-001 4.471585e-001 1.424881e-003 2.455396e-001 -1.037953e+000 -1.721027e+000 -1.765925e+000 4.745577e-001 6.793593e-001 -6.520025e-001 1.727719e-001 -6.640478e-002 -6.270080e-001 -8.672594e-001 -7.614818e-001 -4.734118e-001 -2.965898e-001 2.542179e-001 1.511298e-001 3.861612e-001 -1.002285e-001 -1.945211e-001 2.181826e-001
<VARIANCE> 39
 3.457162e+000 7.218473e+000 1.077319e+001 6.276479e+000 2.283358e+001 1.108852e+001 1.246080e+001 2.840493e+001 2.375046e+001 1.449860e+001 1.934922e+001 9.456251e+000 2.068851e+000 3.486217e-001 1.815840e-001 2.106230e+000 3.136756e+000 3.334626e+000 2.685586e+000 1.677587e+000 2.371017e+000 2.017953e+000 2.783333e+000 2.010567e+000 1.612246e+000 2.838903e-001 4.267122e-002 3.983729e-002 1.364442e-001 1.651407e-001 1.651270e-001 4.562965e-001 3.508509e-001 4.234695e-001 3.068300e-001 3.988345e-001 3.936238e-001 2.281160e-001 2.265038e-002
<GCONST> 8.367248e+001
<MIXTURE> 2 4.499145e-001
<MEAN> 39
 -1.400637e+001 -1.539020e+001 -5.963788e+000 -1.760256e+001 -1.189951e+001 4.324448e-001 -4.883828e+000 1.542592e+000 5.675902e+000 -1.479238e+001 -6.752864e+000 -4.170630e+000 7.412384e+001 5.283251e-002 1.694297e-001 1.561568e-001 1.502678e-001 -2.038812e-001 -3.220771e-001 -3.951198e-001 -2.748567e-001 -8.846699e-002 2.362559e-001 2.903038e-001 1.629646e-001 3.857517e-002 1.737172e-001 1.364970e-001 1.961135e-002 -7.275706e-002 -2.759278e-001 -2.487082e-001 -1.692635e-001 -8.180647e-002 5.018476e-002 1.780500e-001 1.112851e-001 1.070766e-001 9.140838e-002
<VARIANCE> 39
 1.443057e+000 3.038398e+000 5.952223e+000 8.644503e+000 1.331851e+001 1.651762e+001 1.583826e+001 1.388690e+001 1.018210e+001 2.033703e+001 1.425115e+001 1.451324e+001 5.053144e-001 2.470391e-001 3.391085e-001 5.047767e-001 5.359671e-001 1.030257e+000 1.068274e+000 1.407218e+000 1.301269e+000 1.175945e+000 8.543556e-001 1.135746e+000 1.429826e+000 5.431968e-002 2.348579e-002 4.439525e-002 7.636643e-002 8.631454e-002 1.741423e-001 1.718601e-001 2.338642e-001 2.447547e-001 2.380424e-001 1.658126e-001 2.050942e-001 2.659047e-001 6.598124e-003
<GCONST> 6.293630e+001
<MIXTURE> 3 3.596335e-001
<MEAN> 39
 -1.682873e+001 -1.473035e+001 -7.024897e+000 -1.408764e+001 -1.195679e+001 -2.444992e+000 -7.593532e+000 1.776353e+000 5.225135e+000 -1.057857e+001 -3.784165e+000 -1.411426e+000 6.881740e+001 -3.169421e-001 4.514748e-002 3.506643e-001 1.227059e-001 -6.101906e-002 3.968282e-002 -1.884901e-001 -2.031010e-001 1.848139e-002 8.336101e-002 -1.094659e-001 -3.788304e-002 -2.369585e-001 1.633643e-001 9.143511e-002 -3.437352e-002 -8.590387e-002 -5.278683e-002 -1.589809e-001 -7.871146e-002 1.154950e-002 1.204241e-001 1.219712e-001 -6.518783e-002 1.714161e-002 1.051559e-001
<VARIANCE> 39
 2.178788e+000 8.948041e+000 6.282463e+000 1.154922e+001 1.308189e+001 1.460153e+001 1.301655e+001 2.333887e+001 2.179981e+001 2.141595e+001 2.067052e+001 1.430918e+001 1.779477e+000 1.531631e-001 2.740487e-001 4.487709e-001 9.302158e-001 5.197564e-001 1.235715e+000 1.662673e+000 1.438843e+000 1.359971e+000 1.443019e+000 1.350680e+000 1.043857e+000 7.257385e-002 3.690622e-002 6.249228e-002 6.790508e-002 1.808270e-001 1.088540e-001 2.212517e-001 2.551903e-001 1.965490e-001 2.759590e-001 2.779810e-001 2.029061e-001 1.937921e-001 1.336261e-002
<GCONST> 6.978255e+001
<MIXTURE> 4 1.305435e-001
<MEAN> 39
 -1.407857e+001 -1.521986e+001 -1.074970e+001 -1.806543e+001 -1.358376e+001 -5.556277e+000 -3.583600e+000 5.488441e+000 8.004365e+000 -6.587286e+000 -2.838295e+000 6.383362e-001 7.324094e+001 -5.861679e-001 1.181590e-001 7.270248e-001 -2.271561e-002 -5.105374e-001 6.619541e-001 -5.423128e-001 -8.279763e-001 -5.143413e-001 -8.289520e-001 -8.650009e-002 -3.588031e-001 -7.687021e-001 4.721027e-002 -2.542197e-002 1.147613e-001 3.305534e-001 4.810919e-001 2.080157e-001 -2.963525e-001 -5.073032e-001 -3.194112e-001 6.506264e-002 -1.290528e-002 -8.878681e-002 1.056172e-001
<VARIANCE> 39
 1.730237e+000 9.715418e+000 9.664055e+000 1.625335e+001 1.583023e+001 2.003995e+001 3.165814e+001 3.022032e+001 1.929143e+001 2.293709e+001 1.739414e+001 2.053779e+001 3.392687e+000 6.011760e-001 8.159119e-001 8.008871e-001 1.794236e+000 2.879059e+000 3.015797e+000 2.910217e+000 2.025588e+000 2.367703e+000 2.224248e+000 1.669766e+000 1.636800e+000 3.469851e-001 1.930573e-001 2.495853e-001 2.334538e-001 2.935833e-001 3.774579e-001 4.809319e-001 5.958176e-001 2.958671e-001 5.007065e-001 5.137172e-001 3.702511e-001 3.577938e-001 6.553065e-002
<GCONST> 9.530592e+001
<STATE> 9
<NUMMIXES> 4
<MIXTURE> 1 1.631220e-001
<MEAN> 39
 -1.298778e+001 -1.128277e+001 -5.407764e+000 -1.859298e+001 -1.598666e+001 -4.027676e+000 -7.519767e+000 2.691342e+000 1.122401e+001 -5.522793e+000 -8.290281e-001 4.181601e-001 7.296368e+001 1.279509e+000 1.262135e+000 3.122833e-001 -1.061840e+000 -1.858568e+000 -1.953480e+000 -1.241678e+000 3.497159e-002 1.635785e+000 1.976502e+000 1.597072e+000 5.603350e-001 5.262875e-001 2.197104e-002 -1.277744e-001 -9.574223e-002 9.527159e-003 -2.458355e-002 -1.363977e-001 -1.178305e-001 3.082723e-002 5.323666e-002 -1.040003e-002 -2.137562e-001 -3.137335e-001 1.161590e-002
<VARIANCE> 39
 3.105484e+000 9.602091e+000 6.234874e+000 1.071030e+001 1.513949e+001 2.351936e+001 1.563236e+001 2.098664e+001 1.839551e+001 2.279882e+001 1.613265e+001 2.024312e+001 5.820321e+000 2.395463e-001 3.182873e-001 4.041368e-001 4.538437e-001 8.335913e-001 2.445172e+000 1.833480e+000 2.371961e+000 2.625593e+000 1.813792e+000 2.350082e+000 1.127308e+000 9.625389e-002 3.270293e-002 5.482580e-002 4.436656e-002 1.036752e-001 1.404993e-001 2.610847e-001 1.678202e-001 2.811875e-001 2.734324e-001 1.466381e-001 1.816713e-001 1.535732e-001 1.253352e-002
<GCONST> 7.339771e+001
<MIXTURE> 2 3.540954e-001
<MEAN> 39
 -1.600016e+001 -1.353513e+001 -6.548064e+000 -1.447840e+001 -1.256906e+001 -2.508942e+000 -8.540751e+000 3.093390e-001 5.479300e+000 -9.568005e+000 -5.465707e+000 -1.383519e+000 7.030264e+001 8.369135e-001 1.130201e+000 3.328109e-001 -3.943280e-001 -1.110087e+000 -1.408635e+000 -1.458353e+000 -7.715322e-001 1.761907e-001 7.352388e-001 2.960293e-001 3.932200e-001 4.358502e-001 4.984692e-001 4.210243e-001 1.349362e-001 -2.406300e-001 -4.969546e-001 -6.336022e-001 -3.768862e-001 1.644807e-002 3.400177e-001 3.142573e-001 2.218948e-001 -9.686293e-002 2.500712e-001
<VARIANCE> 39
 3.165087e+000 9.759723e+000 6.326598e+000 9.853176e+000 1.767917e+001 2.650256e+001 1.515585e+001 1.311100e+001 1.634894e+001 2.293732e+001 1.678395e+001 1.275253e+001 5.153297e+000 5.495592e-001 6.907007e-001 5.332751e-001 7.707390e-001 1.347285e+000 2.183955e+000 1.679011e+000 1.869808e+000 1.978194e+000 2.146148e+000 1.898797e+000 1.521395e+000 1.468063e-001 2.650459e-002 5.137883e-002 1.234521e-001 1.332290e-001 1.916402e-001 2.970213e-001 3.033198e-001 4.556826e-001 4.422427e-001 4.618891e-001 3.270521e-001 2.483516e-001 1.342951e-002
<GCONST> 8.060717e+001
<MIXTURE> 3 2.907264e-001
<MEAN> 39
 -1.104984e+001 -1.005410e+001 -3.926387e+000 -1.529848e+001 -1.571602e+001 -7.081709e+000 -1.409001e+001 -4.925369e+000 2.062665e+000 -1.210026e+001 -5.380002e+000 -2.884797e+000 7.425208e+001 1.340783e+000 1.345875e+000 7.551375e-001 -2.236809e-001 -1.343880e+000 -1.888265e+000 -1.992014e+000 -1.204405e+000 7.321278e-003 5.567319e-001 3.596474e-001 -9.247310e-003 6.812884e-001 -6.421953e-002 -1.559539e-001 -1.784925e-001 -6.862151e-002 1.593065e-001 2.866245e-001 4.685109e-001 5.794982e-001 3.912458e-001 7.551056e-002 2.071561e-002 4.765272e-002 -3.927201e-002
<VARIANCE> 39
 3.805433e+000 1.122192e+001 6.295679e+000 9.236022e+000 1.570442e+001 1.965470e+001 1.955274e+001 1.345148e+001 2.108474e+001 3.866406e+001 1.974497e+001 1.660152e+001 5.898376e+000 2.617014e-001 5.467010e-001 6.418157e-001 1.000910e+000 1.753843e+000 1.900028e+000 1.539214e+000 1.686915e+000 1.777673e+000 1.673150e+000 1.495803e+000 1.446192e+000 1.105322e-001 4.727121e-002 9.136055e-002 9.998588e-002 8.711169e-002 1.641267e-001 2.257054e-001 2.148636e-001 1.512587e-001 2.928021e-001 1.707582e-001 2.224904e-001 2.102609e-001 1.443735e-002
<GCONST> 7.729332e+001
<MIXTURE> 4 1.920563e-001
<MEAN> 39
 -8.813345e+000 -5.868145e+000 -4.669290e+000 -1.783941e+001 -2.024517e+001 -1.431447e+001 -1.711350e+001 1.987631e-001 9.296695e+000 -6.352759e+000 -5.893785e+000 -2.038608e+000 7.361389e+001 1.143241e+000 6.935762e-001 -7.452232e-002 -7.425545e-001 -9.799722e-001 -8.318591e-001 -4.456319e-001 8.510156e-001 1.195855e+000 1.144452e+000 -1.187874e-001 -2.886989e-001 5.823221e-001 -4.089871e-001 -4.509455e-001 -1.956357e-001 1.760446e-001 5.301669e-001 1.002282e+000 8.226301e-001 2.633831e-001 -1.746521e-001 -3.073100e-001 -7.080027e-002 -2.818508e-002 -1.596411e-001
<VARIANCE> 39
 1.907339e+000 9.761534e+000 7.806840e+000 1.350930e+001 1.646419e+001 3.793544e+001 1.192065e+001 3.736393e+001 2.986501e+001 3.891292e+001 2.024673e+001 2.651686e+001 6.532777e+000 2.443143e-001 2.751178e-001 3.574229e-001 9.641010e-001 1.443640e+000 2.926978e+000 1.883715e+000 1.530236e+000 3.582769e+000 1.299320e+000 1.786007e+000 1.442497e+000 5.489803e-002 1.646472e-002 3.100998e-002 4.758179e-002 7.218408e-002 1.904314e-001 2.052532e-001 2.228155e-001 1.558542e-001 3.401037e-001 3.477340e-001 2.830675e-001 1.901127e-001 1.629080e-002
<GCONST> 7.630278e+001
<STATE> 10
<NUMMIXES> 4
<MIXTURE> 1 3.396363e-001
<MEAN> 39
 -8.360014e+000 -8.878751e+000 -5.174859e+000 -1.841739e+001 -1.852103e+001 -1.050351e+001 -1.233342e+001 5.679809e+000 1.406613e+001 -3.625947e+000 -6.620140e+000 -3.511698e+000 7.598218e+001 9.409137e-002 -5.474107e-003 -2.713208e-001 -3.348994e-001 1.119895e-001 4.724863e-001 4.539788e-001 3.782171e-001 2.220756e-001 -2.424416e-001 -2.105673e-001 2.385659e-001 6.380472e-002 -1.171503e-001 -7.162446e-002 -2.916803e-002 2.078921e-002 6.847872e-002 1.142725e-001 6.849349e-002 -1.350103e-001 -2.575371e-001 -1.299120e-001 8.633246e-002 5.764502e-002 -6.194563e-002
<VARIANCE> 39
 1.078804e+000 7.049859e+000 4.955434e+000 5.475946e+000 5.809016e+000 3.006955e+001 2.802129e+001 1.563832e+001 1.658232e+001 3.216962e+001 2.391534e+001 2.902655e+001 3.205744e+000 9.719992e-002 1.907750e-001 3.320575e-001 4.970337e-001 3.974122e-001 1.128859e+000 9.422200e-001 1.399612e+000 1.728437e+000 1.080554e+000 1.024072e+000 9.026310e-001 3.105830e-002 1.634824e-002 2.067392e-002 6.478254e-002 7.347365e-002 7.991235e-002 1.839878e-001 1.810197e-001 1.897490e-001 2.834967e-001 1.500935e-001 1.903363e-001 1.515283e-001 4.049641e-003
<GCONST> 5.985653e+001
<MIXTURE> 2 1.870608e-001
<MEAN> 39
 -7.164429e+000 -8.505089e+000 -3.666303e+000 -1.880959e+001 -1.621571e+001 -2.801395e+000 -9.355516e+000 -2.624443e+000 1.433192e+000 -1.423435e+001 -5.276981e+000 -9.104035e-001 7.707027e+001 5.003122e-003 -3.049170e-002 -1.799721e-001 -1.488728e-001 1.752554e-001 -1.468549e-001 8.667707e-002 2.272113e-001 3.147260e-001 7.156270e-001 4.505944e-001 4.234300e-002 9.876782e-002 -9.141295e-002 -7.125522e-002 -7.887118e-003 8.431257e-002 1.001387e-001 -1.529195e-001 -1.147887e-001 6.845769e-002 3.799142e-001 3.341249e-001 1.616736e-001 -1.063457e-001 -2.770441e-002
<VARIANCE> 39
 1.440873e+000 1.098291e+001 2.083641e+001 3.976023e+001 4.290137e+001 1.099239e+001 1.493135e+001 3.065584e+001 4.018774e+001 2.390561e+001 2.016018e+001 1.702802e+001 1.048520e+000 6.450371e-002 1.647733e-001 3.609382e-001 3.877796e-001 4.262089e-001 6.248859e-001 7.020574e-001 1.387943e+000 3.586127e+000 2.244262e+000 2.306157e+000 8.926709e-001 2.744334e-002 2.002783e-002 2.924182e-002 8.037847e-002 6.829644e-002 8.175592e-002 1.350537e-001 1.727661e-001 3.109138e-001 5.229672e-001 2.066762e-001 2.913058e-001 1.278820e-001 4.844828e-003
<GCONST> 6.662415e+001
<MIXTURE> 3 1.707741e-001
<MEAN> 39
 -9.804594e+000 -6.743639e+000 -4.595856e+000 -2.011492e+001 -2.043500e+001 -1.131538e+001 -1.165535e+001 3.886138e+000 1.877731e+001 4.575438e+000 3.973677e+000 1.997173e+000 7.270238e+001 4.374923e-001 3.009632e-001 -1.933196e-002 4.575153e-002 -2.279284e-001 -3.989262e-001 1.751226e-001 1.309455e+000 1.084841e+000 1.326604e+000 -3.227818e-003 -4.886642e-001 3.759543e-001 -1.296165e-001 -1.039827e-001 -1.740144e-001 9.446534e-002 1.225481e-001 1.736541e-001 1.615507e-001 -2.975437e-002 -4.187710e-001 -2.999019e-001 -3.730150e-001 -6.749056e-002 -5.560678e-003
<VARIANCE> 39
 4.553776e+000 3.109248e+000 5.021966e+000 2.602532e+001 1.468879e+001 1.603393e+001 1.590227e+001 3.793563e+001 1.930966e+001 1.846245e+001 1.203037e+001 2.549112e+001 2.593729e+000 1.559485e-001 4.121035e-001 5.075006e-001 3.633626e-001 1.195864e+000 1.368320e+000 6.829966e-001 1.449817e+000 2.879822e+000 2.587495e+000 1.125153e+000 7.601734e-001 5.891338e-002 2.362230e-002 4.948213e-002 8.599924e-002 6.809867e-002 1.561029e-001 2.093285e-001 1.029006e-001 2.630024e-001 3.754897e-001 3.509067e-001 1.380093e-001 2.015209e-001 1.137192e-002
<GCONST> 6.967928e+001
<MIXTURE> 4 3.025287e-001
<MEAN> 39
 -9.526122e+000 -8.556793e+000 -4.019922e+000 -1.940411e+001 -2.125320e+001 -8.659704e+000 -1.361482e+001 -3.542191e+000 7.037762e+000 -6.646704e+000 -5.861047e-001 -5.890587e-002 7.430687e+001 5.187249e-001 3.017091e-001 -6.340442e-002 -3.679368e-001 -6.313065e-001 -5.288512e-002 9.356301e-002 2.040793e-001 6.356469e-001 3.916681e-001 1.581482e-001 7.296494e-002 2.215761e-001 -1.514928e-001 -2.019689e-001 -1.079376e-001 1.439368e-001 3.894501e-001 2.378729e-001 1.611982e-001 1.590359e-001 1.009948e-003 -1.503563e-001 -3.083725e-001 -1.019208e-001 -6.061443e-002
<VARIANCE> 39
 3.465180e+000 1.276888e+001 7.014200e+000 2.009949e+001 2.233077e+001 2.451122e+001 2.925446e+001 1.440932e+001 2.632262e+001 2.993734e+001 2.723293e+001 2.979904e+001 4.798276e+000 1.036666e-001 3.240185e-001 4.133232e-001 3.585739e-001 6.667442e-001 8.078713e-001 1.322735e+000 7.677510e-001 1.371519e+000 1.001095e+000 1.463282e+000 1.519704e+000 4.652809e-002 1.846565e-002 4.717651e-002 6.948239e-002 1.218980e-001 1.478971e-001 1.931309e-001 2.756208e-001 1.317923e-001 3.342543e-001 3.072982e-001 2.664061e-001 2.195130e-001 7.346544e-003
<GCONST> 7.112766e+001
<STATE> 11
<NUMMIXES> 4
<MIXTURE> 1 2.415853e-001
<MEAN> 39
 -7.292721e+000 -9.679950e+000 -8.087415e+000 -2.225361e+001 -1.751257e+001 -8.028555e+000 -7.167192e+000 9.375144e+000 2.057731e+001 2.087352e+000 -3.155672e+000 -2.243028e+000 7.649080e+001 -5.290024e-002 -1.741843e-002 -2.832593e-001 9.866223e-002 2.850760e-001 -1.977387e-002 4.872384e-001 7.540733e-001 -5.640213e-001 -2.913230e-001 -8.666234e-001 2.080199e-001 1.181672e-001 -2.025516e-001 -2.290846e-002 9.864029e-002 4.435283e-002 1.139470e-002 -1.007711e-002 -1.056370e-001 -3.727555e-001 -5.563927e-001 -4.405554e-001 1.444037e-003 1.232238e-001 -1.015343e-001
<VARIANCE> 39
 4.423997e+000 9.534338e+000 6.190299e+000 5.100409e+000 2.546793e+001 1.397577e+001 1.556131e+001 4.158893e+001 2.912080e+001 6.939230e+001 2.607673e+001 1.671078e+001 3.649111e+000 3.044630e-001 1.693451e-001 6.685668e-001 5.243711e-001 9.908223e-001 9.205095e-001 1.300621e+000 2.035928e+000 2.447039e+000 3.775132e+000 1.490172e+000 1.841010e+000 1.151441e-001 2.038765e-002 2.894570e-002 4.817100e-002 7.875347e-002 1.960732e-001 1.381302e-001 2.285979e-001 2.353899e-001 4.253785e-001 4.636978e-001 2.353434e-001 4.409263e-001 8.986685e-003
<GCONST> 7.599953e+001
<MIXTURE> 2 2.885354e-001
<MEAN> 39
 -7.799217e+000 -7.376088e+000 -6.594023e+000 -1.892469e+001 -1.923845e+001 -5.924544e+000 -1.543196e+001 -3.874077e+000 9.109095e+000 -2.154557e+000 1.324339e+000 3.144966e-001 7.627642e+001 -1.971474e-001 -4.231938e-001 -1.346341e-001 5.635094e-001 6.989191e-001 3.307622e-002 -9.698121e-002 3.119629e-002 4.775249e-001 3.865133e-001 -1.027488e-001 -6.324077e-001 -1.642695e-002 -1.126918e-001 -6.631064e-002 1.413210e-001 9.951425e-002 8.196234e-002 9.426314e-002 3.656109e-001 2.736711e-001 -1.500803e-001 -5.044670e-001 -5.363707e-001 -3.752955e-002 -8.054506e-002
<VARIANCE> 39
 2.915734e+000 2.176583e+001 1.177745e+001 2.314677e+001 1.990358e+001 1.379594e+001 3.073489e+001 4.733762e+001 4.336409e+001 2.834160e+001 1.386678e+001 4.111977e+001 3.394520e+000 1.124768e-001 2.316299e-001 3.859561e-001 4.984582e-001 9.360873e-001 8.072351e-001 2.028668e+000 1.164665e+000 2.040316e+000 2.185009e+000 1.849559e+000 1.289159e+000 5.852656e-002 2.085313e-002 4.116381e-002 8.117771e-002 1.164754e-001 1.174009e-001 1.524004e-001 3.222043e-001 2.209039e-001 2.908083e-001 4.317398e-001 2.698506e-001 2.616664e-001 1.088860e-002
<GCONST> 7.619165e+001
<MIXTURE> 3 9.253716e-002
<MEAN> 39
 -8.895512e+000 -1.216058e+001 -6.527910e+000 -1.853927e+001 -1.344833e+001 -1.023281e+001 -1.788962e+001 3.141617e+000 1.387779e+001 -1.344416e+001 -1.248511e+001 -7.183443e-001 7.589690e+001 -3.687893e-001 -2.133870e-001 3.339574e-001 8.738415e-001 4.669634e-001 -2.852232e-001 -7.819729e-001 -1.223180e+000 -4.980351e-001 -2.843475e-001 -8.891170e-003 -2.939515e-001 -3.684710e-001 -7.983374e-002 1.882846e-002 2.668430e-002 -2.008590e-002 -1.093508e-001 1.756951e-001 1.326675e-001 -2.108800e-001 -4.162216e-001 -1.000905e-001 6.861847e-002 -2.232466e-001 6.075366e-003
<VARIANCE> 39
 8.852356e-001 2.655285e-001 2.117320e+000 1.040584e+001 3.924599e+000 5.901310e+000 7.279300e+000 1.141728e+001 3.790078e+000 4.472160e+000 4.395888e+000 3.364215e+000 1.455795e+000 5.173063e-002 1.635091e-001 2.514447e-001 7.973073e-001 1.936367e-001 1.074692e+000 7.538926e-001 9.273278e-001 1.473303e+000 1.033686e+000 8.387360e-001 7.324538e-001 3.985518e-002 3.055924e-003 3.602714e-002 7.973169e-002 2.747500e-001 3.915543e-002 2.427104e-001 9.767979e-002 1.180272e-001 5.685311e-002 4.255356e-001 3.477537e-001 9.168786e-002 8.222895e-003
<GCONST> 4.116537e+001
<MIXTURE> 4 3.773421e-001
<MEAN> 39
 -8.041207e+000 -7.358055e+000 -4.382193e+000 -1.596248e+001 -1.496336e+001 -1.040033e+001 -1.413472e+001 2.915777e-002 2.403290e+000 -1.437500e+001 -1.267404e+001 -6.897267e+000 7.519576e+001 -1.090384e-001 -1.767363e-002 2.874188e-001 8.650278e-002 5.663536e-002 1.976064e-001 1.996372e-001 -1.646544e-001 -4.223205e-001 -8.674544e-001 -5.618903e-001 -5.025970e-001 -1.203157e-001 -8.507941e-002 -3.099208e-002 1.301215e-001 4.200874e-002 -5.262754e-003 8.474763e-002 -4.368102e-002 -2.112008e-001 -9.284386e-002 -1.769700e-001 3.602018e-002 1.633886e-002 -8.010770e-002
<VARIANCE> 39
 1.081219e+000 4.232878e+000 1.345746e+001 1.767314e+001 1.471388e+001 1.973402e+001 4.307861e+001 7.103378e+001 1.431839e+001 1.664764e+001 3.897848e+001 1.134258e+001 3.989695e+000 1.160749e-001 1.994112e-001 4.117926e-001 3.190025e-001 3.796125e-001 5.974226e-001 7.403229e-001 1.527756e+000 8.195347e-001 9.566084e-001 1.081443e+000 8.303286e-001 8.822883e-002 1.317538e-002 3.458909e-002 5.544143e-002 7.364385e-002 7.560601e-002 1.299383e-001 1.294248e-001 1.471635e-001 1.380995e-001 1.878703e-001 2.167929e-001 1.385158e-001 6.980238e-003
<GCONST> 6.148063e+001
<STATE> 12
<NUMMIXES> 4
<MIXTURE> 1 1.446744e-001
<MEAN> 39
 -1.084017e+001 -1.106694e+001 -4.561783e+000 -2.120018e+001 -1.875880e+001 -3.318939e+000 -2.768273e+000 7.703508e+000 1.407816e+001 -6.901333e+000 -8.921241e-002 2.522176e-001 7.553207e+001 -1.868077e-001 4.863354e-002 3.107030e-001 1.156917e-001 5.875845e-001 6.617926e-001 6.273659e-001 -4.894367e-001 -9.538523e-001 -3.135485e-001 -9.061779e-002 -4.573736e-001 -7.226161e-002 -2.117660e-002 -4.353978e-002 4.965593e-002 8.430576e-002 1.562044e-001 1.698577e-001 -8.515847e-002 -2.247905e-001 -8.046158e-002 -5.922585e-002 -7.252435e-002 -9.925463e-002 -3.212549e-002
<VARIANCE> 39
 2.562254e+000 2.550695e+000 8.493526e+000 1.168155e+001 5.065952e+000 1.765708e+001 1.058502e+001 1.763921e+001 1.769560e+001 8.374436e+000 8.710791e+000 9.809121e+000 4.458223e-001 9.517302e-002 1.839964e-001 1.451445e-001 2.247063e-001 3.692367e-001 5.541189e-001 7.156746e-001 9.514499e-001 4.639940e-001 7.003414e-001 7.943489e-001 3.012446e-001 3.950510e-002 1.253274e-002 2.687738e-002 2.559301e-002 6.454936e-002 7.606617e-002 1.498275e-001 1.644468e-001 3.494649e-001 1.989996e-001 1.725482e-001 1.426185e-001 3.331909e-002 4.683075e-003
<GCONST> 4.547211e+001
<MIXTURE> 2 4.003038e-001
<MEAN> 39
 -1.100570e+001 -9.461272e+000 -1.217260e+000 -1.553070e+001 -1.519197e+001 -5.850167e+000 -1.548331e+001 -7.214851e+000 -4.187673e-001 -2.208494e+001 -1.373796e+001 -8.320184e+000 7.362072e+001 -2.899638e-001 -1.219256e-001 3.912851e-001 2.384992e-001 3.365255e-001 5.689222e-001 1.757541e-001 -6.487092e-001 -9.123134e-001 -8.833678e-001 -2.977553e-001 -2.257073e-001 -2.041967e-001 2.726556e-002 -1.192663e-002 -4.966516e-002 8.337544e-002 6.435769e-002 -3.600857e-002 1.611197e-002 7.393759e-002 2.289839e-002 2.179583e-001 1.937230e-001 2.060193e-001 1.747430e-002
<VARIANCE> 39
 1.991293e+000 6.495122e+000 1.242281e+001 1.057267e+001 1.047849e+001 1.249574e+001 2.658606e+001 2.465886e+001 1.627052e+001 1.602005e+001 1.516040e+001 1.300603e+001 4.829740e+000 5.485113e-002 2.580533e-001 4.669062e-001 7.324157e-001 8.468060e-001 7.035356e-001 1.034772e+000 1.049704e+000 1.072094e+000 1.525409e+000 1.136117e+000 8.701971e-001 3.476644e-002 7.237680e-003 5.194970e-002 8.388417e-002 1.075388e-001 1.306204e-001 1.540208e-001 1.593216e-001 1.728881e-001 1.869805e-001 2.841427e-001 2.103431e-001 1.375215e-001 3.220308e-003
<GCONST> 6.194402e+001
<MIXTURE> 3 3.385124e-001
<MEAN> 39
 -1.025931e+001 -9.223454e+000 -5.926192e+000 -1.729066e+001 -1.809930e+001 -8.526183e+000 -1.340237e+001 -3.971992e-001 7.542467e+000 -5.539866e+000 -3.935167e+000 -1.729214e+000 7.335441e+001 -3.950357e-001 -2.468589e-001 3.040331e-001 3.149769e-001 2.604792e-001 6.832610e-001 4.265927e-003 -5.389864e-001 -9.485295e-001 -1.179654e+000 -4.687931e-001 -3.460684e-001 -3.231311e-001 -5.259232e-002 -2.090782e-002 5.983420e-002 6.271075e-002 3.868255e-002 9.670526e-002 3.004227e-002 -8.197534e-002 -1.225111e-001 -1.335209e-001 -3.838026e-002 -5.130181e-002 -4.720275e-002
<VARIANCE> 39
 1.340606e+000 4.968994e+000 6.585124e+000 1.532850e+001 1.872504e+001 1.466495e+001 2.058006e+001 3.566542e+001 2.657405e+001 3.146114e+001 1.202091e+001 2.532959e+001 5.281268e+000 9.717575e-002 1.847741e-001 4.828030e-001 5.564827e-001 7.868180e-001 7.502574e-001 1.252085e+000 1.429098e+000 1.837243e+000 1.764290e+000 1.776615e+000 1.065497e+000 4.897229e-002 1.375300e-002 3.528393e-002 7.768431e-002 7.820776e-002 1.300030e-001 1.256548e-001 1.643408e-001 1.484216e-001 2.852748e-001 2.628164e-001 3.228836e-001 1.474696e-001 8.516567e-003
<GCONST> 6.706848e+001
<MIXTURE> 4 1.165094e-001
<MEAN> 39
 -9.645419e+000 -6.286825e+000 -9.268770e+000 -2.043094e+001 -1.919253e+001 -1.073193e+001 -9.054774e+000 8.884706e+000 1.686059e+001 8.048858e+000 -1.052258e+000 3.089328e+000 7.501822e+001 -6.614268e-001 -2.485762e-001 8.754209e-002 1.306492e-001 3.859950e-001 -2.480504e-001 -5.275250e-002 -2.646894e-001 -1.564766e+000 -9.420831e-001 -4.802248e-001 1.008681e+000 -2.413529e-001 -5.277890e-002 -1.158121e-001 2.110292e-001 7.793301e-002 8.228868e-002 5.225231e-002 -1.204443e-001 -1.673943e-001 -2.267909e-001 -3.196947e-001 1.395909e-001 -6.031383e-003 -1.515158e-001
<VARIANCE> 39
 1.899358e+000 6.910474e+000 9.624465e+000 1.284421e+001 1.716730e+001 1.615303e+001 5.412832e+000 6.525378e+001 2.286796e+001 1.933692e+001 2.149328e+001 1.444869e+001 8.829024e-001 2.783273e-001 4.404647e-001 6.486161e-001 4.895381e-001 1.177531e+000 4.628988e-001 1.451655e+000 4.729346e-001 1.803813e+000 2.000792e+000 8.163566e-001 8.695258e-001 1.275943e-001 3.403556e-002 4.087422e-002 3.557014e-002 1.663512e-001 1.234698e-001 2.110186e-001 1.010037e-001 3.856941e-002 2.043078e-001 4.870207e-001 1.200789e-001 1.955874e-001 1.247642e-002
<GCONST> 6.557370e+001
<STATE> 13
<NUMMIXES> 4
<MIXTURE> 1 1.043143e-001
<MEAN> 39
 -1.107059e+001 -7.353106e+000 -4.834811e+000 -1.771416e+001 -1.860168e+001 -7.803981e+000 -6.622223e+000 8.532284e+000 1.397254e+001 1.037127e+000 -2.545532e+000 -9.427657e-001 7.317778e+001 -8.570713e-001 -9.108303e-001 3.661179e-001 3.942114e-001 9.743275e-001 1.057985e+000 5.283328e-001 -1.587116e+000 -1.748428e+000 -2.208893e+000 -2.550955e-001 1.513911e-001 -7.953971e-001 -4.144451e-002 -1.166454e-001 -7.749777e-002 7.232963e-002 1.128306e-001 9.034982e-002 -1.375882e-001 -2.739024e-001 -1.403181e-001 -1.731528e-001 3.645866e-002 -4.568091e-002 -3.475670e-002
<VARIANCE> 39
 6.440311e+000 1.176408e+001 1.067927e+001 2.340555e+001 1.661082e+001 2.173888e+001 1.546168e+001 3.637406e+001 2.594271e+001 4.945818e+001 7.218913e+001 3.330692e+001 4.956827e+000 2.300410e-001 3.376369e-001 5.648532e-001 8.444311e-001 9.105000e-001 1.851535e+000 2.423205e+000 2.145724e+000 2.539580e+000 1.082718e+000 1.673603e+000 1.351167e+000 5.190192e-002 3.086968e-002 7.198956e-002 8.822142e-002 1.465793e-001 1.702726e-001 2.658798e-001 2.678814e-001 2.192462e-001 3.191870e-001 2.823503e-001 2.450150e-001 2.292609e-001 2.199166e-002
<GCONST> 8.254447e+001
<MIXTURE> 2 2.811399e-001
<MEAN> 39
 -1.270710e+001 -1.061590e+001 5.302947e-001 -1.205566e+001 -1.188196e+001 -3.489115e+000 -1.372935e+001 -9.987536e+000 -6.477388e+000 -2.448318e+001 -1.269885e+001 -7.097642e+000 7.173813e+001 -3.015148e-001 -2.559344e-001 -1.689173e-001 2.159702e-001 2.971571e-001 3.632278e-001 4.478094e-001 -6.562102e-003 -6.508666e-002 3.105571e-001 7.216266e-001 3.095034e-001 -1.989471e-001 -3.846359e-002 -5.225796e-002 -1.709638e-001 -2.216731e-001 -1.631203e-001 9.268293e-003 1.959971e-001 4.076834e-001 4.398349e-001 3.406070e-001 8.096772e-002 -1.021797e-001 -1.098861e-002
<VARIANCE> 39
 1.926991e+000 2.404517e+000 6.492310e+000 9.740032e+000 1.139179e+001 1.026824e+001 1.415760e+001 1.304077e+001 1.235606e+001 1.586759e+001 1.508649e+001 2.219903e+001 6.603222e+000 1.101183e-001 1.348136e-001 2.533876e-001 6.421510e-001 4.913810e-001 8.038264e-001 6.913933e-001 1.337374e+000 1.151200e+000 1.392488e+000 8.012939e-001 9.886653e-001 4.775986e-002 1.173965e-002 1.502004e-002 6.624644e-002 7.501120e-002 8.670688e-002 1.205863e-001 1.408303e-001 2.576385e-001 1.515829e-001 1.902836e-001 1.629229e-001 1.885981e-001 6.793673e-003
<GCONST> 5.663694e+001
<MIXTURE> 3 2.655451e-001
<MEAN> 39
 -1.319030e+001 -1.003823e+001 -3.405513e+000 -1.453798e+001 -1.558569e+001 -5.813957e+000 -1.267678e+001 -5.126554e+000 1.342915e+000 -7.942114e+000 -3.030029e+000 -1.515498e-001 7.145000e+001 -5.570859e-001 -4.365292e-001 2.985091e-001 6.905345e-001 8.679665e-001 5.804209e-001 1.598977e-001 -3.768171e-001 -6.502888e-001 -1.153240e+000 -4.985011e-001 1.987753e-001 -4.712256e-001 4.669182e-002 2.660014e-002 -1.301984e-001 -2.056707e-001 -9.224050e-002 -1.278498e-002 1.410451e-001 2.807000e-001 4.250871e-001 1.962008e-001 -4.129993e-003 -1.983075e-002 5.255182e-002
<VARIANCE> 39
 3.408875e+000 6.621294e+000 1.774841e+001 1.183309e+001 1.279950e+001 1.276717e+001 1.530279e+001 1.055703e+001 2.474424e+001 3.461539e+001 2.329889e+001 3.656218e+001 3.473264e+000 1.474422e-001 3.824036e-001 3.824390e-001 9.615082e-001 7.285813e-001 1.099780e+000 1.273751e+000 1.093756e+000 2.089210e+000 1.534801e+000 1.170473e+000 1.496411e+000 6.445425e-002 3.146903e-002 6.711800e-002 7.351594e-002 1.309053e-001 1.831182e-001 1.907683e-001 2.525327e-001 1.756315e-001 2.880449e-001 3.233964e-001 2.265992e-001 2.566400e-001 7.541114e-003
<GCONST> 7.290641e+001
<MIXTURE> 4 3.490006e-001
<MEAN> 39
 -1.144120e+001 -1.340176e+001 -4.976797e+000 -1.780168e+001 -1.458212e+001 -3.136549e+000 -8.320582e+000 -3.704849e-001 4.574574e+000 -1.591365e+001 -8.415684e+000 -4.810407e+000 7.495355e+001 -3.220464e-001 -3.546640e-001 -1.961762e-001 7.213271e-002 1.981638e-001 8.049157e-002 2.254016e-001 3.658938e-001 2.752225e-001 -4.903629e-002 -2.626145e-002 -7.392538e-002 -1.825226e-001 -1.826688e-002 1.130915e-002 1.895027e-002 -1.929947e-002 1.393847e-002 1.447157e-002 -7.456147e-002 -3.021434e-002 1.268055e-001 1.687553e-001 2.384762e-001 1.952675e-001 -3.251662e-003
<VARIANCE> 39
 1.586215e+000 2.993147e+000 5.471816e+000 9.581124e+000 1.086771e+001 1.342276e+001 1.917928e+001 2.979520e+001 3.554765e+001 2.227480e+001 2.321602e+001 2.406838e+001 6.436565e-001 1.217515e-001 1.696976e-001 3.562443e-001 5.921306e-001 6.039699e-001 1.002214e+000 1.129942e+000 1.244591e+000 1.312436e+000 1.185841e+000 1.078488e+000 1.033630e+000 3.497496e-002 1.519495e-002 2.412544e-002 5.763763e-002 7.647161e-002 1.115385e-001 1.707234e-001 1.693867e-001 2.038036e-001 1.724849e-001 1.854075e-001 1.556271e-001 1.431307e-001 3.622645e-003
<GCONST> 5.915540e+001
<STATE> 14
<NUMMIXES> 4
<MIXTURE> 1 2.810150e-001
<MEAN> 39
 -1.277587e+001 -1.006136e+001 -4.054106e-001 -1.362366e+001 -1.052949e+001 1.391901e+000 -3.209348e+000 4.132906e+000 1.064649e+001 -9.445386e+000 -5.251692e+000 -5.102279e+000 7.256721e+001 -5.270159e-001 -2.488531e-001 1.566372e-002 9.980530e-002 3.664706e-001 5.029998e-001 -1.056138e-001 -1.933520e-001 -3.415919e-001 -6.285594e-002 1.850570e-001 1.701170e-001 -2.684632e-001 1.239809e-002 -5.909663e-002 -2.300242e-001 -1.508071e-001 -1.540798e-001 -9.094670e-002 -1.037746e-001 5.360193e-002 -1.654763e-002 6.776134e-002 7.104139e-002 1.840335e-001 4.200365e-002
<VARIANCE> 39
 5.683187e+000 3.248759e+000 4.551576e+000 1.262614e+001 1.122685e+001 2.118084e+001 9.927218e+000 1.422270e+001 1.650838e+001 1.165088e+001 1.388499e+001 1.711660e+001 6.753804e+000 1.379635e-001 2.334893e-001 7.178300e-001 9.431859e-001 9.174147e-001 8.403160e-001 8.468042e-001 7.585973e-001 1.813189e+000 9.347988e-001 7.449493e-001 9.140348e-001 7.087673e-002 1.710537e-002 3.265003e-002 5.828252e-002 1.169193e-001 1.311198e-001 1.854458e-001 1.090192e-001 1.501677e-001 3.276562e-001 1.276414e-001 1.323228e-001 6.211029e-002 6.260093e-003
<GCONST> 6.131723e+001
<MIXTURE> 2 2.894624e-001
<MEAN> 39
 -1.537463e+001 -1.232086e+001 -3.234942e+000 -1.332307e+001 -1.308598e+001 -1.917143e+000 -1.099260e+001 -4.985832e+000 -2.370469e+000 -1.796009e+001 -8.676568e+000 -4.575813e+000 6.946986e+001 -6.332638e-001 -7.870723e-001 -8.685959e-001 -2.930945e-001 3.950768e-002 9.036400e-001 1.424667e+000 1.660454e+000 1.292287e+000 1.089627e+000 1.115935e+000 5.695268e-001 -2.375941e-001 1.299498e-002 -2.014212e-002 -1.008626e-001 -8.796434e-002 -2.748051e-002 -2.052379e-004 9.610281e-002 1.695334e-001 2.230888e-001 2.749451e-001 1.891906e-001 6.279302e-002 5.083019e-002
<VARIANCE> 39
 2.402669e+000 3.144997e+000 9.071187e+000 1.225664e+001 9.580190e+000 1.359227e+001 1.433082e+001 1.994428e+001 2.614656e+001 3.228387e+001 2.206930e+001 1.980482e+001 5.033329e+000 1.366096e-001 2.641309e-001 6.346605e-001 5.859998e-001 7.622978e-001 8.043480e-001 9.774031e-001 1.799817e+000 1.332065e+000 2.154506e+000 1.819693e+000 9.682381e-001 7.340284e-002 2.719798e-002 5.061664e-002 9.034046e-002 9.728627e-002 1.096005e-001 1.749613e-001 1.781265e-001 3.131166e-001 2.276000e-001 3.614928e-001 3.148062e-001 1.742268e-001 9.338116e-003
<GCONST> 6.990592e+001
<MIXTURE> 3 2.661591e-001
<MEAN> 39
 -1.466493e+001 -1.592433e+001 -6.690717e+000 -1.760623e+001 -1.285419e+001 -1.608120e+000 -6.898382e+000 1.251652e+000 8.448518e+000 -1.269634e+001 -4.502956e+000 -1.250460e+000 7.252522e+001 -3.243826e-001 -3.014196e-001 -8.113004e-002 -2.110379e-002 5.050224e-001 3.682474e-001 6.172843e-002 -3.779824e-002 1.686789e-001 3.143106e-001 3.388130e-001 2.969148e-001 -1.777792e-001 1.222191e-001 1.444145e-001 1.783167e-001 1.126895e-001 -6.610674e-002 -6.791421e-002 -1.714268e-001 -2.348173e-001 -2.873919e-001 -2.398432e-001 -2.864597e-001 -2.502435e-001 6.105373e-002
<VARIANCE> 39
 6.509504e+000 2.601687e+000 8.900675e+000 1.428898e+001 1.287477e+001 1.354670e+001 1.298255e+001 1.721397e+001 2.931918e+001 2.016722e+001 1.892031e+001 1.124797e+001 9.254636e+000 1.525677e-001 2.556087e-001 5.946571e-001 7.129600e-001 9.241408e-001 6.731693e-001 8.467326e-001 1.903926e+000 2.328350e+000 2.085623e+000 2.122558e+000 1.137268e+000 4.012663e-002 2.086788e-002 3.327945e-002 6.909328e-002 8.717888e-002 1.610458e-001 1.223029e-001 1.676959e-001 3.087277e-001 2.887212e-001 2.782370e-001 4.046137e-001 1.600486e-001 5.211387e-003
<GCONST> 6.924889e+001
<MIXTURE> 4 1.633636e-001
<MEAN> 39
 -1.716946e+001 -1.297189e+001 -6.186225e+000 -1.813207e+001 -1.450719e+001 -3.361301e+000 -6.180081e+000 1.403284e-001 7.203772e+000 -1.511685e+000 1.294830e+000 7.125074e+000 6.938153e+001 -4.589488e-001 -3.498099e-001 6.133194e-003 -2.708595e-001 -3.811714e-001 4.817271e-001 8.308967e-001 -1.225095e-001 -7.472559e-003 1.718787e-001 -4.111419e-002 -5.552428e-001 -3.052590e-001 5.660209e-002 2.711026e-002 -6.132681e-002 1.212040e-002 -2.523237e-002 4.900203e-002 -1.917099e-002 2.417880e-002 -8.742232e-002 1.388698e-002 -1.357525e-001 -3.235963e-001 5.926412e-002
<VARIANCE> 39
 2.855577e+000 2.707236e+000 5.126877e+000 4.610523e+000 6.535420e+000 1.231002e+001 2.007487e+001 2.388073e+001 9.182291e+000 2.218556e+001 1.453824e+001 1.513627e+001 2.191554e+000 9.077745e-002 2.785020e-001 9.477523e-001 5.500209e-001 5.050199e-001 8.981278e-001 1.620588e+000 1.215183e+000 8.218243e-001 4.099799e+000 2.056260e+000 1.526034e+000 1.081905e-001 2.474421e-002 5.203567e-002 1.154960e-001 4.602188e-002 1.014504e-001 1.349492e-001 2.841200e-001 2.290557e-001 2.181461e-001 7.344087e-001 2.884929e-001 1.167040e-001 1.272551e-002
<GCONST> 6.613100e+001
<TRANSP> 15
 0.000000e+000 1.000000e+000 0.000000e+000 0.000000e+000 0.000000e+000 0.000000e+000 0.000000e+000 0.000000e+000 0.000000e+000 0.000000e+000 0.000000e+000 0.000000e+000 0.000000e+000 0.000000e+000 0.000000e+000
 0.000000e+000 8.540794e-001 1.459205e-001 0.000000e+000 0.000000e+000 0.000000e+000 0.000000e+000 0.000000e+000 0.000000e+000 0.000000e+000 0.000000e+000 0.000000e+000 0.000000e+000 0.000000e+000 0.000000e+000
 0.000000e+000 0.000000e+000 7.861040e-001 2.138960e-001 0.000000e+000 0.000000e+000 0.000000e+000 0.000000e+000 0.000000e+000 0.000000e+000 0.000000e+000 0.000000e+000 0.000000e+000 0.000000e+000 0.000000e+000
 0.000000e+000 0.000000e+000 0.000000e+000 7.367156e-001 2.632845e-001 0.000000e+000 0.000000e+000 0.000000e+000 0.000000e+000 0.000000e+000 0.000000e+000 0.000000e+000 0.000000e+000 0.000000e+000 0.000000e+000
 0.000000e+000 0.000000e+000 0.000000e+000 0.000000e+000 7.770919e-001 2.229081e-001 0.000000e+000 0.000000e+000 0.000000e+000 0.000000e+000 0.000000e+000 0.000000e+000 0.000000e+000 0.000000e+000 0.000000e+000
 0.000000e+000 0.000000e+000 0.000000e+000 0.000000e+000 0.000000e+000 8.034508e-001 1.965493e-001 0.000000e+000 0.000000e+000 0.000000e+000 0.000000e+000 0.000000e+000 0.000000e+000 0.000000e+000 0.000000e+000
 0.000000e+000 0.000000e+000 0.000000e+000 0.000000e+000 0.000000e+000 0.000000e+000 8.286210e-001 1.713790e-001 0.000000e+000 0.000000e+000 0.000000e+000 0.000000e+000 0.000000e+000 0.000000e+000 0.000000e+000
 0.000000e+000 0.000000e+000 0.000000e+000 0.000000e+000 0.000000e+000 0.000000e+000 0.000000e+000 8.444532e-001 1.555468e-001 0.000000e+000 0.000000e+000 0.000000e+000 0.000000e+000 0.000000e+000 0.000000e+000
 0.000000e+000 0.000000e+000 0.000000e+000 0.000000e+000 0.000000e+000 0.000000e+000 0.000000e+000 0.000000e+000 7.628243e-001 2.371757e-001 0.000000e+000 0.000000e+000 0.000000e+000 0.000000e+000 0.000000e+000
 0.000000e+000 0.000000e+000 0.000000e+000 0.000000e+000 0.000000e+000 0.000000e+000 0.000000e+000 0.000000e+000 0.000000e+000 8.247210e-001 1.752789e-001 0.000000e+000 0.000000e+000 0.000000e+000 0.000000e+000
 0.000000e+000 0.000000e+000 0.000000e+000 0.000000e+000 0.000000e+000 0.000000e+000 0.000000e+000 0.000000e+000 0.000000e+000 0.000000e+000 7.476238e-001 2.523762e-001 0.000000e+000 0.000000e+000 0.000000e+000
 0.000000e+000 0.000000e+000 0.000000e+000 0.000000e+000 0.000000e+000 0.000000e+000 0.000000e+000 0.000000e+000 0.000000e+000 0.000000e+000 0.000000e+000 8.241063e-001 1.758937e-001 0.000000e+000 0.000000e+000
 0.000000e+000 0.000000e+000 0.000000e+000 0.000000e+000 0.000000e+000 0.000000e+000 0.000000e+000 0.000000e+000 0.000000e+000 0.000000e+000 0.000000e+000 0.000000e+000 8.087545e-001 1.912455e-001 0.000000e+000
 0.000000e+000 0.000000e+000 0.000000e+000 0.000000e+000 0.000000e+000 0.000000e+000 0.000000e+000 0.000000e+000 0.000000e+000 0.000000e+000 0.000000e+000 0.000000e+000 0.000000e+000 7.703444e-001 2.296556e-001
 0.000000e+000 0.000000e+000 0.000000e+000 0.000000e+000 0.000000e+000 0.000000e+000 0.000000e+000 0.000000e+000 0.000000e+000 0.000000e+000 0.000000e+000 0.000000e+000 0.000000e+000 0.000000e+000 0.000000e+000
<ENDHMM>
