~o
<STREAMINFO> 1 39
<VECSIZE> 39<NULLD><MFCC_D_A_0><DIAGC>
~h "dazhaohu"
<BEGINHMM>
<NUMSTATES> 21
<STATE> 2
<NUMMIXES> 4
<MIXTURE> 1 1.969479e-001
<MEAN> 39
 -1.074787e+001 -1.374438e+001 -8.747311e+000 -1.917806e+001 -1.222206e+001 -9.798921e-001 -2.504252e+000 5.844409e+000 1.196160e+001 -6.181261e+000 -4.983386e+000 -3.184689e+000 7.259195e+001 2.241433e+000 5.804234e-001 -1.575472e+000 -1.927449e+000 -1.089874e+000 -1.244098e+000 1.004587e+000 1.184380e+000 1.223741e+000 1.289725e+000 -9.660171e-001 -1.053007e+000 1.812295e+000 -6.496894e-002 -4.516925e-001 -3.031403e-001 6.018445e-002 5.576974e-001 4.050615e-001 4.082748e-001 -4.760169e-001 -3.760513e-001 -3.023088e-001 -2.564588e-001 -2.200274e-001 4.478072e-002
<VARIANCE> 39
 5.178147e+000 1.061086e+001 1.284641e+001 2.490645e+001 1.893732e+001 2.270599e+001 3.605881e+001 2.050002e+001 3.537126e+001 5.294088e+001 2.348423e+001 1.853617e+001 2.460593e+000 5.474600e-001 6.201126e-001 5.377452e-001 9.042844e-001 1.776069e+000 2.615190e+000 2.330718e+000 1.986626e+000 3.625627e+000 3.713699e+000 3.368603e+000 2.164240e+000 6.221606e-001 4.990209e-002 7.148437e-002 1.752950e-001 2.048335e-001 2.685082e-001 3.297723e-001 3.133129e-001 4.245193e-001 2.868894e-001 3.557224e-001 4.820353e-001 3.508154e-001 2.824880e-002
<GCONST> 9.298113e+001
<MIXTURE> 2 2.457557e-001
<MEAN> 39
 -1.644406e+001 -1.687624e+001 -8.765742e+000 -1.417474e+001 -9.357060e+000 -2.066755e-001 -4.561513e+000 2.395870e+000 5.967581e+000 -9.318034e+000 -6.392239e+000 -2.164371e+000 6.933580e+001 1.631835e+000 1.152502e+000 -4.067913e-001 -3.866623e-001 -1.055205e+000 -1.615796e+000 -4.301363e-002 3.748332e-001 3.466588e-001 1.284639e+000 -4.407406e-001 -2.584660e-001 1.546215e+000 5.753454e-001 8.516344e-002 -2.690679e-001 -4.424019e-001 -2.936361e-001 -4.318638e-001 2.201768e-001 -1.494482e-002 1.462655e-001 2.418144e-001 -1.313383e-001 -3.878403e-001 4.509823e-001
<VARIANCE> 39
 3.983397e+000 7.291518e+000 1.173531e+001 1.572686e+001 1.798873e+001 2.228217e+001 1.546300e+001 1.573223e+001 3.676400e+001 2.952089e+001 2.051574e+001 2.695329e+001 2.820268e+000 7.357880e-001 5.562822e-001 1.004303e+000 1.564284e+000 1.779796e+000 1.499969e+000 2.545759e+000 2.813687e+000 4.312999e+000 3.378119e+000 1.902507e+000 1.509775e+000 4.483443e-001 5.360023e-002 1.893645e-001 2.282679e-001 1.960457e-001 3.426259e-001 3.200769e-001 4.001458e-001 3.716098e-001 6.039814e-001 5.318516e-001 3.477578e-001 3.584648e-001 4.860930e-002
<GCONST> 9.347987e+001
<MIXTURE> 3 5.310023e-001
<MEAN> 39
 -1.645455e+001 -1.777688e+001 -7.462797e+000 -1.589592e+001 -8.846452e+000 1.033394e+000 -3.315859e+000 2.682411e+000 6.993371e+000 -1.167725e+001 -5.654858e+000 -3.536983e+000 6.801140e+001 4.798668e-001 1.509154e-001 -5.332614e-001 -3.262908e-001 1.581965e-001 -2.632976e-002 2.889465e-001 1.859511e-001 1.873988e-001 2.755636e-001 -1.819786e-001 1.995428e-001 5.528164e-001 1.417909e-001 9.297023e-002 -3.748381e-002 -4.856519e-002 -6.026195e-002 -1.343704e-001 4.943528e-002 1.171564e-001 4.663717e-002 2.066327e-001 -3.675997e-002 -3.989638e-002 1.387826e-001
<VARIANCE> 39
 3.838177e+000 4.363782e+000 7.407325e+000 1.323180e+001 1.120899e+001 1.555405e+001 1.995128e+001 1.685410e+001 2.435800e+001 2.789623e+001 1.674930e+001 1.719254e+001 4.532084e+000 1.929973e-001 3.906974e-001 4.315694e-001 6.769330e-001 8.047054e-001 1.065844e+000 1.261075e+000 1.183120e+000 1.620847e+000 1.539938e+000 1.334033e+000 1.438811e+000 7.144625e-002 4.803400e-002 7.790732e-002 9.385107e-002 1.170377e-001 1.925708e-001 2.251287e-001 2.415869e-001 2.784075e-001 2.942188e-001 2.883429e-001 2.654232e-001 2.359122e-001 2.179842e-002
<GCONST> 7.411340e+001
<MIXTURE> 4 2.629414e-002
<MEAN> 39
 -1.046316e+001 -1.545219e+001 -1.401385e+001 -2.744320e+001 -1.472276e+001 8.979661e-001 9.446312e+000 1.911636e+000 1.838791e+001 -1.033389e+001 -2.146894e+001 -6.848501e+000 7.446104e+001 6.650143e-001 -4.694665e-001 -3.110070e-001 1.418546e-001 1.939983e+000 -2.174458e-001 2.434250e+000 -2.469415e+000 6.921603e-001 1.300530e+000 -1.506322e+000 1.676567e-001 6.300947e-001 -4.968216e-002 3.673502e-002 6.161538e-001 8.186844e-001 3.898510e-001 -1.339670e-002 -8.365361e-001 -7.876684e-001 -7.267680e-001 3.177844e-001 1.692787e+000 5.156345e-001 -2.172002e-001
<VARIANCE> 39
 1.284603e+000 1.632185e+000 2.227978e+000 1.012558e+000 1.822501e+001 2.625539e+000 4.963655e+000 2.349746e+001 2.467845e+000 1.374101e+001 2.053642e+000 3.018288e+000 2.539433e-001 6.257974e-002 1.700758e-001 1.883685e+000 1.600493e+000 2.456083e-001 4.972205e-002 5.057094e-001 2.565076e-001 5.099050e-001 6.541008e-001 7.938712e+000 1.149341e+000 4.364802e-002 4.110728e-003 4.809859e-002 1.763631e-002 8.790610e-002 2.391190e-001 1.341745e-002 2.441181e-001 4.525807e-001 1.520270e-002 2.004357e-001 9.919194e-002 5.684768e-002 3.636343e-004
<GCONST> 3.209618e+001
<STATE> 3
<NUMMIXES> 4
<MIXTURE> 1 2.742242e-001
<MEAN> 39
 -8.565094e+000 -2.021122e+001 -1.312326e+001 -1.159159e+001 -6.144866e+000 -7.238709e+000 1.029931e-001 -2.933864e+000 1.123870e+000 -8.526081e+000 -4.244225e+000 1.346601e+000 7.791092e+001 1.314744e-001 -9.283679e-001 -6.430294e-002 2.149337e+000 2.725101e+000 1.823818e-002 -1.811102e+000 -1.583089e+000 6.335043e-001 1.103976e+000 1.316387e+000 4.611555e-001 2.761658e-001 -2.962944e-001 2.907362e-001 3.596366e-001 -2.692994e-002 -3.206629e-001 5.782358e-002 -5.009618e-001 4.303318e-001 5.010341e-001 -2.004108e-001 -2.658685e-001 -2.924921e-001 -3.517239e-001
<VARIANCE> 39
 1.890699e+000 1.718642e+001 2.517865e+001 4.598061e+001 3.054001e+001 2.642604e+001 8.375838e+001 3.606102e+001 6.415430e+001 8.682005e+001 7.296629e+001 6.689074e+001 6.029334e+000 1.404884e-001 6.432816e-001 3.784308e-001 1.125983e+000 2.130722e+000 1.399845e+000 2.722092e+000 1.490301e+000 1.995121e+000 2.074622e+000 1.705054e+000 1.407574e+000 9.216026e-002 5.777330e-002 9.841458e-002 1.358096e-001 2.426091e-001 4.933600e-001 2.456002e-001 4.665256e-001 2.964975e-001 4.188944e-001 4.328609e-001 4.887483e-001 4.800178e-001 2.437476e-002
<GCONST> 9.543908e+001
<MIXTURE> 2 2.807567e-001
<MEAN> 39
 -5.762242e+000 -1.352895e+001 -1.439979e+001 -2.448106e+001 -1.191113e+001 -2.689143e+000 -4.932989e+000 6.771252e+000 1.817995e+001 4.712920e-001 -1.140168e+001 -1.133655e+001 7.681891e+001 1.452116e+000 -4.098151e-001 -1.641843e+000 -1.200318e+000 7.826872e-001 1.110371e+000 1.829626e+000 -2.684810e-001 -1.730759e-001 2.425178e-001 -1.273414e+000 -1.505988e+000 1.455378e+000 -6.633537e-001 -3.168961e-001 3.380717e-001 6.861073e-001 6.459520e-001 9.381209e-001 4.965571e-001 -6.793832e-001 -1.169370e+000 -7.933651e-001 3.614763e-001 5.561993e-001 -5.498365e-001
<VARIANCE> 39
 3.385362e+000 7.361961e+000 2.200937e+001 1.529076e+001 3.266469e+001 3.355482e+001 3.331195e+001 4.194309e+001 2.295014e+001 3.987509e+001 4.071195e+001 3.299226e+001 9.611219e+000 6.407964e-001 4.955637e-001 1.039996e+000 2.078167e+000 2.439754e+000 3.839236e+000 1.680882e+000 3.712920e+000 2.905947e+000 3.465838e+000 1.782975e+000 2.144179e+000 6.652778e-001 6.087763e-002 1.317581e-001 2.022586e-001 1.762078e-001 2.682959e-001 3.163220e-001 3.862823e-001 3.433130e-001 3.451242e-001 3.862194e-001 4.239569e-001 3.342578e-001 5.810694e-002
<GCONST> 9.871177e+001
<MIXTURE> 3 3.267997e-001
<MEAN> 39
 -9.690513e+000 -1.579844e+001 -1.144000e+001 -1.639639e+001 -1.454546e+001 -9.675566e+000 8.814092e-001 1.544694e+000 -7.543951e-001 -1.143103e+001 -8.013634e+000 -1.706481e+000 7.654817e+001 1.287283e+000 -1.146200e+000 -1.196752e+000 3.139449e-001 1.244610e+000 -8.269722e-001 5.885162e-001 -1.504443e+000 -1.450159e+000 3.533004e-001 2.700240e-001 3.799312e-001 1.584274e+000 -4.817337e-001 -5.086954e-001 2.003628e-001 7.800720e-001 1.104636e+000 6.582771e-001 -7.514113e-001 -4.008338e-001 4.584535e-001 1.291015e-001 4.454943e-001 1.401886e-001 -3.910106e-001
<VARIANCE> 39
 6.766261e+000 1.861887e+001 2.558911e+001 3.922697e+001 2.584138e+001 2.707609e+001 7.598196e+001 3.275433e+001 3.735286e+001 7.715554e+001 4.670588e+001 2.352689e+001 6.982247e+000 6.651656e-001 1.310437e+000 1.562954e+000 1.986037e+000 3.704549e+000 2.311527e+000 3.118177e+000 1.703664e+000 1.431993e+000 2.395510e+000 3.108584e+000 2.751042e+000 5.758391e-001 6.660521e-002 1.753065e-001 1.704196e-001 2.962774e-001 3.910924e-001 3.607677e-001 7.084131e-001 3.750014e-001 3.841308e-001 4.364049e-001 4.309902e-001 2.235480e-001 5.712178e-002
<GCONST> 1.046380e+002
<MIXTURE> 4 1.182194e-001
<MEAN> 39
 -7.107400e+000 -2.055628e+001 -1.335736e+001 -2.262412e+001 -3.120354e+000 8.477914e+000 8.121783e-001 -1.404086e+000 5.545218e+000 -1.405831e+001 3.604657e-001 -3.140717e+000 7.500989e+001 2.458137e-001 -1.040931e-001 1.089025e-001 5.961429e-001 1.099725e+000 -2.365261e-001 -1.668035e+000 -1.436240e+000 -1.007051e-001 -5.231042e-002 2.368842e-001 -7.033323e-002 1.959202e-001 -3.034553e-001 2.856012e-002 2.868768e-001 5.999096e-002 -2.850178e-001 -5.445426e-001 -5.073612e-001 6.563306e-002 4.113619e-002 -1.920811e-001 -9.858182e-002 9.165452e-002 -2.012977e-001
<VARIANCE> 39
 1.695624e+000 3.040811e+000 7.395409e+000 8.757615e+000 9.250748e+000 1.066411e+001 3.321885e+001 1.609152e+001 9.546097e+000 7.911158e+000 1.186486e+001 1.301528e+001 2.166152e+000 4.185603e-001 4.026000e-001 6.333020e-001 9.204963e-001 1.778229e+000 2.519480e+000 3.016711e+000 1.896511e+000 1.273032e+000 7.487273e-001 8.027769e-001 8.261481e-001 2.218474e-001 4.261786e-002 5.418449e-002 8.137348e-002 2.436257e-001 3.069902e-001 1.998231e-001 7.061044e-001 5.243666e-001 1.905006e-001 1.648290e-001 2.014034e-001 1.346240e-001 2.297152e-002
<GCONST> 7.283862e+001
<STATE> 4
<NUMMIXES> 4
<MIXTURE> 1 1.004667e-001
<MEAN> 39
 -1.161478e+001 -2.018523e+001 -1.361200e+001 -1.344954e+001 -2.193559e+000 -4.716394e+000 -8.162065e-001 -2.432785e+000 4.956628e+000 4.686228e+000 -3.172270e+000 -7.123617e+000 8.414233e+001 -1.459912e-001 -1.358259e-001 -2.867928e-001 1.335683e+000 6.526633e-001 1.276366e+000 -3.571765e-001 -4.501638e-001 9.797028e-002 4.194213e-001 8.707955e-001 1.509722e-001 1.505781e-001 -6.975131e-002 2.324151e-001 5.879864e-002 -1.887411e-001 -2.911773e-001 -6.715783e-002 -1.520165e-001 2.202247e-001 9.231967e-002 -2.508069e-001 -1.533908e-001 2.020579e-001 -3.219387e-001
<VARIANCE> 39
 2.014026e+001 9.809852e+000 4.428022e+001 4.353888e+001 1.042441e+001 2.932364e+001 2.500677e+001 8.793306e+001 5.949891e+001 4.224913e+001 7.986919e+001 6.674231e+001 3.059595e+000 2.083072e-001 6.309301e-001 8.776360e-001 2.452595e+000 8.713543e-001 1.801525e+000 4.525138e+000 1.436736e+000 3.807677e+000 1.368479e+000 1.209130e+000 5.528119e-001 1.088885e-001 8.829830e-002 8.105588e-002 2.572462e-001 4.449370e-001 1.836492e-001 4.702010e-001 5.118227e-001 3.547740e-001 5.659710e-001 2.779675e-001 2.829672e-001 1.977395e-001 8.941351e-002
<GCONST> 9.715582e+001
<MIXTURE> 2 2.432888e-001
<MEAN> 39
 -4.830474e+000 -1.400598e+001 -1.527103e+001 -2.550035e+001 -8.471418e+000 5.335688e+000 3.417107e+000 4.223277e+000 1.315384e+001 -4.419886e+000 -1.095407e+001 -1.043269e+001 7.633573e+001 7.547351e-002 -5.370049e-002 -2.356035e-001 2.606990e-001 8.725210e-001 1.223853e+000 9.404438e-001 -1.182131e+000 -1.413263e+000 -6.214424e-001 2.487450e-002 1.115796e-001 2.558547e-002 -3.230520e-001 6.475930e-002 3.330130e-001 1.588231e-001 -9.898910e-002 -3.842666e-001 -4.570121e-001 1.047577e-001 8.789238e-002 6.274886e-003 2.759802e-001 1.828370e-001 -2.222706e-001
<VARIANCE> 39
 3.874429e+000 3.820453e+000 1.143785e+001 2.009804e+001 3.110408e+001 4.059305e+001 2.306413e+001 5.328234e+001 1.479888e+001 4.617764e+001 3.534357e+001 2.314488e+001 2.216528e+000 2.215443e-001 2.829118e-001 8.510214e-001 8.436251e-001 6.649325e-001 1.696947e+000 1.569823e+000 1.726815e+000 1.198154e+000 1.327063e+000 1.261791e+000 1.734392e+000 9.703728e-002 3.665057e-002 4.930132e-002 1.574090e-001 1.559685e-001 2.372426e-001 3.873136e-001 1.839000e-001 4.657674e-001 2.794885e-001 4.334573e-001 2.650219e-001 2.810020e-001 3.566174e-002
<GCONST> 8.211586e+001
<MIXTURE> 3 3.156734e-001
<MEAN> 39
 -1.081133e+001 -2.193220e+001 -6.892052e+000 -5.476815e+000 -3.882673e+000 -9.005041e+000 -3.902462e+000 -3.539536e-001 -1.565244e+000 -1.643406e+001 -5.046659e+000 -3.916435e-001 7.585809e+001 -4.707619e-001 -7.145028e-002 3.013860e-001 2.793453e-001 5.029972e-001 2.879188e-001 -3.390474e-001 1.014794e-001 6.929357e-001 3.849799e-002 -2.967182e-001 -4.575039e-001 -3.310691e-001 -4.589742e-002 1.090903e-001 3.305736e-002 -1.832039e-001 -1.444693e-001 1.202752e-001 1.813271e-001 1.448525e-001 -2.662228e-002 -1.627385e-003 -9.217270e-002 -7.978025e-002 -8.766010e-002
<VARIANCE> 39
 3.882107e+000 1.341626e+001 6.240490e+000 7.131959e+000 2.228767e+001 1.594755e+001 3.223936e+001 7.628564e+001 2.107391e+001 4.657675e+001 1.522919e+001 8.247137e+001 4.038239e+000 1.026692e-001 4.138961e-001 4.233224e-001 8.283498e-001 1.240643e+000 1.167735e+000 1.573018e+000 1.766897e+000 1.456970e+000 1.481195e+000 1.206585e+000 1.282825e+000 1.339416e-001 2.238389e-002 5.635527e-002 6.517933e-002 8.399766e-002 2.258408e-001 1.915245e-001 2.723445e-001 3.595198e-001 3.329825e-001 2.683406e-001 2.119960e-001 2.351906e-001 1.331818e-002
<GCONST> 7.782988e+001
<MIXTURE> 4 3.405711e-001
<MEAN> 39
 -8.402596e+000 -2.162978e+001 -1.642025e+001 -8.091707e+000 -1.488921e-001 -6.928368e+000 -8.636205e+000 -3.799490e+000 6.773542e+000 -6.506354e+000 -3.806597e+000 2.320231e+000 7.803039e+001 -4.167446e-002 3.108278e-001 9.209406e-002 1.164797e-001 -7.146013e-002 2.877243e-001 -4.587879e-001 3.775501e-001 1.267370e-001 -6.570779e-001 1.152784e-001 -2.253147e-002 -2.288773e-001 -4.204060e-002 2.276313e-001 3.448013e-002 -3.769169e-001 -4.543628e-001 7.217401e-002 4.722035e-001 1.434681e-001 -2.184382e-001 -2.870461e-001 -6.368123e-002 -4.251613e-002 -6.140909e-002
<VARIANCE> 39
 2.637983e+000 1.351476e+001 1.380759e+001 7.256665e+001 2.031421e+001 2.540063e+001 3.884569e+001 2.421490e+001 3.054829e+001 7.098459e+001 5.815047e+001 2.298866e+001 4.383306e+000 1.263095e-001 6.010776e-001 5.757219e-001 9.657661e-001 1.137944e+000 7.603853e-001 2.431048e+000 1.072019e+000 1.557449e+000 1.093852e+000 1.183415e+000 1.199678e+000 6.139866e-002 2.464023e-002 7.450026e-002 8.622795e-002 1.241013e-001 1.931588e-001 1.180950e-001 2.010997e-001 2.165720e-001 2.576441e-001 2.232118e-001 2.077661e-001 1.792556e-001 1.011439e-002
<GCONST> 7.886005e+001
<STATE> 5
<NUMMIXES> 4
<MIXTURE> 1 4.237540e-002
<MEAN> 39
 -1.497408e+001 -2.449528e+001 -8.779971e+000 -1.316981e+001 -2.223510e+000 -6.491668e+000 -6.016670e+000 5.281829e+000 -3.436965e+000 6.564487e+000 1.503206e+000 7.864925e+000 8.271254e+001 -7.446910e-003 2.403750e-001 -2.679572e-001 -1.313899e+000 -7.697873e-001 -6.263604e-001 1.060286e+000 6.911443e-001 -3.905105e-001 2.215682e-002 -2.462812e-001 4.577878e-001 -8.952672e-001 -7.584957e-002 2.756321e-001 4.448192e-003 -1.808094e-001 -4.604245e-001 1.034830e-001 3.163840e-001 4.511989e-002 3.058943e-001 -3.878238e-001 1.783397e-002 -3.361703e-001 -1.938318e-001
<VARIANCE> 39
 2.219523e+000 1.243769e+001 5.106966e+000 1.673877e+001 5.783323e+000 6.197937e+000 2.829370e+001 1.322360e+001 1.424761e+001 1.335652e+001 1.462312e+001 2.551725e+001 5.544061e+000 3.625655e-001 1.148157e+000 5.189512e-001 7.936222e-001 2.771176e+000 1.340053e+000 2.627073e+000 1.103726e+000 2.876612e+000 4.132696e+000 7.756769e-001 4.801157e+000 6.033244e-001 6.638911e-002 1.346126e-001 1.006917e-001 5.763025e-002 1.533205e-001 1.585530e-001 3.011127e-001 2.450094e-001 6.249514e-001 4.050849e-001 1.747813e-001 6.542219e-001 3.558160e-002
<GCONST> 8.266003e+001
<MIXTURE> 2 5.227936e-001
<MEAN> 39
 -6.081100e+000 -1.363240e+001 -1.131637e+001 -2.348098e+001 -1.013298e+001 9.743691e-001 1.061212e+000 4.237093e+000 1.176585e+001 -1.001059e+001 -9.472014e+000 -9.605164e+000 7.479617e+001 -1.299756e-001 1.788673e-001 3.636614e-001 -7.105463e-003 -9.177626e-002 -2.365554e-001 -3.332027e-001 1.213023e-001 1.692414e-001 -1.144752e-001 1.513843e-001 -2.605220e-001 -1.569250e-001 -2.761124e-002 4.686901e-002 7.603557e-003 -2.205230e-002 -1.079287e-001 -1.480460e-001 -8.059339e-002 5.603259e-002 1.570864e-001 1.075572e-001 2.425399e-002 7.705082e-002 -2.872203e-002
<VARIANCE> 39
 3.947007e+000 4.973090e+000 1.829436e+001 1.459522e+001 1.918846e+001 2.520530e+001 3.267015e+001 5.450698e+001 2.189008e+001 3.591627e+001 2.669936e+001 1.234851e+001 2.021211e+000 9.187861e-002 1.726417e-001 3.904161e-001 4.359619e-001 6.472893e-001 1.103225e+000 7.319638e-001 1.051399e+000 1.023790e+000 1.346989e+000 1.062740e+000 9.816294e-001 3.148855e-002 2.065276e-002 2.772639e-002 7.787281e-002 8.249716e-002 1.009102e-001 2.353969e-001 1.231600e-001 2.253377e-001 1.287262e-001 1.843746e-001 1.494231e-001 1.583990e-001 4.692313e-003
<GCONST> 6.478544e+001
<MIXTURE> 3 2.405963e-001
<MEAN> 39
 -1.410176e+001 -1.567859e+001 -1.095414e+000 -6.754409e+000 -4.690375e+000 -2.858063e+000 -5.769549e+000 -4.786096e+000 7.261412e-001 -1.548480e+001 -8.655721e+000 -1.115705e+001 7.064973e+001 -4.037757e-001 4.305488e-001 2.374995e-001 -3.037027e-001 -2.999847e-001 3.772727e-001 1.875791e-001 5.437998e-001 1.098270e-001 1.512758e-001 3.383719e-002 7.400768e-002 -4.108348e-001 -2.854928e-002 -4.105654e-002 -1.558048e-001 -9.225940e-002 -1.325945e-001 -1.368444e-001 -5.465585e-002 2.598964e-003 -4.479290e-003 7.577480e-002 1.236342e-001 1.817181e-001 4.049610e-002
<VARIANCE> 39
 3.291580e+000 1.045563e+001 1.296698e+001 9.590632e+000 2.582040e+001 1.488036e+001 1.222604e+001 2.036844e+001 1.903550e+001 3.944623e+001 2.588566e+001 3.093669e+001 3.565744e+000 2.263205e-001 3.438689e-001 7.844911e-001 6.262115e-001 8.625323e-001 8.453678e-001 1.370642e+000 1.370036e+000 1.247199e+000 1.806953e+000 1.635096e+000 1.959219e+000 8.122640e-002 3.300930e-002 5.131256e-002 9.722896e-002 1.175134e-001 1.257282e-001 1.076642e-001 2.176488e-001 2.362279e-001 2.261675e-001 2.436006e-001 3.452380e-001 2.511082e-001 6.894801e-003
<GCONST> 7.415840e+001
<MIXTURE> 4 1.942348e-001
<MEAN> 39
 -9.426085e+000 -1.856769e+001 -1.451552e+001 -1.372167e+001 -6.072057e+000 -2.121766e+000 -5.685458e+000 -1.460250e+000 4.199349e+000 -1.178030e+001 -1.651025e+000 -2.352390e-001 7.581915e+001 -4.436040e-001 1.015926e+000 3.812849e-001 -1.431398e+000 -2.095901e+000 8.049320e-002 1.198086e+000 6.559988e-001 -3.020336e-001 -1.110341e+000 -5.027629e-001 -3.569275e-001 -5.630972e-001 -9.888496e-002 1.071563e-001 1.770051e-001 -2.031352e-002 -1.948987e-001 -2.494363e-001 -8.461533e-002 2.816177e-001 3.585814e-001 2.252835e-001 -1.204962e-001 -1.001587e-001 -8.137251e-002
<VARIANCE> 39
 4.377327e+000 1.141226e+001 1.708920e+001 5.174959e+001 2.308062e+001 2.672890e+001 4.898866e+001 2.218246e+001 2.553126e+001 5.829853e+001 4.542632e+001 2.915757e+001 6.749548e+000 2.219161e-001 5.879843e-001 4.208116e-001 1.126281e+000 7.183138e-001 1.481294e+000 1.406628e+000 1.757558e+000 1.762558e+000 1.689595e+000 1.052201e+000 1.318620e+000 6.155537e-002 2.550870e-002 8.520785e-002 1.075120e-001 2.466896e-001 2.464223e-001 3.030513e-001 4.553420e-001 2.227444e-001 2.394041e-001 2.872759e-001 2.253261e-001 2.924199e-001 7.789154e-003
<GCONST> 8.411163e+001
<STATE> 6
<NUMMIXES> 4
<MIXTURE> 1 2.479496e-001
<MEAN> 39
 -6.922218e+000 -1.309212e+001 -1.848286e+001 -2.204800e+001 -3.106965e+000 5.372445e+000 4.030988e+000 -2.222463e-001 1.243802e+001 2.746400e+000 -1.227175e+001 -8.677925e+000 7.735253e+001 -1.106733e-001 4.199476e-001 4.663320e-001 2.081107e-001 -7.899241e-001 -7.215886e-001 -3.212972e-001 1.199039e+000 5.070853e-001 -3.011148e-001 4.047440e-003 4.149351e-001 -3.823744e-001 -2.943025e-002 7.011338e-002 2.784855e-001 1.472231e-001 -2.323487e-001 -1.878428e-001 -3.454765e-001 1.435824e-001 4.522814e-002 -5.598512e-002 5.360010e-002 3.140121e-002 -7.372734e-002
<VARIANCE> 39
 2.970364e+000 9.127373e+000 8.785302e+000 3.177258e+001 1.522226e+001 2.398296e+001 2.495491e+001 5.243977e+001 1.432227e+001 3.924758e+001 5.458126e+001 4.988282e+001 9.767446e+000 2.103677e-001 2.818562e-001 8.886003e-001 3.996929e-001 1.309383e+000 1.246108e+000 1.869771e+000 1.215847e+000 8.259186e-001 1.106460e+000 1.410712e+000 1.764572e+000 8.309217e-002 4.002234e-002 4.231621e-002 7.851467e-002 5.457254e-002 1.508144e-001 1.861620e-001 1.817356e-001 3.350852e-001 1.859606e-001 2.360788e-001 2.952503e-001 2.527613e-001 1.846616e-002
<GCONST> 7.807244e+001
<MIXTURE> 2 1.443193e-001
<MEAN> 39
 -1.242173e+001 -1.378731e+001 -1.208254e+001 -1.653539e+001 -1.530673e+001 -7.870399e+000 -1.218516e+000 5.015311e+000 5.379152e+000 -1.167587e+001 -2.835236e+000 5.837800e-002 7.355627e+001 -9.469451e-001 1.036781e+000 1.419097e+000 -1.511560e-001 -9.674686e-001 -3.947915e-001 -9.193813e-001 2.974269e-001 9.052821e-001 1.121800e-001 -2.783204e-001 -5.919188e-001 -9.914021e-001 -2.601859e-001 -3.716374e-001 1.305815e-001 7.227587e-001 1.031170e+000 5.062074e-001 -5.460041e-001 -7.065457e-001 -3.817105e-001 9.207859e-002 -1.719808e-001 3.686037e-002 -8.464105e-002
<VARIANCE> 39
 1.087517e+001 2.624915e+001 1.536228e+001 3.411234e+001 1.796017e+001 2.516499e+001 4.784038e+001 3.666825e+001 3.001322e+001 5.657761e+001 2.526158e+001 1.213215e+001 5.082122e+000 5.790603e-001 9.818916e-001 8.151969e-001 1.852535e+000 3.117399e+000 2.590014e+000 2.941153e+000 2.777546e+000 2.314224e+000 3.384391e+000 1.560005e+000 1.185539e+000 1.939399e-001 9.189345e-002 1.709538e-001 1.737342e-001 1.622709e-001 2.639205e-001 3.445822e-001 6.047374e-001 2.781723e-001 3.821220e-001 4.997796e-001 2.794715e-001 2.065836e-001 2.200669e-002
<GCONST> 9.680786e+001
<MIXTURE> 3 1.235786e-001
<MEAN> 39
 -7.602841e+000 -1.173188e+001 -9.657391e+000 -2.459853e+001 -1.318229e+001 -9.833806e-001 1.388234e-001 6.275333e+000 1.401214e+001 -9.513465e+000 -7.552948e+000 -1.001696e+001 7.335520e+001 -7.227206e-001 -3.843936e-002 9.480543e-001 1.141305e+000 -1.399293e-001 -1.216234e+000 -1.743705e+000 -3.805589e-001 3.765587e-001 2.132827e-001 4.114158e-001 1.034435e+000 -5.339537e-001 -2.954397e-001 -2.571007e-001 2.055519e-001 5.873766e-001 4.563896e-001 2.898459e-001 -1.988853e-001 -4.841225e-001 -3.935854e-001 -8.275850e-002 -4.532691e-002 2.366831e-001 -1.185464e-001
<VARIANCE> 39
 4.349622e+000 6.112090e+000 1.722916e+001 9.844964e+000 9.677302e+000 1.900274e+001 5.246112e+001 1.094396e+001 2.619326e+001 2.799512e+001 1.226888e+001 1.369185e+001 1.441365e+000 2.549480e-001 6.753515e-001 6.077799e-001 1.391572e+000 1.473287e+000 6.471813e-001 8.226940e-001 1.538168e+000 1.149402e+000 3.523735e+000 1.202763e+000 1.138796e+000 6.418469e-002 3.035478e-002 3.770376e-002 5.402886e-002 1.315830e-001 1.389664e-001 1.540065e-001 1.488191e-001 9.258845e-002 2.127455e-001 3.972704e-001 2.696199e-001 3.928819e-001 1.118015e-002
<GCONST> 7.191633e+001
<MIXTURE> 4 4.841525e-001
<MEAN> 39
 -1.702630e+001 -1.855675e+001 -5.751979e+000 -1.573569e+001 -8.420223e+000 2.060488e-001 -3.126225e+000 2.607517e+000 7.166879e+000 -1.403749e+001 -5.245272e+000 -4.168528e+000 6.922000e+001 -3.914651e-001 3.507192e-002 -1.014063e-001 3.154401e-002 -3.066959e-001 -1.343814e-001 -1.889668e-001 1.168735e-001 2.506682e-001 3.305134e-001 -1.791947e-001 5.126274e-002 -1.174742e-001 6.929426e-002 4.872029e-002 -8.749881e-002 -3.042099e-002 -4.508738e-002 1.394592e-002 4.842625e-002 6.434686e-002 2.377316e-003 8.263648e-002 -6.548547e-003 9.408678e-003 8.654363e-002
<VARIANCE> 39
 3.756400e+000 6.965539e+000 8.037241e+000 1.566779e+001 8.029742e+000 1.628197e+001 1.829716e+001 9.912934e+000 1.874011e+001 2.253526e+001 2.115595e+001 1.644763e+001 9.511335e-001 2.777654e-001 3.481018e-001 6.041360e-001 9.170259e-001 7.888796e-001 1.265522e+000 1.199973e+000 1.115562e+000 1.059557e+000 1.155764e+000 1.279051e+000 1.304039e+000 1.098031e-001 3.344698e-002 4.202980e-002 7.408462e-002 1.530105e-001 1.320910e-001 2.390569e-001 2.374499e-001 2.334046e-001 1.800648e-001 1.942184e-001 2.733311e-001 2.460354e-001 1.015885e-002
<GCONST> 6.953014e+001
<STATE> 7
<NUMMIXES> 4
<MIXTURE> 1 2.898159e-001
<MEAN> 39
 -1.484884e+001 -1.145936e+001 -6.115403e+000 -1.219518e+001 -9.113533e+000 -1.298796e+000 -7.326324e+000 4.596277e-001 5.489038e+000 -1.052219e+001 -6.109291e+000 -2.824381e+000 6.997801e+001 -1.912133e+000 -7.754507e-001 3.971821e-001 1.225805e+000 1.642570e+000 1.666126e+000 4.939407e-001 -3.462447e-001 -1.199290e+000 -1.427088e+000 -2.746035e-001 6.067623e-001 -9.529279e-001 1.596614e-001 -8.792417e-002 -7.220136e-001 -4.774987e-001 -3.665912e-001 -2.288072e-001 3.836265e-001 4.080293e-001 3.128434e-001 4.417608e-001 -1.499605e-001 -1.426389e-001 3.280899e-001
<VARIANCE> 39
 7.581842e+000 1.078095e+001 1.712873e+001 1.875010e+001 2.076928e+001 2.401995e+001 2.900765e+001 2.321740e+001 2.750269e+001 2.981294e+001 2.133233e+001 1.467520e+001 4.152929e+000 3.762071e-001 7.636525e-001 9.209705e-001 8.149414e-001 1.574789e+000 1.216216e+000 2.800715e+000 2.165135e+000 1.706416e+000 3.325097e+000 2.176062e+000 1.681593e+000 1.672383e-001 7.928019e-002 1.343667e-001 1.449614e-001 1.469411e-001 4.816464e-001 5.189970e-001 5.543088e-001 3.375436e-001 3.936828e-001 7.294993e-001 3.892919e-001 3.955815e-001 4.149750e-002
<GCONST> 9.286576e+001
<MIXTURE> 2 3.753786e-001
<MEAN> 39
 -2.057225e+001 -1.302460e+001 -8.523376e+000 -1.264485e+001 -9.840114e+000 -4.138718e+000 -5.848591e+000 1.526739e+000 3.957093e+000 -1.077561e+001 -6.184535e+000 -2.400871e+000 6.886552e+001 -1.032032e+000 9.752765e-001 -7.363728e-001 2.557128e-001 -2.029878e-001 -5.380596e-001 2.043404e-001 4.121140e-001 -1.615467e-001 1.361735e+000 -3.640999e-001 4.392514e-001 5.180900e-001 1.116318e-001 4.819663e-001 -1.158537e-001 1.396241e-001 -6.003058e-002 -2.068915e-001 1.193784e-001 1.116326e-001 -1.274356e-001 3.230703e-001 -9.540179e-002 6.871394e-002 3.455361e-001
<VARIANCE> 39
 4.751581e+000 1.364009e+001 1.316029e+001 1.407765e+001 1.545259e+001 1.585260e+001 1.691639e+001 1.294158e+001 2.483488e+001 2.014683e+001 2.299760e+001 2.157662e+001 1.439751e+000 3.233585e-001 1.327984e+000 6.426660e-001 1.026641e+000 1.210816e+000 1.687576e+000 1.476240e+000 1.261395e+000 2.543771e+000 2.293327e+000 2.084661e+000 1.275951e+000 3.254819e-001 8.771781e-002 1.421435e-001 1.426611e-001 1.761508e-001 3.233292e-001 3.413832e-001 2.070964e-001 2.201281e-001 4.571207e-001 4.642012e-001 4.342175e-001 2.140374e-001 2.791362e-002
<GCONST> 8.557683e+001
<MIXTURE> 3 2.590109e-001
<MEAN> 39
 -8.193649e+000 -9.876109e+000 -7.435924e+000 -1.759335e+001 -1.252779e+001 -3.664651e+000 -6.945750e+000 6.515037e+000 1.664063e+001 -2.053086e+000 -6.834601e+000 -6.230662e+000 7.354456e+001 -1.413677e+000 1.051809e-001 1.961866e+000 1.833969e+000 7.307291e-001 5.220395e-001 -9.532067e-001 -9.162568e-001 -1.456255e+000 -1.106617e+000 1.034436e+000 1.734838e+000 -1.122749e+000 -4.089222e-001 -4.249089e-001 -1.529035e-001 2.017743e-001 6.942792e-001 8.437653e-001 6.981996e-001 -1.440374e-001 -7.015829e-001 -7.327996e-001 -1.670553e-001 1.847477e-002 -1.367262e-001
<VARIANCE> 39
 4.807393e+000 7.638834e+000 1.909821e+001 1.526974e+001 1.743407e+001 1.920722e+001 2.965932e+001 4.291973e+001 2.101294e+001 3.783571e+001 3.898228e+001 3.594151e+001 8.094666e+000 4.583747e-001 7.397884e-001 8.270795e-001 6.132789e-001 2.254502e+000 2.435386e+000 1.747298e+000 1.978384e+000 1.609267e+000 2.433439e+000 1.734141e+000 1.215258e+000 2.569190e-001 4.891728e-002 5.845556e-002 2.182933e-001 1.798806e-001 2.120992e-001 2.229852e-001 2.199123e-001 4.585020e-001 1.374495e-001 2.580422e-001 2.957622e-001 3.181877e-001 2.857361e-002
<GCONST> 8.817030e+001
<MIXTURE> 4 7.579463e-002
<MEAN> 39
 -1.127786e+001 -9.777323e+000 -9.428451e+000 -2.079958e+001 -1.174181e+001 2.890109e+000 2.122642e+000 1.255913e+001 1.804036e+001 -1.140927e+000 -8.638261e+000 -1.113748e-001 7.093816e+001 -2.793848e-001 3.298762e-001 1.090321e+000 1.740011e+000 -7.516453e-001 -3.114775e-001 -1.542972e+000 2.189641e+000 1.279348e+000 -6.445693e-002 8.816058e-001 1.186922e-001 -3.709044e-001 7.191545e-002 6.871347e-003 1.393540e-002 2.767144e-002 2.858452e-001 -5.932423e-002 1.350433e-001 -3.222962e-001 -3.213700e-001 7.735798e-002 3.762839e-001 2.690432e-001 6.494769e-002
<VARIANCE> 39
 4.074275e+000 1.212276e+001 5.199543e+000 1.175087e+001 2.040025e+000 1.066426e+001 2.395400e+001 2.489242e+001 1.231560e+001 3.324709e+001 9.889862e+000 2.558554e+001 9.876828e-001 2.952831e-002 5.391835e-002 1.205617e+000 3.111751e-001 7.051563e-001 7.259434e-001 1.694188e+000 1.108285e+000 2.561562e-001 5.203105e-001 9.195865e-001 1.229565e+000 7.789433e-002 8.846968e-002 5.895255e-002 2.312705e-002 4.252553e-002 1.042660e-001 9.856901e-002 2.344512e-001 4.666441e-001 1.902794e-001 1.094457e-001 2.193926e-001 1.559064e-001 1.888696e-002
<GCONST> 5.860114e+001
<STATE> 8
<NUMMIXES> 4
<MIXTURE> 1 1.457237e-001
<MEAN> 39
 -1.438203e+001 -1.371740e+001 -2.249785e+000 -1.107109e+001 -6.793728e+000 3.322960e+000 1.402785e-001 1.136590e+001 1.550217e+001 -1.008437e+001 -5.842931e+000 -1.109019e+000 7.015340e+001 -8.882136e-001 -8.103361e-001 -6.112620e-001 3.993484e-001 3.229356e-002 4.553711e-001 -1.424151e-001 -8.774925e-001 -9.369539e-001 -5.543925e-001 1.731355e-001 -5.119500e-001 -3.898713e-001 1.686655e-001 4.745210e-002 -3.653835e-001 -4.987207e-001 -6.252007e-001 -5.546850e-001 -6.517902e-001 -3.778669e-001 -2.798082e-002 3.393244e-001 2.772833e-001 -2.980614e-001 1.607380e-001
<VARIANCE> 39
 1.691311e+000 6.337884e+000 2.820042e+000 7.682487e+000 2.756244e+000 6.687155e+000 6.976771e+000 4.458030e+000 1.446541e+001 2.019709e+001 9.066820e+000 1.337239e+001 2.287336e+000 1.511903e-001 1.788017e-001 3.700344e-001 1.958547e+000 1.023259e+000 1.366339e+000 2.158310e+000 1.132693e+000 1.962116e+000 1.901372e+000 1.849251e+000 1.304325e+000 9.351003e-002 1.446243e-002 2.571061e-002 8.857562e-002 1.828883e-001 1.035709e-001 6.461038e-002 1.807698e-001 1.349656e-001 3.886175e-001 1.630054e-001 3.188588e-001 1.787974e-001 1.093851e-002
<GCONST> 6.102349e+001
<MIXTURE> 2 1.137691e-001
<MEAN> 39
 -1.540791e+001 -6.254493e+000 -8.443325e+000 -1.235992e+001 -1.817916e+001 -1.387940e+001 -7.378858e+000 2.596823e+000 2.543535e+000 -7.704710e+000 -9.084433e+000 -2.892787e+000 7.624105e+001 3.946858e+000 -1.938585e+000 5.499160e-001 -2.122084e+000 -6.365935e-001 -2.601308e+000 -1.085677e+000 2.863071e+000 7.304735e-001 -1.207629e+000 1.024506e-004 -2.179880e+000 1.267781e+000 -8.618224e-002 -9.363459e-001 -4.356355e-001 7.662486e-002 1.377861e+000 1.120504e+000 2.070627e-001 2.609808e-001 1.691382e-001 -2.145596e-001 8.076788e-002 8.507482e-002 -1.017921e-001
<VARIANCE> 39
 1.550112e+001 1.390801e+001 2.943949e+001 1.409259e+001 1.731362e+001 3.192021e+001 1.785272e+001 6.825355e+001 1.939235e+001 3.770203e+001 4.652431e+001 2.388038e+001 2.147328e+000 7.160088e-001 1.769920e+000 1.174374e+000 1.370256e+000 1.722862e+000 2.383744e+000 2.977484e+000 6.724154e+000 6.640118e+000 2.580905e+000 2.723001e+000 1.964090e+000 2.616367e-001 4.456435e-001 2.104385e-001 1.690239e-001 2.955629e-001 5.255098e-001 5.045486e-001 2.491680e-001 7.069017e-001 7.456040e-001 4.502120e-001 5.339218e-001 5.678802e-001 9.441239e-003
<GCONST> 1.037949e+002
<MIXTURE> 3 4.427852e-001
<MEAN> 39
 -1.649843e+001 -1.550687e+001 -6.833298e+000 -1.473625e+001 -1.124987e+001 4.403879e-001 -5.496287e+000 3.035696e+000 9.886272e+000 -1.065211e+001 -5.684844e+000 -2.726572e+000 6.944466e+001 -1.322922e-001 2.147817e-001 -6.567912e-001 1.154210e-001 -7.832909e-001 -3.250546e-001 -4.516548e-001 -1.721771e-001 -3.521658e-001 6.158154e-001 1.738350e-001 2.117290e-001 2.855749e-001 6.352495e-001 4.920942e-001 5.126494e-003 -3.065552e-001 -2.658345e-001 -3.975575e-001 -1.459413e-001 1.389021e-001 3.630589e-001 5.075364e-001 1.802446e-001 -6.272713e-002 3.209424e-001
<VARIANCE> 39
 2.994228e+000 4.387756e+000 6.629577e+000 1.275323e+001 7.280078e+000 1.366824e+001 2.780316e+001 2.201731e+001 2.034360e+001 2.507265e+001 1.635213e+001 1.255132e+001 4.567680e+000 4.923098e-001 9.010099e-001 4.754801e-001 5.805035e-001 1.205122e+000 1.366533e+000 2.659309e+000 2.023316e+000 1.237596e+000 1.795963e+000 1.281868e+000 1.349924e+000 1.672352e-001 1.047858e-001 6.869454e-002 1.215127e-001 1.426211e-001 1.615196e-001 2.532719e-001 4.116567e-001 4.626915e-001 2.927436e-001 5.001234e-001 2.287228e-001 2.882400e-001 2.649142e-002
<GCONST> 8.030976e+001
<MIXTURE> 4 2.977220e-001
<MEAN> 39
 -2.471516e+001 -5.139289e+000 -1.146092e+001 -8.606380e+000 -8.375480e+000 -4.479932e+000 -3.429388e+000 3.344811e+000 9.760063e-001 -3.583011e+000 -8.798098e+000 1.067311e+000 7.293613e+001 2.313405e-001 1.647944e+000 -5.866093e-001 -3.055488e-001 -8.628529e-001 -1.741043e+000 -5.474433e-001 2.910052e-001 -8.759069e-001 1.037642e+000 -9.283950e-001 -8.376876e-002 1.309330e+000 1.362313e+000 -6.698026e-001 4.141718e-001 -7.706825e-001 -5.024698e-001 -7.354641e-001 -7.325980e-001 1.117255e-001 5.947813e-001 -6.555124e-001 6.047060e-002 -7.529113e-001 8.317766e-002
<VARIANCE> 39
 1.721048e+001 2.342884e+001 2.572412e+001 1.495171e+001 2.982679e+001 4.427482e+001 2.575377e+001 3.345608e+001 3.924931e+001 3.080324e+001 2.328212e+001 2.222194e+001 2.087594e+000 3.337286e+000 1.080716e+000 1.323871e+000 2.140440e+000 3.110428e+000 2.622627e+000 3.196372e+000 2.390256e+000 2.434217e+000 4.960890e+000 1.835492e+000 2.607844e+000 1.764079e-001 2.239255e-001 4.368366e-001 1.966858e-001 2.284745e-001 4.831073e-001 4.317530e-001 5.940070e-001 7.275766e-001 8.262708e-001 8.475435e-001 3.785814e-001 3.108342e-001 7.794732e-002
<GCONST> 1.075535e+002
<STATE> 9
<NUMMIXES> 4
<MIXTURE> 1 2.301451e-001
<MEAN> 39
 -8.966660e+000 -1.212254e+001 -9.239381e+000 -2.171813e+001 -1.667578e+001 -5.756866e+000 -3.635771e+000 9.190784e+000 1.640005e+001 -5.649085e+000 -6.032432e+000 -6.437747e+000 7.458298e+001 2.492133e+000 1.850069e-001 -9.556310e-001 -2.237852e+000 2.767456e-001 7.388369e-001 1.715638e+000 1.621861e+000 1.625125e+000 2.383565e-002 -3.870865e-001 -1.554939e+000 1.179010e+000 -3.446214e-001 -4.351307e-001 -2.661981e-001 2.296139e-001 8.930131e-001 1.092186e+000 4.021861e-001 -3.791004e-001 -7.005954e-001 -5.972819e-001 -2.231252e-001 1.054314e-001 -8.033679e-002
<VARIANCE> 39
 3.819790e+000 8.146324e+000 1.939447e+001 2.394228e+001 9.223189e+000 2.318394e+001 2.410395e+001 1.873115e+001 3.447505e+001 2.387845e+001 1.574541e+001 1.794736e+001 1.504897e+000 5.518038e-001 8.417059e-001 8.833876e-001 7.690850e-001 1.299853e+000 2.995369e+000 2.084803e+000 1.886891e+000 3.279624e+000 2.417491e+000 1.584653e+000 2.740670e+000 1.570277e-001 6.154339e-002 1.530966e-001 2.157069e-001 1.557558e-001 1.680243e-001 2.906494e-001 2.506018e-001 3.830656e-001 3.465398e-001 2.090792e-001 3.804683e-001 4.372708e-001 1.779454e-002
<GCONST> 8.689452e+001
<MIXTURE> 2 2.952156e-001
<MEAN> 39
 -9.547914e+000 -1.135031e+001 -1.154754e+001 -1.782539e+001 -1.084396e+001 -1.081966e+001 -4.079040e+000 8.510412e+000 4.839805e+000 -1.291510e+001 -1.025954e+001 -4.820764e+000 7.795527e+001 1.338298e+000 -2.096622e+000 -1.925125e+000 -3.485042e-001 3.313771e+000 2.272871e+000 5.154067e-001 1.853829e-001 4.251591e-001 -1.130010e+000 -1.024872e+000 -2.695247e-002 8.545426e-001 -8.251528e-001 1.545492e-001 -3.743450e-001 5.045398e-001 8.203697e-001 9.709213e-001 -2.978358e-001 -9.625559e-001 -2.250021e-001 6.966061e-001 -1.625554e-001 1.900434e-001 -1.981709e-001
<VARIANCE> 39
 6.639639e+000 1.731315e+001 2.772763e+001 2.488846e+001 3.147943e+001 6.057181e+001 3.771977e+001 8.464452e+001 4.997325e+001 5.808917e+001 3.179033e+001 2.903573e+001 4.325272e+000 1.148424e+000 4.865317e-001 5.938683e-001 1.568170e+000 2.270274e+000 1.923345e+000 2.335237e+000 3.092321e+000 4.255473e+000 3.052600e+000 1.580391e+000 2.042996e+000 1.100895e-001 1.136385e-001 1.738017e-001 2.044788e-001 2.442041e-001 5.405086e-001 7.045826e-001 6.437016e-001 8.365117e-001 5.325561e-001 4.230506e-001 4.794716e-001 4.022234e-001 1.932364e-002
<GCONST> 1.035850e+002
<MIXTURE> 3 3.478810e-001
<MEAN> 39
 -1.575655e+001 -1.351831e+001 -8.633122e+000 -1.509046e+001 -1.373676e+001 -1.685708e+000 -6.924976e+000 2.909168e+000 1.036542e+001 -7.509585e+000 -4.672645e+000 -2.731889e+000 7.095938e+001 2.261603e+000 1.166354e+000 -4.004442e-001 -1.656347e+000 -1.315368e+000 -1.345743e+000 -6.065322e-001 3.392730e-001 1.626975e+000 1.771262e+000 7.649257e-001 -4.419340e-001 1.098964e+000 6.610755e-001 -5.923804e-002 -1.530045e-001 -7.239876e-001 3.860531e-002 1.663152e-001 4.436360e-001 2.508760e-001 4.875593e-001 3.792042e-002 -5.242298e-002 -4.421729e-001 2.048384e-001
<VARIANCE> 39
 1.009033e+001 9.509464e+000 1.127472e+001 2.270220e+001 1.082277e+001 1.031219e+001 4.261180e+001 2.394103e+001 3.077696e+001 2.170282e+001 2.143211e+001 1.086302e+001 3.274365e+000 8.126284e-001 6.083135e-001 7.485585e-001 9.396073e-001 5.859745e-001 1.352899e+000 1.490450e+000 3.016113e+000 1.673636e+000 3.154140e+000 1.626875e+000 1.415970e+000 2.222067e-001 1.205594e-001 1.483105e-001 1.147125e-001 1.872876e-001 2.278000e-001 3.168006e-001 4.289615e-001 3.669030e-001 4.852412e-001 4.088667e-001 4.080154e-001 2.815167e-001 2.389471e-002
<GCONST> 8.791990e+001
<MIXTURE> 4 1.267583e-001
<MEAN> 39
 -1.916596e+001 -3.013910e+000 -8.611141e+000 -1.343681e+001 -1.061195e+001 -1.061633e+001 -9.862138e+000 4.506259e+000 -2.811004e+000 -2.600959e+000 -1.224682e+001 -3.949840e+000 7.485786e+001 3.800112e+000 -6.970455e-001 3.030051e-001 -2.015239e+000 -2.061549e+000 -2.373785e+000 -2.028714e+000 -7.237792e-001 2.144195e+000 -1.094310e+000 1.737555e-001 -1.163935e+000 1.054129e+000 5.938660e-001 -9.588363e-001 -2.891349e-001 -2.127114e-001 5.454996e-001 7.799344e-001 7.467874e-001 8.873241e-002 8.751877e-001 -6.047517e-001 2.486854e-001 8.010650e-003 1.038862e-002
<VARIANCE> 39
 2.308250e+001 3.554721e+001 1.617908e+001 1.495343e+001 2.073479e+001 6.530424e+001 2.233880e+001 4.685059e+001 3.515307e+001 6.613680e+001 1.700844e+001 1.825390e+001 2.773918e+000 1.524992e+000 1.434151e+000 1.059581e+000 1.203347e+000 1.610732e+000 2.096158e+000 7.483201e+000 1.835280e+000 1.797432e+000 8.335127e+000 1.328172e+000 8.940534e-001 3.883004e-001 5.511967e-001 1.292726e-001 3.450140e-001 2.609800e-001 4.269052e-001 5.144961e-001 6.448466e-001 4.194811e-001 2.380467e-001 6.703340e-001 2.616965e-001 3.217946e-001 1.775253e-002
<GCONST> 1.031315e+002
<STATE> 10
<NUMMIXES> 4
<MIXTURE> 1 3.101979e-001
<MEAN> 39
 -9.400898e+000 -1.643481e+001 -1.981935e+001 -1.890089e+001 2.790011e+000 -1.948441e+000 -1.212339e+001 5.914290e+000 3.207846e+000 -5.685955e-001 -7.788004e+000 -6.003228e+000 8.118944e+001 4.107678e-001 -1.206809e-001 -7.095494e-001 -9.035556e-001 1.096799e+000 1.942597e+000 4.813176e-001 -1.836494e+000 -5.494321e-001 1.907098e-001 3.120546e-001 -1.722852e-002 -6.918624e-002 -1.315489e-001 3.779287e-001 2.977019e-001 -2.502144e-004 -4.717282e-001 -4.854099e-002 1.766412e-001 -1.352250e-001 -1.210087e-001 -1.266694e-001 2.138869e-001 3.418987e-001 -2.159594e-001
<VARIANCE> 39
 8.655694e+000 8.621337e+000 1.007912e+001 4.088684e+001 6.503963e+001 5.098176e+001 4.608356e+001 3.960960e+001 7.188921e+001 3.943051e+001 1.914658e+001 3.648096e+001 8.271507e+000 1.859994e-001 9.338624e-001 1.184835e+000 1.684001e+000 3.006719e+000 2.993268e+000 5.703225e+000 2.055515e+000 1.935301e+000 2.472083e+000 1.841154e+000 1.568959e+000 3.241189e-001 1.090240e-001 1.310106e-001 1.376010e-001 3.119592e-001 3.930983e-001 4.363099e-001 2.834539e-001 4.715473e-001 5.460669e-001 4.424090e-001 2.467922e-001 5.063171e-001 4.461964e-002
<GCONST> 1.015545e+002
<MIXTURE> 2 2.685263e-001
<MEAN> 39
 -4.461983e+000 -1.090269e+001 -1.257670e+001 -2.630618e+001 -1.686350e+001 8.950523e-001 -1.944663e+000 7.463666e+000 1.796501e+001 -3.983024e+000 -3.248550e+000 -7.561473e+000 7.556783e+001 6.031390e-001 6.242624e-002 -6.624865e-001 -9.792442e-001 4.267696e-001 2.114013e+000 2.437952e+000 6.634509e-001 -1.288949e+000 -1.085781e+000 -3.421741e-001 2.588875e-001 3.831954e-001 -4.590658e-001 -8.810493e-002 2.621688e-001 4.524969e-001 6.497552e-002 -1.272107e-001 -1.296805e-001 -1.893849e-001 -5.148093e-001 -3.503701e-001 -2.013447e-002 6.830288e-001 -2.384605e-001
<VARIANCE> 39
 2.501520e+000 9.690602e+000 3.534460e+000 8.376357e+000 4.078387e+001 4.218843e+001 6.943614e+001 5.403440e+001 5.083326e+001 5.376745e+001 4.352850e+001 3.260966e+001 1.622321e+000 2.397787e-001 3.975825e-001 6.909679e-001 6.400702e-001 1.447146e+000 1.611050e+000 1.744666e+000 2.019336e+000 2.151881e+000 9.801919e-001 2.992835e+000 1.757056e+000 6.391518e-002 7.012455e-002 9.807601e-002 7.245713e-002 1.356679e-001 2.691419e-001 3.194963e-001 4.593503e-001 2.880695e-001 4.333781e-001 3.486641e-001 5.209298e-001 2.215406e-001 1.141038e-002
<GCONST> 8.558425e+001
<MIXTURE> 3 2.651018e-001
<MEAN> 39
 -7.045047e+000 -1.572123e+001 -1.521182e+001 -1.858236e+001 -2.966517e+000 3.030067e-001 -3.885522e+000 9.564951e-001 7.043451e+000 -1.542073e+001 -1.424297e+001 -4.832545e+000 7.812193e+001 3.389666e-001 -7.399047e-001 -9.659758e-001 -1.457214e-001 1.897935e+000 1.544239e+000 -7.079061e-001 -1.527459e+000 1.837256e-001 7.570361e-001 -6.203575e-002 -6.970467e-001 6.796069e-002 -1.152336e-001 4.023506e-001 4.029843e-001 -2.332789e-001 -6.270405e-001 -3.257248e-001 -2.442537e-003 -4.036092e-002 -1.835027e-001 4.030682e-001 4.653073e-001 -2.489397e-001 -1.787634e-001
<VARIANCE> 39
 3.147453e+000 1.700571e+001 3.368427e+001 2.374320e+001 2.314208e+001 4.658838e+001 2.568020e+001 5.049734e+001 3.797227e+001 3.860528e+001 2.286284e+001 2.113294e+001 2.205192e+000 5.836512e-002 5.247018e-001 5.294025e-001 8.672351e-001 1.380628e+000 1.178412e+000 8.584759e-001 8.205902e-001 1.601251e+000 1.466435e+000 1.259555e+000 8.420182e-001 8.259883e-002 1.498790e-002 7.083969e-002 9.811806e-002 1.901505e-001 1.334184e-001 1.589771e-001 3.053498e-001 2.012457e-001 2.778361e-001 2.577986e-001 1.875345e-001 2.112202e-001 8.819182e-003
<GCONST> 7.697643e+001
<MIXTURE> 4 1.561739e-001
<MEAN> 39
 -6.341684e+000 -8.651201e+000 -1.056592e+001 -1.985403e+001 -1.671109e+001 -7.529242e+000 -1.830418e+001 1.988437e+000 1.618539e+001 6.354927e+000 -2.440101e+000 -5.743307e+000 7.666899e+001 2.567165e+000 -4.903910e-001 -1.702910e+000 -2.772849e+000 -6.041627e-001 1.907584e-001 9.137329e-001 -5.293510e-002 1.430590e+000 1.817045e+000 1.110474e+000 -1.456560e+000 1.478165e+000 -7.463894e-001 -2.896590e-001 -1.920812e-001 1.862301e-001 5.224230e-001 1.102991e+000 1.668378e+000 1.708256e-001 -1.084159e+000 -1.016795e+000 -1.614820e-001 1.783069e-001 -3.274691e-001
<VARIANCE> 39
 8.458188e+000 6.520324e+000 1.523535e+001 2.734236e+001 3.571018e+001 4.400323e+001 4.153341e+001 3.347712e+001 2.531678e+001 2.437944e+001 8.004615e+001 2.885452e+001 1.425920e+001 1.637636e+000 2.688823e+000 5.769765e-001 1.182862e+000 3.806270e+000 4.158649e+000 6.648860e+000 1.645087e+000 3.959749e+000 2.407195e+000 2.852254e+000 2.291883e+000 1.825315e-001 1.224770e-001 2.560447e-001 1.047767e-001 1.910401e-001 2.970777e-001 2.668772e-001 4.740944e-001 7.353051e-001 4.104526e-001 3.802245e-001 7.599393e-001 3.972709e-001 2.195628e-002
<GCONST> 1.039938e+002
<STATE> 11
<NUMMIXES> 4
<MIXTURE> 1 2.847633e-001
<MEAN> 39
 -5.747643e+000 -1.230332e+001 -2.144830e+001 -2.289411e+001 -2.674552e+000 4.251946e+000 -9.762388e-001 -3.737727e+000 9.047962e+000 -3.736369e+000 -5.668494e+000 -9.144425e+000 7.943216e+001 2.629166e-001 5.802742e-001 3.409577e-001 -9.412045e-001 -6.233314e-001 1.261272e+000 1.210078e+000 -6.906186e-001 -6.507059e-001 1.335916e-001 8.645175e-001 3.203717e-001 -2.364789e-001 -2.532660e-002 1.371778e-001 2.746383e-001 1.656994e-002 -4.340954e-001 -3.559275e-001 -1.163602e-001 5.234669e-001 7.530035e-002 -2.923231e-001 -1.437253e-001 2.798828e-001 -7.238179e-002
<VARIANCE> 39
 3.294053e+000 1.335232e+001 1.258300e+001 1.701831e+001 2.706275e+001 4.014770e+001 5.003784e+001 2.687339e+001 2.779267e+001 7.675365e+001 2.661662e+001 2.796282e+001 4.389746e+000 1.721139e-001 4.508706e-001 6.392866e-001 7.428555e-001 9.585179e-001 1.930343e+000 1.181314e+000 2.491093e+000 1.394965e+000 1.801386e+000 1.609386e+000 2.177911e+000 7.427057e-002 2.856514e-002 1.003031e-001 1.043798e-001 1.247158e-001 2.101193e-001 2.991872e-001 3.545308e-001 2.983699e-001 2.372762e-001 2.450669e-001 2.366746e-001 3.022900e-001 1.828155e-002
<GCONST> 8.405503e+001
<MIXTURE> 2 2.840301e-001
<MEAN> 39
 -3.704697e+000 -9.945560e+000 -1.205687e+001 -3.043463e+001 -1.979865e+001 5.070968e+000 3.979696e+000 1.117902e+001 1.568993e+001 -6.463787e+000 -2.620006e+000 -2.275050e+000 7.628289e+001 -7.789165e-002 2.598846e-001 3.408529e-001 -2.549680e-001 -1.010769e+000 -3.823897e-001 1.065688e-001 1.418186e-001 -5.469184e-001 -3.194335e-001 1.847635e-001 8.572208e-001 -5.284075e-002 -7.880063e-002 -1.204894e-003 9.979177e-002 1.518842e-001 -8.072490e-002 -3.845214e-001 -3.945791e-001 1.080489e-003 2.196113e-001 9.671593e-002 3.924097e-003 -1.226769e-001 -4.197522e-002
<VARIANCE> 39
 1.199300e+000 6.022368e+000 7.429582e+000 5.451942e+000 2.646088e+001 2.146777e+001 3.104455e+001 2.216675e+001 1.269536e+001 2.945021e+001 2.316666e+001 2.776991e+001 9.685625e-001 7.288164e-002 1.786468e-001 4.422703e-001 5.222915e-001 7.029167e-001 1.316104e+000 1.904498e+000 1.902130e+000 1.217147e+000 1.791762e+000 1.177928e+000 1.532531e+000 2.370213e-002 1.297815e-002 4.017123e-002 7.823062e-002 4.234589e-002 1.529706e-001 1.582838e-001 1.100899e-001 1.749406e-001 2.270256e-001 2.238320e-001 2.352013e-001 1.704942e-001 5.367647e-003
<GCONST> 6.325869e+001
<MIXTURE> 3 2.360159e-001
<MEAN> 39
 -4.410213e+000 -1.572305e+001 -1.539638e+001 -2.781975e+001 -2.556230e+000 9.638808e+000 3.003805e+000 2.014645e+000 4.178104e+000 -9.439872e+000 -6.475009e+000 -6.934353e+000 7.740804e+001 1.203026e-001 4.131041e-001 1.899218e-001 -5.282481e-001 -5.121867e-001 2.792625e-001 4.628261e-001 1.558565e-001 -2.210958e-001 -5.031721e-002 6.869370e-001 3.153445e-001 -9.486464e-002 -5.750422e-002 1.212808e-001 1.248129e-001 9.897339e-002 -3.136579e-001 -1.411709e-001 -2.833167e-002 3.767419e-001 3.002145e-001 -1.974784e-001 -1.938356e-001 1.016449e-001 -2.605428e-002
<VARIANCE> 39
 1.759564e+000 4.540817e+000 3.835918e+000 5.583739e+000 2.864026e+001 1.210717e+001 3.705014e+001 2.273156e+001 1.353990e+001 1.898212e+001 2.603963e+001 3.656747e+000 1.467946e+000 6.192730e-002 4.521155e-001 5.052598e-001 4.619815e-001 9.765546e-001 8.060687e-001 8.084745e-001 1.392431e+000 1.242957e+000 8.168294e-001 9.609874e-001 9.300284e-001 2.831407e-002 8.543038e-003 4.264632e-002 4.169847e-002 8.471402e-002 1.082700e-001 1.309212e-001 1.113512e-001 1.416608e-001 1.793764e-001 1.617576e-001 1.979624e-001 1.427222e-001 3.532816e-003
<GCONST> 5.635951e+001
<MIXTURE> 4 1.951906e-001
<MEAN> 39
 -7.213433e+000 -1.487632e+001 -1.309856e+001 -1.972417e+001 -2.054927e+000 4.560410e-001 -1.158753e+001 -6.791526e+000 -1.116331e+000 -9.368487e+000 -9.843735e+000 -9.507086e+000 7.514831e+001 1.357976e-001 6.644832e-001 2.111979e-001 -8.438919e-001 -6.755329e-001 5.303666e-001 -1.155786e-001 2.236037e-001 -6.234343e-002 -6.632553e-002 6.841459e-001 1.842308e-001 -3.685215e-001 -7.256081e-002 1.197923e-001 1.372718e-001 4.319198e-002 -3.905930e-001 -2.953308e-001 1.178654e-001 1.745477e-001 -3.799307e-002 -1.292104e-001 -1.788357e-002 2.123575e-001 -5.820115e-003
<VARIANCE> 39
 1.760931e+000 4.523528e+000 1.761352e+001 1.061234e+001 2.147300e+001 1.732813e+001 1.071484e+001 2.576129e+001 3.962225e+001 4.032402e+001 2.584600e+001 2.057443e+001 1.590781e+000 7.538103e-002 1.968084e-001 3.758425e-001 4.219025e-001 1.840959e+000 1.055466e+000 8.378243e-001 8.006324e-001 6.304475e-001 8.068956e-001 1.287974e+000 9.523938e-001 3.808952e-002 1.027415e-002 3.721261e-002 5.008274e-002 6.655921e-002 7.648132e-002 8.161680e-002 1.703142e-001 1.682643e-001 1.557984e-001 7.858502e-002 2.590816e-001 8.119030e-002 4.081376e-003
<GCONST> 5.914531e+001
<STATE> 12
<NUMMIXES> 4
<MIXTURE> 1 2.969545e-001
<MEAN> 39
 -5.452959e+000 -7.328971e+000 -1.785548e+001 -2.812330e+001 -1.328044e+001 4.720641e+000 4.060439e+000 9.682426e-001 8.594384e+000 -7.891068e+000 -2.620143e+000 -4.495956e+000 7.616934e+001 3.485319e-002 6.241069e-001 7.950528e-001 -5.335370e-001 -1.760825e+000 -4.488728e-001 -2.385405e-001 8.101851e-001 -7.021911e-002 -8.257381e-001 5.201322e-002 6.819021e-001 -4.735029e-001 -5.934926e-002 -9.801111e-003 1.912403e-001 2.396439e-001 -5.088494e-003 -2.021285e-001 -2.376655e-001 1.354010e-001 1.010842e-001 4.687833e-002 -1.765864e-001 -1.940922e-001 -2.977223e-002
<VARIANCE> 39
 4.605505e+000 1.103629e+001 9.021359e+000 1.650525e+001 5.987573e+001 2.224923e+001 5.178691e+001 5.000702e+001 4.373967e+001 6.641473e+001 1.369451e+001 2.077814e+001 8.505843e+000 2.516309e-001 3.514944e-001 5.840580e-001 9.696694e-001 9.756445e-001 1.135274e+000 1.265649e+000 1.438976e+000 1.275967e+000 1.124581e+000 9.469679e-001 1.032001e+000 9.901021e-002 5.182557e-002 4.863140e-002 9.350377e-002 1.583395e-001 1.823885e-001 2.856355e-001 1.007499e-001 1.765635e-001 1.825728e-001 1.663915e-001 1.946237e-001 1.685605e-001 1.678476e-002
<GCONST> 7.898364e+001
<MIXTURE> 2 4.036361e-001
<MEAN> 39
 -3.221412e+000 -4.306261e+000 -8.558385e+000 -2.858945e+001 -2.785414e+001 -4.706030e+000 -2.559805e+000 7.040099e+000 1.363282e+001 -6.703371e+000 -1.745400e+000 1.219480e+000 7.401274e+001 -4.736210e-002 3.275976e-001 4.882214e-001 5.792988e-002 -4.275324e-001 -7.889599e-001 -3.740503e-001 1.335747e-001 1.964833e-001 -3.984240e-001 -2.510771e-001 -1.513858e-001 -1.725113e-001 -3.664301e-002 -5.451825e-002 3.602445e-003 9.730984e-002 1.589155e-001 -1.855434e-002 -8.748075e-002 -1.297456e-001 -4.602700e-003 5.848534e-002 -3.179952e-002 -1.208080e-001 -2.647961e-002
<VARIANCE> 39
 1.994453e+000 4.911614e+000 8.526474e+000 5.716507e+000 1.075322e+001 4.378743e+001 1.920341e+001 4.262709e+001 3.238346e+001 1.744317e+001 7.976977e+000 1.720998e+001 1.718297e+000 9.680863e-002 1.799223e-001 3.306440e-001 4.988235e-001 7.374996e-001 7.768626e-001 1.371758e+000 6.893086e-001 9.500933e-001 9.199454e-001 8.499886e-001 1.614032e+000 3.870403e-002 2.143003e-002 1.901450e-002 6.119086e-002 6.148699e-002 9.214482e-002 1.073826e-001 1.630553e-001 1.225502e-001 1.554729e-001 1.116327e-001 1.434117e-001 1.832178e-001 6.602671e-003
<GCONST> 5.834208e+001
<MIXTURE> 3 1.233480e-001
<MEAN> 39
 -7.028327e+000 -9.988071e+000 -6.795042e+000 -2.313909e+001 -1.405034e+001 -3.722256e+000 -8.446428e+000 -3.227731e+000 1.431952e+000 -1.441955e+001 -8.916947e+000 -7.723453e+000 7.295899e+001 -1.757130e-001 5.101819e-001 6.192734e-001 3.346649e-002 -1.685610e+000 -9.058934e-001 2.634208e-001 8.789968e-001 -4.977528e-002 -6.552961e-001 -4.027228e-001 2.903128e-001 -2.832192e-001 -5.352041e-002 -1.744869e-001 -1.194972e-001 2.076652e-001 3.674444e-001 1.541095e-001 -1.610575e-001 -1.248732e-001 -5.532672e-002 -5.410925e-002 -1.319794e-001 -1.848996e-001 3.445812e-003
<VARIANCE> 39
 1.176378e+000 4.621113e+000 8.947457e+000 4.960548e+000 1.964888e+001 1.271167e+001 1.295198e+001 1.969343e+001 6.158740e+001 3.092508e+001 1.856855e+001 1.654972e+001 2.522608e+000 6.895461e-002 2.276874e-001 3.371488e-001 7.161068e-001 1.378905e+000 8.365906e-001 9.227795e-001 1.353602e+000 1.795793e+000 1.210775e+000 1.329883e+000 1.294881e+000 2.526315e-002 2.929848e-002 2.464477e-002 5.373114e-002 7.858464e-002 2.574242e-001 1.976391e-001 1.560600e-001 2.062597e-001 2.569579e-001 1.661828e-001 3.046575e-001 2.328244e-001 6.331313e-003
<GCONST> 6.488519e+001
<MIXTURE> 4 1.760615e-001
<MEAN> 39
 -3.613249e+000 -1.160327e+001 -1.285202e+001 -2.894498e+001 -9.979802e+000 8.760508e+000 5.822855e+000 7.201766e+000 7.263651e+000 -1.240089e+001 -4.737453e+000 -4.677035e+000 7.644849e+001 -1.643544e-001 6.010423e-001 7.777389e-001 3.201570e-002 -1.443873e+000 -7.987192e-001 2.363122e-001 1.268253e+000 3.790933e-002 -9.661982e-001 -4.489315e-001 6.774174e-001 -2.812055e-001 -1.272838e-001 -1.574194e-001 -6.796245e-002 7.508630e-002 6.942226e-003 -2.598550e-001 -3.329541e-001 -3.875169e-001 -5.180934e-002 1.239556e-001 3.665195e-002 -3.213375e-002 -5.188851e-002
<VARIANCE> 39
 3.098106e+000 6.472397e+000 3.691087e+000 5.406861e+000 1.661014e+001 1.375782e+001 2.381826e+001 2.271931e+001 2.521978e+001 2.330073e+001 1.756604e+001 2.398331e+001 6.961148e-001 7.111561e-002 2.680239e-001 5.382193e-001 3.756605e-001 9.830173e-001 6.297129e-001 6.554177e-001 8.844613e-001 9.716446e-001 1.495570e+000 9.366651e-001 1.131568e+000 2.371084e-002 1.483095e-002 2.959334e-002 6.530458e-002 3.929175e-002 7.792178e-002 9.208521e-002 1.351206e-001 1.267874e-001 1.432081e-001 1.465302e-001 2.066822e-001 2.476180e-001 4.741444e-003
<GCONST> 5.666971e+001
<STATE> 13
<NUMMIXES> 4
<MIXTURE> 1 1.464844e-001
<MEAN> 39
 -6.101310e+000 -7.994999e+000 -1.315481e+001 -3.451910e+001 -1.313190e+001 7.942477e+000 -4.170838e+000 1.023687e+000 3.224362e+000 4.122329e+000 -3.400266e+000 1.737597e+000 8.136607e+001 5.070876e-001 4.902644e-001 3.897941e-001 -1.047614e-001 -1.408648e+000 -4.765899e-001 5.579539e-001 6.861170e-002 -1.955405e-001 -1.200111e+000 1.489039e-001 8.925083e-001 -6.598164e-001 -6.255804e-002 -3.370446e-002 4.781066e-002 2.891781e-001 -3.639253e-002 -3.756130e-001 -2.759337e-001 2.654018e-001 1.264831e-001 -2.394284e-001 -3.006444e-001 -3.146827e-001 -1.347327e-001
<VARIANCE> 39
 2.984190e+000 3.759644e+000 8.464927e+000 3.020409e+000 1.468907e+002 3.030622e+001 1.116155e+001 4.626982e+000 8.327481e+000 2.773318e+001 3.527503e+001 5.791342e+001 4.336989e+000 8.501969e-002 1.368544e-001 5.206571e-001 4.754048e-001 1.333624e+000 1.085087e+000 1.279750e+000 1.240622e+000 1.136489e+000 1.466910e+000 2.024330e+000 1.721046e+000 1.540598e-001 3.924630e-002 3.640670e-002 7.538129e-002 5.703192e-002 1.963374e-001 1.553002e-001 1.520201e-001 1.933359e-001 2.013634e-001 2.046910e-001 2.852090e-001 2.243264e-001 9.508947e-003
<GCONST> 6.947261e+001
<MIXTURE> 2 1.466210e-001
<MEAN> 39
 -1.005036e+001 -9.039715e+000 -1.003481e+001 -2.017156e+001 -1.458609e+001 -1.469794e+000 -1.272200e+001 -2.847000e+000 -6.263999e+000 -1.608097e+001 -1.000755e+001 -1.836953e+000 7.101159e+001 -1.538823e+000 -4.924276e-001 1.196944e+000 1.644129e+000 -2.799340e-001 -3.801838e-001 -1.485564e-001 -3.883439e-002 2.941291e-001 -8.367561e-001 -2.714295e-001 -4.913487e-001 -1.111336e+000 -3.010042e-001 -3.711205e-001 -1.087553e-001 2.204656e-001 5.054611e-001 3.408373e-001 3.276665e-001 3.588537e-001 5.077153e-001 6.144331e-001 4.756584e-001 3.079301e-003 -9.263583e-002
<VARIANCE> 39
 4.452034e+000 6.524832e+000 2.470084e+001 9.023619e+000 1.226571e+001 2.813758e+001 2.847952e+001 1.416727e+001 1.906542e+001 4.802672e+001 1.678751e+001 3.965342e+001 3.390000e+000 5.661923e-001 8.627326e-001 1.073116e+000 9.111679e-001 3.005847e+000 5.595185e+000 1.367168e+000 1.889736e+000 2.876914e+000 1.976158e+000 1.760029e+000 9.785852e-001 2.485713e-001 5.261621e-002 9.232047e-002 2.094552e-001 1.790789e-001 1.977754e-001 6.801133e-001 2.087180e-001 2.338923e-001 3.481669e-001 5.084472e-001 2.377247e-001 2.476571e-001 3.522298e-002
<GCONST> 8.921435e+001
<MIXTURE> 3 3.767633e-001
<MEAN> 39
 -5.093275e+000 -4.739856e+000 -8.879416e+000 -2.815546e+001 -2.496535e+001 -4.170454e+000 -2.731858e+000 8.512552e+000 1.237035e+001 -8.831131e+000 -5.498974e+000 -2.368133e+000 7.397410e+001 -1.004708e+000 -1.565818e-001 1.005036e+000 1.715382e+000 4.320479e-001 -1.050545e+000 -1.607861e+000 -4.717322e-001 -1.109132e-001 -1.153557e-001 -3.996443e-001 -1.623827e-001 -7.929412e-001 -5.201474e-001 -3.981097e-001 8.719481e-002 6.244957e-001 7.148604e-001 3.708918e-001 -2.360182e-001 -5.485729e-001 -3.962611e-001 3.350213e-002 3.003734e-001 1.462788e-001 -2.005762e-001
<VARIANCE> 39
 4.092502e+000 1.204303e+001 1.067935e+001 1.370342e+001 3.202458e+001 2.955896e+001 2.871348e+001 3.759852e+001 3.804655e+001 3.341731e+001 1.914396e+001 2.392698e+001 3.533797e+000 5.329637e-001 3.326561e-001 8.332641e-001 8.917213e-001 1.837566e+000 1.125006e+000 1.674947e+000 2.177398e+000 1.052912e+000 1.729749e+000 1.560979e+000 1.377007e+000 2.860966e-001 4.712284e-002 7.531314e-002 1.394016e-001 1.254644e-001 1.577230e-001 2.094097e-001 3.187324e-001 2.828602e-001 2.369388e-001 3.670171e-001 1.879070e-001 2.718616e-001 1.635459e-002
<GCONST> 8.400818e+001
<MIXTURE> 4 3.301311e-001
<MEAN> 39
 -5.434375e+000 -1.088945e+001 -9.791917e+000 -2.778753e+001 -1.449731e+001 3.834085e+000 3.226653e+000 7.823620e+000 7.676361e+000 -1.509189e+001 -5.398232e+000 -2.363290e+000 7.472942e+001 -7.523320e-001 -1.519454e-001 8.491665e-001 6.617883e-001 -7.990749e-001 -1.585549e+000 -1.597879e+000 -3.951513e-001 5.276414e-001 -2.677047e-001 1.036137e-002 -6.582242e-002 -5.606708e-001 -2.758739e-001 -2.164459e-001 2.087045e-002 2.996231e-001 2.096852e-001 -1.604045e-001 -3.983811e-001 -4.671307e-001 -8.327784e-002 2.095820e-001 6.000331e-003 -1.915870e-001 -1.005244e-001
<VARIANCE> 39
 2.295944e+000 6.473654e+000 8.164946e+000 7.476110e+000 7.990050e+000 1.665472e+001 2.720347e+001 3.019789e+001 3.723652e+001 3.034287e+001 1.275255e+001 1.629090e+001 1.451224e+000 2.538190e-001 4.303426e-001 7.922333e-001 7.059450e-001 9.161232e-001 1.129784e+000 1.528039e+000 1.982924e+000 7.690617e-001 1.313509e+000 1.198497e+000 1.212005e+000 7.163925e-002 3.774088e-002 7.120822e-002 1.196759e-001 9.932364e-002 1.388822e-001 2.051223e-001 2.217223e-001 3.031254e-001 1.409454e-001 1.185399e-001 1.783863e-001 1.723252e-001 8.640898e-003
<GCONST> 6.998812e+001
<STATE> 14
<NUMMIXES> 4
<MIXTURE> 1 6.568003e-002
<MEAN> 39
 -1.018107e+001 -1.671544e+001 -1.021368e+001 -2.759483e+001 -1.648860e+001 -5.274316e-001 1.011139e+000 8.529667e+000 1.138108e+001 -6.992876e+000 -4.495474e+000 -4.108410e+000 7.252265e+001 -6.809016e-001 -2.556300e-001 8.622433e-001 1.684568e+000 4.374888e-001 -7.961782e-001 -1.110487e+000 -1.094157e+000 -6.541664e-001 3.526956e-001 -9.911850e-001 -1.587540e+000 -4.721049e-001 -1.029291e-001 1.308147e-001 2.615286e-001 5.273501e-001 7.501070e-001 3.192303e-001 6.782522e-002 -2.337338e-001 -5.330187e-001 -4.660732e-001 8.816066e-002 1.298115e-002 -3.250096e-002
<VARIANCE> 39
 1.931039e+000 9.855157e-001 9.843731e+000 5.172055e+000 8.857341e+000 1.744958e+001 3.010195e+000 4.747281e+000 3.150059e+001 2.528893e+000 8.468914e+000 1.731790e+001 4.150306e-001 2.694206e-001 3.750883e-001 2.760570e-001 1.860716e+000 1.274609e+000 1.454227e+000 2.063569e+000 1.818670e+000 1.675296e+000 4.945271e-001 2.560459e-001 8.766164e-001 6.009515e-002 3.085537e-002 3.023838e-002 1.945624e-002 5.879908e-002 8.177122e-002 5.173886e-001 8.683482e-001 2.310099e-001 1.999269e-001 2.390116e-002 2.308060e-001 7.624021e-001 4.469879e-003
<GCONST> 5.591373e+001
<MIXTURE> 2 4.830165e-001
<MEAN> 39
 -1.490893e+001 -1.185591e+001 -5.397207e+000 -1.615412e+001 -1.389855e+001 -8.100107e-001 -7.783113e+000 1.976969e+000 4.409916e+000 -1.294673e+001 -5.882941e+000 -2.682298e+000 6.865963e+001 -1.496424e+000 -1.095122e+000 -7.594531e-002 1.023990e+000 8.960034e-001 1.158149e+000 6.241806e-001 3.407288e-001 -1.414761e-001 1.889393e-001 1.924112e-001 3.122235e-001 -7.434189e-001 5.142832e-001 3.171389e-001 -1.731798e-001 -6.533816e-001 -5.800349e-001 -2.088427e-001 2.102030e-001 3.615199e-001 4.347921e-001 3.012417e-001 9.370695e-002 2.803565e-002 2.631476e-001
<VARIANCE> 39
 5.452324e+000 1.477556e+001 1.040467e+001 1.172358e+001 1.953975e+001 2.276792e+001 2.172351e+001 2.999011e+001 3.788260e+001 3.587304e+001 1.972422e+001 1.611585e+001 3.598339e+000 5.055342e-001 6.466419e-001 7.190667e-001 1.406037e+000 1.441088e+000 1.929604e+000 2.054376e+000 2.805270e+000 3.057106e+000 3.218255e+000 1.930844e+000 1.554121e+000 1.275532e-001 5.947733e-002 9.108595e-002 1.322788e-001 1.619400e-001 1.915126e-001 4.388424e-001 4.051064e-001 3.486514e-001 3.993734e-001 3.047333e-001 2.855798e-001 2.335658e-001 1.683745e-002
<GCONST> 8.830373e+001
<MIXTURE> 3 2.652203e-001
<MEAN> 39
 -1.046853e+001 -1.068279e+001 -5.832380e+000 -2.165356e+001 -1.692622e+001 -3.747669e+000 -6.031196e+000 3.312752e+000 6.831090e+000 -1.391082e+001 -6.900329e+000 -4.904034e+000 7.167383e+001 -1.887036e+000 -9.444240e-001 8.467429e-001 2.203312e+000 1.212347e+000 -4.324306e-001 -1.688892e+000 -1.278071e+000 -7.876065e-001 -1.970495e-001 1.897739e-001 2.139139e-001 -9.778984e-001 -6.947809e-002 -2.273515e-001 -2.660793e-001 -1.385035e-001 2.407458e-001 5.066781e-001 4.282064e-001 2.259468e-001 5.041543e-002 1.811943e-001 1.898791e-001 3.687125e-001 2.673513e-003
<VARIANCE> 39
 5.534333e+000 1.904967e+001 8.771609e+000 1.256954e+001 1.890709e+001 2.138978e+001 2.414776e+001 2.967458e+001 2.798300e+001 3.265626e+001 1.056168e+001 3.801672e+001 1.849180e+000 3.662201e-001 3.920481e-001 3.472992e-001 1.180526e+000 1.420603e+000 2.028823e+000 1.464101e+000 1.560535e+000 1.441389e+000 7.458686e-001 8.343192e-001 1.944105e+000 1.031562e-001 7.455952e-002 6.407135e-002 1.047318e-001 1.210445e-001 2.732650e-001 2.671340e-001 3.565742e-001 3.448161e-001 1.966059e-001 1.627043e-001 2.078445e-001 4.015108e-001 1.599131e-002
<GCONST> 7.989272e+001
<MIXTURE> 4 1.860831e-001
<MEAN> 39
 -8.247333e+000 -6.039207e+000 -4.034860e+000 -2.114500e+001 -2.232817e+001 -8.136395e+000 -9.105198e+000 4.806751e+000 1.369818e+001 -6.560251e+000 -1.122804e+000 -4.072946e-001 7.148913e+001 -2.274507e+000 -1.487314e+000 8.105555e-001 2.572542e+000 2.755596e+000 1.500796e+000 -3.103110e-001 -1.610856e+000 -2.094515e+000 -1.178612e+000 -6.812015e-002 1.126555e-001 -1.189177e+000 -1.507774e-001 -2.448534e-001 -3.179227e-001 -2.373783e-001 1.775720e-001 7.460249e-001 8.336880e-001 8.333438e-002 -4.601136e-001 -5.124165e-001 -3.694833e-001 -1.315934e-001 -1.834504e-002
<VARIANCE> 39
 6.291798e+000 9.231285e+000 6.520048e+000 7.580882e+000 1.388984e+001 3.994431e+001 2.361193e+001 4.306940e+001 2.795847e+001 2.133423e+001 1.045988e+001 6.264579e+000 4.419131e+000 4.582061e-001 8.018788e-001 8.948625e-001 9.331238e-001 8.828410e-001 1.739747e+000 2.383892e+000 1.971741e+000 2.798888e+000 2.686773e+000 1.577431e+000 1.229015e+000 1.094619e-001 1.128729e-001 7.639616e-002 1.000340e-001 1.692250e-001 2.615552e-001 3.868611e-001 1.588284e-001 3.025943e-001 4.295685e-001 2.881434e-001 1.449711e-001 9.954320e-002 3.230771e-002
<GCONST> 8.228656e+001
<STATE> 15
<NUMMIXES> 4
<MIXTURE> 1 4.306283e-002
<MEAN> 39
 -9.865067e+000 -1.137311e+001 -2.437425e+000 -2.467908e+001 -2.022755e+001 -1.035874e+001 -8.319570e+000 3.363689e+000 1.042859e+001 -8.866821e+000 -1.966978e+000 -4.208050e+000 7.187582e+001 6.243865e-001 5.489125e-001 -2.232020e-001 -1.184876e+000 -5.900784e-001 -4.018400e-001 -9.419794e-002 8.901410e-001 1.714225e+000 2.246386e+000 1.845974e+000 1.586615e+000 1.709087e-001 -2.963324e-001 -2.526993e-001 2.841695e-002 4.214406e-001 4.730701e-001 3.284256e-001 7.548004e-002 -1.894458e-001 1.232557e-004 -2.446421e-001 -1.434957e-001 3.261055e-002 -1.508217e-001
<VARIANCE> 39
 2.271715e+000 1.825818e+000 6.540218e+000 1.398441e+001 7.068654e+000 1.177924e+001 7.892394e+000 1.032087e+001 5.333931e+001 2.495710e+001 3.012477e+001 1.443726e+001 4.388940e-001 7.679111e-001 1.126686e+000 5.940287e-001 1.154292e+000 1.810557e+000 1.507695e+000 5.048668e-001 6.324267e-001 6.777525e-001 1.470569e+000 1.265774e+000 3.558060e-001 1.555932e-001 7.420646e-002 1.181660e-001 1.309869e-001 1.270869e-001 1.317328e-001 1.476025e-001 9.960113e-002 2.236364e-001 3.786546e-001 6.578013e-001 6.030328e-001 3.404534e-001 1.055247e-002
<GCONST> 7.146089e+001
<MIXTURE> 2 5.184043e-001
<MEAN> 39
 -1.555500e+001 -1.602580e+001 -3.368582e+000 -1.708928e+001 -1.165311e+001 -2.751308e+000 -5.760487e+000 5.856372e-001 7.153164e+000 -1.317406e+001 -4.495079e+000 -3.475298e+000 6.915009e+001 -1.212890e-001 3.046576e-002 2.428299e-001 1.009815e-001 -4.248036e-002 -8.109121e-002 -1.405153e-001 -1.488881e-001 1.726660e-001 1.354885e-001 4.071078e-002 -2.011128e-001 -7.657490e-002 2.264486e-001 1.909729e-001 -9.400861e-003 -1.412051e-001 -1.845385e-001 -1.589201e-001 -1.360832e-001 6.518546e-003 2.275534e-002 2.081387e-002 5.399353e-003 -3.731353e-002 1.079941e-001
<VARIANCE> 39
 2.668949e+000 5.653248e+000 8.649873e+000 1.262391e+001 1.397247e+001 8.117016e+000 1.594880e+001 1.345146e+001 1.771862e+001 2.938173e+001 1.355975e+001 1.260985e+001 1.574155e+000 2.308151e-001 2.529864e-001 2.702928e-001 6.156130e-001 8.035290e-001 7.581834e-001 1.483316e+000 1.521810e+000 1.293110e+000 1.367159e+000 1.566693e+000 1.324380e+000 4.799915e-002 2.708256e-002 4.664919e-002 6.243929e-002 1.292962e-001 1.445708e-001 1.739165e-001 2.949956e-001 2.682486e-001 2.836789e-001 3.301273e-001 3.332984e-001 2.939489e-001 7.458477e-003
<GCONST> 6.767924e+001
<MIXTURE> 3 1.037716e-001
<MEAN> 39
 -1.442435e+001 -1.214268e+001 -4.370665e+000 -1.791934e+001 -1.546453e+001 -3.302633e+000 -8.466789e+000 1.654111e-001 3.411363e+000 -1.441533e+001 -7.781155e+000 -4.630153e+000 6.939825e+001 1.535146e+000 1.357656e+000 8.720771e-002 -1.616081e+000 -1.815888e+000 -1.727613e+000 -2.750231e-001 3.136138e-001 2.927291e-001 3.310557e-001 -2.631865e-001 8.887877e-002 6.434403e-001 4.511438e-001 3.348626e-001 -8.202871e-002 -4.534610e-001 -5.051967e-001 -2.374782e-001 1.682781e-001 5.166635e-001 7.128511e-001 6.986710e-001 3.313187e-001 2.507564e-001 1.997937e-001
<VARIANCE> 39
 2.870143e+000 2.051835e+001 6.242456e+000 2.554091e+001 8.891674e+000 2.458211e+001 1.564514e+001 2.094718e+001 2.979356e+001 1.802643e+001 2.001575e+001 1.999238e+001 2.966849e+000 7.064770e-001 7.006256e-001 7.668290e-001 1.187932e+000 9.476674e-001 1.238930e+000 1.629687e+000 1.564418e+000 2.282552e+000 2.937402e+000 1.615619e+000 1.791527e+000 1.340187e-001 6.851429e-002 6.903709e-002 9.244705e-002 2.849208e-001 1.799225e-001 3.762160e-001 2.784857e-001 1.497981e-001 1.357178e-001 2.431654e-001 3.262349e-001 4.372521e-001 2.440681e-002
<GCONST> 8.269342e+001
<MIXTURE> 4 3.347613e-001
<MEAN> 39
 -1.748625e+001 -1.131268e+001 -7.356413e+000 -1.394279e+001 -1.630882e+001 1.587984e+000 -7.351433e+000 6.206732e+000 5.643693e+000 -8.545360e+000 -5.554842e+000 -6.895146e-001 6.652769e+001 1.258335e-001 -1.752977e-002 3.804867e-001 -6.797033e-002 -1.710747e-001 -5.014673e-001 -1.197727e-001 2.839470e-002 3.343265e-001 9.517315e-002 4.332677e-004 6.132988e-002 -6.810615e-002 3.563415e-001 2.539505e-001 2.151244e-001 -1.931542e-001 -1.153729e-001 -4.195617e-001 -3.050327e-001 -3.478833e-001 -1.907526e-001 -2.756872e-001 -2.187536e-001 -2.104353e-001 1.279933e-001
<VARIANCE> 39
 2.634432e+000 1.045610e+001 9.138975e+000 7.947489e+000 1.630196e+001 2.041697e+001 1.908168e+001 3.483907e+001 3.356213e+001 1.953414e+001 2.385401e+001 2.137621e+001 2.081487e+000 2.245674e-001 4.600703e-001 5.642546e-001 5.381544e-001 7.771720e-001 1.257905e+000 1.357322e+000 1.325300e+000 1.263024e+000 1.794924e+000 1.194001e+000 1.245494e+000 9.976049e-002 9.184605e-002 1.092777e-001 1.055378e-001 1.217966e-001 1.491424e-001 2.688110e-001 2.906872e-001 2.572085e-001 2.255324e-001 2.582868e-001 2.161478e-001 2.260920e-001 2.285410e-002
<GCONST> 7.664570e+001
<STATE> 16
<NUMMIXES> 4
<MIXTURE> 1 3.578272e-001
<MEAN> 39
 -8.193460e+000 -5.529026e+000 -1.808429e+000 -2.167583e+001 -2.334236e+001 -1.120179e+001 -1.307919e+001 7.202603e-001 9.257067e+000 -8.921103e+000 -5.353744e+000 -3.913833e+000 7.063318e+001 1.465781e+000 1.264970e+000 3.201046e-001 -9.593624e-001 -1.504415e+000 -1.498460e+000 3.789117e-003 6.401589e-001 6.921650e-001 1.913442e-001 -2.994160e-001 -4.368024e-001 6.249178e-001 -4.982777e-001 -4.986587e-001 -2.120950e-001 3.396442e-001 6.525013e-001 7.463435e-001 6.463350e-001 3.223420e-001 -2.000627e-001 -1.546067e-001 4.262067e-002 2.446652e-001 -2.014442e-001
<VARIANCE> 39
 2.232110e+000 1.080083e+001 1.294544e+001 1.596689e+001 1.674885e+001 1.730858e+001 3.058795e+001 2.707549e+001 2.412738e+001 1.879217e+001 2.363586e+001 1.623095e+001 3.574776e+000 5.908093e-001 5.967120e-001 6.881421e-001 1.576580e+000 1.391582e+000 1.685974e+000 2.359534e+000 2.041576e+000 2.078949e+000 2.077552e+000 2.054639e+000 1.807064e+000 1.361918e-001 5.076432e-002 5.531377e-002 1.145439e-001 1.051779e-001 1.308278e-001 2.600466e-001 3.981847e-001 1.995074e-001 3.345348e-001 3.004762e-001 2.990254e-001 2.817952e-001 9.716916e-003
<GCONST> 8.255247e+001
<MIXTURE> 2 1.494399e-001
<MEAN> 39
 -1.207130e+001 -1.076300e+001 -2.251790e+000 -1.993688e+001 -1.677235e+001 -4.052028e+000 -6.738606e+000 1.666567e+000 1.085850e+001 -9.214270e+000 8.920261e-001 7.784026e-001 6.951630e+001 1.785804e+000 1.508219e+000 4.214576e-001 -1.274553e+000 -2.345043e+000 -2.902776e+000 -1.893221e+000 -1.815313e-001 1.173523e+000 1.290823e+000 9.042826e-001 6.735382e-002 7.553969e-001 1.259524e-001 1.415207e-001 2.714055e-002 -8.021723e-002 -1.480052e-001 -3.310613e-001 -1.602383e-001 1.255670e-001 -1.027918e-001 -3.706321e-001 -4.070725e-001 -2.862367e-001 6.565670e-002
<VARIANCE> 39
 4.219051e+000 7.812660e+000 1.008077e+001 1.257949e+001 1.197709e+001 1.132884e+001 3.684744e+001 1.647811e+001 1.885592e+001 2.357722e+001 6.836325e+000 1.001711e+001 4.707707e+000 4.846263e-001 7.089122e-001 1.000287e+000 2.721835e-001 5.870875e-001 1.496317e+000 2.058609e+000 1.008036e+000 1.656679e+000 2.467464e+000 2.189431e+000 2.351075e+000 8.201578e-002 5.764198e-002 8.654197e-002 8.082534e-002 1.368739e-001 2.016593e-001 3.401353e-001 4.594620e-001 2.717271e-001 2.257656e-001 3.279489e-001 1.917224e-001 2.497790e-001 1.322636e-002
<GCONST> 7.745139e+001
<MIXTURE> 3 2.217108e-001
<MEAN> 39
 -1.214066e+001 -8.647879e+000 -7.727052e-001 -1.471607e+001 -1.672038e+001 -7.999983e+000 -1.585410e+001 -4.017282e+000 4.104772e+000 -1.172194e+001 -5.987881e+000 -3.795713e+000 6.932367e+001 1.492963e+000 1.219459e+000 5.057943e-001 -6.760422e-001 -1.275561e+000 -1.745128e+000 -1.155593e+000 -7.585738e-001 2.570246e-001 9.578132e-002 2.599970e-001 -9.091031e-002 5.767411e-001 -3.704032e-002 -1.516630e-001 -1.900152e-001 -1.793831e-001 -5.486673e-002 1.676975e-001 6.138642e-001 5.915071e-001 4.556613e-001 2.086381e-001 2.078588e-001 1.504741e-001 -1.199945e-002
<VARIANCE> 39
 5.401209e+000 1.255881e+001 6.341104e+000 1.541577e+001 1.242672e+001 1.312901e+001 1.330108e+001 2.421898e+001 2.249663e+001 2.272224e+001 1.957581e+001 2.192356e+001 2.791867e+000 6.847984e-001 1.154227e+000 5.801481e-001 4.582562e-001 8.371882e-001 1.259634e+000 2.127653e+000 2.070918e+000 1.259243e+000 1.869302e+000 2.060145e+000 2.055161e+000 1.354669e-001 6.837657e-002 7.875930e-002 6.847844e-002 5.398139e-002 8.528399e-002 1.951398e-001 2.035113e-001 1.175324e-001 1.253529e-001 3.534916e-001 2.411794e-001 3.451126e-001 1.705255e-002
<GCONST> 7.662055e+001
<MIXTURE> 4 2.710222e-001
<MEAN> 39
 -1.651807e+001 -1.305705e+001 -4.012517e+000 -1.598802e+001 -1.464546e+001 -2.146242e+000 -8.189681e+000 3.350631e+000 6.989959e+000 -1.128065e+001 -5.831372e+000 -2.991179e+000 6.676545e+001 1.155519e+000 1.081246e+000 9.355938e-001 -2.149555e-001 -6.619905e-001 -1.515261e+000 -1.576529e+000 -1.271608e+000 -1.428877e-001 2.178176e-001 -3.139449e-002 -3.990508e-001 3.969751e-001 5.584226e-001 5.318148e-001 1.251302e-001 -2.172968e-001 -5.733714e-001 -5.781416e-001 -4.320116e-001 -2.656291e-001 1.129319e-001 2.720000e-001 1.623760e-001 4.323053e-002 2.746468e-001
<VARIANCE> 39
 1.550010e+000 8.345672e+000 7.436603e+000 9.396392e+000 1.267506e+001 1.268970e+001 1.276505e+001 1.550126e+001 2.443042e+001 2.368080e+001 2.751993e+001 1.129198e+001 3.485925e+000 6.520952e-001 5.917364e-001 7.328277e-001 5.571783e-001 8.588541e-001 1.490522e+000 1.470959e+000 1.606509e+000 1.077152e+000 2.018762e+000 1.724777e+000 1.258896e+000 1.227499e-001 5.932776e-002 7.430806e-002 9.235673e-002 7.233202e-002 1.298926e-001 1.958278e-001 2.071199e-001 2.323806e-001 2.177122e-001 2.418661e-001 3.390696e-001 2.430841e-001 1.226248e-002
<GCONST> 7.393449e+001
<STATE> 17
<NUMMIXES> 4
<MIXTURE> 1 2.315102e-001
<MEAN> 39
 -8.254516e+000 -9.864737e+000 -3.861506e+000 -2.612568e+001 -2.147416e+001 -8.720553e+000 -3.572776e+000 7.109137e+000 1.291724e+001 -1.012416e+001 -1.712164e+000 -4.872863e-002 7.353013e+001 1.659982e-001 -1.204745e-001 -5.386414e-002 -1.035302e-001 -4.225430e-002 -6.249375e-001 6.334596e-002 3.626300e-001 -4.212424e-001 -1.199086e-001 2.335837e-001 1.444917e-001 1.460972e-002 -2.040047e-001 -1.692176e-001 5.221055e-002 1.494670e-001 1.745649e-001 1.757181e-001 3.286292e-002 -1.779622e-001 -2.486615e-001 -1.026857e-001 7.816374e-002 -2.026303e-002 -1.060576e-001
<VARIANCE> 39
 1.499104e+000 3.221698e+000 1.170115e+001 9.717782e+000 1.209236e+001 3.085009e+001 3.323042e+001 2.110009e+001 1.837585e+001 2.177082e+001 2.722382e+001 2.491380e+001 1.414587e+000 1.617097e-001 2.491094e-001 4.864624e-001 7.489505e-001 3.753790e-001 1.461622e+000 1.398167e+000 1.010017e+000 2.066154e+000 2.328996e+000 2.066540e+000 2.400927e+000 4.576719e-002 4.199409e-002 4.765860e-002 7.889699e-002 1.207463e-001 1.049405e-001 1.643189e-001 1.976823e-001 1.376315e-001 5.152882e-001 6.340334e-001 4.800269e-001 4.778390e-001 1.427893e-002
<GCONST> 7.355785e+001
<MIXTURE> 2 1.266999e-001
<MEAN> 39
 -1.460530e+001 -1.608004e+001 -3.504325e+000 -1.603036e+001 -1.441470e+001 -5.718289e+000 -1.195708e+001 -1.617291e+000 9.063753e+000 -1.001671e+001 -5.041572e+000 -5.833285e+000 6.962052e+001 3.140974e-001 -2.969719e-001 -3.998062e-002 -1.043058e+000 -6.850630e-001 2.185187e-001 -6.269053e-002 4.085386e-001 5.424058e-001 1.635783e-001 7.378633e-001 4.483901e-001 9.779499e-002 -4.251877e-002 -1.280187e-002 6.833420e-002 9.394540e-002 1.757263e-001 -7.527300e-002 1.383995e-001 -2.515437e-002 -1.778351e-001 -8.677679e-002 4.619139e-002 2.220982e-001 -2.573779e-002
<VARIANCE> 39
 1.358321e+000 2.117777e+000 7.261384e-001 8.043922e+000 1.054388e+001 9.152687e+000 7.868988e+000 1.927361e+001 2.244177e+000 1.679929e+001 5.283214e+000 7.408505e+000 4.608136e-001 1.324093e-001 1.911613e-001 1.004288e-001 5.812713e-001 1.412337e+000 1.788236e+000 2.018709e+000 1.594555e+000 5.799655e-001 7.009763e-001 3.793358e-001 1.222822e+000 5.873243e-002 1.041612e-002 1.765243e-002 2.497446e-002 2.042380e-001 3.639450e-001 1.845484e-001 1.148188e-001 1.940954e-001 4.806510e-002 8.699398e-002 1.573929e-001 2.610391e-001 4.286262e-003
<GCONST> 4.718166e+001
<MIXTURE> 3 3.448468e-001
<MEAN> 39
 -7.694920e+000 -4.241847e+000 3.683878e-001 -1.842682e+001 -2.251181e+001 -1.233008e+001 -1.412448e+001 6.041843e-001 8.490314e+000 -9.622214e+000 -4.518720e+000 -2.605790e+000 6.969154e+001 -5.550567e-002 -1.138947e-001 1.250502e-001 1.422668e-001 2.055281e-001 1.830691e-002 3.135214e-001 -1.954049e-001 -5.649687e-002 2.208942e-001 6.734203e-001 7.671894e-001 9.074414e-003 -2.771738e-001 -2.552770e-001 -1.459926e-001 1.278219e-001 1.700966e-001 2.289743e-001 -5.166406e-003 -1.742312e-001 -2.184629e-001 -1.818703e-002 5.010555e-002 1.438132e-001 -1.106724e-001
<VARIANCE> 39
 1.074936e+000 3.535247e+000 6.659415e+000 8.601106e+000 1.228141e+001 1.455829e+001 1.667864e+001 3.912806e+001 2.636450e+001 1.576770e+001 2.544056e+001 1.850137e+001 1.303207e+000 2.683172e-001 2.485612e-001 5.070891e-001 4.696182e-001 8.864584e-001 1.012673e+000 2.062714e+000 1.392422e+000 9.200431e-001 1.200175e+000 9.742013e-001 1.278574e+000 6.224279e-002 4.273556e-002 6.496208e-002 1.041272e-001 5.479852e-002 1.781441e-001 2.204876e-001 2.339478e-001 2.440827e-001 2.536401e-001 3.441019e-001 3.306406e-001 3.466773e-001 1.049901e-002
<GCONST> 6.920890e+001
<MIXTURE> 4 2.969432e-001
<MEAN> 39
 -5.520016e+000 -1.499726e+000 -4.903679e+000 -2.377471e+001 -2.645108e+001 -8.002355e+000 -7.011637e+000 8.718724e+000 9.033881e+000 -5.232741e+000 -6.372485e+000 -2.515222e+000 7.197593e+001 1.210103e-001 -4.912756e-002 1.650817e-001 -2.071271e-002 1.524488e-001 -6.278075e-002 1.859817e-001 1.554935e-001 4.921843e-001 6.995049e-001 8.955409e-001 7.342131e-001 -2.425025e-002 -3.332531e-001 -3.365130e-001 2.772346e-002 3.275685e-001 3.504378e-001 9.185838e-003 -3.802414e-001 -4.755801e-001 -1.911962e-001 -9.773772e-002 1.361641e-001 1.474314e-001 -1.608153e-001
<VARIANCE> 39
 1.702348e+000 8.927886e+000 1.069504e+001 1.381581e+001 1.384311e+001 1.963698e+001 9.794478e+000 2.563564e+001 4.108077e+001 1.514403e+001 2.027647e+001 1.451514e+001 1.736425e+000 4.314597e-001 5.986352e-001 5.624474e-001 8.390338e-001 9.373325e-001 1.073217e+000 2.062560e+000 2.085124e+000 1.559610e+000 9.214600e-001 2.111618e+000 1.219667e+000 1.490870e-001 6.272844e-002 6.853883e-002 7.940779e-002 2.141285e-001 1.888624e-001 2.071692e-001 3.171230e-001 2.505528e-001 3.197632e-001 2.278886e-001 3.170012e-001 2.309442e-001 2.128322e-002
<GCONST> 7.757966e+001
<STATE> 18
<NUMMIXES> 4
<MIXTURE> 1 7.998404e-002
<MEAN> 39
 -8.898852e+000 -1.065727e+001 -1.122364e+001 -3.148751e+001 -1.583920e+001 -5.487237e+000 3.226174e+000 9.602141e+000 1.042952e+001 -2.738518e+000 -3.872857e+000 4.196246e+000 7.307840e+001 -6.806902e-001 -8.684580e-001 -3.852896e-001 7.899921e-001 8.832566e-001 9.456841e-001 -4.200344e-002 -5.650364e-001 2.124490e-001 2.257317e-002 1.795570e-001 -5.948764e-001 -3.589062e-001 -2.202228e-002 -5.511997e-003 5.835435e-003 2.571006e-001 1.666333e-001 1.189058e-001 -1.813883e-001 -2.083360e-001 -1.593417e-001 -3.606580e-001 -1.903643e-001 -1.457720e-001 -4.410106e-002
<VARIANCE> 39
 8.215019e+000 1.923203e+001 3.587104e+001 2.129194e+001 7.239185e+001 2.561332e+001 2.554505e+001 4.104384e+001 2.453923e+001 2.177545e+001 1.681640e+001 6.124016e+001 2.116420e+000 2.207041e-001 2.848196e-001 1.644758e+000 1.953022e+000 1.803694e+000 1.126309e+000 2.689443e+000 1.665988e+000 9.949768e-001 1.420435e+000 1.554864e+000 1.181669e+000 1.658076e-001 3.882783e-002 9.849084e-002 3.225589e-001 2.771885e-001 4.284377e-001 1.773083e-001 4.588574e-001 2.847992e-001 9.905076e-002 1.615420e-001 3.016544e-001 1.192483e-001 1.462375e-002
<GCONST> 8.731358e+001
<MIXTURE> 2 3.040692e-001
<MEAN> 39
 -8.563222e+000 -7.127226e+000 6.259063e-001 -1.865468e+001 -1.965657e+001 -1.286961e+001 -1.502556e+001 -3.315941e+000 6.832683e+000 -9.285167e+000 7.568271e-001 2.436101e+000 7.093421e+001 -2.857046e-001 -4.371409e-001 -1.956894e-001 2.162580e-001 4.388930e-001 4.789212e-001 7.756099e-002 -5.800443e-002 -8.013205e-001 -9.379873e-001 -4.801240e-001 2.266323e-002 -1.590596e-001 -7.558440e-002 -1.407907e-001 -2.311329e-001 -2.076574e-001 -3.723172e-002 3.056942e-001 5.342990e-001 5.167020e-001 3.011312e-001 -7.118027e-002 -4.313366e-001 -5.578950e-001 -3.674720e-002
<VARIANCE> 39
 5.748455e+000 9.886683e+000 7.229633e+000 2.024017e+001 1.918353e+001 1.316401e+001 1.540262e+001 1.888295e+001 2.097672e+001 2.949442e+001 2.546482e+001 2.746137e+001 2.658678e+000 1.679172e-001 2.602046e-001 4.919876e-001 8.215261e-001 6.503391e-001 9.731174e-001 1.988233e+000 2.021545e+000 1.261435e+000 1.236695e+000 1.841144e+000 2.406363e+000 4.960058e-002 2.841926e-002 3.717053e-002 6.130672e-002 1.130132e-001 8.165754e-002 1.138863e-001 2.350605e-001 1.978492e-001 2.272469e-001 3.154369e-001 2.882208e-001 3.470153e-001 9.487865e-003
<GCONST> 7.252296e+001
<MIXTURE> 3 2.431326e-001
<MEAN> 39
 -1.084544e+001 -1.149699e+001 -6.310548e-001 -1.778384e+001 -1.676949e+001 -7.273127e+000 -1.001224e+001 -2.527622e+000 4.888624e+000 -1.599722e+001 -4.698784e+000 -2.403025e+000 6.985737e+001 -5.186174e-001 -4.624955e-001 -2.814379e-001 6.121441e-002 1.523739e-001 4.848260e-001 4.611672e-001 -5.054499e-002 1.404723e-001 2.225313e-001 -1.199889e-001 -3.761308e-001 -2.127810e-001 -3.989811e-002 8.617877e-002 -1.275383e-002 -2.865168e-002 -9.642415e-002 -2.124415e-001 -3.393891e-001 -9.916441e-002 2.575110e-001 5.045390e-001 4.437035e-001 3.377487e-001 4.856534e-003
<VARIANCE> 39
 7.946969e+000 2.067880e+001 6.670136e+000 1.459824e+001 2.322288e+001 2.398176e+001 2.328158e+001 2.260320e+001 1.319240e+001 1.935101e+001 1.310409e+001 2.724293e+001 2.268266e+000 7.797805e-002 1.669201e-001 4.746424e-001 7.961624e-001 9.021740e-001 1.556413e+000 1.967237e+000 2.178335e+000 1.134963e+000 2.642067e+000 1.546865e+000 2.202348e+000 3.547309e-002 2.280931e-002 4.026472e-002 6.186322e-002 1.532802e-001 1.154801e-001 3.183544e-001 2.919891e-001 3.635993e-001 1.658565e-001 4.418915e-001 2.596883e-001 3.714581e-001 4.914982e-003
<GCONST> 7.418525e+001
<MIXTURE> 4 3.728142e-001
<MEAN> 39
 -9.137373e+000 -8.775763e+000 -3.759540e+000 -2.236359e+001 -2.198137e+001 -1.182939e+001 -9.848438e+000 4.035230e+000 1.013538e+001 -7.349236e+000 -1.385250e+000 -1.456841e-001 7.051054e+001 -5.755978e-001 -5.883622e-001 -3.081344e-001 2.183903e-001 3.530821e-001 1.287842e-001 -4.035711e-002 1.591772e-001 2.135656e-001 2.207223e-001 2.710815e-001 3.460575e-001 -2.702697e-001 -1.732192e-001 -1.035158e-001 9.364726e-002 2.263480e-001 2.466858e-001 2.666581e-001 -9.751660e-002 -1.969910e-001 -2.075665e-001 -2.100242e-001 -1.093808e-001 -2.518695e-002 -7.186710e-002
<VARIANCE> 39
 4.224482e+000 1.574796e+001 6.907504e+000 6.774324e+000 1.821114e+001 1.825042e+001 2.275847e+001 2.398173e+001 1.358744e+001 1.763235e+001 2.295042e+001 1.577043e+001 1.871611e+000 1.345689e-001 2.941289e-001 3.232273e-001 3.311465e-001 7.634758e-001 1.032030e+000 1.050687e+000 1.272174e+000 1.479627e+000 1.319794e+000 1.170822e+000 1.599163e+000 5.524321e-002 2.463588e-002 4.288299e-002 4.281800e-002 6.459232e-002 1.533380e-001 1.862892e-001 1.299197e-001 2.047124e-001 1.859027e-001 1.831813e-001 1.973640e-001 2.833214e-001 9.400534e-003
<GCONST> 6.595790e+001
<STATE> 19
<NUMMIXES> 4
<MIXTURE> 1 1.405450e-001
<MEAN> 39
 -1.286536e+001 -1.401479e+001 -7.087206e+000 -2.138735e+001 -1.439573e+001 -1.308454e+000 -1.664631e+000 7.924718e+000 1.339204e+001 -9.877304e+000 -3.386313e+000 -6.330780e+000 6.995902e+001 -1.036010e+000 -8.575414e-001 1.136976e-001 1.132634e+000 1.498116e+000 7.696100e-001 -3.271933e-001 -6.528323e-001 -7.897632e-001 -9.397912e-001 -3.360834e-001 -1.886090e-001 -5.252659e-001 -9.452774e-002 -1.091838e-001 -2.379589e-003 -4.144736e-002 -3.027195e-001 -3.285615e-001 -2.355933e-001 -9.110760e-002 -1.457294e-001 1.492098e-001 1.495981e-001 2.165252e-001 -6.812810e-002
<VARIANCE> 39
 2.675207e+000 9.034229e+000 1.856262e+001 1.472413e+001 1.980628e+001 2.276767e+001 3.402204e+001 2.848339e+001 2.823715e+001 1.586338e+001 7.835405e+000 2.549098e+001 3.870965e+000 3.443864e-001 6.716055e-001 5.215211e-001 6.638262e-001 1.044571e+000 7.269306e-001 6.327680e-001 1.187219e+000 1.330064e+000 1.403287e+000 1.062764e+000 8.596037e-001 9.528010e-002 3.061800e-002 4.347697e-002 1.023434e-001 1.293994e-001 1.248293e-001 6.483226e-002 1.045083e-001 2.043811e-001 2.543823e-001 1.839631e-001 1.859101e-001 1.664622e-001 5.186648e-003
<GCONST> 6.990414e+001
<MIXTURE> 2 4.373523e-001
<MEAN> 39
 -1.234133e+001 -1.056610e+001 -3.599986e+000 -1.948571e+001 -1.926231e+001 -8.882281e+000 -1.019278e+001 2.354030e+000 1.078058e+001 -6.248112e+000 -2.609909e-001 5.352555e-001 6.865850e+001 -1.107427e+000 -1.192217e+000 -1.505654e-001 7.356492e-001 1.110621e+000 1.068970e+000 1.373480e-001 -6.554077e-001 -5.845314e-001 -6.403307e-001 -5.316513e-002 1.733014e-001 -5.641325e-001 -5.491831e-002 -1.012181e-001 6.363618e-002 1.362012e-001 2.273747e-001 2.807103e-001 1.934896e-001 -5.402322e-002 -2.827605e-001 -3.924275e-001 -2.651462e-001 -1.729018e-001 -2.683574e-002
<VARIANCE> 39
 4.797848e+000 1.506134e+001 1.171485e+001 1.022929e+001 2.029111e+001 1.347986e+001 1.166042e+001 2.292246e+001 1.278193e+001 2.205858e+001 1.988489e+001 1.967590e+001 2.437399e+000 1.016022e-001 3.980012e-001 3.430838e-001 3.164306e-001 1.053826e+000 9.552050e-001 9.829877e-001 9.423882e-001 1.118503e+000 1.013886e+000 1.059346e+000 1.160174e+000 6.742942e-002 2.736532e-002 4.212620e-002 4.967899e-002 7.042885e-002 1.010950e-001 1.482976e-001 1.717288e-001 2.447075e-001 1.638762e-001 2.456125e-001 1.147176e-001 1.831688e-001 1.142504e-002
<GCONST> 6.524448e+001
<MIXTURE> 3 2.851882e-001
<MEAN> 39
 -1.192305e+001 -1.046310e+001 -1.818494e+000 -1.778839e+001 -1.925755e+001 -9.234691e+000 -1.493136e+001 -3.383157e+000 3.357904e+000 -1.360429e+001 -4.581965e+000 -6.442615e-001 6.846950e+001 -1.006171e+000 -1.119686e+000 -3.201063e-001 4.230814e-001 9.480159e-001 9.163174e-001 5.423924e-001 -1.053720e-002 -1.356795e-001 -2.005409e-001 -3.761424e-002 4.789837e-002 -4.777060e-001 -6.110302e-002 -7.391950e-002 3.026634e-002 1.592388e-001 3.906394e-001 4.355032e-001 5.577329e-001 3.353151e-001 4.031457e-001 2.239027e-001 1.247447e-001 -1.134769e-001 -3.570265e-002
<VARIANCE> 39
 3.078175e+000 8.808169e+000 9.383849e+000 7.015881e+000 2.791276e+001 1.662690e+001 1.908056e+001 2.757251e+001 1.134756e+001 1.794488e+001 2.384657e+001 1.624806e+001 3.765829e+000 1.832099e-001 4.008654e-001 4.483270e-001 9.216583e-001 9.450092e-001 1.257979e+000 1.620886e+000 1.720189e+000 1.447973e+000 1.603779e+000 1.141128e+000 1.817661e+000 1.055856e-001 2.122121e-002 4.719345e-002 1.031866e-001 7.687085e-002 1.996268e-001 1.367095e-001 1.675455e-001 2.222420e-001 1.645927e-001 2.116354e-001 2.562512e-001 2.662127e-001 9.803943e-003
<GCONST> 7.189704e+001
<MIXTURE> 4 1.369146e-001
<MEAN> 39
 -1.703600e+001 -1.742878e+001 -2.414925e+000 -1.570702e+001 -9.958040e+000 -3.472060e+000 -9.777536e+000 1.567636e+000 7.426883e+000 -9.657502e+000 -6.361598e+000 -1.712462e+000 6.900654e+001 -3.276574e-001 1.432913e-001 1.415486e-001 9.828575e-001 6.268864e-001 7.109994e-001 1.035749e+000 -3.844523e-001 9.842162e-002 3.267999e-001 -6.617548e-001 -8.827425e-001 -1.776115e-001 1.008147e-001 7.078216e-002 -5.777252e-002 -1.445662e-003 -4.830461e-002 -2.446592e-001 -1.372836e-002 1.569729e-001 2.019186e-001 1.847818e-001 9.308711e-002 -2.405005e-001 -5.330306e-004
<VARIANCE> 39
 7.238472e-001 3.155328e+000 6.321329e-001 9.563270e+000 6.818928e+000 9.706282e+000 1.144578e+001 2.498001e+001 8.519969e+000 1.747988e+001 1.640687e+001 1.616153e+001 4.960213e-001 6.565602e-002 1.320991e-001 2.115424e-001 4.876426e-001 3.256102e-001 6.649960e-001 1.961341e-001 1.617244e+000 1.705450e+000 2.792548e+000 1.411611e+000 8.984345e-001 7.393663e-003 6.765959e-003 3.029700e-002 1.846170e-002 7.081675e-002 2.274441e-002 1.612550e-002 9.526712e-002 2.395442e-001 2.684933e-001 2.407524e-001 2.026042e-001 1.732651e-001 9.269014e-004
<GCONST> 4.133206e+001
<STATE> 20
<NUMMIXES> 4
<MIXTURE> 1 4.347195e-001
<MEAN> 39
 -1.791733e+001 -1.787257e+001 -3.209005e+000 -1.359698e+001 -7.821671e+000 2.667579e-002 -6.237531e+000 -1.055153e+000 8.711713e+000 -1.298005e+001 -4.192978e+000 -2.669193e+000 6.696180e+001 -1.583951e-001 -9.639992e-002 1.390831e-002 2.378881e-001 3.561696e-001 1.326643e-001 -4.222270e-002 8.722717e-002 1.554055e-001 -5.719129e-002 3.964699e-002 1.263180e-001 -6.800647e-002 4.788671e-002 2.047114e-002 7.099039e-003 -5.970816e-002 -9.598310e-002 -6.435078e-002 -1.858540e-002 8.606592e-002 1.154749e-002 2.066493e-002 1.658681e-002 2.657584e-002 2.428552e-002
<VARIANCE> 39
 3.511973e+000 7.069208e+000 6.302480e+000 1.186852e+001 1.409120e+001 1.428358e+001 1.457661e+001 1.758725e+001 1.574152e+001 1.719089e+001 1.511508e+001 2.260137e+001 3.531774e+000 1.211363e-001 2.589884e-001 4.305382e-001 6.908011e-001 6.309792e-001 6.241099e-001 7.971357e-001 1.137535e+000 1.244931e+000 1.323104e+000 1.036024e+000 1.320231e+000 3.920768e-002 2.030439e-002 5.129972e-002 6.185252e-002 1.119805e-001 1.142825e-001 1.479703e-001 1.741753e-001 1.963047e-001 2.269057e-001 2.987598e-001 2.033813e-001 2.182457e-001 9.179238e-003
<GCONST> 6.482859e+001
<MIXTURE> 2 6.198224e-002
<MEAN> 39
 -1.494241e+001 -1.528293e+001 -1.130400e+000 -1.586514e+001 -1.536679e+001 -6.174289e+000 -7.134402e+000 3.807015e+000 6.610249e+000 -7.337904e+000 6.794784e+000 -3.286609e-001 6.800960e+001 -8.744411e-001 -1.057326e+000 -5.853222e-001 -2.594841e-002 9.237062e-001 7.980315e-001 3.217633e-001 -6.164993e-002 -3.000642e-001 -1.214730e+000 -4.146876e-001 9.290049e-002 -2.886867e-001 4.639403e-002 2.065853e-001 -6.901846e-002 -1.413816e-001 7.233645e-004 -5.209258e-002 1.652788e-002 -5.206093e-002 1.742689e-001 4.942740e-002 -2.759520e-001 4.228406e-003 1.672741e-002
<VARIANCE> 39
 1.794406e+000 8.831233e+000 4.618299e+000 4.090230e+000 8.024868e+000 2.384511e+001 3.173715e+000 6.145555e+000 1.728652e+001 3.535438e+000 6.709938e+000 1.196129e+001 6.965979e+000 7.209761e-002 1.548257e-001 1.461835e-001 1.421131e-001 3.913054e-001 3.554899e-001 4.415076e-001 7.105068e-001 3.934374e-001 2.828965e-001 3.344420e-001 8.138978e-001 3.014345e-002 9.882107e-003 1.729630e-002 2.048665e-002 1.300332e-002 1.572176e-001 9.337094e-002 1.060218e-001 1.287793e-001 8.198261e-002 2.809263e-002 3.281542e-002 1.586234e-001 6.327570e-004
<GCONST> 3.342615e+001
<MIXTURE> 3 2.322289e-001
<MEAN> 39
 -1.562833e+001 -1.418536e+001 -4.062363e+000 -1.511905e+001 -1.331544e+001 -3.614228e+000 -1.013811e+001 -1.706046e+000 4.438256e+000 -1.135931e+001 -3.738360e+000 5.094713e-001 6.643919e+001 -9.538236e-001 -1.064386e+000 1.172895e-001 7.444904e-001 1.522104e+000 1.582155e+000 1.094015e+000 2.270831e-001 3.964504e-001 9.272324e-002 1.787888e-001 -3.086886e-001 -5.382861e-001 1.265077e-001 1.529491e-001 3.016745e-002 -1.991595e-001 -3.020578e-001 -1.458512e-001 7.504623e-002 2.737273e-001 3.329182e-001 1.639891e-001 8.235227e-002 -4.058655e-002 7.276313e-002
<VARIANCE> 39
 3.305410e+000 5.731597e+000 8.179821e+000 5.969303e+000 2.234506e+001 2.478130e+001 2.170990e+001 2.761800e+001 1.788793e+001 1.514235e+001 2.656902e+001 1.517011e+001 3.790485e+000 2.131120e-001 2.582943e-001 5.740967e-001 9.478753e-001 1.460770e+000 1.430534e+000 1.806567e+000 2.052448e+000 1.690829e+000 1.382834e+000 1.135108e+000 1.280289e+000 7.027092e-002 2.693273e-002 4.334674e-002 7.186608e-002 9.136720e-002 1.901721e-001 1.816882e-001 1.912809e-001 2.332465e-001 2.087166e-001 2.044572e-001 2.405027e-001 1.931510e-001 9.920077e-003
<GCONST> 7.216997e+001
<MIXTURE> 4 2.710693e-001
<MEAN> 39
 -1.729976e+001 -1.611718e+001 -3.630017e+000 -1.589494e+001 -1.326169e+001 -1.681405e+000 -5.127847e+000 3.195481e+000 1.058827e+001 -1.097510e+001 -3.457097e+000 -1.891495e+000 6.600386e+001 -7.464448e-001 -6.567590e-001 -1.005660e-001 4.327009e-001 8.703561e-001 8.729411e-001 3.057705e-001 -1.653919e-001 -2.443969e-001 -5.747748e-001 -2.198173e-001 -7.750248e-002 -3.710450e-001 1.395972e-001 2.148388e-001 -3.289632e-002 -1.202136e-001 -1.290275e-001 -2.423326e-001 -3.820490e-001 -3.401473e-001 -2.588505e-001 -4.164414e-002 2.024459e-002 1.602970e-001 8.529833e-002
<VARIANCE> 39
 3.907447e+000 5.629159e+000 9.442070e+000 8.805201e+000 1.410084e+001 1.616442e+001 1.672209e+001 1.549723e+001 1.237347e+001 2.068408e+001 1.204935e+001 1.811796e+001 5.409458e+000 1.412973e-001 3.053801e-001 3.353290e-001 6.648431e-001 1.003607e+000 1.119780e+000 1.571732e+000 1.631056e+000 1.437092e+000 1.179404e+000 1.462132e+000 1.333263e+000 4.013593e-002 3.271886e-002 4.742192e-002 6.162401e-002 1.251327e-001 1.566689e-001 2.160515e-001 2.146197e-001 2.322688e-001 2.680324e-001 2.184924e-001 1.514328e-001 2.066909e-001 6.914449e-003
<GCONST> 6.819376e+001
<TRANSP> 21
 0.000000e+000 1.000000e+000 0.000000e+000 0.000000e+000 0.000000e+000 0.000000e+000 0.000000e+000 0.000000e+000 0.000000e+000 0.000000e+000 0.000000e+000 0.000000e+000 0.000000e+000 0.000000e+000 0.000000e+000 0.000000e+000 0.000000e+000 0.000000e+000 0.000000e+000 0.000000e+000 0.000000e+000
 0.000000e+000 8.247221e-001 1.752779e-001 0.000000e+000 0.000000e+000 0.000000e+000 0.000000e+000 0.000000e+000 0.000000e+000 0.000000e+000 0.000000e+000 0.000000e+000 0.000000e+000 0.000000e+000 0.000000e+000 0.000000e+000 0.000000e+000 0.000000e+000 0.000000e+000 0.000000e+000 0.000000e+000
 0.000000e+000 0.000000e+000 6.916083e-001 3.083917e-001 0.000000e+000 0.000000e+000 0.000000e+000 0.000000e+000 0.000000e+000 0.000000e+000 0.000000e+000 0.000000e+000 0.000000e+000 0.000000e+000 0.000000e+000 0.000000e+000 0.000000e+000 0.000000e+000 0.000000e+000 0.000000e+000 0.000000e+000
 0.000000e+000 0.000000e+000 0.000000e+000 7.963230e-001 2.036770e-001 0.000000e+000 0.000000e+000 0.000000e+000 0.000000e+000 0.000000e+000 0.000000e+000 0.000000e+000 0.000000e+000 0.000000e+000 0.000000e+000 0.000000e+000 0.000000e+000 0.000000e+000 0.000000e+000 0.000000e+000 0.000000e+000
 0.000000e+000 0.000000e+000 0.000000e+000 0.000000e+000 8.414382e-001 1.585618e-001 0.000000e+000 0.000000e+000 0.000000e+000 0.000000e+000 0.000000e+000 0.000000e+000 0.000000e+000 0.000000e+000 0.000000e+000 0.000000e+000 0.000000e+000 0.000000e+000 0.000000e+000 0.000000e+000 0.000000e+000
 0.000000e+000 0.000000e+000 0.000000e+000 0.000000e+000 0.000000e+000 8.425189e-001 1.574811e-001 0.000000e+000 0.000000e+000 0.000000e+000 0.000000e+000 0.000000e+000 0.000000e+000 0.000000e+000 0.000000e+000 0.000000e+000 0.000000e+000 0.000000e+000 0.000000e+000 0.000000e+000 0.000000e+000
 0.000000e+000 0.000000e+000 0.000000e+000 0.000000e+000 0.000000e+000 0.000000e+000 7.603567e-001 2.396434e-001 0.000000e+000 0.000000e+000 0.000000e+000 0.000000e+000 0.000000e+000 0.000000e+000 0.000000e+000 0.000000e+000 0.000000e+000 0.000000e+000 0.000000e+000 0.000000e+000 0.000000e+000
 0.000000e+000 0.000000e+000 0.000000e+000 0.000000e+000 0.000000e+000 0.000000e+000 0.000000e+000 7.267222e-001 2.732778e-001 0.000000e+000 0.000000e+000 0.000000e+000 0.000000e+000 0.000000e+000 0.000000e+000 0.000000e+000 0.000000e+000 0.000000e+000 0.000000e+000 0.000000e+000 0.000000e+000
 0.000000e+000 0.000000e+000 0.000000e+000 0.000000e+000 0.000000e+000 0.000000e+000 0.000000e+000 0.000000e+000 7.185866e-001 2.814135e-001 0.000000e+000 0.000000e+000 0.000000e+000 0.000000e+000 0.000000e+000 0.000000e+000 0.000000e+000 0.000000e+000 0.000000e+000 0.000000e+000 0.000000e+000
 0.000000e+000 0.000000e+000 0.000000e+000 0.000000e+000 0.000000e+000 0.000000e+000 0.000000e+000 0.000000e+000 0.000000e+000 7.663822e-001 2.336178e-001 0.000000e+000 0.000000e+000 0.000000e+000 0.000000e+000 0.000000e+000 0.000000e+000 0.000000e+000 0.000000e+000 0.000000e+000 0.000000e+000
 0.000000e+000 0.000000e+000 0.000000e+000 0.000000e+000 0.000000e+000 0.000000e+000 0.000000e+000 0.000000e+000 0.000000e+000 0.000000e+000 8.222225e-001 1.777775e-001 0.000000e+000 0.000000e+000 0.000000e+000 0.000000e+000 0.000000e+000 0.000000e+000 0.000000e+000 0.000000e+000 0.000000e+000
 0.000000e+000 0.000000e+000 0.000000e+000 0.000000e+000 0.000000e+000 0.000000e+000 0.000000e+000 0.000000e+000 0.000000e+000 0.000000e+000 0.000000e+000 8.297772e-001 1.702228e-001 0.000000e+000 0.000000e+000 0.000000e+000 0.000000e+000 0.000000e+000 0.000000e+000 0.000000e+000 0.000000e+000
 0.000000e+000 0.000000e+000 0.000000e+000 0.000000e+000 0.000000e+000 0.000000e+000 0.000000e+000 0.000000e+000 0.000000e+000 0.000000e+000 0.000000e+000 0.000000e+000 7.334709e-001 2.665291e-001 0.000000e+000 0.000000e+000 0.000000e+000 0.000000e+000 0.000000e+000 0.000000e+000 0.000000e+000
 0.000000e+000 0.000000e+000 0.000000e+000 0.000000e+000 0.000000e+000 0.000000e+000 0.000000e+000 0.000000e+000 0.000000e+000 0.000000e+000 0.000000e+000 0.000000e+000 0.000000e+000 7.681993e-001 2.318007e-001 0.000000e+000 0.000000e+000 0.000000e+000 0.000000e+000 0.000000e+000 0.000000e+000
 0.000000e+000 0.000000e+000 0.000000e+000 0.000000e+000 0.000000e+000 0.000000e+000 0.000000e+000 0.000000e+000 0.000000e+000 0.000000e+000 0.000000e+000 0.000000e+000 0.000000e+000 0.000000e+000 8.391420e-001 1.608580e-001 0.000000e+000 0.000000e+000 0.000000e+000 0.000000e+000 0.000000e+000
 0.000000e+000 0.000000e+000 0.000000e+000 0.000000e+000 0.000000e+000 0.000000e+000 0.000000e+000 0.000000e+000 0.000000e+000 0.000000e+000 0.000000e+000 0.000000e+000 0.000000e+000 0.000000e+000 0.000000e+000 7.512725e-001 2.487275e-001 0.000000e+000 0.000000e+000 0.000000e+000 0.000000e+000
 0.000000e+000 0.000000e+000 0.000000e+000 0.000000e+000 0.000000e+000 0.000000e+000 0.000000e+000 0.000000e+000 0.000000e+000 0.000000e+000 0.000000e+000 0.000000e+000 0.000000e+000 0.000000e+000 0.000000e+000 0.000000e+000 7.695207e-001 2.304793e-001 0.000000e+000 0.000000e+000 0.000000e+000
 0.000000e+000 0.000000e+000 0.000000e+000 0.000000e+000 0.000000e+000 0.000000e+000 0.000000e+000 0.000000e+000 0.000000e+000 0.000000e+000 0.000000e+000 0.000000e+000 0.000000e+000 0.000000e+000 0.000000e+000 0.000000e+000 0.000000e+000 8.155482e-001 1.844518e-001 0.000000e+000 0.000000e+000
 0.000000e+000 0.000000e+000 0.000000e+000 0.000000e+000 0.000000e+000 0.000000e+000 0.000000e+000 0.000000e+000 0.000000e+000 0.000000e+000 0.000000e+000 0.000000e+000 0.000000e+000 0.000000e+000 0.000000e+000 0.000000e+000 0.000000e+000 0.000000e+000 7.347509e-001 2.652491e-001 0.000000e+000
 0.000000e+000 0.000000e+000 0.000000e+000 0.000000e+000 0.000000e+000 0.000000e+000 0.000000e+000 0.000000e+000 0.000000e+000 0.000000e+000 0.000000e+000 0.000000e+000 0.000000e+000 0.000000e+000 0.000000e+000 0.000000e+000 0.000000e+000 0.000000e+000 0.000000e+000 8.370555e-001 1.629445e-001
 0.000000e+000 0.000000e+000 0.000000e+000 0.000000e+000 0.000000e+000 0.000000e+000 0.000000e+000 0.000000e+000 0.000000e+000 0.000000e+000 0.000000e+000 0.000000e+000 0.000000e+000 0.000000e+000 0.000000e+000 0.000000e+000 0.000000e+000 0.000000e+000 0.000000e+000 0.000000e+000 0.000000e+000
<ENDHMM>
