~o
<STREAMINFO> 1 39
<VECSIZE> 39<NULLD><MFCC_D_A_0><DIAGC>
~h "dingwei_neck"
<BEGINHMM>
<NUMSTATES> 15
<STATE> 2
<NUMMIXES> 4
<MIXTURE> 1 3.551002e-001
<MEAN> 39
 -1.872140e+001 -2.379090e+001 -7.099174e+000 -4.956328e+000 -4.973945e+000 -2.272700e+000 -5.057363e+000 7.511309e+000 5.354920e+000 -8.071352e+000 -1.075363e+001 7.615860e-001 7.563029e+001 2.365506e-001 9.515699e-001 1.121049e-001 -8.923983e-003 -1.108250e+000 -9.881486e-001 -1.182745e+000 -9.556137e-001 -1.067850e+000 1.826908e-001 -3.839762e-001 2.306878e-001 5.866968e-001 2.192980e-001 3.165965e-001 2.191041e-001 -3.463971e-002 -4.066690e-001 -4.998854e-001 -3.773470e-001 -3.301266e-001 -3.333349e-001 6.024512e-002 -5.365774e-002 -4.921816e-002 1.802660e-001
<VARIANCE> 39
 2.361132e+000 1.183184e+001 6.776940e+000 1.812710e+001 2.584856e+001 1.192372e+001 2.605730e+001 1.994136e+001 2.394972e+001 2.196482e+001 3.224012e+001 2.865362e+001 5.857201e+000 4.348975e-001 9.935707e-001 6.083049e-001 6.584866e-001 1.734449e+000 2.406585e+000 2.801577e+000 2.455392e+000 2.182468e+000 1.809730e+000 1.042949e+000 1.395516e+000 2.239494e-001 6.184680e-002 1.340529e-001 1.880293e-001 1.637653e-001 3.039182e-001 3.690442e-001 3.636228e-001 4.638076e-001 3.073997e-001 3.011146e-001 3.140330e-001 2.755132e-001 2.524873e-002
<GCONST> 8.777245e+001
<MIXTURE> 2 2.622361e-001
<MEAN> 39
 -1.651297e+001 -1.985450e+001 -2.523281e+000 -9.249315e+000 -6.949903e+000 -8.032379e+000 -1.373819e+001 -1.684910e+000 1.233737e+001 -2.659430e+000 -1.061630e+001 -3.802846e+000 7.661192e+001 5.174771e-001 8.657060e-001 5.579916e-001 -1.343152e-001 -9.389812e-001 -9.285331e-001 -1.464209e+000 -1.382765e+000 -1.346726e+000 -2.944362e-001 -9.035292e-001 -2.846235e-001 5.134724e-001 1.450527e-001 1.830952e-001 1.695077e-001 -5.960539e-002 -2.828438e-001 -3.084806e-001 -3.125741e-001 -2.231237e-001 -1.809634e-001 8.935603e-002 -4.722260e-002 -9.131827e-002 1.201449e-001
<VARIANCE> 39
 1.024676e+000 5.108825e+000 8.047260e+000 1.838449e+001 1.838537e+001 1.107834e+001 2.163691e+001 2.029716e+001 2.511103e+001 2.708060e+001 2.020109e+001 2.230573e+001 7.144298e+000 3.006779e-001 5.130571e-001 5.712458e-001 8.359834e-001 1.093517e+000 1.536063e+000 2.166030e+000 2.369066e+000 2.509502e+000 1.598098e+000 1.122149e+000 1.199182e+000 1.438862e-001 3.810415e-002 4.592612e-002 8.649514e-002 1.477758e-001 2.156331e-001 1.748970e-001 3.367965e-001 3.733428e-001 3.817905e-001 3.264115e-001 2.268942e-001 1.821232e-001 9.546134e-003
<GCONST> 7.764314e+001
<MIXTURE> 3 1.661433e-001
<MEAN> 39
 -1.590202e+001 -1.632174e+001 -4.776656e+000 -6.970861e+000 -1.284910e+001 -1.080269e+001 -1.738508e+001 -9.332379e-001 -1.478099e+000 -6.958816e+000 -1.350415e+001 2.083022e+000 7.839815e+001 1.091320e+000 1.980906e+000 1.800751e+000 -6.800176e-001 -2.207186e+000 -2.759363e+000 -2.619245e+000 -1.852264e+000 -2.885699e+000 2.305350e-001 -1.674315e+000 1.132727e-001 1.347718e+000 -1.800117e-001 -3.551616e-001 1.914871e-001 -1.746958e-001 3.573779e-001 4.847688e-001 6.544414e-001 5.810778e-001 2.825333e-001 2.948919e-001 -5.645858e-002 -2.598581e-001 -4.838648e-002
<VARIANCE> 39
 3.735619e+000 2.319202e+001 1.276836e+001 2.238945e+001 5.811079e+001 2.787536e+001 5.679181e+001 3.152537e+001 7.178775e+001 3.377928e+001 3.112137e+001 3.198894e+001 4.205385e+000 4.508249e-001 4.822765e-001 1.003766e+000 1.937421e+000 3.320348e+000 2.087574e+000 3.668661e+000 2.812297e+000 2.506400e+000 3.404907e+000 4.255548e+000 2.323309e+000 1.859125e-001 7.838592e-002 1.319373e-001 1.780555e-001 2.053773e-001 4.310223e-001 4.160239e-001 6.008622e-001 4.499711e-001 4.723432e-001 3.142211e-001 5.306044e-001 2.197848e-001 3.404287e-002
<GCONST> 1.006265e+002
<MIXTURE> 4 2.165205e-001
<MEAN> 39
 -1.339569e+001 -1.661167e+001 5.155688e-001 -7.870987e+000 -8.925535e+000 -1.402109e+001 -2.113770e+001 -8.565217e+000 4.699829e+000 -5.082350e+000 -1.512654e+001 -6.607666e+000 7.900478e+001 9.192182e-001 8.808637e-001 1.028178e+000 -4.223770e-001 -1.183529e+000 -1.383967e+000 -1.356670e+000 -1.033324e+000 -1.167452e+000 -1.160414e-002 -5.849912e-001 -7.691462e-001 6.450652e-001 -1.826970e-001 -2.196691e-001 -2.347636e-001 -1.796664e-001 1.506210e-002 3.163428e-001 6.593574e-001 7.963483e-001 6.647459e-001 4.631985e-001 4.087356e-001 1.554955e-001 -8.842059e-002
<VARIANCE> 39
 2.533777e+000 9.907736e+000 7.406223e+000 2.245462e+001 2.074064e+001 9.570210e+000 1.890395e+001 3.481600e+001 7.256081e+001 5.013607e+001 3.059034e+001 2.600504e+001 4.839668e+000 1.418320e-001 1.882945e-001 5.043575e-001 9.173157e-001 1.812897e+000 7.444934e-001 2.464318e+000 2.609040e+000 2.164830e+000 1.764717e+000 1.481910e+000 1.422669e+000 7.133251e-002 3.130333e-002 5.348798e-002 7.528321e-002 9.010455e-002 1.636805e-001 1.554095e-001 4.073728e-001 3.264423e-001 3.658895e-001 2.257573e-001 1.987233e-001 1.535690e-001 1.106399e-002
<GCONST> 7.790028e+001
<STATE> 3
<NUMMIXES> 4
<MIXTURE> 1 1.612210e-001
<MEAN> 39
 -1.503464e+001 -1.723530e+001 -2.268618e+000 -2.593387e+000 -1.773799e+001 -1.235058e+001 -1.133249e+001 -1.296645e+000 3.596846e-001 -3.471875e+000 -2.092786e+000 2.429446e+000 8.065601e+001 3.954398e-001 4.936618e-001 3.818495e-001 -2.395577e-002 -2.276209e+000 -1.311720e+000 -8.482282e-001 4.095670e-001 -2.003276e-001 1.496521e+000 1.348683e+000 -2.230696e-001 6.675339e-001 -1.430365e-001 -3.757776e-001 -4.475767e-001 -2.074026e-001 5.673763e-001 2.983559e-001 1.970628e-001 5.603235e-001 5.300744e-001 -1.415457e-001 -2.988413e-001 -4.997794e-002 -2.011339e-001
<VARIANCE> 39
 2.031659e+000 7.757226e+000 4.313302e+000 1.888651e+001 4.128399e+001 1.692389e+001 4.315556e+001 3.645407e+001 1.315139e+001 3.534076e+001 4.555431e+001 4.418889e+001 2.562508e+000 2.342371e-001 3.483327e-001 6.611049e-001 1.365040e+000 1.338081e+000 9.986212e-001 2.263031e+000 1.336454e+000 2.521950e+000 1.291210e+000 1.434515e+000 1.058433e+000 1.421814e-001 3.635646e-002 7.855113e-002 7.897988e-002 1.858227e-001 2.787068e-001 1.572769e-001 4.295120e-001 2.420313e-001 1.299580e-001 2.870770e-001 2.833023e-001 2.202937e-001 3.864025e-002
<GCONST> 8.108322e+001
<MIXTURE> 2 5.318505e-001
<MEAN> 39
 -1.235972e+001 -1.583093e+001 2.977499e+000 -7.833364e+000 -1.129708e+001 -1.499275e+001 -2.192946e+001 -7.913135e+000 6.857403e+000 -1.254317e+000 -1.366862e+001 -6.070173e+000 8.093052e+001 2.284441e-001 9.333983e-002 -9.823558e-002 -4.062955e-001 -6.768445e-001 -2.981124e-001 1.209095e-001 4.607585e-001 6.547833e-001 5.830577e-001 1.763966e-001 -5.616705e-002 1.893911e-001 -7.532903e-002 -1.404571e-001 -1.982339e-001 -1.141990e-002 1.281299e-001 1.924780e-001 2.328429e-001 1.822094e-001 2.628711e-001 3.216374e-002 4.589041e-002 8.025409e-003 -6.122415e-002
<VARIANCE> 39
 3.404257e+000 1.006310e+001 7.164702e+000 3.928669e+001 1.676224e+001 1.225601e+001 1.521273e+001 2.091497e+001 3.357222e+001 3.989262e+001 2.760148e+001 2.737027e+001 4.191067e+000 1.366910e-001 2.266229e-001 5.672908e-001 6.648574e-001 6.804079e-001 8.311194e-001 1.099573e+000 1.180170e+000 1.822708e+000 1.059120e+000 1.431770e+000 1.124904e+000 5.020033e-002 2.553610e-002 4.350535e-002 7.969167e-002 1.037751e-001 1.830771e-001 1.368586e-001 2.339374e-001 2.541111e-001 3.769930e-001 2.625627e-001 3.001350e-001 2.361853e-001 7.567357e-003
<GCONST> 7.263234e+001
<MIXTURE> 3 1.213215e-001
<MEAN> 39
 -1.706699e+001 -1.145834e+001 2.048194e+000 -1.643724e+001 -1.616042e+001 -1.139818e+001 -2.687991e+001 -1.716368e+000 -5.082552e+000 1.627977e+000 -2.150917e+001 3.698920e+000 8.189555e+001 -4.050015e-001 -6.891315e-002 8.144406e-001 -1.115301e+000 4.310829e-001 6.692978e-001 1.108890e+000 9.449403e-001 -9.255539e-001 5.202043e-001 -1.703272e+000 -1.472163e-001 6.149936e-001 8.519840e-004 -4.059171e-001 -5.658287e-001 1.138422e-001 4.351065e-001 3.518346e-001 1.101067e+000 7.080067e-001 7.998552e-001 -2.263981e-001 5.746242e-001 -5.261130e-001 -2.725515e-001
<VARIANCE> 39
 3.879649e+000 4.531761e+000 1.442771e+001 2.739861e+001 4.621748e+001 1.400958e+001 3.464348e+001 2.164883e+001 1.054016e+002 3.132115e+001 2.730692e+001 3.505917e+001 3.608930e+000 2.398556e-001 8.543513e-001 1.760104e+000 1.816428e+000 9.206373e-001 1.400938e+000 3.566597e+000 1.689484e+000 1.842734e+000 1.856736e+000 5.027649e+000 2.386832e+000 2.378025e-001 1.175281e-001 1.167842e-001 2.218537e-001 3.574714e-001 3.978219e-001 7.072244e-001 5.206511e-001 2.810510e-001 3.818752e-001 3.496487e-001 5.913713e-001 4.647488e-001 3.204701e-002
<GCONST> 9.701420e+001
<MIXTURE> 4 1.856070e-001
<MEAN> 39
 -1.748908e+001 -1.963820e+001 -3.659027e+000 -1.185014e+001 -4.403231e+000 -1.769236e+001 -1.009857e+001 1.762756e+000 1.685866e-001 -4.739140e+000 -2.048450e+001 5.341679e+000 8.136281e+001 4.980452e-002 1.663904e-001 4.904392e-002 -3.589884e-001 -2.801224e-001 -3.707822e-001 4.811317e-002 4.981523e-001 5.620803e-001 4.077159e-001 -2.647791e-001 -5.497102e-001 1.549440e-001 3.230784e-002 -1.206005e-001 -1.139703e-001 1.809665e-001 -3.922050e-002 2.694362e-001 3.886212e-003 2.330040e-001 4.124615e-001 9.127769e-002 3.542908e-001 -1.053795e-001 -1.035427e-001
<VARIANCE> 39
 2.240395e+000 2.986755e+000 5.359085e+000 1.451108e+001 1.207609e+001 1.195257e+001 9.177115e+000 1.243014e+001 2.255106e+001 1.077003e+001 8.422279e+000 1.199728e+001 2.129186e+000 1.710243e-001 2.671057e-001 4.100368e-001 9.575206e-001 6.628202e-001 8.353963e-001 1.448394e+000 1.370788e+000 2.432043e+000 1.047210e+000 1.323041e+000 9.661888e-001 1.011803e-001 4.300488e-002 8.436508e-002 5.726006e-002 1.606839e-001 1.236302e-001 2.487889e-001 3.103357e-001 1.920029e-001 4.138688e-001 2.258563e-001 2.135226e-001 1.744997e-001 1.999871e-002
<GCONST> 6.728645e+001
<STATE> 4
<NUMMIXES> 4
<MIXTURE> 1 3.110884e-001
<MEAN> 39
 -1.101164e+001 -1.640613e+001 -1.079881e+000 -1.312721e+001 -1.439829e+001 -1.525678e+001 -1.700830e+001 -1.760209e+000 1.231851e+001 1.854479e+000 -1.304492e+001 -8.328533e+000 8.051488e+001 1.931839e-002 -3.758474e-001 -5.350458e-001 -5.149044e-002 4.667438e-001 7.448048e-001 8.077462e-001 9.953591e-001 1.128170e+000 4.056128e-001 2.946870e-001 -1.430830e-001 4.101891e-002 -1.365615e-001 -6.843377e-002 6.065899e-002 3.166473e-001 3.769251e-001 2.483321e-001 -1.440720e-001 -2.128259e-001 -2.574943e-001 -3.940067e-001 -9.338563e-002 9.916601e-002 -7.440235e-002
<VARIANCE> 39
 3.265957e+000 8.812842e+000 5.260941e+000 1.972556e+001 1.736071e+001 1.978715e+001 2.620444e+001 2.774361e+001 6.612576e+001 2.795516e+001 2.064871e+001 2.828308e+001 4.134757e+000 1.140078e-001 2.675469e-001 4.045360e-001 6.606343e-001 1.625775e+000 1.959971e+000 2.586850e+000 3.223968e+000 3.495714e+000 2.946442e+000 2.614438e+000 2.604542e+000 6.783008e-002 1.702228e-002 4.742945e-002 5.166638e-002 8.459038e-002 2.923909e-001 3.711586e-001 3.249887e-001 4.126162e-001 6.941025e-001 5.376896e-001 4.249148e-001 3.989927e-001 5.941376e-003
<GCONST> 8.277830e+001
<MIXTURE> 2 2.966779e-001
<MEAN> 39
 -1.381070e+001 -1.575447e+001 -3.345390e+000 -3.017678e+000 -2.181756e+001 -1.305206e+001 -1.556225e+001 -2.354679e-001 6.642441e-001 -3.122116e+000 -5.426332e+000 4.763116e-001 8.075472e+001 2.430204e-001 -8.303796e-002 -4.379994e-001 -4.385899e-001 5.682880e-001 -3.359565e-001 -3.386620e-001 3.577047e-001 6.195382e-001 -1.207487e-001 1.226585e-001 1.663635e-001 -1.323010e-001 -4.261700e-002 -1.457109e-001 -3.687514e-002 2.336876e-002 4.698117e-001 1.174598e-001 1.904075e-001 -1.278534e-002 1.350301e-001 -1.791168e-001 -9.715191e-002 -6.242644e-002 -8.888344e-002
<VARIANCE> 39
 2.042631e+000 5.706035e+000 8.078568e+000 1.596992e+001 2.566819e+001 1.549034e+001 2.983763e+001 2.925957e+001 2.268875e+001 2.709511e+001 3.641143e+001 2.196115e+001 3.476756e+000 9.846713e-002 5.597392e-001 5.261483e-001 7.760270e-001 1.318983e+000 6.871045e-001 1.449888e+000 1.182629e+000 1.360941e+000 2.046555e+000 1.957124e+000 9.299116e-001 1.174005e-001 2.188319e-002 8.944219e-002 1.181023e-001 1.566575e-001 1.678121e-001 1.417035e-001 2.701124e-001 1.622083e-001 2.087345e-001 3.900862e-001 3.806972e-001 2.209045e-001 1.411440e-002
<GCONST> 7.589233e+001
<MIXTURE> 3 1.806840e-001
<MEAN> 39
 -1.452448e+001 -1.726571e+001 -4.923186e+000 -1.443015e+001 -8.530394e+000 -1.555024e+001 -1.096588e+001 1.257835e+001 4.935954e+000 8.208882e-001 -1.938381e+001 -1.610854e+000 8.240878e+001 5.449506e-001 -2.401164e-001 -5.831158e-001 7.341703e-001 5.416202e-002 5.790396e-001 -2.547250e-002 3.859039e-001 7.547909e-001 2.099683e-001 1.331669e+000 2.664461e-001 -5.097919e-002 -8.148029e-002 -1.155197e-001 -2.441141e-002 8.281904e-002 -4.564683e-002 2.403541e-001 -3.887897e-001 -6.388354e-001 -2.389880e-001 -1.374788e-001 9.574908e-002 2.932285e-001 -4.433981e-002
<VARIANCE> 39
 3.481135e+000 6.786529e+000 1.243581e+001 1.821923e+001 2.157761e+001 2.009701e+001 1.283241e+001 2.408668e+001 5.242816e+001 1.373263e+001 2.281349e+001 1.429581e+001 2.917313e+000 1.509248e-001 4.660391e-001 4.283378e-001 4.286247e-001 1.999464e+000 1.488516e+000 1.724713e+000 2.786160e+000 3.259439e+000 1.949037e+000 1.768849e+000 1.657951e+000 6.913070e-002 1.340610e-002 6.716495e-002 1.000463e-001 9.812983e-002 2.404497e-001 3.026896e-001 3.042848e-001 2.330458e-001 3.693685e-001 2.536920e-001 2.810044e-001 3.645149e-001 6.417775e-003
<GCONST> 7.747187e+001
<MIXTURE> 4 2.115498e-001
<MEAN> 39
 -1.449037e+001 -1.336514e+001 -6.004347e-001 -1.560047e+001 -1.586206e+001 -1.175823e+001 -1.715307e+001 4.197781e+000 -7.672863e+000 -1.908795e+000 -2.527692e+001 -5.848826e+000 8.159972e+001 5.630707e-001 -3.170613e-001 -7.479767e-001 -5.556620e-001 -3.063464e-002 -2.900708e-001 1.214064e+000 1.328284e+000 1.266012e+000 2.050914e-001 -2.848936e-002 -9.147328e-001 3.891445e-002 1.234642e-001 2.766119e-002 -1.672671e-001 2.969631e-001 1.224643e-001 -1.921185e-001 -2.501341e-001 -1.733917e-001 1.617359e-001 -1.680095e-001 4.408853e-001 3.579054e-001 -6.906927e-002
<VARIANCE> 39
 8.173082e+000 1.103367e+001 1.641450e+001 4.132393e+001 2.137684e+001 2.706479e+001 2.084149e+001 2.649108e+001 5.733560e+001 2.536874e+001 1.299905e+001 4.473804e+001 3.983015e+000 3.209050e-001 3.536094e-001 7.403607e-001 9.466802e-001 1.033280e+000 1.428133e+000 2.373139e+000 1.926888e+000 1.194906e+000 1.360505e+000 1.264801e+000 2.786405e+000 7.940877e-002 3.299052e-002 9.426448e-002 1.775113e-001 1.478624e-001 1.737134e-001 2.410631e-001 3.718044e-001 1.837897e-001 2.557893e-001 3.125423e-001 2.031114e-001 2.831819e-001 1.615061e-002
<GCONST> 8.421549e+001
<STATE> 5
<NUMMIXES> 4
<MIXTURE> 1 2.942245e-001
<MEAN> 39
 -1.127647e+001 -1.939115e+001 -5.599290e+000 -1.571482e+001 -1.033877e+001 -8.096259e+000 -1.140886e+001 5.161170e+000 1.975405e+001 4.253808e+000 -1.399831e+001 -7.464640e+000 8.232063e+001 -1.690117e-001 -2.759324e-001 9.207361e-002 2.131120e-001 -4.320392e-002 4.519616e-001 3.724190e-001 -4.257388e-001 8.526099e-002 1.853263e-001 4.644279e-001 1.308254e-001 -2.157373e-001 -8.985150e-002 4.742414e-002 2.008179e-001 1.172172e-001 1.247304e-002 -3.428272e-001 -2.909785e-001 -3.649131e-001 -4.591729e-001 -5.627977e-002 5.516773e-002 2.918196e-001 -1.475519e-002
<VARIANCE> 39
 3.858483e+000 6.298888e+000 8.907442e+000 1.488639e+001 5.225064e+000 1.886161e+001 6.704715e+000 1.617365e+001 1.456178e+001 1.994038e+001 2.420386e+001 2.940449e+001 1.729399e+000 1.403961e-001 1.626993e-001 7.438831e-001 7.592731e-001 1.315117e+000 1.772894e+000 1.028969e+000 1.386010e+000 1.818620e+000 3.348461e+000 3.819012e+000 1.589868e+000 3.088675e-002 2.081741e-002 2.736964e-002 1.420384e-001 1.453853e-001 1.514604e-001 2.214553e-001 1.266236e-001 4.340048e-001 3.793880e-001 5.787970e-001 5.706777e-001 3.399808e-001 7.514229e-003
<GCONST> 7.310922e+001
<MIXTURE> 2 4.507919e-001
<MEAN> 39
 -1.158044e+001 -1.642471e+001 -8.382246e-001 -6.650393e+000 -1.096834e+001 -1.480896e+001 -1.986348e+001 -6.066819e+000 5.571618e+000 -5.716031e+000 -1.142282e+001 -5.116522e+000 7.940860e+001 -2.258688e-001 -4.221165e-001 1.126149e-001 4.575745e-001 1.057859e+000 4.996881e-001 2.658711e-001 -2.567224e-001 -2.051674e-001 -7.190166e-001 5.336865e-002 3.605918e-001 -9.136681e-002 -2.649480e-002 -4.032407e-002 3.468041e-002 -8.099720e-002 -2.866002e-002 1.308042e-001 3.611500e-001 3.029780e-001 8.444124e-002 9.607429e-002 -1.455452e-001 -2.060398e-001 1.575940e-002
<VARIANCE> 39
 3.076018e+000 6.635170e+000 1.022427e+001 1.808072e+001 1.587730e+001 1.330877e+001 1.368550e+001 3.561192e+001 3.297616e+001 2.548194e+001 1.730120e+001 3.495173e+001 2.764669e+000 1.068420e-001 3.678449e-001 3.527836e-001 8.562016e-001 1.313265e+000 9.270967e-001 1.932448e+000 2.580907e+000 2.176987e+000 1.568221e+000 1.495758e+000 1.486446e+000 3.902841e-002 2.091638e-002 5.391499e-002 1.111342e-001 1.468603e-001 1.689418e-001 2.042864e-001 3.209529e-001 4.458164e-001 3.954326e-001 3.380698e-001 1.644854e-001 2.188459e-001 4.669406e-003
<GCONST> 7.484721e+001
<MIXTURE> 3 1.142438e-001
<MEAN> 39
 -1.158466e+001 -1.775567e+001 -9.554273e+000 -1.393682e+001 -1.045043e+001 -1.677734e+001 -9.099823e+000 9.563861e+000 1.293007e+001 6.134163e-001 -4.894649e+000 -5.489473e-001 8.434210e+001 3.366409e-001 1.884390e-001 -1.605668e+000 -6.581576e-001 1.600119e-001 1.676691e+000 2.796288e-001 -8.253759e-001 8.165048e-001 -3.649882e-001 -6.272860e-001 -7.263891e-001 -8.555490e-002 -1.098405e-001 -1.408223e-002 3.124610e-001 -5.812291e-002 -3.366164e-001 1.577166e-001 1.124324e-002 -2.697257e-001 -6.178738e-001 -2.921369e-001 4.161205e-001 2.025248e-001 -1.764565e-001
<VARIANCE> 39
 8.910643e-001 4.949270e+000 1.427223e+001 1.799828e+001 4.155649e+001 3.068545e+001 1.706234e+001 1.261257e+001 1.966233e+001 2.229077e+001 1.709951e+002 2.467757e+001 9.073668e-001 8.234673e-002 5.620393e-001 9.910148e-001 9.995104e-001 2.766103e+000 1.380204e+000 1.406276e+000 2.619689e+000 3.793662e+000 3.045145e+000 2.682926e+000 3.526724e+000 1.860319e-001 1.258494e-002 1.068744e-001 1.848913e-001 2.062250e-001 6.211165e-001 6.842868e-001 8.822767e-002 5.303399e-001 3.687153e-001 7.337139e-001 6.037672e-001 5.879585e-001 1.036699e-002
<GCONST> 8.743079e+001
<MIXTURE> 4 1.407398e-001
<MEAN> 39
 -1.136873e+001 -1.105009e+001 -6.641691e+000 -1.582079e+001 -1.368796e+001 -8.914526e+000 -1.762726e+001 3.428037e+000 -7.109490e+000 -4.459439e+000 -2.287247e+001 -1.966711e+000 7.878809e+001 6.234837e-001 -1.999452e-001 -1.673029e-001 8.265588e-001 5.655991e-001 -3.576894e-001 -6.601770e-001 -1.104427e+000 4.779954e-001 -1.763004e+000 9.196276e-001 2.742504e-001 -3.515226e-001 -6.102975e-002 -8.799794e-002 2.063793e-001 8.082055e-003 -1.024019e-001 1.471170e-003 9.049299e-002 -4.102828e-002 8.308240e-002 -9.984494e-002 -6.126578e-002 -1.842698e-001 -1.389385e-002
<VARIANCE> 39
 8.754784e+000 8.938273e+000 3.029413e+001 1.581105e+001 2.790062e+001 2.079983e+001 2.224430e+001 2.559863e+001 9.842884e+000 2.711708e+001 5.888759e+001 1.755688e+001 3.572664e+000 7.531495e-002 2.968406e-001 5.336434e-001 1.446422e+000 2.559238e+000 1.757330e+000 2.333255e+000 2.154899e+000 2.005981e+000 1.913276e+000 1.405442e+000 2.121655e+000 2.227758e-002 1.412109e-002 4.711438e-002 1.089010e-001 3.960812e-001 3.110173e-001 3.646292e-001 4.635279e-001 6.133411e-001 4.471413e-001 3.726766e-001 4.050921e-001 4.997267e-001 5.873408e-003
<GCONST> 8.399084e+001
<STATE> 6
<NUMMIXES> 4
<MIXTURE> 1 2.747941e-001
<MEAN> 39
 -1.248998e+001 -1.897586e+001 -7.289313e+000 -1.035315e+001 -1.329807e+001 -1.288013e+001 -1.181909e+001 5.198777e+000 4.889849e+000 -4.865414e+000 -7.199559e+000 4.745516e-001 8.084344e+001 -2.096115e-001 -3.031224e-001 3.062008e-001 2.241568e-001 1.504020e-001 4.819899e-002 4.655355e-001 2.061921e-001 2.051934e-001 -5.517550e-001 1.331317e-001 1.195643e-001 -2.948071e-001 -4.120330e-002 6.070158e-002 7.669327e-002 8.825469e-002 1.604696e-001 4.773963e-002 -9.306550e-003 1.588704e-002 6.548316e-002 2.165022e-001 -2.268597e-001 -1.111098e-001 1.276376e-002
<VARIANCE> 39
 4.939572e+000 6.881842e+000 1.787793e+001 2.627139e+001 1.084711e+001 1.015776e+001 2.186100e+001 2.703189e+001 3.339462e+001 2.369639e+001 6.552890e+001 1.728148e+001 3.215678e+000 1.468607e-001 2.970853e-001 5.667070e-001 4.861325e-001 1.187982e+000 1.096527e+000 1.618776e+000 2.025802e+000 2.144290e+000 1.604542e+000 1.601806e+000 1.243171e+000 5.442401e-002 3.102983e-002 5.305337e-002 8.697748e-002 7.095550e-002 1.493596e-001 1.498210e-001 2.044053e-001 4.139725e-001 3.027051e-001 2.557816e-001 3.052085e-001 1.931876e-001 9.449366e-003
<GCONST> 7.553999e+001
<MIXTURE> 2 2.558040e-001
<MEAN> 39
 -1.399397e+001 -2.013663e+001 -2.784486e+000 -8.872348e-001 -7.430464e+000 -1.056819e+001 -1.293168e+001 -1.256647e-001 2.450616e+000 -9.808804e+000 -1.031019e+001 -1.987968e+000 7.845981e+001 -1.196047e-001 -3.231763e-001 1.409508e-001 3.843801e-001 9.974365e-001 6.795128e-001 4.445103e-001 5.308902e-001 5.186456e-001 -4.717771e-003 -1.839058e-001 -1.020411e-001 -1.462177e-001 1.012649e-002 5.719887e-002 -4.710872e-002 -8.086887e-002 -1.851852e-001 -5.569975e-002 1.587826e-002 3.305807e-002 7.362198e-002 1.764697e-001 7.935195e-002 5.942776e-002 3.702718e-003
<VARIANCE> 39
 1.698257e+000 3.980522e+000 8.903078e+000 1.032847e+001 2.180825e+001 1.306780e+001 1.415644e+001 7.475754e+000 1.205624e+001 7.234317e+000 1.080088e+001 7.717306e+000 4.749327e+000 1.758676e-001 2.229054e-001 5.124213e-001 4.410997e-001 1.303440e+000 1.270985e+000 1.435647e+000 1.006425e+000 1.040042e+000 9.157358e-001 8.712392e-001 1.034325e+000 9.481010e-002 1.829411e-002 4.147655e-002 8.800738e-002 9.164503e-002 1.538768e-001 1.976994e-001 3.073570e-001 1.877465e-001 2.051050e-001 1.448230e-001 1.051656e-001 2.079500e-001 1.580345e-002
<GCONST> 6.267562e+001
<MIXTURE> 3 1.561928e-001
<MEAN> 39
 -1.297868e+001 -1.969447e+001 -1.577025e+000 -1.040455e+001 -8.389856e+000 -7.908112e+000 -1.366689e+001 7.554611e-001 1.771182e+001 5.392954e+000 -1.473314e+001 -5.324354e+000 8.153826e+001 -3.456161e-001 -1.544067e-001 5.290991e-001 1.108643e+000 6.553472e-001 -1.166369e-001 -4.006388e-001 2.152826e-001 -2.255682e-001 -1.887445e-001 -4.354415e-001 7.695358e-001 -3.352050e-002 -2.137050e-003 -1.399904e-002 -4.154963e-002 -3.714975e-002 -2.377703e-002 6.299316e-002 -6.627785e-002 5.812166e-002 -4.059059e-002 -4.536101e-002 1.276485e-001 -6.899946e-002 2.335450e-002
<VARIANCE> 39
 2.731585e+000 4.106936e+000 4.353449e+000 1.362467e+001 2.388106e+001 1.155583e+001 1.270109e+001 2.307248e+001 3.375442e+000 2.009763e+001 2.998776e+001 7.691144e+000 4.378343e-001 9.637802e-002 1.229762e-001 4.235766e-001 1.014493e+000 1.108022e+000 9.682361e-001 8.220293e-001 2.029750e+000 4.676310e-001 9.294965e-001 8.801676e-001 8.283175e-001 5.018879e-002 1.183716e-002 2.025205e-002 7.090552e-002 2.302433e-001 2.794595e-001 1.746536e-001 1.398695e-001 4.215723e-001 7.278552e-002 2.446868e-001 2.521975e-001 1.263772e-001 1.070535e-002
<GCONST> 5.915876e+001
<MIXTURE> 4 3.132090e-001
<MEAN> 39
 -1.291531e+001 -1.755252e+001 -7.730821e-002 -1.019270e+001 -7.795879e+000 -1.106787e+001 -1.614246e+001 -5.530047e+000 9.809828e+000 -7.834689e+000 -1.546723e+001 -9.172817e+000 7.874982e+001 -1.951963e-001 -2.620358e-001 -1.978874e-001 1.085907e-001 3.358215e-001 2.860009e-001 4.508895e-001 3.811466e-001 3.502497e-001 1.861290e-001 -1.370620e-001 -3.126166e-001 -1.045185e-002 -5.418757e-003 -1.737166e-002 -3.662748e-002 7.342982e-003 -6.262184e-002 -5.532833e-002 -2.942331e-003 8.838456e-002 1.679195e-001 1.859231e-001 1.475565e-001 1.100361e-001 -2.325641e-004
<VARIANCE> 39
 1.416278e+000 2.188594e+000 6.507905e+000 1.220713e+001 1.756477e+001 1.295166e+001 1.249680e+001 3.073666e+001 1.386323e+001 1.962382e+001 1.913391e+001 1.473054e+001 9.637566e-001 8.878864e-002 2.282173e-001 4.843819e-001 7.661594e-001 1.357514e+000 1.086271e+000 1.063171e+000 2.359905e+000 1.537499e+000 1.853155e+000 1.416011e+000 1.563578e+000 4.012479e-002 1.517412e-002 2.122791e-002 7.674133e-002 1.307016e-001 1.829602e-001 2.031101e-001 1.732367e-001 3.452347e-001 2.555977e-001 2.903519e-001 2.417603e-001 2.272859e-001 6.879756e-003
<GCONST> 6.558302e+001
<STATE> 7
<NUMMIXES> 4
<MIXTURE> 1 4.354329e-001
<MEAN> 39
 -1.534425e+001 -2.147875e+001 -6.070182e-002 -4.861690e+000 -6.415063e+000 -8.119382e+000 -1.508772e+001 -2.459332e-001 1.561585e+001 5.127192e+000 -1.171592e+001 -3.807762e+000 8.083336e+001 -6.656492e-002 -1.462970e-001 -7.308770e-002 9.691805e-002 2.826603e-002 2.388093e-001 8.628628e-002 4.018683e-002 1.110890e-001 2.833261e-001 1.458084e-001 4.285114e-003 2.097729e-002 5.355531e-002 4.165782e-002 -3.165559e-002 -1.034701e-001 -1.394043e-001 -4.400251e-002 -2.731415e-002 -2.017874e-002 -3.436915e-002 -5.727082e-002 -3.213539e-002 1.369662e-002 2.243072e-002
<VARIANCE> 39
 2.618886e+000 3.616620e+000 4.921707e+000 1.303512e+001 1.779758e+001 1.357074e+001 1.358793e+001 2.296009e+001 1.647818e+001 1.642603e+001 2.089701e+001 1.400435e+001 1.112444e+000 1.709172e-001 2.042291e-001 3.237262e-001 5.357652e-001 9.323888e-001 1.058178e+000 1.259503e+000 1.112506e+000 1.660400e+000 1.970222e+000 1.215319e+000 1.478953e+000 5.702418e-002 3.093700e-002 4.247633e-002 7.971841e-002 1.144938e-001 2.018417e-001 2.028234e-001 2.412283e-001 2.075759e-001 3.758564e-001 3.805057e-001 2.322392e-001 3.145069e-001 9.630244e-003
<GCONST> 6.810186e+001
<MIXTURE> 2 3.173379e-001
<MEAN> 39
 -1.567730e+001 -2.180710e+001 -3.001242e+000 -2.645513e+000 -6.325681e+000 -5.802425e+000 -8.473022e+000 7.007954e+000 6.894540e+000 -6.133734e+000 -5.372883e+000 5.133306e+000 7.902388e+001 -6.396262e-002 -1.095545e-001 7.663491e-004 4.828776e-002 1.123080e-001 2.639432e-001 1.010213e-001 -6.365301e-003 -2.034271e-001 -2.203151e-001 1.731927e-001 8.997585e-002 -4.201782e-002 3.377384e-002 4.233546e-002 -3.721725e-002 -8.792457e-002 -1.381162e-001 -1.779745e-001 -1.666437e-001 -9.207819e-002 -1.259370e-002 5.538024e-002 -1.680076e-002 -9.006566e-002 3.597717e-002
<VARIANCE> 39
 1.702351e+000 4.821026e+000 9.521983e+000 1.927910e+001 2.551319e+001 2.512656e+001 2.051773e+001 9.907188e+000 1.400908e+001 1.261926e+001 1.843113e+001 9.351728e+000 1.438866e+000 7.322066e-002 2.132525e-001 3.733691e-001 4.907936e-001 1.246580e+000 1.405429e+000 1.261040e+000 1.142442e+000 2.008403e+000 1.859425e+000 8.902611e-001 9.375104e-001 3.554932e-002 1.504767e-002 4.282946e-002 5.877106e-002 7.822330e-002 2.042763e-001 2.653915e-001 2.211578e-001 1.994349e-001 3.319314e-001 3.387728e-001 1.882783e-001 1.870981e-001 7.586584e-003
<GCONST> 6.515233e+001
<MIXTURE> 3 1.762722e-001
<MEAN> 39
 -1.430139e+001 -2.110833e+001 -3.744551e+000 -8.221840e+000 -5.477822e+000 -8.012225e+000 -1.046663e+001 2.463886e+000 1.384016e+001 -5.604841e+000 -1.320147e+001 -7.243804e+000 7.726350e+001 -1.335886e-001 -2.245405e-001 5.757688e-002 -1.410025e-001 1.323089e-001 1.565183e-001 8.457886e-002 -1.079084e-001 2.113019e-001 3.130111e-001 9.271803e-002 4.118855e-001 -1.371734e-002 2.546956e-002 2.634697e-002 9.675822e-003 -3.987944e-002 -1.145164e-001 -1.260761e-001 -1.396911e-001 -1.051777e-001 -1.291745e-001 4.270202e-002 9.372867e-002 9.143645e-002 3.708278e-002
<VARIANCE> 39
 3.075366e+000 2.990059e+000 4.462613e+000 1.319213e+001 8.797500e+000 6.074474e+000 1.587785e+001 3.545174e+001 2.472043e+001 1.115778e+001 1.571598e+001 1.441977e+001 9.601699e-001 1.045289e-001 1.875689e-001 2.560132e-001 7.617278e-001 7.488426e-001 5.280788e-001 1.005090e+000 1.675390e+000 1.405464e+000 9.556968e-001 1.609014e+000 1.404562e+000 2.385011e-002 1.622272e-002 3.447369e-002 7.257298e-002 1.024203e-001 1.247629e-001 9.448492e-002 1.951436e-001 2.282986e-001 2.663473e-001 2.137552e-001 2.448426e-001 1.609710e-001 2.728712e-003
<GCONST> 5.874058e+001
<MIXTURE> 4 7.095701e-002
<MEAN> 39
 -7.868730e+000 -1.206274e+001 -4.774278e+000 -1.383079e+001 -1.326468e+001 -1.303129e+001 -1.715825e+001 7.864066e-001 -3.801030e+000 -1.527112e+001 -1.717465e+001 -4.113110e+000 7.720570e+001 9.637526e-003 -1.450673e-001 -2.359879e-002 -2.082855e-001 -1.572239e-001 -2.170998e-001 3.031184e-001 3.775843e-001 2.126887e-001 -1.076050e-001 8.408724e-001 1.034712e-001 -1.116184e-002 -1.344554e-002 1.380489e-002 -3.852766e-002 -4.892075e-002 -7.386731e-002 5.991731e-002 -2.172105e-002 1.215478e-001 -3.362015e-002 2.042456e-001 4.232606e-003 1.641676e-001 5.917784e-002
<VARIANCE> 39
 6.195861e+000 3.798663e+000 2.991150e+000 9.849773e+000 3.918296e+000 3.245573e+001 1.417472e+001 7.774088e+000 6.125955e+000 9.865149e+000 2.731697e+001 1.200564e+001 6.089535e+000 2.200836e-002 2.242914e-001 2.890813e-001 4.426037e-001 4.657055e-001 5.108386e-001 6.637834e-001 1.414205e+000 1.175337e+000 1.062562e+000 1.020351e+000 1.494813e+000 4.322954e-002 3.620184e-003 3.684212e-002 3.951964e-002 9.849767e-002 9.446387e-002 8.919506e-002 1.115031e-001 3.534101e-001 2.239424e-001 1.224214e-001 1.445976e-001 2.510247e-001 8.793480e-003
<GCONST> 5.397667e+001
<STATE> 8
<NUMMIXES> 4
<MIXTURE> 1 3.451207e-001
<MEAN> 39
 -1.538155e+001 -2.142176e+001 -9.821032e-001 -7.243202e+000 -7.512724e+000 -7.965416e+000 -1.502600e+001 -1.779256e+000 1.386797e+001 2.018759e+000 -1.065146e+001 -3.255011e+000 7.999802e+001 3.314256e-001 2.993968e-001 -1.389487e-001 -5.726708e-001 -9.757689e-001 -8.572791e-001 -7.579954e-001 -2.947311e-001 -5.312119e-001 -2.489581e-001 1.657754e-001 1.562405e-001 2.247121e-001 1.502986e-001 1.045946e-001 -1.474131e-001 -1.856709e-001 -2.417340e-001 -1.193069e-001 1.169187e-001 2.290355e-001 8.619358e-003 -2.015871e-001 -5.745260e-002 -1.510744e-001 7.348447e-002
<VARIANCE> 39
 2.230677e+000 3.510083e+000 4.273108e+000 2.367842e+001 1.889183e+001 1.325191e+001 2.210077e+001 1.691725e+001 3.790414e+001 3.528214e+001 1.318987e+001 1.392967e+001 3.287813e+000 1.610083e-001 2.853904e-001 4.793618e-001 5.486807e-001 5.345740e-001 1.508676e+000 2.063027e+000 1.143596e+000 2.196523e+000 1.906246e+000 1.437096e+000 7.495408e-001 4.524945e-002 2.196885e-002 4.406813e-002 7.941570e-002 1.469978e-001 1.531645e-001 2.716330e-001 4.901113e-001 3.200229e-001 3.178362e-001 3.187355e-001 2.234207e-001 2.139800e-001 8.058306e-003
<GCONST> 7.146555e+001
<MIXTURE> 2 2.836976e-001
<MEAN> 39
 -1.307499e+001 -1.964356e+001 -7.922532e+000 -1.043999e+001 -1.253238e+001 -1.555720e+001 -1.277491e+001 4.322633e+000 5.607033e+000 -1.685270e+000 -6.599457e-001 3.347028e+000 8.031079e+001 5.529202e-001 5.492497e-001 -4.924675e-002 -2.502960e-001 -4.568329e-001 -3.688537e-001 -3.663848e-001 -2.967092e-001 8.067626e-001 1.413449e+000 8.596802e-001 6.545234e-002 3.366635e-001 3.914573e-002 3.891682e-002 -6.569492e-002 -2.016493e-002 6.519372e-002 2.284776e-001 2.406054e-001 1.525889e-001 2.905717e-001 1.424507e-001 -1.393048e-001 -2.870796e-001 7.842509e-002
<VARIANCE> 39
 4.114270e+000 4.935623e+000 8.587302e+000 1.000783e+001 9.945980e+000 1.102600e+001 1.632013e+001 2.057626e+001 1.403359e+001 3.000636e+001 3.780786e+001 1.867222e+001 1.302144e+000 1.655329e-001 2.114489e-001 3.801826e-001 7.690870e-001 1.294757e+000 1.136089e+000 1.764690e+000 1.004048e+000 2.037066e+000 2.147769e+000 1.990491e+000 1.586382e+000 8.916364e-002 3.375284e-002 5.011692e-002 1.011451e-001 1.491516e-001 1.264047e-001 1.263199e-001 2.703598e-001 1.769249e-001 4.646359e-001 4.564979e-001 4.181350e-001 3.648595e-001 8.444373e-003
<GCONST> 7.314819e+001
<MIXTURE> 3 2.725646e-001
<MEAN> 39
 -1.457162e+001 -2.242661e+001 -3.583074e+000 -3.975446e+000 -7.656517e+000 -7.345029e+000 -9.044149e+000 4.100050e+000 5.103976e+000 -9.600614e+000 -1.061040e+001 -5.978585e-001 7.809398e+001 3.082152e-001 1.105627e-001 -6.067823e-001 -1.226923e+000 -1.485521e+000 -9.261982e-001 -5.080859e-001 3.199395e-001 6.858513e-001 8.865750e-001 7.710676e-001 2.430822e-001 3.475355e-001 1.880990e-001 2.215632e-001 -1.218865e-001 -2.508989e-001 -3.278934e-001 -3.366786e-001 -2.635790e-001 1.682443e-001 3.917358e-001 3.947467e-001 1.200654e-001 6.763464e-002 1.168932e-001
<VARIANCE> 39
 4.347494e+000 6.787364e+000 5.096494e+000 1.474636e+001 9.372849e+000 9.722980e+000 2.179531e+001 1.436682e+001 2.378506e+001 3.142546e+001 5.312909e+001 3.387955e+001 2.325452e+000 2.595898e-001 3.411871e-001 4.121714e-001 1.028052e+000 1.234109e+000 1.387561e+000 2.761740e+000 1.991493e+000 1.875210e+000 1.709220e+000 1.020350e+000 9.445102e-001 1.100600e-001 3.153868e-002 4.538968e-002 8.386544e-002 1.805549e-001 2.109536e-001 1.390581e-001 3.103858e-001 2.847775e-001 2.740414e-001 2.488439e-001 3.279537e-001 2.501156e-001 1.421298e-002
<GCONST> 7.634361e+001
<MIXTURE> 4 9.861694e-002
<MEAN> 39
 -9.818701e+000 -1.478704e+001 -6.172294e+000 -1.506589e+001 -1.586780e+001 -1.237965e+001 -1.675451e+001 3.423422e+000 3.529697e+000 -1.069896e+001 -1.385753e+001 -4.759375e+000 7.813374e+001 1.014151e-001 -2.738817e-001 -9.844193e-001 1.697853e-001 1.125986e-001 6.088554e-001 9.683195e-001 2.148384e+000 8.193938e-001 2.989335e-001 -5.322313e-001 -1.822789e-001 4.466300e-001 4.627206e-002 -5.392861e-002 -1.507514e-001 4.965893e-002 3.074526e-001 2.921529e-001 5.574156e-001 4.248060e-001 -4.219671e-001 -4.177222e-002 4.674772e-003 1.993885e-001 1.257319e-001
<VARIANCE> 39
 8.728558e+000 1.571959e+001 9.880264e+000 1.855176e+001 4.688282e+000 2.249199e+001 1.124152e+001 2.903765e+001 4.297174e+001 1.581416e+001 1.810970e+001 1.196303e+001 8.490690e+000 9.804571e-002 3.253395e-001 4.602606e-001 4.767817e-001 1.049219e+000 7.968338e-001 1.891165e+000 2.360010e+000 1.816481e+000 1.164028e+000 9.616870e-001 2.395008e+000 9.878178e-002 1.832739e-002 6.756566e-002 1.297192e-001 1.401362e-001 1.325147e-001 9.230579e-002 1.615676e-001 3.321053e-001 6.022910e-001 1.315561e-001 1.981085e-001 5.280340e-001 1.731375e-002
<GCONST> 7.503863e+001
<STATE> 9
<NUMMIXES> 4
<MIXTURE> 1 1.342538e-001
<MEAN> 39
 -1.226144e+001 -2.084740e+001 -1.137248e+001 -1.437506e+001 -1.228732e+001 -9.283745e+000 -7.544096e+000 1.216322e+001 1.146268e+001 -8.507935e-001 -1.317375e+001 -1.565818e+000 8.280673e+001 -6.246366e-002 -4.877920e-001 -7.208878e-001 5.877475e-003 1.076378e+000 1.430980e+000 1.432660e+000 3.124797e-001 -2.065977e+000 -1.294883e+000 -1.914401e-001 5.531038e-001 4.082359e-001 -1.505500e-001 1.156174e-002 4.122768e-001 3.050434e-001 3.396515e-001 2.963471e-001 -1.362953e-001 -7.861966e-001 -5.545856e-001 -3.338103e-001 3.817976e-001 2.166496e-001 -1.062433e-001
<VARIANCE> 39
 3.788331e+000 1.159079e+001 4.288740e+000 1.230714e+001 1.697802e+001 2.268281e+001 1.753580e+001 1.330485e+001 4.060789e+001 2.059371e+001 7.851778e+001 3.322860e+001 1.039905e+001 1.854408e-001 3.744767e-001 7.757472e-001 6.908853e-001 1.396455e+000 7.106092e-001 6.011048e-001 2.302675e+000 1.869617e+000 3.761009e+000 2.854050e+000 2.793106e+000 1.205321e-001 3.440515e-002 8.399710e-002 1.368048e-001 1.898472e-001 4.394003e-001 1.796964e-001 1.992077e-001 4.703327e-001 5.585841e-001 8.691945e-001 4.620440e-001 5.934199e-001 1.688972e-002
<GCONST> 8.620436e+001
<MIXTURE> 2 5.634123e-002
<MEAN> 39
 -8.482152e+000 -1.579399e+001 -9.264688e+000 -1.495629e+001 -1.320146e+001 -8.920974e+000 -8.862824e+000 1.396945e+001 -4.628495e+000 -1.406885e+001 -1.469128e+001 -9.142295e-001 8.024257e+001 -3.815348e-001 -6.560373e-001 -7.105951e-001 -1.928525e-001 6.594753e-001 7.527457e-001 1.872082e+000 2.044063e+000 -3.468835e+000 -9.021614e-001 4.683940e-001 1.396916e+000 7.154458e-001 -6.822935e-002 -5.940986e-002 1.278314e-001 4.137345e-002 -6.101507e-002 -1.396394e-001 -2.973047e-001 -6.618029e-001 -1.878823e-001 1.766534e-001 1.698925e-001 -2.470986e-001 -7.080033e-002
<VARIANCE> 39
 5.096808e+000 3.656214e+000 8.971261e+000 3.594750e+000 1.312138e+001 3.507512e+001 4.615107e+000 2.467818e+001 8.603747e+001 7.678040e+000 1.721100e+001 1.273409e+001 1.115652e+001 1.437091e-001 1.559228e-001 8.326101e-001 4.934173e-001 6.050427e-001 1.297760e-001 7.546362e-001 4.300162e+000 7.405370e-001 1.774257e+000 9.688979e-001 3.578505e-001 1.968267e-001 1.778949e-002 5.407883e-002 1.066348e-001 9.360432e-002 1.382989e-001 1.202305e-001 1.099930e-001 1.604473e-001 8.456513e-001 3.716378e-001 2.204428e-001 9.654447e-002 1.028404e-002
<GCONST> 6.549906e+001
<MIXTURE> 3 3.562753e-001
<MEAN> 39
 -1.296239e+001 -1.970745e+001 -2.362068e+000 -8.790288e+000 -1.134180e+001 -1.118761e+001 -1.663071e+001 -7.532665e-001 1.306468e+001 2.059601e+000 -1.106445e+001 -3.660017e+000 8.166758e+001 6.424659e-001 2.940982e-001 -7.719946e-001 -1.132815e+000 -1.426203e+000 -5.167875e-001 5.351458e-001 1.045172e+000 7.289512e-001 3.521408e-001 -1.127825e-001 -5.957138e-001 4.744494e-001 -1.963037e-002 -1.453787e-001 -1.456996e-001 -1.416148e-001 6.527539e-002 3.486539e-001 6.349659e-001 5.416339e-001 1.071669e-001 -9.600068e-002 -3.159420e-001 -1.015251e-001 5.050099e-002
<VARIANCE> 39
 1.082918e+000 3.427087e+000 5.080396e+000 1.803974e+001 1.926014e+001 1.769195e+001 1.996139e+001 2.926293e+001 2.867129e+001 3.790867e+001 2.057283e+001 2.061959e+001 1.746398e+000 1.166198e-001 2.701403e-001 6.462479e-001 7.945839e-001 1.014634e+000 6.640844e-001 2.248122e+000 2.200928e+000 1.959152e+000 2.114242e+000 2.041942e+000 1.307695e+000 6.292778e-002 2.360365e-002 4.754271e-002 7.962269e-002 1.368919e-001 1.726682e-001 1.597829e-001 1.993603e-001 1.890864e-001 5.681238e-001 7.072588e-001 3.774704e-001 1.874311e-001 9.158297e-003
<GCONST> 7.359076e+001
<MIXTURE> 4 4.531297e-001
<MEAN> 39
 -1.110731e+001 -1.919559e+001 -7.751833e+000 -1.270805e+001 -1.519049e+001 -1.238533e+001 -1.154659e+001 6.146739e+000 1.572671e+001 3.989946e+000 -6.232831e+000 -2.851914e+000 8.229464e+001 3.167110e-001 1.288961e-001 -9.517183e-001 -9.217374e-001 -8.249145e-001 7.575637e-002 1.151737e+000 1.578584e+000 9.088420e-001 2.768770e-001 -1.100386e+000 -8.310989e-001 5.269175e-001 -2.106218e-001 -1.173163e-001 1.566190e-001 4.263693e-001 4.085446e-001 3.195029e-001 2.555681e-001 -4.070887e-002 -5.392126e-001 -6.685060e-001 -4.168118e-001 1.696197e-001 -6.932082e-002
<VARIANCE> 39
 2.409157e+000 8.227190e+000 1.298309e+001 1.461492e+001 1.469495e+001 2.418562e+001 2.396020e+001 2.335792e+001 3.228057e+001 4.528424e+001 6.210232e+001 3.374880e+001 3.396859e+000 2.709584e-001 2.585229e-001 5.389379e-001 1.259257e+000 1.554397e+000 1.758278e+000 1.820592e+000 1.616885e+000 2.995422e+000 3.771884e+000 2.223472e+000 1.327635e+000 5.273344e-002 1.917298e-002 3.941039e-002 9.446532e-002 8.579051e-002 2.382670e-001 3.211354e-001 3.593487e-001 3.132887e-001 4.033212e-001 3.504067e-001 3.506572e-001 3.228419e-001 8.556454e-003
<GCONST> 8.221775e+001
<STATE> 10
<NUMMIXES> 4
<MIXTURE> 1 2.548605e-001
<MEAN> 39
 -1.082490e+001 -1.828270e+001 -8.517901e+000 -1.342216e+001 -1.614410e+001 -1.068772e+001 -6.170514e+000 9.510280e+000 1.577633e+001 1.801794e+000 -1.176686e+001 -4.810109e+000 8.336935e+001 -1.494363e-001 -1.624729e-002 -2.134632e-001 3.792387e-001 -3.018502e-001 4.358334e-001 1.217132e+000 1.126643e+000 -6.119924e-001 -1.153166e+000 -9.841031e-001 2.413503e-001 2.885374e-001 -1.393275e-001 -6.430553e-002 1.374939e-001 1.504316e-001 7.578027e-002 -1.275180e-001 -3.582791e-001 -3.567668e-001 -1.404435e-001 1.809841e-001 3.405306e-001 7.497300e-002 -1.179605e-001
<VARIANCE> 39
 2.376613e+000 6.031742e+000 1.425762e+001 1.524108e+001 1.805772e+001 3.649944e+001 3.660698e+001 1.691352e+001 3.058724e+001 5.895468e+001 4.804408e+001 1.754679e+001 5.330817e+000 2.056732e-001 1.359293e-001 6.652633e-001 8.399096e-001 1.015824e+000 1.305357e+000 1.531662e+000 9.793969e-001 1.431449e+000 1.132487e+000 9.846718e-001 1.169551e+000 3.794290e-002 2.792672e-002 3.073000e-002 7.204287e-002 1.940535e-001 1.959995e-001 1.546987e-001 1.479267e-001 1.944411e-001 2.845355e-001 2.518899e-001 1.827022e-001 1.574183e-001 5.102389e-003
<GCONST> 7.259162e+001
<MIXTURE> 2 2.394450e-001
<MEAN> 39
 -1.284124e+001 -2.166335e+001 -1.104199e+001 -1.263797e+001 -8.210795e+000 -3.771151e+000 -2.315428e+000 8.508426e+000 3.136686e+000 -4.017828e+000 -1.340590e+001 1.273075e+000 8.481886e+001 -1.061354e-001 3.031597e-002 -1.032444e-001 -5.577856e-002 2.906945e-001 9.109142e-001 1.087771e+000 -2.517674e-001 -9.255444e-001 -4.470519e-001 -4.769590e-001 4.233115e-001 1.108985e-001 -1.368493e-002 3.176180e-002 5.464396e-002 -8.349796e-002 -2.606322e-001 -2.869038e-001 -7.109024e-002 1.515373e-001 3.349417e-001 1.329647e-001 -6.281457e-002 -1.664049e-001 -4.663771e-002
<VARIANCE> 39
 1.406234e+000 2.252955e+000 5.201480e+000 1.043616e+001 1.200294e+001 1.708241e+001 2.078523e+001 1.148216e+001 4.214000e+001 1.327196e+001 3.776623e+001 2.522047e+001 7.254411e+000 1.255269e-001 3.391359e-001 5.513732e-001 7.494037e-001 1.653184e+000 1.835385e+000 1.086588e+000 8.873709e-001 2.015194e+000 1.675858e+000 1.822713e+000 1.407513e+000 5.460335e-002 2.655619e-002 6.788956e-002 9.012364e-002 1.065495e-001 2.401295e-001 2.490197e-001 1.457859e-001 1.443722e-001 3.066634e-001 3.195580e-001 3.914649e-001 4.187646e-001 1.172184e-002
<GCONST> 7.285551e+001
<MIXTURE> 3 3.897685e-001
<MEAN> 39
 -1.187317e+001 -1.925786e+001 -1.131079e+000 -8.239573e+000 -1.426249e+001 -1.379585e+001 -1.686472e+001 -8.061878e-001 1.013455e+001 1.285978e+000 -1.169242e+001 -4.494375e+000 8.248219e+001 -7.992988e-002 -6.176003e-002 1.054412e-001 1.692666e-001 9.005694e-003 -2.565249e-002 -9.721534e-002 -2.802034e-001 2.171102e-001 3.527578e-001 2.061752e-001 2.323588e-001 2.366647e-002 -6.725412e-002 -1.070456e-002 -1.908211e-002 3.678900e-002 7.790232e-002 -5.912379e-006 -3.499314e-003 -6.475975e-002 -1.234713e-001 -7.301676e-002 1.007241e-001 7.846053e-002 -5.178610e-002
<VARIANCE> 39
 1.001907e+000 1.938530e+000 4.470724e+000 1.285068e+001 2.304951e+001 1.628897e+001 2.025804e+001 2.218289e+001 5.516222e+001 3.412093e+001 1.675418e+001 1.285758e+001 1.162414e+000 6.564637e-002 1.946531e-001 3.796299e-001 5.650072e-001 1.081705e+000 1.374906e+000 1.491349e+000 1.215903e+000 1.915397e+000 1.965575e+000 1.376970e+000 8.648047e-001 3.331687e-002 1.403281e-002 4.191053e-002 6.389015e-002 9.258840e-002 1.649677e-001 2.418933e-001 3.206764e-001 2.483784e-001 4.014644e-001 4.534681e-001 2.741045e-001 1.651661e-001 6.154438e-003
<GCONST> 6.647327e+001
<MIXTURE> 4 1.159261e-001
<MEAN> 39
 -1.008274e+001 -1.880074e+001 -1.074608e+001 -1.329626e+001 -1.181148e+001 -7.180989e+000 -5.453457e+000 1.327433e+001 -1.185134e+001 -1.318824e+001 -1.394385e+001 5.672528e-001 8.174950e+001 -6.721465e-002 -3.112803e-002 1.768781e-001 7.475202e-002 -4.625178e-002 1.633029e-001 4.290628e-001 -6.412094e-001 3.692159e-001 6.984860e-001 -2.529081e-001 -4.147665e-001 -3.123761e-002 8.150986e-002 1.678138e-001 1.366673e-001 -4.871454e-002 -9.062861e-002 -4.230141e-003 1.072017e-001 -6.312401e-002 6.051803e-001 1.207341e-001 -2.652432e-001 -1.612823e-001 -7.758171e-002
<VARIANCE> 39
 6.252509e+000 5.568710e+000 1.278136e+001 1.109785e+001 5.104843e+000 3.025730e+001 1.025780e+001 5.550085e+001 1.744862e+001 2.331805e+001 1.790316e+001 1.283544e+001 7.946332e+000 1.225300e-001 3.636233e-001 3.283378e-001 2.934501e-001 6.259509e-001 6.112846e-001 1.520284e+000 8.129290e-001 2.186139e+000 9.693502e-001 1.199556e+000 1.211328e+000 3.622580e-002 2.041995e-002 3.582463e-002 7.414534e-002 8.749249e-002 6.756070e-002 1.097136e-001 2.928106e-001 2.574399e-001 1.414593e-001 2.185769e-001 1.198879e-001 1.666486e-001 7.447027e-003
<GCONST> 6.465437e+001
<STATE> 11
<NUMMIXES> 4
<MIXTURE> 1 2.608413e-001
<MEAN> 39
 -1.139513e+001 -2.095363e+001 -6.847575e+000 -1.464218e+001 -1.478849e+001 -5.591931e+000 -4.359649e+000 1.136544e+001 1.786254e+001 -5.187763e-001 -2.013362e+001 -9.058113e+000 8.347881e+001 -2.658176e-001 -3.218513e-002 2.656240e-001 4.266797e-001 -2.089025e-001 -5.809154e-001 2.065688e-001 2.290608e-001 3.690590e-001 4.996498e-001 1.583551e-001 -3.117051e-001 -5.946201e-002 -8.060256e-002 1.908114e-002 1.689250e-001 1.301908e-001 1.581378e-002 -3.116437e-001 -3.312920e-001 -2.365457e-001 4.972121e-002 4.019556e-001 5.016732e-001 2.923617e-001 -7.927522e-002
<VARIANCE> 39
 1.592689e+000 4.118625e+000 4.339765e+000 9.421551e+000 1.968802e+001 1.629810e+001 2.643826e+001 2.036414e+001 2.146468e+001 3.314895e+001 1.814857e+001 5.952031e+000 2.933379e+000 1.006067e-001 1.339686e-001 5.932766e-001 6.385904e-001 4.031378e-001 1.333380e+000 8.968261e-001 5.608042e-001 1.415039e+000 2.336381e+000 1.827279e+000 1.203433e+000 3.722852e-002 1.591128e-002 3.176565e-002 6.853838e-002 1.139276e-001 6.332102e-002 1.956265e-001 1.583744e-001 1.495515e-001 2.661011e-001 3.304361e-001 2.171985e-001 1.199615e-001 4.263183e-003
<GCONST> 6.164915e+001
<MIXTURE> 2 1.825276e-001
<MEAN> 39
 -1.248406e+001 -1.728876e+001 -4.015509e+000 -5.781695e+000 -2.077189e+001 -1.775381e+001 -1.939598e+001 3.126317e+000 1.152652e+001 4.657967e+000 -2.130292e+000 3.368674e+000 8.348985e+001 -3.456243e-001 -1.236569e-001 2.181388e-001 1.935685e-001 1.244387e-001 9.079041e-002 -2.711651e-002 -5.758809e-002 -6.592958e-001 -1.049486e-001 1.132367e+000 9.770045e-001 -1.755636e-001 -4.429663e-002 -1.331120e-001 -8.440261e-002 -2.765980e-002 4.143241e-001 3.065788e-001 3.095457e-001 6.816208e-002 9.067925e-002 -1.391928e-001 -3.667652e-002 -5.750373e-002 -1.018206e-001
<VARIANCE> 39
 1.658136e+000 5.913834e+000 1.189782e+001 6.423546e+000 2.821979e+001 1.963932e+001 2.366590e+001 5.810041e+001 3.836177e+001 3.755888e+001 2.730353e+001 1.883281e+001 1.560843e+000 8.599202e-002 2.869374e-001 2.636845e-001 3.693705e-001 1.231143e+000 1.006487e+000 1.143706e+000 1.492657e+000 1.943522e+000 2.050632e+000 9.180270e-001 8.699849e-001 6.672283e-002 1.464664e-002 5.110864e-002 3.312320e-002 7.121868e-002 1.258743e-001 9.886793e-002 1.815135e-001 3.317217e-001 4.550554e-001 3.643290e-001 2.630424e-001 1.790011e-001 6.576595e-003
<GCONST> 6.864977e+001
<MIXTURE> 3 3.466168e-001
<MEAN> 39
 -1.473319e+001 -2.091526e+001 -1.124228e+001 -1.259126e+001 -1.137824e+001 -1.056863e+001 -8.936381e-001 1.400612e+001 8.855713e+000 -4.094236e+000 -2.121165e+000 1.775419e+000 8.297713e+001 -6.946951e-002 9.435672e-002 3.790316e-001 -6.741175e-002 -5.695511e-002 -1.549640e-001 1.401554e-001 2.546867e-001 -3.463900e-001 2.876681e-003 7.445087e-002 -1.062685e-001 -8.296984e-002 5.080153e-002 2.235743e-002 9.571677e-002 5.507788e-003 -1.917239e-002 2.071262e-002 -8.065789e-002 -4.592927e-002 1.281148e-001 1.930054e-001 1.038436e-002 -9.530788e-002 -3.970658e-002
<VARIANCE> 39
 1.800327e+000 1.079032e+001 9.262933e+000 7.768329e+000 2.871342e+001 3.715654e+001 3.095517e+001 2.380254e+001 3.748820e+001 2.151939e+001 1.563640e+001 1.562139e+001 3.193459e+000 1.197334e-001 2.993320e-001 6.509578e-001 5.543960e-001 7.176139e-001 9.186939e-001 1.118534e+000 1.275695e+000 1.238486e+000 1.351039e+000 1.118103e+000 1.285542e+000 8.754585e-002 2.051391e-002 5.166154e-002 1.085400e-001 1.162602e-001 1.498647e-001 1.553246e-001 2.068504e-001 2.410135e-001 1.981620e-001 3.101440e-001 1.618384e-001 2.370963e-001 9.764773e-003
<GCONST> 7.122007e+001
<MIXTURE> 4 2.100143e-001
<MEAN> 39
 -1.169417e+001 -1.936912e+001 -8.995475e+000 -1.632940e+001 -1.147554e+001 -4.956247e+000 1.580324e+000 9.705933e+000 2.481480e+000 -6.882732e+000 -1.681950e+001 -2.007747e+000 8.273685e+001 -2.132131e-001 -1.682034e-001 2.787376e-001 -3.316873e-001 -1.955740e-001 -2.013851e-001 6.077349e-001 5.831726e-001 1.778619e+000 4.369001e-001 -6.065661e-001 -1.199316e+000 -1.996131e-001 -1.067472e-001 -1.654776e-001 2.571141e-002 2.361172e-001 1.335784e-001 -2.004585e-001 -4.420301e-001 3.193862e-002 4.558003e-001 3.530133e-001 3.260084e-001 -7.738365e-002 -9.488402e-002
<VARIANCE> 39
 6.453096e+000 6.997849e+000 1.032036e+001 1.667328e+001 1.597507e+001 4.862943e+001 1.927877e+001 2.986893e+001 7.573462e+001 2.539255e+001 2.091020e+001 1.634515e+001 9.163693e+000 1.655167e-001 2.690496e-001 4.354110e-001 9.087986e-001 1.511756e+000 1.430123e+000 1.136303e+000 1.430475e+000 2.089873e+000 1.705575e+000 1.524032e+000 1.134246e+000 1.154001e-001 2.478172e-002 5.132843e-002 9.146742e-002 1.879166e-001 2.384502e-001 3.031133e-001 1.742886e-001 2.088012e-001 3.706706e-001 2.481232e-001 2.555308e-001 3.052692e-001 9.000510e-003
<GCONST> 7.981559e+001
<STATE> 12
<NUMMIXES> 4
<MIXTURE> 1 3.133221e-001
<MEAN> 39
 -1.307557e+001 -2.030897e+001 -2.764672e+000 -1.001627e+001 -1.428419e+001 -9.820615e+000 -1.064225e+001 7.279420e+000 1.904206e+001 7.612997e+000 -1.561896e+001 -7.948075e+000 8.331850e+001 -3.396396e-001 -1.647378e-001 5.493489e-001 9.035900e-001 3.211597e-001 -3.274447e-001 -9.551877e-001 -1.003368e+000 -9.587446e-002 4.033029e-001 8.603590e-001 4.248721e-001 -3.163859e-001 -3.177409e-002 -9.926005e-002 -6.546768e-002 1.461072e-002 5.324890e-002 2.554764e-001 8.798625e-002 -1.652067e-002 -1.105744e-001 -3.476718e-001 7.327299e-003 1.868578e-001 -3.189134e-002
<VARIANCE> 39
 1.947920e+000 3.676237e+000 4.578584e+000 1.083208e+001 1.636223e+001 1.698786e+001 2.639646e+001 2.312580e+001 1.128151e+001 1.946149e+001 2.154060e+001 1.053306e+001 1.519575e+000 1.249414e-001 2.416305e-001 2.965389e-001 5.798984e-001 8.014769e-001 1.499061e+000 1.261728e+000 9.059622e-001 1.472871e+000 2.668459e+000 1.761500e+000 1.761714e+000 6.206725e-002 2.154205e-002 4.336545e-002 6.948650e-002 1.235625e-001 1.409256e-001 2.564274e-001 1.954411e-001 1.990650e-001 3.175343e-001 5.117242e-001 3.819646e-001 2.938810e-001 7.046115e-003
<GCONST> 6.834412e+001
<MIXTURE> 2 2.392064e-001
<MEAN> 39
 -1.448753e+001 -2.037302e+001 -2.403846e+000 -4.871593e+000 -1.499552e+001 -1.428458e+001 -1.595161e+001 3.291003e-001 9.404264e+000 1.038637e+000 -1.589342e+000 4.154667e+000 8.155510e+001 -3.913607e-001 -4.615238e-001 -5.654879e-002 2.889941e-001 1.269042e+000 8.666196e-001 8.380896e-001 9.408468e-002 -4.499822e-001 -9.549249e-001 -1.806063e-001 8.274009e-002 -3.748481e-001 -3.549940e-002 -3.732511e-002 -6.220517e-002 1.426912e-002 1.460553e-001 1.056618e-001 8.874814e-002 2.043419e-002 -5.943671e-002 -3.416520e-003 -2.223896e-001 -1.902983e-001 -1.550219e-002
<VARIANCE> 39
 1.962135e+000 4.154067e+000 5.023398e+000 1.077683e+001 2.364207e+001 2.099155e+001 1.288472e+001 3.637029e+001 2.571342e+001 3.235273e+001 2.917770e+001 3.210480e+001 9.791607e-001 1.718929e-001 3.407791e-001 5.390906e-001 7.789345e-001 1.175713e+000 8.947139e-001 1.904595e+000 2.664955e+000 1.488248e+000 1.504194e+000 1.446148e+000 1.791494e+000 7.441274e-002 3.726917e-002 6.144688e-002 8.285978e-002 1.184939e-001 2.113208e-001 2.773920e-001 4.374585e-001 5.302797e-001 2.486002e-001 3.288280e-001 2.648635e-001 3.579173e-001 8.501242e-003
<GCONST> 7.617033e+001
<MIXTURE> 3 2.317228e-001
<MEAN> 39
 -1.343633e+001 -2.043278e+001 -8.532850e+000 -1.085691e+001 -1.663912e+001 -1.175129e+001 -1.909645e+000 1.638400e+001 1.326045e+001 -1.971999e+000 -6.043976e+000 -3.407796e+000 8.042392e+001 -1.554920e-001 -2.147458e-001 2.773057e-001 2.668904e-001 7.305159e-001 1.690316e-001 6.848817e-002 -3.262413e-001 6.671083e-002 4.995901e-001 9.544953e-001 2.491644e-001 -3.325439e-001 -4.521690e-002 -8.815639e-002 4.801990e-003 9.184171e-002 3.428414e-001 1.150804e-001 -7.693212e-002 -3.205759e-001 -1.930099e-001 -1.230383e-001 1.007903e-001 2.618289e-001 -3.697104e-002
<VARIANCE> 39
 1.153597e+000 3.687145e+000 3.248489e+000 6.529020e+000 2.522021e+001 2.765985e+001 1.417358e+001 1.723416e+001 1.458442e+001 1.565427e+001 3.785712e+001 1.678885e+001 2.427443e+000 1.283542e-001 1.383109e-001 2.452078e-001 6.262833e-001 2.007881e+000 1.637176e+000 1.040707e+000 1.442285e+000 1.250029e+000 1.313636e+000 6.056608e-001 8.744368e-001 8.191454e-002 3.223255e-002 2.543717e-002 4.407009e-002 1.013986e-001 1.959756e-001 2.184495e-001 1.484722e-001 2.335619e-001 2.008127e-001 2.361314e-001 1.468954e-001 1.147581e-001 6.380674e-003
<GCONST> 6.283120e+001
<MIXTURE> 4 2.157488e-001
<MEAN> 39
 -1.413354e+001 -2.171733e+001 -8.586080e+000 -1.433444e+001 -1.140010e+001 -4.385246e+000 -1.054155e+000 1.023743e+001 1.212245e+001 -7.339105e-001 -1.507455e+001 -4.193550e+000 8.181658e+001 -2.847970e-001 -2.811391e-001 4.567705e-001 4.786488e-001 9.317647e-002 -5.407560e-001 -1.037053e+000 -1.463962e-001 1.459098e+000 1.036344e+000 6.842442e-001 -2.180306e-001 -3.602826e-001 1.421902e-002 7.229020e-002 7.809724e-002 1.582903e-001 2.998472e-002 2.059458e-002 -1.968857e-001 -2.631903e-001 -3.078991e-001 -1.045574e-001 -1.372945e-002 5.828629e-002 -7.412017e-004
<VARIANCE> 39
 3.952892e+000 8.766442e+000 8.200970e+000 2.095466e+001 1.397923e+001 2.238523e+001 2.018131e+001 1.668578e+001 7.537115e+001 3.952882e+001 3.152785e+001 2.027753e+001 1.567911e+001 2.441105e-001 4.433664e-001 3.344358e-001 6.858518e-001 1.177161e+000 8.365805e-001 8.774162e-001 8.849502e-001 1.446565e+000 1.781905e+000 2.278945e+000 1.784144e+000 6.497820e-002 4.189916e-002 5.904951e-002 6.616411e-002 1.192309e-001 2.263974e-001 1.941888e-001 2.194467e-001 1.272108e-001 1.989107e-001 3.940747e-001 5.066716e-001 3.221262e-001 1.104692e-002
<GCONST> 7.838672e+001
<STATE> 13
<NUMMIXES> 4
<MIXTURE> 1 3.113922e-001
<MEAN> 39
 -1.561432e+001 -2.294827e+001 -1.632808e+000 -4.452834e+000 -1.316261e+001 -9.207024e+000 -1.141990e+001 3.339143e+000 1.526608e+001 3.580246e+000 -1.014704e+001 -2.140026e+000 8.123238e+001 -4.221329e-001 -3.397622e-001 -1.357231e-001 6.740133e-001 8.888023e-001 6.860622e-001 2.622611e-001 -5.681859e-001 -6.333777e-001 -3.922205e-001 2.233504e-001 9.586604e-002 -3.156090e-001 2.970818e-002 2.104777e-002 -1.261530e-001 -1.611861e-001 8.504651e-002 -1.014618e-002 2.954177e-002 4.417403e-002 1.183625e-001 3.748100e-001 -1.499039e-001 -3.088008e-001 5.646606e-002
<VARIANCE> 39
 1.085226e+000 5.792716e+000 9.390191e+000 1.342521e+001 2.138750e+001 1.541567e+001 1.230225e+001 1.423448e+001 1.600508e+001 1.630747e+001 1.677367e+001 9.646305e+000 3.482488e-001 1.006384e-001 3.401147e-001 6.629278e-001 7.009260e-001 1.800521e+000 1.210441e+000 6.839315e-001 1.016273e+000 1.344074e+000 1.633464e+000 9.446816e-001 1.212359e+000 4.184501e-002 1.812501e-002 4.483806e-002 1.406101e-001 1.464487e-001 2.570567e-001 1.256895e-001 1.538516e-001 1.237746e-001 2.308885e-001 2.640621e-001 2.026462e-001 2.122823e-001 3.110159e-003
<GCONST> 6.282650e+001
<MIXTURE> 2 3.882330e-001
<MEAN> 39
 -1.569251e+001 -2.171958e+001 -6.226690e+000 -7.549834e+000 -8.202420e+000 -1.037169e+001 -5.755640e+000 8.111184e+000 7.677984e+000 -2.467028e+000 -5.503870e-001 2.707721e+000 7.890624e+001 -6.736323e-001 -7.126637e-001 -5.223131e-002 6.064644e-001 1.436810e+000 1.066425e+000 5.970454e-002 -3.675525e-001 -9.210175e-001 -6.211188e-001 1.621071e-001 5.172936e-001 -4.753820e-001 -7.929301e-002 -7.746346e-002 -6.420390e-002 6.696078e-003 -8.002262e-002 1.852972e-001 1.857196e-001 1.394233e-001 -3.791217e-002 -7.852130e-002 -3.099043e-001 -1.568430e-001 2.975934e-002
<VARIANCE> 39
 1.933061e+000 3.673577e+000 4.714506e+000 1.031578e+001 1.289555e+001 1.437531e+001 3.943405e+001 2.581267e+001 2.399005e+001 1.899122e+001 2.746001e+001 2.478037e+001 1.091306e+000 1.020874e-001 1.938420e-001 3.357529e-001 5.525807e-001 1.244264e+000 1.085369e+000 1.698061e+000 1.506671e+000 8.600295e-001 9.324308e-001 1.293869e+000 1.162472e+000 6.137134e-002 2.201469e-002 3.312856e-002 5.878668e-002 9.862117e-002 2.076983e-001 2.777111e-001 1.990106e-001 1.891199e-001 2.037744e-001 2.389486e-001 1.844437e-001 2.183432e-001 9.957590e-003
<GCONST> 6.608067e+001
<MIXTURE> 3 1.939436e-001
<MEAN> 39
 -1.529772e+001 -2.221930e+001 -5.614606e+000 -1.330774e+001 -8.497267e+000 -8.826052e+000 -5.171195e+000 5.307855e+000 1.922146e+001 7.614493e+000 -1.239188e+001 -6.941486e+000 8.120778e+001 -4.067119e-001 -3.449859e-001 1.676168e-001 1.028321e+000 3.376373e-001 1.965750e-001 -9.689493e-001 -8.165262e-001 -1.066082e-001 -1.099548e-001 6.206632e-001 6.489688e-001 -5.026747e-001 5.010711e-002 8.611492e-002 6.002054e-002 1.983737e-001 1.207623e-001 1.137505e-001 6.432898e-002 1.227112e-001 -5.087295e-001 -4.602548e-001 1.536116e-001 2.890132e-001 2.551676e-002
<VARIANCE> 39
 1.823757e+000 2.390893e+000 8.480317e+000 2.056474e+001 9.905409e+000 2.232088e+001 7.601096e+001 2.553609e+001 4.613171e+001 1.686147e+001 2.111573e+001 9.982251e+000 1.591504e+000 1.260993e-001 1.912710e-001 6.773785e-001 1.206211e+000 4.397934e-001 5.282936e-001 2.143224e+000 1.768628e+000 1.996141e+000 1.933480e+000 1.796341e+000 1.314260e+000 1.376697e-001 1.666089e-002 5.345137e-002 1.398529e-001 2.147847e-001 1.636505e-001 1.455880e-001 3.996355e-001 3.426430e-001 3.127642e-001 2.189244e-001 2.411314e-001 3.020985e-001 2.177298e-002
<GCONST> 7.454350e+001
<MIXTURE> 4 1.064313e-001
<MEAN> 39
 -1.425475e+001 -2.154653e+001 -8.007689e+000 -1.018961e+001 -8.323093e+000 -4.993703e+000 -2.092823e+000 1.042177e+001 4.221694e+000 -8.943367e+000 -1.640259e+001 -5.485628e+000 7.581675e+001 -8.049492e-001 -7.533498e-001 -4.148866e-002 1.123403e+000 7.841436e-001 8.423712e-001 -6.959356e-002 -6.968077e-001 7.614121e-001 -3.821000e-001 5.310775e-001 7.460254e-001 -5.459492e-001 6.161687e-002 6.168417e-002 -2.934636e-002 -3.513125e-002 -2.730676e-002 1.014865e-001 2.730679e-001 4.199792e-002 -2.034863e-001 -1.185503e-001 4.480444e-002 1.779240e-001 8.049854e-002
<VARIANCE> 39
 5.501234e+000 1.092571e+001 2.612276e+000 1.444549e+001 1.522466e+001 3.014950e+001 9.338291e+000 1.943196e+001 1.049951e+001 1.405265e+001 2.393631e+001 1.027473e+001 1.085486e+001 2.329321e-001 3.366908e-001 4.844850e-001 4.414705e-001 8.542976e-001 5.966642e-001 1.992340e+000 1.780158e+000 7.787020e-001 1.484114e+000 1.482298e+000 6.484243e-001 8.440438e-002 2.851448e-002 2.842550e-002 6.417300e-002 1.028474e-001 1.749234e-001 9.389132e-002 2.763499e-001 4.700085e-001 1.656091e-001 2.516708e-001 2.462269e-001 1.601851e-001 8.352436e-003
<GCONST> 6.827052e+001
<STATE> 14
<NUMMIXES> 4
<MIXTURE> 1 4.939886e-001
<MEAN> 39
 -1.661992e+001 -2.310921e+001 -1.532247e+000 -4.778714e+000 -6.892189e+000 -6.820635e+000 -1.228984e+001 8.517732e-001 1.657509e+001 6.309742e+000 -1.109291e+001 -4.081511e+000 8.053497e+001 -1.415434e-001 -1.495697e-001 1.540985e-001 2.901139e-001 2.427804e-001 2.507241e-001 2.269047e-003 -3.702249e-002 -8.957072e-002 2.004713e-001 5.688585e-002 2.342052e-001 -1.918082e-002 3.488510e-002 2.647850e-002 -7.864282e-003 -4.379785e-002 -1.019778e-001 -5.143604e-002 2.749215e-002 5.982212e-002 8.623891e-003 4.335208e-003 -2.630098e-002 1.596372e-003 2.685114e-002
<VARIANCE> 39
 1.869928e+000 3.897282e+000 4.773332e+000 1.729572e+001 1.852170e+001 1.487213e+001 2.587209e+001 1.777131e+001 1.346046e+001 1.849588e+001 2.431903e+001 1.269132e+001 7.301281e-001 1.530487e-001 2.599264e-001 4.626322e-001 7.613531e-001 9.066204e-001 9.837292e-001 1.455146e+000 1.502110e+000 1.029021e+000 1.589036e+000 1.199668e+000 1.346705e+000 4.872356e-002 3.092932e-002 5.280814e-002 9.223957e-002 1.598145e-001 1.888297e-001 2.056381e-001 2.776185e-001 2.732992e-001 1.895336e-001 3.291707e-001 2.085425e-001 2.392877e-001 1.175945e-002
<GCONST> 6.843391e+001
<MIXTURE> 2 2.335603e-001
<MEAN> 39
 -1.833995e+001 -2.438476e+001 -4.775066e+000 -1.903348e+000 -1.897797e+000 -2.937972e+000 -5.958672e+000 7.705003e+000 5.128435e+000 -8.215728e+000 -2.178576e+000 6.167115e+000 7.801929e+001 -3.032929e-001 -2.757789e-001 4.218593e-002 3.942689e-001 8.568487e-001 7.317852e-001 2.814171e-001 1.449450e-001 -2.098909e-001 -7.153897e-002 5.688108e-002 1.604247e-001 -1.321883e-001 6.957013e-002 4.038538e-002 -2.736396e-002 -2.323520e-001 -3.579702e-001 -2.183665e-001 -5.397544e-002 1.738179e-002 1.640019e-001 1.815803e-001 9.473139e-003 -1.077579e-001 3.385847e-002
<VARIANCE> 39
 1.754817e+000 2.894770e+000 2.823044e+000 3.139342e+000 1.367568e+001 1.024842e+001 1.388187e+001 1.279074e+001 1.856051e+001 1.364292e+001 2.216235e+001 1.005206e+001 1.474348e+000 1.523198e-001 2.849182e-001 3.129273e-001 3.947689e-001 1.064789e+000 9.315740e-001 1.222267e+000 9.372387e-001 1.622381e+000 1.335972e+000 8.504970e-001 1.394839e+000 7.541824e-002 2.586164e-002 5.123163e-002 4.564973e-002 1.198212e-001 1.474674e-001 1.524308e-001 2.235978e-001 1.620120e-001 3.088073e-001 3.066397e-001 1.474563e-001 2.339829e-001 1.260555e-002
<GCONST> 6.114835e+001
<MIXTURE> 3 2.028765e-001
<MEAN> 39
 -1.888927e+001 -2.589296e+001 -8.494786e+000 -7.142042e+000 -4.939020e+000 -6.100684e+000 -3.430122e+000 8.355156e+000 5.405766e+000 -3.519961e+000 -1.505719e+000 2.422396e+000 7.705457e+001 -3.957457e-001 -4.837795e-001 1.352596e-001 5.586383e-001 9.168845e-001 8.232748e-001 3.782137e-001 6.616401e-002 -2.851961e-001 -5.548709e-001 -6.604903e-001 -9.830846e-002 -3.463627e-001 1.579405e-001 2.302053e-001 2.079407e-001 6.492473e-002 -1.893007e-002 -1.959363e-002 2.453705e-002 1.014040e-001 7.464316e-002 -1.613733e-002 -1.128746e-002 -3.424655e-002 8.431204e-002
<VARIANCE> 39
 2.892784e+000 3.549312e+000 5.374432e+000 7.096491e+000 1.171655e+001 7.889422e+000 1.498000e+001 7.420001e+000 2.461414e+001 1.665261e+001 1.800286e+001 1.797043e+001 1.123655e+000 1.293422e-001 3.225033e-001 5.239102e-001 1.267132e+000 1.355587e+000 1.109798e+000 1.254588e+000 1.287663e+000 1.404833e+000 1.267824e+000 8.813453e-001 1.595201e+000 7.819730e-002 1.569512e-002 2.665386e-002 6.142746e-002 1.297889e-001 2.089255e-001 1.696177e-001 1.556774e-001 1.308105e-001 2.882453e-001 1.077764e-001 1.370112e-001 2.300747e-001 9.779785e-003
<GCONST> 6.306636e+001
<MIXTURE> 4 6.957454e-002
<MEAN> 39
 -1.785797e+001 -2.287623e+001 -6.750952e+000 -6.220187e+000 -5.248083e+000 8.516224e-001 1.573949e+000 9.764928e+000 3.703576e+000 -1.056551e+001 -9.771455e+000 -9.601778e-001 7.388036e+001 -3.617243e-001 -1.567773e-001 4.981332e-001 5.206496e-001 5.756031e-001 8.592488e-001 3.392328e-001 3.717294e-001 1.299983e-001 -1.651313e-001 -6.680907e-002 -4.250273e-001 -1.915006e-001 7.996394e-002 2.703308e-002 -1.937645e-002 -9.057963e-002 -1.018184e-002 -2.515008e-001 -3.646890e-001 -2.009982e-001 9.430010e-002 2.421103e-001 2.643359e-002 8.465960e-002 5.081695e-002
<VARIANCE> 39
 1.663638e+000 1.623536e+001 6.598948e+000 1.472873e+001 1.756834e+001 3.023063e+001 1.087787e+001 2.075278e+001 1.806739e+001 1.532993e+001 3.834014e+001 1.435964e+001 1.175045e+001 1.194724e-001 1.884734e-001 4.184674e-001 6.555551e-001 7.095692e-001 5.624425e-001 1.219733e+000 1.073609e+000 5.051784e-001 9.350352e-001 8.105849e-001 1.013295e+000 5.465657e-002 1.742830e-002 4.592315e-002 1.071345e-001 1.398878e-001 2.381613e-001 1.714409e-001 1.398285e-001 1.885006e-001 6.441650e-002 1.524694e-001 1.855409e-001 2.459127e-001 9.100243e-003
<GCONST> 6.547867e+001
<TRANSP> 15
 0.000000e+000 1.000000e+000 0.000000e+000 0.000000e+000 0.000000e+000 0.000000e+000 0.000000e+000 0.000000e+000 0.000000e+000 0.000000e+000 0.000000e+000 0.000000e+000 0.000000e+000 0.000000e+000 0.000000e+000
 0.000000e+000 8.037865e-001 1.962135e-001 0.000000e+000 0.000000e+000 0.000000e+000 0.000000e+000 0.000000e+000 0.000000e+000 0.000000e+000 0.000000e+000 0.000000e+000 0.000000e+000 0.000000e+000 0.000000e+000
 0.000000e+000 0.000000e+000 7.794589e-001 2.205411e-001 0.000000e+000 0.000000e+000 0.000000e+000 0.000000e+000 0.000000e+000 0.000000e+000 0.000000e+000 0.000000e+000 0.000000e+000 0.000000e+000 0.000000e+000
 0.000000e+000 0.000000e+000 0.000000e+000 7.860762e-001 2.139237e-001 0.000000e+000 0.000000e+000 0.000000e+000 0.000000e+000 0.000000e+000 0.000000e+000 0.000000e+000 0.000000e+000 0.000000e+000 0.000000e+000
 0.000000e+000 0.000000e+000 0.000000e+000 0.000000e+000 7.378671e-001 2.621329e-001 0.000000e+000 0.000000e+000 0.000000e+000 0.000000e+000 0.000000e+000 0.000000e+000 0.000000e+000 0.000000e+000 0.000000e+000
 0.000000e+000 0.000000e+000 0.000000e+000 0.000000e+000 0.000000e+000 8.207682e-001 1.792318e-001 0.000000e+000 0.000000e+000 0.000000e+000 0.000000e+000 0.000000e+000 0.000000e+000 0.000000e+000 0.000000e+000
 0.000000e+000 0.000000e+000 0.000000e+000 0.000000e+000 0.000000e+000 0.000000e+000 8.784648e-001 1.215352e-001 0.000000e+000 0.000000e+000 0.000000e+000 0.000000e+000 0.000000e+000 0.000000e+000 0.000000e+000
 0.000000e+000 0.000000e+000 0.000000e+000 0.000000e+000 0.000000e+000 0.000000e+000 0.000000e+000 7.430553e-001 2.569447e-001 0.000000e+000 0.000000e+000 0.000000e+000 0.000000e+000 0.000000e+000 0.000000e+000
 0.000000e+000 0.000000e+000 0.000000e+000 0.000000e+000 0.000000e+000 0.000000e+000 0.000000e+000 0.000000e+000 7.400472e-001 2.599528e-001 0.000000e+000 0.000000e+000 0.000000e+000 0.000000e+000 0.000000e+000
 0.000000e+000 0.000000e+000 0.000000e+000 0.000000e+000 0.000000e+000 0.000000e+000 0.000000e+000 0.000000e+000 0.000000e+000 7.870761e-001 2.129239e-001 0.000000e+000 0.000000e+000 0.000000e+000 0.000000e+000
 0.000000e+000 0.000000e+000 0.000000e+000 0.000000e+000 0.000000e+000 0.000000e+000 0.000000e+000 0.000000e+000 0.000000e+000 0.000000e+000 7.949234e-001 2.050766e-001 0.000000e+000 0.000000e+000 0.000000e+000
 0.000000e+000 0.000000e+000 0.000000e+000 0.000000e+000 0.000000e+000 0.000000e+000 0.000000e+000 0.000000e+000 0.000000e+000 0.000000e+000 0.000000e+000 8.084300e-001 1.915700e-001 0.000000e+000 0.000000e+000
 0.000000e+000 0.000000e+000 0.000000e+000 0.000000e+000 0.000000e+000 0.000000e+000 0.000000e+000 0.000000e+000 0.000000e+000 0.000000e+000 0.000000e+000 0.000000e+000 7.221532e-001 2.778468e-001 0.000000e+000
 0.000000e+000 0.000000e+000 0.000000e+000 0.000000e+000 0.000000e+000 0.000000e+000 0.000000e+000 0.000000e+000 0.000000e+000 0.000000e+000 0.000000e+000 0.000000e+000 0.000000e+000 8.162422e-001 1.837578e-001
 0.000000e+000 0.000000e+000 0.000000e+000 0.000000e+000 0.000000e+000 0.000000e+000 0.000000e+000 0.000000e+000 0.000000e+000 0.000000e+000 0.000000e+000 0.000000e+000 0.000000e+000 0.000000e+000 0.000000e+000
<ENDHMM>
