~o
<STREAMINFO> 1 39
<VECSIZE> 39<NULLD><MFCC_D_A_0><DIAGC>
~h "taotaobujue"
<BEGINHMM>
<NUMSTATES> 18
<STATE> 2
<NUMMIXES> 4
<MIXTURE> 1 2.190118e-001
<MEAN> 39
 -5.894700e+000 -1.120213e+001 -1.347310e+001 -2.866425e+001 -1.448915e+001 7.406465e+000 3.417062e+000 2.318463e+000 7.242757e+000 -7.661776e+000 -2.443097e+000 -4.811217e+000 7.620232e+001 1.444186e+000 1.477344e-001 -1.415991e+000 -1.666529e+000 -3.730001e-001 1.148459e+000 1.200552e+000 2.543485e-001 4.944434e-001 7.437546e-001 5.393125e-001 5.622622e-002 9.321186e-001 -4.954479e-001 -2.113912e-001 3.358722e-001 6.743864e-001 2.625200e-001 -1.269539e-001 -2.279020e-001 -7.626213e-003 -1.894155e-001 -2.601689e-001 -2.188195e-001 2.986029e-001 -3.485874e-001
<VARIANCE> 39
 7.787008e+000 1.528937e+001 1.819643e+001 2.316105e+001 4.304490e+001 2.446471e+001 7.359805e+001 7.352813e+001 3.955508e+001 7.706268e+001 2.277898e+001 2.011725e+001 4.375504e+000 7.062619e-001 3.978745e-001 1.247576e+000 2.008009e+000 2.422460e+000 1.326618e+000 2.981560e+000 2.315211e+000 1.332926e+000 1.602760e+000 2.047178e+000 2.173862e+000 4.009185e-001 9.668062e-002 1.008208e-001 1.842566e-001 1.253091e-001 2.825103e-001 1.991506e-001 4.119141e-001 4.106907e-001 2.328257e-001 2.554546e-001 2.545500e-001 2.660126e-001 4.108496e-002
<GCONST> 9.600793e+001
<MIXTURE> 2 1.867692e-001
<MEAN> 39
 -2.237768e+001 -1.393482e+001 -1.253181e+001 -1.196505e+001 -2.568350e-001 -2.987878e+000 -8.986746e+000 4.863514e-002 2.112515e+000 -3.576377e+000 -7.811194e+000 -1.452536e+000 7.035874e+001 8.501809e-001 7.556295e-002 -2.779298e-001 1.314160e-001 1.055697e+000 -4.489283e-002 -8.830784e-001 -2.122460e+000 -1.495125e+000 -1.237557e+000 -8.047938e-001 -9.645814e-001 6.172011e-001 5.822792e-001 7.165478e-002 -2.537978e-002 -2.036151e-001 -2.399579e-001 1.489733e-001 -2.209055e-001 -1.343608e-001 2.142706e-001 -1.655512e-001 2.259190e-002 -2.001004e-001 1.185625e-001
<VARIANCE> 39
 1.427283e+001 1.636916e+001 1.667638e+001 1.763868e+001 4.059013e+001 2.598747e+001 3.110937e+001 4.053505e+001 4.129538e+001 3.614822e+001 1.707451e+001 3.213449e+001 4.371678e+000 2.036335e+000 1.030003e+000 1.384477e+000 9.334120e-001 3.137130e+000 1.754733e+000 3.114951e+000 2.271560e+000 2.791576e+000 3.175554e+000 2.096665e+000 1.613295e+000 2.449806e-001 1.236740e-001 1.635545e-001 1.958967e-001 1.794343e-001 4.446635e-001 3.979626e-001 6.318813e-001 5.577511e-001 8.050233e-001 7.996234e-001 3.342316e-001 2.821951e-001 5.651310e-002
<GCONST> 1.029621e+002
<MIXTURE> 3 2.955822e-001
<MEAN> 39
 -1.289692e+001 -1.419489e+001 -7.561016e+000 -1.682196e+001 -8.057985e+000 1.763134e+000 -5.761183e+000 -1.119544e+000 2.774868e+000 -1.286124e+001 -6.897499e+000 -4.363968e+000 7.174256e+001 2.347058e+000 9.397920e-001 -9.619417e-001 -1.698078e+000 -4.147669e-001 6.063862e-001 3.296792e-003 -4.517964e-001 4.088410e-002 -7.446602e-003 1.243088e-001 -6.369648e-001 1.314483e+000 1.823474e-001 -1.259273e-001 -5.358792e-001 -5.318339e-001 -5.160215e-002 2.735367e-001 3.634065e-001 3.717809e-001 4.709077e-001 5.036799e-001 2.229339e-001 7.391783e-002 1.688040e-001
<VARIANCE> 39
 1.127489e+001 1.260543e+001 1.092972e+001 2.769357e+001 2.958372e+001 2.346439e+001 5.475963e+001 4.243935e+001 3.216699e+001 5.305566e+001 3.346108e+001 2.439887e+001 4.743864e+000 7.218634e-001 6.969562e-001 1.111010e+000 1.492841e+000 2.187693e+000 1.526857e+000 4.052683e+000 3.523370e+000 2.435102e+000 2.845534e+000 2.487192e+000 1.835204e+000 2.586200e-001 1.531922e-001 1.153951e-001 1.210448e-001 1.975428e-001 3.531550e-001 1.954422e-001 3.408160e-001 3.855887e-001 2.832983e-001 2.887581e-001 4.770843e-001 3.309346e-001 3.740691e-002
<GCONST> 9.802309e+001
<MIXTURE> 4 2.986368e-001
<MEAN> 39
 -1.873647e+001 -1.641071e+001 -8.376671e+000 -1.504626e+001 -8.453271e+000 1.003717e+000 -6.447239e+000 4.768872e+000 7.767638e+000 -7.886312e+000 -5.639160e+000 -1.320553e+000 6.841003e+001 2.068661e-001 2.853596e-001 -4.262138e-001 4.177088e-002 2.160488e-001 -3.133037e-001 -6.006944e-001 -3.448526e-001 -5.130580e-001 3.805664e-001 -3.515405e-001 -1.938680e-001 5.160955e-001 1.313111e-001 4.587261e-003 5.091976e-002 4.344477e-002 1.517655e-001 6.808183e-002 8.105673e-002 -2.322632e-001 -2.398325e-001 -2.050886e-001 -4.123393e-002 -1.334121e-001 3.832087e-002
<VARIANCE> 39
 6.492791e+000 9.296020e+000 1.033543e+001 1.427077e+001 2.342045e+001 1.596780e+001 1.611808e+001 2.468059e+001 1.914178e+001 5.501064e+001 2.710491e+001 1.546553e+001 4.261611e+000 2.639590e-001 5.768656e-001 5.105845e-001 7.619811e-001 1.277751e+000 1.021534e+000 1.262975e+000 1.943583e+000 2.023300e+000 2.583944e+000 1.460650e+000 9.160694e-001 1.228315e-001 6.939436e-002 1.098225e-001 1.062188e-001 1.330654e-001 3.159410e-001 1.465942e-001 2.268760e-001 3.658996e-001 3.622043e-001 4.098723e-001 3.114244e-001 1.927926e-001 2.070007e-002
<GCONST> 8.202052e+001
<STATE> 3
<NUMMIXES> 4
<MIXTURE> 1 1.897803e-001
<MEAN> 39
 -3.107749e+000 -9.434381e+000 -1.439638e+001 -2.900108e+001 -1.693093e+001 6.276268e+000 -5.925821e+000 -2.936787e+000 9.110456e+000 8.463606e-001 1.694829e+000 -1.840702e+000 7.784769e+001 -4.634348e-002 4.115688e-001 5.429002e-001 -6.192235e-002 -4.570272e-001 -8.602622e-001 -7.566163e-001 4.246082e-001 9.519376e-002 -7.998440e-002 3.728102e-001 7.183887e-001 -2.107929e-001 -1.560147e-001 6.541350e-002 1.434312e-001 2.132086e-001 7.302217e-002 -2.546801e-001 -2.250941e-001 -3.217027e-002 3.828917e-002 6.856469e-003 -9.896810e-002 -1.156135e-001 -8.752235e-002
<VARIANCE> 39
 3.581643e+000 9.600646e+000 2.148264e+001 2.176673e+001 2.281447e+001 2.308791e+001 5.189606e+001 3.440845e+001 1.780034e+001 4.743686e+001 5.473115e+001 2.442031e+001 2.915212e+000 1.736138e-001 1.787288e-001 6.701224e-001 8.964763e-001 8.605329e-001 7.748970e-001 1.351283e+000 1.515409e+000 6.798803e-001 2.121760e+000 1.029844e+000 1.272478e+000 4.843663e-002 2.911837e-002 3.288144e-002 9.982444e-002 1.045913e-001 1.610561e-001 1.590525e-001 1.392043e-001 2.885148e-001 1.054061e-001 4.295904e-001 2.316489e-001 2.430955e-001 1.589242e-002
<GCONST> 7.555532e+001
<MIXTURE> 2 3.511623e-001
<MEAN> 39
 -3.867992e+000 -1.105088e+001 -1.328023e+001 -2.905968e+001 -1.440720e+001 7.519748e+000 9.637982e+000 9.092954e+000 7.894428e+000 -1.340450e+001 -2.662516e+000 -2.254060e+000 7.642644e+001 -8.152664e-002 2.558185e-001 4.693416e-001 -1.149279e-001 -8.560327e-001 -8.288525e-001 -3.224965e-001 4.353344e-001 2.432902e-001 -3.760589e-001 -6.359775e-002 3.360130e-001 -1.746259e-001 -1.391590e-001 -2.638296e-002 1.184984e-001 7.552935e-002 -8.279170e-002 -2.354726e-001 -3.132279e-001 -1.706338e-001 -2.444708e-002 5.915402e-002 -1.347059e-002 -4.464656e-002 -9.170101e-002
<VARIANCE> 39
 6.764716e+000 7.296683e+000 9.490973e+000 1.278440e+001 3.017799e+001 2.844623e+001 1.805942e+001 1.843653e+001 5.146119e+001 3.092701e+001 2.184051e+001 2.023182e+001 2.532117e+000 2.029512e-001 3.308365e-001 4.154057e-001 4.737369e-001 9.052611e-001 1.197576e+000 7.480769e-001 7.401603e-001 9.643564e-001 9.845999e-001 9.243841e-001 7.360608e-001 7.127334e-002 2.852002e-002 6.935597e-002 8.243756e-002 8.968739e-002 1.477282e-001 1.333385e-001 1.324514e-001 1.411008e-001 1.691567e-001 1.692507e-001 1.707579e-001 1.140456e-001 9.168677e-003
<GCONST> 6.819177e+001
<MIXTURE> 3 1.823021e-001
<MEAN> 39
 -9.507455e+000 -1.573429e+001 -1.622885e+001 -1.712476e+001 9.641004e-001 -1.101078e-001 -1.566942e+001 -5.498717e+000 1.576979e+000 -9.805470e+000 -1.079068e+001 -6.972814e+000 7.563940e+001 1.366964e+000 -4.776092e-001 -1.358346e+000 -1.143511e+000 1.232656e+000 1.142646e+000 2.331826e-001 4.628619e-001 1.008357e+000 8.283789e-001 -7.362110e-002 -5.896223e-001 8.660831e-001 -4.839734e-001 5.491416e-002 3.545323e-001 6.125811e-002 -1.133515e-001 3.007444e-002 5.107023e-001 3.858180e-001 7.494445e-002 1.062747e-001 2.500823e-001 2.026071e-001 -2.452902e-001
<VARIANCE> 39
 7.900234e+000 1.329615e+001 2.427603e+001 2.540719e+001 5.847781e+001 3.472074e+001 4.216672e+001 4.760138e+001 3.668092e+001 8.775852e+001 2.379294e+001 1.950488e+001 4.224684e+000 8.788133e-001 6.632490e-001 8.547565e-001 1.431705e+000 1.291217e+000 9.896871e-001 1.305317e+000 9.454300e-001 1.813036e+000 1.735209e+000 1.527114e+000 1.781796e+000 1.920209e-001 7.554729e-002 1.714512e-001 1.967731e-001 2.605693e-001 3.044504e-001 3.115466e-001 3.345525e-001 3.974731e-001 4.263799e-001 5.324153e-001 2.236838e-001 2.893291e-001 1.595004e-002
<GCONST> 9.420023e+001
<MIXTURE> 4 2.767553e-001
<MEAN> 39
 -5.980698e+000 -1.568807e+001 -1.493745e+001 -2.069812e+001 -1.529406e+000 5.809876e+000 -1.015343e+001 -2.149675e+000 4.693490e+000 -1.151630e+001 -8.224563e+000 -7.178844e+000 7.602355e+001 2.345931e-001 4.629028e-001 2.017597e-001 -7.350922e-001 -6.306978e-001 -5.351791e-002 9.545741e-001 5.951987e-001 -2.650690e-003 1.386606e-001 9.476277e-002 1.594784e-001 -3.483461e-002 -1.673697e-001 8.125896e-002 2.993451e-001 5.070723e-002 -4.123236e-001 -4.291106e-001 9.387325e-002 5.328001e-002 -1.818607e-001 -2.330411e-001 8.374562e-003 1.286223e-001 -1.501015e-001
<VARIANCE> 39
 5.383772e+000 5.444425e+000 1.138240e+001 1.556340e+001 1.758023e+001 4.298574e+001 8.398658e+001 5.208785e+001 3.859800e+001 3.833680e+001 3.705188e+001 2.381056e+001 2.609404e+000 1.585311e-001 2.035331e-001 4.660580e-001 6.058087e-001 1.288624e+000 9.785976e-001 9.715370e-001 8.002746e-001 1.076685e+000 1.123683e+000 1.378485e+000 7.269781e-001 9.819695e-002 2.200795e-002 4.266168e-002 8.194050e-002 1.134425e-001 1.557675e-001 1.846418e-001 2.132541e-001 1.413431e-001 1.786212e-001 1.853753e-001 2.168222e-001 1.446860e-001 9.966880e-003
<GCONST> 7.326052e+001
<STATE> 4
<NUMMIXES> 4
<MIXTURE> 1 1.677405e-001
<MEAN> 39
 -8.576465e+000 -1.166983e+001 -2.162237e+001 -2.657812e+001 8.439398e+000 2.217785e+000 -2.986492e+000 -6.335026e+000 3.233688e+000 -3.878675e+000 -7.510020e+000 -7.406043e+000 7.839456e+001 2.126322e-001 6.140573e-001 3.944579e-001 -4.173225e-001 -9.144745e-001 -5.583965e-002 5.295904e-001 3.073623e-001 4.748788e-001 4.578210e-001 4.158311e-001 1.961135e-001 -2.484709e-001 -9.379894e-002 1.852900e-002 1.504728e-001 1.763490e-001 -3.237305e-001 -3.093804e-001 -2.179106e-001 8.791548e-002 9.702802e-002 -3.994541e-003 -1.690703e-001 8.534383e-004 -1.148530e-001
<VARIANCE> 39
 3.449128e+000 1.252708e+001 1.396993e+001 3.995256e+001 3.463754e+001 1.337173e+001 2.961074e+001 1.694403e+001 2.135778e+001 7.276066e+001 1.430814e+001 2.313502e+001 3.825804e+000 2.405947e-001 3.486134e-001 9.503734e-001 1.735467e+000 1.564346e+000 2.175475e+000 1.276603e+000 9.999021e-001 1.871659e+000 1.769393e+000 1.482575e+000 1.429633e+000 1.645948e-001 7.251617e-002 8.697236e-002 1.957688e-001 2.428604e-001 2.332402e-001 2.257658e-001 1.389676e-001 1.895921e-001 2.787078e-001 3.243626e-001 2.370675e-001 2.247195e-001 2.172472e-002
<GCONST> 8.439399e+001
<MIXTURE> 2 4.181534e-001
<MEAN> 39
 -5.228827e+000 -7.127623e+000 -8.077251e+000 -2.731151e+001 -2.301527e+001 -5.301460e-001 -1.323449e+000 6.959649e+000 6.687616e+000 -1.268637e+001 -3.308633e+000 -9.887275e-001 7.398650e+001 -3.429960e-001 1.001630e-001 6.284854e-001 8.178338e-001 -2.375657e-002 -6.783417e-001 -1.125706e+000 -7.392246e-001 -1.800598e-001 -5.255852e-003 -6.468402e-002 2.925929e-001 -3.275543e-001 -6.323447e-002 -5.081766e-002 4.808009e-002 1.962382e-001 2.719257e-001 1.135627e-001 -1.106640e-001 -9.156600e-002 5.972574e-002 1.180697e-001 7.012740e-002 -2.597289e-002 -2.151348e-002
<VARIANCE> 39
 8.760539e+000 2.689488e+001 1.773174e+001 2.040979e+001 5.028159e+001 2.292389e+001 5.250554e+001 1.868841e+001 1.696934e+001 2.237288e+001 1.358382e+001 2.920618e+001 3.271696e+000 1.378426e-001 2.460099e-001 5.147002e-001 7.135925e-001 9.582139e-001 9.568838e-001 1.152130e+000 1.081874e+000 1.665654e+000 1.920121e+000 9.267628e-001 8.690072e-001 2.591661e-002 3.136683e-002 4.064825e-002 7.527790e-002 1.195705e-001 9.484003e-002 1.502847e-001 1.867507e-001 1.462026e-001 2.498935e-001 2.894250e-001 1.442662e-001 1.861684e-001 5.636006e-003
<GCONST> 7.246932e+001
<MIXTURE> 3 2.031486e-001
<MEAN> 39
 -6.820514e+000 -1.037156e+001 -1.075043e+001 -2.299360e+001 -1.090407e+001 -2.555372e+000 -1.346950e+001 -2.850085e+000 5.422730e+000 -5.860894e+000 -5.387073e+000 -8.471930e+000 7.355361e+001 -2.502086e-001 6.402801e-001 1.057334e+000 2.846385e-001 -1.281339e+000 -1.363736e+000 2.796873e-001 9.466006e-001 7.565560e-001 -3.078082e-001 -2.786600e-001 2.257937e-001 -3.896841e-001 -1.932041e-001 -6.775840e-002 1.026647e-001 3.250651e-001 2.147658e-001 1.220431e-001 2.573733e-003 -2.061143e-002 -6.122104e-002 -5.467734e-002 -1.562140e-001 1.118170e-001 -6.794991e-002
<VARIANCE> 39
 1.975067e+000 1.617176e+001 1.628709e+001 6.610354e+000 2.946608e+001 2.362279e+001 4.839524e+001 3.483524e+001 3.821933e+001 9.334354e+001 1.184081e+001 2.349357e+001 2.174729e+000 1.770872e-001 2.858135e-001 6.023383e-001 7.690221e-001 1.885615e+000 1.927062e+000 2.012204e+000 1.484845e+000 1.671604e+000 2.741000e+000 1.147128e+000 1.377099e+000 8.385289e-002 6.656145e-002 7.614794e-002 1.064722e-001 5.984844e-002 1.925922e-001 2.465504e-001 3.272261e-001 3.691730e-001 4.392853e-001 5.383899e-001 1.418137e-001 3.688723e-001 2.760440e-002
<GCONST> 8.302913e+001
<MIXTURE> 4 2.109575e-001
<MEAN> 39
 -7.535492e+000 -1.242371e+001 -8.662547e+000 -2.453838e+001 -1.217535e+001 -2.135959e-001 -2.785821e+000 3.814713e+000 7.954679e+000 -1.413010e+001 -6.418020e+000 -2.296354e+000 7.393336e+001 -1.217622e+000 -2.587344e-001 1.109803e+000 1.130082e+000 -4.730688e-001 -1.491294e+000 -1.497011e+000 -8.627305e-001 -1.355643e-001 2.596762e-002 6.063125e-002 -2.044745e-001 -7.522988e-001 -3.427097e-001 -2.801520e-001 2.948130e-002 4.249617e-001 2.505565e-001 1.931966e-001 -1.309772e-001 -2.681087e-001 -2.702648e-001 -1.434531e-001 9.493651e-002 -9.792901e-002 -1.557745e-001
<VARIANCE> 39
 4.840927e+000 7.905231e+000 1.826631e+001 1.263292e+001 3.445211e+001 1.803014e+001 2.290704e+001 2.526531e+001 3.729584e+001 3.563474e+001 4.539122e+001 3.080564e+001 2.713109e+000 1.993225e-001 3.729592e-001 5.394142e-001 1.573653e+000 2.298928e+000 1.108310e+000 2.383657e+000 1.099597e+000 1.629364e+000 1.246526e+000 1.902645e+000 1.497395e+000 5.668197e-002 4.129099e-002 4.663293e-002 9.809782e-002 1.292196e-001 1.473590e-001 2.437628e-001 3.623989e-001 3.495563e-001 2.960086e-001 1.846865e-001 3.725418e-001 2.709512e-001 1.556270e-002
<GCONST> 8.163439e+001
<STATE> 5
<NUMMIXES> 4
<MIXTURE> 1 1.614315e-001
<MEAN> 39
 -9.077720e+000 -7.842404e+000 -7.368018e+000 -2.114721e+001 -1.603984e+001 -7.556597e+000 -1.260904e+001 -7.950661e-001 7.437119e+000 -5.823408e+000 -5.174188e+000 -2.158521e+000 7.243382e+001 -1.644094e+000 -6.519929e-001 1.409538e+000 2.193742e+000 7.338054e-001 3.490768e-001 -1.821106e-001 -7.191858e-002 -5.945190e-001 -7.953229e-001 -1.672257e-001 2.182122e-001 -1.114404e+000 -3.620834e-001 -4.235646e-001 -2.876779e-001 1.075829e-001 7.454579e-001 1.078874e+000 9.333796e-001 2.478258e-001 -3.811064e-001 -3.711582e-001 -4.426922e-002 1.667815e-001 -1.151545e-001
<VARIANCE> 39
 5.936332e+000 1.605150e+001 2.525804e+001 1.813342e+001 4.278937e+001 1.932702e+001 5.515213e+001 3.493242e+001 4.883475e+001 8.099113e+001 5.246125e+001 2.209903e+001 4.069254e+000 4.774665e-001 6.896264e-001 1.162099e+000 7.061784e-001 3.853016e+000 2.838301e+000 3.169988e+000 2.631436e+000 2.765656e+000 1.796678e+000 2.952946e+000 2.100441e+000 2.025651e-001 5.920909e-002 6.019123e-002 1.964931e-001 2.235988e-001 2.090867e-001 2.494502e-001 3.741246e-001 5.335317e-001 6.156761e-001 4.013569e-001 5.007697e-001 2.100159e-001 2.517220e-002
<GCONST> 9.776144e+001
<MIXTURE> 2 3.432017e-001
<MEAN> 39
 -1.598329e+001 -1.723270e+001 -5.317759e+000 -1.703393e+001 -9.209238e+000 1.445797e-001 -3.379320e+000 1.784716e+000 7.206552e+000 -1.295602e+001 -6.053067e+000 -2.334590e+000 6.999914e+001 8.963777e-004 -1.674363e-001 -3.531460e-001 -8.177121e-002 2.903978e-001 2.299850e-001 1.112237e-001 -1.411192e-001 -3.632646e-002 -9.827305e-002 -2.423386e-001 -1.879547e-001 6.306998e-002 2.566258e-001 1.555802e-001 1.320785e-002 -5.284528e-002 -5.799280e-002 2.696612e-002 -7.630035e-002 -3.868796e-002 -6.556150e-002 -1.203799e-001 -1.056008e-002 -9.675941e-002 1.133141e-001
<VARIANCE> 39
 2.722820e+000 3.801570e+000 1.015043e+001 7.599094e+000 1.397519e+001 2.103305e+001 2.229792e+001 2.101487e+001 2.239723e+001 2.590390e+001 1.870217e+001 1.829839e+001 1.078949e+000 3.252959e-001 3.517399e-001 4.902003e-001 7.737619e-001 1.251927e+000 1.208251e+000 1.878197e+000 1.989113e+000 1.961331e+000 2.027518e+000 1.738265e+000 1.186948e+000 7.079854e-002 4.371881e-002 6.194318e-002 1.082905e-001 1.704432e-001 2.149768e-001 2.230535e-001 3.352599e-001 3.063634e-001 3.630527e-001 3.392564e-001 3.522898e-001 2.555604e-001 1.143458e-002
<GCONST> 7.632891e+001
<MIXTURE> 3 2.146494e-001
<MEAN> 39
 -1.398183e+001 -1.265044e+001 -4.316560e+000 -1.583370e+001 -1.035204e+001 -6.551539e-001 -7.048512e+000 8.612207e-001 4.816792e+000 -1.213565e+001 -5.723022e+000 -1.322125e+000 6.973775e+001 -1.925981e+000 -1.289148e+000 1.200873e-003 1.437033e+000 1.731524e+000 1.481856e+000 1.062156e+000 1.397569e-001 -7.893283e-001 -4.693916e-001 -2.401014e-001 4.604247e-001 -8.854417e-001 2.608834e-001 1.271141e-001 -5.146098e-001 -5.885068e-001 -2.767383e-001 -1.711592e-001 9.887847e-002 1.190547e-001 2.850614e-001 3.675959e-001 -1.289788e-002 7.666016e-002 2.548436e-001
<VARIANCE> 39
 7.192200e+000 1.720820e+001 1.041983e+001 1.198110e+001 1.766702e+001 2.210046e+001 3.238239e+001 2.460096e+001 3.112332e+001 4.659834e+001 2.039549e+001 1.630364e+001 3.227388e+000 5.501339e-001 6.411465e-001 1.126185e+000 1.103734e+000 1.605506e+000 2.233121e+000 2.684637e+000 1.950104e+000 2.902724e+000 1.676365e+000 2.148506e+000 1.673765e+000 1.642774e-001 7.866094e-002 1.152741e-001 1.507990e-001 1.516299e-001 3.824237e-001 3.985728e-001 4.204981e-001 3.379914e-001 5.419210e-001 2.983196e-001 3.466111e-001 2.677467e-001 3.452288e-002
<GCONST> 9.151292e+001
<MIXTURE> 4 2.807174e-001
<MEAN> 39
 -1.862400e+001 -1.279989e+001 -8.803755e+000 -1.435099e+001 -8.705744e+000 -3.062098e-002 -7.224351e+000 1.607277e+000 4.442851e+000 -6.301621e+000 -6.191270e+000 1.135400e+000 6.813935e+001 -2.180297e-001 1.733824e-001 -4.637089e-001 7.998010e-002 4.133499e-001 2.253678e-002 1.563564e-001 -7.004299e-002 2.522113e-002 4.369758e-001 -2.367297e-001 1.249130e-001 2.648499e-001 5.085461e-001 3.048944e-001 9.651332e-002 -2.275553e-001 -1.819296e-001 -2.973335e-001 -3.044174e-001 -2.719117e-001 -7.318385e-002 -2.048036e-001 -1.172807e-001 -2.799165e-001 2.211120e-001
<VARIANCE> 39
 4.646603e+000 1.400078e+001 1.054902e+001 1.304413e+001 3.147729e+001 3.326738e+001 3.568941e+001 3.151900e+001 2.307782e+001 3.954712e+001 2.153221e+001 2.804575e+001 2.734000e+000 8.306130e-001 1.014982e+000 9.242420e-001 1.361414e+000 2.191041e+000 2.156436e+000 2.308491e+000 2.438105e+000 3.477361e+000 3.786340e+000 2.023109e+000 2.952312e+000 2.073118e-001 1.272702e-001 2.405855e-001 1.478428e-001 2.909310e-001 5.453598e-001 5.585589e-001 5.033531e-001 4.093948e-001 6.910149e-001 6.480694e-001 4.901851e-001 4.347553e-001 7.163876e-002
<GCONST> 1.007266e+002
<STATE> 6
<NUMMIXES> 4
<MIXTURE> 1 2.167391e-001
<MEAN> 39
 -6.210784e+000 -8.909780e+000 -1.129747e+001 -2.918619e+001 -1.645580e+001 5.777843e+000 7.642758e+000 7.730008e+000 9.797682e+000 -1.401070e+001 -4.271924e+000 -1.570765e+000 7.514622e+001 1.391274e+000 4.901665e-001 -1.354174e+000 -2.134302e+000 -6.815237e-001 6.097929e-001 1.576554e+000 1.064245e+000 8.424059e-001 -1.014490e-001 4.900569e-001 3.040230e-001 9.387622e-001 -4.902203e-001 -3.015054e-001 2.249080e-001 6.592387e-001 3.129504e-001 -8.629306e-002 -3.697484e-001 -2.192235e-001 -1.650493e-001 4.389637e-002 4.503762e-002 7.541335e-002 -2.969484e-001
<VARIANCE> 39
 4.524947e+000 1.528021e+001 1.846331e+001 1.532571e+001 4.143021e+001 1.778095e+001 3.454268e+001 1.714026e+001 3.692414e+001 1.654199e+001 1.827249e+001 2.682964e+001 2.792403e+000 6.104836e-001 4.692189e-001 5.786433e-001 1.576130e+000 2.418229e+000 7.257782e-001 2.023546e+000 1.163729e+000 1.559415e+000 1.090799e+000 2.431076e+000 1.700446e+000 2.265654e-001 4.049471e-002 4.881459e-002 1.459810e-001 1.672040e-001 2.501025e-001 8.125016e-002 1.661839e-001 1.610443e-001 3.516798e-001 1.611695e-001 2.167036e-001 3.143954e-001 1.786729e-002
<GCONST> 8.168603e+001
<MIXTURE> 2 2.028206e-001
<MEAN> 39
 -1.005174e+001 -9.798809e+000 -8.725296e+000 -2.030513e+001 -1.224781e+001 -8.663137e-001 -9.505207e+000 7.093929e-001 6.482746e+000 -9.083305e+000 -9.257509e+000 -4.544671e+000 7.300753e+001 1.343408e+000 -3.668341e-002 -1.669857e+000 -2.241547e+000 -7.210668e-001 7.884504e-001 2.069100e-001 -4.130819e-001 4.337834e-001 4.774238e-001 7.766228e-001 -2.562542e-001 7.554150e-001 -1.226763e-001 -2.642404e-001 -3.416077e-001 -2.230685e-002 4.229863e-001 5.277488e-001 2.267809e-001 -1.589481e-001 -1.656582e-001 2.044217e-001 3.291998e-001 3.122731e-001 1.550687e-002
<VARIANCE> 39
 5.825221e+000 3.150477e+001 1.229283e+001 1.738271e+001 2.813807e+001 2.294413e+001 2.051619e+001 2.684684e+001 1.363295e+001 8.154725e+001 4.418596e+001 2.265458e+001 2.402748e+000 4.869994e-001 5.685155e-001 6.987166e-001 1.426898e+000 1.983397e+000 1.943799e+000 2.195090e+000 2.227652e+000 1.033343e+000 1.401094e+000 1.819799e+000 1.314517e+000 1.558999e-001 4.014606e-002 6.765770e-002 1.063388e-001 1.718071e-001 1.196828e-001 2.451458e-001 2.140348e-001 2.444897e-001 2.278463e-001 1.863859e-001 2.747822e-001 2.426331e-001 1.792330e-002
<GCONST> 8.458903e+001
<MIXTURE> 3 2.432083e-001
<MEAN> 39
 -1.420453e+001 -1.311142e+001 -6.095276e+000 -1.709174e+001 -9.942282e+000 3.487711e+000 -5.560507e-001 2.237646e+000 6.185993e+000 -1.266229e+001 -4.955405e+000 -2.122226e+000 7.045507e+001 1.871431e+000 1.152838e+000 -3.807784e-001 -1.768868e+000 -1.326023e+000 1.840590e-001 8.978842e-001 4.961788e-001 5.501847e-001 -4.486449e-001 -2.804314e-002 -3.824743e-001 9.424735e-001 3.670727e-001 8.042919e-002 -4.318344e-001 -7.882243e-001 -4.062966e-001 7.100604e-002 3.053197e-001 3.126076e-001 1.669962e-001 8.819498e-002 9.196864e-003 1.408921e-001 2.388071e-001
<VARIANCE> 39
 1.011796e+001 1.632571e+001 1.127724e+001 1.001048e+001 2.177586e+001 2.144300e+001 2.687258e+001 2.612843e+001 1.622015e+001 2.203902e+001 2.543901e+001 1.857956e+001 3.056628e+000 6.969615e-001 3.722913e-001 7.621743e-001 1.896383e+000 1.097757e+000 1.020010e+000 1.507334e+000 1.417993e+000 1.528842e+000 1.282186e+000 1.456083e+000 2.167710e+000 2.051334e-001 5.756821e-002 7.973439e-002 1.128280e-001 1.522552e-001 3.313038e-001 1.963063e-001 2.924732e-001 2.581750e-001 2.570103e-001 2.499920e-001 3.581570e-001 3.452497e-001 1.774484e-002
<GCONST> 8.386494e+001
<MIXTURE> 4 3.372320e-001
<MEAN> 39
 -1.679885e+001 -1.142535e+001 -1.145438e+001 -1.291329e+001 -1.360144e+000 -5.210186e+000 -1.269948e+001 -6.749019e+000 -5.038127e-001 -1.228609e+001 -1.263922e+001 -1.782814e+000 7.183913e+001 1.270739e+000 1.350842e-001 -5.646108e-001 -3.077627e-001 5.177151e-001 -3.617385e-001 -1.160951e+000 -1.132596e+000 -7.371209e-001 -7.879115e-001 -7.325147e-001 -9.672292e-001 7.166147e-001 1.754262e-001 -1.876796e-001 -2.853742e-001 -3.929142e-001 -1.148570e-001 3.359499e-001 3.054242e-001 3.308273e-001 4.542011e-001 4.351673e-001 4.061354e-001 -3.683142e-002 4.207912e-002
<VARIANCE> 39
 1.735576e+001 1.766269e+001 2.979970e+001 1.736937e+001 3.057446e+001 4.010070e+001 3.947386e+001 4.680489e+001 1.847742e+001 5.849967e+001 2.112902e+001 3.080297e+001 2.642495e+000 8.946628e-001 7.946596e-001 1.304290e+000 1.686898e+000 1.764088e+000 2.624257e+000 2.488855e+000 2.337341e+000 2.987135e+000 2.761806e+000 2.066684e+000 1.264730e+000 1.266661e-001 7.888898e-002 1.031214e-001 2.015796e-001 2.316219e-001 2.712291e-001 3.368666e-001 3.994518e-001 4.816212e-001 4.041044e-001 4.955040e-001 2.975367e-001 3.121379e-001 2.274345e-002
<GCONST> 9.778082e+001
<STATE> 7
<NUMMIXES> 4
<MIXTURE> 1 1.482706e-001
<MEAN> 39
 -7.816844e+000 -1.279314e+001 -1.867247e+001 -2.288032e+001 -2.417072e+000 5.866630e+000 -7.574348e+000 -6.511512e+000 6.022831e+000 -3.756143e+000 -7.227722e+000 -4.830567e+000 7.671853e+001 9.058822e-001 -3.809389e-001 -8.278237e-001 -9.386326e-001 6.669142e-001 1.322927e+000 6.326535e-001 4.027556e-001 5.404121e-001 7.566151e-001 6.780230e-001 8.387976e-002 5.438995e-001 -2.595590e-001 1.587736e-001 4.795077e-001 1.761382e-001 -2.883169e-001 -4.241886e-001 -4.271874e-002 3.206104e-001 -1.820557e-001 -3.196440e-001 -1.146273e-001 2.499773e-001 -2.111875e-001
<VARIANCE> 39
 1.010299e+001 2.061785e+001 2.765056e+001 3.638094e+001 1.234556e+002 4.167336e+001 5.129262e+001 2.827645e+001 1.995985e+001 5.347379e+001 3.888404e+001 2.063980e+001 3.830884e+000 3.190117e-001 7.915924e-001 2.045164e+000 1.222271e+000 1.725713e+000 1.485500e+000 2.158501e+000 2.144558e+000 1.124766e+000 1.993643e+000 1.301434e+000 1.319784e+000 1.784199e-001 7.809973e-002 1.181132e-001 2.042199e-001 2.015479e-001 2.136889e-001 2.283376e-001 3.574988e-001 2.808090e-001 2.225246e-001 1.859133e-001 2.251935e-001 2.518659e-001 1.385035e-002
<GCONST> 9.286825e+001
<MIXTURE> 2 5.055031e-001
<MEAN> 39
 -4.639918e+000 -8.679502e+000 -1.222792e+001 -3.137492e+001 -1.991710e+001 5.253025e+000 6.376753e+000 8.504414e+000 1.080171e+001 -1.285395e+001 -2.258023e+000 3.006501e-001 7.559074e+001 1.547521e-002 2.191434e-001 3.373255e-001 8.743467e-002 -6.698846e-001 -6.844173e-001 -5.180223e-001 -4.657713e-003 1.459260e-001 1.058114e-001 5.251816e-002 2.199760e-001 -1.505433e-001 -9.237239e-002 1.744054e-003 1.590864e-001 1.957976e-001 4.319534e-002 -1.819402e-001 -2.475226e-001 -1.167506e-001 -1.086775e-002 7.723011e-002 2.571670e-003 -5.433981e-002 -7.149124e-002
<VARIANCE> 39
 5.139934e+000 1.699463e+001 1.432178e+001 1.089566e+001 4.210608e+001 2.599694e+001 6.744499e+001 2.238520e+001 1.959437e+001 2.774604e+001 2.718632e+001 2.432763e+001 2.080990e+000 1.749800e-001 3.319903e-001 5.242035e-001 6.301519e-001 8.162439e-001 9.153136e-001 1.281029e+000 1.051440e+000 1.551489e+000 1.147611e+000 1.017223e+000 9.494582e-001 4.627607e-002 3.005239e-002 5.830742e-002 1.007182e-001 1.025518e-001 1.550181e-001 9.518006e-002 1.654910e-001 1.976789e-001 2.424518e-001 1.787118e-001 2.234080e-001 1.696574e-001 1.235462e-002
<GCONST> 7.320139e+001
<MIXTURE> 3 1.397138e-001
<MEAN> 39
 -9.407048e+000 -1.592677e+001 -1.438029e+001 -1.933121e+001 -3.087240e+000 1.963893e-001 -1.394170e+001 -4.740496e+000 -1.938489e+000 -1.348220e+001 -9.688797e+000 -5.875685e+000 7.403683e+001 9.052724e-001 -3.557488e-002 -9.544679e-001 -1.243482e+000 5.812847e-001 1.478228e+000 6.072378e-001 5.792357e-001 -1.708511e-001 5.784084e-001 8.499940e-001 -1.799159e-001 5.074049e-001 -1.766350e-001 1.089639e-001 3.419708e-001 2.075347e-001 2.075121e-002 1.315958e-001 4.640114e-001 3.938025e-001 2.578846e-001 1.642110e-001 1.842557e-001 1.409484e-001 -1.090899e-001
<VARIANCE> 39
 3.269159e+000 6.806394e+000 2.401791e+001 2.569500e+001 1.517463e+001 2.696724e+001 7.607398e+001 6.360287e+001 3.689937e+001 5.202160e+001 2.162057e+001 2.533146e+001 1.668620e+000 5.596323e-001 4.757777e-001 7.964066e-001 7.944962e-001 1.771404e+000 1.426708e+000 1.932912e+000 1.146747e+000 1.328140e+000 2.268862e+000 1.167635e+000 1.465059e+000 1.561612e-001 5.210625e-002 8.779597e-002 1.700974e-001 2.704836e-001 2.219853e-001 1.441056e-001 2.800135e-001 2.815643e-001 2.067361e-001 5.092709e-001 1.761110e-001 1.563673e-001 1.028632e-002
<GCONST> 8.493704e+001
<MIXTURE> 4 2.065125e-001
<MEAN> 39
 -5.710134e+000 -1.527364e+001 -1.298819e+001 -2.527353e+001 -6.078960e+000 8.812309e+000 -8.466390e-001 9.564998e-001 3.464190e+000 -1.491878e+001 -5.273751e+000 -4.833845e+000 7.540002e+001 1.228356e-001 2.958586e-001 3.671965e-001 -4.142648e-001 -9.570678e-001 -8.009543e-002 7.575604e-001 5.389836e-001 1.487189e-001 -2.645275e-001 2.370639e-001 2.552781e-001 -3.852152e-002 -1.133908e-001 5.928506e-002 2.004455e-001 1.187202e-001 -2.785565e-001 -3.291303e-001 -1.242525e-001 -1.031526e-002 9.671884e-002 -3.071060e-002 -8.905772e-002 2.407583e-002 -7.882281e-002
<VARIANCE> 39
 5.643349e+000 2.917624e+000 1.515323e+001 8.365592e+000 3.787014e+001 3.217217e+001 3.082307e+001 1.787535e+001 2.575330e+001 3.569988e+001 1.362486e+001 2.090676e+001 2.626507e+000 8.690799e-002 1.667129e-001 3.440612e-001 2.687185e-001 1.048098e+000 8.052679e-001 9.455995e-001 6.155273e-001 7.259214e-001 1.077729e+000 6.908243e-001 8.443100e-001 4.068873e-002 1.776269e-002 3.667566e-002 8.367320e-002 7.542356e-002 1.419021e-001 1.217743e-001 1.666093e-001 7.119796e-002 1.579601e-001 2.244630e-001 8.529247e-002 1.342285e-001 6.815443e-003
<GCONST> 6.117422e+001
<STATE> 8
<NUMMIXES> 4
<MIXTURE> 1 1.800653e-001
<MEAN> 39
 -9.039926e+000 -9.868739e+000 -2.268464e+001 -2.566988e+001 8.328703e+000 1.419796e+000 -6.992636e-001 -4.334711e+000 1.500934e+000 -3.415258e+000 -8.352184e+000 -4.952853e-001 7.770499e+001 1.884068e-001 5.432956e-001 5.508623e-001 -6.645533e-001 -1.550808e+000 -1.626046e-001 1.835978e-001 5.037844e-001 -2.701387e-001 1.088345e-001 4.763517e-001 6.685887e-001 -2.621612e-001 -4.909520e-002 -2.917683e-003 1.927775e-001 8.318742e-002 -4.423892e-001 -2.455330e-001 -2.100519e-001 8.010323e-002 1.174638e-001 -2.241522e-001 -4.219044e-002 -8.962767e-002 -1.111306e-001
<VARIANCE> 39
 2.235292e+000 8.177740e+000 9.407438e+000 2.855370e+001 2.764070e+001 3.047484e+001 3.183112e+001 1.186468e+001 1.143047e+001 1.066918e+002 2.661156e+001 2.158613e+001 2.639349e+000 1.441200e-001 6.007016e-001 7.281879e-001 7.626996e-001 2.443169e+000 1.357431e+000 1.333396e+000 1.601697e+000 8.804408e-001 1.290129e+000 1.673531e+000 1.127046e+000 1.001953e-001 4.155184e-002 1.326638e-001 2.345064e-001 1.876249e-001 2.868080e-001 3.037457e-001 2.545555e-001 3.177624e-001 2.162378e-001 3.650894e-001 2.904283e-001 1.998728e-001 1.828561e-002
<GCONST> 8.199413e+001
<MIXTURE> 2 1.930154e-001
<MEAN> 39
 -9.434437e+000 -1.068714e+001 -5.492452e+000 -2.223783e+001 -1.552564e+001 -2.053598e+000 -5.185186e+000 3.865241e+000 7.979712e+000 -1.181419e+001 -3.127901e+000 -3.295056e-001 7.155581e+001 -2.058735e+000 -1.143211e+000 2.024759e+000 3.076196e+000 1.616883e+000 -5.737154e-001 -2.422426e+000 -1.769550e+000 -1.405589e+000 -1.509197e+000 -8.115889e-001 -4.014399e-001 -1.404394e+000 -1.961498e-001 -2.755490e-001 -4.405826e-001 -1.094670e-001 5.515956e-001 6.747169e-001 3.708872e-001 -2.180744e-001 -5.077121e-001 -3.441304e-001 -3.344344e-001 -1.686066e-001 1.342720e-002
<VARIANCE> 39
 4.949059e+000 1.395017e+001 6.707185e+000 1.197360e+001 2.685476e+001 2.085642e+001 3.311724e+001 2.183724e+001 2.600681e+001 3.927022e+001 3.535432e+001 2.918374e+001 3.243843e+000 2.836673e-001 7.299538e-001 8.762683e-001 6.317432e-001 1.461310e+000 2.171637e+000 1.926293e+000 1.135676e+000 2.025792e+000 4.286983e+000 2.443058e+000 1.982518e+000 1.980655e-001 1.342129e-001 1.200586e-001 9.419592e-002 1.950504e-001 3.384832e-001 2.222655e-001 5.633345e-001 5.090832e-001 4.420974e-001 4.875841e-001 3.935842e-001 3.743050e-001 3.067502e-002
<GCONST> 9.125060e+001
<MIXTURE> 3 3.671997e-001
<MEAN> 39
 -5.385924e+000 -8.377441e+000 -9.873937e+000 -2.746033e+001 -1.909151e+001 -6.060967e-001 -3.674743e+000 4.714001e+000 8.275580e+000 -1.022075e+001 -2.838833e+000 -4.599313e-001 7.399725e+001 -5.725325e-001 2.572246e-001 1.912295e+000 1.363153e+000 -7.656826e-001 -1.974478e+000 -1.263714e+000 -2.475198e-002 5.153784e-001 -2.182052e-001 2.215667e-001 -4.545169e-002 -7.328448e-001 -4.634909e-001 -3.546335e-001 2.616676e-001 7.127349e-001 8.221032e-001 2.218209e-001 -2.869140e-001 -4.771331e-001 -4.069088e-001 -3.739598e-001 -2.956104e-001 -2.293476e-001 -2.349159e-001
<VARIANCE> 39
 4.167824e+000 1.898308e+001 1.534672e+001 1.479387e+001 5.248389e+001 3.859523e+001 5.755736e+001 2.255991e+001 4.251884e+001 5.597227e+001 3.085907e+001 3.766336e+001 2.246384e+000 4.221013e-001 3.432291e-001 7.137511e-001 1.159322e+000 2.719609e+000 1.260985e+000 2.086982e+000 2.133108e+000 1.961465e+000 2.911007e+000 1.385057e+000 1.939394e+000 1.444837e-001 5.373433e-002 8.996157e-002 1.010704e-001 1.411098e-001 2.275242e-001 3.483293e-001 3.190890e-001 3.108789e-001 3.945652e-001 3.603454e-001 2.971946e-001 3.343894e-001 1.370900e-002
<GCONST> 9.032108e+001
<MIXTURE> 4 2.597196e-001
<MEAN> 39
 -5.968483e+000 -1.167476e+001 -1.384387e+001 -2.243967e+001 -7.075711e+000 3.730168e+000 -1.459682e+001 -4.711246e+000 -1.037971e+000 -6.337605e+000 -4.903425e+000 -7.030541e+000 7.373042e+001 1.329392e-001 5.939919e-001 6.308302e-001 -4.162011e-001 -1.487730e+000 -4.044257e-001 7.874912e-001 9.049070e-001 3.492091e-001 -2.129835e-001 2.835256e-001 2.831138e-001 -1.593950e-001 -6.454600e-002 3.803315e-002 1.891184e-001 6.999999e-002 -1.877768e-001 -3.294553e-001 -7.496757e-002 -1.758226e-002 1.808272e-001 -7.393558e-002 -1.188035e-001 1.861306e-002 -8.033529e-002
<VARIANCE> 39
 3.483967e+000 1.209641e+001 9.292927e+000 7.441540e+000 3.447287e+001 2.271105e+001 1.928017e+001 4.717436e+001 6.266835e+001 5.078615e+001 8.300188e+000 2.711099e+001 2.267566e+000 1.093381e-001 2.742338e-001 7.248812e-001 4.616533e-001 9.494692e-001 1.253494e+000 7.330030e-001 1.495008e+000 1.880013e+000 1.159617e+000 9.165354e-001 7.754385e-001 4.582071e-002 3.102956e-002 3.726183e-002 8.673016e-002 1.033004e-001 1.107493e-001 1.642349e-001 8.075038e-002 1.742145e-001 3.061868e-001 2.169205e-001 1.471493e-001 1.341112e-001 9.265594e-003
<GCONST> 6.938258e+001
<STATE> 9
<NUMMIXES> 4
<MIXTURE> 1 1.101035e-001
<MEAN> 39
 -6.178306e+000 -5.466677e+000 -1.963746e+000 -2.088340e+001 -2.152238e+001 -8.281004e+000 -1.017396e+001 2.082526e+000 8.642835e+000 -1.136823e+001 -3.505409e+000 -2.265824e+000 7.166358e+001 -1.661362e+000 -1.188193e+000 1.361308e+000 2.495303e+000 2.543377e+000 9.750357e-001 -4.530266e-002 -9.444577e-001 -1.146737e+000 -1.318952e+000 -1.062103e+000 -7.248365e-001 -1.028612e+000 -4.059481e-001 -5.147761e-001 -4.226775e-001 1.930234e-001 7.738933e-001 1.021336e+000 4.231566e-001 -6.419301e-002 -4.506854e-001 -2.799555e-001 -1.506883e-001 9.699208e-002 -1.156166e-001
<VARIANCE> 39
 2.867676e+000 9.936543e+000 1.032523e+001 1.202457e+001 3.522215e+001 2.941330e+001 2.821762e+001 2.679704e+001 2.906073e+001 2.413686e+001 2.086718e+001 2.509381e+001 4.912891e+000 4.435506e-001 6.461198e-001 7.447006e-001 6.360633e-001 1.659385e+000 1.978274e+000 1.567163e+000 1.713470e+000 3.060539e+000 2.032704e+000 1.219040e+000 2.362671e+000 1.068174e-001 5.257339e-002 7.581438e-002 9.367827e-002 1.570296e-001 2.687565e-001 2.054852e-001 2.202855e-001 5.051582e-001 6.421696e-001 3.253717e-001 3.326692e-001 3.504786e-001 1.703720e-002
<GCONST> 8.603095e+001
<MIXTURE> 2 4.975456e-001
<MEAN> 39
 -1.622591e+001 -1.591180e+001 -3.128314e+000 -1.591471e+001 -1.059212e+001 -5.952744e-001 -6.242061e+000 1.404090e-001 4.092975e+000 -1.497593e+001 -4.507573e+000 -2.140303e+000 6.816535e+001 -1.402165e-001 -8.300377e-002 -1.159548e-001 -8.141418e-002 -1.960745e-001 -2.636046e-001 6.499588e-002 1.115677e-001 4.660463e-002 2.451789e-001 2.376740e-001 1.031014e-001 -6.648184e-002 2.690639e-001 2.544053e-001 7.416677e-002 -7.435695e-002 -1.930566e-001 -1.705250e-001 -1.454457e-001 -5.795171e-002 -1.656382e-002 -4.687827e-002 -6.572951e-002 -5.488596e-002 1.275681e-001
<VARIANCE> 39
 2.455516e+000 5.017956e+000 6.575046e+000 1.354500e+001 1.466706e+001 1.516802e+001 2.299563e+001 2.240204e+001 2.165485e+001 2.233048e+001 2.390950e+001 1.522200e+001 4.696918e+000 2.480294e-001 3.730757e-001 3.781008e-001 6.240796e-001 8.121571e-001 1.108325e+000 1.222408e+000 1.438341e+000 1.617534e+000 1.742564e+000 1.037816e+000 1.075029e+000 5.663114e-002 3.606470e-002 7.052877e-002 8.216198e-002 1.062535e-001 1.748665e-001 2.039812e-001 2.378389e-001 2.769491e-001 3.179560e-001 3.083879e-001 2.712990e-001 1.838426e-001 1.084218e-002
<GCONST> 7.224812e+001
<MIXTURE> 3 2.886458e-002
<MEAN> 39
 -1.017406e+001 -7.502153e+000 -1.157801e+001 -2.486152e+001 -2.175984e+001 -1.935598e+000 -7.085799e+000 4.212285e+000 9.619101e-001 -1.488935e+001 -1.402349e+001 1.038421e+000 7.170018e+001 4.997980e-001 3.972752e-001 5.750656e-001 3.603618e-001 -1.395213e+000 -1.155183e+000 -1.354245e+000 3.127074e-001 5.710729e-001 -1.607462e-002 -1.058255e-001 -9.951181e-002 -1.787643e-002 -2.914932e-002 9.328673e-002 2.916089e-001 4.646762e-001 5.773646e-001 -1.541486e-003 -3.207851e-001 -3.976049e-001 -9.837569e-002 2.929625e-001 2.425721e-001 -3.284491e-002 -4.660723e-002
<VARIANCE> 39
 1.914622e+001 2.331761e+001 1.333918e+001 1.109959e+001 3.627066e+001 2.298681e+001 5.128301e+001 4.435434e+001 8.910160e+000 2.500585e+001 1.036634e+001 1.322436e+001 1.007899e+001 1.771276e+000 2.623351e+000 2.639115e+000 3.146911e+000 4.726638e+000 3.317162e+000 7.218994e+000 5.167599e+000 5.959865e-001 4.906170e+000 1.389415e+000 1.023369e+000 1.656991e+000 3.674687e-001 4.939115e-001 2.404280e-001 3.837056e-001 7.541958e-001 7.858787e-001 9.903059e-001 8.545845e-001 1.759117e-001 2.145433e-001 2.882038e-001 2.038042e-001 1.342461e-001
<GCONST> 1.089240e+002
<MIXTURE> 4 3.634863e-001
<MEAN> 39
 -1.369197e+001 -1.282202e+001 -2.435470e+000 -1.524737e+001 -1.102082e+001 -3.000014e-001 -8.589936e+000 -5.373433e-001 3.029014e+000 -1.667543e+001 -7.046619e+000 -2.638484e+000 6.840297e+001 -1.401500e+000 -1.068380e+000 7.542390e-002 1.058542e+000 1.270319e+000 8.887088e-001 1.841341e-001 -3.568155e-001 -6.381656e-001 -5.499201e-001 -3.908677e-001 -3.001864e-002 -7.340563e-001 3.628815e-001 2.271712e-001 -4.110953e-001 -7.019801e-001 -6.127744e-001 -1.803565e-001 2.855228e-001 3.963737e-001 4.195702e-001 5.909771e-001 3.575807e-001 2.257725e-001 2.435796e-001
<VARIANCE> 39
 6.164978e+000 9.773255e+000 9.367839e+000 1.152630e+001 1.527947e+001 2.789926e+001 3.487899e+001 2.767013e+001 3.529681e+001 3.375930e+001 2.287049e+001 1.792716e+001 5.404436e+000 4.903732e-001 6.769807e-001 7.534263e-001 1.330010e+000 2.040708e+000 1.671835e+000 2.636270e+000 2.500385e+000 3.137918e+000 3.315595e+000 2.471723e+000 1.969648e+000 1.674326e-001 6.591931e-002 9.559780e-002 1.361924e-001 1.045849e-001 2.391212e-001 3.890327e-001 5.595000e-001 4.090427e-001 4.938599e-001 5.006288e-001 2.668419e-001 3.109500e-001 2.230841e-002
<GCONST> 9.146431e+001
<STATE> 10
<NUMMIXES> 4
<MIXTURE> 1 3.932472e-001
<MEAN> 39
 -1.555692e+001 -1.360228e+001 -3.631135e+000 -1.542441e+001 -1.233665e+001 -1.972402e+000 -8.700665e+000 5.322846e-001 3.394843e+000 -1.379862e+001 -5.272484e+000 -9.367174e-001 6.750632e+001 1.004726e+000 1.120952e+000 3.799760e-001 -4.556287e-001 -1.396711e+000 -1.316115e+000 -1.211833e+000 -6.334643e-001 -3.909660e-001 -2.389605e-002 -2.665970e-001 -7.289698e-002 4.927340e-001 3.445261e-001 2.614733e-001 1.149085e-001 -2.498165e-001 -4.117129e-001 -3.630434e-001 -2.273519e-001 -1.352655e-001 -9.826828e-002 -2.151525e-001 -1.785999e-001 -1.832550e-001 1.588387e-001
<VARIANCE> 39
 6.151098e+000 8.386556e+000 8.238665e+000 1.704107e+001 1.756627e+001 1.800564e+001 2.692564e+001 3.134952e+001 2.957430e+001 2.768389e+001 1.761166e+001 1.707492e+001 5.199025e+000 3.716133e-001 4.037258e-001 6.978743e-001 7.515970e-001 1.012651e+000 1.534230e+000 1.300010e+000 2.095176e+000 2.289262e+000 2.543066e+000 1.744487e+000 1.521077e+000 6.602794e-002 4.763776e-002 6.295748e-002 9.419130e-002 1.181170e-001 1.497487e-001 2.918034e-001 3.005677e-001 3.389923e-001 3.732059e-001 3.766586e-001 2.816738e-001 2.538354e-001 1.018467e-002
<GCONST> 8.113326e+001
<MIXTURE> 2 1.415105e-001
<MEAN> 39
 -8.973647e+000 -1.025185e+001 -2.467052e+000 -2.258446e+001 -1.910297e+001 -6.307702e+000 -6.669827e+000 2.176679e+000 8.097353e+000 -1.065747e+001 -2.112755e+000 -9.853876e-001 7.204785e+001 7.611062e-001 5.889555e-001 -4.872624e-003 -5.406253e-001 -8.246468e-001 -5.780709e-001 -3.451114e-001 -3.185896e-001 -2.917902e-001 3.319726e-001 5.685816e-001 7.798859e-001 3.378047e-001 -2.446871e-001 -2.417470e-001 7.749564e-003 2.426238e-001 3.250045e-001 1.872793e-001 -8.557257e-002 -4.142343e-001 -5.584850e-001 -4.464594e-001 -1.168152e-001 2.115855e-002 -1.412200e-001
<VARIANCE> 39
 4.839156e+000 1.890941e+001 3.943600e+000 7.862543e+000 1.945225e+001 1.147221e+001 1.777720e+001 1.130739e+001 5.360410e+000 2.198457e+001 1.895754e+001 2.549690e+001 1.883714e+000 4.489157e-001 4.428928e-001 5.721293e-001 1.090074e+000 1.842709e+000 1.433170e+000 1.298835e+000 1.556536e+000 1.430370e+000 1.429986e+000 1.033000e+000 8.808812e-001 1.322934e-001 3.662033e-002 7.110577e-002 6.546289e-002 8.639158e-002 1.031323e-001 1.406139e-001 1.736263e-001 1.627527e-001 1.161436e-001 1.907899e-001 1.575814e-001 1.540320e-001 8.647809e-003
<GCONST> 6.890440e+001
<MIXTURE> 3 2.351314e-001
<MEAN> 39
 -1.073594e+001 -6.746025e+000 -1.590753e+000 -1.615806e+001 -1.989616e+001 -8.702472e+000 -1.635941e+001 -1.453908e+000 1.900067e+000 -1.266211e+001 -7.682138e+000 -2.353733e+000 6.863962e+001 1.296830e+000 1.226968e+000 1.307450e-001 -1.068358e+000 -1.911805e+000 -1.370982e+000 -9.524636e-001 1.338140e-001 1.054407e-001 1.404887e-001 -3.363091e-001 -5.264877e-001 5.786348e-001 -1.977934e-001 -2.167121e-001 -1.857581e-001 7.400086e-002 2.680383e-001 4.733785e-001 3.102403e-001 3.014993e-001 1.300645e-001 1.165012e-001 1.849425e-001 1.250882e-001 -9.600824e-002
<VARIANCE> 39
 5.814445e+000 5.371925e+000 1.307821e+001 1.649817e+001 2.460221e+001 2.251151e+001 1.546513e+001 3.140170e+001 3.992435e+001 2.911158e+001 1.620184e+001 2.360982e+001 2.102838e+000 5.623077e-001 6.465150e-001 8.660334e-001 7.028370e-001 8.352129e-001 1.596510e+000 1.798767e+000 2.300400e+000 2.042631e+000 1.560501e+000 1.356784e+000 1.866971e+000 9.859563e-002 6.739632e-002 8.633977e-002 9.688807e-002 1.381466e-001 1.641267e-001 2.277182e-001 1.917321e-001 3.632939e-001 4.030865e-001 2.903282e-001 2.110897e-001 3.207513e-001 1.323736e-002
<GCONST> 8.214117e+001
<MIXTURE> 4 2.301107e-001
<MEAN> 39
 -1.169701e+001 -1.264688e+001 -2.181047e+000 -2.000210e+001 -1.643122e+001 -7.457772e+000 -1.010866e+001 -2.679638e+000 1.734835e+000 -1.862875e+001 -7.797531e+000 -6.738586e+000 7.063702e+001 9.407312e-001 8.220382e-001 4.134969e-002 -9.268311e-001 -1.220940e+000 -7.537764e-001 1.224431e-001 3.802472e-001 2.877569e-001 -1.076879e-001 -2.346687e-001 -3.314836e-001 4.274840e-001 -8.341278e-002 -1.101030e-001 -4.663540e-002 5.891609e-002 2.147326e-001 2.308327e-001 2.419272e-001 3.432863e-001 3.320172e-001 3.514923e-001 2.480273e-001 2.883453e-001 -3.900927e-002
<VARIANCE> 39
 3.435573e+000 3.774871e+000 6.340215e+000 1.044176e+001 1.287934e+001 1.719991e+001 2.092514e+001 1.631760e+001 1.667265e+001 1.816479e+001 2.409883e+001 1.364139e+001 2.091729e+000 3.994640e-001 3.591475e-001 2.901725e-001 6.131285e-001 1.153560e+000 1.177408e+000 1.496333e+000 1.658199e+000 1.821439e+000 2.202420e+000 1.722162e+000 9.471588e-001 1.167241e-001 4.012046e-002 4.407051e-002 5.284224e-002 9.217536e-002 1.820095e-001 1.923691e-001 1.832330e-001 2.017056e-001 2.746609e-001 2.426031e-001 1.788630e-001 1.838844e-001 7.835588e-003
<GCONST> 6.990552e+001
<STATE> 11
<NUMMIXES> 4
<MIXTURE> 1 5.711390e-002
<MEAN> 39
 -8.516998e+000 -4.253085e-001 -3.084281e+000 -1.055306e+001 -1.845974e+001 3.491174e-001 -2.493423e+001 -9.862989e-001 4.130272e-001 -2.173431e+000 -3.238150e-001 1.027433e+000 7.098071e+001 -2.714360e-001 3.824355e-001 7.703842e-001 2.025532e+000 2.109009e+000 1.555040e+000 9.424186e-001 2.830854e-001 5.197832e-001 1.043543e+000 3.042496e-001 -5.080389e-001 -4.043877e-003 -2.755191e-001 -3.334920e-001 2.122506e-001 2.406817e-002 4.456508e-001 1.238802e-001 8.513041e-001 2.949165e-001 7.049481e-002 -5.626592e-001 -3.058963e-001 -3.747941e-002 -1.785934e-001
<VARIANCE> 39
 1.039261e+000 1.330028e+001 6.324831e+000 2.255991e+001 3.316773e+001 1.600067e+001 1.066021e+001 3.034704e+001 1.512361e+001 2.353833e+001 9.126887e+000 1.270035e+001 1.823667e+000 3.209627e-001 5.645952e-001 1.015746e+000 4.539264e-001 2.145226e+000 1.456069e+000 3.759446e+000 9.844480e-001 1.363611e+000 3.083980e+000 7.498556e-001 1.191610e+000 1.803302e-001 3.028732e-002 7.525366e-002 1.353561e-001 1.378563e-001 1.374913e-001 1.668254e-001 2.463118e-001 2.652518e-001 2.030266e-001 5.159578e-001 8.013714e-002 2.771649e-001 1.508643e-002
<GCONST> 7.529651e+001
<MIXTURE> 2 4.798612e-001
<MEAN> 39
 -8.597926e+000 -7.120948e+000 -5.687516e-001 -1.860612e+001 -2.025846e+001 -1.093204e+001 -1.572666e+001 -1.433567e+000 4.723458e+000 -1.095343e+001 -3.696272e+000 -7.648852e-001 7.053791e+001 -2.156746e-001 -7.298546e-002 4.678522e-001 7.537709e-001 5.790874e-001 -4.889811e-002 -5.780672e-001 -6.855977e-001 -4.265693e-001 -6.007297e-002 2.804258e-001 2.770994e-002 -1.573720e-001 -1.447197e-001 -1.181412e-001 -2.908302e-002 1.405372e-001 2.380728e-001 3.504319e-001 3.185344e-001 2.781441e-002 -2.423341e-001 -4.816673e-001 -4.376396e-001 -2.510549e-001 -5.658812e-002
<VARIANCE> 39
 5.616069e+000 1.168748e+001 8.799394e+000 1.319948e+001 1.925971e+001 1.622345e+001 3.036837e+001 2.309519e+001 1.993077e+001 2.698148e+001 1.963887e+001 2.753464e+001 4.422135e+000 2.525940e-001 3.417169e-001 6.198806e-001 8.558645e-001 8.135943e-001 1.024932e+000 1.606744e+000 1.675043e+000 1.530327e+000 2.546776e+000 2.206236e+000 1.942307e+000 6.857520e-002 2.702774e-002 4.657195e-002 9.195567e-002 1.219901e-001 1.336651e-001 2.395671e-001 2.513843e-001 1.999396e-001 1.793241e-001 2.451560e-001 2.707738e-001 2.180700e-001 7.797427e-003
<GCONST> 7.643358e+001
<MIXTURE> 3 3.890520e-001
<MEAN> 39
 -7.708778e+000 -7.842670e+000 -2.818729e+000 -2.203779e+001 -2.150959e+001 -6.973023e+000 -9.802299e+000 2.140077e+000 3.772056e+000 -1.737136e+001 -1.011321e+001 -4.030498e+000 7.160372e+001 1.527575e-001 2.219116e-001 3.680903e-001 3.725580e-001 2.392737e-001 -2.959248e-002 -4.832651e-001 -1.441276e-003 3.725086e-001 5.529178e-001 5.257944e-001 4.622612e-001 6.224713e-002 -1.880607e-001 -5.085524e-002 1.681525e-001 3.716315e-001 3.236948e-001 -1.224362e-001 -3.462318e-001 -3.331890e-001 2.565492e-002 3.737749e-001 4.264905e-001 2.132516e-001 -9.324016e-002
<VARIANCE> 39
 4.376884e+000 1.128524e+001 1.093316e+001 1.452710e+001 2.265211e+001 2.283854e+001 4.409922e+001 2.725028e+001 2.513719e+001 3.023410e+001 1.872498e+001 3.101270e+001 5.647205e+000 2.789918e-001 4.306452e-001 6.192936e-001 9.069098e-001 9.856005e-001 2.234662e+000 2.152255e+000 1.496749e+000 1.278583e+000 1.917880e+000 1.950415e+000 1.435388e+000 6.682862e-002 6.318080e-002 9.740461e-002 1.007018e-001 1.470084e-001 2.089517e-001 2.974680e-001 2.644808e-001 2.433258e-001 3.391646e-001 3.460317e-001 2.489220e-001 3.537374e-001 1.374715e-002
<GCONST> 8.351392e+001
<MIXTURE> 4 7.397288e-002
<MEAN> 39
 -1.559613e+001 -1.351902e+001 -5.371033e+000 -1.649169e+001 -1.058229e+001 -8.801850e+000 -8.148777e+000 3.762581e+000 4.351355e+000 -1.596897e+001 -8.123929e+000 -3.974756e+000 6.923601e+001 -7.078564e-001 -1.908291e-002 -1.306831e-001 5.368499e-001 6.925915e-001 4.020345e-001 8.277520e-002 -2.221910e-001 -2.894941e-001 -7.115957e-001 -8.550973e-001 -3.014969e-001 -2.472310e-001 1.486873e-001 1.317317e-001 1.372012e-001 -4.369040e-002 -1.207971e-001 -4.982002e-002 -9.160442e-002 -1.995195e-002 -1.735993e-002 1.700325e-001 1.508241e-001 1.854367e-002 1.084717e-001
<VARIANCE> 39
 7.208580e+000 1.546007e+000 1.391533e+000 6.261987e+000 1.513760e+001 9.426190e+000 7.413939e+000 8.356305e+000 5.815595e+000 7.302983e+000 1.413242e+001 6.077124e+000 1.030642e+000 2.280799e-001 3.000712e-001 9.167343e-002 4.497596e-001 1.153157e+000 1.264198e+000 3.599831e-001 1.053887e+000 1.685791e+000 1.136362e+000 7.004288e-001 9.752147e-001 1.590976e-001 1.952645e-002 3.334242e-002 1.362030e-002 5.249984e-002 1.753202e-001 2.239297e-001 8.077305e-002 1.768222e-001 4.078168e-001 2.471110e-001 2.787332e-001 2.206059e-001 3.216123e-003
<GCONST> 5.265051e+001
<STATE> 12
<NUMMIXES> 4
<MIXTURE> 1 1.273344e-001
<MEAN> 39
 -1.300178e+001 -7.322285e+000 2.575842e+000 -6.732687e+000 -5.785901e+000 5.385065e+000 -5.887679e+000 1.556215e+000 5.603502e+000 -8.911855e+000 -2.013873e+000 -3.675408e-001 6.924078e+001 -1.534967e+000 -9.842725e-001 -7.845876e-001 2.722072e-001 7.291527e-001 6.155375e-001 1.242343e+000 5.870856e-001 3.856994e-001 2.424798e-001 -1.169989e-001 2.131145e-001 -4.775946e-001 -9.408401e-002 1.623157e-001 -4.475134e-001 -2.077156e-001 -8.771487e-001 -5.996522e-001 -7.164015e-001 -3.075965e-001 -3.080131e-001 2.011685e-002 -2.583714e-001 6.945813e-002 1.098958e-001
<VARIANCE> 39
 5.390269e+000 1.771075e+001 8.843818e+000 2.054859e+001 1.705716e+001 1.679890e+001 3.581182e+001 2.233653e+001 1.494882e+001 2.216244e+001 1.552529e+001 1.573398e+001 3.802955e+000 3.404583e-001 5.872722e-001 1.273333e+000 6.861088e-001 3.321989e+000 2.210588e+000 4.144807e+000 2.778742e+000 1.214424e+000 1.980625e+000 1.923644e+000 2.081550e+000 1.075090e-001 5.459344e-002 1.472245e-001 1.443132e-001 1.485661e-001 2.716953e-001 2.775488e-001 3.489462e-001 4.123380e-001 2.364205e-001 4.480427e-001 2.330153e-001 2.376934e-001 2.005688e-002
<GCONST> 8.690833e+001
<MIXTURE> 2 3.885769e-001
<MEAN> 39
 -9.922107e+000 -7.595409e+000 2.355196e+000 -1.377717e+001 -1.475180e+001 -7.386446e+000 -1.532895e+001 -5.484125e+000 3.724086e-001 -1.519870e+001 -4.589711e+000 -1.395192e+000 6.994680e+001 -8.416101e-001 -4.433522e-001 2.249265e-001 1.169436e+000 1.498092e+000 1.412293e+000 8.749973e-001 2.376605e-002 -3.993986e-001 -7.472250e-001 -5.276381e-001 -4.754418e-001 -3.728981e-001 -2.321164e-001 -2.233604e-001 -2.834757e-001 -1.364069e-001 9.022310e-002 4.158572e-001 5.593756e-001 5.564576e-001 3.970222e-001 1.665093e-001 -3.994311e-002 -1.812516e-001 -6.559930e-002
<VARIANCE> 39
 5.980622e+000 1.163161e+001 7.503887e+000 1.575063e+001 1.951670e+001 2.233365e+001 2.785188e+001 1.827261e+001 2.355359e+001 3.022704e+001 2.897158e+001 2.973766e+001 5.580204e+000 2.916871e-001 2.903752e-001 5.108525e-001 8.527211e-001 1.001857e+000 1.470875e+000 1.625956e+000 1.774417e+000 1.871613e+000 1.647602e+000 1.862581e+000 1.878059e+000 5.603999e-002 3.010467e-002 3.875792e-002 6.220205e-002 1.236623e-001 1.331112e-001 1.918147e-001 2.165839e-001 2.274830e-001 2.669740e-001 3.306906e-001 2.782067e-001 2.713252e-001 1.096234e-002
<GCONST> 7.786805e+001
<MIXTURE> 3 2.606170e-001
<MEAN> 39
 -1.458726e+001 -1.022976e+001 8.327926e-001 -1.053796e+001 -9.937508e+000 -1.581779e+000 -1.084580e+001 -2.608304e+000 3.408319e-001 -1.728001e+001 -8.424053e+000 -5.036501e+000 6.800224e+001 -1.393998e+000 -1.039427e+000 -7.711447e-001 3.458014e-001 7.622176e-001 1.505403e+000 1.394430e+000 1.034504e+000 4.100555e-001 4.367209e-001 4.985818e-002 1.005861e-001 -4.168339e-001 3.085404e-002 5.119683e-002 -2.353443e-001 -3.682098e-001 -5.359807e-001 -4.262860e-001 -3.113399e-001 7.395243e-002 1.237823e-001 6.142606e-001 5.082941e-001 6.070579e-001 6.709103e-002
<VARIANCE> 39
 8.692509e+000 8.820257e+000 1.150536e+001 1.356598e+001 1.633297e+001 1.809709e+001 2.544061e+001 1.675090e+001 2.100463e+001 2.230964e+001 2.055116e+001 2.137713e+001 6.135510e+000 3.329235e-001 3.798020e-001 7.048097e-001 1.085353e+000 1.531057e+000 1.295722e+000 1.023212e+000 8.807496e-001 1.866475e+000 2.131983e+000 1.880136e+000 1.995957e+000 1.021904e-001 4.291438e-002 8.420319e-002 9.890524e-002 1.815514e-001 1.661738e-001 2.139654e-001 1.771902e-001 1.675125e-001 2.188298e-001 2.327066e-001 2.284001e-001 2.584721e-001 1.170115e-002
<GCONST> 7.877580e+001
<MIXTURE> 4 2.234717e-001
<MEAN> 39
 -2.005464e+001 -1.184842e+001 -4.419852e+000 -1.068773e+001 -1.257222e+001 -7.610130e-002 -1.144896e+001 2.246978e-001 -3.966211e-001 -1.206978e+001 -4.860146e+000 6.817889e-001 6.524620e+001 -9.200765e-001 1.970417e-001 -8.010895e-001 3.207285e-001 -3.470342e-001 1.747162e-001 2.357934e-001 4.446073e-001 -4.635991e-001 1.008694e+000 3.090939e-001 1.069273e+000 1.320274e-001 1.789380e-001 3.201195e-001 2.192305e-001 2.465795e-001 6.833031e-002 -1.044616e-001 -1.570252e-001 -2.211318e-001 -2.345725e-001 -1.223915e-001 -1.904989e-001 -1.355516e-001 1.297127e-001
<VARIANCE> 39
 5.843068e+000 5.398537e+000 4.623048e+000 1.122336e+001 2.204454e+001 1.326088e+001 1.203501e+001 1.597308e+001 2.591878e+001 2.697711e+001 2.273631e+001 1.623294e+001 1.451153e+000 4.229039e-001 6.701643e-001 5.941476e-001 1.250525e+000 1.193856e+000 7.502814e-001 1.221103e+000 1.057836e+000 1.886247e+000 1.604976e+000 2.138353e+000 1.276871e+000 1.207644e-001 4.542800e-002 8.124548e-002 1.346749e-001 2.108897e-001 2.309292e-001 1.262241e-001 1.803827e-001 1.895181e-001 3.618211e-001 3.701712e-001 3.304622e-001 2.253603e-001 1.620026e-002
<GCONST> 7.662882e+001
<STATE> 13
<NUMMIXES> 4
<MIXTURE> 1 1.092587e-001
<MEAN> 39
 -1.391648e+001 -6.292014e+000 -5.606601e-001 -1.429135e+001 -1.882721e+001 -1.164686e+001 -1.661320e+001 -2.487762e+000 1.873941e+000 -8.741610e+000 -2.159441e+000 -2.708662e-001 7.038251e+001 1.904619e+000 4.331736e-001 1.116078e+000 -8.247986e-001 -1.480917e+000 -1.839354e+000 -5.659798e-001 -5.467439e-001 1.312151e+000 1.143927e+000 1.786145e+000 4.457061e-001 4.142776e-001 -2.811361e-001 -1.397937e-001 -3.560332e-001 1.792188e-002 2.447144e-001 3.871261e-001 6.167903e-001 5.191704e-001 8.671322e-002 2.417432e-001 7.106980e-002 3.649855e-001 -1.656349e-002
<VARIANCE> 39
 6.907636e+000 1.117886e+001 1.109017e+001 1.020778e+001 1.221337e+001 2.246446e+001 2.287142e+001 2.183880e+001 4.122785e+001 3.411977e+001 1.924183e+001 1.457252e+001 1.804269e+000 4.351627e-001 4.234188e-001 5.729956e-001 4.633931e-001 1.364242e+000 2.351446e+000 2.538414e+000 2.354666e+000 9.467510e-001 2.304014e+000 1.099299e+000 1.371211e+000 7.795821e-002 5.417999e-002 4.875311e-002 1.005422e-001 9.685082e-002 2.161964e-001 2.773737e-001 1.795539e-001 2.558089e-001 3.024907e-001 4.432105e-001 2.258795e-001 1.984790e-001 1.446100e-002
<GCONST> 7.881799e+001
<MIXTURE> 2 3.992413e-001
<MEAN> 39
 -1.613297e+001 -1.484981e+001 -7.670851e-001 -1.357152e+001 -9.954730e+000 -9.422646e-002 -7.639023e+000 -1.540507e+000 3.887537e+000 -1.496323e+001 -4.752114e+000 -3.691282e+000 6.919081e+001 -4.746513e-001 -1.880784e-001 -4.848723e-001 2.030486e-001 -1.619235e-001 3.830041e-001 9.293137e-002 2.769855e-001 -1.957427e-001 1.986221e-001 -2.722264e-002 2.165625e-001 -6.741902e-002 1.146348e-001 1.088545e-001 8.667562e-002 2.809285e-002 -3.814780e-002 -1.112831e-001 -5.541250e-002 -6.359018e-002 -9.247066e-002 -8.155596e-002 7.303126e-003 3.913842e-002 5.177003e-002
<VARIANCE> 39
 3.334189e+000 6.247069e+000 9.506404e+000 1.122729e+001 1.324377e+001 2.180575e+001 1.420292e+001 1.943155e+001 2.532206e+001 1.927765e+001 1.884706e+001 1.978163e+001 8.524660e-001 1.978931e-001 3.242739e-001 5.073596e-001 6.733373e-001 1.004351e+000 1.190553e+000 1.227669e+000 1.225050e+000 1.382242e+000 1.433110e+000 1.494567e+000 1.396565e+000 3.988029e-002 3.600490e-002 6.861319e-002 1.226717e-001 1.297866e-001 1.704064e-001 1.968864e-001 2.020465e-001 2.442575e-001 2.508933e-001 3.010428e-001 2.780571e-001 2.201520e-001 6.787467e-003
<GCONST> 7.066996e+001
<MIXTURE> 3 2.089877e-001
<MEAN> 39
 -1.738579e+001 -1.471285e+001 -2.578892e+000 -1.248673e+001 -1.116147e+001 -7.654253e-001 -7.932966e+000 3.001825e-001 1.524045e+000 -1.371420e+001 -3.491462e+000 -1.055704e+000 6.870028e+001 8.412766e-001 6.121956e-001 9.706265e-001 2.485136e-002 -9.372103e-002 -1.017527e+000 -7.413459e-001 -8.944141e-001 -2.876124e-001 -1.727515e-001 3.385777e-001 -4.620927e-002 2.790109e-001 2.676421e-001 2.179040e-001 2.475040e-001 4.425910e-002 -6.383591e-002 -3.952141e-001 -4.113410e-001 -3.689517e-001 4.588680e-002 -1.408173e-001 -8.741518e-002 -1.439962e-001 8.132671e-002
<VARIANCE> 39
 4.098936e+000 5.956269e+000 6.898398e+000 1.378638e+001 1.278291e+001 2.202084e+001 1.872998e+001 2.036452e+001 2.066933e+001 2.253448e+001 1.446772e+001 1.924366e+001 3.932891e+000 2.009101e-001 2.119238e-001 5.470958e-001 7.111605e-001 1.189107e+000 1.304955e+000 1.710994e+000 1.346079e+000 1.780190e+000 2.745112e+000 1.767087e+000 1.083069e+000 3.581753e-002 4.873525e-002 3.049727e-002 8.552393e-002 9.474012e-002 1.445501e-001 2.614408e-001 2.365986e-001 1.706411e-001 4.111823e-001 3.105685e-001 2.059859e-001 2.533674e-001 5.514437e-003
<GCONST> 7.220948e+001
<MIXTURE> 4 2.825123e-001
<MEAN> 39
 -2.308786e+001 -7.441300e+000 -5.779517e+000 -5.876660e+000 -1.127844e+001 1.438687e+000 -8.722704e+000 2.059778e+000 -5.516001e-001 -8.326821e+000 -6.123866e+000 2.269999e+000 6.804932e+001 3.591763e-001 4.122162e-001 5.149754e-001 3.143424e-001 -5.682136e-001 -6.975238e-001 -5.041082e-001 -2.527538e-001 -5.996215e-001 -2.725265e-001 -1.027045e-001 -2.178075e-001 2.337085e-001 6.900220e-001 4.089182e-002 5.921634e-001 -2.121436e-001 -8.909918e-002 -3.862322e-001 -2.598982e-001 -3.475603e-001 7.160401e-003 -3.353036e-001 1.792406e-001 -2.402859e-001 3.301488e-002
<VARIANCE> 39
 9.094630e+000 1.336078e+001 1.442693e+001 3.178092e+001 1.242349e+001 2.809300e+001 3.223708e+001 4.455739e+001 2.578998e+001 4.081359e+001 3.356485e+001 2.476498e+001 3.402636e+000 2.296236e+000 6.590378e-001 2.227785e+000 1.357324e+000 2.082669e+000 1.764918e+000 1.797463e+000 2.506750e+000 1.362087e+000 2.331200e+000 1.760376e+000 1.810782e+000 7.972151e-002 8.529936e-002 1.663530e-001 1.517905e-001 2.253663e-001 3.503810e-001 3.427386e-001 2.674587e-001 4.092202e-001 2.196680e-001 3.389061e-001 3.572432e-001 3.606350e-001 2.152869e-002
<GCONST> 9.430246e+001
<STATE> 14
<NUMMIXES> 4
<MIXTURE> 1 1.336212e-001
<MEAN> 39
 -8.713632e+000 -6.514112e+000 -3.798002e-001 -2.020755e+001 -2.363115e+001 -9.362864e+000 -1.250702e+001 4.480939e+000 7.131999e+000 -5.923307e+000 -9.564677e-001 -6.655450e-001 7.068424e+001 2.828252e-001 -1.503954e-001 -4.946257e-001 -8.980114e-001 -4.429212e-001 3.526127e-001 1.598595e+000 1.867576e+000 1.081762e+000 2.625413e-001 -5.496255e-001 -4.337858e-001 1.088633e-001 -1.672828e-002 -1.531177e-002 7.557751e-002 2.630783e-001 1.752027e-001 5.455057e-002 5.521930e-002 9.847964e-002 8.730909e-002 -6.670289e-002 9.284019e-002 1.772761e-001 1.933889e-002
<VARIANCE> 39
 2.657445e+000 8.559381e+000 6.753393e+000 2.218015e+001 1.067395e+001 1.189643e+001 2.827613e+001 4.029058e+001 3.044432e+001 1.549132e+001 1.162001e+001 2.497187e+001 1.471631e+000 4.497377e-002 1.454965e-001 3.714124e-001 6.485234e-001 4.045591e-001 6.932037e-001 5.153866e-001 5.807983e-001 8.974239e-001 1.630690e+000 1.178555e+000 7.211383e-001 3.763231e-002 1.362296e-002 2.621596e-002 5.894456e-002 7.311822e-002 6.092620e-002 4.631176e-002 5.292243e-002 1.413551e-001 1.727350e-001 1.582855e-001 8.798029e-002 9.645948e-002 8.444928e-003
<GCONST> 5.462103e+001
<MIXTURE> 2 1.182460e-001
<MEAN> 39
 -1.591186e+001 -8.232789e+000 2.508262e+000 -4.489825e+000 -1.095079e+001 -9.483503e-001 -9.478988e+000 -2.348670e+000 -3.136592e+000 -1.527714e+001 -6.332775e+000 -1.850952e+000 6.918762e+001 2.152347e+000 1.483112e+000 2.016623e+000 5.613125e-001 -5.140176e-001 -2.350538e+000 -1.730282e+000 -1.824751e+000 -1.400061e+000 -1.459851e+000 -1.321555e-002 -3.898983e-001 5.560541e-001 6.532300e-002 1.605977e-002 -1.308027e-001 -3.199730e-001 -5.490928e-001 -5.497333e-001 -3.694249e-001 -1.931752e-001 1.848003e-001 3.021429e-001 3.543108e-001 3.435552e-001 4.598723e-002
<VARIANCE> 39
 6.997234e+000 1.001309e+001 1.189856e+001 1.969639e+001 8.435452e+000 1.134936e+001 3.211555e+001 2.518848e+001 4.804659e+001 2.940789e+001 4.840268e+001 1.676614e+001 5.194999e+000 3.680553e-001 2.723635e-001 2.454963e-001 9.901687e-001 9.659579e-001 1.539643e+000 9.787666e-001 1.511533e+000 1.248201e+000 1.028603e+000 1.772216e+000 1.810646e+000 4.711356e-002 9.375301e-002 1.011660e-001 1.163166e-001 1.213525e-001 9.868848e-002 1.257121e-001 2.459003e-001 3.429387e-001 4.176609e-001 2.398717e-001 3.093646e-001 1.910144e-001 7.951085e-003
<GCONST> 7.793057e+001
<MIXTURE> 3 4.143916e-001
<MEAN> 39
 -1.195018e+001 -7.101523e+000 3.985145e+000 -7.742459e+000 -1.487503e+001 -7.004700e+000 -1.453266e+001 -5.977312e+000 -2.875575e+000 -1.568955e+001 -3.946640e+000 -4.610139e-001 7.002975e+001 9.326340e-001 3.741006e-001 6.497163e-001 -4.038973e-001 -9.093460e-001 -1.744202e+000 -7.204978e-001 -3.779550e-001 2.836875e-001 -2.518068e-002 6.885661e-001 3.779313e-001 3.115236e-001 -2.426071e-001 -2.296511e-001 -2.789904e-001 -1.143950e-001 1.027832e-002 1.853737e-001 2.770824e-001 4.470274e-001 2.728235e-001 3.136560e-001 9.606959e-002 1.126439e-001 -6.166833e-002
<VARIANCE> 39
 4.560131e+000 1.729069e+001 1.403205e+001 2.497036e+001 1.536361e+001 2.722939e+001 2.197196e+001 2.633994e+001 3.100697e+001 3.361200e+001 2.079742e+001 2.414214e+001 3.319536e+000 2.907012e-001 3.692137e-001 4.774953e-001 6.598424e-001 7.589117e-001 9.877238e-001 1.463694e+000 1.878493e+000 1.928789e+000 1.388085e+000 1.293956e+000 1.255799e+000 5.828259e-002 4.139422e-002 5.605577e-002 8.777928e-002 8.818093e-002 1.257887e-001 1.763151e-001 1.673061e-001 1.751086e-001 2.122965e-001 1.995441e-001 1.372989e-001 2.223853e-001 7.176074e-003
<GCONST> 7.477921e+001
<MIXTURE> 4 3.337411e-001
<MEAN> 39
 -9.145353e+000 -4.965622e+000 4.239983e+000 -1.195386e+001 -2.234973e+001 -1.460196e+001 -1.736150e+001 -1.295434e+000 2.166751e+000 -6.175115e+000 3.846243e+000 3.270266e+000 7.063816e+001 3.608169e-001 -2.293311e-001 -3.603491e-001 -9.232982e-001 -7.159969e-001 -4.976531e-001 2.734011e-001 1.119711e+000 1.275980e+000 8.183240e-001 3.268987e-001 9.194020e-003 1.344745e-001 -1.405441e-001 -9.888439e-002 -2.304269e-001 -3.820969e-002 1.676274e-001 3.009284e-001 2.984661e-001 2.046171e-001 7.222052e-002 -1.435056e-001 -4.865097e-001 -3.301762e-001 -4.075200e-002
<VARIANCE> 39
 1.622692e+000 5.755353e+000 9.617427e+000 2.902416e+001 1.383195e+001 2.678603e+001 1.819986e+001 4.182788e+001 3.415632e+001 3.562308e+001 1.469215e+001 1.635317e+001 1.472546e+000 1.376195e-001 1.970270e-001 3.261299e-001 4.717011e-001 7.538743e-001 1.195539e+000 1.117350e+000 1.163964e+000 1.652901e+000 1.230220e+000 1.133156e+000 1.168480e+000 4.154402e-002 2.569107e-002 3.740858e-002 5.308065e-002 9.109081e-002 1.077224e-001 1.285797e-001 1.282978e-001 2.115362e-001 2.575519e-001 2.371347e-001 1.747690e-001 1.566959e-001 6.291173e-003
<GCONST> 6.592689e+001
<STATE> 15
<NUMMIXES> 4
<MIXTURE> 1 2.094692e-001
<MEAN> 39
 -8.061375e+000 -8.962811e+000 1.982455e-001 -1.809262e+001 -2.319820e+001 -1.375557e+001 -8.063148e+000 1.013461e+001 1.498796e+001 -5.102325e+000 -7.809949e-002 1.301496e-001 7.244711e+001 5.594661e-002 -4.043610e-001 -6.636693e-001 -3.021114e-001 1.154802e-001 7.253967e-001 1.175688e+000 1.451574e+000 1.182166e+000 -5.998160e-002 -1.142125e+000 -6.335438e-001 7.801096e-002 -1.081275e-001 -5.912574e-002 -1.967690e-002 1.683654e-001 3.127742e-001 3.147341e-001 -1.489268e-002 -4.329664e-001 -5.064762e-001 -5.031502e-001 -3.056978e-001 -1.307418e-001 -5.325320e-002
<VARIANCE> 39
 5.250635e+000 1.282257e+001 8.829478e+000 2.917737e+001 2.541931e+001 4.140737e+001 2.431101e+001 2.511027e+001 2.849551e+001 3.359507e+001 1.903731e+001 1.698453e+001 2.302546e+000 7.962628e-002 2.871892e-001 4.140528e-001 4.664666e-001 9.193141e-001 1.400219e+000 1.835884e+000 1.100648e+000 1.411065e+000 2.173269e+000 1.229195e+000 9.602299e-001 3.284531e-002 1.033394e-002 3.607560e-002 5.876669e-002 6.884649e-002 1.317929e-001 2.328937e-001 2.320930e-001 1.303218e-001 3.208589e-001 2.067073e-001 2.052431e-001 1.443799e-001 4.727547e-003
<GCONST> 6.971926e+001
<MIXTURE> 2 3.527692e-001
<MEAN> 39
 -9.915575e+000 -9.402700e+000 3.826266e+000 -1.100413e+001 -1.360438e+001 -1.065251e+001 -1.522620e+001 -7.161942e+000 4.034881e-001 -1.521118e+001 -3.027618e+000 -1.105880e+000 7.160841e+001 2.224433e-001 -3.899890e-002 -2.551943e-001 -4.359548e-001 -3.502731e-001 -4.157377e-001 3.079623e-002 3.205890e-001 8.849376e-001 9.167028e-001 4.045280e-001 6.305189e-002 1.130609e-001 -2.840520e-002 -1.635183e-002 -7.043479e-002 -8.291160e-002 -3.137786e-002 7.557342e-002 1.119964e-001 1.504310e-001 1.466290e-001 3.781508e-002 -6.347849e-002 -1.078206e-001 -5.023112e-003
<VARIANCE> 39
 3.067644e+000 9.783234e+000 1.157453e+001 2.458641e+001 1.505931e+001 1.448407e+001 2.428032e+001 3.349940e+001 2.508702e+001 3.158903e+001 1.475832e+001 1.129008e+001 3.453345e+000 8.838620e-002 2.145682e-001 3.329671e-001 6.395693e-001 8.996285e-001 9.296219e-001 1.236142e+000 1.352802e+000 1.043023e+000 1.015671e+000 8.462042e-001 1.318657e+000 2.802096e-002 1.986230e-002 3.143554e-002 6.504729e-002 8.868042e-002 1.602987e-001 1.599855e-001 2.007670e-001 2.176681e-001 1.637144e-001 1.880790e-001 1.435294e-001 1.954890e-001 5.110509e-003
<GCONST> 6.560401e+001
<MIXTURE> 3 1.873637e-001
<MEAN> 39
 -8.225141e+000 -1.207644e+001 -5.615292e+000 -2.179622e+001 -2.079679e+001 -9.638959e+000 2.535362e+000 1.505669e+001 1.252446e+001 -1.527953e+001 -6.376697e+000 -2.231745e+000 7.294844e+001 -1.271174e-001 -2.880333e-001 -5.977001e-001 -2.549564e-001 6.738171e-001 7.933990e-001 9.092932e-001 2.491169e-001 -3.058800e-001 -8.908271e-001 -1.027426e+000 -1.993076e-001 5.450691e-002 -4.347702e-002 8.839305e-002 1.063744e-001 -4.074769e-002 2.805858e-002 4.813563e-003 -3.470004e-001 -3.552564e-001 -9.151907e-002 2.126359e-001 8.950076e-002 7.457888e-002 -3.586705e-002
<VARIANCE> 39
 4.756452e+000 6.528033e+000 5.569310e+000 1.965969e+001 2.830338e+001 2.856588e+001 2.034367e+001 3.016478e+001 1.712354e+001 1.869584e+001 1.677059e+001 1.574499e+001 3.986864e+000 6.798432e-002 2.113411e-001 4.103572e-001 5.722053e-001 9.294693e-001 1.031751e+000 2.326079e+000 1.912341e+000 6.635982e-001 2.787219e+000 9.424108e-001 1.031337e+000 5.631151e-002 1.444951e-002 3.600155e-002 5.975464e-002 8.768831e-002 1.534781e-001 1.825391e-001 3.176846e-001 2.553417e-001 1.116767e-001 2.509511e-001 1.541182e-001 1.931646e-001 9.333231e-003
<GCONST> 6.845708e+001
<MIXTURE> 4 2.503978e-001
<MEAN> 39
 -7.754731e+000 -9.783627e+000 5.232286e-001 -1.405335e+001 -1.918960e+001 -1.765212e+001 -1.412356e+001 2.029194e-001 9.958311e+000 -6.986352e+000 -1.147655e+000 -6.596912e-002 7.249390e+001 2.655280e-001 -2.799954e-001 -7.068034e-001 -8.852414e-001 -2.722044e-001 -1.168088e-001 8.413459e-001 1.346203e+000 1.651931e+000 6.483691e-001 -3.036778e-001 -7.254182e-001 2.089884e-001 -4.141156e-002 4.870258e-002 -1.206488e-002 2.017050e-002 1.002890e-001 2.173096e-001 1.336007e-001 1.095407e-001 -1.027974e-003 -7.278839e-002 -1.147068e-001 -9.556807e-002 -1.992748e-002
<VARIANCE> 39
 5.945516e+000 7.616908e+000 2.530097e+001 2.930770e+001 7.482395e+000 1.654060e+001 3.186524e+001 2.294967e+001 4.354564e+001 4.701269e+001 1.507199e+001 2.574597e+001 5.517417e+000 9.091521e-002 5.315750e-001 3.967055e-001 6.123611e-001 8.715644e-001 1.176509e+000 1.880015e+000 1.731089e+000 2.035799e+000 1.501079e+000 1.279291e+000 1.790876e+000 3.506383e-002 1.508908e-002 4.892958e-002 6.867433e-002 1.226454e-001 8.908084e-002 1.807781e-001 2.367569e-001 2.187726e-001 2.182582e-001 2.041390e-001 2.343500e-001 3.159239e-001 6.393084e-003
<GCONST> 7.431733e+001
<STATE> 16
<NUMMIXES> 4
<MIXTURE> 1 2.873307e-001
<MEAN> 39
 -8.041822e+000 -1.123164e+001 -2.779989e+000 -1.795060e+001 -2.013172e+001 -1.217965e+001 -6.739391e+000 1.039392e+001 2.008544e+001 -4.085944e+000 -6.830902e+000 -5.347386e+000 7.308514e+001 -3.851793e-001 -2.266642e-001 -2.016868e-001 -2.417224e-001 8.118683e-001 8.351841e-001 5.880870e-001 -3.431159e-001 -4.961128e-001 -7.018750e-001 -4.859266e-001 -3.999099e-002 -2.824019e-001 -1.810304e-001 -5.688856e-002 1.470081e-001 2.192352e-001 3.256178e-001 1.570991e-001 7.700040e-003 -3.141544e-001 -5.955863e-001 -3.511744e-001 2.106479e-001 2.549709e-001 -1.137087e-001
<VARIANCE> 39
 2.584329e+000 1.372915e+001 1.311860e+001 1.453742e+001 2.176168e+001 3.181713e+001 4.115055e+001 3.423746e+001 4.363778e+001 3.182545e+001 1.611135e+001 2.220007e+001 3.317253e+000 1.299284e-001 3.605362e-001 4.470140e-001 8.279790e-001 1.313904e+000 1.150026e+000 8.097802e-001 9.932001e-001 3.208442e+000 1.636683e+000 1.971373e+000 1.487541e+000 8.502326e-002 2.067103e-002 4.579399e-002 5.393928e-002 1.248395e-001 2.001419e-001 2.035839e-001 2.345881e-001 2.358114e-001 3.309496e-001 1.510503e-001 2.356164e-001 2.432428e-001 1.025480e-002
<GCONST> 7.651872e+001
<MIXTURE> 2 1.069895e-001
<MEAN> 39
 -1.088256e+001 -1.426456e+001 -9.551488e+000 -2.295916e+001 -4.241606e+000 -1.593299e+001 8.803016e-001 3.055974e+000 5.662736e+000 -1.098206e+001 -1.015081e+001 5.447316e+000 7.461406e+001 -2.714365e-001 -5.334634e-002 -1.921247e-001 2.241262e-001 2.549464e-001 6.122071e-001 -6.406932e-001 -4.747565e-001 -2.182620e-001 -6.478655e-001 4.182817e-002 -7.311282e-002 -2.818807e-001 -2.274164e-002 8.195975e-002 1.912939e-001 1.550827e-001 -2.778144e-001 3.819345e-002 -1.762521e-001 1.720897e-002 1.935012e-001 2.253186e-002 4.029177e-002 -2.402030e-001 -1.166343e-001
<VARIANCE> 39
 1.545486e+000 7.710173e+000 5.182837e+000 1.046662e+001 3.831545e+001 1.822172e+001 1.887059e+001 8.475866e+000 5.073813e+000 6.649026e+001 3.088430e+001 2.083240e+001 2.991153e+000 7.693470e-002 5.035752e-001 6.936032e-001 9.075986e-001 3.077149e+000 1.394217e+000 1.243554e+000 1.031108e+000 1.534665e+000 1.535527e+000 1.015586e+000 1.930310e+000 3.211475e-001 1.496746e-002 6.788964e-002 6.590700e-002 7.275817e-002 2.298664e-001 3.425119e-001 1.872994e-001 2.102268e-001 1.343740e-001 2.939519e-001 1.604321e-001 1.356828e-001 1.149144e-002
<GCONST> 7.200813e+001
<MIXTURE> 3 2.656048e-001
<MEAN> 39
 -9.152556e+000 -7.112531e+000 1.239989e+000 -1.623130e+001 -1.875551e+001 -9.184937e+000 -1.404397e+001 -5.582290e-001 5.231880e+000 -8.346439e+000 -4.105184e+000 -4.941765e+000 7.055225e+001 -3.670712e-001 -3.797426e-001 -1.971322e-001 4.828715e-002 4.419652e-001 4.655649e-001 1.020013e-001 -5.062709e-003 2.654532e-001 -7.914642e-001 -8.792402e-001 -3.167367e-001 -2.339524e-001 -9.476697e-002 -1.100294e-001 6.021948e-003 1.361783e-001 9.985404e-002 3.930354e-002 -2.710044e-002 -1.214024e-001 -1.609568e-001 -1.741713e-001 2.489982e-002 1.043486e-001 -6.473551e-002
<VARIANCE> 39
 1.636472e+000 7.871768e+000 7.584370e+000 9.025449e+000 3.271796e+001 1.549643e+001 2.127876e+001 2.890496e+001 3.721429e+001 2.821827e+001 3.509283e+001 2.394576e+001 1.850902e+000 8.648936e-002 2.555218e-001 3.388939e-001 5.781716e-001 4.122644e-001 8.624957e-001 1.082520e+000 1.458975e+000 1.148800e+000 1.425953e+000 9.530677e-001 7.339745e-001 3.869419e-002 8.413721e-003 3.511754e-002 6.581225e-002 7.364661e-002 8.512475e-002 1.338496e-001 1.562312e-001 1.622583e-001 2.141838e-001 1.857830e-001 1.652316e-001 1.405584e-001 4.012303e-003
<GCONST> 6.216952e+001
<MIXTURE> 4 3.400750e-001
<MEAN> 39
 -1.121305e+001 -1.255192e+001 -5.306097e+000 -2.047887e+001 -1.512431e+001 -4.432587e+000 -1.455405e+000 7.648335e+000 6.820820e+000 -1.972396e+001 -1.101327e+001 -3.087393e+000 7.058933e+001 -5.836142e-001 -2.788614e-001 2.395456e-001 7.234119e-001 8.032159e-001 3.219300e-001 -4.671096e-001 -9.280341e-001 -6.666047e-001 -7.360072e-001 -4.166037e-001 -2.331814e-001 -3.580891e-001 -4.218384e-002 5.807033e-003 1.111911e-001 1.270885e-001 -1.560330e-002 -1.916706e-001 -2.863291e-001 -1.444839e-001 9.785341e-002 2.909839e-001 2.945659e-001 4.532074e-002 -2.766639e-002
<VARIANCE> 39
 7.852397e+000 5.581892e+000 1.038736e+001 2.002381e+001 1.501875e+001 3.972018e+001 2.751409e+001 4.086594e+001 3.073542e+001 3.544719e+001 2.052672e+001 1.713945e+001 3.365142e+000 7.695501e-002 1.379030e-001 3.141630e-001 7.663164e-001 6.672933e-001 1.409109e+000 1.218655e+000 1.339478e+000 1.464811e+000 2.016639e+000 1.120828e+000 9.624663e-001 4.185364e-002 1.678440e-002 2.899368e-002 5.345877e-002 1.588623e-001 1.388133e-001 2.263634e-001 2.347739e-001 2.612903e-001 3.317269e-001 2.701769e-001 1.875751e-001 1.586919e-001 6.587598e-003
<GCONST> 7.112830e+001
<STATE> 17
<NUMMIXES> 4
<MIXTURE> 1 1.805476e-001
<MEAN> 39
 -1.084050e+001 -1.032900e+001 -1.701643e+000 -1.636355e+001 -1.702599e+001 -7.275564e+000 -7.676682e+000 6.362315e+000 1.295925e+001 -7.505608e+000 -4.716501e+000 -2.974194e+000 6.982506e+001 -1.240344e+000 -7.229027e-001 4.080851e-001 1.000716e+000 2.171703e+000 1.932478e+000 5.879980e-001 -9.735326e-001 -1.652113e+000 -1.345455e+000 2.176122e-001 2.149155e-001 -8.257544e-001 -1.695512e-001 -2.549013e-001 -6.558205e-002 2.003399e-001 3.735864e-001 2.221176e-001 4.786203e-002 3.008499e-002 -1.596694e-001 -3.002529e-001 -2.011956e-001 -7.666027e-002 -5.800360e-002
<VARIANCE> 39
 5.408146e+000 1.607486e+001 1.320723e+001 1.973869e+001 3.230754e+001 2.344837e+001 4.743483e+001 3.094457e+001 3.402407e+001 2.795169e+001 1.658091e+001 1.888217e+001 3.657621e+000 1.684252e-001 4.164276e-001 4.682158e-001 8.801320e-001 2.760735e+000 1.389984e+000 3.096528e+000 2.670383e+000 1.629546e+000 9.129888e-001 8.419744e-001 8.287408e-001 5.887618e-002 3.578347e-002 5.436254e-002 6.633050e-002 1.283065e-001 2.525161e-001 1.620645e-001 1.813035e-001 2.144175e-001 2.868273e-001 1.674087e-001 1.105774e-001 1.398241e-001 1.033697e-002
<GCONST> 7.741689e+001
<MIXTURE> 2 3.152969e-001
<MEAN> 39
 -1.503181e+001 -1.394056e+001 -2.410496e+000 -1.411116e+001 -1.042905e+001 -4.811430e+000 -9.495804e+000 -2.233964e+000 1.391382e+000 -1.918467e+001 -9.792608e+000 -5.757120e+000 6.774277e+001 -8.200436e-001 -6.419274e-001 1.865547e-002 6.357787e-001 9.109452e-001 9.589410e-001 -1.196736e-001 -2.229628e-001 -6.283113e-001 -2.201200e-001 2.992353e-001 -1.145137e-001 -5.489888e-001 5.879899e-002 -4.318551e-002 -1.125596e-001 -2.141703e-001 -1.159838e-001 1.687090e-001 4.273044e-001 5.019876e-001 4.359564e-001 3.582593e-001 2.414814e-001 1.766899e-001 4.414090e-002
<VARIANCE> 39
 3.845352e+000 7.572235e+000 6.581222e+000 1.226542e+001 1.244979e+001 1.708086e+001 2.566342e+001 2.175974e+001 3.348859e+001 2.865871e+001 1.436759e+001 1.813040e+001 3.598883e+000 1.930637e-001 2.959132e-001 5.267727e-001 8.190919e-001 9.742644e-001 1.065271e+000 1.593283e+000 2.331425e+000 2.062575e+000 2.166819e+000 1.516333e+000 1.594088e+000 7.109861e-002 2.662737e-002 3.232557e-002 6.532241e-002 1.433199e-001 1.703830e-001 1.912516e-001 2.000914e-001 2.498789e-001 3.092771e-001 2.892784e-001 2.172018e-001 2.528071e-001 6.718164e-003
<GCONST> 7.374950e+001
<MIXTURE> 3 3.392212e-001
<MEAN> 39
 -1.627590e+001 -1.654401e+001 -2.446323e+000 -1.461519e+001 -7.924958e+000 -5.933246e-001 -4.216555e+000 3.093059e+000 7.490748e+000 -1.622871e+001 -5.243272e+000 -3.247454e+000 6.761575e+001 -5.021636e-001 -4.364960e-001 -1.095583e-001 -6.401996e-002 2.309095e-001 3.180426e-001 -1.005254e-002 -1.653255e-001 -1.101598e-002 2.999352e-001 5.021428e-001 2.898878e-001 -2.948735e-001 7.741890e-002 7.758165e-002 4.687726e-002 -3.342479e-002 -1.295879e-001 -1.159601e-001 -1.065576e-001 -1.237294e-001 -1.273332e-001 -6.232494e-002 -1.465298e-001 -3.258286e-002 5.260381e-002
<VARIANCE> 39
 5.424407e+000 4.209727e+000 5.380417e+000 1.003037e+001 9.356376e+000 1.397848e+001 1.443782e+001 2.173773e+001 2.140917e+001 2.770420e+001 1.993513e+001 2.662913e+001 7.976881e+000 1.185578e-001 3.017779e-001 4.964477e-001 8.314036e-001 9.928814e-001 1.003914e+000 1.661257e+000 1.605523e+000 1.545703e+000 1.127126e+000 1.216580e+000 1.720186e+000 5.329699e-002 2.190850e-002 3.802485e-002 6.559103e-002 1.044055e-001 1.396401e-001 1.492553e-001 2.127171e-001 2.946167e-001 1.958887e-001 1.572983e-001 1.874720e-001 3.204337e-001 7.227791e-003
<GCONST> 6.934033e+001
<MIXTURE> 4 1.649343e-001
<MEAN> 39
 -1.440175e+001 -1.254273e+001 6.062734e-001 -1.064028e+001 -7.068384e+000 2.112977e+000 -5.153994e+000 5.170246e+000 1.141462e+001 -1.057094e+001 -4.483097e+000 -2.587365e+000 6.705415e+001 -1.146279e+000 -1.200123e+000 -4.386158e-001 -6.673793e-002 1.190787e+000 1.440347e+000 1.011852e+000 -4.274324e-001 -6.653228e-001 -1.068809e+000 -1.926785e-001 5.096701e-002 -6.582729e-001 8.847553e-002 2.977567e-002 -1.973326e-001 -3.125426e-001 -5.839599e-001 -5.355684e-001 -2.754693e-001 -3.474133e-002 1.638112e-001 3.078736e-001 1.402649e-001 2.034768e-002 7.592516e-002
<VARIANCE> 39
 3.324035e+000 7.890998e+000 8.093508e+000 1.241975e+001 2.120101e+001 3.292550e+001 2.243274e+001 2.372370e+001 1.538131e+001 1.945131e+001 1.657021e+001 1.346182e+001 5.752441e+000 1.432103e-001 2.712178e-001 4.935288e-001 9.110060e-001 2.171242e+000 2.107946e+000 1.493827e+000 1.787629e+000 1.264262e+000 1.101464e+000 7.514679e-001 8.059414e-001 4.437958e-002 2.119279e-002 4.442558e-002 5.923450e-002 1.055620e-001 1.843323e-001 2.169151e-001 2.130557e-001 1.433099e-001 1.418149e-001 1.457069e-001 1.565074e-001 2.001725e-001 7.071279e-003
<GCONST> 6.936288e+001
<TRANSP> 18
 0.000000e+000 1.000000e+000 0.000000e+000 0.000000e+000 0.000000e+000 0.000000e+000 0.000000e+000 0.000000e+000 0.000000e+000 0.000000e+000 0.000000e+000 0.000000e+000 0.000000e+000 0.000000e+000 0.000000e+000 0.000000e+000 0.000000e+000 0.000000e+000
 0.000000e+000 8.741340e-001 1.258660e-001 0.000000e+000 0.000000e+000 0.000000e+000 0.000000e+000 0.000000e+000 0.000000e+000 0.000000e+000 0.000000e+000 0.000000e+000 0.000000e+000 0.000000e+000 0.000000e+000 0.000000e+000 0.000000e+000 0.000000e+000
 0.000000e+000 0.000000e+000 8.698752e-001 1.301248e-001 0.000000e+000 0.000000e+000 0.000000e+000 0.000000e+000 0.000000e+000 0.000000e+000 0.000000e+000 0.000000e+000 0.000000e+000 0.000000e+000 0.000000e+000 0.000000e+000 0.000000e+000 0.000000e+000
 0.000000e+000 0.000000e+000 0.000000e+000 8.521152e-001 1.478848e-001 0.000000e+000 0.000000e+000 0.000000e+000 0.000000e+000 0.000000e+000 0.000000e+000 0.000000e+000 0.000000e+000 0.000000e+000 0.000000e+000 0.000000e+000 0.000000e+000 0.000000e+000
 0.000000e+000 0.000000e+000 0.000000e+000 0.000000e+000 9.031041e-001 9.689590e-002 0.000000e+000 0.000000e+000 0.000000e+000 0.000000e+000 0.000000e+000 0.000000e+000 0.000000e+000 0.000000e+000 0.000000e+000 0.000000e+000 0.000000e+000 0.000000e+000
 0.000000e+000 0.000000e+000 0.000000e+000 0.000000e+000 0.000000e+000 8.101643e-001 1.898357e-001 0.000000e+000 0.000000e+000 0.000000e+000 0.000000e+000 0.000000e+000 0.000000e+000 0.000000e+000 0.000000e+000 0.000000e+000 0.000000e+000 0.000000e+000
 0.000000e+000 0.000000e+000 0.000000e+000 0.000000e+000 0.000000e+000 0.000000e+000 8.891475e-001 1.108525e-001 0.000000e+000 0.000000e+000 0.000000e+000 0.000000e+000 0.000000e+000 0.000000e+000 0.000000e+000 0.000000e+000 0.000000e+000 0.000000e+000
 0.000000e+000 0.000000e+000 0.000000e+000 0.000000e+000 0.000000e+000 0.000000e+000 0.000000e+000 8.332797e-001 1.667204e-001 0.000000e+000 0.000000e+000 0.000000e+000 0.000000e+000 0.000000e+000 0.000000e+000 0.000000e+000 0.000000e+000 0.000000e+000
 0.000000e+000 0.000000e+000 0.000000e+000 0.000000e+000 0.000000e+000 0.000000e+000 0.000000e+000 0.000000e+000 8.847497e-001 1.152503e-001 0.000000e+000 0.000000e+000 0.000000e+000 0.000000e+000 0.000000e+000 0.000000e+000 0.000000e+000 0.000000e+000
 0.000000e+000 0.000000e+000 0.000000e+000 0.000000e+000 0.000000e+000 0.000000e+000 0.000000e+000 0.000000e+000 0.000000e+000 8.474537e-001 1.525463e-001 0.000000e+000 0.000000e+000 0.000000e+000 0.000000e+000 0.000000e+000 0.000000e+000 0.000000e+000
 0.000000e+000 0.000000e+000 0.000000e+000 0.000000e+000 0.000000e+000 0.000000e+000 0.000000e+000 0.000000e+000 0.000000e+000 0.000000e+000 8.726806e-001 1.273194e-001 0.000000e+000 0.000000e+000 0.000000e+000 0.000000e+000 0.000000e+000 0.000000e+000
 0.000000e+000 0.000000e+000 0.000000e+000 0.000000e+000 0.000000e+000 0.000000e+000 0.000000e+000 0.000000e+000 0.000000e+000 0.000000e+000 0.000000e+000 8.628324e-001 1.371676e-001 0.000000e+000 0.000000e+000 0.000000e+000 0.000000e+000 0.000000e+000
 0.000000e+000 0.000000e+000 0.000000e+000 0.000000e+000 0.000000e+000 0.000000e+000 0.000000e+000 0.000000e+000 0.000000e+000 0.000000e+000 0.000000e+000 0.000000e+000 8.816909e-001 1.183091e-001 0.000000e+000 0.000000e+000 0.000000e+000 0.000000e+000
 0.000000e+000 0.000000e+000 0.000000e+000 0.000000e+000 0.000000e+000 0.000000e+000 0.000000e+000 0.000000e+000 0.000000e+000 0.000000e+000 0.000000e+000 0.000000e+000 0.000000e+000 8.643786e-001 1.356214e-001 0.000000e+000 0.000000e+000 0.000000e+000
 0.000000e+000 0.000000e+000 0.000000e+000 0.000000e+000 0.000000e+000 0.000000e+000 0.000000e+000 0.000000e+000 0.000000e+000 0.000000e+000 0.000000e+000 0.000000e+000 0.000000e+000 0.000000e+000 8.879618e-001 1.120382e-001 0.000000e+000 0.000000e+000
 0.000000e+000 0.000000e+000 0.000000e+000 0.000000e+000 0.000000e+000 0.000000e+000 0.000000e+000 0.000000e+000 0.000000e+000 0.000000e+000 0.000000e+000 0.000000e+000 0.000000e+000 0.000000e+000 0.000000e+000 8.531987e-001 1.468013e-001 0.000000e+000
 0.000000e+000 0.000000e+000 0.000000e+000 0.000000e+000 0.000000e+000 0.000000e+000 0.000000e+000 0.000000e+000 0.000000e+000 0.000000e+000 0.000000e+000 0.000000e+000 0.000000e+000 0.000000e+000 0.000000e+000 0.000000e+000 8.632122e-001 1.367878e-001
 0.000000e+000 0.000000e+000 0.000000e+000 0.000000e+000 0.000000e+000 0.000000e+000 0.000000e+000 0.000000e+000 0.000000e+000 0.000000e+000 0.000000e+000 0.000000e+000 0.000000e+000 0.000000e+000 0.000000e+000 0.000000e+000 0.000000e+000 0.000000e+000
<ENDHMM>
