~o
<STREAMINFO> 1 39
<VECSIZE> 39<NULLD><MFCC_D_A_0><DIAGC>
~h "huishou"
<BEGINHMM>
<NUMSTATES> 12
<STATE> 2
<NUMMIXES> 4
<MIXTURE> 1 1.195457e-001
<MEAN> 39
 -7.691759e+000 -1.112325e+001 -1.078515e+001 -1.766183e+001 -8.856725e+000 -9.548364e+000 -1.631594e+001 7.923521e+000 1.024105e+001 -6.900830e-001 -1.911726e+001 -7.756709e+000 7.622898e+001 -2.284885e-001 8.986139e-003 5.116103e-001 1.082938e+000 -2.352898e-001 -1.817566e+000 8.345492e-001 3.518356e+000 1.154019e+000 -4.924483e-001 -2.301001e+000 -8.521067e-003 5.731798e-001 -2.552871e-001 1.695103e-001 5.570087e-001 -1.116551e-001 -8.573726e-001 -6.342650e-003 4.711444e-001 -3.539009e-001 -1.061621e+000 -7.645372e-001 9.245455e-001 9.729698e-001 -2.280450e-001
<VARIANCE> 39
 2.801275e+000 1.331238e+001 2.536725e+001 1.278977e+001 3.253337e+001 2.669632e+001 5.589634e+001 1.000652e+002 6.311596e+001 9.640264e+001 4.090409e+001 2.516492e+001 5.523657e+000 2.378298e-001 7.238244e-001 8.866839e-001 8.051452e-001 2.425433e+000 1.133953e+000 3.846857e+000 2.455582e+000 4.545455e+000 3.765772e+000 3.638994e+000 3.499021e+000 1.113984e-001 5.303636e-002 1.069396e-001 1.037574e-001 2.557458e-001 4.497521e-001 4.142139e-001 5.415553e-001 7.900864e-001 5.615034e-001 5.799726e-001 5.341880e-001 2.829840e-001 1.766850e-002
<GCONST> 9.980582e+001
<MIXTURE> 2 4.266790e-001
<MEAN> 39
 -1.587364e+001 -1.350877e+001 -7.185835e+000 -1.561172e+001 -1.381079e+001 -1.102233e+000 -8.436212e+000 2.243322e+000 7.715574e+000 -9.217481e+000 -2.543495e+000 -1.532549e+000 6.861871e+001 1.182554e+000 1.065329e+000 1.996235e-001 -1.538320e-001 -5.582473e-001 -7.217355e-001 -9.863967e-001 -7.055485e-001 -4.407097e-001 6.498887e-002 -2.957805e-002 -3.048195e-001 7.860075e-001 3.137523e-001 2.368651e-001 3.106631e-002 -1.519523e-001 -2.201714e-001 -1.647146e-001 -1.330263e-001 -8.535494e-002 -2.980070e-002 2.871189e-002 3.103037e-002 -5.369075e-002 1.903483e-001
<VARIANCE> 39
 4.806059e+000 1.782117e+001 1.544558e+001 1.382974e+001 2.128310e+001 1.875797e+001 2.847573e+001 3.292453e+001 2.673123e+001 3.758846e+001 2.105055e+001 2.395052e+001 4.763633e+000 1.008229e+000 9.260077e-001 9.708475e-001 9.199058e-001 1.257775e+000 1.658029e+000 1.948500e+000 2.531261e+000 2.286782e+000 2.097616e+000 2.012112e+000 1.741171e+000 2.676270e-001 1.142155e-001 1.418009e-001 1.862529e-001 1.778082e-001 3.021635e-001 2.997493e-001 3.103143e-001 3.920738e-001 4.394390e-001 4.261074e-001 3.987027e-001 3.209817e-001 3.822369e-002
<GCONST> 9.363912e+001
<MIXTURE> 3 2.346407e-001
<MEAN> 39
 -7.768766e+000 -8.083030e+000 -3.849795e+000 -1.748985e+001 -1.719183e+001 -7.945347e+000 -1.543501e+001 -4.286337e+000 3.579679e+000 -1.067479e+001 -4.006139e+000 -2.531340e+000 7.297447e+001 2.083272e+000 1.475464e+000 -2.726098e-001 -1.039467e+000 -1.664827e+000 -1.319274e+000 -1.042615e+000 -5.728827e-001 -1.028502e-001 9.809700e-001 8.845655e-002 -1.438851e-001 1.419659e+000 -4.819189e-001 -5.539062e-001 -4.004016e-001 1.409286e-001 3.417203e-001 3.503028e-001 5.026340e-001 4.843342e-001 4.499370e-001 4.436339e-001 -4.904247e-002 -1.198087e-001 -9.536272e-002
<VARIANCE> 39
 7.051097e+000 1.801472e+001 1.651446e+001 1.740209e+001 2.938575e+001 2.259008e+001 3.869111e+001 4.385946e+001 5.155517e+001 5.935024e+001 4.410629e+001 3.794929e+001 5.191682e+000 6.868784e-001 7.589713e-001 9.953074e-001 1.087898e+000 1.519725e+000 2.198646e+000 3.224520e+000 4.077311e+000 3.765898e+000 3.269059e+000 3.814071e+000 2.960874e+000 3.467361e-001 1.085410e-001 1.120604e-001 1.389701e-001 2.606057e-001 2.718884e-001 2.370743e-001 3.044401e-001 5.966605e-001 6.271526e-001 3.282214e-001 4.310661e-001 4.468434e-001 2.722986e-002
<GCONST> 1.012932e+002
<MIXTURE> 4 2.191346e-001
<MEAN> 39
 -6.134568e+000 -7.746135e+000 -9.377935e+000 -2.028656e+001 -1.792778e+001 -6.186959e+000 -1.511843e+001 -3.748756e+000 4.107204e+000 -4.720960e+000 -2.080728e+000 -1.900939e+000 7.580738e+001 2.693615e-001 -4.785894e-001 -9.246283e-001 6.891161e-001 7.294186e-001 -2.638186e-001 -6.220712e-001 1.998487e-001 1.095782e+000 2.321130e+000 -7.142367e-001 -1.503941e+000 9.607225e-001 -6.022481e-001 -4.453482e-001 3.437676e-001 9.011981e-001 3.532479e-001 -2.582512e-001 6.255641e-002 6.544080e-001 4.748344e-001 4.083836e-003 -5.942768e-001 -3.912911e-001 -2.423797e-001
<VARIANCE> 39
 7.624527e+000 2.527767e+001 2.438293e+001 2.218493e+001 5.896099e+001 3.261985e+001 5.709251e+001 5.348381e+001 4.333960e+001 8.314045e+001 7.527447e+001 4.714268e+001 7.722716e+000 5.486699e-001 7.554383e-001 1.073693e+000 2.872967e+000 3.001297e+000 2.125511e+000 3.231434e+000 4.911004e+000 4.432533e+000 3.546262e+000 4.717995e+000 2.730512e+000 2.492788e-001 7.497153e-002 1.460653e-001 1.966170e-001 2.063465e-001 5.306762e-001 5.082320e-001 6.690555e-001 6.004086e-001 5.719032e-001 1.139999e+000 4.927182e-001 6.393800e-001 2.960070e-002
<GCONST> 1.109662e+002
<STATE> 3
<NUMMIXES> 4
<MIXTURE> 1 5.955452e-001
<MEAN> 39
 -9.791023e+000 -9.311584e+000 -6.311370e+000 -1.764285e+001 -1.807281e+001 -8.951750e+000 -8.742884e+000 1.039624e+001 4.818816e+000 -1.838968e+000 -1.711082e+001 -3.121661e+000 7.735251e+001 -4.835551e-001 3.280166e-001 1.094424e+000 -2.308016e-001 -1.299082e+000 2.285470e-001 6.910862e-001 -9.567546e-001 -9.121220e-001 -4.560722e-002 3.863940e-001 3.575259e-001 -1.232651e-001 -5.208571e-002 -4.276311e-003 -3.369126e-002 -1.096937e-001 1.189984e-001 1.593775e-001 -3.670228e-001 -7.918473e-001 -2.086045e-001 3.534408e-002 1.252581e-001 -1.835223e-001 -1.194300e-001
<VARIANCE> 39
 9.635522e+000 1.467229e+001 2.474940e+001 2.489012e+001 3.805107e+001 2.993065e+001 5.465484e+001 7.159544e+001 9.441417e+001 7.903102e+001 4.668933e+001 2.361397e+001 9.735394e+000 2.702758e-001 3.577701e-001 6.508967e-001 8.235530e-001 1.493790e+000 1.678953e+000 2.353443e+000 3.964339e+000 4.062215e+000 2.135827e+000 1.818513e+000 1.736407e+000 1.119519e-001 4.068538e-002 7.411041e-002 1.310005e-001 1.680954e-001 2.187921e-001 3.971885e-001 3.001252e-001 7.509412e-001 6.482786e-001 4.755903e-001 4.715175e-001 3.101663e-001 9.160281e-003
<GCONST> 9.652938e+001
<MIXTURE> 2 1.914675e-001
<MEAN> 39
 -6.300485e+000 -1.047336e+001 -8.191458e+000 -1.126041e+001 -2.129515e+001 -1.184501e+001 -2.188513e+001 -1.780404e+000 1.311437e+001 3.290264e+000 9.073070e-001 -1.053543e+001 7.942859e+001 -7.960526e-001 -6.702784e-001 1.454037e+000 2.457661e+000 -1.391503e+000 -2.304120e+000 1.322844e-001 2.276537e+000 4.298664e-002 -4.710342e-001 -1.275985e+000 -2.055965e-001 3.035222e-001 -1.447724e-001 3.356058e-001 5.614616e-001 -3.275744e-001 -5.866742e-001 4.542527e-002 9.702032e-001 2.653832e-001 -1.181935e+000 -1.036533e+000 3.651789e-001 9.670758e-001 -2.209586e-001
<VARIANCE> 39
 7.865129e+000 3.654588e+001 2.220273e+001 3.714407e+001 2.191774e+001 7.991022e+001 4.755997e+001 6.323594e+001 2.398395e+001 7.410579e+001 3.047915e+001 3.692437e+001 8.080719e+000 1.598498e-001 8.217845e-001 1.029169e+000 1.177355e+000 1.775252e+000 2.305254e+000 3.085654e+000 3.408033e+000 3.683164e+000 4.317706e+000 2.339273e+000 3.955300e+000 9.856975e-002 4.047219e-002 1.225881e-001 2.027682e-001 3.442206e-001 2.517636e-001 5.248846e-001 4.230701e-001 6.283476e-001 2.789386e-001 6.211395e-001 5.388709e-001 3.585929e-001 1.537815e-002
<GCONST> 1.018387e+002
<MIXTURE> 3 1.497934e-001
<MEAN> 39
 -5.133257e+000 -8.234633e+000 2.170667e+000 -1.009533e+001 -1.545079e+001 -1.435730e+001 -1.836786e+001 -1.360736e+001 3.322633e+000 -7.110331e+000 3.340004e+000 -1.429447e+000 7.570078e+001 -3.146710e-001 -2.836856e-001 7.511047e-001 1.509691e+000 -5.490788e-001 -8.921568e-001 5.244933e-001 9.110365e-002 3.460809e-002 2.994677e-001 -5.886093e-001 -9.453632e-001 1.473363e-001 -2.086390e-001 -4.897998e-002 1.537898e-001 -8.796073e-002 -6.523743e-002 2.595674e-001 3.879409e-001 2.069632e-001 -4.501636e-001 -5.954912e-001 -2.275262e-001 1.976635e-001 -1.146234e-001
<VARIANCE> 39
 2.677731e+000 3.002614e+000 3.301010e+000 3.295471e+001 3.345382e+001 6.476469e+000 1.532743e+001 4.194879e+001 3.864096e+001 6.127174e+001 3.550787e+001 2.739880e+001 7.278866e-001 2.102880e-001 2.348585e-001 5.688775e-001 5.608845e-001 1.023580e+000 8.509707e-001 1.733103e+000 1.209341e+000 2.664242e+000 4.337604e+000 1.325196e+000 2.170946e+000 3.312264e-002 2.806207e-002 8.259176e-002 5.098968e-002 1.517142e-001 1.457880e-001 9.399580e-002 1.654005e-001 2.079589e-001 5.319453e-001 4.152420e-001 2.430706e-001 4.728423e-001 3.393427e-003
<GCONST> 7.322731e+001
<MIXTURE> 4 6.319404e-002
<MEAN> 39
 -1.377147e+001 -2.933349e+000 -4.129915e+000 -3.890724e+000 -3.446419e+001 -5.862229e+000 -8.824860e+000 -1.449927e+001 -4.498212e+000 -3.542536e+000 2.027350e+000 -9.619873e+000 7.472260e+001 -6.746219e-001 -7.413549e-002 2.053661e+000 1.866302e+000 -1.334442e+000 -1.129094e+000 3.189592e-001 -1.675169e+000 -1.828178e+000 1.194981e+000 1.154685e+000 6.112205e-001 2.000807e-001 1.972257e-001 1.585895e-002 1.480704e-001 -5.209398e-001 3.086639e-001 2.268761e-001 2.124945e-001 6.153129e-001 4.224025e-001 -4.821368e-001 -3.257762e-001 3.297076e-001 -1.627825e-001
<VARIANCE> 39
 2.233732e+000 2.849137e-001 2.754752e+001 1.352000e+001 7.950534e+000 4.881646e+000 8.374569e+000 6.652339e+000 9.385547e+000 2.129373e+001 1.227465e+001 3.744490e+000 2.052539e-001 2.699138e-001 4.709426e-002 6.244361e-001 1.473642e+000 7.240443e-001 3.487723e-001 1.504009e+000 2.806444e+000 4.890676e-001 4.733449e+000 5.022917e-001 1.347030e+000 8.742132e-002 2.353838e-002 1.980121e-002 4.353423e-001 7.911719e-002 3.073612e-002 1.166819e-001 2.885555e-001 3.098792e-001 1.870716e-001 5.899053e-001 2.168712e-001 1.122772e-001 3.814279e-004
<GCONST> 5.311776e+001
<STATE> 4
<NUMMIXES> 4
<MIXTURE> 1 1.375143e-001
<MEAN> 39
 -1.077483e+001 -1.038923e+001 1.034394e+000 -4.628009e+000 -2.762802e+001 -2.203135e+001 -1.252609e+001 3.401035e+000 2.011418e+000 -5.497589e+000 3.853712e+000 -3.864726e+000 7.963178e+001 -6.245602e-001 6.298874e-001 1.124406e+000 1.111224e-001 -3.344956e-001 -1.466036e-001 9.784092e-001 -1.542583e-001 -1.844779e+000 -4.411991e-001 1.986862e-001 9.764798e-001 -3.185733e-001 6.618767e-002 1.962870e-001 -3.385426e-001 -2.661157e-001 4.554407e-001 4.951387e-001 -3.019024e-001 -4.795372e-001 2.335040e-001 1.606838e-001 -2.223706e-001 -1.541334e-001 -1.296513e-001
<VARIANCE> 39
 1.053148e+001 2.326994e+001 1.885709e+001 2.213733e+001 2.445348e+001 3.307869e+001 2.396867e+001 1.288298e+002 4.551440e+001 4.923481e+001 3.516159e+001 1.894781e+001 7.231500e+000 2.069339e-001 9.817898e-001 1.559802e+000 8.100730e-001 1.388208e+000 1.628419e+000 3.189245e+000 3.252720e+000 1.689098e+000 1.313462e+000 2.798515e+000 2.096488e+000 1.238224e-001 2.253626e-002 1.253039e-001 1.589387e-001 2.391728e-001 1.051752e-001 2.502832e-001 3.942259e-001 3.137693e-001 2.932687e-001 2.433681e-001 5.305339e-001 3.504777e-001 1.804759e-002
<GCONST> 9.320731e+001
<MIXTURE> 2 2.952226e-001
<MEAN> 39
 -1.382577e+001 -7.732345e+000 -2.658587e+000 -2.092052e+001 -1.789044e+001 -1.081485e+001 -9.918527e+000 -1.722629e+000 1.900531e+000 -5.938455e+000 -1.525878e+001 -3.686526e+000 7.396564e+001 -6.542366e-001 1.074795e-001 1.783862e-001 2.889549e-001 -1.493974e-001 -3.955003e-001 -1.292315e+000 -1.530078e+000 -1.106170e+000 -1.266960e+000 4.208987e-001 1.350791e-001 -4.182823e-001 1.352911e-002 4.459654e-002 -3.750786e-002 1.844548e-001 1.091142e-001 1.042866e-001 4.089947e-002 1.733535e-001 1.467660e-001 1.272344e-002 9.755415e-002 1.119872e-002 2.660354e-002
<VARIANCE> 39
 1.071071e+001 1.991858e+001 1.329059e+001 1.302770e+001 2.804649e+001 1.487155e+001 4.435398e+001 4.239436e+001 4.562881e+001 9.025883e+001 4.461156e+001 1.874252e+001 6.806085e+000 1.469395e-001 3.451415e-001 4.510441e-001 5.939271e-001 1.113986e+000 1.460567e+000 1.310713e+000 2.017163e+000 1.941659e+000 1.721019e+000 1.744697e+000 1.207181e+000 6.516083e-002 1.953690e-002 6.010275e-002 7.804586e-002 1.067945e-001 2.193095e-001 2.444106e-001 3.284155e-001 2.061221e-001 2.368378e-001 3.458240e-001 2.756557e-001 1.452938e-001 8.848503e-003
<GCONST> 8.151662e+001
<MIXTURE> 3 3.868839e-001
<MEAN> 39
 -1.081469e+001 -7.009233e+000 5.792064e+000 -8.005610e+000 -2.119333e+001 -1.195655e+001 -1.335297e+001 -1.164801e+001 -4.713990e+000 -1.322464e+001 -4.656566e+000 -5.195745e+000 7.321086e+001 -2.503677e-001 2.251530e-001 2.313674e-001 -4.698036e-002 2.967099e-001 4.703411e-001 1.098005e-002 -1.604355e-001 -8.695235e-002 -3.493493e-001 -2.831599e-001 1.145950e-002 -2.500210e-001 -7.898799e-003 -1.469384e-003 -1.547582e-001 6.790090e-003 1.553912e-001 1.487635e-002 -7.427873e-002 1.083356e-001 1.159425e-001 -6.679495e-003 -4.550947e-002 -1.342710e-002 6.728241e-003
<VARIANCE> 39
 8.013244e+000 9.039301e+000 5.831355e+000 3.405664e+001 5.088310e+001 1.650700e+001 3.975029e+001 3.836868e+001 2.690189e+001 4.451580e+001 8.817562e+001 2.148004e+001 3.249636e+000 9.491844e-002 2.156842e-001 4.736613e-001 6.837656e-001 9.045090e-001 9.580564e-001 1.073830e+000 1.768417e+000 1.223194e+000 1.243149e+000 1.164581e+000 1.041347e+000 4.876134e-002 1.233034e-002 3.350036e-002 6.659635e-002 1.368760e-001 1.361899e-001 1.597262e-001 1.771931e-001 3.089244e-001 2.217422e-001 2.066288e-001 1.874486e-001 1.961832e-001 7.567812e-003
<GCONST> 7.370784e+001
<MIXTURE> 4 1.803793e-001
<MEAN> 39
 -9.893064e+000 -6.914945e+000 1.686798e+000 -1.505565e+001 -2.889820e+001 -1.133096e+001 -1.690695e+001 -2.517772e+000 4.038852e+000 4.611078e+000 -3.103495e+000 -2.025405e+000 7.783822e+001 -4.936551e-001 5.652915e-001 7.009189e-001 8.994469e-002 3.069475e-001 -3.951676e-001 6.399685e-002 -8.074402e-001 -1.024102e+000 -5.574325e-001 3.811793e-001 4.169940e-001 -2.500521e-001 3.572107e-002 -3.087266e-003 -1.916180e-001 -1.264234e-001 3.828802e-001 5.219780e-002 8.198741e-003 8.353498e-002 1.571808e-001 -2.794271e-001 -6.345097e-002 -4.030274e-002 -6.373306e-002
<VARIANCE> 39
 7.899445e+000 6.901124e+000 2.528716e+001 2.337702e+001 3.266970e+001 2.746523e+001 6.829642e+001 6.945570e+001 2.819608e+001 2.616426e+001 3.234152e+001 4.187646e+001 6.865318e+000 2.032872e-001 4.341250e-001 6.389995e-001 8.117245e-001 1.894158e+000 9.047893e-001 1.855267e+000 2.075723e+000 2.330647e+000 2.074626e+000 2.066046e+000 1.701945e+000 7.637063e-002 2.462856e-002 5.094057e-002 7.198570e-002 1.480934e-001 3.162545e-001 1.200130e-001 2.510315e-001 3.852348e-001 3.572086e-001 2.827876e-001 2.812095e-001 3.246537e-001 1.270998e-002
<GCONST> 8.624591e+001
<STATE> 5
<NUMMIXES> 4
<MIXTURE> 1 2.963196e-001
<MEAN> 39
 -2.574140e+001 -1.512605e+000 -5.576725e+000 -7.953467e+000 -1.152622e+001 -5.422591e+000 -8.169639e+000 -1.420216e-003 -2.169660e+000 -6.967981e+000 -9.396420e+000 -7.127045e-001 7.360583e+001 -2.444518e+000 1.448998e-001 -1.799603e+000 5.538349e-001 1.878064e+000 1.961731e+000 2.993382e+000 2.312653e+000 1.724443e+000 1.744236e+000 5.154600e-001 -9.340949e-002 7.183037e-002 5.539570e-001 -2.212064e-001 5.780683e-002 -4.782707e-001 -5.203369e-001 -3.590816e-001 -3.867922e-001 6.218009e-002 2.881730e-001 1.920235e-001 3.006980e-001 1.962614e-002 7.053590e-002
<VARIANCE> 39
 1.411924e+001 9.963434e+000 1.983825e+001 3.502601e+001 2.567520e+001 4.207311e+001 2.846498e+001 4.369618e+001 4.003910e+001 5.694159e+001 2.643665e+001 3.273633e+001 7.276241e+000 8.588123e-001 6.992808e-001 1.192168e+000 1.375845e+000 1.821057e+000 1.985690e+000 1.268003e+000 2.443883e+000 1.816776e+000 2.587841e+000 2.388791e+000 1.858041e+000 1.345216e-001 1.404455e-001 1.218769e-001 2.071909e-001 2.043727e-001 2.789647e-001 3.368681e-001 6.254343e-001 7.125143e-001 4.651808e-001 6.157472e-001 3.622834e-001 4.032961e-001 1.909294e-002
<GCONST> 9.965678e+001
<MIXTURE> 2 1.837806e-001
<MEAN> 39
 -1.406820e+001 -3.431964e+000 6.693643e-001 -1.183547e+001 -2.348031e+001 -1.615849e+001 -1.654296e+001 4.609897e-001 -9.581568e-001 -2.996874e+000 -2.779557e+000 7.658423e-002 7.684824e+001 -1.420735e+000 9.113030e-001 -5.979502e-001 6.372693e-001 2.334347e+000 1.232678e+000 7.195830e-001 -1.244337e+000 -4.752539e-001 -1.268068e+000 -1.096419e+000 7.341906e-001 -7.262564e-001 -5.918742e-001 -1.202743e-001 -3.198413e-001 3.765018e-001 5.023413e-001 6.329307e-001 6.027713e-001 3.184509e-001 1.105428e-001 2.145387e-001 -2.562896e-001 -1.001660e-001 5.948547e-002
<VARIANCE> 39
 9.658601e+000 1.550840e+001 1.540464e+001 5.304893e+001 3.495164e+001 3.223043e+001 2.793238e+001 5.672919e+001 3.971566e+001 2.492331e+001 2.632705e+001 3.816791e+001 4.435061e+000 1.612547e+000 5.167450e-001 6.770774e-001 1.708400e+000 2.482539e+000 2.827262e+000 3.080165e+000 2.052892e+000 2.172370e+000 1.357275e+000 3.119711e+000 2.534189e+000 1.630121e-001 1.006336e-001 1.380412e-001 1.405297e-001 1.936490e-001 2.094264e-001 3.814962e-001 2.862684e-001 5.492443e-001 4.860900e-001 4.054290e-001 4.355649e-001 4.916026e-001 3.827306e-002
<GCONST> 9.949200e+001
<MIXTURE> 3 2.970857e-001
<MEAN> 39
 -1.664283e+001 -5.356390e+000 -6.085653e-001 -1.377259e+001 -1.755580e+001 -1.011178e+001 -1.670308e+001 -8.540740e+000 -5.725502e+000 -1.572527e+001 -1.213395e+001 -2.613813e+000 7.192570e+001 -1.693653e+000 3.853546e-001 -6.399975e-001 1.356941e+000 1.305551e+000 1.417991e+000 1.332964e+000 4.885257e-001 -1.458792e-001 -1.604072e-001 3.929230e-001 2.989593e-002 -1.712163e-001 -4.687641e-001 -1.809498e-002 -4.261864e-001 5.435609e-002 2.493206e-001 3.847336e-001 7.506800e-001 8.489878e-001 5.229765e-001 7.897841e-001 1.001611e-001 4.527112e-002 8.399382e-002
<VARIANCE> 39
 7.941167e+000 1.363713e+001 1.583540e+001 2.228310e+001 2.003160e+001 1.498162e+001 1.766118e+001 2.496405e+001 3.306088e+001 3.960823e+001 2.474237e+001 3.417921e+001 3.674759e+000 1.041945e+000 5.295815e-001 1.125448e+000 1.201544e+000 1.931986e+000 1.364893e+000 3.139490e+000 3.626824e+000 2.214637e+000 3.010069e+000 2.172132e+000 9.994761e-001 1.383931e-001 8.495432e-002 7.792314e-002 1.325633e-001 1.863291e-001 3.011992e-001 2.408922e-001 2.958219e-001 4.102739e-001 2.736803e-001 3.350094e-001 2.468573e-001 2.034766e-001 1.430206e-002
<GCONST> 8.996511e+001
<MIXTURE> 4 2.228141e-001
<MEAN> 39
 -1.241218e+001 -6.427924e+000 4.888946e+000 -6.808053e+000 -1.792106e+001 -8.826894e+000 -1.161123e+001 -9.971866e+000 -1.085345e+000 -1.308121e+001 -3.878956e+000 -2.536520e+000 7.227274e+001 -9.403312e-001 -6.220024e-001 -1.059587e+000 3.408739e-001 1.861571e+000 1.409911e+000 4.120870e-001 1.505401e+000 2.226574e-001 -6.887879e-001 -1.439100e+000 1.530130e-002 -4.735075e-001 -3.737648e-001 -3.469369e-001 -3.662353e-001 6.010511e-002 -9.119465e-002 2.777766e-001 3.105800e-001 4.541492e-001 9.442522e-002 2.364119e-001 -1.256911e-001 -1.319992e-002 -3.822786e-002
<VARIANCE> 39
 8.432218e+000 8.311680e+000 7.246065e+000 2.408973e+001 4.293504e+001 1.288280e+001 1.878899e+001 1.053859e+001 3.528050e+001 4.632961e+001 2.167822e+001 1.617966e+001 2.875218e+000 4.567098e-001 4.767616e-001 3.627902e-001 7.544205e-001 1.684094e+000 1.767545e+000 1.630763e+000 1.140403e+000 1.756757e+000 1.948705e+000 1.379988e+000 1.408093e+000 8.920565e-002 1.839102e-002 4.336680e-002 7.251320e-002 1.343879e-001 2.089243e-001 1.547831e-001 2.159192e-001 1.057954e-001 3.606571e-001 2.950851e-001 4.511728e-001 2.329640e-001 1.085733e-002
<GCONST> 7.738600e+001
<STATE> 6
<NUMMIXES> 4
<MIXTURE> 1 1.425989e-001
<MEAN> 39
 -2.365852e+001 -5.707358e+000 -1.030621e+001 -9.843764e+000 -1.010017e+001 -4.778763e+000 -9.064437e+000 4.143353e+000 5.032403e+000 -2.228222e+000 -7.850714e+000 -1.765148e+000 7.423547e+001 3.959636e+000 -3.703011e-001 9.333698e-001 -1.274213e+000 -1.536653e+000 -1.922545e+000 -3.004163e+000 -4.381199e-001 1.746430e+000 4.967808e-001 1.027414e+000 -4.707927e-001 4.341517e-001 7.625340e-001 5.803536e-002 -1.365467e-002 -6.437042e-001 -4.181946e-001 -4.819843e-001 -2.734913e-001 3.664927e-001 8.684984e-001 4.501142e-001 4.871794e-001 -1.927655e-001 2.321511e-001
<VARIANCE> 39
 2.327188e+001 9.768256e+000 1.201615e+001 1.570325e+001 3.002046e+001 2.847206e+001 3.432811e+001 3.599446e+001 2.954912e+001 2.102904e+001 3.340495e+001 2.024211e+001 7.530466e+000 1.292307e+000 5.666503e-001 9.165359e-001 1.544668e+000 1.484617e+000 2.232837e+000 5.024179e+000 2.897939e+000 3.269233e+000 3.428095e+000 2.570763e+000 2.340016e+000 2.272825e-001 3.413523e-001 1.336898e-001 2.470587e-001 1.898339e-001 2.485483e-001 3.657770e-001 9.481297e-001 4.270667e-001 4.186416e-001 3.800109e-001 4.224204e-001 2.512964e-001 2.157990e-002
<GCONST> 1.004575e+002
<MIXTURE> 2 1.359265e-001
<MEAN> 39
 -1.847972e+001 -1.135042e+001 -8.142725e-001 -6.574958e+000 -1.292345e+001 -2.362507e+000 -7.913224e+000 -2.374254e+000 6.661817e-002 -1.316691e+001 -8.553154e+000 -3.862850e+000 7.094042e+001 -1.772762e+000 -8.540201e-001 -2.146073e+000 2.885337e-001 3.374408e-001 1.323281e+000 9.976677e-001 2.397509e+000 1.070973e+000 1.323546e+000 -2.525131e-001 7.507035e-001 -2.239092e-001 1.784434e-001 2.217994e-001 5.055389e-003 -2.064966e-001 -4.680252e-001 -5.805687e-001 -2.261663e-001 -2.586860e-001 1.916574e-001 2.582558e-001 3.360487e-001 2.522317e-001 1.383049e-001
<VARIANCE> 39
 9.789642e+000 9.008849e+000 1.197874e+001 3.371745e+001 1.478116e+001 1.245968e+001 2.263392e+001 2.091307e+001 3.826682e+001 3.382121e+001 2.195117e+001 1.729427e+001 4.057918e+000 3.058890e-001 5.542958e-001 7.628837e-001 7.655889e-001 1.091064e+000 1.755721e+000 1.301690e+000 1.682719e+000 2.452685e+000 2.782182e+000 2.576248e+000 2.098869e+000 1.139888e-001 7.657617e-002 5.535554e-002 1.450974e-001 1.590631e-001 1.215716e-001 1.509777e-001 1.479349e-001 3.124336e-001 3.772683e-001 3.957281e-001 2.132959e-001 2.164521e-001 9.194408e-003
<GCONST> 8.262642e+001
<MIXTURE> 3 3.612919e-001
<MEAN> 39
 -2.228118e+001 -1.103061e+001 -8.063115e+000 -9.385121e+000 -1.464427e+001 -2.797524e+000 -6.975511e+000 2.725725e+000 5.240921e+000 -8.989444e+000 -7.465915e+000 -4.456587e-001 7.149702e+001 5.936036e-002 -1.245190e-001 -5.415342e-001 -4.602623e-001 -2.110610e-001 -5.194791e-002 1.476934e-001 5.978936e-001 6.978439e-001 2.716295e-001 2.580040e-002 2.318154e-001 5.552578e-002 3.401423e-001 2.288217e-002 2.849513e-001 -8.411180e-002 3.893395e-002 -5.484339e-002 -6.491835e-002 -2.224140e-001 -1.818765e-001 -2.324072e-001 -5.956000e-002 -1.416941e-001 1.637292e-002
<VARIANCE> 39
 8.942514e+000 1.283086e+001 1.358421e+001 2.508216e+001 1.166068e+001 2.115206e+001 2.334390e+001 2.277658e+001 3.330704e+001 3.106623e+001 2.373732e+001 2.732273e+001 5.281505e+000 5.474181e-001 2.814612e-001 6.613024e-001 6.799843e-001 7.912856e-001 1.348892e+000 1.339386e+000 1.360113e+000 1.504036e+000 1.869096e+000 1.360017e+000 1.780759e+000 4.495889e-002 4.761551e-002 5.808445e-002 1.289231e-001 1.035881e-001 1.543377e-001 2.993372e-001 2.497549e-001 2.527260e-001 2.101675e-001 3.644720e-001 2.656089e-001 3.308944e-001 7.936514e-003
<GCONST> 8.004643e+001
<MIXTURE> 4 3.601827e-001
<MEAN> 39
 -2.929148e+001 -1.601826e+000 -9.527329e+000 -9.364853e+000 -8.503197e+000 -1.828280e+000 -4.604051e+000 5.915787e+000 1.903720e+000 -1.654689e+000 -7.203856e+000 -5.923622e-001 7.368267e+001 2.039768e-001 -4.369211e-001 -5.347983e-001 -3.019857e-001 5.550536e-002 -1.214628e-001 -4.133319e-001 2.140998e-001 6.719508e-001 3.102384e-001 -4.607408e-003 -1.124856e-001 9.306446e-002 5.439300e-001 -1.090718e-001 2.389895e-001 -1.124405e-001 -2.728012e-001 -3.338425e-001 -5.027857e-001 -3.091420e-001 -6.732035e-002 -2.156952e-001 -9.170832e-002 -1.007817e-001 -1.984722e-003
<VARIANCE> 39
 8.413962e+000 1.407120e+001 1.211057e+001 2.040717e+001 2.154462e+001 3.072509e+001 2.780855e+001 4.039194e+001 3.612428e+001 2.093407e+001 2.237759e+001 2.895568e+001 7.150793e+000 6.302441e-001 7.583554e-001 9.167541e-001 8.906438e-001 1.163640e+000 1.310146e+000 1.354761e+000 1.770356e+000 1.765813e+000 1.735580e+000 1.351827e+000 1.256884e+000 7.903332e-002 1.775171e-001 1.149499e-001 1.903774e-001 1.744056e-001 2.031399e-001 2.358717e-001 4.028415e-001 3.712993e-001 3.722541e-001 3.832374e-001 2.559903e-001 2.474124e-001 1.562252e-002
<GCONST> 8.891647e+001
<STATE> 7
<NUMMIXES> 4
<MIXTURE> 1 1.583607e-001
<MEAN> 39
 -6.394635e+000 -9.074539e+000 -1.200736e+001 -2.305692e+001 -1.646898e+001 -4.870650e+000 -1.335249e+001 5.233695e+000 1.756289e+001 6.634886e+000 4.319076e+000 -9.439033e+000 7.818339e+001 1.092259e-002 -5.334392e-001 -2.059675e-001 -1.366393e+000 -1.839624e-001 2.629391e+000 3.695841e+000 3.277085e-001 -5.793848e-001 -1.102308e+000 4.447395e-001 -1.889834e-001 -8.002887e-001 -6.907821e-001 4.702354e-002 4.313911e-001 6.548241e-001 2.931479e-001 7.482938e-002 1.387625e-001 -3.278602e-002 -6.467218e-001 -7.425934e-001 -5.132990e-001 7.407532e-001 -3.780202e-001
<VARIANCE> 39
 2.805469e+000 1.304896e+001 8.940667e+000 1.715644e+001 3.886301e+001 3.390968e+001 7.716793e+001 4.309623e+001 3.096857e+001 4.598193e+001 5.779408e+001 3.162109e+001 9.367868e+000 3.649546e-001 7.139643e-001 8.824122e-001 1.216111e+000 1.360970e+000 1.765061e+000 5.701340e+000 2.698318e+000 1.882488e+000 1.561679e+000 2.506536e+000 1.975195e+000 1.973510e-001 1.489974e-001 1.524859e-001 1.088139e-001 2.310221e-001 2.838291e-001 7.945870e-001 2.110884e+000 5.164021e-001 6.397952e-001 3.987869e-001 5.755417e-001 1.961241e-001 3.702418e-002
<GCONST> 1.002888e+002
<MIXTURE> 2 3.024671e-001
<MEAN> 39
 -1.810675e+001 -1.322084e+001 -7.190980e+000 -1.312227e+001 -1.403933e+001 -2.133917e+000 -5.501119e+000 2.917898e+000 7.089576e+000 -1.092064e+001 -7.508545e+000 -1.642242e+000 7.126536e+001 1.692435e+000 -2.297632e-004 4.049926e-001 -1.252557e+000 -3.933755e-001 -8.454204e-001 -6.421311e-001 -2.205471e-001 5.685585e-001 1.795777e-001 4.659417e-001 -4.943929e-001 2.416006e-001 3.108248e-001 1.278416e-001 -7.771700e-003 -3.243271e-001 -3.192461e-001 -4.707751e-001 -3.510095e-001 -3.019604e-002 3.400369e-001 2.291275e-001 2.557010e-001 -8.065302e-002 1.009121e-001
<VARIANCE> 39
 6.746343e+000 1.092626e+001 1.249788e+001 2.284587e+001 7.823974e+000 1.808657e+001 1.642244e+001 2.952095e+001 1.900936e+001 2.343299e+001 3.038250e+001 1.835370e+001 5.442806e+000 1.017150e+000 2.517379e-001 4.926723e-001 1.005247e+000 1.248139e+000 2.330662e+000 2.144547e+000 1.837640e+000 2.347384e+000 2.468223e+000 2.443652e+000 1.246466e+000 6.711918e-002 6.304999e-002 3.857648e-002 1.170596e-001 1.380232e-001 1.496523e-001 3.318411e-001 2.781146e-001 2.712796e-001 2.991759e-001 2.954738e-001 3.010230e-001 3.193932e-001 7.570643e-003
<GCONST> 8.204591e+001
<MIXTURE> 3 1.909642e-001
<MEAN> 39
 -9.304838e+000 -1.170162e+001 -1.445660e+001 -2.082186e+001 -1.085042e+001 -9.909334e+000 -8.560360e+000 9.540185e+000 2.201272e+001 -2.896254e+000 -1.031006e+001 -6.170909e+000 7.661869e+001 2.276351e-001 -1.461935e+000 -1.368783e+000 9.552658e-002 2.911006e+000 2.258385e+000 4.623088e-001 -1.375477e+000 5.502209e-001 -3.472700e-001 -9.593295e-001 -5.620028e-001 -2.461960e-001 -5.352556e-001 2.055365e-001 1.697062e-001 4.530567e-001 1.026931e-001 4.763264e-001 -3.667522e-001 -1.045079e+000 -1.073860e+000 2.353795e-001 6.462765e-001 6.834097e-002 -2.232970e-001
<VARIANCE> 39
 6.157252e+000 5.038501e+000 1.523701e+001 1.639082e+001 3.078555e+001 4.837606e+001 4.405251e+001 4.102183e+001 2.729252e+001 1.888334e+001 1.720254e+001 1.996254e+001 6.013938e+000 5.692731e-001 3.736794e-001 5.899297e-001 9.829424e-001 1.899794e+000 1.558996e+000 2.317107e+000 4.065784e+000 2.703316e+000 2.912762e+000 2.937375e+000 1.430571e+000 2.707930e-001 1.684781e-001 1.045291e-001 1.331279e-001 2.503886e-001 7.862082e-001 7.454081e-001 4.091779e-001 4.948991e-001 5.295614e-001 3.572744e-001 5.675698e-001 2.764773e-001 2.202569e-002
<GCONST> 9.584025e+001
<MIXTURE> 4 3.482080e-001
<MEAN> 39
 -1.039517e+001 -6.875371e+000 -8.435398e+000 -1.777255e+001 -1.760722e+001 -1.303493e+001 -1.724170e+001 4.310383e+000 1.316704e+001 -1.208824e+000 -4.301579e+000 -4.202918e+000 7.649511e+001 3.096464e+000 -8.495868e-001 -7.963434e-001 -2.650866e+000 -1.017195e+000 -1.244976e+000 -4.400502e-001 1.384432e+000 3.348747e+000 8.130390e-001 5.399014e-001 -1.012679e+000 6.360317e-001 -9.817430e-001 -2.392776e-001 -5.565882e-001 2.157037e-001 8.905227e-001 1.295612e+000 1.421403e+000 2.161347e-001 -2.488930e-001 -3.021798e-001 -4.885255e-001 -1.671490e-002 -2.081376e-001
<VARIANCE> 39
 9.237305e+000 1.379193e+001 1.416636e+001 2.093174e+001 2.732250e+001 3.749754e+001 6.618421e+001 4.855627e+001 5.224837e+001 8.634212e+001 5.111934e+001 1.992770e+001 8.566830e+000 1.830920e+000 1.013509e+000 9.948205e-001 1.921638e+000 2.586805e+000 4.261494e+000 5.924921e+000 2.323561e+000 2.856689e+000 3.073631e+000 4.517671e+000 1.697397e+000 1.443069e-001 1.670550e-001 9.674682e-002 1.435522e-001 2.783832e-001 4.950725e-001 4.369974e-001 1.131636e+000 7.289883e-001 8.190295e-001 5.827680e-001 5.361711e-001 3.060918e-001 5.149068e-002
<GCONST> 1.086933e+002
<STATE> 8
<NUMMIXES> 4
<MIXTURE> 1 3.002917e-001
<MEAN> 39
 -9.782800e+000 -1.092200e+001 -9.204897e+000 -2.411967e+001 -1.779426e+001 -3.877280e-001 -5.010026e+000 7.917726e+000 1.425293e+001 -8.655673e-001 2.983501e+000 -5.041386e+000 7.207684e+001 -5.548279e-001 -5.575744e-001 5.482311e-001 2.560023e-002 -1.678532e-001 2.240102e-001 4.154463e-001 4.825721e-001 -2.666172e-001 -1.128530e+000 -5.951107e-002 6.069303e-001 -8.926504e-001 3.729328e-002 6.840343e-002 5.775539e-002 1.887995e-001 -1.984426e-002 -3.196222e-001 -4.131870e-001 -1.281355e-001 -3.271043e-002 5.579853e-002 -1.207131e-001 -7.156753e-002 1.085515e-001
<VARIANCE> 39
 6.350985e+000 8.880389e+000 1.138050e+001 2.041230e+001 1.671141e+001 1.972825e+001 3.091600e+001 2.042504e+001 2.540874e+001 4.443271e+001 3.175446e+001 1.163056e+001 1.134536e+001 3.760712e-001 5.995981e-001 4.370294e-001 5.711993e-001 1.082491e+000 1.342505e+000 1.617008e+000 1.502698e+000 1.167593e+000 1.718190e+000 1.537194e+000 1.064296e+000 1.259842e-001 6.888531e-002 8.948642e-002 8.255401e-002 8.810619e-002 1.348205e-001 2.230304e-001 3.507605e-001 2.681633e-001 1.945124e-001 3.492362e-001 2.310198e-001 1.611028e-001 2.400771e-002
<GCONST> 8.068453e+001
<MIXTURE> 2 1.025996e-001
<MEAN> 39
 -1.656754e+001 -1.106206e+001 -6.386083e+000 -8.339369e+000 -1.628335e+001 -5.391636e+000 -1.367051e+001 5.837775e+000 1.263022e+001 -8.829684e+000 -5.687794e+000 4.785524e+000 7.042407e+001 1.685681e+000 1.365136e+000 3.211749e-001 -1.921136e+000 -1.695652e+000 -6.929651e-001 -5.586720e-001 -7.808622e-001 7.722535e-001 1.231833e+000 1.866668e+000 5.161556e-002 2.539873e-001 6.854433e-002 5.198371e-002 -1.540488e-001 -3.014660e-001 -2.597215e-001 -3.243245e-002 4.463944e-001 2.191641e-001 7.260019e-002 2.409228e-001 4.251070e-002 5.533208e-002 8.140821e-002
<VARIANCE> 39
 1.399643e+001 1.899224e+001 2.104968e+001 5.045984e+001 1.608934e+001 9.087539e+000 8.870784e+000 1.780791e+001 2.749043e+001 1.813921e+001 4.621825e+001 1.760747e+001 1.208386e+000 5.269830e-001 1.346155e+000 8.540248e-001 1.346664e+000 1.622869e+000 2.307626e+000 1.153602e+000 1.128421e+000 1.500063e+000 2.155569e+000 1.486758e+000 2.212264e+000 1.666424e-001 6.354895e-002 3.940638e-001 2.037717e-001 1.496749e-001 2.473816e-001 3.069341e-001 2.555613e-001 3.964852e-001 3.019591e-001 2.993502e-001 4.538405e-001 2.662164e-001 2.700251e-002
<GCONST> 8.915788e+001
<MIXTURE> 3 4.200647e-001
<MEAN> 39
 -1.217879e+001 -1.451648e+001 -1.442126e+001 -1.815009e+001 -6.559221e+000 -2.932140e+000 -1.040441e+001 -4.502722e+000 1.450182e+001 -6.067897e+000 -4.964848e+000 -6.673438e+000 7.289344e+001 9.608940e-002 -3.893644e-002 -1.818504e-002 -3.891609e-001 -5.602667e-002 7.928155e-001 3.515208e-001 -1.138701e+000 -8.447646e-001 -9.171499e-002 8.840853e-001 1.809383e-001 -2.406640e-001 3.510836e-002 1.583057e-001 1.325631e-001 -1.181668e-001 -2.845618e-001 -1.578307e-001 1.096835e-001 3.137422e-001 -1.884126e-002 -5.701486e-002 1.315571e-003 1.450744e-001 3.505222e-002
<VARIANCE> 39
 8.250613e+000 8.801358e+000 2.158056e+001 1.997252e+001 1.910393e+001 2.718396e+001 2.367244e+001 5.493285e+001 5.564682e+001 4.199969e+001 3.855359e+001 2.057928e+001 8.118936e+000 4.845813e-001 5.910162e-001 7.781419e-001 1.324271e+000 1.961811e+000 1.922881e+000 1.831218e+000 2.844691e+000 1.854291e+000 2.341459e+000 2.129879e+000 1.941288e+000 2.770566e-001 7.204986e-002 1.017015e-001 1.399884e-001 1.923293e-001 3.571551e-001 2.362058e-001 3.414570e-001 2.914560e-001 3.819258e-001 4.745058e-001 4.575863e-001 3.484353e-001 3.016731e-002
<GCONST> 9.498464e+001
<MIXTURE> 4 1.770440e-001
<MEAN> 39
 -1.034040e+001 -1.019944e+001 -7.443009e+000 -2.105638e+001 -2.091383e+001 -6.783541e+000 -7.593829e+000 7.084721e+000 1.411139e+001 -6.602940e+000 -4.936505e+000 -1.661144e+000 7.212774e+001 8.969231e-001 -3.845872e-001 -6.016762e-001 -1.646234e+000 -1.317239e-001 2.394312e-001 1.179127e+000 7.802373e-001 1.161258e+000 4.643197e-001 3.889777e-002 -2.796284e-001 1.438696e-001 -5.747486e-001 -3.660143e-001 6.600598e-002 5.048163e-001 6.836492e-001 7.412912e-001 3.600809e-001 -1.243861e-001 -6.531309e-001 -5.078842e-001 -1.880352e-001 1.413423e-001 -2.307397e-001
<VARIANCE> 39
 4.354318e+000 2.107834e+001 9.320093e+000 1.724604e+001 1.358412e+001 1.380259e+001 1.941112e+001 1.983457e+001 2.575093e+001 2.730882e+001 5.453626e+001 3.442570e+001 5.029456e+000 5.917406e-001 5.110797e-001 4.431020e-001 1.562844e+000 2.420206e+000 3.895800e+000 2.250364e+000 1.513703e+000 1.910982e+000 2.181760e+000 1.576082e+000 1.192465e+000 1.074889e-001 5.581792e-002 8.149332e-002 9.211636e-002 1.465458e-001 1.366424e-001 3.490675e-001 1.790987e-001 2.558545e-001 2.710337e-001 2.463453e-001 3.726428e-001 3.003901e-001 1.331318e-002
<GCONST> 8.486724e+001
<STATE> 9
<NUMMIXES> 4
<MIXTURE> 1 1.492519e-001
<MEAN> 39
 -6.750391e+000 -1.313627e+001 -1.875488e+001 -2.529303e+001 -6.391465e+000 1.890875e+000 -7.133183e+000 -1.777311e+000 1.757157e+001 1.110614e+000 -2.906426e+000 -6.821427e+000 7.537067e+001 4.655057e-002 2.344158e-001 3.166065e-001 -6.849050e-001 -5.953976e-001 4.063698e-001 6.958299e-001 3.853224e-001 -5.093717e-001 -2.887583e-001 6.102962e-001 3.679247e-001 -3.177241e-001 -1.681809e-001 4.983048e-002 2.200247e-001 1.106280e-001 -2.773625e-001 -2.740521e-001 2.526482e-001 4.234260e-001 -1.761740e-002 -3.308055e-001 -2.762293e-001 9.131511e-002 -6.612595e-002
<VARIANCE> 39
 3.440372e+000 6.511312e+000 4.862197e+000 1.934509e+001 2.135625e+001 1.923680e+001 2.283293e+001 2.688912e+001 1.342589e+001 2.606023e+001 2.685520e+001 1.148390e+001 3.532920e+000 2.935452e-001 2.548418e-001 5.034959e-001 6.456931e-001 9.509793e-001 1.072681e+000 2.595120e+000 1.649707e+000 1.190625e+000 2.244965e+000 1.919125e+000 8.280641e-001 5.217959e-002 2.689857e-002 6.623989e-002 8.929257e-002 1.611261e-001 2.931168e-001 1.425664e-001 3.770103e-001 2.439060e-001 2.526767e-001 4.223469e-001 3.041518e-001 1.433747e-001 6.243986e-003
<GCONST> 7.429111e+001
<MIXTURE> 2 2.304908e-001
<MEAN> 39
 -1.375378e+001 -1.493200e+001 -4.312138e+000 -1.934774e+001 -1.740326e+001 -1.685275e+000 -4.683681e+000 5.487935e+000 1.383381e+001 -6.750899e+000 -3.370193e+000 -4.159476e+000 6.774514e+001 7.149936e-002 3.458269e-002 -8.426715e-002 -1.012133e-001 -3.709743e-001 -1.433734e-001 2.526833e-001 2.463455e-001 4.308996e-001 -1.875941e-001 9.751438e-002 1.547939e-001 6.428958e-002 1.413175e-001 1.839402e-001 -1.009440e-001 -1.431907e-001 -1.162614e-001 -1.259718e-001 -3.219636e-002 1.199958e-001 1.361061e-001 1.719819e-001 -1.045712e-002 3.252474e-002 1.104275e-001
<VARIANCE> 39
 1.271958e+000 2.956279e+000 9.749152e+000 5.396569e+000 2.504357e+001 1.159276e+001 1.439150e+001 4.530709e+001 2.333675e+001 2.425381e+001 2.405047e+001 1.151882e+001 5.340033e+000 1.673629e-001 4.176450e-001 3.771155e-001 4.897172e-001 7.485213e-001 8.978894e-001 1.202776e+000 1.656344e+000 1.802992e+000 2.101812e+000 1.431787e+000 8.867096e-001 8.805177e-002 2.004796e-002 3.230219e-002 9.391920e-002 7.206319e-002 1.539863e-001 1.987126e-001 1.866818e-001 2.889558e-001 3.244846e-001 3.557158e-001 2.778302e-001 1.571050e-001 9.136947e-003
<GCONST> 6.910629e+001
<MIXTURE> 3 1.356449e-001
<MEAN> 39
 -8.501932e+000 -1.400532e+001 -1.008012e+001 -2.292653e+001 -1.224069e+001 -6.397846e-002 -9.459524e-001 7.955151e+000 1.088959e+001 -1.436956e+001 -1.112919e+001 -4.415330e+000 7.417342e+001 -4.020079e-001 -6.086107e-001 9.990001e-003 -2.580799e-001 7.512628e-001 1.373405e+000 8.335859e-001 -6.372963e-001 -9.257120e-001 -5.250087e-001 8.164752e-001 2.500548e-002 -5.177302e-001 -2.364231e-001 7.792892e-002 2.661307e-001 2.193522e-001 -3.573631e-001 -6.111508e-001 -5.682133e-001 -4.372444e-001 -2.203046e-001 8.671943e-002 1.738968e-001 6.460642e-002 -1.247224e-001
<VARIANCE> 39
 1.746524e+000 1.035993e+001 7.843914e+000 6.801340e+000 1.116214e+001 1.366739e+001 1.658427e+001 1.292369e+001 2.183780e+001 2.243798e+001 3.282148e+001 1.034820e+001 3.316636e+000 2.398826e-001 2.740630e-001 5.729432e-001 6.912183e-001 1.988533e+000 2.933609e+000 2.766473e+000 1.869424e+000 1.676509e+000 1.684354e+000 1.776727e+000 9.488443e-001 9.521972e-002 3.991086e-002 3.824242e-002 1.047348e-001 1.547163e-001 2.272469e-001 3.552229e-001 2.606763e-001 3.713642e-001 4.068470e-001 3.067762e-001 4.155510e-001 2.194955e-001 1.750729e-002
<GCONST> 7.715344e+001
<MIXTURE> 4 4.846124e-001
<MEAN> 39
 -9.153640e+000 -1.005036e+001 -6.758913e+000 -2.332004e+001 -1.997931e+001 -4.037220e+000 -5.400504e+000 7.664735e+000 1.461925e+001 -5.390953e+000 -1.682339e-002 -1.804746e+000 7.124785e+001 4.836575e-001 5.841469e-001 2.470449e-001 -3.355599e-001 -4.539731e-001 -4.415177e-001 -6.036256e-003 1.282083e-001 -3.057498e-001 -2.198695e-001 -2.019973e-001 3.430535e-001 1.762253e-001 -3.615781e-002 -3.193643e-002 2.259623e-002 5.052533e-002 7.957937e-002 5.975370e-002 -6.112465e-003 -9.082609e-002 -4.485994e-002 -8.386685e-003 3.317593e-002 -4.362679e-002 -9.112124e-003
<VARIANCE> 39
 4.421831e+000 1.068932e+001 1.237955e+001 1.401636e+001 2.041316e+001 2.482132e+001 2.998465e+001 4.998331e+001 3.627757e+001 2.577920e+001 2.763308e+001 1.902435e+001 4.232346e+000 2.278857e-001 3.665473e-001 4.548519e-001 8.063070e-001 7.452801e-001 9.275745e-001 1.278574e+000 1.390290e+000 1.481550e+000 1.496175e+000 1.507282e+000 1.316223e+000 8.463854e-002 4.030402e-002 5.172405e-002 7.141297e-002 1.521217e-001 1.260847e-001 1.615340e-001 1.833911e-001 2.661858e-001 2.511513e-001 2.665589e-001 2.467980e-001 2.016702e-001 1.176998e-002
<GCONST> 7.675459e+001
<STATE> 10
<NUMMIXES> 4
<MIXTURE> 1 2.280850e-001
<MEAN> 39
 -7.319702e+000 -9.678465e+000 -1.188018e+001 -2.757418e+001 -1.362857e+001 -1.447560e-001 -3.260215e-001 2.824817e+000 1.086032e+001 -6.449371e+000 -4.197786e+000 -4.095472e+000 7.346371e+001 -4.553395e-001 -4.904573e-002 8.827168e-001 6.090095e-001 -2.423421e-001 -2.451603e-001 4.274360e-002 4.485525e-001 -1.065736e-001 -1.765660e-001 -4.013469e-001 4.240902e-001 -5.123042e-001 -2.293653e-001 -1.505980e-001 1.744118e-001 3.474812e-001 1.189973e-001 -9.990755e-002 -3.328270e-001 -1.260855e-001 7.910230e-002 9.611912e-002 3.931027e-002 -1.711205e-002 -1.230117e-001
<VARIANCE> 39
 3.986546e+000 1.123577e+001 1.726004e+001 1.154618e+001 2.455214e+001 2.285320e+001 2.200222e+001 2.783262e+001 3.174351e+001 1.976911e+001 2.548649e+001 1.709918e+001 4.995141e+000 5.247725e-001 3.086126e-001 5.734075e-001 1.552871e+000 1.436968e+000 1.334687e+000 1.585751e+000 1.353414e+000 1.419541e+000 1.524211e+000 8.009028e-001 1.196927e+000 1.944909e-001 3.485009e-002 3.531336e-002 8.077211e-002 1.847138e-001 1.657337e-001 1.766566e-001 3.315690e-001 2.240331e-001 2.373612e-001 1.956615e-001 1.073931e-001 2.046775e-001 1.600599e-002
<GCONST> 7.816130e+001
<MIXTURE> 2 3.663448e-001
<MEAN> 39
 -1.234448e+001 -1.471021e+001 -8.834547e+000 -2.284607e+001 -1.410566e+001 -2.518366e+000 -5.275444e+000 2.089435e+000 8.838798e+000 -1.129390e+001 -4.304941e+000 -1.862184e+000 6.970714e+001 -9.441556e-001 -5.077419e-001 8.391785e-001 8.432884e-001 3.336420e-001 -8.425094e-002 -4.461285e-001 -2.362037e-001 -4.848011e-001 -6.248137e-001 2.344798e-001 2.276855e-001 -6.408536e-001 -1.427027e-002 5.286266e-003 3.344836e-002 1.524258e-001 1.386002e-001 1.572862e-001 5.937515e-002 6.817072e-002 1.254436e-001 1.280133e-001 7.329531e-002 5.648577e-002 2.587241e-002
<VARIANCE> 39
 3.140144e+000 1.104343e+001 9.477362e+000 1.356565e+001 1.685545e+001 1.794651e+001 1.839252e+001 2.310031e+001 3.839706e+001 5.112856e+001 3.907813e+001 1.645094e+001 4.058639e+000 2.029033e-001 3.749903e-001 4.791465e-001 7.558265e-001 1.025863e+000 8.919928e-001 1.270553e+000 1.681326e+000 1.628122e+000 2.166219e+000 1.549115e+000 1.032687e+000 6.636138e-002 3.203851e-002 5.309342e-002 8.750347e-002 9.970684e-002 9.913151e-002 1.763393e-001 1.914614e-001 2.376706e-001 2.568416e-001 3.057372e-001 2.224818e-001 1.546700e-001 7.553527e-003
<GCONST> 7.433492e+001
<MIXTURE> 3 1.736630e-001
<MEAN> 39
 -8.557973e+000 -6.364470e+000 -7.108172e+000 -2.463600e+001 -2.879902e+001 -6.951919e+000 -7.501798e+000 1.227989e+001 1.527191e+001 -2.677782e+000 -2.922259e+000 2.904671e+000 7.030296e+001 -2.766358e-001 -5.641392e-001 2.469554e-001 9.768654e-002 2.517503e-001 -2.428357e-001 -6.609100e-002 -3.262181e-001 -1.836740e-001 -3.048367e-001 6.897122e-001 1.544087e-002 -4.043801e-001 -1.943965e-001 -1.546864e-001 3.644739e-002 3.702425e-001 4.238558e-001 1.714948e-001 -9.614537e-002 -2.955316e-001 -1.301293e-001 -1.784223e-001 9.737136e-003 -1.186590e-001 -8.281438e-002
<VARIANCE> 39
 3.268602e+000 1.310478e+001 5.204780e+000 4.112317e+000 2.781450e+001 1.478467e+001 3.748838e+001 1.475244e+001 2.410286e+001 3.303792e+001 1.745322e+001 6.753535e+001 2.110996e+000 4.384305e-001 4.134330e-001 6.556171e-001 9.488840e-001 1.516310e+000 6.741908e-001 9.719026e-001 1.689696e+000 1.267881e+000 1.445511e+000 9.034642e-001 1.107359e+000 9.987769e-002 2.582247e-002 6.726260e-002 1.358180e-001 8.903109e-002 2.538576e-001 1.405046e-001 2.500453e-001 2.538585e-001 2.531925e-001 2.777238e-001 1.187980e-001 2.297637e-001 5.470290e-003
<GCONST> 7.364445e+001
<MIXTURE> 4 2.319072e-001
<MEAN> 39
 -8.184771e+000 -9.817662e+000 -2.625957e+000 -2.143707e+001 -1.877574e+001 -8.053821e+000 -8.125751e+000 2.456526e+000 1.243731e+001 -6.927611e+000 1.105956e+000 2.551275e-001 7.166929e+001 -3.991144e-001 -3.064996e-001 4.034746e-001 5.320314e-001 5.227991e-001 2.620167e-001 -2.034416e-001 -3.018663e-001 5.564105e-002 -3.627240e-001 -1.235443e-001 -2.067876e-001 -2.520760e-001 -2.020749e-001 -1.610089e-001 -5.622393e-002 1.731507e-001 2.569765e-001 2.257862e-001 4.242051e-002 -1.342430e-002 -7.267779e-002 -1.425996e-001 -5.807389e-002 -1.178442e-002 -8.948466e-002
<VARIANCE> 39
 7.031391e+000 1.311491e+001 1.685074e+001 1.307908e+001 9.454025e+000 2.470930e+001 1.921606e+001 2.495245e+001 2.028816e+001 2.789167e+001 2.029741e+001 1.416886e+001 4.772720e+000 1.505443e-001 2.854902e-001 4.254377e-001 7.691498e-001 7.467154e-001 9.485513e-001 1.224887e+000 1.633064e+000 1.163550e+000 9.705966e-001 1.058242e+000 9.853264e-001 4.859717e-002 2.755969e-002 4.477264e-002 8.436698e-002 1.060181e-001 8.034088e-002 1.700646e-001 1.814712e-001 2.160966e-001 2.719574e-001 1.582712e-001 2.370038e-001 1.590549e-001 8.142085e-003
<GCONST> 6.982897e+001
<STATE> 11
<NUMMIXES> 4
<MIXTURE> 1 3.255585e-001
<MEAN> 39
 -1.710105e+001 -1.625360e+001 -5.051126e+000 -1.667963e+001 -1.178895e+001 2.631445e-001 -5.587144e+000 2.718064e+000 9.491008e+000 -9.671256e+000 -2.983036e+000 -1.375978e+000 6.555973e+001 -8.241937e-001 -6.169371e-001 2.813006e-001 8.062893e-001 8.630724e-001 7.106549e-001 -2.105309e-001 -5.532418e-001 -6.455002e-001 -4.552827e-001 -1.744534e-001 2.134399e-001 -4.889783e-001 1.923538e-001 1.831292e-001 -2.145204e-002 -4.932079e-002 -7.467016e-002 -4.251961e-002 2.225382e-002 5.869184e-002 1.046045e-001 7.662978e-002 -2.387395e-002 2.242288e-002 1.171657e-001
<VARIANCE> 39
 2.921505e+000 6.408948e+000 4.395880e+000 9.538469e+000 1.675475e+001 1.702659e+001 1.779543e+001 1.779008e+001 2.060230e+001 2.039566e+001 1.953905e+001 1.396608e+001 4.972120e+000 1.750837e-001 4.136330e-001 5.086329e-001 1.016609e+000 7.456051e-001 8.399261e-001 9.342445e-001 1.340162e+000 1.547892e+000 1.615641e+000 1.448358e+000 9.417367e-001 6.686670e-002 2.196591e-002 4.736270e-002 7.180449e-002 1.265998e-001 1.482546e-001 1.243466e-001 2.130793e-001 2.350045e-001 2.385788e-001 2.950599e-001 2.847864e-001 2.383106e-001 6.586680e-003
<GCONST> 6.907860e+001
<MIXTURE> 2 1.266055e-001
<MEAN> 39
 -1.566624e+001 -1.431560e+001 -1.892181e+000 -1.337909e+001 -8.657308e+000 4.238703e+000 -2.847823e+000 4.743470e+000 9.472231e+000 -1.306792e+001 -3.586979e+000 -2.526093e+000 6.709284e+001 -1.199216e+000 -1.033514e+000 -5.463564e-001 1.692470e-001 3.984841e-001 5.027466e-001 5.641568e-001 -3.445415e-001 -5.606433e-001 -4.192253e-001 -5.970196e-001 -5.214643e-001 -6.286795e-001 2.488747e-001 1.963263e-001 -2.012329e-001 -5.633147e-001 -5.727524e-001 -5.728688e-001 -3.173178e-001 -9.802298e-002 3.159777e-002 3.653610e-001 3.693416e-001 1.975506e-001 1.457284e-001
<VARIANCE> 39
 6.321584e+000 1.119265e+001 4.868703e+000 9.194606e+000 1.183399e+001 2.322620e+001 2.439231e+001 2.316270e+001 2.445936e+001 2.143454e+001 2.020774e+001 1.608204e+001 5.631092e+000 4.199459e-001 4.438580e-001 6.951953e-001 1.370383e+000 1.716908e+000 2.503207e+000 1.582953e+000 1.080196e+000 1.149172e+000 1.771702e+000 2.612706e+000 1.745817e+000 1.565821e-001 5.227691e-002 8.421157e-002 1.576521e-001 2.472253e-001 1.239308e-001 2.533507e-001 2.829136e-001 2.534207e-001 2.734987e-001 3.436497e-001 3.841232e-001 2.938272e-001 1.632560e-002
<GCONST> 8.267769e+001
<MIXTURE> 3 1.144972e-001
<MEAN> 39
 -1.055173e+001 -9.666091e+000 -1.797666e+000 -1.765280e+001 -1.790630e+001 -4.854820e+000 -7.840061e+000 5.495170e+000 1.400919e+001 -6.811796e+000 1.823509e+000 4.753256e-001 6.877288e+001 -1.545381e+000 -1.316198e+000 2.224134e-001 1.646428e+000 2.443692e+000 1.756110e+000 7.680969e-001 -4.443920e-001 -7.018783e-001 -8.963013e-001 -4.104426e-002 -2.157086e-001 -8.214200e-001 -1.666997e-001 -2.506264e-001 -3.336869e-001 -2.762470e-001 3.049696e-002 2.802789e-001 2.342824e-001 1.641154e-002 -3.009279e-001 -3.317529e-001 -5.913212e-001 -2.997775e-001 -5.686405e-002
<VARIANCE> 39
 4.746116e+000 4.933218e+000 1.453767e+001 1.435121e+001 4.067278e+001 2.275866e+001 2.078718e+001 2.775282e+001 2.247470e+001 3.455190e+001 2.137227e+001 2.473718e+001 5.195363e+000 2.815768e-001 3.517033e-001 7.764097e-001 1.266276e+000 7.182141e-001 8.519715e-001 9.281005e-001 1.362110e+000 1.455629e+000 1.618016e+000 2.200325e+000 1.802519e+000 7.885110e-002 4.495567e-002 5.537307e-002 5.951139e-002 8.893795e-002 1.728739e-001 1.798216e-001 1.788513e-001 2.333409e-001 2.246947e-001 2.129160e-001 2.753497e-001 2.108927e-001 9.672302e-003
<GCONST> 7.663141e+001
<MIXTURE> 4 4.333389e-001
<MEAN> 39
 -1.669856e+001 -1.764866e+001 -3.728816e+000 -1.734985e+001 -9.985963e+000 -1.153678e+000 -5.701285e+000 7.605088e-001 8.892714e+000 -1.282110e+001 -1.179066e+000 -1.660792e+000 6.857434e+001 -2.750932e-001 -4.759539e-002 1.155790e-001 3.527101e-001 3.040818e-001 2.785505e-001 1.484990e-001 -4.414617e-002 -1.239496e-002 8.549612e-002 -9.211335e-002 -8.424851e-002 -1.623970e-001 4.729171e-002 -6.311675e-003 -2.815440e-002 -1.928803e-003 1.030745e-002 -1.627776e-002 3.553835e-002 1.212119e-002 -8.038078e-003 -2.173395e-002 -3.770684e-002 -9.223679e-002 2.181350e-002
<VARIANCE> 39
 4.475969e+000 5.342562e+000 5.117857e+000 9.468278e+000 1.538186e+001 1.392766e+001 1.489574e+001 2.545557e+001 2.930409e+001 2.011534e+001 2.681737e+001 2.102896e+001 1.819319e+000 1.194762e-001 2.374533e-001 3.299767e-001 5.242658e-001 7.461555e-001 1.136607e+000 1.076125e+000 1.361693e+000 1.403886e+000 1.184086e+000 1.092781e+000 1.251677e+000 4.353012e-002 2.501344e-002 4.390315e-002 5.451965e-002 9.222988e-002 1.180828e-001 1.580797e-001 1.564952e-001 2.253786e-001 2.529604e-001 2.045628e-001 2.283828e-001 2.195007e-001 7.513556e-003
<GCONST> 6.565945e+001
<TRANSP> 12
 0.000000e+000 1.000000e+000 0.000000e+000 0.000000e+000 0.000000e+000 0.000000e+000 0.000000e+000 0.000000e+000 0.000000e+000 0.000000e+000 0.000000e+000 0.000000e+000
 0.000000e+000 8.915824e-001 1.084176e-001 0.000000e+000 0.000000e+000 0.000000e+000 0.000000e+000 0.000000e+000 0.000000e+000 0.000000e+000 0.000000e+000 0.000000e+000
 0.000000e+000 0.000000e+000 7.893260e-001 2.106741e-001 0.000000e+000 0.000000e+000 0.000000e+000 0.000000e+000 0.000000e+000 0.000000e+000 0.000000e+000 0.000000e+000
 0.000000e+000 0.000000e+000 0.000000e+000 8.877542e-001 1.122458e-001 0.000000e+000 0.000000e+000 0.000000e+000 0.000000e+000 0.000000e+000 0.000000e+000 0.000000e+000
 0.000000e+000 0.000000e+000 0.000000e+000 0.000000e+000 8.123688e-001 1.876312e-001 0.000000e+000 0.000000e+000 0.000000e+000 0.000000e+000 0.000000e+000 0.000000e+000
 0.000000e+000 0.000000e+000 0.000000e+000 0.000000e+000 0.000000e+000 8.899179e-001 1.100822e-001 0.000000e+000 0.000000e+000 0.000000e+000 0.000000e+000 0.000000e+000
 0.000000e+000 0.000000e+000 0.000000e+000 0.000000e+000 0.000000e+000 0.000000e+000 7.895698e-001 2.104302e-001 0.000000e+000 0.000000e+000 0.000000e+000 0.000000e+000
 0.000000e+000 0.000000e+000 0.000000e+000 0.000000e+000 0.000000e+000 0.000000e+000 0.000000e+000 7.997411e-001 2.002589e-001 0.000000e+000 0.000000e+000 0.000000e+000
 0.000000e+000 0.000000e+000 0.000000e+000 0.000000e+000 0.000000e+000 0.000000e+000 0.000000e+000 0.000000e+000 8.441569e-001 1.558431e-001 0.000000e+000 0.000000e+000
 0.000000e+000 0.000000e+000 0.000000e+000 0.000000e+000 0.000000e+000 0.000000e+000 0.000000e+000 0.000000e+000 0.000000e+000 8.539645e-001 1.460355e-001 0.000000e+000
 0.000000e+000 0.000000e+000 0.000000e+000 0.000000e+000 0.000000e+000 0.000000e+000 0.000000e+000 0.000000e+000 0.000000e+000 0.000000e+000 8.672015e-001 1.327985e-001
 0.000000e+000 0.000000e+000 0.000000e+000 0.000000e+000 0.000000e+000 0.000000e+000 0.000000e+000 0.000000e+000 0.000000e+000 0.000000e+000 0.000000e+000 0.000000e+000
<ENDHMM>
