~o
<STREAMINFO> 1 39
<VECSIZE> 39<NULLD><MFCC_D_A_0><DIAGC>
~h "qi"
<BEGINHMM>
<NUMSTATES> 6
<STATE> 2
<NUMMIXES> 4
<MIXTURE> 1 3.445708e-001
<MEAN> 39
 -3.270559e+001 5.330914e+000 -7.088541e+000 -6.141929e+000 -2.985162e+000 -2.726036e+000 -1.137639e-002 1.549885e+000 1.178071e+000 4.010741e-001 -5.626005e+000 3.558858e+000 7.480309e+001 -1.564521e-001 2.420480e-001 4.690829e-001 -2.129665e-001 -1.285616e-001 -2.608302e-001 -1.186088e-004 -2.054673e-001 -2.841596e-001 1.956562e-001 1.072038e-001 -1.954662e-001 3.860091e-001 2.112930e-001 -3.293346e-001 2.358494e-002 -4.209371e-002 -2.529926e-001 1.177254e-003 -1.857691e-001 -8.448499e-002 -3.801858e-002 -2.111387e-001 -6.960297e-002 -8.350494e-002 -1.297130e-001
<VARIANCE> 39
 7.756503e+000 3.155819e+001 3.621944e+001 3.923438e+001 2.807091e+001 3.013824e+001 1.910769e+001 2.542966e+001 2.378359e+001 1.224751e+001 2.358871e+001 1.283932e+001 4.556276e+000 5.039046e-001 1.417083e+000 7.610474e-001 8.946661e-001 1.437804e+000 9.714815e-001 1.073979e+000 1.029099e+000 1.162188e+000 1.345464e+000 1.211074e+000 9.644313e-001 3.105665e-001 6.876783e-002 1.381470e-001 1.252739e-001 1.545388e-001 2.210626e-001 1.797872e-001 1.894586e-001 2.188627e-001 1.871551e-001 2.358996e-001 2.122950e-001 2.133220e-001 2.241975e-002
<GCONST> 8.439153e+001
<MIXTURE> 2 2.342812e-001
<MEAN> 39
 -2.533936e+001 -6.314604e+000 -1.160956e+001 -5.898553e+000 -1.212273e+001 2.061332e+000 -6.141033e+000 8.926651e-001 4.990926e+000 -9.597361e+000 -8.810533e+000 1.649976e+000 7.191712e+001 5.281136e-002 2.219981e-001 1.890682e-003 -2.066007e-001 -5.497364e-002 -3.499815e-001 1.414014e-002 -5.965745e-001 -2.204274e-001 -1.489698e-001 -1.391561e-001 -4.881708e-002 1.974983e-001 1.650274e-001 -1.224131e-001 2.032020e-001 -1.243151e-001 -4.917135e-004 -4.761629e-003 -1.293672e-001 -1.381050e-001 -8.610573e-002 -6.454000e-002 6.050705e-002 -7.183430e-002 -3.179224e-002
<VARIANCE> 39
 5.325844e+000 1.175764e+001 1.092508e+001 2.140162e+001 1.766292e+001 2.621588e+001 2.248865e+001 3.471085e+001 2.763417e+001 2.545023e+001 2.099314e+001 2.299813e+001 3.925704e+000 2.758279e-001 4.583026e-001 5.004458e-001 9.745902e-001 7.943718e-001 1.209681e+000 1.052223e+000 1.558224e+000 1.261825e+000 1.899001e+000 1.287211e+000 1.139290e+000 6.131704e-002 2.603073e-002 4.284861e-002 6.142848e-002 1.304330e-001 1.380508e-001 2.317137e-001 2.486663e-001 3.383319e-001 2.409366e-001 2.944461e-001 2.317520e-001 2.067796e-001 6.114746e-003
<GCONST> 7.597890e+001
<MIXTURE> 3 2.110916e-001
<MEAN> 39
 -2.829477e+001 4.166913e-002 -1.362364e+001 1.767535e+000 -1.081896e+001 5.971032e+000 -4.105279e+000 3.144248e+000 4.325023e+000 -4.970003e+000 -7.042310e+000 4.576317e+000 7.027271e+001 -5.436537e-001 1.741997e+000 -3.779537e-001 7.314497e-001 3.354050e-001 -5.110195e-001 5.294049e-001 -3.734207e-001 5.170732e-002 5.363826e-001 -1.942424e-001 2.814098e-001 7.137235e-001 1.204316e-001 -3.300675e-001 2.115065e-001 -4.693253e-001 6.350090e-002 -2.664087e-001 -3.466792e-003 -1.193830e-001 5.922471e-002 -1.724518e-001 8.532433e-002 -1.163286e-001 -8.479139e-002
<VARIANCE> 39
 6.205607e+000 2.489679e+001 7.838445e+000 2.446416e+001 1.364134e+001 2.814575e+001 1.189158e+001 2.639278e+001 2.483413e+001 1.722223e+001 1.750150e+001 1.716829e+001 5.384477e+000 4.182372e-001 1.539739e+000 7.397415e-001 1.947818e+000 1.295709e+000 9.621834e-001 8.625559e-001 1.062324e+000 1.086573e+000 9.729779e-001 1.093486e+000 7.625993e-001 1.796246e-001 5.214096e-002 1.156841e-001 1.070149e-001 1.878638e-001 1.992176e-001 1.310859e-001 1.702186e-001 1.881035e-001 1.800019e-001 1.811118e-001 1.397207e-001 1.299713e-001 1.354824e-002
<GCONST> 7.749804e+001
<MIXTURE> 4 2.100564e-001
<MEAN> 39
 -2.486205e+001 -1.096248e+001 -7.287893e+000 -9.438062e+000 -8.738267e+000 2.053470e+000 -3.653858e+000 3.507290e+000 5.716351e+000 -8.485057e+000 -6.699842e+000 1.690631e+000 6.822652e+001 -1.125491e+000 1.914856e+000 -8.673003e-001 1.210641e+000 -5.608634e-002 9.152111e-002 6.354340e-002 3.320737e-001 -4.503742e-001 1.216721e+000 -3.964851e-001 7.455788e-001 7.578620e-001 -1.175493e-001 3.174126e-001 6.098102e-003 1.597994e-001 1.419702e-001 1.356799e-002 1.052454e-001 -5.644601e-002 -6.341275e-002 1.880664e-002 -8.664125e-003 -5.028099e-002 1.246673e-001
<VARIANCE> 39
 8.911519e+000 1.275982e+001 1.381345e+001 2.060646e+001 2.146794e+001 3.571340e+001 1.844234e+001 2.313726e+001 1.675366e+001 2.653501e+001 2.512370e+001 2.284566e+001 6.254116e+000 3.523913e-001 1.107060e+000 8.066258e-001 1.257326e+000 1.000128e+000 1.634946e+000 1.166809e+000 1.256515e+000 1.127945e+000 1.490814e+000 1.299126e+000 1.331669e+000 2.091725e-001 5.520329e-002 1.084308e-001 1.220519e-001 1.661589e-001 1.377603e-001 2.586165e-001 2.002280e-001 2.242343e-001 1.924767e-001 2.336702e-001 2.286556e-001 2.646464e-001 1.840115e-002
<GCONST> 8.313718e+001
<STATE> 3
<NUMMIXES> 4
<MIXTURE> 1 3.001239e-001
<MEAN> 39
 -2.745968e+001 -2.074694e+000 -7.726084e+000 -6.809124e+000 -9.978412e+000 -1.262250e+000 -4.085212e+000 -1.406973e+000 1.729828e+000 -5.414742e+000 -8.356516e+000 1.903207e+000 7.381246e+001 1.566590e+000 -1.289168e-001 1.247046e+000 -5.390033e-001 -1.288588e+000 -1.455701e+000 -1.983762e+000 -2.020511e+000 -1.418617e+000 -1.338479e+000 -4.853995e-001 -7.818749e-001 1.192278e-001 5.647337e-001 2.027166e-001 5.605957e-001 -1.132728e-001 -4.669375e-001 -6.113988e-001 -6.097198e-001 -5.971375e-001 -4.521939e-001 -2.998525e-001 5.262341e-003 -2.234382e-001 1.378941e-001
<VARIANCE> 39
 2.108148e+001 4.298072e+001 3.700692e+001 2.301270e+001 2.961675e+001 2.703192e+001 2.975254e+001 3.067082e+001 3.462284e+001 4.825869e+001 2.623810e+001 1.762725e+001 7.095266e+000 8.814063e-001 6.041345e-001 1.146159e+000 1.899284e+000 1.690328e+000 2.570608e+000 2.528167e+000 2.566705e+000 1.856162e+000 2.118453e+000 1.688190e+000 1.173073e+000 1.337957e-001 8.185565e-002 1.120972e-001 1.186041e-001 2.845666e-001 2.363864e-001 2.140537e-001 3.007921e-001 3.207774e-001 3.325688e-001 5.272024e-001 3.700667e-001 2.285231e-001 1.814321e-002
<GCONST> 9.615736e+001
<MIXTURE> 2 2.159266e-001
<MEAN> 39
 -1.621772e+001 -4.619376e+000 7.714589e+000 -7.615688e+000 -2.198423e+001 -1.154627e+001 -1.276859e+001 -1.053684e+001 -6.216024e+000 -1.156350e+001 -2.689970e+000 -1.311502e+000 7.837623e+001 7.214604e-001 -4.499926e-001 8.411132e-001 -2.533074e-001 -1.835626e+000 -3.654237e-002 3.986663e-002 1.321449e-001 3.288753e-001 -2.299595e-002 8.090373e-001 -5.051340e-001 4.229990e-001 -3.665326e-001 -5.847569e-002 -3.834890e-001 -1.679042e-001 3.886607e-001 3.244962e-001 3.782537e-001 4.170161e-001 3.700699e-001 1.949964e-001 -2.585498e-001 3.418677e-002 -9.043994e-002
<VARIANCE> 39
 1.409313e+001 1.940576e+001 1.697784e+001 2.873314e+001 5.747877e+001 3.229987e+001 7.881933e+001 4.401197e+001 3.738747e+001 5.267500e+001 3.380587e+001 3.282580e+001 1.753738e+001 4.912048e-001 8.024169e-001 1.156901e+000 9.399289e-001 1.811455e+000 2.100482e+000 2.158615e+000 2.371589e+000 2.396302e+000 1.955634e+000 1.195444e+000 1.076162e+000 2.674651e-001 7.803096e-002 8.846220e-002 1.097852e-001 2.016085e-001 2.442770e-001 3.586449e-001 3.071885e-001 4.005134e-001 3.469870e-001 2.820787e-001 1.858908e-001 2.678443e-001 3.015782e-002
<GCONST> 9.707613e+001
<MIXTURE> 3 2.330413e-001
<MEAN> 39
 -1.813636e+001 -3.304884e-001 8.768377e-001 -1.947038e+001 -1.680765e+001 -1.457015e+001 -1.155123e+001 -9.431372e+000 -3.742851e+000 -7.246964e+000 -1.554714e+001 -4.279363e+000 7.530330e+001 4.091899e-001 -2.804434e-001 1.317977e+000 -1.510281e+000 6.027598e-001 -3.151789e-001 7.482641e-001 7.571177e-001 -3.068317e-001 9.933958e-001 -6.300170e-001 -2.948177e-001 3.145758e-001 -2.238719e-001 5.090659e-002 -3.045319e-001 4.392271e-001 1.882881e-001 3.631409e-001 8.758906e-002 2.441694e-001 2.482722e-001 2.725145e-002 3.265923e-001 2.778056e-001 -7.517738e-002
<VARIANCE> 39
 1.499223e+001 2.509076e+001 1.526221e+001 4.844436e+001 8.839606e+001 2.944070e+001 4.172731e+001 7.557968e+001 6.623086e+001 1.273590e+002 3.680467e+001 4.129184e+001 4.617158e+000 4.681914e-001 4.172511e-001 1.203978e+000 2.315344e+000 2.090312e+000 1.774418e+000 1.856868e+000 1.398397e+000 2.230085e+000 2.529353e+000 2.138415e+000 1.976589e+000 1.319316e-001 1.236502e-001 7.347470e-002 1.500743e-001 2.217827e-001 4.104473e-001 3.011307e-001 3.454850e-001 4.156914e-001 4.212938e-001 3.973061e-001 2.511693e-001 2.649154e-001 8.565178e-003
<GCONST> 9.944037e+001
<MIXTURE> 4 2.509083e-001
<MEAN> 39
 -2.088228e+001 1.252608e-001 -2.050359e+000 -8.336549e+000 -1.584283e+001 -9.241294e+000 -1.347777e+001 -1.006068e+001 -4.078513e+000 -1.025104e+001 -9.847814e+000 -1.159374e+000 7.455194e+001 2.409723e+000 1.626374e-002 2.564206e+000 -1.060141e+000 -2.300609e+000 -2.539530e+000 -1.942155e+000 -2.062927e+000 -1.632236e+000 -1.023415e+000 -2.379795e-001 -1.078159e+000 5.785757e-001 -2.801610e-001 -1.639529e-001 -2.039369e-002 -1.818941e-001 2.061249e-001 4.006252e-001 8.328936e-001 7.810361e-001 4.388951e-001 5.822868e-001 9.258634e-002 1.069292e-001 7.202145e-002
<VARIANCE> 39
 1.961767e+001 3.358333e+001 3.793805e+001 2.421628e+001 4.278463e+001 3.565008e+001 2.964522e+001 2.836243e+001 3.370512e+001 4.804790e+001 3.108205e+001 2.602484e+001 6.878626e+000 6.161970e-001 1.113146e+000 1.185628e+000 4.937652e+000 3.461178e+000 1.521525e+000 3.187000e+000 3.197370e+000 3.193394e+000 4.225677e+000 3.189565e+000 2.445433e+000 1.813567e-001 1.435796e-001 8.973415e-002 2.163296e-001 1.968748e-001 5.997522e-001 4.026456e-001 4.872675e-001 3.589571e-001 3.797562e-001 3.756202e-001 3.967171e-001 2.858894e-001 2.163615e-002
<GCONST> 1.047611e+002
<STATE> 4
<NUMMIXES> 4
<MIXTURE> 1 2.206494e-001
<MEAN> 39
 -1.926298e+001 -3.306834e+000 5.057000e+000 -5.833076e+000 -2.999645e+001 -1.079010e+001 -1.594156e-001 -1.093159e+001 -2.012343e-001 -7.050254e+000 -3.202797e+000 -3.932269e+000 7.748241e+001 1.447992e-001 -1.563227e-001 -9.647018e-002 -1.327675e-001 -1.069648e-001 3.865901e-002 -6.615179e-002 2.691905e-002 1.840945e-001 1.201902e-001 7.793865e-002 1.794812e-002 -2.027600e-001 2.090120e-002 -1.037576e-002 -4.026098e-002 -2.607591e-003 1.351006e-001 4.282346e-002 -1.402458e-001 1.468713e-002 -5.318650e-002 -2.564755e-002 -2.396323e-003 9.850278e-003 -6.641755e-002
<VARIANCE> 39
 6.652306e+000 1.863843e+001 8.432205e+000 2.728168e+001 1.931321e+001 3.219279e+001 1.619413e+001 2.091421e+001 2.856239e+001 5.307718e+001 2.888569e+001 2.206832e+001 2.206092e+001 1.873845e-001 2.513620e-001 3.394392e-001 4.859492e-001 6.834864e-001 9.294513e-001 1.328956e+000 9.240232e-001 9.536768e-001 8.363101e-001 8.084459e-001 1.111589e+000 1.643582e-001 2.141568e-002 4.552091e-002 5.799546e-002 8.694211e-002 1.405374e-001 1.327577e-001 1.803549e-001 1.551930e-001 1.433253e-001 1.602950e-001 1.402533e-001 1.743299e-001 9.643595e-003
<GCONST> 7.191730e+001
<MIXTURE> 2 4.645115e-001
<MEAN> 39
 -1.205035e+001 -5.555332e+000 4.859210e+000 -1.663422e+001 -1.538552e+001 -1.220078e+001 -1.312811e+001 -9.725746e+000 -1.689982e+000 -1.536361e+001 -1.090727e+001 -4.662070e+000 7.354814e+001 1.451271e-001 -2.571714e-001 -2.822518e-002 -6.958686e-002 -8.386683e-002 6.832770e-002 3.009465e-002 1.406250e-001 1.324318e-001 -2.594320e-002 1.597464e-001 -3.198357e-002 -1.243148e-001 -4.790140e-002 -1.375988e-002 -6.977648e-002 2.841550e-002 5.877285e-002 4.626092e-002 -8.107276e-003 -9.939251e-004 -3.110662e-002 -3.152449e-002 9.178285e-004 2.736739e-002 -1.812125e-002
<VARIANCE> 39
 6.184532e+000 2.171944e+001 1.871523e+001 6.612132e+001 3.532549e+001 4.609269e+001 3.202995e+001 3.131009e+001 4.407848e+001 3.428578e+001 5.814532e+001 2.318811e+001 4.481297e+000 1.271929e-001 2.233632e-001 4.622489e-001 5.540998e-001 8.232396e-001 8.412629e-001 9.064065e-001 1.079513e+000 1.205839e+000 1.060791e+000 9.620258e-001 7.687184e-001 3.336139e-002 1.364126e-002 3.814254e-002 6.352227e-002 9.822745e-002 1.259168e-001 1.370982e-001 1.574860e-001 1.985271e-001 2.144296e-001 2.192346e-001 1.733017e-001 1.381367e-001 3.931615e-003
<GCONST> 7.277259e+001
<MIXTURE> 3 1.190568e-001
<MEAN> 39
 -1.184792e+001 -4.972051e+000 1.181622e+001 -1.408596e+001 -3.229430e+001 -8.643097e+000 -1.921301e+001 2.362066e-001 -1.088695e+001 4.682163e+000 -2.498897e+000 -7.138610e+000 7.947488e+001 1.945751e-001 -1.722061e-001 -8.069593e-002 -1.947834e-001 -2.408256e-001 -1.271482e-001 1.024373e-001 3.743249e-001 1.463438e-001 1.825069e-001 4.937967e-003 -1.672435e-001 -2.697531e-002 7.971606e-003 3.956037e-002 -1.320869e-001 6.345276e-002 1.198545e-001 -1.179020e-001 5.373926e-002 -8.445842e-002 1.068257e-001 -9.642354e-002 -2.812750e-002 5.618823e-002 -7.205489e-002
<VARIANCE> 39
 1.606511e+001 1.125519e+001 1.842613e+001 1.455726e+001 1.502865e+001 2.910852e+001 6.030158e+001 2.977335e+001 5.538860e+001 2.507424e+001 2.027978e+001 2.098551e+001 3.724404e+000 9.431015e-002 2.008704e-001 5.431246e-001 5.018719e-001 5.005962e-001 1.237274e+000 9.729001e-001 9.303867e-001 8.423331e-001 6.978998e-001 7.812461e-001 5.860983e-001 1.178967e-001 1.455261e-002 2.066889e-002 5.044939e-002 7.894202e-002 1.027965e-001 1.300159e-001 1.262204e-001 9.854209e-002 1.291392e-001 1.398190e-001 1.666965e-001 9.104613e-002 6.721890e-003
<GCONST> 6.580833e+001
<MIXTURE> 4 1.957823e-001
<MEAN> 39
 -1.949788e+001 -2.749282e+000 4.798977e+000 -2.725524e+001 -1.442036e+001 -1.307123e+001 -7.310283e+000 -4.899656e+000 -5.981060e+000 6.148527e-001 -1.864018e+001 2.069312e+000 7.819683e+001 1.825021e-001 -2.733831e-001 -1.133179e-001 7.678240e-003 -5.060944e-002 -5.779272e-002 8.909381e-002 3.147976e-002 1.755773e-001 -2.013468e-002 1.667473e-001 -4.188938e-002 -1.155720e-001 2.345663e-002 -3.699527e-002 -8.077691e-002 8.316600e-002 -1.044496e-001 3.708622e-002 -3.382124e-002 -5.591445e-002 2.290552e-002 -5.133266e-002 2.066441e-002 -6.383421e-002 -3.938501e-002
<VARIANCE> 39
 6.279993e+000 1.195592e+001 9.848563e+000 1.882333e+001 4.822190e+001 2.459557e+001 1.945301e+001 2.359651e+001 3.489888e+001 4.411443e+001 3.132665e+001 5.508494e+001 1.227130e+001 1.633766e-001 2.809515e-001 6.494108e-001 9.473288e-001 1.199356e+000 1.154261e+000 9.068601e-001 7.248480e-001 9.056131e-001 1.085597e+000 8.030291e-001 8.582702e-001 8.510979e-002 2.697434e-002 4.481179e-002 1.179093e-001 1.415271e-001 1.810507e-001 2.415589e-001 1.841972e-001 1.046084e-001 1.688167e-001 2.323615e-001 1.184389e-001 1.205886e-001 1.052551e-002
<GCONST> 7.527991e+001
<STATE> 5
<NUMMIXES> 4
<MIXTURE> 1 2.480952e-001
<MEAN> 39
 -1.336305e+001 -7.936772e+000 7.618077e-001 -1.497557e+001 -1.940723e+001 -9.743132e+000 -1.149545e+001 -7.180402e+000 -1.287986e-001 -1.025020e+001 -5.166329e+000 -2.514039e+000 7.155204e+001 -3.666570e-001 -8.202733e-001 -3.619316e-001 5.136130e-001 1.706585e+000 1.107337e+000 -6.050220e-001 -2.486714e-001 -1.659228e-001 -1.370033e+000 -3.109847e-002 3.709767e-002 -8.737425e-001 -2.282310e-001 -2.425562e-001 5.675233e-002 1.206325e-001 2.278706e-001 2.915552e-001 3.795507e-001 1.658331e-001 2.883624e-002 -3.513016e-003 -1.247196e-001 -1.422767e-001 -3.470764e-002
<VARIANCE> 39
 1.088244e+001 1.906615e+001 1.188865e+001 3.529306e+001 3.458659e+001 2.415733e+001 3.743195e+001 3.399405e+001 3.565814e+001 4.063272e+001 4.361243e+001 3.632922e+001 9.580900e+000 4.629893e-001 3.384809e-001 5.128927e-001 1.004998e+000 2.348573e+000 1.523387e+000 2.475038e+000 1.785321e+000 1.200149e+000 1.627342e+000 1.718822e+000 1.985438e+000 1.624574e-001 4.264612e-002 6.916505e-002 9.718529e-002 9.612721e-002 2.065474e-001 2.020410e-001 3.940265e-001 3.389307e-001 2.079645e-001 2.728074e-001 1.726229e-001 3.435626e-001 1.013411e-002
<GCONST> 8.818334e+001
<MIXTURE> 2 3.568190e-001
<MEAN> 39
 -1.785376e+001 -1.624012e+001 -2.432427e+000 -1.385941e+001 -9.775323e+000 -1.021055e+000 -5.974128e+000 -7.826886e-002 5.698939e+000 -1.304546e+001 -4.126163e+000 -2.853409e+000 6.796700e+001 -5.055652e-001 -6.593778e-001 -4.126943e-001 -3.595680e-002 6.190790e-001 7.308492e-001 5.046694e-001 7.311825e-001 9.050159e-001 1.556333e-001 2.612481e-001 1.892064e-001 -4.143414e-001 1.424963e-001 1.934106e-001 1.441902e-001 1.195985e-003 -1.716233e-001 -2.243697e-001 -2.198239e-001 -1.979430e-001 -1.491140e-001 -3.285981e-002 -8.936252e-002 -2.568295e-002 9.061244e-002
<VARIANCE> 39
 4.345747e+000 8.130552e+000 8.872727e+000 1.727623e+001 2.080005e+001 1.501422e+001 1.821078e+001 3.249180e+001 2.633874e+001 2.259433e+001 1.454862e+001 2.153738e+001 7.562761e+000 2.185683e-001 5.504403e-001 5.992504e-001 8.038663e-001 9.812945e-001 1.163879e+000 1.446924e+000 2.327121e+000 1.641154e+000 1.717644e+000 1.097095e+000 1.261626e+000 1.154791e-001 3.115555e-002 6.621722e-002 9.631318e-002 1.160428e-001 1.698833e-001 1.754131e-001 2.206865e-001 2.629996e-001 2.582905e-001 2.876268e-001 1.783767e-001 1.742825e-001 1.139147e-002
<GCONST> 7.667921e+001
<MIXTURE> 3 2.030835e-001
<MEAN> 39
 -1.495815e+001 -1.098545e+001 1.895573e+000 -1.188249e+001 -1.178295e+001 -4.534079e+000 -1.187010e+001 -8.643915e+000 -2.497773e+000 -1.736126e+001 -8.439755e+000 -5.320694e+000 6.931867e+001 -9.700102e-001 -1.490597e+000 -8.089581e-001 1.427492e-001 1.425009e+000 1.576865e+000 1.423021e+000 1.412721e+000 9.526517e-001 4.913501e-002 4.431721e-001 1.891769e-001 -7.391726e-001 -4.062440e-002 -5.677950e-002 -1.889753e-001 -2.550146e-001 -2.431039e-001 -7.123931e-002 2.999475e-001 5.564401e-001 5.103656e-001 5.441107e-001 2.880214e-001 1.536153e-001 6.331164e-002
<VARIANCE> 39
 6.360446e+000 1.018664e+001 9.687242e+000 2.584064e+001 1.626128e+001 2.381917e+001 2.712915e+001 3.521432e+001 2.500168e+001 4.482440e+001 2.239106e+001 3.709392e+001 7.817137e+000 3.014327e-001 5.558246e-001 6.833690e-001 8.849633e-001 1.337445e+000 1.345478e+000 1.741511e+000 2.418519e+000 2.007149e+000 2.486605e+000 1.856893e+000 1.563821e+000 1.744963e-001 3.291317e-002 6.016946e-002 7.321608e-002 8.807236e-002 2.105579e-001 2.042469e-001 3.065410e-001 3.434879e-001 2.305145e-001 3.280141e-001 2.011647e-001 2.165360e-001 1.330101e-002
<GCONST> 8.395490e+001
<MIXTURE> 4 1.920023e-001
<MEAN> 39
 -1.175979e+001 -9.153357e+000 1.741419e+000 -1.854042e+001 -2.757696e+001 -1.189389e+001 -9.374352e+000 6.058573e+000 1.738679e+000 2.280437e+000 -5.685463e+000 -5.112321e+000 7.618819e+001 1.052033e-001 -2.518916e-001 -1.035262e+000 8.400954e-002 8.622952e-001 4.249833e-001 4.467990e-001 2.350564e-001 8.466277e-001 -8.939360e-001 1.402357e-001 1.809743e-002 -8.575138e-001 -1.573409e-001 -3.284596e-002 3.907770e-002 5.570053e-002 2.831231e-001 1.634255e-001 -1.306989e-001 -2.447379e-001 -1.177105e-001 -2.936749e-001 1.605590e-002 1.552455e-001 -1.252175e-001
<VARIANCE> 39
 5.927564e+000 2.394424e+001 2.353466e+001 3.249453e+001 2.649822e+001 3.684825e+001 7.428791e+001 7.173582e+001 8.788068e+001 7.996266e+001 7.807521e+001 2.353018e+001 1.470010e+001 6.826698e-001 6.498341e-001 9.176747e-001 8.893141e-001 1.501384e+000 2.153921e+000 1.872311e+000 3.212424e+000 2.169689e+000 3.779504e+000 2.543828e+000 1.976860e+000 3.133686e-001 6.756886e-002 1.042946e-001 1.634647e-001 1.887411e-001 2.157609e-001 4.080350e-001 2.310990e-001 4.936807e-001 3.154463e-001 3.944847e-001 3.604913e-001 3.023843e-001 3.118957e-002
<GCONST> 1.015067e+002
<TRANSP> 6
 0.000000e+000 1.000000e+000 0.000000e+000 0.000000e+000 0.000000e+000 0.000000e+000
 0.000000e+000 9.152908e-001 8.470917e-002 0.000000e+000 0.000000e+000 0.000000e+000
 0.000000e+000 0.000000e+000 8.903685e-001 1.096315e-001 0.000000e+000 0.000000e+000
 0.000000e+000 0.000000e+000 0.000000e+000 9.443904e-001 5.560967e-002 0.000000e+000
 0.000000e+000 0.000000e+000 0.000000e+000 0.000000e+000 9.137264e-001 8.627361e-002
 0.000000e+000 0.000000e+000 0.000000e+000 0.000000e+000 0.000000e+000 0.000000e+000
<ENDHMM>
