~o
<STREAMINFO> 1 39
<VECSIZE> 39<NULLD><MFCC_D_A_0><DIAGC>
~h "tiaowu"
<BEGINHMM>
<NUMSTATES> 15
<STATE> 2
<NUMMIXES> 4
<MIXTURE> 1 8.887969e-002
<MEAN> 39
 -5.291690e+000 -1.003347e+001 -5.290464e+000 -5.659856e+000 -1.927309e+001 -1.606782e+001 -1.980006e+001 2.474894e+000 1.868326e+000 -6.822191e+000 2.248137e+000 4.489752e+000 7.662997e+001 1.830957e+000 -2.708012e-002 -1.205416e+000 -8.897442e-001 -2.997268e-001 -1.183162e+000 -1.083596e+000 1.122914e-001 1.273371e+000 1.212245e+000 4.868513e-001 -2.787401e-001 1.062204e+000 -4.939397e-001 -4.578024e-001 -5.111025e-001 -7.315042e-001 7.168562e-001 1.428775e+000 9.348596e-001 -2.971238e-001 1.239359e-001 1.199539e-001 -4.173483e-001 -7.579135e-001 -3.199801e-001
<VARIANCE> 39
 8.023265e+000 3.429142e+001 9.226760e+000 2.026363e+001 5.635509e+001 2.616847e+001 1.610464e+001 1.975668e+001 1.596161e+001 3.282853e+001 1.681659e+001 1.871860e+001 9.157301e+000 9.964199e-001 1.997984e+000 1.149741e+000 1.616881e+000 4.300378e+000 7.429413e+000 5.154988e+000 1.743022e+000 1.445845e+000 2.194921e+000 2.388949e+000 5.317158e+000 3.874273e-001 5.943213e-002 3.382457e-001 1.936646e-001 1.483914e-001 5.514349e-001 4.265748e-001 4.435542e-001 3.378314e-001 4.238284e-001 6.955529e-001 3.219715e-001 6.237889e-001 3.464548e-002
<GCONST> 1.025378e+002
<MIXTURE> 2 4.204179e-001
<MEAN> 39
 -2.415603e+001 -9.439166e+000 -8.644380e+000 -1.013502e+001 -1.129652e+001 -1.439030e+000 -7.849345e+000 2.624006e+000 3.677633e+000 -5.823627e+000 -7.350195e+000 4.014110e+000 6.829320e+001 -1.126882e-002 8.845436e-002 -2.461590e-001 -5.181817e-002 -7.191064e-002 -3.114478e-001 6.544577e-002 1.246422e-002 -2.051324e-001 1.857264e-001 -5.141453e-001 -3.477512e-001 4.009588e-001 2.637690e-001 -1.925497e-001 1.956613e-001 -1.469578e-001 2.788717e-002 -2.239399e-002 4.731452e-002 -1.344757e-001 -6.140394e-002 -2.887399e-001 1.022574e-001 -1.773432e-001 -2.738649e-002
<VARIANCE> 39
 7.860331e+000 9.956409e+000 1.139811e+001 1.075772e+001 1.451724e+001 1.440654e+001 1.691627e+001 2.140759e+001 1.748698e+001 1.739013e+001 2.172448e+001 1.853931e+001 4.369720e+000 4.439135e-001 8.749744e-001 7.587410e-001 1.047134e+000 1.835875e+000 1.442606e+000 1.288476e+000 1.716336e+000 1.215372e+000 2.461864e+000 1.543390e+000 1.580710e+000 1.127160e-001 7.146747e-002 1.055266e-001 1.518209e-001 1.565873e-001 2.956770e-001 2.546160e-001 2.573294e-001 3.919337e-001 2.800153e-001 2.861245e-001 3.504098e-001 2.983579e-001 1.839076e-002
<GCONST> 8.338329e+001
<MIXTURE> 3 4.075406e-001
<MEAN> 39
 -1.857764e+001 -1.380704e+001 -6.306495e+000 -1.344373e+001 -1.192810e+001 -1.869398e+000 -6.984058e+000 2.808107e-001 3.134893e+000 -1.097017e+001 -7.802722e+000 -7.479703e-002 7.003471e+001 1.726452e+000 5.823417e-001 8.205503e-001 -3.169296e-001 -1.002327e+000 -1.496364e+000 -9.032716e-001 -1.071964e+000 -8.188776e-001 -4.228927e-001 3.811263e-001 -2.375858e-001 8.084527e-001 3.787681e-001 3.004822e-001 8.739755e-002 -1.245718e-001 -3.993545e-001 -5.574006e-001 -3.372715e-001 -1.164459e-001 -9.858940e-002 3.180725e-001 1.579144e-001 1.581341e-001 2.726402e-001
<VARIANCE> 39
 1.599843e+001 1.137662e+001 1.422821e+001 2.772960e+001 2.004903e+001 2.065316e+001 2.515447e+001 2.435960e+001 2.051773e+001 3.011083e+001 2.146363e+001 1.872574e+001 4.899479e+000 9.455214e-001 9.434835e-001 1.189088e+000 1.228812e+000 2.187279e+000 2.098230e+000 2.166006e+000 3.116644e+000 2.142970e+000 2.858865e+000 2.217592e+000 2.524480e+000 2.315018e-001 8.062996e-002 6.970691e-002 2.105765e-001 1.898958e-001 3.332575e-001 3.233104e-001 3.911518e-001 5.187331e-001 3.824373e-001 4.436609e-001 3.863918e-001 4.013480e-001 2.575156e-002
<GCONST> 9.556441e+001
<MIXTURE> 4 8.316181e-002
<MEAN> 39
 -9.652552e+000 -1.032501e+001 -6.346820e-002 -1.649253e+001 -2.687864e+001 -8.748615e+000 -4.545953e+000 -5.683536e+000 3.309911e+000 -3.907149e+000 -6.537255e-001 -4.352327e+000 7.416187e+001 1.415997e+000 4.045880e-001 -5.146524e-001 -9.832520e-001 -2.278309e+000 -1.175073e+000 9.032273e-001 4.615089e-001 3.710064e-001 1.670807e+000 5.681283e-001 -6.072999e-001 1.068475e+000 -3.740314e-001 -5.925763e-001 -6.435735e-001 -1.882078e-002 1.279229e+000 7.809956e-001 3.852665e-001 9.789618e-001 7.448913e-001 -3.545817e-001 -7.274261e-001 -2.600773e-001 -2.471853e-001
<VARIANCE> 39
 5.738849e+000 1.874160e+000 1.856902e+000 2.966164e+001 8.453697e+001 1.018969e+001 5.782125e+001 1.932968e+001 1.337867e+001 3.413230e+001 2.071815e+001 4.515612e+001 1.895765e+000 4.068394e-001 1.075129e+000 1.190277e+000 1.857822e+000 5.860008e+000 1.272177e+000 1.102356e+000 5.852397e+000 1.794473e+000 1.968439e+000 1.961178e+000 2.534517e+000 3.340002e-001 3.586385e-002 7.678720e-002 6.694861e-002 8.166382e-002 8.520228e-001 1.474298e-001 2.362672e-001 4.158635e-001 3.186823e-001 2.818649e-001 2.494893e-001 4.651583e-001 2.486387e-002
<GCONST> 8.729599e+001
<STATE> 3
<NUMMIXES> 4
<MIXTURE> 1 2.599658e-001
<MEAN> 39
 -6.357392e+000 -1.388994e+001 -9.285196e+000 -2.030210e+001 -1.948588e+001 -3.755480e+000 -8.028499e-001 5.287135e+000 1.269179e+001 -2.764199e+000 -7.399948e+000 -1.029402e+001 7.586288e+001 5.372773e-001 -6.493157e-001 -2.062662e+000 -1.276042e+000 2.248953e+000 2.330280e+000 1.562691e+000 8.035395e-001 1.057535e+000 -1.865925e-001 -7.092033e-001 -1.168108e+000 1.194823e-001 -2.427126e-002 2.205800e-001 1.971307e-001 -1.042394e-002 -1.410794e-001 1.473955e-001 1.118948e-002 -4.397875e-001 -7.545111e-001 -4.393010e-001 5.987220e-001 7.726327e-001 -9.096120e-002
<VARIANCE> 39
 1.876331e+000 6.845812e+000 1.222066e+001 2.960723e+001 4.479701e+001 3.395630e+001 8.273261e+001 2.525461e+001 2.301664e+001 4.270206e+001 3.710358e+001 3.462206e+001 7.943140e-001 1.361103e-001 3.729844e-001 2.941707e-001 1.412037e+000 2.016974e+000 1.523280e+000 2.919437e+000 4.554916e+000 4.263612e+000 2.199326e+000 2.876359e+000 2.686998e+000 6.182039e-002 1.195235e-002 1.155453e-001 1.269711e-001 1.668059e-001 8.044321e-001 5.729883e-001 3.485238e-001 5.613610e-001 4.219962e-001 3.949139e-001 4.094778e-001 3.973561e-001 1.008130e-002
<GCONST> 8.921191e+001
<MIXTURE> 2 1.789933e-001
<MEAN> 39
 -7.622388e+000 -1.369287e+001 -6.186619e+000 -1.948302e+001 -1.329613e+001 -6.489181e+000 -8.635250e+000 -1.531705e+000 5.031886e+000 -1.257832e+001 -5.206153e+000 -1.322131e+000 7.520929e+001 1.051697e+000 -3.109372e-001 -1.375137e+000 -8.222613e-001 7.852879e-001 1.091932e+000 1.649532e+000 1.992299e+000 1.104267e+000 -9.581378e-002 -9.216539e-001 -1.414850e+000 5.918719e-001 -3.464810e-001 -3.690033e-001 -3.372841e-001 -6.816255e-003 3.599204e-001 5.368267e-001 3.523125e-001 3.977006e-001 2.064353e-001 -1.049184e-001 -2.902554e-001 -1.447213e-001 -1.622803e-001
<VARIANCE> 39
 7.555798e+000 6.486598e+000 1.459629e+001 2.417603e+001 3.316367e+001 3.270612e+001 3.934176e+001 2.221496e+001 1.104939e+001 3.331046e+001 3.222329e+001 2.756301e+001 3.841126e+000 4.754597e-001 4.394085e-001 3.582351e-001 8.924580e-001 1.072284e+000 2.386944e+000 1.726542e+000 2.296210e+000 2.156676e+000 1.308412e+000 1.821936e+000 1.533296e+000 1.206566e-001 4.695867e-002 4.829341e-002 1.402991e-001 1.856877e-001 1.476671e-001 1.967597e-001 4.139223e-001 2.984896e-001 3.468435e-001 3.078592e-001 2.565430e-001 4.061795e-001 7.063991e-003
<GCONST> 8.398414e+001
<MIXTURE> 3 3.896652e-001
<MEAN> 39
 -1.407817e+001 -8.513689e+000 -3.062138e+000 -1.637595e+001 -1.529716e+001 -1.227966e+001 -1.388135e+001 -7.136917e+000 -2.437140e+000 -1.139144e+001 -9.566010e+000 2.711170e+000 7.279813e+001 1.888987e+000 2.836926e-001 3.655167e-001 -1.119753e+000 -9.295359e-001 -1.730695e+000 -5.926068e-001 1.138648e-002 1.150283e-001 5.993659e-001 -6.629193e-001 -4.002655e-001 1.241657e+000 -3.271256e-001 -3.864668e-001 -6.786299e-001 1.341442e-002 4.557422e-001 8.253728e-001 9.485501e-001 1.378792e+000 9.031177e-001 4.495708e-001 -2.792174e-001 -4.886123e-001 -1.645426e-002
<VARIANCE> 39
 1.087565e+001 1.028882e+001 1.710840e+001 3.030220e+001 2.968743e+001 2.765928e+001 3.427715e+001 4.415463e+001 3.511823e+001 8.365026e+001 4.392836e+001 5.123192e+001 4.066173e+000 9.066886e-001 1.078542e+000 1.613070e+000 9.637102e-001 3.146880e+000 4.298153e+000 5.844325e+000 6.508623e+000 5.091141e+000 3.862081e+000 4.469906e+000 3.292536e+000 3.268762e-001 1.089231e-001 8.471417e-002 1.776571e-001 2.202812e-001 3.301387e-001 4.874069e-001 5.387785e-001 4.616346e-001 4.148950e-001 5.310755e-001 6.103193e-001 6.682731e-001 3.296184e-002
<GCONST> 1.080305e+002
<MIXTURE> 4 1.713757e-001
<MEAN> 39
 -9.080990e+000 -1.113943e+001 -3.196928e+000 -1.881343e+001 -1.984386e+001 -1.092454e+001 -9.090865e+000 2.975476e+000 -1.530874e+000 -1.520529e+001 -1.673965e+001 -6.818686e+000 7.526028e+001 4.504280e-001 -1.163910e+000 -1.351070e+000 9.668103e-002 8.509596e-001 3.934543e-001 1.172443e+000 2.361702e+000 2.256745e-001 -1.269619e+000 4.640076e-002 3.918773e-001 3.477491e-001 -2.392256e-001 -1.621879e-001 -1.588619e-001 5.303870e-001 7.778330e-001 3.484408e-001 -6.244264e-001 -6.316006e-001 -3.311647e-001 -6.020424e-001 9.621350e-002 7.323281e-001 -1.358521e-001
<VARIANCE> 39
 1.972841e+000 6.872556e+000 8.446352e+000 1.580181e+001 1.375638e+001 1.400546e+001 6.789059e+001 2.995522e+001 3.815611e+001 5.227675e+001 6.691825e+000 1.799405e+001 2.977428e+000 2.427354e-001 3.223156e-001 3.513187e-001 1.274540e+000 1.814702e+000 2.100673e+000 3.643031e+000 2.852947e+000 1.697458e+000 2.613094e+000 6.948208e-001 2.704348e+000 8.098584e-002 8.041818e-002 6.067151e-002 1.418599e-001 1.249162e-001 1.396239e-001 3.173152e-001 3.602723e-001 5.435909e-001 2.598735e-001 4.191332e-001 1.472984e-001 2.294556e-001 1.916116e-002
<GCONST> 8.180937e+001
<STATE> 4
<NUMMIXES> 4
<MIXTURE> 1 2.764312e-001
<MEAN> 39
 -8.966729e+000 -1.630833e+001 -1.143893e+001 -1.859166e+001 -6.806087e+000 -5.352181e+000 -5.149485e+000 3.330575e+000 4.840351e-001 -1.952776e+001 -1.553236e+001 -4.852545e-001 7.661147e+001 2.529706e-001 -9.279123e-001 -1.553345e+000 6.621261e-001 2.234750e+000 1.145043e+000 -1.486575e+000 -8.894898e-001 6.286905e-001 -1.532425e-001 -1.426512e-001 1.145798e-001 1.365803e-001 7.622416e-003 2.008567e-001 1.625170e-001 -5.010697e-002 -1.039767e-001 2.734899e-002 -2.850536e-001 -4.719834e-001 3.251747e-001 7.337379e-001 1.847022e-001 -3.639672e-001 -6.588022e-002
<VARIANCE> 39
 4.608451e+000 6.082575e+000 1.921055e+001 3.022190e+001 4.257714e+001 3.148736e+001 8.742347e+001 2.441030e+001 3.464334e+001 5.854627e+001 2.908623e+001 1.897215e+001 2.825359e+000 1.690380e-001 2.570347e-001 5.677566e-001 1.495217e+000 1.635070e+000 2.334960e+000 2.104020e+000 2.664139e+000 1.636069e+000 2.010366e+000 1.133204e+000 1.911738e+000 7.052032e-002 5.461318e-002 8.002605e-002 1.394732e-001 2.959153e-001 2.863768e-001 5.060262e-001 6.298313e-001 7.591330e-001 2.486290e-001 3.206555e-001 2.492760e-001 5.082972e-001 1.815986e-002
<GCONST> 9.038972e+001
<MIXTURE> 2 4.347854e-001
<MEAN> 39
 -3.277583e+000 -1.146358e+001 -1.341510e+001 -2.334763e+001 -1.666984e+001 5.920379e-001 -4.938014e+000 5.105346e+000 8.250438e+000 -2.505798e+000 -4.952490e-001 -2.947727e+000 7.710499e+001 3.216298e-001 3.569653e-001 -2.004765e-001 -1.688585e+000 -3.941545e-001 1.467549e+000 2.198612e+000 4.310475e-001 -5.118783e-001 -1.248508e+000 4.325212e-001 1.031773e+000 -2.180116e-001 -9.524599e-002 9.982127e-002 3.284591e-001 2.260690e-001 -3.110686e-001 -3.749557e-001 -1.850737e-001 1.821709e-001 1.435881e-002 -1.217486e-001 -1.974999e-001 2.162041e-002 -6.329834e-002
<VARIANCE> 39
 5.098480e+000 1.438247e+001 1.093668e+001 2.866418e+001 4.081968e+001 2.777152e+001 5.105040e+001 3.851603e+001 3.716211e+001 7.372323e+001 3.605799e+001 3.673865e+001 7.757876e+000 1.828498e-001 3.694630e-001 4.886366e-001 1.060015e+000 1.622072e+000 1.595975e+000 1.343504e+000 2.155932e+000 1.491577e+000 2.445992e+000 2.264256e+000 1.544933e+000 1.069156e-001 2.511914e-002 7.347109e-002 1.306659e-001 1.079056e-001 4.346196e-001 2.806704e-001 2.258507e-001 3.572138e-001 2.377335e-001 3.412618e-001 2.476979e-001 3.204889e-001 8.538678e-003
<GCONST> 8.747704e+001
<MIXTURE> 3 1.419882e-001
<MEAN> 39
 -8.208515e+000 -9.063890e+000 -9.081537e+000 -1.589856e+001 -2.178926e+001 -6.691822e+000 -1.889824e+001 9.957871e+000 1.151392e+001 3.758464e+000 -5.518480e+000 -7.282746e+000 7.691019e+001 8.172945e-001 -5.530911e-001 -1.763053e+000 -1.566353e+000 1.000687e+000 1.514466e+000 1.152064e+000 1.341652e+000 1.775361e+000 7.229193e-001 1.105302e-001 -1.284252e+000 6.689896e-001 -2.287111e-001 -1.327075e-001 -5.621266e-002 -4.062073e-001 5.982780e-001 7.614729e-001 1.069025e+000 -5.643190e-001 -6.415876e-001 -6.432716e-001 1.252025e-001 5.116367e-001 -3.531532e-001
<VARIANCE> 39
 8.894239e+000 5.200943e+000 1.791058e+001 1.186545e+001 4.340715e+001 2.345132e+001 1.471665e+001 1.630523e+001 7.705542e+001 3.938329e+001 4.860770e+001 3.754897e+001 1.270170e+001 3.841639e-001 8.622056e-001 1.013653e+000 1.747258e+000 3.614392e+000 2.336321e+000 4.500691e+000 3.186586e+000 4.628393e+000 3.136225e+000 3.335399e+000 4.442549e+000 4.990168e-001 8.807423e-002 2.285255e-001 2.729282e-001 1.669010e-001 1.064753e+000 5.763061e-001 3.520369e-001 4.146187e-001 7.888601e-001 4.711264e-001 6.570210e-001 7.676764e-001 3.990274e-002
<GCONST> 1.059819e+002
<MIXTURE> 4 1.467953e-001
<MEAN> 39
 -1.374250e+001 -1.390169e+001 -1.089357e+001 -2.102819e+001 -5.387243e+000 -1.250002e+001 -2.448119e+000 1.261524e-001 -2.982143e+000 -4.768426e+000 -1.450945e+001 1.093743e+000 7.767579e+001 7.788936e-001 -1.519172e+000 -1.696662e+000 4.570971e-001 2.871998e+000 8.693030e-001 1.178833e+000 1.813662e+000 2.576598e-001 -3.935705e-001 -6.028793e-001 -1.313680e+000 8.508048e-001 -9.119994e-002 6.230046e-002 -1.180859e-001 4.510794e-001 3.094613e-001 1.210085e-001 -8.384311e-001 -3.076882e-001 1.963911e-001 -1.354665e-001 4.661474e-001 3.109948e-001 -2.352736e-001
<VARIANCE> 39
 3.092336e+000 1.970966e+001 5.105959e+001 3.983951e+001 4.219999e+001 1.674596e+001 7.603413e+001 4.596183e+001 9.330898e+001 4.354595e+001 2.410056e+001 5.793173e+001 7.684390e+000 3.546845e-001 9.628031e-001 1.494408e+000 2.037513e+000 3.337221e+000 2.620602e+000 8.028668e+000 4.373516e+000 4.481831e+000 2.701864e+000 3.073392e+000 6.414907e+000 3.087458e-001 5.455519e-002 2.212173e-001 3.903801e-001 2.537308e-001 7.592272e-001 5.348954e-001 8.298156e-001 8.603786e-001 7.973641e-001 4.980188e-001 5.452072e-001 1.198144e+000 4.628508e-002
<GCONST> 1.133917e+002
<STATE> 5
<NUMMIXES> 4
<MIXTURE> 1 1.900460e-001
<MEAN> 39
 -7.688430e+000 -1.876320e+001 -1.685280e+001 -1.818670e+001 2.575133e+000 -3.475865e+000 -5.991866e+000 -2.427923e-002 9.077884e+000 -1.255330e+001 -1.308003e+001 -3.014725e+000 7.742840e+001 5.497001e-001 -1.218531e-001 -6.968185e-001 -3.839824e-001 1.079180e+000 1.462904e+000 -3.265610e-001 -8.755950e-001 8.492409e-001 1.265984e+000 3.455123e-001 -9.901538e-001 2.627300e-002 -1.023495e-001 2.475437e-001 2.405550e-001 -3.589688e-001 -4.693573e-001 1.548477e-001 3.250193e-001 -1.809618e-001 -6.237140e-001 -2.059312e-001 1.656832e-001 -4.730427e-002 -1.144938e-001
<VARIANCE> 39
 5.333523e+000 4.098245e+000 1.638416e+001 1.846735e+001 2.650659e+001 5.207708e+001 2.071468e+001 3.240157e+001 2.271011e+001 3.187380e+001 3.319506e+001 1.965445e+001 2.276126e+000 3.202291e-001 3.270996e-001 6.711707e-001 1.432106e+000 1.072940e+000 1.551382e+000 2.030548e+000 2.456316e+000 3.251884e+000 2.447757e+000 1.396137e+000 1.405962e+000 9.818237e-002 3.735355e-002 6.044819e-002 1.167962e-001 2.088248e-001 1.256943e-001 3.947816e-001 3.281200e-001 5.009050e-001 3.073817e-001 3.779187e-001 2.959181e-001 2.616056e-001 2.108497e-002
<GCONST> 8.516325e+001
<MIXTURE> 2 4.042229e-001
<MEAN> 39
 -4.800794e+000 -1.275359e+001 -1.223926e+001 -2.906403e+001 -1.815587e+001 3.869046e+000 4.985870e+000 8.382737e+000 1.001225e+001 -1.006398e+001 -4.536183e-001 -2.811827e+000 7.510517e+001 -1.794273e-001 1.788657e-001 3.233864e-001 -3.357370e-001 -6.804040e-001 -6.906640e-001 -2.266206e-001 3.242905e-001 3.719663e-001 -3.513865e-001 2.940198e-001 4.800086e-001 -3.254794e-001 -6.321474e-002 2.530654e-002 1.560160e-001 2.998365e-001 1.035239e-001 -2.624914e-001 -3.675987e-001 -1.264767e-001 1.599234e-001 1.996628e-001 -1.552756e-003 -2.585105e-002 -2.320196e-002
<VARIANCE> 39
 4.037423e+000 7.663871e+000 5.169143e+000 1.659874e+001 2.401389e+001 2.042204e+001 2.578393e+001 2.257513e+001 2.143087e+001 2.137944e+001 3.359464e+001 2.197522e+001 2.534593e+000 1.658866e-001 2.859965e-001 5.018938e-001 6.784151e-001 6.512866e-001 1.296975e+000 1.701662e+000 1.868352e+000 1.774361e+000 1.733387e+000 1.719743e+000 1.228603e+000 4.559507e-002 3.000250e-002 5.998852e-002 1.100023e-001 8.383971e-002 1.402777e-001 2.792648e-001 3.357118e-001 4.002798e-001 3.051020e-001 3.139462e-001 2.517498e-001 2.613153e-001 8.427728e-003
<GCONST> 7.533450e+001
<MIXTURE> 3 3.089753e-001
<MEAN> 39
 -5.809696e+000 -1.589650e+001 -1.282285e+001 -2.455516e+001 -5.624410e+000 5.752122e+000 -1.049962e+000 2.129542e+000 3.263992e+000 -1.605109e+001 -9.861596e+000 -4.577869e+000 7.577559e+001 9.267668e-002 5.376829e-001 3.850007e-001 -8.322796e-001 -8.594806e-001 4.342344e-001 1.238355e+000 5.935491e-001 1.129642e-001 1.649282e-001 6.415496e-001 2.233732e-002 -1.634864e-001 -1.448200e-002 4.300770e-002 7.086441e-002 1.729417e-002 -2.062495e-001 -2.665736e-001 -1.062159e-001 9.641327e-002 1.927775e-001 4.460172e-002 -2.721558e-003 9.939252e-002 -9.226882e-003
<VARIANCE> 39
 1.053410e+000 6.547142e+000 8.947261e+000 1.531403e+001 2.369791e+001 1.601916e+001 6.220148e+001 3.449115e+001 1.585689e+001 2.477367e+001 2.952922e+001 8.915954e+000 1.669988e+000 1.182104e-001 2.467486e-001 4.573296e-001 3.909552e-001 1.343179e+000 1.262039e+000 1.454327e+000 1.487827e+000 1.849948e+000 1.191364e+000 1.407345e+000 7.638838e-001 7.099055e-002 1.828944e-002 4.761679e-002 1.289155e-001 7.065175e-002 1.135092e-001 1.907345e-001 3.639452e-001 3.322870e-001 3.148342e-001 2.965687e-001 2.401081e-001 1.572316e-001 9.688328e-003
<GCONST> 7.048434e+001
<MIXTURE> 4 9.675590e-002
<MEAN> 39
 -8.780144e+000 -1.769156e+001 -1.707006e+001 -9.947893e+000 5.500735e+000 -3.374480e+000 -2.374049e+001 -2.483124e+000 -4.695993e+000 -6.040427e+000 -1.287930e+001 -5.534050e+000 7.693061e+001 4.800012e-001 2.421517e-001 -4.975579e-001 -6.182662e-001 6.037006e-001 1.563346e+000 -4.927887e-001 -1.293109e+000 7.026061e-001 7.600038e-001 6.417039e-001 -1.054159e+000 -2.270663e-001 -9.375765e-003 9.996045e-002 1.164138e-001 -4.756665e-001 -5.338287e-001 -1.049902e-001 4.755668e-001 4.583270e-002 -2.283798e-001 -1.507054e-001 1.572736e-001 1.470898e-001 -1.931375e-002
<VARIANCE> 39
 3.099561e+000 3.850696e+000 1.643971e+001 1.344604e+001 5.518539e+001 3.132586e+001 3.411410e+001 3.141390e+001 2.440760e+001 6.088352e+001 1.116604e+001 2.246315e+001 8.912572e+000 1.122671e-001 2.679887e-001 7.119917e-001 1.217414e+000 2.748529e+000 8.045735e-001 2.438285e+000 1.664324e+000 1.285587e+000 1.936654e+000 1.599520e+000 2.075272e+000 9.065147e-002 1.896629e-002 4.305000e-002 1.287924e-001 2.281614e-001 3.653621e-001 1.553708e-001 1.576216e-001 3.908265e-001 2.648791e-001 3.285140e-001 1.474700e-001 2.663804e-001 8.386048e-003
<GCONST> 8.050881e+001
<STATE> 6
<NUMMIXES> 4
<MIXTURE> 1 2.089341e-001
<MEAN> 39
 -7.301169e+000 -1.618437e+001 -1.905126e+001 -2.260616e+001 6.320826e+000 1.241104e+000 -6.951534e+000 -3.808110e+000 9.994140e+000 -4.620673e+000 -8.172185e+000 -7.734872e+000 7.712739e+001 2.229948e-001 8.188207e-001 3.218366e-001 -1.370716e+000 -1.055012e+000 9.954012e-001 6.891997e-001 1.691598e-001 -2.365668e-001 7.529380e-001 1.837573e+000 5.678306e-001 -3.191628e-001 -5.090793e-002 1.503059e-001 1.936481e-001 -3.980722e-002 -5.524775e-001 -4.178366e-001 2.022976e-001 4.552883e-001 -6.000194e-002 -2.624051e-001 -2.345811e-002 5.013584e-001 -3.001316e-002
<VARIANCE> 39
 3.460749e+000 3.425730e+000 1.469698e+001 2.539179e+001 2.315263e+001 2.485974e+001 2.537096e+001 4.475733e+001 6.232539e+001 5.313264e+001 3.772240e+001 2.502399e+001 2.452695e+000 2.078203e-001 3.860851e-001 5.230739e-001 6.560159e-001 2.247275e+000 2.165946e+000 2.055029e+000 2.663792e+000 3.113808e+000 2.321807e+000 1.674485e+000 2.517252e+000 7.943251e-002 3.568681e-002 6.149087e-002 1.189566e-001 1.757904e-001 3.791341e-001 4.411738e-001 3.351152e-001 5.119093e-001 4.602686e-001 5.313998e-001 5.630458e-001 3.206995e-001 1.381499e-002
<GCONST> 8.894678e+001
<MIXTURE> 2 3.965371e-001
<MEAN> 39
 -4.101656e+000 -8.242007e+000 -7.738768e+000 -2.872309e+001 -2.220242e+001 -1.317705e+000 1.186971e-001 1.261683e+001 1.216583e+001 -1.085656e+001 -3.100748e+000 -3.202346e+000 7.242955e+001 -4.036805e-001 3.461860e-001 1.042842e+000 9.127076e-001 9.793763e-002 -9.781011e-001 -1.210419e+000 -6.054400e-001 4.663605e-001 2.227544e-001 -2.632127e-001 1.692208e-001 -3.253355e-001 -1.302396e-001 -8.305554e-002 -5.513047e-002 1.115163e-001 7.906470e-002 -2.268882e-002 -1.805260e-001 -2.935996e-001 -1.228778e-001 2.199641e-002 1.836599e-001 1.007561e-001 -1.960843e-002
<VARIANCE> 39
 9.066188e+000 1.528209e+001 6.172101e+000 1.171572e+001 3.645403e+001 2.278637e+001 1.933771e+001 2.275256e+001 2.324270e+001 1.482636e+001 1.828658e+001 1.760602e+001 1.530547e+000 3.598915e-001 2.915731e-001 4.209695e-001 6.970881e-001 1.137655e+000 1.122258e+000 1.684404e+000 2.230627e+000 1.837215e+000 1.511861e+000 9.408422e-001 2.316123e+000 4.528292e-002 3.238810e-002 4.655670e-002 6.339072e-002 9.552028e-002 1.914390e-001 2.572986e-001 2.425098e-001 5.509123e-001 4.698309e-001 3.177029e-001 2.605911e-001 5.401216e-001 7.464292e-003
<GCONST> 7.714613e+001
<MIXTURE> 3 3.045259e-001
<MEAN> 39
 -5.439392e+000 -9.401775e+000 -8.834620e+000 -2.592035e+001 -1.626378e+001 5.854130e-001 -8.340968e-001 2.446146e+000 6.280304e+000 -1.151108e+001 -4.256468e+000 -2.563816e-001 7.434951e+001 -3.265014e-001 5.666017e-001 1.135398e+000 4.525578e-001 -7.550715e-001 -1.563462e+000 -1.233478e+000 -5.941203e-001 6.294090e-001 5.150353e-001 7.310630e-001 2.537920e-001 -4.131678e-001 -9.159651e-002 -1.058634e-001 7.443412e-002 1.796481e-001 8.711083e-002 -2.026028e-001 -5.065460e-001 -2.498895e-001 -8.840247e-002 1.600560e-001 5.397296e-002 -7.955608e-002 -1.447820e-002
<VARIANCE> 39
 5.244598e+000 9.532481e+000 1.069544e+001 1.095335e+001 1.938904e+001 1.366878e+001 1.558626e+001 1.191304e+001 3.859688e+001 5.991029e+001 1.879513e+001 3.066321e+001 2.960664e+000 9.501601e-002 2.715480e-001 4.077194e-001 9.914296e-001 6.474599e-001 7.577187e-001 1.619447e+000 1.245392e+000 1.335880e+000 2.221775e+000 8.594245e-001 1.092882e+000 6.655369e-002 2.044944e-002 2.342554e-002 6.444028e-002 1.049104e-001 1.279081e-001 1.125912e-001 1.404592e-001 1.326373e-001 1.409319e-001 1.858445e-001 1.051642e-001 1.785287e-001 6.102880e-003
<GCONST> 6.650592e+001
<MIXTURE> 4 9.000288e-002
<MEAN> 39
 -6.456508e+000 -1.550900e+001 -1.836896e+001 -2.139290e+001 3.706003e+000 1.075754e+000 -1.719089e+001 -9.620338e+000 -2.643164e+000 -3.599705e+000 -7.874183e+000 -7.169261e+000 7.585555e+001 3.618137e-001 6.400125e-001 -2.369107e-001 -2.145515e+000 -1.702783e+000 8.396252e-001 2.555843e+000 3.808950e-001 -5.258035e-001 -8.949900e-001 6.903418e-001 2.064272e-001 -2.019096e-001 -7.970405e-002 1.167128e-001 2.926401e-001 2.313930e-001 -2.298431e-001 -1.540031e-001 2.777651e-001 5.903023e-001 5.008964e-001 1.554525e-001 -4.789979e-002 1.188289e-001 -5.636944e-002
<VARIANCE> 39
 1.455900e+000 5.689056e+000 8.208534e+000 6.029653e+001 4.067022e+001 1.127780e+001 1.355498e+002 1.925990e+001 2.192170e+001 3.204345e+001 1.120436e+001 8.278027e+000 4.114769e+000 1.465552e-001 4.402283e-001 3.935483e-001 8.160164e-001 1.204214e+000 1.528919e+000 1.751767e+000 1.578571e+000 9.117912e-001 1.450710e+000 3.184979e-001 1.115374e+000 4.295174e-002 7.340258e-003 3.291275e-002 4.004037e-002 2.314647e-001 7.672419e-002 1.800123e-001 6.186940e-001 1.765474e-001 1.476214e-001 4.113776e-001 9.667233e-002 1.448718e-001 1.175287e-002
<GCONST> 6.931913e+001
<STATE> 7
<NUMMIXES> 4
<MIXTURE> 1 1.478824e-001
<MEAN> 39
 -7.136356e+000 -1.134677e+001 -1.451854e+001 -2.626888e+001 -9.479938e+000 6.219465e-002 -5.190654e+000 2.504377e+000 1.129834e+001 1.318397e+000 3.987083e+000 1.879284e+000 7.286909e+001 1.054094e-001 6.665745e-001 1.183463e+000 -1.657301e-001 -2.371362e+000 -1.100573e+000 -3.144532e-001 8.596589e-001 -3.190494e-001 -2.602195e-001 4.259353e-001 6.314602e-001 -3.928225e-001 3.664066e-002 1.040229e-002 5.838463e-002 5.194058e-002 -3.243078e-002 -1.707911e-001 -4.862855e-002 7.153515e-002 -3.869927e-002 -3.097267e-001 -4.617495e-001 -2.808937e-001 2.982039e-002
<VARIANCE> 39
 1.600030e+000 9.324633e+000 1.086096e+001 9.558348e+000 2.667808e+001 1.734460e+001 3.550965e+001 3.600797e+001 4.149969e+001 1.376789e+001 1.548146e+001 1.951092e+001 2.409160e+000 1.131567e-001 2.393945e-001 1.587759e-001 6.518415e-001 8.343025e-001 1.436593e+000 1.050719e+000 1.338494e+000 1.886528e+000 1.715111e+000 1.897047e+000 2.701786e+000 4.628293e-002 1.486110e-002 4.364305e-002 5.094112e-002 8.986339e-002 1.801072e-001 2.266212e-001 1.963347e-001 2.116563e-001 3.895193e-001 1.043045e-001 1.923552e-001 3.034286e-001 6.794121e-003
<GCONST> 6.948913e+001
<MIXTURE> 2 1.776334e-001
<MEAN> 39
 -1.270907e+001 -1.399570e+001 -2.560170e+000 -2.036016e+001 -1.170606e+001 -4.321730e+000 -7.870518e+000 -1.116333e+000 7.080464e+000 -1.378569e+001 -1.918653e+000 -2.896132e-002 7.089258e+001 -2.084585e-001 2.118620e-001 8.540176e-001 9.215688e-001 7.221722e-001 -3.961400e-001 -6.746157e-001 -5.445957e-001 -9.971708e-001 -3.118254e-001 6.724164e-002 4.491473e-001 -5.177746e-002 2.285791e-001 1.868869e-001 -4.091086e-002 -7.444660e-002 -2.788572e-001 -1.104947e-001 1.891528e-001 2.775127e-001 1.704384e-001 2.697718e-001 3.217343e-001 2.289708e-001 7.242020e-002
<VARIANCE> 39
 1.555679e+000 1.656733e+000 3.158876e+000 9.575978e+000 1.234007e+001 7.817693e+000 6.404870e+000 1.274439e+001 1.366957e+001 2.049672e+001 1.096895e+001 1.742907e+001 4.135026e-001 3.486686e-001 2.577001e-001 5.519490e-001 7.508144e-001 8.836441e-001 7.750993e-001 1.075029e+000 3.257194e+000 7.282885e-001 1.589803e+000 1.561518e+000 9.822786e-001 6.244202e-002 1.345896e-002 1.782069e-002 9.149057e-002 1.478988e-001 7.863166e-002 1.425562e-001 2.736618e-001 4.743945e-001 1.092743e-001 1.613716e-001 1.302838e-001 1.619781e-001 3.390721e-003
<GCONST> 5.764161e+001
<MIXTURE> 3 4.693386e-001
<MEAN> 39
 -7.504525e+000 -9.996358e+000 -6.568771e+000 -2.555055e+001 -2.007845e+001 -6.480814e+000 -6.138556e+000 4.053211e+000 1.359700e+001 -7.137844e+000 5.070032e-001 9.616920e-001 7.229756e+001 -7.678121e-001 2.081115e-002 8.972976e-001 1.087394e+000 1.074642e-001 -1.409490e+000 -1.834202e+000 -1.161214e+000 -5.836343e-001 1.307575e-001 2.627688e-001 2.772906e-001 -4.484200e-001 -5.195426e-002 -3.904284e-002 -1.464223e-002 1.591417e-001 2.485621e-001 2.295535e-001 1.605184e-001 -8.986820e-002 -4.166571e-001 -3.702777e-001 -2.371361e-001 -1.630984e-001 2.905012e-003
<VARIANCE> 39
 3.615216e+000 7.519273e+000 8.880998e+000 1.683686e+001 1.954032e+001 1.900704e+001 2.509905e+001 2.965207e+001 2.294194e+001 2.402248e+001 1.542058e+001 2.338704e+001 3.444093e+000 1.566769e-001 2.213264e-001 2.851649e-001 5.377238e-001 1.146548e+000 1.158938e+000 7.361868e-001 1.529672e+000 1.612502e+000 2.007926e+000 2.018604e+000 1.633031e+000 3.590957e-002 2.054428e-002 3.393028e-002 6.492244e-002 1.191571e-001 1.337225e-001 1.624265e-001 1.674167e-001 2.769213e-001 1.691415e-001 2.525494e-001 2.174959e-001 1.909277e-001 3.219850e-003
<GCONST> 6.905642e+001
<MIXTURE> 4 2.051457e-001
<MEAN> 39
 -5.538762e+000 -1.023167e+001 -1.465199e+001 -2.938160e+001 -6.462835e+000 6.925640e-001 -3.270482e+000 5.712287e-001 4.969604e+000 -8.556141e+000 -6.050766e+000 -3.353908e+000 7.539126e+001 7.562736e-002 8.805259e-001 1.162362e+000 -2.438980e-001 -2.446465e+000 -1.187155e+000 2.606753e-001 1.839882e+000 1.189850e+000 4.155275e-001 1.005349e-001 4.912238e-001 -4.295553e-001 -1.083074e-001 -1.527362e-001 1.259865e-001 4.401181e-001 1.207171e-001 -2.956444e-001 -5.248445e-001 -2.719909e-001 1.746197e-001 3.801332e-001 1.426778e-001 -4.066131e-002 -4.756999e-002
<VARIANCE> 39
 3.717201e+000 8.525949e+000 1.244012e+001 2.226724e+001 6.903334e+001 1.797672e+001 3.746304e+001 5.921384e+001 3.590756e+001 4.379565e+001 4.569498e+001 2.149369e+001 2.981547e+000 1.536264e-001 3.228494e-001 4.868899e-001 1.571037e+000 1.851226e+000 1.006478e+000 1.479667e+000 2.573197e+000 1.718356e+000 2.337214e+000 2.710892e+000 2.145577e+000 7.006802e-002 2.348609e-002 2.808642e-002 6.291869e-002 1.137552e-001 3.004118e-001 2.272973e-001 2.168119e-001 6.050870e-001 4.261796e-001 3.068327e-001 4.079250e-001 3.560567e-001 6.911963e-003
<GCONST> 8.419156e+001
<STATE> 8
<NUMMIXES> 4
<MIXTURE> 1 4.787587e-002
<MEAN> 39
 -1.466407e+001 -1.246534e+001 5.959958e-001 -1.522773e+001 -4.784582e+000 -2.313674e+000 -6.299950e+000 2.513925e-001 6.948413e+000 -1.001700e+001 -2.280852e-001 -1.642005e+000 7.005731e+001 -2.002081e-001 -4.769458e-001 2.797417e-001 8.814579e-001 1.096255e+000 9.534190e-001 9.321856e-001 7.871812e-001 2.990552e-001 -4.278963e-001 -4.413129e-001 5.077944e-001 -3.960062e-002 7.062947e-002 -2.879930e-002 8.143709e-002 4.915670e-002 -2.051279e-001 -4.001565e-003 -1.699552e-001 -2.396041e-001 1.240656e-003 -3.757025e-001 -1.724661e-002 1.836505e-001 1.818420e-002
<VARIANCE> 39
 5.359711e-001 8.002646e-001 1.492540e+000 6.982531e+000 1.177171e+001 8.909345e+000 9.395223e+000 6.030893e+000 1.171214e+001 1.550852e+000 4.595868e+000 1.209223e+001 6.734642e-002 7.715569e-002 5.988233e-002 1.393908e-001 3.199222e-001 6.830830e-002 1.078515e+000 5.362029e-001 5.291774e-001 6.224200e-001 6.361927e-001 5.798930e-001 1.357623e+000 1.904043e-002 6.596176e-003 1.565922e-002 1.514833e-002 3.871141e-002 2.353390e-002 1.862629e-001 6.678326e-002 1.134303e-001 1.593306e-001 2.474401e-002 8.626504e-002 3.279790e-001 3.142873e-003
<GCONST> 2.680579e+001
<MIXTURE> 2 4.304974e-001
<MEAN> 39
 -1.005730e+001 -7.157282e+000 -4.857402e-001 -1.715712e+001 -1.963243e+001 -1.126268e+001 -1.467632e+001 -3.029841e+000 5.316719e+000 -1.012639e+001 -2.171696e-001 2.490416e+000 6.964254e+001 -5.239257e-001 -1.776000e-001 5.744357e-001 7.648604e-001 5.371483e-001 -2.597514e-002 -3.387217e-001 -6.990001e-001 -6.779305e-001 -3.456608e-001 -5.639633e-002 5.268203e-002 -3.048961e-001 3.881190e-002 -1.012360e-001 -1.689147e-001 -1.297990e-001 7.152534e-002 2.427702e-001 2.387775e-001 1.729984e-001 9.807027e-003 -1.705506e-002 -1.718064e-001 -1.754743e-001 2.292156e-002
<VARIANCE> 39
 5.624857e+000 6.330621e+000 6.554383e+000 1.128080e+001 1.514319e+001 2.258812e+001 1.551297e+001 2.310114e+001 1.484727e+001 1.311544e+001 2.225789e+001 2.347683e+001 5.069165e+000 2.509645e-001 3.298202e-001 4.460905e-001 9.805294e-001 1.012562e+000 1.316223e+000 1.108769e+000 1.158962e+000 1.042336e+000 1.231620e+000 1.746127e+000 1.466340e+000 3.929985e-002 3.696722e-002 4.269279e-002 6.009196e-002 1.012356e-001 1.566155e-001 1.761741e-001 2.469104e-001 2.050022e-001 1.468598e-001 2.209558e-001 2.647735e-001 2.238800e-001 7.058935e-003
<GCONST> 7.026158e+001
<MIXTURE> 3 2.069120e-001
<MEAN> 39
 -6.206848e+000 -6.346166e+000 -6.185975e+000 -2.452590e+001 -2.025074e+001 -7.968543e+000 -8.167110e+000 4.802004e+000 8.337586e+000 -5.306357e+000 -2.082371e+000 -2.331224e-001 7.137934e+001 -1.764931e-001 2.138022e-001 8.646141e-001 7.268869e-001 -1.070772e+000 -1.011554e+000 -9.437699e-001 -4.700109e-001 -3.785516e-001 -6.389444e-001 2.381068e-001 3.599523e-001 -4.094571e-001 -2.949175e-002 -8.785988e-002 -8.165899e-002 3.579609e-002 2.652537e-001 1.215925e-001 -4.541695e-002 -2.226747e-001 -1.438223e-001 -7.147156e-002 3.732564e-002 3.728498e-002 4.038835e-002
<VARIANCE> 39
 4.598976e+000 8.903909e+000 6.147204e+000 7.841728e+000 1.432557e+001 1.527467e+001 2.467034e+001 3.725780e+001 3.230536e+001 3.355385e+001 3.432587e+001 3.059558e+001 1.954499e+000 1.137374e-001 2.419984e-001 5.217612e-001 3.495462e-001 8.652599e-001 9.574431e-001 1.125789e+000 1.713077e+000 1.632696e+000 1.419904e+000 8.085245e-001 1.340634e+000 3.644938e-002 1.752347e-002 3.541083e-002 6.613633e-002 5.426596e-002 1.054884e-001 1.607379e-001 1.646839e-001 2.954853e-001 2.410976e-001 2.740302e-001 1.129390e-001 2.600183e-001 4.036624e-003
<GCONST> 6.700361e+001
<MIXTURE> 4 3.147147e-001
<MEAN> 39
 -1.092817e+001 -1.073231e+001 1.438692e+000 -1.695342e+001 -1.405062e+001 -9.682353e+000 -1.250234e+001 -5.747018e+000 4.268874e+000 -1.391261e+001 -3.969216e+000 -4.320957e+000 7.109852e+001 -1.650522e-001 -1.088174e-001 1.416280e-001 2.692218e-001 2.438871e-001 -1.708080e-004 -2.518411e-001 3.876830e-002 -8.779778e-002 -1.841742e-001 -1.114797e-001 -2.332844e-001 -1.106509e-001 2.193501e-003 -1.156464e-002 -7.597096e-002 -7.970402e-002 -1.703375e-002 6.965718e-002 4.635714e-002 7.950114e-002 8.173726e-002 8.492931e-002 1.274885e-001 8.988803e-002 1.431028e-002
<VARIANCE> 39
 2.841350e+000 2.504313e+000 3.303946e+000 1.061167e+001 1.390358e+001 1.919795e+001 1.563586e+001 1.382626e+001 1.441603e+001 1.377267e+001 1.810145e+001 1.506861e+001 6.819550e-001 1.107675e-001 2.364983e-001 2.889507e-001 4.601335e-001 9.107279e-001 1.265425e+000 1.362499e+000 7.412323e-001 1.047956e+000 1.550332e+000 1.617737e+000 1.482330e+000 3.824433e-002 1.384702e-002 3.327824e-002 5.017166e-002 7.662552e-002 1.067958e-001 1.750146e-001 2.331764e-001 1.356863e-001 1.531090e-001 1.896015e-001 2.492998e-001 2.174017e-001 4.939893e-003
<GCONST> 5.882288e+001
<STATE> 9
<NUMMIXES> 4
<MIXTURE> 1 1.341116e-001
<MEAN> 39
 -1.435711e+001 -1.416554e+001 3.622776e+000 -1.100760e+001 -2.966709e+000 7.020274e-001 -3.041776e+000 7.903016e-001 1.085920e+001 -1.456198e+001 -5.142700e+000 -9.530717e-001 7.088985e+001 -2.952129e-003 -5.634096e-002 1.282796e-001 -1.253207e-002 -4.152511e-001 -2.459550e-001 -1.905337e-001 1.560842e-001 8.392996e-002 2.182766e-001 9.581945e-002 -2.420123e-001 1.604111e-002 9.643837e-003 5.427049e-002 -3.380642e-002 -7.575353e-002 -1.070578e-001 -1.047640e-001 -5.400557e-002 4.919429e-003 -1.963316e-002 1.319003e-001 1.465923e-001 -1.800858e-002 -5.169007e-003
<VARIANCE> 39
 6.699001e-001 4.346280e-001 9.834630e-001 2.721781e+000 5.747810e+000 3.489218e+000 5.727989e+000 5.145433e+000 5.704531e+000 6.842233e+000 6.849616e+000 7.329441e+000 3.624673e-001 1.132922e-001 3.148968e-002 1.488971e-001 4.823970e-001 2.105726e-001 1.736331e-001 6.390135e-001 6.082423e-001 3.730581e-001 1.599740e+000 1.484593e+000 7.147722e-001 4.108630e-002 3.047545e-002 9.609862e-003 3.316100e-002 9.986037e-002 6.700119e-002 9.451565e-002 9.824884e-002 9.399859e-002 3.962542e-002 3.267960e-001 1.453079e-001 1.597318e-001 4.923781e-003
<GCONST> 3.118704e+001
<MIXTURE> 2 3.956988e-001
<MEAN> 39
 -1.366105e+001 -1.130941e+001 -1.174133e+000 -1.430453e+001 -1.391654e+001 -7.055311e+000 -1.314671e+001 -4.946370e+000 2.925537e+000 -1.220181e+001 -3.934711e+000 -5.685015e-001 6.824836e+001 -1.598059e-001 -3.342042e-001 -2.575318e-001 8.153687e-002 1.892480e-001 1.048264e-001 5.859985e-002 -6.315026e-002 -9.816605e-002 1.265498e-001 7.368084e-003 9.885283e-002 -9.821272e-002 1.407611e-001 1.245995e-001 -2.073161e-002 -2.041562e-001 -2.840779e-001 -3.266424e-001 -1.900356e-001 -2.574402e-002 1.671465e-001 1.494068e-001 9.289033e-002 1.379975e-001 5.459119e-002
<VARIANCE> 39
 4.071898e+000 9.156430e+000 1.347814e+001 1.859791e+001 1.110572e+001 1.234579e+001 1.570258e+001 2.635244e+001 3.176135e+001 2.425751e+001 1.223609e+001 2.240375e+001 5.407705e+000 2.377306e-001 4.214275e-001 5.370815e-001 6.805040e-001 8.972371e-001 1.269219e+000 1.685086e+000 1.699300e+000 2.356576e+000 1.435242e+000 1.248535e+000 1.070526e+000 3.808870e-002 3.363211e-002 8.873999e-002 8.731189e-002 1.197431e-001 1.180017e-001 1.045570e-001 2.772554e-001 3.147165e-001 4.665881e-001 2.930917e-001 1.903572e-001 1.587645e-001 9.888745e-003
<GCONST> 7.451598e+001
<MIXTURE> 3 1.867784e-001
<MEAN> 39
 -9.620252e+000 -1.036803e+001 -1.647415e+000 -1.856307e+001 -1.463905e+001 -1.032270e+001 -1.138695e+001 3.825878e+000 9.548955e+000 -8.715370e+000 1.937764e+000 4.189041e-001 7.174541e+001 -4.508249e-002 7.046141e-002 -6.943621e-002 4.990095e-002 -3.189245e-001 -4.574285e-001 -3.049027e-001 -3.694316e-001 3.222488e-001 3.026444e-001 4.797869e-002 1.108968e-001 -5.788400e-002 -1.306853e-001 -1.544800e-001 2.366884e-002 7.792409e-002 5.287140e-002 1.121202e-001 3.908615e-002 -2.094708e-001 -2.612515e-001 -3.346460e-001 -1.762943e-001 1.019142e-001 -2.622715e-002
<VARIANCE> 39
 2.385881e+000 2.940167e+000 2.568154e+000 1.463540e+001 1.699400e+001 5.668993e+000 7.198087e+000 2.694876e+001 2.769806e+001 9.791815e+000 1.606173e+001 9.531425e+000 1.203754e+000 4.147813e-001 4.562071e-001 4.779401e-001 6.882352e-001 9.088601e-001 1.045059e+000 1.983533e+000 9.979786e-001 2.222173e+000 1.030471e+000 2.341333e+000 1.159290e+000 8.811902e-002 2.204635e-002 4.547681e-002 2.619693e-002 1.419552e-001 1.675440e-001 6.328145e-002 2.352727e-001 1.138322e-001 3.524628e-001 1.898955e-001 3.774918e-001 1.477058e-001 9.455843e-003
<GCONST> 6.424132e+001
<MIXTURE> 4 2.834112e-001
<MEAN> 39
 -8.674848e+000 -6.492394e+000 -1.743597e+000 -2.101666e+001 -2.335181e+001 -1.328027e+001 -1.419805e+001 4.444096e-002 8.955332e+000 -4.676912e+000 1.458077e+000 7.041200e-001 7.015100e+001 -1.955359e-001 4.455315e-002 2.865923e-001 3.666630e-001 -1.380858e-001 -3.387825e-001 -3.878894e-001 -3.063955e-001 -5.217117e-002 -1.604767e-001 -2.340320e-001 -1.038404e-001 -1.191467e-001 6.295752e-003 -4.827397e-002 -3.256696e-002 -1.823348e-002 1.358300e-001 1.390468e-001 1.287220e-001 1.181326e-001 8.234116e-002 1.630591e-002 -7.908345e-002 -1.095807e-002 1.056655e-002
<VARIANCE> 39
 2.233042e+000 5.430372e+000 9.672718e+000 1.387772e+001 1.422468e+001 1.346091e+001 1.908092e+001 2.949080e+001 1.775005e+001 1.638269e+001 1.733595e+001 3.162528e+001 3.135195e+000 9.367093e-002 1.685032e-001 4.399842e-001 8.113145e-001 7.238840e-001 6.717731e-001 8.517484e-001 1.029269e+000 9.720586e-001 9.139158e-001 8.845657e-001 7.663878e-001 3.511047e-002 1.088322e-002 1.384101e-002 6.418258e-002 1.177118e-001 9.885781e-002 8.952032e-002 1.037324e-001 1.552461e-001 1.975484e-001 1.811148e-001 1.336119e-001 1.321414e-001 4.543161e-003
<GCONST> 5.859050e+001
<STATE> 10
<NUMMIXES> 4
<MIXTURE> 1 2.212983e-001
<MEAN> 39
 -1.070216e+001 -8.241673e+000 1.068749e+000 -1.648361e+001 -1.619332e+001 -5.108104e+000 -5.078612e+000 8.909923e+000 1.369436e+001 -3.225461e+000 4.359217e+000 2.458760e+000 6.718220e+001 -1.034447e-001 -1.180850e-001 5.934532e-002 8.582309e-002 6.581473e-002 -4.194647e-002 -3.948714e-001 -4.594395e-001 -1.835487e-001 -1.337984e-001 1.498993e-002 -1.181264e-001 -9.952421e-002 3.827378e-002 2.554748e-002 -2.485053e-002 -1.797993e-002 -2.371180e-002 -2.817163e-003 -2.039842e-002 -4.823228e-002 -4.903465e-002 -1.436140e-001 -1.245163e-001 -5.104705e-002 1.804793e-002
<VARIANCE> 39
 3.502084e+000 7.060802e+000 6.121529e+000 4.728510e+000 1.146815e+001 6.905724e+000 1.755731e+001 1.635031e+001 1.796410e+001 1.715279e+001 1.180045e+001 6.800761e+000 1.388387e+000 1.577423e-001 1.865550e-001 3.866188e-001 4.551647e-001 7.950565e-001 6.246917e-001 1.025957e+000 1.370166e+000 1.001123e+000 1.508537e+000 1.083705e+000 5.373846e-001 3.840083e-002 2.647271e-002 3.434490e-002 6.126956e-002 7.787804e-002 1.031872e-001 9.132779e-002 2.070756e-001 2.187490e-001 1.806672e-001 2.758570e-001 2.268072e-001 8.907448e-002 5.572731e-003
<GCONST> 5.751766e+001
<MIXTURE> 2 4.101661e-001
<MEAN> 39
 -1.309087e+001 -9.816112e+000 -2.996764e-001 -1.420706e+001 -1.527009e+001 -1.238516e+001 -2.033957e+001 -7.135524e+000 -3.259927e-001 -1.240835e+001 -1.352148e+000 3.418523e+000 6.705184e+001 4.315296e-002 -1.618897e-001 1.194227e-002 -2.791719e-001 -1.425235e-001 -2.669193e-001 -2.763771e-001 1.046429e-002 1.024737e-001 -2.882755e-001 4.735527e-002 1.011089e-001 3.329238e-003 1.184892e-002 6.560673e-003 -3.208504e-002 -5.206719e-002 -7.676537e-002 4.708764e-002 1.711787e-001 1.061267e-001 1.399793e-001 2.111941e-002 4.502339e-002 -1.228537e-001 1.453934e-002
<VARIANCE> 39
 1.570277e+000 1.057351e+001 7.618491e+000 6.972072e+000 2.077991e+001 1.684207e+001 1.242391e+001 2.512923e+001 1.487659e+001 2.621804e+001 2.297160e+001 1.188237e+001 1.203744e+000 1.164765e-001 3.389614e-001 2.843438e-001 6.686893e-001 1.240801e+000 1.129307e+000 1.332552e+000 1.461352e+000 1.737948e+000 1.511517e+000 1.030944e+000 1.364361e+000 5.923136e-002 1.509297e-002 4.836805e-002 3.610622e-002 1.016951e-001 1.553111e-001 1.794082e-001 1.984224e-001 2.498822e-001 2.776237e-001 2.356967e-001 1.912760e-001 2.287361e-001 7.092385e-003
<GCONST> 6.619569e+001
<MIXTURE> 3 1.193325e-001
<MEAN> 39
 -6.658776e+000 -4.142387e+000 -1.558905e+000 -2.090483e+001 -2.604496e+001 -1.252026e+001 -1.559919e+001 8.676771e+000 8.274339e+000 -6.073697e+000 -5.188430e+000 7.851524e-001 6.985947e+001 -3.215916e-001 -8.401196e-002 2.003177e-001 4.354119e-001 -1.240492e-001 -1.812122e-001 -6.770535e-001 -3.266789e-001 -7.124529e-002 1.467400e-001 -1.175820e-002 -6.192074e-002 -1.626817e-001 -7.949121e-002 -7.778294e-002 -6.965505e-002 -7.398289e-002 4.016783e-002 1.179709e-002 6.892168e-002 -1.187216e-001 7.032091e-002 9.478410e-002 6.863382e-002 4.284598e-003 -1.263844e-003
<VARIANCE> 39
 1.613032e+000 3.513486e+000 4.925994e+000 1.098023e+001 1.366389e+001 5.847279e+000 1.933896e+001 1.592984e+001 2.677165e+001 4.065768e+001 1.363027e+001 6.666455e+000 8.135892e-001 1.065488e-001 2.349287e-001 3.553673e-001 9.034653e-001 4.184042e-001 4.447500e-001 1.212156e+000 7.317742e-001 6.256621e-001 1.300591e+000 1.056047e+000 1.018550e+000 3.537849e-002 1.310460e-002 4.108421e-002 2.201388e-002 9.612063e-002 9.875493e-002 9.130387e-002 2.288083e-001 1.015331e-001 1.164816e-001 1.596673e-001 1.011894e-001 1.781669e-001 3.559029e-003
<GCONST> 5.291433e+001
<MIXTURE> 4 2.492030e-001
<MEAN> 39
 -1.286072e+001 -1.393878e+001 -2.141631e+000 -1.885807e+001 -1.584504e+001 -1.077996e+001 -1.253044e+001 -3.947314e+000 5.403320e+000 -1.397826e+001 -8.204064e-001 2.113348e+000 7.069616e+001 -2.385647e-001 -3.506916e-001 -2.663336e-001 -2.193113e-002 4.368101e-002 -5.181779e-002 -4.122016e-001 -6.224978e-001 -6.404730e-002 -2.914312e-001 1.397175e-001 1.402826e-001 -1.021139e-001 7.172123e-002 6.196157e-002 5.647144e-002 2.001527e-002 9.008972e-002 1.812467e-001 1.002543e-001 1.437765e-001 1.897876e-001 1.027882e-001 -1.008775e-001 -3.473102e-001 1.803604e-002
<VARIANCE> 39
 1.880682e+000 2.423502e+000 5.709567e+000 5.846332e+000 1.264718e+001 9.364636e+000 1.364694e+001 1.327268e+001 1.291262e+001 1.329571e+001 2.189208e+001 1.334463e+001 9.264504e-001 1.565275e-001 2.594543e-001 1.693603e-001 5.201511e-001 6.951107e-001 5.073843e-001 8.039244e-001 1.950440e+000 1.670868e+000 7.976260e-001 1.445579e+000 1.625553e+000 2.919555e-002 2.003613e-002 3.946665e-002 4.486734e-002 9.265514e-002 1.113411e-001 8.795096e-002 2.273587e-001 1.515788e-001 2.220701e-001 1.481188e-001 2.754155e-001 1.851807e-001 5.019946e-003
<GCONST> 5.650037e+001
<STATE> 11
<NUMMIXES> 4
<MIXTURE> 1 3.128660e-001
<MEAN> 39
 -1.223516e+001 -1.310490e+001 -1.151504e+000 -1.804792e+001 -1.312599e+001 -6.080042e+000 -1.079868e+001 -2.635262e+000 9.040880e+000 -1.213107e+001 1.664096e+000 2.959961e-001 7.066971e+001 2.333311e-001 1.235109e-001 -7.969511e-002 -3.423531e-001 -3.933804e-001 -1.271445e-001 1.775443e-001 4.111375e-001 3.663566e-001 4.286882e-001 -4.810011e-002 1.520256e-001 7.016595e-002 -3.133949e-002 -2.494733e-002 -2.086282e-002 -9.327081e-002 -8.379037e-002 -1.057896e-001 3.609916e-002 1.067256e-001 1.746270e-002 9.142637e-002 -5.298498e-002 4.411694e-002 -1.710290e-003
<VARIANCE> 39
 1.729201e+000 2.177824e+000 5.628446e+000 1.452388e+001 9.379898e+000 8.380592e+000 1.007058e+001 2.748710e+001 1.769714e+001 2.498752e+001 1.169711e+001 7.741330e+000 1.785633e-001 9.313416e-002 1.693802e-001 2.467725e-001 9.516583e-001 1.223744e+000 9.879223e-001 9.224121e-001 1.125269e+000 9.102164e-001 2.312867e+000 9.466413e-001 7.188350e-001 1.327252e-002 1.571389e-002 2.499199e-002 3.908747e-002 1.460503e-001 1.614848e-001 1.395496e-001 2.309463e-001 2.430105e-001 2.055603e-001 3.918010e-001 2.513619e-001 1.299304e-001 2.030205e-003
<GCONST> 5.511446e+001
<MIXTURE> 2 2.140560e-001
<MEAN> 39
 -9.151199e+000 -7.852221e+000 -1.828540e-001 -1.964988e+001 -1.994849e+001 -9.110073e+000 -1.042882e+001 -2.616264e-001 7.878374e+000 -1.011423e+001 -3.894829e-001 -9.802038e-001 6.966343e+001 6.153347e-001 5.263449e-001 -1.799981e-001 -7.067412e-001 -6.947542e-001 1.429337e-001 1.026535e+000 1.071250e+000 8.493661e-001 3.927400e-001 7.352079e-002 -6.836852e-002 2.723683e-001 -4.990818e-002 -1.384103e-001 -1.579321e-001 6.191086e-003 1.433171e-001 1.252077e-001 1.364157e-001 2.285716e-001 -4.084712e-002 -2.504802e-001 -2.302798e-001 -3.892246e-002 2.348732e-003
<VARIANCE> 39
 3.966327e+000 1.464273e+001 5.443197e+000 1.678107e+001 7.484201e+000 7.011390e+000 1.619159e+001 2.509026e+001 1.788615e+001 3.420936e+001 2.186601e+001 1.693616e+001 4.476541e+000 2.242974e-001 3.439242e-001 2.696557e-001 7.828770e-001 4.406514e-001 1.008592e+000 8.987927e-001 1.334404e+000 4.596443e-001 1.562111e+000 1.420021e+000 1.146053e+000 2.986337e-002 1.973658e-002 3.663648e-002 4.880998e-002 7.147149e-002 1.052108e-001 7.071664e-002 1.088035e-001 1.620276e-001 8.152171e-002 2.177516e-001 2.425026e-001 2.284200e-001 3.848138e-003
<GCONST> 6.163449e+001
<MIXTURE> 3 1.979403e-001
<MEAN> 39
 -9.758844e+000 -7.252300e+000 -1.529078e+000 -1.718085e+001 -2.273375e+001 -1.545740e+001 -2.095428e+001 -4.435787e+000 6.971591e+000 -6.787450e+000 1.815415e-001 8.272984e-001 6.846617e+001 3.182991e-001 2.434406e-001 -2.736478e-001 -3.031670e-001 -5.264589e-001 -1.814862e-001 -2.274602e-002 1.047624e+000 1.296394e+000 9.661126e-001 7.390910e-001 1.855753e-001 2.672666e-001 -8.454700e-002 -1.656428e-001 -9.319809e-002 -7.360676e-002 5.320088e-002 2.315235e-001 4.379723e-001 2.751027e-001 3.742981e-002 -1.328937e-001 -2.311956e-001 -7.242519e-002 -4.009126e-002
<VARIANCE> 39
 1.636302e+000 3.427086e+000 7.999713e+000 1.189894e+001 1.299208e+001 6.409961e+000 9.768272e+000 2.999749e+001 1.298073e+001 1.768527e+001 1.212239e+001 1.454386e+001 9.378927e-001 4.480150e-001 6.446730e-001 4.217591e-001 8.656210e-001 1.548259e+000 1.279920e+000 1.387958e+000 1.458339e+000 6.708075e-001 1.264279e+000 1.000907e+000 9.655079e-001 1.714035e-001 2.178975e-002 6.548642e-002 6.837069e-002 1.523970e-001 1.799976e-001 1.419824e-001 2.145264e-001 2.113576e-001 2.005986e-001 3.571200e-001 2.158938e-001 2.250363e-001 8.959764e-003
<GCONST> 6.752847e+001
<MIXTURE> 4 2.751378e-001
<MEAN> 39
 -1.252740e+001 -1.250131e+001 -2.507026e+000 -1.829228e+001 -1.743387e+001 -9.631527e+000 -1.379183e+001 -3.755138e+000 5.426056e+000 -1.287881e+001 -3.403210e+000 -2.241581e+000 6.836320e+001 4.151640e-001 4.981979e-001 1.729008e-001 -4.418372e-001 -5.586445e-001 -1.763285e-001 -1.277798e-001 1.686271e-001 1.848303e-001 1.773289e-001 -3.177439e-002 -3.205336e-001 2.036351e-001 1.723348e-001 2.664427e-001 8.591637e-002 2.515705e-002 -4.891492e-002 5.237182e-003 1.772153e-002 1.486954e-001 1.697817e-001 3.280620e-001 3.462809e-001 3.279969e-001 9.037999e-002
<VARIANCE> 39
 2.589892e+000 5.573039e+000 4.405409e+000 2.766922e+001 2.126637e+001 2.041902e+001 2.487500e+001 1.762018e+001 1.807724e+001 3.561509e+001 1.590183e+001 1.858543e+001 5.457173e+000 2.914738e-001 4.755616e-001 4.089679e-001 7.232735e-001 7.115249e-001 1.391149e+000 1.624905e+000 1.119973e+000 1.061340e+000 2.226000e+000 1.953258e+000 1.469022e+000 6.938951e-002 3.800572e-002 3.943866e-002 6.827021e-002 1.591558e-001 1.507528e-001 2.642839e-001 3.406681e-001 2.706627e-001 2.010839e-001 3.461751e-001 1.759854e-001 1.971055e-001 1.077468e-002
<GCONST> 7.461127e+001
<STATE> 12
<NUMMIXES> 4
<MIXTURE> 1 2.560485e-001
<MEAN> 39
 -7.230984e+000 -9.357199e+000 -5.297668e+000 -2.618490e+001 -2.014546e+001 -4.300247e+000 -2.153242e+000 8.644772e+000 8.558612e+000 -9.826166e+000 -4.846022e+000 -9.270644e-001 7.265246e+001 1.786307e-001 -1.179948e-001 -5.840521e-001 -3.792043e-001 6.305460e-001 1.069099e+000 1.213482e+000 5.853334e-001 -3.221232e-001 -7.554631e-001 -4.113300e-001 2.589208e-001 1.827394e-001 -1.883350e-001 -1.895232e-001 2.320064e-002 1.735767e-001 2.011588e-001 -1.563635e-002 -2.556826e-001 -4.254462e-001 -6.059570e-002 -2.901116e-002 2.007503e-001 5.363543e-002 -8.358092e-002
<VARIANCE> 39
 3.998451e+000 7.238121e+000 8.856772e+000 1.230137e+001 1.595075e+001 3.688523e+001 2.771503e+001 2.108097e+001 1.243494e+001 5.175593e+001 2.078571e+001 2.550401e+001 1.178370e+000 2.301136e-001 2.936372e-001 4.683730e-001 8.031847e-001 1.020306e+000 1.064492e+000 7.080341e-001 1.636844e+000 1.393508e+000 1.062695e+000 1.017529e+000 1.071165e+000 4.612917e-002 3.832268e-002 3.878130e-002 8.614373e-002 1.152693e-001 1.129471e-001 1.701555e-001 1.171349e-001 1.093492e-001 1.768402e-001 2.027020e-001 1.670795e-001 2.195084e-001 8.435095e-003
<GCONST> 6.850284e+001
<MIXTURE> 2 3.556865e-001
<MEAN> 39
 -9.318993e+000 -7.293362e+000 -2.661093e+000 -1.940960e+001 -2.467791e+001 -1.263667e+001 -1.676726e+001 3.576937e+000 1.390242e+001 -5.164409e+000 -6.301962e-001 1.890671e-001 6.894352e+001 1.568798e-002 -1.653133e-001 -7.372617e-002 -4.094918e-001 -2.375379e-001 9.241914e-002 6.547524e-001 6.335745e-001 4.063875e-001 5.801661e-002 -3.720468e-001 -2.445332e-001 -1.858643e-003 -3.659816e-002 -7.708848e-002 1.191955e-002 4.857513e-003 1.277565e-001 5.744689e-002 5.205582e-002 -7.557772e-002 -2.213104e-001 -1.782359e-001 -6.289521e-002 -4.987344e-002 -3.906687e-002
<VARIANCE> 39
 4.959574e+000 5.607017e+000 9.146330e+000 1.356546e+001 1.314739e+001 1.567500e+001 1.875038e+001 1.372504e+001 9.478014e+000 2.328799e+001 1.506816e+001 1.286122e+001 1.708076e+000 3.209287e-001 3.366109e-001 3.446534e-001 9.112490e-001 6.630534e-001 6.397612e-001 1.024756e+000 1.380572e+000 6.966265e-001 1.384527e+000 1.176801e+000 1.319592e+000 5.886340e-002 4.513177e-002 4.319406e-002 7.233391e-002 1.357434e-001 1.615186e-001 1.273524e-001 1.433008e-001 1.886163e-001 1.399073e-001 2.373057e-001 2.605372e-001 2.175949e-001 6.522274e-003
<GCONST> 6.591226e+001
<MIXTURE> 3 1.671279e-001
<MEAN> 39
 -1.528674e+001 -1.540508e+001 -1.729067e+000 -1.556112e+001 -9.896396e+000 -6.348875e+000 -9.946162e+000 -3.265350e+000 4.233845e+000 -1.734145e+001 -5.375329e+000 -1.719564e+000 6.919627e+001 -2.391622e-001 -1.372726e-001 -2.621347e-002 1.841188e-001 2.401199e-001 3.738330e-001 5.444049e-001 3.868597e-001 3.749134e-001 -7.700310e-002 -3.446639e-001 -5.972725e-002 -1.141695e-001 2.422148e-002 -7.298533e-003 1.575542e-002 -2.902616e-002 -9.747849e-003 -1.990508e-002 1.822002e-002 5.345695e-002 3.601739e-003 2.482490e-002 4.344136e-002 7.765970e-002 -2.757604e-003
<VARIANCE> 39
 2.333419e+000 3.602640e+000 4.349071e+000 8.112795e+000 9.185843e+000 2.049899e+001 1.908060e+001 1.142892e+001 2.909055e+001 2.241947e+001 1.833730e+001 2.005767e+001 8.542867e-001 1.098678e-001 1.144555e-001 2.812951e-001 6.960296e-001 6.679415e-001 1.201704e+000 1.493792e+000 5.921309e-001 1.066100e+000 1.032462e+000 1.111283e+000 1.825031e+000 2.292903e-002 1.100986e-002 2.197000e-002 4.750535e-002 1.124915e-001 1.433563e-001 2.931350e-001 2.989016e-001 1.374085e-001 2.231380e-001 1.245751e-001 2.219080e-001 3.907832e-001 3.750796e-003
<GCONST> 5.936682e+001
<MIXTURE> 4 2.211370e-001
<MEAN> 39
 -1.033517e+001 -9.949850e+000 2.758327e-001 -1.748250e+001 -1.878041e+001 -1.143868e+001 -1.576660e+001 -6.858708e+000 4.948458e+000 -1.425039e+001 2.506819e+000 3.293238e+000 7.024088e+001 -1.602361e-001 -1.847045e-001 4.963543e-002 2.210111e-001 1.999709e-001 1.850610e-001 2.315570e-001 -1.872432e-002 -6.850084e-002 3.635436e-001 2.472834e-001 1.595968e-001 -7.765695e-002 -1.119020e-001 -1.140419e-001 -8.286944e-003 9.573869e-002 2.088739e-001 1.507796e-001 7.993247e-002 5.475903e-002 -5.244205e-002 4.767264e-003 -8.393458e-002 -4.812225e-002 -5.333395e-002
<VARIANCE> 39
 4.533736e+000 9.523087e+000 2.963275e+000 6.490167e+000 1.147275e+001 1.288535e+001 1.204674e+001 1.345007e+001 2.382691e+001 2.201885e+001 9.847317e+000 1.314678e+001 3.983568e+000 9.160102e-002 2.113714e-001 2.738139e-001 3.636303e-001 6.168928e-001 5.811861e-001 8.110746e-001 7.653409e-001 8.135376e-001 7.568054e-001 7.903159e-001 1.220643e+000 3.108743e-002 1.952469e-002 3.273438e-002 3.952487e-002 7.642972e-002 7.248584e-002 1.017512e-001 1.049263e-001 1.634060e-001 1.476358e-001 1.496047e-001 1.295464e-001 1.594301e-001 4.372817e-003
<GCONST> 5.398711e+001
<STATE> 13
<NUMMIXES> 4
<MIXTURE> 1 2.072027e-001
<MEAN> 39
 -8.908895e+000 -1.224023e+001 -8.266274e+000 -2.606050e+001 -1.362451e+001 1.557187e+000 8.817176e-001 4.768696e+000 5.466423e+000 -1.192858e+001 -3.204678e+000 -5.757720e-002 7.200237e+001 -1.061841e+000 -1.025477e+000 8.280301e-002 1.436071e+000 1.729460e+000 8.777639e-001 -3.210876e-001 -1.194765e+000 -2.816418e-001 -8.445808e-001 -4.521398e-002 -4.535328e-001 -5.758366e-001 -2.309883e-001 -8.213506e-002 2.314405e-001 4.245073e-001 6.248690e-002 -2.713257e-001 -3.001873e-001 5.390313e-003 1.404805e-001 -7.661463e-002 -2.233802e-001 -7.907124e-002 -1.330062e-001
<VARIANCE> 39
 7.394173e+000 4.410646e+000 9.458065e+000 1.925339e+001 1.981084e+001 3.737520e+001 2.594645e+001 2.486990e+001 2.981686e+001 5.085842e+001 2.351959e+001 1.012564e+001 2.090754e+000 3.388498e-001 1.862068e-001 5.515510e-001 1.407798e+000 1.616407e+000 2.101154e+000 6.854421e-001 1.714537e+000 1.263282e+000 1.413768e+000 1.969662e+000 8.013279e-001 8.399434e-002 2.349175e-002 3.372942e-002 7.120059e-002 1.358883e-001 1.973422e-001 3.828445e-001 1.432872e-001 3.391070e-001 2.031170e-001 2.017297e-001 4.272809e-001 1.394919e-001 9.500671e-003
<GCONST> 7.584816e+001
<MIXTURE> 2 2.906237e-001
<MEAN> 39
 -9.524441e+000 -9.768785e+000 -2.361965e+000 -2.206833e+001 -2.290149e+001 -1.025305e+001 -9.098214e+000 7.160498e+000 1.446067e+001 -5.641792e+000 -1.306852e+000 -8.695511e-001 6.963855e+001 -4.913339e-001 -6.532711e-001 -2.540061e-003 3.853744e-001 7.090989e-001 5.276203e-001 3.246365e-001 -1.631820e-001 -6.051054e-001 -5.962500e-001 -2.398296e-001 -4.047170e-001 -2.295966e-001 -2.236660e-001 -8.872494e-002 4.793708e-002 2.924533e-001 4.594554e-001 3.684176e-001 -8.578869e-002 -5.175295e-001 -5.236555e-001 -3.293225e-001 2.759648e-002 3.374165e-002 -1.292052e-001
<VARIANCE> 39
 1.100083e+001 1.490659e+001 8.487235e+000 1.811810e+001 1.967388e+001 2.130612e+001 2.899352e+001 1.263826e+001 6.811917e+000 3.051862e+001 2.566438e+001 2.741629e+001 4.961201e+000 1.790517e-001 2.666610e-001 3.068134e-001 4.380879e-001 7.561342e-001 7.245776e-001 1.095329e+000 1.723207e+000 1.331831e+000 1.331529e+000 1.104408e+000 8.598950e-001 6.879856e-002 4.561292e-002 4.154367e-002 6.001202e-002 1.679312e-001 1.609125e-001 1.118500e-001 1.772843e-001 2.570556e-001 1.410367e-001 2.127956e-001 1.982411e-001 2.222999e-001 1.328958e-002
<GCONST> 7.115808e+001
<MIXTURE> 3 3.679472e-001
<MEAN> 39
 -1.344726e+001 -1.289392e+001 -7.430055e-001 -1.663860e+001 -1.668738e+001 -9.833575e+000 -1.389880e+001 -2.647717e+000 6.065868e+000 -1.210166e+001 -1.587556e-001 2.476350e+000 6.832378e+001 -8.507427e-001 -8.183086e-001 -1.756164e-001 4.378849e-001 1.360685e+000 1.375012e+000 1.032009e+000 3.030545e-001 -2.176131e-001 -5.796967e-001 -2.882679e-001 -3.983642e-001 -4.424896e-001 -5.409632e-002 -7.065602e-002 -9.580305e-002 8.117120e-002 2.626917e-001 3.213959e-001 1.941687e-001 2.244190e-001 1.443685e-001 -1.239442e-002 -1.899057e-001 -2.961985e-001 -2.881713e-002
<VARIANCE> 39
 6.547499e+000 8.834380e+000 6.506999e+000 8.893519e+000 2.741794e+001 1.861795e+001 2.152019e+001 2.347491e+001 2.552016e+001 2.011774e+001 2.447157e+001 1.812032e+001 5.324456e+000 1.301566e-001 1.937998e-001 4.318483e-001 8.700107e-001 1.317784e+000 8.920420e-001 1.031888e+000 1.827874e+000 2.384210e+000 1.710348e+000 1.282597e+000 1.584124e+000 3.390409e-002 2.393339e-002 3.546298e-002 5.186730e-002 8.777983e-002 2.234848e-001 1.343844e-001 1.958241e-001 2.722200e-001 2.960579e-001 2.448159e-001 2.129631e-001 2.248127e-001 6.522175e-003
<GCONST> 7.153194e+001
<MIXTURE> 4 1.342264e-001
<MEAN> 39
 -1.378530e+001 -1.699539e+001 -5.772590e+000 -1.876828e+001 -8.088039e+000 1.884785e+000 -4.147313e+000 7.433903e-001 6.223677e+000 -1.615207e+001 -6.921154e+000 -2.499262e+000 6.958163e+001 -1.395921e+000 -1.042386e+000 4.624205e-001 1.667569e+000 1.047308e+000 -2.492955e-001 -7.980558e-001 -6.191698e-001 1.976388e-001 -3.942148e-001 -4.646383e-001 -3.968215e-001 -6.936274e-001 2.407610e-001 2.233849e-001 -1.185535e-001 -3.810680e-001 -4.358015e-001 -7.369764e-002 3.384533e-001 3.220250e-001 8.732780e-002 3.767566e-001 2.739657e-001 1.993960e-001 1.174867e-001
<VARIANCE> 39
 5.774326e+000 1.498975e+000 8.190239e+000 1.188443e+001 5.952781e+000 8.581549e+000 1.765988e+001 1.125365e+001 2.300411e+001 3.045535e+001 2.360521e+001 1.876268e+001 3.789307e+000 1.318751e-001 2.327620e-001 3.787771e-001 6.412510e-001 1.541455e+000 1.475322e+000 1.679495e+000 1.247088e+000 1.790146e+000 1.395746e+000 2.553752e+000 1.473104e+000 7.262249e-002 1.992466e-002 2.827573e-002 4.527955e-002 1.412354e-001 1.926831e-001 1.358187e-001 2.079622e-001 2.964193e-001 1.852245e-001 2.608876e-001 1.878605e-001 1.715293e-001 8.600488e-003
<GCONST> 6.771265e+001
<STATE> 14
<NUMMIXES> 4
<MIXTURE> 1 4.158038e-001
<MEAN> 39
 -1.797171e+001 -1.856210e+001 -3.679995e+000 -1.614215e+001 -6.026938e+000 2.786353e+000 -1.882701e+000 1.805534e+000 7.835071e+000 -1.459371e+001 -3.924909e+000 -1.079519e+000 6.861336e+001 -1.329345e-001 -8.446900e-002 -4.823276e-002 -1.793488e-002 1.467567e-001 6.330106e-002 1.373402e-001 1.340314e-002 -1.613601e-001 1.572005e-001 1.496120e-001 -1.182081e-001 -6.546722e-002 4.815254e-002 6.209408e-002 2.185171e-002 1.154918e-002 -5.977646e-002 -1.025455e-001 -1.318056e-001 -1.044148e-001 -1.046207e-001 2.548746e-003 2.318728e-002 2.727152e-002 2.051304e-002
<VARIANCE> 39
 2.063363e+000 3.704458e+000 5.875710e+000 9.841300e+000 1.363423e+001 1.521080e+001 1.474276e+001 1.569824e+001 1.967019e+001 1.709203e+001 1.277749e+001 1.801021e+001 6.630439e-001 9.210812e-002 2.630911e-001 3.168117e-001 5.225089e-001 5.887737e-001 1.152846e+000 1.237964e+000 1.105835e+000 1.100741e+000 1.350377e+000 8.031148e-001 7.683581e-001 2.034790e-002 1.866906e-002 5.475323e-002 5.545969e-002 9.682667e-002 9.757069e-002 1.667395e-001 1.404818e-001 1.926114e-001 1.800907e-001 2.704574e-001 1.453231e-001 1.438838e-001 3.835268e-003
<GCONST> 5.752565e+001
<MIXTURE> 2 5.571941e-002
<MEAN> 39
 -8.570742e+000 -7.106397e+000 -1.132923e-001 -1.729680e+001 -1.877902e+001 -5.225722e+000 -5.945172e+000 7.868303e+000 1.297560e+001 -5.375778e+000 1.152494e+000 1.710784e-001 6.765096e+001 -1.358446e+000 -1.093521e+000 -1.198377e-001 1.364186e+000 2.386408e+000 1.890676e+000 1.019300e+000 -2.107398e-001 -1.147722e+000 -8.961723e-001 -4.665270e-002 -1.202360e-001 -8.051825e-001 -3.487208e-001 -3.350073e-001 -1.406423e-001 1.714397e-001 3.603436e-001 1.300463e-001 2.083634e-001 -2.510495e-001 -4.155589e-001 -3.463204e-001 -1.760646e-001 -2.024878e-001 -1.414951e-001
<VARIANCE> 39
 4.308331e+000 6.824607e+000 2.280155e+000 1.562763e+001 2.011474e+001 2.188114e+001 2.050104e+001 2.201374e+001 5.122109e+000 2.297711e+001 3.094803e+001 1.311705e+001 1.617205e+000 3.399226e-001 1.294371e-001 3.086248e-001 4.052233e-001 1.624682e+000 3.752870e-001 1.530209e+000 1.520649e+000 1.394979e+000 1.027788e+000 1.104457e+000 1.484641e+000 1.438030e-001 2.279728e-002 4.589896e-002 5.798328e-002 9.284163e-002 1.896623e-001 1.031840e-001 2.282591e-001 4.529862e-001 2.028532e-001 5.724644e-002 2.761956e-001 1.668648e-001 6.560522e-003
<GCONST> 6.529915e+001
<MIXTURE> 3 4.077272e-001
<MEAN> 39
 -1.728182e+001 -1.648915e+001 -2.937097e+000 -1.460027e+001 -1.056259e+001 -1.910964e+000 -9.167737e+000 -1.209617e-002 4.924715e+000 -1.379224e+001 -2.900687e+000 -1.302376e+000 6.584492e+001 -5.095361e-001 -4.514450e-001 -7.512663e-002 4.334440e-001 7.682990e-001 9.571159e-001 5.326394e-001 1.527375e-001 -2.426408e-002 -5.284157e-002 -8.678356e-002 1.830725e-002 -2.560155e-001 8.902200e-002 9.171672e-002 -1.033056e-003 -1.046204e-001 -1.237284e-001 -1.138183e-001 9.719971e-003 1.355214e-001 1.980251e-001 1.674708e-001 9.767201e-002 1.257162e-001 5.546422e-002
<VARIANCE> 39
 4.153970e+000 6.309024e+000 9.069871e+000 9.756485e+000 1.476320e+001 2.528805e+001 2.255648e+001 2.144417e+001 2.086911e+001 2.004421e+001 2.493099e+001 1.886482e+001 5.480348e+000 1.133718e-001 2.616816e-001 3.855487e-001 6.915847e-001 1.195268e+000 1.238602e+000 1.206544e+000 1.481264e+000 1.981111e+000 1.262549e+000 1.298423e+000 1.599089e+000 4.960870e-002 1.700644e-002 5.031298e-002 6.533705e-002 1.062303e-001 2.251558e-001 2.102619e-001 2.044992e-001 2.080219e-001 2.927840e-001 2.224254e-001 2.730409e-001 2.841315e-001 7.592745e-003
<GCONST> 7.178795e+001
<MIXTURE> 4 1.207497e-001
<MEAN> 39
 -1.445046e+001 -1.247596e+001 -1.896640e+000 -1.507057e+001 -1.286530e+001 -3.640974e+000 -6.335712e+000 5.393446e+000 5.948902e+000 -1.348201e+001 -4.003679e+000 -3.888479e+000 6.530035e+001 -1.437735e+000 -1.571817e+000 -8.362025e-001 6.411596e-001 1.904229e+000 1.626972e+000 7.814332e-001 -7.476007e-001 -1.312682e+000 -7.033745e-001 3.089181e-001 1.646348e-001 -6.360977e-001 1.418427e-001 1.137410e-001 -1.375596e-002 -2.474796e-001 -4.826638e-001 -2.217254e-001 -3.440540e-001 -2.309281e-001 1.465875e-001 3.290232e-001 1.781710e-001 2.909322e-001 9.679718e-002
<VARIANCE> 39
 3.795117e+000 7.767848e+000 4.941838e+000 1.457596e+001 2.247793e+001 4.460608e+001 2.765266e+001 1.252611e+001 1.999511e+001 1.980060e+001 2.434670e+001 1.464810e+001 9.580463e-001 3.615550e-001 5.280250e-001 3.029315e-001 1.208136e+000 2.052917e+000 1.334390e+000 1.535958e+000 2.402632e+000 1.823200e+000 1.872906e+000 2.480023e+000 1.724871e+000 9.415027e-002 4.591643e-002 1.041300e-001 8.474375e-002 1.779788e-001 2.438947e-001 2.996952e-001 2.347162e-001 3.404714e-001 4.148047e-001 2.178711e-001 2.690488e-001 2.905180e-001 1.390604e-002
<GCONST> 7.997375e+001
<TRANSP> 15
 0.000000e+000 1.000000e+000 0.000000e+000 0.000000e+000 0.000000e+000 0.000000e+000 0.000000e+000 0.000000e+000 0.000000e+000 0.000000e+000 0.000000e+000 0.000000e+000 0.000000e+000 0.000000e+000 0.000000e+000
 0.000000e+000 8.513147e-001 1.486853e-001 0.000000e+000 0.000000e+000 0.000000e+000 0.000000e+000 0.000000e+000 0.000000e+000 0.000000e+000 0.000000e+000 0.000000e+000 0.000000e+000 0.000000e+000 0.000000e+000
 0.000000e+000 0.000000e+000 7.488440e-001 2.511560e-001 0.000000e+000 0.000000e+000 0.000000e+000 0.000000e+000 0.000000e+000 0.000000e+000 0.000000e+000 0.000000e+000 0.000000e+000 0.000000e+000 0.000000e+000
 0.000000e+000 0.000000e+000 0.000000e+000 7.934681e-001 2.065319e-001 0.000000e+000 0.000000e+000 0.000000e+000 0.000000e+000 0.000000e+000 0.000000e+000 0.000000e+000 0.000000e+000 0.000000e+000 0.000000e+000
 0.000000e+000 0.000000e+000 0.000000e+000 0.000000e+000 8.613946e-001 1.386054e-001 0.000000e+000 0.000000e+000 0.000000e+000 0.000000e+000 0.000000e+000 0.000000e+000 0.000000e+000 0.000000e+000 0.000000e+000
 0.000000e+000 0.000000e+000 0.000000e+000 0.000000e+000 0.000000e+000 7.832708e-001 2.167292e-001 0.000000e+000 0.000000e+000 0.000000e+000 0.000000e+000 0.000000e+000 0.000000e+000 0.000000e+000 0.000000e+000
 0.000000e+000 0.000000e+000 0.000000e+000 0.000000e+000 0.000000e+000 0.000000e+000 8.023233e-001 1.976767e-001 0.000000e+000 0.000000e+000 0.000000e+000 0.000000e+000 0.000000e+000 0.000000e+000 0.000000e+000
 0.000000e+000 0.000000e+000 0.000000e+000 0.000000e+000 0.000000e+000 0.000000e+000 0.000000e+000 8.750458e-001 1.249542e-001 0.000000e+000 0.000000e+000 0.000000e+000 0.000000e+000 0.000000e+000 0.000000e+000
 0.000000e+000 0.000000e+000 0.000000e+000 0.000000e+000 0.000000e+000 0.000000e+000 0.000000e+000 0.000000e+000 8.211849e-001 1.788151e-001 0.000000e+000 0.000000e+000 0.000000e+000 0.000000e+000 0.000000e+000
 0.000000e+000 0.000000e+000 0.000000e+000 0.000000e+000 0.000000e+000 0.000000e+000 0.000000e+000 0.000000e+000 0.000000e+000 8.341379e-001 1.658621e-001 0.000000e+000 0.000000e+000 0.000000e+000 0.000000e+000
 0.000000e+000 0.000000e+000 0.000000e+000 0.000000e+000 0.000000e+000 0.000000e+000 0.000000e+000 0.000000e+000 0.000000e+000 0.000000e+000 8.059701e-001 1.940300e-001 0.000000e+000 0.000000e+000 0.000000e+000
 0.000000e+000 0.000000e+000 0.000000e+000 0.000000e+000 0.000000e+000 0.000000e+000 0.000000e+000 0.000000e+000 0.000000e+000 0.000000e+000 0.000000e+000 8.177246e-001 1.822754e-001 0.000000e+000 0.000000e+000
 0.000000e+000 0.000000e+000 0.000000e+000 0.000000e+000 0.000000e+000 0.000000e+000 0.000000e+000 0.000000e+000 0.000000e+000 0.000000e+000 0.000000e+000 0.000000e+000 7.686378e-001 2.313622e-001 0.000000e+000
 0.000000e+000 0.000000e+000 0.000000e+000 0.000000e+000 0.000000e+000 0.000000e+000 0.000000e+000 0.000000e+000 0.000000e+000 0.000000e+000 0.000000e+000 0.000000e+000 0.000000e+000 8.556299e-001 1.443701e-001
 0.000000e+000 0.000000e+000 0.000000e+000 0.000000e+000 0.000000e+000 0.000000e+000 0.000000e+000 0.000000e+000 0.000000e+000 0.000000e+000 0.000000e+000 0.000000e+000 0.000000e+000 0.000000e+000 0.000000e+000
<ENDHMM>
