~o
<STREAMINFO> 1 39
<VECSIZE> 39<NULLD><MFCC_D_A_0><DIAGC>
~h "taitou_neck"
<BEGINHMM>
<NUMSTATES> 12
<STATE> 2
<NUMMIXES> 4
<MIXTURE> 1 2.099585e-001
<MEAN> 39
 -1.717945e+001 -2.287021e+001 -4.152311e+000 -7.843246e+000 -5.336245e+000 -6.529844e+000 -1.116652e+001 5.358784e-001 1.515565e+001 5.045572e-002 -8.367723e+000 -2.090966e+000 7.833043e+001 1.710023e-001 -8.433011e-002 -3.011840e-001 -3.380546e-001 -5.619065e-002 3.600417e-001 5.150385e-001 -9.167932e-002 -4.609970e-001 -1.447272e-001 -8.754814e-002 -1.255010e-001 2.027982e-001 8.099722e-002 -1.523660e-002 -6.432905e-002 -1.224455e-001 -3.248521e-002 8.548497e-002 2.082958e-001 1.447148e-001 -6.873859e-002 -1.820886e-001 -9.733339e-002 -5.353447e-002 4.107496e-002
<VARIANCE> 39
 2.377317e+000 2.585161e+000 7.991066e+000 2.092485e+001 1.005268e+001 1.255705e+001 1.531435e+001 2.770583e+001 1.988722e+001 2.661075e+001 2.071551e+001 1.195350e+001 3.540583e+000 1.852163e-001 2.786435e-001 3.161266e-001 5.629947e-001 7.447826e-001 7.340791e-001 1.126897e+000 1.702781e+000 1.437508e+000 1.759780e+000 1.769913e+000 1.162535e+000 4.444475e-002 3.436240e-002 5.355985e-002 5.969891e-002 1.346995e-001 1.644328e-001 1.301526e-001 2.252628e-001 3.535192e-001 2.074842e-001 3.430833e-001 3.039808e-001 1.939582e-001 9.189726e-003
<GCONST> 6.878373e+001
<MIXTURE> 2 3.144857e-001
<MEAN> 39
 -1.913452e+001 -2.503130e+001 -6.257050e+000 -2.450632e+000 1.087087e-001 -2.355651e+000 -2.565809e+000 9.273516e+000 4.875629e+000 -6.142311e+000 -3.189001e+000 3.014001e+000 7.683126e+001 8.921232e-003 1.784190e-002 -6.930608e-002 -8.499845e-002 -3.568753e-002 -5.132128e-002 6.021385e-002 2.016712e-002 -2.504961e-003 2.249424e-001 8.056013e-002 -4.364520e-002 8.952029e-003 -4.840116e-003 -1.903036e-002 -3.648676e-002 -6.430794e-002 -7.735799e-002 -7.415680e-002 -4.242246e-002 -3.780766e-002 -1.752819e-002 -3.932342e-002 -1.516160e-002 -5.272942e-002 -7.338311e-003
<VARIANCE> 39
 2.181638e+000 2.964495e+000 5.929291e+000 7.128531e+000 1.654254e+001 1.304585e+001 1.361197e+001 1.305969e+001 1.287211e+001 2.173584e+001 2.015042e+001 2.355830e+001 1.720487e+000 1.206884e-001 2.718489e-001 3.819540e-001 5.682463e-001 8.234923e-001 1.091015e+000 8.184193e-001 9.202864e-001 1.311832e+000 1.311273e+000 1.172567e+000 1.196348e+000 5.002004e-002 2.274207e-002 4.943062e-002 7.033641e-002 1.125279e-001 1.509810e-001 2.046829e-001 1.249556e-001 1.504790e-001 2.438412e-001 2.183836e-001 2.264097e-001 2.277641e-001 8.070923e-003
<GCONST> 6.293510e+001
<MIXTURE> 3 1.850017e-001
<MEAN> 39
 -1.512404e+001 -2.163839e+001 -5.985916e+000 -1.227514e+001 -6.788764e+000 -2.027609e+000 -1.894443e+000 3.097677e+000 7.722718e+000 -9.212022e+000 -9.008039e+000 -4.550805e+000 7.638880e+001 5.923420e-001 1.195276e-001 -4.004461e-001 -8.012618e-001 -3.563952e-001 5.086673e-001 9.583218e-001 4.402735e-001 -2.201906e-001 -2.303870e-001 -5.733443e-001 -1.782482e-001 4.628207e-001 1.117529e-001 6.658278e-002 -3.355937e-002 -1.857466e-002 -6.203218e-002 -2.729232e-002 -6.209847e-003 6.785920e-002 2.214164e-001 2.431637e-002 -1.593861e-001 -7.472123e-002 4.974170e-002
<VARIANCE> 39
 3.500216e+000 5.425355e+000 7.362941e+000 1.623320e+001 2.666456e+001 1.816040e+001 1.570498e+001 1.921641e+001 3.741463e+001 2.232228e+001 1.483190e+001 2.207597e+001 6.563549e+000 2.852154e-001 3.999678e-001 6.140814e-001 7.135587e-001 6.051872e-001 8.352909e-001 1.836800e+000 1.421263e+000 1.772964e+000 1.250765e+000 1.527009e+000 1.221465e+000 8.001823e-002 3.622678e-002 5.426767e-002 8.585466e-002 9.485538e-002 1.598239e-001 2.030584e-001 2.546940e-001 2.379334e-001 2.742194e-001 1.860682e-001 2.537691e-001 2.381903e-001 1.052786e-002
<GCONST> 7.426414e+001
<MIXTURE> 4 2.905540e-001
<MEAN> 39
 -1.994820e+001 -2.205422e+001 -9.395782e+000 -5.751622e+000 -6.327538e+000 -3.372403e+000 -3.254208e+000 7.534489e+000 4.942960e+000 -5.528982e+000 -8.699476e+000 -1.531005e-001 7.548802e+001 1.869090e-001 2.005517e-001 5.476609e-002 7.256027e-002 -1.597293e-001 -4.039237e-001 -1.442520e-001 -5.767181e-001 -5.557063e-001 -1.243962e-001 -1.777833e-001 -1.724981e-001 3.717510e-001 1.973209e-001 4.151994e-002 9.769785e-002 -1.447876e-002 6.587766e-002 1.364509e-002 -1.088030e-001 -1.644412e-001 8.196646e-002 -9.020074e-002 1.993440e-002 -1.151975e-001 5.613801e-002
<VARIANCE> 39
 6.911077e+000 1.002671e+001 1.160836e+001 1.701508e+001 1.767467e+001 1.717267e+001 2.122231e+001 2.575884e+001 1.899544e+001 2.145338e+001 3.623898e+001 2.083155e+001 5.241739e+000 5.050154e-001 4.434445e-001 7.512064e-001 9.172076e-001 1.644476e+000 1.504533e+000 1.771648e+000 1.314509e+000 1.733957e+000 2.115843e+000 2.270431e+000 1.534945e+000 8.352094e-002 5.719059e-002 9.699283e-002 1.288550e-001 1.691159e-001 3.017010e-001 2.725969e-001 2.935965e-001 2.645347e-001 4.239400e-001 4.924775e-001 5.556374e-001 3.239195e-001 1.953454e-002
<GCONST> 8.617109e+001
<STATE> 3
<NUMMIXES> 4
<MIXTURE> 1 3.149821e-001
<MEAN> 39
 -1.041122e+001 -1.951284e+001 -5.692794e+000 -1.166746e+001 -1.429858e+001 -4.075412e+000 -1.179748e+000 1.417948e+001 1.890688e+001 -1.201452e+000 -1.314203e+001 -7.864579e+000 8.208484e+001 1.978751e-001 1.160466e-001 2.147069e-001 1.218658e-001 -9.890525e-001 -9.014549e-001 -3.114670e-001 2.035302e-001 2.357432e-001 3.527653e-001 4.527988e-001 6.318358e-002 2.401863e-001 -1.110901e-001 4.580364e-003 1.121184e-001 8.346186e-002 6.250205e-002 -1.262167e-001 -3.591951e-001 -4.097172e-001 -3.292089e-001 3.934989e-003 2.282972e-001 2.461042e-001 -6.715768e-002
<VARIANCE> 39
 2.635576e+000 2.430520e+000 4.006141e+000 2.358910e+001 1.927414e+001 2.953525e+001 2.506133e+001 2.237743e+001 2.686137e+001 1.644613e+001 3.192485e+001 5.278614e+001 2.194085e+000 1.224755e-001 1.886798e-001 4.729780e-001 5.202453e-001 1.045947e+000 7.891244e-001 2.356270e+000 2.345767e+000 1.472019e+000 1.038233e+000 1.438686e+000 1.036593e+000 7.090611e-002 2.096585e-002 3.781547e-002 7.273458e-002 7.998172e-002 1.632815e-001 1.502414e-001 4.156982e-001 4.747516e-001 3.688533e-001 2.056761e-001 2.676816e-001 2.465140e-001 1.395466e-002
<GCONST> 7.240205e+001
<MIXTURE> 2 2.493389e-001
<MEAN> 39
 -1.448618e+001 -2.205793e+001 -8.897394e+000 -9.095923e+000 -6.932705e+000 -6.016325e+000 -4.912137e+000 4.540237e+000 1.101337e+001 -1.738080e+000 -7.285580e+000 -1.722614e+000 8.049924e+001 1.181501e+000 6.594980e-002 -4.809734e-001 -6.930211e-001 -6.122390e-001 -7.706145e-001 5.648140e-001 3.282549e-001 8.953360e-001 7.389710e-001 6.671087e-002 -4.167976e-001 8.950523e-001 -1.463593e-001 -1.014599e-001 1.125419e-002 6.546073e-002 1.113604e-002 1.950599e-003 2.165114e-001 2.282820e-001 -1.432936e-001 -9.941224e-002 -9.705279e-002 1.725570e-001 -2.704701e-002
<VARIANCE> 39
 9.961321e+000 8.389946e+000 1.809845e+001 2.039884e+001 2.041968e+001 2.247806e+001 5.483711e+001 4.163021e+001 3.081647e+001 2.123321e+001 3.496316e+001 2.140943e+001 1.151462e+001 4.201274e-001 8.625080e-001 8.354012e-001 1.063462e+000 1.787001e+000 1.786077e+000 2.909529e+000 3.064830e+000 1.949478e+000 2.206452e+000 3.636292e+000 2.647836e+000 2.791964e-001 1.026863e-001 9.385226e-002 1.637139e-001 1.866732e-001 3.231134e-001 3.548487e-001 4.339154e-001 3.644095e-001 2.961650e-001 3.324688e-001 3.160588e-001 3.629520e-001 7.149751e-002
<GCONST> 9.682302e+001
<MIXTURE> 3 9.422702e-002
<MEAN> 39
 -1.442867e+001 -1.718181e+001 -5.383721e+000 -5.372376e+000 -5.472193e+000 -8.418423e+000 -8.154834e+000 -4.055542e+000 -2.838543e+000 -1.402435e+001 -1.831416e+001 -8.105653e+000 7.748447e+001 1.522395e+000 1.618783e-001 2.524211e-001 -5.256323e-001 -3.651602e-002 -6.615198e-001 -6.272897e-001 -1.873838e+000 -5.412892e-001 -1.077591e+000 -7.371477e-001 -1.030804e+000 8.313958e-001 -1.056308e-001 -2.262030e-001 -2.858001e-001 -3.545616e-001 -2.976747e-001 1.040292e-001 3.267030e-001 5.039370e-001 4.059928e-001 8.370866e-001 7.030339e-001 5.466543e-001 -1.631838e-002
<VARIANCE> 39
 6.742817e+000 5.100451e+000 8.464905e+000 1.596366e+001 2.187282e+001 1.449991e+001 1.997986e+001 1.513204e+001 1.809030e+001 2.589618e+001 2.152931e+001 1.583410e+001 2.570515e+000 2.027800e-001 3.600301e-001 6.679427e-001 1.631350e+000 1.976527e+000 1.875987e+000 1.854166e+000 2.268886e+000 1.854228e+000 4.696658e+000 4.452555e+000 2.993749e+000 8.602106e-002 8.102757e-002 5.832139e-002 1.227298e-001 1.856259e-001 4.045555e-001 3.416752e-001 2.700322e-001 3.124080e-001 2.355762e-001 4.690631e-001 4.041591e-001 3.623892e-001 2.312435e-002
<GCONST> 8.555570e+001
<MIXTURE> 4 3.414520e-001
<MEAN> 39
 -1.161019e+001 -2.157409e+001 -9.963930e+000 -1.481615e+001 -5.411769e+000 -1.207782e+000 1.819937e+000 4.072557e+000 1.104826e+001 -9.191126e+000 -1.612132e+001 -6.498524e+000 7.989898e+001 2.196759e-001 1.303315e-001 -1.307389e-002 -1.471589e-001 -5.030958e-001 -3.206449e-001 3.850197e-001 3.257563e-001 5.297719e-001 5.491027e-002 -8.519173e-001 -3.417703e-001 2.794007e-001 -1.653246e-001 -1.923812e-002 1.910326e-001 1.460197e-001 -2.263805e-001 -3.449129e-001 -2.974633e-001 6.151630e-002 1.331154e-001 2.295872e-001 3.064404e-001 2.465390e-002 -1.027135e-001
<VARIANCE> 39
 2.104060e+000 7.059248e+000 1.212860e+001 1.648046e+001 1.760877e+001 1.587198e+001 3.987900e+001 1.288918e+001 1.467920e+001 2.199174e+001 2.019497e+001 1.616814e+001 7.444844e+000 3.802881e-001 2.493749e-001 4.855283e-001 6.215871e-001 1.302209e+000 1.369324e+000 1.166281e+000 1.204247e+000 1.237036e+000 1.319242e+000 1.532121e+000 1.057932e+000 1.560876e-001 3.238429e-002 5.321631e-002 8.746125e-002 1.278184e-001 1.459258e-001 1.103672e-001 2.024973e-001 1.677440e-001 2.043425e-001 3.159487e-001 3.387126e-001 1.081471e-001 1.314725e-002
<GCONST> 7.285459e+001
<STATE> 4
<NUMMIXES> 4
<MIXTURE> 1 2.911038e-001
<MEAN> 39
 -1.223252e+001 -1.938726e+001 -4.214830e+000 -1.194900e+001 -1.486816e+001 -1.073884e+001 -7.030257e+000 6.782032e+000 1.606998e+001 1.494486e+000 -8.395293e+000 -3.067447e+000 8.155030e+001 -1.425502e-001 4.003962e-001 8.190573e-001 6.377147e-001 -5.005583e-001 -1.698144e+000 -2.097009e+000 -1.517399e+000 -2.033512e-001 1.246721e+000 1.789853e+000 1.340522e+000 -7.294679e-002 -3.080684e-002 -1.103390e-001 -1.397806e-001 4.243638e-002 3.024004e-001 2.366413e-001 1.145764e-001 -1.678240e-001 -3.575242e-001 -5.043662e-001 -2.443211e-001 -6.883840e-002 -2.995791e-002
<VARIANCE> 39
 5.154778e+000 6.318120e+000 1.326695e+001 2.747655e+001 2.860138e+001 2.355078e+001 4.702751e+001 3.834507e+001 2.584556e+001 3.623994e+001 3.269227e+001 2.369060e+001 7.350075e+000 1.481594e-001 3.885729e-001 4.995516e-001 8.061345e-001 1.090814e+000 9.633246e-001 2.044044e+000 1.828415e+000 2.848882e+000 2.329294e+000 1.374878e+000 9.853327e-001 6.040283e-002 2.173767e-002 6.792667e-002 8.417836e-002 1.053524e-001 1.843579e-001 2.669574e-001 4.860488e-001 3.863778e-001 2.716867e-001 2.974890e-001 3.877083e-001 3.435540e-001 1.197620e-002
<GCONST> 8.266791e+001
<MIXTURE> 2 2.412726e-001
<MEAN> 39
 -1.476773e+001 -2.592321e+001 -8.105900e+000 -1.017442e+001 -6.230177e+000 -6.935679e+000 -4.973928e+000 4.180914e+000 5.927802e+000 7.391941e-001 -7.799478e-001 2.477567e+000 8.241746e+001 1.806483e-002 7.648247e-002 2.420179e-001 -8.619148e-001 -6.878328e-001 1.598274e-002 6.253982e-001 4.712951e-001 -2.296272e-003 1.109608e-001 -2.587076e-001 -2.156473e-001 7.162950e-002 -4.099038e-002 1.422797e-001 4.829854e-002 -8.957988e-002 -9.868270e-002 2.981471e-002 -8.397049e-002 9.662286e-002 2.306530e-001 -4.014519e-002 -3.104132e-001 -1.902835e-001 -7.667660e-002
<VARIANCE> 39
 5.739060e+000 3.684561e+000 1.314759e+001 2.598167e+001 1.220311e+001 2.196291e+001 2.085212e+001 2.021617e+001 4.969930e+001 1.296361e+001 8.431443e+001 1.799383e+001 5.341009e+000 1.329190e-001 3.664303e-001 4.706045e-001 9.990690e-001 7.177275e-001 1.482328e+000 9.233955e-001 1.262526e+000 1.894201e+000 1.189310e+000 2.608839e+000 1.254809e+000 7.938047e-002 2.477631e-002 4.390156e-002 9.958035e-002 1.525492e-001 1.455829e-001 2.478518e-001 1.683661e-001 2.220096e-001 4.466730e-001 2.976823e-001 3.253274e-001 2.063764e-001 1.127241e-002
<GCONST> 7.674535e+001
<MIXTURE> 3 2.259996e-001
<MEAN> 39
 -1.085124e+001 -1.808134e+001 -4.637317e+000 -8.268205e+000 -8.676003e+000 -1.064579e+001 -8.541906e+000 -3.947531e+000 -8.929567e-001 -1.030149e+001 -1.481964e+001 -6.294333e+000 7.927374e+001 1.139839e-001 5.478273e-002 1.846368e-001 -3.036218e-001 -2.878856e-001 -4.445181e-001 -7.886248e-002 4.542748e-001 1.715451e-001 4.911862e-001 1.663772e-002 2.881757e-001 2.173920e-003 -1.016874e-001 1.699834e-002 1.827781e-002 8.209971e-002 2.631787e-002 2.689208e-004 -9.456730e-002 6.678130e-002 3.042093e-002 -4.307409e-002 -1.207493e-001 -7.863416e-002 -6.614657e-002
<VARIANCE> 39
 2.070969e+000 6.146333e+000 1.051075e+001 2.034906e+001 1.549595e+001 1.302553e+001 2.971003e+001 2.832593e+001 1.712041e+001 2.653095e+001 2.358774e+001 1.661186e+001 1.853738e+000 1.103697e-001 2.820140e-001 4.113994e-001 7.960362e-001 6.762797e-001 5.842819e-001 1.759412e+000 1.261848e+000 1.211778e+000 1.597949e+000 1.755164e+000 1.263575e+000 5.482509e-002 2.209126e-002 6.441367e-002 7.689746e-002 1.796652e-001 1.491654e-001 1.649921e-001 2.822386e-001 2.649453e-001 2.166056e-001 3.147389e-001 3.077593e-001 2.443130e-001 8.767653e-003
<GCONST> 7.102776e+001
<MIXTURE> 4 2.416240e-001
<MEAN> 39
 -1.258577e+001 -2.065756e+001 -8.248775e+000 -1.720249e+001 -1.297352e+001 -8.081195e+000 1.914908e+000 7.058668e+000 1.182498e+001 -3.014704e+000 -1.299236e+001 -5.132514e+000 8.159379e+001 -3.643145e-002 6.597029e-001 6.391368e-001 -9.646254e-002 -1.038024e+000 -1.392702e+000 -1.133856e+000 8.113152e-001 1.426318e+000 1.268034e+000 3.915260e-001 1.237438e-001 -1.028326e-001 -1.864795e-002 7.597657e-002 1.256470e-001 3.753475e-001 1.609810e-001 -2.241664e-001 -5.258787e-001 -5.358162e-001 -9.545588e-002 4.241911e-001 7.235612e-001 3.910607e-001 -2.607055e-002
<VARIANCE> 39
 6.725906e+000 1.512178e+001 2.216806e+001 1.888658e+001 2.109615e+001 4.496469e+001 5.484468e+001 2.710245e+001 4.537918e+001 3.879153e+001 4.813420e+001 1.508361e+001 8.968097e+000 6.776919e-002 3.695121e-001 3.946285e-001 7.962987e-001 1.250863e+000 1.219388e+000 1.604911e+000 1.993990e+000 3.003148e+000 2.280234e+000 4.397413e+000 1.645095e+000 7.434125e-002 1.806696e-002 6.155498e-002 6.090106e-002 1.773605e-001 1.397264e-001 2.962154e-001 2.649521e-001 2.815579e-001 3.400885e-001 3.213520e-001 4.236166e-001 2.027393e-001 1.119934e-002
<GCONST> 8.452392e+001
<STATE> 5
<NUMMIXES> 4
<MIXTURE> 1 3.646990e-001
<MEAN> 39
 -1.264918e+001 -1.829414e+001 -4.709970e+000 -1.234390e+001 -1.678187e+001 -1.602716e+001 -1.120710e+001 4.923820e+000 1.380397e+001 3.427244e+000 -5.283110e+000 -1.871908e-001 8.107158e+001 -3.182730e-001 -1.043558e-002 6.953271e-002 8.605494e-001 9.077042e-001 4.041432e-001 -1.017321e+000 -1.198504e+000 -1.171388e+000 -1.046081e+000 -2.657302e-001 -1.998776e-001 -3.566271e-001 -1.671460e-001 -2.170815e-001 -9.060659e-002 2.397887e-001 7.100030e-001 9.342596e-001 5.818827e-001 7.019782e-002 -3.407096e-001 -7.558840e-001 -5.738376e-001 -3.707004e-001 -1.187907e-001
<VARIANCE> 39
 6.104984e+000 1.552227e+001 1.435225e+001 2.827308e+001 3.098774e+001 2.372934e+001 3.886502e+001 2.238296e+001 6.825125e+001 4.191532e+001 5.651270e+001 3.041664e+001 8.661705e+000 2.343880e-001 5.871160e-001 8.256679e-001 1.028687e+000 1.630366e+000 2.322488e+000 3.212028e+000 1.756650e+000 2.212565e+000 2.894617e+000 2.982795e+000 2.084608e+000 1.701491e-001 3.726662e-002 1.361311e-001 1.299559e-001 1.796450e-001 2.019632e-001 3.026585e-001 2.893015e-001 2.678344e-001 4.210287e-001 3.853708e-001 4.599693e-001 3.668373e-001 1.923210e-002
<GCONST> 9.405602e+001
<MIXTURE> 2 3.159812e-001
<MEAN> 39
 -1.211431e+001 -1.732965e+001 -1.690630e+000 -7.309453e+000 -1.370569e+001 -1.320647e+001 -1.463186e+001 -1.993699e+000 4.544130e+000 -7.217026e+000 -7.584516e+000 -2.132810e+000 8.034394e+001 -5.461733e-001 -4.307872e-001 5.829467e-002 7.416677e-001 1.716604e+000 1.295065e+000 4.616289e-002 -3.037225e-001 -3.156921e-001 -9.359965e-001 -6.340586e-001 -3.524162e-001 -4.428952e-001 -1.275689e-001 -2.310455e-001 -1.623194e-001 -4.585984e-002 3.195103e-001 4.225544e-001 6.237617e-001 5.942628e-001 5.248311e-001 2.177142e-001 -1.125445e-001 -1.109174e-001 -7.442254e-002
<VARIANCE> 39
 5.809662e+000 6.554213e+000 3.177872e+001 1.155531e+001 2.373869e+001 1.701642e+001 1.749528e+001 3.698726e+001 2.655467e+001 2.086495e+001 4.473706e+001 3.526854e+001 4.637230e+000 2.163981e-001 5.597811e-001 8.038409e-001 9.715542e-001 2.506594e+000 2.851741e+000 2.854096e+000 2.908513e+000 2.730209e+000 2.242470e+000 1.225197e+000 1.180939e+000 1.559780e-001 3.677770e-002 7.770657e-002 1.302366e-001 1.103764e-001 2.603805e-001 2.390031e-001 3.508625e-001 3.327316e-001 3.305213e-001 2.473531e-001 1.729118e-001 2.640941e-001 1.272770e-002
<GCONST> 8.598122e+001
<MIXTURE> 3 1.103009e-001
<MEAN> 39
 -1.686889e+001 -2.315667e+001 -4.966595e+000 -4.707304e+000 -5.833623e+000 -5.191544e+000 -5.852780e+000 9.002719e+000 7.806842e+000 -6.787109e+000 -6.140423e+000 1.433700e+000 7.786015e+001 -8.356145e-001 -9.842181e-001 1.352964e-001 1.039541e+000 2.296459e+000 2.410292e+000 1.288423e+000 2.017750e-001 -2.268740e-001 -8.357040e-001 -7.846413e-001 -2.548515e-001 -4.713482e-001 -1.248639e-002 6.076273e-002 -2.007050e-001 -2.183151e-001 -5.524684e-001 -4.808164e-001 -2.523911e-001 -2.480685e-001 -3.943260e-002 4.590903e-001 4.591332e-001 3.326058e-001 8.612682e-002
<VARIANCE> 39
 2.305985e+000 6.318441e+000 8.581376e+000 1.112503e+001 1.894624e+001 1.510027e+001 2.078408e+001 9.821682e+000 1.984731e+001 1.109367e+001 3.506217e+001 1.879567e+001 2.352433e+000 1.459011e-001 4.476164e-001 3.499316e-001 7.908791e-001 1.385290e+000 1.784224e+000 1.761590e+000 1.304366e+000 2.377833e+000 1.273724e+000 1.871933e+000 1.630115e+000 6.145260e-002 2.088423e-002 6.947655e-002 4.217120e-002 1.851046e-001 4.205373e-001 3.303287e-001 2.138683e-001 2.999449e-001 2.690937e-001 2.349523e-001 3.492472e-001 3.044910e-001 1.361628e-002
<GCONST> 7.438107e+001
<MIXTURE> 4 2.090189e-001
<MEAN> 39
 -1.440279e+001 -2.065308e+001 -2.500988e+000 -7.474686e+000 -6.121059e+000 -9.355766e+000 -1.160964e+001 -2.354368e+000 1.549614e+001 2.833946e+000 -1.149213e+001 -6.954539e+000 8.022227e+001 -7.138804e-001 -5.857857e-001 1.766111e-002 6.215263e-001 1.362965e+000 1.224617e+000 4.301897e-001 -8.075692e-002 -1.565562e-001 -4.313418e-001 2.053739e-001 1.788845e-001 -3.805943e-001 5.633415e-002 -2.606284e-002 -8.265243e-002 -2.468876e-001 -4.082968e-001 -2.282092e-002 1.822715e-003 4.146055e-001 3.421393e-001 3.439391e-001 2.258015e-001 2.878830e-001 4.632339e-002
<VARIANCE> 39
 2.445078e+000 4.124050e+000 7.498050e+000 2.371030e+001 9.343450e+000 8.608451e+000 3.367950e+001 1.589280e+001 1.948746e+001 4.854221e+001 2.735249e+001 1.884498e+001 4.939545e+000 2.013762e-001 6.115147e-001 3.543606e-001 1.655362e+000 1.351976e+000 9.305939e-001 1.323894e+000 2.851967e+000 2.754843e+000 1.985057e+000 1.733465e+000 2.048201e+000 6.202459e-002 4.899162e-002 1.109784e-001 4.799296e-002 1.960329e-001 1.593041e-001 1.419339e-001 2.152331e-001 2.790910e-001 3.768840e-001 3.337839e-001 4.428808e-001 3.607399e-001 1.306560e-002
<GCONST> 7.892249e+001
<STATE> 6
<NUMMIXES> 4
<MIXTURE> 1 5.021719e-001
<MEAN> 39
 -1.647163e+001 -2.249636e+001 -3.806056e+000 -8.546486e+000 -5.271662e+000 -6.041391e+000 -1.070536e+001 -7.275546e-001 1.697181e+001 2.323762e+000 -9.172326e+000 -3.924827e+000 7.884425e+001 -2.464435e-002 -6.002616e-002 -1.182893e-001 1.433932e-002 1.170354e-001 2.812189e-001 1.808163e-001 1.511588e-001 4.743169e-002 1.013437e-001 -4.194430e-002 -2.271982e-003 6.899767e-002 1.133739e-001 9.198885e-002 2.040078e-002 -4.523745e-002 -6.305152e-002 -6.766805e-002 2.363968e-002 -5.542409e-002 -9.503800e-002 -1.024860e-001 -1.240401e-001 -1.281062e-001 5.219837e-002
<VARIANCE> 39
 1.403455e+000 3.268571e+000 6.284453e+000 1.651833e+001 1.221605e+001 1.040614e+001 2.191991e+001 1.372984e+001 2.059347e+001 3.302430e+001 1.367272e+001 1.538043e+001 3.319886e+000 1.394783e-001 2.184124e-001 4.239998e-001 7.987387e-001 8.023765e-001 9.422144e-001 1.358094e+000 1.196595e+000 2.129821e+000 1.400734e+000 1.133794e+000 1.129110e+000 5.825079e-002 2.340219e-002 3.920214e-002 7.783496e-002 1.804228e-001 2.047554e-001 2.029381e-001 2.785915e-001 2.171614e-001 4.432927e-001 2.823338e-001 2.170340e-001 1.775563e-001 1.176364e-002
<GCONST> 6.857217e+001
<MIXTURE> 2 2.257403e-001
<MEAN> 39
 -1.980101e+001 -2.412169e+001 -6.368570e+000 -2.582729e+000 -2.661541e+000 -3.062932e+000 -5.118948e+000 7.868511e+000 6.164208e+000 -6.685355e+000 -3.956292e+000 4.562384e+000 7.790700e+001 -3.821729e-002 6.391790e-002 -1.576248e-001 -7.134053e-002 -8.174519e-002 -1.512491e-001 1.422446e-001 -6.499961e-002 -1.152976e-001 -7.124420e-002 3.180006e-001 1.807432e-001 5.430138e-002 1.474886e-001 6.784510e-002 6.146280e-002 -8.604328e-002 -1.539495e-001 -1.239445e-001 -6.459562e-002 1.505738e-002 -2.683333e-002 -1.872361e-002 -2.694328e-002 -1.439399e-001 5.106760e-002
<VARIANCE> 39
 2.291378e+000 3.404370e+000 5.714453e+000 7.685950e+000 1.014327e+001 1.225914e+001 1.065345e+001 1.334854e+001 1.519501e+001 1.518679e+001 2.398314e+001 1.459492e+001 9.140135e-001 2.345247e-001 2.224407e-001 4.473483e-001 6.981862e-001 9.527469e-001 1.000579e+000 9.490049e-001 1.068162e+000 1.679175e+000 1.560621e+000 1.396119e+000 1.429771e+000 5.592450e-002 3.790103e-002 5.242625e-002 7.275342e-002 1.475501e-001 2.057608e-001 2.351875e-001 2.282135e-001 2.436344e-001 3.341071e-001 3.605130e-001 2.969074e-001 3.508445e-001 1.364916e-002
<GCONST> 6.777763e+001
<MIXTURE> 3 1.559548e-001
<MEAN> 39
 -1.700678e+001 -2.543894e+001 -8.380408e+000 -5.938191e+000 -3.649973e+000 -2.172358e+000 -7.346770e-001 8.286070e+000 1.134226e+001 -7.671340e+000 -1.190744e+001 -1.548579e+000 7.578389e+001 5.236029e-002 -4.468543e-003 -5.233539e-002 -5.102298e-002 9.007446e-002 -2.906943e-002 1.538959e-001 1.997815e-001 4.607216e-002 9.691957e-002 -4.594800e-002 8.097648e-002 8.764274e-002 1.375164e-001 2.089018e-001 8.867422e-002 -6.926993e-002 -2.053385e-001 -2.472370e-001 -2.416369e-001 -1.577718e-001 -2.015825e-001 -4.717864e-002 -3.828092e-002 -6.460569e-002 7.677472e-002
<VARIANCE> 39
 1.663161e+000 3.120123e+000 3.959282e+000 9.446381e+000 8.339909e+000 9.454807e+000 1.249633e+001 1.476704e+001 8.812994e+000 1.028545e+001 1.893203e+001 7.866467e+000 7.162791e-001 1.963608e-001 3.326792e-001 4.136783e-001 6.778402e-001 1.081930e+000 9.883218e-001 1.365765e+000 2.151945e+000 1.195928e+000 1.234841e+000 1.543926e+000 1.010855e+000 5.315539e-002 2.016171e-002 7.831350e-002 8.033331e-002 1.311355e-001 1.612931e-001 2.512532e-001 2.336489e-001 4.684649e-001 2.206726e-001 1.932022e-001 2.505235e-001 1.387781e-001 6.201609e-003
<GCONST> 6.273400e+001
<MIXTURE> 4 1.161331e-001
<MEAN> 39
 -1.551196e+001 -2.051526e+001 -4.293419e+000 -6.179252e+000 -6.017983e+000 -5.085085e+000 -8.345986e+000 1.669901e+000 4.028072e+000 -9.827437e+000 -1.243084e+001 -4.065342e+000 7.720212e+001 -1.126148e+000 -1.141316e+000 -1.090682e+000 2.420793e-001 1.195724e+000 1.931990e+000 1.608925e+000 1.474183e+000 1.022189e+000 7.432623e-002 -4.433445e-002 2.692500e-001 -5.707040e-001 1.196631e-001 2.252879e-001 -6.608669e-002 -3.981407e-001 -6.131700e-001 -6.964059e-001 2.583385e-002 1.780209e-001 3.840547e-001 7.612122e-001 4.095577e-001 4.162244e-001 2.280653e-001
<VARIANCE> 39
 5.001216e+000 1.310973e+001 1.600352e+001 1.355633e+001 1.780314e+001 1.284591e+001 2.822128e+001 2.427777e+001 3.596839e+001 1.885777e+001 4.254974e+001 3.174010e+001 5.256704e+000 2.413333e-001 3.499907e-001 6.958654e-001 1.638933e+000 1.861441e+000 2.444176e+000 1.741287e+000 1.458950e+000 2.950232e+000 5.215120e+000 1.689692e+000 1.761680e+000 1.536065e-001 6.875648e-002 1.283088e-001 1.639124e-001 2.650770e-001 2.074288e-001 3.793719e-001 4.100088e-001 3.627130e-001 3.253489e-001 5.625946e-001 2.091454e-001 2.916399e-001 2.180659e-002
<GCONST> 9.001244e+001
<STATE> 7
<NUMMIXES> 4
<MIXTURE> 1 5.028517e-001
<MEAN> 39
 -1.450616e+001 -2.099867e+001 -3.550343e+000 -9.187678e+000 -5.571105e+000 -4.180228e+000 -1.008822e+001 1.095117e+000 1.503533e+001 2.095186e-001 -1.314915e+001 -5.710357e+000 8.030926e+001 5.992560e-001 3.002786e-001 -4.298399e-001 -8.820765e-001 -7.055117e-001 -2.616546e-002 4.552834e-001 3.249384e-001 -8.463209e-002 -2.247005e-001 -3.718199e-001 -1.767760e-001 3.406701e-001 4.436630e-002 -2.752335e-002 -2.019286e-001 -2.778515e-001 -2.463665e-001 -4.528445e-002 9.873672e-002 1.563654e-001 4.705501e-002 4.337763e-002 1.138054e-001 1.563102e-001 2.583285e-002
<VARIANCE> 39
 2.074391e+000 2.739921e+000 6.834840e+000 1.542042e+001 1.849420e+001 1.216278e+001 1.964237e+001 2.679422e+001 2.117406e+001 5.051398e+001 2.265159e+001 1.335561e+001 4.185292e+000 1.414847e-001 2.446957e-001 7.956288e-001 1.342529e+000 1.668571e+000 1.377450e+000 1.254494e+000 1.559672e+000 1.969938e+000 1.728140e+000 1.331837e+000 1.040642e+000 4.331414e-002 2.357764e-002 2.326869e-002 7.470682e-002 1.467550e-001 2.325077e-001 2.120963e-001 2.298176e-001 2.694021e-001 3.271336e-001 2.963695e-001 2.104428e-001 1.675459e-001 7.576375e-003
<GCONST> 7.211710e+001
<MIXTURE> 2 1.920861e-001
<MEAN> 39
 -1.696656e+001 -2.261998e+001 -7.232384e+000 -5.638548e+000 -6.077293e+000 -4.730980e+000 -3.892597e+000 1.143795e+001 7.332522e+000 -6.045087e+000 5.438101e-002 4.942326e+000 7.928630e+001 8.104035e-001 3.766301e-001 -2.622288e-001 -1.236552e+000 -1.107950e+000 -6.715601e-001 1.043996e-001 8.997578e-001 6.667703e-001 6.576838e-001 5.493262e-001 -2.068704e-001 3.366415e-001 3.006937e-002 1.468488e-002 -6.590493e-002 -1.951363e-001 -1.644487e-001 -2.350876e-001 -9.804270e-002 -3.157745e-002 3.998643e-002 -3.849678e-002 -8.074960e-002 -1.072121e-001 6.547024e-003
<VARIANCE> 39
 4.151710e+000 4.959150e+000 6.649915e+000 1.076965e+001 1.459070e+001 1.038123e+001 1.671993e+001 1.225329e+001 1.566105e+001 1.000443e+001 1.636733e+001 1.133201e+001 2.409616e+000 3.645853e-001 4.300781e-001 5.936615e-001 1.038502e+000 1.282371e+000 1.303056e+000 1.083506e+000 8.127958e-001 9.955610e-001 7.953216e-001 1.044534e+000 2.040941e+000 1.130489e-001 3.351793e-002 4.229589e-002 1.113244e-001 1.623629e-001 2.147462e-001 1.918221e-001 1.865692e-001 1.205804e-001 1.729658e-001 1.178437e-001 1.450814e-001 2.528290e-001 1.169385e-002
<GCONST> 6.766306e+001
<MIXTURE> 3 1.037153e-001
<MEAN> 39
 -1.744184e+001 -1.966283e+001 -8.382180e+000 -1.173795e+001 -7.892422e+000 -2.432425e+000 -5.345577e+000 1.722705e+000 3.983260e+000 -1.148391e+001 -9.120473e+000 -1.387953e-002 7.446058e+001 4.824537e-001 1.195500e-001 -1.974599e-001 -5.096059e-001 -2.219484e-001 -3.203190e-001 -4.760823e-001 3.954460e-001 4.361768e-001 4.605161e-001 -4.623257e-004 -1.822127e-001 2.867490e-001 1.044374e-001 2.714026e-002 1.024547e-002 -9.493650e-002 -1.603838e-001 -7.032394e-002 -1.110480e-001 2.125936e-001 4.912366e-001 4.834370e-001 2.031147e-001 1.073333e-001 4.972788e-002
<VARIANCE> 39
 3.511714e+000 1.952225e+001 8.089799e+000 2.571404e+001 7.539912e+000 1.975810e+001 1.749133e+001 7.934874e+000 2.674331e+001 1.860782e+001 2.122258e+001 9.704150e+000 1.707528e+001 2.694132e-001 3.511487e-001 5.369492e-001 8.922809e-001 8.266180e-001 8.357715e-001 9.883510e-001 1.637295e+000 3.890582e+000 3.571391e+000 5.714647e-001 1.102062e+000 5.539187e-002 3.416768e-002 8.672819e-002 7.743766e-002 9.972845e-002 6.875642e-002 1.422359e-001 1.357112e-001 2.972871e-001 4.296691e-001 6.670349e-001 1.207336e-001 2.202762e-001 1.310132e-002
<GCONST> 7.411332e+001
<MIXTURE> 4 2.013469e-001
<MEAN> 39
 -1.529251e+001 -1.735251e+001 -7.887208e+000 -7.698580e+000 -7.947757e+000 -6.702676e+000 -3.383078e+000 2.869045e+000 1.656287e+000 -9.423339e+000 -1.350448e+001 -3.558065e+000 7.758834e+001 1.027467e+000 8.105201e-001 3.232492e-003 -8.898512e-001 -7.784319e-001 -6.223747e-001 -2.119411e-001 -7.380681e-001 -2.671783e-001 -6.514779e-001 -2.288034e-001 -4.710107e-001 4.736373e-001 2.539945e-001 -2.551931e-002 -4.612385e-002 -3.996899e-001 -1.960384e-001 -1.333599e-001 -8.482181e-002 6.468572e-002 2.947384e-001 1.871657e-001 2.857046e-001 6.590306e-002 9.800968e-002
<VARIANCE> 39
 1.216286e+001 2.785554e+001 1.944267e+001 2.793139e+001 3.409611e+001 2.929512e+001 6.271527e+001 3.191047e+001 3.089227e+001 4.358658e+001 5.151262e+001 2.594210e+001 4.179079e+000 9.526117e-001 4.491241e-001 2.021969e+000 2.048752e+000 2.331807e+000 2.667488e+000 3.125358e+000 2.193097e+000 3.094401e+000 3.953714e+000 1.937903e+000 2.356766e+000 1.273120e-001 2.049723e-001 1.939653e-001 5.191009e-001 2.418687e-001 5.253213e-001 6.589087e-001 6.918749e-001 7.491472e-001 7.542921e-001 1.098842e+000 4.781468e-001 6.417131e-001 2.814358e-002
<GCONST> 1.084704e+002
<STATE> 8
<NUMMIXES> 4
<MIXTURE> 1 2.183943e-001
<MEAN> 39
 -1.191594e+001 -2.168601e+001 -9.669874e+000 -1.685722e+001 -1.125261e+001 -4.019657e+000 -2.531205e+000 4.246994e+000 1.532089e+001 7.213422e-001 -1.073752e+001 -5.366983e+000 8.155897e+001 4.854676e-001 -3.301659e-002 -6.335428e-001 -8.868152e-001 -5.840591e-001 -4.981696e-002 5.723347e-001 4.470996e-001 -2.483808e-002 1.956393e-001 1.197368e-001 2.920119e-001 3.174381e-001 -1.749498e-001 -2.600724e-003 3.196891e-001 4.558927e-001 3.343723e-001 -7.982013e-002 -4.372107e-001 -3.652128e-001 -1.585255e-001 1.493760e-002 -1.867106e-002 -5.321908e-002 -7.655431e-002
<VARIANCE> 39
 2.568109e+000 3.003012e+000 5.344505e+000 5.668389e+000 2.000043e+001 2.729543e+001 3.881138e+001 2.131769e+001 2.390611e+001 5.092039e+001 3.178031e+001 1.930991e+001 3.725727e+000 1.355441e-001 2.579820e-001 6.265624e-001 1.099551e+000 2.178138e+000 2.064926e+000 1.625293e+000 2.767659e+000 1.578123e+000 2.255783e+000 1.381549e+000 1.450799e+000 6.189397e-002 1.490405e-002 4.280325e-002 7.853968e-002 1.015997e-001 3.679807e-001 4.046163e-001 2.568683e-001 3.275997e-001 3.076137e-001 3.736837e-001 2.527561e-001 2.307623e-001 1.269227e-002
<GCONST> 7.751534e+001
<MIXTURE> 2 3.168282e-001
<MEAN> 39
 -1.267838e+001 -2.039858e+001 -9.488930e+000 -1.364296e+001 -9.947740e+000 -1.014964e+001 -5.445272e+000 9.678651e+000 8.103847e+000 -1.463301e+000 -2.084689e+000 2.341542e+000 8.113347e+001 4.208668e-001 2.698574e-001 -2.010890e-001 -8.240837e-001 -6.540076e-001 -5.280802e-001 -5.638993e-002 3.387864e-001 3.783675e-001 3.689529e-001 2.043350e-001 8.574395e-003 2.112893e-001 -1.288789e-001 -5.699517e-002 1.066105e-001 2.337929e-001 1.385888e-001 1.434073e-001 -5.158738e-002 -1.159499e-001 -2.814821e-002 -1.057138e-001 -1.257797e-001 -1.828404e-002 -7.281455e-002
<VARIANCE> 39
 3.685645e+000 8.624369e+000 1.108304e+001 1.775317e+001 2.262297e+001 1.730371e+001 2.305515e+001 2.875208e+001 2.622561e+001 1.907171e+001 2.947338e+001 2.069192e+001 3.685911e+000 2.055738e-001 2.282236e-001 5.810771e-001 1.133650e+000 1.322703e+000 1.515580e+000 1.006299e+000 9.337806e-001 1.191135e+000 1.004866e+000 1.257153e+000 1.070018e+000 7.655954e-002 2.805259e-002 4.181275e-002 1.043496e-001 1.501789e-001 1.894135e-001 1.829027e-001 1.920133e-001 2.210457e-001 2.181180e-001 1.697594e-001 1.582580e-001 1.952703e-001 1.007414e-002
<GCONST> 7.308328e+001
<MIXTURE> 3 1.547093e-001
<MEAN> 39
 -8.559089e+000 -1.764060e+001 -7.667962e+000 -1.412613e+001 -8.863987e+000 -5.215375e+000 -5.972978e+000 3.202192e+000 1.238194e-001 -1.327953e+001 -1.644114e+001 -5.698533e+000 7.965998e+001 7.986676e-002 -1.863557e-001 -2.880449e-002 -2.860462e-001 -1.446494e-001 2.953366e-001 1.259951e-001 2.860758e-001 3.278089e-001 5.618243e-001 6.335676e-001 4.101777e-001 3.808633e-002 -1.421455e-001 -4.368194e-002 1.959867e-002 2.004763e-001 9.478302e-002 -1.122559e-001 -7.042398e-002 -4.627745e-002 8.038908e-002 4.704565e-002 1.421498e-002 3.364319e-002 -5.024294e-002
<VARIANCE> 39
 2.168622e+000 7.105764e+000 1.018151e+001 1.246451e+001 4.923405e+000 9.079035e+000 1.121200e+001 1.152518e+001 1.513813e+001 1.564383e+001 1.190804e+001 8.135566e+000 2.207821e+000 1.675831e-001 1.935020e-001 5.167221e-001 5.693987e-001 3.939859e-001 8.231387e-001 1.080476e+000 1.110074e+000 8.215790e-001 1.220550e+000 1.138342e+000 9.566668e-001 6.215570e-002 2.732555e-002 3.070137e-002 1.042030e-001 1.033242e-001 9.698912e-002 1.375336e-001 1.796796e-001 2.720999e-001 1.354887e-001 3.136832e-001 2.076487e-001 2.079200e-001 7.437562e-003
<GCONST> 6.031158e+001
<MIXTURE> 4 3.100682e-001
<MEAN> 39
 -1.842088e+001 -2.494328e+001 -8.947716e+000 -6.674711e+000 -2.978785e+000 -3.674223e-001 3.432287e+000 1.186162e+001 1.313625e+000 -6.759807e+000 -8.269842e-001 -9.202040e-001 7.392282e+001 5.165031e-002 6.283814e-002 5.032740e-003 -1.759051e-002 -1.145901e-001 7.719247e-002 -4.458091e-003 6.199563e-002 1.228187e-002 -1.058641e-001 -1.097528e-001 -8.079105e-002 -6.553152e-002 3.436042e-003 4.668828e-003 1.697117e-002 8.344971e-003 3.523798e-003 -4.641453e-003 -1.471573e-002 -6.873159e-003 1.819060e-002 -2.903333e-004 2.855930e-003 2.449829e-002 -2.716756e-004
<VARIANCE> 39
 2.413272e+000 3.365122e+000 8.257773e+000 6.422458e+000 1.576438e+001 1.392056e+001 1.213675e+001 2.067461e+001 1.703890e+001 1.422557e+001 1.219415e+001 1.045572e+001 1.209090e+000 1.466546e-001 2.506116e-001 5.130605e-001 4.243653e-001 9.471290e-001 7.201466e-001 1.060239e+000 1.125647e+000 1.070248e+000 1.260914e+000 1.027863e+000 8.127407e-001 5.015580e-002 2.805355e-002 4.550041e-002 1.014634e-001 6.771098e-002 1.814914e-001 1.453991e-001 2.095085e-001 2.221063e-001 1.814484e-001 2.582955e-001 1.603632e-001 1.470663e-001 8.998405e-003
<GCONST> 6.141582e+001
<STATE> 9
<NUMMIXES> 4
<MIXTURE> 1 4.650601e-001
<MEAN> 39
 -1.146128e+001 -2.050239e+001 -7.055073e+000 -1.481696e+001 -1.252894e+001 -7.603145e+000 -7.771619e+000 7.126617e+000 1.783334e+001 3.277075e+000 -1.270349e+001 -4.257621e+000 8.239424e+001 -3.615847e-002 1.341320e-002 2.259458e-001 1.010622e-001 -2.898992e-001 -3.308049e-001 -5.158596e-001 -2.570156e-001 -4.351420e-002 1.650066e-001 1.534639e-001 2.015415e-001 2.051292e-002 -6.537466e-002 -5.632954e-002 5.045766e-003 7.225952e-002 5.537965e-002 8.307867e-004 -4.346688e-002 -1.453261e-001 -1.520279e-001 -1.288734e-001 7.691850e-002 9.321506e-002 -4.340302e-002
<VARIANCE> 39
 3.026202e+000 4.880457e+000 7.325328e+000 8.117075e+000 2.331637e+001 2.693835e+001 1.895437e+001 3.000135e+001 2.156187e+001 1.625570e+001 2.471631e+001 1.449310e+001 5.223782e+000 1.269059e-001 2.036187e-001 4.304520e-001 7.076411e-001 9.354375e-001 9.772937e-001 9.810042e-001 1.482070e+000 1.386490e+000 1.420976e+000 1.330912e+000 9.203722e-001 5.146533e-002 2.243249e-002 3.169823e-002 8.259746e-002 9.749836e-002 1.524586e-001 1.757676e-001 1.707061e-001 2.565287e-001 2.463992e-001 2.492184e-001 2.731994e-001 1.673604e-001 8.932072e-003
<GCONST> 6.857722e+001
<MIXTURE> 2 1.523612e-001
<MEAN> 39
 -9.069143e+000 -1.461646e+001 -1.079663e+001 -2.169133e+001 -1.802311e+001 -5.451792e+000 -1.985215e+000 9.462432e+000 1.016144e+001 -5.614173e+000 -2.601918e+000 1.126397e+000 7.857685e+001 2.429985e-002 5.030250e-002 2.175266e-001 1.159927e-002 -2.727344e-001 -4.336749e-001 -5.828276e-001 2.174791e-001 1.002957e-001 -8.262139e-002 6.291044e-002 1.493762e-001 -1.380363e-001 -5.411177e-002 -1.431254e-002 4.481097e-002 2.201641e-001 1.345958e-001 -1.369006e-003 -4.202609e-002 -9.449485e-002 -5.430501e-002 -6.729694e-003 -4.312734e-002 -1.570674e-002 -3.274871e-002
<VARIANCE> 39
 1.310229e+001 3.714257e+001 5.851618e+000 2.412900e+001 2.966300e+001 2.984777e+001 2.692640e+001 1.386874e+001 2.947367e+001 1.286488e+001 3.898183e+001 1.023477e+001 1.765904e+001 1.623497e-001 3.078102e-001 4.028912e-001 6.267818e-001 4.248587e-001 7.907992e-001 6.286812e-001 1.546644e+000 7.406037e-001 1.010066e+000 6.745740e-001 5.830176e-001 5.440772e-002 1.947628e-002 6.858508e-002 9.421244e-002 1.273493e-001 9.805301e-002 1.783433e-001 1.152461e-001 2.114834e-001 1.570817e-001 2.144353e-001 1.287017e-001 1.052910e-001 1.141361e-002
<GCONST> 6.972894e+001
<MIXTURE> 3 6.406533e-002
<MEAN> 39
 -1.773466e+001 -2.139118e+001 -6.641502e+000 -1.053859e+001 -5.920243e+000 2.674847e+000 2.415812e+000 1.162517e+001 7.536093e+000 -9.640355e+000 -2.168374e+000 -7.110432e-001 7.101741e+001 3.895460e-003 2.416711e-001 7.591814e-002 -2.707312e-001 -7.846539e-002 2.476380e-001 -1.346258e-001 -1.591364e-001 1.414366e-001 -6.709711e-002 7.356202e-002 2.166802e-001 -8.453745e-002 -1.030189e-003 -2.295543e-003 -1.765519e-002 -1.130001e-002 1.355867e-002 4.283090e-002 6.062571e-003 -6.305984e-002 -4.751101e-002 -5.106803e-004 2.426474e-002 6.774367e-003 2.629583e-003
<VARIANCE> 39
 1.016456e+000 6.828624e+000 4.724162e+000 7.184636e+000 5.138003e+000 7.495344e+000 4.796050e+000 1.113827e+001 1.021043e+001 1.822478e+001 1.077055e+001 5.313761e+000 1.388828e+000 1.099956e-001 6.420637e-001 3.612984e-001 4.750761e-001 5.063932e-001 3.967653e-001 5.623158e-001 8.003053e-001 7.358317e-001 7.940620e-001 8.333690e-001 5.014091e-001 4.822499e-002 2.044335e-002 1.531739e-001 6.939829e-002 1.102704e-001 9.376153e-002 8.151827e-002 1.078843e-001 1.004916e-001 7.245797e-002 9.089268e-002 1.159493e-001 9.884017e-002 7.020932e-003
<GCONST> 4.862450e+001
<MIXTURE> 4 3.185134e-001
<MEAN> 39
 -1.263199e+001 -2.010888e+001 -4.210605e+000 -1.148363e+001 -7.998641e+000 -8.217865e+000 -1.214929e+001 -1.829989e+000 9.665795e+000 -4.552440e+000 -1.181629e+001 -2.116345e+000 8.042858e+001 -1.491498e-001 -1.838965e-002 2.803382e-001 5.243266e-001 2.168390e-001 -2.648843e-001 -3.847050e-001 -9.852654e-002 4.018871e-002 3.005039e-001 1.838840e-002 2.320106e-001 2.362044e-002 -8.997566e-003 9.668113e-003 7.401029e-002 5.657612e-002 3.643499e-003 3.606855e-002 2.539513e-002 1.536424e-001 1.777049e-001 1.338746e-001 -1.833003e-002 -5.997932e-002 2.257373e-003
<VARIANCE> 39
 1.996314e+000 4.277748e+000 1.282076e+001 2.926945e+001 1.069376e+001 2.375310e+001 2.209326e+001 2.362926e+001 2.273342e+001 3.054403e+001 1.625360e+001 1.237743e+001 1.629216e+000 8.358925e-002 1.897736e-001 3.539192e-001 5.137163e-001 6.511632e-001 1.035481e+000 9.877732e-001 1.205006e+000 1.515288e+000 1.310513e+000 1.069820e+000 6.580686e-001 3.828517e-002 1.869379e-002 3.593361e-002 6.288975e-002 1.320525e-001 1.446230e-001 1.751550e-001 1.632227e-001 2.077653e-001 2.894040e-001 2.688052e-001 2.024402e-001 1.266862e-001 6.453654e-003
<GCONST> 6.446742e+001
<STATE> 10
<NUMMIXES> 4
<MIXTURE> 1 4.058239e-001
<MEAN> 39
 -1.389370e+001 -2.088069e+001 -1.547651e+000 -6.862241e+000 -9.791553e+000 -8.740068e+000 -1.441044e+001 8.254598e-001 1.532467e+001 3.731208e+000 -1.209789e+001 -2.723292e+000 8.155199e+001 -4.173172e-001 -3.032174e-001 1.987455e-001 6.597511e-001 3.110692e-001 2.619770e-001 -3.895878e-002 -2.155213e-001 1.437005e-003 4.615258e-002 -6.078774e-002 -1.392022e-002 -2.125984e-001 -3.234025e-002 -4.505073e-002 -1.368030e-001 -9.687609e-002 3.297058e-002 9.368474e-002 2.412848e-001 8.888863e-002 -1.032620e-001 -6.463275e-002 2.681132e-002 2.856910e-002 -2.127516e-002
<VARIANCE> 39
 2.589737e+000 4.180077e+000 8.527892e+000 1.595273e+001 2.652985e+001 2.296125e+001 1.697636e+001 2.472022e+001 2.610171e+001 3.186035e+001 3.075664e+001 2.018555e+001 2.117569e+000 1.235603e-001 2.269964e-001 5.853162e-001 6.508093e-001 1.216774e+000 1.486872e+000 1.481719e+000 1.359214e+000 2.346699e+000 2.241661e+000 1.884252e+000 1.779166e+000 3.948161e-002 2.360267e-002 3.773906e-002 9.716013e-002 9.158812e-002 2.215764e-001 2.757440e-001 2.264657e-001 2.324184e-001 4.540228e-001 4.385594e-001 3.475643e-001 3.538863e-001 7.119793e-003
<GCONST> 7.558099e+001
<MIXTURE> 2 3.180133e-001
<MEAN> 39
 -1.338392e+001 -2.061279e+001 -8.468849e+000 -1.220044e+001 -1.257434e+001 -1.247339e+001 -6.862715e+000 1.134787e+001 8.936544e+000 -2.210170e+000 1.809091e+000 6.233292e+000 8.072521e+001 -1.659929e-001 -5.317867e-002 3.690518e-001 4.617132e-001 9.052790e-002 -2.659518e-001 -3.088205e-001 -3.731497e-001 -2.929650e-001 2.354429e-002 3.564434e-001 3.144941e-001 -1.678238e-001 -1.294078e-002 2.165071e-003 6.284817e-002 9.175809e-002 7.229285e-002 6.728964e-002 -3.383548e-002 -4.915839e-002 5.253310e-002 6.340742e-002 -5.267583e-002 -1.295503e-001 -2.037354e-002
<VARIANCE> 39
 7.404061e+000 8.017897e+000 9.556990e+000 1.007873e+001 1.255357e+001 1.212243e+001 1.569425e+001 1.366661e+001 1.490757e+001 2.835664e+001 3.362623e+001 1.690328e+001 2.380024e+000 1.419068e-001 2.182667e-001 4.234262e-001 7.019508e-001 8.688909e-001 6.840824e-001 1.264245e+000 1.085765e+000 1.419983e+000 1.281553e+000 1.307186e+000 1.111103e+000 5.914809e-002 2.075750e-002 3.555925e-002 6.891257e-002 1.110893e-001 1.865946e-001 1.513299e-001 1.450627e-001 1.647580e-001 3.273976e-001 2.443539e-001 1.935713e-001 2.019580e-001 8.324207e-003
<GCONST> 6.729063e+001
<MIXTURE> 3 5.450663e-002
<MEAN> 39
 -1.113561e+001 -2.008483e+001 -7.374024e+000 -1.403814e+001 -6.795822e+000 -3.610287e+000 -3.615356e+000 8.898408e+000 6.753572e+000 -1.021099e+001 -9.893831e+000 -1.926147e+000 7.861803e+001 -8.723960e-001 -5.473605e-001 2.500325e-001 1.172993e+000 8.876852e-001 -1.886146e-001 -5.687891e-001 -1.291445e-002 3.238570e-002 -2.114429e-001 -5.428779e-002 -1.117608e-001 -2.895972e-001 -1.403400e-001 -1.563828e-001 1.496261e-002 2.339613e-001 1.071847e-002 3.598283e-002 -1.169664e-001 -2.461983e-001 -1.580068e-001 9.161680e-002 -8.457467e-002 9.921068e-002 -5.839983e-002
<VARIANCE> 39
 7.161309e+000 3.443132e+000 1.505367e+000 1.022326e+001 8.263269e+000 2.091412e+001 1.162253e+001 8.093528e+000 8.833616e+000 1.334414e+001 1.857599e+001 1.604639e+001 8.964878e+000 1.784242e-001 2.168794e-001 2.380891e-001 5.788537e-001 3.094988e-001 2.433830e+000 9.957924e-001 1.186695e+000 8.219744e-001 1.494630e+000 1.151893e+000 9.617697e-001 2.469865e-002 4.172701e-002 3.830931e-002 3.457689e-002 5.341484e-002 6.566740e-002 4.388484e-001 1.319463e-001 1.684676e-001 1.883764e-001 3.537154e-001 3.281349e-001 1.534405e-001 6.767282e-003
<GCONST> 6.045057e+001
<MIXTURE> 4 2.216563e-001
<MEAN> 39
 -1.168266e+001 -1.871662e+001 -5.830637e+000 -1.363793e+001 -1.743954e+001 -1.550599e+001 -1.280896e+001 -3.402728e-001 9.477032e+000 -2.372822e-001 -3.829668e+000 -5.937578e-001 7.971983e+001 -3.764641e-001 -2.490882e-001 2.370306e-001 7.696053e-001 5.959876e-001 2.472698e-001 -1.524073e-001 -3.840572e-001 -4.120927e-001 -4.055492e-001 -3.069519e-001 -1.743830e-001 -3.059253e-001 -1.498038e-001 -1.239370e-001 7.028897e-003 2.110769e-001 4.503353e-001 4.740197e-001 3.515724e-001 1.632853e-001 -8.562357e-003 -6.816573e-002 -1.568049e-001 -5.832228e-002 -3.804734e-002
<VARIANCE> 39
 5.973702e+000 1.543536e+001 1.302664e+001 1.728473e+001 1.484491e+001 2.227675e+001 2.147404e+001 4.518914e+001 3.540383e+001 3.993697e+001 3.361616e+001 3.319702e+001 1.086410e+001 4.036272e-001 3.537863e-001 4.948522e-001 8.144799e-001 1.605906e+000 1.615344e+000 5.840155e-001 1.292084e+000 1.621307e+000 1.334700e+000 1.868170e+000 1.432299e+000 1.163652e-001 3.179404e-002 4.454680e-002 1.087163e-001 1.237096e-001 1.523231e-001 1.809341e-001 1.452150e-001 3.003761e-001 2.835519e-001 2.731739e-001 2.817496e-001 3.104486e-001 1.034182e-002
<GCONST> 8.121758e+001
<STATE> 11
<NUMMIXES> 4
<MIXTURE> 1 3.996110e-001
<MEAN> 39
 -1.640612e+001 -2.319340e+001 -2.194861e+000 -5.251281e+000 -7.261996e+000 -6.104000e+000 -1.099963e+001 2.308319e-001 1.557276e+001 5.271195e+000 -1.041655e+001 -3.931817e+000 8.012915e+001 -1.944034e-001 -1.399740e-001 1.566037e-001 2.870151e-001 3.812086e-001 2.770710e-001 2.322028e-001 1.492249e-001 4.866100e-002 4.253352e-001 1.593123e-001 -2.609884e-001 -5.856398e-002 8.017698e-002 8.463231e-002 3.258702e-003 -7.381594e-002 -1.195957e-001 -1.334608e-001 -1.191803e-001 1.991207e-002 1.560054e-002 1.550112e-003 7.777170e-004 2.534610e-002 4.245177e-002
<VARIANCE> 39
 1.406835e+000 2.338317e+000 6.584675e+000 1.990016e+001 1.877326e+001 1.336629e+001 2.513243e+001 2.331310e+001 1.189009e+001 1.393774e+001 3.450836e+001 1.594068e+001 1.717368e+000 1.616550e-001 2.699118e-001 5.834539e-001 1.055837e+000 1.172051e+000 1.082696e+000 1.084436e+000 1.076741e+000 1.013816e+000 1.682407e+000 1.583154e+000 1.167846e+000 6.174051e-002 2.501235e-002 4.240017e-002 1.175268e-001 2.110058e-001 1.580879e-001 1.689732e-001 1.923698e-001 1.920780e-001 1.926884e-001 3.080874e-001 3.426821e-001 2.057376e-001 1.020988e-002
<GCONST> 6.921616e+001
<MIXTURE> 2 1.449173e-001
<MEAN> 39
 -1.548133e+001 -2.209513e+001 -5.457845e+000 -7.312219e+000 -8.224320e+000 -1.085584e+001 -7.837203e+000 7.321104e+000 6.769393e+000 -3.688179e+000 -5.708404e-001 4.213606e+000 7.826178e+001 -9.772858e-001 -8.998781e-001 6.864774e-002 1.241590e+000 1.947614e+000 2.065943e+000 1.117314e+000 -2.484146e-002 -6.218395e-001 -7.307127e-001 -5.025918e-001 -4.179961e-001 -4.746248e-001 -6.181070e-002 -1.189086e-001 -6.729064e-002 -9.372521e-003 2.248019e-001 2.289884e-001 2.197621e-001 6.423403e-002 -1.400493e-001 -1.298249e-001 -9.315539e-002 -1.009282e-001 -1.458275e-002
<VARIANCE> 39
 5.119289e+000 5.492932e+000 8.346005e+000 1.026665e+001 1.251264e+001 1.642502e+001 2.872760e+001 2.877579e+001 2.185686e+001 2.456704e+001 4.954901e+001 1.996341e+001 1.733901e+000 2.961601e-001 4.532633e-001 5.710720e-001 1.181731e+000 1.222064e+000 7.728085e-001 1.462663e+000 1.219711e+000 1.808028e+000 1.593252e+000 1.586183e+000 1.392115e+000 9.989172e-002 2.096632e-002 6.151664e-002 6.872308e-002 1.470868e-001 1.486098e-001 2.576006e-001 2.957721e-001 2.312610e-001 3.613707e-001 2.742337e-001 2.558828e-001 2.714489e-001 1.085451e-002
<GCONST> 7.621262e+001
<MIXTURE> 3 1.362133e-001
<MEAN> 39
 -1.863394e+001 -1.839827e+001 -6.332766e+000 -1.267268e+001 -7.857418e+000 5.780110e+000 -1.964165e+000 5.683332e+000 4.484719e+000 -1.613752e+001 -4.488462e+000 3.362808e+000 6.914220e+001 -1.446010e-001 6.996667e-003 7.316757e-002 2.554845e-001 2.787816e-001 1.650532e-001 -2.239931e-001 -1.968416e-001 2.567872e-002 -1.247906e-001 -2.291404e-001 1.491682e-001 -6.687371e-002 3.228550e-002 3.952781e-002 2.999866e-002 -1.508307e-002 -3.924321e-002 -1.220475e-001 -1.478681e-002 4.954235e-002 2.137422e-002 7.249193e-002 -6.214505e-002 2.467193e-003 1.462590e-002
<VARIANCE> 39
 1.395574e+000 3.365087e+000 5.214377e+000 5.245375e+000 1.466239e+001 1.273440e+001 1.541917e+001 1.705865e+001 1.977428e+001 2.199706e+001 1.732249e+001 1.586943e+001 6.802439e-001 1.230665e-001 1.980495e-001 2.704885e-001 6.209295e-001 9.423158e-001 1.144271e+000 1.395014e+000 1.212253e+000 1.378904e+000 1.899981e+000 1.388845e+000 1.182410e+000 4.157340e-002 1.476977e-002 3.375335e-002 3.546169e-002 8.473420e-002 9.095994e-002 1.017929e-001 2.792896e-001 2.354088e-001 2.712947e-001 3.911749e-001 2.914462e-001 1.846487e-001 8.046837e-003
<GCONST> 6.121894e+001
<MIXTURE> 4 3.192585e-001
<MEAN> 39
 -1.804762e+001 -2.503644e+001 -5.458620e+000 -3.904565e+000 -1.707367e+000 -4.587944e+000 -5.389952e+000 7.454312e+000 4.236198e+000 -7.567522e+000 -4.407993e+000 1.717402e+000 7.692487e+001 -4.253567e-001 -4.107476e-001 -6.056296e-002 4.928145e-001 7.983283e-001 6.363853e-001 5.108975e-001 2.529955e-001 6.446282e-002 1.421039e-001 2.309941e-001 2.901197e-001 -2.139410e-001 1.507518e-001 1.648340e-001 -1.507706e-002 -2.113108e-001 -3.077343e-001 -2.503815e-001 -1.346503e-001 8.227162e-003 1.149224e-001 1.370652e-001 9.854946e-002 8.801991e-002 7.543828e-002
<VARIANCE> 39
 2.372998e+000 3.303771e+000 9.817910e+000 1.209661e+001 1.385338e+001 9.415722e+000 1.755719e+001 1.650045e+001 2.047288e+001 1.511708e+001 4.034433e+001 1.749312e+001 1.306693e+000 2.726805e-001 4.258649e-001 3.846465e-001 6.848505e-001 1.111477e+000 1.127302e+000 1.249221e+000 1.345488e+000 2.007246e+000 1.856164e+000 1.550180e+000 2.058445e+000 7.077618e-002 4.203029e-002 6.170859e-002 6.799589e-002 1.483102e-001 1.815233e-001 1.471883e-001 1.850169e-001 1.765835e-001 4.304941e-001 2.927322e-001 2.634092e-001 3.293963e-001 1.352504e-002
<GCONST> 7.228589e+001
<TRANSP> 12
 0.000000e+000 1.000000e+000 0.000000e+000 0.000000e+000 0.000000e+000 0.000000e+000 0.000000e+000 0.000000e+000 0.000000e+000 0.000000e+000 0.000000e+000 0.000000e+000
 0.000000e+000 8.993130e-001 1.006870e-001 0.000000e+000 0.000000e+000 0.000000e+000 0.000000e+000 0.000000e+000 0.000000e+000 0.000000e+000 0.000000e+000 0.000000e+000
 0.000000e+000 0.000000e+000 8.433515e-001 1.566485e-001 0.000000e+000 0.000000e+000 0.000000e+000 0.000000e+000 0.000000e+000 0.000000e+000 0.000000e+000 0.000000e+000
 0.000000e+000 0.000000e+000 0.000000e+000 8.608128e-001 1.391872e-001 0.000000e+000 0.000000e+000 0.000000e+000 0.000000e+000 0.000000e+000 0.000000e+000 0.000000e+000
 0.000000e+000 0.000000e+000 0.000000e+000 0.000000e+000 8.285277e-001 1.714723e-001 0.000000e+000 0.000000e+000 0.000000e+000 0.000000e+000 0.000000e+000 0.000000e+000
 0.000000e+000 0.000000e+000 0.000000e+000 0.000000e+000 0.000000e+000 8.839831e-001 1.160169e-001 0.000000e+000 0.000000e+000 0.000000e+000 0.000000e+000 0.000000e+000
 0.000000e+000 0.000000e+000 0.000000e+000 0.000000e+000 0.000000e+000 0.000000e+000 7.880471e-001 2.119529e-001 0.000000e+000 0.000000e+000 0.000000e+000 0.000000e+000
 0.000000e+000 0.000000e+000 0.000000e+000 0.000000e+000 0.000000e+000 0.000000e+000 0.000000e+000 8.396516e-001 1.603484e-001 0.000000e+000 0.000000e+000 0.000000e+000
 0.000000e+000 0.000000e+000 0.000000e+000 0.000000e+000 0.000000e+000 0.000000e+000 0.000000e+000 0.000000e+000 8.931748e-001 1.068252e-001 0.000000e+000 0.000000e+000
 0.000000e+000 0.000000e+000 0.000000e+000 0.000000e+000 0.000000e+000 0.000000e+000 0.000000e+000 0.000000e+000 0.000000e+000 8.682893e-001 1.317107e-001 0.000000e+000
 0.000000e+000 0.000000e+000 0.000000e+000 0.000000e+000 0.000000e+000 0.000000e+000 0.000000e+000 0.000000e+000 0.000000e+000 0.000000e+000 8.566154e-001 1.433846e-001
 0.000000e+000 0.000000e+000 0.000000e+000 0.000000e+000 0.000000e+000 0.000000e+000 0.000000e+000 0.000000e+000 0.000000e+000 0.000000e+000 0.000000e+000 0.000000e+000
<ENDHMM>
