~o
<STREAMINFO> 1 39
<VECSIZE> 39<NULLD><MFCC_D_A_0><DIAGC>
~h "qi_arm_l"
<BEGINHMM>
<NUMSTATES> 6
<STATE> 2
<NUMMIXES> 4
<MIXTURE> 1 2.845210e-001
<MEAN> 39
 -3.062532e+001 4.564104e+000 -1.125763e+001 -7.683632e+000 -6.032008e+000 -3.180349e+000 -4.710363e-001 2.629633e+000 2.308543e+000 -5.693626e-001 -6.975400e+000 4.809616e+000 7.702038e+001 -1.594054e-001 8.969913e-002 5.324127e-001 -3.276371e-002 2.586229e-002 -3.241977e-001 -6.252108e-002 -2.422227e-001 -2.977511e-001 6.587833e-002 6.451218e-002 -2.916111e-001 2.176468e-001 2.248423e-001 -2.851982e-001 4.247474e-002 -3.907186e-002 -2.514689e-001 -1.867046e-002 -2.124343e-001 -1.209153e-001 -1.671179e-001 -2.894922e-001 -8.699971e-002 -5.922385e-002 -1.041578e-001
<VARIANCE> 39
 7.045574e+000 1.728056e+001 3.618884e+001 4.742667e+001 4.315489e+001 2.587523e+001 1.874701e+001 2.511782e+001 3.142635e+001 1.843226e+001 1.977821e+001 2.027060e+001 3.619539e+000 3.723135e-001 1.018866e+000 6.417367e-001 1.010519e+000 1.852482e+000 1.311880e+000 1.119476e+000 1.397760e+000 1.333940e+000 1.771955e+000 1.248387e+000 1.132730e+000 1.833141e-001 5.393014e-002 1.029019e-001 1.369154e-001 1.779579e-001 2.225786e-001 2.043424e-001 2.366083e-001 3.559553e-001 3.005227e-001 3.087721e-001 2.335503e-001 2.562702e-001 1.630039e-002
<GCONST> 8.640187e+001
<MIXTURE> 2 2.783035e-001
<MEAN> 39
 -2.238991e+001 -6.637217e+000 -1.192832e+001 -1.123242e+001 -1.391237e+001 3.759178e-001 -4.167378e+000 7.893912e-001 2.720152e+000 -9.039346e+000 -1.191656e+001 2.050198e+000 7.619241e+001 2.074853e-001 -8.152586e-002 3.203313e-001 -2.415655e-001 -7.703330e-002 -2.520358e-001 -1.091866e-001 -4.449687e-001 -2.874738e-001 -1.886277e-001 1.099805e-001 -3.618730e-002 6.675633e-002 1.720807e-001 -1.002923e-001 1.576797e-001 -1.174878e-001 -6.656975e-002 -8.468343e-002 -1.482407e-001 -8.149838e-002 -1.836858e-002 -7.470444e-002 1.610670e-001 -3.833012e-002 -2.765278e-002
<VARIANCE> 39
 6.946941e+000 1.745781e+001 2.216238e+001 2.683583e+001 2.326562e+001 5.830279e+001 3.265347e+001 1.882127e+001 1.848759e+001 2.180866e+001 1.976445e+001 1.884411e+001 5.447498e+000 4.828530e-001 3.283170e-001 4.819701e-001 7.641381e-001 9.248479e-001 1.375112e+000 1.154837e+000 1.236500e+000 1.524016e+000 1.540454e+000 1.591271e+000 1.033106e+000 5.261860e-002 4.235778e-002 5.340998e-002 9.310517e-002 1.278856e-001 1.756830e-001 2.260999e-001 2.232708e-001 2.422892e-001 3.116665e-001 2.650179e-001 1.908775e-001 1.503288e-001 8.379803e-003
<GCONST> 7.878185e+001
<MIXTURE> 3 2.305213e-001
<MEAN> 39
 -2.519883e+001 -2.740048e+000 -1.534673e+001 -5.717421e+000 -1.481425e+001 3.194562e+000 -4.589713e+000 3.689592e+000 3.510774e+000 -5.899509e+000 -7.361660e+000 6.267490e+000 7.355544e+001 -8.480680e-001 1.761378e+000 -4.816102e-001 8.670611e-001 6.215118e-001 1.418090e-002 1.048626e+000 1.740823e-001 1.974167e-001 5.778158e-001 -4.580862e-001 1.637376e-001 6.700677e-001 1.033572e-001 -2.214554e-001 2.490189e-001 -2.801306e-001 1.863727e-001 -1.973362e-001 4.449293e-002 -1.594495e-001 1.135959e-001 -9.940019e-002 9.414992e-002 -1.817473e-001 -5.274159e-002
<VARIANCE> 39
 7.170644e+000 1.824863e+001 1.041909e+001 3.734759e+001 2.671161e+001 3.493712e+001 2.952197e+001 1.827287e+001 1.839861e+001 2.937451e+001 3.131721e+001 1.822199e+001 5.530396e+000 4.102677e-001 1.140505e+000 9.393525e-001 1.551640e+000 1.250679e+000 1.525616e+000 1.269880e+000 1.587266e+000 1.251919e+000 1.435859e+000 9.283600e-001 1.199364e+000 1.502696e-001 4.179120e-002 1.158043e-001 1.197631e-001 1.910575e-001 2.315215e-001 2.660689e-001 3.213769e-001 2.646790e-001 2.727523e-001 3.177229e-001 2.588390e-001 1.863644e-001 1.544399e-002
<GCONST> 8.574903e+001
<MIXTURE> 4 2.066542e-001
<MEAN> 39
 -1.924958e+001 -1.200158e+001 -8.704179e+000 -1.493096e+001 -1.386257e+001 -1.294151e+000 -4.981534e+000 2.048581e+000 5.360763e+000 -1.079747e+001 -8.056968e+000 1.257063e+000 7.328822e+001 -6.352897e-001 1.030315e+000 -6.815656e-001 5.058783e-001 -2.062187e-001 -9.037690e-002 6.746379e-002 7.412001e-002 -2.545392e-001 7.497822e-001 -6.331425e-001 5.129629e-001 4.570822e-001 -1.349947e-001 1.749991e-001 -5.501181e-002 1.435625e-001 8.294642e-002 5.609512e-002 1.386382e-001 3.685889e-002 -3.311904e-003 9.902035e-002 1.534162e-002 9.619512e-002 6.598368e-002
<VARIANCE> 39
 1.118259e+001 1.006791e+001 1.120364e+001 2.524346e+001 1.364468e+001 3.603804e+001 2.563474e+001 2.126703e+001 2.080244e+001 2.450939e+001 3.532649e+001 2.617090e+001 8.878127e+000 3.341104e-001 7.899422e-001 6.499915e-001 1.204777e+000 8.464109e-001 1.362132e+000 1.167266e+000 1.635642e+000 1.507555e+000 1.576257e+000 1.724796e+000 1.215122e+000 1.070169e-001 2.893687e-002 7.755712e-002 6.447668e-002 1.416899e-001 9.686874e-002 1.612668e-001 1.940300e-001 3.147707e-001 2.472089e-001 2.115913e-001 2.189004e-001 1.855521e-001 1.484373e-002
<GCONST> 8.026088e+001
<STATE> 3
<NUMMIXES> 4
<MIXTURE> 1 2.645696e-001
<MEAN> 39
 -2.381732e+001 -3.413103e+000 -9.492273e+000 -1.010449e+001 -1.305002e+001 -2.392605e+000 -4.285267e+000 -9.994105e-001 1.407220e+000 -7.586187e+000 -8.828629e+000 2.030463e+000 7.633002e+001 1.662236e+000 -1.786472e-001 1.538225e+000 -3.263730e-001 -1.069709e+000 -1.478205e+000 -1.938474e+000 -2.027102e+000 -1.679186e+000 -1.620838e+000 -4.012739e-001 -9.842600e-001 1.229522e-001 3.739092e-001 1.521785e-001 5.039846e-001 -5.221612e-002 -3.517838e-001 -3.970481e-001 -3.983211e-001 -4.430306e-001 -3.727635e-001 -1.754839e-001 -1.318559e-001 -2.648104e-001 1.366645e-001
<VARIANCE> 39
 2.726309e+001 3.105977e+001 3.066585e+001 2.809691e+001 3.328558e+001 2.749899e+001 3.236071e+001 2.572308e+001 2.693141e+001 3.806092e+001 2.472083e+001 2.388400e+001 4.980263e+000 5.382815e-001 5.716133e-001 1.194071e+000 2.315548e+000 1.878120e+000 2.277331e+000 2.162148e+000 2.276546e+000 2.389189e+000 2.479501e+000 2.176863e+000 1.813901e+000 1.280361e-001 1.195285e-001 7.845415e-002 1.140376e-001 2.696389e-001 2.791595e-001 2.378739e-001 4.693873e-001 4.177651e-001 4.045222e-001 5.347739e-001 4.200991e-001 2.758035e-001 1.527946e-002
<GCONST> 9.726222e+001
<MIXTURE> 2 2.533104e-001
<MEAN> 39
 -1.675720e+001 -4.052623e+000 1.364328e+000 -9.306236e+000 -1.921302e+001 -9.324749e+000 -1.081295e+001 -8.913720e+000 -7.018652e+000 -1.382410e+001 -7.953206e+000 -2.085738e+000 7.891000e+001 1.289920e+000 -2.678023e-001 1.553057e+000 2.954227e-002 -1.636477e+000 -8.021802e-001 -1.052421e+000 -9.022173e-001 -7.262308e-001 -6.563192e-001 6.435133e-001 -8.532405e-001 4.093699e-001 -3.326826e-001 -1.295832e-001 -3.125341e-001 -1.979958e-001 2.156672e-001 3.228100e-001 4.524474e-001 5.748730e-001 5.276341e-001 4.377061e-001 3.592444e-002 1.611991e-001 -1.627850e-002
<VARIANCE> 39
 1.824949e+001 2.434453e+001 3.819033e+001 2.095180e+001 3.489597e+001 3.205916e+001 4.758098e+001 2.996958e+001 3.228997e+001 4.690372e+001 6.158612e+001 4.763344e+001 1.063384e+001 7.510562e-001 7.123656e-001 1.315658e+000 1.608107e+000 2.441744e+000 2.078750e+000 2.970918e+000 3.170117e+000 3.621944e+000 2.434478e+000 2.085897e+000 2.077549e+000 1.840408e-001 5.245252e-002 5.426781e-002 1.204318e-001 1.540991e-001 2.464038e-001 3.212493e-001 2.479971e-001 4.069629e-001 4.324830e-001 2.670077e-001 3.139501e-001 3.509995e-001 1.963164e-002
<GCONST> 9.938051e+001
<MIXTURE> 3 3.338236e-001
<MEAN> 39
 -1.522696e+001 -3.305029e+000 -2.360678e+000 -1.911048e+001 -1.317719e+001 -1.602135e+001 -1.115953e+001 -9.615345e+000 -1.263781e+000 -1.447606e+001 -1.510411e+001 -1.826401e+000 7.531278e+001 1.572081e-001 -3.616441e-001 1.796728e-001 -2.401286e-002 -1.355545e-001 2.878063e-002 -1.564563e-001 7.660101e-002 6.798787e-002 1.186416e-001 1.647589e-001 -4.108889e-002 -1.277581e-001 -1.552549e-002 -1.802617e-002 -3.263829e-002 7.282706e-002 -3.577654e-002 9.815611e-002 -1.635899e-003 3.353602e-003 4.177760e-003 -4.396084e-002 4.676772e-002 -7.522304e-005 -2.518107e-002
<VARIANCE> 39
 9.110256e+000 1.866468e+001 9.750364e+000 5.384553e+001 3.498302e+001 1.965910e+001 6.256445e+001 2.157249e+001 6.019378e+001 2.497542e+001 3.560083e+001 2.884976e+001 2.767888e+000 1.477931e-001 2.023961e-001 4.795130e-001 6.724793e-001 8.998482e-001 6.782745e-001 7.416192e-001 1.314242e+000 1.028769e+000 1.314726e+000 1.217655e+000 9.998605e-001 4.689043e-002 1.625056e-002 3.353383e-002 7.052576e-002 1.077132e-001 1.521052e-001 1.176936e-001 1.309952e-001 2.813571e-001 1.590679e-001 2.236415e-001 2.402708e-001 1.776278e-001 6.658091e-003
<GCONST> 7.314335e+001
<MIXTURE> 4 1.482963e-001
<MEAN> 39
 -1.778123e+001 -2.760450e+000 -5.203346e+000 -1.733272e+001 -1.942125e+001 -1.092707e+001 -1.201209e+001 -7.285081e+000 -2.364745e+000 -9.366601e+000 -1.478579e+001 -1.540398e+000 7.672723e+001 8.339246e-001 -2.334767e-001 1.919613e+000 -2.410845e+000 1.245582e-001 -1.481514e+000 3.530420e-001 -3.155245e-001 -5.772946e-001 9.261252e-001 -1.626154e+000 -6.257265e-001 4.717772e-001 -3.870556e-001 9.597113e-002 -2.245096e-001 3.459463e-001 4.854400e-001 4.673711e-001 4.882066e-001 5.685255e-001 2.471524e-001 4.154264e-001 2.256023e-001 2.690770e-001 -1.150691e-002
<VARIANCE> 39
 1.459326e+001 1.937962e+001 2.422225e+001 2.664622e+001 4.270606e+001 2.834495e+001 2.204995e+001 3.261074e+001 2.615727e+001 5.724238e+001 3.035145e+001 2.885241e+001 4.896732e+000 9.490101e-001 4.236118e-001 1.645052e+000 2.117695e+000 3.059000e+000 2.555898e+000 2.286974e+000 2.784567e+000 2.387038e+000 3.459341e+000 2.087199e+000 1.961998e+000 1.103721e-001 7.684102e-002 6.044091e-002 2.556707e-001 3.540113e-001 3.581015e-001 3.938093e-001 5.171922e-001 3.254461e-001 4.193680e-001 4.668736e-001 5.364671e-001 2.226198e-001 1.535896e-002
<GCONST> 9.925842e+001
<STATE> 4
<NUMMIXES> 4
<MIXTURE> 1 2.312659e-001
<MEAN> 39
 -1.846378e+001 -4.901076e+000 2.683237e+000 -7.171717e+000 -2.737988e+001 -9.049409e+000 1.392200e-001 -1.053740e+001 -1.545900e+000 -1.019479e+001 -3.844733e+000 -3.778611e+000 7.833588e+001 1.334446e-001 -1.942634e-001 -9.945686e-002 -1.356871e-001 -3.747184e-002 6.487484e-002 -6.610620e-002 8.002238e-002 1.963411e-001 6.711305e-002 6.005326e-002 1.121069e-001 -1.793150e-001 1.276142e-002 -2.560071e-002 -6.702738e-002 -2.091612e-002 1.407045e-001 4.197476e-002 -1.381688e-001 5.695984e-002 -9.488692e-003 -2.991751e-002 -3.576531e-002 2.844897e-002 -5.397962e-002
<VARIANCE> 39
 7.708713e+000 2.114986e+001 1.172450e+001 2.285156e+001 1.615386e+001 3.353199e+001 1.517737e+001 1.722480e+001 2.800361e+001 4.924008e+001 2.647369e+001 2.130814e+001 2.010399e+001 1.927857e-001 2.528339e-001 3.548202e-001 5.418757e-001 8.802158e-001 8.477103e-001 1.391957e+000 9.804697e-001 9.029499e-001 9.085584e-001 8.939587e-001 1.091736e+000 1.340688e-001 2.071036e-002 4.084557e-002 5.662500e-002 9.683352e-002 1.279676e-001 1.181251e-001 1.901134e-001 1.407303e-001 1.579083e-001 1.508467e-001 1.776717e-001 1.934033e-001 9.103352e-003
<GCONST> 7.200301e+001
<MIXTURE> 2 3.977818e-001
<MEAN> 39
 -1.059306e+001 -9.300167e+000 4.214343e-002 -1.596630e+001 -1.654947e+001 -6.633330e+000 -1.174204e+001 -7.848144e+000 -1.748124e+000 -1.703038e+001 -1.013109e+001 -5.344214e+000 7.701584e+001 7.026488e-002 -1.442973e-001 -3.249941e-002 -4.274197e-002 -3.490406e-002 9.601854e-003 3.336194e-003 1.333466e-001 1.537548e-001 5.718362e-002 1.948812e-001 -1.945922e-002 -7.449936e-002 -6.284402e-002 -2.011129e-002 -7.037250e-002 -3.909738e-003 4.360005e-002 2.521141e-002 5.524643e-002 5.940965e-002 2.197804e-002 4.148925e-002 2.840464e-002 3.750055e-002 -1.746269e-002
<VARIANCE> 39
 3.250488e+000 5.564545e+000 1.474071e+001 2.506402e+001 1.586831e+001 1.698545e+001 1.899308e+001 2.256489e+001 1.561759e+001 2.658029e+001 5.105853e+001 2.804181e+001 2.782569e+000 1.187398e-001 1.878309e-001 5.345414e-001 5.587338e-001 6.691124e-001 8.046457e-001 9.670454e-001 1.147002e+000 1.167616e+000 1.145058e+000 1.220368e+000 8.879319e-001 4.528736e-002 1.641030e-002 2.876992e-002 8.670309e-002 9.754609e-002 1.018132e-001 1.398790e-001 1.730615e-001 1.891734e-001 2.061083e-001 2.075979e-001 1.962967e-001 1.610143e-001 6.026190e-003
<GCONST> 6.638995e+001
<MIXTURE> 3 1.149463e-001
<MEAN> 39
 -1.185322e+001 -6.665947e+000 9.096566e+000 -1.364678e+001 -2.962626e+001 -6.305366e+000 -1.932067e+001 -3.382368e+000 -9.692205e+000 9.346547e-001 -1.536580e+000 -6.146197e+000 8.091499e+001 1.730913e-001 -1.202081e-001 1.437757e-002 -1.256949e-001 -3.616164e-001 -1.625817e-001 1.164508e-001 3.563716e-001 2.903253e-001 1.679290e-001 4.847099e-002 -1.787037e-001 -2.161911e-002 8.621569e-003 4.286766e-002 -1.630784e-001 2.222033e-002 1.248231e-001 -8.849082e-002 1.070021e-001 -3.023770e-002 1.301652e-001 -1.093872e-001 -7.222283e-002 1.290226e-002 -6.566028e-002
<VARIANCE> 39
 1.624270e+001 8.089909e+000 1.671829e+001 9.425558e+000 1.260935e+001 2.319493e+001 5.409501e+001 2.664915e+001 4.514460e+001 2.339508e+001 1.411441e+001 2.025406e+001 1.645267e+000 1.012299e-001 1.829944e-001 7.824350e-001 4.125852e-001 6.704211e-001 1.116552e+000 1.164687e+000 1.176167e+000 1.412450e+000 8.078271e-001 6.491185e-001 7.411221e-001 1.339592e-001 1.375323e-002 3.388794e-002 8.105363e-002 5.397730e-002 1.022841e-001 1.325909e-001 1.623144e-001 1.726323e-001 1.745682e-001 1.157119e-001 1.464340e-001 1.212976e-001 8.000219e-003
<GCONST> 6.623950e+001
<MIXTURE> 4 2.560060e-001
<MEAN> 39
 -1.770910e+001 -4.318613e+000 1.469843e+000 -2.478702e+001 -1.580794e+001 -1.277811e+001 -7.837786e+000 -2.522313e+000 -5.756843e+000 -2.237944e-001 -1.717078e+001 -1.970575e-001 7.884357e+001 1.856845e-001 -2.535951e-001 -4.428446e-002 -4.625188e-003 -4.619854e-002 3.370013e-002 2.880900e-001 1.725506e-001 2.003723e-001 -9.018927e-003 2.060283e-001 -5.703430e-002 -7.924088e-002 1.518992e-002 -1.859676e-002 -8.447731e-002 7.997084e-002 -5.948034e-002 6.255326e-002 -3.270412e-002 -1.888842e-002 7.705507e-002 -1.204470e-001 5.012702e-002 7.115229e-003 -3.672095e-002
<VARIANCE> 39
 1.150078e+001 1.053083e+001 1.142006e+001 1.806838e+001 5.960813e+001 2.254606e+001 3.327229e+001 3.301615e+001 2.601397e+001 3.683537e+001 3.820251e+001 4.926019e+001 1.129063e+001 1.415851e-001 2.893017e-001 7.050564e-001 8.232366e-001 9.285207e-001 1.195381e+000 1.276988e+000 9.121648e-001 1.505161e+000 1.152857e+000 9.143456e-001 9.433439e-001 8.617455e-002 2.154097e-002 4.510888e-002 1.260483e-001 9.837949e-002 1.379163e-001 2.084338e-001 2.420870e-001 1.816590e-001 2.365174e-001 2.506785e-001 1.645094e-001 1.387618e-001 9.503056e-003
<GCONST> 7.804619e+001
<STATE> 5
<NUMMIXES> 4
<MIXTURE> 1 1.496615e-001
<MEAN> 39
 -1.128238e+001 -9.122570e+000 1.487483e+000 -1.392423e+001 -2.660293e+001 -1.386129e+001 -1.455969e+001 2.248151e+000 3.167829e+000 -5.262066e+000 -8.137746e-001 -2.222882e+000 7.762413e+001 -1.542780e-001 -3.783307e-001 -1.181710e+000 -1.458052e-001 1.545609e+000 9.878390e-001 5.395864e-001 3.949207e-001 9.096252e-001 -3.654408e-001 -4.115778e-001 -2.097434e-001 -8.008596e-001 -2.313336e-001 -2.067684e-001 2.041407e-002 -8.854357e-004 3.764164e-001 5.402460e-001 2.921500e-001 -9.927940e-002 -1.287248e-001 -8.533444e-002 -3.587010e-002 -4.530006e-003 -1.005571e-001
<VARIANCE> 39
 5.045952e+000 2.832040e+001 1.930414e+001 1.103238e+001 2.365248e+001 1.826421e+001 3.729337e+001 7.483723e+001 6.650234e+001 4.751135e+001 2.443910e+001 2.963113e+001 1.032487e+001 5.325349e-001 7.423498e-001 1.088762e+000 5.812950e-001 1.869103e+000 2.471240e+000 2.009032e+000 1.897940e+000 1.978045e+000 2.949824e+000 1.897269e+000 1.390856e+000 2.982191e-001 3.505855e-002 1.323326e-001 2.087348e-001 9.043294e-002 1.834404e-001 1.888025e-001 3.103984e-001 3.348650e-001 3.514328e-001 4.114679e-001 2.120629e-001 1.791075e-001 3.175035e-002
<GCONST> 9.236410e+001
<MIXTURE> 2 3.752855e-001
<MEAN> 39
 -1.598936e+001 -1.493830e+001 -5.729886e+000 -1.573028e+001 -1.292781e+001 -1.886744e+000 -6.513285e+000 1.166000e-002 5.328380e+000 -1.129755e+001 -3.026441e+000 -1.455610e+000 7.219187e+001 -2.851978e-001 -4.597141e-001 -4.060915e-001 -1.110538e-001 3.532330e-001 5.932573e-001 3.613031e-001 6.775706e-001 5.458074e-001 1.868969e-001 3.579085e-001 2.252872e-001 -2.567300e-001 1.213697e-001 1.506729e-001 7.694173e-002 -8.361036e-002 -2.220779e-001 -2.264742e-001 -1.533126e-001 -1.581089e-001 -1.602513e-001 -1.625407e-001 -1.942405e-001 -8.230562e-002 7.755530e-002
<VARIANCE> 39
 5.191796e+000 4.953064e+000 9.003907e+000 1.468070e+001 1.329322e+001 1.952488e+001 1.870196e+001 1.998971e+001 1.696582e+001 3.323809e+001 1.955784e+001 3.319221e+001 8.085626e+000 2.153726e-001 3.707390e-001 6.429046e-001 7.100658e-001 1.150573e+000 1.038172e+000 1.134135e+000 1.928881e+000 1.903248e+000 1.723276e+000 1.406890e+000 1.307726e+000 1.026868e-001 3.334470e-002 4.462205e-002 8.220836e-002 1.069418e-001 1.479601e-001 1.764101e-001 2.408333e-001 2.999177e-001 3.366684e-001 2.920490e-001 2.269821e-001 1.846053e-001 1.299141e-002
<GCONST> 7.600867e+001
<MIXTURE> 3 2.131524e-001
<MEAN> 39
 -1.294875e+001 -1.174126e+001 -4.923313e+000 -2.057788e+001 -2.089282e+001 -6.740560e+000 -6.098253e+000 2.436177e+000 5.527636e+000 -6.576559e+000 -6.785410e+000 -4.391552e+000 7.488762e+001 -1.987609e-001 -4.199085e-001 -4.730666e-001 3.895788e-002 7.259637e-001 2.886225e-001 -5.927514e-001 -1.239046e-001 1.645686e-001 -8.749360e-001 6.447688e-001 2.358478e-001 -5.241861e-001 -1.089740e-001 -4.323059e-002 1.094935e-001 1.594978e-001 2.545340e-001 4.123986e-002 -7.563909e-002 -2.540618e-001 -2.705575e-001 -1.004343e-001 -2.860299e-002 1.023467e-001 -2.784332e-002
<VARIANCE> 39
 3.278434e+000 1.105732e+001 1.231216e+001 1.034606e+001 2.397595e+001 1.898907e+001 1.854015e+001 3.067221e+001 2.288890e+001 5.265108e+001 4.661145e+001 1.977197e+001 7.305521e+000 3.152430e-001 3.303198e-001 6.533222e-001 9.401536e-001 1.103928e+000 1.132456e+000 1.694411e+000 2.516551e+000 2.483307e+000 3.019481e+000 2.795294e+000 1.903927e+000 1.399548e-001 3.158817e-002 5.818493e-002 1.318386e-001 1.396655e-001 1.955323e-001 2.176356e-001 3.114081e-001 3.395084e-001 3.011004e-001 4.605328e-001 4.018492e-001 3.152303e-001 1.218669e-002
<GCONST> 8.498537e+001
<MIXTURE> 4 2.619006e-001
<MEAN> 39
 -1.456614e+001 -1.134026e+001 -2.519758e+000 -1.357986e+001 -1.436100e+001 -4.700520e+000 -1.081808e+001 -6.250985e+000 -1.668358e+000 -1.527048e+001 -8.448741e+000 -3.732813e+000 7.270153e+001 -5.763933e-001 -1.125833e+000 -6.162554e-001 1.404291e-001 1.187251e+000 1.400119e+000 7.233528e-001 8.604513e-001 7.502722e-001 2.013528e-002 5.704884e-001 2.620722e-001 -5.597542e-001 -5.057523e-002 -1.925174e-002 -1.059728e-001 -1.021637e-001 -1.914630e-001 -6.794420e-002 2.538878e-001 4.066265e-001 4.233311e-001 5.150983e-001 3.050405e-001 7.779410e-002 5.270879e-002
<VARIANCE> 39
 6.741301e+000 7.839504e+000 9.667809e+000 1.770031e+001 1.622012e+001 2.849458e+001 2.372775e+001 2.143989e+001 2.565081e+001 3.655181e+001 2.682032e+001 3.407743e+001 9.160530e+000 3.362652e-001 3.982232e-001 8.633887e-001 9.784105e-001 1.857873e+000 1.551661e+000 2.520568e+000 2.262009e+000 2.316594e+000 3.146471e+000 2.225743e+000 1.505128e+000 1.013729e-001 3.358164e-002 4.312989e-002 1.052112e-001 1.173768e-001 2.494835e-001 2.248625e-001 2.538058e-001 2.496703e-001 2.824412e-001 3.555968e-001 2.403499e-001 2.333156e-001 1.554719e-002
<GCONST> 8.464345e+001
<TRANSP> 6
 0.000000e+000 1.000000e+000 0.000000e+000 0.000000e+000 0.000000e+000 0.000000e+000
 0.000000e+000 9.168671e-001 8.313295e-002 0.000000e+000 0.000000e+000 0.000000e+000
 0.000000e+000 0.000000e+000 8.954616e-001 1.045384e-001 0.000000e+000 0.000000e+000
 0.000000e+000 0.000000e+000 0.000000e+000 9.416282e-001 5.837179e-002 0.000000e+000
 0.000000e+000 0.000000e+000 0.000000e+000 0.000000e+000 9.002351e-001 9.976486e-002
 0.000000e+000 0.000000e+000 0.000000e+000 0.000000e+000 0.000000e+000 0.000000e+000
<ENDHMM>
