~o
<STREAMINFO> 1 39
<VECSIZE> 39<NULLD><MFCC_D_A_0><DIAGC>
~h "shibie"
<BEGINHMM>
<NUMSTATES> 15
<STATE> 2
<NUMMIXES> 4
<MIXTURE> 1 7.488082e-002
<MEAN> 39
 -1.534669e+001 -1.241533e+001 -9.046894e-002 -1.014191e+001 -1.075838e+001 -4.671831e+000 -1.283492e+001 -5.830610e+000 6.519567e+000 -1.214467e+001 -4.321035e+000 6.906299e-001 7.047944e+001 1.703087e+000 1.129703e+000 1.289131e+000 -1.144200e-001 -3.937277e-001 -1.544606e+000 -1.730607e+000 -1.809860e+000 -6.489596e-001 1.794205e-001 1.052747e+000 3.200423e-001 4.338156e-001 6.974236e-002 8.060276e-002 -1.139955e-001 -1.012781e-001 -1.576443e-001 -1.846379e-001 -9.526783e-002 5.799427e-002 -1.613526e-001 -3.714734e-003 -9.635541e-002 -1.597009e-001 8.222248e-002
<VARIANCE> 39
 1.232287e+001 7.284635e+000 1.593347e+001 1.803988e+001 1.078256e+001 3.878471e+001 1.896229e+001 3.860073e+001 1.627368e+001 3.377408e+001 1.964450e+001 2.221795e+001 1.846494e+000 2.651987e-001 3.928982e-001 4.172839e-001 2.887135e-001 1.147439e+000 1.765279e+000 1.316407e+000 1.995945e+000 1.562934e+000 1.270225e+000 8.114212e-001 1.646808e+000 8.716228e-002 1.162706e-001 1.314245e-001 1.875810e-001 6.423746e-002 1.948191e-001 3.283762e-001 3.265013e-001 7.824552e-001 3.057767e-001 1.827903e-001 1.778365e-001 1.682929e-001 1.324441e-002
<GCONST> 7.986686e+001
<MIXTURE> 2 3.350828e-001
<MEAN> 39
 -2.583057e+001 -1.311353e+001 -7.370494e+000 -8.471390e+000 -9.432364e+000 3.805009e-001 -3.078640e+000 5.065716e+000 3.684538e+000 -8.396718e+000 -6.752634e+000 5.274169e-001 6.847543e+001 -1.073294e+000 1.159199e+000 -4.333024e-001 1.009179e+000 -2.586367e-001 -3.087907e-001 4.911814e-001 6.367432e-001 -3.475708e-001 7.731376e-001 -6.202909e-001 3.165693e-001 7.811127e-001 7.904870e-003 1.422268e-001 9.976546e-002 5.585006e-002 6.077025e-002 -2.629559e-002 7.806528e-002 -7.256824e-002 -4.598268e-003 -6.583040e-002 1.122086e-001 5.794385e-002 5.993034e-002
<VARIANCE> 39
 4.509799e+000 9.152607e+000 8.150460e+000 2.558021e+001 9.621667e+000 1.253030e+001 4.005960e+001 3.945930e+001 2.153904e+001 2.541519e+001 2.742491e+001 2.038200e+001 6.347687e+000 1.777981e-001 4.011593e-001 5.539870e-001 1.337240e+000 7.969616e-001 1.568137e+000 1.960534e+000 1.578377e+000 1.421374e+000 1.688866e+000 2.219183e+000 8.651543e-001 1.057474e-001 4.083209e-002 5.709008e-002 1.030161e-001 1.711412e-001 1.045002e-001 1.544902e-001 2.321222e-001 2.142376e-001 1.546875e-001 2.656249e-001 2.614547e-001 1.451588e-001 1.327166e-002
<GCONST> 7.705547e+001
<MIXTURE> 3 3.173801e-001
<MEAN> 39
 -2.961013e+001 -1.015587e+001 -5.379537e+000 -4.235905e+000 -1.019455e+001 1.302204e+000 5.395836e+000 8.228757e-001 -7.081534e-001 -4.095617e-001 -5.834192e+000 4.826097e-001 6.997816e+001 -8.660377e-001 9.887670e-001 1.478018e-001 3.686951e-001 1.771769e-001 -2.293031e-001 4.280425e-001 -2.300094e-002 -3.898261e-001 4.169128e-001 -1.926371e-001 -2.156483e-001 6.917423e-001 1.221117e-001 -6.410331e-002 3.227874e-002 -2.351604e-001 1.474763e-001 -1.025909e-001 -3.837697e-001 4.592120e-003 1.011827e-001 -3.082856e-001 -5.803681e-002 -1.312126e-001 -6.142144e-002
<VARIANCE> 39
 6.235999e+000 1.070419e+001 1.135896e+001 1.113069e+001 1.622285e+001 2.547816e+001 1.808102e+001 2.926538e+001 3.069657e+001 3.584867e+001 3.108587e+001 1.827206e+001 7.004780e+000 3.124379e-001 5.430463e-001 4.404728e-001 8.856712e-001 1.138769e+000 1.376015e+000 1.278448e+000 1.194530e+000 1.373772e+000 1.638770e+000 2.033417e+000 9.589229e-001 1.321412e-001 3.370918e-002 3.620005e-002 6.568637e-002 1.255155e-001 2.570454e-001 1.949677e-001 1.874711e-001 1.431932e-001 2.760705e-001 2.629359e-001 3.278010e-001 1.710795e-001 8.394364e-003
<GCONST> 7.751617e+001
<MIXTURE> 4 2.726564e-001
<MEAN> 39
 -2.115255e+001 -1.595325e+001 -3.991748e+000 -9.762271e+000 -7.364497e+000 -3.257626e-001 -3.036549e+000 2.767131e-001 5.524353e+000 -1.112919e+001 -5.820816e+000 -1.434209e+000 6.952606e+001 -3.818839e-001 3.761013e-001 -9.943549e-002 4.736697e-001 -2.809179e-001 -4.508246e-001 2.325778e-001 2.481642e-001 -5.148477e-002 2.526618e-001 -6.391658e-002 -2.732085e-002 3.610942e-001 -6.214394e-002 5.612369e-002 -2.098147e-002 1.262791e-002 -5.198437e-002 -4.993770e-002 1.891886e-002 4.759143e-002 1.348504e-002 1.308714e-001 -8.176881e-002 1.862053e-002 3.947669e-002
<VARIANCE> 39
 3.241259e+000 5.764154e+000 5.620819e+000 1.273336e+001 1.512229e+001 2.767782e+001 3.455159e+001 3.775541e+001 2.952155e+001 2.096328e+001 2.200134e+001 2.030706e+001 4.838758e+000 4.284874e-001 3.001051e-001 5.690743e-001 6.414096e-001 9.571078e-001 1.056865e+000 1.245159e+000 1.460124e+000 1.609012e+000 1.286588e+000 1.791744e+000 1.050319e+000 5.662948e-002 5.216704e-002 3.469610e-002 7.861432e-002 8.786102e-002 1.646624e-001 1.823771e-001 1.823704e-001 2.837273e-001 3.092003e-001 2.555032e-001 3.834060e-001 2.070557e-001 7.565137e-003
<GCONST> 7.451898e+001
<STATE> 3
<NUMMIXES> 4
<MIXTURE> 1 5.502672e-002
<MEAN> 39
 -9.864243e+000 -9.522384e+000 3.146439e+000 -1.340289e+001 -1.452264e+001 -1.299861e+001 -1.815145e+001 -8.505551e+000 5.293412e+000 -1.350388e+001 -2.927001e+000 1.683797e-001 7.191421e+001 7.473173e-001 1.374108e-001 1.935073e-002 -4.509887e-001 -5.961798e-001 -9.026810e-001 -2.623015e-001 5.227752e-001 4.663321e-001 6.599812e-001 1.545398e-001 -2.347223e-002 2.823309e-001 -1.882542e-001 -2.347253e-001 -1.721994e-001 -9.400897e-002 -2.734265e-002 1.177728e-001 2.401773e-001 3.491706e-001 2.962058e-001 -1.224304e-002 -1.789352e-001 -8.081616e-002 -4.301307e-002
<VARIANCE> 39
 2.823624e+000 2.124868e+000 1.393698e+001 1.756781e+001 2.470996e+001 1.925128e+001 7.225371e+000 8.705413e+000 1.900017e+001 4.123512e+001 1.169967e+001 1.135194e+001 1.126840e+000 9.834430e-002 1.952060e-001 5.302362e-001 5.333542e-001 1.181370e+000 6.494240e-001 2.574718e-001 1.670173e+000 2.485147e+000 2.219507e+000 1.023217e+000 9.630149e-001 3.066058e-002 2.962923e-002 5.942904e-002 1.046707e-001 5.121041e-002 2.151562e-001 1.606223e-001 1.352395e-001 3.975683e-001 3.927255e-001 3.255370e-001 1.376327e-001 1.552493e-001 4.463733e-003
<GCONST> 6.365771e+001
<MIXTURE> 2 1.567131e-001
<MEAN> 39
 -2.898441e+001 -1.008890e+001 -5.860384e+000 4.640864e+000 -1.014200e+001 -4.502760e+000 -6.286517e+000 1.249300e+001 8.326386e+000 -1.235608e+001 -7.938932e+000 8.294076e+000 7.266352e+001 -1.277750e-001 4.220359e-001 3.653081e-001 5.278479e-001 1.477315e-001 -3.801420e-001 -1.169051e-001 -5.489065e-002 -2.847162e-001 -1.300056e-001 6.322416e-002 3.120668e-001 3.951608e-001 1.599754e-001 -1.025230e-001 3.043520e-002 -2.456653e-001 1.862119e-002 1.088148e-001 -4.961484e-002 -1.860556e-001 -1.455476e-001 -2.884356e-002 -6.408112e-003 -1.845149e-001 -1.560402e-001
<VARIANCE> 39
 9.088337e+000 1.739581e+001 1.889074e+001 2.293110e+001 1.184506e+001 2.113719e+001 3.506091e+001 1.413126e+001 3.145941e+001 1.381850e+001 2.382473e+001 1.450588e+001 7.073279e+000 3.620250e-001 5.521148e-001 9.001648e-001 1.353629e+000 8.372945e-001 1.214540e+000 1.078793e+000 5.352417e-001 1.712538e+000 1.001761e+000 9.472874e-001 1.137724e+000 3.825765e-001 4.852729e-002 9.366135e-002 2.065374e-001 2.057710e-001 1.852852e-001 2.322940e-001 2.465418e-001 1.171182e-001 2.235122e-001 2.189016e-001 2.559545e-001 2.212522e-001 1.721124e-002
<GCONST> 8.093207e+001
<MIXTURE> 3 2.030751e-001
<MEAN> 39
 -3.511824e+001 -5.907778e-001 -2.035775e+000 -3.218083e+000 -6.036933e+000 1.122446e-001 5.456796e+000 3.485457e+000 -1.901791e+000 -1.137236e+000 -1.744527e+000 -3.111017e+000 7.461145e+001 -3.745814e-002 5.638567e-001 6.786556e-002 -1.043540e-001 1.203365e-001 -7.925502e-002 -2.693050e-001 1.448343e-002 9.662627e-002 -4.704517e-002 2.805562e-002 9.417765e-002 2.826757e-001 1.630989e-001 -1.861972e-001 -8.855198e-002 -1.219851e-001 -2.030973e-001 -8.159593e-002 -8.902073e-002 -7.763943e-002 -3.848102e-002 -8.036755e-002 -5.600119e-002 1.354806e-002 -1.127772e-001
<VARIANCE> 39
 3.489069e+000 1.711137e+001 8.458205e+000 7.859888e+000 9.675813e+000 1.411911e+001 1.151981e+001 1.226808e+001 6.691388e+000 2.730517e+001 4.627378e+001 8.137208e+000 3.534219e+000 3.885441e-001 5.910689e-001 5.718337e-001 7.510540e-001 7.454544e-001 5.599144e-001 9.464339e-001 1.100186e+000 8.485355e-001 1.032104e+000 1.067945e+000 5.896367e-001 1.934060e-001 2.887949e-002 9.113865e-002 1.064989e-001 1.391205e-001 8.584835e-002 1.433207e-001 1.581023e-001 1.811178e-001 1.735915e-001 1.641792e-001 1.951731e-001 1.128373e-001 1.323422e-002
<GCONST> 6.704387e+001
<MIXTURE> 4 5.851851e-001
<MEAN> 39
 -2.871738e+001 -6.504017e+000 -7.828959e+000 -8.888887e+000 -8.376642e+000 -1.671155e+000 -2.185395e+000 4.783927e+000 2.408075e+000 -5.786496e+000 -7.727635e+000 9.639882e-001 7.239349e+001 2.055987e-001 3.516055e-001 1.194743e-001 -6.242119e-002 -5.453281e-002 -2.949051e-001 -4.368730e-001 -3.786694e-002 1.582598e-002 2.816293e-001 2.196416e-001 9.055405e-002 1.688709e-001 2.236921e-001 -1.511861e-001 1.067133e-001 1.109512e-002 -6.620185e-002 2.500713e-002 -1.089832e-001 -1.286259e-001 1.089895e-002 -5.129151e-002 5.822140e-002 -3.007719e-002 -6.736146e-002
<VARIANCE> 39
 1.078034e+001 1.691399e+001 1.049403e+001 1.397198e+001 1.632562e+001 4.591285e+001 3.657438e+001 5.350831e+001 3.233099e+001 3.438578e+001 3.106922e+001 2.256951e+001 4.975242e+000 4.883473e-001 4.679988e-001 5.058178e-001 6.091315e-001 8.325201e-001 1.120731e+000 1.469497e+000 1.307049e+000 1.111482e+000 1.386453e+000 9.930382e-001 8.110980e-001 8.700450e-002 3.357938e-002 5.269406e-002 9.149045e-002 1.177793e-001 1.396493e-001 2.113796e-001 2.586808e-001 2.621166e-001 2.309184e-001 2.893929e-001 2.173586e-001 1.546720e-001 7.883354e-003
<GCONST> 7.892220e+001
<STATE> 4
<NUMMIXES> 4
<MIXTURE> 1 1.626335e-001
<MEAN> 39
 -3.042481e+001 -2.968728e+000 -2.694391e+000 -5.489972e+000 -1.058565e+001 -4.769223e+000 1.274060e+000 -8.064693e-001 -8.165219e-001 -1.860221e+000 -6.315431e+000 -2.889852e+000 7.503212e+001 1.794307e+000 1.079051e-002 4.934166e-001 -5.003600e-001 -1.665809e+000 -1.805855e+000 -2.262482e+000 -1.442625e+000 -1.014716e+000 -8.180928e-001 -7.478222e-001 -1.010475e+000 -6.159933e-002 6.573820e-001 1.123625e-001 1.871517e-001 1.480333e-002 -4.473122e-001 -4.889624e-001 -6.345605e-001 -2.595868e-001 -4.353938e-002 -1.524738e-001 5.115489e-002 -2.156595e-002 6.059103e-002
<VARIANCE> 39
 1.081366e+001 3.049189e+001 1.161980e+001 1.146069e+001 2.320257e+001 4.350331e+001 1.391161e+001 3.203925e+001 3.709252e+001 2.150648e+001 6.623261e+001 2.513624e+001 1.675846e+000 1.286203e+000 7.468951e-001 7.630792e-001 8.755718e-001 1.851977e+000 2.817764e+000 2.980590e+000 1.183131e+000 2.538289e+000 2.775933e+000 1.757445e+000 1.368236e+000 1.417613e-001 9.983484e-002 9.089157e-002 9.871119e-002 1.812077e-001 3.290106e-001 3.373540e-001 4.788747e-001 2.421992e-001 5.210080e-001 6.335718e-001 5.043654e-001 3.908451e-001 1.337005e-002
<GCONST> 9.321919e+001
<MIXTURE> 2 2.473399e-001
<MEAN> 39
 -1.583613e+001 -7.789912e+000 -1.714284e-001 -5.370335e+000 -9.146650e+000 -8.875765e+000 -1.526279e+001 -3.050264e+000 3.134564e+000 -7.829003e+000 -6.123549e+000 1.321849e+000 7.240344e+001 2.190173e+000 3.608381e-001 1.160122e+000 -2.539879e-001 -1.164744e+000 -1.967800e+000 -2.263281e+000 -1.249447e+000 1.310956e-001 -6.235913e-002 8.464257e-001 1.189065e-001 3.443907e-001 -2.268111e-001 -2.033582e-001 -2.621507e-001 -1.329775e-001 -1.923038e-001 -2.162966e-002 2.954593e-001 2.737440e-001 2.924680e-001 1.882895e-001 2.090980e-002 9.472221e-003 -1.756810e-002
<VARIANCE> 39
 1.369561e+001 1.551893e+001 1.076710e+001 3.926452e+001 2.289729e+001 3.972374e+001 3.299725e+001 1.949401e+001 2.393803e+001 6.869830e+001 2.053291e+001 2.494656e+001 4.246884e+000 5.836555e-001 5.595962e-001 1.033141e+000 1.085976e+000 9.924463e-001 1.001019e+000 1.973560e+000 1.346009e+000 1.943304e+000 1.701856e+000 1.743129e+000 1.053652e+000 1.024165e-001 8.051530e-002 6.391669e-002 1.131545e-001 1.179290e-001 1.223811e-001 2.224817e-001 2.856961e-001 1.613027e-001 2.364030e-001 2.997353e-001 1.903185e-001 1.799586e-001 1.494947e-002
<GCONST> 8.445342e+001
<MIXTURE> 3 2.311138e-001
<MEAN> 39
 -1.486153e+001 -7.434994e+000 -8.151532e-001 -1.244323e+001 -1.965977e+001 -1.775589e+001 -1.567088e+001 -7.307607e-002 4.077379e+000 -6.682308e+000 -7.637572e-001 -9.142708e-001 7.377426e+001 2.194417e+000 -4.816793e-001 1.245978e+000 -7.069941e-001 -1.517423e+000 -2.218418e+000 -1.599617e+000 6.426249e-001 1.280509e+000 6.816161e-001 1.649534e+000 4.925835e-001 1.810572e-001 -4.260729e-001 -7.232437e-002 -1.856493e-001 2.327961e-001 4.845338e-001 6.266040e-001 6.690065e-001 4.657669e-001 -2.202619e-002 1.156199e-001 -4.608707e-003 3.638027e-003 -4.310449e-002
<VARIANCE> 39
 1.478877e+001 1.456543e+001 2.293621e+001 2.535678e+001 1.370860e+001 3.278391e+001 2.221992e+001 3.782376e+001 6.087548e+001 4.423438e+001 6.872861e+001 3.048595e+001 4.450424e+000 1.538647e+000 3.208647e-001 1.385448e+000 1.049452e+000 1.505961e+000 2.351351e+000 4.680348e+000 1.968910e+000 1.899767e+000 1.871714e+000 3.006135e+000 1.527042e+000 1.170144e-001 9.396512e-002 5.447700e-002 1.326987e-001 6.343614e-002 1.734072e-001 2.357211e-001 3.993323e-001 3.639474e-001 3.057775e-001 3.869844e-001 3.758122e-001 3.000779e-001 1.457487e-002
<GCONST> 9.337376e+001
<MIXTURE> 4 3.589129e-001
<MEAN> 39
 -2.527816e+001 -7.895182e+000 -5.854215e+000 -5.214137e+000 -9.375209e+000 -3.140655e+000 -6.519020e+000 5.071009e+000 2.431851e+000 -8.179126e+000 -7.216201e+000 2.972368e+000 7.159914e+001 1.954182e+000 1.059998e-001 1.173922e+000 -2.528259e-001 -9.376064e-001 -1.056454e+000 -1.882950e+000 -1.576233e+000 -2.006396e-001 -8.443298e-001 1.866975e-002 -3.720971e-001 -4.232866e-002 5.104187e-001 1.862871e-001 3.683075e-001 -2.205893e-001 -4.349434e-001 -6.251917e-001 -5.275218e-001 -1.799940e-001 1.454620e-001 3.661005e-002 2.344678e-001 2.750706e-002 1.154554e-001
<VARIANCE> 39
 1.665485e+001 1.503071e+001 1.011537e+001 4.754818e+001 1.712333e+001 3.535624e+001 2.305817e+001 3.660934e+001 3.482663e+001 5.062172e+001 2.423915e+001 3.200296e+001 5.376362e+000 8.969045e-001 8.828741e-001 1.243136e+000 1.242415e+000 2.165593e+000 2.324430e+000 2.138263e+000 1.227432e+000 1.547056e+000 1.327431e+000 2.380491e+000 1.252406e+000 1.121889e-001 7.645317e-002 8.674942e-002 1.101827e-001 2.348980e-001 2.613905e-001 2.621500e-001 3.196187e-001 4.131613e-001 3.198161e-001 3.600530e-001 4.879014e-001 1.642460e-001 1.179005e-002
<GCONST> 9.223624e+001
<STATE> 5
<NUMMIXES> 4
<MIXTURE> 1 4.834616e-001
<MEAN> 39
 -9.908285e+000 -1.031827e+001 7.688033e-001 -5.369406e+000 -1.601596e+001 -1.929504e+001 -2.447815e+001 -4.025839e+000 7.697795e+000 -1.062160e+001 -6.301993e+000 -2.803523e-001 7.244144e+001 4.731005e-001 -1.732413e-001 5.044283e-002 -7.817922e-003 -1.966176e-001 -3.043520e-001 -7.882564e-001 -2.377772e-001 3.317610e-001 -3.381288e-002 3.701118e-001 -3.086495e-001 7.088589e-002 -1.171147e-001 2.683888e-002 -4.578410e-002 -2.148873e-003 1.004969e-001 2.625738e-001 2.720535e-001 1.426219e-002 -3.954195e-002 7.038160e-002 8.778491e-002 2.044060e-002 -3.031955e-002
<VARIANCE> 39
 3.816737e+000 3.573537e+000 1.626776e+001 4.353061e+001 4.116538e+001 1.729748e+001 2.404726e+001 2.912167e+001 2.504861e+001 6.014355e+001 2.831032e+001 1.050799e+001 4.031757e+000 1.833595e-001 3.063929e-001 2.786844e-001 5.375980e-001 6.297450e-001 8.846626e-001 1.193428e+000 9.256155e-001 9.480099e-001 1.347599e+000 1.106731e+000 1.029483e+000 2.851591e-002 3.553898e-002 4.536536e-002 6.000485e-002 1.074934e-001 1.116623e-001 1.317274e-001 2.073595e-001 1.563457e-001 1.731538e-001 1.946212e-001 1.689612e-001 1.781395e-001 5.425595e-003
<GCONST> 6.870248e+001
<MIXTURE> 2 2.792986e-001
<MEAN> 39
 -1.067783e+001 -8.161879e+000 4.091494e+000 -1.406946e+001 -2.525348e+001 -1.964986e+001 -1.067102e+001 7.911176e+000 4.925092e+000 -2.157295e+000 1.316285e+001 8.101171e-001 7.321112e+001 7.198195e-001 -3.825590e-001 2.104208e-001 -5.419470e-001 7.882654e-002 8.310909e-003 3.692131e-002 6.286445e-001 8.032518e-001 3.430622e-002 2.445335e-001 -2.176562e-001 3.613668e-002 -1.153819e-001 4.503224e-002 -1.808537e-001 -1.083694e-001 1.343531e-001 1.542706e-001 -5.307958e-002 -1.090055e-001 -2.570200e-002 -2.995231e-001 -4.787227e-001 -2.408262e-001 1.857458e-002
<VARIANCE> 39
 6.205370e+000 1.490697e+001 2.580603e+001 1.474624e+001 1.783538e+001 2.324449e+001 3.469110e+001 7.176440e+001 6.425307e+001 3.059065e+001 2.135341e+001 2.186353e+001 4.284081e+000 1.889104e-001 3.472974e-001 2.915902e-001 3.881781e-001 5.123898e-001 6.914948e-001 8.065258e-001 1.038780e+000 9.234495e-001 1.364258e+000 1.918089e+000 2.008732e+000 5.350279e-002 3.728392e-002 4.804106e-002 6.979302e-002 7.390865e-002 6.422026e-002 1.902926e-001 1.509641e-001 1.830046e-001 1.438852e-001 2.631355e-001 2.888874e-001 2.816829e-001 1.024626e-002
<GCONST> 7.376315e+001
<MIXTURE> 3 1.366378e-001
<MEAN> 39
 -1.813046e+001 2.351391e-001 3.054073e+000 -5.774882e+000 -1.897385e+001 -9.980872e+000 -1.170409e+001 -4.925891e+000 -4.965427e+000 -1.165354e+001 -1.061823e+001 -1.357410e+000 7.479166e+001 2.360103e+000 1.031877e-001 7.173235e-001 -8.204244e-001 -2.044834e+000 -1.858188e+000 -1.549390e+000 -4.733741e-001 7.451997e-002 -2.908727e-001 4.032323e-001 1.020936e-001 9.091025e-002 -4.134992e-001 -4.097508e-001 -3.843724e-001 -4.971012e-002 3.370357e-001 3.523080e-001 5.439920e-001 5.741792e-001 3.302739e-001 5.327040e-001 2.706361e-001 2.705039e-001 -5.692249e-002
<VARIANCE> 39
 2.140346e+001 1.214582e+001 6.294681e+000 1.588282e+001 4.153241e+001 4.032725e+001 4.654063e+001 5.800937e+001 4.715250e+001 4.955499e+001 8.271206e+001 3.907141e+001 3.203521e+000 1.142403e+000 8.730273e-001 7.442383e-001 2.375498e+000 1.642233e+000 1.643745e+000 1.848616e+000 2.314877e+000 2.001113e+000 2.746821e+000 2.243341e+000 1.120528e+000 6.532325e-002 7.322152e-002 6.008760e-002 1.060522e-001 2.402399e-001 2.337595e-001 3.331235e-001 3.050054e-001 3.158379e-001 3.697475e-001 3.334985e-001 5.960972e-001 2.646499e-001 4.512923e-003
<GCONST> 9.375073e+001
<MIXTURE> 4 1.006019e-001
<MEAN> 39
 -1.937025e+001 -9.936503e+000 -5.259112e+000 -1.185391e+001 -2.237409e+001 -9.502003e+000 -7.162316e+000 -3.500470e-003 3.454225e+000 -1.525778e+000 1.981872e+000 9.976052e-002 6.885313e+001 1.300563e+000 -2.169167e-001 3.783023e-001 -4.440506e-001 -1.207482e+000 -1.352573e+000 -5.741628e-001 6.925801e-001 7.350159e-001 3.086800e-001 1.391195e+000 5.433343e-002 -6.141577e-002 -1.003102e-001 8.316879e-003 6.915227e-002 2.031883e-001 3.197153e-001 1.707332e-001 2.935231e-001 2.881294e-001 4.934829e-002 2.321910e-003 -1.485314e-001 -1.419836e-001 6.944960e-002
<VARIANCE> 39
 1.084989e+001 4.372489e+000 4.564257e+000 9.759840e+000 3.076268e+001 1.854153e+001 1.088892e+001 1.639521e+001 9.919497e+000 3.865751e+001 4.811758e+001 6.859560e+000 1.536614e+000 5.251771e-001 1.397622e-001 3.491603e-001 7.866004e-001 1.277348e+000 1.407995e+000 1.707392e+000 1.622643e+000 1.126834e+000 1.611100e+000 3.103277e+000 8.831993e-001 9.776260e-002 4.106601e-002 3.516959e-002 1.042134e-001 1.488093e-001 1.119604e-001 2.244140e-001 2.933827e-001 1.717177e-001 2.075236e-001 2.465953e-001 6.351199e-001 1.972119e-001 8.196031e-003
<GCONST> 7.279100e+001
<STATE> 6
<NUMMIXES> 4
<MIXTURE> 1 3.702568e-001
<MEAN> 39
 -8.095941e+000 -7.763022e+000 3.016307e+000 -6.977727e+000 -1.183745e+001 -9.796142e+000 -2.050238e+001 -5.957697e+000 6.603939e+000 -9.578053e+000 -3.293722e+000 3.976433e-001 7.357764e+001 3.456087e-001 -4.642487e-001 -6.608270e-002 -3.419083e-001 -4.509745e-001 -3.457260e-001 -3.351375e-001 -3.548113e-001 5.707808e-002 1.552012e-001 3.626594e-002 -5.680389e-001 -3.564389e-002 -1.521437e-001 -3.796726e-003 -3.674241e-002 -2.870272e-002 1.065131e-001 1.082021e-001 1.930751e-001 -8.989290e-003 -8.360850e-002 2.154520e-002 -4.078062e-002 -1.461291e-001 -5.453706e-002
<VARIANCE> 39
 3.446360e+000 1.686749e+001 1.219448e+001 3.327610e+001 7.587716e+001 4.835747e+001 3.598612e+001 4.657956e+001 2.534369e+001 4.532929e+001 2.967624e+001 5.182880e+001 8.537868e+000 2.516906e-001 4.298611e-001 3.779857e-001 8.223243e-001 7.465736e-001 1.240891e+000 1.234491e+000 1.115102e+000 1.108142e+000 1.387136e+000 1.334262e+000 1.032252e+000 4.609586e-002 4.047902e-002 6.774606e-002 8.500917e-002 1.322865e-001 1.580205e-001 2.721310e-001 2.733424e-001 2.243963e-001 2.205415e-001 2.547231e-001 2.624339e-001 2.161267e-001 1.046501e-002
<GCONST> 8.179767e+001
<MIXTURE> 2 2.386035e-001
<MEAN> 39
 -8.060705e+000 -1.073239e+001 2.891917e+000 -1.886002e+001 -2.193823e+001 -1.892965e+001 -1.036833e+001 1.108556e+001 9.186682e+000 -8.309717e+000 4.935333e+000 -6.976560e+000 7.439602e+001 1.165695e-001 -2.675280e-001 -3.876532e-001 -1.552966e-001 4.759960e-001 3.625646e-001 3.194663e-001 4.822937e-001 -1.184654e-001 -1.440952e+000 -2.119690e+000 -1.544422e+000 1.887687e-002 -1.283720e-001 4.639134e-003 -4.933581e-002 2.043346e-001 1.204121e-001 1.679172e-001 -1.195387e-001 -3.837595e-001 -1.302869e-001 -7.151378e-002 -1.209061e-001 1.976706e-001 -9.883637e-002
<VARIANCE> 39
 3.185025e+000 7.464716e+000 1.463426e+001 1.370884e+001 1.741167e+001 1.674853e+001 2.234238e+001 6.442871e+001 5.260880e+001 3.759571e+001 2.987787e+001 3.608941e+001 4.662957e+000 1.818810e-001 3.212779e-001 4.756886e-001 9.686549e-001 5.468631e-001 7.874708e-001 1.739301e+000 2.188850e+000 1.953917e+000 1.696828e+000 1.338679e+000 1.723981e+000 6.794129e-002 1.944145e-002 6.422508e-002 6.760284e-002 1.710684e-001 1.444186e-001 1.600708e-001 3.212873e-001 2.771333e-001 2.938651e-001 2.479642e-001 3.194318e-001 3.615828e-001 1.218876e-002
<GCONST> 7.891663e+001
<MIXTURE> 3 1.962903e-001
<MEAN> 39
 -1.347554e+001 -1.876485e+000 4.172619e+000 -7.254883e+000 -2.088405e+001 -1.607627e+001 -1.204798e+001 -6.670044e+000 -9.980441e+000 -5.454809e+000 -8.391592e+000 -3.814643e+000 7.419672e+001 7.576824e-001 -6.396394e-001 1.731441e-001 -2.210069e-001 -4.669716e-002 -4.907893e-001 -4.892616e-001 2.542756e-001 9.464449e-002 -2.965870e-001 5.941786e-001 -8.137848e-002 -1.916648e-001 -8.411352e-002 -6.505013e-002 -3.498351e-002 -3.897272e-003 1.094507e-001 1.275366e-001 2.351171e-003 -5.769126e-002 8.135439e-002 -2.239471e-001 -9.792601e-002 -5.559193e-002 -2.538303e-002
<VARIANCE> 39
 1.311275e+001 2.314864e+001 9.606851e+000 4.346277e+000 8.662285e+000 3.247565e+001 9.526915e+000 2.894445e+001 1.238972e+001 2.031348e+001 2.718335e+001 1.357405e+001 1.332841e+000 1.672112e-001 2.896484e-001 3.763036e-001 6.492361e-001 8.448960e-001 1.071536e+000 7.862778e-001 1.200605e+000 1.014934e+000 1.360157e+000 1.571500e+000 1.603192e+000 3.210070e-002 3.140170e-002 4.784398e-002 7.271766e-002 1.250238e-001 1.626641e-001 1.614836e-001 1.181341e-001 2.191332e-001 1.945005e-001 1.765283e-001 2.621205e-001 3.011705e-001 7.079610e-003
<GCONST> 6.796761e+001
<MIXTURE> 4 1.948494e-001
<MEAN> 39
 -9.450741e+000 -1.153669e+001 8.773462e-001 -1.732230e+001 -1.863771e+001 -1.254348e+001 -1.357853e+001 -3.789288e+000 9.038903e+000 -7.942393e+000 2.155986e+000 1.681763e+000 7.224886e+001 2.434720e-001 -1.159540e-001 1.163993e-002 -2.312991e-001 6.321461e-003 2.053901e-001 4.936048e-001 2.469295e-001 1.580324e-001 -1.938362e-001 2.266288e-001 -2.141513e-001 2.115079e-002 -1.032443e-001 1.186623e-002 -6.650089e-002 3.465641e-002 8.155565e-002 1.178453e-001 9.726726e-002 3.628954e-002 -2.331438e-001 -2.072755e-001 -2.771360e-001 -2.075693e-001 -3.300456e-002
<VARIANCE> 39
 4.886631e+000 2.326415e+000 6.058797e+000 6.619173e+000 6.422344e+000 9.044244e+000 2.971344e+001 8.993538e+000 1.370812e+001 1.368034e+001 1.403405e+001 1.374650e+001 1.011634e+000 2.731098e-001 1.768535e-001 5.034944e-001 4.700910e-001 7.269235e-001 9.016803e-001 1.370825e+000 9.193094e-001 1.210483e+000 1.646042e+000 1.802782e+000 1.473216e+000 4.861360e-002 1.482826e-002 1.918193e-002 5.875852e-002 9.398403e-002 1.288227e-001 1.907828e-001 2.151563e-001 1.546847e-001 1.903540e-001 3.224574e-001 3.394195e-001 2.450474e-001 5.837340e-003
<GCONST> 6.104357e+001
<STATE> 7
<NUMMIXES> 4
<MIXTURE> 1 2.268287e-001
<MEAN> 39
 -9.198095e+000 -1.172122e+001 -1.401304e-001 -1.857212e+001 -1.939180e+001 -1.358861e+001 -1.065406e+001 5.939529e+000 7.859390e+000 -1.290930e+001 -4.488828e+000 -9.056784e+000 7.241045e+001 -8.703330e-001 -3.803472e-001 -2.940456e-001 4.876023e-001 1.256132e+000 1.729993e+000 -3.838529e-001 -1.770634e+000 -8.143062e-001 -9.112188e-001 -1.195508e+000 2.456494e-001 -7.130770e-001 -3.836903e-001 -1.891339e-001 9.590628e-002 2.436277e-001 2.977459e-001 3.103689e-001 -4.741473e-002 -3.746958e-001 -2.715369e-001 1.905038e-001 4.509752e-001 5.035463e-001 -1.688388e-001
<VARIANCE> 39
 3.810196e+000 5.313252e+000 8.909672e+000 9.269378e+000 1.353026e+001 1.814092e+001 1.805113e+001 4.066939e+001 3.218383e+001 2.049223e+001 7.311083e+000 2.137020e+001 4.198971e+000 5.099441e-001 3.691110e-001 3.541819e-001 9.926635e-001 1.059967e+000 1.574584e+000 1.908236e+000 2.459748e+000 1.755775e+000 1.859394e+000 1.752391e+000 2.881016e+000 1.489488e-001 3.837874e-002 4.510374e-002 7.871425e-002 1.117134e-001 1.531097e-001 2.137551e-001 3.728948e-001 4.881743e-001 2.816807e-001 3.574215e-001 1.699198e-001 1.935804e-001 1.470711e-002
<GCONST> 7.827406e+001
<MIXTURE> 2 2.151654e-001
<MEAN> 39
 -8.624924e+000 -8.229462e+000 4.114288e+000 -9.594054e+000 -1.966359e+001 -1.426434e+001 -1.739032e+001 -4.928971e+000 -4.308093e-001 -1.381938e+001 -5.280768e+000 -2.252172e+000 7.227747e+001 -3.638827e-001 -2.499402e-001 9.764457e-002 7.036737e-002 1.495759e+000 2.148808e+000 1.380626e+000 8.998747e-002 -3.963895e-002 -1.017229e+000 -5.984900e-001 -1.087693e+000 -5.755717e-001 -3.250858e-001 -1.141381e-002 2.127463e-002 2.998751e-001 5.715183e-001 6.920987e-001 3.613536e-001 1.172926e-001 -1.133339e-001 -2.556757e-001 -4.117921e-001 -1.497441e-001 -1.346257e-001
<VARIANCE> 39
 1.503214e+000 1.219170e+001 8.515624e+000 1.591546e+001 3.796608e+001 2.178124e+001 2.216389e+001 4.431166e+001 3.306924e+001 4.310763e+001 4.489856e+001 2.032406e+001 4.420083e+000 4.222907e-001 4.182018e-001 4.639854e-001 1.132920e+000 2.031877e+000 2.246143e+000 2.211748e+000 3.010467e+000 1.466780e+000 2.111443e+000 1.477934e+000 1.492547e+000 9.777225e-002 3.193331e-002 1.179895e-001 6.495063e-002 1.470656e-001 3.077820e-001 3.113872e-001 2.168019e-001 4.302517e-001 1.347261e-001 2.748642e-001 2.457216e-001 2.089097e-001 1.373626e-002
<GCONST> 8.379782e+001
<MIXTURE> 3 3.729126e-001
<MEAN> 39
 -1.188886e+001 -1.161751e+001 2.930918e+000 -9.795033e+000 -9.560762e+000 -4.231346e+000 -1.180834e+001 -3.474634e+000 3.630143e+000 -1.326847e+001 -5.639827e+000 -5.932050e+000 7.031638e+001 -1.190421e+000 -7.627320e-001 1.233207e-002 1.669062e-001 1.031327e+000 2.000566e+000 1.804875e+000 4.869343e-001 -7.242711e-001 -9.598571e-001 -3.872833e-001 -1.576666e-002 -6.913396e-001 1.043210e-001 -4.953469e-002 -1.223246e-001 -2.122849e-001 -4.335663e-001 -5.230622e-001 -4.026984e-001 2.593178e-002 2.270255e-001 3.498053e-001 2.805016e-001 2.486019e-001 1.316940e-001
<VARIANCE> 39
 3.882302e+000 6.198461e+000 9.804976e+000 2.249177e+001 2.855854e+001 2.965290e+001 2.528089e+001 2.794773e+001 3.179216e+001 2.802028e+001 2.286934e+001 2.080223e+001 4.481322e+000 3.090059e-001 5.723690e-001 6.877403e-001 1.113322e+000 2.016228e+000 1.704113e+000 3.012205e+000 3.160191e+000 1.862587e+000 1.506417e+000 1.275505e+000 1.715306e+000 1.560168e-001 3.929914e-002 8.801609e-002 6.414764e-002 1.522056e-001 1.610350e-001 1.904958e-001 3.622646e-001 3.067501e-001 2.021732e-001 2.077151e-001 1.891311e-001 3.105742e-001 1.553442e-002
<GCONST> 8.331106e+001
<MIXTURE> 4 1.850933e-001
<MEAN> 39
 -7.119510e+000 -1.169470e+001 -1.741754e+000 -7.739924e+000 -1.431794e+001 -1.726068e+001 -2.626937e+001 -6.426049e+000 1.088363e+001 -4.284832e+000 -3.980352e+000 -6.223544e+000 7.381104e+001 -7.065352e-001 -7.903987e-002 3.357950e-001 -4.377061e-001 6.680011e-001 1.795064e+000 2.045460e+000 -2.900290e-001 -1.090117e+000 -1.015513e+000 -1.070062e-001 -3.277598e-001 -6.825987e-001 -4.592234e-001 -2.061470e-002 2.426019e-001 6.554130e-002 1.936226e-001 6.895126e-001 9.311756e-001 3.280968e-001 -4.970684e-001 -8.006394e-001 -2.494530e-001 2.392785e-001 -2.426114e-001
<VARIANCE> 39
 6.115460e+000 1.205375e+001 1.438564e+001 4.147023e+001 8.002957e+001 4.862630e+001 2.276025e+001 6.643565e+001 3.282399e+001 3.940656e+001 9.981894e+000 2.111868e+001 9.132168e+000 5.591580e-001 8.230341e-001 8.256774e-001 1.176848e+000 1.541676e+000 2.295805e+000 3.214616e+000 2.261082e+000 2.539932e+000 3.973167e+000 8.750711e-001 1.556910e+000 2.300819e-001 3.032409e-002 1.594227e-001 1.014510e-001 2.200757e-001 2.089329e-001 2.052253e-001 3.656959e-001 3.970586e-001 3.480975e-001 2.948088e-001 1.191801e-001 3.136209e-001 1.919090e-002
<GCONST> 9.254889e+001
<STATE> 8
<NUMMIXES> 4
<MIXTURE> 1 6.039895e-002
<MEAN> 39
 -9.824139e+000 -1.608244e+001 8.717653e+000 -9.920008e+000 -2.791915e+001 -2.114706e+001 -1.553835e+001 -2.088041e+000 6.979585e+000 -7.918385e+000 6.564901e+000 -8.114299e-001 7.475771e+001 4.665050e-001 1.624912e-001 5.361884e-001 -1.043759e+000 -1.898704e+000 -1.003564e+000 8.370023e-001 3.769823e-001 1.017490e+000 6.965683e-001 8.430339e-001 7.942564e-001 9.272491e-001 -1.160825e-001 1.745673e-001 -5.011563e-001 -1.177329e-001 4.603968e-001 6.744962e-001 4.771758e-001 -1.703027e-001 8.379428e-002 -2.125132e-001 -6.920321e-001 -1.401563e-001 -1.557000e-001
<VARIANCE> 39
 1.085379e+000 5.203392e+000 2.926655e+001 3.309225e+001 3.383103e+001 3.653479e+001 1.494726e+001 7.214398e+000 1.075659e+001 1.921256e+001 2.268535e+001 6.806614e+000 8.902058e+000 1.986463e-001 6.268439e-001 3.467165e+000 1.486651e+000 3.334426e+000 4.045537e+000 2.275453e+000 7.503113e-001 6.147720e-001 1.576387e+000 5.463232e+000 1.235475e+000 6.294773e-001 2.890178e-002 7.561702e-002 4.860778e-001 4.149940e-001 3.583121e-001 2.842635e-001 2.711409e-001 1.550397e-001 1.195640e-001 3.813976e-001 3.570301e-001 9.310308e-002 8.085980e-002
<GCONST> 8.656304e+001
<MIXTURE> 2 2.915893e-001
<MEAN> 39
 -1.641658e+001 -1.527601e+001 -3.738467e-002 -1.176398e+001 -1.025094e+001 -1.158710e+000 -7.978274e+000 -5.527381e-001 3.869884e+000 -1.260090e+001 -4.117009e+000 -2.122401e+000 6.809151e+001 -1.507189e-001 1.621095e-001 1.868817e-001 -2.727919e-001 -5.026534e-001 1.353578e-001 1.334282e-002 2.335211e-002 -4.275454e-001 3.472127e-001 2.102529e-001 5.054088e-001 9.641889e-002 4.853958e-001 5.931384e-001 4.673985e-001 1.145872e-001 -5.844921e-001 -6.652759e-001 -6.155095e-001 -5.604948e-001 -4.888595e-001 -6.675709e-002 -1.379277e-001 -1.786557e-001 2.922006e-001
<VARIANCE> 39
 6.731868e+000 1.000204e+001 1.415834e+001 2.398468e+001 2.190543e+001 2.369589e+001 1.591626e+001 1.067162e+001 2.394615e+001 2.809834e+001 1.088515e+001 2.456127e+001 5.340552e+000 1.758430e-001 3.664682e-001 4.974437e-001 5.772457e-001 9.293325e-001 1.426741e+000 1.455880e+000 1.019568e+000 1.592341e+000 2.391274e+000 1.410592e+000 1.098161e+000 6.401229e-002 3.102820e-002 6.341062e-002 1.228626e-001 2.180627e-001 3.320625e-001 3.094044e-001 2.397691e-001 2.313877e-001 3.344325e-001 4.270361e-001 3.664600e-001 3.848278e-001 9.645749e-003
<GCONST> 7.902608e+001
<MIXTURE> 3 1.869446e-001
<MEAN> 39
 -1.218238e+001 -1.039226e+001 2.951539e+000 -9.696851e+000 -1.486569e+001 -8.170520e+000 -1.380239e+001 -5.418866e+000 -3.798044e+000 -2.076625e+001 -1.261988e+001 -7.121117e+000 6.971162e+001 -8.476740e-001 -5.526038e-001 -1.296695e-001 -2.048141e-001 2.838658e-001 8.279405e-001 9.670693e-001 3.280417e-001 -1.188259e-001 4.410016e-001 1.592251e-001 5.594009e-001 -3.543015e-001 1.414181e-001 -8.471890e-002 -1.371870e-001 -3.414283e-001 -6.564493e-001 -5.819922e-001 1.200227e-001 6.150469e-001 6.829088e-001 1.130600e+000 7.435585e-001 5.341415e-001 2.811856e-001
<VARIANCE> 39
 3.045805e+000 2.207730e+001 8.600408e+000 1.428954e+001 1.487380e+001 1.738204e+001 1.709890e+001 1.407771e+001 2.547205e+001 2.877015e+001 3.347055e+001 1.289051e+001 2.308001e+000 3.988078e-001 4.180039e-001 1.465125e+000 1.579869e+000 2.279021e+000 3.084937e+000 1.525391e+000 2.617613e+000 3.223362e+000 5.995256e+000 3.681045e+000 2.584661e+000 4.535073e-001 6.388082e-002 6.628393e-002 5.778574e-002 1.765595e-001 2.319225e-001 3.960188e-001 4.996804e-001 5.452152e-001 4.046734e-001 3.865787e-001 4.448926e-001 2.755851e-001 6.046337e-002
<GCONST> 9.154470e+001
<MIXTURE> 4 4.610671e-001
<MEAN> 39
 -1.557842e+001 -1.501523e+001 -9.788510e-001 -1.469193e+001 -1.321640e+001 -4.328755e+000 -9.444005e+000 -1.914969e+000 5.145324e+000 -1.399306e+001 -5.024187e+000 -3.743811e+000 6.828805e+001 -6.960794e-001 -4.217120e-001 -2.044891e-001 -1.329008e-001 2.089477e-001 6.446146e-001 4.060654e-001 1.200781e-001 2.109654e-001 4.713508e-001 2.231731e-001 8.004444e-001 -2.452599e-001 2.331043e-001 1.997905e-001 1.417699e-001 1.084399e-002 -1.495131e-001 -2.985571e-001 -2.395181e-001 1.161159e-002 -6.976488e-002 1.188195e-001 1.767235e-003 -7.649840e-002 1.549904e-001
<VARIANCE> 39
 4.967331e+000 3.595825e+000 6.942991e+000 1.631520e+001 1.309462e+001 1.474271e+001 1.411175e+001 1.973595e+001 2.939720e+001 2.307556e+001 1.283221e+001 1.561442e+001 4.570470e+000 2.665473e-001 3.863283e-001 3.936367e-001 6.121897e-001 1.235998e+000 1.403764e+000 1.468699e+000 1.759406e+000 2.162929e+000 2.452316e+000 1.950293e+000 2.015278e+000 7.677402e-002 2.780107e-002 5.351625e-002 5.839190e-002 1.104945e-001 1.462616e-001 1.519273e-001 2.118361e-001 3.140675e-001 3.639740e-001 4.857927e-001 2.763914e-001 3.002476e-001 1.052098e-002
<GCONST> 7.494923e+001
<STATE> 9
<NUMMIXES> 4
<MIXTURE> 1 3.414102e-001
<MEAN> 39
 -1.124890e+001 -9.120452e+000 8.455769e+000 -8.609609e+000 -2.034495e+001 -8.444114e+000 -1.384570e+001 -9.683187e+000 -3.853042e+000 -1.308293e+001 -2.466423e+000 -2.126959e+000 7.275018e+001 6.286502e-001 1.151373e+000 1.034498e+000 2.312469e-001 -1.837334e+000 -1.046010e+000 -9.484553e-001 -9.427060e-001 -7.068879e-001 2.182187e-001 2.843472e-001 3.168691e-001 7.541360e-001 -3.001629e-001 -3.199054e-001 -5.292470e-001 -2.274165e-001 4.110541e-001 4.081481e-001 3.513620e-001 5.985888e-001 6.224240e-001 1.123586e-001 -7.961608e-002 2.654676e-002 -2.053859e-001
<VARIANCE> 39
 8.019411e+000 1.233132e+001 1.353304e+001 3.970572e+001 5.668743e+001 3.461988e+001 2.471888e+001 3.307772e+001 3.350459e+001 4.059748e+001 3.386053e+001 2.275316e+001 4.872176e+000 5.645018e-001 7.352524e-001 1.304597e+000 1.090402e+000 3.012589e+000 1.907130e+000 2.263613e+000 1.951999e+000 2.756143e+000 1.783009e+000 1.080884e+000 1.614647e+000 2.425459e-001 4.532328e-002 6.630424e-002 1.033764e-001 1.286237e-001 2.761374e-001 3.097201e-001 3.169958e-001 2.723946e-001 2.746350e-001 2.443490e-001 2.836014e-001 3.277427e-001 1.929242e-002
<GCONST> 9.167067e+001
<MIXTURE> 2 3.468764e-001
<MEAN> 39
 -1.569665e+001 -1.328568e+001 1.624223e+000 -1.234680e+001 -1.265066e+001 -2.704283e+000 -9.818899e+000 -2.346686e+000 1.654401e+000 -1.215694e+001 -5.564521e+000 -2.143161e+000 6.899691e+001 1.154546e+000 1.681095e+000 1.491316e+000 1.599827e-001 -1.874393e+000 -1.756081e+000 -1.559003e+000 -1.494887e+000 -1.392027e+000 9.050934e-001 2.237169e-001 3.451902e-001 9.312083e-001 3.084860e-001 4.032234e-001 2.631878e-001 -2.879651e-002 -4.965181e-001 -5.230411e-001 -3.963593e-001 -2.603093e-001 -1.057749e-001 3.458788e-001 8.234733e-002 9.798841e-002 2.550814e-001
<VARIANCE> 39
 7.707020e+000 9.799738e+000 1.211652e+001 2.328828e+001 1.780737e+001 2.205125e+001 2.101059e+001 2.440658e+001 2.628678e+001 3.633490e+001 2.845980e+001 1.881125e+001 5.616937e+000 3.005686e-001 8.409877e-001 7.891052e-001 1.274949e+000 2.327885e+000 1.900760e+000 1.948772e+000 2.148690e+000 2.435820e+000 3.960689e+000 2.110544e+000 2.073205e+000 1.510538e-001 5.658970e-002 9.668674e-002 1.365549e-001 2.246942e-001 3.272974e-001 2.966677e-001 3.378444e-001 3.068739e-001 3.447685e-001 6.978362e-001 3.680264e-001 3.627906e-001 2.494232e-002
<GCONST> 9.171021e+001
<MIXTURE> 3 2.114651e-001
<MEAN> 39
 -1.368694e+001 -9.577682e+000 -4.312251e-001 -2.216496e+001 -1.965132e+001 -1.246087e+001 -1.075953e+001 1.024208e+000 6.853775e+000 1.686616e+000 -4.261377e+000 4.233352e+000 7.117091e+001 4.750074e-001 8.059462e-001 4.032742e-001 -4.365303e-001 -4.791650e-001 -6.872325e-001 3.001775e-001 1.732257e-001 5.774083e-001 1.537950e+000 -1.272582e-001 9.362816e-001 4.828702e-001 -6.176814e-002 -8.710609e-002 2.130511e-002 2.224764e-001 1.889525e-001 2.470306e-001 1.694615e-001 8.251743e-002 1.286540e-001 -1.156508e-001 8.563560e-002 -1.022083e-001 -4.914341e-002
<VARIANCE> 39
 4.570758e+000 6.379724e+000 9.545656e+000 1.649972e+001 2.022455e+001 2.185575e+001 2.910149e+001 4.841448e+001 2.515322e+001 8.175101e+001 2.743991e+001 3.457168e+001 7.020646e+000 2.484807e-001 3.679820e-001 4.713347e-001 1.352659e+000 1.613932e+000 2.073831e+000 1.874181e+000 1.745031e+000 1.989864e+000 2.780357e+000 2.345846e+000 1.409450e+000 8.458428e-002 4.743284e-002 4.582965e-002 6.273118e-002 1.460353e-001 3.285560e-001 3.178613e-001 2.451789e-001 3.294321e-001 2.933940e-001 4.829307e-001 4.265988e-001 2.712293e-001 8.332586e-003
<GCONST> 8.537341e+001
<MIXTURE> 4 1.002483e-001
<MEAN> 39
 -1.217489e+001 -2.893259e+000 4.672575e+000 -1.930243e+001 -2.501063e+001 -1.233307e+001 -1.790256e+001 -1.815484e+000 -2.178818e+000 -4.095789e-001 -1.236406e+001 4.432224e+000 7.335906e+001 7.782575e-001 1.831978e+000 6.086206e-001 -1.858626e+000 -2.112060e+000 -1.342746e+000 -9.911670e-001 1.151784e+000 6.523589e-001 4.246924e+000 5.445964e-001 1.812433e+000 1.173015e+000 -3.295370e-001 -4.015654e-001 -2.348940e-001 4.016604e-001 8.410985e-001 6.471274e-001 4.566282e-001 4.742428e-001 3.513758e-001 -5.368817e-001 1.904573e-001 -2.611762e-001 -3.124811e-001
<VARIANCE> 39
 3.966817e+000 4.055228e+000 7.848243e+000 2.175051e+001 3.145543e+001 3.150393e+001 4.786015e+001 2.664553e+001 7.340463e+001 7.815771e+001 5.200520e+001 2.590002e+001 3.265303e+000 4.035654e-001 1.246663e+000 7.960243e-001 1.652512e+000 3.608379e+000 3.501308e+000 2.141636e+000 2.581893e+000 1.473435e+000 3.343390e+000 2.041126e+000 8.523734e-001 2.615208e-001 6.552277e-002 1.447881e-001 2.713283e-001 3.284816e-001 3.970118e-001 3.911999e-001 5.132641e-001 3.459430e-001 4.284853e-001 6.767166e-001 5.347115e-001 2.238619e-001 3.444507e-002
<GCONST> 9.793371e+001
<STATE> 10
<NUMMIXES> 4
<MIXTURE> 1 2.569050e-001
<MEAN> 39
 -1.145003e+001 -2.508724e+000 8.463695e+000 -7.952250e+000 -1.974453e+001 -5.322434e+000 -1.798779e+001 -3.056630e+000 -7.169287e+000 -6.979911e+000 -3.863038e+000 -3.345526e-001 7.414256e+001 8.931120e-004 7.518882e-003 -3.628826e-002 -3.921967e-001 -6.820601e-001 -2.259715e-001 -2.301215e-001 3.342944e-001 2.166780e-001 8.527037e-001 2.588326e-001 3.431168e-001 2.811497e-001 2.073200e-002 -2.004517e-001 -9.872182e-002 -1.125007e-001 3.244717e-002 -3.317285e-002 1.353099e-001 3.775753e-002 2.315562e-001 1.139205e-001 5.487784e-002 -1.666259e-002 -4.375904e-002
<VARIANCE> 39
 5.585357e+000 8.306693e+000 1.367865e+001 3.786520e+001 6.885707e+001 3.579132e+001 1.626147e+001 4.503963e+001 3.250895e+001 7.963866e+001 4.754338e+001 1.729073e+001 6.320339e+000 1.128128e-001 3.428291e-001 3.253388e-001 5.973797e-001 1.186778e+000 9.094778e-001 6.332749e-001 8.161042e-001 1.637266e+000 1.388455e+000 9.932573e-001 8.758349e-001 7.548629e-002 2.935245e-002 4.724905e-002 7.302273e-002 8.880463e-002 2.253735e-001 1.626656e-001 1.677351e-001 1.768080e-001 2.377202e-001 2.022089e-001 1.585230e-001 1.540187e-001 1.455841e-002
<GCONST> 7.578834e+001
<MIXTURE> 2 1.520863e-001
<MEAN> 39
 -9.500626e+000 -1.168939e+001 2.620352e+000 -1.641818e+001 -3.009603e+001 -1.783424e+001 -4.566997e+000 -5.074477e-001 1.295142e+001 -2.172581e+000 -3.705408e-001 -9.221003e-001 7.593371e+001 3.029028e-001 -2.066366e-001 -1.035185e+000 -5.123964e-001 -5.539250e-001 3.249260e-001 1.692623e+000 2.275177e+000 1.733718e+000 9.964272e-001 -1.870848e-001 -4.056395e-001 3.744240e-001 -6.618703e-002 -1.412437e-001 -1.348912e-001 -8.843227e-002 2.036726e-001 2.497553e-001 9.859663e-002 1.121149e-001 -2.845507e-001 -4.272160e-001 -2.359357e-001 -1.983898e-001 -3.583399e-002
<VARIANCE> 39
 9.778288e+000 7.685238e+000 7.878438e+000 3.743543e+001 4.062716e+001 2.690388e+001 2.112146e+001 4.025343e+001 3.286524e+001 2.664820e+001 2.609598e+001 3.221467e+001 7.506888e+000 1.403846e-001 1.470323e-001 5.251610e-001 5.728520e-001 8.742220e-001 7.133801e-001 9.857769e-001 1.048222e+000 9.823703e-001 1.629555e+000 1.558863e+000 9.913749e-001 4.252663e-002 2.102770e-002 3.404908e-002 7.114859e-002 1.174754e-001 1.402411e-001 1.734094e-001 2.255659e-001 2.520125e-001 1.781224e-001 2.631702e-001 2.139745e-001 2.295827e-001 1.067856e-002
<GCONST> 7.395450e+001
<MIXTURE> 3 2.570884e-001
<MEAN> 39
 -1.183041e+001 -5.268859e-001 4.984481e+000 -2.180677e+001 -2.541079e+001 -1.133408e+001 -1.770642e+001 5.042741e-001 6.666615e+000 1.102826e+001 -6.764328e+000 9.763243e+000 7.604515e+001 2.014314e-001 2.803249e-003 -6.247839e-002 -2.265086e-001 -4.399505e-001 -3.486388e-001 4.572577e-001 -3.902919e-002 8.327549e-001 7.875962e-001 3.164535e-001 6.212004e-002 2.626212e-001 -5.114787e-002 -2.957256e-001 -1.437706e-001 3.478479e-002 8.509147e-002 1.798833e-001 3.563995e-001 -6.592603e-002 -1.939455e-001 -4.758187e-001 -2.635123e-001 -3.443027e-001 -5.715574e-002
<VARIANCE> 39
 5.800286e+000 9.243963e+000 6.886073e+000 1.363276e+001 1.344502e+001 4.269653e+001 3.986183e+001 3.034502e+001 4.911745e+001 4.152333e+001 3.949294e+001 2.655724e+001 9.738238e+000 2.258742e-001 6.991588e-001 5.121447e-001 6.889501e-001 1.013723e+000 1.360101e+000 1.571459e+000 1.763880e+000 1.734709e+000 2.530468e+000 2.327873e+000 1.528490e+000 7.069848e-002 4.757382e-002 6.339641e-002 8.034612e-002 1.293539e-001 2.006708e-001 3.026129e-001 2.310531e-001 3.785188e-001 3.244590e-001 5.895883e-001 4.746197e-001 2.832653e-001 1.335298e-002
<GCONST> 8.547129e+001
<MIXTURE> 4 3.339203e-001
<MEAN> 39
 -1.017823e+001 -1.027740e+001 6.005435e+000 -1.296073e+001 -2.127250e+001 -1.148265e+001 -1.183630e+001 -9.243023e+000 9.070707e-001 -1.318040e+001 -2.697571e+000 -2.976360e+000 7.299837e+001 2.080874e-001 -5.565352e-002 -3.137817e-001 -1.395377e-001 -6.457930e-001 -5.130196e-001 1.996333e-001 6.090220e-001 6.268354e-001 7.686012e-001 4.806301e-001 2.847447e-001 1.745195e-001 -6.339705e-003 -4.326042e-002 -6.315461e-002 8.067102e-003 -3.704504e-002 -7.851294e-002 1.094764e-001 2.459317e-001 9.873442e-002 1.043785e-001 7.560802e-002 8.854456e-002 9.980008e-003
<VARIANCE> 39
 8.614243e+000 3.236655e+000 1.733707e+001 2.375581e+001 2.916749e+001 1.506389e+001 1.379513e+001 3.328371e+001 2.448092e+001 2.867155e+001 2.529450e+001 1.902995e+001 4.001937e+000 8.050258e-002 1.793123e-001 3.337265e-001 4.247700e-001 9.468328e-001 9.305189e-001 1.003985e+000 1.235336e+000 1.655787e+000 1.109972e+000 6.854309e-001 1.081409e+000 3.003613e-002 1.775990e-002 3.648385e-002 6.875945e-002 6.858624e-002 1.425613e-001 1.618158e-001 2.136555e-001 2.641062e-001 2.573881e-001 2.256334e-001 1.048714e-001 1.508922e-001 6.038571e-003
<GCONST> 6.661411e+001
<STATE> 11
<NUMMIXES> 4
<MIXTURE> 1 2.679994e-001
<MEAN> 39
 -1.105744e+001 -9.164367e+000 1.226537e+000 -2.441449e+001 -2.677065e+001 -9.939320e+000 -1.112577e+000 3.597137e+000 1.196701e+001 1.001539e+001 -6.494314e+000 -3.620527e-001 7.801041e+001 9.539355e-002 -1.194616e+000 -8.614481e-001 -3.449431e-001 4.649271e-001 7.101265e-001 2.179733e+000 1.327791e+000 -5.354759e-001 -1.271590e+000 -6.620091e-001 -1.847740e+000 8.020258e-002 2.502002e-002 1.680863e-002 -9.548642e-002 1.088233e-001 2.475201e-001 1.874267e-002 -1.339826e-001 3.440827e-002 -2.291142e-001 -4.430197e-001 2.776659e-002 1.531717e-001 -6.141259e-002
<VARIANCE> 39
 6.238719e+000 1.461429e+001 1.324834e+001 1.640841e+001 1.664100e+001 3.327094e+001 6.994071e+001 3.925163e+001 2.841600e+001 5.487416e+001 6.620621e+001 3.298985e+001 1.157641e+001 2.123195e-001 2.929209e-001 5.034879e-001 4.259055e-001 7.627661e-001 8.319094e-001 7.771674e-001 1.115701e+000 1.362468e+000 1.440771e+000 2.171109e+000 1.423040e+000 5.532705e-002 3.120875e-002 5.767322e-002 8.164722e-002 9.216401e-002 1.598306e-001 1.050756e-001 1.723456e-001 1.985833e-001 2.968185e-001 3.739623e-001 3.621831e-001 2.679046e-001 1.332414e-002
<GCONST> 7.976888e+001
<MIXTURE> 2 2.480716e-001
<MEAN> 39
 -9.420466e+000 -4.878863e+000 7.132172e+000 -1.472337e+001 -1.640674e+001 -1.319626e+001 -1.847866e+001 -1.110469e+001 -2.099560e+000 -8.055640e+000 -3.624766e+000 2.471244e+000 7.284523e+001 4.731056e-003 -2.029960e-002 -8.131871e-002 -1.183432e-001 -3.457409e-001 -1.634885e-001 3.484867e-001 2.412092e-001 2.009311e-001 3.015821e-001 -2.676607e-001 -3.132661e-001 3.164785e-002 -2.530364e-002 -9.539274e-002 -9.633093e-002 -6.486975e-002 -3.509473e-002 1.552478e-001 2.262726e-001 8.862324e-002 -2.885375e-002 -1.581299e-001 -1.625479e-001 -2.790067e-001 -1.607554e-002
<VARIANCE> 39
 2.218564e+000 1.229092e+001 6.990119e+000 7.622196e+000 8.735497e+000 1.631599e+001 1.285643e+001 2.342408e+001 2.886668e+001 4.862781e+001 2.309790e+001 2.368812e+001 7.059932e-001 8.209824e-002 2.693999e-001 4.203538e-001 4.931769e-001 7.660625e-001 1.017292e+000 1.568713e+000 1.003393e+000 7.250587e-001 1.477078e+000 1.608623e+000 2.514960e+000 3.478584e-002 1.315420e-002 3.015963e-002 5.747381e-002 9.925012e-002 1.200724e-001 1.618768e-001 1.745934e-001 1.394734e-001 1.412197e-001 2.735857e-001 2.978117e-001 3.478553e-001 4.649887e-003
<GCONST> 6.420976e+001
<MIXTURE> 3 2.928420e-001
<MEAN> 39
 -9.186850e+000 -5.553526e+000 7.465253e-001 -1.933595e+001 -2.402940e+001 -9.575005e+000 -8.308671e+000 6.895042e+000 3.044447e+000 -7.652047e-001 -8.157917e+000 7.626492e-001 7.357565e+001 1.705470e-001 -4.332518e-001 -9.619183e-001 -6.353713e-001 8.705567e-002 8.222820e-001 1.755815e+000 1.784247e+000 7.426142e-001 -8.395700e-001 -7.305807e-001 -4.642056e-001 1.182359e-001 1.150046e-002 -2.111767e-002 -5.517472e-002 -5.982424e-003 1.709359e-001 4.375946e-002 -2.146730e-002 1.649688e-002 2.220481e-002 -1.656528e-001 5.189846e-002 2.073420e-001 7.312652e-005
<VARIANCE> 39
 2.036036e+000 1.936906e+001 2.197286e+001 2.615299e+001 1.807322e+001 3.207160e+001 3.282194e+001 6.399751e+001 4.912205e+001 5.667578e+001 4.646105e+001 4.191121e+001 3.979309e+000 6.816817e-002 2.233819e-001 2.498603e-001 5.942981e-001 7.198213e-001 6.721818e-001 7.233625e-001 1.010701e+000 1.623437e+000 1.299645e+000 6.690111e-001 9.664564e-001 3.955355e-002 1.322261e-002 3.102105e-002 4.483931e-002 7.175293e-002 6.687662e-002 1.455656e-001 1.446956e-001 2.951710e-001 2.420167e-001 2.011851e-001 1.372884e-001 2.340696e-001 5.707248e-003
<GCONST> 6.960477e+001
<MIXTURE> 4 1.910869e-001
<MEAN> 39
 -1.189439e+001 -1.091269e+001 7.543536e+000 -3.535492e+000 -3.455757e+001 -1.320566e+001 -1.675320e+001 -3.229643e+000 1.575734e+000 -6.672281e+000 7.461995e+000 3.961030e+000 7.524826e+001 5.304341e-001 -2.268100e-001 -6.497039e-001 -2.943265e-001 -3.907305e-001 -1.572663e+000 -2.409707e-001 1.279543e+000 1.099597e+000 9.564236e-001 7.368024e-001 4.354121e-001 1.757756e-001 8.746104e-002 4.090838e-002 -3.884492e-002 -6.163425e-002 1.996552e-001 8.413277e-003 7.171131e-002 2.402482e-001 2.421589e-001 5.644953e-002 -2.058350e-001 -1.152253e-001 -2.944219e-002
<VARIANCE> 39
 1.443928e+001 9.047837e+000 9.183865e+000 2.525894e+001 5.104847e+001 6.539184e+001 1.473929e+001 3.229005e+001 2.613043e+001 7.058961e+001 1.509470e+001 2.002143e+001 1.892046e+000 3.772494e-001 5.348181e-001 5.541713e-001 8.771876e-001 1.010222e+000 1.067992e+000 1.177832e+000 1.415412e+000 1.374575e+000 6.119276e-001 7.639953e-001 1.243463e+000 5.646488e-002 4.248708e-002 4.354686e-002 1.025114e-001 1.078139e-001 8.684621e-002 2.629985e-001 1.297767e-001 1.655691e-001 2.313927e-001 7.809846e-002 1.779105e-001 2.353580e-001 7.506629e-003
<GCONST> 7.481453e+001
<STATE> 12
<NUMMIXES> 4
<MIXTURE> 1 2.511350e-001
<MEAN> 39
 -7.906602e+000 -1.385150e+001 -7.198356e+000 -2.106526e+001 -1.994106e+001 -6.333293e+000 7.291112e-001 1.583326e+001 8.004312e+000 -2.992849e+000 -1.305370e+001 6.698100e-002 7.845647e+001 -1.038743e-002 -4.569879e-001 -8.748524e-001 2.821091e-001 1.394711e+000 4.847700e-001 3.815137e-001 -1.158509e-001 -2.233215e-001 -1.385857e+000 -4.991762e-001 2.757321e-001 -2.682137e-001 -1.476466e-001 2.163957e-001 2.028110e-001 1.007880e-001 -6.830847e-002 -1.665701e-001 -3.848484e-001 -4.019658e-001 -8.108780e-002 2.156694e-002 1.104037e-001 -6.812239e-002 -1.464878e-001
<VARIANCE> 39
 6.299406e+000 3.212943e+001 1.718406e+001 3.106571e+001 3.512829e+001 6.689397e+001 3.268921e+001 2.208893e+001 4.602997e+001 4.212696e+001 3.513354e+001 5.902469e+001 1.369164e+001 2.364507e-001 6.328727e-001 7.515041e-001 6.587492e-001 8.502762e-001 1.297810e+000 1.473420e+000 1.650010e+000 1.276537e+000 1.276218e+000 1.510535e+000 1.777338e+000 1.195698e-001 2.856611e-002 8.949427e-002 6.852466e-002 1.606178e-001 1.633278e-001 1.895243e-001 2.080898e-001 3.745894e-001 2.100529e-001 1.821144e-001 1.788163e-001 3.727650e-001 1.425892e-002
<GCONST> 8.644422e+001
<MIXTURE> 2 1.338964e-001
<MEAN> 39
 -1.086830e+001 -5.602322e+000 3.689723e+000 -1.538464e+001 -1.939977e+001 -8.707394e+000 -1.061018e+001 -7.171118e+000 -7.064615e+000 -8.462174e+000 -1.232464e+001 -4.754171e+000 7.190862e+001 -1.207669e-001 -6.497832e-001 -4.151765e-001 2.763817e-001 5.721877e-001 6.202040e-001 5.342489e-001 4.395430e-002 -1.830510e-001 -1.331561e+000 -4.139148e-001 -4.515158e-001 -3.143110e-001 -3.972987e-002 -3.975042e-002 9.370727e-002 1.590945e-001 2.522376e-001 6.342354e-003 -2.682719e-001 -1.032248e-001 4.693165e-002 -4.221145e-002 5.705209e-002 5.165022e-002 -7.064030e-002
<VARIANCE> 39
 1.251785e+000 2.214693e+001 5.907699e+000 6.147751e+000 2.040075e+001 8.687420e+000 1.699676e+001 3.707371e+001 1.104004e+001 5.586551e+001 2.383904e+001 1.197371e+001 2.641217e+000 7.793348e-002 2.409690e-001 1.871013e-001 7.095913e-001 1.092093e+000 6.193181e-001 1.123476e+000 9.433281e-001 1.587824e+000 1.206585e+000 1.358195e+000 1.369487e+000 6.578540e-002 1.318313e-002 4.585341e-002 1.961291e-002 7.787197e-002 1.269997e-001 9.490307e-002 1.559450e-001 1.704326e-001 1.976990e-001 1.618996e-001 2.105289e-001 1.873681e-001 1.071492e-002
<GCONST> 6.233500e+001
<MIXTURE> 3 2.151085e-001
<MEAN> 39
 -7.536709e+000 -1.100753e+001 3.368285e+000 -8.763042e+000 -2.800992e+001 -1.842208e+001 -1.429410e+001 7.681538e+000 1.002025e+001 -7.186916e+000 4.889874e+000 4.030851e+000 7.622704e+001 2.219182e-001 1.150392e-001 -1.000862e+000 -7.261000e-001 6.086414e-001 2.290185e-001 1.896947e-001 1.202752e+000 1.622693e+000 6.047168e-001 -7.490050e-001 -3.864949e-001 -1.552024e-001 -1.158315e-001 7.497235e-002 4.121447e-002 -5.037837e-002 2.391000e-001 3.838210e-001 3.002547e-003 -3.596665e-001 -2.083281e-001 -1.211844e-001 -2.571479e-001 -2.599375e-001 -1.013129e-001
<VARIANCE> 39
 3.644278e+000 4.392041e+000 1.134664e+001 1.980763e+001 8.454996e+001 3.875971e+001 4.467601e+001 3.739096e+001 7.401181e+001 5.740715e+001 3.718922e+001 1.480073e+001 1.429906e+000 1.641607e-001 2.418982e-001 4.782868e-001 6.777539e-001 6.424811e-001 1.081405e+000 1.034581e+000 1.752478e+000 1.389323e+000 1.127495e+000 1.317841e+000 1.336022e+000 6.584737e-002 3.166600e-002 3.205942e-002 9.379212e-002 1.348305e-001 8.555093e-002 1.539389e-001 1.570638e-001 1.361113e-001 2.447709e-001 1.531063e-001 2.322309e-001 1.427544e-001 7.711365e-003
<GCONST> 7.358165e+001
<MIXTURE> 4 3.998601e-001
<MEAN> 39
 -9.861208e+000 -1.263389e+001 -4.363201e+000 -2.319032e+001 -2.061711e+001 -9.463940e+000 6.098214e+000 8.829788e+000 9.135455e+000 -8.355574e+000 -4.181129e+000 -4.602603e+000 7.433380e+001 -8.979061e-002 -2.675937e-001 -5.334507e-001 1.659688e-001 9.502837e-001 4.354550e-001 3.874501e-001 6.221554e-001 -2.853907e-001 -1.427214e+000 -2.027413e-001 3.309920e-001 -1.625178e-001 -7.393222e-002 4.988563e-002 1.311771e-001 1.321185e-001 6.347796e-002 3.461862e-002 -3.058842e-001 -2.854677e-001 2.150229e-003 1.460362e-001 5.571174e-003 1.333287e-001 -8.704818e-002
<VARIANCE> 39
 6.358140e+000 3.189032e+000 8.073105e+000 1.580626e+001 4.612134e+001 3.589554e+001 3.588721e+001 3.023624e+001 4.059957e+001 8.714649e+001 2.680474e+001 1.931113e+001 4.261820e+000 1.543705e-001 2.279810e-001 4.622327e-001 6.604601e-001 6.766910e-001 1.177939e+000 1.246997e+000 1.456024e+000 1.307198e+000 1.343083e+000 9.144015e-001 1.098468e+000 6.056217e-002 2.445636e-002 3.552804e-002 5.937461e-002 9.731824e-002 1.394083e-001 1.591164e-001 1.375572e-001 2.059668e-001 2.928335e-001 1.856047e-001 1.545083e-001 2.252396e-001 7.539749e-003
<GCONST> 7.267457e+001
<STATE> 13
<NUMMIXES> 4
<MIXTURE> 1 3.398297e-001
<MEAN> 39
 -1.099497e+001 -1.237044e+001 -6.815777e+000 -2.161095e+001 -1.557536e+001 -6.545809e+000 2.244899e+000 1.205381e+001 6.010991e+000 -1.351129e+001 -1.058164e+001 2.753106e-001 7.247393e+001 -7.189629e-001 -3.039467e-001 2.778707e-001 6.002647e-001 7.758362e-001 8.244625e-001 -1.785829e+000 -1.452060e+000 -1.186895e-001 -8.037320e-001 -3.231229e-001 -8.898665e-001 -9.122343e-001 -1.359245e-001 -1.054440e-001 1.826216e-001 2.471633e-001 -2.124695e-002 -4.036580e-002 -3.017993e-001 -4.575874e-001 -1.616184e-001 2.479737e-002 7.094440e-002 -2.343521e-001 -9.322167e-002
<VARIANCE> 39
 6.254488e+000 1.191067e+001 8.114935e+000 1.255660e+001 3.152334e+001 3.054304e+001 4.418836e+001 3.970132e+001 4.173838e+001 7.147429e+001 5.977881e+001 2.187168e+001 7.946403e+000 2.028871e-001 5.841199e-001 4.072558e-001 7.163252e-001 1.745515e+000 1.049185e+000 1.689657e+000 1.766123e+000 2.395365e+000 2.251884e+000 1.331977e+000 1.444238e+000 1.444653e-001 3.111351e-002 7.813729e-002 6.018046e-002 1.065241e-001 1.225506e-001 1.488279e-001 2.657644e-001 2.075720e-001 3.647269e-001 3.417700e-001 1.679276e-001 2.054352e-001 1.288697e-002
<GCONST> 8.316802e+001
<MIXTURE> 2 2.060397e-001
<MEAN> 39
 -1.082519e+001 -1.480078e+001 -6.575320e+000 -1.888782e+001 -1.449793e+001 -3.300125e+000 -2.476326e+000 7.784162e+000 9.143724e+000 -8.666315e+000 -1.128656e+001 -7.211617e+000 7.378875e+001 -1.103349e+000 -5.449534e-002 6.317976e-001 8.266121e-001 9.550485e-001 1.141556e-001 -1.041385e+000 -1.383860e+000 -1.029870e+000 -1.308128e+000 6.464100e-001 -1.335588e-002 -1.237230e+000 -1.560335e-001 -1.916294e-001 7.765198e-002 4.257585e-002 1.049568e-001 1.759031e-001 1.334486e-001 5.510348e-002 -7.778791e-002 7.771201e-003 2.063642e-001 2.494689e-001 -4.402199e-002
<VARIANCE> 39
 8.339359e+000 5.262873e+000 1.622014e+001 3.162453e+001 1.531125e+001 5.056395e+001 2.456706e+001 1.862447e+001 1.666795e+001 2.308469e+001 2.409037e+001 2.807331e+001 1.228813e+001 3.029974e-001 9.066411e-001 8.807926e-001 1.252600e+000 9.842035e-001 2.193287e+000 1.658289e+000 1.288207e+000 9.773406e-001 1.163206e+000 1.447513e+000 2.179258e+000 2.842360e-001 4.612625e-002 1.339717e-001 2.657398e-001 2.390452e-001 1.443520e-001 2.408775e-001 2.848574e-001 1.979731e-001 1.925186e-001 2.992808e-001 2.185964e-001 2.978332e-001 4.560563e-002
<GCONST> 8.705799e+001
<MIXTURE> 3 2.532156e-001
<MEAN> 39
 -7.789101e+000 -9.003243e+000 -7.622479e-001 -1.181598e+001 -2.529499e+001 -1.167054e+001 -1.189512e+001 8.623000e+000 1.234623e+001 -2.935760e+000 -1.598770e-001 -1.410149e-001 7.338552e+001 -7.279831e-001 -1.338092e-001 -2.985975e-001 -3.422929e-001 1.973468e+000 1.557423e+000 4.961037e-001 -6.543470e-001 -6.514707e-001 -1.168761e+000 -1.039736e+000 -7.671442e-001 -7.803636e-001 -2.678401e-001 -2.283413e-001 1.388824e-001 1.937071e-001 3.718237e-001 3.334207e-001 1.407601e-001 -2.049242e-001 -3.767059e-001 -3.378978e-001 3.251448e-002 -1.434971e-002 -1.317921e-001
<VARIANCE> 39
 3.410910e+000 9.908345e+000 7.431750e+000 1.133747e+001 4.499139e+001 5.088005e+001 7.591903e+001 5.302767e+001 3.302806e+001 3.891605e+001 2.804811e+001 1.239096e+001 5.771460e+000 3.025093e-001 4.495880e-001 5.455204e-001 9.931551e-001 1.026908e+000 1.477093e+000 1.125140e+000 6.877227e-001 1.689876e+000 1.270267e+000 1.454659e+000 1.196001e+000 8.795546e-002 1.735337e-002 5.068856e-002 7.596732e-002 1.294924e-001 1.459910e-001 1.664792e-001 2.086459e-001 1.858018e-001 2.609793e-001 1.998813e-001 2.058043e-001 2.454788e-001 1.022262e-002
<GCONST> 7.772263e+001
<MIXTURE> 4 2.009150e-001
<MEAN> 39
 -1.329312e+001 -1.168444e+001 -2.347813e+000 -1.673137e+001 -1.380616e+001 -6.711947e+000 -1.006756e+001 -2.509283e+000 -9.187846e-001 -1.805496e+001 -1.204638e+001 -5.470994e+000 6.956445e+001 -8.554356e-001 -8.742453e-001 3.699361e-001 1.072160e+000 1.191401e+000 8.475129e-001 -9.664013e-001 -1.339612e+000 -5.646790e-001 -1.317718e+000 -6.214812e-001 -7.684827e-001 -8.582307e-001 -5.903370e-002 -9.806910e-002 -4.466610e-002 5.098251e-003 7.020875e-002 1.095296e-001 4.152283e-001 5.724629e-001 3.227374e-001 6.044177e-001 3.258388e-001 2.001341e-001 3.671970e-002
<VARIANCE> 39
 1.704946e+000 1.298695e+001 1.416241e+001 2.582906e+001 1.150985e+001 2.872939e+001 2.249781e+001 4.860785e+001 3.328391e+001 5.410516e+001 2.834205e+001 1.951772e+001 3.184676e+000 1.485416e-001 2.284441e-001 3.012180e-001 5.081939e-001 7.791818e-001 1.620909e+000 1.849071e+000 2.086508e+000 1.518899e+000 1.725811e+000 1.357941e+000 1.388792e+000 8.712962e-002 7.369597e-003 2.966766e-002 6.910026e-002 1.559091e-001 2.124706e-001 2.148482e-001 2.934088e-001 4.095133e-001 3.924224e-001 3.772345e-001 3.142860e-001 2.695506e-001 6.897628e-003
<GCONST> 7.640646e+001
<STATE> 14
<NUMMIXES> 4
<MIXTURE> 1 1.442569e-001
<MEAN> 39
 -1.241658e+001 -1.200638e+001 -2.609329e-001 -1.100769e+001 -1.314526e+001 -3.832365e+000 -8.153673e+000 5.700378e+000 8.281134e+000 -1.045298e+001 -3.250838e+000 -3.506060e+000 7.017969e+001 -1.470096e+000 -9.962067e-001 3.589096e-002 4.968794e-001 3.007302e+000 2.521508e+000 1.078738e+000 -7.837327e-001 -7.697973e-001 -1.269290e+000 -5.651439e-001 -6.833289e-001 -1.064596e+000 -1.201739e-003 -1.031292e-001 -1.460434e-001 -1.725655e-001 -4.558639e-001 -3.929322e-001 -1.952379e-002 2.345104e-001 3.018734e-001 1.768686e-001 2.351336e-001 2.481900e-001 7.146323e-002
<VARIANCE> 39
 4.847046e+000 7.762500e+000 1.054916e+001 1.764473e+001 2.924161e+001 2.421773e+001 3.187622e+001 2.799252e+001 1.871191e+001 1.717098e+001 1.694407e+001 1.186590e+001 5.261002e+000 1.864737e-001 3.178150e-001 4.581965e-001 7.831883e-001 1.392294e+000 9.982706e-001 1.829048e+000 2.186435e+000 2.296217e+000 1.698895e+000 2.191902e+000 1.171968e+000 1.828224e-001 3.380197e-002 6.672841e-002 7.751597e-002 2.156653e-001 2.322528e-001 1.895157e-001 1.886553e-001 2.621701e-001 2.850906e-001 2.592660e-001 3.426975e-001 1.825647e-001 1.211297e-002
<GCONST> 7.898894e+001
<MIXTURE> 2 1.807360e-001
<MEAN> 39
 -1.548944e+001 -1.504685e+001 -1.108098e+000 -1.364178e+001 -9.845920e+000 -3.177616e+000 -1.026701e+001 -5.354176e+000 -1.680168e+000 -1.760332e+001 -1.070699e+001 -6.313335e+000 6.737450e+001 -8.320056e-001 -9.699260e-001 -5.779675e-001 7.594512e-002 1.626726e-001 6.551150e-001 2.522059e-001 7.540593e-001 1.417622e+000 1.574882e+000 1.667020e+000 8.738576e-001 -5.789210e-001 7.712596e-002 4.073708e-002 -1.886264e-001 -2.561245e-001 -1.837863e-001 1.265762e-001 4.358706e-001 5.671884e-001 4.637817e-001 2.516840e-001 2.077436e-001 2.795109e-001 9.761779e-002
<VARIANCE> 39
 3.311849e+000 6.718180e+000 6.621116e+000 1.774068e+001 8.914359e+000 1.255723e+001 2.166506e+001 1.644276e+001 2.274882e+001 2.679711e+001 2.058396e+001 1.610357e+001 3.893611e+000 1.261317e-001 3.343639e-001 7.885063e-001 9.909703e-001 8.608971e-001 1.754068e+000 2.873739e+000 3.446233e+000 2.286952e+000 1.411326e+000 8.492811e-001 1.019618e+000 8.261358e-002 2.658277e-002 4.892350e-002 1.243673e-001 1.276339e-001 1.713846e-001 1.941287e-001 2.367202e-001 3.230250e-001 3.691474e-001 3.316367e-001 2.737927e-001 2.393710e-001 1.238878e-002
<GCONST> 7.556307e+001
<MIXTURE> 3 2.836366e-001
<MEAN> 39
 -1.641949e+001 -1.585976e+001 -2.872339e+000 -1.320382e+001 -9.202807e+000 5.895119e-001 -3.419469e+000 5.155110e+000 6.868958e+000 -1.479977e+001 -7.133862e+000 -4.061680e+000 6.792432e+001 -9.604766e-001 -5.947812e-001 6.192501e-002 3.451613e-001 8.014980e-001 5.973223e-001 -1.661188e-001 -3.297111e-001 2.438729e-001 1.667342e-001 7.310063e-001 2.934363e-001 -7.026253e-001 1.924609e-001 1.251811e-001 -1.077485e-001 -3.250693e-001 -5.502526e-001 -4.584583e-001 -8.887441e-002 1.231303e-001 2.998464e-001 4.232487e-001 2.352114e-001 7.704388e-002 1.442586e-001
<VARIANCE> 39
 5.176835e+000 4.828429e+000 8.589836e+000 2.185272e+001 1.520786e+001 1.680956e+001 1.572818e+001 2.407638e+001 2.115431e+001 2.463518e+001 2.905932e+001 1.539218e+001 5.568634e+000 2.518009e-001 3.782617e-001 7.995340e-001 1.527847e+000 1.078885e+000 1.134282e+000 2.218759e+000 2.509564e+000 2.382943e+000 1.561436e+000 1.307220e+000 1.130399e+000 9.276766e-002 3.696870e-002 5.194032e-002 7.632841e-002 1.265779e-001 1.636292e-001 2.238857e-001 3.954799e-001 3.391087e-001 4.460978e-001 3.334308e-001 2.829676e-001 2.062793e-001 1.469962e-002
<GCONST> 7.960502e+001
<MIXTURE> 4 3.913704e-001
<MEAN> 39
 -1.767065e+001 -1.741479e+001 -3.303986e+000 -1.525835e+001 -1.007199e+001 -5.685954e-001 -4.040673e+000 2.762873e+000 7.092203e+000 -1.291342e+001 -3.359993e+000 -3.564351e+000 6.715046e+001 -3.883786e-001 -2.136959e-001 -3.915122e-002 2.541315e-002 2.351210e-001 3.189934e-001 -4.536605e-002 -1.179385e-001 2.512626e-002 -5.087928e-002 3.090809e-001 9.619331e-002 -3.190486e-001 1.264489e-001 1.089498e-001 4.344855e-002 8.638596e-002 3.364111e-002 -4.841126e-003 -3.580536e-002 -1.572271e-001 -2.912638e-001 -2.590747e-001 -2.987583e-001 -1.052805e-001 8.549704e-002
<VARIANCE> 39
 3.120909e+000 4.205325e+000 9.058586e+000 1.507388e+001 1.509984e+001 1.497560e+001 2.203341e+001 2.847321e+001 2.745548e+001 2.676827e+001 2.131015e+001 2.238445e+001 4.826049e+000 1.479975e-001 2.598236e-001 4.074654e-001 5.989210e-001 9.476372e-001 1.128102e+000 1.711948e+000 1.676227e+000 1.786157e+000 2.167426e+000 1.727008e+000 9.538025e-001 5.244133e-002 2.713693e-002 5.074745e-002 9.336169e-002 1.026834e-001 1.320416e-001 1.783632e-001 2.956811e-001 2.393252e-001 2.809239e-001 2.811289e-001 3.010591e-001 1.935652e-001 7.563454e-003
<GCONST> 7.283143e+001
<TRANSP> 15
 0.000000e+000 1.000000e+000 0.000000e+000 0.000000e+000 0.000000e+000 0.000000e+000 0.000000e+000 0.000000e+000 0.000000e+000 0.000000e+000 0.000000e+000 0.000000e+000 0.000000e+000 0.000000e+000 0.000000e+000
 0.000000e+000 8.261469e-001 1.738531e-001 0.000000e+000 0.000000e+000 0.000000e+000 0.000000e+000 0.000000e+000 0.000000e+000 0.000000e+000 0.000000e+000 0.000000e+000 0.000000e+000 0.000000e+000 0.000000e+000
 0.000000e+000 0.000000e+000 8.562784e-001 1.437217e-001 0.000000e+000 0.000000e+000 0.000000e+000 0.000000e+000 0.000000e+000 0.000000e+000 0.000000e+000 0.000000e+000 0.000000e+000 0.000000e+000 0.000000e+000
 0.000000e+000 0.000000e+000 0.000000e+000 7.939893e-001 2.060107e-001 0.000000e+000 0.000000e+000 0.000000e+000 0.000000e+000 0.000000e+000 0.000000e+000 0.000000e+000 0.000000e+000 0.000000e+000 0.000000e+000
 0.000000e+000 0.000000e+000 0.000000e+000 0.000000e+000 8.168972e-001 1.831029e-001 0.000000e+000 0.000000e+000 0.000000e+000 0.000000e+000 0.000000e+000 0.000000e+000 0.000000e+000 0.000000e+000 0.000000e+000
 0.000000e+000 0.000000e+000 0.000000e+000 0.000000e+000 0.000000e+000 8.364140e-001 1.635859e-001 0.000000e+000 0.000000e+000 0.000000e+000 0.000000e+000 0.000000e+000 0.000000e+000 0.000000e+000 0.000000e+000
 0.000000e+000 0.000000e+000 0.000000e+000 0.000000e+000 0.000000e+000 0.000000e+000 8.084146e-001 1.915855e-001 0.000000e+000 0.000000e+000 0.000000e+000 0.000000e+000 0.000000e+000 0.000000e+000 0.000000e+000
 0.000000e+000 0.000000e+000 0.000000e+000 0.000000e+000 0.000000e+000 0.000000e+000 0.000000e+000 8.187581e-001 1.812419e-001 0.000000e+000 0.000000e+000 0.000000e+000 0.000000e+000 0.000000e+000 0.000000e+000
 0.000000e+000 0.000000e+000 0.000000e+000 0.000000e+000 0.000000e+000 0.000000e+000 0.000000e+000 0.000000e+000 8.130488e-001 1.869511e-001 0.000000e+000 0.000000e+000 0.000000e+000 0.000000e+000 0.000000e+000
 0.000000e+000 0.000000e+000 0.000000e+000 0.000000e+000 0.000000e+000 0.000000e+000 0.000000e+000 0.000000e+000 0.000000e+000 8.509827e-001 1.490173e-001 0.000000e+000 0.000000e+000 0.000000e+000 0.000000e+000
 0.000000e+000 0.000000e+000 0.000000e+000 0.000000e+000 0.000000e+000 0.000000e+000 0.000000e+000 0.000000e+000 0.000000e+000 0.000000e+000 8.384279e-001 1.615721e-001 0.000000e+000 0.000000e+000 0.000000e+000
 0.000000e+000 0.000000e+000 0.000000e+000 0.000000e+000 0.000000e+000 0.000000e+000 0.000000e+000 0.000000e+000 0.000000e+000 0.000000e+000 0.000000e+000 8.369575e-001 1.630425e-001 0.000000e+000 0.000000e+000
 0.000000e+000 0.000000e+000 0.000000e+000 0.000000e+000 0.000000e+000 0.000000e+000 0.000000e+000 0.000000e+000 0.000000e+000 0.000000e+000 0.000000e+000 0.000000e+000 7.997023e-001 2.002977e-001 0.000000e+000
 0.000000e+000 0.000000e+000 0.000000e+000 0.000000e+000 0.000000e+000 0.000000e+000 0.000000e+000 0.000000e+000 0.000000e+000 0.000000e+000 0.000000e+000 0.000000e+000 0.000000e+000 8.323978e-001 1.676023e-001
 0.000000e+000 0.000000e+000 0.000000e+000 0.000000e+000 0.000000e+000 0.000000e+000 0.000000e+000 0.000000e+000 0.000000e+000 0.000000e+000 0.000000e+000 0.000000e+000 0.000000e+000 0.000000e+000 0.000000e+000
<ENDHMM>
