~o
<STREAMINFO> 1 39
<VECSIZE> 39<NULLD><MFCC_D_A_0><DIAGC>
~h "changge"
<BEGINHMM>
<NUMSTATES> 15
<STATE> 2
<NUMMIXES> 4
<MIXTURE> 1 1.935307e-001
<MEAN> 39
 -2.822567e+001 -6.459894e+000 -9.538791e+000 -8.619537e+000 -7.699136e+000 -5.442634e+000 1.543748e+000 6.102550e-001 3.347762e+000 -9.551272e-001 -6.758364e+000 1.852594e+000 7.249277e+001 6.825261e-002 -1.443050e-001 -1.458382e-001 3.955538e-001 1.669891e-001 -9.847505e-001 1.005220e-001 -2.922957e-001 -4.622365e-001 5.803742e-001 7.143562e-002 -5.245726e-001 4.997666e-001 5.900908e-001 -9.308390e-001 2.947821e-001 -2.244395e-001 4.733364e-002 2.885949e-001 -3.909836e-001 -3.145415e-003 5.382891e-002 -7.087347e-001 1.096916e-001 -3.854959e-001 -3.361077e-001
<VARIANCE> 39
 1.086427e+001 3.183639e+001 2.338170e+001 2.069715e+001 2.716000e+001 4.525203e+001 1.665770e+001 2.894670e+001 2.113029e+001 5.401182e+001 2.444145e+001 1.985221e+001 4.117799e+000 1.235343e+000 4.340692e+000 1.601285e+000 7.702881e-001 1.100549e+000 2.753150e+000 1.426109e+000 1.512137e+000 1.728844e+000 2.756572e+000 1.237130e+000 1.307703e+000 6.848009e-001 6.223007e-002 2.847644e-001 2.359847e-001 1.762840e-001 2.300204e-001 5.130134e-001 2.723666e-001 1.707211e-001 3.165457e-001 2.498614e-001 2.492101e-001 1.453409e-001 4.528208e-002
<GCONST> 9.569937e+001
<MIXTURE> 2 1.180007e-001
<MEAN> 39
 -6.827775e+000 -1.365041e+001 -1.126796e+001 -2.517836e+001 -1.262672e+001 6.176873e+000 -5.100650e-002 1.824943e+000 9.161355e+000 -9.023766e+000 -6.496191e-001 -7.935436e+000 7.500372e+001 1.863290e+000 2.360305e-001 -1.594975e+000 -2.177918e+000 -7.489609e-001 8.806738e-001 1.339759e+000 5.207236e-002 4.320298e-001 1.103863e+000 1.051202e+000 -3.767430e-001 1.221540e+000 -4.434489e-001 -3.132352e-001 -1.986504e-003 3.877848e-001 2.202730e-001 -2.005744e-001 -1.395891e-001 -1.629415e-001 -4.598953e-002 -2.088224e-001 -9.524664e-002 4.625608e-001 -2.553000e-001
<VARIANCE> 39
 5.356114e+000 5.179617e+000 2.017607e+001 1.987282e+001 1.855224e+001 4.287284e+001 3.293083e+001 3.483243e+001 2.196865e+001 3.065171e+001 2.595128e+001 4.930675e+001 2.447810e+000 4.595419e-001 3.008971e-001 4.977025e-001 1.103885e+000 1.043762e+000 1.118516e+000 2.325996e+000 1.739465e+000 1.466151e+000 1.658922e+000 1.489071e+000 1.448613e+000 1.998122e-001 6.922506e-002 5.890713e-002 1.816090e-001 2.694185e-001 2.436922e-001 2.951867e-001 3.752063e-001 2.847012e-001 1.538270e-001 2.873996e-001 1.378431e-001 3.360432e-001 4.425143e-002
<GCONST> 8.560491e+001
<MIXTURE> 3 2.729845e-001
<MEAN> 39
 -2.298360e+001 -1.250420e+001 -9.777421e+000 -9.707986e+000 -1.202786e+001 1.732315e+000 -5.212651e+000 3.709204e+000 4.872102e+000 -5.106210e+000 -4.429914e+000 1.389225e+000 6.915758e+001 -4.236231e-002 3.644723e-001 -4.134071e-001 1.001716e-001 -3.132820e-002 -5.871274e-001 4.020242e-002 2.879061e-001 -1.254530e-001 4.176580e-001 -7.110776e-001 -2.119870e-001 6.724353e-001 1.719845e-001 -1.519913e-001 1.017528e-001 -9.301591e-002 3.023522e-001 -9.808249e-002 3.647896e-002 -1.749055e-001 6.992090e-003 -3.099160e-001 -9.887120e-002 -2.129680e-001 -1.899636e-002
<VARIANCE> 39
 1.061495e+001 9.965009e+000 1.812453e+001 2.083162e+001 2.082466e+001 2.164137e+001 3.877828e+001 2.144293e+001 3.601517e+001 4.586187e+001 2.124515e+001 2.597301e+001 6.581624e+000 1.103970e+000 1.904684e+000 1.036129e+000 1.468487e+000 1.867767e+000 1.352747e+000 1.531204e+000 1.363189e+000 2.098928e+000 2.636537e+000 9.722009e-001 1.606034e+000 2.613706e-001 1.419181e-001 1.757256e-001 2.067979e-001 2.372007e-001 3.060302e-001 2.855922e-001 3.139635e-001 2.938248e-001 4.318197e-001 2.831779e-001 3.181830e-001 3.166561e-001 3.980869e-002
<GCONST> 9.520684e+001
<MIXTURE> 4 4.154841e-001
<MEAN> 39
 -1.676437e+001 -1.692169e+001 -8.371611e+000 -1.459807e+001 -7.802940e+000 1.936499e+000 -4.640903e+000 1.423290e+000 6.314735e+000 -1.206110e+001 -5.719772e+000 -3.899960e+000 7.008371e+001 1.374748e+000 2.093755e-001 -2.030723e-001 -8.508157e-001 2.135509e-001 3.340388e-003 -1.668513e-001 -7.163846e-001 2.397231e-001 -3.033531e-001 -6.076658e-002 -7.448445e-001 7.483928e-001 2.348488e-001 1.651146e-001 -1.845175e-001 -2.277037e-001 -2.808205e-001 -3.457481e-002 -5.691253e-002 -4.879281e-002 2.299702e-002 2.804025e-001 1.310717e-001 2.842700e-002 2.168230e-001
<VARIANCE> 39
 8.849028e+000 5.187802e+000 1.033155e+001 1.475217e+001 1.718020e+001 2.431416e+001 2.532062e+001 2.706644e+001 2.078834e+001 3.094967e+001 1.855878e+001 2.571133e+001 4.508945e+000 1.145611e+000 7.021510e-001 7.067672e-001 1.116436e+000 1.471054e+000 2.131938e+000 2.561415e+000 2.525722e+000 1.393762e+000 2.220397e+000 1.447331e+000 2.165323e+000 3.468257e-001 9.012013e-002 9.450573e-002 1.578070e-001 1.855115e-001 2.325679e-001 3.293469e-001 4.333505e-001 3.679032e-001 3.075165e-001 3.605700e-001 2.226436e-001 2.660796e-001 2.949383e-002
<GCONST> 8.975331e+001
<STATE> 3
<NUMMIXES> 4
<MIXTURE> 1 1.641918e-001
<MEAN> 39
 -7.172440e+000 -1.417776e+001 -1.288319e+001 -1.632473e+001 -1.094232e+001 -2.691186e+000 -5.578279e+000 -8.879184e-001 1.172938e+001 -4.087738e-001 -1.021669e+001 -1.181026e+001 7.883990e+001 1.749659e+000 -3.900700e-001 -1.342376e+000 -1.291144e+000 -2.900120e-001 3.733647e-001 3.987249e-001 -7.720460e-001 1.484403e+000 1.214385e+000 3.832563e-001 -6.657792e-001 1.674348e+000 -6.400697e-001 -1.538850e-001 6.516120e-002 2.106552e-001 2.084433e-001 3.898356e-001 1.927509e-001 -1.142624e-001 -1.093252e-001 7.139478e-002 2.234272e-001 6.042190e-001 -3.029774e-001
<VARIANCE> 39
 1.438126e+001 1.108605e+001 2.381255e+001 1.394895e+001 1.782182e+001 1.882882e+001 3.253648e+001 4.866098e+001 2.293398e+001 5.467240e+001 4.393077e+001 4.031073e+001 1.208291e+001 2.058529e+000 7.209107e-001 1.095274e+000 1.078804e+000 1.229084e+000 1.570392e+000 1.748003e+000 2.330575e+000 1.911493e+000 1.779509e+000 2.217447e+000 2.286020e+000 4.603440e-001 1.460427e-001 1.482125e-001 4.123071e-001 2.326724e-001 1.356973e-001 1.457849e-001 2.744892e-001 3.381978e-001 4.526164e-001 4.169702e-001 3.832254e-001 1.896842e-001 1.285687e-001
<GCONST> 9.872063e+001
<MIXTURE> 2 4.854648e-001
<MEAN> 39
 -2.146829e+001 -1.531547e+001 -8.338511e+000 -8.281921e+000 -5.249872e+000 -6.807487e+000 -5.206628e+000 -2.375131e+000 1.523693e-001 -7.558414e+000 -8.404102e+000 -4.469419e+000 7.244712e+001 1.544553e+000 -5.563148e-001 -2.613839e-001 -2.814756e-001 3.948340e-001 -5.591714e-001 -1.838575e+000 -1.417235e+000 -5.327165e-001 -1.300638e+000 -8.014349e-001 -8.666461e-001 3.666088e-001 1.395276e-001 2.419485e-001 -2.018002e-001 -4.613439e-002 2.713399e-002 6.997592e-002 -9.945410e-002 -2.217581e-002 2.088801e-001 6.687424e-002 -6.964140e-002 5.795091e-002 1.127147e-001
<VARIANCE> 39
 2.181170e+001 1.308278e+001 1.910690e+001 2.572527e+001 2.727814e+001 2.493810e+001 5.005988e+001 6.039464e+001 4.156131e+001 7.791959e+001 2.207720e+001 2.532270e+001 2.979485e+000 7.550756e-001 1.468490e+000 9.551809e-001 1.176700e+000 1.564744e+000 1.858923e+000 3.040920e+000 2.722767e+000 3.362307e+000 3.168588e+000 2.043435e+000 1.593647e+000 2.034835e-001 1.172140e-001 2.002731e-001 1.271520e-001 2.121930e-001 3.619604e-001 3.880434e-001 5.128497e-001 6.515484e-001 5.985523e-001 5.424742e-001 4.312714e-001 2.239500e-001 2.779974e-002
<GCONST> 1.014536e+002
<MIXTURE> 3 2.437509e-001
<MEAN> 39
 -5.018045e+000 -1.391864e+001 -1.353944e+001 -2.863187e+001 -1.312898e+001 1.011397e+001 9.517612e-001 2.735262e+000 1.032966e+001 -8.225730e+000 3.078904e+000 -6.529900e+000 7.594871e+001 1.107674e-002 3.593448e-002 9.221921e-002 5.908006e-002 -6.774544e-002 -4.607940e-001 -1.273770e-001 -2.373141e-001 -5.948282e-002 -2.897366e-001 2.235391e-001 6.588106e-001 -1.321241e-001 -2.751324e-001 4.335626e-002 3.399992e-001 3.750119e-001 -5.730165e-003 -3.134337e-001 -3.409818e-001 -5.653476e-002 -1.159661e-001 -1.686215e-001 -2.015638e-001 -2.248826e-002 -2.014369e-001
<VARIANCE> 39
 4.856454e+000 2.751269e+000 7.217419e+000 8.031009e+000 6.946050e+000 3.425806e+001 4.163700e+001 2.935937e+001 2.010255e+001 3.667164e+001 3.166667e+001 3.425174e+001 1.297151e+000 1.844859e-001 2.463724e-001 7.093907e-001 6.024222e-001 6.640267e-001 1.210913e+000 1.145787e+000 1.165648e+000 9.889228e-001 1.162256e+000 9.534229e-001 1.105350e+000 9.890925e-002 5.878334e-002 3.306307e-002 1.511248e-001 1.288137e-001 1.133401e-001 1.876194e-001 2.147769e-001 2.115314e-001 2.262426e-001 3.369551e-001 2.127614e-001 2.765458e-001 3.079392e-002
<GCONST> 7.275844e+001
<MIXTURE> 4 1.065927e-001
<MEAN> 39
 -9.043228e+000 -1.895387e+001 -1.527240e+001 -1.910323e+001 -1.011675e+000 3.641166e-001 -1.490390e+001 -9.465353e+000 5.645386e+000 -1.279083e+001 -5.030159e+000 -5.775838e+000 7.405678e+001 1.321685e+000 -7.029113e-001 -1.595766e+000 -1.116779e+000 1.765604e+000 1.624842e+000 8.590354e-002 7.428807e-001 7.805670e-001 1.309187e+000 -2.089899e-001 -1.447942e+000 8.211479e-001 -3.483758e-001 2.217888e-002 2.551512e-001 2.206176e-001 1.222075e-002 2.823552e-001 4.615949e-001 4.607354e-001 -9.705378e-002 -3.792144e-003 -1.032577e-001 -5.860267e-003 -1.566678e-001
<VARIANCE> 39
 4.783692e+000 6.982963e+000 1.318804e+001 1.315187e+001 1.625839e+001 1.086913e+001 1.695355e+001 2.046737e+001 3.350005e+001 2.057910e+001 2.633729e+001 1.278494e+001 4.922969e+000 2.654621e-001 3.214712e-001 4.501596e-001 8.358544e-001 1.171289e+000 1.256807e+000 1.330996e+000 4.275913e-001 1.472731e+000 1.874170e+000 1.460199e+000 1.409641e+000 7.005934e-002 4.712341e-002 1.366744e-001 1.724545e-001 1.390398e-001 2.311105e-001 4.307552e-001 3.947479e-001 2.476452e-001 2.338049e-001 3.389233e-001 2.043985e-001 3.658255e-001 1.862138e-002
<GCONST> 7.825774e+001
<STATE> 4
<NUMMIXES> 4
<MIXTURE> 1 2.930525e-001
<MEAN> 39
 -5.882730e+000 -1.488641e+001 -1.440928e+001 -2.028711e+001 -1.170585e+001 1.997511e+000 -2.504108e+000 -3.514960e+000 1.293101e+001 -1.984225e+000 -4.238708e+000 -7.424287e+000 7.946866e+001 -2.692944e-002 2.772578e-001 6.187036e-001 1.930307e-001 -5.572673e-001 -2.570184e-001 -1.070050e+000 -1.029181e-001 -1.873198e-001 -1.743660e-001 6.473597e-001 1.538420e-001 -5.785366e-001 -1.903269e-001 1.475730e-001 3.860314e-001 2.050011e-001 -6.076968e-002 -2.916824e-001 -3.197207e-001 1.079637e-001 -2.819809e-001 -2.242962e-001 1.625991e-002 -2.568708e-002 -3.036060e-001
<VARIANCE> 39
 1.125106e+001 9.319386e+000 1.046155e+001 1.856040e+001 1.504251e+001 3.345124e+001 6.473723e+001 3.790157e+001 3.888356e+001 5.550563e+001 5.579240e+001 6.289320e+001 1.486881e+001 3.720819e-001 3.805337e-001 8.840032e-001 6.071874e-001 1.246821e+000 2.058160e+000 2.013036e+000 2.124736e+000 2.336234e+000 1.583738e+000 1.332712e+000 1.103696e+000 3.374631e-001 6.461029e-002 5.682544e-002 1.303000e-001 9.105581e-002 2.010428e-001 2.127512e-001 4.446604e-001 3.597168e-001 3.607070e-001 3.039862e-001 3.040523e-001 2.834958e-001 4.580382e-002
<GCONST> 9.181969e+001
<MIXTURE> 2 2.258335e-001
<MEAN> 39
 -1.121667e+001 -1.548615e+001 -1.705363e+001 -7.196012e+000 -8.825142e-001 -8.128089e+000 -2.056253e+001 -9.152614e+000 -2.400707e+000 -1.301711e+001 -1.272405e+001 -5.551620e+000 7.530644e+001 9.252422e-001 -3.516128e-001 -5.429745e-001 -1.755082e-001 7.585959e-001 1.374978e+000 -6.044760e-001 5.165637e-001 7.396666e-001 -1.527724e-001 -4.745305e-001 5.563320e-002 1.580686e-001 -2.294113e-001 1.138310e-001 2.808751e-001 1.373473e-003 -1.515277e-001 1.652776e-001 4.800065e-001 2.773183e-001 -1.212603e-001 -5.708404e-003 -5.205655e-002 1.587556e-002 -1.217484e-001
<VARIANCE> 39
 5.599792e+000 5.246870e+000 9.218326e+000 1.742826e+001 2.156011e+001 3.437971e+001 2.240021e+001 3.115501e+001 4.378048e+001 8.053412e+001 1.535849e+001 1.880812e+001 2.173284e+000 7.548784e-001 7.140067e-001 1.059433e+000 1.374178e+000 1.920675e+000 9.932027e-001 1.706179e+000 1.518967e+000 2.863098e+000 2.098349e+000 1.338335e+000 1.130351e+000 1.680317e-001 8.328098e-002 1.327147e-001 1.657397e-001 2.624367e-001 3.088354e-001 2.291863e-001 4.192984e-001 5.188785e-001 4.326221e-001 3.533601e-001 2.457203e-001 2.229965e-001 1.328394e-002
<GCONST> 8.876524e+001
<MIXTURE> 3 2.119296e-001
<MEAN> 39
 -9.724138e+000 -1.875423e+001 -8.737212e+000 -1.526493e+001 -4.716673e+000 -7.891751e+000 -1.121136e+001 -6.960113e+000 1.271356e+000 -2.510738e+001 -1.497422e+001 -1.835856e+000 7.548017e+001 9.686109e-001 -5.756995e-002 -8.616837e-001 -5.732148e-001 7.291097e-001 2.970038e-001 -2.533588e-001 2.240504e-001 6.064910e-001 3.075531e-001 -1.090745e-001 -2.257966e-001 3.701996e-001 -2.042067e-001 -2.523076e-002 -5.836797e-003 -7.437915e-002 6.044049e-002 2.834263e-001 4.366328e-001 3.895593e-001 1.674578e-001 5.095746e-001 3.112300e-001 -3.342383e-002 -7.544048e-002
<VARIANCE> 39
 6.376047e+000 6.747305e+000 1.408322e+001 2.071846e+001 1.054028e+001 2.085012e+001 1.909704e+001 2.459193e+001 3.487947e+001 1.217270e+001 1.537222e+001 1.854413e+001 2.127085e+000 7.262692e-001 3.550423e-001 7.227218e-001 7.699262e-001 1.078542e+000 1.469572e+000 2.327837e+000 2.378599e+000 2.056667e+000 2.493105e+000 1.566909e+000 1.505235e+000 1.199327e-001 6.918991e-002 9.598756e-002 1.573638e-001 2.394343e-001 1.654624e-001 1.883358e-001 3.573072e-001 4.147568e-001 5.633423e-001 3.506229e-001 2.306238e-001 2.917197e-001 1.718429e-002
<GCONST> 8.366484e+001
<MIXTURE> 4 2.691844e-001
<MEAN> 39
 -6.478650e+000 -1.756419e+001 -1.709035e+001 -2.084648e+001 2.028047e+000 5.274963e+000 -8.728663e+000 -7.117423e+000 4.169493e+000 -9.725389e+000 -5.501878e+000 -7.068447e+000 7.507051e+001 -4.999314e-002 2.097457e-001 2.169096e-001 -7.897833e-002 -4.209297e-001 8.782361e-002 2.982784e-001 2.568403e-001 -6.413630e-002 -1.289914e-001 -1.278300e-002 -2.013059e-001 -1.339655e-001 -1.648770e-001 1.125564e-001 2.917512e-001 1.011717e-001 -3.727955e-001 -2.574318e-001 2.098681e-002 3.529792e-002 -1.042367e-001 -3.335276e-001 -5.258280e-002 9.462184e-002 -1.379740e-001
<VARIANCE> 39
 1.939865e+000 7.093101e+000 6.344876e+000 1.045674e+001 6.381967e+001 1.456875e+001 1.024437e+002 1.608396e+001 3.049466e+001 5.087548e+001 1.393878e+001 2.286800e+001 1.812313e+000 1.944208e-001 3.514159e-001 5.724878e-001 7.826886e-001 2.452232e+000 2.231409e+000 1.670344e+000 2.247198e+000 1.731578e+000 2.003495e+000 1.257474e+000 8.758160e-001 1.077455e-001 2.749417e-002 8.337839e-002 1.706457e-001 1.403793e-001 2.485909e-001 3.416326e-001 2.659042e-001 3.815748e-001 3.284231e-001 3.744555e-001 2.542859e-001 2.372730e-001 1.264148e-002
<GCONST> 8.125227e+001
<STATE> 5
<NUMMIXES> 4
<MIXTURE> 1 1.230281e-001
<MEAN> 39
 -9.582998e+000 -1.851798e+001 -1.983578e+001 -1.027827e+001 9.369858e+000 -2.174984e+000 -1.209112e+001 1.292931e+000 2.009894e+001 -5.200579e+000 -9.057606e+000 -9.499268e+000 7.568792e+001 2.395975e-001 -7.841666e-004 -1.514800e-001 -4.504381e-001 2.036227e-001 9.008172e-001 4.638315e-001 2.588399e-001 -9.912992e-002 9.355446e-001 4.366485e-001 -4.681671e-002 -1.213025e-001 -1.485750e-001 9.170522e-002 1.949136e-001 -1.300604e-001 -3.313670e-001 -9.712221e-002 2.098290e-002 -1.150527e-001 -4.958681e-001 -1.065350e-001 1.054034e-002 8.915041e-002 -8.080944e-002
<VARIANCE> 39
 2.082949e+000 2.811085e+000 1.160317e+001 1.409312e+001 1.028247e+001 1.816072e+001 2.049149e+001 1.395634e+001 2.860201e+001 4.483578e+001 1.614492e+001 1.824935e+001 1.713939e+000 3.233398e-001 4.891978e-001 5.157213e-001 1.415505e+000 7.017304e-001 9.282142e-001 2.274584e+000 2.202305e+000 3.174746e+000 2.742065e+000 1.520752e+000 7.572156e-001 1.021067e-001 7.419278e-002 8.371039e-002 6.769376e-002 1.638737e-001 2.321389e-001 2.511168e-001 4.220494e-001 5.009025e-001 4.028763e-001 7.526265e-001 2.453636e-001 1.203037e-001 7.914537e-003
<GCONST> 7.832111e+001
<MIXTURE> 2 3.930670e-001
<MEAN> 39
 -8.294285e+000 -1.655660e+001 -1.179447e+001 -1.632813e+001 -2.409001e+000 1.354246e+000 -1.057853e+001 -3.289789e+000 7.649561e-001 -1.839191e+001 -1.353797e+001 -8.227434e+000 7.422024e+001 -3.021294e-001 5.624550e-001 1.186315e+000 1.591899e-002 -8.148302e-001 -2.888883e-001 5.638025e-001 2.544758e-001 -2.529651e-001 -2.463976e-001 -1.086838e-002 -3.967214e-001 -4.995725e-001 -9.021828e-002 3.694812e-002 1.850654e-001 8.144840e-002 -2.057000e-001 -3.521611e-001 -2.304873e-001 -2.010740e-001 2.087386e-001 2.273121e-001 2.281101e-001 1.828846e-001 -4.915442e-002
<VARIANCE> 39
 3.103211e+000 6.807474e+000 1.316050e+001 2.868364e+001 1.499842e+001 4.248896e+001 8.016125e+001 1.863667e+001 2.921142e+001 3.329119e+001 2.217192e+001 1.850159e+001 3.493745e+000 2.945007e-001 4.327057e-001 8.159254e-001 1.240825e+000 1.516681e+000 1.565825e+000 1.877127e+000 1.912064e+000 2.313266e+000 2.637471e+000 1.718633e+000 1.364932e+000 6.313364e-002 3.312358e-002 7.669486e-002 1.267350e-001 1.691160e-001 2.051578e-001 2.604938e-001 2.711558e-001 3.060488e-001 3.360427e-001 3.743047e-001 2.602008e-001 2.868524e-001 9.340977e-003
<GCONST> 8.399061e+001
<MIXTURE> 3 3.326638e-001
<MEAN> 39
 -8.500684e+000 -1.321285e+001 -6.535534e+000 -2.119827e+001 -1.496822e+001 -1.830294e+000 -4.923541e+000 -9.260165e-001 8.407394e+000 -1.024302e+001 -8.892892e-002 -4.128948e+000 7.308438e+001 -8.713216e-001 2.119387e-001 1.543744e+000 1.128152e+000 3.360115e-001 -7.754240e-001 -1.212028e+000 -3.235591e-001 -6.349488e-001 -6.591430e-001 -4.909502e-001 3.744731e-001 -6.850966e-001 1.924592e-002 3.744129e-002 -4.432438e-002 8.929885e-002 2.581494e-001 2.604343e-001 1.302482e-001 -7.449237e-003 -4.767638e-002 3.627700e-002 -8.399408e-002 2.693970e-002 4.589265e-002
<VARIANCE> 39
 6.085251e+000 5.676178e+000 1.511798e+001 1.868237e+001 1.126901e+001 2.957633e+001 3.336718e+001 3.984105e+001 3.594531e+001 2.877123e+001 2.394300e+001 2.484765e+001 2.993527e+000 1.548713e-001 3.729144e-001 6.765850e-001 1.435620e+000 5.674307e-001 1.521024e+000 1.087609e+000 1.384167e+000 1.779880e+000 1.354714e+000 1.045197e+000 1.601345e+000 8.334450e-002 2.293184e-002 4.976321e-002 7.417173e-002 1.799829e-001 1.250199e-001 2.345614e-001 1.934135e-001 2.633414e-001 3.489814e-001 2.680680e-001 1.849943e-001 1.667653e-001 8.340697e-003
<GCONST> 7.634917e+001
<MIXTURE> 4 1.512411e-001
<MEAN> 39
 -4.233045e+000 -1.244022e+001 -9.723165e+000 -1.691040e+001 -1.150408e+001 2.309351e+000 -1.113197e+001 -2.346727e-001 1.144070e+001 3.103691e+000 -5.053694e+000 -1.032700e+001 7.629964e+001 -3.263867e-001 1.012867e+000 1.566952e+000 3.720396e-001 -5.287246e-001 -2.969612e-001 6.164683e-001 6.394094e-001 -1.692585e-001 -6.526691e-001 1.184779e+000 1.036048e+000 -8.750916e-001 -5.673896e-002 3.524166e-002 1.943005e-001 1.254157e-001 6.517196e-002 -4.251245e-002 1.608952e-001 4.082581e-002 1.172421e-001 -1.133612e-001 -1.538383e-001 1.503484e-001 1.828765e-002
<VARIANCE> 39
 3.914243e+000 9.974039e+000 2.007919e+001 7.702612e+000 2.009109e+001 1.131275e+001 1.685731e+001 2.447478e+001 1.848155e+001 3.171252e+001 6.037304e+001 2.549118e+001 4.252717e+000 7.319654e-002 3.880081e-001 6.305087e-001 7.439834e-001 7.282454e-001 5.854512e-001 1.361614e+000 1.103972e+000 1.287869e+000 6.252990e-001 1.016352e+000 1.512776e+000 1.527208e-001 1.340581e-002 5.402833e-002 9.042221e-002 9.801628e-002 1.899374e-001 1.309115e-001 4.861021e-001 2.995065e-001 2.563216e-001 1.478489e-001 1.241698e-001 2.506746e-001 1.404220e-002
<GCONST> 7.197716e+001
<STATE> 6
<NUMMIXES> 4
<MIXTURE> 1 2.272094e-001
<MEAN> 39
 -7.586441e+000 -6.652207e+000 1.401375e-001 -1.164182e+001 -1.207435e+001 -7.209939e-001 -1.106228e+001 -1.331472e+000 8.979291e+000 -3.687115e+000 4.737664e-001 -3.313955e+000 7.141910e+001 -4.859733e-001 2.761070e-001 8.943303e-001 9.872855e-001 8.989670e-001 2.076949e-001 5.991658e-002 1.170533e-001 -5.283236e-001 -5.619293e-001 -1.510742e-001 3.790950e-001 -4.620140e-001 -7.848843e-002 -2.378726e-001 -3.373226e-001 -1.453249e-001 1.155843e-001 1.912414e-001 1.508155e-001 1.334688e-001 7.349891e-003 9.772277e-002 -1.006460e-001 -1.278865e-001 4.611997e-002
<VARIANCE> 39
 4.419360e+000 7.588596e+000 1.418067e+001 8.349030e+000 1.640829e+001 2.239287e+001 9.360916e+000 2.477053e+001 2.322730e+001 2.655105e+001 1.310220e+001 1.055339e+001 2.211397e+000 2.036029e-001 4.572718e-001 5.660024e-001 6.801668e-001 8.245549e-001 9.899513e-001 1.278078e+000 1.073949e+000 1.178051e+000 7.437397e-001 8.121896e-001 1.068507e+000 8.456722e-002 2.838846e-002 4.022819e-002 7.003628e-002 8.458985e-002 1.708103e-001 2.230652e-001 3.078538e-001 1.608967e-001 1.834890e-001 1.229517e-001 8.862580e-002 1.744449e-001 8.771165e-003
<GCONST> 6.663112e+001
<MIXTURE> 2 2.705981e-001
<MEAN> 39
 -8.789010e+000 -1.076453e+001 -4.225618e+000 -1.527348e+001 -8.991806e+000 -6.369859e+000 -1.711166e+001 -8.251907e+000 -1.929396e+000 -1.535704e+001 -1.198969e+001 -5.578039e+000 7.184603e+001 -7.828254e-002 7.751838e-001 1.305927e+000 1.994109e-002 -1.227807e+000 -7.750056e-001 -1.486982e-001 -3.447029e-001 1.794419e-001 4.363002e-001 8.639488e-001 5.644021e-001 -4.088310e-001 -4.156596e-002 -1.083535e-001 -1.639919e-001 4.810961e-002 1.351005e-001 1.262569e-001 9.889624e-002 1.670331e-001 -1.530370e-002 -4.528753e-002 -5.470419e-002 -9.268569e-002 3.951217e-002
<VARIANCE> 39
 2.952652e+000 1.337523e+001 1.977728e+001 1.477661e+001 1.525636e+001 1.840950e+001 2.884841e+001 1.350618e+001 2.466559e+001 2.599316e+001 4.248049e+001 1.571906e+001 4.409894e+000 9.173960e-002 1.924278e-001 4.531356e-001 7.604109e-001 1.246299e+000 8.148209e-001 1.051575e+000 1.350042e+000 1.068419e+000 1.371221e+000 1.605877e+000 1.298931e+000 3.474796e-002 2.303584e-002 5.645507e-002 6.052169e-002 1.214997e-001 1.731691e-001 1.777993e-001 1.557099e-001 1.856122e-001 2.244683e-001 3.411404e-001 3.595926e-001 2.376770e-001 5.651338e-003
<GCONST> 7.131892e+001
<MIXTURE> 3 4.189394e-001
<MEAN> 39
 -1.259379e+001 -1.395395e+001 -3.595256e+000 -1.772624e+001 -1.088305e+001 -2.579633e+000 -8.021572e+000 -1.256614e+000 6.567201e+000 -1.316214e+001 -4.289393e+000 -5.174131e+000 6.972819e+001 -4.211799e-001 1.365904e-001 6.603660e-001 3.498587e-001 -7.288967e-002 -2.562435e-001 -3.722852e-001 -8.474330e-002 -2.369932e-001 -1.440421e-001 -5.826569e-002 3.188051e-001 -3.104471e-001 2.474248e-002 -6.813354e-002 -1.485124e-001 -3.438813e-002 7.644881e-002 8.531580e-002 5.060050e-002 -2.900859e-002 -1.209960e-001 -9.863175e-002 -6.044739e-002 -5.555175e-003 3.875917e-002
<VARIANCE> 39
 2.650064e+000 7.651780e+000 9.295879e+000 1.072549e+001 1.853042e+001 2.133525e+001 3.438628e+001 1.777582e+001 2.159830e+001 2.859877e+001 2.854865e+001 3.279270e+001 2.537519e+000 1.305084e-001 2.175674e-001 3.585369e-001 6.474347e-001 1.366908e+000 1.283271e+000 1.500842e+000 1.355122e+000 1.612917e+000 1.579871e+000 1.459116e+000 1.003395e+000 4.282519e-002 2.551035e-002 4.113725e-002 5.494475e-002 1.130944e-001 1.964985e-001 2.229278e-001 1.947501e-001 2.182745e-001 2.858870e-001 2.550296e-001 2.354984e-001 1.535646e-001 6.503291e-003
<GCONST> 7.109881e+001
<MIXTURE> 4 8.325305e-002
<MEAN> 39
 -1.018807e+001 -1.550216e+001 -1.347639e+001 -1.963160e+001 -5.719208e+000 -1.663331e+000 -9.181232e+000 1.741715e-001 1.247081e+001 -3.540027e+000 -4.847993e+000 -7.586617e+000 7.222528e+001 -3.573634e-001 6.309679e-001 1.825378e+000 -2.671453e-001 -2.995856e+000 -1.640590e+000 -3.466622e-001 4.280126e-001 -7.978890e-001 -1.202408e+000 -8.287767e-002 6.824292e-001 -9.116339e-001 5.684890e-002 7.011329e-002 -1.615226e-003 2.974759e-001 2.756059e-001 -3.498571e-002 -4.901577e-001 -4.434127e-001 8.534992e-002 4.122862e-002 -2.808687e-002 -4.519827e-002 8.790288e-002
<VARIANCE> 39
 2.622388e+000 7.534704e+000 1.858501e+001 1.058915e+001 7.316634e+001 1.407773e+001 7.971765e+000 2.661051e+001 2.566780e+001 2.708822e+001 2.444900e+001 1.844552e+001 5.051546e+000 4.435270e-001 3.554198e-001 4.589020e-001 1.105361e+000 1.959176e+000 1.841859e+000 1.896488e+000 2.661189e+000 2.070163e+000 9.661909e-001 1.781804e+000 3.411438e-001 1.126104e-001 3.766631e-002 7.199471e-002 1.767913e-001 9.967742e-002 6.056349e-001 4.073094e-001 1.940436e-001 4.017368e-001 3.119147e-001 2.348184e-001 4.319331e-001 8.154377e-002 2.658518e-002
<GCONST> 8.141293e+001
<STATE> 7
<NUMMIXES> 4
<MIXTURE> 1 1.763162e-001
<MEAN> 39
 -1.152967e+001 -8.054446e+000 2.970166e+000 -5.559431e+000 -4.289328e+000 5.327840e+000 -4.859176e+000 6.175754e+000 6.773779e+000 -7.782696e+000 -1.574101e+000 -2.688097e+000 6.804784e+001 -6.032180e-001 -3.395151e-001 -3.510744e-001 3.262725e-001 4.358916e-001 3.213530e-001 2.446453e-001 2.557648e-001 -3.635033e-002 5.404058e-001 1.485537e-002 2.133180e-001 -2.869108e-001 2.132796e-002 -7.336401e-002 -3.277528e-001 -2.295652e-001 -1.838665e-001 -1.128954e-001 -3.097556e-001 -1.329898e-001 1.103703e-001 1.786524e-001 4.271430e-002 -1.400976e-001 7.658154e-002
<VARIANCE> 39
 5.180666e+000 3.078936e+000 6.337703e+000 1.421650e+001 8.663420e+000 1.578022e+001 2.681118e+001 1.497353e+001 1.372975e+001 2.333174e+001 1.026525e+001 1.947828e+001 4.795337e+000 9.360415e-002 3.203054e-001 1.334325e+000 1.309176e+000 6.352841e-001 8.349839e-001 9.868555e-001 1.108354e+000 7.319916e-001 5.913545e-001 1.170971e+000 1.428459e+000 4.170489e-002 2.481305e-002 4.624816e-002 1.161077e-001 1.649629e-001 1.186638e-001 1.273082e-001 2.346869e-001 2.468774e-001 1.789902e-001 2.542608e-001 1.872845e-001 2.079477e-001 1.321370e-002
<GCONST> 6.707370e+001
<MIXTURE> 2 1.838036e-001
<MEAN> 39
 -1.011534e+001 -9.215713e+000 -1.149783e+000 -1.863236e+001 -1.511158e+001 -8.269270e+000 -1.171525e+001 -4.943808e+000 2.434500e-001 -1.614386e+001 -7.264897e+000 -1.481887e+000 7.099326e+001 -8.138117e-001 -1.788647e-001 3.809632e-001 3.083214e-001 -9.271309e-002 3.673053e-001 1.988180e-001 2.412975e-001 1.666567e-001 -3.172336e-001 -2.085103e-001 -2.562248e-001 -4.087863e-001 -2.431334e-001 -3.383966e-001 -2.311104e-001 1.955588e-001 4.519650e-001 3.090689e-001 2.125486e-001 8.780060e-002 1.074868e-001 6.871547e-002 -6.216373e-002 -2.130622e-001 -5.768793e-002
<VARIANCE> 39
 4.148733e+000 1.037679e+001 6.915390e+000 1.204658e+001 5.229866e+000 1.155269e+001 4.163662e+001 1.817001e+001 1.929910e+001 2.798478e+001 9.680801e+000 1.313235e+001 4.712922e+000 3.169931e-001 7.420066e-001 5.677037e-001 9.959283e-001 8.403495e-001 3.462322e-001 6.041728e-001 1.228636e+000 8.946100e-001 1.595569e+000 6.943120e-001 7.050092e-001 8.221421e-002 4.365434e-002 7.102641e-002 4.975196e-002 1.601317e-001 1.043010e-001 1.410681e-001 1.313096e-001 2.366021e-001 1.581277e-001 2.425362e-001 2.090072e-001 1.164663e-001 6.724754e-003
<GCONST> 6.659476e+001
<MIXTURE> 3 3.536861e-001
<MEAN> 39
 -1.604164e+001 -1.506153e+001 -2.359529e+000 -1.401103e+001 -8.116812e+000 -1.037312e+000 -7.529703e+000 -9.757813e-001 4.183123e+000 -1.587502e+001 -6.914213e+000 -4.337940e+000 6.804395e+001 -7.674991e-001 -7.755873e-001 -6.065409e-001 -2.222648e-002 3.704076e-001 2.788742e-001 2.466188e-001 7.963829e-001 9.372593e-001 6.604078e-001 5.470180e-001 6.266028e-001 -3.316718e-001 1.663929e-001 1.363692e-001 -7.066145e-003 -1.556325e-001 -2.238300e-001 -2.605030e-001 -1.866399e-001 -5.516676e-002 9.616643e-002 2.707814e-001 2.039596e-001 9.576262e-002 9.332436e-002
<VARIANCE> 39
 3.640583e+000 4.951435e+000 7.178439e+000 1.706416e+001 1.574853e+001 1.088391e+001 1.831450e+001 1.996134e+001 2.000855e+001 2.930361e+001 2.076796e+001 1.950675e+001 5.036077e+000 1.716894e-001 4.044213e-001 4.124803e-001 7.995841e-001 1.071895e+000 8.520111e-001 9.034336e-001 9.587660e-001 1.343298e+000 1.076305e+000 1.217296e+000 1.289142e+000 5.514268e-002 3.474922e-002 7.670334e-002 8.422755e-002 1.329134e-001 1.533009e-001 1.802967e-001 2.190995e-001 1.719198e-001 2.108704e-001 2.127588e-001 1.823265e-001 1.691930e-001 1.101650e-002
<GCONST> 6.994943e+001
<MIXTURE> 4 2.861941e-001
<MEAN> 39
 -1.332434e+001 -1.123121e+001 -5.673281e-002 -1.303243e+001 -9.997447e+000 -3.791622e+000 -1.309627e+001 -5.917044e+000 3.521942e-001 -1.554874e+001 -7.799002e+000 -5.987886e+000 6.862172e+001 -7.693279e-001 -4.622268e-001 -2.838910e-002 5.601780e-001 9.787921e-001 9.771972e-001 8.601227e-001 3.010052e-001 -2.673086e-001 -5.357212e-001 -3.435120e-001 -2.713833e-001 -3.897499e-001 -6.826155e-002 -2.007944e-001 -2.884998e-001 -9.432557e-002 8.465034e-002 1.841388e-001 1.925151e-001 2.768708e-001 4.067624e-001 2.542309e-001 1.313817e-001 2.001678e-001 -9.377416e-003
<VARIANCE> 39
 3.763346e+000 8.455644e+000 1.029231e+001 7.997325e+000 1.849940e+001 1.325588e+001 2.247582e+001 2.393978e+001 2.689194e+001 1.900610e+001 3.883584e+001 2.410232e+001 5.174987e+000 1.997668e-001 5.012797e-001 6.144469e-001 4.907669e-001 7.423652e-001 1.202287e+000 1.111229e+000 1.057188e+000 1.400006e+000 1.268363e+000 1.201216e+000 1.269778e+000 3.212538e-002 1.900648e-002 5.430362e-002 8.137594e-002 9.164841e-002 1.535603e-001 1.739123e-001 1.820562e-001 2.470032e-001 2.268534e-001 1.965413e-001 2.593180e-001 2.069426e-001 5.802036e-003
<GCONST> 7.048159e+001
<STATE> 8
<NUMMIXES> 4
<MIXTURE> 1 1.527173e-001
<MEAN> 39
 -1.317585e+001 -1.059946e+001 -4.596698e+000 -7.628871e+000 -5.018188e+000 2.119600e+000 -1.477946e+001 7.281821e-001 9.075089e+000 6.196917e-001 -3.324705e+000 -4.828941e+000 7.038918e+001 4.055335e-001 5.457222e-001 -5.272454e-001 2.877231e-001 -6.846185e-001 -7.588847e-001 -1.719806e+000 -8.321023e-001 -2.122905e-001 1.041834e+000 -4.377300e-001 -3.462840e-001 4.874200e-001 3.944955e-001 4.293495e-001 4.951499e-001 -3.793181e-001 -8.424608e-001 -6.731964e-001 6.956374e-002 -2.683504e-001 -3.371006e-001 -5.049891e-001 1.652602e-001 3.035591e-001 8.034776e-002
<VARIANCE> 39
 9.058326e+000 1.928036e+001 2.564428e+001 1.027665e+001 1.294080e+001 2.438415e+001 3.928195e+001 3.866282e+001 3.394044e+001 5.623635e+001 1.302537e+001 2.237218e+001 7.125298e+000 4.169927e-001 6.311213e-001 2.199720e+000 7.607048e-001 1.768194e+000 2.129426e+000 1.988923e+000 1.530993e+000 2.044664e+000 3.812060e+000 1.200817e+000 1.544231e+000 1.105674e-001 2.444744e-002 6.802765e-002 2.521809e-001 1.528474e-001 2.456118e-001 1.870564e-001 6.327602e-001 3.524081e-001 1.920345e-001 6.249203e-001 1.935354e-001 1.773660e-001 3.536381e-002
<GCONST> 8.970458e+001
<MIXTURE> 2 6.136923e-001
<MEAN> 39
 -1.687591e+001 -1.611529e+001 -3.308431e+000 -1.591599e+001 -9.179405e+000 -1.455505e+000 -7.489142e+000 -6.636997e-001 5.720731e+000 -1.338929e+001 -3.346756e+000 -2.538138e+000 6.791147e+001 1.280770e-001 1.092319e-001 -9.702370e-002 7.226407e-003 -2.110773e-001 -2.475440e-001 -4.685777e-001 -3.991535e-001 4.816891e-002 4.564203e-001 1.502218e-001 4.455923e-002 8.279756e-002 1.887608e-001 1.406386e-001 1.108619e-001 -2.047580e-002 -7.437714e-002 -1.453072e-001 -2.272848e-001 -2.294676e-001 -1.319245e-001 -3.802546e-002 -4.384500e-002 -1.296972e-001 8.804841e-002
<VARIANCE> 39
 2.133049e+000 1.149924e+001 5.286366e+000 1.181513e+001 1.507913e+001 1.354335e+001 1.270457e+001 1.676267e+001 1.565227e+001 2.243645e+001 1.794711e+001 2.327813e+001 4.215164e+000 1.289505e-001 2.697984e-001 3.780241e-001 5.562728e-001 8.433048e-001 9.616202e-001 1.006869e+000 1.025794e+000 1.173539e+000 1.754148e+000 1.204787e+000 1.245596e+000 4.394244e-002 3.675646e-002 6.946719e-002 5.711605e-002 1.026050e-001 1.644552e-001 2.120390e-001 1.888045e-001 1.632386e-001 2.238423e-001 4.186619e-001 2.522385e-001 2.450187e-001 9.623621e-003
<GCONST> 6.819450e+001
<MIXTURE> 3 5.492193e-002
<MEAN> 39
 -1.400278e+001 -8.588822e+000 -8.698242e-001 -1.159621e+001 -1.136168e+001 -4.829670e+000 -1.714558e+001 -7.828958e+000 -2.364000e+000 -1.362895e+001 -1.186637e+001 -5.106714e+000 6.762709e+001 -6.790794e-001 -6.736789e-001 -1.335013e+000 -4.087145e-001 3.253241e-001 6.596063e-001 8.026609e-001 1.673582e+000 9.815006e-001 1.881831e+000 8.814097e-002 7.119630e-001 -4.241261e-002 5.306302e-001 4.686197e-001 -1.754038e-001 -5.396662e-001 -5.914834e-001 -4.794561e-001 -5.191548e-001 1.728586e-001 1.090343e-001 9.033293e-001 3.634923e-001 3.311741e-001 2.865352e-001
<VARIANCE> 39
 3.946330e+000 9.328794e+000 1.093653e+001 8.503024e+000 9.340046e+000 8.913410e+000 6.579364e+000 2.555011e+001 1.675152e+001 6.489057e+000 1.726315e+001 1.393448e+001 1.670841e+000 1.199937e+000 1.300501e+000 2.668028e-001 1.264490e+000 2.847825e+000 2.844961e+000 1.971212e+000 1.271611e+000 2.105739e+000 1.272259e+000 1.986919e+000 1.352062e+000 3.661517e-001 3.819662e-002 8.008794e-002 6.843069e-002 1.053172e-001 2.615327e-001 3.254980e-001 1.766507e-001 3.699447e-001 2.254413e-001 2.207603e-001 2.301502e-001 2.570391e-001 1.163596e-002
<GCONST> 7.718990e+001
<MIXTURE> 4 1.786684e-001
<MEAN> 39
 -1.802649e+001 -1.540298e+001 -5.631206e+000 -1.204558e+001 -7.776642e+000 7.957926e-001 -1.067957e+001 4.666445e-001 7.443410e+000 -8.018506e+000 -2.152946e+000 -5.440699e-001 6.524290e+001 5.902303e-003 -4.988349e-002 -6.713645e-001 -1.409070e-001 -4.366418e-001 -7.050247e-001 -1.439799e+000 -4.942015e-001 1.284317e-001 1.251527e+000 1.540263e-001 -8.904799e-002 2.536166e-001 3.876761e-001 5.101438e-001 2.870845e-001 1.899239e-001 -2.450558e-001 -2.872612e-001 -4.848944e-001 -3.266356e-001 -4.645544e-001 -1.311002e-002 -3.209028e-001 -2.374349e-001 2.335673e-001
<VARIANCE> 39
 2.041834e+000 4.215454e+000 6.315068e+000 1.124026e+001 1.624881e+001 2.159268e+001 1.987918e+001 2.505536e+001 2.704884e+001 2.617118e+001 2.535925e+001 1.378637e+001 2.408970e+000 3.202862e-001 6.992577e-001 8.447111e-001 1.160610e+000 9.672430e-001 9.309941e-001 2.076530e+000 2.577314e+000 2.313399e+000 3.498792e+000 2.339021e+000 1.549640e+000 1.427325e-001 3.817352e-002 6.093798e-002 8.746665e-002 2.341962e-001 2.087734e-001 2.863197e-001 2.676189e-001 3.578716e-001 3.051553e-001 4.373809e-001 3.243613e-001 2.528902e-001 1.052136e-002
<GCONST> 8.076689e+001
<STATE> 9
<NUMMIXES> 4
<MIXTURE> 1 2.177815e-001
<MEAN> 39
 -1.003283e+001 -1.023071e+001 -4.118730e+000 -1.883495e+001 -1.749137e+001 -1.250693e+001 -1.629786e+001 -2.797484e+000 1.291490e+001 2.524766e+000 7.520772e-001 -2.338515e+000 7.181957e+001 1.300626e+000 7.870532e-001 -4.894944e-001 -1.217418e+000 -9.337074e-001 -6.775330e-001 1.848531e-001 5.906313e-001 1.531166e+000 2.115505e+000 5.260136e-001 -5.645790e-001 8.391408e-001 -2.609659e-001 -3.224358e-001 -2.052690e-001 1.678825e-001 6.306423e-001 7.780365e-001 5.713145e-001 1.876799e-001 -2.900974e-001 -5.870991e-001 -5.439714e-001 -3.624360e-001 -1.199644e-001
<VARIANCE> 39
 8.886463e+000 1.161704e+001 6.721003e+000 2.246799e+001 1.357082e+001 1.397280e+001 2.178548e+001 3.518233e+001 3.304933e+001 6.079689e+001 2.803744e+001 2.438208e+001 8.679363e+000 2.510199e-001 1.052384e+000 7.352892e-001 9.256915e-001 2.261803e+000 1.682883e+000 1.723605e+000 2.615617e+000 1.828578e+000 2.297948e+000 2.986368e+000 2.222461e+000 1.129242e-001 3.756699e-002 1.106349e-001 1.036792e-001 9.379666e-002 1.631010e-001 1.338332e-001 2.452432e-001 2.586337e-001 2.310445e-001 2.543905e-001 2.482643e-001 2.753458e-001 1.522670e-002
<GCONST> 8.538580e+001
<MIXTURE> 2 3.448395e-001
<MEAN> 39
 -1.508387e+001 -1.338167e+001 -3.164645e+000 -1.354953e+001 -1.067685e+001 -3.403344e+000 -1.329449e+001 -4.086665e+000 3.734757e+000 -9.675385e+000 -4.258957e+000 -3.140139e+000 6.884493e+001 1.375706e+000 1.380939e+000 7.338431e-001 -5.320136e-001 -1.475731e+000 -1.963638e+000 -1.905103e+000 -1.363019e+000 -5.782126e-001 3.316639e-001 5.289624e-001 1.174360e-001 6.968033e-001 3.411916e-001 3.022231e-001 3.806489e-002 -3.312559e-001 -4.230353e-001 -3.591596e-001 -5.994232e-002 9.945336e-002 3.518608e-001 1.838704e-001 2.595047e-001 8.781971e-002 1.592741e-001
<VARIANCE> 39
 5.384345e+000 1.133500e+001 1.223935e+001 2.399809e+001 1.578698e+001 1.906648e+001 2.587166e+001 2.083680e+001 3.194868e+001 5.207271e+001 3.380254e+001 2.306452e+001 4.509017e+000 2.736483e-001 5.145997e-001 8.026481e-001 8.613236e-001 1.432322e+000 1.332416e+000 1.617248e+000 1.691667e+000 2.495098e+000 4.784911e+000 2.708111e+000 1.921234e+000 8.979627e-002 5.124003e-002 8.652750e-002 1.212906e-001 1.342804e-001 2.094329e-001 2.180490e-001 3.298156e-001 3.778490e-001 3.781961e-001 4.657071e-001 5.395648e-001 2.820314e-001 1.298716e-002
<GCONST> 8.742418e+001
<MIXTURE> 3 2.514659e-001
<MEAN> 39
 -1.058682e+001 -8.687440e+000 -2.622668e-001 -1.533652e+001 -1.510117e+001 -9.118187e+000 -1.916350e+001 -8.476663e+000 1.907837e+000 -1.135901e+001 -2.823457e+000 -2.083750e+000 7.084415e+001 1.556547e+000 1.500857e+000 2.889781e-001 -9.671219e-001 -1.988586e+000 -1.941772e+000 -1.691858e+000 -5.203800e-001 3.812085e-001 8.229672e-001 7.520635e-001 2.224525e-001 7.998494e-001 -1.465433e-001 -2.034067e-001 -3.420733e-001 -6.313186e-002 1.978235e-001 5.247070e-001 4.617761e-001 5.094382e-001 4.802602e-001 4.063367e-001 1.271541e-001 -1.877251e-002 -3.114742e-002
<VARIANCE> 39
 3.233006e+000 1.256454e+001 8.218248e+000 2.351487e+001 1.271070e+001 2.428107e+001 1.862093e+001 9.322687e+000 3.414018e+001 3.986354e+001 3.237027e+001 3.617590e+001 5.002840e+000 2.664229e-001 4.676152e-001 7.640743e-001 1.018260e+000 8.065386e-001 8.691443e-001 1.038643e+000 2.084358e+000 2.240533e+000 3.133616e+000 1.929054e+000 1.177007e+000 1.067226e-001 4.131414e-002 6.192218e-002 1.642306e-001 1.171872e-001 1.559587e-001 2.361637e-001 2.233807e-001 2.219954e-001 2.620026e-001 2.700998e-001 3.050463e-001 1.835135e-001 1.035848e-002
<GCONST> 7.971535e+001
<MIXTURE> 4 1.859131e-001
<MEAN> 39
 -8.047554e+000 -3.449549e+000 -3.291240e+000 -1.355449e+001 -1.764562e+001 -5.747239e+000 -2.135227e+001 -4.944073e+000 2.073745e+000 -1.881275e+000 -2.087298e+000 -1.520016e+000 7.239008e+001 7.855767e-001 6.637580e-001 -7.286462e-001 -8.932982e-001 -1.141885e+000 -1.078375e-001 -3.155845e-001 7.233923e-002 -9.224052e-002 5.235217e-001 3.620194e-001 -3.402342e-002 6.171082e-001 -2.930490e-001 -3.546745e-001 -2.289259e-001 1.558697e-001 5.108910e-001 4.919378e-001 3.326496e-001 1.349754e-001 -7.020685e-003 -1.554646e-002 -5.761402e-002 -7.737252e-002 -1.251159e-001
<VARIANCE> 39
 1.490188e+000 9.468937e+000 1.446097e+001 2.784756e+001 1.105841e+001 2.262006e+001 1.371910e+001 3.434813e+001 2.987295e+001 7.739607e+001 6.964956e+001 1.865840e+001 3.049427e+000 1.227039e-001 4.017824e-001 8.814599e-001 6.947675e-001 1.345531e+000 1.363203e+000 9.393382e-001 2.606210e+000 1.291470e+000 2.967107e+000 2.370440e+000 7.538546e-001 1.603285e-001 2.531880e-002 4.245181e-002 1.135491e-001 1.350037e-001 1.953798e-001 1.090825e-001 2.755107e-001 2.855937e-001 2.537435e-001 3.439927e-001 3.200742e-001 2.182665e-001 1.773681e-002
<GCONST> 7.958916e+001
<STATE> 10
<NUMMIXES> 4
<MIXTURE> 1 2.863608e-001
<MEAN> 39
 -7.892054e+000 -8.804082e+000 -6.054313e+000 -2.128419e+001 -1.439767e+001 -1.084016e+001 -1.140134e+001 5.293668e+000 1.936957e+001 5.536392e+000 -4.135836e+000 -5.678755e+000 7.325521e+001 5.480175e-001 7.988737e-002 -3.190295e-001 -4.127073e-001 4.370803e-001 6.109279e-001 5.430225e-001 6.304522e-001 6.337177e-001 6.315677e-001 -2.240163e-001 -5.684372e-001 3.404598e-001 -1.313316e-001 -1.645427e-001 -6.306721e-002 2.469907e-002 9.992251e-002 1.297461e-001 -8.750196e-002 -2.541395e-001 -2.186283e-001 -2.839270e-001 3.593300e-002 1.003456e-001 -6.113739e-002
<VARIANCE> 39
 6.528861e+000 6.538802e+000 1.325656e+001 1.049965e+001 1.076268e+001 8.979062e+000 1.380919e+001 5.367484e+001 3.422358e+001 7.975067e+001 5.253846e+001 2.731519e+001 4.078483e+000 1.224700e-001 2.864990e-001 6.870288e-001 4.323667e-001 6.719828e-001 7.086546e-001 1.037115e+000 1.148182e+000 1.171631e+000 1.000728e+000 1.152399e+000 8.188171e-001 4.127921e-002 3.377273e-002 4.325546e-002 1.193495e-001 7.335432e-002 1.256502e-001 1.367829e-001 1.666524e-001 2.038021e-001 2.478060e-001 3.113568e-001 1.904116e-001 2.182285e-001 9.832086e-003
<GCONST> 7.083767e+001
<MIXTURE> 2 3.455525e-001
<MEAN> 39
 -8.341642e+000 -7.162480e+000 -8.037190e-001 -1.714484e+001 -1.814162e+001 -1.100957e+001 -2.066396e+001 -8.645169e+000 2.125121e+000 -1.184402e+001 -4.733503e+000 -5.438420e+000 7.128651e+001 2.855317e-001 1.398925e-001 -3.013437e-001 -2.957480e-001 -6.831296e-002 2.084739e-001 -1.762311e-001 -5.554454e-002 5.333359e-001 7.441580e-001 3.150129e-001 -7.024784e-002 2.041671e-001 -7.979188e-002 -9.528747e-002 -7.001198e-002 6.287804e-002 1.894584e-001 1.921103e-001 2.042066e-001 7.923448e-002 5.841514e-002 7.627109e-002 -2.974156e-002 -9.877166e-003 -2.619767e-002
<VARIANCE> 39
 2.061313e+000 3.769745e+000 1.963029e+001 2.536725e+001 1.988248e+001 1.012957e+001 2.612665e+001 1.763700e+001 3.240425e+001 3.006746e+001 4.693119e+001 3.493619e+001 3.259316e+000 8.005325e-002 2.490733e-001 4.657215e-001 5.399263e-001 6.518372e-001 7.994706e-001 9.506259e-001 1.211499e+000 1.287112e+000 1.703037e+000 1.239284e+000 7.139821e-001 2.322318e-002 2.441083e-002 4.542144e-002 7.297465e-002 1.163172e-001 1.274173e-001 1.308552e-001 1.741700e-001 2.061432e-001 2.205839e-001 3.469653e-001 2.023593e-001 8.145726e-002 5.705191e-003
<GCONST> 6.709930e+001
<MIXTURE> 3 2.002908e-001
<MEAN> 39
 -5.335169e+000 -1.994262e+000 -6.058910e+000 -1.269105e+001 -1.929079e+001 -3.404916e+000 -2.412050e+001 -2.270781e+000 4.358124e+000 7.200794e+000 -2.814976e+000 -6.518381e+000 7.513754e+001 2.304750e-001 -2.154827e-001 -4.554781e-001 -7.336228e-001 -4.482892e-001 2.585110e-001 -7.888774e-002 3.494780e-001 4.498593e-001 1.128737e+000 -5.410086e-002 -7.442350e-001 3.192211e-001 -3.973025e-002 -1.589011e-001 6.759103e-002 -7.059017e-002 1.202699e-001 1.284772e-002 1.529757e-001 5.893891e-002 1.919268e-001 5.058058e-002 -9.137814e-002 -7.794907e-002 -2.185153e-002
<VARIANCE> 39
 3.101144e+000 3.658855e+000 1.589264e+001 1.285643e+001 2.218611e+001 1.880050e+001 1.603644e+001 3.294798e+001 1.925625e+001 8.537263e+001 3.888004e+001 3.157224e+001 5.371943e+000 2.799854e-002 3.480999e-001 4.934676e-001 4.843009e-001 6.416080e-001 5.595344e-001 7.743594e-001 1.250757e+000 7.644209e-001 9.395986e-001 1.040308e+000 8.599622e-001 1.738760e-002 8.926180e-003 3.804639e-002 6.789805e-002 8.012543e-002 1.271440e-001 1.417107e-001 1.124615e-001 2.663001e-001 1.074601e-001 2.002222e-001 2.085952e-001 1.262307e-001 5.840963e-003
<GCONST> 6.296973e+001
<MIXTURE> 4 1.677958e-001
<MEAN> 39
 -7.019029e+000 -4.828709e+000 -1.052029e+001 -1.818079e+001 -1.562114e+001 -3.699386e+000 -2.196062e+001 1.697971e+000 3.158043e+000 8.002810e+000 -1.455701e+001 -4.953604e+000 7.322739e+001 1.892796e-001 -2.176619e-001 -4.588451e-001 -1.696993e-001 2.520708e-001 5.644315e-001 5.341322e-001 6.261902e-001 -1.547033e-001 -3.577384e-001 -4.010485e-001 -1.877362e-001 7.758560e-002 -7.586509e-002 -4.479011e-002 9.035283e-002 -5.721942e-003 3.817800e-002 -5.865368e-002 1.057383e-001 -1.613730e-001 -1.384855e-001 -2.676617e-001 4.918366e-003 -2.107705e-002 -5.174164e-002
<VARIANCE> 39
 1.055084e+000 1.319755e+000 5.809529e+000 7.368156e+000 8.515806e+000 1.262315e+001 8.859447e+000 3.632877e+001 2.763734e+001 8.419600e+001 1.480033e+001 1.273951e+001 1.185705e+000 4.664742e-002 1.494250e-001 4.327316e-001 3.574555e-001 7.534408e-001 5.327675e-001 8.992163e-001 9.654901e-001 1.164750e+000 1.340183e+000 7.470940e-001 9.018590e-001 2.871116e-002 9.670185e-003 2.697042e-002 8.040047e-002 7.431309e-002 1.314961e-001 8.886591e-002 1.515512e-001 1.986769e-001 2.135606e-001 2.762289e-001 1.861096e-001 1.486199e-001 1.108376e-002
<GCONST> 5.574722e+001
<STATE> 11
<NUMMIXES> 4
<MIXTURE> 1 1.241432e-001
<MEAN> 39
 -5.350807e+000 -1.289081e+001 -8.506191e+000 -2.268775e+001 -1.821073e+001 -3.963866e+000 -1.250768e+001 -4.352814e+000 2.212805e+001 9.025520e+000 4.901020e+000 -1.197575e+001 7.795216e+001 2.714209e-002 -1.366380e-002 -9.370633e-001 -7.184735e-001 4.158805e-001 1.219948e+000 6.068716e-001 6.004514e-001 -2.748315e-002 -6.161143e-001 -2.758542e-001 3.162242e-001 9.861780e-002 -1.374272e-001 4.255407e-002 7.826422e-003 7.419140e-002 6.318160e-002 -6.689271e-002 2.056370e-002 8.506114e-002 -2.322851e-001 -1.657969e-001 -2.572472e-001 5.957970e-002 -8.779331e-002
<VARIANCE> 39
 4.264678e+000 9.949636e+000 1.584222e+001 1.060587e+001 2.283219e+001 4.534177e+001 2.620768e+001 7.369444e+001 1.693120e+001 5.289547e+001 3.959221e+001 2.899416e+001 7.074419e+000 2.240458e-001 3.229682e-001 6.819715e-001 3.282515e-001 7.320793e-001 7.731777e-001 1.384820e+000 1.675628e+000 1.721288e+000 9.725380e-001 1.106070e+000 1.092080e+000 2.298275e-001 1.686098e-002 3.096876e-002 1.210886e-001 7.345556e-002 5.729812e-002 1.138422e-001 2.379586e-001 1.298833e-001 1.273548e-001 2.292852e-001 1.226926e-001 2.126726e-001 1.601844e-002
<GCONST> 7.413803e+001
<MIXTURE> 2 4.162715e-001
<MEAN> 39
 -6.625562e+000 -5.096079e+000 -4.544397e+000 -1.959012e+001 -2.047542e+001 -6.183805e+000 -1.850475e+001 -9.601285e+000 5.502583e+000 -3.885922e+000 6.931022e+000 5.509382e-001 7.421140e+001 8.929890e-002 -1.417871e-001 -3.973792e-001 -4.452817e-001 -1.330685e-001 2.888606e-001 5.015522e-001 2.993731e-001 4.867717e-001 6.718329e-001 4.062432e-001 2.218420e-001 1.245145e-001 -3.387074e-002 -8.138771e-002 3.456200e-002 7.508226e-003 3.532086e-002 -4.766003e-002 4.808596e-002 1.373075e-001 -3.125907e-002 -1.216723e-001 -1.159328e-001 1.244267e-002 -4.996241e-002
<VARIANCE> 39
 1.619279e+000 1.017630e+001 2.627244e+001 2.126911e+001 1.120862e+001 5.766903e+001 1.801154e+001 2.736318e+001 5.563291e+001 3.478312e+001 2.914432e+001 2.986441e+001 1.501437e+000 7.829130e-002 1.945923e-001 3.142678e-001 4.630665e-001 4.870656e-001 8.828658e-001 9.257525e-001 9.430789e-001 9.299768e-001 1.113526e+000 8.702044e-001 6.455788e-001 5.619227e-002 1.067186e-002 2.413178e-002 4.530773e-002 6.924463e-002 8.643112e-002 1.373581e-001 1.115353e-001 1.031389e-001 1.628696e-001 1.711369e-001 1.491086e-001 9.292198e-002 6.526309e-003
<GCONST> 6.188948e+001
<MIXTURE> 3 3.366496e-001
<MEAN> 39
 -6.046234e+000 -1.261009e+001 -8.974104e+000 -2.648820e+001 -1.057800e+001 -5.012824e+000 -6.748696e+000 1.898395e+000 1.297635e+001 -5.927245e+000 -6.055622e+000 -6.665841e+000 7.479787e+001 -3.091248e-003 -3.013781e-001 -3.483129e-001 -1.624092e-001 4.280890e-001 7.160138e-001 5.679501e-001 2.531775e-001 -3.430319e-001 -9.369506e-001 -7.507312e-001 -4.532767e-001 1.740651e-002 -3.378204e-002 1.835036e-002 5.764597e-002 9.700000e-002 -9.148484e-003 1.588325e-002 -1.092366e-001 -6.194195e-002 -1.771541e-002 1.103233e-002 7.771368e-002 4.922456e-002 -3.210304e-002
<VARIANCE> 39
 2.398917e+000 4.742517e+000 1.049273e+001 9.507759e+000 1.657981e+001 1.602676e+001 1.946643e+001 1.083641e+001 2.695132e+001 4.683703e+001 3.749438e+001 1.740816e+001 1.941948e+000 5.308156e-002 2.195145e-001 4.269999e-001 5.031250e-001 6.683410e-001 6.378677e-001 7.060342e-001 9.341688e-001 9.231101e-001 8.851232e-001 1.176499e+000 8.349249e-001 3.032280e-002 1.003827e-002 3.158205e-002 6.393160e-002 6.795888e-002 1.279615e-001 1.172782e-001 1.098277e-001 1.878935e-001 1.515087e-001 1.189730e-001 1.653845e-001 1.498252e-001 3.406281e-003
<GCONST> 5.798532e+001
<MIXTURE> 4 1.229356e-001
<MEAN> 39
 -3.899615e+000 -7.449148e+000 -9.237657e+000 -2.091225e+001 -1.684344e+001 -2.676149e+000 -1.921659e+001 1.883350e+000 1.015711e+001 1.246327e+001 -9.278849e+000 -1.495263e+001 7.669086e+001 -7.197914e-002 -7.747465e-001 -1.040916e-001 -6.985198e-001 7.530532e-001 2.397693e-001 1.234523e+000 2.030921e-001 4.326449e-001 -4.553670e-001 -9.284047e-001 -7.283221e-001 3.763182e-002 -7.905374e-002 5.594099e-002 1.114470e-001 1.889790e-001 6.267555e-002 -7.285888e-002 1.117335e-001 -9.968220e-002 -5.277022e-002 -3.711405e-001 7.450712e-002 3.276716e-001 -1.010616e-001
<VARIANCE> 39
 2.939611e+000 4.667624e+000 2.057701e+001 1.392862e+001 3.538665e+001 1.585606e+001 2.305790e+001 1.770497e+001 4.953521e+001 6.582796e+001 3.787362e+001 3.942739e+001 7.136487e+000 7.290043e-002 2.674628e-001 2.869072e-001 4.479469e-001 4.577921e-001 8.268580e-001 7.410455e-001 9.118788e-001 1.130714e+000 9.067138e-001 1.175698e+000 1.078466e+000 6.684176e-002 1.327377e-002 4.130957e-002 6.495085e-002 7.182325e-002 1.157745e-001 1.392785e-001 9.633569e-002 1.026548e-001 1.498569e-001 1.026600e-001 1.296786e-001 8.484752e-002 7.491660e-003
<GCONST> 6.466609e+001
<STATE> 12
<NUMMIXES> 4
<MIXTURE> 1 1.774172e-001
<MEAN> 39
 -9.127274e+000 -1.122948e+001 -1.637785e+001 -2.379822e+001 -3.940053e+000 -3.886289e+000 -9.684355e+000 9.827622e+000 2.169075e+001 1.815626e+001 -9.132041e+000 -2.637133e+000 7.346545e+001 -1.826831e-001 -2.251151e-001 -4.781166e-002 -7.841209e-002 -7.849391e-003 4.233204e-001 2.574365e-001 -2.839626e-001 -1.794812e-001 -4.209747e-001 1.919691e-001 1.117307e-003 -1.350573e-001 -8.309373e-003 1.701273e-002 1.061632e-001 9.110746e-002 -1.565970e-001 -4.437165e-002 2.474207e-002 8.277236e-002 8.481154e-002 -9.577136e-002 4.012903e-002 -5.721125e-002 -4.838043e-002
<VARIANCE> 39
 1.833949e+000 4.121547e+000 2.536408e+000 6.636146e+000 4.364153e+000 1.303316e+001 8.580820e+000 1.168870e+001 8.446568e+000 1.041354e+001 4.603031e+000 4.400413e+000 1.912650e+000 6.947722e-002 3.190731e-001 3.819046e-001 5.280665e-001 8.551256e-001 5.539554e-001 7.139761e-001 6.212088e-001 6.048128e-001 5.220773e-001 3.886115e-001 4.480687e-001 6.007005e-002 1.561552e-002 6.220104e-002 4.486227e-002 7.862932e-002 8.810059e-002 8.925015e-002 1.371690e-001 1.224612e-001 6.640752e-002 1.379620e-001 6.672828e-002 7.194541e-002 4.402316e-003
<GCONST> 4.364920e+001
<MIXTURE> 2 3.394711e-001
<MEAN> 39
 -6.577980e+000 -8.043048e+000 -5.795448e+000 -2.281041e+001 -2.106253e+001 -3.743964e+000 -1.290592e+001 -3.480817e+000 8.021985e+000 -3.883761e+000 7.722830e+000 2.138154e+000 7.373048e+001 -2.564648e-001 -5.615497e-001 -1.542077e-002 -8.393841e-002 4.195254e-001 1.621968e-001 7.872895e-001 5.984676e-001 3.182174e-001 -3.411389e-001 -4.579687e-001 -4.116500e-001 -2.801152e-001 -1.506394e-001 -4.708286e-002 1.093298e-001 2.184859e-001 1.793495e-001 -3.683482e-002 -6.587271e-002 -6.796087e-002 -7.284333e-002 -1.256817e-001 -1.987940e-001 -1.146188e-001 -8.158525e-002
<VARIANCE> 39
 1.959310e+000 6.927511e+000 1.873076e+001 1.987891e+001 1.178317e+001 5.697279e+001 2.348427e+001 5.484604e+001 5.482655e+001 4.247847e+001 2.152257e+001 2.858084e+001 1.608397e+000 1.318322e-001 1.873766e-001 5.105391e-001 6.470369e-001 6.831336e-001 5.444245e-001 7.069136e-001 1.051508e+000 7.903641e-001 8.717974e-001 8.525777e-001 8.925509e-001 7.097870e-002 1.758633e-002 2.559856e-002 7.658678e-002 1.123379e-001 1.053880e-001 8.291543e-002 1.221057e-001 1.310725e-001 1.084229e-001 1.309599e-001 1.172669e-001 1.241220e-001 4.811165e-003
<GCONST> 6.398275e+001
<MIXTURE> 3 2.314790e-001
<MEAN> 39
 -6.803747e+000 -1.509012e+001 -1.166776e+001 -2.427940e+001 -6.222412e+000 2.572212e+000 -4.123627e+000 3.605040e-001 7.958764e+000 -1.161414e+001 -8.796108e+000 -7.789807e+000 7.380196e+001 -5.683311e-001 -3.119512e-001 2.569985e-001 6.390550e-001 -6.927601e-002 2.872862e-001 -1.257793e-001 -8.110998e-001 -4.847302e-001 -8.276001e-001 -3.548907e-002 2.419584e-001 -3.590833e-001 -1.023982e-001 4.043896e-002 1.870027e-001 2.998895e-002 -1.875933e-001 -2.104638e-001 -4.229857e-002 -6.313713e-002 -7.049752e-002 -5.812743e-002 -2.878210e-002 -3.550735e-002 -6.948653e-002
<VARIANCE> 39
 4.386991e+000 2.495495e+000 1.939309e+001 6.700750e+000 1.840697e+001 7.357971e+000 3.563131e+001 1.491091e+001 2.297091e+001 7.624859e+001 1.027919e+001 2.911179e+001 1.184776e+000 5.918727e-002 1.777352e-001 4.486377e-001 3.852677e-001 8.003623e-001 5.064709e-001 6.678925e-001 5.343203e-001 6.090643e-001 8.398722e-001 7.914081e-001 7.259081e-001 3.712690e-002 1.443192e-002 2.309975e-002 4.728055e-002 9.183165e-002 9.822662e-002 5.579451e-002 1.181969e-001 1.786400e-001 1.270506e-001 1.883454e-001 1.284305e-001 1.390053e-001 5.028430e-003
<GCONST> 5.513815e+001
<MIXTURE> 4 2.516327e-001
<MEAN> 39
 -6.550103e+000 -7.712786e+000 -1.175652e+001 -2.365038e+001 -1.470358e+001 -1.115174e+000 -9.507629e+000 2.349162e+000 7.041291e+000 -5.889387e-001 -9.251880e+000 -8.126264e+000 7.425839e+001 -2.987636e-001 -3.737495e-001 5.729271e-002 1.818883e-001 4.936657e-001 3.792999e-001 7.728023e-001 -1.073954e-001 -3.790175e-001 -1.385964e+000 -1.439906e-002 2.142132e-001 -3.209164e-001 -1.197633e-001 -6.309916e-002 1.986866e-001 1.884906e-001 -9.118446e-002 -3.291831e-002 -2.510738e-001 -1.663671e-001 -5.216001e-002 -3.067060e-001 6.610458e-002 1.173001e-001 -1.417577e-001
<VARIANCE> 39
 2.341268e+000 6.702224e+000 2.081713e+001 1.709940e+001 1.817304e+001 2.899980e+001 5.415446e+001 5.031661e+001 9.236201e+001 8.212431e+001 9.972142e+001 2.717834e+001 4.014866e+000 1.666128e-001 1.967430e-001 7.967794e-001 3.890689e-001 4.853516e-001 1.127973e+000 1.566912e+000 1.157761e+000 1.154588e+000 1.118748e+000 1.241414e+000 8.855570e-001 1.056061e-001 3.007059e-002 3.747813e-002 1.359625e-001 5.117876e-002 1.153651e-001 2.108503e-001 2.163608e-001 2.453985e-001 2.241261e-001 1.165149e-001 2.567527e-001 1.743109e-001 5.305748e-003
<GCONST> 7.581920e+001
<STATE> 13
<NUMMIXES> 4
<MIXTURE> 1 2.219768e-001
<MEAN> 39
 -7.640206e+000 -1.278957e+001 -1.101035e+001 -2.179365e+001 -1.208292e+001 -3.107370e-001 -1.061441e+001 2.995789e+000 1.789296e+001 2.828513e+000 -6.881291e+000 -1.029495e+001 7.334525e+001 -8.885734e-001 9.575897e-002 7.396544e-001 5.722584e-001 -2.089174e-001 -1.678707e-001 5.463248e-001 7.231352e-001 -4.793590e-001 -2.194832e+000 4.364985e-002 7.930984e-001 -9.173857e-001 -2.614932e-001 2.291687e-003 2.754580e-001 1.844763e-001 2.678635e-002 -1.024275e-003 1.330622e-001 -5.441339e-002 -4.389330e-001 -2.059966e-001 1.311095e-001 9.256657e-002 -1.508082e-001
<VARIANCE> 39
 7.046160e+000 7.820402e+000 2.079011e+001 1.067548e+001 2.139171e+001 1.654812e+001 2.147557e+001 2.841338e+001 2.885323e+001 5.638512e+001 3.162247e+001 3.139008e+001 9.290257e+000 2.818694e-001 3.925866e-001 7.466914e-001 6.235234e-001 1.333989e+000 7.000849e-001 1.361235e+000 1.190965e+000 2.460426e+000 1.297220e+000 1.060756e+000 1.061223e+000 1.537078e-001 2.342357e-002 7.032195e-002 1.041845e-001 1.227381e-001 1.150213e-001 9.479381e-002 1.236620e-001 2.383726e-001 2.283847e-001 2.157661e-001 1.344459e-001 9.997104e-002 9.971121e-003
<GCONST> 7.601234e+001
<MIXTURE> 2 2.179039e-001
<MEAN> 39
 -1.154808e+001 -1.389738e+001 -5.220974e+000 -2.014616e+001 -1.046348e+001 1.491756e+000 -4.093426e+000 -1.137751e+000 1.407271e+000 -2.194238e+001 -1.298930e+001 -6.478293e+000 7.052928e+001 -1.001341e+000 -4.168682e-001 8.395612e-001 9.035352e-001 9.084883e-002 -4.633211e-001 -7.275351e-001 -1.178505e+000 -5.145243e-001 -5.675502e-001 9.554315e-002 8.184355e-002 -6.081346e-001 -1.172572e-002 -3.772157e-003 -3.127146e-002 -3.319325e-002 1.217005e-001 -1.151453e-001 -2.395495e-001 3.624588e-002 2.320971e-001 4.421890e-001 2.414134e-001 1.046002e-001 1.127448e-002
<VARIANCE> 39
 4.362257e+000 9.551778e+000 3.986132e+000 1.044973e+001 1.385254e+001 1.922938e+001 3.096262e+001 1.704361e+001 2.408963e+001 2.096422e+001 2.164785e+001 1.696890e+001 1.675764e+000 8.301603e-002 1.713526e-001 3.735369e-001 5.711935e-001 5.839440e-001 1.006711e+000 1.628865e+000 1.367933e+000 1.566151e+000 2.532125e+000 9.829101e-001 1.410729e+000 4.017236e-002 1.662661e-002 3.161654e-002 2.811462e-002 1.053841e-001 1.127443e-001 1.143998e-001 2.738298e-001 2.377133e-001 2.271506e-001 2.420854e-001 1.442257e-001 2.232547e-001 3.411965e-003
<GCONST> 6.412737e+001
<MIXTURE> 3 2.783165e-001
<MEAN> 39
 -1.042979e+001 -1.090276e+001 -5.182558e+000 -2.039418e+001 -1.654828e+001 -4.271260e+000 -1.060748e+001 -2.600386e+000 8.281229e+000 -7.658210e+000 2.434727e+000 -4.753254e-001 7.118337e+001 -1.405423e+000 -8.790271e-001 7.919561e-001 1.643488e+000 1.506503e+000 6.749076e-001 3.021258e-001 2.850766e-001 -3.388941e-001 -1.227896e+000 -1.287241e+000 -4.848045e-001 -8.633979e-001 -1.595775e-001 -8.046328e-002 -4.954892e-002 1.790936e-001 2.307047e-001 2.824365e-001 2.062908e-001 6.305056e-002 1.135040e-002 -1.913885e-002 -2.370424e-004 -3.945284e-003 -5.062532e-002
<VARIANCE> 39
 4.528125e+000 1.316753e+001 1.628540e+001 1.807354e+001 1.543725e+001 3.535529e+001 2.721203e+001 2.865598e+001 3.796433e+001 2.878747e+001 4.096338e+001 2.000287e+001 3.735918e+000 1.791412e-001 3.355422e-001 6.553631e-001 6.166471e-001 8.446235e-001 2.051841e+000 1.950940e+000 1.688480e+000 1.744700e+000 1.148474e+000 1.385576e+000 1.226466e+000 9.922989e-002 3.768009e-002 3.641117e-002 8.873425e-002 1.785732e-001 1.324078e-001 2.301061e-001 2.362089e-001 1.886301e-001 2.756464e-001 2.215184e-001 2.362307e-001 2.543696e-001 6.107525e-003
<GCONST> 7.832922e+001
<MIXTURE> 4 2.818028e-001
<MEAN> 39
 -9.596084e+000 -1.030453e+001 -5.933090e+000 -1.639381e+001 -1.188378e+001 -4.898761e+000 -1.947904e+001 -8.646910e+000 -9.895501e-001 -1.043347e+001 -1.056857e+001 -7.954074e+000 7.124816e+001 -4.751662e-001 -3.719966e-001 2.832053e-001 3.229045e-001 2.443189e-001 2.167026e-001 4.557989e-001 -3.166068e-001 -8.390656e-001 -1.509660e+000 -3.144764e-001 -3.023239e-001 -3.897336e-001 -6.839440e-002 9.754283e-003 1.320171e-001 8.298258e-002 -8.484425e-003 5.274256e-002 1.140208e-001 5.209622e-002 3.469444e-002 3.973436e-002 1.612191e-004 -3.354393e-002 -5.598324e-002
<VARIANCE> 39
 2.452096e+000 9.222291e+000 4.211584e+001 8.060285e+000 1.123516e+001 1.810058e+001 1.511612e+001 2.270437e+001 1.592795e+001 7.591660e+001 4.559225e+001 1.544720e+001 2.333462e+000 1.423872e-001 1.194086e-001 7.295207e-001 3.957792e-001 7.411496e-001 5.344296e-001 8.123877e-001 8.727272e-001 8.417655e-001 1.250543e+000 1.089947e+000 6.317441e-001 6.776641e-002 2.571657e-002 2.179380e-002 7.739397e-002 7.770932e-002 1.085285e-001 1.134579e-001 9.191024e-002 1.346310e-001 1.368250e-001 2.082965e-001 1.802677e-001 1.194248e-001 4.561392e-003
<GCONST> 6.250253e+001
<STATE> 14
<NUMMIXES> 4
<MIXTURE> 1 1.455309e-001
<MEAN> 39
 -1.251759e+001 -1.222992e+001 -5.754197e+000 -1.790117e+001 -1.291248e+001 -3.780151e-001 -7.730706e+000 5.025970e+000 1.378077e+001 -4.318131e+000 -5.297093e+000 -8.333583e+000 6.931318e+001 -1.672032e+000 -6.103177e-001 1.362765e+000 1.708455e+000 1.196881e+000 8.335684e-001 8.927417e-001 -6.881869e-001 -1.832607e+000 -2.140043e+000 -1.303304e-002 7.805427e-001 -1.228768e+000 2.488386e-002 -1.873367e-001 -2.273208e-001 3.550762e-002 3.133915e-001 2.551799e-001 -5.038995e-002 -3.310646e-001 -1.641589e-001 2.543904e-001 1.314236e-003 9.569150e-002 8.962297e-002
<VARIANCE> 39
 9.201182e+000 8.007133e+000 1.753490e+001 1.437074e+001 1.720726e+001 1.855534e+001 1.755921e+001 3.204242e+001 2.400481e+001 2.286894e+001 1.985443e+001 1.878961e+001 9.090106e+000 1.917157e-001 5.069191e-001 9.556217e-001 1.027613e+000 3.041057e+000 1.220430e+000 1.261586e+000 1.281774e+000 1.196669e+000 1.164172e+000 8.143826e-001 8.114509e-001 2.087511e-001 6.300035e-002 8.059567e-002 1.557361e-001 1.993125e-001 3.125676e-001 2.509868e-001 3.179007e-001 2.982132e-001 2.706853e-001 2.577937e-001 1.565379e-001 2.308301e-001 1.878862e-002
<GCONST> 8.222124e+001
<MIXTURE> 2 2.625770e-001
<MEAN> 39
 -1.476036e+001 -1.322096e+001 -1.753261e+000 -1.387131e+001 -9.938922e+000 -2.493573e+000 -1.373741e+001 -7.988593e+000 -3.327229e+000 -2.036822e+001 -1.048317e+001 -7.715489e+000 6.724831e+001 -1.003002e+000 -5.367298e-001 3.455419e-001 4.744128e-001 2.806534e-001 3.172196e-001 8.996729e-001 7.775946e-001 2.770655e-001 5.904805e-002 5.230755e-001 5.738813e-001 -5.855805e-001 4.790445e-002 -8.053812e-002 -2.621094e-001 -1.711400e-001 3.777732e-002 2.524141e-001 4.222806e-001 5.511479e-001 5.554689e-001 4.655587e-001 3.076280e-001 1.855719e-001 6.041339e-002
<VARIANCE> 39
 3.109445e+000 5.628117e+000 1.170311e+001 1.369272e+001 9.052159e+000 1.376207e+001 2.301792e+001 1.613255e+001 3.338608e+001 3.734069e+001 1.568393e+001 2.754224e+001 4.469821e+000 1.882186e-001 2.770699e-001 9.117507e-001 1.159967e+000 1.166847e+000 1.411874e+000 2.091359e+000 2.512181e+000 2.388583e+000 2.192641e+000 2.122352e+000 1.344020e+000 9.141120e-002 1.850786e-002 2.979133e-002 9.234787e-002 1.703782e-001 1.660964e-001 1.737102e-001 2.915294e-001 3.077177e-001 2.482679e-001 2.834215e-001 1.481450e-001 2.252440e-001 8.099595e-003
<GCONST> 7.614236e+001
<MIXTURE> 3 2.574139e-001
<MEAN> 39
 -1.725277e+001 -1.768525e+001 -3.305766e+000 -1.815103e+001 -9.372014e+000 4.172805e-001 -3.153124e+000 -1.384848e+000 6.837296e+000 -1.527281e+001 -4.001340e+000 -3.863440e+000 6.872756e+001 -4.553197e-001 -3.104629e-001 -9.321877e-002 1.215831e-001 2.068990e-001 3.372912e-001 4.655600e-001 3.813244e-001 4.083241e-001 7.180302e-001 9.328657e-001 6.783671e-001 -2.258367e-001 1.104986e-001 1.059675e-001 7.542354e-002 2.821137e-002 3.231449e-002 4.559620e-003 -1.232192e-001 -1.208527e-001 -1.703977e-001 -1.251882e-001 -9.009003e-002 -6.364660e-002 6.111474e-002
<VARIANCE> 39
 2.269943e+000 2.574100e+000 6.119486e+000 6.016749e+000 7.719853e+000 1.601016e+001 1.910146e+001 1.846491e+001 2.060981e+001 2.043331e+001 3.478863e+001 2.440487e+001 3.370583e-001 1.085906e-001 2.366965e-001 4.613315e-001 4.738002e-001 7.595620e-001 1.503873e+000 1.438504e+000 1.665433e+000 1.651335e+000 1.102286e+000 1.114266e+000 9.456875e-001 2.317977e-002 1.465065e-002 4.534334e-002 7.172164e-002 5.436680e-002 1.454578e-001 2.893271e-001 3.150444e-001 2.740988e-001 3.118027e-001 1.617335e-001 1.889767e-001 1.877540e-001 4.906093e-003
<GCONST> 6.201815e+001
<MIXTURE> 4 3.344782e-001
<MEAN> 39
 -1.669182e+001 -1.489356e+001 -3.021156e+000 -1.284995e+001 -8.551323e+000 2.284372e+000 -6.495886e+000 1.156981e+000 7.471419e+000 -1.009903e+001 -2.729330e+000 -2.624875e+000 6.683552e+001 -1.021076e+000 -8.347877e-001 -5.218637e-002 5.529858e-001 8.710667e-001 6.547933e-001 8.216738e-001 3.262739e-001 6.951771e-002 -1.491580e-001 2.363338e-001 4.530216e-001 -5.858282e-001 2.475987e-001 1.776287e-001 -1.210317e-001 -3.310951e-001 -4.111818e-001 -3.341781e-001 -2.105596e-001 -1.842501e-002 9.249443e-002 1.296895e-001 4.111606e-002 -4.904439e-002 1.527588e-001
<VARIANCE> 39
 5.970919e+000 5.882151e+000 6.387139e+000 1.164436e+001 1.437781e+001 1.789395e+001 1.431340e+001 2.252747e+001 2.796777e+001 2.844634e+001 2.153603e+001 1.661247e+001 7.541650e+000 2.292101e-001 4.292054e-001 5.931284e-001 1.049321e+000 1.322312e+000 1.452047e+000 1.658268e+000 2.123457e+000 2.348277e+000 2.385421e+000 1.799223e+000 1.556175e+000 9.310486e-002 2.678582e-002 4.648158e-002 9.189191e-002 1.754305e-001 1.894987e-001 2.329432e-001 2.406341e-001 2.686521e-001 3.722798e-001 4.474307e-001 3.328633e-001 2.382025e-001 8.804430e-003
<GCONST> 7.921237e+001
<TRANSP> 15
 0.000000e+000 1.000000e+000 0.000000e+000 0.000000e+000 0.000000e+000 0.000000e+000 0.000000e+000 0.000000e+000 0.000000e+000 0.000000e+000 0.000000e+000 0.000000e+000 0.000000e+000 0.000000e+000 0.000000e+000
 0.000000e+000 8.415706e-001 1.584295e-001 0.000000e+000 0.000000e+000 0.000000e+000 0.000000e+000 0.000000e+000 0.000000e+000 0.000000e+000 0.000000e+000 0.000000e+000 0.000000e+000 0.000000e+000 0.000000e+000
 0.000000e+000 0.000000e+000 8.078142e-001 1.921857e-001 0.000000e+000 0.000000e+000 0.000000e+000 0.000000e+000 0.000000e+000 0.000000e+000 0.000000e+000 0.000000e+000 0.000000e+000 0.000000e+000 0.000000e+000
 0.000000e+000 0.000000e+000 0.000000e+000 8.084532e-001 1.915468e-001 0.000000e+000 0.000000e+000 0.000000e+000 0.000000e+000 0.000000e+000 0.000000e+000 0.000000e+000 0.000000e+000 0.000000e+000 0.000000e+000
 0.000000e+000 0.000000e+000 0.000000e+000 0.000000e+000 8.071733e-001 1.928268e-001 0.000000e+000 0.000000e+000 0.000000e+000 0.000000e+000 0.000000e+000 0.000000e+000 0.000000e+000 0.000000e+000 0.000000e+000
 0.000000e+000 0.000000e+000 0.000000e+000 0.000000e+000 0.000000e+000 8.446629e-001 1.553371e-001 0.000000e+000 0.000000e+000 0.000000e+000 0.000000e+000 0.000000e+000 0.000000e+000 0.000000e+000 0.000000e+000
 0.000000e+000 0.000000e+000 0.000000e+000 0.000000e+000 0.000000e+000 0.000000e+000 8.183857e-001 1.816144e-001 0.000000e+000 0.000000e+000 0.000000e+000 0.000000e+000 0.000000e+000 0.000000e+000 0.000000e+000
 0.000000e+000 0.000000e+000 0.000000e+000 0.000000e+000 0.000000e+000 0.000000e+000 0.000000e+000 8.061850e-001 1.938150e-001 0.000000e+000 0.000000e+000 0.000000e+000 0.000000e+000 0.000000e+000 0.000000e+000
 0.000000e+000 0.000000e+000 0.000000e+000 0.000000e+000 0.000000e+000 0.000000e+000 0.000000e+000 0.000000e+000 8.087020e-001 1.912980e-001 0.000000e+000 0.000000e+000 0.000000e+000 0.000000e+000 0.000000e+000
 0.000000e+000 0.000000e+000 0.000000e+000 0.000000e+000 0.000000e+000 0.000000e+000 0.000000e+000 0.000000e+000 0.000000e+000 8.228976e-001 1.771024e-001 0.000000e+000 0.000000e+000 0.000000e+000 0.000000e+000
 0.000000e+000 0.000000e+000 0.000000e+000 0.000000e+000 0.000000e+000 0.000000e+000 0.000000e+000 0.000000e+000 0.000000e+000 0.000000e+000 8.560705e-001 1.439295e-001 0.000000e+000 0.000000e+000 0.000000e+000
 0.000000e+000 0.000000e+000 0.000000e+000 0.000000e+000 0.000000e+000 0.000000e+000 0.000000e+000 0.000000e+000 0.000000e+000 0.000000e+000 0.000000e+000 8.046784e-001 1.953216e-001 0.000000e+000 0.000000e+000
 0.000000e+000 0.000000e+000 0.000000e+000 0.000000e+000 0.000000e+000 0.000000e+000 0.000000e+000 0.000000e+000 0.000000e+000 0.000000e+000 0.000000e+000 0.000000e+000 7.892748e-001 2.107253e-001 0.000000e+000
 0.000000e+000 0.000000e+000 0.000000e+000 0.000000e+000 0.000000e+000 0.000000e+000 0.000000e+000 0.000000e+000 0.000000e+000 0.000000e+000 0.000000e+000 0.000000e+000 0.000000e+000 8.325257e-001 1.674744e-001
 0.000000e+000 0.000000e+000 0.000000e+000 0.000000e+000 0.000000e+000 0.000000e+000 0.000000e+000 0.000000e+000 0.000000e+000 0.000000e+000 0.000000e+000 0.000000e+000 0.000000e+000 0.000000e+000 0.000000e+000
<ENDHMM>
