~o
<STREAMINFO> 1 39
<VECSIZE> 39<NULLD><MFCC_D_A_0><DIAGC>
~h "taotaobujue"
<BEGINHMM>
<NUMSTATES> 18
<STATE> 2
<NUMMIXES> 4
<MIXTURE> 1 2.177584e-001
<MEAN> 39
 -5.946516e+000 -1.134624e+001 -1.333714e+001 -2.860210e+001 -1.419746e+001 7.312728e+000 3.420665e+000 2.388788e+000 7.113864e+000 -8.060817e+000 -2.647939e+000 -4.837204e+000 7.618668e+001 1.466528e+000 1.381898e-001 -1.460305e+000 -1.698134e+000 -3.693704e-001 1.205557e+000 1.238350e+000 3.004385e-001 5.493906e-001 8.123258e-001 5.636495e-001 1.112580e-002 9.472034e-001 -4.954374e-001 -2.157058e-001 3.277358e-001 6.812656e-001 2.566463e-001 -1.181779e-001 -2.298820e-001 -1.168286e-002 -1.775266e-001 -2.460571e-001 -2.122518e-001 2.877556e-001 -3.472483e-001
<VARIANCE> 39
 7.634333e+000 1.524449e+001 1.769544e+001 2.321832e+001 4.626692e+001 2.424818e+001 7.292439e+001 7.227375e+001 4.002024e+001 7.731204e+001 2.384788e+001 1.980137e+001 4.296936e+000 6.865749e-001 4.124131e-001 1.256278e+000 1.969349e+000 2.452271e+000 1.338881e+000 2.950050e+000 2.333940e+000 1.375679e+000 1.730964e+000 2.055222e+000 2.220331e+000 3.927757e-001 9.570202e-002 1.010518e-001 1.751685e-001 1.239135e-001 2.895603e-001 1.921136e-001 4.081268e-001 4.114108e-001 2.364809e-001 2.712779e-001 2.534855e-001 2.796733e-001 4.131984e-002
<GCONST> 9.618931e+001
<MIXTURE> 2 1.891011e-001
<MEAN> 39
 -2.229346e+001 -1.394363e+001 -1.250621e+001 -1.194003e+001 -3.002453e-001 -2.992511e+000 -9.060332e+000 -6.989706e-002 2.008542e+000 -3.716752e+000 -7.798185e+000 -1.489641e+000 7.037099e+001 8.802407e-001 8.911735e-002 -2.711849e-001 1.230381e-001 1.042446e+000 -4.067522e-002 -9.019486e-001 -2.146702e+000 -1.488535e+000 -1.237571e+000 -8.096029e-001 -9.725375e-001 6.227521e-001 5.800971e-001 6.889164e-002 -3.109198e-002 -2.085380e-001 -2.344479e-001 1.480219e-001 -2.158807e-001 -1.216769e-001 2.294519e-001 -1.460688e-001 2.192721e-002 -1.975391e-001 1.210705e-001
<VARIANCE> 39
 1.458894e+001 1.629201e+001 1.691437e+001 1.796539e+001 4.046158e+001 2.586653e+001 3.194094e+001 4.121890e+001 4.156984e+001 3.651422e+001 1.753973e+001 3.266089e+001 4.345808e+000 2.064284e+000 1.027269e+000 1.377165e+000 9.446257e-001 3.114534e+000 1.756256e+000 3.124062e+000 2.323160e+000 2.787993e+000 3.160626e+000 2.067217e+000 1.606301e+000 2.454235e-001 1.232248e-001 1.630329e-001 1.954610e-001 1.798045e-001 4.437549e-001 3.969126e-001 6.312872e-001 5.637581e-001 8.079658e-001 8.121425e-001 3.358220e-001 2.887527e-001 5.628663e-002
<GCONST> 1.031559e+002
<MIXTURE> 3 2.934757e-001
<MEAN> 39
 -1.286181e+001 -1.418986e+001 -7.530429e+000 -1.688309e+001 -8.097320e+000 1.809594e+000 -5.673785e+000 -1.069373e+000 2.833087e+000 -1.288757e+001 -6.896165e+000 -4.372443e+000 7.175268e+001 2.342662e+000 9.414766e-001 -9.709572e-001 -1.707040e+000 -4.212030e-001 6.112698e-001 2.730856e-002 -4.205589e-001 5.119927e-002 6.139206e-005 1.333652e-001 -6.296203e-001 1.316994e+000 1.817008e-001 -1.252983e-001 -5.373071e-001 -5.327491e-001 -5.447770e-002 2.746616e-001 3.654477e-001 3.697540e-001 4.659544e-001 4.994732e-001 2.256389e-001 7.462577e-002 1.683507e-001
<VARIANCE> 39
 1.124204e+001 1.262506e+001 1.068312e+001 2.722208e+001 2.944160e+001 2.331222e+001 5.394411e+001 4.214149e+001 3.171375e+001 5.334961e+001 3.335615e+001 2.410408e+001 4.762087e+000 7.223676e-001 6.974845e-001 1.099831e+000 1.487934e+000 2.189394e+000 1.526279e+000 4.021137e+000 3.421407e+000 2.429297e+000 2.825275e+000 2.490143e+000 1.837708e+000 2.585013e-001 1.537839e-001 1.158438e-001 1.212606e-001 1.975095e-001 3.537943e-001 1.945808e-001 3.395327e-001 3.846762e-001 2.798631e-001 2.857265e-001 4.769616e-001 3.280310e-001 3.740977e-002
<GCONST> 9.784093e+001
<MIXTURE> 4 2.996648e-001
<MEAN> 39
 -1.874780e+001 -1.640756e+001 -8.382995e+000 -1.504134e+001 -8.436479e+000 9.959050e-001 -6.452969e+000 4.776704e+000 7.775275e+000 -7.851390e+000 -5.645628e+000 -1.318629e+000 6.840923e+001 2.054457e-001 2.824702e-001 -4.259233e-001 4.054337e-002 2.200577e-001 -3.138718e-001 -6.032725e-001 -3.483336e-001 -5.152743e-001 3.788915e-001 -3.512889e-001 -1.944769e-001 5.158032e-001 1.309612e-001 4.203186e-003 5.130044e-002 4.409142e-002 1.519648e-001 6.866294e-002 7.999927e-002 -2.334650e-001 -2.413518e-001 -2.071410e-001 -4.153014e-002 -1.337227e-001 3.779724e-002
<VARIANCE> 39
 6.518065e+000 9.303159e+000 1.035747e+001 1.425992e+001 2.355231e+001 1.597153e+001 1.612624e+001 2.455159e+001 1.910116e+001 5.522305e+001 2.707788e+001 1.544745e+001 4.253039e+000 2.643827e-001 5.804124e-001 5.109112e-001 7.604171e-001 1.288130e+000 1.020355e+000 1.266019e+000 1.949355e+000 2.023078e+000 2.591256e+000 1.464543e+000 9.161274e-001 1.228603e-001 6.913448e-002 1.098603e-001 1.065939e-001 1.329334e-001 3.161489e-001 1.467953e-001 2.273221e-001 3.659370e-001 3.613494e-001 4.106970e-001 3.111592e-001 1.923648e-001 2.070699e-002
<GCONST> 8.204964e+001
<STATE> 3
<NUMMIXES> 4
<MIXTURE> 1 1.873117e-001
<MEAN> 39
 -3.244028e+000 -9.368912e+000 -1.517964e+001 -2.863444e+001 -1.648642e+001 7.571835e+000 -4.667039e+000 -3.191597e+000 8.187042e+000 1.425101e+000 8.327110e-001 -2.441714e+000 7.800191e+001 -4.043153e-003 3.092996e-001 4.819966e-001 -1.448684e-001 -4.440907e-001 -7.846342e-001 -5.343735e-001 4.404175e-001 6.195263e-002 -2.520117e-001 3.638174e-001 8.378555e-001 -1.818521e-001 -1.653253e-001 8.020741e-002 2.127868e-001 2.008076e-001 2.425666e-002 -3.277206e-001 -2.215156e-001 4.656436e-002 7.527981e-002 -9.862907e-002 -8.706351e-002 -8.189249e-002 -1.186025e-001
<VARIANCE> 39
 3.796723e+000 1.007697e+001 1.930431e+001 2.369910e+001 2.628481e+001 2.332662e+001 7.825101e+001 3.446372e+001 1.806990e+001 4.644353e+001 5.570419e+001 2.415330e+001 2.557488e+000 1.611300e-001 2.269731e-001 7.294676e-001 8.086866e-001 8.669057e-001 8.847333e-001 1.363310e+000 1.466142e+000 7.215053e-001 1.531852e+000 1.005260e+000 1.107941e+000 6.440899e-002 3.582538e-002 3.310635e-002 1.408705e-001 1.014389e-001 1.477996e-001 1.401125e-001 1.515333e-001 2.322373e-001 9.282184e-002 3.361872e-001 2.120924e-001 2.456625e-001 1.988390e-002
<GCONST> 7.614905e+001
<MIXTURE> 2 3.500443e-001
<MEAN> 39
 -3.810840e+000 -1.107157e+001 -1.308566e+001 -2.903715e+001 -1.465625e+001 7.185514e+000 9.253086e+000 9.294579e+000 8.123822e+000 -1.364395e+001 -2.628532e+000 -2.182206e+000 7.638947e+001 -8.936557e-002 2.619705e-001 4.887529e-001 -1.209420e-001 -8.289170e-001 -8.650079e-001 -3.959080e-001 4.038863e-001 2.492736e-001 -3.559169e-001 -4.983119e-002 3.061711e-001 -1.915931e-001 -1.371073e-001 -3.984849e-002 9.865844e-002 7.031161e-002 -6.340025e-002 -2.165424e-001 -3.027166e-001 -1.992025e-001 -4.411501e-002 6.886895e-002 -1.367020e-002 -5.206057e-002 -8.363900e-002
<VARIANCE> 39
 6.764951e+000 7.199009e+000 9.442801e+000 1.269083e+001 2.870352e+001 2.662613e+001 1.768757e+001 1.744778e+001 5.297343e+001 2.986097e+001 2.148180e+001 2.052025e+001 2.594414e+000 2.097886e-001 3.198934e-001 4.162475e-001 4.718199e-001 9.764015e-001 1.174314e+000 7.118325e-001 7.251531e-001 9.415315e-001 9.351033e-001 9.180637e-001 7.724181e-001 7.183273e-002 2.866347e-002 7.347534e-002 7.749414e-002 8.851857e-002 1.385874e-001 1.168198e-001 1.268600e-001 1.417522e-001 1.859117e-001 1.708259e-001 1.744694e-001 1.187776e-001 6.924842e-003
<GCONST> 6.758482e+001
<MIXTURE> 3 1.786306e-001
<MEAN> 39
 -9.665089e+000 -1.582161e+001 -1.629900e+001 -1.695201e+001 1.157237e+000 -3.885972e-001 -1.594467e+001 -5.579056e+000 1.587458e+000 -9.760012e+000 -1.077422e+001 -6.995932e+000 7.558508e+001 1.378906e+000 -4.774368e-001 -1.348436e+000 -1.147976e+000 1.245768e+000 1.103069e+000 1.970664e-001 4.405869e-001 9.854421e-001 7.725995e-001 -1.126733e-001 -5.790517e-001 8.714156e-001 -4.848476e-001 6.111615e-002 3.451540e-001 4.993750e-002 -1.092414e-001 4.687273e-002 5.278709e-001 3.931303e-001 6.943898e-002 1.073211e-001 2.536842e-001 2.176049e-001 -2.439221e-001
<VARIANCE> 39
 7.321150e+000 1.336450e+001 2.366162e+001 2.506191e+001 5.688331e+001 3.301990e+001 3.784264e+001 4.879727e+001 3.777518e+001 8.442163e+001 2.449551e+001 2.010116e+001 4.266629e+000 8.965333e-001 6.744974e-001 8.030015e-001 1.451416e+000 1.313461e+000 9.411147e-001 1.295851e+000 9.429466e-001 1.832213e+000 1.645266e+000 1.528165e+000 1.797589e+000 1.952116e-001 7.780374e-002 1.749043e-001 1.860755e-001 2.601826e-001 3.103060e-001 3.106082e-001 3.280440e-001 4.068335e-001 4.383153e-001 5.244334e-001 2.291014e-001 2.828209e-001 1.617184e-002
<GCONST> 9.395566e+001
<MIXTURE> 4 2.840135e-001
<MEAN> 39
 -5.968345e+000 -1.562184e+001 -1.490886e+001 -2.081577e+001 -1.578264e+000 5.916688e+000 -9.758541e+000 -2.048990e+000 4.705744e+000 -1.160123e+001 -8.237175e+000 -7.089282e+000 7.603616e+001 2.319411e-001 4.688745e-001 2.016044e-001 -7.229269e-001 -6.313267e-001 -7.154991e-002 9.505802e-001 6.116658e-001 1.339476e-002 1.333845e-001 6.675500e-002 1.675004e-001 -3.436356e-002 -1.696675e-001 7.496123e-002 2.941931e-001 4.947392e-002 -4.170715e-001 -4.371642e-001 7.792412e-002 5.399613e-002 -1.800057e-001 -2.306009e-001 1.089955e-002 1.265978e-001 -1.510800e-001
<VARIANCE> 39
 5.370778e+000 5.732050e+000 1.140200e+001 1.687002e+001 1.776524e+001 4.360994e+001 9.343321e+001 5.197155e+001 3.884388e+001 3.793449e+001 3.708748e+001 2.391554e+001 2.593034e+000 1.598410e-001 2.028179e-001 4.614218e-001 6.106166e-001 1.283905e+000 9.991444e-001 9.623753e-001 8.137479e-001 1.082371e+000 1.110926e+000 1.411062e+000 7.204047e-001 9.823409e-002 2.197154e-002 4.410791e-002 8.328944e-002 1.142351e-001 1.565160e-001 1.959671e-001 2.257040e-001 1.400681e-001 1.779700e-001 1.830029e-001 2.183660e-001 1.442237e-001 1.005732e-002
<GCONST> 7.371486e+001
<STATE> 4
<NUMMIXES> 4
<MIXTURE> 1 1.640353e-001
<MEAN> 39
 -8.575810e+000 -1.165918e+001 -2.161149e+001 -2.657673e+001 8.429620e+000 2.211441e+000 -2.988318e+000 -6.330617e+000 3.242417e+000 -3.856499e+000 -7.504853e+000 -7.412924e+000 7.839125e+001 2.124307e-001 6.137657e-001 3.959443e-001 -4.157545e-001 -9.163377e-001 -5.901658e-002 5.277441e-001 3.097296e-001 4.781524e-001 4.573284e-001 4.128419e-001 1.953741e-001 -2.485483e-001 -9.431984e-002 1.843564e-002 1.501926e-001 1.763520e-001 -3.246620e-001 -3.092668e-001 -2.180116e-001 8.795606e-002 9.638643e-002 -4.927830e-003 -1.694155e-001 1.263233e-003 -1.149806e-001
<VARIANCE> 39
 3.446165e+000 1.251883e+001 1.404678e+001 3.988021e+001 3.469345e+001 1.340251e+001 2.956205e+001 1.693273e+001 2.140158e+001 7.305535e+001 1.426674e+001 2.314076e+001 3.829593e+000 2.404118e-001 3.481717e-001 9.514768e-001 1.734153e+000 1.566221e+000 2.185063e+000 1.279228e+000 1.003100e+000 1.875817e+000 1.766918e+000 1.488679e+000 1.429383e+000 1.647092e-001 7.252520e-002 8.663268e-002 1.954289e-001 2.423521e-001 2.332949e-001 2.264215e-001 1.386871e-001 1.892538e-001 2.784424e-001 3.246896e-001 2.371757e-001 2.245396e-001 2.174843e-002
<GCONST> 8.440935e+001
<MIXTURE> 2 4.403897e-001
<MEAN> 39
 -5.145899e+000 -7.305831e+000 -8.226021e+000 -2.754788e+001 -2.264462e+001 -5.196096e-001 -1.653581e+000 6.632727e+000 7.266768e+000 -1.230064e+001 -2.711457e+000 -5.814260e-001 7.410925e+001 -3.520375e-001 1.379801e-001 6.438013e-001 8.479052e-001 -3.242383e-002 -7.054378e-001 -1.182058e+000 -7.194944e-001 -1.382638e-001 7.570118e-002 -3.205569e-002 2.163569e-001 -3.308756e-001 -7.515596e-002 -5.423421e-002 4.512231e-002 2.139011e-001 2.852803e-001 1.174443e-001 -1.198934e-001 -1.082836e-001 2.198108e-002 1.321385e-001 3.601760e-002 -5.826633e-002 -2.312784e-002
<VARIANCE> 39
 8.487352e+000 2.541843e+001 1.822040e+001 1.992654e+001 4.955778e+001 2.242782e+001 5.258817e+001 2.037140e+001 2.058034e+001 2.541297e+001 1.767811e+001 3.042937e+001 3.249963e+000 1.380934e-001 2.540120e-001 5.115062e-001 7.638266e-001 9.538700e-001 9.678344e-001 1.169401e+000 1.107498e+000 1.594825e+000 2.097916e+000 9.254109e-001 9.409755e-001 2.889290e-002 3.181740e-002 3.883829e-002 7.134512e-002 1.181444e-001 1.018316e-001 1.496651e-001 1.921785e-001 1.772210e-001 2.566571e-001 3.180377e-001 1.672671e-001 1.970502e-001 5.996213e-003
<GCONST> 7.400543e+001
<MIXTURE> 3 1.962609e-001
<MEAN> 39
 -6.813132e+000 -1.056262e+001 -1.066544e+001 -2.302453e+001 -1.091033e+001 -2.603429e+000 -1.328165e+001 -2.878487e+000 5.376965e+000 -6.273055e+000 -5.344809e+000 -8.571332e+000 7.349813e+001 -2.410147e-001 6.607820e-001 1.056752e+000 2.785085e-001 -1.296199e+000 -1.304973e+000 3.144588e-001 9.823762e-001 7.575782e-001 -2.669589e-001 -2.519086e-001 2.262748e-001 -3.790896e-001 -1.945362e-001 -6.006523e-002 9.964073e-002 3.250883e-001 2.060164e-001 1.210487e-001 -1.201812e-002 -1.328135e-002 -5.366261e-002 -3.251789e-002 -1.496759e-001 1.139488e-001 -6.427968e-002
<VARIANCE> 39
 2.031260e+000 1.540234e+001 1.628838e+001 6.755898e+000 2.863033e+001 2.169266e+001 4.629586e+001 3.472972e+001 3.798113e+001 8.794425e+001 1.148301e+001 2.339946e+001 2.062282e+000 1.683007e-001 2.670937e-001 6.080170e-001 7.670651e-001 1.871308e+000 1.884978e+000 1.993082e+000 1.414158e+000 1.639706e+000 2.941119e+000 1.133426e+000 1.379310e+000 8.570132e-002 6.678116e-002 7.374137e-002 9.946360e-002 5.854731e-002 1.920579e-001 2.518820e-001 2.887722e-001 3.461415e-001 4.467144e-001 5.113955e-001 1.375892e-001 3.721366e-001 2.605915e-002
<GCONST> 8.217467e+001
<MIXTURE> 4 1.993141e-001
<MEAN> 39
 -8.175059e+000 -1.289364e+001 -9.056263e+000 -2.429874e+001 -1.142942e+001 -8.078585e-001 -3.355088e+000 3.367337e+000 7.179031e+000 -1.476983e+001 -7.876166e+000 -3.437747e+000 7.376933e+001 -1.324561e+000 -3.729394e-001 1.197680e+000 1.150518e+000 -6.255149e-001 -1.354256e+000 -1.451341e+000 -8.973715e-001 -3.715297e-001 -1.451542e-001 2.780556e-001 -7.507750e-002 -8.281555e-001 -3.344028e-001 -2.651977e-001 4.621611e-002 4.750104e-001 3.112015e-001 3.106977e-001 -3.509450e-002 -2.190017e-001 -2.407422e-001 -1.196584e-001 1.808223e-001 8.955425e-003 -1.480620e-001
<VARIANCE> 39
 4.644855e+000 6.248563e+000 1.771552e+001 1.195160e+001 2.895396e+001 2.000100e+001 2.051738e+001 2.562850e+001 2.793412e+001 2.750351e+001 3.418080e+001 2.000995e+001 2.618394e+000 1.981156e-001 4.172669e-001 7.179162e-001 1.460700e+000 2.653367e+000 1.358042e+000 2.416618e+000 1.158047e+000 2.127226e+000 1.007352e+000 2.334781e+000 1.573392e+000 7.590339e-002 4.467157e-002 4.548085e-002 1.073553e-001 1.647350e-001 2.055521e-001 3.629653e-001 4.460076e-001 3.744681e-001 2.811776e-001 1.720696e-001 3.246399e-001 2.573316e-001 1.649908e-002
<GCONST> 8.227768e+001
<STATE> 5
<NUMMIXES> 4
<MIXTURE> 1 1.668186e-001
<MEAN> 39
 -9.177097e+000 -7.492868e+000 -7.112364e+000 -2.067126e+001 -1.655405e+001 -7.258759e+000 -1.306710e+001 -5.741863e-001 7.864456e+000 -4.249763e+000 -3.904266e+000 -1.501749e+000 7.231072e+001 -1.541866e+000 -5.992571e-001 1.242450e+000 2.060345e+000 8.611627e-001 3.113504e-001 -1.065206e-001 -4.543036e-002 -4.107898e-001 -6.973513e-001 -4.067191e-001 1.764577e-001 -1.004643e+000 -3.576571e-001 -4.399686e-001 -2.686921e-001 7.554041e-002 7.319689e-001 1.019776e+000 8.881391e-001 1.727851e-001 -4.198236e-001 -4.694697e-001 -1.439302e-001 6.689037e-002 -1.309557e-001
<VARIANCE> 39
 9.187053e+000 1.447433e+001 2.560770e+001 1.650893e+001 4.166518e+001 2.090034e+001 5.403618e+001 3.485739e+001 5.217667e+001 7.930633e+001 6.052010e+001 2.568713e+001 4.579891e+000 5.891275e-001 6.676278e-001 1.201964e+000 1.082067e+000 3.227342e+000 3.022382e+000 3.173512e+000 2.556487e+000 2.554837e+000 2.137137e+000 2.451424e+000 2.028934e+000 2.991557e-001 5.960317e-002 5.692469e-002 2.205732e-001 1.899256e-001 2.318584e-001 2.669471e-001 4.341122e-001 5.936741e-001 6.743386e-001 5.232830e-001 6.045226e-001 2.847241e-001 2.766082e-002
<GCONST> 1.005330e+002
<MIXTURE> 2 3.404226e-001
<MEAN> 39
 -1.598071e+001 -1.722166e+001 -5.296737e+000 -1.701508e+001 -9.329128e+000 1.461579e-001 -3.331988e+000 1.857896e+000 7.217955e+000 -1.295848e+001 -6.033642e+000 -2.277677e+000 7.000648e+001 -1.958781e-002 -1.776806e-001 -3.604397e-001 -7.723024e-002 2.875579e-001 2.353153e-001 1.281433e-001 -1.414723e-001 -2.148653e-002 -5.749537e-002 -2.553923e-001 -1.856974e-001 5.817827e-002 2.516208e-001 1.474257e-001 1.563867e-002 -4.571055e-002 -3.624847e-002 3.142419e-002 -7.918402e-002 -4.171219e-002 -6.286789e-002 -1.300118e-001 -1.370741e-002 -1.054305e-001 1.102733e-001
<VARIANCE> 39
 2.594678e+000 3.763598e+000 1.012144e+001 7.673772e+000 1.398808e+001 2.105035e+001 2.177055e+001 2.151507e+001 2.168277e+001 2.582357e+001 1.815723e+001 1.791368e+001 1.088694e+000 3.126686e-001 3.438777e-001 4.727552e-001 7.614141e-001 1.242319e+000 1.210044e+000 1.876615e+000 1.985584e+000 1.950603e+000 2.079452e+000 1.759129e+000 1.179235e+000 6.939104e-002 4.370147e-002 6.330303e-002 1.072189e-001 1.696422e-001 2.157905e-001 2.191673e-001 3.339188e-001 3.090112e-001 3.537486e-001 3.425776e-001 3.526418e-001 2.535757e-001 1.164826e-002
<GCONST> 7.607632e+001
<MIXTURE> 3 2.161452e-001
<MEAN> 39
 -1.396640e+001 -1.263901e+001 -4.287141e+000 -1.577020e+001 -1.027678e+001 -6.442998e-001 -7.080462e+000 8.245305e-001 4.792386e+000 -1.210604e+001 -5.668828e+000 -1.296628e+000 6.975082e+001 -1.908771e+000 -1.279803e+000 1.718200e-002 1.447367e+000 1.731357e+000 1.490599e+000 1.068870e+000 1.522619e-001 -7.719432e-001 -4.710962e-001 -2.413251e-001 4.399942e-001 -8.809933e-001 2.578359e-001 1.223488e-001 -5.216828e-001 -5.972961e-001 -2.819771e-001 -1.660329e-001 1.106362e-001 1.189944e-001 2.864759e-001 3.674041e-001 -1.848962e-002 7.640930e-002 2.532965e-001
<VARIANCE> 39
 7.132820e+000 1.740788e+001 1.055054e+001 1.205251e+001 1.784825e+001 2.218081e+001 3.247176e+001 2.495871e+001 3.074713e+001 4.686624e+001 2.044569e+001 1.613787e+001 3.142247e+000 5.883052e-001 6.556981e-001 1.126124e+000 1.121666e+000 1.612938e+000 2.239515e+000 2.662336e+000 1.910282e+000 2.919406e+000 1.681112e+000 2.144772e+000 1.674283e+000 1.704970e-001 7.882492e-002 1.111589e-001 1.485862e-001 1.480763e-001 3.813789e-001 3.964519e-001 4.180097e-001 3.392187e-001 5.449372e-001 2.972054e-001 3.434801e-001 2.673109e-001 3.396262e-002
<GCONST> 9.154465e+001
<MIXTURE> 4 2.766136e-001
<MEAN> 39
 -1.867324e+001 -1.320642e+001 -8.503601e+000 -1.448497e+001 -8.476243e+000 7.188721e-001 -6.481287e+000 1.729971e+000 4.202510e+000 -7.295049e+000 -6.492516e+000 5.084500e-001 6.799950e+001 -1.860713e-001 2.104040e-001 -4.120076e-001 5.311653e-002 3.160941e-001 3.214596e-002 1.696266e-001 -4.473210e-002 1.405825e-002 3.731796e-001 -1.761553e-001 5.920489e-002 2.440055e-001 5.479715e-001 3.731332e-001 7.398822e-002 -2.621194e-001 -2.891283e-001 -3.720576e-001 -3.253236e-001 -2.313515e-001 1.137856e-002 -7.933467e-002 -4.044066e-002 -1.780913e-001 2.538961e-001
<VARIANCE> 39
 4.389832e+000 1.292447e+001 8.709967e+000 1.099628e+001 2.851522e+001 3.269366e+001 3.284912e+001 2.915142e+001 2.225014e+001 3.437405e+001 1.824548e+001 2.973254e+001 2.540370e+000 9.515087e-001 1.002359e+000 9.510955e-001 1.467279e+000 2.225566e+000 2.046651e+000 2.308341e+000 2.481193e+000 3.614916e+000 3.792286e+000 2.072864e+000 2.937093e+000 2.020075e-001 1.121324e-001 1.915595e-001 1.360120e-001 2.663860e-001 4.608339e-001 4.976136e-001 4.810016e-001 4.029471e-001 6.088790e-001 5.375375e-001 4.244623e-001 4.017292e-001 6.045564e-002
<GCONST> 9.825658e+001
<STATE> 6
<NUMMIXES> 4
<MIXTURE> 1 2.163470e-001
<MEAN> 39
 -6.187144e+000 -8.997415e+000 -1.140355e+001 -2.924183e+001 -1.647059e+001 5.772802e+000 7.738616e+000 7.796066e+000 9.900010e+000 -1.408421e+001 -4.134417e+000 -1.535419e+000 7.522878e+001 1.354721e+000 4.656637e-001 -1.348354e+000 -2.103347e+000 -6.595420e-001 6.022230e-001 1.572820e+000 1.032869e+000 8.333717e-001 -7.487600e-002 5.420150e-001 3.577386e-001 9.286203e-001 -4.930918e-001 -2.939410e-001 2.402163e-001 6.686444e-001 3.137061e-001 -8.651656e-002 -3.727655e-001 -2.291963e-001 -1.761187e-001 3.962040e-002 3.462263e-002 7.802042e-002 -2.991846e-001
<VARIANCE> 39
 4.577034e+000 1.510119e+001 1.843478e+001 1.534939e+001 4.197953e+001 1.807454e+001 3.441375e+001 1.721061e+001 3.647598e+001 1.633574e+001 1.786273e+001 2.717881e+001 2.387021e+000 5.534568e-001 4.505472e-001 5.862327e-001 1.581612e+000 2.421230e+000 7.374983e-001 2.045215e+000 1.148963e+000 1.590442e+000 1.047918e+000 2.286759e+000 1.532846e+000 2.288378e-001 4.016431e-002 4.887436e-002 1.364172e-001 1.634273e-001 2.529657e-001 8.179967e-002 1.685041e-001 1.565236e-001 3.475980e-001 1.636729e-001 2.155235e-001 3.158396e-001 1.769503e-002
<GCONST> 8.114098e+001
<MIXTURE> 2 2.037896e-001
<MEAN> 39
 -9.929654e+000 -9.161871e+000 -8.166006e+000 -2.000517e+001 -1.283925e+001 -1.979158e-001 -8.736723e+000 1.060184e+000 6.549016e+000 -8.396559e+000 -8.590081e+000 -4.029474e+000 7.277719e+001 1.521844e+000 7.661457e-002 -1.570001e+000 -2.238321e+000 -9.241843e-001 6.457025e-001 5.213111e-002 -3.443204e-001 5.026430e-001 2.814119e-001 7.086452e-001 -3.277552e-001 8.188558e-001 -1.195468e-001 -3.121265e-001 -3.921001e-001 -8.273139e-002 3.815798e-001 4.847006e-001 1.879153e-001 -1.534828e-001 -1.177539e-001 1.898038e-001 2.634700e-001 2.761540e-001 2.765187e-002
<VARIANCE> 39
 6.158777e+000 3.067537e+001 1.209201e+001 1.731214e+001 2.736252e+001 1.573596e+001 2.763508e+001 2.989849e+001 1.416519e+001 7.371409e+001 3.736624e+001 2.379855e+001 2.573445e+000 7.230859e-001 7.202263e-001 6.792548e-001 1.510645e+000 1.857348e+000 2.002205e+000 2.143183e+000 2.509126e+000 1.088466e+000 1.479703e+000 2.127590e+000 1.761753e+000 1.871861e-001 4.367029e-002 5.906793e-002 9.812775e-002 1.545533e-001 1.373546e-001 2.523917e-001 2.294871e-001 2.717856e-001 2.349716e-001 1.860969e-001 2.425183e-001 2.715225e-001 1.900794e-002
<GCONST> 8.612386e+001
<MIXTURE> 3 2.637126e-001
<MEAN> 39
 -1.393179e+001 -1.405307e+001 -6.133458e+000 -1.677404e+001 -8.864257e+000 3.087940e+000 -1.379728e+000 1.708181e+000 5.861578e+000 -1.382746e+001 -5.978952e+000 -2.325868e+000 7.082714e+001 1.836334e+000 1.063362e+000 -3.268731e-001 -1.556034e+000 -1.181558e+000 5.371879e-002 5.893917e-001 4.104723e-001 3.354176e-001 -5.127766e-001 -2.254291e-001 -4.368982e-001 9.257218e-001 3.321550e-001 8.758502e-002 -4.371999e-001 -7.698957e-001 -3.663548e-001 9.305114e-002 3.283221e-001 3.229277e-001 2.317907e-001 1.812831e-001 7.450663e-002 1.128920e-001 2.244701e-001
<VARIANCE> 39
 6.687223e+000 1.449948e+001 1.080052e+001 9.768916e+000 2.128713e+001 2.008477e+001 2.956348e+001 2.725936e+001 1.761184e+001 2.718564e+001 3.272459e+001 1.728813e+001 2.742169e+000 5.104471e-001 3.498623e-001 7.619671e-001 1.789902e+000 1.247466e+000 2.039581e+000 2.210671e+000 1.539586e+000 1.444288e+000 1.255045e+000 1.222851e+000 1.976690e+000 1.702622e-001 5.586445e-002 6.921965e-002 1.075992e-001 1.823313e-001 3.491879e-001 1.881064e-001 3.011345e-001 2.935931e-001 2.819763e-001 3.260419e-001 3.255656e-001 3.223535e-001 1.840162e-002
<GCONST> 8.436028e+001
<MIXTURE> 4 3.161508e-001
<MEAN> 39
 -1.750558e+001 -1.042102e+001 -1.218187e+001 -1.247561e+001 -1.300162e+000 -6.469701e+000 -1.345588e+001 -7.154000e+000 -5.464305e-001 -1.038289e+001 -1.231850e+001 -8.062747e-001 7.161421e+001 1.105768e+000 8.018208e-002 -6.919077e-001 -2.353542e-001 7.165064e-001 -3.634439e-001 -1.057399e+000 -1.224703e+000 -7.441014e-001 -7.398680e-001 -7.116065e-001 -7.704189e-001 7.061669e-001 1.802427e-001 -2.303277e-001 -2.232070e-001 -3.593703e-001 -7.033569e-002 3.646497e-001 2.665528e-001 2.801853e-001 3.119947e-001 2.479571e-001 3.108668e-001 -1.334482e-001 2.076420e-002
<VARIANCE> 39
 1.741783e+001 1.523735e+001 2.781721e+001 1.951412e+001 3.185283e+001 3.424183e+001 3.638929e+001 4.267540e+001 1.833864e+001 6.514907e+001 2.250579e+001 3.465578e+001 2.913338e+000 9.834120e-001 9.431476e-001 1.313584e+000 1.759633e+000 1.596249e+000 2.041607e+000 2.662843e+000 2.249938e+000 3.180211e+000 3.035870e+000 2.159451e+000 1.702806e+000 1.285138e-001 8.003815e-002 1.086373e-001 2.380053e-001 2.287617e-001 2.649792e-001 3.425913e-001 4.232187e-001 5.095658e-001 5.829979e-001 6.700214e-001 4.405081e-001 4.091906e-001 2.449292e-002
<GCONST> 1.000124e+002
<STATE> 7
<NUMMIXES> 4
<MIXTURE> 1 1.452020e-001
<MEAN> 39
 -7.774209e+000 -1.279947e+001 -1.866472e+001 -2.291679e+001 -2.547545e+000 6.074455e+000 -7.514948e+000 -6.481276e+000 6.200340e+000 -3.837081e+000 -7.108357e+000 -4.682444e+000 7.674220e+001 8.917269e-001 -3.868996e-001 -8.292201e-001 -9.633903e-001 6.429000e-001 1.311550e+000 6.030569e-001 3.855822e-001 5.043654e-001 7.240369e-001 6.505717e-001 1.308952e-001 5.418776e-001 -2.541628e-001 1.594083e-001 4.789529e-001 1.658171e-001 -3.011273e-001 -4.262038e-001 -4.311445e-002 3.244826e-001 -1.861126e-001 -3.127840e-001 -1.134430e-001 2.359502e-001 -2.129477e-001
<VARIANCE> 39
 9.919670e+000 2.095849e+001 2.737872e+001 3.648758e+001 1.255083e+002 4.016517e+001 5.060550e+001 2.840972e+001 1.920488e+001 5.267327e+001 4.000397e+001 1.948072e+001 3.820806e+000 3.134229e-001 7.804943e-001 1.941672e+000 1.160197e+000 1.728411e+000 1.509444e+000 2.144940e+000 2.114779e+000 1.134167e+000 1.996529e+000 1.269676e+000 1.246680e+000 1.771755e-001 7.769091e-002 1.182718e-001 2.082038e-001 2.020107e-001 2.042028e-001 2.260880e-001 3.594325e-001 2.844699e-001 2.224314e-001 1.882808e-001 2.247137e-001 2.433653e-001 1.382873e-002
<GCONST> 9.248200e+001
<MIXTURE> 2 4.994703e-001
<MEAN> 39
 -4.639545e+000 -8.679111e+000 -1.222623e+001 -3.137951e+001 -1.991905e+001 5.261804e+000 6.383076e+000 8.508445e+000 1.080384e+001 -1.285688e+001 -2.264151e+000 2.983446e-001 7.559180e+001 1.450859e-002 2.196932e-001 3.382519e-001 8.774386e-002 -6.710418e-001 -6.845286e-001 -5.203988e-001 -5.309375e-003 1.462352e-001 1.064517e-001 5.075080e-002 2.192105e-001 -1.509509e-001 -9.198420e-002 1.708088e-003 1.585805e-001 1.950851e-001 4.311984e-002 -1.820551e-001 -2.468840e-001 -1.163814e-001 -1.047330e-002 7.806446e-002 3.188473e-003 -5.379899e-002 -7.119197e-002
<VARIANCE> 39
 5.144488e+000 1.697677e+001 1.426482e+001 1.088559e+001 4.212165e+001 2.594079e+001 6.746445e+001 2.234374e+001 1.961129e+001 2.775109e+001 2.719710e+001 2.433712e+001 2.078218e+000 1.746402e-001 3.318484e-001 5.231494e-001 6.297629e-001 8.163144e-001 9.153672e-001 1.275246e+000 1.050531e+000 1.550663e+000 1.146840e+000 1.016276e+000 9.491565e-001 4.606774e-002 3.001195e-002 5.831906e-002 1.006506e-001 1.023242e-001 1.551111e-001 9.529493e-002 1.654565e-001 1.979368e-001 2.426395e-001 1.783331e-001 2.235522e-001 1.696699e-001 1.231290e-002
<GCONST> 7.317104e+001
<MIXTURE> 3 1.505954e-001
<MEAN> 39
 -9.657816e+000 -1.569727e+001 -1.431705e+001 -1.963903e+001 -3.199471e+000 -4.572799e-001 -1.396565e+001 -4.812646e+000 -1.582552e+000 -1.367068e+001 -1.030655e+001 -6.010346e+000 7.406185e+001 9.310169e-001 -6.285695e-002 -1.057446e+000 -1.335169e+000 6.225531e-001 1.504995e+000 6.358199e-001 5.153134e-001 -1.433133e-001 6.794207e-001 8.380154e-001 -2.548033e-001 5.251197e-001 -1.662038e-001 9.433124e-002 3.113609e-001 2.286069e-001 6.239438e-002 1.746051e-001 4.600604e-001 3.753632e-001 2.320078e-001 1.852138e-001 2.420632e-001 1.578292e-001 -1.044463e-001
<VARIANCE> 39
 3.904118e+000 8.103965e+000 2.398408e+001 2.572296e+001 1.797127e+001 2.893569e+001 7.008358e+001 6.216039e+001 3.676988e+001 5.484193e+001 2.361458e+001 2.328688e+001 1.619900e+000 5.409453e-001 4.490509e-001 9.016824e-001 9.328949e-001 1.781208e+000 1.378028e+000 1.981834e+000 1.149622e+000 1.310338e+000 2.190459e+000 1.240152e+000 1.420206e+000 1.495564e-001 5.285506e-002 8.611342e-002 1.714230e-001 2.618810e-001 2.362690e-001 1.556662e-001 2.693581e-001 2.640462e-001 2.164917e-001 4.862260e-001 2.045001e-001 1.625959e-001 9.756068e-003
<GCONST> 8.571783e+001
<MIXTURE> 4 2.047323e-001
<MEAN> 39
 -5.717336e+000 -1.527901e+001 -1.299667e+001 -2.526683e+001 -6.062106e+000 8.805701e+000 -8.684909e-001 9.417877e-001 3.457202e+000 -1.490246e+001 -5.271143e+000 -4.851966e+000 7.539662e+001 1.235588e-001 2.967413e-001 3.677835e-001 -4.145174e-001 -9.557889e-001 -8.082327e-002 7.596718e-001 5.393065e-001 1.482207e-001 -2.630580e-001 2.366692e-001 2.554359e-001 -3.896694e-002 -1.130612e-001 5.905787e-002 2.002786e-001 1.188372e-001 -2.783824e-001 -3.282270e-001 -1.234913e-001 -9.605196e-003 9.740713e-002 -3.119782e-002 -8.932763e-002 2.428505e-002 -7.864270e-002
<VARIANCE> 39
 5.637225e+000 2.943502e+000 1.521061e+001 8.381011e+000 3.794676e+001 3.224295e+001 3.102016e+001 1.799214e+001 2.573990e+001 3.572054e+001 1.361418e+001 2.091063e+001 2.625358e+000 8.726783e-002 1.666705e-001 3.416333e-001 2.696691e-001 1.052073e+000 8.049081e-001 9.450349e-001 6.145295e-001 7.250538e-001 1.078965e+000 6.908314e-001 8.446867e-001 4.058648e-002 1.771076e-002 3.655081e-002 8.360389e-002 7.544176e-002 1.419270e-001 1.217332e-001 1.670481e-001 7.132093e-002 1.578237e-001 2.247716e-001 8.522261e-002 1.344415e-001 6.785188e-003
<GCONST> 6.119713e+001
<STATE> 8
<NUMMIXES> 4
<MIXTURE> 1 1.793544e-001
<MEAN> 39
 -9.041209e+000 -9.866806e+000 -2.268771e+001 -2.567040e+001 8.324492e+000 1.415914e+000 -6.987512e-001 -4.334432e+000 1.497254e+000 -3.414811e+000 -8.348948e+000 -4.947019e-001 7.770338e+001 1.880489e-001 5.430706e-001 5.507264e-001 -6.643132e-001 -1.551851e+000 -1.631757e-001 1.829121e-001 5.037372e-001 -2.707258e-001 1.089659e-001 4.766330e-001 6.681528e-001 -2.623175e-001 -4.894871e-002 -2.949813e-003 1.933377e-001 8.340099e-002 -4.421416e-001 -2.454372e-001 -2.097406e-001 7.998367e-002 1.180094e-001 -2.242748e-001 -4.195805e-002 -8.971559e-002 -1.110510e-001
<VARIANCE> 39
 2.233173e+000 8.175918e+000 9.378490e+000 2.853992e+001 2.762611e+001 3.044823e+001 3.184322e+001 1.186102e+001 1.141556e+001 1.067189e+002 2.661211e+001 2.160719e+001 2.635440e+000 1.439957e-001 6.006312e-001 7.283789e-001 7.628916e-001 2.442603e+000 1.357387e+000 1.334183e+000 1.602461e+000 8.802943e-001 1.290647e+000 1.673603e+000 1.127250e+000 1.001840e-001 4.152016e-002 1.327202e-001 2.339678e-001 1.876122e-001 2.868891e-001 3.039227e-001 2.545606e-001 3.178635e-001 2.158869e-001 3.651992e-001 2.904153e-001 2.000207e-001 1.828602e-002
<GCONST> 8.198513e+001
<MIXTURE> 2 1.923057e-001
<MEAN> 39
 -9.438330e+000 -1.069368e+001 -5.491251e+000 -2.223862e+001 -1.551442e+001 -2.052681e+000 -5.178716e+000 3.864865e+000 7.978449e+000 -1.181790e+001 -3.126912e+000 -3.280072e-001 7.155534e+001 -2.058697e+000 -1.143965e+000 2.024001e+000 3.075436e+000 1.616129e+000 -5.718440e-001 -2.424248e+000 -1.771189e+000 -1.406727e+000 -1.507387e+000 -8.116143e-001 -4.001222e-001 -1.403975e+000 -1.960390e-001 -2.751096e-001 -4.403775e-001 -1.097537e-001 5.501818e-001 6.740018e-001 3.710229e-001 -2.170227e-001 -5.069675e-001 -3.448192e-001 -3.345289e-001 -1.686828e-001 1.350924e-002
<VARIANCE> 39
 4.950307e+000 1.392499e+001 6.714872e+000 1.196843e+001 2.681796e+001 2.085230e+001 3.307080e+001 2.186549e+001 2.596260e+001 3.932539e+001 3.536428e+001 2.917933e+001 3.244022e+000 2.836949e-001 7.290549e-001 8.756989e-001 6.317373e-001 1.459947e+000 2.171822e+000 1.922231e+000 1.134126e+000 2.025257e+000 4.289680e+000 2.445046e+000 1.984868e+000 1.983413e-001 1.343209e-001 1.200847e-001 9.421822e-002 1.951386e-001 3.382359e-001 2.220476e-001 5.635582e-001 5.101774e-001 4.426926e-001 4.867352e-001 3.936652e-001 3.745069e-001 3.068201e-002
<GCONST> 9.124871e+001
<MIXTURE> 3 3.667973e-001
<MEAN> 39
 -5.383515e+000 -8.371043e+000 -9.868501e+000 -2.745687e+001 -1.909980e+001 -6.155444e-001 -3.676080e+000 4.715209e+000 8.283918e+000 -1.021749e+001 -2.838025e+000 -4.621555e-001 7.399657e+001 -5.713841e-001 2.573723e-001 1.910524e+000 1.362125e+000 -7.645482e-001 -1.973333e+000 -1.262770e+000 -2.349127e-002 5.149536e-001 -2.183463e-001 2.215811e-001 -4.487635e-002 -7.320195e-001 -4.629054e-001 -3.544352e-001 2.610705e-001 7.115155e-001 8.210872e-001 2.215797e-001 -2.866486e-001 -4.766967e-001 -4.068813e-001 -3.741065e-001 -2.953985e-001 -2.291566e-001 -2.345815e-001
<VARIANCE> 39
 4.168896e+000 1.899735e+001 1.535712e+001 1.479121e+001 5.250062e+001 3.860897e+001 5.749138e+001 2.255349e+001 4.246889e+001 5.594303e+001 3.086522e+001 3.765451e+001 2.249305e+000 4.223962e-001 3.430419e-001 7.145019e-001 1.159634e+000 2.716987e+000 1.261424e+000 2.089161e+000 2.134250e+000 1.959678e+000 2.910525e+000 1.384859e+000 1.939748e+000 1.446616e-001 5.382332e-002 8.991475e-002 1.012435e-001 1.418034e-001 2.278980e-001 3.482229e-001 3.187259e-001 3.105803e-001 3.941224e-001 3.603885e-001 2.969923e-001 3.344106e-001 1.376089e-002
<GCONST> 9.033318e+001
<MIXTURE> 4 2.615426e-001
<MEAN> 39
 -5.984382e+000 -1.170156e+001 -1.384767e+001 -2.241158e+001 -6.992714e+000 3.696421e+000 -1.465986e+001 -4.725139e+000 -1.078547e+000 -6.257790e+000 -4.912026e+000 -7.091053e+000 7.372984e+001 1.380672e-001 5.949798e-001 6.394147e-001 -4.025136e-001 -1.461792e+000 -3.917027e-001 7.966449e-001 9.166732e-001 3.560318e-001 -1.952937e-001 3.050068e-001 2.700767e-001 -1.578076e-001 -6.651111e-002 4.156350e-002 1.916887e-001 7.206925e-002 -1.865785e-001 -3.315632e-001 -7.185992e-002 -1.711001e-002 1.791572e-001 -7.816033e-002 -1.225755e-001 2.210839e-002 -8.094081e-002
<VARIANCE> 39
 3.484178e+000 1.207924e+001 9.242622e+000 7.451519e+000 3.476672e+001 2.271412e+001 1.954093e+001 4.703640e+001 6.214969e+001 5.184278e+001 8.248717e+000 2.736785e+001 2.245316e+000 1.112734e-001 2.745538e-001 7.380754e-001 4.905739e-001 1.003195e+000 1.259309e+000 7.393729e-001 1.508965e+000 1.884178e+000 1.174404e+000 9.585080e-001 7.981710e-001 4.562602e-002 3.146241e-002 3.822371e-002 8.620186e-002 1.028119e-001 1.101409e-001 1.653653e-001 8.143866e-002 1.728731e-001 3.039156e-001 2.178847e-001 1.482442e-001 1.364937e-001 9.224251e-003
<GCONST> 6.970943e+001
<STATE> 9
<NUMMIXES> 4
<MIXTURE> 1 1.167444e-001
<MEAN> 39
 -6.189174e+000 -5.474120e+000 -1.953725e+000 -2.086193e+001 -2.149397e+001 -8.251702e+000 -1.017937e+001 2.058828e+000 8.633940e+000 -1.138018e+001 -3.525022e+000 -2.247386e+000 7.166080e+001 -1.663600e+000 -1.189211e+000 1.359359e+000 2.495797e+000 2.548216e+000 9.759194e-001 -4.374276e-002 -9.405866e-001 -1.146892e+000 -1.314828e+000 -1.059807e+000 -7.229842e-001 -1.029464e+000 -4.046125e-001 -5.147935e-001 -4.237303e-001 1.908587e-001 7.717308e-001 1.018032e+000 4.248728e-001 -6.137416e-002 -4.465368e-001 -2.767702e-001 -1.495036e-001 9.472941e-002 -1.146366e-001
<VARIANCE> 39
 2.877796e+000 9.906697e+000 1.033382e+001 1.209215e+001 3.524461e+001 2.950839e+001 2.813367e+001 2.684381e+001 2.904041e+001 2.410034e+001 2.087120e+001 2.522558e+001 4.901601e+000 4.416871e-001 6.451056e-001 7.479273e-001 6.357563e-001 1.654504e+000 1.978028e+000 1.566671e+000 1.715634e+000 3.049552e+000 2.039300e+000 1.217733e+000 2.354707e+000 1.065620e-001 5.298173e-002 7.550316e-002 9.352664e-002 1.578121e-001 2.707260e-001 2.103732e-001 2.203142e-001 5.064055e-001 6.457464e-001 3.267436e-001 3.310767e-001 3.514308e-001 1.718678e-002
<GCONST> 8.608695e+001
<MIXTURE> 2 4.665355e-001
<MEAN> 39
 -1.613096e+001 -1.602853e+001 -2.933513e+000 -1.595339e+001 -1.053421e+001 -6.258706e-001 -5.947708e+000 6.623814e-002 4.236786e+000 -1.507925e+001 -4.192080e+000 -2.292294e+000 6.836826e+001 -1.790566e-001 -1.555874e-001 -1.337136e-001 -5.757311e-002 -1.281565e-001 -2.790049e-001 6.134363e-002 7.336717e-002 -1.369345e-002 1.931466e-001 2.373398e-001 6.782328e-002 -8.711360e-002 2.459660e-001 2.324432e-001 5.565022e-002 -7.603499e-002 -1.663847e-001 -1.430981e-001 -1.099626e-001 -3.990574e-002 -1.660377e-002 -3.888601e-002 -7.418250e-002 -5.228126e-002 1.150254e-001
<VARIANCE> 39
 2.265360e+000 4.555917e+000 6.418164e+000 1.358352e+001 1.397151e+001 1.516673e+001 2.204239e+001 2.124355e+001 2.053712e+001 2.122338e+001 2.303003e+001 1.411519e+001 4.326024e+000 2.454093e-001 3.429675e-001 3.800781e-001 6.542158e-001 7.657123e-001 1.120094e+000 1.169557e+000 1.382299e+000 1.580236e+000 1.645546e+000 9.920452e-001 9.480352e-001 5.499126e-002 3.072354e-002 6.248239e-002 7.980026e-002 1.062444e-001 1.682459e-001 2.029191e-001 2.392091e-001 2.815754e-001 2.974198e-001 2.867925e-001 2.627849e-001 1.725995e-001 8.925650e-003
<GCONST> 7.038991e+001
<MIXTURE> 3 3.045877e-002
<MEAN> 39
 -1.017305e+001 -7.500595e+000 -1.157965e+001 -2.486187e+001 -2.176198e+001 -1.936731e+000 -7.084652e+000 4.215849e+000 9.619192e-001 -1.488843e+001 -1.402352e+001 1.037884e+000 7.170126e+001 4.999130e-001 3.974757e-001 5.758147e-001 3.610523e-001 -1.395556e+000 -1.155871e+000 -1.354910e+000 3.121422e-001 5.711523e-001 -1.588806e-002 -1.055959e-001 -9.981612e-002 -1.798302e-002 -2.921912e-002 9.324174e-002 2.915272e-001 4.649289e-001 5.778741e-001 -1.332391e-003 -3.207244e-001 -3.977986e-001 -9.845239e-002 2.930060e-001 2.423924e-001 -3.291411e-002 -4.667376e-002
<VARIANCE> 39
 1.915047e+001 2.331679e+001 1.333993e+001 1.110437e+001 3.626663e+001 2.299375e+001 5.129141e+001 4.433379e+001 8.910942e+000 2.500969e+001 1.037060e+001 1.322844e+001 1.008012e+001 1.771058e+000 2.622962e+000 2.638660e+000 3.147583e+000 4.728379e+000 3.317202e+000 7.220947e+000 5.167590e+000 5.957934e-001 4.908452e+000 1.389777e+000 1.023690e+000 1.657638e+000 3.675686e-001 4.940408e-001 2.404143e-001 3.837344e-001 7.539362e-001 7.860904e-001 9.905431e-001 8.546718e-001 1.759605e-001 2.146144e-001 2.883312e-001 2.038567e-001 1.342821e-001
<GCONST> 1.089295e+002
<MIXTURE> 4 3.862612e-001
<MEAN> 39
 -1.375084e+001 -1.283793e+001 -2.481652e+000 -1.522360e+001 -1.102569e+001 -3.200668e-001 -8.654120e+000 -5.304792e-001 2.976333e+000 -1.668993e+001 -7.063407e+000 -2.622370e+000 6.834413e+001 -1.391654e+000 -1.060906e+000 7.288778e-002 1.047657e+000 1.251631e+000 8.863087e-001 1.981381e-001 -3.406367e-001 -6.131815e-001 -5.253629e-001 -3.775543e-001 -2.006418e-002 -7.297177e-001 3.683129e-001 2.328685e-001 -4.057331e-001 -6.970616e-001 -6.131307e-001 -1.833634e-001 2.766152e-001 3.904270e-001 4.170449e-001 5.928869e-001 3.536771e-001 2.185635e-001 2.461823e-001
<VARIANCE> 39
 6.323460e+000 9.813810e+000 9.381824e+000 1.148420e+001 1.522541e+001 2.795728e+001 3.461244e+001 2.800504e+001 3.567117e+001 3.358062e+001 2.287897e+001 1.784871e+001 5.478524e+000 4.969997e-001 6.817164e-001 7.548926e-001 1.336645e+000 2.057634e+000 1.666158e+000 2.656225e+000 2.563828e+000 3.149527e+000 3.349764e+000 2.477752e+000 1.986497e+000 1.684900e-001 6.634723e-002 9.623498e-002 1.380337e-001 1.072111e-001 2.372285e-001 3.904339e-001 5.604851e-001 4.097474e-001 4.953534e-001 4.957970e-001 2.772073e-001 3.183238e-001 2.233748e-002
<GCONST> 9.171203e+001
<STATE> 10
<NUMMIXES> 4
<MIXTURE> 1 4.272867e-001
<MEAN> 39
 -1.578671e+001 -1.383930e+001 -3.785549e+000 -1.545139e+001 -1.209185e+001 -1.657064e+000 -8.568685e+000 5.917764e-001 3.435262e+000 -1.377932e+001 -5.477850e+000 -9.358610e-001 6.739715e+001 8.672625e-001 1.022138e+000 3.154285e-001 -4.276476e-001 -1.280959e+000 -1.126016e+000 -1.015668e+000 -4.727460e-001 -2.612486e-001 7.439746e-002 -1.893550e-001 -5.982049e-003 4.282660e-001 3.616971e-001 2.870347e-001 1.348170e-001 -2.208262e-001 -4.132418e-001 -3.754209e-001 -2.668644e-001 -1.504186e-001 -9.194811e-002 -2.121658e-001 -1.542775e-001 -1.600334e-001 1.683864e-001
<VARIANCE> 39
 5.871130e+000 8.408000e+000 7.984694e+000 1.655710e+001 1.828833e+001 1.771618e+001 2.663172e+001 3.125530e+001 2.899927e+001 2.799417e+001 1.873899e+001 1.803001e+001 5.298506e+000 4.155575e-001 4.180031e-001 6.336265e-001 6.950905e-001 1.064942e+000 1.610524e+000 1.496700e+000 2.142892e+000 2.320956e+000 2.569417e+000 1.697273e+000 1.596684e+000 7.837104e-002 4.595908e-002 7.155457e-002 9.398758e-002 1.232971e-001 1.548308e-001 2.644704e-001 2.805505e-001 3.198813e-001 3.842907e-001 3.924346e-001 2.876060e-001 2.562799e-001 1.089290e-002
<GCONST> 8.172559e+001
<MIXTURE> 2 1.346217e-001
<MEAN> 39
 -9.127129e+000 -1.054793e+001 -2.444620e+000 -2.260098e+001 -1.884797e+001 -6.097461e+000 -6.445096e+000 2.061673e+000 8.078227e+000 -1.084869e+001 -2.001515e+000 -9.020155e-001 7.202013e+001 7.891243e-001 6.266392e-001 1.367267e-002 -5.354271e-001 -8.269657e-001 -6.241309e-001 -3.772575e-001 -3.275515e-001 -2.285966e-001 4.000551e-001 5.755588e-001 7.696844e-001 3.595088e-001 -2.331338e-001 -2.282135e-001 6.369049e-003 2.339648e-001 3.001503e-001 1.801787e-001 -7.217067e-002 -3.909501e-001 -5.643293e-001 -4.324236e-001 -1.149012e-001 2.161824e-002 -1.321174e-001
<VARIANCE> 39
 5.152277e+000 1.854802e+001 3.679971e+000 7.369832e+000 1.951694e+001 1.109294e+001 1.643993e+001 1.067715e+001 5.089944e+000 2.069863e+001 1.818536e+001 2.463204e+001 1.861630e+000 4.599757e-001 4.523208e-001 6.087754e-001 1.073955e+000 1.800992e+000 1.446526e+000 1.266335e+000 1.485600e+000 1.484573e+000 1.382127e+000 1.026104e+000 8.933793e-001 1.392873e-001 3.769427e-002 7.121895e-002 6.095609e-002 8.742426e-002 1.164441e-001 1.388821e-001 1.796052e-001 1.715243e-001 1.096509e-001 1.983227e-001 1.542765e-001 1.452796e-001 1.020109e-002
<GCONST> 6.875029e+001
<MIXTURE> 3 2.233452e-001
<MEAN> 39
 -1.077543e+001 -6.789764e+000 -1.600980e+000 -1.610476e+001 -1.982682e+001 -8.609064e+000 -1.631572e+001 -1.401182e+000 1.899478e+000 -1.261178e+001 -7.711792e+000 -2.306944e+000 6.862134e+001 1.302535e+000 1.230408e+000 1.422924e-001 -1.065593e+000 -1.913314e+000 -1.374176e+000 -9.580052e-001 1.222024e-001 8.587946e-002 1.275685e-001 -3.325881e-001 -5.313934e-001 5.798564e-001 -1.925873e-001 -2.123002e-001 -1.851724e-001 6.624299e-002 2.599494e-001 4.677930e-001 3.074218e-001 3.002933e-001 1.300605e-001 1.169329e-001 1.893025e-001 1.181344e-001 -9.378844e-002
<VARIANCE> 39
 6.019703e+000 5.547631e+000 1.292261e+001 1.634215e+001 2.484825e+001 2.284370e+001 1.570250e+001 3.148036e+001 3.961053e+001 2.877843e+001 1.619621e+001 2.383896e+001 2.150027e+000 5.674148e-001 6.457890e-001 8.901820e-001 6.978691e-001 8.352777e-001 1.592242e+000 1.802280e+000 2.345641e+000 2.060268e+000 1.558256e+000 1.354491e+000 1.860685e+000 9.833272e-002 6.923862e-002 8.776929e-002 9.634096e-002 1.373031e-001 1.653535e-001 2.300706e-001 1.956023e-001 3.676498e-001 4.091425e-001 2.870372e-001 2.111008e-001 3.216507e-001 1.350266e-002
<GCONST> 8.239499e+001
<MIXTURE> 4 2.147463e-001
<MEAN> 39
 -1.170311e+001 -1.263954e+001 -2.172886e+000 -1.992937e+001 -1.641165e+001 -7.500306e+000 -1.019907e+001 -2.727438e+000 1.555012e+000 -1.880511e+001 -7.905351e+000 -6.816199e+000 7.058925e+001 9.474505e-001 8.270084e-001 4.774304e-002 -9.327346e-001 -1.247816e+000 -7.718077e-001 1.047538e-001 3.452045e-001 2.476733e-001 -1.586838e-001 -2.759064e-001 -3.397141e-001 4.305245e-001 -8.510076e-002 -1.097010e-001 -5.089862e-002 5.200791e-002 2.187840e-001 2.323949e-001 2.453002e-001 3.438012e-001 3.484440e-001 3.557992e-001 2.435212e-001 2.857747e-001 -3.991904e-002
<VARIANCE> 39
 3.488038e+000 3.719477e+000 6.444386e+000 1.043061e+001 1.282920e+001 1.696022e+001 2.059559e+001 1.650217e+001 1.671417e+001 1.782869e+001 2.385195e+001 1.290500e+001 2.245249e+000 4.067734e-001 3.637672e-001 3.015028e-001 6.180845e-001 1.143902e+000 1.235876e+000 1.591540e+000 1.686488e+000 1.807944e+000 2.196218e+000 1.785000e+000 9.708021e-001 1.166049e-001 4.022483e-002 4.445454e-002 5.434851e-002 9.356081e-002 1.813254e-001 1.942887e-001 1.767462e-001 2.041133e-001 2.694682e-001 2.449344e-001 1.825885e-001 1.889897e-001 7.853694e-003
<GCONST> 7.020964e+001
<STATE> 11
<NUMMIXES> 4
<MIXTURE> 1 5.678080e-002
<MEAN> 39
 -8.516035e+000 -4.126666e-001 -3.085300e+000 -1.054142e+001 -1.845948e+001 3.595112e-001 -2.493605e+001 -9.700310e-001 4.111565e-001 -2.171260e+000 -3.251305e-001 1.021578e+000 7.098399e+001 -2.724244e-001 3.833172e-001 7.711032e-001 2.026227e+000 2.111073e+000 1.554319e+000 9.422365e-001 2.860323e-001 5.217542e-001 1.041963e+000 3.026713e-001 -5.089063e-001 -4.165362e-003 -2.756726e-001 -3.342229e-001 2.120561e-001 2.280234e-002 4.452755e-001 1.238599e-001 8.514540e-001 2.941371e-001 7.027308e-002 -5.629295e-001 -3.057751e-001 -3.693525e-002 -1.788407e-001
<VARIANCE> 39
 1.040664e+000 1.323477e+001 6.334705e+000 2.252241e+001 3.320599e+001 1.597014e+001 1.067502e+001 3.021002e+001 1.514713e+001 2.355350e+001 9.126201e+000 1.270482e+001 1.820048e+000 3.209527e-001 5.649956e-001 1.017239e+000 4.541048e-001 2.146497e+000 1.458146e+000 3.764525e+000 9.808263e-001 1.362581e+000 3.086991e+000 7.494136e-001 1.193304e+000 1.806581e-001 3.030603e-002 7.509906e-002 1.355558e-001 1.371129e-001 1.375815e-001 1.670491e-001 2.467379e-001 2.650796e-001 2.033706e-001 5.164855e-001 8.015230e-002 2.775118e-001 1.507954e-002
<GCONST> 7.529588e+001
<MIXTURE> 2 4.756415e-001
<MEAN> 39
 -8.616837e+000 -7.132415e+000 -5.788723e-001 -1.860774e+001 -2.023147e+001 -1.094728e+001 -1.573957e+001 -1.452019e+000 4.720434e+000 -1.091776e+001 -3.648683e+000 -7.274747e-001 7.052930e+001 -2.164000e-001 -7.596056e-002 4.677317e-001 7.489070e-001 5.734683e-001 -5.377584e-002 -5.813658e-001 -6.852530e-001 -4.276933e-001 -6.556414e-002 2.768502e-001 2.390314e-002 -1.580800e-001 -1.448113e-001 -1.190914e-001 -2.958422e-002 1.399081e-001 2.366542e-001 3.521162e-001 3.208195e-001 3.100644e-002 -2.414527e-001 -4.836276e-001 -4.412792e-001 -2.558798e-001 -5.703520e-002
<VARIANCE> 39
 5.631415e+000 1.172284e+001 8.889425e+000 1.321362e+001 1.918661e+001 1.621671e+001 3.028552e+001 2.314792e+001 1.995901e+001 2.715780e+001 1.943746e+001 2.726034e+001 4.403414e+000 2.536987e-001 3.407915e-001 6.153433e-001 8.572535e-001 8.312958e-001 1.018261e+000 1.594106e+000 1.681354e+000 1.530031e+000 2.556191e+000 2.207463e+000 1.934712e+000 6.873949e-002 2.695383e-002 4.664241e-002 9.221052e-002 1.220399e-001 1.332779e-001 2.398181e-001 2.510118e-001 2.006792e-001 1.793244e-001 2.439657e-001 2.694532e-001 2.154038e-001 7.808034e-003
<GCONST> 7.642020e+001
<MIXTURE> 3 3.941047e-001
<MEAN> 39
 -7.708954e+000 -7.809367e+000 -2.797274e+000 -2.200868e+001 -2.153786e+001 -7.016224e+000 -9.877436e+000 2.120416e+000 3.797421e+000 -1.728612e+001 -1.008308e+001 -4.046295e+000 7.159643e+001 1.541732e-001 2.231299e-001 3.668533e-001 3.757721e-001 2.364625e-001 -2.690437e-002 -4.762348e-001 -3.269137e-004 3.649747e-001 5.467007e-001 5.253527e-001 4.618961e-001 6.269373e-002 -1.880429e-001 -5.283448e-002 1.670713e-001 3.708976e-001 3.256035e-001 -1.155564e-001 -3.383949e-001 -3.335654e-001 2.221454e-002 3.642541e-001 4.214529e-001 2.142933e-001 -9.287401e-002
<VARIANCE> 39
 4.357634e+000 1.132467e+001 1.089814e+001 1.455232e+001 2.254835e+001 2.284023e+001 4.416619e+001 2.713644e+001 2.502287e+001 3.051598e+001 1.868878e+001 3.100720e+001 5.631375e+000 2.776421e-001 4.291266e-001 6.206411e-001 9.063354e-001 9.842817e-001 2.217454e+000 2.154586e+000 1.488571e+000 1.287643e+000 1.915644e+000 1.937478e+000 1.436348e+000 6.632056e-002 6.275184e-002 9.709250e-002 1.001238e-001 1.462629e-001 2.075771e-001 2.978269e-001 2.665446e-001 2.412075e-001 3.369486e-001 3.492683e-001 2.487457e-001 3.525980e-001 1.366058e-002
<GCONST> 8.344140e+001
<MIXTURE> 4 7.347301e-002
<MEAN> 39
 -1.560540e+001 -1.352586e+001 -5.380965e+000 -1.648222e+001 -1.056448e+001 -8.803755e+000 -8.137655e+000 3.783369e+000 4.348901e+000 -1.597342e+001 -8.142213e+000 -3.977398e+000 6.922882e+001 -7.086736e-001 -1.787563e-002 -1.309197e-001 5.380839e-001 6.954822e-001 4.014982e-001 8.401977e-002 -2.217632e-001 -2.909200e-001 -7.105817e-001 -8.579145e-001 -2.983605e-001 -2.481570e-001 1.484078e-001 1.313044e-001 1.372568e-001 -4.298653e-002 -1.207510e-001 -4.978394e-002 -9.086548e-002 -1.864162e-002 -1.680811e-002 1.688558e-001 1.503802e-001 1.769108e-002 1.087103e-001
<VARIANCE> 39
 7.199106e+000 1.532638e+000 1.360584e+000 6.248120e+000 1.506906e+001 9.450769e+000 7.387472e+000 8.225532e+000 5.829263e+000 7.314078e+000 1.405488e+001 6.091804e+000 1.015195e+000 2.284932e-001 3.004119e-001 9.190418e-002 4.504617e-001 1.153154e+000 1.267386e+000 3.604022e-001 1.056719e+000 1.689878e+000 1.139046e+000 6.994523e-001 9.738712e-001 1.592295e-001 1.955068e-002 3.337390e-002 1.365463e-002 5.245208e-002 1.758152e-001 2.245520e-001 8.080385e-002 1.767055e-001 4.088523e-001 2.472076e-001 2.794260e-001 2.209221e-001 3.204833e-003
<GCONST> 5.260886e+001
<STATE> 12
<NUMMIXES> 4
<MIXTURE> 1 1.213292e-001
<MEAN> 39
 -1.315293e+001 -7.116719e+000 2.584463e+000 -6.389463e+000 -5.690924e+000 5.446091e+000 -5.962240e+000 1.517743e+000 5.660636e+000 -8.645201e+000 -2.018213e+000 -5.914794e-001 6.913568e+001 -1.590640e+000 -1.026175e+000 -8.005819e-001 2.889574e-001 7.349970e-001 5.854551e-001 1.234056e+000 5.476921e-001 3.883131e-001 2.781539e-001 -5.510231e-002 3.129421e-001 -4.881311e-001 -8.362784e-002 1.740144e-001 -4.451425e-001 -1.956527e-001 -8.824633e-001 -6.051603e-001 -7.256079e-001 -3.044341e-001 -3.350369e-001 4.437574e-003 -2.704786e-001 8.088153e-002 1.137121e-001
<VARIANCE> 39
 5.136655e+000 1.753550e+001 9.181263e+000 1.883823e+001 1.747348e+001 1.741895e+001 3.720783e+001 2.304167e+001 1.536370e+001 2.153822e+001 1.600668e+001 1.466865e+001 3.737908e+000 2.823266e-001 5.638292e-001 1.328551e+000 7.033554e-001 3.471103e+000 2.291813e+000 4.334255e+000 2.876402e+000 1.258760e+000 2.030565e+000 1.914517e+000 1.932696e+000 1.092593e-001 5.473330e-002 1.514783e-001 1.504240e-001 1.504612e-001 2.833050e-001 2.892038e-001 3.652115e-001 4.300205e-001 2.281605e-001 4.634545e-001 2.414299e-001 2.414269e-001 2.065260e-002
<GCONST> 8.720322e+001
<MIXTURE> 2 3.868429e-001
<MEAN> 39
 -9.912601e+000 -7.587903e+000 2.356322e+000 -1.377903e+001 -1.476532e+001 -7.409677e+000 -1.534459e+001 -5.489100e+000 3.698835e-001 -1.519673e+001 -4.591779e+000 -1.394831e+000 6.995069e+001 -8.402724e-001 -4.425041e-001 2.271263e-001 1.169709e+000 1.497994e+000 1.410133e+000 8.722091e-001 2.178632e-002 -4.038987e-001 -7.492417e-001 -5.273974e-001 -4.743589e-001 -3.726408e-001 -2.326068e-001 -2.237204e-001 -2.836427e-001 -1.362740e-001 9.156924e-002 4.175045e-001 5.611789e-001 5.578192e-001 3.974483e-001 1.665136e-001 -3.923915e-002 -1.809946e-001 -6.587863e-002
<VARIANCE> 39
 5.967680e+000 1.163879e+001 7.481642e+000 1.574977e+001 1.947654e+001 2.226644e+001 2.772169e+001 1.821110e+001 2.364554e+001 3.025381e+001 2.890939e+001 2.976980e+001 5.573133e+000 2.915278e-001 2.905554e-001 5.113028e-001 8.545457e-001 9.997898e-001 1.470065e+000 1.621019e+000 1.775003e+000 1.870591e+000 1.644883e+000 1.857788e+000 1.874222e+000 5.598478e-002 3.014043e-002 3.877505e-002 6.220131e-002 1.234035e-001 1.326380e-001 1.910319e-001 2.155106e-001 2.273167e-001 2.676736e-001 3.305806e-001 2.768116e-001 2.711626e-001 1.097933e-002
<GCONST> 7.782713e+001
<MIXTURE> 3 2.674801e-001
<MEAN> 39
 -1.446710e+001 -1.024364e+001 8.804056e-001 -1.061838e+001 -9.904482e+000 -1.472448e+000 -1.069951e+001 -2.503513e+000 4.414821e-001 -1.721833e+001 -8.271875e+000 -4.826971e+000 6.808412e+001 -1.370047e+000 -1.015862e+000 -7.583549e-001 3.450264e-001 7.686868e-001 1.506271e+000 1.399725e+000 1.040733e+000 4.090430e-001 4.083513e-001 1.244539e-002 4.646491e-002 -4.136445e-001 2.217444e-002 4.587788e-002 -2.417206e-001 -3.699469e-001 -5.397648e-001 -4.252406e-001 -3.147085e-001 6.453362e-002 1.275696e-001 6.077732e-001 4.947882e-001 5.859730e-001 6.571641e-002
<VARIANCE> 39
 9.011751e+000 8.703711e+000 1.138629e+001 1.362351e+001 1.623338e+001 1.849759e+001 2.593589e+001 1.710590e+001 2.090357e+001 2.211117e+001 2.124869e+001 2.309602e+001 6.273968e+000 3.523805e-001 3.957339e-001 6.914828e-001 1.061164e+000 1.499718e+000 1.270413e+000 1.011816e+000 8.695428e-001 1.831357e+000 2.111556e+000 1.898714e+000 2.040006e+000 1.010907e-001 4.423781e-002 8.230340e-002 9.841301e-002 1.788499e-001 1.646901e-001 2.101477e-001 1.746022e-001 1.690289e-001 2.165236e-001 2.297874e-001 2.298728e-001 2.701648e-001 1.147001e-002
<GCONST> 7.891417e+001
<MIXTURE> 4 2.243478e-001
<MEAN> 39
 -2.005884e+001 -1.184317e+001 -4.410386e+000 -1.068614e+001 -1.257970e+001 -4.890237e-002 -1.143944e+001 2.095683e-001 -4.396995e-001 -1.207411e+001 -4.859518e+000 6.903213e-001 6.524555e+001 -9.170772e-001 1.991649e-001 -8.000541e-001 3.187500e-001 -3.367614e-001 1.791933e-001 2.425108e-001 4.402461e-001 -4.577381e-001 1.006075e+000 3.145699e-001 1.068471e+000 1.317429e-001 1.797808e-001 3.209687e-001 2.189844e-001 2.452696e-001 6.789371e-002 -1.081427e-001 -1.594880e-001 -2.226540e-001 -2.341727e-001 -1.237141e-001 -1.903144e-001 -1.363298e-001 1.295756e-001
<VARIANCE> 39
 5.828787e+000 5.404372e+000 4.591931e+000 1.118814e+001 2.214184e+001 1.321362e+001 1.211875e+001 1.589678e+001 2.601802e+001 2.684071e+001 2.278997e+001 1.615005e+001 1.434036e+000 4.287395e-001 6.741854e-001 6.048812e-001 1.246801e+000 1.211518e+000 7.515768e-001 1.222837e+000 1.070274e+000 1.879391e+000 1.636673e+000 2.130491e+000 1.276987e+000 1.205229e-001 4.552507e-002 8.044286e-002 1.339994e-001 2.102606e-001 2.326731e-001 1.283023e-001 1.817759e-001 1.894077e-001 3.613849e-001 3.721982e-001 3.319462e-001 2.275409e-001 1.614065e-002
<GCONST> 7.670893e+001
<STATE> 13
<NUMMIXES> 4
<MIXTURE> 1 1.140311e-001
<MEAN> 39
 -1.377828e+001 -6.360165e+000 -4.132815e-001 -1.447199e+001 -1.874571e+001 -1.172774e+001 -1.675399e+001 -2.716434e+000 2.041057e+000 -8.466176e+000 -1.975479e+000 -2.431917e-001 7.043915e+001 1.858463e+000 4.050035e-001 1.051283e+000 -8.312532e-001 -1.509344e+000 -1.758037e+000 -5.665929e-001 -5.853518e-001 1.214845e+000 1.114578e+000 1.780845e+000 4.909132e-001 4.015566e-001 -2.855545e-001 -1.408713e-001 -3.519149e-001 2.780424e-002 2.454791e-001 3.730735e-001 6.153582e-001 5.298483e-001 6.371024e-002 2.149089e-001 3.291136e-002 3.322223e-001 -2.254722e-002
<VARIANCE> 39
 6.956306e+000 1.085964e+001 1.110175e+001 1.055773e+001 1.168827e+001 2.257120e+001 2.231220e+001 2.183771e+001 3.938884e+001 3.331713e+001 1.901273e+001 1.399945e+001 1.822869e+000 4.553798e-001 4.179691e-001 6.344030e-001 4.336733e-001 1.302212e+000 2.394435e+000 2.492516e+000 2.274698e+000 1.181649e+000 2.204296e+000 1.050988e+000 1.347478e+000 7.906424e-002 5.250111e-002 4.701456e-002 9.707706e-002 9.370589e-002 2.063854e-001 2.823321e-001 1.698674e-001 2.536282e-001 3.026021e-001 4.412424e-001 2.401703e-001 2.086006e-001 1.454413e-002
<GCONST> 7.865545e+001
<MIXTURE> 2 3.943660e-001
<MEAN> 39
 -1.613244e+001 -1.484088e+001 -7.620333e-001 -1.356676e+001 -9.968265e+000 -1.028473e-001 -7.638284e+000 -1.537036e+000 3.896174e+000 -1.495263e+001 -4.740510e+000 -3.680751e+000 6.919286e+001 -4.803334e-001 -1.940475e-001 -4.922509e-001 2.024754e-001 -1.622996e-001 3.918775e-001 9.944408e-002 2.852318e-001 -1.972399e-001 1.988723e-001 -2.334027e-002 2.199701e-001 -6.960614e-002 1.156804e-001 1.099959e-001 8.772372e-002 2.937475e-002 -3.660457e-002 -1.101782e-001 -5.530456e-002 -6.307136e-002 -9.304292e-002 -8.274531e-002 6.711893e-003 3.932654e-002 5.207324e-002
<VARIANCE> 39
 3.340994e+000 6.234899e+000 9.506908e+000 1.125330e+001 1.328032e+001 2.187999e+001 1.415874e+001 1.938606e+001 2.532454e+001 1.932015e+001 1.886817e+001 1.980331e+001 8.549490e-001 1.946630e-001 3.229375e-001 5.043525e-001 6.746126e-001 1.007062e+000 1.181962e+000 1.228505e+000 1.217495e+000 1.383731e+000 1.438492e+000 1.495491e+000 1.409863e+000 3.956705e-002 3.612220e-002 6.885350e-002 1.227791e-001 1.300024e-001 1.707490e-001 1.972137e-001 2.028589e-001 2.457048e-001 2.508323e-001 3.017663e-001 2.782916e-001 2.208588e-001 6.819176e-003
<GCONST> 7.068659e+001
<MIXTURE> 3 2.062727e-001
<MEAN> 39
 -1.731040e+001 -1.479132e+001 -2.573913e+000 -1.256718e+001 -1.102241e+001 -8.218662e-001 -7.921278e+000 3.063883e-001 1.619802e+000 -1.380573e+001 -3.523818e+000 -1.162540e+000 6.875239e+001 8.382050e-001 6.110005e-001 9.667237e-001 9.381213e-003 -1.329219e-001 -1.048174e+000 -7.866383e-001 -9.051986e-001 -2.746898e-001 -1.414908e-001 3.340143e-001 -3.936998e-002 2.801186e-001 2.581899e-001 2.110701e-001 2.371163e-001 3.758787e-002 -7.641019e-002 -3.887112e-001 -4.027183e-001 -3.627861e-001 5.006305e-002 -1.279579e-001 -7.942329e-002 -1.332356e-001 8.070393e-002
<VARIANCE> 39
 4.011805e+000 5.869018e+000 6.897004e+000 1.368933e+001 1.234084e+001 2.193403e+001 1.877239e+001 2.056809e+001 2.029676e+001 2.240395e+001 1.444077e+001 1.935229e+001 3.811460e+000 2.051527e-001 2.126383e-001 5.523093e-001 7.027632e-001 1.122591e+000 1.252051e+000 1.621666e+000 1.332694e+000 1.792224e+000 2.713667e+000 1.779882e+000 1.092426e+000 3.593635e-002 4.826322e-002 3.025544e-002 8.647367e-002 9.454942e-002 1.390722e-001 2.627408e-001 2.344386e-001 1.718637e-001 4.101828e-001 3.040398e-001 2.034058e-001 2.482372e-001 5.566084e-003
<GCONST> 7.186931e+001
<MIXTURE> 4 2.853302e-001
<MEAN> 39
 -2.303423e+001 -7.501893e+000 -5.708107e+000 -5.918221e+000 -1.133401e+001 1.462340e+000 -8.711620e+000 2.014255e+000 -5.816725e-001 -8.365284e+000 -6.065202e+000 2.247523e+000 6.802956e+001 3.718248e-001 4.173205e-001 5.294386e-001 3.212166e-001 -5.397944e-001 -6.849972e-001 -4.878536e-001 -2.569892e-001 -6.063774e-001 -2.912429e-001 -9.937434e-002 -2.165690e-001 2.339000e-001 6.874236e-001 4.728852e-002 5.902346e-001 -2.046247e-001 -8.340055e-002 -3.900631e-001 -2.652208e-001 -3.493448e-001 6.501526e-003 -3.364606e-001 1.737915e-001 -2.406231e-001 3.411230e-002
<VARIANCE> 39
 9.156739e+000 1.342461e+001 1.464497e+001 3.148825e+001 1.258037e+001 2.773773e+001 3.200888e+001 4.435900e+001 2.577107e+001 4.052388e+001 3.348207e+001 2.475565e+001 3.413802e+000 2.276956e+000 6.524711e-001 2.200072e+000 1.353527e+000 2.119658e+000 1.767962e+000 1.832912e+000 2.488414e+000 1.354193e+000 2.317150e+000 1.747778e+000 1.804498e+000 7.857876e-002 8.501770e-002 1.670443e-001 1.505160e-001 2.269313e-001 3.492852e-001 3.397259e-001 2.679929e-001 4.044572e-001 2.197639e-001 3.382116e-001 3.580050e-001 3.636870e-001 2.134132e-002
<GCONST> 9.423925e+001
<STATE> 14
<NUMMIXES> 4
<MIXTURE> 1 1.237346e-001
<MEAN> 39
 -8.867118e+000 -7.171011e+000 -6.154703e-001 -2.097451e+001 -2.371735e+001 -8.908437e+000 -1.124451e+001 5.824192e+000 8.742747e+000 -5.857276e+000 -7.929636e-001 -4.306402e-002 7.088973e+001 2.950097e-001 -1.169836e-001 -4.825093e-001 -8.983759e-001 -3.762071e-001 2.692005e-001 1.652808e+000 1.874454e+000 1.077188e+000 3.798766e-001 -4.032052e-001 -2.943495e-001 1.048261e-001 -1.741675e-002 -2.160308e-002 6.531049e-002 2.705947e-001 1.875790e-001 3.122968e-002 4.272986e-002 1.259462e-001 4.361938e-002 -7.076502e-002 8.477627e-002 1.520975e-001 1.770248e-002
<VARIANCE> 39
 3.337805e+000 8.612144e+000 6.823452e+000 1.956387e+001 1.080541e+001 1.197937e+001 3.186973e+001 3.759127e+001 1.802368e+001 1.624861e+001 9.443627e+000 2.191095e+001 1.626014e+000 5.279750e-002 1.369188e-001 3.415969e-001 6.848326e-001 4.721331e-001 7.466734e-001 5.526859e-001 6.298684e-001 8.714951e-001 1.810002e+000 1.301348e+000 6.839317e-001 3.438114e-002 1.353730e-002 2.505291e-002 5.835304e-002 7.812899e-002 4.987732e-002 4.115592e-002 5.869039e-002 1.412297e-001 1.723674e-001 1.675230e-001 1.043517e-001 1.139338e-001 9.407992e-003
<GCONST> 5.486419e+001
<MIXTURE> 2 1.258058e-001
<MEAN> 39
 -1.560922e+001 -7.979157e+000 2.724125e+000 -4.528093e+000 -1.127806e+001 -1.242010e+000 -9.554989e+000 -2.614038e+000 -2.960135e+000 -1.543319e+001 -6.269577e+000 -1.813536e+000 6.921696e+001 2.132855e+000 1.505174e+000 2.014205e+000 5.381272e-001 -5.963482e-001 -2.389339e+000 -1.734524e+000 -1.827067e+000 -1.372083e+000 -1.399933e+000 4.913654e-002 -3.277496e-001 5.665633e-001 3.166987e-002 -1.752187e-002 -1.572855e-001 -3.450274e-001 -5.355278e-001 -5.227497e-001 -3.331662e-001 -1.605262e-001 1.830224e-001 3.200634e-001 3.500080e-001 3.652529e-001 3.650495e-002
<VARIANCE> 39
 7.656608e+000 1.046755e+001 1.201651e+001 1.930444e+001 1.083622e+001 1.218822e+001 3.217756e+001 2.636119e+001 4.738280e+001 2.902390e+001 4.636403e+001 1.602641e+001 5.416887e+000 3.580251e-001 3.060215e-001 2.347940e-001 9.605227e-001 1.076935e+000 1.446610e+000 9.920138e-001 1.457920e+000 1.296172e+000 1.092490e+000 1.796135e+000 1.793656e+000 4.685935e-002 1.024932e-001 1.073980e-001 1.195016e-001 1.276277e-001 1.018921e-001 1.372881e-001 2.544105e-001 3.418015e-001 4.160751e-001 2.380833e-001 3.008043e-001 2.019345e-001 8.665439e-003
<GCONST> 7.896417e+001
<MIXTURE> 3 4.174646e-001
<MEAN> 39
 -1.195045e+001 -7.154613e+000 3.952083e+000 -7.802443e+000 -1.485701e+001 -7.067213e+000 -1.462277e+001 -5.987713e+000 -2.927487e+000 -1.565350e+001 -3.921706e+000 -4.357735e-001 7.003574e+001 9.137321e-001 3.462690e-001 6.221166e-001 -4.094731e-001 -8.901494e-001 -1.723963e+000 -6.977693e-001 -3.488072e-001 3.076128e-001 -7.732126e-003 6.821154e-001 3.688013e-001 3.033519e-001 -2.390912e-001 -2.246607e-001 -2.750892e-001 -1.040938e-001 1.583968e-002 1.914908e-001 2.765173e-001 4.504167e-001 2.749633e-001 3.092215e-001 9.175712e-002 1.006840e-001 -6.119610e-002
<VARIANCE> 39
 4.525074e+000 1.737033e+001 1.410465e+001 2.526529e+001 1.541302e+001 2.754748e+001 2.137200e+001 2.614320e+001 3.092506e+001 3.391733e+001 2.122883e+001 2.442289e+001 3.209281e+000 2.807919e-001 3.243509e-001 4.521379e-001 6.669409e-001 7.389209e-001 9.797997e-001 1.433535e+000 1.860398e+000 1.905620e+000 1.408121e+000 1.299841e+000 1.263596e+000 5.617111e-002 4.045361e-002 5.561778e-002 8.725078e-002 8.110353e-002 1.257752e-001 1.742439e-001 1.693152e-001 1.761806e-001 2.100568e-001 2.000734e-001 1.382736e-001 2.133219e-001 7.184267e-003
<GCONST> 7.432430e+001
<MIXTURE> 4 3.329949e-001
<MEAN> 39
 -9.081192e+000 -4.879444e+000 4.254250e+000 -1.189142e+001 -2.248043e+001 -1.461430e+001 -1.733013e+001 -1.214323e+000 2.101581e+000 -6.231532e+000 3.888167e+000 3.307794e+000 7.061217e+001 3.452941e-001 -2.365680e-001 -3.732744e-001 -9.260132e-001 -6.795127e-001 -4.924089e-001 3.022705e-001 1.180764e+000 1.313152e+000 8.285978e-001 2.841989e-001 -3.454205e-002 1.362632e-001 -1.337022e-001 -9.848245e-002 -2.266243e-001 -3.956325e-002 1.634078e-001 3.025768e-001 2.904444e-001 1.896508e-001 8.167829e-002 -1.415318e-001 -4.811037e-001 -3.281215e-001 -3.785883e-002
<VARIANCE> 39
 1.554354e+000 5.655013e+000 9.682731e+000 2.857741e+001 1.357419e+001 2.670245e+001 1.827928e+001 4.179634e+001 3.422858e+001 3.604258e+001 1.485447e+001 1.686100e+001 1.474988e+000 1.308610e-001 2.004002e-001 3.257554e-001 4.814757e-001 7.440646e-001 1.202904e+000 1.090691e+000 1.050977e+000 1.563643e+000 1.268110e+000 1.120485e+000 1.164452e+000 4.218931e-002 2.487155e-002 3.770979e-002 5.396956e-002 9.258033e-002 1.102473e-001 1.243143e-001 1.299462e-001 2.063094e-001 2.532925e-001 2.386516e-001 1.787324e-001 1.614276e-001 6.208170e-003
<GCONST> 6.573879e+001
<STATE> 15
<NUMMIXES> 4
<MIXTURE> 1 1.976225e-001
<MEAN> 39
 -8.020852e+000 -9.051373e+000 1.955210e-001 -1.804946e+001 -2.334079e+001 -1.405919e+001 -8.168256e+000 1.040934e+001 1.553093e+001 -5.048379e+000 -1.232777e-001 9.184960e-002 7.253153e+001 5.140638e-002 -4.237724e-001 -6.952487e-001 -3.107029e-001 8.744372e-002 7.601999e-001 1.169083e+000 1.426223e+000 1.168591e+000 -1.048661e-001 -1.219651e+000 -6.495445e-001 7.623126e-002 -1.089014e-001 -5.807392e-002 -1.591856e-002 1.702150e-001 3.256557e-001 3.317403e-001 8.043456e-003 -4.462388e-001 -5.369361e-001 -5.271841e-001 -3.040040e-001 -1.292243e-001 -5.358742e-002
<VARIANCE> 39
 5.144721e+000 1.289857e+001 8.945097e+000 3.043942e+001 2.563885e+001 4.157543e+001 2.365974e+001 2.427715e+001 2.695879e+001 3.421447e+001 1.816755e+001 1.522283e+001 2.410337e+000 7.720193e-002 2.973167e-001 4.093745e-001 4.997286e-001 9.444286e-001 1.428418e+000 1.893637e+000 1.148292e+000 1.460507e+000 2.173980e+000 1.147921e+000 9.246355e-001 3.339771e-002 1.036714e-002 3.750801e-002 5.871922e-002 6.826846e-002 1.339980e-001 2.364709e-001 2.274857e-001 1.196838e-001 3.230967e-001 2.073071e-001 2.085283e-001 1.433672e-001 4.906783e-003
<GCONST> 6.970638e+001
<MIXTURE> 2 3.527451e-001
<MEAN> 39
 -9.886527e+000 -9.368267e+000 3.869719e+000 -1.097952e+001 -1.361262e+001 -1.066894e+001 -1.524749e+001 -7.157301e+000 4.170819e-001 -1.521809e+001 -2.999081e+000 -1.094339e+000 7.162920e+001 2.229131e-001 -4.065398e-002 -2.590547e-001 -4.383125e-001 -3.540277e-001 -4.146633e-001 2.540151e-002 3.193440e-001 8.833691e-001 9.146963e-001 4.101461e-001 7.224164e-002 1.131502e-001 -2.763598e-002 -1.650446e-002 -7.073028e-002 -8.268927e-002 -3.256089e-002 7.499575e-002 1.133848e-001 1.497714e-001 1.453622e-001 3.814294e-002 -6.475426e-002 -1.075780e-001 -4.742542e-003
<VARIANCE> 39
 3.124412e+000 9.880498e+000 1.163315e+001 2.454186e+001 1.509535e+001 1.440847e+001 2.450794e+001 3.357891e+001 2.516902e+001 3.155609e+001 1.470839e+001 1.128351e+001 3.446942e+000 8.895183e-002 2.162697e-001 3.335074e-001 6.349733e-001 8.996313e-001 9.277565e-001 1.230470e+000 1.348686e+000 1.034138e+000 1.005051e+000 8.479199e-001 1.317434e+000 2.801393e-002 1.990029e-002 3.150128e-002 6.514575e-002 8.989866e-002 1.602747e-001 1.606581e-001 2.016731e-001 2.166228e-001 1.638730e-001 1.861395e-001 1.428993e-001 1.964203e-001 5.089636e-003
<GCONST> 6.563130e+001
<MIXTURE> 3 1.891088e-001
<MEAN> 39
 -8.229515e+000 -1.207065e+001 -5.616557e+000 -2.179543e+001 -2.079361e+001 -9.632772e+000 2.517551e+000 1.504637e+001 1.251213e+001 -1.526963e+001 -6.371952e+000 -2.222976e+000 7.294252e+001 -1.275475e-001 -2.876107e-001 -5.967357e-001 -2.544423e-001 6.762528e-001 7.958798e-001 9.115266e-001 2.515356e-001 -3.069704e-001 -8.914360e-001 -1.028725e+000 -1.998177e-001 5.418424e-002 -4.357238e-002 8.803861e-002 1.062878e-001 -4.037182e-002 2.859959e-002 5.912147e-003 -3.469764e-001 -3.552336e-001 -9.172831e-002 2.115165e-001 8.804324e-002 7.386616e-002 -3.591617e-002
<VARIANCE> 39
 4.753657e+000 6.553329e+000 5.593844e+000 1.964268e+001 2.833473e+001 2.857985e+001 2.042022e+001 3.023525e+001 1.712232e+001 1.874129e+001 1.676531e+001 1.574511e+001 3.993157e+000 6.805747e-002 2.108878e-001 4.096217e-001 5.724388e-001 9.290090e-001 1.032457e+000 2.326222e+000 1.910660e+000 6.658986e-001 2.782457e+000 9.430719e-001 1.034653e+000 5.629078e-002 1.442299e-002 3.598347e-002 5.972419e-002 8.758887e-002 1.534306e-001 1.824558e-001 3.170928e-001 2.551894e-001 1.115751e-001 2.513356e-001 1.544994e-001 1.932699e-001 9.324309e-003
<GCONST> 6.847289e+001
<MIXTURE> 4 2.605237e-001
<MEAN> 39
 -7.790544e+000 -9.684671e+000 4.740567e-001 -1.413454e+001 -1.918554e+001 -1.755620e+001 -1.416634e+001 2.177352e-001 9.793350e+000 -6.947265e+000 -1.092546e+000 -1.585647e-001 7.243266e+001 2.645719e-001 -2.828715e-001 -7.026345e-001 -8.745899e-001 -2.701040e-001 -9.773885e-002 8.588971e-001 1.368256e+000 1.638170e+000 6.321441e-001 -3.155313e-001 -7.372614e-001 2.064656e-001 -3.936899e-002 4.718577e-002 -9.990411e-003 2.297457e-002 9.140567e-002 2.249950e-001 1.394188e-001 1.028236e-001 3.545619e-003 -7.725047e-002 -1.180646e-001 -8.741132e-002 -1.924906e-002
<VARIANCE> 39
 5.853678e+000 8.171367e+000 2.436990e+001 2.890357e+001 7.614623e+000 1.658776e+001 3.189719e+001 2.264787e+001 4.512369e+001 4.572038e+001 1.563177e+001 2.657212e+001 5.500808e+000 8.807702e-002 5.222001e-001 4.069730e-001 6.068376e-001 8.609309e-001 1.157715e+000 1.837421e+000 1.696613e+000 2.014227e+000 1.492405e+000 1.246389e+000 1.733942e+000 3.518477e-002 1.497066e-002 4.828567e-002 6.686597e-002 1.213324e-001 8.910306e-002 1.762360e-001 2.305160e-001 2.165416e-001 2.224184e-001 2.000078e-001 2.313348e-001 3.145582e-001 6.332032e-003
<GCONST> 7.407657e+001
<STATE> 16
<NUMMIXES> 4
<MIXTURE> 1 2.882285e-001
<MEAN> 39
 -8.068501e+000 -1.112263e+001 -2.825087e+000 -1.798254e+001 -2.013746e+001 -1.204609e+001 -6.759337e+000 1.038337e+001 1.983474e+001 -4.144348e+000 -6.807962e+000 -5.327238e+000 7.299812e+001 -3.919969e-001 -2.338392e-001 -1.938481e-001 -2.084583e-001 8.146622e-001 8.213171e-001 5.613753e-001 -3.532853e-001 -5.177997e-001 -7.253952e-001 -4.892685e-001 -4.200467e-002 -2.847801e-001 -1.804571e-001 -6.536825e-002 1.450118e-001 2.160748e-001 3.189383e-001 1.590274e-001 1.877066e-003 -3.164757e-001 -5.926757e-001 -3.451814e-001 2.057682e-001 2.484756e-001 -1.131171e-001
<VARIANCE> 39
 2.540898e+000 1.398669e+001 1.299106e+001 1.430371e+001 2.146311e+001 3.269899e+001 4.189669e+001 3.405370e+001 4.405042e+001 3.157323e+001 1.605124e+001 2.216069e+001 3.352693e+000 1.264680e-001 3.677732e-001 4.356668e-001 8.115570e-001 1.289351e+000 1.135881e+000 8.606106e-001 9.482456e-001 3.090003e+000 1.605786e+000 1.957968e+000 1.460209e+000 8.259764e-002 2.064412e-002 4.653280e-002 5.412418e-002 1.240721e-001 1.998730e-001 2.012448e-001 2.418685e-001 2.359418e-001 3.269456e-001 1.519109e-001 2.389117e-001 2.402546e-001 1.008697e-002
<GCONST> 7.635523e+001
<MIXTURE> 2 1.051483e-001
<MEAN> 39
 -1.088190e+001 -1.426953e+001 -9.551356e+000 -2.295842e+001 -4.234221e+000 -1.593724e+001 8.749165e-001 3.060520e+000 5.661398e+000 -1.096401e+001 -1.015357e+001 5.447058e+000 7.461585e+001 -2.714751e-001 -5.330435e-002 -1.928458e-001 2.239865e-001 2.554286e-001 6.139297e-001 -6.409997e-001 -4.749222e-001 -2.197514e-001 -6.472561e-001 4.276032e-002 -7.243539e-002 -2.817509e-001 -2.275035e-002 8.229837e-002 1.915913e-001 1.553193e-001 -2.779907e-001 3.842292e-002 -1.759204e-001 1.722244e-002 1.937419e-001 2.228120e-002 4.029738e-002 -2.400313e-001 -1.166592e-001
<VARIANCE> 39
 1.546766e+000 7.691845e+000 5.186677e+000 1.047089e+001 3.830285e+001 1.821589e+001 1.889016e+001 8.456001e+000 5.064068e+000 6.631266e+001 3.089409e+001 2.086252e+001 2.990295e+000 7.699820e-002 5.039237e-001 6.937922e-001 9.082266e-001 3.080180e+000 1.392061e+000 1.242926e+000 1.031353e+000 1.534651e+000 1.535621e+000 1.015491e+000 1.930617e+000 3.214014e-001 1.498472e-002 6.790344e-002 6.586432e-002 7.277106e-002 2.300485e-001 3.426894e-001 1.873006e-001 2.104523e-001 1.345665e-001 2.939945e-001 1.604593e-001 1.357794e-001 1.150252e-002
<GCONST> 7.201192e+001
<MIXTURE> 3 2.693567e-001
<MEAN> 39
 -9.061383e+000 -6.973221e+000 1.385223e+000 -1.615468e+001 -1.896948e+001 -9.245713e+000 -1.405776e+001 -7.087193e-001 4.726900e+000 -8.121099e+000 -3.968632e+000 -4.863883e+000 7.056747e+001 -3.305276e-001 -3.529893e-001 -1.981212e-001 -7.804501e-003 3.866471e-001 4.961989e-001 1.894241e-001 1.226416e-001 3.789120e-001 -7.467020e-001 -9.078993e-001 -3.673178e-001 -2.109012e-001 -9.633773e-002 -9.304351e-002 1.026713e-002 1.397634e-001 1.145116e-001 2.942375e-002 -5.278916e-002 -1.280067e-001 -1.299192e-001 -1.797311e-001 2.344537e-002 1.045534e-001 -6.299876e-002
<VARIANCE> 39
 1.692805e+000 8.000134e+000 6.554793e+000 8.749115e+000 3.298603e+001 1.413035e+001 1.995579e+001 2.572391e+001 3.762055e+001 2.784343e+001 3.558691e+001 2.499177e+001 1.779887e+000 9.095997e-002 2.313790e-001 3.392105e-001 5.898226e-001 4.438866e-001 8.476847e-001 1.080490e+000 1.555475e+000 1.252565e+000 1.404883e+000 9.084467e-001 7.928789e-001 4.344060e-002 8.208531e-003 3.394984e-002 6.844689e-002 6.957208e-002 8.548364e-002 1.300314e-001 1.505525e-001 1.605051e-001 2.094922e-001 1.739024e-001 1.565935e-001 1.364273e-001 3.901512e-003
<GCONST> 6.175152e+001
<MIXTURE> 4 3.372666e-001
<MEAN> 39
 -1.125531e+001 -1.256850e+001 -5.276308e+000 -2.040232e+001 -1.503830e+001 -4.391314e+000 -1.465863e+000 7.664398e+000 6.735596e+000 -1.979591e+001 -1.102922e+001 -3.040916e+000 7.058531e+001 -5.761775e-001 -2.763559e-001 2.452752e-001 7.220724e-001 7.877995e-001 2.963011e-001 -4.887531e-001 -9.446917e-001 -6.420398e-001 -7.026751e-001 -3.938613e-001 -2.183472e-001 -3.513478e-001 -4.025328e-002 8.261117e-003 1.105424e-001 1.228275e-001 -1.762045e-002 -1.936335e-001 -2.879491e-001 -1.530478e-001 9.668696e-002 3.004666e-001 2.962263e-001 4.503896e-002 -2.689984e-002
<VARIANCE> 39
 7.892158e+000 5.753417e+000 1.030758e+001 2.018146e+001 1.562596e+001 3.930276e+001 2.780691e+001 3.985046e+001 3.007579e+001 3.444417e+001 2.023800e+001 1.720588e+001 3.340640e+000 7.788195e-002 1.416557e-001 3.148379e-001 7.640688e-001 6.683620e-001 1.407444e+000 1.244036e+000 1.346505e+000 1.476614e+000 2.048746e+000 1.128823e+000 9.814839e-001 4.287323e-002 1.641531e-002 2.840267e-002 5.320390e-002 1.586053e-001 1.396636e-001 2.276471e-001 2.343641e-001 2.603625e-001 3.313406e-001 2.664768e-001 1.849569e-001 1.606502e-001 6.519465e-003
<GCONST> 7.117915e+001
<STATE> 17
<NUMMIXES> 4
<MIXTURE> 1 1.790010e-001
<MEAN> 39
 -1.081850e+001 -1.031811e+001 -1.769019e+000 -1.643154e+001 -1.715758e+001 -7.398129e+000 -7.738524e+000 6.252705e+000 1.287149e+001 -7.515654e+000 -4.693576e+000 -3.026664e+000 6.982774e+001 -1.232294e+000 -7.150889e-001 4.027619e-001 9.987720e-001 2.149680e+000 1.906567e+000 5.575713e-001 -9.971231e-001 -1.661377e+000 -1.343065e+000 2.218151e-001 2.227569e-001 -8.225823e-001 -1.725291e-001 -2.580976e-001 -6.617203e-002 2.049234e-001 3.842117e-001 2.268173e-001 5.208044e-002 3.895308e-002 -1.667516e-001 -3.065826e-001 -2.066057e-001 -7.775307e-002 -5.987261e-002
<VARIANCE> 39
 5.426408e+000 1.609888e+001 1.313469e+001 1.990125e+001 3.174787e+001 2.344621e+001 4.856730e+001 3.168040e+001 3.444305e+001 2.824768e+001 1.655509e+001 1.881382e+001 3.635813e+000 1.695006e-001 4.156027e-001 4.797148e-001 8.815970e-001 2.736583e+000 1.377238e+000 3.118298e+000 2.691470e+000 1.639797e+000 9.191123e-001 8.474302e-001 7.865856e-001 5.994214e-002 3.568990e-002 5.409484e-002 6.772169e-002 1.299306e-001 2.464943e-001 1.662231e-001 1.812001e-001 2.138908e-001 2.880231e-001 1.630298e-001 1.085692e-001 1.423068e-001 1.021003e-002
<GCONST> 7.746645e+001
<MIXTURE> 2 3.470215e-001
<MEAN> 39
 -1.492866e+001 -1.405673e+001 -2.360749e+000 -1.426822e+001 -1.043941e+001 -4.803340e+000 -9.041986e+000 -1.947504e+000 1.835896e+000 -1.906254e+001 -9.815170e+000 -5.633287e+000 6.798380e+001 -7.811648e-001 -5.890421e-001 5.754340e-002 6.260389e-001 8.705750e-001 8.983693e-001 -1.783573e-001 -2.359507e-001 -5.995535e-001 -1.896970e-001 2.804084e-001 -1.531339e-001 -5.277382e-001 4.726781e-002 -4.365392e-002 -1.168993e-001 -2.170227e-001 -1.121078e-001 1.584331e-001 4.029960e-001 4.675261e-001 3.825530e-001 3.140814e-001 2.264219e-001 1.558432e-001 3.935322e-002
<VARIANCE> 39
 3.926564e+000 7.381828e+000 6.455109e+000 1.180819e+001 1.195988e+001 1.579809e+001 2.655176e+001 2.121634e+001 3.435432e+001 2.815691e+001 1.461420e+001 2.022485e+001 4.078193e+000 1.986722e-001 3.140350e-001 5.291741e-001 8.174420e-001 1.005630e+000 1.062861e+000 1.554283e+000 2.275267e+000 1.999705e+000 2.079750e+000 1.415757e+000 1.675531e+000 7.337730e-002 2.668948e-002 3.136755e-002 6.746117e-002 1.412559e-001 1.625286e-001 1.842825e-001 1.961545e-001 2.547189e-001 3.324998e-001 3.039547e-001 2.191453e-001 2.598364e-001 7.012370e-003
<GCONST> 7.395501e+001
<MIXTURE> 3 3.199179e-001
<MEAN> 39
 -1.652149e+001 -1.655928e+001 -2.447528e+000 -1.433008e+001 -7.560819e+000 3.257785e-002 -4.251091e+000 3.276966e+000 7.718671e+000 -1.590989e+001 -4.703716e+000 -3.129595e+000 6.720748e+001 -5.454174e-001 -5.092766e-001 -2.193896e-001 -1.521896e-001 1.936215e-001 3.299243e-001 1.003543e-001 -1.317558e-001 2.226648e-002 2.723807e-001 5.314679e-001 3.774839e-001 -3.087856e-001 9.145139e-002 9.234143e-002 6.776877e-002 -1.214374e-002 -1.499985e-001 -1.464567e-001 -1.265999e-001 -1.334963e-001 -1.180199e-001 -4.519789e-002 -1.586850e-001 -2.881978e-002 5.986306e-002
<VARIANCE> 39
 4.925317e+000 4.382587e+000 5.433115e+000 1.092971e+001 9.317786e+000 1.517871e+001 1.464178e+001 2.247645e+001 2.125195e+001 2.765555e+001 1.719420e+001 2.459649e+001 7.580265e+000 1.346831e-001 3.118142e-001 4.908077e-001 7.919047e-001 9.730074e-001 1.068819e+000 1.626175e+000 1.575491e+000 1.572102e+000 1.097705e+000 1.268134e+000 1.547128e+000 5.425385e-002 2.068950e-002 3.936358e-002 5.821025e-002 9.508717e-002 1.476974e-001 1.505565e-001 2.172564e-001 3.014335e-001 1.851770e-001 1.568895e-001 1.822877e-001 3.146110e-001 6.768787e-003
<GCONST> 6.896645e+001
<MIXTURE> 4 1.540596e-001
<MEAN> 39
 -1.414179e+001 -1.231698e+001 8.475168e-001 -1.068648e+001 -7.381680e+000 1.755151e+000 -5.347780e+000 5.265141e+000 1.172532e+001 -1.022678e+001 -4.478748e+000 -2.606256e+000 6.727303e+001 -1.160401e+000 -1.208487e+000 -3.557103e-001 3.110419e-004 1.361532e+000 1.592277e+000 1.090899e+000 -4.250225e-001 -7.552234e-001 -1.155565e+000 -2.623440e-001 -1.934081e-002 -6.747947e-001 8.604737e-002 1.281291e-002 -2.208297e-001 -3.306299e-001 -5.852542e-001 -5.298381e-001 -2.849950e-001 -4.719824e-002 1.737826e-001 3.043273e-001 1.375000e-001 1.988076e-002 7.477997e-002
<VARIANCE> 39
 3.063003e+000 8.306353e+000 8.092393e+000 1.306892e+001 2.242593e+001 3.256226e+001 2.231019e+001 2.508001e+001 1.464791e+001 1.874293e+001 1.719430e+001 1.388352e+001 5.667467e+000 1.443045e-001 2.646816e-001 4.815674e-001 9.170194e-001 2.162681e+000 1.989490e+000 1.425073e+000 1.761830e+000 1.104673e+000 1.090910e+000 7.022662e-001 8.248662e-001 4.607690e-002 2.155441e-002 4.291820e-002 5.221976e-002 1.047528e-001 1.916621e-001 2.271161e-001 2.078834e-001 1.342914e-001 1.488228e-001 1.383605e-001 1.573888e-001 2.023117e-001 7.256955e-003
<GCONST> 6.901836e+001
<TRANSP> 18
 0.000000e+000 1.000000e+000 0.000000e+000 0.000000e+000 0.000000e+000 0.000000e+000 0.000000e+000 0.000000e+000 0.000000e+000 0.000000e+000 0.000000e+000 0.000000e+000 0.000000e+000 0.000000e+000 0.000000e+000 0.000000e+000 0.000000e+000 0.000000e+000
 0.000000e+000 8.739280e-001 1.260721e-001 0.000000e+000 0.000000e+000 0.000000e+000 0.000000e+000 0.000000e+000 0.000000e+000 0.000000e+000 0.000000e+000 0.000000e+000 0.000000e+000 0.000000e+000 0.000000e+000 0.000000e+000 0.000000e+000 0.000000e+000
 0.000000e+000 0.000000e+000 8.684674e-001 1.315326e-001 0.000000e+000 0.000000e+000 0.000000e+000 0.000000e+000 0.000000e+000 0.000000e+000 0.000000e+000 0.000000e+000 0.000000e+000 0.000000e+000 0.000000e+000 0.000000e+000 0.000000e+000 0.000000e+000
 0.000000e+000 0.000000e+000 0.000000e+000 8.555875e-001 1.444125e-001 0.000000e+000 0.000000e+000 0.000000e+000 0.000000e+000 0.000000e+000 0.000000e+000 0.000000e+000 0.000000e+000 0.000000e+000 0.000000e+000 0.000000e+000 0.000000e+000 0.000000e+000
 0.000000e+000 0.000000e+000 0.000000e+000 0.000000e+000 9.018560e-001 9.814402e-002 0.000000e+000 0.000000e+000 0.000000e+000 0.000000e+000 0.000000e+000 0.000000e+000 0.000000e+000 0.000000e+000 0.000000e+000 0.000000e+000 0.000000e+000 0.000000e+000
 0.000000e+000 0.000000e+000 0.000000e+000 0.000000e+000 0.000000e+000 8.085800e-001 1.914200e-001 0.000000e+000 0.000000e+000 0.000000e+000 0.000000e+000 0.000000e+000 0.000000e+000 0.000000e+000 0.000000e+000 0.000000e+000 0.000000e+000 0.000000e+000
 0.000000e+000 0.000000e+000 0.000000e+000 0.000000e+000 0.000000e+000 0.000000e+000 8.902218e-001 1.097782e-001 0.000000e+000 0.000000e+000 0.000000e+000 0.000000e+000 0.000000e+000 0.000000e+000 0.000000e+000 0.000000e+000 0.000000e+000 0.000000e+000
 0.000000e+000 0.000000e+000 0.000000e+000 0.000000e+000 0.000000e+000 0.000000e+000 0.000000e+000 8.338180e-001 1.661821e-001 0.000000e+000 0.000000e+000 0.000000e+000 0.000000e+000 0.000000e+000 0.000000e+000 0.000000e+000 0.000000e+000 0.000000e+000
 0.000000e+000 0.000000e+000 0.000000e+000 0.000000e+000 0.000000e+000 0.000000e+000 0.000000e+000 0.000000e+000 8.783006e-001 1.216994e-001 0.000000e+000 0.000000e+000 0.000000e+000 0.000000e+000 0.000000e+000 0.000000e+000 0.000000e+000 0.000000e+000
 0.000000e+000 0.000000e+000 0.000000e+000 0.000000e+000 0.000000e+000 0.000000e+000 0.000000e+000 0.000000e+000 0.000000e+000 8.568534e-001 1.431467e-001 0.000000e+000 0.000000e+000 0.000000e+000 0.000000e+000 0.000000e+000 0.000000e+000 0.000000e+000
 0.000000e+000 0.000000e+000 0.000000e+000 0.000000e+000 0.000000e+000 0.000000e+000 0.000000e+000 0.000000e+000 0.000000e+000 0.000000e+000 8.731845e-001 1.268155e-001 0.000000e+000 0.000000e+000 0.000000e+000 0.000000e+000 0.000000e+000 0.000000e+000
 0.000000e+000 0.000000e+000 0.000000e+000 0.000000e+000 0.000000e+000 0.000000e+000 0.000000e+000 0.000000e+000 0.000000e+000 0.000000e+000 0.000000e+000 8.628190e-001 1.371811e-001 0.000000e+000 0.000000e+000 0.000000e+000 0.000000e+000 0.000000e+000
 0.000000e+000 0.000000e+000 0.000000e+000 0.000000e+000 0.000000e+000 0.000000e+000 0.000000e+000 0.000000e+000 0.000000e+000 0.000000e+000 0.000000e+000 0.000000e+000 8.825153e-001 1.174847e-001 0.000000e+000 0.000000e+000 0.000000e+000 0.000000e+000
 0.000000e+000 0.000000e+000 0.000000e+000 0.000000e+000 0.000000e+000 0.000000e+000 0.000000e+000 0.000000e+000 0.000000e+000 0.000000e+000 0.000000e+000 0.000000e+000 0.000000e+000 8.622479e-001 1.377520e-001 0.000000e+000 0.000000e+000 0.000000e+000
 0.000000e+000 0.000000e+000 0.000000e+000 0.000000e+000 0.000000e+000 0.000000e+000 0.000000e+000 0.000000e+000 0.000000e+000 0.000000e+000 0.000000e+000 0.000000e+000 0.000000e+000 0.000000e+000 8.872333e-001 1.127667e-001 0.000000e+000 0.000000e+000
 0.000000e+000 0.000000e+000 0.000000e+000 0.000000e+000 0.000000e+000 0.000000e+000 0.000000e+000 0.000000e+000 0.000000e+000 0.000000e+000 0.000000e+000 0.000000e+000 0.000000e+000 0.000000e+000 0.000000e+000 8.555621e-001 1.444379e-001 0.000000e+000
 0.000000e+000 0.000000e+000 0.000000e+000 0.000000e+000 0.000000e+000 0.000000e+000 0.000000e+000 0.000000e+000 0.000000e+000 0.000000e+000 0.000000e+000 0.000000e+000 0.000000e+000 0.000000e+000 0.000000e+000 0.000000e+000 8.632048e-001 1.367951e-001
 0.000000e+000 0.000000e+000 0.000000e+000 0.000000e+000 0.000000e+000 0.000000e+000 0.000000e+000 0.000000e+000 0.000000e+000 0.000000e+000 0.000000e+000 0.000000e+000 0.000000e+000 0.000000e+000 0.000000e+000 0.000000e+000 0.000000e+000 0.000000e+000
<ENDHMM>
