~o
<STREAMINFO> 1 39
<VECSIZE> 39<NULLD><MFCC_D_A_0><DIAGC>
~h "changge_arm_l"
<BEGINHMM>
<NUMSTATES> 15
<STATE> 2
<NUMMIXES> 4
<MIXTURE> 1 1.146598e-001
<MEAN> 39
 -7.836888e+000 -1.361646e+001 -1.226486e+001 -2.239430e+001 -1.251126e+001 4.278190e+000 -1.813034e+000 4.427389e+000 9.030075e+000 -7.986407e+000 -3.090535e+000 -9.108047e+000 7.705126e+001 1.593175e+000 -9.411798e-002 -1.313365e+000 -1.745823e+000 -1.039026e-001 1.093772e+000 1.304551e+000 5.524117e-001 1.196645e+000 1.260312e+000 9.765614e-001 -4.787199e-001 1.027422e+000 -4.017204e-001 -2.408557e-001 3.057116e-002 1.992987e-001 7.008719e-002 -1.185143e-001 -1.900192e-001 -3.507366e-001 -2.433880e-001 -1.000058e-001 1.355838e-001 6.670541e-001 -2.039514e-001
<VARIANCE> 39
 3.812857e+000 7.700310e+000 1.168805e+001 2.098692e+001 1.305624e+001 4.029148e+001 2.805552e+001 1.946929e+001 1.121611e+001 3.831160e+001 2.459864e+001 2.681867e+001 3.569450e+000 6.342459e-001 3.853903e-001 4.282740e-001 9.246256e-001 1.070850e+000 1.509018e+000 1.693803e+000 1.108243e+000 1.645199e+000 1.193248e+000 1.522876e+000 1.681544e+000 2.105518e-001 6.577553e-002 6.967498e-002 1.533892e-001 2.503607e-001 1.396361e-001 2.819066e-001 2.484835e-001 1.640669e-001 1.627729e-001 3.131979e-001 3.651462e-001 2.046462e-001 4.001448e-002
<GCONST> 8.191780e+001
<MIXTURE> 2 4.084258e-001
<MEAN> 39
 -1.534301e+001 -1.518155e+001 -8.820107e+000 -1.659828e+001 -1.257286e+001 -2.318518e-001 -5.015454e+000 2.283480e+000 4.794783e+000 -1.098946e+001 -6.563266e+000 -2.862728e+000 7.463750e+001 5.622228e-001 8.319278e-002 -2.377554e-001 -2.235356e-001 1.045058e-001 -1.203372e-001 -1.666150e-001 -3.649110e-001 3.928601e-002 -1.777534e-001 -2.743125e-001 -2.666460e-001 3.741398e-001 1.525490e-001 6.052727e-002 -1.699327e-002 -3.113563e-002 -1.228268e-002 5.227340e-002 -4.512115e-002 -1.169192e-001 -1.746041e-002 -1.546505e-001 -1.050460e-001 -1.696495e-001 8.343522e-002
<VARIANCE> 39
 5.514077e+000 4.078703e+000 8.225325e+000 1.181643e+001 1.241276e+001 1.876357e+001 2.412334e+001 1.256834e+001 2.045277e+001 2.099661e+001 2.974408e+001 2.191666e+001 4.700315e+000 5.381519e-001 4.667537e-001 6.679794e-001 8.823038e-001 9.602939e-001 1.340731e+000 1.752263e+000 1.599499e+000 1.889474e+000 2.708587e+000 2.102957e+000 1.773724e+000 1.272145e-001 4.955740e-002 5.827626e-002 1.095066e-001 1.471848e-001 1.607089e-001 2.356216e-001 2.496031e-001 2.452752e-001 4.289636e-001 3.163110e-001 3.395850e-001 2.744969e-001 1.896412e-002
<GCONST> 8.050483e+001
<MIXTURE> 3 1.895543e-001
<MEAN> 39
 -1.125864e+001 -1.511465e+001 -9.260923e+000 -1.694210e+001 -9.986563e+000 -4.726982e+000 -1.103543e+001 -3.814825e+000 1.874280e+000 -1.791853e+001 -7.195243e+000 -3.059473e+000 7.635599e+001 1.072931e+000 3.932482e-002 -6.759554e-001 -4.742401e-001 8.422188e-002 1.407936e-001 -4.256730e-001 -7.311615e-002 1.190790e-001 -3.521099e-002 1.148231e-001 -4.278565e-001 5.439723e-001 -8.396327e-002 -1.691717e-001 -2.484652e-001 -7.716627e-002 2.141169e-001 5.231380e-001 4.388795e-001 2.659617e-001 2.634226e-001 5.344054e-001 1.664174e-001 -1.600263e-002 1.111448e-002
<VARIANCE> 39
 3.321035e+000 4.575923e+000 1.128454e+001 1.227556e+001 1.358346e+001 3.075353e+001 1.888203e+001 2.767738e+001 2.424863e+001 3.044995e+001 2.759008e+001 2.164815e+001 3.727708e+000 2.099691e-001 4.789214e-001 6.483823e-001 8.169321e-001 1.400061e+000 1.477468e+000 1.918767e+000 2.878367e+000 1.174219e+000 2.154461e+000 8.709791e-001 1.740415e+000 6.840865e-002 3.010315e-002 4.269053e-002 1.031919e-001 1.102716e-001 2.322516e-001 1.456169e-001 1.994422e-001 3.929079e-001 2.587734e-001 4.338803e-001 1.601783e-001 2.648359e-001 2.437553e-002
<GCONST> 7.797371e+001
<MIXTURE> 4 2.873599e-001
<MEAN> 39
 -2.381052e+001 -1.040730e+001 -1.169105e+001 -1.119123e+001 -1.035696e+001 -4.364351e+000 -2.963380e+000 1.805237e+000 2.685285e+000 -3.410357e+000 -4.832730e+000 1.959988e+000 7.416569e+001 4.299856e-001 -3.095768e-001 -5.318896e-002 7.094771e-002 9.646522e-002 -6.264030e-001 -5.875525e-001 -5.146410e-001 -1.924783e-001 -3.513259e-001 -6.195813e-001 -6.136227e-001 3.188295e-001 3.034166e-001 -1.686494e-001 8.966810e-002 -1.005531e-001 7.871941e-002 -2.038656e-002 -3.157170e-001 -2.116382e-001 -2.434980e-002 -3.079548e-001 1.963255e-003 -2.135718e-001 -4.582868e-002
<VARIANCE> 39
 1.087597e+001 2.622462e+001 1.741607e+001 1.237772e+001 2.735629e+001 3.610221e+001 4.661162e+001 2.160692e+001 1.631316e+001 3.633627e+001 3.688683e+001 3.715920e+001 3.409378e+000 1.214605e+000 2.393178e+000 1.015690e+000 1.115644e+000 1.235919e+000 1.786951e+000 2.395846e+000 2.346466e+000 2.574884e+000 3.470062e+000 1.717273e+000 1.246149e+000 3.314818e-001 1.630063e-001 4.453577e-001 2.112057e-001 2.384984e-001 2.003728e-001 3.823602e-001 2.864653e-001 4.729806e-001 3.974518e-001 4.053779e-001 3.856284e-001 2.068846e-001 6.404498e-002
<GCONST> 9.962468e+001
<STATE> 3
<NUMMIXES> 4
<MIXTURE> 1 2.781031e-001
<MEAN> 39
 -6.705463e+000 -1.401069e+001 -1.359204e+001 -2.513208e+001 -1.232780e+001 5.901426e+000 3.305579e-001 3.912999e+000 9.856576e+000 -8.156180e+000 -8.624903e-001 -5.640173e+000 7.779689e+001 1.756887e-001 -3.133354e-002 -1.826189e-002 -7.924510e-002 -2.621580e-002 4.942037e-002 -1.939505e-002 -3.083009e-001 -1.081308e-001 -1.200122e-002 2.786343e-001 6.194149e-001 8.932181e-002 -3.134917e-001 5.144110e-002 3.776487e-001 4.449463e-001 -7.479522e-002 -2.914484e-001 -3.762073e-001 -1.471330e-001 -3.141241e-001 -2.134219e-001 -1.903389e-001 -1.878088e-002 -2.153981e-001
<VARIANCE> 39
 2.301582e+000 4.425252e+000 3.391395e+000 1.528171e+001 8.849729e+000 4.597781e+001 2.928613e+001 2.523906e+001 2.109804e+001 3.483235e+001 2.435050e+001 3.505029e+001 3.088767e+000 1.578741e-001 2.608524e-001 4.986925e-001 7.187409e-001 6.535087e-001 9.287637e-001 1.100157e+000 1.462282e+000 1.483929e+000 6.784207e-001 1.093028e+000 1.276323e+000 6.311176e-002 3.507001e-002 3.636795e-002 7.379947e-002 9.409282e-002 1.450459e-001 2.974618e-001 2.361165e-001 2.460229e-001 2.665738e-001 2.477753e-001 2.412091e-001 2.050760e-001 2.036607e-002
<GCONST> 7.113311e+001
<MIXTURE> 2 1.842590e-001
<MEAN> 39
 -1.400211e+001 -1.475615e+001 -1.113838e+001 -1.220580e+001 -4.027317e+000 -1.759250e+000 -8.530743e+000 -2.508391e-001 9.065144e+000 -3.747511e+000 -9.692453e+000 -8.383830e+000 7.631542e+001 1.698192e+000 -3.774314e-001 -1.093307e+000 -5.319952e-001 5.396963e-001 4.039780e-001 -6.374677e-001 -5.963599e-001 1.328887e+000 5.897829e-001 -3.077339e-001 -1.569963e+000 8.584119e-001 -2.812997e-002 -8.848726e-002 -2.449863e-001 -2.260761e-001 -1.696494e-001 6.671211e-002 1.824670e-001 -4.690219e-002 9.581096e-002 1.777157e-001 2.893149e-002 1.559228e-001 9.899441e-002
<VARIANCE> 39
 2.722442e+001 9.766065e+000 1.728875e+001 2.092057e+001 2.855992e+001 1.216678e+001 2.825079e+001 3.502230e+001 2.703572e+001 2.940210e+001 2.815543e+001 2.294036e+001 6.268930e+000 7.725613e-001 5.680204e-001 9.729831e-001 1.502155e+000 1.993497e+000 1.735609e+000 1.304787e+000 3.065674e+000 2.583014e+000 3.104733e+000 1.809023e+000 9.584970e-001 4.725942e-001 1.788393e-001 1.372623e-001 1.728300e-001 1.330225e-001 1.449413e-001 1.444580e-001 2.054986e-001 3.985098e-001 4.269254e-001 4.207307e-001 2.986033e-001 1.817494e-001 4.856747e-002
<GCONST> 9.344569e+001
<MIXTURE> 3 2.860162e-001
<MEAN> 39
 -1.353079e+001 -1.424527e+001 -1.251319e+001 -1.098782e+001 -8.472478e+000 -9.668594e+000 -1.774066e+001 -9.573153e+000 -3.450089e+000 -1.560043e+001 -1.103157e+001 -3.524754e+000 7.577647e+001 1.113539e+000 -1.201688e-001 -5.081434e-001 6.916181e-002 8.754658e-001 3.640658e-001 -1.608384e+000 -8.225658e-001 -4.716082e-002 -3.934622e-001 -9.426399e-001 -5.322404e-001 3.649336e-001 -1.566260e-001 -2.650468e-002 -4.485518e-002 -1.187674e-001 1.283898e-001 2.960478e-001 4.641497e-001 5.766764e-001 4.520839e-001 5.235904e-001 2.102627e-001 1.826127e-001 -4.285073e-002
<VARIANCE> 39
 1.323374e+001 4.661438e+000 2.081726e+001 9.327448e+000 1.819610e+001 1.809205e+001 4.032785e+001 2.909263e+001 1.779951e+001 2.905210e+001 2.457008e+001 1.940586e+001 2.221927e+000 7.583457e-001 4.208281e-001 9.267757e-001 8.278294e-001 7.574189e-001 1.362113e+000 2.501748e+000 3.069617e+000 3.352503e+000 3.043312e+000 1.104615e+000 8.332813e-001 9.904781e-002 6.998660e-002 7.454979e-002 2.236043e-001 1.972906e-001 1.858626e-001 2.270974e-001 3.670523e-001 4.704693e-001 6.198255e-001 4.893138e-001 2.299416e-001 1.027863e-001 1.664268e-002
<GCONST> 8.540422e+001
<MIXTURE> 4 2.516218e-001
<MEAN> 39
 -9.121437e+000 -1.694708e+001 -1.260785e+001 -1.885835e+001 -6.213155e+000 3.810913e-001 -6.058330e+000 -2.583933e+000 7.555653e-001 -1.816605e+001 -8.761178e+000 -3.414840e+000 7.765550e+001 -1.036389e-001 -6.907620e-002 -2.376168e-001 -2.204361e-001 1.943484e-001 5.190669e-001 4.643745e-001 -5.857401e-002 4.191053e-002 5.101205e-001 -1.496324e-001 -6.517098e-001 -1.276599e-001 -7.957213e-002 8.397083e-002 1.820046e-001 5.127686e-002 -2.595450e-001 -2.264850e-001 -5.816906e-002 1.540471e-001 2.004696e-001 1.502199e-001 4.334192e-002 5.751336e-002 -5.368745e-002
<VARIANCE> 39
 9.300613e-001 2.987053e+000 3.713692e+000 4.932570e+000 1.383526e+001 5.143776e+001 3.482491e+001 2.188390e+001 3.128401e+001 2.598578e+001 1.543917e+001 8.929740e+000 1.348624e+000 1.306344e-001 2.687935e-001 3.720559e-001 6.104991e-001 1.600101e+000 1.522242e+000 9.673184e-001 1.151492e+000 3.556213e+000 2.674319e+000 1.338624e+000 8.036075e-001 2.204759e-002 1.747898e-002 3.869993e-002 6.625600e-002 8.065153e-002 1.955547e-001 1.789797e-001 1.777080e-001 2.837881e-001 8.191738e-001 5.105865e-001 3.116241e-001 2.560737e-001 5.558691e-003
<GCONST> 6.795184e+001
<STATE> 4
<NUMMIXES> 4
<MIXTURE> 1 1.467005e-001
<MEAN> 39
 -7.070011e+000 -1.563855e+001 -1.591073e+001 -1.794441e+001 -9.354103e+000 2.571020e-001 -6.314405e+000 -2.899349e+000 1.565340e+001 3.270128e+000 -1.059779e+001 -1.370429e+001 8.191753e+001 3.522498e-001 -1.995484e-001 -5.415231e-001 -5.365159e-001 2.378703e-001 7.834301e-001 -1.422767e-001 -8.636424e-001 9.965037e-001 9.780301e-001 2.368683e-001 -1.532863e-001 5.103722e-001 -3.731549e-001 1.390296e-001 5.708181e-001 2.086646e-001 1.819362e-002 2.727769e-002 7.343418e-003 2.652698e-001 -6.097890e-001 -7.048621e-001 2.277870e-001 5.211962e-001 -4.499064e-001
<VARIANCE> 39
 1.147310e+001 5.724164e+000 1.150195e+001 1.176723e+001 1.550484e+001 1.629024e+001 3.961343e+001 7.044881e+001 2.344071e+001 4.594114e+001 4.024247e+001 3.423913e+001 6.835647e+000 5.846325e-001 3.919358e-001 1.735332e+000 1.067003e+000 8.648657e-001 5.946491e-001 1.705954e+000 2.457295e+000 3.592935e+000 3.565759e+000 1.364904e+000 1.445682e+000 8.336535e-001 1.345112e-001 4.695138e-002 1.638583e-001 1.783746e-001 2.490627e-001 2.769747e-001 4.270552e-001 5.980776e-001 4.210226e-001 3.849013e-001 1.846451e-001 1.623401e-001 3.792020e-002
<GCONST> 9.209110e+001
<MIXTURE> 2 3.116951e-001
<MEAN> 39
 -1.005255e+001 -1.491109e+001 -1.220813e+001 -1.494174e+001 -6.433419e+000 -2.817730e+000 -1.580975e+001 -7.131243e+000 -1.234853e-001 -1.562894e+001 -1.322112e+001 -7.195600e+000 7.562215e+001 -1.125175e-001 5.313532e-001 8.902431e-001 -4.104590e-001 -1.151389e+000 -2.797281e-001 4.386484e-001 5.129381e-001 5.341364e-001 2.016914e-001 6.401015e-001 1.196154e-001 -3.722695e-001 -3.854427e-002 9.306393e-002 2.140450e-001 1.137037e-001 -1.211175e-001 -1.132262e-001 1.084362e-001 5.957017e-002 4.316632e-002 2.883288e-002 2.683650e-001 2.815396e-001 -2.693004e-002
<VARIANCE> 39
 2.190844e+000 5.323309e+000 1.622623e+001 1.842906e+001 1.514261e+001 2.010962e+001 7.019964e+001 2.233827e+001 2.176448e+001 2.490060e+001 2.631275e+001 1.835824e+001 3.763762e+000 2.066154e-001 4.008098e-001 6.496750e-001 8.728977e-001 1.670152e+000 1.736075e+000 2.630842e+000 1.184891e+000 1.912032e+000 2.504375e+000 2.475831e+000 1.682179e+000 5.427030e-002 3.538493e-002 6.461998e-002 9.979919e-002 1.618027e-001 2.355275e-001 2.169389e-001 4.670100e-001 2.433549e-001 4.323347e-001 3.933209e-001 2.869307e-001 2.690842e-001 1.152179e-002
<GCONST> 8.178158e+001
<MIXTURE> 3 2.791645e-001
<MEAN> 39
 -8.179461e+000 -1.320167e+001 -1.070414e+001 -2.415370e+001 -1.472765e+001 3.173542e+000 -4.125652e+000 2.750642e+000 7.977215e+000 -9.153877e+000 -1.782933e-001 -4.749754e+000 7.697617e+001 -4.901003e-001 1.672531e-001 8.854637e-001 6.738486e-001 -2.363683e-001 -9.782206e-001 -8.879349e-001 -4.388447e-001 -4.094677e-001 -4.404508e-001 -2.886737e-001 5.440146e-001 -4.221549e-001 -9.005085e-002 -3.134549e-002 7.957859e-002 1.747722e-001 1.042772e-001 -5.859962e-002 -1.011744e-001 -7.592171e-002 -1.054231e-001 -1.166074e-001 -1.341028e-001 -4.200404e-002 -4.716827e-002
<VARIANCE> 39
 2.293760e+000 3.748504e+000 6.255629e+000 7.814925e+000 5.925361e+000 3.821238e+001 2.007361e+001 2.363887e+001 1.658176e+001 1.023890e+001 1.166579e+001 2.104051e+001 2.423262e+000 1.753601e-001 1.663824e-001 3.931264e-001 7.931308e-001 7.326212e-001 9.201638e-001 1.081991e+000 1.004598e+000 9.526191e-001 8.770144e-001 1.107551e+000 1.169102e+000 5.607796e-002 3.087748e-002 2.665889e-002 5.746276e-002 9.241052e-002 1.479323e-001 1.501132e-001 1.755336e-001 1.356416e-001 1.552466e-001 1.923173e-001 2.035697e-001 2.302817e-001 1.611002e-002
<GCONST> 6.242720e+001
<MIXTURE> 4 2.624401e-001
<MEAN> 39
 -9.510435e+000 -1.793153e+001 -1.731193e+001 -1.399090e+001 2.360413e+000 5.105040e-001 -1.769276e+001 -6.727044e+000 4.232786e+000 -6.320989e+000 -4.885572e+000 -5.934914e+000 7.673144e+001 3.677059e-001 -4.282363e-002 -7.055483e-002 9.172131e-003 5.948231e-001 5.063338e-001 -1.875768e-001 -2.589268e-002 1.580363e-002 -1.427083e-001 -4.425026e-001 -4.217132e-001 6.460449e-002 -1.601275e-001 1.735235e-001 2.155336e-001 -9.544548e-002 -4.501163e-001 -2.638289e-001 8.682209e-002 -1.840772e-002 -1.135263e-001 -2.140811e-001 -1.301464e-001 3.242598e-002 -1.216650e-001
<VARIANCE> 39
 4.489164e+000 5.818278e+000 7.872467e+000 2.708711e+001 1.951935e+001 3.647300e+001 1.085907e+001 1.386465e+001 3.692692e+001 1.656908e+001 3.361893e+001 1.770615e+001 2.318943e+000 2.435620e-001 5.780613e-001 7.011979e-001 8.674683e-001 1.708409e+000 1.843963e+000 1.245787e+000 1.548801e+000 1.017006e+000 8.993080e-001 1.381197e+000 9.443718e-001 1.680746e-001 2.774156e-002 8.480942e-002 1.223808e-001 1.288875e-001 1.340222e-001 1.741074e-001 2.813638e-001 2.681014e-001 1.811982e-001 2.120719e-001 2.625768e-001 1.465655e-001 1.090364e-002
<GCONST> 7.569237e+001
<STATE> 5
<NUMMIXES> 4
<MIXTURE> 1 2.962821e-001
<MEAN> 39
 -1.169026e+001 -1.500288e+001 -9.554955e+000 -1.924135e+001 -1.127116e+001 3.231104e+000 -3.107332e+000 2.115302e+000 6.274511e+000 -1.096296e+001 -6.484926e+000 -6.027884e+000 7.437333e+001 -5.083703e-001 1.985371e-001 1.080130e+000 6.934721e-001 -8.439299e-002 -8.641056e-002 -2.789249e-001 -2.541354e-002 -5.763960e-001 -6.035656e-001 -9.128046e-002 2.210568e-001 -4.456420e-001 8.845096e-002 4.306150e-003 -5.898471e-002 -7.590238e-002 9.272482e-002 2.264749e-004 -4.013573e-002 -9.503584e-002 -4.031052e-002 4.574808e-002 2.608578e-002 1.754934e-002 3.802750e-002
<VARIANCE> 39
 4.350150e+000 5.743838e+000 1.594511e+001 1.012831e+001 1.305670e+001 2.465188e+001 2.949158e+001 1.083484e+001 1.911022e+001 2.486080e+001 2.257371e+001 9.816281e+000 5.459881e+000 2.804866e-001 3.087631e-001 6.252695e-001 8.950003e-001 8.819078e-001 7.512316e-001 2.336838e+000 1.201104e+000 1.464108e+000 1.044914e+000 1.092102e+000 1.422885e+000 8.326348e-002 4.512572e-002 5.167128e-002 1.060729e-001 1.231327e-001 1.213174e-001 1.356132e-001 3.709907e-001 2.976813e-001 3.059207e-001 1.829647e-001 1.948823e-001 2.394436e-001 1.290997e-002
<GCONST> 7.374914e+001
<MIXTURE> 2 2.678671e-001
<MEAN> 39
 -1.019149e+001 -1.267229e+001 -8.202407e+000 -1.740396e+001 -1.305172e+001 -4.993633e+000 -1.271545e+001 -4.419491e+000 3.846406e+000 -1.162662e+001 -4.722561e+000 -2.646095e+000 7.465073e+001 -2.271011e-001 4.465585e-001 1.204687e+000 4.691393e-001 -8.025752e-001 -9.545456e-001 -9.280758e-002 -1.539361e-001 -6.530049e-001 -5.841126e-001 -1.734411e-001 -9.243371e-002 -3.787204e-001 -3.452542e-002 -1.111602e-001 -1.147728e-001 6.555301e-002 3.203456e-001 2.956094e-001 3.193144e-001 1.711761e-001 4.535514e-002 7.276446e-003 -2.071695e-001 -3.253914e-001 3.505985e-002
<VARIANCE> 39
 4.258172e+000 6.984088e+000 5.986160e+000 9.629494e+000 1.115717e+001 1.168049e+001 1.243675e+001 1.465792e+001 3.224268e+001 4.616312e+001 3.873541e+001 3.322562e+001 5.898926e+000 2.408046e-001 2.626564e-001 4.744594e-001 6.096556e-001 7.167702e-001 9.594374e-001 1.894914e+000 1.619678e+000 1.866758e+000 1.193270e+000 1.472228e+000 1.349173e+000 1.266962e-001 2.458516e-002 4.231348e-002 8.105280e-002 1.259475e-001 1.355979e-001 3.178541e-001 2.548672e-001 1.968884e-001 2.359085e-001 3.364816e-001 3.717401e-001 2.513472e-001 1.223376e-002
<GCONST> 7.471027e+001
<MIXTURE> 3 3.475046e-001
<MEAN> 39
 -7.903033e+000 -1.525698e+001 -1.401209e+001 -1.903487e+001 -8.277488e+000 2.569084e+000 -8.436625e+000 -1.999896e+000 1.298108e+001 -8.312234e-001 -4.628771e+000 -8.809788e+000 7.805956e+001 -2.665664e-001 6.019539e-001 1.033270e+000 -1.247055e-002 -1.219366e+000 -4.951603e-001 5.647148e-002 9.393818e-001 -4.659856e-001 -7.798504e-001 6.530205e-001 7.741468e-001 -7.205740e-001 -8.692995e-002 1.083909e-001 2.545675e-001 2.481994e-001 -8.540935e-002 -2.152034e-001 -3.517555e-002 3.789457e-002 -5.951581e-002 -1.021982e-001 -3.795985e-002 5.961179e-002 -5.197442e-002
<VARIANCE> 39
 9.285848e+000 9.777518e+000 1.836005e+001 1.328712e+001 3.394306e+001 1.779001e+001 3.678333e+001 3.456898e+001 2.819585e+001 3.545271e+001 2.656596e+001 2.135645e+001 1.204795e+001 2.963990e-001 4.405801e-001 6.945268e-001 9.153430e-001 1.893042e+000 1.889744e+000 2.785563e+000 1.752628e+000 1.863344e+000 1.282131e+000 1.166997e+000 1.457785e+000 1.913278e-001 4.709777e-002 6.885000e-002 1.115182e-001 1.078192e-001 2.432876e-001 2.777638e-001 4.498470e-001 4.190735e-001 3.050092e-001 2.897300e-001 2.228745e-001 2.453052e-001 2.782377e-002
<GCONST> 8.766154e+001
<MIXTURE> 4 8.834604e-002
<MEAN> 39
 -1.043479e+001 -1.891434e+001 -1.866255e+001 -1.015157e+001 7.219361e+000 9.278796e-001 -1.223251e+001 8.930275e-001 2.173502e+001 -2.531100e+000 -8.599855e+000 -9.943768e+000 7.635291e+001 -1.188884e-001 1.652381e-002 -5.579192e-002 -8.313178e-001 -1.713793e-001 6.526383e-001 1.563711e-001 -5.359993e-002 -4.477917e-002 1.082666e+000 1.119260e+000 6.130702e-002 -2.647687e-001 -1.168405e-001 -2.394719e-002 7.991006e-002 -1.846278e-001 -3.069758e-001 2.207678e-002 -1.593191e-002 -9.108700e-002 -3.756945e-001 -8.402798e-002 1.059811e-001 1.236902e-001 -1.094978e-001
<VARIANCE> 39
 1.174696e+000 1.628258e+000 4.112109e+000 1.459928e+001 5.627952e+000 1.477215e+001 2.175401e+001 1.433720e+001 7.917870e+000 2.558847e+001 2.583129e+001 8.330052e+000 1.354831e+000 1.686695e-001 2.802802e-001 5.772387e-001 8.818325e-001 8.601165e-001 9.297649e-001 3.128518e+000 1.839146e+000 2.069646e+000 2.040228e+000 1.579300e+000 1.432131e+000 6.248656e-002 4.092079e-002 5.877603e-002 8.747350e-002 1.681397e-001 3.226130e-001 1.905039e-001 7.783472e-001 3.660382e-001 1.732772e-001 6.156408e-001 4.104738e-001 2.409029e-001 1.087141e-002
<GCONST> 7.148539e+001
<STATE> 6
<NUMMIXES> 4
<MIXTURE> 1 1.913779e-001
<MEAN> 39
 -8.668196e+000 -7.968858e+000 -1.488677e+000 -1.300935e+001 -1.167764e+001 1.615369e+000 -8.274640e+000 2.686870e+000 9.665895e+000 -5.675179e+000 -1.099395e+000 -2.542975e+000 7.407485e+001 -3.973918e-001 3.367597e-001 9.810328e-001 8.772888e-001 5.104466e-001 1.510036e-002 2.111618e-001 -2.416034e-002 -4.343426e-001 -6.669036e-001 -1.786195e-001 3.384380e-001 -3.539236e-001 -4.177153e-002 -1.599126e-001 -2.713518e-001 -6.420554e-002 1.275461e-001 6.552473e-002 -1.636693e-002 -2.706043e-002 3.026715e-002 1.706266e-001 -7.900044e-002 -2.489233e-001 4.478012e-002
<VARIANCE> 39
 2.828984e+000 7.835291e+000 1.491652e+001 1.619936e+001 1.538761e+001 1.527627e+001 1.171750e+001 2.105569e+001 2.128908e+001 2.633995e+001 1.674405e+001 1.096962e+001 5.439620e+000 1.001929e-001 3.435392e-001 7.982935e-001 6.731702e-001 7.836391e-001 8.896024e-001 8.423729e-001 1.127135e+000 1.412798e+000 1.204419e+000 1.800785e+000 1.149513e+000 4.568320e-002 1.821102e-002 3.014360e-002 6.737538e-002 8.512536e-002 1.659372e-001 1.202091e-001 1.982140e-001 2.072351e-001 2.796697e-001 2.036276e-001 2.933756e-001 1.258214e-001 5.702355e-003
<GCONST> 6.713055e+001
<MIXTURE> 2 2.649008e-001
<MEAN> 39
 -1.130538e+001 -1.032963e+001 -3.471575e+000 -1.315042e+001 -1.152111e+001 -4.811934e+000 -1.268662e+001 -6.459051e+000 -2.701642e+000 -1.713363e+001 -1.096662e+001 -6.376166e+000 7.323441e+001 -1.416761e-001 2.449639e-001 5.135676e-001 2.456075e-001 -2.679259e-001 9.798671e-002 3.751672e-001 2.230191e-001 -1.998708e-002 1.327390e-001 1.221222e-001 -7.717698e-003 -1.980021e-001 -3.022987e-002 -1.237140e-001 -2.145950e-001 -1.292113e-001 4.992614e-002 1.079968e-001 -2.743136e-003 1.079132e-001 1.919388e-001 1.302786e-001 6.847042e-002 7.642514e-003 8.831084e-003
<VARIANCE> 39
 3.324188e+000 6.051460e+000 6.482995e+000 1.127701e+001 1.151916e+001 1.974775e+001 3.048041e+001 1.575317e+001 2.407519e+001 2.713877e+001 2.611914e+001 2.291685e+001 4.937552e+000 1.055493e-001 2.335592e-001 5.256513e-001 6.571376e-001 6.434922e-001 7.191846e-001 9.165555e-001 7.943972e-001 8.415369e-001 1.331910e+000 1.414348e+000 1.300816e+000 4.783606e-002 2.368823e-002 4.986944e-002 4.483338e-002 1.306628e-001 1.022849e-001 1.146021e-001 1.295736e-001 1.638142e-001 1.524428e-001 2.665201e-001 2.755824e-001 2.220301e-001 8.310538e-003
<GCONST> 6.590836e+001
<MIXTURE> 3 4.483952e-001
<MEAN> 39
 -1.224458e+001 -1.475864e+001 -6.524550e+000 -1.922622e+001 -1.323519e+001 -2.974973e+000 -6.676244e+000 2.175131e+000 6.246818e+000 -1.328035e+001 -5.081294e+000 -4.222994e+000 7.490181e+001 -2.259586e-001 -2.715169e-002 4.633570e-002 4.167321e-003 -3.494303e-003 -1.790420e-001 -1.533418e-002 1.103238e-001 2.050140e-001 3.414215e-001 3.542914e-003 1.242123e-001 -1.461058e-001 3.185048e-003 -7.743342e-003 -6.741052e-002 -1.663885e-002 4.113264e-002 1.254893e-001 -1.511158e-002 -1.171158e-001 -4.643505e-002 7.925056e-002 5.470195e-002 5.502387e-002 7.745894e-003
<VARIANCE> 39
 1.884102e+000 2.132133e+000 3.867521e+000 6.935929e+000 7.769169e+000 2.371344e+001 2.481961e+001 2.456105e+001 1.282175e+001 1.143701e+001 1.562997e+001 1.231056e+001 9.943609e-001 1.077748e-001 1.935216e-001 3.874090e-001 4.728565e-001 5.848954e-001 7.975386e-001 1.019156e+000 1.285025e+000 1.177297e+000 1.316468e+000 1.748233e+000 1.042567e+000 2.558603e-002 1.826047e-002 3.449108e-002 7.389025e-002 8.070714e-002 9.624804e-002 1.443995e-001 1.805101e-001 2.088755e-001 1.822710e-001 2.264201e-001 3.368269e-001 1.963086e-001 4.520262e-003
<GCONST> 5.819154e+001
<MIXTURE> 4 9.532607e-002
<MEAN> 39
 -1.320364e+001 -1.011532e+001 -4.757625e-001 -8.081521e+000 -6.440053e+000 7.250910e+000 -4.587201e-001 8.882710e+000 6.409163e+000 -1.075165e+001 -7.574067e+000 -2.087190e+000 6.961954e+001 -3.388048e-001 -1.379657e-001 6.751992e-002 3.803503e-001 2.573088e-001 1.504094e-002 -1.540242e-001 2.311493e-001 1.344757e-001 1.364501e-001 3.528670e-001 4.443404e-001 -2.040964e-001 -1.979651e-002 -6.117777e-002 -1.643047e-001 -1.995112e-001 -1.176782e-001 -1.348263e-003 -1.932561e-001 -2.153535e-001 -1.095771e-001 -4.138025e-003 9.239925e-002 -4.572001e-002 8.034074e-003
<VARIANCE> 39
 1.874095e+000 1.577386e+000 1.902818e+001 8.531750e+000 8.486387e+000 2.548099e+001 2.900065e+001 1.646009e+001 4.786867e+001 1.878532e+001 1.388081e+001 1.869469e+001 1.144670e+000 1.083758e-001 1.369003e-001 6.728703e-001 7.862202e-001 1.035639e+000 7.595897e-001 1.816107e+000 3.040451e+000 1.403142e+000 1.004335e+000 9.277683e-001 1.229710e+000 5.914609e-002 2.733826e-002 1.787735e-002 9.895577e-002 1.390468e-001 2.150688e-001 1.941828e-001 1.674137e-001 5.650588e-001 3.585940e-001 1.851344e-001 1.314595e-001 2.350893e-001 1.322669e-002
<GCONST> 6.820116e+001
<STATE> 7
<NUMMIXES> 4
<MIXTURE> 1 8.025645e-002
<MEAN> 39
 -1.300117e+001 -9.245519e+000 -6.742610e-001 -7.773761e+000 -6.801296e+000 4.165883e+000 -6.834483e+000 5.524801e+000 9.005109e+000 -5.006547e+000 -1.972162e+000 -3.715474e+000 7.146404e+001 -4.898779e-001 -6.176658e-001 -1.338195e+000 -2.171817e-001 -1.028666e-001 6.181594e-002 -1.201225e+000 -2.044476e-001 -4.518551e-001 9.760520e-001 1.151954e-001 -3.885810e-001 6.860927e-003 1.989625e-001 1.566812e-001 -1.100405e-001 -2.466975e-001 -4.355736e-001 -2.137116e-001 -4.149011e-001 -2.225249e-001 1.732326e-002 2.265956e-001 3.287933e-002 1.991646e-001 1.689863e-001
<VARIANCE> 39
 5.980778e+000 8.288704e+000 1.211354e+001 1.958496e+001 1.044019e+001 5.398802e+000 9.349983e+000 1.108484e+001 1.152143e+001 2.446827e+001 7.896464e+000 1.954757e+001 8.869415e+000 1.597385e-001 2.668518e-001 5.626517e-001 7.507730e-001 1.049332e+000 1.062616e+000 1.954495e+000 1.543515e+000 1.663793e+000 1.691947e+000 5.286952e-001 1.395009e+000 2.157903e-001 2.253843e-002 7.300586e-002 1.302003e-001 7.576618e-002 1.193186e-001 2.509657e-001 1.827630e-001 1.151866e-001 1.540649e-001 1.320879e-001 9.267701e-002 2.030161e-001 1.364802e-002
<GCONST> 6.841952e+001
<MIXTURE> 2 3.082159e-001
<MEAN> 39
 -1.452871e+001 -1.442811e+001 -5.689588e+000 -1.690074e+001 -1.144414e+001 5.829909e-001 -6.138829e+000 -1.637763e+000 1.896054e+000 -1.535733e+001 -7.675443e+000 -4.124079e+000 7.227977e+001 -1.684885e-001 -2.288334e-001 7.165293e-002 1.161601e-001 3.986872e-001 4.340421e-001 -4.054283e-002 -1.235313e-001 1.023959e-001 -4.140891e-002 2.079917e-001 -2.642884e-002 -9.134281e-002 4.372806e-002 1.779571e-002 -4.711878e-002 4.366178e-003 -8.356207e-002 -2.307072e-001 -1.168811e-001 1.155876e-001 3.450372e-001 4.118350e-001 2.769537e-001 1.140467e-002 3.015898e-002
<VARIANCE> 39
 2.225092e+000 3.628694e+000 5.779516e+000 1.278156e+001 1.118300e+001 1.841813e+001 2.774833e+001 2.068571e+001 1.921535e+001 1.132735e+001 1.535546e+001 1.223523e+001 6.717100e+000 8.044840e-002 1.510071e-001 3.942218e-001 5.428628e-001 8.094678e-001 6.680214e-001 7.398177e-001 1.410491e+000 2.243559e+000 1.527684e+000 1.151586e+000 9.614946e-001 4.041160e-002 2.851024e-002 3.862574e-002 7.305314e-002 9.908788e-002 1.509922e-001 1.268534e-001 1.419175e-001 2.011380e-001 2.829627e-001 1.743319e-001 2.237284e-001 1.586415e-001 5.644068e-003
<GCONST> 6.309643e+001
<MIXTURE> 3 1.960402e-001
<MEAN> 39
 -1.253470e+001 -9.775630e+000 -2.660250e+000 -1.407533e+001 -1.406816e+001 -4.024654e+000 -1.147303e+001 -4.439044e+000 1.403849e+000 -1.158671e+001 -6.589136e+000 -5.005682e+000 7.153662e+001 -9.415650e-001 -6.736984e-001 -2.582080e-001 2.835789e-001 8.911972e-001 9.892876e-001 6.520154e-001 6.704879e-001 8.318809e-002 -1.850428e-001 -2.260125e-001 1.671079e-001 -4.136538e-001 -1.382782e-001 -2.539063e-001 -2.959839e-001 -1.325013e-002 8.610929e-002 6.010875e-002 6.352469e-002 1.839063e-001 1.760838e-001 1.722471e-001 1.803707e-001 3.589058e-001 -7.508796e-003
<VARIANCE> 39
 6.554420e+000 6.030980e+000 3.856730e+000 7.304250e+000 9.383466e+000 1.430146e+001 2.233591e+001 2.176502e+001 2.520523e+001 3.220344e+001 3.341343e+001 2.303518e+001 5.050056e+000 2.422700e-001 4.669920e-001 4.851157e-001 8.161819e-001 9.536113e-001 8.388736e-001 1.406649e+000 1.187813e+000 1.902406e+000 1.917237e+000 1.186738e+000 1.305253e+000 7.010982e-002 5.098582e-002 7.357644e-002 8.512960e-002 9.689777e-002 2.050494e-001 1.571296e-001 1.969457e-001 1.862888e-001 2.202956e-001 4.077242e-001 2.444094e-001 1.757905e-001 1.231011e-002
<GCONST> 7.392284e+001
<MIXTURE> 4 4.154874e-001
<MEAN> 39
 -1.434080e+001 -1.372957e+001 -7.570300e+000 -1.712237e+001 -1.358417e+001 -4.400632e+000 -9.475931e+000 5.467151e-001 6.255686e+000 -7.898855e+000 -1.725861e+000 -1.000821e+000 7.212952e+001 -2.686152e-001 -4.017875e-002 8.482282e-002 6.536933e-002 -3.096575e-002 1.982387e-001 -5.479527e-002 -4.504711e-001 -3.273249e-001 -1.644512e-001 -1.023103e-001 1.337135e-001 -1.557839e-001 7.900415e-002 3.650640e-002 6.881559e-002 8.204220e-002 1.397710e-001 1.042055e-001 2.855805e-002 -1.147234e-001 -1.745311e-001 -3.169082e-001 -2.807484e-001 -2.078315e-001 5.148472e-002
<VARIANCE> 39
 2.208461e+000 4.986013e+000 8.281929e+000 1.146201e+001 8.201211e+000 1.693288e+001 1.298567e+001 1.199816e+001 1.932692e+001 1.669540e+001 1.109704e+001 1.422709e+001 5.235224e+000 2.075761e-001 2.838137e-001 4.831809e-001 7.187251e-001 6.625177e-001 1.211150e+000 1.077379e+000 1.394982e+000 1.265919e+000 2.548342e+000 1.899475e+000 9.627101e-001 7.698820e-002 3.299019e-002 4.819151e-002 7.550044e-002 1.160954e-001 1.230897e-001 2.345409e-001 2.209232e-001 2.205060e-001 2.275951e-001 3.730585e-001 2.979564e-001 1.435151e-001 1.186061e-002
<GCONST> 6.881324e+001
<STATE> 8
<NUMMIXES> 4
<MIXTURE> 1 1.599768e-001
<MEAN> 39
 -1.455079e+001 -1.266005e+001 -5.382126e+000 -1.209957e+001 -1.096809e+001 -2.122501e+000 -1.381199e+001 -3.088324e+000 1.977459e+000 -6.949783e+000 -5.977006e+000 -3.824762e+000 7.193757e+001 1.011928e+000 1.030596e+000 3.331977e-001 -3.022761e-001 -1.540273e+000 -1.620390e+000 -1.514782e+000 -8.139619e-001 2.223163e-001 1.394326e+000 1.186949e+000 4.414475e-001 6.084819e-001 3.586079e-001 2.607012e-001 -3.489562e-002 -4.584156e-001 -6.102384e-001 -3.841377e-001 1.429925e-001 2.521561e-001 5.437728e-001 3.045377e-001 3.614864e-001 1.201394e-001 1.619933e-001
<VARIANCE> 39
 6.285693e+000 1.138905e+001 8.144809e+000 2.489668e+001 1.434249e+001 4.418934e+001 1.765618e+001 4.970858e+001 3.488075e+001 7.804801e+001 2.199297e+001 7.992546e+000 7.192731e+000 2.265435e-001 4.271670e-001 6.678225e-001 7.782018e-001 9.868739e-001 7.096628e-001 1.155234e+000 1.614719e+000 2.567456e+000 2.336132e+000 9.698156e-001 8.426463e-001 9.361701e-002 3.017090e-002 8.031860e-002 1.773258e-001 9.332831e-002 1.214706e-001 1.568454e-001 1.650605e-001 5.884886e-001 5.508774e-001 6.122605e-001 2.762624e-001 2.317053e-001 2.918283e-002
<GCONST> 8.225321e+001
<MIXTURE> 2 3.369056e-001
<MEAN> 39
 -1.666077e+001 -1.479459e+001 -4.911074e+000 -1.375501e+001 -9.604924e+000 1.943721e+000 -6.710588e+000 -5.901428e-001 3.730259e+000 -1.192077e+001 -6.076981e+000 -3.994332e+000 6.967575e+001 -2.504939e-001 -2.772438e-001 -3.460737e-001 9.732169e-002 -8.456472e-002 -7.060143e-002 -1.766187e-001 3.942138e-002 2.941386e-001 6.504743e-001 4.603165e-001 3.906368e-001 -1.842358e-002 2.528341e-001 2.472775e-001 7.760984e-002 -7.468077e-002 -3.869163e-001 -4.561959e-001 -3.785654e-001 -2.449260e-001 -1.420054e-001 1.307689e-001 8.199314e-002 7.157677e-002 1.321094e-001
<VARIANCE> 39
 3.748854e+000 5.253020e+000 4.568218e+000 1.206275e+001 1.190126e+001 1.889010e+001 2.167694e+001 1.595133e+001 1.628715e+001 1.593817e+001 2.525935e+001 1.679679e+001 6.747710e+000 3.028408e-001 4.258521e-001 4.319600e-001 6.111222e-001 6.902896e-001 1.058194e+000 1.426729e+000 1.398328e+000 8.531069e-001 1.333031e+000 1.927163e+000 2.018078e+000 1.090668e-001 3.695432e-002 6.596116e-002 8.337338e-002 1.574084e-001 1.289520e-001 1.387834e-001 2.204216e-001 2.353555e-001 1.515708e-001 2.766686e-001 2.631150e-001 2.732873e-001 1.661696e-002
<GCONST> 7.248043e+001
<MIXTURE> 3 2.924027e-001
<MEAN> 39
 -1.325836e+001 -1.484260e+001 -7.095628e+000 -1.729823e+001 -1.283193e+001 -2.771826e+000 -8.031075e+000 -2.557009e-001 7.922570e+000 -1.027688e+001 -4.781399e+000 -5.673803e+000 7.440839e+001 3.914905e-001 3.072670e-001 -1.215353e-001 -2.977416e-001 -7.487627e-001 -7.763493e-001 -9.306181e-001 -3.583513e-001 2.109666e-001 5.376055e-001 -2.287791e-002 2.479072e-002 2.012893e-001 9.005790e-002 1.549841e-001 1.471343e-001 1.667036e-002 -8.020797e-003 -4.024704e-002 -9.605918e-002 -1.616982e-001 -1.341528e-001 -6.087083e-002 6.636496e-003 9.150998e-002 2.608807e-002
<VARIANCE> 39
 2.404729e+000 2.946678e+000 8.275937e+000 6.670751e+000 1.372779e+001 1.349369e+001 1.986967e+001 1.426084e+001 1.368141e+001 3.004499e+001 1.097410e+001 9.156590e+000 2.175266e+000 1.073711e-001 4.273724e-001 6.630710e-001 6.035344e-001 7.297839e-001 1.098449e+000 8.595605e-001 1.243870e+000 1.350270e+000 1.955446e+000 1.030836e+000 1.024746e+000 3.055091e-002 2.366114e-002 5.758343e-002 1.259577e-001 9.304321e-002 1.275199e-001 2.096040e-001 1.861035e-001 2.062095e-001 2.249802e-001 3.052253e-001 1.960790e-001 1.850444e-001 6.580725e-003
<GCONST> 6.436070e+001
<MIXTURE> 4 2.107151e-001
<MEAN> 39
 -1.656581e+001 -1.386612e+001 -6.074631e+000 -1.254779e+001 -1.121064e+001 9.860783e-001 -1.058867e+001 -2.400959e+000 5.581333e+000 -6.675245e+000 -6.341260e-001 8.229176e-001 7.007505e+001 4.020573e-001 4.987744e-001 -3.043344e-002 5.219280e-002 -3.489770e-001 -5.392814e-001 -1.110833e+000 -8.594850e-001 -4.360570e-001 -5.705708e-002 -3.236293e-001 -7.410009e-002 3.135366e-001 3.689704e-001 3.485785e-001 2.349055e-001 -1.271294e-001 -2.660867e-001 -3.848690e-001 -3.231400e-001 -2.495157e-001 -3.418139e-001 -4.410303e-001 -4.611401e-001 -4.185620e-001 1.408146e-001
<VARIANCE> 39
 4.546076e+000 6.775793e+000 1.120959e+001 1.465631e+001 7.127575e+000 9.774294e+000 2.491383e+001 3.032585e+001 2.412517e+001 2.237734e+001 1.145066e+001 1.111949e+001 6.900447e+000 2.183982e-001 2.575155e-001 6.614669e-001 6.232812e-001 9.158656e-001 8.979649e-001 1.293027e+000 1.785378e+000 1.615318e+000 2.033412e+000 1.334037e+000 1.734643e+000 8.794539e-002 2.973730e-002 5.088684e-002 1.291998e-001 1.232328e-001 1.663594e-001 9.807049e-002 2.045054e-001 3.412755e-001 2.579332e-001 2.260105e-001 2.325048e-001 3.069774e-001 1.436039e-002
<GCONST> 7.348462e+001
<STATE> 9
<NUMMIXES> 4
<MIXTURE> 1 1.995008e-001
<MEAN> 39
 -9.223569e+000 -9.988726e+000 -7.000391e+000 -2.129564e+001 -1.766023e+001 -8.985641e+000 -1.224851e+001 8.858573e-001 1.406713e+001 -3.730885e-001 -6.446590e-001 -1.742274e+000 7.518824e+001 6.441315e-001 5.290338e-001 -1.334863e-001 -4.171437e-001 1.983117e-001 3.432243e-001 3.326978e-001 6.795561e-001 1.122159e+000 1.292827e+000 8.490940e-001 1.982626e-001 4.015866e-001 -2.193840e-001 -2.819008e-001 -9.808704e-002 1.608003e-001 3.824564e-001 3.232243e-001 1.614116e-001 -2.590494e-001 -6.042512e-001 -5.176094e-001 -1.632306e-001 -2.703566e-001 -7.972331e-002
<VARIANCE> 39
 7.513804e+000 6.220330e+000 2.901864e+000 9.132345e+000 4.933548e+000 1.168522e+001 2.135073e+001 1.810009e+001 7.308786e+000 2.652784e+001 2.511197e+001 1.269601e+001 7.152842e+000 2.448746e-001 2.352984e-001 6.659420e-001 3.247361e-001 7.540810e-001 1.837669e+000 1.896146e+000 1.804848e+000 2.080565e+000 1.363592e+000 1.313030e+000 1.417782e+000 6.626740e-002 3.372771e-002 4.721303e-002 8.471603e-002 4.984755e-002 7.739517e-002 2.204655e-001 3.174152e-001 3.311568e-001 3.467873e-001 1.112160e-001 2.907352e-001 2.756481e-001 9.343917e-003
<GCONST> 6.924558e+001
<MIXTURE> 2 3.047563e-001
<MEAN> 39
 -1.252397e+001 -1.169237e+001 -4.734765e+000 -1.486917e+001 -1.378953e+001 -3.360272e+000 -1.361653e+001 -6.177899e+000 9.460044e-001 -1.356073e+001 -5.804343e+000 -2.794404e+000 7.326887e+001 1.092086e+000 1.097665e+000 7.599998e-001 -1.518824e-001 -1.124877e+000 -1.758147e+000 -1.746738e+000 -1.618742e+000 -1.138530e+000 -9.037467e-001 -3.305717e-001 -2.226277e-001 4.699647e-001 7.091684e-002 1.033918e-001 6.129375e-003 -1.399311e-001 -1.521287e-001 -1.501161e-001 1.438866e-002 2.935973e-001 3.453710e-001 3.516646e-001 3.622361e-001 1.704089e-001 3.993006e-002
<VARIANCE> 39
 4.569862e+000 6.352841e+000 6.282431e+000 1.407365e+001 1.170307e+001 1.519622e+001 2.015941e+001 2.385469e+001 2.285801e+001 3.464468e+001 1.978477e+001 2.383902e+001 6.592531e+000 1.732506e-001 2.353017e-001 6.306612e-001 5.308620e-001 8.623847e-001 1.301020e+000 1.164202e+000 1.152532e+000 1.456589e+000 2.096461e+000 2.307401e+000 1.632207e+000 6.240418e-002 2.939239e-002 4.092633e-002 6.552031e-002 5.252978e-002 1.561575e-001 2.016428e-001 1.955708e-001 2.616652e-001 2.302166e-001 4.047759e-001 3.056117e-001 1.473382e-001 1.082648e-002
<GCONST> 7.255923e+001
<MIXTURE> 3 1.181927e-001
<MEAN> 39
 -9.898860e+000 -1.089967e+001 -7.327228e+000 -1.754209e+001 -1.887342e+001 -1.054215e+001 -1.858711e+001 -5.895607e+000 6.723366e+000 2.291870e+000 -4.162256e+000 -7.079265e+000 7.557078e+001 9.014224e-001 1.852534e-001 -9.400367e-001 -1.184578e+000 -6.079583e-001 -3.901424e-002 3.048527e-001 7.015934e-001 2.200167e+000 2.429984e+000 -2.745864e-001 -1.118241e+000 7.828993e-001 -1.727398e-001 -7.280032e-002 1.145316e-001 3.115382e-001 5.986289e-001 6.923122e-001 5.447273e-001 3.124699e-001 -1.371389e-001 -4.362904e-001 -1.892871e-001 2.345379e-001 -1.483242e-001
<VARIANCE> 39
 2.731518e+000 2.314758e+001 5.688540e+000 1.491399e+001 1.398844e+001 1.776292e+001 1.117500e+001 3.535254e+001 4.190833e+001 6.547575e+001 5.030725e+001 1.368876e+001 4.403761e+000 1.781434e-001 7.545338e-001 5.334420e-001 6.655729e-001 1.246280e+000 1.225162e+000 1.528444e+000 3.791093e+000 2.705688e+000 2.180569e+000 1.063641e+000 7.373462e-001 1.078956e-001 3.511606e-002 1.264168e-001 8.007744e-002 7.337259e-002 1.019567e-001 1.914795e-001 2.337680e-001 1.540096e-001 1.683072e-001 2.721387e-001 2.305079e-001 1.748797e-001 1.325078e-002
<GCONST> 7.770380e+001
<MIXTURE> 4 3.775503e-001
<MEAN> 39
 -1.051921e+001 -7.722985e+000 -3.311283e+000 -1.500246e+001 -1.719935e+001 -6.044968e+000 -1.638115e+001 -5.296416e+000 2.274567e+000 -7.519078e+000 -1.529040e+000 -2.056182e-001 7.380289e+001 1.106164e+000 1.024370e+000 -1.731845e-001 -8.157473e-001 -1.616780e+000 -1.297335e+000 -9.498852e-001 -3.289070e-001 3.969332e-001 1.062775e+000 6.257419e-001 2.744069e-001 6.275104e-001 -1.571901e-001 -2.538926e-001 -3.360089e-001 -3.517513e-002 3.247511e-001 4.915727e-001 3.630494e-001 3.724183e-001 3.729896e-001 2.275479e-001 -1.775827e-001 -1.803073e-001 -3.245418e-002
<VARIANCE> 39
 3.591336e+000 1.371121e+001 6.259227e+000 2.071319e+001 1.382024e+001 2.470179e+001 1.995581e+001 2.814278e+001 2.334614e+001 5.145683e+001 1.935556e+001 1.334983e+001 5.644626e+000 2.207954e-001 4.479091e-001 6.066750e-001 5.321796e-001 8.426356e-001 1.063415e+000 1.047610e+000 1.809358e+000 2.605353e+000 2.526708e+000 1.601507e+000 1.191081e+000 1.370018e-001 2.568897e-002 3.762116e-002 5.225520e-002 6.821559e-002 1.668876e-001 1.245147e-001 1.851939e-001 2.431794e-001 2.489255e-001 3.482016e-001 1.652623e-001 1.448475e-001 9.893682e-003
<GCONST> 7.426061e+001
<STATE> 10
<NUMMIXES> 4
<MIXTURE> 1 1.384202e-001
<MEAN> 39
 -9.846774e+000 -1.055915e+001 -8.703523e+000 -1.872524e+001 -1.582735e+001 -8.853559e+000 -1.027709e+001 6.058888e+000 2.129643e+001 9.756865e+000 -2.926048e+000 -7.701091e+000 7.561965e+001 5.605533e-001 6.056044e-002 -1.686904e-001 -4.568731e-001 5.884671e-001 5.332153e-001 2.903599e-001 3.995578e-001 1.057887e+000 9.094759e-001 -2.894825e-001 -4.316550e-001 2.713445e-001 -7.101407e-002 -8.320220e-002 -5.676864e-002 -5.419253e-002 7.440054e-002 1.490378e-001 -4.049651e-002 -1.903204e-001 -2.551876e-001 -2.180461e-001 2.595545e-002 1.564032e-001 -3.451197e-002
<VARIANCE> 39
 7.751521e+000 1.022655e+001 8.611813e+000 8.730063e+000 1.710502e+001 1.020529e+001 1.927745e+001 6.270830e+001 1.961954e+001 4.349414e+001 2.887523e+001 1.657823e+001 8.375322e+000 1.411987e-001 2.839244e-001 7.607307e-001 5.021380e-001 6.816998e-001 7.393888e-001 1.594606e+000 1.199288e+000 6.917585e-001 1.426112e+000 1.061894e+000 8.190192e-001 5.368930e-002 3.607358e-002 4.751188e-002 1.481126e-001 8.324202e-002 1.195692e-001 1.089140e-001 2.980525e-001 1.627136e-001 1.781032e-001 2.667755e-001 1.445650e-001 1.648469e-001 8.864348e-003
<GCONST> 7.074050e+001
<MIXTURE> 2 3.344200e-001
<MEAN> 39
 -9.298931e+000 -8.142619e+000 -3.116072e+000 -1.560696e+001 -1.740092e+001 -7.661251e+000 -1.897003e+001 -8.627747e+000 9.876106e-001 -1.271071e+001 -5.660902e+000 -5.152811e+000 7.431328e+001 2.864245e-001 3.287594e-001 -7.887648e-002 -2.515512e-001 -1.990830e-001 -1.530164e-001 -1.738298e-001 6.059211e-002 2.832629e-001 7.065814e-001 3.997483e-001 -2.633143e-002 1.890710e-001 -9.236402e-002 -1.294481e-001 -7.106961e-002 3.683017e-003 1.605538e-001 2.229961e-001 2.264178e-001 1.339089e-001 9.827749e-002 1.367584e-001 8.500265e-002 -8.232620e-003 -3.648009e-002
<VARIANCE> 39
 2.554576e+000 8.418196e+000 6.386848e+000 1.049844e+001 1.179384e+001 1.885241e+001 2.026544e+001 1.312744e+001 1.595717e+001 2.756104e+001 3.527385e+001 3.562986e+001 7.551791e+000 1.057871e-001 2.053671e-001 3.765277e-001 3.691742e-001 5.622806e-001 1.050635e+000 9.911327e-001 1.039988e+000 7.030406e-001 1.430767e+000 1.598013e+000 6.613554e-001 4.531042e-002 2.529763e-002 3.972109e-002 4.702470e-002 4.901315e-002 1.179694e-001 1.872115e-001 1.751663e-001 1.762476e-001 1.356387e-001 2.930438e-001 2.550908e-001 1.228212e-001 9.024786e-003
<GCONST> 6.418904e+001
<MIXTURE> 3 3.197626e-001
<MEAN> 39
 -8.531547e+000 -1.265651e+001 -8.594810e+000 -2.300606e+001 -1.387610e+001 -5.379533e+000 -8.738337e+000 2.133456e+000 1.019532e+001 -6.681397e+000 -4.512902e+000 -6.067143e+000 7.730885e+001 1.808299e-002 -1.103670e-001 -2.432101e-001 -1.395270e-001 1.684570e-001 2.789202e-001 4.694882e-001 2.840788e-001 -9.975664e-002 -4.913966e-001 -6.160294e-001 -3.716661e-001 3.757008e-003 -1.613757e-002 1.155320e-002 1.913483e-002 5.562166e-002 1.275297e-002 6.162763e-002 1.062592e-002 -5.128279e-002 3.353540e-002 -1.043724e-002 -3.687445e-002 -9.180726e-003 -2.376578e-002
<VARIANCE> 39
 7.613329e-001 3.248255e+000 6.557021e+000 9.112493e+000 1.120798e+001 1.634515e+001 1.494590e+001 8.851280e+000 1.863548e+001 3.267656e+001 3.467579e+001 1.260698e+001 6.570071e-001 7.906928e-002 1.635163e-001 3.523566e-001 4.805939e-001 6.189635e-001 1.240729e+000 9.101439e-001 8.661716e-001 1.127154e+000 1.098078e+000 1.086277e+000 9.079608e-001 3.085129e-002 1.262848e-002 2.491995e-002 5.339266e-002 9.010573e-002 1.338945e-001 2.880083e-001 1.448884e-001 1.514852e-001 1.767021e-001 1.456258e-001 2.210124e-001 1.562935e-001 5.674468e-003
<GCONST> 5.626265e+001
<MIXTURE> 4 2.073971e-001
<MEAN> 39
 -7.864967e+000 -4.783776e+000 -8.622081e+000 -1.565298e+001 -1.875802e+001 -1.274553e+000 -1.981308e+001 -3.327059e+000 4.400859e+000 5.196093e+000 -3.104177e+000 -2.113502e+000 7.511842e+001 2.279128e-001 -1.248123e-001 -4.370614e-001 -4.790066e-001 -7.134541e-002 1.072466e-001 -2.019328e-001 1.996556e-001 5.076129e-001 8.154038e-001 1.627968e-001 -2.033514e-001 1.363000e-001 -4.779793e-002 -6.709841e-002 7.780828e-002 -3.661876e-002 4.148854e-002 9.617150e-003 1.013792e-001 -9.373940e-003 -3.820673e-002 -1.993814e-001 -6.287555e-002 -1.046052e-003 -5.449472e-002
<VARIANCE> 39
 1.645014e+000 4.207742e+000 7.033643e+000 9.244335e+000 1.356969e+001 2.144970e+001 2.064325e+001 3.182618e+001 2.552255e+001 5.315413e+001 6.830000e+001 1.816321e+001 1.198422e+000 4.630792e-002 1.299337e-001 4.623750e-001 4.438244e-001 4.526154e-001 5.290152e-001 8.047541e-001 1.104229e+000 1.082252e+000 1.374009e+000 1.474700e+000 7.985063e-001 4.260258e-002 1.197926e-002 2.800597e-002 7.675248e-002 5.562321e-002 6.494723e-002 9.077257e-002 1.735424e-001 1.909285e-001 2.067548e-001 3.319598e-001 2.426933e-001 1.694856e-001 8.137104e-003
<GCONST> 6.094666e+001
<STATE> 11
<NUMMIXES> 4
<MIXTURE> 1 1.469377e-001
<MEAN> 39
 -1.093377e+001 -1.133118e+001 -1.484496e+001 -2.188837e+001 -7.140000e+000 -4.152802e+000 -8.115463e+000 7.745004e+000 2.255907e+001 1.511316e+001 -5.376482e+000 -4.523882e+000 7.509032e+001 -1.989502e-001 -2.016026e-001 -1.327667e-001 4.835656e-002 4.515488e-002 1.868073e-001 4.172479e-001 -2.161230e-001 -4.701262e-001 -4.373404e-001 2.307616e-001 3.616780e-001 -6.184650e-002 -1.951372e-002 1.182169e-002 7.104073e-002 5.237230e-002 -1.331118e-001 -7.850555e-002 3.934435e-002 6.910646e-002 -1.029443e-002 -7.819370e-002 2.963276e-002 -1.888095e-002 -3.476063e-002
<VARIANCE> 39
 2.083911e+000 3.457334e+000 4.605011e+000 9.431251e+000 3.781666e+000 4.888345e+000 8.386959e+000 3.732461e+000 1.216190e+001 7.429348e+000 7.122262e+000 7.899384e+000 1.345846e+000 1.200365e-001 1.676533e-001 4.225092e-001 6.163791e-001 6.999374e-001 3.799160e-001 4.109729e-001 3.719271e-001 8.172758e-001 5.381767e-001 8.702518e-001 4.754569e-001 7.179381e-002 2.445180e-002 3.121971e-002 3.140635e-002 9.556175e-002 8.598451e-002 6.146495e-002 9.679861e-002 6.455987e-002 1.290584e-001 1.261430e-001 1.460231e-001 7.633616e-002 7.008207e-003
<GCONST> 4.294305e+001
<MIXTURE> 2 2.412891e-001
<MEAN> 39
 -7.925121e+000 -7.967979e+000 -1.060287e+001 -2.092564e+001 -1.432308e+001 -2.676675e+000 -1.367983e+001 4.039118e+000 4.258609e+000 -5.343316e+000 -1.388197e+001 -8.140630e+000 7.521079e+001 -3.644170e-002 -2.267275e-001 -8.498299e-002 -1.105488e-001 5.078276e-001 6.829304e-001 6.038564e-001 2.819501e-001 -4.896502e-001 -1.086620e+000 -3.429792e-001 -1.661138e-001 -6.395300e-002 -7.767791e-002 -5.299027e-002 1.104858e-001 1.064937e-001 -2.838234e-002 -1.188155e-002 -5.172703e-002 -2.699437e-001 -1.160659e-001 -1.106022e-001 1.780740e-001 6.684433e-002 -6.024439e-002
<VARIANCE> 39
 1.651273e+000 9.265059e+000 8.971729e+000 1.365777e+001 1.354990e+001 1.996532e+001 5.331775e+001 2.305771e+001 4.315841e+001 4.838174e+001 2.635933e+001 1.737863e+001 2.014339e+000 4.829963e-002 1.377331e-001 4.636353e-001 5.245615e-001 7.877232e-001 7.888202e-001 8.314949e-001 1.062590e+000 6.917102e-001 7.349934e-001 1.317631e+000 6.691102e-001 4.231295e-002 1.571422e-002 2.630922e-002 1.028169e-001 9.610163e-002 1.286402e-001 1.479789e-001 2.110252e-001 1.661274e-001 1.497921e-001 1.517424e-001 2.249658e-001 1.240620e-001 6.869010e-003
<GCONST> 6.334404e+001
<MIXTURE> 3 4.065866e-001
<MEAN> 39
 -8.241060e+000 -7.457374e+000 -3.461487e+000 -1.967425e+001 -2.048193e+001 -8.815425e+000 -1.628706e+001 -7.349332e+000 4.134653e+000 -7.549387e+000 3.051961e+000 2.077073e+000 7.625028e+001 1.191973e-001 1.884933e-002 -2.657198e-001 -4.170812e-001 -2.979347e-001 1.863604e-001 3.909575e-001 3.375453e-001 6.968172e-001 7.973504e-001 5.947455e-001 8.046135e-002 7.998306e-002 -4.538753e-002 -7.667319e-002 -6.677413e-002 1.212898e-002 6.818784e-002 4.075834e-002 1.013408e-001 8.931965e-002 -2.087769e-002 -4.294490e-002 -1.042782e-001 -5.338703e-002 -2.176496e-002
<VARIANCE> 39
 1.429200e+000 8.601051e+000 7.524399e+000 1.672453e+001 9.103458e+000 1.397717e+001 1.676801e+001 2.059388e+001 3.777371e+001 2.405024e+001 1.618577e+001 2.049699e+001 2.469800e+000 5.441194e-002 1.823369e-001 4.545077e-001 5.204260e-001 5.925103e-001 9.912004e-001 9.471176e-001 1.119244e+000 7.549897e-001 8.272352e-001 6.399018e-001 8.490344e-001 3.150699e-002 1.128684e-002 2.941816e-002 7.271978e-002 1.051467e-001 9.935251e-002 1.521972e-001 1.532438e-001 1.421506e-001 1.570133e-001 1.567683e-001 1.448061e-001 1.248689e-001 6.251803e-003
<GCONST> 5.847094e+001
<MIXTURE> 4 2.051866e-001
<MEAN> 39
 -5.328080e+000 -8.259163e+000 -7.953380e+000 -1.944055e+001 -1.846145e+001 -4.765487e+000 -1.722224e+001 -5.260647e+000 1.207984e+001 6.269120e+000 -4.574448e-001 -6.601851e+000 7.748101e+001 1.629905e-001 -3.903969e-001 -4.952208e-001 -7.497272e-001 1.713844e-001 8.298675e-001 7.922102e-001 5.344592e-001 7.134023e-001 6.071243e-001 -2.638091e-001 -9.333037e-001 2.628773e-001 -1.113196e-001 -2.333246e-002 1.217623e-002 -6.012542e-003 -2.792134e-002 -1.684750e-002 9.187375e-002 2.005431e-001 -1.058572e-001 -2.216494e-001 -1.298382e-001 -1.009263e-001 -5.264536e-002
<VARIANCE> 39
 2.336766e+000 1.011888e+001 1.435060e+001 1.652973e+001 2.562850e+001 1.854701e+001 2.165275e+001 3.444931e+001 3.043354e+001 5.023964e+001 4.821216e+001 2.702328e+001 7.878786e+000 6.937906e-002 3.287247e-001 5.716373e-001 3.283938e-001 7.332371e-001 1.065587e+000 9.284369e-001 9.855558e-001 9.296812e-001 1.766319e+000 1.401511e+000 1.094761e+000 5.283504e-002 1.243695e-002 3.775518e-002 6.950281e-002 5.739810e-002 1.254166e-001 1.492711e-001 1.182676e-001 1.382171e-001 1.369984e-001 2.419951e-001 1.887584e-001 9.529123e-002 7.551403e-003
<GCONST> 6.826080e+001
<STATE> 12
<NUMMIXES> 4
<MIXTURE> 1 2.658222e-001
<MEAN> 39
 -6.151431e+000 -1.066712e+001 -9.757323e+000 -2.228155e+001 -1.706317e+001 -2.283785e+000 -1.172636e+001 1.661404e+000 1.793254e+001 5.779494e+000 -2.496561e+000 -1.067499e+001 7.832720e+001 -2.716666e-001 -3.016632e-001 -4.407469e-001 -7.966359e-002 4.625568e-001 4.021263e-001 6.583701e-001 4.902901e-001 6.428833e-003 -7.253214e-001 -5.355539e-001 -3.077309e-001 -2.369239e-001 -1.206075e-001 -1.013296e-002 1.311801e-001 2.057981e-001 -7.334225e-003 -1.121653e-001 -1.401096e-002 -5.476367e-003 -2.669915e-001 -2.332696e-001 8.537410e-003 2.412043e-001 -1.119169e-001
<VARIANCE> 39
 2.071828e+000 6.984952e+000 1.110734e+001 1.154071e+001 2.364422e+001 2.148894e+001 3.028456e+001 2.494122e+001 1.552761e+001 3.851696e+001 4.615514e+001 6.253987e+001 4.909074e+000 1.222154e-001 2.773486e-001 4.128756e-001 5.042336e-001 4.992350e-001 7.360325e-001 9.744580e-001 1.762332e+000 9.955615e-001 1.245684e+000 7.304696e-001 1.524209e+000 8.278063e-002 1.588526e-002 3.913590e-002 4.764707e-002 7.658982e-002 1.060521e-001 1.721966e-001 1.220997e-001 2.298066e-001 1.815977e-001 1.752233e-001 1.089210e-001 1.818746e-001 6.747153e-003
<GCONST> 6.748969e+001
<MIXTURE> 2 1.939441e-001
<MEAN> 39
 -1.032646e+001 -1.025573e+001 -4.265526e+000 -1.631124e+001 -1.403335e+001 -5.731274e+000 -1.617199e+001 -7.654469e+000 -4.923270e-001 -1.408986e+001 -8.947964e+000 -9.696169e+000 7.389255e+001 -3.210644e-001 -4.042895e-001 4.258281e-002 2.607774e-001 3.725496e-001 2.138555e-001 4.112804e-001 -2.645177e-001 -6.248214e-001 -1.169016e+000 -2.752744e-001 8.952749e-002 -2.285669e-001 -3.509780e-002 -2.437410e-002 -8.135380e-003 3.567021e-002 -2.032834e-002 6.915733e-002 3.029261e-002 3.766900e-002 4.130140e-002 -6.281500e-002 -8.028378e-002 5.769226e-002 -2.535140e-002
<VARIANCE> 39
 1.875432e+000 7.332934e+000 4.412764e+000 6.999926e+000 8.979022e+000 9.751077e+000 1.500847e+001 2.418237e+001 2.584108e+001 3.060615e+001 1.101075e+001 1.402981e+001 6.038231e+000 4.904718e-002 1.072976e-001 3.419988e-001 4.892276e-001 5.160276e-001 8.385392e-001 9.117740e-001 1.122006e+000 9.427664e-001 1.985940e+000 6.295646e-001 1.118232e+000 4.393983e-002 1.196301e-002 1.728475e-002 4.383689e-002 1.020542e-001 5.890625e-002 1.555861e-001 1.580669e-001 1.974502e-001 1.483889e-001 2.731534e-001 8.093146e-002 2.532509e-001 5.595023e-003
<GCONST> 5.657618e+001
<MIXTURE> 3 3.162560e-001
<MEAN> 39
 -8.581247e+000 -8.536056e+000 -7.918646e+000 -2.196783e+001 -2.006675e+001 -3.716631e+000 -1.121171e+001 -4.557826e+000 4.933152e+000 -1.191500e+000 6.190686e+000 1.950176e+000 7.554964e+001 -2.894091e-001 -3.868662e-001 -1.245801e-001 -2.608117e-002 3.847042e-001 -1.758328e-002 7.757145e-001 7.643907e-001 1.163313e-002 -3.637335e-003 -5.299228e-001 -4.610799e-001 -1.326392e-001 -7.425929e-002 -3.663220e-002 7.517686e-002 1.610814e-001 1.928965e-001 -5.134951e-002 -8.199966e-002 -2.860959e-002 2.017951e-002 -1.523206e-001 -2.597757e-001 -1.081350e-001 -5.075153e-002
<VARIANCE> 39
 1.827204e+000 6.604872e+000 9.666836e+000 1.987686e+001 8.476972e+000 2.398644e+001 1.964186e+001 1.998482e+001 1.775389e+001 2.778161e+001 1.319871e+001 2.356078e+001 1.409730e+000 8.591494e-002 1.817279e-001 4.243365e-001 6.540735e-001 6.030371e-001 6.451569e-001 7.631785e-001 8.861828e-001 1.207420e+000 9.857339e-001 7.121170e-001 9.044399e-001 7.456832e-002 1.632804e-002 3.367436e-002 7.456911e-002 1.148317e-001 8.676755e-002 1.507995e-001 9.156454e-002 1.271001e-001 1.952672e-001 1.926257e-001 1.032172e-001 1.183632e-001 4.547243e-003
<GCONST> 5.922462e+001
<MIXTURE> 4 2.239777e-001
<MEAN> 39
 -8.988473e+000 -1.408337e+001 -1.252436e+001 -2.102910e+001 -1.007232e+001 1.803843e+000 -5.024139e+000 1.464961e+000 7.293976e+000 -8.249391e+000 -8.895976e+000 -7.238937e+000 7.564503e+001 -5.422552e-001 -3.830702e-001 1.108521e-001 6.097613e-001 -1.150425e-001 2.341208e-001 -1.436627e-001 -8.616011e-001 -6.898113e-001 -4.407255e-001 5.920538e-002 3.060703e-001 -2.357113e-001 -7.127061e-002 -2.026755e-002 1.636316e-001 -4.415993e-002 -9.052499e-002 -1.740035e-001 -1.707004e-001 -1.081733e-001 4.418415e-002 -1.021760e-001 -7.750539e-002 -1.822920e-002 -2.887224e-002
<VARIANCE> 39
 5.380785e+000 4.810906e+000 1.324044e+001 7.454129e+000 2.197671e+001 9.483936e+000 2.873352e+001 9.954818e+000 2.446246e+001 6.602158e+001 1.195422e+001 1.843817e+001 1.132715e+000 5.979462e-002 2.447103e-001 5.517888e-001 5.120845e-001 6.699286e-001 5.395598e-001 8.592806e-001 6.213259e-001 1.049910e+000 9.184321e-001 7.091557e-001 8.839225e-001 2.834358e-002 1.830374e-002 3.815191e-002 4.294172e-002 9.104978e-002 1.170252e-001 1.111299e-001 1.559652e-001 1.263836e-001 1.822924e-001 1.599345e-001 9.949818e-002 1.775572e-001 6.111361e-003
<GCONST> 5.847670e+001
<STATE> 13
<NUMMIXES> 4
<MIXTURE> 1 1.561953e-001
<MEAN> 39
 -8.851973e+000 -1.119191e+001 -8.968882e+000 -2.031138e+001 -1.539771e+001 -3.653538e+000 -9.992339e+000 3.606486e+000 1.470076e+001 4.714875e-001 -8.448464e+000 -9.409342e+000 7.577058e+001 -1.052148e+000 -2.242768e-001 8.406187e-001 5.925272e-001 3.855938e-001 3.766902e-001 1.260298e+000 4.983316e-001 -1.176175e+000 -1.872450e+000 4.520675e-001 7.490973e-001 -7.938710e-001 -2.068680e-001 -1.466945e-001 1.997647e-001 2.998282e-001 2.793303e-001 9.197059e-002 -1.247698e-002 -2.219503e-001 -3.642408e-001 -4.555126e-002 4.128267e-001 1.527585e-001 -5.857252e-002
<VARIANCE> 39
 4.441218e+000 1.033167e+001 1.135276e+001 7.855861e+000 3.003190e+001 1.354901e+001 1.615776e+001 1.679630e+001 2.153566e+001 1.891079e+001 1.253165e+001 2.937626e+001 6.638839e+000 1.900750e-001 3.836067e-001 5.961084e-001 1.128255e+000 1.717213e+000 1.130646e+000 1.047273e+000 7.632896e-001 1.770217e+000 1.458695e+000 1.242028e+000 9.025559e-001 6.380603e-002 2.215360e-002 5.512965e-002 1.040020e-001 1.370203e-001 2.129589e-001 2.083343e-001 1.781631e-001 1.999350e-001 3.016399e-001 1.992307e-001 1.480661e-001 5.705799e-002 8.706550e-003
<GCONST> 7.141425e+001
<MIXTURE> 2 3.843382e-001
<MEAN> 39
 -1.153160e+001 -1.319811e+001 -8.390942e+000 -1.815886e+001 -1.235529e+001 -3.188902e-001 -1.048500e+001 -3.419827e+000 1.756552e+000 -1.486660e+001 -1.212394e+001 -6.804107e+000 7.351802e+001 -5.565802e-001 -2.736634e-001 6.895692e-001 5.023703e-001 -3.336132e-002 -6.831950e-002 -2.643006e-001 -6.103550e-001 -2.339261e-001 -6.647568e-001 2.820354e-001 3.794255e-001 -4.328356e-001 -2.973948e-002 4.015940e-002 1.956666e-002 4.304004e-002 6.463204e-003 -3.776769e-002 8.391454e-003 2.322584e-001 1.478189e-001 3.029238e-001 2.489662e-001 1.515216e-001 -3.180840e-002
<VARIANCE> 39
 2.425330e+000 9.848981e+000 1.343441e+001 1.158236e+001 9.633861e+000 1.486049e+001 3.560487e+001 1.914218e+001 2.412727e+001 5.120272e+001 1.917001e+001 1.637802e+001 4.226876e+000 1.363081e-001 2.588424e-001 3.906071e-001 7.050992e-001 8.896488e-001 1.349314e+000 1.188228e+000 1.499283e+000 1.009146e+000 1.584011e+000 1.380970e+000 1.095079e+000 4.874430e-002 2.108311e-002 3.971684e-002 9.844755e-002 1.328076e-001 1.407991e-001 1.911142e-001 2.440626e-001 2.201276e-001 1.357935e-001 2.000110e-001 1.684168e-001 1.713241e-001 4.930314e-003
<GCONST> 6.925847e+001
<MIXTURE> 3 1.964862e-001
<MEAN> 39
 -1.094577e+001 -9.736244e+000 -5.874227e+000 -1.992419e+001 -1.668909e+001 -6.680225e+000 -1.202001e+001 -4.325349e+000 3.929758e+000 -4.357023e+000 2.621034e+000 9.157225e-002 7.416924e+001 -9.708086e-001 -7.315769e-001 4.834738e-001 1.126636e+000 1.457044e+000 1.068985e+000 1.055156e+000 8.954101e-001 1.367959e-001 -1.015970e+000 -1.217892e+000 -5.366654e-002 -5.908165e-001 -1.731097e-001 -1.202955e-001 -3.154751e-002 1.991244e-001 6.152150e-002 5.007343e-001 2.032872e-001 1.293060e-002 -3.649274e-002 -1.241343e-001 6.696682e-002 -3.423563e-003 -6.564569e-002
<VARIANCE> 39
 2.506355e+000 1.233499e+001 9.196707e+000 1.269437e+001 1.401881e+001 2.185432e+001 2.102348e+001 2.056317e+001 1.325794e+001 3.149352e+001 2.417204e+001 2.903029e+001 2.201329e+000 2.235324e-001 4.932061e-001 4.043540e-001 1.120548e+000 6.175983e-001 1.639499e+000 1.082788e+000 9.199146e-001 8.996212e-001 1.520145e+000 1.162722e+000 1.275295e+000 8.125396e-002 2.962427e-002 6.016589e-002 7.434348e-002 1.429565e-001 1.588437e-001 1.612116e-001 1.645283e-001 1.494115e-001 1.936625e-001 3.301949e-001 2.839476e-001 2.599308e-001 7.731947e-003
<GCONST> 7.178497e+001
<MIXTURE> 4 2.629804e-001
<MEAN> 39
 -1.083496e+001 -1.332467e+001 -1.161479e+001 -2.129998e+001 -1.581040e+001 -2.250147e+000 -5.156594e+000 5.881965e+000 1.415387e+001 9.587840e-001 -8.288702e-001 -5.220863e+000 7.503471e+001 -7.662743e-001 -3.700132e-001 4.579002e-001 8.807371e-001 4.436280e-001 6.451456e-002 -2.020281e-001 -9.224639e-002 -9.121953e-001 -1.468349e+000 -5.442025e-001 1.060014e-001 -5.373087e-001 -9.310330e-002 5.140015e-002 1.562535e-001 1.447019e-001 1.158072e-001 8.559665e-003 -9.115785e-002 -2.481144e-001 -2.508104e-001 -2.501597e-001 1.514930e-002 2.555050e-001 -8.314706e-002
<VARIANCE> 39
 4.146622e+000 4.609075e+000 2.474061e+001 8.139421e+000 1.648349e+001 1.976544e+001 1.814894e+001 2.733398e+001 1.969586e+001 4.774282e+001 8.578206e+000 3.860266e+001 2.757563e+000 2.818082e-001 2.244528e-001 6.834590e-001 5.847057e-001 9.639647e-001 1.068518e+000 1.434535e+000 1.287262e+000 1.339252e+000 1.280274e+000 7.315551e-001 1.102962e+000 1.692494e-001 2.328812e-002 1.777776e-002 1.195136e-001 5.847453e-002 9.486566e-002 2.299367e-001 2.176076e-001 2.419992e-001 1.550491e-001 2.153786e-001 9.104984e-002 1.560214e-001 1.071895e-002
<GCONST> 6.939070e+001
<STATE> 14
<NUMMIXES> 4
<MIXTURE> 1 1.870550e-001
<MEAN> 39
 -1.391078e+001 -1.255717e+001 -6.587926e+000 -1.663386e+001 -1.259987e+001 6.851320e-001 -5.947800e+000 2.587828e+000 7.583225e+000 -7.101302e+000 -3.668694e+000 -5.071546e+000 7.232228e+001 -1.196581e+000 -5.339546e-001 8.707429e-001 1.326018e+000 8.773120e-001 3.993470e-001 2.275549e-001 -7.112976e-001 -1.334586e+000 -1.364195e+000 4.341056e-002 6.334445e-001 -7.574046e-001 1.363063e-001 -5.901297e-002 -1.979486e-001 -1.752547e-001 -1.398419e-001 -1.471354e-001 -2.150023e-001 -2.707153e-001 1.242593e-001 3.857259e-001 7.872541e-002 -8.723923e-002 1.061809e-001
<VARIANCE> 39
 3.141057e+000 6.862838e+000 9.496784e+000 6.173747e+000 8.879370e+000 1.789529e+001 1.991859e+001 1.411723e+001 1.784259e+001 2.672011e+001 1.676867e+001 2.016006e+001 4.668341e+000 1.468586e-001 3.109752e-001 6.342328e-001 9.666798e-001 1.347019e+000 1.311818e+000 1.120579e+000 1.674444e+000 1.859792e+000 1.537584e+000 2.202312e+000 1.219050e+000 7.193354e-002 2.787185e-002 4.686700e-002 9.408627e-002 1.779398e-001 1.752773e-001 1.493564e-001 2.731091e-001 2.006665e-001 2.419452e-001 2.539914e-001 2.512614e-001 2.402507e-001 1.733364e-002
<GCONST> 7.315766e+001
<MIXTURE> 2 1.857471e-001
<MEAN> 39
 -1.465340e+001 -1.262196e+001 -4.006396e+000 -1.345122e+001 -1.188810e+001 -2.838382e+000 -1.387024e+001 -7.981950e+000 -2.134797e+000 -1.705597e+001 -8.166893e+000 -5.520517e+000 7.009598e+001 -7.361289e-001 -5.033025e-001 3.800547e-002 2.341197e-001 2.167002e-001 3.199529e-001 6.132357e-001 4.778411e-001 5.934020e-001 1.663771e-001 3.285807e-001 5.470524e-001 -4.368609e-001 3.327118e-002 -7.359602e-002 -2.633017e-001 -2.814635e-001 -5.307303e-002 2.281149e-001 3.620419e-001 6.377414e-001 4.184447e-001 3.210807e-001 9.188084e-002 -4.809412e-003 5.811302e-002
<VARIANCE> 39
 3.134537e+000 4.015603e+000 7.110478e+000 1.013002e+001 8.498147e+000 1.056090e+001 1.507878e+001 2.335051e+001 3.243204e+001 2.724825e+001 1.632420e+001 1.340591e+001 6.417852e+000 1.467421e-001 3.893554e-001 5.616319e-001 7.394493e-001 8.763936e-001 1.509961e+000 1.511901e+000 2.655918e+000 1.890507e+000 1.131286e+000 1.711305e+000 7.931024e-001 8.416867e-002 1.042319e-002 3.083387e-002 5.756354e-002 1.031952e-001 1.118973e-001 1.794312e-001 2.039596e-001 1.862494e-001 2.460863e-001 1.472177e-001 1.937066e-001 1.747539e-001 7.288533e-003
<GCONST> 6.742670e+001
<MIXTURE> 3 4.454190e-001
<MEAN> 39
 -1.455993e+001 -1.603260e+001 -5.843385e+000 -1.817221e+001 -1.255422e+001 -1.307828e+000 -7.373618e+000 -5.471643e-001 7.993840e+000 -1.124177e+001 -4.183162e+000 -2.952312e+000 7.360285e+001 -3.226686e-001 -1.415811e-001 -2.172458e-003 1.079612e-001 5.234406e-002 1.628237e-002 6.306939e-002 1.134608e-002 1.070082e-002 2.368663e-001 3.757291e-001 2.211023e-001 -1.781143e-001 7.349595e-002 5.387546e-002 -9.886392e-003 -3.612895e-002 -7.351521e-002 -1.000437e-001 -2.857056e-002 -3.371181e-002 -5.369025e-002 2.097453e-003 -1.624029e-002 -1.591506e-002 4.933484e-002
<VARIANCE> 39
 2.454052e+000 2.548150e+000 6.915021e+000 7.127498e+000 1.094320e+001 1.990205e+001 9.390882e+000 1.225741e+001 1.410793e+001 2.226533e+001 2.215886e+001 1.781107e+001 1.112942e+000 1.392455e-001 1.780835e-001 3.601538e-001 7.482027e-001 8.722767e-001 1.410427e+000 1.191975e+000 1.394545e+000 1.230080e+000 1.204732e+000 1.338426e+000 1.507879e+000 4.559742e-002 2.166815e-002 3.792413e-002 6.525367e-002 1.283639e-001 1.615726e-001 2.486555e-001 2.097440e-001 2.480948e-001 1.811087e-001 2.011121e-001 2.491259e-001 2.075920e-001 7.130498e-003
<GCONST> 6.381230e+001
<MIXTURE> 4 1.817789e-001
<MEAN> 39
 -1.752787e+001 -1.432966e+001 -6.582185e+000 -1.357113e+001 -1.140739e+001 7.806008e-001 -4.622408e+000 1.448920e+000 3.740618e+000 -6.923906e+000 -1.863375e+000 2.352713e-001 6.904180e+001 -6.508539e-001 -4.994788e-001 1.085252e-001 4.397285e-001 3.142377e-001 3.310343e-001 5.449186e-002 1.759474e-001 -2.195556e-001 -1.571349e-001 3.020843e-001 3.039006e-001 -4.192827e-001 2.386412e-001 1.966994e-001 -6.908968e-002 -2.957155e-001 -3.683978e-001 -3.146373e-001 -1.315799e-001 -9.184808e-003 2.744869e-001 1.342295e-001 -1.840741e-001 -7.175422e-002 1.563392e-001
<VARIANCE> 39
 2.355140e+000 6.490963e+000 7.549442e+000 7.542552e+000 9.212795e+000 2.089568e+001 3.630358e+001 2.012568e+001 3.319525e+001 4.711694e+001 3.463689e+001 2.903831e+001 3.397216e+000 3.496046e-001 6.805975e-001 7.299806e-001 1.159648e+000 1.619586e+000 1.916375e+000 1.386606e+000 1.796308e+000 2.286027e+000 1.686651e+000 1.899606e+000 1.532873e+000 2.406534e-001 2.741315e-002 6.444319e-002 1.260702e-001 2.580161e-001 3.240286e-001 2.265249e-001 1.769875e-001 2.930524e-001 3.881715e-001 3.131065e-001 2.873766e-001 1.848413e-001 1.900848e-002
<GCONST> 8.288777e+001
<TRANSP> 15
 0.000000e+000 1.000000e+000 0.000000e+000 0.000000e+000 0.000000e+000 0.000000e+000 0.000000e+000 0.000000e+000 0.000000e+000 0.000000e+000 0.000000e+000 0.000000e+000 0.000000e+000 0.000000e+000 0.000000e+000
 0.000000e+000 8.359914e-001 1.640086e-001 0.000000e+000 0.000000e+000 0.000000e+000 0.000000e+000 0.000000e+000 0.000000e+000 0.000000e+000 0.000000e+000 0.000000e+000 0.000000e+000 0.000000e+000 0.000000e+000
 0.000000e+000 0.000000e+000 7.726650e-001 2.273351e-001 0.000000e+000 0.000000e+000 0.000000e+000 0.000000e+000 0.000000e+000 0.000000e+000 0.000000e+000 0.000000e+000 0.000000e+000 0.000000e+000 0.000000e+000
 0.000000e+000 0.000000e+000 0.000000e+000 7.966452e-001 2.033549e-001 0.000000e+000 0.000000e+000 0.000000e+000 0.000000e+000 0.000000e+000 0.000000e+000 0.000000e+000 0.000000e+000 0.000000e+000 0.000000e+000
 0.000000e+000 0.000000e+000 0.000000e+000 0.000000e+000 7.961092e-001 2.038908e-001 0.000000e+000 0.000000e+000 0.000000e+000 0.000000e+000 0.000000e+000 0.000000e+000 0.000000e+000 0.000000e+000 0.000000e+000
 0.000000e+000 0.000000e+000 0.000000e+000 0.000000e+000 0.000000e+000 8.531314e-001 1.468686e-001 0.000000e+000 0.000000e+000 0.000000e+000 0.000000e+000 0.000000e+000 0.000000e+000 0.000000e+000 0.000000e+000
 0.000000e+000 0.000000e+000 0.000000e+000 0.000000e+000 0.000000e+000 0.000000e+000 8.214575e-001 1.785425e-001 0.000000e+000 0.000000e+000 0.000000e+000 0.000000e+000 0.000000e+000 0.000000e+000 0.000000e+000
 0.000000e+000 0.000000e+000 0.000000e+000 0.000000e+000 0.000000e+000 0.000000e+000 0.000000e+000 7.952151e-001 2.047849e-001 0.000000e+000 0.000000e+000 0.000000e+000 0.000000e+000 0.000000e+000 0.000000e+000
 0.000000e+000 0.000000e+000 0.000000e+000 0.000000e+000 0.000000e+000 0.000000e+000 0.000000e+000 0.000000e+000 7.353917e-001 2.646083e-001 0.000000e+000 0.000000e+000 0.000000e+000 0.000000e+000 0.000000e+000
 0.000000e+000 0.000000e+000 0.000000e+000 0.000000e+000 0.000000e+000 0.000000e+000 0.000000e+000 0.000000e+000 0.000000e+000 8.540103e-001 1.459897e-001 0.000000e+000 0.000000e+000 0.000000e+000 0.000000e+000
 0.000000e+000 0.000000e+000 0.000000e+000 0.000000e+000 0.000000e+000 0.000000e+000 0.000000e+000 0.000000e+000 0.000000e+000 0.000000e+000 8.234793e-001 1.765207e-001 0.000000e+000 0.000000e+000 0.000000e+000
 0.000000e+000 0.000000e+000 0.000000e+000 0.000000e+000 0.000000e+000 0.000000e+000 0.000000e+000 0.000000e+000 0.000000e+000 0.000000e+000 0.000000e+000 8.143091e-001 1.856909e-001 0.000000e+000 0.000000e+000
 0.000000e+000 0.000000e+000 0.000000e+000 0.000000e+000 0.000000e+000 0.000000e+000 0.000000e+000 0.000000e+000 0.000000e+000 0.000000e+000 0.000000e+000 0.000000e+000 7.481790e-001 2.518210e-001 0.000000e+000
 0.000000e+000 0.000000e+000 0.000000e+000 0.000000e+000 0.000000e+000 0.000000e+000 0.000000e+000 0.000000e+000 0.000000e+000 0.000000e+000 0.000000e+000 0.000000e+000 0.000000e+000 8.216012e-001 1.783989e-001
 0.000000e+000 0.000000e+000 0.000000e+000 0.000000e+000 0.000000e+000 0.000000e+000 0.000000e+000 0.000000e+000 0.000000e+000 0.000000e+000 0.000000e+000 0.000000e+000 0.000000e+000 0.000000e+000 0.000000e+000
<ENDHMM>
