~o
<STREAMINFO> 1 39
<VECSIZE> 39<NULLD><MFCC_D_A_0><DIAGC>
~h "ting_arm_l"
<BEGINHMM>
<NUMSTATES> 9
<STATE> 2
<NUMMIXES> 4
<MIXTURE> 1 5.626216e-001
<MEAN> 39
 -1.963005e+001 -1.037133e+001 -7.579649e+000 -1.528920e+001 -1.409313e+001 -2.032252e+000 -6.155252e+000 1.059647e+000 2.495358e+000 -9.298621e+000 -7.882239e+000 1.245947e+000 7.339302e+001 4.835039e-001 4.716547e-001 6.427054e-001 8.705921e-003 -3.763468e-001 -5.801104e-001 -6.403416e-001 -9.377936e-001 -6.469302e-001 -4.051314e-001 -3.633775e-001 -3.722921e-001 3.275860e-001 2.078718e-001 9.899770e-002 2.281640e-001 3.638682e-003 -1.380973e-001 -1.677843e-001 -2.580971e-001 -1.958073e-001 -1.586044e-001 -9.875587e-002 -5.306816e-002 -7.929322e-002 7.289388e-002
<VARIANCE> 39
 2.367933e+001 1.958205e+001 1.410200e+001 1.515365e+001 1.810952e+001 1.924926e+001 1.782573e+001 2.040093e+001 2.351877e+001 3.641337e+001 2.905812e+001 1.884039e+001 3.546948e+000 7.979394e-001 6.073319e-001 1.294181e+000 9.515138e-001 1.278624e+000 1.632122e+000 1.732944e+000 2.302241e+000 2.351119e+000 2.253373e+000 1.571673e+000 1.483405e+000 1.178895e-001 6.399210e-002 1.066815e-001 1.149609e-001 1.421723e-001 2.345029e-001 2.983755e-001 2.611282e-001 2.793366e-001 3.821983e-001 3.128696e-001 2.660585e-001 2.174930e-001 2.267446e-002
<GCONST> 8.809572e+001
<MIXTURE> 2 1.488493e-001
<MEAN> 39
 -1.492096e+001 -9.489568e+000 1.263245e+000 -1.013346e+001 -1.845923e+001 -5.169442e+000 -9.231854e+000 -2.667747e+000 -1.804079e+000 -9.346543e+000 -6.310100e+000 -3.801719e+000 7.564825e+001 1.113263e+000 8.164518e-001 1.703859e+000 7.372601e-001 -2.289516e+000 -1.536914e+000 -1.229627e+000 -5.969975e-001 -9.946439e-001 4.400628e-001 1.412998e+000 -1.934267e-001 1.048679e+000 -1.453511e-001 -1.918842e-001 -2.476311e-001 -2.650084e-001 -2.351327e-001 -7.661740e-002 3.247446e-001 2.566873e-001 1.910442e-001 2.635730e-001 2.466979e-001 4.532777e-001 3.221154e-002
<VARIANCE> 39
 1.268309e+001 1.415359e+001 2.000082e+001 2.011273e+001 2.669590e+001 2.055652e+001 4.163430e+001 1.618677e+001 4.148212e+001 5.480186e+001 3.336784e+001 1.213062e+001 4.333070e+000 4.769570e-001 3.284191e-001 9.796311e-001 1.374149e+000 2.063796e+000 2.446525e+000 2.874898e+000 9.070151e-001 2.424620e+000 2.966541e+000 2.226304e+000 1.840746e+000 2.603082e-001 4.384916e-002 8.147924e-002 1.403071e-001 1.366330e-001 3.010399e-001 2.371294e-001 2.726444e-001 1.564302e-001 2.592222e-001 2.620135e-001 3.171598e-001 2.480859e-001 4.195056e-002
<GCONST> 9.015658e+001
<MIXTURE> 3 1.782943e-001
<MEAN> 39
 -1.453160e+001 -6.845517e+000 -4.014026e+000 -1.822615e+001 -1.769011e+001 -9.002765e+000 -1.649377e+001 -6.163700e+000 -6.810112e+000 -1.221617e+001 -1.470521e+001 -1.504786e+000 7.499115e+001 9.450054e-001 8.375046e-001 1.011173e+000 -1.325952e+000 -5.375469e-001 -1.409410e+000 -9.026101e-001 -3.150475e-001 -1.334954e+000 6.257923e-001 -1.941920e+000 -7.435755e-001 6.791509e-001 -3.519672e-001 -3.075447e-001 -2.563171e-001 -9.012587e-002 3.434507e-001 6.178718e-001 7.738644e-001 8.293538e-001 8.547578e-001 8.394176e-001 3.152940e-001 1.104521e-002 -1.589000e-002
<VARIANCE> 39
 8.483754e+000 2.446633e+001 7.074692e+000 1.301800e+001 2.412917e+001 1.771826e+001 2.548840e+001 2.234257e+001 4.378406e+001 5.580535e+001 1.740766e+001 1.170103e+001 2.093827e+000 7.827291e-001 9.367409e-001 1.034893e+000 1.364776e+000 2.290397e+000 1.799783e+000 2.267775e+000 3.298818e+000 4.926533e+000 4.033720e+000 2.735059e+000 2.062312e+000 1.481763e-001 8.033256e-002 1.275991e-001 1.146657e-001 1.841577e-001 4.171581e-001 2.612771e-001 2.441374e-001 3.308226e-001 5.040862e-001 4.596230e-001 3.958242e-001 2.371574e-001 2.484514e-002
<GCONST> 9.337457e+001
<MIXTURE> 4 1.102348e-001
<MEAN> 39
 -1.259620e+001 -5.144668e+000 1.826014e+000 -1.070988e+001 -1.585093e+001 -4.335789e+000 -1.355752e+001 -9.588059e+000 -6.616251e+000 -1.815584e+001 -1.526151e+001 -3.029178e+000 7.496126e+001 1.468388e+000 7.894688e-001 1.679145e+000 9.378060e-001 -1.161203e+000 -8.432909e-001 -1.751622e+000 -2.187359e+000 -1.691726e+000 -1.231024e+000 -2.781914e-001 -9.988500e-001 6.041636e-001 -2.693011e-001 -3.781562e-001 -5.846609e-001 -3.634373e-001 -2.233620e-001 6.671390e-002 5.482184e-001 9.137074e-001 6.467221e-001 7.679766e-001 4.521162e-001 1.788510e-001 -4.003581e-002
<VARIANCE> 39
 5.773736e+000 8.594813e+000 1.616777e+001 1.701770e+001 1.351458e+001 2.418814e+001 2.996246e+001 1.116823e+001 2.137576e+001 3.063495e+001 2.785714e+001 3.290118e+001 3.223934e+000 4.385797e-001 7.223924e-001 1.290557e+000 8.671879e-001 1.234092e+000 3.128051e-001 1.956388e+000 2.896913e+000 1.350860e+000 1.943619e+000 1.562891e+000 1.817737e+000 5.150177e-002 4.856272e-002 5.905284e-002 1.167326e-001 1.017995e-001 6.979778e-002 1.264462e-001 2.399436e-001 2.620851e-001 3.032636e-001 2.039443e-001 1.794353e-001 2.386589e-001 1.322388e-002
<GCONST> 7.802374e+001
<STATE> 3
<NUMMIXES> 4
<MIXTURE> 1 7.064188e-002
<MEAN> 39
 -1.123894e+001 -1.548822e+001 1.927668e+000 -1.050763e+001 -2.531689e+001 -2.316892e+001 -5.268474e+000 3.631165e+000 1.586221e+001 -1.098441e+001 -2.249210e+000 1.498696e+000 8.129739e+001 9.354420e-001 -1.131638e+000 -1.720595e+000 7.591197e-002 -4.165540e-001 5.569976e-003 5.061473e-001 1.965468e+000 2.101025e+000 9.705282e-001 -8.690768e-001 -1.899346e+000 6.685851e-001 -1.316018e-001 2.692206e-002 -4.785914e-001 8.125222e-002 7.534110e-001 1.061952e+000 7.858834e-002 -1.699785e-001 -3.491457e-001 3.943987e-001 -6.200029e-001 -7.680741e-001 -2.295566e-001
<VARIANCE> 39
 4.062644e+000 1.361267e+001 2.460629e+001 1.138989e+001 8.990413e+000 1.392734e+001 2.065578e+001 5.692658e+001 9.649244e+001 2.663293e+001 3.590601e+001 4.879998e+001 6.824479e+000 1.614119e-001 3.278491e-001 2.075885e+000 8.795218e-001 5.020960e+000 9.139657e+000 6.145927e-001 3.075702e+000 3.556140e+000 1.547691e+000 6.664873e+000 1.062059e+001 6.815321e-001 3.793884e-002 1.557428e-001 4.111170e-001 1.694432e-001 1.860465e-001 6.688088e-001 1.082416e-001 1.274975e+000 5.512679e-001 4.837903e-001 1.117822e+000 1.628668e+000 7.953063e-002
<GCONST> 1.030599e+002
<MIXTURE> 2 2.756469e-001
<MEAN> 39
 -1.509490e+001 -7.873407e+000 -2.966182e+000 -2.468654e+001 -1.251852e+001 -1.177489e+001 -1.206407e+001 -5.888210e+000 -1.704879e+000 -7.159785e+000 -1.724919e+001 3.680332e-001 7.663361e+001 1.513605e-001 -2.474517e-001 3.432796e-002 -3.858010e-001 -4.119052e-002 2.230171e-001 4.981265e-001 1.064729e+000 8.121568e-001 8.268783e-001 -1.515120e-001 -4.421327e-001 2.409563e-001 3.201083e-002 -7.297596e-002 -9.506480e-002 3.226131e-001 -1.471249e-002 1.996400e-001 4.453537e-002 1.161689e-001 1.262488e-001 -9.550518e-002 4.070515e-001 -2.839442e-002 -5.954140e-002
<VARIANCE> 39
 4.091291e+000 2.039334e+001 5.403258e+000 1.591400e+001 5.636354e+001 1.768309e+001 3.043925e+001 3.538808e+001 5.328063e+001 6.009249e+001 3.771321e+001 3.551625e+001 1.781097e+000 3.644899e-001 2.875077e-001 8.300414e-001 1.403996e+000 2.087094e+000 1.028722e+000 1.000321e+000 2.442811e+000 2.917552e+000 3.746261e+000 2.054709e+000 2.012972e+000 1.641557e-001 5.342791e-002 4.221812e-002 8.301260e-002 1.522453e-001 4.727489e-001 2.308034e-001 2.377368e-001 3.938387e-001 4.596463e-001 2.733707e-001 3.445649e-001 3.427006e-001 1.152708e-002
<GCONST> 8.812707e+001
<MIXTURE> 3 4.603529e-001
<MEAN> 39
 -1.291015e+001 -7.936874e+000 2.736057e+000 -1.053906e+001 -2.674153e+001 -5.197731e+000 -9.304768e+000 -4.318635e+000 -5.054383e+000 -5.871638e+000 -6.846758e+000 -3.517158e+000 7.717208e+001 3.377667e-001 -1.232374e-001 -1.263578e-001 -5.965952e-002 -1.516069e+000 -6.090791e-001 7.758743e-001 9.605955e-001 5.308535e-001 1.209170e+000 4.096517e-001 -3.358732e-001 3.960569e-001 -6.459376e-002 -7.840682e-002 -3.197761e-001 -1.387469e-001 3.577713e-001 -2.058377e-002 1.249675e-001 4.708670e-001 4.289773e-001 2.545965e-002 -1.028703e-001 -2.656594e-002 -7.734587e-002
<VARIANCE> 39
 9.045163e+000 1.269386e+001 2.590021e+001 4.382326e+001 3.224939e+001 2.290043e+001 6.146806e+001 2.980005e+001 4.555214e+001 8.374563e+001 4.801659e+001 1.808837e+001 4.244829e+000 1.735208e-001 1.935086e-001 6.088164e-001 6.786051e-001 1.293321e+000 7.396913e-001 1.741937e+000 1.839463e+000 1.698630e+000 1.267591e+000 1.326555e+000 1.097046e+000 7.970557e-002 3.226782e-002 7.259659e-002 1.185293e-001 1.120137e-001 2.452858e-001 1.834835e-001 3.008279e-001 2.183899e-001 3.189660e-001 2.938440e-001 2.855597e-001 2.193273e-001 1.163886e-002
<GCONST> 8.369366e+001
<MIXTURE> 4 1.933582e-001
<MEAN> 39
 -9.426072e+000 -4.885159e+000 1.533260e+000 -1.368147e+001 -2.031164e+001 -7.758120e+000 -1.712565e+001 -6.904892e+000 -4.968612e+000 -1.819968e+001 -1.919392e+001 -8.123488e+000 7.617626e+001 2.920946e-001 -2.166700e-001 -7.103767e-002 -3.833909e-001 -2.520825e-001 1.409820e-001 2.675298e-001 4.733881e-001 8.988097e-001 2.159258e-001 2.381485e-001 -1.825991e-001 2.202184e-002 -9.144893e-002 -6.377648e-002 -1.875307e-001 -5.775458e-002 1.405912e-001 4.277901e-002 1.448545e-001 1.155840e-001 4.233997e-002 -6.390162e-002 1.587791e-001 5.773056e-002 -6.162037e-002
<VARIANCE> 39
 1.041603e+000 1.032174e+001 8.618400e+000 1.418059e+001 1.453006e+001 1.660719e+001 2.614199e+001 1.484895e+001 2.426271e+001 1.858669e+001 1.086357e+001 9.034033e+000 4.274574e+000 8.413860e-002 1.913983e-001 4.478019e-001 5.484456e-001 6.291490e-001 1.033050e+000 6.759577e-001 6.866168e-001 8.862312e-001 1.012698e+000 8.680045e-001 4.559780e-001 3.742799e-002 3.098092e-002 4.245670e-002 5.807294e-002 1.164994e-001 9.018264e-002 1.394079e-001 1.160830e-001 1.498633e-001 2.447304e-001 1.631424e-001 1.024411e-001 8.956914e-002 5.083078e-003
<GCONST> 5.815329e+001
<STATE> 4
<NUMMIXES> 4
<MIXTURE> 1 1.854575e-001
<MEAN> 39
 -1.211447e+001 -9.625731e+000 -1.459057e+000 -9.932295e+000 -3.069386e+001 -1.004911e+001 -2.007406e+000 3.346504e+000 3.894938e+000 -7.848292e-001 -3.144297e+000 -7.257220e+000 7.721571e+001 3.913573e-001 2.399959e-002 -8.573614e-001 -9.626660e-001 1.227365e+000 1.270429e-001 -7.421516e-001 8.112198e-001 2.408858e+000 8.121522e-001 -1.464724e-002 -6.505424e-001 -8.521819e-002 -6.984419e-003 5.633565e-002 -1.146035e-002 -8.647938e-002 4.077664e-001 4.080102e-001 -3.392043e-001 -5.422828e-001 -1.175139e-001 -2.225958e-001 -1.482551e-001 -3.491512e-002 -7.575463e-002
<VARIANCE> 39
 4.400538e+000 8.605841e+000 8.901012e+000 2.520519e+001 1.750451e+001 1.633186e+001 7.105721e+001 3.479011e+001 4.610954e+001 1.542863e+001 1.490095e+001 1.047305e+001 1.671265e+000 1.078115e-001 1.426212e-001 5.761669e-001 5.971476e-001 1.016240e+000 1.970969e+000 1.702045e+000 2.530818e+000 7.866939e-001 1.105364e+000 2.149319e+000 1.227400e+000 3.771722e-002 3.045990e-002 1.630370e-002 5.793741e-002 1.033412e-001 1.918233e-001 2.487495e-001 3.174663e-001 3.186879e-001 2.816619e-001 1.739767e-001 1.530274e-001 1.325895e-001 4.852037e-003
<GCONST> 7.048872e+001
<MIXTURE> 2 3.825829e-001
<MEAN> 39
 -9.219408e+000 -1.078710e+001 -4.364011e+000 -2.155959e+001 -2.007032e+001 -5.524685e+000 -8.067020e+000 3.703762e+000 5.900020e+000 -1.338965e+001 -1.011528e+001 -6.924291e+000 7.707457e+001 1.788754e-001 -5.240202e-002 -4.931851e-001 -2.326294e-001 2.255154e-001 -3.280795e-002 3.808087e-001 7.893889e-001 3.357230e-001 4.905579e-002 2.027369e-001 -4.286776e-002 7.864227e-002 -6.557512e-002 -7.917300e-002 -6.494068e-002 7.956091e-002 1.369774e-001 6.095852e-002 -1.234490e-001 -1.950487e-001 -1.545860e-001 -1.424395e-001 -6.105099e-002 1.268701e-001 -2.683510e-002
<VARIANCE> 39
 1.699951e+000 2.723881e+000 5.398705e+000 9.182425e+000 8.512604e+000 1.309498e+001 2.406358e+001 3.666474e+001 3.129219e+001 1.633506e+001 1.435021e+001 1.362113e+001 4.359067e-001 7.323225e-002 2.650632e-001 5.438039e-001 4.287226e-001 1.419064e+000 1.308889e+000 1.212277e+000 2.340171e+000 1.549212e+000 2.044093e+000 1.346893e+000 1.045280e+000 3.482625e-002 1.779933e-002 3.467242e-002 1.006554e-001 9.561415e-002 1.786988e-001 2.276410e-001 1.721265e-001 2.446901e-001 2.398176e-001 2.838780e-001 1.908151e-001 1.442547e-001 5.013340e-003
<GCONST> 6.371404e+001
<MIXTURE> 3 3.315373e-001
<MEAN> 39
 -1.081203e+001 -7.953410e+000 -2.399891e+000 -1.626661e+001 -2.111613e+001 -7.673917e+000 -1.432981e+001 4.877525e+000 -2.401139e+000 1.395472e-001 -1.262494e+001 -5.458694e+000 7.977333e+001 4.238047e-001 -5.617467e-001 -1.280102e+000 4.268678e-001 1.786183e+000 2.775830e-002 -9.117126e-001 8.230796e-001 8.516849e-001 -9.929842e-001 -1.164183e-001 -1.556003e-001 1.430252e-001 -5.725235e-002 -1.109414e-002 -1.044021e-001 1.651767e-002 2.562414e-001 8.385020e-002 -3.316617e-001 -4.030586e-001 -3.840943e-002 -2.560974e-001 -9.775386e-002 -8.408783e-002 -1.142098e-001
<VARIANCE> 39
 1.220065e+001 1.083618e+001 3.061965e+001 2.311086e+001 8.015457e+001 2.401117e+001 6.358990e+001 5.367834e+001 1.324382e+002 9.869333e+001 4.583975e+001 2.405896e+001 9.184254e+000 1.573055e-001 4.506010e-001 1.036664e+000 9.191799e-001 1.898621e+000 1.841678e+000 2.201987e+000 2.129825e+000 2.983873e+000 3.349295e+000 2.137450e+000 1.495031e+000 1.074558e-001 2.382076e-002 6.982502e-002 1.396776e-001 1.445962e-001 3.838139e-001 2.894555e-001 3.061251e-001 4.029884e-001 4.561760e-001 8.102618e-001 3.725685e-001 2.664518e-001 1.180432e-002
<GCONST> 9.652240e+001
<MIXTURE> 4 1.004223e-001
<MEAN> 39
 -2.218673e+001 3.989924e-001 3.277276e+000 -3.015095e+001 -6.951851e+000 -9.091025e+000 -1.462551e+001 6.581964e+000 -1.180874e+001 4.875923e+000 -2.715648e+001 4.796101e+000 7.857500e+001 -7.174546e-002 -1.279868e-001 3.241192e-001 -2.593581e-001 -1.443399e-001 3.304479e-001 5.121250e-001 1.719902e-001 6.023572e-004 3.797961e-001 -7.491102e-001 3.856074e-001 1.093985e-001 1.191523e-001 -1.093258e-001 -2.376025e-001 1.857600e-001 -2.073112e-001 6.531095e-003 8.322749e-002 -3.059652e-001 1.154073e-001 -2.151261e-001 3.250179e-001 -1.825704e-001 -9.365266e-002
<VARIANCE> 39
 3.125473e+000 3.445901e+000 1.234328e+001 4.742020e+000 9.225532e+000 1.545409e+001 1.337070e+001 2.609677e+001 8.094903e+000 1.317655e+001 8.393288e+000 9.208208e+000 1.846267e+000 2.719184e-001 3.945677e-001 1.025195e+000 6.051577e-001 1.974307e+000 1.067279e+000 1.235327e+000 2.398201e+000 1.200374e+000 1.823917e+000 1.363441e+000 1.040909e+000 1.143591e-001 3.968707e-002 6.409398e-002 1.017901e-001 2.154120e-001 3.761543e-001 2.990858e-001 1.924563e-001 4.595680e-001 4.165558e-001 2.397629e-001 1.672097e-001 1.717989e-001 7.143579e-003
<GCONST> 7.145610e+001
<STATE> 5
<NUMMIXES> 4
<MIXTURE> 1 2.510713e-001
<MEAN> 39
 -7.785612e+000 -1.143978e+001 -9.406662e+000 -1.582481e+001 -1.773320e+001 -3.131805e+000 -1.141296e+001 4.993389e+000 1.292948e+001 -1.510564e+000 -8.049765e+000 -1.107832e+001 8.050307e+001 1.718513e-001 1.691965e-001 -6.426631e-001 -5.181921e-001 1.014325e+000 1.232294e+000 -4.439175e-001 -9.638632e-001 -6.674150e-001 -6.570110e-003 6.967341e-001 -2.076190e-001 -3.339105e-001 -6.828575e-002 1.465242e-002 3.689182e-001 7.931262e-002 -4.249113e-001 -2.318698e-001 2.626497e-001 -3.496304e-002 -4.104083e-001 -2.663792e-001 1.389226e-001 3.856165e-001 -7.860453e-002
<VARIANCE> 39
 7.363358e+000 2.235065e+001 1.776547e+001 9.092299e+000 1.928722e+001 2.701747e+001 1.365689e+002 3.010800e+001 4.524513e+001 3.006219e+001 3.290800e+001 2.600381e+001 6.376675e+000 8.892228e-002 1.695404e-001 6.752509e-001 4.599249e-001 8.693742e-001 1.400812e+000 1.480385e+000 1.019586e+000 1.295872e+000 1.309487e+000 1.282358e+000 2.040272e+000 1.199061e-001 1.585040e-002 2.780529e-002 7.035542e-002 8.371632e-002 1.241766e-001 1.821111e-001 2.762681e-001 1.907336e-001 2.285925e-001 2.068017e-001 2.905672e-001 3.274820e-001 5.799792e-003
<GCONST> 7.672903e+001
<MIXTURE> 2 1.626277e-001
<MEAN> 39
 -1.071417e+001 -1.084478e+001 -1.173273e+001 -1.458115e+001 -7.671296e+000 -8.839449e+000 -2.160804e+001 -2.955123e+000 -7.832161e-003 -3.247007e+000 -1.576658e+001 -8.654678e+000 7.739188e+001 3.197091e-001 -1.295391e-001 -3.824182e-001 -7.781315e-002 4.178555e-001 7.808912e-001 -4.778256e-001 -1.586243e+000 2.029003e-001 -3.280227e-001 8.230417e-001 -5.121928e-001 -3.414263e-001 -4.082910e-002 1.208509e-001 2.659842e-001 -1.487738e-001 -3.148454e-001 1.692224e-001 6.018546e-001 -1.283738e-001 -3.557285e-001 6.318565e-002 2.020998e-001 1.872950e-001 -4.730121e-002
<VARIANCE> 39
 4.499754e+000 4.407656e+000 1.557182e+001 2.284616e+001 6.356180e+001 1.585923e+001 8.736652e+001 5.435281e+001 9.581213e+001 2.043951e+001 3.463694e+001 3.146044e+001 3.701730e+000 8.120807e-002 5.915066e-001 6.331786e-001 7.345740e-001 1.516377e+000 1.236037e+000 3.874071e+000 7.176894e-001 3.004785e+000 1.271071e+000 2.200463e+000 1.268521e+000 8.032021e-002 2.234253e-002 9.433216e-002 9.554893e-002 1.489631e-001 2.396397e-001 2.369890e-001 3.926055e-001 2.096784e-001 3.335435e-001 2.311035e-001 2.752279e-001 2.254630e-001 9.051943e-003
<GCONST> 8.366962e+001
<MIXTURE> 3 5.012498e-001
<MEAN> 39
 -7.809745e+000 -1.080490e+001 -4.169394e+000 -1.561906e+001 -1.492614e+001 -5.219151e+000 -1.075745e+001 -1.264449e+000 2.268258e+000 -1.698787e+001 -5.583317e+000 -4.960373e+000 7.750890e+001 -1.295963e-001 -5.444538e-002 8.944999e-002 2.452416e-002 3.340635e-001 2.888225e-001 -3.561733e-002 -2.523931e-001 1.933780e-001 -1.185347e-001 3.385504e-002 -2.255719e-001 -1.822557e-001 -6.129678e-002 1.934841e-003 4.334829e-002 3.144814e-002 2.657408e-003 3.579229e-002 3.569787e-002 -3.110348e-002 -5.097384e-003 1.237398e-002 -4.595592e-002 -7.210901e-002 -2.995730e-002
<VARIANCE> 39
 1.816407e+000 5.033636e+000 2.851915e+001 4.076394e+001 1.168346e+001 1.663734e+001 2.161358e+001 2.162315e+001 2.363924e+001 1.382169e+001 2.830560e+001 1.661935e+001 1.368981e+000 8.319543e-002 1.904952e-001 4.223530e-001 6.253216e-001 6.257020e-001 8.701552e-001 6.719860e-001 1.084680e+000 9.292743e-001 1.380779e+000 9.587461e-001 8.781494e-001 2.653002e-002 9.575249e-003 3.580102e-002 6.717610e-002 8.081947e-002 8.128358e-002 1.293805e-001 1.263002e-001 1.905013e-001 1.392811e-001 2.310246e-001 1.687662e-001 1.501592e-001 4.972797e-003
<GCONST> 6.077790e+001
<MIXTURE> 4 8.505116e-002
<MEAN> 39
 -1.761821e+001 -3.260733e+000 -2.957860e+000 -2.854225e+001 -1.235677e+001 -8.090896e+000 -8.905680e+000 4.613038e+000 -8.533293e+000 2.973428e+000 -2.250820e+001 1.856184e-001 7.648420e+001 7.344574e-001 -4.208471e-001 -9.439684e-001 6.898828e-001 -6.547104e-001 1.852371e-001 2.296895e-002 -2.145044e-001 8.228120e-001 -4.719515e-001 1.033004e+000 -9.051531e-001 -3.046651e-001 -7.146812e-003 1.780709e-002 4.324144e-002 2.001815e-002 6.892660e-002 5.569246e-002 -1.288580e-001 -5.384511e-002 8.776981e-002 -1.462241e-001 -2.659675e-002 1.705344e-001 7.902457e-003
<VARIANCE> 39
 6.262042e+000 1.618392e+000 1.268840e+001 1.005303e+001 1.563410e+001 1.296875e+001 1.121782e+001 7.924870e+000 1.682495e+001 1.967715e+001 2.858240e+001 1.494064e+001 1.585236e+000 1.621519e-001 1.165276e-001 4.719404e-001 4.952531e-001 7.336621e-001 1.109080e+000 5.680026e-001 5.945650e-001 6.314765e-001 9.729342e-001 1.793090e+000 6.934823e-001 4.265578e-002 3.347987e-002 1.846443e-002 5.961963e-002 1.021644e-001 1.692300e-001 1.465751e-001 8.473875e-002 1.156652e-001 1.823640e-001 2.171762e-001 3.548480e-001 1.396421e-001 6.110761e-003
<GCONST> 5.868028e+001
<STATE> 6
<NUMMIXES> 4
<MIXTURE> 1 2.055811e-001
<MEAN> 39
 -7.886277e+000 -9.199231e+000 -6.627553e+000 -1.650315e+001 -1.883542e+001 -3.472096e-001 -1.013939e+001 -1.398144e+000 5.485068e+000 -4.080451e+000 -2.632086e+000 -9.741639e+000 7.650499e+001 -3.413393e-001 1.281143e-001 7.456990e-001 1.067829e-001 9.628457e-004 2.730015e-001 4.464920e-001 -5.686041e-001 -5.900827e-001 -1.441338e+000 -5.432523e-001 2.699631e-002 -5.497281e-001 -9.883428e-002 1.725758e-002 1.512868e-001 2.032440e-001 8.458599e-002 -2.271827e-001 -9.368239e-002 1.562326e-001 4.526928e-002 -1.675131e-001 -1.135914e-001 8.764450e-003 -3.755293e-002
<VARIANCE> 39
 5.783741e+000 6.283178e+000 2.414766e+001 1.097148e+001 2.471008e+001 2.099199e+001 2.269004e+001 1.482128e+001 1.991442e+001 3.059927e+001 1.506034e+001 2.934009e+001 4.662396e+000 1.730093e-001 3.898654e-001 4.898555e-001 5.417405e-001 7.549648e-001 1.801180e+000 1.035485e+000 1.016105e+000 1.289166e+000 8.756492e-001 1.526263e+000 2.207092e+000 7.741212e-002 1.446240e-002 4.694867e-002 5.632518e-002 8.286306e-002 1.228381e-001 1.725792e-001 1.653139e-001 1.180474e-001 1.815908e-001 1.424695e-001 3.386533e-001 3.025101e-001 2.868110e-003
<GCONST> 6.983467e+001
<MIXTURE> 2 1.122127e-001
<MEAN> 39
 -7.962650e+000 -7.776811e+000 -8.976004e+000 -1.395377e+001 -1.413013e+001 -1.184337e+000 -2.340737e+001 1.303209e+000 -5.336971e+000 -4.760604e+000 -8.272761e+000 -8.001413e+000 7.727429e+001 5.466625e-003 2.929525e-001 5.689788e-001 1.215072e-001 -7.288495e-001 4.782534e-002 1.703942e+000 -1.092658e+000 -5.328121e-001 -1.461987e+000 -2.548812e-001 8.025378e-001 -7.439541e-001 -1.157980e-001 -5.716382e-002 1.251203e-001 -6.111862e-003 5.631708e-002 -1.171400e-001 -1.316508e-001 1.206056e-001 2.470153e-001 -1.075914e-001 -1.109254e-001 -1.328669e-001 -2.208390e-003
<VARIANCE> 39
 9.641251e-001 1.015271e+001 4.007016e+000 4.526758e+000 6.678699e+001 3.135545e+001 1.676339e+001 8.524910e+001 4.046496e+001 3.234503e+001 5.373243e+001 1.261156e+001 3.014717e+000 1.661697e-001 2.842034e-001 5.790288e-001 5.938305e-001 1.010176e+000 8.941282e-001 7.267247e-001 6.425053e-001 8.570279e-001 2.103307e+000 1.976418e+000 9.583123e-001 5.298903e-002 1.457828e-002 4.812124e-002 8.373231e-002 7.962598e-002 1.568379e-001 1.163237e-001 1.095423e-001 1.323406e-001 9.074075e-002 3.191243e-001 4.100041e-001 1.692864e-001 5.957501e-003
<GCONST> 6.803038e+001
<MIXTURE> 3 3.961657e-001
<MEAN> 39
 -9.059555e+000 -8.510527e+000 -6.867134e-001 -1.387761e+001 -1.538768e+001 -5.962894e+000 -1.468397e+001 -8.706416e+000 -3.489577e+000 -2.208024e+001 -1.573244e+001 -9.907896e+000 7.494778e+001 -2.716771e-001 -2.331901e-001 1.012063e-001 3.123543e-001 4.650048e-001 2.558516e-001 4.894647e-002 -2.521762e-001 -2.481602e-001 -4.099896e-001 -1.499930e-001 -8.773332e-002 -2.099347e-001 -2.718615e-002 -7.521835e-003 -6.934446e-004 -2.422182e-002 -1.643711e-002 5.033825e-002 6.400175e-002 7.884300e-002 5.150541e-002 6.910817e-002 8.480021e-002 2.227668e-002 -1.819008e-003
<VARIANCE> 39
 2.240185e+000 4.857810e+000 5.177749e+000 1.355793e+001 1.168017e+001 1.222559e+001 1.805828e+001 1.370921e+001 2.107265e+001 2.347542e+001 1.450696e+001 1.210572e+001 4.132050e+000 9.487284e-002 1.407543e-001 2.827002e-001 4.892668e-001 4.989175e-001 7.324653e-001 6.274650e-001 1.026444e+000 6.692030e-001 7.846606e-001 1.015198e+000 6.607341e-001 3.691013e-002 1.465422e-002 2.500314e-002 6.518913e-002 9.496742e-002 6.834010e-002 1.384131e-001 1.429793e-001 1.721653e-001 1.335618e-001 1.402693e-001 1.456136e-001 9.134810e-002 6.283553e-003
<GCONST> 5.476760e+001
<MIXTURE> 4 2.860405e-001
<MEAN> 39
 -1.061280e+001 -1.042450e+001 -9.459535e+000 -1.927239e+001 -1.319843e+001 -4.805633e+000 -1.449938e+001 -4.306344e+000 9.557235e-001 -5.340569e+000 -1.015641e+001 -4.317109e+000 7.451882e+001 -9.756630e-002 -1.519634e-001 2.722356e-001 6.347611e-002 -5.299516e-001 1.402081e-001 -2.860140e-002 -5.523437e-001 -1.627928e-001 -6.396090e-001 4.978627e-001 7.884644e-002 -3.654689e-001 -8.157667e-002 3.342967e-002 1.318344e-001 -6.793782e-003 -1.922441e-001 -7.148236e-002 7.742455e-002 2.038828e-001 -1.258501e-002 -9.439798e-002 -8.783255e-002 -3.323024e-002 -2.028888e-002
<VARIANCE> 39
 4.487763e+000 9.519739e+000 1.085370e+001 1.906405e+001 2.878841e+001 9.023623e+000 3.368546e+001 8.331712e+001 2.834139e+001 3.847800e+001 4.012570e+001 3.874514e+001 2.252609e+000 1.402339e-001 2.214601e-001 6.518518e-001 7.422348e-001 7.981089e-001 6.707227e-001 6.258976e-001 1.359660e+000 1.266099e+000 1.688051e+000 1.332039e+000 7.217499e-001 2.659883e-002 1.549719e-002 3.335109e-002 8.570413e-002 1.293713e-001 1.245433e-001 1.456718e-001 1.035190e-001 1.724107e-001 2.277769e-001 2.231640e-001 2.414861e-001 1.123375e-001 3.735899e-003
<GCONST> 6.924707e+001
<STATE> 7
<NUMMIXES> 4
<MIXTURE> 1 3.448491e-001
<MEAN> 39
 -1.143476e+001 -1.331364e+001 -4.543986e+000 -1.850226e+001 -1.466028e+001 -1.770239e+000 -6.077377e+000 1.328129e+000 6.099349e+000 -1.718135e+001 -9.302142e+000 -6.351474e+000 7.533501e+001 -3.422899e-001 -2.463757e-001 5.966629e-002 2.265418e-001 2.088808e-001 1.190290e-001 1.489345e-001 -1.459410e-001 -5.204932e-002 7.161412e-002 1.669685e-001 1.714205e-001 -1.896922e-001 -2.485216e-003 -4.847521e-003 -5.426311e-002 -1.317882e-002 2.388186e-002 -7.744907e-002 -1.451994e-001 -2.810832e-002 -2.989696e-002 1.353991e-001 8.582248e-002 1.024636e-001 1.629619e-002
<VARIANCE> 39
 1.878625e+000 3.103803e+000 8.986417e+000 1.733860e+001 1.074580e+001 1.386932e+001 2.169286e+001 2.605273e+001 3.333114e+001 3.114881e+001 1.177354e+001 9.709576e+000 5.415572e-001 7.908811e-002 1.900468e-001 4.610340e-001 9.492767e-001 1.009638e+000 9.890122e-001 1.513046e+000 1.238834e+000 1.353723e+000 1.425302e+000 1.446901e+000 9.022761e-001 4.268732e-002 1.256600e-002 2.470502e-002 9.308955e-002 1.344166e-001 1.645328e-001 1.291679e-001 2.164353e-001 1.614330e-001 1.967027e-001 2.010830e-001 3.662092e-001 1.486649e-001 5.520506e-003
<GCONST> 6.327012e+001
<MIXTURE> 2 1.770363e-001
<MEAN> 39
 -1.190847e+001 -9.228151e+000 -9.441746e-001 -1.174438e+001 -1.010651e+001 -1.203647e+000 -1.438929e+001 -9.777391e+000 -6.584445e+000 -1.966068e+001 -1.227995e+001 -8.788664e+000 7.168577e+001 -7.545224e-001 -6.817850e-001 -5.223147e-002 -3.509154e-001 2.380912e-001 8.263266e-001 9.723768e-001 6.510451e-001 8.154779e-001 -1.891007e-002 6.238475e-001 2.397111e-001 -4.904855e-001 -1.069441e-001 -2.039573e-001 -2.886964e-001 -1.683747e-001 -1.649880e-001 -3.774383e-002 2.051485e-001 4.900099e-001 5.456501e-001 4.938337e-001 2.890410e-001 1.925717e-001 8.284490e-003
<VARIANCE> 39
 2.005421e+000 5.444401e+000 1.401318e+001 1.158692e+001 7.786985e+000 4.315515e+001 3.129213e+001 2.575743e+001 2.981717e+001 3.089005e+001 2.674535e+001 1.504091e+001 5.942861e+000 1.621508e-001 2.104826e-001 5.990433e-001 7.894266e-001 8.498101e-001 1.195770e+000 8.142251e-001 1.312804e+000 1.840674e+000 1.262550e+000 9.291417e-001 8.614389e-001 6.178939e-002 2.415745e-002 1.912795e-002 3.909986e-002 1.316204e-001 1.562751e-001 3.104153e-001 1.878519e-001 1.828613e-001 2.705574e-001 2.445504e-001 1.886712e-001 2.292853e-001 9.961405e-003
<GCONST> 7.025301e+001
<MIXTURE> 3 2.626870e-001
<MEAN> 39
 -1.222238e+001 -8.478419e+000 -8.563828e-001 -1.178469e+001 -2.034437e+001 -2.243396e+000 -6.600624e+000 -4.268365e+000 8.628286e+000 -5.857418e+000 -6.523038e+000 -8.728944e+000 7.197643e+001 -1.450388e-001 -2.074620e-002 2.131156e-001 -8.607420e-002 1.034716e+000 4.916503e-001 -1.905034e-001 -1.306460e-001 -6.092521e-001 -8.837408e-001 -6.101443e-002 7.228143e-001 -4.579956e-001 -4.450819e-002 -8.028141e-002 -7.503210e-002 -2.760687e-002 7.592180e-002 5.867225e-002 3.941398e-002 6.173966e-002 -1.192466e-001 3.749760e-002 1.811571e-002 5.851124e-002 -3.204700e-003
<VARIANCE> 39
 3.525489e+000 6.511166e+000 1.227148e+001 9.819515e+000 2.462039e+001 1.374926e+001 1.098245e+001 2.683701e+001 2.361917e+001 2.004552e+001 2.180286e+001 1.738225e+001 1.891351e+000 8.065446e-002 1.930341e-001 5.665047e-001 7.326989e-001 5.471695e-001 7.616285e-001 9.099351e-001 8.967052e-001 1.208161e+000 9.825004e-001 1.330125e+000 5.712976e-001 3.655785e-002 1.421815e-002 2.194854e-002 6.900994e-002 9.475523e-002 1.059102e-001 1.388436e-001 1.510311e-001 1.086197e-001 1.718249e-001 1.017160e-001 1.940988e-001 1.386099e-001 6.341349e-003
<GCONST> 6.016044e+001
<MIXTURE> 4 2.154277e-001
<MEAN> 39
 -1.221837e+001 -9.257078e+000 -4.780692e+000 -1.687807e+001 -1.835112e+001 -3.866769e+000 -1.325639e+001 -2.024635e+000 -5.069370e-001 -1.240585e+001 -1.057998e+001 -5.872621e+000 7.167635e+001 -6.173714e-001 -2.673488e-001 6.386857e-001 5.945016e-001 4.330148e-001 3.266605e-001 2.616252e-001 -4.039115e-001 -2.922910e-001 -1.214513e+000 2.899961e-001 2.597425e-001 -4.888315e-001 -5.256775e-002 -1.072767e-001 -1.608247e-001 8.130684e-002 3.336044e-001 2.474995e-001 7.055614e-002 -1.466430e-001 4.336316e-002 1.241293e-001 8.043559e-002 9.730437e-002 2.308447e-002
<VARIANCE> 39
 3.787123e+000 6.181977e+000 5.545918e+000 1.123445e+001 1.047358e+001 1.266158e+001 1.682557e+001 3.261594e+001 1.620412e+001 1.305044e+001 2.439452e+001 1.871314e+001 2.986387e+000 1.504704e-001 2.995137e-001 5.010833e-001 4.715726e-001 1.332779e+000 1.039960e+000 9.434552e-001 1.510908e+000 9.666874e-001 9.786572e-001 1.151543e+000 1.196044e+000 8.352747e-002 1.297177e-002 2.982519e-002 9.150206e-002 1.105639e-001 9.954861e-002 1.458764e-001 1.564682e-001 2.229236e-001 2.149004e-001 2.285561e-001 2.260598e-001 2.295627e-001 6.671053e-003
<GCONST> 6.562921e+001
<STATE> 8
<NUMMIXES> 4
<MIXTURE> 1 2.201206e-001
<MEAN> 39
 -1.572501e+001 -1.361751e+001 -3.666970e+000 -1.373882e+001 -1.003691e+001 3.150950e+000 -4.737752e+000 1.531640e+000 4.540660e+000 -1.224777e+001 -3.841396e+000 -3.272285e+000 7.042641e+001 -5.942769e-001 -7.329523e-001 -6.355254e-001 -2.817507e-001 -7.173415e-002 -1.812697e-001 6.648190e-001 1.190240e+000 1.286303e+000 9.998971e-001 1.183127e+000 9.154431e-001 -2.627213e-001 1.456737e-001 1.174428e-001 5.285655e-002 -8.175538e-003 -1.502158e-001 -3.015464e-001 -3.880032e-001 -4.060579e-001 -2.021002e-001 -2.393719e-001 -2.458376e-001 -8.739559e-002 8.788190e-002
<VARIANCE> 39
 8.201388e+000 8.011840e+000 1.040835e+001 9.299870e+000 1.254316e+001 2.027181e+001 1.658231e+001 1.851312e+001 1.696237e+001 2.181775e+001 1.808859e+001 1.345012e+001 1.293732e+001 1.669403e-001 5.284014e-001 3.170034e-001 6.620210e-001 4.543227e-001 8.815317e-001 1.223168e+000 1.221317e+000 1.197179e+000 1.861096e+000 1.751553e+000 1.184061e+000 8.227804e-002 3.730889e-002 7.837187e-002 9.534563e-002 1.439457e-001 9.789507e-002 1.893710e-001 1.536616e-001 1.343331e-001 1.738107e-001 3.111148e-001 1.853268e-001 1.980194e-001 1.322233e-002
<GCONST> 7.165835e+001
<MIXTURE> 2 2.776741e-001
<MEAN> 39
 -1.517974e+001 -1.224492e+001 -3.746561e+000 -1.375695e+001 -1.227859e+001 -2.898584e-002 -1.078754e+001 -5.573914e+000 -7.376766e-001 -1.607928e+001 -8.425314e+000 -4.415979e+000 7.010410e+001 -7.746150e-001 -7.516491e-001 -5.365320e-001 1.447544e-001 6.624299e-001 8.449240e-001 8.993511e-001 7.942562e-001 6.248906e-001 6.497279e-001 6.964718e-001 7.753364e-001 -3.635486e-001 5.839166e-002 -3.583340e-002 -1.766950e-001 -1.220035e-001 -1.678538e-001 -5.455440e-002 1.527593e-001 4.356651e-001 3.384013e-001 4.588332e-001 2.109651e-001 8.076424e-002 7.684144e-002
<VARIANCE> 39
 2.956359e+000 5.086714e+000 9.350229e+000 7.962294e+000 1.121458e+001 2.017852e+001 1.715091e+001 1.739363e+001 2.310835e+001 2.074809e+001 1.872749e+001 2.373517e+001 4.956902e+000 2.769890e-001 3.396449e-001 6.719859e-001 8.349566e-001 1.295599e+000 1.258910e+000 1.513007e+000 2.307221e+000 2.673455e+000 2.802003e+000 2.665401e+000 1.844077e+000 1.486068e-001 2.196356e-002 5.520138e-002 1.051790e-001 1.677397e-001 1.812758e-001 2.548481e-001 1.765357e-001 1.636303e-001 2.406179e-001 3.612756e-001 3.662401e-001 3.146968e-001 1.236303e-002
<GCONST> 7.781765e+001
<MIXTURE> 3 6.775544e-002
<MEAN> 39
 -1.689370e+001 -1.313853e+001 -1.084567e+001 -1.791434e+001 -1.401454e+001 -5.832707e+000 -1.030832e+001 -1.870246e+000 3.863581e+000 9.773105e-001 5.096855e+000 1.101417e+001 7.206414e+001 -5.449040e-001 -7.501070e-001 -1.183486e-001 -1.107472e-001 -2.083740e-002 -1.171098e-001 4.841224e-001 8.857250e-001 9.636071e-001 1.073470e+000 9.198623e-001 9.809828e-001 -1.737383e-001 3.851722e-003 -6.120795e-003 2.248984e-001 1.260212e-001 5.795376e-002 1.893529e-002 -1.626946e-001 -2.657451e-001 -3.215489e-001 -4.748225e-001 -4.224430e-001 -2.558798e-001 -8.406725e-002
<VARIANCE> 39
 3.363928e+000 9.407329e+000 2.466462e+000 4.797467e+000 4.702788e+000 1.246392e+001 3.094997e+001 2.818969e+001 1.511155e+001 6.802393e+000 7.621826e+000 9.101531e+000 1.048604e+000 1.486776e-001 3.891735e-001 6.163567e-001 8.225797e-001 9.722886e-001 1.643265e+000 1.430771e+000 1.989252e+000 2.265024e+000 3.444361e+000 3.444933e+000 1.726447e+000 1.728850e-001 3.488598e-002 9.096734e-002 1.089743e-001 1.213496e-001 1.030330e-001 3.513526e-001 2.382708e-001 2.835693e-001 2.857270e-001 2.900634e-001 3.264413e-001 1.363321e-001 2.265815e-002
<GCONST> 7.195070e+001
<MIXTURE> 4 4.344499e-001
<MEAN> 39
 -1.384333e+001 -1.547619e+001 -5.912265e+000 -1.808159e+001 -1.318526e+001 -3.714550e+000 -9.481696e+000 5.336621e-002 4.747378e+000 -1.374652e+001 -3.924582e+000 -2.466081e+000 7.437000e+001 -1.611270e-001 -2.060773e-001 -7.314884e-003 -1.031189e-002 -4.184560e-002 1.564875e-001 3.132810e-002 -6.449881e-002 2.719829e-002 3.935811e-002 1.388514e-001 5.173904e-002 -1.059505e-001 3.404266e-002 3.683828e-002 2.922045e-002 -8.234718e-003 2.506297e-002 1.845407e-002 6.692021e-002 3.337409e-002 -2.018114e-002 -6.705042e-002 -9.215583e-002 -8.446682e-002 9.925704e-003
<VARIANCE> 39
 2.102122e+000 4.321661e+000 7.890549e+000 1.032448e+001 8.497556e+000 2.074655e+001 1.949815e+001 1.990317e+001 2.493853e+001 2.172535e+001 2.304367e+001 1.826123e+001 7.815691e-001 9.840012e-002 2.518679e-001 4.043621e-001 4.913416e-001 9.558880e-001 9.991023e-001 1.044937e+000 1.140871e+000 1.300216e+000 1.549222e+000 1.543374e+000 1.456910e+000 3.283634e-002 1.920843e-002 4.049297e-002 7.530656e-002 9.482919e-002 1.685364e-001 1.718185e-001 2.194309e-001 1.653137e-001 2.465631e-001 2.758887e-001 2.760769e-001 2.509840e-001 5.544941e-003
<GCONST> 6.490675e+001
<TRANSP> 9
 0.000000e+000 1.000000e+000 0.000000e+000 0.000000e+000 0.000000e+000 0.000000e+000 0.000000e+000 0.000000e+000 0.000000e+000
 0.000000e+000 8.355135e-001 1.644865e-001 0.000000e+000 0.000000e+000 0.000000e+000 0.000000e+000 0.000000e+000 0.000000e+000
 0.000000e+000 0.000000e+000 7.857212e-001 2.142787e-001 0.000000e+000 0.000000e+000 0.000000e+000 0.000000e+000 0.000000e+000
 0.000000e+000 0.000000e+000 0.000000e+000 8.176523e-001 1.823477e-001 0.000000e+000 0.000000e+000 0.000000e+000 0.000000e+000
 0.000000e+000 0.000000e+000 0.000000e+000 0.000000e+000 8.244014e-001 1.755987e-001 0.000000e+000 0.000000e+000 0.000000e+000
 0.000000e+000 0.000000e+000 0.000000e+000 0.000000e+000 0.000000e+000 8.062915e-001 1.937086e-001 0.000000e+000 0.000000e+000
 0.000000e+000 0.000000e+000 0.000000e+000 0.000000e+000 0.000000e+000 0.000000e+000 8.253333e-001 1.746667e-001 0.000000e+000
 0.000000e+000 0.000000e+000 0.000000e+000 0.000000e+000 0.000000e+000 0.000000e+000 0.000000e+000 8.306212e-001 1.693789e-001
 0.000000e+000 0.000000e+000 0.000000e+000 0.000000e+000 0.000000e+000 0.000000e+000 0.000000e+000 0.000000e+000 0.000000e+000
<ENDHMM>
